#ifndef __160_0_75_WEIGHTS_BIAS_H__
#define __160_0_75_WEIGHTS_BIAS_H__


/* Layer 1 Learned Parameters */
#define CONV1_BIAS \
 {-8084871, 115739, 49078, -5723552, 18650, -28889384, -9161951, 47758, 42126, 218338, 154876, 17386, 193501, 64369, -10627675, 23025, -36222712, 220105, -4754305, 120539, 10616, 541010, -8244058, 25388}
#define CONV1_WT {0}
static const uint8_t CONV1_W_Z[] = 	 {-5, 253, -128, 32, -128, -160, -160, -203, -46, -16, -141, -86, -154, -91, 100, -69, -45, -245, -149, -157, -90, -1269, -146, -147};
#define CONV1_IN_Z      	(127)
#define CONV1_OUT_Z     	(0)
static const int32_t CONV1_M_ZERO[] = 	 {1137572992, 1266350080, 1267364096, 1917690624, 1237428736, 1904191104, 1098937088, 1255289216, 1734508800, 1431569024, 1380623616, 1688990208, 1547199744, 1577059712, 1493786496, 1529983232, 1686028416, 1316147968, 1937356032, 1287195776, 1320659968, 1850400128, 1898231808, 1374032640};
static const int8_t CONV1_N_ZERO[] = 	 {0, 0, 0, 0, 0, 0, 0, 0, 0, 0, 0, 0, 0, 0, 0, 0, 0, 0, 0, 0, 0, 0, 0, 0};


/* Layer 2 Learned Parameters */
#define CONV2_BIAS \
 {-137, -140494, 17287, -265, 35525, 184, -258, -21804, -13885, 7472, -40951, 65766, 45435, 12812, -3036, 52381, -158, 12807, -541, 4194, 4285, 16604, -130, 46377}
#define CONV2_WT {0}
static const uint8_t CONV2_W_Z[] = 	 {-171, -24, -130, -205, -186, -178, -197, -37, -53, -117, -70, -224, -222, -181, -154, -217, -116, -140, -594, -56, -138, -49, -324, -209};
#define CONV2_IN_Z      	(0)
#define CONV2_OUT_Z     	(0)
static const int32_t CONV2_M_ZERO[] = 	 {1617361536, 1708328192, 1760259328, 1685949696, 2136683264, 1676719232, 1964752640, 1299746176, 1084574080, 1812449664, -1720040064, 1739063168, 1409500416, 1441120512, 1532612224, 1155453568, 1555734528, 1800857600, 1088516992, 1311989888, 1486147456, -1096501760, 1295056512, 1250188032};
static const int8_t CONV2_N_ZERO[] = 	 {0, 0, 0, 0, 0, 0, 0, 0, 0, 0, 0, 0, 0, 0, 0, 0, 0, 0, 0, 0, 0, 0, 0, 0};


/* Layer 3 Learned Parameters */
#define CONV3_BIAS \
 {15789, -8227, -13722, -333905, -45720, 948149, -9179, -7671, -23593, 10111, 8217, 28232, 33727, -9538, -26065, 7601, 5578, 11558, -29188, -1255, -3803, -24245, 12492, -6665, 17380, 3414, -24951, -40265, -54772, 12345, 507921, 17205, -26047, 68555, -30396, 42139, 17082, -6090, -30401, 24967, -53811, -12735, -44254, 21908, -28514, -10826, -29466, -20579}
#define CONV3_WT {0}
static const uint8_t CONV3_W_Z[] = 	 {-91, -54, -41, -146, -17, -122, -29, -148, -82, -67, -79, -132, -183, -79, -63, -160, -109, -155, -82, -110, -130, -28, -138, -58, -101, -125, -93, -21, -79, -85, -125, -114, -80, -162, -24, -187, -162, -94, -87, -130, -144, -128, -27, -153, -8, -65, -38, -42};
#define CONV3_IN_Z      	(0)
#define CONV3_OUT_Z     	(0)
static const int32_t CONV3_M_ZERO[] = 	 {1927038848, 1920225664, 1118727680, 1784823168, 1566699648, 1163832192, 1438664832, 1201934848, 1244879872, 1436054144, 1577486592, 2099393536, 1810912000, 1256647552, 1459106304, 1870014208, 1338692864, 1609911168, 1907456512, 1505832704, 1309892352, 1164021888, 2114798208, 1390983296, 1242610560, 1748776704, 1570210560, 1603111808, 1926089856, 1986707712, 1832073472, 1371312512, 1117656576, 1936784512, 1273291520, 1446905984, 1639721600, 1591259008, 1841368448, 1208575232, 1886158720, 1314020736, 1375993344, 1096013312, 1788192128, 2141904128, 1452946816, 2009898880};
static const int8_t CONV3_N_ZERO[] = 	 {0, 0, 0, 0, 0, 0, 0, 0, 0, 0, 0, 0, 0, 0, 0, 0, 0, 0, 0, 0, 0, 0, 0, 0, 0, 0, 0, 0, 0, 0, 0, 0, 0, 0, 0, 0, 0, 0, 0, 0, 0, 0, 0, 0, 0, 0, 0, 0};


/* Layer 4 Learned Parameters */
#define CONV4_BIAS \
 {8890, 35086, 48701, -300, 46571, 38, 4391, 41670, 108533, 11274, 3221, 34563, 1962, 76866, 12873, 210662, 15276, 167040, 1868, -18529, 1048, 17337, 119781, 9292, -389, 48846, 52530, 5049, 1948, 8646, -4337, 5162, 8398, 87803, 5626, 101, 48206, 8445, -2051, 790, -1940, 78786, 1844, 181875, 113962, 1817, 24300, 10968}
#define CONV4_WT {0}
static const uint8_t CONV4_W_Z[] = 	 {-94, -167, -274, -224, -236, -161, -128, -143, -288, -162, -104, -295, -129, -104, -115, -273, -164, -237, -109, -88, 7, -98, -296, -151, -80, -195, -272, -85, 40, -115, -119, -100, -78, -242, -89, -121, -252, -82, -136, 15, -59, -251, -16, -252, -254, 33, -124, -14};
#define CONV4_IN_Z      	(0)
#define CONV4_OUT_Z     	(0)
static const int32_t CONV4_M_ZERO[] = 	 {1288772608, 1462102272, 1685571072, 1405718016, 2134503040, 1104785664, 1312350336, 1140658304, 1905542912, 1335042176, 1653724032, 1789287296, 2016464384, 1885725184, 1168775168, 1333326208, 2131417728, 1869406336, 1496652544, 1762379392, 1601934848, 1267675264, 1108323200, 1081063680, 1350700928, 1906697344, 1777091840, 1948575872, 1299564544, 1208837632, 1079692672, 1449364992, 1461278080, 1673113472, 1395726336, 2017465088, 1095245568, 1364479360, 1604778240, 1342994304, 1363582976, 1793555712, 1578073600, 1404810624, 1137294592, 1214101120, 1318963328, 1814188032};
static const int8_t CONV4_N_ZERO[] = 	 {0, 0, 0, 0, 0, 0, 0, 0, 0, 0, 0, 0, 0, 0, 0, 0, 0, 0, 0, 0, 0, 0, 0, 0, 0, 0, 0, 0, 0, 0, 0, 0, 0, 0, 0, 0, 0, 0, 0, 0, 0, 0, 0, 0, 0, 0, 0, 0};


/* Layer 5 Learned Parameters */
#define CONV5_BIAS \
 {28776, 35867, -2854, 39000, 27930, -9372, 119949, 87001, -334, 33983, 11614, 55369, 70211, -33993, 52595, -19829, -5134, 842, -12524, -39604, 5448, 56451, 15815, -34486, 180331, -31924, 1393, 22145, 15544, 10224, 10572, 27897, -44403, 10746, 8862, -1022, 14068, 49387, -54737, -48749, -4783, 12018, -9470, -34752, -27499, 29180, -52891, -33130, 262114, 15903, 18890, -42560, 22417, -7235, -13287, 15060, 18845, 5347, 6697, 663, 52154, -15063, 16207, 16827, 5686, 113519, -7851, 48360, 7672, 35756, -39735, 23377, -44680, 68662, 53258, -37908, 8484, 35002, 14523, -32678, -14462, 20776, -7584, 44845, 62273, 31240, 3011, 83291, -14022, 11850, 59014, 1736, -33381, 39074, -60849, 39571}
#define CONV5_WT {0}
static const uint8_t CONV5_W_Z[] = 	 {-155, -152, -132, -132, -175, -110, -131, -182, -180, -196, -86, -218, -114, -78, -124, -111, -117, -150, -122, -82, -120, -150, -92, -42, -189, -128, -170, -97, -113, -150, -136, -110, -128, -187, -106, -117, -176, -156, -100, -49, -109, -154, -58, -82, -46, -157, -38, -93, -130, -157, -169, -48, -155, -83, -107, -134, -115, -106, -38, -183, -120, -102, -102, -131, -130, -175, -133, -122, -141, -156, -27, -164, -46, -133, -184, -68, -117, -120, -139, -81, -156, -135, -57, -209, -143, -148, -102, -133, -154, -193, -163, -103, -43, -158, -88, -130};
#define CONV5_IN_Z      	(0)
#define CONV5_OUT_Z     	(0)
static const int32_t CONV5_M_ZERO[] = 	 {1364072704, 1174221568, 1318170368, 2095382528, 1630778624, 1126018304, 1537039744, 1475166208, 1695529344, 1708426880, 2109213440, 1519197184, 1258692352, 1428365696, 1759998720, 1875566464, 1816239488, 2058470656, 1989574400, 1741514496, 1980631936, 1840349696, 1762105216, 1664820352, 1144866944, 1685982848, 1432962176, 1074735616, 1621171456, 1781019520, 2069036032, 1779759744, 2072758912, 1870654336, 1344294656, 1502469760, 1271568768, 1481239296, 1284612864, 2092108928, 1095474816, 1686624256, 1429513216, 1599078400, 2078973696, 1111587072, 1297006720, 2145662208, 1555664640, 1097679744, 1417238784, 2118747648, 1417359360, 1749671936, 1483111552, 1563377664, 2121249664, 1320129536, 1968152704, 1495819520, 1336457344, 1931842688, 1946108800, 1458121984, 1178913664, 1901066112, 1775808000, 1676283392, 1715458560, 1471276288, 1411437312, 1356610688, 1639827456, 2146344576, 1532711936, 1710046720, 1243466752, 1079701504, 1213749760, 1866490496, 1896020992, 1361921536, 1846658816, 1385678080, 1948305280, 1523873664, 1460540672, 1298763392, 1109013504, 1084967296, 1282742016, 1222376192, 1536828672, 1342023552, 1543092224, 1344952064};
static const int8_t CONV5_N_ZERO[] = 	 {0, 0, 0, 0, 0, 0, 0, 0, 0, 0, 0, 0, 0, 0, 0, 0, 0, 0, 0, 0, 0, 0, 0, 0, 0, 0, 0, 0, 0, 0, 0, 0, 0, 0, 0, 0, 0, 0, 0, 0, 0, 0, 0, 0, 0, 0, 0, 0, 0, 0, 0, 0, 0, 0, 0, 0, 0, 0, 0, 0, 0, 0, 0, 0, 0, 0, 0, 0, 0, 0, 0, 0, 0, 0, 0, 0, 0, 0, 0, 0, 0, 0, 0, 0, 0, 0, 0, 0, 0, 0, 0, 0, 0, 0, 0, 0};


/* Layer 6 Learned Parameters */
#define CONV6_BIAS \
 {9000, 103768, 13096, -249, -575, 3500, 4968, 8215, 961, 1974, 8182, -6386, 4253, 1067, 28326, -245, 57171, 103287, -3361, -2003, 46010, -15020, 6410, 19137, 21279, 8265, -732, -18917, 25573, -7619, -3987, -95, 26595, -4627, -11941, 63790, 29927, 4743, -132, 11041, 48355, 34443, 291, -1006, 335, -1448, -5737, 8843, 280895, 24421, -53, -6858, 2942, 8669, -263, 1094, 56768, 670, 5800, 17569, 409, -7161, 6140, 37284, 7178, 20166, -1395, 3853, 21424, 67606, 36609, 59619, 5985, 312, 38131, 5950, 141, 18681, 211, -1927, 9901, 39550, 35341, 1706, 65051, -166, 11694, 3817, 3919, 27838, 261, -7816, 21838, -801, 2834, 4608}
#define CONV6_WT {0}
static const uint8_t CONV6_W_Z[] = 	 {-76, -222, -202, -119, -140, -82, -126, -128, -143, -143, -42, -36, -180, -85, -196, -89, -215, -235, -55, -99, -17, -53, -82, -240, -223, -21, -103, -24, -234, -18, -91, -127, -135, -37, -32, -217, -208, -183, -85, -80, -168, -116, -136, -86, -98, -75, -36, -210, -314, -179, -118, -40, -106, -85, -116, -32, -201, -91, -183, -153, -106, -47, -84, -120, -117, -235, -43, -43, -206, -237, -175, -221, -100, -114, -147, -83, -97, -49, -105, -34, -64, -183, -197, -113, -126, -114, -87, -83, -112, -132, -134, -51, -251, -90, -165, -25};
#define CONV6_IN_Z      	(0)
#define CONV6_OUT_Z     	(0)
static const int32_t CONV6_M_ZERO[] = 	 {1199222656, 1141263360, 1681969536, 1123453440, 1263197312, 1204781952, 2079309184, 2084465024, 1207674752, 1360511744, 1741441792, 1494604160, 1140587776, 1726449536, 1685769600, 1801403392, 2017349760, 1926942592, 1799636224, 1436383360, 1452702592, 1915778304, 1394417792, 1619497344, 1614108160, 1864679680, 1581936896, 1895979904, 1546572800, 1437400832, 1854894720, 1392231168, 1464788096, 1563242112, 1575275392, 1904079104, 1707696512, 1266951680, 2096138752, 1317166464, 1799123840, 1173580672, 1452926976, 1430141824, 1315722752, 1750223488, 1971099520, 1639159424, 1760342016, 1771351936, 1360925696, 1460130688, 1235870976, 1472744960, 1282202880, 1138586112, 1589767168, 1964681216, 1150216832, 1991310592, 1376759296, 1525561088, 1212256512, 1973910528, 1296991744, 1605539072, 1459065984, 2056032896, 1336508672, 1894444928, 1333224448, 2007167232, 1073774080, 1535833472, 1238720512, 1330264192, 1738412288, 1710365440, 1864510464, 1237641216, 1450204288, 1937095424, 2078403072, 1439852288, 1658951936, 1214059008, 1367145600, 1796477952, 1786033792, 2136410496, 1779577984, 1205001984, 1964402432, 1205930240, 1338300544, 1253681664};
static const int8_t CONV6_N_ZERO[] = 	 {0, 0, 0, 0, 0, 0, 0, 0, 0, 0, 0, 0, 0, 0, 0, 0, 0, 0, 0, 0, 0, 0, 0, 0, 0, 0, 0, 0, 0, 0, 0, 0, 0, 0, 0, 0, 0, 0, 0, 0, 0, 0, 0, 0, 0, 0, 0, 0, 0, 0, 0, 0, 0, 0, 0, 0, 0, 0, 0, 0, 0, 0, 0, 0, 0, 0, 0, 0, 0, 0, 0, 0, 0, 0, 0, 0, 0, 0, 0, 0, 0, 0, 0, 0, 0, 0, 0, 0, 0, 0, 0, 0, 0, 0, 0, 0};


/* Layer 7 Learned Parameters */
#define CONV7_BIAS \
 {7354, -7280, -9961, -7766, 102181, 38954, -491, -7276, 22536, 19384, -15646, -7308, 15322, 85168, -335, -14006, 4358, 38176, 10456, -7032, -34172, 17383, 56234, 114438, 181, -37385, 10102, -6781, -10148, 24218, 44536, 23639, 74656, 52684, 16754, 11328, -19961, -21760, 11518, 26267, -21389, 69107, 21035, 21851, 9941, -53304, 1225, 19723, 17792, -3017, -4289, 26949, 42748, 40992, 18481, -23315, -45991, -96350, 556, 16354, -920, -3972, 29159, -6869, 125, 5717, 22673, -1009, 10067, 14663, -43510, -9028, 10403, 3501, -17442, 579, 32730, -10817, 4650, 35276, 27200, 7709, -24344, -9282, -20590, -42931, 38429, 8696, 11917, 42614, -32518, 29436, 16026, -34092, 39070, 36501}
#define CONV7_WT {0}
static const uint8_t CONV7_W_Z[] = 	 {-70, -103, -98, -165, -134, -120, -193, -139, -125, -92, -132, -98, -80, -115, -122, -84, -126, -99, -128, -175, -123, -177, -111, -143, -137, -149, -117, -79, -81, -104, -107, -162, -120, -135, -121, -110, -125, -128, -108, -96, -63, -113, -170, -166, -116, -144, -101, -141, -49, -156, -145, -169, -180, -88, -165, -130, -105, -125, -153, -108, -45, -93, -147, -132, -125, -115, -117, -119, -74, -140, -122, -58, -117, -175, -117, -101, -141, -134, -123, -147, -195, -130, -143, -91, -142, -58, -179, -60, -138, -185, -133, -118, -122, -132, -181, -110};
#define CONV7_IN_Z      	(0)
#define CONV7_OUT_Z     	(0)
static const int32_t CONV7_M_ZERO[] = 	 {1597105408, 1712172928, 2016194688, 1381782016, 1950498560, 1880810240, 1990761984, 1969638784, 1124133632, 2142317184, 1875468672, 1331185536, 1209692160, 1172183168, 1334943872, 1379408384, 2058778880, 1222292224, 1100435840, 1382051712, 1450416256, 1238087936, 2005315328, 1423956352, 1270950656, 2045242368, 1534735360, 1089697536, 1745198464, 1493159424, 2075709952, 1288248320, 1458050176, 1227130624, 1161506560, 1122073728, 1752720896, 1082325120, 1099312640, 1890740096, 1978003584, 1427700480, 1923088256, 1960997760, 1475111168, 2145366016, 1331660544, 1959913472, 1579353984, 1261940096, 2075521536, 1865368320, 1846212352, 1350654720, 1595997184, 2040327424, 2023507840, 1765039488, 1437343744, 1200518400, 1176488704, 1752283648, 1482671104, 2029977600, 1174439552, 1249537920, 1457291392, 2056561792, 1337333504, 1112045312, 1627012992, 1372943488, 1582892160, 1636452736, 1111040000, 1176961536, 1166134016, 1962937216, 1937230720, 2083362176, 1201846656, 1269432192, 2011177856, 1129564800, 1328178432, 1755253760, 1114472192, 2061839104, 1383140992, 1295708416, 2027040640, 1965808512, 1307442560, 1172370816, 2077449088, 1117711360};
static const int8_t CONV7_N_ZERO[] = 	 {0, 0, 0, 0, 0, 0, 0, 0, 0, 0, 0, 0, 0, 0, 0, 0, 0, 0, 0, 0, 0, 0, 0, 0, 0, 0, 0, 0, 0, 0, 0, 0, 0, 0, 0, 0, 0, 0, 0, 0, 0, 0, 0, 0, 0, 0, 0, 0, 0, 0, 0, 0, 0, 0, 0, 0, 0, 0, 0, 0, 0, 0, 0, 0, 0, 0, 0, 0, 0, 0, 0, 0, 0, 0, 0, 0, 0, 0, 0, 0, 0, 0, 0, 0, 0, 0, 0, 0, 0, 0, 0, 0, 0, 0, 0, 0};


/* Layer 8 Learned Parameters */
#define CONV8_BIAS \
 {98048, 80812, 3007, 39905, 1978, 231531, 14859, 8217, -1241, 116153, 1285, -195, 137026, 130724, 9543, 1659, 2466, 1951, 31792, 150791, 3286, 12306, -63129, 161546, -54446, 838, 41802, 41737, 42841, -857, 121655, 116674, 61059, 68627, 180231, -59, 5139, 6162, -37258, 89169, 11, -58862, 1518, 151890, 2417, 128998, 88503, 255473, 54906, 10144, 55864, 6699, -2589, 809, 208940, 2523, 125967, 6476, 3800, -55, 21455, 1398, -5806, 67400, 110638, 100126, 2052, 135676, -30965, 1038, 407, 129618, 8360, 18334, -538, 2473, -56571, -6687, -24150, 10189, 241223, 117822, 10810, 2370, 978, 12436, 3241, 35091, -827, 11061, 3323, 73560, 87598, -125, 50026, 2536}
#define CONV8_WT {0}
static const uint8_t CONV8_W_Z[] = 	 {-304, -364, 59, -321, -157, -318, 77, 60, -93, -300, 95, 34, -345, -290, 62, 50, 43, -152, -127, -327, -151, 88, 65, -304, 64, 83, -171, -349, -106, 68, -329, -314, -192, -322, -353, 108, 84, 80, 65, -380, 73, 49, -80, -304, 47, -304, -408, -346, -259, 51, -316, 59, -147, -88, -307, 77, -336, 48, 100, 63, -271, 53, -150, -308, -310, -322, 61, -355, 76, 29, 82, -301, 97, -338, 72, 89, 64, -147, 41, 55, -342, -416, 52, 84, 67, -65, 78, -302, 70, 55, 85, -401, -262, 68, -326, -111};
#define CONV8_IN_Z      	(0)
#define CONV8_OUT_Z     	(0)
static const int32_t CONV8_M_ZERO[] = 	 {1140608896, 1335261568, 1968261632, 1199654656, 1580410752, 1122857472, 1806138112, 1744661248, 1118370944, 1432710528, 1686336768, 1111127808, 1262787712, 2080785408, 1165849088, 1998587136, 1926022912, 1212314240, 1405410816, 1127022848, 1344312192, 1990983296, 1981967360, 1876365440, 2146899072, 1771384064, 1889214592, 1128052224, 1983694464, 1385462400, 1912143104, 2129927680, 1974105344, 1550259456, 1367963136, 1854576512, 1699459456, 1281430016, 1474684800, 1409811072, 1160543104, 1898516992, 1784328960, 1955234560, 1305614976, 1698871296, 1742378240, 1187801216, 1572489600, 1536177664, 1865687424, 1221530624, 1957961728, 1525165952, 1311916800, 1893467648, 1324880768, 1552940416, 1518243584, 1626786688, 1204858496, 2106660736, 1731025280, 1723305344, 1995337344, 1720069760, 1716274816, 2115240832, 1681355136, 1829493632, 2102040960, 1702951040, 1232486016, 1547255424, 1927732736, 1750035712, 1793551104, 1229996416, 1626869120, 1152626944, 1368156288, 2121206144, 1612599552, 1998275328, 1695222784, 1433160576, 1891454208, 1595688576, 2079909376, 1133916032, 1815142784, 1463167360, 1224393856, 1728146176, 1780236928, 1877908480};
static const int8_t CONV8_N_ZERO[] = 	 {0, 0, 0, 0, 0, 0, 0, 0, 0, 0, 0, 0, 0, 0, 0, 0, 0, 0, 0, 0, 0, 0, 0, 0, 0, 0, 0, 0, 0, 0, 0, 0, 0, 0, 0, 0, 0, 0, 0, 0, 0, 0, 0, 0, 0, 0, 0, 0, 0, 0, 0, 0, 0, 0, 0, 0, 0, 0, 0, 0, 0, 0, 0, 0, 0, 0, 0, 0, 0, 0, 0, 0, 0, 0, 0, 0, 0, 0, 0, 0, 0, 0, 0, 0, 0, 0, 0, 0, 0, 0, 0, 0, 0, 0, 0, 0};


/* Layer 9 Learned Parameters */
#define CONV9_BIAS \
 {20966, 8216, 10962, 14374, 12445, -4409, 44683, 72421, 62955, -10897, -7448, 25082, 5693, 5130, 65290, 41363, 330, 48739, 11196, 11390, -6398, 42670, 5911, 45824, 27411, 51696, 69579, 55480, 13827, 96000, 1100, 19016, 17964, 34759, 26281, 14610, 27509, -523, 38870, 66965, 22931, 94834, 58650, 52209, 13481, 45924, 21140, 96310, 89556, -16085, 28069, 22615, 53935, -2337, -7065, -16086, 78618, 19034, 71332, -29467, -7741, 44045, -25126, 3970, -4540, 29098, -20330, 8440, 5424, 55846, -23992, -30713, 41116, 8676, 8471, 19757, 38946, 20713, -35431, 6274, 49329, 76875, 21452, 7531, 74184, 48005, 53838, 30498, 596, 9263, 37901, 30502, -13618, 36071, -13909, -40366, 17118, 1052, -27290, 21338, 60138, 37346, 56004, 12453, 44290, 12509, 76421, 58522, 340, 30130, 21542, 21480, 42626, 8868, 38259, 27987, 23611, 36446, -11182, -28493, 48436, 80802, 4020, 17916, -25733, 30491, 23997, 54125, 14846, -4476, -11143, 40010, -48559, -16436, -23350, 29979, 13802, 16588, 33387, 64356, 39814, 60104, 8309, 37823, 30918, 16907, 6685, 15141, -4312, 17276, 42662, 14345, 16819, -13132, -10770, -25002, 87866, 51044, 43088, 69934, -2012, 116290, 86701, 13933, 40766, 25960, -39336, 2356, -7298, 22958, 20096, 24459, 14130, -10683, 17546, 11622, 31841, -9580, 1795, -17148, -13517, 42374, 8955, 10108, 25161, 35283, 1895, 40102, 37183, 8636, -4198, 10572}
#define CONV9_WT {0}
static const uint8_t CONV9_W_Z[] = 	 {-114, -106, -139, -74, -99, -118, -99, -104, -156, -169, -89, -157, -141, -161, -135, -109, -94, -127, -123, -169, -95, -130, -100, -106, -124, -122, -126, -143, -67, -124, -93, -129, -74, -137, -169, -111, -111, -70, -151, -160, -89, -232, -135, -121, -115, -166, -142, -120, -138, -138, -109, -106, -94, -77, -128, -78, -140, -136, -151, -101, -101, -160, -104, -91, -123, -154, -65, -131, -120, -114, -134, -53, -100, -150, -138, -83, -118, -211, -79, -111, -137, -154, -103, -53, -136, -123, -154, -99, -104, -116, -127, -145, -169, -114, -60, -119, -115, -103, -78, -98, -162, -112, -122, -110, -129, -74, -125, -171, -68, -132, -103, -106, -76, -143, -138, -129, -124, -121, -103, -101, -131, -133, -83, -113, -99, -144, -136, -176, -97, -60, -88, -112, -149, -94, -124, -98, -110, -107, -134, -160, -116, -112, -68, -116, -79, -111, -83, -79, -114, -83, -96, -131, -115, -117, -128, -107, -158, -111, -131, -134, -102, -142, -88, -123, -151, -98, -105, -110, -103, -87, -58, -127, -169, -49, -117, -108, -130, -115, -39, -83, -120, -93, -141, -114, -64, -106, -70, -159, -96, -110, -89, -76};
#define CONV9_IN_Z      	(0)
#define CONV9_OUT_Z     	(0)
static const int32_t CONV9_M_ZERO[] = 	 {1603477248, 2072577408, 1733714816, 1650255488, 1389098880, 1141593600, 2025853696, 1311323520, 1362504448, 1506261888, 1374460288, 1505013376, 1455008384, 1140342912, 1315758080, 1144697728, 1736645760, 2035342336, 1088683136, 1921165824, 1563563136, 1838349952, 1414092544, 2022997376, 1933626496, 1718496000, 1248214144, 1976119424, 1162884608, 2145951232, 1121311744, 1714687360, 1699752704, 1388555136, 1936076928, 1403276032, 1903324800, 1413304064, 1570500608, 1591948288, 1171271040, 1643100544, 1559898496, 1234192640, 2103138688, 1291698688, 1375214080, 1369090688, 1834046848, 1287357952, 2020661376, 1438351744, 1245493248, 1145064704, 2032817536, 1200144000, 1738865280, 1106377984, 1225257600, 1389320576, 1276107392, 1698391936, 1535973120, 1245433344, 1077264384, 1380550912, 1447459328, 1102536064, 1687335168, 1205485824, 1469247616, 2029700352, 1975224448, 1104519168, 1982671872, 1723975296, 1437567360, 1159564544, 1301439872, 1247823872, 1166363136, 1202511744, 2130430080, 1223421184, 1075482112, 1809275776, 1372887424, 1506030336, 1413827200, 1278179840, 1562884352, 2082557056, 1676961536, 1948571776, 1380231808, 1215425024, 1163923712, 1483784960, 1436851712, 1168344448, 1321051008, 1399540480, 1755808128, 1960896128, 1349217920, 1604917120, 1082611200, 1495126656, 2142831744, 1085245440, 1252240384, 1284595840, 1849491200, 1153108992, 1248238336, 1424686976, 2054155648, 1792300928, 1650093568, 1420264192, 1418363648, 1190513536, 2090921344, 1249801344, 1293614080, 1889419264, 1320528000, 1087403136, 1505960064, 1996400768, 1353124736, 1723945472, 1273224832, 1323781632, 2030962560, 2119374592, 1676631424, 1542585856, 2112892800, 1210525440, 1921426688, 1220678016, 1217784832, 1390532096, 1572037504, 1617396608, 1216997632, 2054601216, 1848762496, 1108523264, 1075836160, 1683837312, 1809630208, 1118480384, 1630694784, 1243486080, 1174295296, 1546623744, 1386835456, 1409393152, 1594268160, 1159896192, 1612299392, 1126220800, 1294372864, 1165515648, 1153097600, 1166650880, 1453989120, 1470485632, 1485730816, 1352203392, 1293101696, 1263920256, 1129339520, 1145742976, 2126391040, 1324603136, 1095433216, 1939959168, 1803504128, 1816589952, 1275135872, 1705211136, 1995696896, 1260696448, 1104150144, 1374331520, 1514141184, 1101821312, 1391332096, 1076343296};
static const int8_t CONV9_N_ZERO[] = 	 {0, 0, 0, 0, 0, 0, 0, 0, 0, 0, 0, 0, 0, 0, 0, 0, 0, 0, 0, 0, 0, 0, 0, 0, 0, 0, 0, 0, 0, 0, 0, 0, 0, 0, 0, 0, 0, 0, 0, 0, 0, 0, 0, 0, 0, 0, 0, 0, 0, 0, 0, 0, 0, 0, 0, 0, 0, 0, 0, 0, 0, 0, 0, 0, 0, 0, 0, 0, 0, 0, 0, 0, 0, 0, 0, 0, 0, 0, 0, 0, 0, 0, 0, 0, 0, 0, 0, 0, 0, 0, 0, 0, 0, 0, 0, 0, 0, 0, 0, 0, 0, 0, 0, 0, 0, 0, 0, 0, 0, 0, 0, 0, 0, 0, 0, 0, 0, 0, 0, 0, 0, 0, 0, 0, 0, 0, 0, 0, 0, 0, 0, 0, 0, 0, 0, 0, 0, 0, 0, 0, 0, 0, 0, 0, 0, 0, 0, 0, 0, 0, 0, 0, 0, 0, 0, 0, 0, 0, 0, 0, 0, 0, 0, 0, 0, 0, 0, 0, 0, 0, 0, 0, 0, 0, 0, 0, 0, 0, 0, 0, 0, 0, 0, 0, 0, 0, 0, 0, 0, 0, 0, 0};


/* Layer 10 Learned Parameters */
#define CONV10_BIAS \
 {49403, 37063, -1158, -428, 3323, -135, -158, 51582, 359, 2723, 32796, -22166, -8482, -12933, -671, 488, 33232, 1215, 36076, 8898, 85, 1601, 19480, -8627, 48386, -4079, 1219, -5165, -1097, 11348, -3471, -1866, 295, 15813, -6101, -7110, 33087, -137, 31128, 3705, 35475, 94866, 32231, 24660, -93, 41930, 31137, 36734, 12162, -3062, 73706, 4423, 39714, -5609, -3111, -5992, 12956, 21432, -784, -164, 9714, -1325, 334, 226, 737, -3238, -6524, 32490, -276, 907, 95572, -87, 20746, 71094, 14260, -707, 195, -7205, 10838, -34901, -7230, -6288, -141, -1221, 43, 13, -7741, 348, -2362, 54358, -6551, -148, 80455, 10609, -25, -1978, -8353, -5109, 333, 31859, 30528, -5207, -692, -276, 2709, -1575, -1386, -121, 1613, -37036, -866, 39808, 283, 14857, 667, 7275, -5348, 13590, -8072, 146, -1233, 12055, -8886, 5713, 2068, 25317, 883, 125, 47, 30904, 157, 29662, -4248, 22515, 45036, -10, 26, -5540, 38331, 1014, -271, 29994, 19752, -339, 308, -901, 62041, -11869, 5500, 642, -190, -102, 36787, 727, -2157, 1177, -6461, 318, 983, 7214, 24218, 4565, 355, -8046, -29, -1182, -10220, -184, 308, 29915, -827, 33803, 93051, -11862, 898, 70073, -640, -1450, 2126, -4004, -3987, 61938, 42740, 103, 20806, -565, 26844, 1981, 1202, -1052, -10703, 29574}
#define CONV10_WT {0}
static const uint8_t CONV10_W_Z[] = 	 {-235, -226, -119, -65, -64, -128, -117, -198, -151, -123, -232, -7, -30, -27, -118, -85, -260, -89, -238, -62, -99, -202, -229, -37, -219, -80, -96, -86, -110, -102, -75, -127, -96, -71, -88, -39, -233, -109, -228, -71, -239, -242, -169, -217, -87, -302, -232, -236, -62, -116, -274, -196, -233, -38, -50, -26, -187, -235, -108, -145, -52, -152, -59, -91, -83, -46, -37, -241, -106, -38, -261, -48, -229, -269, -71, -53, -120, -28, -47, -68, -62, -116, -59, -60, -145, -42, -27, -100, -46, -226, -79, -113, -227, -47, -40, -46, -50, -35, -134, -245, -214, -70, -60, -83, -59, -55, -123, -104, -199, 64, -32, -192, -125, -187, -141, -174, -35, -95, -34, -55, -105, -113, -22, -114, -130, -226, -108, -79, -116, -240, -55, -212, -44, -186, -208, -82, -39, -32, -290, -90, -151, -215, -219, -118, -149, -64, -228, -78, -194, -128, -128, -40, -224, -94, -27, -130, -61, -95, -110, -53, -217, -85, -114, -26, -31, -24, -42, -82, -101, -214, -136, -209, -374, -64, -111, -256, -128, -76, -135, -41, -36, -247, -274, -144, -222, -129, -220, -162, -87, -47, -29, -238};
#define CONV10_IN_Z      	(0)
#define CONV10_OUT_Z     	(0)
static const int32_t CONV10_M_ZERO[] = 	 {1620889344, 1707030528, 1748429824, 1603537152, 1686830720, 1502539648, 1844195456, 1676337536, 1125316480, 1369073152, 1107905152, 1312647808, 1306492160, 1947881216, 1473354496, 1211947008, 1714940288, 1183295360, 1307257472, 1225569408, 1432015744, 1183721728, 1864446208, 1084511360, 1274668416, 1882123008, 1428439040, 1359423360, 1122367872, 2132383744, 1523162112, 1515922560, 1609808512, 1373204352, 1412818432, 1174180096, 1471668224, 2092163968, 1954388992, 1133222144, 1899879936, 1102303616, 1647294336, 1147255168, 1629378688, 1259725952, 1115535232, 1335942272, 1449525632, 1496834176, 1789225728, 1619481728, 1977513472, 1211233280, 1664340224, 1998692992, 1546948736, 2075151360, 1909160064, 1368951808, 1588425472, 1704440960, 1346235264, 1308218624, 1176486656, 1181881344, 1182213760, 1431103744, 1131140864, 1099847680, 1747085568, 1502975488, 1326703104, 1093186304, 1917931136, 1077152640, 1382201856, 1995161856, 1867998336, 1460883968, 1392584960, 1545584896, 1491959296, 1626859520, 1782152320, 1261207936, 1073895168, 1089211904, 1252239488, 1947199232, 1188526976, 1236907008, 1085900032, 1620618112, 1271302144, 1433306880, 1695889920, 2051218688, 1589870336, 1482940032, 1535819136, 1382702464, 1622709376, 1103621760, 1317817984, 1134871296, 1741232640, 1140531328, 1459142016, 1814772480, 2003731200, 1507687680, 1613392512, 1144642048, 1232194944, 1795887488, 1118105984, 1111488640, 1258206464, 1725773824, 1932893312, 1763552384, 1841902592, 1448839680, 1332839168, 1174874368, 1124714240, 1986706432, 1188085888, 1907441920, 1661478784, 1189268480, 1749840384, 1332981248, 1304236288, 2044756864, 1293685120, 2109947264, 1694006272, 1238154112, 1115414528, 1411890560, 1148958848, 2057733632, 1143615872, 1986024320, 1207511296, 2031995008, 1243703680, 1454639360, 1209513984, 1542225920, 1196926208, 1149528832, 1104539008, 1957588224, 1129448704, 1585758336, 1113951232, 1385294464, 1417308416, 1634637184, 1511038464, 1720584704, 1177433088, 1492212480, 2144321536, 1681230208, 1519902592, 1952061568, 1729081344, 1653500416, 1383986048, 1085554560, 1282891264, 1554120832, 1923258496, 1409345664, 2102339328, 1761808896, 1109802112, 1484899072, 2137372928, 1913284096, 1287360896, 1142160384, 1888544128, 1829337216, 1231620352, 1440544512, 1628643328, 1113058560};
static const int8_t CONV10_N_ZERO[] = 	 {0, 0, 0, 0, 0, 0, 0, 0, 0, 0, 0, 0, 0, 0, 0, 0, 0, 0, 0, 0, 0, 0, 0, 0, 0, 0, 0, 0, 0, 0, 0, 0, 0, 0, 0, 0, 0, 0, 0, 0, 0, 0, 0, 0, 0, 0, 0, 0, 0, 0, 0, 0, 0, 0, 0, 0, 0, 0, 0, 0, 0, 0, 0, 0, 0, 0, 0, 0, 0, 0, 0, 0, 0, 0, 0, 0, 0, 0, 0, 0, 0, 0, 0, 0, 0, 0, 0, 0, 0, 0, 0, 0, 0, 0, 0, 0, 0, 0, 0, 0, 0, 0, 0, 0, 0, 0, 0, 0, 0, 0, 0, 0, 0, 0, 0, 0, 0, 0, 0, 0, 0, 0, 0, 0, 0, 0, 0, 0, 0, 0, 0, 0, 0, 0, 0, 0, 0, 0, 0, 0, 0, 0, 0, 0, 0, 0, 0, 0, 0, 0, 0, 0, 0, 0, 0, 0, 0, 0, 0, 0, 0, 0, 0, 0, 0, 0, 0, 0, 0, 0, 0, 0, 0, 0, 0, 0, 0, 0, 0, 0, 0, 0, 0, 0, 0, 0, 0, 0, 0, 0, 0, 0};


/* Layer 11 Learned Parameters */
#define CONV11_BIAS \
 {1393, -12426, 9267, 8530, -43543, -2414, 10734, -27564, 92885, 78100, 13086, -6364, 11890, 110, 69378, 701, 12808, -5857, -18935, 77792, 26256, 447, 28161, -11239, 47398, -60667, 37462, 9473, 7735, 40858, 4490, 21608, 9603, 42364, 66804, 11613, -1337, -10682, 24093, 18672, 31466, 17667, 47574, 42200, -1839, -5549, 72741, 29984, -18684, -13998, 28989, 8619, -15564, 24083, 52506, -46159, 58953, 41742, -13337, 10213, 12869, 10771, 44769, 13569, -12946, 2782, -6354, -12554, -15291, -10977, 60504, 780, 11512, 10345, 20381, 55351, -6255, -37469, 40978, 3527, 19224, 15594, 55697, -22075, 57946, 47309, -4884, 442, -10713, 33849, 5800, 8592, 8242, -3636, 17569, -19866, -25821, 6741, -4199, -8099, 5485, -12190, 13122, 35950, 85527, 11322, -5802, 724, 61570, -18177, -9310, 21154, 36184, 11556, 41534, -6857, -41766, -4192, -2868, -12674, 60435, 8647, 42355, 40324, 47617, 44303, 34748, 62426, 22979, 9835, 1117, -20243, 5857, -815, -55388, -6313, -1781, 10735, 43964, 6600, 91173, 7555, -15329, 11331, -27046, -14689, 1476, 41236, -10680, 5218, 48824, 48358, 3208, 29282, -1108, -3821, 33138, 63331, -18549, 15068, 3453, 17034, 18155, 3553, 51210, -20550, 24464, 49961, 39121, -19941, 99833, -5626, 30145, 18688, 193626, 52344, -20716, -30582, 1443, -7226, -20681, -43319, 29642, -8007, -26818, -19689, 70995, 14769, 56505, -12703, 32557, -8405}
#define CONV11_WT {0}
static const uint8_t CONV11_W_Z[] = 	 {-162, -114, -129, -127, -103, -138, -159, -125, -144, -156, -118, -133, -115, -79, -110, -127, -168, -111, -129, -108, -134, -136, -130, -91, -127, -119, -106, -138, -127, -173, -105, -139, -132, -177, -138, -145, -138, -126, -133, -118, -99, -93, -123, -141, -113, -154, -145, -162, -123, -138, -106, -128, -117, -103, -150, -89, -116, -153, -120, -124, -67, -101, -159, -111, -82, -167, -90, -111, -127, -96, -132, -111, -148, -146, -120, -141, -126, -120, -117, -80, -154, -148, -154, -79, -125, -182, -84, -130, -139, -133, -107, -144, -126, -122, -96, -136, -117, -140, -111, -135, -115, -124, -109, -98, -124, -90, -100, -112, -126, -147, -85, -118, -126, -76, -139, -126, -96, -147, -155, -131, -131, -125, -160, -123, -113, -177, -176, -93, -113, -131, -110, -76, -115, -159, -102, -129, -135, -69, -149, -130, -105, -118, -105, -170, -143, -140, -156, -120, -123, -136, -127, -136, -117, -173, -139, -160, -137, -135, -99, -112, -147, -177, -169, -147, -124, -83, -107, -175, -121, -128, -157, -102, -90, -138, -152, -174, -127, -140, -173, -91, -116, -139, -117, -111, -121, -126, -172, -139, -165, -114, -77, -107};
#define CONV11_IN_Z      	(0)
#define CONV11_OUT_Z     	(0)
static const int32_t CONV11_M_ZERO[] = 	 {1610865792, 2033301760, 1424660864, 1257944448, 1724827776, 1187891968, 1109094528, 1395228160, 1389974144, 1551561216, 1640124032, 1680265216, 1527443712, 1821882624, 1966371456, 1569901312, 1844273536, 1843054080, 1486347264, 1538158976, 1745148160, 1601187456, 1502252928, 1371724032, 1174644224, 1757346688, 1396148736, 2100917376, 1589027456, 2049825024, 1392248832, 1180117248, 1487312384, 1173012864, 1325115136, 1342404352, 1402221824, 1797712640, 1566776960, 1468098944, 1116795264, 2091497856, 1997105408, 1682091520, 1348642048, 1353666432, 1253682688, 1184819456, 1194328448, 1236406144, 1853461760, 1416563328, 1996182656, 1165899520, 1380194688, 1499871232, 1463090688, 2087861760, 1830954496, 1777507328, 1325097472, 1137554176, 1838593408, 1962629888, 1321678336, 1200676096, 1970977920, 2041183104, 1512020736, 1423609728, 1799133312, 1561156992, 1725395072, 1695749120, 1951950208, 1263935872, 1675359232, 1246058752, 1856168064, 1429005440, 1901747840, 1757705088, 1479353856, 1742458880, 1258762880, 1148636416, 1294445184, 1743949312, 1706637568, 1669407616, 1215912704, 1564090880, 1866949120, 1350864640, 1813031808, 1332776576, 1805550336, 1411584640, 1867970944, 1639227136, 2071006976, 1901251712, 1618038912, 1456736768, 1156407424, 1320020864, 1258439808, 1769102208, 1598521856, 2047101056, 1120955264, 1340379520, 1597367936, 1435817728, 1873182976, 1645168640, 2112225152, 1087145728, 2056302592, 1612727936, 1755132288, 1497956480, 1354651136, 1164522112, 1699114752, 1490514432, 1634844416, 1729170304, 1831898368, 1563105536, 1651806976, 1157575808, 1241065216, 1863528448, 1132157696, 1460559744, 1973481472, 1492016768, 1824924416, 1368423808, 2088373632, 1514663168, 1258162816, 1715362432, 2120737664, 1508610560, 1991756928, 1234183424, 1294645760, 1076743808, 1906016256, 1191480704, 1803894528, 1257660928, 1695038336, 1129834368, 1184348544, 1492295424, 1078794880, 1864240000, 1348888448, 1334649984, 1244095104, 1750354560, 1601228032, 1087001728, 1934336512, 1372910848, 2071224704, 1167168512, 1892049024, 1571553280, 2071537536, 1776485120, 2097685376, 1195500800, 1596947200, 1813753344, 2104919168, 1585382272, 1311002368, 1476797824, 1111617408, 1092741376, 1804356096, 1778476160, 1874111744, 1186364288, 1243288704, 1525050240, 2103993984, 1262616832};
static const int8_t CONV11_N_ZERO[] = 	 {0, 0, 0, 0, 0, 0, 0, 0, 0, 0, 0, 0, 0, 0, 0, 0, 0, 0, 0, 0, 0, 0, 0, 0, 0, 0, 0, 0, 0, 0, 0, 0, 0, 0, 0, 0, 0, 0, 0, 0, 0, 0, 0, 0, 0, 0, 0, 0, 0, 0, 0, 0, 0, 0, 0, 0, 0, 0, 0, 0, 0, 0, 0, 0, 0, 0, 0, 0, 0, 0, 0, 0, 0, 0, 0, 0, 0, 0, 0, 0, 0, 0, 0, 0, 0, 0, 0, 0, 0, 0, 0, 0, 0, 0, 0, 0, 0, 0, 0, 0, 0, 0, 0, 0, 0, 0, 0, 0, 0, 0, 0, 0, 0, 0, 0, 0, 0, 0, 0, 0, 0, 0, 0, 0, 0, 0, 0, 0, 0, 0, 0, 0, 0, 0, 0, 0, 0, 0, 0, 0, 0, 0, 0, 0, 0, 0, 0, 0, 0, 0, 0, 0, 0, 0, 0, 0, 0, 0, 0, 0, 0, 0, 0, 0, 0, 0, 0, 0, 0, 0, 0, 0, 0, 0, 0, 0, 0, 0, 0, 0, 0, 0, 0, 0, 0, 0, 0, 0, 0, 0, 0, 0};


/* Layer 12 Learned Parameters */
#define CONV12_BIAS \
 {83188, 85271, 96699, -3756, 62219, 8697, 8435, 1496, 8170, 2549, 72892, -1603, 66928, 98005, 184298, 5338, 123, -49349, 148092, 1908, 167104, 6945, 140743, 54145, 80152, 2545, 181702, 98574, 9642, -2112, 18352, 104869, 2645, 192296, 146529, 581, 110190, 2624, 50640, 64201, 135157, 84328, 120149, 161341, -950, 40760, 85955, 8746, 103114, 4392, 74999, -546, -5111, 123346, 4216, -333, 389, -3372, 82824, 6102, 106139, -1359, 11264, 105687, -1680, 107868, 5516, -1032, 323, 2149, 113512, -2265, 120579, -63, 78137, 76796, 139180, -1005, -1803, 56601, 7270, 17025, -1926, -443, 92449, 100241, 84290, -1874, 3307, 109119, 50, 94584, -1192, 52089, 15064, -1555, 141630, 1774, 3943, -1355, 15918, -1716, 7079, 19630, 131375, 4031, 672, 80331, 121064, -3398, 1391, 241796, 71957, -2169, 2681, 1056, -2545, 91763, 962, 201945, 14394, 1271, 777, 113023, 7384, 155997, 5746, -27188, 97390, 61193, 94639, -670, 4193, 142057, 130895, 2836, 83600, 77193, 136820, -24658, 10568, 87192, 82334, 96049, -9528, 7932, -386, 106962, -936, 168619, -390, 105, 3478, 104156, 841, 4191, -880, 187651, 143003, 163595, -1530, 76045, 838, -560, 17032, 16337, -2348, 202236, 194249, 3633, 17816, 115764, 16438, -1156, -9983, 113737, 9842, -844, 5907, 106653, 1958, 1925, 86532, -132, 57246, 107030, 108820, 166091, 9218, 13507, 98022, -1363}
#define CONV12_WT {0}
static const uint8_t CONV12_W_Z[] = 	 {-281, -366, -407, 79, -287, 68, 75, 69, 75, -163, -324, 94, -297, -400, -327, 77, 103, 173, -358, -164, -321, 60, -297, -336, -270, 79, -346, -328, 100, 68, 93, -321, 75, -322, -315, 99, -331, -52, -376, -314, -289, -315, -305, -350, 90, -123, -320, 96, -340, 88, -281, 67, 123, -289, 58, -67, -149, 75, -315, 88, -291, 70, 69, -267, 104, -336, 90, 38, 142, 107, -294, -108, -302, 81, -313, -367, -321, 67, -142, -260, 64, 87, -81, 70, -331, -368, -309, 74, 59, -322, -112, -343, -96, -353, 111, 38, -404, 56, 110, 62, -155, 44, 62, -129, -301, 44, 73, -340, -314, 70, 61, -325, -345, -156, 58, 76, 100, -324, 73, -338, -102, -110, 64, -337, -99, -323, -104, 49, -365, -313, -336, 42, -116, -349, -294, 51, -355, -303, -312, 106, -106, -319, -354, -364, -93, 103, 50, -293, 125, -317, -160, -89, 130, -282, 75, 67, 81, -321, -472, -358, 62, -384, 71, 36, 134, 59, 89, -325, -337, 108, -125, -385, 62, 82, -106, -319, 104, 78, 73, -288, 75, 91, -278, -171, -328, -345, -290, -317, -110, 64, -293, 73};
#define CONV12_IN_Z      	(0)
#define CONV12_OUT_Z     	(0)
static const int32_t CONV12_M_ZERO[] = 	 {1423912064, 1073803264, 1163062656, 1795854720, 1632788480, 1094500864, 1841774464, 1096924160, 1208451456, 1395258112, 1523512960, 1308049408, 1649128064, 1704687488, 1240728832, 1944040064, 2022794112, 1398885888, 1869848448, 2122783616, 1322010496, 1708446208, 1475239936, 1085222144, 1219044480, 1418932096, 1312389632, 1157835008, 1951728128, 1376186880, 1802074496, 1866450560, 1427462016, 1633975936, 1961277184, 1091023872, 1590018432, 1089919488, 2050061056, 1619737856, 1475456512, 1372625152, 1886981120, 1334951296, 1456149120, 1487163136, 2003205504, 1742549376, 1181383168, 2135625088, 1440957184, 1967388288, 1344120832, 1878656384, 1613044736, 1985536256, 1248180096, 1958340864, 1322569728, 1832644480, 1979455104, 1114983680, 1253670656, 1766092032, 1075892096, 1837984768, 1153616384, 1753127552, 1453629312, 1139687424, 1985006208, 1272501504, 1507827584, 1789841536, 1985407232, 1513697536, 1267438080, 1627957632, 1629739136, 1356336256, 1679499392, 1600400000, 1638958976, 1333236864, 1275555328, 1382552832, 1487989120, 1379695872, 1625100928, 1697560832, 2077015552, 2092468096, 1928020352, 1826302848, 1666576128, 2130296832, 1508904064, 1995691648, 1282298368, 1577273984, 1812825728, 1280049664, 1434365184, 1909895040, 1829044992, 1683157120, 1607147648, 1530300288, 1803221376, 1834002560, 1192845056, 1200184320, 1371898240, 1541942784, 1370111360, 1501307264, 1600480256, 1369884800, 1850383104, 1119371136, 1484461824, 1656916096, 1854810624, 2050665856, 1346252160, 1421601152, 1191540224, 1634731520, 1154569600, 1661303680, 1281997824, 2125465088, 1515190656, 2082197376, 1173676032, 1341808512, 1232172032, 2117968256, 1379199488, 2010712960, 1307826432, 1672679168, 1394976128, 1372338816, 1391585152, 1796882688, 1103421312, 1299702016, 1344445568, 1173090432, 1547155968, 2007701120, 1264120320, 1927204352, 1364975232, 1201948672, 1795674368, 1602408448, 1764186240, 1179079936, 1302792576, 1153143552, 1328159360, 1358282624, 1185003008, 1406553728, 2012998144, 1501413504, 1105290112, 1758560128, 1357074560, 1978621312, 1378175232, 1560241152, 1507301376, 1631185408, 1136429824, 1555887744, 1423731328, 1373255680, 1603664384, 2078384128, 1182804992, 1327749504, 1595124992, 1255241856, 1926850304, 1421348480, 1369382528, 1897499008, 1745657600, 1188612480};
static const int8_t CONV12_N_ZERO[] = 	 {0, 0, 0, 0, 0, 0, 0, 0, 0, 0, 0, 0, 0, 0, 0, 0, 0, 0, 0, 0, 0, 0, 0, 0, 0, 0, 0, 0, 0, 0, 0, 0, 0, 0, 0, 0, 0, 0, 0, 0, 0, 0, 0, 0, 0, 0, 0, 0, 0, 0, 0, 0, 0, 0, 0, 0, 0, 0, 0, 0, 0, 0, 0, 0, 0, 0, 0, 0, 0, 0, 0, 0, 0, 0, 0, 0, 0, 0, 0, 0, 0, 0, 0, 0, 0, 0, 0, 0, 0, 0, 0, 0, 0, 0, 0, 0, 0, 0, 0, 0, 0, 0, 0, 0, 0, 0, 0, 0, 0, 0, 0, 0, 0, 0, 0, 0, 0, 0, 0, 0, 0, 0, 0, 0, 0, 0, 0, 0, 0, 0, 0, 0, 0, 0, 0, 0, 0, 0, 0, 0, 0, 0, 0, 0, 0, 0, 0, 0, 0, 0, 0, 0, 0, 0, 0, 0, 0, 0, 0, 0, 0, 0, 0, 0, 0, 0, 0, 0, 0, 0, 0, 0, 0, 0, 0, 0, 0, 0, 0, 0, 0, 0, 0, 0, 0, 0, 0, 0, 0, 0, 0, 0};


/* Layer 13 Learned Parameters */
#define CONV13_BIAS \
 {34252, 121456, 58982, 52091, 55350, -9494, 13495, 77771, 27456, 39111, 45624, 16524, 3686, -32059, 78613, 27054, 26097, 28323, 48277, 41808, 45047, -8908, 1122, 48775, 27696, 19754, -37379, 29450, 12678, 40993, -27182, 21723, 8954, 36646, 1785, 1496, -4299, 64509, 69328, 39430, 68170, -7866, 27428, -24011, 11506, -11349, 14134, 37484, 12383, -22934, 27978, 43101, -4810, -14881, -6136, 28268, -19929, 11679, -8829, 43800, 27098, 36733, 11483, 52793, 45778, 66966, 21635, 9705, 71404, 16466, 8649, 23517, 22931, 33052, 37863, 29698, 32379, -1129, 39718, -15988, 27615, 4799, 26871, 3404, 47486, 37300, 35307, 100319, 39430, 35259, 41885, 48301, 65477, 98724, -37737, -22995, 30183, -6855, 60305, 82371, 27041, 29539, 36826, -17536, 383, -54383, 70601, 52493, 35768, -1617, 13794, 52128, 21361, -17140, 6884, 27343, 29420, 29622, 76652, -21710, 29822, 7819, 26047, 45624, -5189, 36842, 34712, 46622, 219, 38172, -2647, 13721, 1371, 18858, 85465, 34522, -47699, 12289, 67801, 29055, -21847, 39792, -53486, 24321, 9619, -24474, 66313, 21468, 48849, -32066, 19457, 12633, 50715, 27366, 13714, 53022, -1567, 3546, 75266, -8549, 72082, 100239, 22923, 31327, 28057, 39074, 64368, 49276, 27146, -59486, 3234, -49320, 53405, 14606, -370, -39514, -22268, 27967, 4544, 46101, 18573, -15127, 31026, 18488, 54871, 48362, 22526, 12973, 60103, 40254, -14132, 54443, 50999, 14548, 11730, 78539, 78291, 59167, -27821, 53156, 46047, 33087, 30255, 6331, 131772, 90088, 42710, 38179, 110756, 61131, 86648, 55451, -12333, 54667, 63462, -9173, -1358, 10798, 3248, -7750, -115780, -8689, 31972, -44937, 36832, 27630, 9339, -13115, 10599, 14301, 27584, 36916, 36972, 37318, 20786, 51213, 29687, 4589, 27976, 8584, 16209, 45880, 59713, 33841, -4327, -17760, -4828, -37164, 37144, 117530, 103585, 44261, 7546, 783, 32216, 30555, 76293, 7583, 38474, 57208, 109561, 72856, 37633, 25128, 51453, 10391, 6660, 30518, 22056, -3581, 103729, -14639, 40330, 42247, -22190, 40964, 30026, 4374, 84925, 57882, 46840, -27605, 119364, 32121, 32124, 9630, 19206, 76445, -12340, 15574, 7482, 12769, 47667, 49206, 71786, -42551, 30925, -3525, 44678, 23570, -10483, -10187, 65380, 11194, 53288, 17702, 72397, 59617, 120165, 7244, -25393, 17424, -12789, 35975, 13528, 39796, 31688, 24244, 11211, 141602, 42122, 9956, 69903, 2880, 31538, 8857, 46944, 65839, 40327, 55290, 21106, 21904, 142055, 56510, 43934, -33560, 27899, 11891, 20307, 6497, 20488, 64844, 72044, 43021, 36991, -5846, -14418, 50807, 45199, 72633, -9286, 48637, 22327, 2623, 102900, 5011, 16075, 35610, 74537, 58373, 72071, 69034, 52322, 61681, 22664, 14544, 26360, 35358, 19160, 2050, 79617, 20077, 22392, 53531, 15851, 24488, 2393, 81882, -6999, 93979, 60244, 62927, 25513, 26978}
#define CONV13_WT {0}
static const uint8_t CONV13_W_Z[] = 	 {-90, -150, -123, -142, -142, -114, -124, -131, -94, -147, -88, -144, -127, -132, -150, -120, -121, -110, -99, -96, -124, -160, -109, -96, -102, -124, -104, -139, -147, -144, -75, -120, -129, -169, -131, -109, -116, -145, -114, -139, -159, -152, -106, -124, -139, -80, -109, -124, -75, -109, -157, -184, -124, -150, -110, -152, -124, -97, -155, -95, -126, -130, -127, -146, -152, -185, -100, -124, -137, -122, -103, -128, -118, -152, -93, -122, -142, -132, -78, -115, -151, -146, -125, -118, -126, -121, -112, -128, -107, -201, -159, -108, -100, -135, -117, -130, -81, -123, -108, -175, -154, -164, -119, -117, -96, -116, -114, -114, -107, -116, -121, -112, -92, -126, -103, -137, -110, -68, -104, -129, -112, -112, -108, -104, -77, -123, -106, -113, -103, -115, -108, -86, -87, -139, -132, -132, -107, -102, -97, -119, -128, -83, -92, -92, -126, -130, -129, -115, -91, -102, -96, -118, -113, -126, -74, -109, -134, -76, -105, -90, -118, -140, -131, -132, -121, -82, -142, -99, -116, -87, -134, -123, -96, -127, -110, -99, -167, -150, -123, -126, -92, -130, -142, -191, -157, -153, -113, -144, -121, -115, -55, -143, -84, -125, -100, -121, -84, -131, -114, -144, -125, -168, -139, -107, -124, -135, -103, -114, -129, -134, -169, -95, -121, -92, -91, -123, -137, -118, -107, -115, -128, -144, -101, -115, -149, -97, -161, -99, -105, -110, -130, -157, -161, -80, -144, -127, -109, -119, -119, -128, -75, -141, -170, -130, -112, -103, -137, -127, -133, -141, -124, -117, -89, -104, -143, -156, -118, -118, -117, -145, -86, -108, -126, -77, -147, -151, -141, -131, -105, -94, -114, -140, -106, -107, -59, -165, -161, -108, -166, -67, -100, -119, -157, -125, -137, -128, -134, -146, -93, -122, -68, -123, -108, -88, -136, -121, -107, -131, -136, -102, -101, -89, -193, -122, -112, -72, -122, -118, -137, -94, -121, -130, -109, -114, -119, -151, -148, -119, -103, -142, -109, -103, -97, -110, -117, -136, -121, -101, -114, -92, -74, -145, -137, -159, -104, -176, -109, -164, -128, -103, -134, -119, -94, -139, -93, -72, -71, -115, -121, -125, -99, -145, -98, -108, -184, -101, -104, -109, -150, -117, -140, -186, -113, -157, -128, -141, -183, -160, -85, -108, -140, -132, -148, -143, -138, -133, -90, -146, -90, -125, -85, -125, -131, -106};
#define CONV13_IN_Z      	(0)
#define CONV13_OUT_Z     	(0)
static const int32_t CONV13_M_ZERO[] = 	 {1580966016, 1298849920, 2146041344, 1212399232, 1790920576, 1288968192, 1156089344, 2081420032, 1825834240, 1927794304, 1965219200, 1195655808, 1353805952, 1468427776, 1996237184, 2104739072, 1116596736, 1108943104, 1357854464, 1266576384, 1102159232, 1595607552, 1652803712, 2051875968, 1567564416, 1130988928, 1318098816, 1422841984, 1223281408, 1859674496, 1399804672, 1328227072, 1272651520, 1224060544, 1956564224, 1448931712, 1092781568, 1220125696, 1299811072, 1780796032, 1894290176, 2077198848, 1477770752, 1137940096, 1103785088, 1776804352, 1454871680, 1351755904, 1480147712, 1517529728, 1244315136, 1114867584, 1808561408, 1424697600, 1781981184, 2090904576, 1805702400, 1246185600, 1811174784, 1630396416, 1528663808, 1812428672, 1859708288, 1107285888, 1845216512, 1411024384, 1594290560, 1295036672, 1695427072, 1451677056, 1211398528, 1145323008, 1732441088, 1931326592, 1212319744, 1265933824, 1681688704, 1638108032, 1267006080, 1814071808, 1979249792, 1148004352, 2074275200, 1509753216, 1489427456, 1173031424, 1555345024, 1195409792, 1286778496, 1209833088, 1317988096, 1219250048, 1388432256, 1810726656, 1453908352, 1339236352, 1987572480, 1877495168, 1489624704, 2111842816, 1388001280, 1373191680, 2098121856, 1899931776, 1750098304, 1459140352, 1579092992, 1669886720, 1330708608, 1318923520, 1584174720, 1194699904, 1283009536, 1554059904, 1366885760, 1401224448, 1237847168, 1438143744, 1528664064, 1256630016, 1106088576, 2042915200, 1911526656, 1130884480, 1240160896, 1279645824, 2000328832, 1873119872, 1343337600, 1144018048, 1199271936, 1983261696, 1674745344, 1102442752, 2094481024, 1572852352, 1116136832, 1748055296, 2054947968, 1323978112, 1397812736, 1205397888, 1343077632, 2080139264, 1255295872, 1207281664, 1175830144, 1698293120, 1230399872, 1298953984, 1190740096, 1711960960, 1215294080, 1819784960, 1721416064, 1752770560, 1274691968, 1632618880, 1798472320, 1385798144, 1702920576, 1537344000, 1680505216, 2018331136, 1751230080, 1524685824, 1398113792, 1312290944, 1427052160, 1656170624, 1440628096, 1913723008, 2089724416, 1394919296, 1260500864, 1725075840, 1124593792, 1963175296, 2004568960, 1311990400, 1500647040, 1351498496, 1967190912, 1365042048, 1908837504, 1974397824, 1270655616, 2124979712, 1968637952, 2008077824, 1442823552, 1657172480, 1240626944, 2031340800, 1593158144, 1743755904, 1764662912, 1593505280, 1997870208, 1277471104, 1528116480, 1545102592, 2068397952, 1102652160, 1577025792, 1976170880, 1539651328, 1540507264, 1964713984, 1689639552, 1302368896, 1995148800, 1517105280, 1418189696, 1445657984, 1295098368, 1388943488, 1414655744, 2010088448, 1322650496, 2088862080, 1699196288, 1483112064, 1357748864, 1602137856, 1991395712, 1338078208, 1209490816, 2087987328, 1199289344, 1764877952, 1618535040, 1195561600, 1155799936, 1406390784, 1862511872, 1165367552, 1235549824, 2146123520, 1116874368, 1330426496, 1299660928, 1219197824, 1500559232, 1832421120, 1135881728, 1772356608, 2123453056, 1173193472, 1449973888, 2049273344, 2042526848, 1587250432, 1437049856, 1909697408, 1567470464, 1835292800, 1330648192, 1426642176, 1133844352, 1718105600, 1392391040, 2095489408, 1998286720, 1776280832, 1160062336, 1188335744, 1572210304, 1219752320, 1825176960, 1693507968, 1192215808, 1538083968, 1856600704, 1140360320, 1847457024, 1644774656, 1552884224, 1735566592, 1147951744, 1160965120, 1525622400, 1109016320, 2029933056, 1459831296, 1589499264, 1633059200, 1125389824, 2079413248, 1584014080, 1864552448, 1308913280, 1482406656, 2083023616, 1690748672, 1307853312, 2021276928, 1872344832, 1138453632, 1278660736, 1914303488, 1643259392, 1279227008, 2098364928, 1712684416, 1616285952, 1529968896, 2122262656, 1241578880, 1832235776, 1527786624, 1934660480, 1699243520, 1729722752, 1347505280, 1596954112, 1172990080, 1625013248, 1649987072, 1543196288, 1465564800, 1150144512, 1233658880, 1618630784, 1403960448, 2021673088, 1308888192, 1512074880, 1658584960, 1376325760, 1277116288, 1416068608, 1210305920, 1378060160, 1106172800, 1530779008, 1734167040, 2048723968, 1687757312, 2113718144, 1842376064, 1649034624, 1094211200, 1667811968, 1162471040, 1930576768, 1700253312, 1339202816, 1138308608, 2043340800, 2137385728, 1243126912, 2072508800, 1253120512, 1252860672, 1264483072, 1966120832, 1895194752, 1337557632, 1645112704, 1699355392, 1461710336, 2138397824, 1320865664, 1591883776, 1754325632, 1309566848, 1790876672, 1516665856, 1642025088, 1457135232, 1799861248, 2002665728, 1210319616, 1612469248, 1191351552, 1264112768, 1480712960, 1597293440, 1133623936, 1419066880, 1633348352, 1474792448, 1847445376};
static const int8_t CONV13_N_ZERO[] = 	 {0, 0, 0, 0, 0, 0, 0, 0, 0, 0, 0, 0, 0, 0, 0, 0, 0, 0, 0, 0, 0, 0, 0, 0, 0, 0, 0, 0, 0, 0, 0, 0, 0, 0, 0, 0, 0, 0, 0, 0, 0, 0, 0, 0, 0, 0, 0, 0, 0, 0, 0, 0, 0, 0, 0, 0, 0, 0, 0, 0, 0, 0, 0, 0, 0, 0, 0, 0, 0, 0, 0, 0, 0, 0, 0, 0, 0, 0, 0, 0, 0, 0, 0, 0, 0, 0, 0, 0, 0, 0, 0, 0, 0, 0, 0, 0, 0, 0, 0, 0, 0, 0, 0, 0, 0, 0, 0, 0, 0, 0, 0, 0, 0, 0, 0, 0, 0, 0, 0, 0, 0, 0, 0, 0, 0, 0, 0, 0, 0, 0, 0, 0, 0, 0, 0, 0, 0, 0, 0, 0, 0, 0, 0, 0, 0, 0, 0, 0, 0, 0, 0, 0, 0, 0, 0, 0, 0, 0, 0, 0, 0, 0, 0, 0, 0, 0, 0, 0, 0, 0, 0, 0, 0, 0, 0, 0, 0, 0, 0, 0, 0, 0, 0, 0, 0, 0, 0, 0, 0, 0, 0, 0, 0, 0, 0, 0, 0, 0, 0, 0, 0, 0, 0, 0, 0, 0, 0, 0, 0, 0, 0, 0, 0, 0, 0, 0, 0, 0, 0, 0, 0, 0, 0, 0, 0, 0, 0, 0, 0, 0, 0, 0, 0, 0, 0, 0, 0, 0, 0, 0, 0, 0, 0, 0, 0, 0, 0, 0, 0, 0, 0, 0, 0, 0, 0, 0, 0, 0, 0, 0, 0, 0, 0, 0, 0, 0, 0, 0, 0, 0, 0, 0, 0, 0, 0, 0, 0, 0, 0, 0, 0, 0, 0, 0, 0, 0, 0, 0, 0, 0, 0, 0, 0, 0, 0, 0, 0, 0, 0, 0, 0, 0, 0, 0, 0, 0, 0, 0, 0, 0, 0, 0, 0, 0, 0, 0, 0, 0, 0, 0, 0, 0, 0, 0, 0, 0, 0, 0, 0, 0, 0, 0, 0, 0, 0, 0, 0, 0, 0, 0, 0, 0, 0, 0, 0, 0, 0, 0, 0, 0, 0, 0, 0, 0, 0, 0, 0, 0, 0, 0, 0, 0, 0, 0, 0, 0, 0, 0, 0, 0, 0, 0, 0, 0, 0, 0, 0, 0, 0, 0, 0, 0, 0, 0};


/* Layer 14 Learned Parameters */
#define CONV14_BIAS \
 {249, 205, 2888, -1177, 20651, 17476, -4069, 2677, -228, 4416, 2464, -10198, 6271, 39070, -24, 5885, 1057, -8082, 5114, 219, 470, 656, -21373, 20, -154, 741, 27, 3854, -618, -786, 452, 2435, -26407, -1102, 41688, 2175, 35172, 494, -4440, -6007, -1719, -12418, 6138, -7643, 558, 115, 107623, -2647, 75743, -5039, -223, -6251, -8928, -808, 1274, 68, -17314, 38289, 40843, -8293, 262, 3532, 40339, 8857, 66808, 8760, -779, 39818, 1121, 240, -8105, 63709, -206, -3620, 249, 201, 416, -452, 3244, 45540, 23, -133, -326, -46, 982, 4433, -347, 97, 453, 52019, -75, 2948, 1430, 1665, -6059, 34, 1415, -26, -821, 714, 767, -9775, -13210, -9817, -469, 4433, -7333, 405, 26296, 19831, 895, 400, 6002, -6992, -4600, -117, 8426, -2318, 3204, 10069, 230, -119, 408, -663, -1434, 380, 1442, 918, 743, 3046, -444, -8515, -499, -5423, 23, 20029, 9491, 6987, -5880, -836, 20894, 348, 3371, 700, 26028, 219, 3804, -242, -107, 12309, -11906, 2269, 400, -2856, -3100, -16446, -5293, -517, 1033, -7, 6210, 1500, 12094, -3947, -708, 15437, -1078, 3973, 1200, -19384, -8601, 5839, 16232, 1306, 376, 115780, 33375, 976, 13506, 39, 293, -829, 4773, 14763, 1535, -4873, 382, 24697, 421, 34289, 33782, -924, 608, 4932, -27, -4183, 1288, 408, -3796, 2412, -1622, 35693, 67517, -1683, 1775, 1088, 229, -494, 14944, -4751, 16852, -250, 1912, 18727, 1053, 29327, -3856, -2287, -11460, 184, -7351, -175, 380, 19033, 2835, 613, -300, -9639, 3585, -11411, -288, 1102, -639, 4730, 4746, 44676, 768, -8961, 1413, -341, 42, 19423, -10794, -563, 382, -2914, 60331, -3761, -474, 265, 19379, 15, 3067, -4190, 1593, -7116, 7143, -6274, 2725, -11762, 891, 8061, 28551, 168, 817, -24, 121735, -2176, -9310, 43649, 1381, -13333, 1296, 452, -426, -12438, 5559, 359, 873, 297, 1571, 10575, 98, 2689, 3457, 167223, 154, 18736, 2378, 52901, 119, 25266, 5949, -4837, -1366, -4423, 1194, -5334, 455, 16150, -11462, 28365, 2004, -533, 8390, 46561, 21671, 1235, 51811, 207, 27723, 517, 40736, 9427, -19752, 10461, -28168, -6052, 22, 11738, 21935, -26955, 45, 7814, 35093, 323, 970, 165, 402, -2618, 60095, 28447, 3771, 43286, -170, -4743, -24638, 50255, 18552, -150, -494, 1403, 866, -241, -233, 4024, 257, 44963, 53401, 21829, 6594, 26360, 14739, 12648, -11818, 22880, -2565, -6167, 33586, 5731, 525, 44213, 72064, 2797, 11, 14, 67448, 138, 63, -753, 50, 1659, 2638, 443, -1891, 2283, 71161, 124640, 7399, -221, 7674, -8842, -85, 187}
#define CONV14_WT {0}
static const uint8_t CONV14_W_Z[] = 	 {-95, -113, -32, -131, -242, -165, -15, -104, -119, -37, -93, -14, -111, -225, -117, -107, -102, -38, -36, -91, -156, -10, -6, -141, -122, -62, -166, -90, -100, -112, -101, -53, -11, -146, -246, -103, -233, -95, -18, -51, -97, -44, -73, -9, -90, -142, -501, -29, -366, -37, -113, -56, -32, -122, -11, -107, -41, -265, -220, 2, -119, -126, -134, -146, -263, -41, -113, -276, -105, -116, -5, -295, -126, -13, -117, -98, -69, -17, -93, -268, -114, -4, -122, -81, -152, -170, -102, -124, -97, -340, -98, -135, -83, -108, -4, -107, -116, -6, -155, -91, -117, -44, 2, -17, -99, -18, -45, -94, -246, -225, -105, -18, -29, -22, -90, -104, -40, -92, -115, -85, -91, -107, -108, -145, -93, -99, -94, -98, -83, -86, -15, -35, -83, 8, -103, -255, -28, -68, -33, -121, -151, -93, -90, -92, -279, -11, -54, -100, -130, -80, -39, -80, -115, -72, -13, -7, -13, -80, -79, -127, -43, -109, -108, -57, -137, -245, -138, -42, -112, 38, -10, -196, -240, -139, -88, -600, -322, -126, -53, -86, -80, -77, -150, -231, -72, -74, -95, -240, -93, -192, -342, -90, -90, -86, -102, -71, -33, -110, -13, -29, -89, -164, -256, -141, -114, -47, -98, -124, -225, -56, -233, -135, -127, -223, -168, -264, -8, -37, -89, -117, -8, -10, -102, -225, -82, -104, -118, -14, -82, -54, -129, -109, -101, -61, -30, -330, -104, -1, -115, -80, -121, -248, -47, -98, -99, -55, -335, -23, -23, -115, -242, -13, -60, -11, -12, -21, -44, -18, -98, -45, -109, -54, -214, -107, -79, -60, -310, -14, -13, -279, -96, 8, -111, -103, -87, -47, -59, -99, -169, -125, -85, -76, -95, -15, -53, -378, -155, -212, -38, -244, -90, -238, -17, 17, -150, -37, -83, -11, -98, -223, -12, -254, -169, -116, -57, -295, -236, -121, -239, -87, -133, -105, -179, -45, -41, -64, -13, -59, -103, -140, -247, -10, -117, -22, -211, -121, -120, -96, -23, -57, -301, -236, -27, -245, -95, -10, -5, -272, -240, -112, -99, -113, -99, -134, -106, -45, -153, -254, -268, -226, -127, -236, -233, -36, -24, -137, -138, -30, -257, -28, -107, -299, -261, -102, -120, -124, -390, -109, -94, -112, -116, -93, -124, -134, -96, -26, -387, -421, -52, -93, -38, -40, -77, -121};
#define CONV14_IN_Z      	(0)
#define CONV14_OUT_Z     	(0)
static const int32_t CONV14_M_ZERO[] = 	 {1997384192, 1427104000, 1237218176, 1726296192, 1444407680, 1270360960, 1488679936, 1315563392, 2138718464, 1882965120, 1444821760, 1182975616, 1703704576, 2013189888, 1637784064, 1225988992, 1766653056, 2009804800, 2057120512, 1563515264, 1540910848, 1179251328, 1802907648, 1721494272, 1376432256, 1494368384, 1608533376, 2048761600, 1378128896, 1787924480, 1305520896, 1568556544, 1791491456, 1394867072, 1253599360, 1578946176, 1511945344, 1678001152, 1116769152, 1722093056, 1866036224, 1812663424, 1443075968, 2122313216, 1338917120, 2014079744, 1475665536, 2098879104, 1669353856, 1098591104, 1329258112, 1644460800, 1577798528, 1936535808, 2015462656, 1518378752, 1472314880, 1462190720, 1360763008, 1818649600, 1862083840, 1715447040, 1380629760, 1535229824, 1142870528, 2089280000, 1232900480, 1655115008, 1136475520, 1942134016, 1307552256, 1253081984, 1220294400, 1954388224, 1229141120, 1350742272, 1133531392, 1541264256, 1744619008, 1866561920, 1746431616, 1245832320, 1583040256, 1931079936, 1173471488, 1208248704, 1766963200, 1459919104, 1535642496, 1996434304, 2061679744, 1168137472, 1889655680, 1087154176, 1248198144, 1344661120, 1275292928, 1789075072, 2025593088, 1717159680, 1192063744, 1103089920, 1595359744, 1192733440, 1087519488, 1152164608, 2032506880, 1623231616, 1984173056, 1099033856, 1595634816, 1220649472, 1942166784, 1950562816, 1131121664, 1263173888, 2129022592, 1933379328, 1816612352, 1474530048, 1546933888, 1204030592, 1348091904, 1490896256, 1329236608, 1412684672, 1252722944, 1234168832, 1533348480, 2091184256, 1353223296, 1436655104, 1372358016, 1617785984, 1627538688, 2111175552, 1504441856, 2139303552, 1511337984, 2094322048, 1294893952, 1491523968, 1297953664, 1689581056, 2112566784, 2025024768, 1469872512, 1186154112, 1344077568, 1120450688, 1189582720, 1383005952, 1463956736, 1452438528, 1573320704, 1645783680, 1608141312, 1115214976, 1684310272, 1329459072, 1134488448, 1470701824, 2023882240, 1188896384, 1753539456, 1908823936, 1992641152, 1207340032, 1408299264, 1984021760, 1196960256, 1644086528, 1548259968, 2071603584, 1887371776, 1109706496, 1607304448, 1239148160, 1447525888, 1764038400, 1536641664, 1821702656, 1277451520, 1933510784, 1390760448, 1076332032, 1494710656, 2043383296, 1151313792, 1427574528, 1865902592, 1679847808, 2132385280, 1187047680, 1454125824, 1724098304, 1229866624, 1296788992, 1596174848, 1833772928, 1208065408, 1300020864, 1087262976, 1132729472, 1524569472, 1402417280, 1988339328, 1138290944, 1449681792, 1113068800, 2082856704, 1216689280, 1249493888, 1350331264, 1121493376, 1346472576, 1909850496, 1560085504, 1290988672, 1485370624, 2090049920, 1930428928, 1085962240, 2023226880, 1260825216, 1337266048, 1180563456, 1816300672, 1372953984, 2071232000, 1289952000, 1315318912, 1080535040, 1229142400, 1222393600, 1511376128, 1538858880, 2072745984, 1277740544, 1632455552, 1410916736, 1165972608, 1360208128, 1837767680, 1342431232, 1124221696, 1474221056, 1985575040, 1093968128, 1393992192, 1308101248, 2048849664, 1226330240, 1429108736, 2026285824, 1797909504, 2047082240, 1206959104, 1943342336, 1292868608, 1384003968, 1146285568, 1948863488, 1433962240, 1687635968, 1157269632, 1895542912, 1769512192, 1936721536, 1863971968, 1329883264, 1890952576, 1128441216, 1331916032, 1354526208, 1206773120, 1416974208, 1632884736, 1788521856, 1231553792, 1422529152, 1246702208, 1763865472, 1566746880, 1531480064, 1254896000, 1914032384, 1225247872, 1518259200, 1929348736, 1123896704, 1807518080, 1215651200, 1156494592, 1832577152, 1386989952, 1951565952, 1497606016, 1271518720, 1664719232, 2122465280, 1160237696, 2144062848, 1864814976, 1151241728, 1915793536, 1924530176, 1435351424, 1338155648, 1695146368, 1469103616, 1322548608, 1264924800, 1216928896, 2028021120, 2128114176, 1637708160, 2027813760, 1179373312, 1172407040, 1693066624, 1866695168, 1474895616, 1235912704, 1385289088, 1990003968, 1751928448, 1695667712, 2100927232, 1333242624, 1640969472, 1406022016, 1281877504, 1976387968, 1471604736, 1127468928, 1622583168, 1476420480, 1364034176, 1485407360, 1423549824, 1801901184, 1243188736, 1212219264, 1539831936, 1391029376, 1202347904, 2139674240, 1194003072, 2074339584, 1852518784, 1502076288, 1771843456, 1465881728, 2119275008, 1306662784, 1315219072, 1707734272, 1212701184, 1979656576, 1919071104, 1912458752, 1205329152, 1911091840, 1201023744, 1584212864, 1892495360, 1637964416, 1580328192, 1855786880, 1133174400, 1420053760, 1440444800, 1762623232, 1440246272, 1446273408, 2022208000, 1276137984, 1170211328, 1709917568, 1134397184, 1209761664, 1200850432, 1143531520};
static const int8_t CONV14_N_ZERO[] = 	 {0, 0, 0, 0, 0, 0, 0, 0, 0, 0, 0, 0, 0, 0, 0, 0, 0, 0, 0, 0, 0, 0, 0, 0, 0, 0, 0, 0, 0, 0, 0, 0, 0, 0, 0, 0, 0, 0, 0, 0, 0, 0, 0, 0, 0, 0, 0, 0, 0, 0, 0, 0, 0, 0, 0, 0, 0, 0, 0, 0, 0, 0, 0, 0, 0, 0, 0, 0, 0, 0, 0, 0, 0, 0, 0, 0, 0, 0, 0, 0, 0, 0, 0, 0, 0, 0, 0, 0, 0, 0, 0, 0, 0, 0, 0, 0, 0, 0, 0, 0, 0, 0, 0, 0, 0, 0, 0, 0, 0, 0, 0, 0, 0, 0, 0, 0, 0, 0, 0, 0, 0, 0, 0, 0, 0, 0, 0, 0, 0, 0, 0, 0, 0, 0, 0, 0, 0, 0, 0, 0, 0, 0, 0, 0, 0, 0, 0, 0, 0, 0, 0, 0, 0, 0, 0, 0, 0, 0, 0, 0, 0, 0, 0, 0, 0, 0, 0, 0, 0, 0, 0, 0, 0, 0, 0, 0, 0, 0, 0, 0, 0, 0, 0, 0, 0, 0, 0, 0, 0, 0, 0, 0, 0, 0, 0, 0, 0, 0, 0, 0, 0, 0, 0, 0, 0, 0, 0, 0, 0, 0, 0, 0, 0, 0, 0, 0, 0, 0, 0, 0, 0, 0, 0, 0, 0, 0, 0, 0, 0, 0, 0, 0, 0, 0, 0, 0, 0, 0, 0, 0, 0, 0, 0, 0, 0, 0, 0, 0, 0, 0, 0, 0, 0, 0, 0, 0, 0, 0, 0, 0, 0, 0, 0, 0, 0, 0, 0, 0, 0, 0, 0, 0, 0, 0, 0, 0, 0, 0, 0, 0, 0, 0, 0, 0, 0, 0, 0, 0, 0, 0, 0, 0, 0, 0, 0, 0, 0, 0, 0, 0, 0, 0, 0, 0, 0, 0, 0, 0, 0, 0, 0, 0, 0, 0, 0, 0, 0, 0, 0, 0, 0, 0, 0, 0, 0, 0, 0, 0, 0, 0, 0, 0, 0, 0, 0, 0, 0, 0, 0, 0, 0, 0, 0, 0, 0, 0, 0, 0, 0, 0, 0, 0, 0, 0, 0, 0, 0, 0, 0, 0, 0, 0, 0, 0, 0, 0, 0, 0, 0, 0, 0, 0, 0, 0, 0, 0, 0, 0, 0, 0, 0, 0, 0, 0};


/* Layer 15 Learned Parameters */
#define CONV15_BIAS \
 {20035, 4926, -15254, -48630, 18450, 18900, -46462, -1688, -17413, 6517, 80486, -12442, 3552, 13105, 28862, 29475, 85129, 119667, 66387, -20080, -7215, -4360, 11922, 43333, 2550, 31417, -28135, 35476, -3050, 40183, 10204, -1355, -18920, -22592, 520, -19320, 35758, -8222, 52787, 6593, 18615, -7474, 34424, 27774, 55612, 18158, 2443, 19996, 113537, 8713, 72948, 73535, 29242, -11674, 78592, 21891, 26993, 56946, 77572, -17392, 15040, 14678, -9228, 2359, -10904, 2533, 60738, -4412, -40190, 34767, 15225, 2378, 8311, 24699, 3476, 6689, 19551, -4887, 3372, 73515, 5342, -1431, -1242, 58411, 2003, -25143, 20668, -10667, 4749, 8105, -34813, -12796, 31502, 57839, 2378, -3992, 12072, -2759, 6671, 88285, 58900, -4046, -193, 28199, 141783, -1388, 79169, 42246, 32162, 1145, -20213, 6831, 82809, -487, 26254, -6282, 40922, 4245, -13865, -1853, 34554, -4802, 53082, -21304, 13985, 49889, 14318, -27285, 305, 39325, 3662, 5522, 38783, -6481, 82496, -9291, 142797, 15649, 6908, 20234, -14544, 44140, -489, 53274, 4897, 12819, -2165, -14218, -26014, 58105, 3085, 62043, 47146, 8300, 26481, -6504, 29683, -1863, 37714, 24953, 1564, -1918, 4849, -42718, 12434, -26566, -1838, 14287, 3574, 72883, -43491, -29559, -8580, 8040, -1447, -13204, -46429, 3363, 7330, 18027, -7596, -37708, -9673, 25105, 104480, 24802, -31256, 81656, 4483, 1746, 34254, -10737, -3040, 38682, 32416, 1701, 11945, 32619, 6848, 30658, 23880, 21880, 102013, 54201, 42412, 12910, 18936, 65119, 16185, 94343, 47941, -15946, 10228, 11949, -26472, 34003, -1968, -287, 12558, -14079, 57644, -10180, 13331, 35362, 25003, -12856, -32502, -13308, 30365, 95568, 30334, 2314, 41358, 63039, -15953, 16490, -7615, 17041, 70501, 9571, 43817, 10598, 80405, 9384, 19507, -28918, -20028, 23539, -4767, -47889, -21292, -39763, -1293, 80242, 81853, 28664, 3210, -23425, -25467, -15157, 15293, 55435, -473, 50243, -36830, -865, 29407, 72901, 17431, 15950, -1525, -17289, -6217, 29859, 21195, 12494, 18228, 4209, 500, 109497, 16595, 579, 81400, -10120, -67187, -1595, -40485, 18260, -18750, 56345, -1283, -4544, 6589, 34732, -6283, -11143, 3552, 34195, 43664, 66867, -27853, 44313, 6830, 111136, -13827, 16150, 32734, 14590, 4106, 2827, 18741, -16753, 40455, 68528, 59613, -14031, 70909, 46454, 13992, 3608, 12831, 59365, -13153, -13080, -13770, 11351, 42692, 4742, 46544, 32440, -17688, 56690, 10969, -5227, -24684, 102, 22810, 58665, 66330, 19733, 19776, -12668, -2183, -12469, 20594, -8805, 99311, 40286, 18107, 41999, -8818, -18421, 13732, 5594, -25701, 41156, 10782, 3958, 7392, 46663, -12366, 16408, 6795, -1425, 8568, 34060, 538, -3534, -4356, 29557, -12320, 12867, 32261, 9767, 810, 15827, 47951, -8461, 32071, 47516, -4952, -2613, 274, 28234}
#define CONV15_WT {0}
static const uint8_t CONV15_W_Z[] = 	 {-115, -110, -107, -136, -188, -120, -109, -143, -141, -130, -118, -114, -118, -141, -117, -163, -121, -142, -88, -126, -99, -122, -108, -104, -141, -132, -121, -122, -117, -142, -161, -98, -135, -142, -99, -170, -127, -123, -138, -130, -146, -103, -78, -112, -120, -104, -107, -136, -194, -114, -122, -106, -96, -106, -128, -99, -113, -121, -131, -112, -119, -142, -119, -122, -90, -95, -160, -145, -108, -96, -76, -127, -72, -93, -111, -119, -110, -141, -122, -132, -152, -87, -152, -115, -131, -81, -102, -155, -159, -122, -160, -111, -121, -120, -146, -141, -137, -110, -123, -159, -101, -168, -138, -131, -124, -122, -139, -122, -115, -111, -97, -136, -115, -139, -89, -126, -136, -103, -127, -162, -185, -133, -114, -143, -109, -138, -137, -119, -127, -135, -97, -127, -105, -126, -128, -120, -144, -80, -101, -150, -107, -139, -128, -120, -141, -105, -145, -131, -147, -175, -109, -99, -114, -139, -154, -130, -91, -129, -139, -89, -120, -148, -158, -140, -153, -118, -119, -137, -153, -121, -140, -75, -138, -97, -126, -145, -111, -156, -115, -84, -127, -119, -111, -143, -123, -111, -85, -152, -125, -62, -95, -160, -134, -128, -79, -96, -146, -122, -109, -125, -91, -129, -130, -114, -111, -117, -158, -128, -111, -105, -124, -98, -128, -115, -133, -117, -110, -132, -146, -129, -135, -171, -111, -133, -98, -98, -124, -122, -124, -123, -111, -102, -128, -146, -100, -122, -90, -122, -122, -143, -107, -139, -116, -83, -150, -111, -122, -146, -119, -130, -138, -137, -123, -90, -95, -146, -129, -114, -136, -112, -108, -123, -109, -123, -131, -109, -135, -125, -141, -123, -125, -123, -72, -101, -134, -110, -113, -165, -76, -135, -102, -110, -132, -148, -149, -106, -79, -70, -72, -87, -85, -137, -104, -186, -124, -128, -161, -111, -116, -100, -138, -124, -77, -206, -99, -189, -99, -105, -104, -103, -152, -138, -143, -125, -109, -77, -129, -112, -101, -113, -121, -130, -130, -136, -122, -141, -139, -155, -161, -166, -137, -146, -97, -91, -112, -85, -159, -115, -134, -142, -103, -116, -107, -106, -132, -149, -138, -110, -116, -108, -186, -130, -101, -176, -126, -137, -144, -123, -163, -128, -131, -116, -127, -161, -72, -139, -113, -110, -90, -134, -155, -137, -106, -129, -75, -139, -154, -124, -118, -124, -128, -136, -137, -195};
#define CONV15_IN_Z      	(0)
#define CONV15_OUT_Z     	(0)
static const int32_t CONV15_M_ZERO[] = 	 {1823074944, 1099952128, 1424515968, 1550112256, 1292477952, 1118111488, 1111336320, 1923161728, 1447657728, 1210409600, 2135579264, 1183197952, 2007213824, 1976636032, 1753001472, 1387842688, 1720507776, 1548140800, 1111308800, 1292564864, 1395692416, 1170914304, 1770185856, 1155681920, 1887897344, 1824454272, 1428144128, 1916286848, 1766301312, 2026720768, 1952307840, 1129605120, 1683538816, 1430206336, 1097112448, 1290934528, 1074253440, 1225603968, 2094399360, 2037260544, 1130851200, 1108778368, 1348122496, 1987408896, 1694313856, 1853567872, 1248251648, 1190401536, 1694461824, 1771042176, 1488175488, 1177088384, 1082088320, 1809646080, 2066283520, 1749013504, 2035879424, 1796391552, 1438599424, 1578047744, 1422563072, 1401394688, 1148998784, 1767531776, 1256588800, 1495359104, 1844728832, 1817297280, 1973890304, 2005918976, 1641982848, 1312007680, 1342759936, 2146252288, 1609823744, 1863977088, 1173974784, 2002452864, 1554359424, 1632353664, 1211675392, 1569729408, 1550856960, 1120420992, 1419746944, 2130739712, 1314547968, 1151371264, 1435549312, 1347364864, 1332578176, 1209305856, 1249791488, 1542093440, 1779624832, 1837667072, 1766091392, 1451878272, 1606329600, 1617425152, 1766868992, 1870373632, 1088581248, 1697141888, 1511930624, 1225040384, 2071119360, 1778897152, 1833788672, 1105946880, 1953976576, 1838866816, 1132108416, 1364707968, 1255694464, 1148031360, 1497538816, 1912668672, 1459785856, 1654451072, 1190964224, 1537767424, 1355653760, 1600789760, 1224809728, 1131068160, 1181265664, 1268759168, 1313330048, 1852707200, 1584395008, 2087204992, 1946829056, 2089744256, 1216675072, 1110255488, 2025203200, 1514391168, 1758164864, 1125398400, 1220432128, 1856431360, 2033632640, 1632921472, 2064672256, 1316754176, 2097204864, 2083157376, 1145797632, 1127251072, 1768541696, 1113769600, 1114677632, 1661943680, 1892379136, 1388586368, 1255985920, 1380059904, 1284294144, 1121517952, 1794596736, 1294417792, 1247691520, 1184158080, 1394438400, 1103230976, 1459430272, 1530750720, 1108235648, 1093993984, 1278993536, 1204478848, 1142913024, 1348513664, 1161260160, 1098523392, 1590308864, 1131417728, 1091555968, 2088379392, 1195859840, 1295912704, 2081471104, 1087402112, 1151825792, 1154791936, 1603784320, 2109594752, 1191413632, 2050860800, 1725757056, 1927262336, 1187752448, 1161772800, 1194845952, 1967847936, 1862571520, 1356246144, 1079454080, 1481300480, 1704608256, 1119456256, 1908579968, 2003412736, 1156047360, 1380995840, 1461343488, 2044767360, 1213097728, 1674691840, 2028915712, 1398008448, 1114452992, 1762752128, 1795980288, 1722338304, 2128349184, 1845893504, 1523640064, 1411068160, 1442898688, 1594788096, 1220071424, 1278877568, 1424619776, 2128186112, 2006123264, 1308854400, 1514444928, 1289079296, 1091470080, 1927028480, 1628691584, 2066791680, 1356986752, 1414794496, 2049993088, 2064130432, 1842798208, 1082717696, 1324135936, 1566451328, 1545187584, 1344235136, 1763486208, 2043283200, 1465617664, 1393883264, 1192180480, 1115803264, 1226003200, 1522832640, 1914293248, 1096518144, 1137682560, 1076085760, 1968196224, 1803285120, 1455011584, 1273665152, 1141295488, 1828132480, 1402345088, 1999666688, 1326363264, 1324081920, 1303619200, 1971589376, 1694988672, 1395349760, 1968509312, 1252753792, 1668988416, 1309873408, 2012514944, 2087034368, 1416761216, 1158714880, 2038545664, 1500118912, 2131866368, 1307492608, 1088882048, 1502214016, 1983373696, 1977018112, 1181538432, 1966931584, 1778581248, 1768707456, 1601768448, 1304260352, 1700886400, 1324974464, 2038992384, 1279792512, 1259423616, 1830946432, 1339247360, 1988442368, 1614950784, 1916431232, 1417955328, 1379907456, 2014939776, 1249270912, 1140761856, 1441073920, 1120595584, 1254325760, 1191682560, 1442949632, 1628881024, 1434291968, 1458444416, 1918933632, 1394818944, 2144049920, 2036665984, 1505117568, 1936471296, 1816173696, 1172295680, 1350510848, 1898086656, 1586370432, 1300138368, 1673896576, 1595024000, 1455451008, 1119550336, 1447683840, 1829217024, 1956766592, 1417944320, 1231627520, 1111392384, 1102006016, 1498471040, 1620882944, 1857175168, 1912800512, 1352322944, 1959090304, 1087902720, 1440955008, 1551587072, 1664780928, 1835120000, 1230984832, 1890979584, 2056905856, 1819538944, 1930433920, 1259840896, 1381195776, 1226963968, 1266877184, 1208850432, 1564036864, 1268920704, 1561347712, 1848428416, 1506675072, 1456359040, 1927767296, 1863620992, 1096012544, 1106614784, 1219117440, 2068247680, 1808705536, 1551621248, 2121826176, 2067844096, 1460184704, 1259273728, 1260528256, 1202615296, 1695534464, 1458370432, 2045982464, 1208259072, 1583637888};
static const int8_t CONV15_N_ZERO[] = 	 {0, 0, 0, 0, 0, 0, 0, 0, 0, 0, 0, 0, 0, 0, 0, 0, 0, 0, 0, 0, 0, 0, 0, 0, 0, 0, 0, 0, 0, 0, 0, 0, 0, 0, 0, 0, 0, 0, 0, 0, 0, 0, 0, 0, 0, 0, 0, 0, 0, 0, 0, 0, 0, 0, 0, 0, 0, 0, 0, 0, 0, 0, 0, 0, 0, 0, 0, 0, 0, 0, 0, 0, 0, 0, 0, 0, 0, 0, 0, 0, 0, 0, 0, 0, 0, 0, 0, 0, 0, 0, 0, 0, 0, 0, 0, 0, 0, 0, 0, 0, 0, 0, 0, 0, 0, 0, 0, 0, 0, 0, 0, 0, 0, 0, 0, 0, 0, 0, 0, 0, 0, 0, 0, 0, 0, 0, 0, 0, 0, 0, 0, 0, 0, 0, 0, 0, 0, 0, 0, 0, 0, 0, 0, 0, 0, 0, 0, 0, 0, 0, 0, 0, 0, 0, 0, 0, 0, 0, 0, 0, 0, 0, 0, 0, 0, 0, 0, 0, 0, 0, 0, 0, 0, 0, 0, 0, 0, 0, 0, 0, 0, 0, 0, 0, 0, 0, 0, 0, 0, 0, 0, 0, 0, 0, 0, 0, 0, 0, 0, 0, 0, 0, 0, 0, 0, 0, 0, 0, 0, 0, 0, 0, 0, 0, 0, 0, 0, 0, 0, 0, 0, 0, 0, 0, 0, 0, 0, 0, 0, 0, 0, 0, 0, 0, 0, 0, 0, 0, 0, 0, 0, 0, 0, 0, 0, 0, 0, 0, 0, 0, 0, 0, 0, 0, 0, 0, 0, 0, 0, 0, 0, 0, 0, 0, 0, 0, 0, 0, 0, 0, 0, 0, 0, 0, 0, 0, 0, 0, 0, 0, 0, 0, 0, 0, 0, 0, 0, 0, 0, 0, 0, 0, 0, 0, 0, 0, 0, 0, 0, 0, 0, 0, 0, 0, 0, 0, 0, 0, 0, 0, 0, 0, 0, 0, 0, 0, 0, 0, 0, 0, 0, 0, 0, 0, 0, 0, 0, 0, 0, 0, 0, 0, 0, 0, 0, 0, 0, 0, 0, 0, 0, 0, 0, 0, 0, 0, 0, 0, 0, 0, 0, 0, 0, 0, 0, 0, 0, 0, 0, 0, 0, 0, 0, 0, 0, 0, 0, 0, 0, 0, 0, 0, 0, 0, 0, 0, 0, 0, 0, 0, 0, 0, 0, 0};


/* Layer 16 Learned Parameters */
#define CONV16_BIAS \
 {-4440, -24246, -10724, -11047, 20189, 16831, 1471, 36838, -6650, -11733, 724, -7260, -1840, 1371, -5248, 17830, 32261, 5865, 6348, 90784, -20534, -19980, -12863, 25296, 84103, -17836, -5487, 15095, 31574, 23001, 22476, 12184, -10866, -10891, 14254, -3896, -14643, 13855, 36444, -377, 40155, 6567, 23781, 9650, -8547, -6283, -14059, 36010, -10452, 78327, 14313, 21946, -3295, -1529, -15377, 38004, 32013, -9550, 10537, -11839, 41697, -15269, -80, 14059, 20649, -7619, -9312, 20929, 2883, 1991, 68941, -14123, 29510, 11801, 118462, -24850, 18424, -978, 53989, 24194, 50011, 67647, 9998, 30549, -4390, 11238, 37867, -15034, -4079, 106934, -9097, -11411, 4310, 9356, -8483, -5595, -25022, -10294, 295, 30269, 27780, 13702, 52048, 19834, 5886, -3694, -8514, -7436, 51483, -29530, 45811, 12680, 2649, 59926, -7653, -18992, 170, 10918, -3590, -5508, 43753, -6643, 4532, -12279, 869, -31896, 2781, -10195, -1338, 18569, -1788, -23518, 4721, 43088, 2537, -10778, -6275, 16065, 38340, 18658, -204, 47834, 82495, 4248, -17098, 1543, 11806, -10246, -9709, 45306, -3745, 4046, 1709, -12905, 6653, 63697, 4392, -6370, 5652, 24086, 83437, 12765, 131082, 7006, 20001, 22585, 706, -458, 32859, -9952, -22535, 33143, 91613, 8424, -12271, -10919, -30472, -1365, 3607, 65493, -26272, -17000, -8407, -14620, 6382, -794, 9164, 26757, 9790, 43698, 42224, -4227, -16798, -20081, 10185, 68915, 22463, 4268, -11447, -2222, 48875, 57697, 2895, 9473, 12987, -14569, -410, 10310, -3393, 26185, -11071, -8266, 10932, 53952, -9205, 41172, -7565, -6105, -6215, 7543, -15505, 1547, 12514, 1866, -24300, -9061, 16825, 5160, -2697, 4656, 11891, -5019, -12639, 128059, -4697, 100, -193, -3146, 35122, -6464, 9927, -19426, 13453, -4806, -11651, -12045, -15007, 64047, 119149, -7579, -8012, 14708, -2926, 24198, 3776, 374, 533, -11854, 4155, 129365, 67207, 19054, 54383, 27988, -7087, 90852, 26118, 25445, 10288, 37845, 10628, -3729, 42803, 51431, 17344, 260, 48591, -10703, 32165, 45825, 18693, -947, -2327, -6732, 5070, -5181, -10721, 31540, -20388, 28299, -6109, 11891, 11486, 23519, -10272, -36635, -17002, 4181, 10617, 5413, -1839, -17936, 6314, -7953, 18423, -35848, 4075, -3724, -10981, -8803, -18336, -9142, 52909, 48637, 7562, -2616, 29768, 420, 44649, 23122, 3143, 10230, -21952, -13491, 46692, 47821, -3048, -28, 73563, 15852, -32063, -8234, 40414, 33048, -2330, 56953, 15389, 4705, 18763, 5108, 45825, -1053, -8751, -4372, 14621, 1428, 19740, -9536, 2734, -1333, -14516, 463, 37809, 70447, -14616, 5372, 863, 22514, -7154, 37556, -19934, 10727, 35077, -3960, 35743, 10289, 73200, -13215, 4070, -24761, 2700, -7005, 24955, -6227, -3771, 50392, 1089, 70365, 5880, -7959, 481, -5760, -4261, 102}
#define CONV16_WT {0}
static const uint8_t CONV16_W_Z[] = 	 {-108, 2, 7, 4, -185, -73, -41, -301, 6, -36, -45, -94, -18, -52, -17, -198, -255, -59, -58, -333, 8, 4, 3, -225, -353, 46, -8, -65, -274, -209, -260, -93, 15, 3, -133, -39, -12, -113, -265, -100, -240, -37, -244, -142, -38, -35, 15, -252, -36, -345, -241, -244, -22, -56, 0, -224, -145, -25, -87, 7, -202, -38, -165, -142, -89, -45, -39, -110, -37, -42, -302, 15, -240, -67, -330, 9, -78, -24, -303, -242, -270, -410, -135, -211, -8, -128, -183, -3, -3, -396, 3, -3, -32, -102, -39, -100, -15, -5, -127, -252, -249, -87, -379, -117, -41, -122, -55, -132, -291, 14, -167, -129, -29, -333, -11, 12, -19, -110, -47, -18, -216, -55, -103, 24, -128, -2, -82, -16, -21, -141, -64, 31, -60, -291, -51, 35, -69, -223, -294, -74, -9, -259, -474, -84, -34, -129, -73, -4, -33, -191, -6, -45, -35, 7, -86, -281, -43, 6, -34, -207, -393, -72, -445, -156, -123, -113, -53, -48, -160, -65, -7, -247, -262, -100, 9, 20, 11, -75, -64, -317, 34, 18, -15, -44, -41, -124, -83, -242, -98, -290, -287, -27, 20, -18, -130, -200, -105, -45, 11, -151, -289, -321, -82, -144, -163, 1, -25, -151, -20, -229, -64, -2, -112, -300, -12, -252, -14, -124, 18, -25, -3, -99, -198, -81, 14, -94, -86, -45, -71, -33, -101, -66, -64, -294, -3, -39, -7, -155, -303, -4, -50, 7, -174, -23, -10, 2, 5, -330, -373, 44, -20, -100, -6, -241, -41, -38, -64, -26, -109, -549, -426, -249, -308, -263, -97, -453, -266, -247, -82, -179, -134, -28, -287, -297, -78, -121, -285, -15, -203, -244, -120, -10, -28, -17, -70, 15, -3, -244, 0, -235, -9, -57, -62, -207, 6, -3, 12, -98, -73, -62, -10, 2, -77, -39, -158, 13, -69, -9, -5, -41, -13, 11, -314, -278, -31, -13, -251, -113, -242, -260, -152, -153, 23, -10, -231, -329, -2, -47, -274, -90, 32, -69, -366, -270, -55, -376, -105, -35, -235, -105, -249, -17, -8, -116, -94, -56, -246, -54, -89, -82, -3, -61, -280, -275, 29, -29, -71, -120, -22, -258, 17, -68, -164, 0, -258, -123, -302, -11, -101, -3, -145, 6, -260, -5, -20, -270, -93, -285, -74, -57, -42, -41, -89, -46};
#define CONV16_IN_Z      	(0)
#define CONV16_OUT_Z     	(0)
static const int32_t CONV16_M_ZERO[] = 	 {2056810624, 1946422400, 1996927360, 1780031104, 1505749376, 1110784896, 1516079744, 1742523904, 1738398848, 1350693376, 1177411328, 1547153536, 1240825984, 1301631616, 2016815232, 1323561472, 1653492992, 1436784256, 1981739264, 1434095104, 1097961984, 1955487360, 1134810752, 1208069248, 1136376064, 1279346816, 1109127808, 1313385856, 1630710272, 1696257792, 1534751104, 1377963392, 1365518592, 1455737856, 1777383424, 1088186240, 1099444992, 1208595072, 2077491584, 1961884288, 1516657792, 1235912704, 1583901824, 1994708992, 1631743616, 1190134528, 1682237696, 1348772352, 1145010432, 2064852608, 1603325696, 1283978880, 1815549056, 1193560320, 2142037248, 1513934208, 1661190272, 1195598592, 1170002432, 1841325056, 1285976448, 1694427392, 1298001280, 1427324672, 1244807424, 1246811904, 1805135872, 1302348416, 2055722368, 1884790400, 1434903552, 1805792256, 1645814272, 1492372352, 1504263296, 2068524288, 1845948032, 1713302528, 1462273920, 1922284160, 1236970496, 2112141184, 1280948864, 1961222528, 1128357248, 2084980096, 1368084864, 1168317696, 1773703552, 1229492736, 2057689984, 1955651840, 2146756352, 2070323200, 1113910912, 1430393856, 1935538304, 1173598336, 1404163840, 1490773632, 1862990464, 1793244032, 1889817728, 1141475072, 1389329536, 1992168064, 1999210112, 1938451072, 2042831232, 1169262208, 1280816384, 1250705920, 1137282048, 1077085696, 1116549760, 1909760128, 1418151936, 1341815680, 1407870464, 1310670464, 1527491200, 1481230720, 1605601792, 1743816704, 1073841024, 2015573632, 1748059776, 1306075136, 1654137344, 1867559936, 1456751616, 1214413184, 1339368576, 2070610432, 1098144640, 1375917824, 1487007104, 1535901440, 1651295872, 1079950464, 1401463040, 1569136128, 1475354240, 1821280512, 1111065728, 1710899072, 1518639360, 1100265472, 1922352384, 1505124224, 1966147968, 2057287040, 1540258688, 1122902016, 1429893120, 1673217408, 1604022272, 1661847168, 1077105024, 1356655360, 1834013696, 1698998400, 1856072448, 1933539968, 2064402944, 1474359296, 1125566336, 2134375168, 1717967872, 1296982784, 1984957440, 1405181696, 1523606016, 1135936000, 1154325888, 1195747328, 2055026304, 1742582656, 1249435520, 1226091520, 1246978944, 1681720448, 1456450176, 1162765568, 1307655680, 1985721984, 1243524352, 1864584192, 1308881536, 1768816512, 1097200512, 1934007808, 2016732160, 2094851584, 1641836800, 1191779840, 1133544192, 1771822720, 1835262336, 2106108800, 1875675392, 1315421440, 1791106432, 1385752960, 1432211584, 1734517632, 1162486784, 1662673792, 1096848000, 1080938752, 1214198016, 1833304320, 1707934336, 1313566592, 1557498112, 1202212480, 1095629696, 1234178432, 1549494272, 1165666432, 1233763584, 1298877056, 2030940928, 1112871552, 1887464576, 1111666048, 1247872640, 1988374912, 1964379136, 1103623680, 1567079552, 1332596096, 2132660608, 1996823168, 1847979904, 2013105920, 2008429056, 1543941760, 1296948480, 1425292928, 1098069376, 1109758464, 1571496704, 2104412288, 1376904192, 2003735040, 1184454528, 1683634304, 1588000512, 1490046592, 1705273344, 1414226560, 1752488064, 1891155456, 1176545536, 1428524032, 1807022464, 1205254912, 1607165696, 1774797952, 1845200384, 1267772672, 1621365760, 1356795520, 1924970752, 1444570496, 1624268800, 1640855680, 1499291008, 1118298112, 1620425472, 1302522880, 2076225664, 1669588608, 1819591680, 1674632320, 1438473472, 1085021440, 1301784448, 1819482752, 1354914560, 2024638848, 1085492608, 1088958208, 1381174784, 1152284928, 2091118336, 1852825984, 1372809600, 2038518784, 2032366592, 2133679488, 2026740480, 1340651008, 1181639040, 1789628160, 2025689216, 2144031360, 1196240128, 1191212416, 1754748416, 2001831936, 1290684672, 1336610816, 1816012928, 1134276992, 2009348864, 2043437824, 1130325376, 2096926720, 2009692416, 1492821632, 1346608768, 1170409984, 2004077440, 1097872256, 1353702272, 1689863936, 1876191872, 1268230912, 2005227392, 1347640832, 1670586624, 1964558080, 2097169152, 1880740992, 1628379264, 1501224960, 1700792192, 1163570048, 1222270720, 1229379072, 1446156032, 1444790400, 1168577536, 1526887424, 1906591872, 1171627776, 1452190336, 1465087872, 1279033344, 1086831104, 1182928000, 1587886208, 1141521280, 1430043264, 1114615936, 1294325504, 1228130816, 1384605440, 1143396864, 1648363648, 1565087360, 1082792832, 1503113216, 1080629376, 1115712768, 2030238848, 1120189952, 1911426688, 1304566528, 1335954048, 1091444864, 1178839936, 1921277696, 1525357184, 2092649856, 1321955968, 1362615552, 1453540096, 1110919936, 1788809600, 1625171968, 1873913856, 1348399744, 1237278848, 1212643840, 1415071872, 1520111360, 1921013376, 1178690944, 1077000960, 1727765120, 2141575296};
static const int8_t CONV16_N_ZERO[] = 	 {0, 0, 0, 0, 0, 0, 0, 0, 0, 0, 0, 0, 0, 0, 0, 0, 0, 0, 0, 0, 0, 0, 0, 0, 0, 0, 0, 0, 0, 0, 0, 0, 0, 0, 0, 0, 0, 0, 0, 0, 0, 0, 0, 0, 0, 0, 0, 0, 0, 0, 0, 0, 0, 0, 0, 0, 0, 0, 0, 0, 0, 0, 0, 0, 0, 0, 0, 0, 0, 0, 0, 0, 0, 0, 0, 0, 0, 0, 0, 0, 0, 0, 0, 0, 0, 0, 0, 0, 0, 0, 0, 0, 0, 0, 0, 0, 0, 0, 0, 0, 0, 0, 0, 0, 0, 0, 0, 0, 0, 0, 0, 0, 0, 0, 0, 0, 0, 0, 0, 0, 0, 0, 0, 0, 0, 0, 0, 0, 0, 0, 0, 0, 0, 0, 0, 0, 0, 0, 0, 0, 0, 0, 0, 0, 0, 0, 0, 0, 0, 0, 0, 0, 0, 0, 0, 0, 0, 0, 0, 0, 0, 0, 0, 0, 0, 0, 0, 0, 0, 0, 0, 0, 0, 0, 0, 0, 0, 0, 0, 0, 0, 0, 0, 0, 0, 0, 0, 0, 0, 0, 0, 0, 0, 0, 0, 0, 0, 0, 0, 0, 0, 0, 0, 0, 0, 0, 0, 0, 0, 0, 0, 0, 0, 0, 0, 0, 0, 0, 0, 0, 0, 0, 0, 0, 0, 0, 0, 0, 0, 0, 0, 0, 0, 0, 0, 0, 0, 0, 0, 0, 0, 0, 0, 0, 0, 0, 0, 0, 0, 0, 0, 0, 0, 0, 0, 0, 0, 0, 0, 0, 0, 0, 0, 0, 0, 0, 0, 0, 0, 0, 0, 0, 0, 0, 0, 0, 0, 0, 0, 0, 0, 0, 0, 0, 0, 0, 0, 0, 0, 0, 0, 0, 0, 0, 0, 0, 0, 0, 0, 0, 0, 0, 0, 0, 0, 0, 0, 0, 0, 0, 0, 0, 0, 0, 0, 0, 0, 0, 0, 0, 0, 0, 0, 0, 0, 0, 0, 0, 0, 0, 0, 0, 0, 0, 0, 0, 0, 0, 0, 0, 0, 0, 0, 0, 0, 0, 0, 0, 0, 0, 0, 0, 0, 0, 0, 0, 0, 0, 0, 0, 0, 0, 0, 0, 0, 0, 0, 0, 0, 0, 0, 0, 0, 0, 0, 0, 0, 0, 0, 0, 0, 0, 0, 0};


/* Layer 17 Learned Parameters */
#define CONV17_BIAS \
 {10230, -28892, -24908, 10364, -15117, 30005, -21218, -15412, 97475, -48859, 50526, -69527, 6389, -27427, -32531, -13283, -20446, 5727, 65976, -5956, 30663, 33905, 789, 49322, 45878, -27838, -17474, 32065, -26288, 18330, 50478, -7528, -88729, 57193, 94210, 100463, -11493, 33593, -13293, 28541, 10210, -59627, 14341, 5106, 16050, 11659, 44352, 5423, -6460, 9108, -34311, -46653, 28241, 77094, 17656, 5183, -12332, 4467, -14337, 20017, -33823, 2422, 25751, 5245, -34310, -6967, 32567, -33266, 29544, 24751, -48612, 6885, 38317, 29005, 40404, 32707, 56860, 31431, 40005, 8204, 2082, 33889, -10531, -27611, 5750, -17724, -9277, -19858, -13808, -2102, 34271, 40691, 11264, -44186, -14855, -623, -4760, 95260, 10355, -14221, 17802, 2130, 12291, 18283, -33641, -24102, 15028, 10011, -23152, -11603, 106581, -22808, 98883, -8191, 78904, 21781, -11862, -32485, -778, -22107, 52314, 44322, 34256, -1184, 11821, 16431, 18404, 13682, 37875, 7924, -36055, 33845, -46099, -97409, -22879, 9305, -9696, -61818, -7972, -31422, 31330, -20743, 85748, -11125, 36359, 1776, 14531, 2231, -8745, -40873, 36089, 14656, 12657, 69667, -12336, 41478, 281, -20592, -17163, 30461, 26412, -15325, 65668, -51870, -17734, -22682, 25893, 53115, 4787, 26053, -25459, 2176, -17272, -26249, -89716, 16577, -58174, -19426, 37957, 28579, -11548, -5585, 28538, -34905, -11371, -22765, -17323, 70490, -18090, 29724, -12205, 3407, 1845, 30040, 14648, -19993, 20617, 13802, 45120, 9616, 62443, 17395, -67046, -5537, -5133, 46693, -2515, 25673, -38731, 23556, -2138, -24481, 11529, 18197, 6856, -12743, 45920, 5455, -26169, 41533, 22265, 17002, -34579, 31184, -11915, -29224, 27316, 33680, 6711, -13259, -19789, 7717, 18678, 35687, 57240, 33636, -5871, 36924, -36275, 39623, -5913, -14982, -5155, -12025, 46402, 4985, 4386, -47696, 26559, -61165, 25527, -18251, -6161, -22339, 20023, -11982, -56700, 26551, -3367, -5765, -19866, 54262, -33571, 11988, 16817, -53331, 33822, -926, -34259, 18694, -6289, -13310, 17161, -14100, -6256, 32379, 52460, 38403, -21206, -50115, 9165, -2198, 11654, -39481, 12692, -36588, 38044, 78630, -9221, 51593, 10297, 7567, -24189, -29488, -14598, 11622, -46287, 184, 36089, -12159, -1840, -28719, 26582, -24503, 54000, 20165, -2815, 28963, -21042, 8060, 3774, -14471, 72786, -16258, -10167, 6759, 42055, 6679, -49537, 6713, 6902, 38642, -15563, 15822, -10098, 857, -56440, -31045, 19945, 40913, -14540, -16396, 8632, 14013, 5686, -22304, 26886, -38644, -29450, -27394, -43666, -9434, 43992, -12838, -23526, -21337, -11175, -12049, -37804, -12413, 31091, 33648, -50817, 6011, -17004, 2983, 65275, 57462, 8793, 12064, -41833, 44545, 43534, 56067, 20375, -6655, 68001, 47202, -2238, -21435, -13219, 18752, 7509, -12790, -2669, -10097, 31882, -7613, -8064, 42744, 13250, 42620, 2423, -67161}
#define CONV17_WT {0}
static const uint8_t CONV17_W_Z[] = 	 {-151, -101, -128, -170, -119, -136, -108, -133, -134, -133, -108, -129, -122, -110, -123, -137, -156, -119, -114, -119, -112, -110, -154, -108, -124, -142, -144, -154, -93, -114, -131, -102, -104, -109, -119, -148, -147, -124, -93, -133, -155, -105, -151, -116, -148, -126, -124, -120, -96, -93, -106, -129, -83, -146, -162, -113, -118, -110, -121, -164, -96, -127, -124, -175, -143, -144, -129, -99, -147, -108, -86, -119, -97, -152, -104, -168, -172, -126, -107, -130, -128, -113, -150, -103, -127, -120, -110, -124, -116, -125, -165, -100, -92, -125, -131, -146, -108, -135, -76, -164, -111, -131, -112, -146, -100, -128, -128, -109, -100, -130, -148, -131, -142, -132, -125, -122, -85, -97, -80, -105, -108, -103, -104, -113, -103, -142, -161, -112, -133, -124, -138, -76, -110, -132, -116, -148, -146, -98, -150, -100, -129, -129, -119, -92, -102, -139, -149, -150, -113, -117, -144, -99, -135, -134, -127, -138, -122, -110, -131, -135, -133, -73, -131, -112, -115, -121, -97, -98, -151, -125, -128, -171, -102, -87, -112, -154, -104, -123, -132, -96, -118, -109, -130, -125, -79, -109, -137, -121, -154, -142, -104, -95, -98, -143, -152, -79, -167, -149, -114, -136, -125, -130, -119, -106, -85, -148, -113, -145, -106, -180, -117, -77, -143, -108, -170, -117, -97, -145, -123, -125, -103, -136, -144, -139, -123, -118, -144, -103, -163, -143, -144, -139, -92, -127, -110, -131, -142, -107, -100, -114, -132, -154, -130, -109, -99, -135, -111, -106, -141, -127, -129, -99, -123, -136, -151, -155, -78, -187, -148, -164, -136, -145, -84, -104, -125, -136, -153, -104, -98, -145, -127, -133, -80, -142, -81, -132, -142, -142, -140, -133, -101, -115, -134, -132, -161, -133, -144, -111, -146, -118, -121, -122, -134, -102, -131, -154, -126, -153, -157, -148, -129, -119, -151, -197, -125, -113, -112, -139, -129, -105, -128, -160, -103, -151, -127, -94, -138, -121, -118, -155, -120, -123, -132, -127, -137, -128, -110, -129, -156, -168, -105, -119, -140, -153, -151, -138, -87, -123, -119, -126, -119, -81, -143, -116, -130, -114, -95, -135, -110, -109, -119, -131, -113, -116, -138, -129, -148, -98, -116, -94, -126, -124, -129, -126, -153, -148, -94, -124, -127, -101, -142, -105, -123, -133, -158, -101, -119, -147, -118, -111, -125, -148, -116, -125};
#define CONV17_IN_Z      	(0)
#define CONV17_OUT_Z     	(0)
static const int32_t CONV17_M_ZERO[] = 	 {1380446720, 1147298176, 1187720576, 1376421120, 2096225536, 1488815744, 1085378816, 1216795904, 1852919680, 1353443712, 1839341056, 1097895808, 1484897920, 2106829312, 1621678080, 1660515840, 1950950144, 1271126912, 1843253632, 1323179776, 1191551104, 1913791616, 1543897344, 1247810944, 1345889024, 1605075840, 1463080832, 1344771200, 2038637312, 1411936000, 1567531904, 1243747200, 1900435840, 1913747840, 1611454080, 1373670912, 1384764928, 2011256448, 1376543872, 1696962304, 1104518784, 1381986048, 1640366080, 1663348480, 1106659456, 1770476416, 1208867840, 1228167040, 2120049152, 1223329152, 1424327424, 2114479232, 1613894144, 1558153216, 1329517824, 2029362432, 2014073088, 1453893376, 1483484544, 1934818944, 1476584576, 1600127744, 1418523136, 1811669120, 1131020288, 1262384128, 1623693056, 1479172224, 1513882496, 1813645440, 2104757376, 1230611072, 2021467904, 1580372224, 1381233664, 1389336064, 2064497792, 1466746752, 1689303680, 1467479936, 1249069184, 1096359680, 1419048192, 1723088768, 2036397184, 1198213888, 1357235456, 1673064576, 2127876224, 1992457728, 1615803008, 1538732800, 1472974208, 2063437696, 1985955968, 1324896640, 1444094720, 1167973504, 1088049408, 1106255104, 1116543104, 1488641152, 1958006912, 1287609088, 1201970304, 1142754432, 1495313280, 1413108352, 1408169344, 1087312000, 1292973696, 1846423552, 1803991296, 1341159680, 1584739328, 1396642944, 1332364672, 1188661888, 1510678784, 1947098368, 2022700416, 1306576896, 1977380480, 1339933952, 2031529984, 1073799680, 1784661760, 1297219328, 1633705984, 1263890816, 2063809536, 1211081344, 1192694400, 1627276544, 1984783872, 1309792512, 1915729280, 1276079232, 1082732544, 1756838400, 1130525824, 2062605568, 1609288704, 1911629952, 1828235648, 1966561664, 1138972544, 1652662016, 1567875456, 1126155392, 1281841152, 1980183552, 1837508224, 1676931712, 1108622336, 2041529344, 1184033792, 1210211072, 1491780992, 2147152896, 1420375808, 1383016704, 1088017280, 2135445504, 1530569984, 1244368896, 1309368448, 2071455616, 2138293248, 1939625984, 1225335808, 1689217152, 1159254912, 1669250944, 2137909504, 1997974272, 1275783040, 2005435008, 1864026496, 1521851904, 1643880832, 2089676416, 1074018176, 2111251456, 1233574400, 1283029888, 1277050752, 1942677760, 1254762112, 1561318272, 1689272576, 1337560960, 1677271808, 1162481664, 1447300224, 1142196096, 1419603328, 1139597312, 1465011072, 2091066240, 1795893888, 1536181248, 1601184512, 2016867968, 1915390848, 1396484992, 1254256640, 1237396480, 1860481664, 1857087744, 1797395200, 1417218176, 1777640832, 1587187968, 1501293568, 1507625344, 1187493248, 2023321472, 1467009280, 1467519488, 1854088960, 1283856512, 1215162752, 1388321280, 1807283712, 1941675008, 1170797440, 1642744704, 1348791040, 1572422912, 1304815104, 1114566784, 1989611648, 1292257280, 1513477504, 2142567296, 1388403584, 1730417280, 1219054336, 1098930176, 1257940352, 1871094528, 2098111104, 1833847296, 1637080192, 1224939520, 2032891008, 1383957888, 1221795968, 1115231232, 1397469824, 1945191680, 1866120320, 1427508096, 1719362688, 1611459072, 2115652864, 1360108416, 1275982976, 1729467392, 2036451200, 1078097280, 1247178880, 1228206464, 1074479232, 1175992448, 1163334656, 1460837120, 1574079488, 1898904704, 1644777728, 1345465344, 1497220992, 1184963072, 1952053760, 1344413312, 2059422464, 1802962944, 1920248320, 1966855808, 1548817792, 2140642048, 1972501632, 1183062528, 1375196672, 1821431808, 2021846016, 1104986880, 1850852736, 1898005376, 1278920064, 1078683392, 1464739712, 1461463808, 1465345664, 1178009216, 1105846528, 1405796224, 1493048192, 1201219456, 1239680128, 1362995968, 2109440000, 1155049216, 1321886720, 1834073344, 1078211968, 1781789952, 1571721984, 1291364096, 1266122624, 1269249664, 1528258432, 1540855424, 1292694656, 1834831616, 1334827008, 1477282560, 1103678080, 1103169792, 1588468608, 1419348096, 1221049344, 1420476800, 1088314624, 2145296256, 1882383488, 1357890048, 1257978752, 1131912064, 1630630272, 2023495040, 1186410624, 2091692416, 1314588672, 1244315008, 1619766912, 1925959424, 2085135744, 1215043840, 1326968320, 1847780864, 1131377280, 1077345920, 1773499904, 1106767872, 1125441920, 1219710336, 1959158912, 1201017472, 1118018432, 1087302912, 1163540480, 1100687744, 1871823744, 1282307968, 1215354112, 1735528320, 1169245568, 1463050624, 2094919808, 1133371008, 1258800128, 1779487744, 1690508928, 2120030592, 1334827520, 2142156160, 1178129152, 1094376320, 1703138304, 1923613056, 1255698432, 1932251392, 1358935040, 1558949888, 1416915328, 1529076480, 1082289152, 1541547904, 1397697024, 1107606784, 1252267392, 1951451520};
static const int8_t CONV17_N_ZERO[] = 	 {0, 0, 0, 0, 0, 0, 0, 0, 0, 0, 0, 0, 0, 0, 0, 0, 0, 0, 0, 0, 0, 0, 0, 0, 0, 0, 0, 0, 0, 0, 0, 0, 0, 0, 0, 0, 0, 0, 0, 0, 0, 0, 0, 0, 0, 0, 0, 0, 0, 0, 0, 0, 0, 0, 0, 0, 0, 0, 0, 0, 0, 0, 0, 0, 0, 0, 0, 0, 0, 0, 0, 0, 0, 0, 0, 0, 0, 0, 0, 0, 0, 0, 0, 0, 0, 0, 0, 0, 0, 0, 0, 0, 0, 0, 0, 0, 0, 0, 0, 0, 0, 0, 0, 0, 0, 0, 0, 0, 0, 0, 0, 0, 0, 0, 0, 0, 0, 0, 0, 0, 0, 0, 0, 0, 0, 0, 0, 0, 0, 0, 0, 0, 0, 0, 0, 0, 0, 0, 0, 0, 0, 0, 0, 0, 0, 0, 0, 0, 0, 0, 0, 0, 0, 0, 0, 0, 0, 0, 0, 0, 0, 0, 0, 0, 0, 0, 0, 0, 0, 0, 0, 0, 0, 0, 0, 0, 0, 0, 0, 0, 0, 0, 0, 0, 0, 0, 0, 0, 0, 0, 0, 0, 0, 0, 0, 0, 0, 0, 0, 0, 0, 0, 0, 0, 0, 0, 0, 0, 0, 0, 0, 0, 0, 0, 0, 0, 0, 0, 0, 0, 0, 0, 0, 0, 0, 0, 0, 0, 0, 0, 0, 0, 0, 0, 0, 0, 0, 0, 0, 0, 0, 0, 0, 0, 0, 0, 0, 0, 0, 0, 0, 0, 0, 0, 0, 0, 0, 0, 0, 0, 0, 0, 0, 0, 0, 0, 0, 0, 0, 0, 0, 0, 0, 0, 0, 0, 0, 0, 0, 0, 0, 0, 0, 0, 0, 0, 0, 0, 0, 0, 0, 0, 0, 0, 0, 0, 0, 0, 0, 0, 0, 0, 0, 0, 0, 0, 0, 0, 0, 0, 0, 0, 0, 0, 0, 0, 0, 0, 0, 0, 0, 0, 0, 0, 0, 0, 0, 0, 0, 0, 0, 0, 0, 0, 0, 0, 0, 0, 0, 0, 0, 0, 0, 0, 0, 0, 0, 0, 0, 0, 0, 0, 0, 0, 0, 0, 0, 0, 0, 0, 0, 0, 0, 0, 0, 0, 0, 0, 0, 0, 0, 0, 0, 0, 0, 0, 0, 0, 0, 0, 0, 0, 0, 0};


/* Layer 18 Learned Parameters */
#define CONV18_BIAS \
 {25168, -15906, 13627, -2398, -1215, -7454, -8760, -10227, 1717, 12779, 6944, 69475, 8831, -11701, -2615, 62307, 65724, 23412, 25819, -2334, -59, 12332, -1187, 12497, -9611, -8764, 73711, -19268, -2360, -14017, 8153, -13971, -197, 26661, 18626, 21379, -5182, 17148, 49559, -13634, -8571, -6237, -12552, -17684, 24666, -4236, 8000, -13818, -11180, 34617, -17525, 4999, 41845, 15416, 8115, 33619, -11015, 37090, 55317, 38423, -8647, 7266, 26134, -15524, 26, 11271, 7162, 141572, 12560, 48773, 10591, -7682, 17544, 5306, 54751, -2519, 7062, 1768, -60, -8810, -14966, 121612, 36046, 25202, 58025, -4722, -5632, 68359, -8911, 177640, -6983, 17044, 47725, -16099, -15342, -1828, 50550, 21763, 12846, -32132, -2354, -9645, 15587, 21638, -3779, 39513, -3140, -8295, -10385, -6801, 18384, -8176, 10819, -14520, 7374, -12612, -12859, 37510, 66222, -20582, 43231, -3243, 19622, 3671, 2503, 99, -10523, -3921, 23801, -4500, 12042, 23402, 92862, -8464, -14835, 26469, 8026, 42382, 53995, 3570, 7694, -4719, 30281, 85050, 386, -3209, -4967, 49690, 17160, 39139, -8285, 32672, 25212, 12098, 9617, -6604, -5360, 57090, -645, -5221, 8977, 84854, 26186, 9869, -20049, -3864, 39255, -95, -1750, -321, -8219, -4543, 24052, 51729, 42769, -9284, -5355, -3933, 33183, 102743, -2779, 19632, -8266, -4654, 29175, -15063, -15745, 20464, -6643, -41146, 5093, 17009, 9969, -7152, -14025, -3561, 4944, 17071, -2547, 22784, 7845, 32421, -7606, 42509, -14918, 18254, 1586, 11650, -561, 43511, -10544, -7550, 82712, 11990, 35810, -15127, 21541, 22308, 221, -10757, -17423, -2116, -25563, 9843, -7750, 37628, 56705, 21639, 33890, 5730, 4838, -1575, 27645, 13460, 2325, 32239, -7202, 29033, -3218, -3146, -217, 11796, -11838, -9185, 106024, -6748, 21822, -6020, 19871, -2494, -7150, -6798, -11403, -28757, -22440, -10783, -39247, 7647, 47311, -20521, 26544, -8824, -2283, 65194, 72538, 12090, -9888, -568, 10429, -1887, 3811, -6499, 565, -22127, -4031, 19709, 5654, 844, -9433, -1581, 4850, -7372, 27628, -11824, 58950, -12013, 47456, -4704, -34751, 31334, -305, 29000, 63897, 47545, -10594, -1353, 73820, -12076, -5307, 17107, -5976, 92480, -2872, -6978, 21317, -1210, -14046, 9095, 1872, -3687, 49781, 15314, 3102, 17766, -36935, 91402, 2243, 13922, -8380, 47207, 131753, -10335, -66, 21076, 424, -6140, -228, 29604, 120, 10290, 40742, -4835, -8271, 7111, -40338, 13387, -13340, 136143, 55277, 8147, -1403, 44526, -17493, 52689, -14940, -10562, 56225, -5502, -23668, -2618, -6546, -3163, -748, 5127, 48367, 47778, -11328, 22094, 48929, 42549, 80150, -7828, 19476, 4747, 12064, 61542, 2146, 23179, 27892, 55370, -4862, -2369, 2926, -16374, 172769, 108695, 35649, 15410, -5040, -2039, -1653, 11622, 36288, -3425}
#define CONV18_WT {0}
static const uint8_t CONV18_W_Z[] = 	 {-99, 4, -75, -10, -94, -116, -25, 12, -43, -106, -98, -263, -35, 51, -55, -350, -238, -131, -232, -46, -46, -48, -92, -83, -2, -1, -335, -24, -10, -10, -86, 1, 1, -258, -253, -261, -109, -193, -319, -80, -59, -41, 9, 25, -209, -90, -50, 15, 7, -275, 2, -52, -382, -222, -85, -253, -42, -220, -259, -152, 50, -130, -245, -87, -64, -107, -31, -393, -88, -335, -44, 3, -209, -128, -356, -63, -96, -16, -127, -5, -2, -454, -325, -127, -337, -8, -13, -435, -1, -689, -104, -206, -191, 3, 11, -64, -257, -253, -80, 21, -115, -32, -133, -94, -109, -408, -2, 10, 68, -13, -211, -5, -36, 33, -36, 10, 15, -283, -392, 37, -286, -5, -118, -46, -168, -40, -10, -54, -260, -9, -166, -259, -349, -25, 3, -98, -151, -202, -254, -55, -131, -36, -250, -498, -20, -16, -46, -258, -107, -275, -18, -245, -222, -96, -130, -14, -24, -321, -83, -32, -46, -568, -182, -38, 26, -39, -305, -42, -18, -162, -87, -117, -185, -220, -373, -21, -13, -26, -254, -350, -149, -78, -66, -4, -204, -9, 16, -161, -54, 4, -80, -78, -41, -78, 34, -14, -72, -175, -95, -242, -59, -108, -14, -274, 29, -227, -19, -164, -10, -164, -19, -8, -291, -91, -260, 28, -145, -205, -118, -6, 9, -58, 19, -55, -161, -280, -321, -255, -146, -25, -47, 17, -247, -60, -134, -238, -3, -263, -63, -10, -11, -128, -11, -76, -528, -142, -107, 2, -155, -77, -46, -13, 13, 29, -26, 5, 57, -63, -123, 18, -177, 10, -29, -418, -507, -100, 5, -15, -58, -13, -35, -59, -145, -22, -95, -123, -51, -20, 22, 86, -71, -16, -154, -23, -416, -20, -268, -25, 32, -259, -131, -279, -369, -370, 19, -65, -368, 4, -118, -141, -25, -427, -19, -31, -254, -166, 3, -34, -117, -49, -344, -60, -28, -103, -24, -480, -48, -86, -119, -273, -573, -3, -11, -117, -52, 0, -133, -267, -141, -93, -302, -53, -42, -77, -10, -96, 4, -376, -233, -74, -124, -221, -66, -243, -11, -8, -284, -44, 35, -82, 1, -8, -6, -81, -343, -212, 16, -256, -435, -286, -293, -151, -150, -16, -84, -363, -54, -256, -163, -201, -6, -9, -27, -2, -392, -424, -260, -93, -26, -97, -127, -120, -238, -22};
#define CONV18_IN_Z      	(0)
#define CONV18_OUT_Z     	(0)
