#ifndef __160_0_25_WEIGHTS_BIAS_H__
#define __160_0_25_WEIGHTS_BIAS_H__


/* Layer 1 Learned Parameters */
#define CONV1_BIAS \
 {174940, 2029513, 113745, -58159028, 36173, 50430, -32731720, 102417}
#define CONV1_WT {0}
static const uint8_t CONV1_W_Z[] = 	 {-59, -243, -158, -44, -98, -94, -188, -112};
#define CONV1_IN_Z      	(127)
#define CONV1_OUT_Z     	(0)
static const int32_t CONV1_M_ZERO[] = 	 {1614091392, 1451004544, 1332797440, 1549548800, 1289575168, 1482427136, 1539206272, 1090281600};
static const int8_t CONV1_N_ZERO[] = 	 {0, 0, 0, 0, 0, 0, 0, 0};


/* Layer 2 Learned Parameters */
#define CONV2_BIAS \
 {13188, -4094, 83210, -294, 14340, 13992, -205, 4539}
#define CONV2_WT {0}
static const uint8_t CONV2_W_Z[] = 	 {-55, -72, -175, -94, -110, -104, -74, -64};
#define CONV2_IN_Z      	(0)
#define CONV2_OUT_Z     	(0)
static const int32_t CONV2_M_ZERO[] = 	 {1514174336, 2048701696, 1757045504, 1637386752, 1625798272, 1283069056, 1883363968, 1351751040};
static const int8_t CONV2_N_ZERO[] = 	 {0, 0, 0, 0, 0, 0, 0, 0};


/* Layer 3 Learned Parameters */
#define CONV3_BIAS \
 {2776, 70249, -6854207, 28588, 17786, 46116, 36065, 35457, 43534, 31354, -9584, 70409, -108, -2269244, -8521, 44726}
#define CONV3_WT {0}
static const uint8_t CONV3_W_Z[] = 	 {-7, -250, -34, -216, 0, -255, -255, -220, -135, -217, -29, -237, -187, -235, -24, -255};
#define CONV3_IN_Z      	(0)
#define CONV3_OUT_Z     	(0)
static const int32_t CONV3_M_ZERO[] = 	 {1189695488, 1629207552, 1218008704, 1980881664, 1089945600, 1849615616, 1215221760, 1308872064, 2042571520, 2110712320, 1797107072, 1087670784, 1261402496, 2113831680, 1642729856, 1462189184};
static const int8_t CONV3_N_ZERO[] = 	 {0, 0, 0, 0, 0, 0, 0, 0, 0, 0, 0, 0, 0, 0, 0, 0};


/* Layer 4 Learned Parameters */
#define CONV4_BIAS \
 {-12649, 160663, -424, -18854, -113, -9844, 87660, 16300, 10290, 93873, 20436, 13805, 111478, -684, -10432, 3001}
#define CONV4_WT {0}
static const uint8_t CONV4_W_Z[] = 	 {-57, -212, -37, -24, -140, -76, -288, -111, -126, -213, -97, -134, -204, -25, -32, 24};
#define CONV4_IN_Z      	(0)
#define CONV4_OUT_Z     	(0)
static const int32_t CONV4_M_ZERO[] = 	 {1219700864, 1895337728, 1922213376, 1701773440, 1551001088, 1388631808, 1192139008, 2067055488, 1470724096, 1086651776, 1402858112, 1542778752, 1148628480, 2061652864, 2020189056, 1799455744};
static const int8_t CONV4_N_ZERO[] = 	 {0, 0, 0, 0, 0, 0, 0, 0, 0, 0, 0, 0, 0, 0, 0, 0};


/* Layer 5 Learned Parameters */
#define CONV5_BIAS \
 {1147, 33164, -19169, 59304, -2894, 3465, 26578, -742, 94248, 32788, -1887, 3558, 13428, 376, -7587, -28811, 83948, 53342, 35583, -2446, -12495, 5691, 2528, 15724, 7440, 31294, 403, -2501, -1771, 224949, -41539, 45033}
#define CONV5_WT {0}
static const uint8_t CONV5_W_Z[] = 	 {-48, -189, -24, -195, -34, -77, -26, -23, -138, -233, -118, -58, -141, -92, -16, -41, -105, -140, -19, -36, -60, -63, -88, -143, -39, -174, -94, -8, -38, -97, -47, -196};
#define CONV5_IN_Z      	(0)
#define CONV5_OUT_Z     	(0)
static const int32_t CONV5_M_ZERO[] = 	 {1263525248, 1128455424, 1462192640, 1571892736, 1641247616, 1468972800, 1734709248, 1197792000, 1109352192, 1125537024, 1679625600, 1660614272, 1428820736, 1621516544, 1815763584, 1466689920, 1812584704, 1189419008, 1235309952, 1653477888, 1521148544, 1601646720, 1820214400, 1315166464, 1174022784, 1213900160, 1938948096, 1803646464, 1267631104, 1700774656, 1124466432, 1252713856};
static const int8_t CONV5_N_ZERO[] = 	 {0, 0, 0, 0, 0, 0, 0, 0, 0, 0, 0, 0, 0, 0, 0, 0, 0, 0, 0, 0, 0, 0, 0, 0, 0, 0, 0, 0, 0, 0, 0, 0};


/* Layer 6 Learned Parameters */
#define CONV6_BIAS \
 {12867, 9047, 3993, 326, 41526, -61, -10216, 2365, -28454, 5819, -39, 8191, 10528, 28327, 1524, 3603, 872, -12417, 72, 16539, 39303, 2758, 1806, -332, -74, 138, 36151, 16216, 33085, -21176, 136, 12697}
#define CONV6_WT {0}
static const uint8_t CONV6_W_Z[] = 	 {-65, -21, -134, -83, -182, -107, -66, -132, -12, -147, -111, -102, -96, -135, -124, -92, -111, -154, -114, -101, -129, -127, -116, -145, -135, -107, -139, -211, -136, -98, -31, -77};
#define CONV6_IN_Z      	(0)
#define CONV6_OUT_Z     	(0)
static const int32_t CONV6_M_ZERO[] = 	 {1928469888, 2032533632, 1173871488, 2052285440, 1771151872, 1744352768, 2083288960, 1948753536, 1809327360, 1966822528, 1226083968, 1437412096, 1997628672, 1077202944, 1573228032, 1652246784, 1116240512, 1115883520, 1856320512, 1806273024, 1229849472, 1854811008, 1939238272, 1235650048, 1889778432, 1657248256, 1756912128, 1240432384, 1292369280, 1430450944, 1127010048, 1891528064};
static const int8_t CONV6_N_ZERO[] = 	 {0, 0, 0, 0, 0, 0, 0, 0, 0, 0, 0, 0, 0, 0, 0, 0, 0, 0, 0, 0, 0, 0, 0, 0, 0, 0, 0, 0, 0, 0, 0, 0};


/* Layer 7 Learned Parameters */
#define CONV7_BIAS \
 {1694, -5120, 65789, 23010, 35838, 327, 155471, -10909, 1781, 3626, 4864, -14711, 74445, 55298, -1642, 29582, 2131, 25806, 38930, 3962, -27166, 21766, -11903, 6794, 4449, 67416, 12719, 57083, 28836, 3012, -59657, 29080}
#define CONV7_WT {0}
static const uint8_t CONV7_W_Z[] = 	 {-80, -106, -209, -119, -171, -190, -181, -75, -35, -168, -148, -117, -212, -84, -173, -101, -70, -118, -170, -118, -107, -101, -44, -107, -25, -221, -97, -138, -102, -190, -69, -102};
#define CONV7_IN_Z      	(0)
#define CONV7_OUT_Z     	(0)
static const int32_t CONV7_M_ZERO[] = 	 {1537873152, 1233151744, 1859138560, 2109572480, 1683389184, 1098253184, 1536358912, 1548772864, 1360015616, 1236106240, 2130092800, 1286427520, 1123500672, 1182535424, 1958781824, 1242416512, 1290846208, 1342889216, 1936619904, 1271557504, 2031615232, 1647498496, 1811686912, 1509024256, 1159612672, 2113219968, 1134751360, 1121728768, 1316419072, 1522052480, 1203249920, 1542540800};
static const int8_t CONV7_N_ZERO[] = 	 {0, 0, 0, 0, 0, 0, 0, 0, 0, 0, 0, 0, 0, 0, 0, 0, 0, 0, 0, 0, 0, 0, 0, 0, 0, 0, 0, 0, 0, 0, 0, 0};


/* Layer 8 Learned Parameters */
#define CONV8_BIAS \
 {56410, 57011, 16975, 88963, 240408, 1605, 11087, 11441, -88413, 24094, 10134, 36083, 168940, -90937, 2650, 68509, -8321, 274723, 51229, 101044, 64363, 16258, 4834, 128918, 199291, 111460, 210962, 81071, -47658, 25372, 173669, -87229}
#define CONV8_WT {0}
static const uint8_t CONV8_W_Z[] = 	 {-117, 111, -181, -135, -291, -79, -129, -101, 37, 35, 66, 60, -296, -13, -12, 66, -5, -288, -159, -196, -147, -103, 41, -325, -327, -317, -248, -244, 73, 46, -287, 77};
#define CONV8_IN_Z      	(0)
#define CONV8_OUT_Z     	(0)
static const int32_t CONV8_M_ZERO[] = 	 {1223222272, 1715821696, 1151316224, 1114579840, 1538775936, 1262850816, 1589134720, 1372749312, 1166511872, 1158409344, 1299437568, 1876703104, 1671703296, 1622665728, 1600367616, 1489831424, 1580543872, 1346213888, 1369041664, 2049870080, 1623754752, 1732310016, 1301632896, 1541000064, 1228131328, 1927340160, 1414126208, 1201889792, 2121470848, 1373125120, 1583939200, 1171837824};
static const int8_t CONV8_N_ZERO[] = 	 {0, 0, 0, 0, 0, 0, 0, 0, 0, 0, 0, 0, 0, 0, 0, 0, 0, 0, 0, 0, 0, 0, 0, 0, 0, 0, 0, 0, 0, 0, 0, 0};


/* Layer 9 Learned Parameters */
#define CONV9_BIAS \
 {532, 22041, 18122, 9619, 11469, 136668, 22169, -1734, 21322, 21750, -15681, 53492, 101151, 140018, 17224, 9669, 18181, -2098, -54667, 18604, -6386, 26461, -40809, 12221, 6791, -456, -38712, 8469, 25296, -26078, -34745, -19285, -20069, 20190, 7496, 17819, -11153, 42875, 37222, 2606, 34635, -12818, 15843, -10525, 50532, 83610, 32974, -3454, 28219, -7048, -31928, 21366, 14207, 30732, -57168, -67286, 50682, -56930, 26879, 138399, 29617, 49983, 21434, 32091}
#define CONV9_WT {0}
static const uint8_t CONV9_W_Z[] = 	 {-131, -108, -103, -106, -145, -208, -96, -126, -165, -101, -32, -97, -160, -183, -131, -137, -110, -80, -81, -189, -49, -140, -59, -154, -74, -96, -44, -44, -84, -88, -110, -65, -135, -152, -121, -68, -118, -117, -178, -146, -221, -149, -98, -44, -136, -139, -219, -76, -110, -94, -46, -165, -133, -98, -102, -77, -144, -70, -193, -198, -98, -244, -116, -91};
#define CONV9_IN_Z      	(0)
#define CONV9_OUT_Z     	(0)
static const int32_t CONV9_M_ZERO[] = 	 {1631414272, 1332992128, 1418174720, 1392371840, 1519808512, 1616817152, 1374568576, 1309812096, 1205684352, 1918673920, 1621761920, 1632645760, 2064262912, 1270523392, 1382368640, 1574805760, 2043736192, 1771032960, 1297558912, 1701304832, 2127402368, 1502738432, 1294261888, 1463449728, 1809044992, 1471049600, 1783031296, 1997772800, 1929873024, 1553233920, 1107303424, 1183656960, 1483847936, 1854666112, 2014205952, 1759888640, 1795596288, 1201149952, 1192578944, 1285373440, 2052166144, 1245455744, 1252224000, 1320855040, 1353857664, 2127757952, 1566092800, 1988454656, 1174580480, 2091307136, 1289817216, 1100332672, 1812022400, 1755639680, 1722737664, 1656669184, 2033872640, 1142826624, 1368060928, 1589599360, 1091064960, 1436343296, 1743780736, 1223695232};
static const int8_t CONV9_N_ZERO[] = 	 {0, 0, 0, 0, 0, 0, 0, 0, 0, 0, 0, 0, 0, 0, 0, 0, 0, 0, 0, 0, 0, 0, 0, 0, 0, 0, 0, 0, 0, 0, 0, 0, 0, 0, 0, 0, 0, 0, 0, 0, 0, 0, 0, 0, 0, 0, 0, 0, 0, 0, 0, 0, 0, 0, 0, 0, 0, 0, 0, 0, 0, 0, 0, 0};


/* Layer 10 Learned Parameters */
#define CONV10_BIAS \
 {75964, -7914, 40164, -254, 49340, 45290, 15234, -926, -5693, -1215, 44664, -1276, -1962, -24385, -857, 24254, 10106, -68, -4522, 13085, 2378, -1757, 4072, 17019, 9770, -16258, 6644, 11706, 1982, 6265, -3493, -892, 196, 1091, 1551, 70096, -554, 66389, 6359, 102, -8064, 66816, -1955, 80109, 288, -11050, 59305, 3233, 65, -14894, 12, -6787, 5473, 21179, 1023, -869, 18734, 12316, -6470, 3582, 44957, 14370, -7915, 1334}
#define CONV10_WT {0}
static const uint8_t CONV10_W_Z[] = 	 {-247, -33, -200, -130, -198, -164, -85, -124, -86, -128, -253, -115, -125, -35, -125, -125, -70, -94, -28, -46, -50, -88, -14, -251, -231, -10, -62, -47, -170, -176, -87, -32, -21, -88, -170, -247, -119, -236, -33, -32, -20, -230, -71, -246, -121, -35, -223, -88, -130, -34, -19, -81, -100, -82, -43, -107, -189, -238, -31, -107, -212, -217, -34, -122};
#define CONV10_IN_Z      	(0)
#define CONV10_OUT_Z     	(0)
static const int32_t CONV10_M_ZERO[] = 	 {1241816576, 1608515456, 1471806976, 1759608064, 1199392256, 1158681856, 1552887296, 1220857856, 1980601600, 1459218432, 1341868416, 1586463360, 2093401728, 1223912576, 1964183424, 1465179520, 1835401216, 1268170752, 1392274944, 1573104000, 1485897472, 1585117056, 1148504320, 1769871872, 1267722752, 1231945728, 1084481920, 1585400064, 1621011456, 1568271360, 2054699264, 2099520128, 1671463808, 1261859712, 1545042688, 1454227072, 1317214592, 1104396416, 1647418624, 1555556992, 2028072704, 1433985024, 1099345920, 1541989504, 1169508480, 1275300992, 1575843328, 1428640128, 1467001216, 1754182528, 1152897536, 1103386368, 1524275712, 1622706816, 1941940736, 1541000576, 1942839296, 1906410496, 1276704256, 1361822720, 1666031488, 1277332352, 1981238272, 1699795584};
static const int8_t CONV10_N_ZERO[] = 	 {0, 0, 0, 0, 0, 0, 0, 0, 0, 0, 0, 0, 0, 0, 0, 0, 0, 0, 0, 0, 0, 0, 0, 0, 0, 0, 0, 0, 0, 0, 0, 0, 0, 0, 0, 0, 0, 0, 0, 0, 0, 0, 0, 0, 0, 0, 0, 0, 0, 0, 0, 0, 0, 0, 0, 0, 0, 0, 0, 0, 0, 0, 0, 0};


/* Layer 11 Learned Parameters */
#define CONV11_BIAS \
 {-77215, -22607, 24430, 7230, -27500, 32153, 661, 41942, 9294, 3634, -55810, 2211, -7332, -6066, -3487, 20103, 40436, -29268, -45866, 55552, 71717, -28966, 11630, -71527, 26289, 1648, 14855, 9904, -11223, 51353, 94898, 13677, -54285, 8935, 21251, 25180, 2056, -2937, -24379, 30627, 12847, -23836, -25587, 4183, -5836, 38757, -47767, 27993, -9725, -36698, -9600, -29811, 103320, 12907, -1952, -48669, 60865, 67790, 17055, 3638, -8200, -20089, 17162, -20943}
#define CONV11_WT {0}
static const uint8_t CONV11_W_Z[] = 	 {-112, -133, -161, -141, -113, -83, -126, -157, -157, -97, -61, -54, -72, -135, -133, -117, -141, -74, -98, -165, -219, -112, -160, -92, -109, -91, -129, -123, -109, -111, -159, -137, -84, -68, -156, -184, -103, -114, -33, -129, -101, -98, -140, -185, -98, -173, -158, -89, -79, -119, -111, -115, -138, -131, -149, -87, -216, -193, -59, -133, -49, -122, -116, -121};
#define CONV11_IN_Z      	(0)
#define CONV11_OUT_Z     	(0)
static const int32_t CONV11_M_ZERO[] = 	 {2053476096, 1598507392, 1242238336, 1199089280, 1459651328, 1301150848, 2073702272, 1635757184, 1155239552, 1166380416, 1510827648, 1692542848, 1221696512, 1458077440, 1763803648, 1209133696, 1284852224, 1432185088, 1324743424, 1288914560, 1327545856, 1538414464, 1159112192, 1604047360, 1206617216, 1901482880, 1948634496, 1094984704, 1730013696, 1738176640, 1691941632, 2059903104, 1625663744, 1777245056, 1716578560, 1293254912, 1237357696, 1256817408, 1102462208, 1716649472, 1116019328, 1111436928, 1164442496, 1093248384, 1079625088, 1595851776, 1513704704, 1577935232, 1734460544, 1198976128, 1080599296, 1292976256, 1445302144, 1619180160, 1407064320, 1416413952, 1322440448, 1355209856, 1238594944, 1779692288, 1173916416, 2010655360, 1395665664, 1633354752};
static const int8_t CONV11_N_ZERO[] = 	 {0, 0, 0, 0, 0, 0, 0, 0, 0, 0, 0, 0, 0, 0, 0, 0, 0, 0, 0, 0, 0, 0, 0, 0, 0, 0, 0, 0, 0, 0, 0, 0, 0, 0, 0, 0, 0, 0, 0, 0, 0, 0, 0, 0, 0, 0, 0, 0, 0, 0, 0, 0, 0, 0, 0, 0, 0, 0, 0, 0, 0, 0, 0, 0};


/* Layer 12 Learned Parameters */
#define CONV12_BIAS \
 {54, 287488, 214683, -13, -804, 3644, -10444, 40972, 29176, 85112, 37169, 76022, 239065, 78888, -5553, 332544, 220049, 135953, 2526, 128193, 135630, 7131, -1359, 10114, 184658, 100021, 101241, 9072, 9104, 259908, 1065, 5734, 66969, 9300, -2439, 218424, 3071, 61416, 201646, -69188, 65864, 160047, 316, -44287, 60, 159746, -2704, -62110, -90, 238, 80460, 21, 206552, 85, 76832, 3268, -3440, 2572, 248916, 1137, 123666, 570, -49693, 76840}
#define CONV12_WT {0}
static const uint8_t CONV12_W_Z[] = 	 {76, -324, -316, 64, 91, -150, 72, -201, 77, -326, 57, -246, -314, -314, 38, -295, -312, -322, -100, -303, -318, 75, 62, 62, -276, -278, 69, 48, 51, -327, -166, 55, -319, -179, 61, -336, 63, -365, -338, 61, -305, -323, 43, 53, 80, -315, 69, 53, -165, 49, -325, 97, -314, 68, -304, 43, 73, 65, -322, 54, -332, 44, 59, -332};
#define CONV12_IN_Z      	(0)
#define CONV12_OUT_Z     	(0)
static const int32_t CONV12_M_ZERO[] = 	 {1899199616, 1989453696, 1520331520, 1581335296, 1165483648, 1186507648, 1272198272, 1467352448, 1450260864, 1757527680, 1254450048, 2108082432, 1165115648, 1144126336, 1237620096, 1225468544, 1159159936, 1650723456, 1105424896, 1994571136, 1606642560, 2142980224, 1451870592, 1444977280, 1188829312, 1293590912, 1420809344, 1121548544, 1361514240, 1451177344, 2031967360, 1481436288, 1336053504, 1415030272, 1186943232, 1796848896, 1956880128, 1120109696, 1538199552, 1795147008, 1286775680, 1952310528, 1957937408, 1490153472, 1489900288, 1566580864, 1650473984, 1221001856, 1354550400, 2129936000, 2061570560, 1246816512, 1656855168, 1491016704, 1427846400, 1886699264, 1155439872, 1878511488, 2045987328, 1107134080, 1742646912, 1103026304, 1636285184, 2127561856};
static const int8_t CONV12_N_ZERO[] = 	 {0, 0, 0, 0, 0, 0, 0, 0, 0, 0, 0, 0, 0, 0, 0, 0, 0, 0, 0, 0, 0, 0, 0, 0, 0, 0, 0, 0, 0, 0, 0, 0, 0, 0, 0, 0, 0, 0, 0, 0, 0, 0, 0, 0, 0, 0, 0, 0, 0, 0, 0, 0, 0, 0, 0, 0, 0, 0, 0, 0, 0, 0, 0, 0};


/* Layer 13 Learned Parameters */
#define CONV13_BIAS \
 {43479, 20904, 15515, 25492, 20952, 70345, 28435, 55253, 98464, -5534, -27667, 1741, 47626, 81850, -5869, -21630, 75459, 8891, 77506, 45135, -28977, 4085, -35355, -29960, -19702, 7306, 103870, 16854, 33638, -12582, 86535, -8222, -5249, -1967, 49398, -8591, 572, 45812, 28270, 13774, 37032, 40238, 24614, 3896, 65720, -39557, 61392, -5385, 36841, 3096, 20857, -1883, -1219, 12704, 24171, -12758, -48717, -3414, -1723, 8394, 20160, 1953, 28818, 34190, 19957, -5475, 38861, 31762, 8089, 28995, 6486, 78619, 20524, -29868, 63967, 32191, 15879, 83057, 69719, 65361, 29403, 6081, 50938, 23075, -17621, 52376, 10471, 41349, 2721, 7183, 14484, 3741, 62494, 8549, 60891, 32458, -31365, 20750, -2619, 31415, 83232, 62316, 45602, 11880, -8054, -27321, -28233, 56053, 127624, -17843, 20415, 55243, -5811, -22668, 17468, 19706, 41795, -13346, 14230, 72118, 38843, -29228, 23930, -7150, 61511, -70478, 25393, 33865}
#define CONV13_WT {0}
static const uint8_t CONV13_W_Z[] = 	 {-164, -155, -101, -152, -108, -94, -135, -134, -125, -138, -97, -161, -171, -148, -100, -131, -172, -41, -163, -75, -61, -163, -65, -112, -107, -58, -114, -125, -140, -77, -163, -37, -60, -44, -97, -136, -57, -164, -55, -92, -108, -193, -102, -93, -142, -109, -153, -155, -125, -56, -137, -144, -89, -77, -94, -133, -83, -94, -36, -188, -125, -148, -137, -181, -106, -98, -198, -147, -180, -154, -101, -132, -97, -78, -150, -182, -92, -132, -166, -177, -153, -68, -129, -123, -81, -135, -135, -88, -127, -112, -153, -65, -83, -93, -123, -131, -84, -71, -107, -137, -54, -183, -115, -187, -87, -162, -55, -129, -189, -96, -173, -115, -116, -119, -63, -87, -122, -192, -95, -147, -116, -119, -124, -135, -199, -82, -162, -168};
#define CONV13_IN_Z      	(0)
#define CONV13_OUT_Z     	(0)
static const int32_t CONV13_M_ZERO[] = 	 {1933254784, 1800888320, 1696388992, 1076415872, 1722942336, 1351305600, 1891507328, 1931975296, 1096155392, 1269492736, 1776701312, 1650080384, 1901967488, 2004946688, 1318643328, 1669409536, 1181828864, 1231150592, 1409298560, 1223457792, 1138982144, 2007466880, 1122992512, 1332296576, 1898894208, 1267163264, 1876056064, 2030148864, 1458148608, 1237025024, 2066374656, 1129889152, 1145250048, 1167602304, 1466001792, 1756703616, 1106840064, 1933495424, 1112038144, 1102104960, 1551889920, 1099880448, 1542828032, 1476969856, 1089918720, 1092515456, 1212522112, 2053003648, 1945003264, 1331588864, 1320297728, 1406449024, 2124753152, 1325390592, 1308222976, 1982667520, 1672366080, 1876723968, 2104093952, 2034603904, 1108286592, 1093573376, 2098187776, 1097324800, 1514596608, 1543314048, 1748667264, 1728431616, 1242726272, 1606851200, 1302387968, 1517410560, 2016599296, 1425844736, 1388882944, 1712229632, 1961254784, 1107561856, 1607444864, 1144731392, 1979410304, 1100968576, 1767218304, 2117517440, 1635680512, 1487255040, 1739545856, 1196073344, 1553410048, 1164175872, 1585758848, 1118773376, 1353188096, 1542870912, 1242948096, 1162388736, 1396112128, 2055022464, 1679158912, 1299166720, 1401422592, 1267175168, 2062427008, 1817028608, 1123781504, 1453581824, 1925731456, 1430318720, 2097612928, 1608597632, 1649059200, 1322728192, 1631534336, 1083221632, 1424396416, 2120825984, 1640037760, 1455211776, 1123940992, 1448096768, 1934611840, 1470560256, 1085016320, 1769516544, 1463586560, 1695388288, 1704974080, 1971009408};
static const int8_t CONV13_N_ZERO[] = 	 {0, 0, 0, 0, 0, 0, 0, 0, 0, 0, 0, 0, 0, 0, 0, 0, 0, 0, 0, 0, 0, 0, 0, 0, 0, 0, 0, 0, 0, 0, 0, 0, 0, 0, 0, 0, 0, 0, 0, 0, 0, 0, 0, 0, 0, 0, 0, 0, 0, 0, 0, 0, 0, 0, 0, 0, 0, 0, 0, 0, 0, 0, 0, 0, 0, 0, 0, 0, 0, 0, 0, 0, 0, 0, 0, 0, 0, 0, 0, 0, 0, 0, 0, 0, 0, 0, 0, 0, 0, 0, 0, 0, 0, 0, 0, 0, 0, 0, 0, 0, 0, 0, 0, 0, 0, 0, 0, 0, 0, 0, 0, 0, 0, 0, 0, 0, 0, 0, 0, 0, 0, 0, 0, 0, 0, 0, 0, 0};


/* Layer 14 Learned Parameters */
#define CONV14_BIAS \
 {27452, 973, 7629, 23422, 11036, 15924, 31393, 33261, 17114, -13294, 48310, 25373, 29217, 176, 1899, 300, 14839, 270, 9212, 48314, 738, 260, 24781, 61701, -9951, 38, 1403, 20388, 246, 2264, 233, 650, 1979, 718, 1773, -15925, 198, 131, -7560, 589, -27861, -21322, 67014, 176, -13145, -3911, 12920, -2537, 7566, 567, -15418, -2892, 58013, 5897, -4059, 1, -5124, 1420, 5565, -36, -264, -1079, 1951, -313, 102266, 5830, 123131, 194, 18415, 1473, 542, -4304, 28097, 2445, -193, -481, 329, -1097, -3764, 3068, 21546, 38729, -4978, 66566, 18235, -134, 7711, 30513, 35880, 12811, 25641, 1767, 28072, 6233, 30375, 20785, 32821, 314, -56, 456, 20764, 3085, -9431, -21072, 4432, 440, -3205, 330, -146, 33498, 12356, 594, -2626, -6249, 284, -1803, 13958, -8457, -58, -23886, 7201, 24256, 250, 29704, 27206, -20923, 245, -762}
#define CONV14_WT {0}
static const uint8_t CONV14_W_Z[] = 	 {-255, -111, -24, -241, -49, -70, -230, -228, -69, 1, -261, -60, -161, -22, -116, -31, -238, -122, -48, -242, -117, -104, -240, -371, -15, -122, -103, -238, 108, -93, -96, -100, -105, -108, -32, 21, -121, -100, -75, -132, -2, -33, -250, -127, 24, -18, -63, -27, -41, -114, 4, -32, -271, -111, -3, -131, -5, -107, -70, -126, -131, 23, -78, -112, -219, -100, -327, -111, -136, -108, -115, -75, -204, -40, -90, 2, -87, -114, -18, -44, -39, -215, -24, -283, -208, -124, -44, -249, -252, -204, -111, -52, -260, -59, -248, -242, -217, -123, -103, -94, -247, -97, -9, -15, -124, -20, -23, -121, -105, -230, -31, -126, -89, -17, -122, -4, -55, -30, -108, 11, -54, -196, -124, -243, -248, -35, -120, -109};
#define CONV14_IN_Z      	(0)
#define CONV14_OUT_Z     	(0)
static const int32_t CONV14_M_ZERO[] = 	 {1750761088, 1173235072, 1377304960, 1175765504, 1946066304, 1570791296, 1472292992, 1279081600, 1907949952, 1074800384, 2111737600, 1182297728, 1415405312, 1094122880, 1638416384, 1824694784, 1674456832, 2135866624, 1867603328, 1948546048, 1233309184, 1830268928, 1746215296, 1564686464, 2026889472, 1268317568, 1486092160, 2062311680, 1430848640, 1230883968, 2001808896, 1979456768, 1927247488, 1966782336, 1446128768, 1685003776, 1269622912, 2084715648, 1929216256, 1373226752, 1993152640, 1656224512, 1991009024, 1125816064, 1349664128, 1492991104, 2140444160, 1841726848, 1666281344, 1871785728, 1735458560, 1254003072, 1551124736, 1172185472, 1399280512, 1386454528, 1986656896, 1266872064, 1159250560, 1366069632, 1113632256, 1243739392, 1800236160, 1732078464, 1857128192, 1459065216, 1488556288, 1395853824, 2066417408, 1962025600, 2120314240, 1231574016, 1250708864, 1884879744, 1409698048, 1297937536, 1406373888, 2010758912, 1501734016, 1921596160, 2008907648, 1465898624, 1920342656, 1832325504, 1535520000, 1295928320, 1693834240, 2081357824, 1631557760, 2018182016, 1271109888, 1107378944, 1645990272, 1962776448, 1468648576, 1569280640, 1830597760, 1079119104, 2064972672, 2117077888, 1201041024, 1909369216, 1382136064, 1598909696, 1533289856, 1349753728, 1948137984, 1978070016, 2055337728, 2115736576, 1092900224, 1768036480, 1342340864, 1169608832, 1934057344, 1169529984, 1096615680, 1483729024, 1798964864, 2116820992, 2088919168, 1452970624, 1362261504, 1174181632, 1313891968, 1654328064, 1962717824, 1867971328};
static const int8_t CONV14_N_ZERO[] = 	 {0, 0, 0, 0, 0, 0, 0, 0, 0, 0, 0, 0, 0, 0, 0, 0, 0, 0, 0, 0, 0, 0, 0, 0, 0, 0, 0, 0, 0, 0, 0, 0, 0, 0, 0, 0, 0, 0, 0, 0, 0, 0, 0, 0, 0, 0, 0, 0, 0, 0, 0, 0, 0, 0, 0, 0, 0, 0, 0, 0, 0, 0, 0, 0, 0, 0, 0, 0, 0, 0, 0, 0, 0, 0, 0, 0, 0, 0, 0, 0, 0, 0, 0, 0, 0, 0, 0, 0, 0, 0, 0, 0, 0, 0, 0, 0, 0, 0, 0, 0, 0, 0, 0, 0, 0, 0, 0, 0, 0, 0, 0, 0, 0, 0, 0, 0, 0, 0, 0, 0, 0, 0, 0, 0, 0, 0, 0, 0};


/* Layer 15 Learned Parameters */
#define CONV15_BIAS \
 {58542, 31316, 28208, 57411, 5143, -26617, -10475, 16930, -3899, 68145, 26852, 1245, 30492, -6716, -4363, -16171, 39735, 33714, 78045, 32290, -8334, 7411, 58090, 8513, 56495, 25427, 28311, 7619, 45912, 587, 35072, -14939, 61800, 91845, 31429, 19111, -24414, 9330, 11487, 63122, -54037, 24119, 33149, -4501, 14582, -16994, 8588, 97481, -4478, 12774, 23304, -1239, 29965, -19943, -8087, 70006, -2979, -602, 104396, -3522, 1668, 73571, 22848, -5358, -12195, 16339, 33999, 2158, -2218, 6963, 7597, 39164, 19021, 27852, 7295, 48135, 71286, 41025, 24127, 1059, 32585, 32358, 13189, 6466, -6258, -12420, -13442, 47074, 42272, 18987, 35197, -13467, 10274, 24603, 77693, 20954, 28736, 51256, -3318, 54690, -32208, 28599, 39839, -14173, 9426, 7943, 33678, -8987, 37156, 74085, 20714, -4866, 36970, 21204, -6440, 47090, 42756, 38401, 56995, 44839, -3710, 60025, -9472, 20949, 82355, 10444, -18955, 19618}
#define CONV15_WT {0}
static const uint8_t CONV15_W_Z[] = 	 {-103, -160, -124, -171, -115, -57, -113, -137, -132, -102, -147, -202, -125, -101, -102, -107, -134, -128, -150, -107, -196, -103, -107, -104, -134, -122, -164, -100, -83, -172, -142, -137, -153, -125, -118, -133, -136, -85, -134, -102, -115, -162, -92, -130, -140, -86, -130, -148, -153, -97, -162, -101, -143, -91, -36, -197, -102, -94, -121, -60, -131, -188, -108, -88, -136, -147, -129, -118, -207, -157, -90, -86, -86, -208, -136, -134, -180, -134, -147, -159, -148, -110, -86, -142, -141, -104, -196, -170, -131, -119, -127, -105, -108, -56, -172, -80, -110, -143, -162, -148, -109, -119, -134, -123, -150, -131, -170, -103, -154, -146, -124, -172, -109, -77, -133, -137, -145, -135, -122, -171, -163, -150, -107, -59, -140, -135, -167, -88};
#define CONV15_IN_Z      	(0)
#define CONV15_OUT_Z     	(0)
static const int32_t CONV15_M_ZERO[] = 	 {1626447616, 1084840576, 1340386816, 1153859072, 1970662528, 1179006976, 1194625664, 1202392832, 1871854848, 1729557632, 2098764800, 1495303296, 1152507392, 1672823168, 1445600768, 1265826560, 1389966208, 1644542720, 1279799808, 1138387840, 1715357824, 1267924480, 1739454592, 1097390080, 1599906048, 1203415168, 1161971072, 1374206464, 1683598336, 2086773504, 1668419968, 1078677504, 1589453568, 1600534912, 1440266880, 2001892480, 1869697792, 1939878144, 1537770112, 1133938560, 1401551872, 1856089472, 1808133248, 1587390336, 1122940032, 1688635776, 1188029952, 1414256512, 1623965312, 2116255872, 1936174848, 1806303104, 1959808896, 1152646016, 1325089536, 1515544960, 1540089600, 2037478784, 1490904320, 1202296576, 2060865280, 1161198464, 1576840832, 1162885376, 1233659520, 1263019520, 1298598656, 1974438912, 1181426560, 1518958336, 1158729472, 1548745856, 1119902208, 1830896640, 1756710400, 1443469312, 1384786816, 1629660672, 1626831488, 1582917760, 1227095040, 1282594816, 1551337728, 1251464064, 1321908480, 1425373568, 1288376576, 1170756608, 1918241664, 1874502016, 1771448704, 2087878912, 1288924416, 1563383552, 1394478080, 1793379712, 1081285504, 1100110080, 1959672960, 1960500736, 2000755456, 1994853120, 1943382912, 1212254848, 1141069568, 1830695936, 1283053184, 2035640960, 1177083776, 2111762432, 1579581312, 1629554816, 2093154304, 1243429248, 1786839040, 1520750848, 1176827648, 2141188608, 1824852096, 1303748608, 1328830848, 1850521600, 1945043968, 1163702656, 1593685888, 1463633280, 2079485184, 1275404416};
static const int8_t CONV15_N_ZERO[] = 	 {0, 0, 0, 0, 0, 0, 0, 0, 0, 0, 0, 0, 0, 0, 0, 0, 0, 0, 0, 0, 0, 0, 0, 0, 0, 0, 0, 0, 0, 0, 0, 0, 0, 0, 0, 0, 0, 0, 0, 0, 0, 0, 0, 0, 0, 0, 0, 0, 0, 0, 0, 0, 0, 0, 0, 0, 0, 0, 0, 0, 0, 0, 0, 0, 0, 0, 0, 0, 0, 0, 0, 0, 0, 0, 0, 0, 0, 0, 0, 0, 0, 0, 0, 0, 0, 0, 0, 0, 0, 0, 0, 0, 0, 0, 0, 0, 0, 0, 0, 0, 0, 0, 0, 0, 0, 0, 0, 0, 0, 0, 0, 0, 0, 0, 0, 0, 0, 0, 0, 0, 0, 0, 0, 0, 0, 0, 0, 0};


/* Layer 16 Learned Parameters */
#define CONV16_BIAS \
 {-709, 41040, -342, -9111, 27702, 6756, 7996, 42126, 17008, 25348, -5326, -2842, -9131, -95, 2255, -18103, 46088, 27763, 34687, 39180, 126, 700, 31064, -17170, -2249, 2858, 373, 9203, 12796, 31244, 1761, 5720, 21100, 20931, -9632, 19111, 31781, 35266, -1763, 11566, -4552, -17771, 23941, 31876, -11276, 47991, -11212, 8010, -13452, 50726, -12241, 41315, 57524, 51787, 13728, -7444, 3759, -1835, 19504, 41311, -11579, 11573, -81, 32648, 27847, 5100, 21271, 35090, 40460, -27952, -19706, -3833, -12991, -9957, 699, -18867, -2502, -6635, 37412, 54851, 4964, 17818, 166094, -741, -14800, 335, 25921, -26152, -14163, -10889, 23681, -9999, 35716, 36187, 685, 36553, 28840, -3, 856, -2918, -19706, 1592, 28214, 4916, 50788, 40206, 19073, 71800, -2623, -11797, -9870, 19441, 7256, -8718, -36552, 82691, 21718, 16451, 13082, 37687, 115700, 52828, 6336, 5896, 33866, 5152, 32813, -103}
#define CONV16_WT {0}
static const uint8_t CONV16_W_Z[] = 	 {-91, -237, -4, -48, -144, -137, -79, -255, -100, -235, -111, -29, 137, -54, -108, -18, -256, -155, -247, -232, -29, -104, -260, -13, -16, -158, -158, -74, -45, -244, -120, -95, -248, -69, -8, -99, -276, -249, -105, -40, 39, -24, -204, -142, -19, -247, -9, -44, -16, -252, -36, -264, -263, -224, -63, -41, -67, -100, -207, -221, 10, -32, -120, -145, -181, -136, -165, -159, -217, -27, -19, -33, -13, -36, -31, -14, -16, -42, -262, -414, -40, -105, -408, -83, 15, -23, -240, 11, 12, -23, -59, -11, -257, -235, -94, -233, -256, -109, -155, -122, 2, -173, -248, -84, -115, -159, -93, -241, -77, 16, -45, -75, -46, -34, 25, -389, -227, -59, -188, -251, -241, -231, -45, -145, -257, -85, -255, 15};
#define CONV16_IN_Z      	(0)
#define CONV16_OUT_Z     	(0)
static const int32_t CONV16_M_ZERO[] = 	 {1441678720, 1479616000, 1457714432, 1589090432, 1223709696, 2027202944, 1611606784, 1157336832, 1403183104, 1765798912, 1400485248, 1261310208, 2017419776, 1337026688, 2059315456, 1619470848, 1686566656, 1718086144, 1585942400, 1701560576, 1421988736, 1838589568, 2063355904, 1406592896, 1554170496, 1475075456, 1689185408, 1205187584, 1463460608, 1609189120, 1560194048, 1372455552, 1242761088, 1979358720, 1623856000, 2089834752, 1991760768, 1396788736, 1450759936, 1768184704, 1304025472, 1294723456, 2019083904, 1703543808, 1957260288, 1975883520, 1323726976, 1579259648, 2090096128, 1269632512, 1524986624, 1291169536, 1722766208, 1461207040, 1204411136, 2063046016, 1797949312, 1735696000, 2123618560, 1657076608, 1914272640, 2082735104, 1141651840, 1088446336, 2110148992, 1558242304, 1708798208, 1406352128, 1637041920, 1546391040, 1422164480, 1980960768, 1943652352, 1798323712, 1974749952, 1992577280, 1272677120, 1826478208, 1923715200, 1144406272, 1528483072, 2119518464, 1976605568, 1076702208, 1561115008, 1936654208, 1932611840, 1272111360, 2047709312, 1830544384, 1635289728, 1718589568, 1334216704, 1884278528, 1194268800, 2034594048, 1495280000, 1828186496, 1891185280, 1676800256, 1106145792, 1118908032, 1594687744, 1111862016, 1418816512, 1673109376, 1198293248, 1445963904, 1338613632, 1362351488, 1641065600, 1684984448, 1683438080, 1615146752, 1669512704, 2004175232, 1725144448, 1579952384, 1113964032, 1390172032, 1140345088, 1939173632, 1588103168, 1660787328, 1545254912, 1379012992, 1419139968, 1915909248};
static const int8_t CONV16_N_ZERO[] = 	 {0, 0, 0, 0, 0, 0, 0, 0, 0, 0, 0, 0, 0, 0, 0, 0, 0, 0, 0, 0, 0, 0, 0, 0, 0, 0, 0, 0, 0, 0, 0, 0, 0, 0, 0, 0, 0, 0, 0, 0, 0, 0, 0, 0, 0, 0, 0, 0, 0, 0, 0, 0, 0, 0, 0, 0, 0, 0, 0, 0, 0, 0, 0, 0, 0, 0, 0, 0, 0, 0, 0, 0, 0, 0, 0, 0, 0, 0, 0, 0, 0, 0, 0, 0, 0, 0, 0, 0, 0, 0, 0, 0, 0, 0, 0, 0, 0, 0, 0, 0, 0, 0, 0, 0, 0, 0, 0, 0, 0, 0, 0, 0, 0, 0, 0, 0, 0, 0, 0, 0, 0, 0, 0, 0, 0, 0, 0, 0};


/* Layer 17 Learned Parameters */
#define CONV17_BIAS \
 {6444, 9765, 34129, 106152, -58651, 45947, 62835, -39915, 42007, -28478, 74230, 40865, 4053, 55592, 66634, 32150, 331, 49340, 17465, 73460, 20785, 78966, 8768, 20050, 22968, -2409, 29289, 67919, -21232, 28967, -14607, -28037, 9597, 12115, -545, -7864, 28813, -31368, -11261, -1165, -13777, 52639, 44227, -10049, 30169, 56140, 109793, -55030, 7352, -28883, 20099, -1156, 22856, 16049, -20580, -50284, -56780, 9464, -2929, -19994, 3201, -26936, -9100, -16429, -4995, 18161, 24597, 11265, 22088, 14202, 36612, -8058, 38643, 31709, 40417, -16209, 9681, -19233, -48305, 56376, -1071, 71781, 73878, -25213, -4870, -13006, -42172, -15926, -47793, 1119, 36908, 33364, 35536, 70186, 17344, 30471, -28672, -20169, -41896, 54976, -20759, -44016, 85209, -22840, -7179, 48644, -63033, -13306, 19819, 9148, 65204, 60700, -26102, 12270, 15465, 4658, 843, 68568, -38935, -2698, 67502, -66881, 5549, 82884, 28964, 9845, 10017, -126}
#define CONV17_WT {0}
static const uint8_t CONV17_W_Z[] = 	 {-161, -118, -134, -137, -90, -123, -96, -112, -88, -110, -119, -87, -149, -151, -116, -152, -99, -140, -107, -110, -94, -173, -102, -132, -124, -117, -140, -79, -88, -123, -105, -130, -80, -120, -126, -89, -67, -123, -125, -108, -102, -160, -129, -136, -124, -116, -102, -102, -126, -121, -104, -143, -114, -112, -113, -105, -57, -116, -94, -111, -121, -206, -86, -122, -136, -116, -167, -126, -146, -121, -117, -116, -165, -133, -149, -120, -125, -129, -71, -112, -82, -136, -127, -176, -173, -88, -119, -91, -129, -107, -130, -99, -125, -102, -134, -137, -123, -105, -111, -114, -126, -86, -136, -99, -133, -77, -76, -116, -171, -160, -161, -115, -152, -130, -85, -120, -87, -153, -138, -160, -124, -95, -137, -134, -105, -100, -164, -91};
#define CONV17_IN_Z      	(0)
#define CONV17_OUT_Z     	(0)
static const int32_t CONV17_M_ZERO[] = 	 {1091090048, 1451802368, 2147346688, 1433223040, 1965880704, 1243032704, 1709710464, 1863573632, 1342790272, 1259240192, 2038932736, 1182277120, 1558021120, 1093170304, 1285700864, 1976437632, 1394424192, 1191400448, 1424803456, 1519375360, 1635902336, 1625074816, 2143142272, 1914969216, 1122417152, 1864683520, 1372757120, 1549415424, 1454021376, 1790264192, 1087380992, 1364865280, 1797149696, 1237513728, 1426383360, 1077019520, 1786381696, 1739418368, 1387106816, 1261261184, 1389901952, 1091924608, 1903923456, 2023219584, 1317007872, 1883083392, 1461127168, 1814230272, 1297122048, 1641558272, 1879719168, 1420470144, 1521867392, 1095912192, 1241643008, 1572645632, 1698082944, 1859619840, 1246976640, 1173435392, 1093719680, 1385431296, 1082619008, 1316262528, 1537290624, 1319252096, 1712816256, 1419963776, 1708345088, 1445849856, 1318815872, 1955673856, 1368959488, 1226608256, 1682217600, 1436021120, 1192872192, 1243952896, 1303823360, 1230774144, 1242188928, 1521992320, 1748714880, 1207628416, 1293675136, 1216658048, 1106901760, 1085766016, 1565395712, 2059645184, 1317237248, 1118277376, 1791502976, 1384910848, 1620237568, 1617713280, 1943186560, 1827685248, 1309660160, 2011265152, 1422739200, 1826292096, 1419885312, 1334780672, 1174610048, 1139306240, 1329854208, 1786391424, 1563556352, 1249043968, 1300904320, 1280421504, 1931523840, 1638364032, 1076838400, 1264237696, 1159099648, 1594951552, 1804884864, 1167517440, 1211188864, 2129048064, 1330484352, 1938715904, 1641363712, 1148358912, 1123725056, 1722867072};
static const int8_t CONV17_N_ZERO[] = 	 {0, 0, 0, 0, 0, 0, 0, 0, 0, 0, 0, 0, 0, 0, 0, 0, 0, 0, 0, 0, 0, 0, 0, 0, 0, 0, 0, 0, 0, 0, 0, 0, 0, 0, 0, 0, 0, 0, 0, 0, 0, 0, 0, 0, 0, 0, 0, 0, 0, 0, 0, 0, 0, 0, 0, 0, 0, 0, 0, 0, 0, 0, 0, 0, 0, 0, 0, 0, 0, 0, 0, 0, 0, 0, 0, 0, 0, 0, 0, 0, 0, 0, 0, 0, 0, 0, 0, 0, 0, 0, 0, 0, 0, 0, 0, 0, 0, 0, 0, 0, 0, 0, 0, 0, 0, 0, 0, 0, 0, 0, 0, 0, 0, 0, 0, 0, 0, 0, 0, 0, 0, 0, 0, 0, 0, 0, 0, 0};


/* Layer 18 Learned Parameters */
#define CONV18_BIAS \
 {-1736, -3498, -6424, -503, -18433, 14773, 3337, 90645, 146, -4578, 35778, -5499, 66333, -1719, 22221, 9104, 4878, 26544, 1503, -1166, -5284, 2409, 14506, 56720, -12598, 31378, 50228, 5064, -22476, -9465, 3133, -5044, -2042, 58713, -35007, 5836, 1668, 132823, -8441, -132, -4608, -40, 16198, 17010, -5703, 15696, 38693, 44243, 30286, 116144, -4630, -4826, -7894, 74136, -25999, -805, -19365, -8704, 99, 40857, 108292, 456184, 10873, -4338, 35437, 3777, 11204, 44020, -2285, 26666, -87, -6520, 10233, 16534, 18107, 39008, 49379, -2852, -1567, 41492, -7588, 43497, 76148, -17243, -26580, -10169, -1504, -16936, -6314, -17097, 29658, 117311, -11509, -8216, -31640, -14542, 137868, -2848, -2405, -25958, -18717, -12314, 1006, 194, -4930, 81744, -5, 1233, 84891, 9588, -4296, 54933, -20249, -2868, 137286, 33706, 199779, 38296, 117, 64272, -2160, 940, -40566, -28904, 3163, -24292, 45345, 62899}
#define CONV18_WT {0}
static const uint8_t CONV18_W_Z[] = 	 {-114, -50, -94, -57, 26, -81, -29, -236, -93, -32, -166, -7, -314, -40, -248, -91, -30, -157, -106, -102, -30, -33, -87, -222, -44, -133, -273, -70, -20, -33, -29, 4, -9, -265, -2, -93, -22, -412, -57, -123, -15, -113, -43, -71, -19, -198, -264, -176, -161, -462, -56, -132, -75, -231, 20, -7, -8, -9, -37, -199, -266, -568, -33, 30, -265, -20, -70, -246, -118, -236, -111, -22, -55, -120, -97, -144, -158, -20, -3, -144, -62, -275, -307, 40, 51, -9, -135, -59, -41, 7, -212, -255, -18, -16, 0, -9, -613, -125, 83, 16, -19, -3, -112, -55, -120, -273, 0, -34, -193, -43, -8, -284, 4, 216, -681, -266, -286, -245, -24, -207, -101, -26, 45, -11, -136, 28, -132, -147};
#define CONV18_IN_Z      	(0)
#define CONV18_OUT_Z     	(0)
static const int32_t CONV18_M_ZERO[] = 	 {1965202432, 1949208448, 1299600384, 1959098496, 1787459840, 1848624256, 1980508928, 1097943424, 1867664384, 1107240064, 1571889920, 1491423232, 1127905920, 2121762944, 1167501696, 1077505536, 1578261760, 1124095104, 1761219712, 1850707456, 1835659392, 1208818304, 1307649920, 1420151424, 1095152384, 1160051584, 1834786816, 1314958720, 1632682368, 1544716160, 1443387520, 1931498112, 1900197120, 1902044544, 1388034048, 1507841408, 2009079168, 1229243136, 1819841024, 1714217856, 1081925376, 2038501504, 1397042816, 1463876864, 1442669056, 1186976896, 1455182592, 1915311232, 1602782336, 1203355264, 1120247040, 1163829888, 1856391808, 1389761664, 1540950784, 1335319552, 1440726400, 1310632320, 1845340416, 2123496192, 1650251392, 2027354240, 1401917440, 1258587008, 1699180928, 1228192256, 1357370880, 1454704384, 1091829376, 1775676416, 2008071680, 1113530112, 1735954176, 1185061888, 1635214464, 1679401856, 1703024000, 2083106816, 2053538688, 1379610112, 1334477952, 2126981888, 1960414464, 1994861184, 1222113280, 1094973056, 1600361088, 1695270272, 1190134400, 1150329728, 1478800128, 1720057728, 1197844608, 1889063680, 1661542144, 2087377152, 2077475456, 1540407296, 1511458816, 1195205888, 1646886400, 1200603648, 1868888320, 1532588416, 1555179392, 1493832320, 1140787712, 1592234368, 1366700160, 1966643328, 2130348416, 2032759424, 2097333248, 1655428864, 1568304256, 1613394048, 1898140160, 1407952384, 1115434240, 1260877568, 1276199552, 1900243200, 2017880192, 1295816704, 1555100800, 1115145856, 1624643712, 1796963712};
static const int8_t CONV18_N_ZERO[] = 	 {0, 0, 0, 0, 0, 0, 0, 0, 0, 0, 0, 0, 0, 0, 0, 0, 0, 0, 0, 0, 0, 0, 0, 0, 0, 0, 0, 0, 0, 0, 0, 0, 0, 0, 0, 0, 0, 0, 0, 0, 0, 0, 0, 0, 0, 0, 0, 0, 0, 0, 0, 0, 0, 0, 0, 0, 0, 0, 0, 0, 0, 0, 0, 0, 0, 0, 0, 0, 0, 0, 0, 0, 0, 0, 0, 0, 0, 0, 0, 0, 0, 0, 0, 0, 0, 0, 0, 0, 0, 0, 0, 0, 0, 0, 0, 0, 0, 0, 0, 0, 0, 0, 0, 0, 0, 0, 0, 0, 0, 0, 0, 0, 0, 0, 0, 0, 0, 0, 0, 0, 0, 0, 0, 0, 0, 0, 0, 0};


/* Layer 19 Learned Parameters */
#define CONV19_BIAS \
 {96381, 1756, 39360, -19090, -38101, 11514, -14664, 66020, -22216, 18762, -4333, 29429, -2803, -2935, 41256, 1849, -17955, 5668, -6070, -3075, 40949, -43710, 22813, 84516, -26216, -25598, 43670, -23573, 22916, -4649, 4371, -173717, 9886, 26426, -29485, -38142, -18731, -44785, 55609, 118798, 37863, 18578, -54550, 15284, -13990, 8972, 60636, 20660, -57327, 71667, -9450, -5873, 19050, 9335, 40793, -12473, 49781, -20326, -72847, -3842, 82091, 62319, -65927, -15554, 12433, -1253, -515, 64602, -92148, 11483, 24897, 56852, -52236, 9708, 37109, 38728, 2277, -1816, -33690, 90087, -22723, -91243, 12738, -1113, 30231, 11577, 20954, 34235, 12321, 28700, -13977, -36584, 52008, 23579, 87408, 49532, 31887, -21952, 36620, 27429, -58992, -9403, -18291, 51062, -14892, 24879, -30943, 27324, -62520, 16166, 28348, 27246, 63968, -49540, -26378, 24492, 60669, -29317, -52123, -20766, 3274, -66693, 55134, -76237, -4566, 10398, 7499, 35005}
#define CONV19_WT {0}
static const uint8_t CONV19_W_Z[] = 	 {-116, -145, -129, -108, -131, -132, -140, -87, -110, -118, -107, -160, -146, -136, -160, -93, -129, -155, -77, -151, -166, -72, -142, -139, -80, -118, -133, -112, -141, -89, -130, -90, -124, -139, -137, -108, -86, -123, -165, -135, -102, -168, -96, -117, -144, -111, -130, -127, -79, -127, -111, -136, -101, -117, -165, -176, -141, -126, -108, -116, -135, -147, -151, -94, -129, -114, -118, -153, -145, -140, -96, -144, -116, -175, -114, -98, -127, -144, -95, -163, -150, -110, -65, -111, -79, -125, -129, -124, -143, -110, -126, -88, -115, -126, -152, -156, -128, -113, -124, -182, -108, -154, -93, -118, -123, -136, -101, -128, -110, -128, -145, -149, -205, -99, -102, -118, -108, -119, -116, -144, -144, -124, -128, -97, -95, -106, -101, -110};
#define CONV19_IN_Z      	(0)
#define CONV19_OUT_Z     	(0)
static const int32_t CONV19_M_ZERO[] = 	 {1308027776, 1640954240, 1792418944, 2016097920, 1936980096, 1368206848, 1476156288, 1074046848, 2087474304, 1583468800, 1797179904, 1690883328, 1798681344, 1291871232, 1100373376, 1973708672, 2109050112, 1186368000, 1419019392, 1163245824, 1887492096, 1779326336, 1132908672, 1826662528, 1354886912, 1632217984, 1363502464, 1751948800, 1502038528, 1700157824, 1198524928, 1816521088, 1344902528, 1212091904, 1387091968, 1808042240, 1673850112, 1274626816, 1558979840, 1964008704, 1712808576, 1502832128, 1155574016, 1481345408, 1728540544, 1647497088, 1904154368, 1718181120, 1084369152, 1259185408, 1676804224, 2144117888, 1354133504, 1563513088, 1386007040, 1673764608, 1075589504, 1598923264, 2038151296, 1603536384, 1099107456, 1079867520, 1296790656, 1498534016, 1273460480, 1217949440, 1751894400, 1690422400, 1940270336, 1610181760, 1253377920, 1356088960, 2056877056, 1166623488, 1926295936, 2065586432, 1198343168, 1154569728, 2146929792, 1901807744, 1154652288, 1743107968, 1929158912, 1377345280, 1970438528, 1905219840, 2105221248, 1212655488, 1839271168, 1230544640, 1201999488, 1254960256, 1573134976, 1171225088, 1981782144, 1372725376, 1473633920, 1757692032, 1469005184, 1083979776, 1129582848, 1485557120, 1360304256, 1478830080, 1383530368, 1142138880, 1597372928, 2103060608, 2142548224, 1263052160, 1797145472, 2009992704, 1931025920, 1914523264, 1203629056, 1813980160, 1093299712, 1477147520, 1689217408, 2079774848, 2062939008, 1077888896, 1852345600, 1088296064, 1602588800, 1242974208, 1308029440, 1966297216};
static const int8_t CONV19_N_ZERO[] = 	 {0, 0, 0, 0, 0, 0, 0, 0, 0, 0, 0, 0, 0, 0, 0, 0, 0, 0, 0, 0, 0, 0, 0, 0, 0, 0, 0, 0, 0, 0, 0, 0, 0, 0, 0, 0, 0, 0, 0, 0, 0, 0, 0, 0, 0, 0, 0, 0, 0, 0, 0, 0, 0, 0, 0, 0, 0, 0, 0, 0, 0, 0, 0, 0, 0, 0, 0, 0, 0, 0, 0, 0, 0, 0, 0, 0, 0, 0, 0, 0, 0, 0, 0, 0, 0, 0, 0, 0, 0, 0, 0, 0, 0, 0, 0, 0, 0, 0, 0, 0, 0, 0, 0, 0, 0, 0, 0, 0, 0, 0, 0, 0, 0, 0, 0, 0, 0, 0, 0, 0, 0, 0, 0, 0, 0, 0, 0, 0};


/* Layer 20 Learned Parameters */
#define CONV20_BIAS \
 {-716, -6266, 49090, 97816, -19371, 105929, -985, 42128, 159841, 9883, 21063, 13410, -16033, 117555, 24747, -7039, 74894, 14826, 25787, -3189, -1230, 81710, 194675, 55582, 103926, 1845, 2218, 6959, -16339, 145631, -906, -9195, 5881, 6002, -17630, 116654, 10048, -3171, 495, 61722, 26509, -6093, 26600, 10052, 18778, 46059, -8998, -23181, -10292, 33500, 111380, -1267, -542, 394, 49101, -13950, 28475, -24421, -7884, 5852, 30226, 495, -16796, -7217, 29392, -2096, 251, -3365, -1465, -29177, 1826, 2749, 33, -34054, 42691, 10257, 79385, -2878, -5539, 31104, 33007, -5448, 37601, -37622, 5582, -13714, 137567, 104797, -2001, 5371, -15503, -11022, 123, -251, 55591, 52674, 49751, 8668, -11390, 23955, -2269, 56295, 5213, 90192, 34513, -13654, -3045, -9998, 37041, 1221, 27780, 249140, 116745, -6023, 304541, 30653, 2154, -13767, -4154, 85372, 86242, -4434, 6127, 10800, -13574, -1642, -16153, 64536}
#define CONV20_WT {0}
static const uint8_t CONV20_W_Z[] = 	 {-12, -95, -221, -357, -43, -162, -137, -240, -464, -58, -83, -47, 1, -313, -212, -18, -248, -93, -94, -92, -81, -299, -335, -251, -306, -117, -21, -37, -3, -446, -110, 19, -35, -28, 10, -225, -27, -19, -28, -143, -231, -14, -71, -41, -126, -262, -26, 26, -31, -246, -278, -100, -118, -129, -183, -11, -235, 11, -59, -46, -253, 85, -24, -91, -105, -99, -23, -104, -16, -52, -113, -33, -88, 9, -242, -39, -254, -77, -7, -230, -160, 18, -257, 10, -21, -44, -305, -375, -23, -139, -69, -5, -151, -114, -257, -203, -257, -38, -19, -189, -25, -267, -36, -287, -110, 0, -6, -5, -199, 33, -217, -365, -246, 17, -514, -103, -39, -3, -81, -419, -259, 7, -35, -28, -7, -81, -4, -191};
#define CONV20_IN_Z      	(0)
#define CONV20_OUT_Z     	(0)
static const int32_t CONV20_M_ZERO[] = 	 {1107953024, 1129768192, 2012175488, 1771306112, 1642888192, 1103315840, 1594435712, 1343473664, 1684883968, 1884363776, 2057462784, 2107375104, 1660418176, 1655696768, 1151668352, 1391941632, 1600329472, 1656792704, 2025066880, 1534350720, 1182349312, 1897597056, 1470847104, 1395660672, 2113281408, 1458054144, 1453837696, 1246036608, 1408423552, 1169094400, 1845293824, 1584338944, 1847215104, 1455107328, 1123477760, 1874278144, 1162744704, 1995589376, 1864212096, 1582969728, 1853726592, 1926587008, 2066504320, 1281781120, 1617230080, 2144969472, 1392394496, 1464782080, 1950342528, 2009293824, 1889337216, 1936159872, 1361666176, 1776387840, 1954876928, 2039462016, 1261024000, 1266047744, 1121719040, 1728014208, 1208564352, 2054797184, 1205259648, 1775641728, 2053738240, 1809490304, 1126598016, 1197363200, 2038534912, 1545736960, 1706398208, 1120583936, 1704979200, 1492268544, 1758573952, 1445688832, 1155314304, 1487871232, 1804993152, 2131974912, 1820788352, 2052356096, 1373103488, 1676671616, 1724151680, 1782483840, 1540694272, 1221138432, 1877225856, 1592562688, 1666196608, 1365664512, 1889365632, 1443996416, 1380112384, 1315832704, 1237056768, 1342691968, 1787405952, 1687867520, 1152395136, 1662610304, 1441404544, 1133914368, 2037359360, 1209576832, 2110965888, 1619019648, 1213887872, 1615288448, 1513149696, 1470315264, 1219227648, 1286750592, 1955721856, 2075586048, 1974883072, 2096792576, 1448648576, 1907172096, 2055181184, 1469858560, 1837935488, 2140157696, 1281087616, 1494595712, 1202200960, 1321374336};
static const int8_t CONV20_N_ZERO[] = 	 {0, 0, 0, 0, 0, 0, 0, 0, 0, 0, 0, 0, 0, 0, 0, 0, 0, 0, 0, 0, 0, 0, 0, 0, 0, 0, 0, 0, 0, 0, 0, 0, 0, 0, 0, 0, 0, 0, 0, 0, 0, 0, 0, 0, 0, 0, 0, 0, 0, 0, 0, 0, 0, 0, 0, 0, 0, 0, 0, 0, 0, 0, 0, 0, 0, 0, 0, 0, 0, 0, 0, 0, 0, 0, 0, 0, 0, 0, 0, 0, 0, 0, 0, 0, 0, 0, 0, 0, 0, 0, 0, 0, 0, 0, 0, 0, 0, 0, 0, 0, 0, 0, 0, 0, 0, 0, 0, 0, 0, 0, 0, 0, 0, 0, 0, 0, 0, 0, 0, 0, 0, 0, 0, 0, 0, 0, 0, 0};


/* Layer 21 Learned Parameters */
#define CONV21_BIAS \
 {93553, -13729, 75099, 44049, 17994, -13883, -17021, -22067, 65308, -11187, -43745, 24771, -16791, 61502, -38073, 11619, -11897, 27328, -8761, -28978, 43210, -17890, 80860, -39861, -28605, 94381, -9376, 42963, 55493, 16287, 43695, -17820, 81508, 103992, -31666, 34590, -26269, -6071, -8576, 49052, 27138, 89018, -5941, 56561, 27575, -5835, 14095, -45379, 3219, 30246, -53447, 8817, 7290, 46656, 54502, 515, 26557, 44415, 99425, 34856, -68691, -8250, -9635, -53614, -66545, 13331, 48609, -3897, 26521, -23470, 31133, 51666, 92113, -55328, 574, -63656, 18419, 91436, 13585, -29061, -3892, 23732, -17686, 37809, 48934, -25738, -15438, -50488, -11510, 1404, 343, 17635, -23521, -4878, -52373, -38256, -23197, 29346, 31872, 26801, -11209, -48085, -22115, -23412, -9976, -17809, 144196, -11893, -16738, -1633, -27137, -77272, 58613, 34247, 67231, 33000, 82345, 11070, -7331, 49274, 83241, 40773, 20091, 100435, 51538, 65794, -29679, 9067}
#define CONV21_WT {0}
static const uint8_t CONV21_W_Z[] = 	 {-114, -135, -132, -131, -120, -133, -137, -135, -130, -123, -105, -91, -135, -131, -97, -130, -117, -119, -116, -67, -147, -128, -149, -102, -129, -106, -121, -123, -141, -112, -148, -176, -106, -134, -122, -121, -89, -90, -128, -117, -117, -127, -79, -111, -133, -156, -104, -122, -113, -133, -131, -149, -139, -126, -162, -152, -130, -143, -129, -108, -91, -65, -148, -141, -101, -91, -93, -83, -105, -136, -136, -91, -123, -140, -130, -100, -118, -140, -135, -114, -80, -103, -97, -132, -138, -115, -122, -81, -94, -122, -138, -121, -119, -82, -102, -95, -107, -122, -104, -118, -101, -126, -140, -104, -121, -134, -144, -127, -113, -149, -80, -126, -127, -133, -136, -112, -160, -147, -141, -142, -110, -122, -162, -116, -163, -120, -125, -139};
#define CONV21_IN_Z      	(0)
#define CONV21_OUT_Z     	(0)
static const int32_t CONV21_M_ZERO[] = 	 {1396915584, 1803373952, 1586421504, 1459009408, 1296912512, 1149158912, 1457197824, 2020005248, 1515593984, 1870624384, 1616791680, 2054526976, 1151359744, 1711966592, 1266472448, 2114797440, 1414293888, 1334486784, 1502589568, 2067206016, 2012631168, 1829523968, 1163418880, 1360910976, 1985602816, 1414955264, 1612259584, 1533923072, 1210188544, 1593603456, 1547261568, 1441457024, 1149117824, 1127730688, 1350562048, 1277224960, 1567199488, 1740633856, 1492853504, 1877476480, 2063307264, 1531824256, 1204896896, 1380979328, 1515117312, 1404310272, 1831944064, 1613395712, 1200999168, 1600691072, 1788243200, 1576219264, 1385298560, 1302550144, 1221474944, 1980234880, 1687697792, 1873558912, 2121667968, 1961306368, 1118049920, 1664416128, 1962857856, 1153571840, 1836310912, 1855661952, 1285341952, 2137093376, 2046164224, 1261634944, 1203237888, 1598111872, 1628829952, 1964226432, 1121345920, 1863798400, 2052116480, 1078135296, 2066918144, 1919720704, 1924512512, 1601565952, 1413376512, 1468995584, 2060351616, 1891446656, 1156466432, 1217202304, 1613838976, 1355944192, 1203687808, 1549700608, 1986105984, 1353085184, 2017677184, 1085487744, 1553997952, 1782241920, 2090504832, 1214834304, 1571755264, 1617429120, 1748478720, 1182596736, 1207076736, 1074450432, 1382735744, 1210234368, 1557113728, 1635923456, 1247795584, 1769471104, 2062184576, 1155844480, 1136269824, 1647286784, 1913846016, 1403440512, 1154678912, 1752039680, 1663637120, 1376150528, 1477263232, 1597222272, 1400830336, 1616085888, 1340221184, 2052696576};
static const int8_t CONV21_N_ZERO[] = 	 {0, 0, 0, 0, 0, 0, 0, 0, 0, 0, 0, 0, 0, 0, 0, 0, 0, 0, 0, 0, 0, 0, 0, 0, 0, 0, 0, 0, 0, 0, 0, 0, 0, 0, 0, 0, 0, 0, 0, 0, 0, 0, 0, 0, 0, 0, 0, 0, 0, 0, 0, 0, 0, 0, 0, 0, 0, 0, 0, 0, 0, 0, 0, 0, 0, 0, 0, 0, 0, 0, 0, 0, 0, 0, 0, 0, 0, 0, 0, 0, 0, 0, 0, 0, 0, 0, 0, 0, 0, 0, 0, 0, 0, 0, 0, 0, 0, 0, 0, 0, 0, 0, 0, 0, 0, 0, 0, 0, 0, 0, 0, 0, 0, 0, 0, 0, 0, 0, 0, 0, 0, 0, 0, 0, 0, 0, 0, 0};


/* Layer 22 Learned Parameters */
#define CONV22_BIAS \
 {-5622, -2323, 106241, 45227, -2037, -16784, -15415, 64189, -11927, 14, 82951, 46094, -18753, 61744, 72677, 128467, -5512, 134405, 90004, -8170, -7980, -6850, 13650, -73, -4638, 92908, 43942, 38815, -9453, 46210, 39949, -3126, 22045, 19981, 213, -11606, -3795, 17795, -21799, 55964, 105557, 1303, 93901, 24077, 28949, 63285, 91572, -7618, -16613, -3753, 905, 27605, 229563, -3505, 25784, -4788, 59688, -11526, 27466, 196892, -170, 406, 27173, -1151, 141869, 6181, 27899, -12163, -5619, -26837, -28384, 37339, 48175, -22745, -1942, 172017, 86477, 10417, 109234, -4395, -16795, 234826, -4893, -10685, 4441, 133669, 118367, -4136, 69390, 47055, 119832, -4258, -383, 93667, -12690, 79604, -2375, 1067, 81659, 170994, 65837, -1736, -6727, 105268, 55221, -4137, 45858, -6384, 57545, -1708, 136, -8373, 15912, 83312, 31048, 33777, -10214, -616, 175525, -27220, 4355, -5247, -495, -2019, 31876, 58666, -444, 119412}
#define CONV22_WT {0}
static const uint8_t CONV22_W_Z[] = 	 {-97, -54, -286, -252, -41, -16, -43, -225, -20, -64, -259, -269, -9, -208, -193, -284, -41, -447, -289, -40, -2, -34, -105, -65, -3, -210, -256, -240, -8, -261, -259, -47, -240, -237, -16, 1, 1, -86, 12, -226, -295, -67, -377, -76, -125, -126, -258, -17, -6, -21, 66, -132, -550, -42, -177, 7, -219, -52, -226, -307, -148, -41, -153, -8, -379, -60, -235, -28, -2, 9, -51, -238, -262, -70, -17, -407, -328, -95, -242, -31, 4, -465, -8, -6, -116, -303, -422, -89, -123, -125, -417, -21, 1, -306, -6, -261, -81, -13, -313, -360, -237, -7, -12, -339, -254, -73, -225, -38, -146, -118, -63, 83, -234, -241, -233, -213, -64, -32, -434, 23, -89, -42, -19, -14, -240, -185, -27, -518};
#define CONV22_IN_Z      	(0)
#define CONV22_OUT_Z     	(0)
static const int32_t CONV22_M_ZERO[] = 	 {1559574528, 1374132224, 1763498496, 1262491904, 1869037440, 1522002944, 2023712256, 1964746752, 1082637312, 1258845312, 1095931520, 1567009664, 1841067520, 1179101056, 1892492544, 2081146624, 1807007104, 2106259712, 1696731520, 1329332480, 1221217664, 1685566208, 1791505536, 1334502016, 1490046592, 2115937024, 1866148608, 1659423616, 1277434240, 1656058368, 1348587904, 1975610240, 1487274752, 1452539008, 2100757760, 1510900992, 1416924288, 2014412416, 1400700032, 2082881536, 1592806912, 1916946816, 1457184768, 1547442688, 1266244736, 1595583616, 1752918400, 1298224256, 1617786624, 1150756096, 1929485824, 1330636288, 1300928000, 1113115520, 1688034304, 1651484544, 1817611136, 1955528064, 1313741184, 1205238272, 1886645376, 1283779840, 1278576896, 1617886848, 1995595904, 1201893248, 2074383488, 1635966976, 1781051008, 1776624768, 1438293120, 1238572288, 1714489856, 1157029504, 2041620736, 1132544256, 1994330496, 1714350336, 1787643520, 1368689152, 1366873856, 1265017344, 1996008704, 1472507520, 2011036928, 1329721600, 1814534912, 1206584832, 1874845312, 1436942208, 1656616064, 1187621888, 1335178624, 1529381248, 1774975744, 1104488320, 1390334720, 1457922944, 1887283712, 1578318080, 1716617088, 1767670912, 1284604032, 1449846144, 1156001920, 1791379456, 1274698496, 1576558208, 2141401600, 1180300160, 1254034688, 1299533696, 1310535680, 1205814912, 1223899520, 1944507264, 1206846464, 1333379200, 1843501568, 1736243456, 1775429248, 1869675136, 2133457792, 2009308032, 1080262272, 1967310720, 1105060864, 1553359104};
static const int8_t CONV22_N_ZERO[] = 	 {0, 0, 0, 0, 0, 0, 0, 0, 0, 0, 0, 0, 0, 0, 0, 0, 0, 0, 0, 0, 0, 0, 0, 0, 0, 0, 0, 0, 0, 0, 0, 0, 0, 0, 0, 0, 0, 0, 0, 0, 0, 0, 0, 0, 0, 0, 0, 0, 0, 0, 0, 0, 0, 0, 0, 0, 0, 0, 0, 0, 0, 0, 0, 0, 0, 0, 0, 0, 0, 0, 0, 0, 0, 0, 0, 0, 0, 0, 0, 0, 0, 0, 0, 0, 0, 0, 0, 0, 0, 0, 0, 0, 0, 0, 0, 0, 0, 0, 0, 0, 0, 0, 0, 0, 0, 0, 0, 0, 0, 0, 0, 0, 0, 0, 0, 0, 0, 0, 0, 0, 0, 0, 0, 0, 0, 0, 0, 0};


/* Layer 23 Learned Parameters */
#define CONV23_BIAS \
 {54862, 39582, -51659, -22704, 1979, -75053, -22212, -6097, -2927, 48548, -43312, -7854, 35806, 42006, 15306, 43334, -18064, 46549, 56573, 15449, -9859, -57635, -46372, 5926, 8531, 64109, 25353, -490, -1027, 20350, -12343, -5223, 11296, -17219, -4386, 15012, 765, 22257, 45766, 33328, -15584, -12668, -1612, -49872, 3853, 104531, -20545, 58201, -122579, 29776, -12436, -28928, -84257, 82592, -34513, 24873, -37470, 161, 20205, 12409, -9280, 15688, 36423, 18301, 49925, -73818, 1403, -5063, 15570, -33586, -27326, -22466, -31727, -23155, -26840, -39998, 15539, -32425, 8416, -27769, 29873, -12954, -19997, -6195, 63306, 13789, 14359, 30409, 70908, -28630, 23273, 67329, -3895, -5627, 102536, -13112, 973, 23026, -5763, 34614, -13762, 61147, -32941, -9470, -17091, -44056, -30245, 23935, 76250, 197138, 29362, -83641, 29166, -8543, 17754, 50916, 20463, -69426, 36200, -18652, -40535, 31937, -88893, 1694, 21626, 26215, 6243, -56479}
#define CONV23_WT {0}
static const uint8_t CONV23_W_Z[] = 	 {-165, -140, -95, -108, -130, -127, -163, -135, -118, -103, -135, -114, -148, -117, -139, -108, -139, -120, -141, -138, -142, -123, -136, -150, -128, -149, -82, -113, -123, -118, -91, -135, -153, -125, -140, -95, -125, -129, -126, -111, -104, -132, -148, -123, -121, -140, -133, -119, -109, -102, -132, -130, -124, -149, -124, -114, -152, -123, -101, -137, -132, -101, -124, -71, -109, -79, -143, -132, -114, -129, -131, -145, -121, -106, -149, -89, -120, -160, -110, -151, -169, -116, -103, -160, -150, -128, -110, -101, -165, -113, -107, -137, -150, -124, -104, -147, -159, -132, -127, -139, -99, -156, -71, -124, -158, -131, -125, -89, -155, -128, -138, -141, -144, -125, -112, -115, -141, -123, -170, -139, -97, -139, -110, -141, -149, -94, -129, -111};
#define CONV23_IN_Z      	(0)
#define CONV23_OUT_Z     	(0)
static const int32_t CONV23_M_ZERO[] = 	 {1739485056, 2127068416, 1622591232, 2058383488, 1905487360, 2007239552, 1276291328, 1813422976, 1594326912, 1500255872, 1123916160, 1461144064, 2059491968, 1438926080, 1122780800, 2138059392, 1115533824, 1319649664, 1143419136, 1775947136, 1342990848, 1464968064, 1795650816, 1187545728, 1112111616, 1389730944, 2076240512, 1704017536, 1937911680, 1625065216, 1201410048, 1367767808, 1546091264, 1826273152, 1658203904, 2120483584, 1553996800, 1347072000, 1317006464, 1988479232, 1683940608, 1729572864, 1102690432, 1502957312, 1480178688, 1360763648, 1359853440, 1161717376, 1173366656, 1895779328, 1476834304, 1296099840, 1839662464, 1155261440, 1660656768, 1770478592, 1838611200, 1103831936, 1847258880, 1874212224, 1353462272, 2086556544, 1077729280, 1511138176, 1705804672, 1142545152, 1418152704, 1534879232, 1125002496, 1118663296, 1742480640, 1705508480, 1701931776, 1244449152, 1623441280, 1413538304, 2020259328, 1639356544, 1939148544, 1256507136, 1902914560, 1906615168, 1403143808, 1455053952, 2057551488, 1159879040, 1116684544, 1101595264, 1999551872, 1861853312, 1791700992, 1667339520, 1154295552, 2034413312, 2076684800, 1298853632, 1717807744, 1946082176, 1735109632, 1180685312, 1128759424, 1239989760, 1504539904, 1445638656, 2083908736, 1533908864, 1081483008, 1080384128, 1848383104, 1462240768, 1814384768, 1415929728, 1095566080, 1574903552, 1520853504, 1289455488, 1263717376, 1144312704, 1971538688, 2103761152, 1871588608, 1550923776, 1509690624, 1770361728, 1730485632, 1720739072, 1454965376, 1938543616};
static const int8_t CONV23_N_ZERO[] = 	 {0, 0, 0, 0, 0, 0, 0, 0, 0, 0, 0, 0, 0, 0, 0, 0, 0, 0, 0, 0, 0, 0, 0, 0, 0, 0, 0, 0, 0, 0, 0, 0, 0, 0, 0, 0, 0, 0, 0, 0, 0, 0, 0, 0, 0, 0, 0, 0, 0, 0, 0, 0, 0, 0, 0, 0, 0, 0, 0, 0, 0, 0, 0, 0, 0, 0, 0, 0, 0, 0, 0, 0, 0, 0, 0, 0, 0, 0, 0, 0, 0, 0, 0, 0, 0, 0, 0, 0, 0, 0, 0, 0, 0, 0, 0, 0, 0, 0, 0, 0, 0, 0, 0, 0, 0, 0, 0, 0, 0, 0, 0, 0, 0, 0, 0, 0, 0, 0, 0, 0, 0, 0, 0, 0, 0, 0, 0, 0};


/* Layer 24 Learned Parameters */
#define CONV24_BIAS \
 {115272, 214642, 252963, -584, -7238, 749, 201960, 2441, 202910, 78434, 302, 1938, 104400, 213571, -606, 198862, -722, 88743, 211505, 149092, -70, 549, -2005, 191, 13683, 140377, 137242, -424, 210608, 128284, -359, -860, 1746, 228868, -478, 101757, -1707, 118993, -3959, -5371, 161853, 187838, -608, -436, 158567, 103118, -1629, 127699, 60, 114271, 180, -19556, -4386, 93405, -8, 125100, -826, -1033, 102600, -5260, -4123, 139279, 154031, 98656, 108467, -17372, 47, 2733, 115261, 665, 4, -425, 225619, -764, -1214, 1995, -1762, -270, -4375, -302, 171490, 529, -532, -1161, 122815, 126930, 1636, 24946, 78910, -26035, 175117, 109740, -508, -568, 28154, -27, 3354, -1531, 185705, -1305, 54208, -7805, 23036, -303, -350, 192772, 159239, 137286, 99430, -37735, 7397, -444, -616, -49905, 199534, 160136, 78819, -642, 189183, 202963, -598, 149916, -716, -108, -472, 185734, 77331, 650}
#define CONV24_WT {0}
static const uint8_t CONV24_W_Z[] = 	 {-278, -295, -394, 23, 33, 50, -292, 37, -316, -228, 37, 19, -264, -321, 43, -283, 40, -256, -289, -290, 62, 32, 39, 22, -101, -301, -278, 14, -334, -288, 21, 28, 35, -297, 48, -280, 75, -322, -137, -96, -293, -285, 65, 42, -316, -278, 48, -275, -38, -261, 63, -104, 61, -270, 29, -258, 35, 15, -285, 43, 20, -288, -272, -280, -297, 69, 40, 60, -244, 11, 48, 45, -295, 26, 63, 12, 35, 30, 86, 100, -324, 42, 29, 48, -295, -322, 67, -71, -256, 84, -282, -279, 34, 44, -140, 59, 31, 47, -293, 44, -159, -172, -97, 24, 25, -302, -290, -262, -260, -67, 58, 60, 31, 162, -271, -292, -259, 50, -314, -312, 44, -342, 21, 31, 40, -282, -330, 57};
#define CONV24_IN_Z      	(0)
#define CONV24_OUT_Z     	(0)
static const int32_t CONV24_M_ZERO[] = 	 {1764233856, 1815268480, 1785315072, 1133959168, 1332433152, 1947393664, 1656502016, 1453810560, 1125214336, 2074105728, 2132362496, 2136441600, 1646596096, 1268199552, 1319646464, 1715182720, 1209089536, 1933996288, 1583851008, 1514899456, 2119238272, 1776626048, 2090477952, 1188255616, 1475443072, 1916040320, 1383776000, 1404404224, 2123283456, 1987341184, 1196846976, 1208040576, 1498737920, 1954869632, 1914347520, 1464582016, 1971934848, 1113397504, 1336972928, 1505443712, 1775671936, 1249064960, 2142592512, 1193273984, 1165778048, 1086166912, 1682645504, 1754961536, 1303721344, 2112111744, 1372198016, 1500359296, 1705297536, 1278735104, 1896330240, 1966970368, 1416905984, 1500638080, 1896722176, 1801691008, 1420343552, 1681870464, 1833002624, 1740738944, 1851168128, 1524640384, 1881789184, 1487228288, 1973041024, 1736667136, 1100588416, 1707527168, 1892414592, 1893434752, 1127576832, 1326979584, 1340631168, 1401725440, 1281506944, 2036528768, 1094089600, 1423687552, 1910359168, 1385228544, 1423532416, 1952097024, 1476936064, 1981288576, 1289167872, 1391677824, 2121858304, 1828331520, 1894898688, 1714201472, 1769161984, 1809448832, 1497393664, 1574646656, 2054858624, 1361511936, 1496499072, 1630899712, 1142846976, 2086209792, 1276024064, 1102455296, 1931149440, 1861708288, 1599109120, 2019400320, 1958920192, 1559418752, 1449650560, 1399158528, 2075398784, 1596508928, 1363787392, 2014860416, 1433080192, 1118574336, 1911522944, 1702491264, 1954102528, 1472862080, 1616079872, 1456586880, 1664676864, 1613072896};
static const int8_t CONV24_N_ZERO[] = 	 {0, 0, 0, 0, 0, 0, 0, 0, 0, 0, 0, 0, 0, 0, 0, 0, 0, 0, 0, 0, 0, 0, 0, 0, 0, 0, 0, 0, 0, 0, 0, 0, 0, 0, 0, 0, 0, 0, 0, 0, 0, 0, 0, 0, 0, 0, 0, 0, 0, 0, 0, 0, 0, 0, 0, 0, 0, 0, 0, 0, 0, 0, 0, 0, 0, 0, 0, 0, 0, 0, 0, 0, 0, 0, 0, 0, 0, 0, 0, 0, 0, 0, 0, 0, 0, 0, 0, 0, 0, 0, 0, 0, 0, 0, 0, 0, 0, 0, 0, 0, 0, 0, 0, 0, 0, 0, 0, 0, 0, 0, 0, 0, 0, 0, 0, 0, 0, 0, 0, 0, 0, 0, 0, 0, 0, 0, 0, 0};


/* Layer 25 Learned Parameters */
#define CONV25_BIAS \
 {50312, 57607, -24641, -2457, 94867, 22595, -30742, 3411, -3575, -9406, 8032, 26491, 22895, -20987, 64099, 27142, 45316, 101253, -33372, -14570, 18446, -36761, 3500, 68188, -36177, -17878, 7038, 39205, 22179, 5922, 19618, -21475, 54656, -72422, 4075, 19171, 45534, -23885, -19085, 7505, -27415, 62777, 781, 59114, -6114, -6594, -23796, 5054, 29719, -22095, 94316, 44998, 16434, 61240, 42634, 32189, 44798, 46913, 26412, -19938, 30048, -24185, -8309, -15465, 41446, 79288, -90605, -19671, 45379, 43566, 13742, -36961, 65190, 69751, -113833, -1802, 40950, 29817, 13476, 76406, -83259, 4265, -68454, 34613, -38932, 55702, 3829, 31074, 5147, 4357, -14232, 33721, 30814, 63070, 59242, -7038, 43287, 43786, -16330, -2089, 58440, -30672, 28070, -6799, 33384, -16436, 7154, 31094, -8802, 18974, -12442, 54143, -30275, -24055, 16319, -6756, -18731, 18243, -18704, 18190, -10169, 25246, 14518, 14675, -34240, 11667, 7038, -18221, -39383, -45297, 41343, -50071, 41875, 25952, 21790, -981, -25395, 19285, -21703, 48971, 17591, -5898, -44518, 27862, 60389, 33414, -61352, 38126, 10291, 947, 1525, 11049, 31211, -23375, -32284, -44758, 73120, -16267, 9177, -29264, -98684, -3878, -43594, 56550, -10587, 42303, 46000, 55401, 18030, -4430, 38963, 10838, -34342, -31934, -24676, -36244, -62910, 115081, 8802, 14988, 47839, -44107, 7873, -9747, 37048, 17010, 7654, -43408, -2110, -154, -29117, 67285, 48554, 21834, -22445, 74663, 13725, 28337, 38886, 54924, 43871, -35802, 5037, 43929, 41547, 44080, -13067, -83798, -14118, 16865, 18334, 3917, 78826, 32567, 31269, -21169, -14978, -6023, 26733, 11053, -31502, 5004, 24263, -36267, 29323, 30844, 38939, 15871, 9177, -22007, 65200, -7083, -23955, -5375, -14366, -60794, -37842, -47626, -31203, 99532, 19537, -7535, -42194, -6274, 27483, 5365, -4139, 31120, -16750, -2227, -14239, 68011, -3989, -12613, -1420, -10954}
#define CONV25_WT {0}
static const uint8_t CONV25_W_Z[] = 	 {-128, -148, -59, -96, -141, -150, -120, -131, -118, -138, -175, -114, -61, -147, -116, -157, -121, -135, -93, -125, -108, -140, -90, -98, -143, -127, -121, -124, -120, -71, -107, -135, -129, -154, -143, -138, -119, -117, -134, -154, -75, -105, -146, -130, -159, -97, -125, -132, -130, -118, -124, -130, -102, -138, -133, -116, -130, -129, -175, -129, -162, -144, -109, -96, -100, -93, -125, -102, -110, -134, -122, -140, -150, -110, -121, -123, -136, -128, -87, -142, -132, -160, -82, -115, -120, -133, -141, -111, -114, -97, -103, -137, -133, -136, -164, -103, -120, -114, -102, -133, -140, -123, -119, -124, -140, -164, -103, -138, -139, -105, -127, -108, -94, -142, -111, -102, -92, -117, -119, -145, -129, -136, -98, -56, -142, -103, -122, -124, -111, -112, -139, -122, -98, -113, -192, -168, -123, -47, -125, -130, -144, -118, -78, -168, -147, -121, -120, -126, -121, -139, -113, -131, -118, -122, -119, -112, -138, -135, -128, -122, -84, -132, -119, -115, -149, -85, -116, -125, -126, -69, -113, -53, -140, -125, -82, -92, -107, -143, -127, -82, -83, -123, -81, -135, -95, -125, -108, -131, -84, -132, -127, -133, -140, -67, -99, -128, -111, -133, -122, -133, -147, -100, -122, -161, -79, -132, -105, -100, -113, -124, -122, -139, -117, -120, -134, -106, -91, -117, -120, -137, -144, -133, -111, -126, -106, -133, -151, -125, -207, -120, -159, -138, -162, -168, -144, -128, -118, -134, -144, -139, -133, -139, -103, -78, -105, -149, -104, -149, -160, -142, -125, -96, -26, -118, -128, -108};
#define CONV25_IN_Z      	(0)
#define CONV25_OUT_Z     	(0)
static const int32_t CONV25_M_ZERO[] = 	 {1351083776, 2037911808, 1861714688, 1784013312, 1098971392, 1329776896, 1166901760, 1508095360, 2133804544, 1808443648, 1081984768, 1130778624, 2133241728, 1863745024, 1340539648, 1191286016, 1620208000, 1651294208, 1303687808, 1657411712, 2032782336, 1295430528, 2139854848, 1594140672, 1250304000, 1079070720, 1924036864, 1837939200, 1293771776, 1101853824, 2013866240, 1725080960, 2138519936, 1972512768, 1167454464, 1745910272, 1542855040, 1105693312, 1688254464, 1183908352, 1156524416, 1080701568, 1240717952, 1096691840, 1136511744, 1862271488, 1763367808, 2082101504, 2046212608, 2064166144, 1996702464, 1816933376, 1078212096, 1076973696, 1870438656, 1345738496, 2008806912, 1837391616, 1131633920, 1236824960, 1649363712, 2040893312, 1083949568, 1798007424, 1869983616, 1249723520, 1564299520, 1920707072, 1889110912, 1353411456, 1169661056, 1655084928, 1674373504, 1594324608, 1719150592, 1112706688, 1542629504, 1654158720, 1549686784, 1345706240, 2087313536, 1471187840, 1492088064, 1797954560, 1708642944, 1787158144, 1869478016, 1362205312, 1816551040, 2125591040, 1670412672, 1248032512, 1657917184, 1763410816, 1582405632, 1937539968, 2130112896, 1326957696, 2012608640, 1956899456, 1812912896, 1225161856, 1602491136, 1130597376, 1189171584, 1417443200, 1713208576, 1598869120, 1660788608, 1475913600, 1074299904, 1211344128, 1796739456, 1918259328, 1427979008, 1260759808, 1165276800, 1386141312, 1081343232, 1864934144, 1356201472, 1863318528, 1702625920, 1111308032, 2126374912, 1959019008, 1798768640, 2009004672, 1995862784, 1767449728, 1661897344, 1242315008, 1989147136, 1903122688, 1256184832, 1532471552, 2062371200, 1614339712, 1930226816, 1800033280, 1668423424, 1177172224, 1453811584, 1229249152, 1530169472, 1585472640, 1499109120, 1620461824, 1837438208, 1615173376, 1724566016, 1895535232, 1344580224, 1513296128, 1149588480, 1666939648, 1501788416, 1919199872, 1366243200, 1580572544, 1831873024, 2092279936, 1584473728, 1449954432, 2022689024, 1359840512, 1902667648, 1414479104, 1889362688, 1309494016, 1708960768, 1366084480, 1794981376, 1118286592, 1380482432, 1719157120, 2024933248, 1732248064, 1185383680, 1090628864, 1720509696, 2113147008, 1681883008, 1142502528, 1761265792, 1432971264, 1981182208, 1837755264, 1846583040, 1619999360, 1337454336, 1917210880, 1858036864, 1296429696, 1603516032, 1586680832, 1471081600, 1202114432, 1917677568, 1595627008, 2084214400, 2122149248, 1669268352, 1088004608, 1361710464, 1469691776, 1134136960, 1553505024, 1708104960, 2145820672, 1445694592, 2042711936, 1542694016, 1561200640, 1261146880, 1585987200, 1797462784, 1713816576, 1782100224, 1103153280, 1084795520, 1569842816, 1452235008, 1327841664, 1182513536, 2033234048, 1283522560, 1639683328, 1215575552, 1778698496, 1739666304, 1262180608, 1484296576, 1169135616, 1670111232, 1714366848, 1214229120, 1945748736, 2111797632, 1145924096, 1359895552, 1109154432, 1177003392, 1250589952, 1697803904, 1472723840, 1518597632, 1764436352, 2138259840, 1186022144, 1302682880, 1358460032, 1652660864, 1622227072, 1295846784, 1170740352};
static const int8_t CONV25_N_ZERO[] = 	 {0, 0, 0, 0, 0, 0, 0, 0, 0, 0, 0, 0, 0, 0, 0, 0, 0, 0, 0, 0, 0, 0, 0, 0, 0, 0, 0, 0, 0, 0, 0, 0, 0, 0, 0, 0, 0, 0, 0, 0, 0, 0, 0, 0, 0, 0, 0, 0, 0, 0, 0, 0, 0, 0, 0, 0, 0, 0, 0, 0, 0, 0, 0, 0, 0, 0, 0, 0, 0, 0, 0, 0, 0, 0, 0, 0, 0, 0, 0, 0, 0, 0, 0, 0, 0, 0, 0, 0, 0, 0, 0, 0, 0, 0, 0, 0, 0, 0, 0, 0, 0, 0, 0, 0, 0, 0, 0, 0, 0, 0, 0, 0, 0, 0, 0, 0, 0, 0, 0, 0, 0, 0, 0, 0, 0, 0, 0, 0, 0, 0, 0, 0, 0, 0, 0, 0, 0, 0, 0, 0, 0, 0, 0, 0, 0, 0, 0, 0, 0, 0, 0, 0, 0, 0, 0, 0, 0, 0, 0, 0, 0, 0, 0, 0, 0, 0, 0, 0, 0, 0, 0, 0, 0, 0, 0, 0, 0, 0, 0, 0, 0, 0, 0, 0, 0, 0, 0, 0, 0, 0, 0, 0, 0, 0, 0, 0, 0, 0, 0, 0, 0, 0, 0, 0, 0, 0, 0, 0, 0, 0, 0, 0, 0, 0, 0, 0, 0, 0, 0, 0, 0, 0, 0, 0, 0, 0, 0, 0, 0, 0, 0, 0, 0, 0, 0, 0, 0, 0, 0, 0, 0, 0, 0, 0, 0, 0, 0, 0, 0, 0, 0, 0, 0, 0, 0, 0};


/* Layer 26 Learned Parameters */
#define CONV26_BIAS \
 {-1335, 256675, 165251, 86280, -4834, 70, -942, 308012, -286, -7201, 142793, 90435, 70108, -2304, 146461, 324738, -26117, 157631, 106512, -132, -2460, -1048, -1149, -95, 139824, -2335, -578, -3567, 96664, 95792, -2474, -1321, -2108, -657, 146476, -496, -2405, 147260, 224821, -9668, -606, -12909, -927, 93894, 118052, -1344, -1174, 2666, 76200, 11763, 3504, 479, 105342, -397, -1874, 199, -11240, 123289, -876, 168500, -56, 405676, 127786, -1796, 121927, 3333, -1055, -2490, 129340, 110580, -1469, -683, 104933, 4449, -2059, 65657, 101321, 252488, -5917, 3394, -4655, -28780, -35836, -816, -670, -260, -2349, 88942, 121907, -11896, -561, -304, -737, 191300, 259911, -2162, 5428, -272, 160864, 152021, -1651, 150524, -173, -202, -91, -1433, 105123, 98794, -18224, -2006, -11794, -17414, 222745, 212923, 14035, -66, -2170, 67334, -4752, -5416, -233, 176165, 1500, 191362, -155, 85567, 159815, -4048, 239300, -1945, -2157, -2333, 122475, 180013, 119640, 254980, -53, 137944, -1257, 10906, 112148, -971, 142459, 240650, -136, -13258, -1196, -2240, -139, 153285, 249712, 227408, 99219, -3220, 149193, -1220, -3087, 145568, 14699, 53385, -2052, -1436, -776, -499, -68, -1733, 204729, -1848, -20528, 196595, 241983, 47006, -2981, 152880, -57, -272, -2486, 259870, -95, 134944, 74354, -211, -1097, -11781, 953, 104632, 109262, -945, 5553, 101053, -1599, 141846, -3054, 118361, -529, -1134, -43, -3938, -987, -2242, 161, -80, 251965, 153262, 80755, -45, 6198, -4579, -3280, 69742, -678, -1414, 181634, -1596, 62512, 124619, 126631, 119340, -119, -4963, -6814, -1544, 70826, -5876, 116232, -1247, 232701, -18684, -7474, 88573, -1353, 225126, 191478, -959, -9, -38, -1058, -8095, 161040, 2133, -217, -7901, -1561, -492, 144544, -521, 6334, -4664, 113516, 63964, 76366, 7575, 13499, -378, 184025, -999}
#define CONV26_WT {0}
static const uint8_t CONV26_W_Z[] = 	 {209, -431, -601, -373, -103, -179, -162, -545, 113, 201, -452, -305, -508, 215, -325, -594, -38, -379, -444, -122, 214, -132, 98, -89, -330, 222, -63, 329, -270, -508, -97, -11, -121, 28, -533, 41, 290, -363, -476, 242, -157, -43, -98, -281, -450, 321, 96, -114, -250, -145, -103, -105, -394, 58, 58, -93, -19, -272, -50, -594, -187, -678, -463, 63, -336, -90, 87, 252, -397, -309, 283, 112, -395, -133, 269, -271, -339, -604, -101, -96, -10, -34, 36, 46, -11, -111, 226, -277, -378, 220, -49, -155, -180, -448, -481, 256, -185, -141, -368, -434, 312, -562, -170, -151, -147, 211, -455, -257, -26, 336, -64, -85, -653, -374, -128, -195, -125, -315, -102, 168, -186, -493, -168, -497, -121, -473, -394, 225, -713, 107, 76, 50, -304, -637, -456, -650, -140, -539, 244, -117, -539, -98, -412, -417, -156, -52, 213, 272, -55, -430, -715, -647, -419, 368, -609, 76, -142, -488, -114, -308, 231, 169, -18, 245, -212, -55, -722, 185, 7, -608, -507, -405, -152, -584, -162, -167, 54, -460, -193, -493, -265, -86, -111, 116, -95, -411, -522, -22, -107, -355, 338, -572, 125, -568, -17, -125, -143, 77, 29, 198, -125, -202, -467, -377, -294, -141, -135, 293, 325, -288, -18, 74, -355, -165, -264, -481, -597, -498, -103, 132, 288, 114, -258, 159, -465, 246, -425, 98, -42, -449, 291, -547, -364, 54, -160, -50, 87, 230, -344, -120, -109, 293, 313, -198, -287, -113, -102, 379, -337, -261, -254, -100, -330, -38, -508, -24};
#define CONV26_IN_Z      	(0)
#define CONV26_OUT_Z     	(0)
static const int32_t CONV26_M_ZERO[] = 	 {1591789184, 1496776704, 1383586688, 1429293312, 1424565248, 2077092224, 1933677952, 1931244672, 1111943296, 2102364416, 1544311936, 1173270784, 1104638208, 1884813952, 1414207872, 2011645824, 1914123648, 1325235584, 1805976960, 2114709248, 1739082880, 1188878464, 1331132672, 1688859136, 1856587008, 1674685696, 1908802688, 1615159040, 1785098240, 1902906240, 2003460224, 1740468352, 1170458368, 1373813760, 1391031936, 1150578560, 2142350848, 2011873152, 1785484160, 1701618304, 1826820864, 1929251840, 1151811200, 1959617536, 1109474176, 1219128064, 1896260096, 1175192320, 1603585024, 2060020864, 1661605504, 1542881152, 1083920512, 1894296832, 1597256320, 1999304448, 1731901568, 1672282496, 1955166208, 1280535680, 1946504448, 1831227776, 1593554816, 1843080832, 1626618112, 1920756736, 1627431552, 1988835968, 1746115456, 1772483072, 1119277952, 1571343232, 1935423104, 1473944448, 2008327296, 1657352320, 1917182848, 1161458432, 1139591168, 1852001024, 1276595200, 1287087488, 2052797696, 1793960576, 1316972032, 1454504192, 1175002752, 1083710080, 1167024512, 2072910848, 1350555648, 1175864448, 2115372672, 1723556736, 1320119936, 1720662272, 1273553280, 1433432576, 1768431872, 1992233984, 1833168256, 1258965632, 1312595328, 2131939712, 1420013184, 1655514752, 1084018816, 2137389312, 1808573440, 2046041472, 1497117312, 1147536640, 1240813952, 1927319936, 1549888384, 1738399360, 1488805120, 1298816896, 1221514624, 1209154304, 1127885312, 1322598912, 1121424384, 1787698176, 1376365952, 1073777664, 1860708480, 1721071104, 1780358016, 1542921600, 1310468608, 1938844544, 1506858112, 1080670336, 1903095808, 1089341440, 1774608000, 1553493632, 1312892288, 1223065856, 1741063424, 2041039360, 1139075584, 1669154432, 1682977792, 1159300352, 1478046848, 1669379584, 1090542080, 1143342592, 1158001920, 1869755776, 2000610048, 1968648704, 1206402304, 1523140608, 1654180736, 1581894784, 1345508480, 1744516224, 1205127168, 1692287104, 1494298880, 1806560256, 1517594880, 1718610048, 1343930240, 2124782848, 1351271296, 1360299520, 1376388224, 1799505152, 1382575104, 1234549632, 1371233536, 1847862912, 1211327488, 1563892480, 1826215680, 1538416640, 1225904000, 1253705856, 1214233856, 1232311296, 1429894912, 2025977216, 1921549952, 1594357248, 1588867200, 1502168832, 1245984128, 1281239424, 1207680768, 1671085440, 1283690112, 2021885184, 1383181824, 1885493888, 2082379136, 2089289088, 1695678080, 1688391040, 1570453760, 1798258560, 1793246464, 1640716160, 1988888960, 1989134720, 1657053440, 1618786816, 1365378176, 1707799296, 1989175936, 1508357376, 1692679168, 1885929088, 1305931008, 2125662848, 1709908736, 1112141440, 1182839168, 1673509504, 1274575744, 1139974656, 1714836992, 1918563200, 1511807232, 1397920512, 2117835008, 1973386880, 1112874880, 2048071424, 1708822912, 1109326848, 1888059264, 2107362048, 1481899648, 1135607296, 1212971264, 1154430208, 1113812608, 1792870272, 2086993280, 1654022528, 1587148544, 1211449472, 1650075904, 1552710784, 2056166272, 1537934976, 1322537088, 1433170944, 1472616448, 1121746304, 1604669952, 1457067264};
static const int8_t CONV26_N_ZERO[] = 	 {0, 0, 0, 0, 0, 0, 0, 0, 0, 0, 0, 0, 0, 0, 0, 0, 0, 0, 0, 0, 0, 0, 0, 0, 0, 0, 0, 0, 0, 0, 0, 0, 0, 0, 0, 0, 0, 0, 0, 0, 0, 0, 0, 0, 0, 0, 0, 0, 0, 0, 0, 0, 0, 0, 0, 0, 0, 0, 0, 0, 0, 0, 0, 0, 0, 0, 0, 0, 0, 0, 0, 0, 0, 0, 0, 0, 0, 0, 0, 0, 0, 0, 0, 0, 0, 0, 0, 0, 0, 0, 0, 0, 0, 0, 0, 0, 0, 0, 0, 0, 0, 0, 0, 0, 0, 0, 0, 0, 0, 0, 0, 0, 0, 0, 0, 0, 0, 0, 0, 0, 0, 0, 0, 0, 0, 0, 0, 0, 0, 0, 0, 0, 0, 0, 0, 0, 0, 0, 0, 0, 0, 0, 0, 0, 0, 0, 0, 0, 0, 0, 0, 0, 0, 0, 0, 0, 0, 0, 0, 0, 0, 0, 0, 0, 0, 0, 0, 0, 0, 0, 0, 0, 0, 0, 0, 0, 0, 0, 0, 0, 0, 0, 0, 0, 0, 0, 0, 0, 0, 0, 0, 0, 0, 0, 0, 0, 0, 0, 0, 0, 0, 0, 0, 0, 0, 0, 0, 0, 0, 0, 0, 0, 0, 0, 0, 0, 0, 0, 0, 0, 0, 0, 0, 0, 0, 0, 0, 0, 0, 0, 0, 0, 0, 0, 0, 0, 0, 0, 0, 0, 0, 0, 0, 0, 0, 0, 0, 0, 0, 0, 0, 0, 0, 0, 0, 0};


/* Layer 27 Learned Parameters */
#define CONV27_BIAS \
 {24814, -29653, -19250, 7166, 2931, -27149, 37303, 8186, -20807, 21343, -15274, -8707, 44096, 7771, 43702, -8201, -14529, -146, -31521, -1581, 9179, -17529, -27758, -44985, -54192, 9831, -6945, 202, -33883, -7189, -9032, -7868, 11947, 19629, -8303, 36422, -3194, 56158, 2093, 24445, -20971, -13323, 30793, -37116, -13536, 12424, -5570, -3161, -13111, 13813, 14286, 28902, 13572, 44801, -34425, -50214, -11105, 2245, 28102, 20369, 25642, -14382, -17600, 45696, -46409, 2207, -14903, 9901, -15218, -29528, -55826, 24787, -10566, -4216, -3560, 52117, -26924, -6578, -39621, 14627, -6944, 39448, 9857, 39245, 8961, 59617, 55335, -22877, -68727, 46859, -35786, -4694, -19385, -6018, -35, -26115, 11622, 20106, 36215, 21983, 5513, 28576, -12720, -5525, -19081, 70852, -38516, -35642, 6771, -6936, -7243, 12447, -11069, 9223, 23045, 50363, 77696, 37223, -45008, -8656, -14888, -2158, 25603, 21239, 17278, -14205, 19924, 18448, 43558, -5542, 48524, 9900, -63002, -11990, 19986, 7416, -25093, 28810, -897, 20381, -19627, -16915, 31991, -2004, -2704, 36287, 18553, 13236, -45750, 2405, 19843, -7100, -6772, -11453, -5433, 27009, -11376, -13246, -27895, 8954, -13383, 3473, -23908, 28751, 9025, 62643, 50663, -28925, 43027, -14685, -34555, 37620, -23053, 17681, 32489, 9864, 27588, -5156, 27531, -10361, -9639, 20517, 16041, -26750, 24781, -60654, 54449, 8902, -26709, 2260, -16462, 36075, -9835, 21383, -11446, 10683, -32618, 26201, -40485, 9801, 4961, 188, 1411, 5712, -9613, 15005, -27378, 26916, 32125, 30053, -29484, 31244, -11034, -7528, 40669, -16818, 52849, 3125, 6402, -821, -8874, 28225, 28544, 9987, -17596, 10459, -10957, -14084, 16525, -48370, -7398, 15538, 17038, 10440, -45942, -14437, 28649, -1501, 14019, -12289, -6529, 46084, -13589, -5978, -19964, -45517, -12446, -732, -13299, 33611, 10165, 4946, -6609, -2768, -91, -4219}
#define CONV27_WT {0}
static const uint8_t CONV27_W_Z[] = 	 {-124, -99, -138, -114, -141, -150, -144, -134, -142, -146, -135, -148, -120, -130, -162, -113, -148, -139, -156, -131, -116, -123, -166, -119, -123, -113, -136, -139, -122, -138, -136, -171, -132, -167, -164, -169, -114, -163, -152, -151, -182, -141, -163, -136, -144, -137, -126, -142, -148, -165, -132, -130, -119, -132, -117, -135, -126, -181, -146, -141, -166, -145, -149, -119, -123, -128, -126, -140, -192, -130, -140, -164, -124, -133, -116, -134, -95, -115, -126, -128, -148, -155, -140, -152, -136, -135, -145, -172, -130, -113, -144, -142, -109, -142, -175, -125, -139, -137, -129, -151, -118, -135, -70, -157, -91, -110, -134, -147, -144, -150, -142, -116, -153, -131, -146, -147, -132, -132, -124, -141, -118, -103, -176, -137, -159, -138, -131, -111, -145, -153, -145, -179, -101, -174, -155, -162, -118, -134, -137, -177, -128, -116, -154, -121, -139, -148, -105, -114, -122, -108, -113, -111, -108, -136, -140, -164, -134, -126, -156, -127, -141, -140, -154, -125, -185, -144, -153, -151, -139, -138, -130, -143, -118, -126, -143, -131, -155, -217, -145, -113, -148, -166, -119, -131, -151, -124, -150, -157, -169, -119, -110, -150, -141, -119, -147, -117, -141, -131, -113, -137, -123, -142, -136, -129, -126, -111, -132, -130, -124, -141, -145, -139, -143, -148, -182, -129, -135, -149, -112, -134, -121, -121, -162, -131, -138, -142, -150, -144, -165, -141, -102, -176, -145, -146, -135, -124, -142, -150, -151, -169, -124, -150, -123, -108, -127, -124, -123, -106, -134, -137, -131, -149, -152, -151, -120, -145};
#define CONV27_IN_Z      	(0)
#define CONV27_OUT_Z     	(0)
static const int32_t CONV27_M_ZERO[] = 	 {1786282752, 1463155328, 1111945344, 1307916160, 1999123968, 1288340992, 1309838080, 1309714816, 2003105024, 1184817792, 1136404224, 1586133376, 1990697216, 1687122816, 1411701248, 1291618304, 1871725696, 1201766656, 1250172160, 1421560320, 1182412544, 1356687616, 1690190080, 1197006848, 1186425984, 1495050752, 1327714816, 1956228864, 1783548416, 1277698304, 1896516992, 1976518272, 1515166592, 1437458176, 1971768064, 1178555008, 2093631104, 1093933696, 1218876928, 1386265728, 1320777856, 1323952768, 1274620416, 2048633984, 1134856064, 1539594240, 1710796160, 1481033728, 1094661376, 1661556736, 1118675072, 1961163648, 1389635712, 2072770432, 1384954112, 2144119424, 1574102400, 1605656064, 1817704320, 1123383936, 1935049984, 1285995008, 1260696704, 1296897920, 1296109312, 1487619200, 1394636160, 1146209664, 1079044224, 1133446528, 1835330304, 1578147968, 1346869376, 1186368768, 2060360832, 1235547392, 1634658048, 2136245248, 1254892544, 1213304960, 1382444288, 1253340416, 1406369664, 2057716992, 1825103872, 1232422144, 1297127808, 1642829184, 2141525248, 1139531392, 1190947456, 1091558656, 1350772224, 1607790464, 1608944768, 1339588992, 1287028224, 1298739712, 1274080256, 1136584320, 1197048832, 1125505920, 2112125184, 1516648832, 1252025728, 1310724224, 1537058560, 1282592640, 1134481920, 1327905664, 1234181120, 1565426432, 1350002816, 1628638976, 1098689792, 1235277056, 1109631744, 1370794880, 1099294208, 1276438272, 1229669248, 1220523648, 1539885056, 2029926912, 2113939200, 2074765056, 1091945344, 1182004224, 1435281664, 1215338240, 1142988416, 1348398336, 1158579328, 1670873856, 1224006784, 1233850496, 1137191168, 1229808896, 1315564288, 1936629504, 1136231168, 1285018496, 1244896256, 1393502720, 1302940032, 1291833344, 1880488064, 1545589760, 1124856320, 1256917504, 1434622720, 1487225984, 2087617792, 1299106304, 1120483456, 1243017600, 1597726464, 1243961344, 1468912128, 1088344960, 1609586688, 1272228608, 1385656576, 1613676672, 1457037184, 2145009280, 1161393408, 1990107392, 1302322944, 1155992960, 1286119040, 2038240896, 1607974400, 1388351872, 1939022976, 1454625408, 1154745856, 1482202496, 1184177664, 1509327232, 1223163776, 1319866496, 1285140608, 1299120896, 1133341440, 1505779200, 1246384640, 1422478720, 1268729088, 1126656256, 1193575040, 1233479296, 2030512768, 1214077440, 1965575168, 1559960448, 1177729408, 1092076672, 1259368704, 1356256896, 1193856000, 1567794048, 1954123392, 1459790976, 1258084480, 1396006528, 1408706816, 1432394880, 2131346304, 1544101760, 1305303936, 1121823488, 1535240448, 1510253952, 1322010112, 1189402624, 1317648256, 1204239488, 1153572864, 1185777920, 1385754240, 1427159296, 1582468224, 1569913984, 1491525120, 1669841664, 1306706944, 1476543104, 1348174080, 1280734848, 1273140992, 1452387456, 1313314688, 1189295616, 1117241216, 1299656192, 1709272448, 1508887168, 1246271232, 1292947584, 1465345920, 2118318464, 1804489216, 1308328960, 1401522048, 1222707712, 1239762048, 1566700672, 1132797184, 1153001856, 1207581952, 1291968640, 1490940288, 1176376960, 1476072704, 1436786816};
static const int8_t CONV27_N_ZERO[] = 	 {0, 0, 0, 0, 0, 0, 0, 0, 0, 0, 0, 0, 0, 0, 0, 0, 0, 0, 0, 0, 0, 0, 0, 0, 0, 0, 0, 0, 0, 0, 0, 0, 0, 0, 0, 0, 0, 0, 0, 0, 0, 0, 0, 0, 0, 0, 0, 0, 0, 0, 0, 0, 0, 0, 0, 0, 0, 0, 0, 0, 0, 0, 0, 0, 0, 0, 0, 0, 0, 0, 0, 0, 0, 0, 0, 0, 0, 0, 0, 0, 0, 0, 0, 0, 0, 0, 0, 0, 0, 0, 0, 0, 0, 0, 0, 0, 0, 0, 0, 0, 0, 0, 0, 0, 0, 0, 0, 0, 0, 0, 0, 0, 0, 0, 0, 0, 0, 0, 0, 0, 0, 0, 0, 0, 0, 0, 0, 0, 0, 0, 0, 0, 0, 0, 0, 0, 0, 0, 0, 0, 0, 0, 0, 0, 0, 0, 0, 0, 0, 0, 0, 0, 0, 0, 0, 0, 0, 0, 0, 0, 0, 0, 0, 0, 0, 0, 0, 0, 0, 0, 0, 0, 0, 0, 0, 0, 0, 0, 0, 0, 0, 0, 0, 0, 0, 0, 0, 0, 0, 0, 0, 0, 0, 0, 0, 0, 0, 0, 0, 0, 0, 0, 0, 0, 0, 0, 0, 0, 0, 0, 0, 0, 0, 0, 0, 0, 0, 0, 0, 0, 0, 0, 0, 0, 0, 0, 0, 0, 0, 0, 0, 0, 0, 0, 0, 0, 0, 0, 0, 0, 0, 0, 0, 0, 0, 0, 0, 0, 0, 0, 0, 0, 0, 0, 0, 0};


/* Layer 28 Learned Parameters */
#define FC28_WT \
{0}
#define FC28_BIAS \
 {-1178, 3761, -4828, -7141, 5724, 4970, 2324, 1780, 118, -5521, -5094, -8066, 132, 1175, -733, 161, -3527, 409, 1816, -810, 1521, 7916, 6836, 3159, 2216, -42, 3351, -1350, 5452, -1121, 2872, 2161, 539, -579, 2877, -6822, -1166, 293, 1983, -1139, -1868, 1330, -1514, -3578, 4049, 388, 1382, -3697, -3034, -5237, -2504, 974, 2820, 2967, -2270, -4146, -682, 5325, 3629, -448, -450, 1603, 293, 4154, -1227, 3804, -5983, -4512, 2486, 259, -5385, 3384, 4057, 5260, 1934, 5513, 6712, 6781, 965, 4816, -9221, -4890, 46, -15485, -2551, -459, -4596, 4726, 3968, 5468, -230, -6069, -112, -1867, 341, -5777, 2, -9711, -7426, -6137, -1031, -3389, 2788, 4648, 4460, 2465, 7950, 900, -1992, -10511, -6155, 13779, 7195, -1639, 3536, -8830, -7414, 5750, -2856, -1421, -1218, -3169, -4255, -2514, -2213, -5470, 824, -1865, -984, -2378, -1675, -1270, -1455, -223, -10260, -3178, -11557, -9463, -4118, -6254, -6804, -5599, -5547, -4723, -215, -1424, -1822, -5565, -2304, -3010, -559, 6211, -9148, 4680, -1960, 3531, 5947, -3749, -5931, -3958, -7025, 6665, 8116, 120, 31, -1494, -2956, -9205, 1283, -3813, 1556, 3921, -3537, -5466, 4429, -8430, -4299, 343, 4526, 506, -3069, 127, 6369, 3175, 6379, 4078, -1656, 1484, -5754, -2831, -1070, 4598, -1535, -4617, -4199, 12193, 842, 3109, -7014, 6629, -7212, 3136, 5687, 5418, 2552, 622, -1159, -1709, -1118, 3205, -3787, -3929, -50, 3115, 3326, -805, -4218, 4480, 1890, -278, 1152, 1347, 1387, 6637, -2851, -23, -1518, -5162, -5545, 2036, -1869, -4102, -2572, 4343, 2805, 25, 513, 3086, 2735, 5933, -858, -543, 155, -1279, -572, 6463, -1976, 7520, -1412, -142, 1277, 9781, 1962, -4279, 12262, -799, 4005, 5178, 5095, 2783, 5794, 3811, -2244, 4839, 2805, 5714, 2827, 613, -4141, 4658, 5806, -1253, 1757, 2026, -6910, -4433, -2689, 3432, -7067, 2873, 4298, 7669, -3248, 2734, 9368, 840, -361, -4469, -2156, -42, 1069, -8334, -423, -2584, 1989, 998, 7190, -2342, -2773, 3556, -7977, -3663, -4855, -3061, -9921, 843, 2343, -7414, -550, -4308, -1961, -9249, -5518, 1971, 4751, -1587, 1283, -4069, -5073, -3272, -4674, -10914, -10257, -8008, -3420, -10183, -5926, -2458, -1771, -5619, 1433, -959, 4634, 1785, -1431, 196, 694, -3919, -3606, -708, -1270, -641, -4116, -3185, -7928, -2160, 853, -2282, 1121, 2675, 2487, -5050, -6466, -3134, 2308, -1915, -1615, -4451, -3131, 2766, -4131, 3440, -115, 347, 3144, 4469, 2320, 8214, 4476, 5889, -3270, -1862, 166, 2585, 3393, 735, 2919, -6216, 2198, 3598, -5984, 4574, 2744, 3457, -4205, 4227, 1535, -5580, -4068, 3411, -621, 4632, -6936, -1335, -44, 1377, -4692, -1972, -4317, 9433, 1194, 4790, 1946, -38, -10638, -3049, -969, -2301, -5722, -1377, -366, -6017, 5086, 4831, 4564, 829, 8914, -1137, 5, -1306, 1612, 4308, 6144, 7250, 8385, 6751, -6805, -1664, 3389, -2979, 3075, -1163, 12, 1143, -2707, 2514, -3312, -1797, -3922, -2368, 1419, -1623, 3256, 2259, 760, 5719, -421, -2981, 8255, 822, 3220, -2647, -58, -6564, 1409, -189, -386, -4623, -557, -1196, -7669, 3344, 4873, 2798, 9664, 9868, 957, -1484, 1611, 2571, -905, 1329, -3067, 6824, -7369, 7225, -86, 4662, -3811, -3969, -1129, 4381, 402, -361, -6377, -734, 4385, -1809, -1559, 1778, 1645, 3083, 5773, -5676, 1624, -7154, -1039, -4073, 3567, 10864, 1590, 492, -418, -5379, 4686, -469, 5309, 72, -2875, -5785, -3553, -919, -3324, 1668, 4678, 3101, -4255, -5595, 1663, 6945, -4967, -6107, -3300, 11063, 602, 1266, 2481, -1713, 1534, 6562, 1172, -3906, 1750, -3467, -1275, 2956, -9255, 5648, -6823, 1747, -1825, 1681, 7226, -30, 469, 8897, 2300, -11387, -7228, 13294, -391, 3238, 4624, -7485, -4183, 53, -16, -2170, 444, 2592, -744, 2656, 230, 4641, -5811, -5227, 1415, 1115, 6762, 1984, 280, 1858, -4932, 4285, 3543, 4551, 2308, 10752, -2440, 5378, -4735, -2238, -367, -14, 5398, 1534, -7570, 12788, 781, 3139, -4539, 414, 2627, 1049, 7574, -3227, 5339, 7699, -4559, -772, 5896, -6075, 3852, 30, -2766, 10, 2982, -3488, 7648, 1006, 4090, -6237, 1545, 1185, -3122, -2443, 1143, -4423, 4095, -8732, 4416, 2023, 3343, 13745, -4097, -4096, 2374, 4067, -4668, -874, 5309, 1319, 4919, 3878, 2417, 552, 1596, -1572, -3209, -7256, -5956, 220, 5832, 2300, 2668, -1720, 5262, -3015, -2867, 5327, 6739, -4503, -2221, 1706, 4113, 5499, -1351, -630, -605, -1270, 282, -5967, 2180, 103, 1725, 341, -2965, 3547, -3818, 4270, 589, 8259, 2163, -3262, 1640, -155, -9280, 7743, 2040, -3099, 2293, 5072, 988, 6062, -2502, 1170, 3808, 442, -16419, -7863, -2470, -163, 7996, -3343, 652, 6599, 8645, -3054, -2753, -2164, 4214, -7107, 3097, 9201, 190, -9480, 2565, 48, -4413, -8830, -1769, 3892, -5914, 4163, 3502, -1204, 11551, -4793, -2718, 8202, 1061, -3053, 780, -2195, -8526, -4561, 8784, -4147, -973, -4142, -2875, 5588, 5768, 684, -1857, -4565, -2724, 1683, -582, 2558, -47, 1393, -707, 2395, -3045, 318, 2536, 4650, -5058, 7076, 2843, -395, 2813, 653, -2610, 1319, 1000, 2394, 674, -1076, 4748, -1953, -604, 4842, 7769, -1121, -7252, -569, -3096, 4779, 3744, -2823, -6875, -3574, 4399, 376, 6118, 12471, -7056, -1003, -6022, -3741, -2795, 9869, 4735, 8145, -356, -3591, 8004, -2592, -3241, 8616, 4616, 1339, 705, -962, 2783, 13243, -866, 2995, -3265, -2590, -519, -980, -4095, 662, -6423, -677, 3380, -3385, -3030, -4285, 529, 3467, -296, -3335, 1602, -152, -9721, 4968, -732, -1104, 7950, 1823, 2198, 2920, -2968, -1373, 4930, -5415, 5981, 1991, -2888, 587, 10683, -4345, 12557, 11236, -663, -3590, 1978, 4103, 1841, 3319, 4438, 7319, -6833, 953, 5123, -4200, 7607, -1273, -740, 8113, 477, 5398, -6966, -1284, 4267, 7133, 738, 6292, 3730, 1941, -3752, 1227, 2050, 1683, -58, -2401, 5116, -6695, 1559, -2122, -5956, 5152, 1084, 1324, -4780, 11736, 6883, 4315, -1832, -2694, 3745, 15031, -3083, -6877, 3362, 598, 416, 1185, 6822, 4738, -2678, 4551, -2599, 3456, 3394, -4169, -6154, 701, -6157, 7386, -1742, 1161, 3377, 1899, -7585, 1290, 2704, 6944, -3253, -1936, 373, 238, 1554, 5834, 1063, 8324, -2214, 3226, 1313, -1206, -14578, -7378, -6310, 996, 764, 3543, -2213, -5464, -620, -9356, -4685, -4381, 7215, -1119, -1990, -3650, -1017, 2892, -1182, -3253, -6979, 4954, -8144, -5640, 190, 2903, 20, -4269, 1286, -1240, 2947, 1979, -514, -2681, 6274, -10827, 5744, 852, -2979, -2544, -3976, 258, 219, 312, -608, -5683, 227, 3216, 1769, -6920, -2233, 5582, -1291, 3086, -461, -3932, 2530, 1483, 8100, -7759, -4649, 3736, -4645, -4421, -1755, -8661, 1839, -2317, -4918, -11052, -3617, -3105, -1461, -4720, 1078, 3610}
#define FC28_W_Z       	(180)
#define FC28_IN_Z      	(0)


#endif /*__160_0_25_WEIGHTS_BIAS_H__*/
