#ifndef __160_1_0_WEIGHTS_BIAS_H__
#define __160_1_0_WEIGHTS_BIAS_H__


/* Layer 1 Learned Parameters */
#define CONV1_BIAS \
 {-17677128, -27131, 80686, 550215, 152361, 344, 107223, 65154, 3519, 21457, 12890, 15013, 77530, -130495, -8571519, -5346668, 37304, -5049826, 68037, -60369040, 15681, 13687, 6582, -179221, 36693, -19270, 42398, -130299, 10266, 24863, 222929, 196365}
#define CONV1_WT {0}
static const uint8_t CONV1_W_Z[] = 	 {-159, -179, -96, -110, -178, -143, -161, -154, -157, -116, -154, -152, -216, -210, -203, -227, -148, -170, -143, -191, -154, -124, -134, 11, -101, -163, -95, -194, -119, -89, -232, -35};
#define CONV1_IN_Z      	(127)
#define CONV1_OUT_Z     	(0)
static const int32_t CONV1_M_ZERO[] = 	 {1681986944, 1989816832, 1515256320, 1599158016, 1131993600, 2014979072, 1198360704, 1142269184, 1240554880, 1942547840, 1604571648, 1313134976, 1829695104, 1849705856, 1677201792, 1404464000, 1162539136, 1335633664, 1513504640, 1083593216, 1275159936, 2099229824, 1253294336, 1663036544, 1517514240, 1145520128, 1748852992, 1774059136, 1456762752, 2014115456, 1556841984, 1362983424};
static const int8_t CONV1_N_ZERO[] = 	 {0, 0, 0, 0, 0, 0, 0, 0, 0, 0, 0, 0, 0, 0, 0, 0, 0, 0, 0, 0, 0, 0, 0, 0, 0, 0, 0, 0, 0, 0, 0, 0};


/* Layer 2 Learned Parameters */
#define CONV2_BIAS \
 {-223, 2147, 647, 146508, 31001, 87364, 48598, 5559, -1455, 32508, 18849, -16928, 4639, 22249, 725, -272, -795, -1070, 27394, -762, 144, 11934, -1183, -185, 1385, -10969, 32628, 2945, 2241, 6513, 3966, 917}
#define CONV2_WT {0}
static const uint8_t CONV2_W_Z[] = 	 {-4, -199, -120, -214, -211, -270, -210, -105, -55, -197, -168, -28, -96, -187, -184, -272, -89, -105, -252, 12, -98, -130, -64, -218, -94, -161, -134, -100, -65, -152, -126, -129};
#define CONV2_IN_Z      	(0)
#define CONV2_OUT_Z     	(0)
static const int32_t CONV2_M_ZERO[] = 	 {1110680192, 1198248704, 1168527360, 1500301184, 2118222720, 1786851968, 1206596480, 1431960064, 1869970304, 1966378368, 1712943104, 1525606400, 2102253056, 1616915200, 1757478272, 1974684928, 1171309824, 1221034240, 1173949440, 1808748032, 2095288320, 1076887040, 1283932928, 1356058752, 1303040768, 1908848384, 2037083392, 1695728128, 1908938368, 1365298304, 1952174080, 1114593920};
static const int8_t CONV2_N_ZERO[] = 	 {0, 0, 0, 0, 0, 0, 0, 0, 0, 0, 0, 0, 0, 0, 0, 0, 0, 0, 0, 0, 0, 0, 0, 0, 0, 0, 0, 0, 0, 0, 0, 0};


/* Layer 3 Learned Parameters */
#define CONV3_BIAS \
 {10702, -35514, 17349, 15131, -18530, -16668, 8289, 33557, 5488, 6822, 12543, -5740870, -21269, 46432, 22146, -2694, -10014, 71207, -44836616, 12292, 33632, 44770, -19902, -13497, -7331, 5542, 25110, 8163, -21469, 24090, 29069, -23923, 16944, -7620, -56031, 23790, 125209, -4058, 20039, 50965, 21484, 11267, 4289, -509, 3751, 22866, -21712, -513, -29682, 5473, 16194, -53797, 25440, 60049, -8684, 573, -5707151, -5422, 27756, -15633, 36174, -4499, -4861, 20292}
#define CONV3_WT {0}
static const uint8_t CONV3_W_Z[] = 	 {-69, -90, -173, -220, -120, -36, -83, -207, -109, -198, -205, -137, -37, -208, -168, -83, -37, -204, -74, -213, -175, -113, -136, -60, -134, -70, -229, -164, -99, -165, -137, -114, -154, -87, -75, -153, -177, -97, -155, -207, -143, -179, -79, -100, -123, -114, -38, -192, -37, -85, -69, -47, -191, -214, -128, -160, -97, -137, -124, -23, -230, -61, -101, -101};
#define CONV3_IN_Z      	(0)
#define CONV3_OUT_Z     	(0)
static const int32_t CONV3_M_ZERO[] = 	 {1863088128, 1742658560, 1118960256, 1182573056, 1258721664, 1787979264, 2018537856, 1712391680, 1954944256, 1472209280, 1713848448, 1251701760, 1119568640, 1994487296, 1855820800, 1342090752, 1375549440, 2101944192, 1176444800, 1810611968, 2118908288, 1648470400, 1653902080, 1259092096, 1907016192, 1414953856, 1123459328, 1501014400, 1146005504, 1688119808, 1899752448, 2131805824, 1143114496, 2037362176, 2025550208, 1643252736, 1257247872, 1738905600, 1322466304, 2079033216, 1077298688, 1625671168, 1169831296, 1717834880, 1830522624, 1765368704, 1494436352, 1396710400, 1348153088, 1221950336, 1959391616, 1409697152, 1801928448, 1169494528, 2026484736, 1688606848, 1452559744, 1893205632, 1973502720, 1281602560, 1415307776, 1804065408, 1279483264, 1826167680};
static const int8_t CONV3_N_ZERO[] = 	 {0, 0, 0, 0, 0, 0, 0, 0, 0, 0, 0, 0, 0, 0, 0, 0, 0, 0, 0, 0, 0, 0, 0, 0, 0, 0, 0, 0, 0, 0, 0, 0, 0, 0, 0, 0, 0, 0, 0, 0, 0, 0, 0, 0, 0, 0, 0, 0, 0, 0, 0, 0, 0, 0, 0, 0, 0, 0, 0, 0, 0, 0, 0, 0};


/* Layer 4 Learned Parameters */
#define CONV4_BIAS \
 {106, 338, 157, 119, -195, -5, 106, 3663, 4694, 8961, 655, -18, -215, 13, 96, 5168, 3806, 620, -28, 121, -2, -16, 6504, 1230, 1258, 222, 493, 8, 249, 193, -1120, 5742, 2929, 72, 2193, 3361, -35, 4013, 7061, 3408, 38, 53, 507, 658, 231, -281, 59, 2674, 501, -12, 6800, 239, 576, 751, 342, -653, -28, 270, 247, 7621, 1689, 43, 2437, 845}
#define CONV4_WT {0}
static const uint8_t CONV4_W_Z[] = 	 {-112, 60, 33, -56, -124, -93, -138, -244, -265, -307, 12, -58, -59, -36, -98, -295, -271, 19, -14, -86, -161, -138, -327, -93, -76, 34, 38, -94, 32, -131, 2, -302, -310, -110, -271, -185, -88, -252, -218, -324, -149, -129, -60, -112, 45, -123, -69, -146, 95, -82, -287, 39, -27, -158, 61, -97, 120, 29, -107, -233, -280, -94, -299, -190};
#define CONV4_IN_Z      	(0)
#define CONV4_OUT_Z     	(0)
static const int32_t CONV4_M_ZERO[] = 	 {1183007744, 1541731328, 1426090624, 1421280384, 1231584256, 1506988032, 1429191936, 1843311744, 1116033920, 1705341056, 1276204416, 1075826944, 1106725376, 1175559424, 1390109568, 2116133888, 1415508864, 1114926848, 1572256256, 1285263232, 1573219456, 1382180736, 1302886784, 1462366464, 1548429312, 1456695424, 1481009664, 1553364608, 1109659392, 1262794624, 1360755456, 1430418304, 1734322432, 1083196160, 1318457728, 1581997184, 1214862976, 1486664192, 1668389248, 1393141376, 1340177152, 1609916672, 1767287552, 1107482112, 1282508800, 1373021952, 1564794240, 2136690688, 1907541888, 2073321344, 1199353088, 1109497856, 2051463936, 1993813888, 1274804864, 1125591168, 1427535104, 1146457984, 1233639040, 2029972224, 1680918656, 1567405568, 2042791680, 1262297600};
static const int8_t CONV4_N_ZERO[] = 	 {0, 0, 0, 0, 0, 0, 0, 0, 0, 0, 0, 4, 0, 0, 0, 0, 0, 0, 2, 0, 0, 0, 0, 0, 0, 0, 0, 0, 0, 0, 0, 0, 0, 0, 0, 0, 0, 0, 0, 0, 0, 0, 0, 0, 0, 0, 0, 0, 0, 0, 0, 0, 0, 0, 0, 0, 2, 0, 0, 0, 0, 0, 0, 0};


/* Layer 5 Learned Parameters */
#define CONV5_BIAS \
 {-34055, -10488, 65681, -34860, -56532, 5205, 102153, 10570, 19732, 22294, 15237, 92851, -392, 14851, -2400, 26674, 34919, 17023, 27116, 31034, 31055, 43451, -41006, -17992, 34195, 43476, 44286, 717, 11064, 21748, 13463, -17556, 6487, -52295, 24037, 44055, -32293, 12510, 47856, -9077, 23853, 50751, -9053, 72159, 63360, 1034, 13064, 29416, 32061, -33669, 21208, 27008, 37941, 53086, -9518, 19086, 29105, 1951, 4345, 51668, 3195, 38408, 25385, 33375, 75445, -3628, 75279, 38789, 17713, 4670, 2216, -9103, 25094, -1095, -1417, 9660, 17630, 21799, 13511, 37625, -51497, 532, -11193, -798, -2257, -3080, 229978, 4762, 24526, 158367, 10169, -30475, 34271, 60277, 2738, 21744, 42896, 2761, -13426, -17881, -33807, 36580, 41189, 11485, 24108, 22462, 8230, 74967, 22129, 103400, 14269, 32962, 13599, 5200, 29868, 22862, 442, -10548, 27019, 13549, 7225, 6019, -16556, 27494, 14799, 31869, 11663, -2418}
#define CONV5_WT {0}
static const uint8_t CONV5_W_Z[] = 	 {-117, -134, -136, -87, -69, -154, -159, -147, -190, -113, -89, -179, -139, -146, -114, -117, -151, -158, -136, -121, -96, -119, -151, -101, -184, -94, -76, -158, -90, -187, -78, -109, -132, -144, -181, -102, -93, -149, -119, -146, -77, -170, -92, -150, -121, -196, -92, -115, -69, -90, -135, -96, -167, -145, -106, -120, -124, -97, -112, -135, -148, -150, -106, -222, -121, -82, -165, -141, -118, -148, -66, -55, -112, -100, -199, -163, -131, -161, -137, -155, -115, -142, -94, -102, -88, -170, -157, -72, -81, -178, -137, -100, -126, -119, -158, -141, -113, -217, -141, -126, -115, -150, -162, -102, -189, -161, -141, -110, -113, -130, -146, -141, -119, -151, -137, -119, -109, -163, -167, -130, -145, -121, -141, -146, -133, -117, -29, -166};
#define CONV5_IN_Z      	(0)
#define CONV5_OUT_Z     	(0)
static const int32_t CONV5_M_ZERO[] = 	 {1325959680, 1453894912, 1120169088, 1115621632, 1433843712, 1994583808, 1961003648, 1630493952, 1194087168, 1702086784, 2091625984, 1621710080, 1329625472, 1455657216, 1148810496, 1503492224, 1914424448, 1637007616, 1248387584, 1115514112, 1410450432, 1448418944, 1710641920, 1167047296, 1153718016, 1403480064, 1401779328, 1279016448, 1139249792, 1468923264, 1436623360, 1445217664, 1194501632, 1673171840, 1740948096, 1640697600, 1290546304, 1285786880, 1509520128, 2046884352, 1766485248, 1607368064, 1919426176, 1509672320, 1442657664, 1488485760, 1544609536, 1810925952, 1833061248, 1444971904, 1579699968, 1360646656, 1873005824, 2143520640, 2135649280, 1482977536, 1459451648, 1536987008, 1231727360, 1632574208, 2019956352, 1081296512, 1151692160, 1496839424, 1674444416, 1480799232, 1514165120, 1549544192, 1818989440, 1521592320, 1134530176, 1688918400, 2031378176, 1743978368, 1640068224, 1475470592, 1222626560, 1290158976, 1844763520, 1834388224, 1096836992, 2011487360, 1372012672, 1772831104, 2111005824, 1878023424, 1176535808, 1121121024, 2042494848, 1897050496, 1103835264, 1493978112, 1286528896, 1530908160, 1725300224, 1435933440, 1383936128, 1454241152, 2001542144, 1630437888, 1537393536, 1437776128, 1777902336, 1710871808, 2108943488, 2066782976, 1389478016, 1160204800, 1701364224, 1260652800, 1483586048, 1998247936, 1575568384, 1518919680, 2108869248, 1198778752, 1473719552, 1281933568, 1763974016, 1596461440, 1826442240, 1397949440, 1108937472, 1543250688, 1441014656, 1376383360, 1866389888, 1594332800};
static const int8_t CONV5_N_ZERO[] = 	 {0, 0, 0, 0, 0, 0, 0, 0, 0, 0, 0, 0, 0, 0, 0, 0, 0, 0, 0, 0, 0, 0, 0, 0, 0, 0, 0, 0, 0, 0, 0, 0, 0, 0, 0, 0, 0, 0, 0, 0, 0, 0, 0, 0, 0, 0, 0, 0, 0, 0, 0, 0, 0, 0, 0, 0, 0, 0, 0, 0, 0, 0, 0, 0, 0, 0, 0, 0, 0, 0, 0, 0, 0, 0, 0, 0, 0, 0, 0, 0, 0, 0, 0, 0, 0, 0, 0, 0, 0, 0, 0, 0, 0, 0, 0, 0, 0, 0, 0, 0, 0, 0, 0, 0, 0, 0, 0, 0, 0, 0, 0, 0, 0, 0, 0, 0, 0, 0, 0, 0, 0, 0, 0, 0, 0, 0, 0, 0};


/* Layer 6 Learned Parameters */
#define CONV6_BIAS \
 {27768, -788, 10975, 25506, 376, 15329, 16291, -1171, 1429, 727, 489, -341, 242, -78, -1033, 67, 40664, 29625, -4736, 2047, 955, 333, 1432, -3449, -5708, 38509, 3999, 6293, -73, 25904, 239, 28454, 15997, 5436, 7376, 6633, 9570, -6333, 1934, -3015, 3854, 5254, 13122, 289, 1464, 31113, 17698, 13037, 9392, 82745, 14032, 1990, 26139, 26208, 20359, 23673, -1056, -378, 5240, -2526, 35987, -115, 272, 10721, 41476, 36119, 3012, -142, 67, -2438, 4664, -578, 3319, 11211, -3026, 1327, -765, 33031, -818, -1400, 139, 318, -2558, 19565, 2028, 3192, 105638, 63821, 7983, 4313, -12077, -1877, 74, 2642, -824, -8196, 13300, -15204, -736, 10540, 20623, -915, 24198, 816, -33321, 12740, 15185, 9008, -79, 18389, 41337, 4716, 62966, 2381, -2361, 10972, 3780, -5192, -2644, -598, 36866, 2860, 2101, 1437, 5569, 4242, 13277, 55231}
#define CONV6_WT {0}
static const uint8_t CONV6_W_Z[] = 	 {-219, -143, -118, -195, -163, -169, -217, -117, -122, -142, -132, -31, -112, -76, -79, -128, -203, -194, -26, -142, -132, -136, -188, -39, -31, -207, -81, -104, -90, -125, -82, -233, -53, -187, -169, -158, -105, -19, -130, -33, -48, -60, -55, -99, -144, -191, -112, -71, -92, -217, -172, -110, -203, -241, -213, -140, -127, -77, -104, -121, -227, -92, -120, -114, -228, -165, -118, -68, -117, -74, -94, -79, -79, -62, -53, -109, -30, -223, -131, -25, -62, -137, -38, -146, -93, -159, -263, -232, -115, -100, -26, -50, -152, -126, -51, -31, -60, -29, -38, -43, -214, -89, -153, -98, -22, -200, -180, -217, -108, -206, -204, -181, -230, -112, -96, -107, -128, -70, -97, -120, -210, -160, -95, -131, -107, -171, -206, -214};
#define CONV6_IN_Z      	(0)
#define CONV6_OUT_Z     	(0)
static const int32_t CONV6_M_ZERO[] = 	 {1891354752, 1089628032, 1155629056, 2029335296, 1335241088, 1194312960, 1454242944, 1252571392, 1106765312, 1722356608, 2043029760, 1178979328, 1976674176, 1578328064, 1230568832, 1866364544, 1228206080, 1098709120, 1395166208, 1626814208, 1447369856, 1509691520, 1395694336, 2093734912, 1182804352, 1607350272, 1671884416, 1942610304, 1290955392, 1595035264, 1170010880, 1991503488, 1667717376, 1646089600, 1287593216, 1354931072, 1633241472, 1146222208, 1082889088, 1292992384, 1172446976, 1325170304, 1520158976, 2116436096, 1141688704, 1549706112, 1966288000, 2088224768, 1691620992, 1097617536, 1153128192, 1245850112, 1826220672, 2030350848, 1500974976, 1760236928, 2140332416, 1137065344, 1524807168, 2133956480, 1995046528, 1158364288, 1303714688, 1358856064, 1796936192, 1695889536, 1418207232, 1325576704, 1706571776, 2027082880, 1144695424, 1811127296, 2068834048, 1441150720, 1263796352, 1377704320, 1478028544, 1405238784, 1724405760, 1501162880, 1190657792, 1581395200, 1900431872, 2022739584, 1900192256, 1886553984, 1687778176, 1622951296, 1489988352, 1110228864, 1138941568, 2117992192, 1223201792, 1222423168, 1366118528, 1439414272, 1163439872, 1842889216, 2030845184, 1300262784, 1249432832, 1431978112, 1139544576, 1304550272, 1552328064, 1690341504, 1087778048, 1952889728, 1753987584, 2122676992, 1347387392, 1278098176, 1350287360, 1589168384, 1637403520, 1476436096, 1120957440, 1711283456, 1566591232, 1089904896, 1987987328, 2044921216, 1580038656, 1116173184, 1579139328, 1710864128, 1809317376, 1608805120};
static const int8_t CONV6_N_ZERO[] = 	 {0, 0, 0, 0, 0, 0, 0, 0, 0, 0, 0, 0, 0, 0, 0, 0, 0, 0, 0, 0, 0, 0, 0, 0, 0, 0, 0, 0, 0, 0, 0, 0, 0, 0, 0, 0, 0, 0, 0, 0, 0, 0, 0, 0, 0, 0, 0, 0, 0, 0, 0, 0, 0, 0, 0, 0, 0, 0, 0, 0, 0, 0, 0, 0, 0, 0, 0, 0, 0, 0, 0, 0, 0, 0, 0, 0, 0, 0, 0, 0, 0, 0, 0, 0, 0, 0, 0, 0, 0, 0, 0, 0, 0, 0, 0, 0, 0, 0, 0, 0, 0, 0, 0, 0, 0, 0, 0, 0, 0, 0, 0, 0, 0, 0, 0, 0, 0, 0, 0, 0, 0, 0, 0, 0, 0, 0, 0, 0};


/* Layer 7 Learned Parameters */
#define CONV7_BIAS \
 {3741, -7992, 117, -50504, -12465, -5062, -76295, -18154, -13363, -5162, -12837, 11182, 40722, -17590, -16977, -11010, 751, -13957, 40599, -18782, 44790, -3158, 47475, -2428, 51941, -33549, -25165, 7187, 30906, 498, 19579, -8939, 490, 41488, -2670, -9117, -769, 3311, 12551, -11570, 14165, 20396, -34426, 49484, -24527, -43820, -13312, -5538, -27298, -16445, -3175, -20362, 43031, -26312, 21589, 27029, -17345, 35355, 63640, 23879, -45440, -39378, -6302, 31593, 27987, -73607, -60534, -23324, -10711, 16220, 13255, -12084, 28255, 4086, -28745, 19588, 4714, -29596, 30660, 21124, -17422, 142824, -19255, -2338, -40118, -3257, 14490, 60386, -20129, -31994, -13432, -973, 51282, -4612, -4489, -23925, 57504, -3335, 44018, -21807, 44364, 24458, 67022, 52885, 9713, -53302, 29293, 2242, 21809, 17284, -32849, -23501, 30483, -16348, -35484, 7333, 14159, -23407, 12676, 8035, 18684, 3597, -28226, 39908, -9505, -41626, 7021, 15430}
#define CONV7_WT {0}
static const uint8_t CONV7_W_Z[] = 	 {-169, -151, -125, -105, -135, -128, -100, -111, -102, -52, -170, -143, -161, -137, -101, -174, -145, -121, -189, -125, -160, -80, -158, -111, -142, -111, -120, -151, -133, -128, -71, -112, -163, -140, -121, -72, -157, -150, -125, -124, -135, -121, -102, -109, -155, -143, -123, -138, -109, -96, -31, -111, -152, -132, -106, -135, -147, -86, -127, -123, -120, -135, -125, -116, -111, -121, -117, -136, -127, -67, -137, -117, -143, -149, -42, -197, -135, -121, -130, -184, -141, -127, -118, -87, -105, -119, -137, -129, -101, -131, -139, -77, -166, -109, -119, -104, -155, -45, -155, -109, -96, -135, -125, -106, -124, -100, -161, -112, -90, -123, -102, -144, -90, -106, -106, -115, -109, -152, -85, -104, -155, -172, -88, -113, -123, -114, -119, -167};
#define CONV7_IN_Z      	(0)
#define CONV7_OUT_Z     	(0)
static const int32_t CONV7_M_ZERO[] = 	 {1136075648, 1826507776, 1974070912, 1149285120, 1421162240, 1363553152, 1969609472, 1688573568, 1452215040, 1492529280, 1270228480, 1554710784, 1471197824, 1975947904, 1235052672, 1492604160, 1122612480, 1257882880, 1234879616, 1925132160, 2001785472, 2076114688, 1777132928, 1740277632, 1598038272, 1661597440, 1380334592, 1934346624, 1322603264, 1157158272, 1794918912, 1515029760, 1700057344, 1202619136, 1924126336, 1710038784, 1199238656, 2044218496, 1119388160, 1463817600, 1200098944, 1889996544, 1693766912, 1156612224, 1149307392, 1381966720, 1847736832, 1458941184, 1125710080, 1787811456, 1322385024, 2101676928, 1425385088, 1889155200, 1162396928, 1782669952, 1350707712, 1592775168, 2077617024, 1992134784, 1178180352, 1471649536, 1434093824, 1120476544, 1945241984, 1802445056, 2079851520, 1138454912, 1868782848, 1477567232, 1274632320, 1529316992, 1377306496, 1389570560, 1797858432, 1942189184, 1607897856, 2092598272, 2064909824, 1542676096, 1946805632, 1592469248, 1117943680, 1605525888, 1152081920, 1203371136, 1241757568, 1786765568, 1076530944, 2142570368, 1124407808, 1433163392, 1869200640, 1663031168, 1187034880, 1181502592, 1181212672, 1387119872, 1280948224, 1747566208, 1584640768, 2031472640, 1111390976, 1294745344, 1578682496, 1415435264, 1231320320, 1342248704, 1816597504, 1464675584, 1955783040, 1497251456, 1445261568, 1993193728, 1360801280, 1615270016, 1250965760, 1149805312, 1465055104, 2050317568, 1393550208, 1710072704, 1266316672, 2133064576, 1272262272, 2055597056, 1318486016, 2000132736};
static const int8_t CONV7_N_ZERO[] = 	 {0, 0, 0, 0, 0, 0, 0, 0, 0, 0, 0, 0, 0, 0, 0, 0, 0, 0, 0, 0, 0, 0, 0, 0, 0, 0, 0, 0, 0, 0, 0, 0, 0, 0, 0, 0, 0, 0, 0, 0, 0, 0, 0, 0, 0, 0, 0, 0, 0, 0, 0, 0, 0, 0, 0, 0, 0, 0, 0, 0, 0, 0, 0, 0, 0, 0, 0, 0, 0, 0, 0, 0, 0, 0, 0, 0, 0, 0, 0, 0, 0, 0, 0, 0, 0, 0, 0, 0, 0, 0, 0, 0, 0, 0, 0, 0, 0, 0, 0, 0, 0, 0, 0, 0, 0, 0, 0, 0, 0, 0, 0, 0, 0, 0, 0, 0, 0, 0, 0, 0, 0, 0, 0, 0, 0, 0, 0, 0};


/* Layer 8 Learned Parameters */
#define CONV8_BIAS \
 {55715, -1332, 121090, 3379, 53255, 66946, 147987, -2618, 23566, 195366, -2369, 4086, 83672, 512, 72402, 163158, 109, 11362, -732, 105882, 115109, 44319, 162846, 111047, 5107, 5306, -33, 3800, 96030, 46172, 88522, 334, 52634, 231, 204751, 16074, 82832, 6834, 150644, 1392, 308, 40917, 126603, 19964, -952, 135258, 144579, -9422, 91831, 38229, 48512, 1388, -3330, 13280, 221633, 474, 117962, 85946, 81186, -1057, 127468, -23079, 74390, -7008, 7409, 2088, 3502, -652, -4359, 69238, -516, -128, 87239, 83003, 1715, -5202, 68303, -2303, -5498, 2123, 10199, 60608, 3955, 124570, -628, 4320, 3976, 71647, 1018, 4177, 147573, 54610, 1090, 57953, 69342, 12402, 167689, 69019, -24603, -291, 50623, 9838, 54432, 18871, 81547, 467, 1807, 225153, 55178, 92968, 4251, 167199, 157646, 164967, -654, 7154, 100741, 73799, 35771, 39474, 40826, 38860, 413, -5987, 1266, 797, 156199, 89609}
#define CONV8_WT {0}
static const uint8_t CONV8_W_Z[] = 	 {-313, 50, -279, 211, -323, 72, -325, 80, -315, -315, 81, 56, -367, 109, -106, -310, 53, 24, 59, -351, -279, -317, -317, -451, -169, 70, -169, 53, -343, -114, -271, 63, -141, -113, -351, -273, -321, 46, -229, 9, -70, -315, -348, -159, -21, -320, -325, 42, -367, -296, -292, 70, 44, 70, -305, 63, -284, -343, -329, 103, -305, 87, -364, 57, -109, 70, 99, -110, 56, -306, 82, -170, -405, -351, 67, 83, -366, 74, -145, 70, 73, -187, 75, -308, 16, 41, 52, -304, 73, 74, -341, -294, 53, -316, -342, 68, -316, -350, 49, 62, -190, 67, -156, -187, -392, 52, 59, -320, -246, -326, 83, -335, -286, -346, 51, 67, -363, -350, -324, -358, -331, -399, 66, 70, 48, 51, -321, -368};
#define CONV8_IN_Z      	(0)
#define CONV8_OUT_Z     	(0)
static const int32_t CONV8_M_ZERO[] = 	 {1115420288, 1097136640, 1585500672, 1308324480, 1723826176, 1269723392, 1489771008, 1557131392, 1852029568, 1455814272, 1489064320, 1163191680, 1349342976, 1947998720, 1928711168, 1777351296, 1155552384, 1624121472, 1625357312, 1183050496, 1279308288, 1317059840, 1553889536, 1785325056, 1778659456, 1704947584, 1305465728, 1745218944, 2075699072, 1995022848, 1619959168, 1497425408, 1435291520, 1275659136, 1097947008, 1645140224, 1433079168, 1466772096, 1484196608, 2090582528, 1403488512, 1177215616, 2001428096, 1298101376, 2031698304, 1513617920, 1561158528, 1078246144, 2115977728, 1199396480, 1577012736, 1273717760, 1447107712, 1834160896, 1535315328, 1874492416, 1920745984, 1153602944, 1683646464, 1671448960, 1571310464, 1169176576, 1608231808, 1343679232, 1360499456, 2061330048, 1973916928, 1092467456, 1417120640, 1572798080, 1537238912, 1698713728, 1162001664, 1339932544, 1555085440, 1367828224, 1493962240, 1506096000, 1509844096, 1303572224, 1463140608, 1075050368, 2118971776, 1659037952, 1920765440, 1537233792, 2096117504, 1690633216, 1567865216, 1219157632, 1290954496, 1983570176, 1579132416, 1818471424, 1530033920, 1260638720, 1414922752, 1958496256, 1632159104, 1603294080, 1774652672, 1916971776, 1578748160, 2040444416, 1235456384, 1111192448, 1882833152, 1646138880, 1970210688, 1237843072, 1718433152, 1804365824, 1953780480, 1133671040, 1165886848, 1398978688, 1201912704, 1299532416, 1433723392, 1264946304, 1170116224, 2011984256, 1801557888, 1610638208, 1094005376, 1892163584, 1517332608, 1197763840};
static const int8_t CONV8_N_ZERO[] = 	 {0, 0, 0, 0, 0, 0, 0, 0, 0, 0, 0, 0, 0, 0, 0, 0, 0, 0, 0, 0, 0, 0, 0, 0, 0, 0, 0, 0, 0, 0, 0, 0, 0, 0, 0, 0, 0, 0, 0, 0, 0, 0, 0, 0, 0, 0, 0, 0, 0, 0, 0, 0, 0, 0, 0, 0, 0, 0, 0, 0, 0, 0, 0, 0, 0, 0, 0, 0, 0, 0, 0, 0, 0, 0, 0, 0, 0, 0, 0, 0, 0, 0, 0, 0, 0, 0, 0, 0, 0, 0, 0, 0, 0, 0, 0, 0, 0, 0, 0, 0, 0, 0, 0, 0, 0, 0, 0, 0, 0, 0, 0, 0, 0, 0, 0, 0, 0, 0, 0, 0, 0, 0, 0, 0, 0, 0, 0, 0};


/* Layer 9 Learned Parameters */
#define CONV9_BIAS \
 {6591, 34441, -17618, 43063, 61508, 41997, -5895, 5410, 36841, -35162, 724, 31428, 173843, -19254, 34563, 6708, 37478, 23827, 85427, 31822, 34181, -13177, 3793, 37333, -16884, 15983, -16678, -11741, 29040, 19579, 21501, 1554, 17966, 315, 31815, -37645, 37440, 22685, -3133, 25515, 39430, 33478, 56472, 9203, 25257, -17243, 83598, 22066, 59683, -19525, 46653, 21943, 47651, -941, -70127, -2058, 44296, -7858, 59762, 57456, 1659, 75189, 75947, 37745, -13655, 75542, 18203, 60514, 59797, -33570, 580, -9155, 2009, 30151, 4635, 32130, -16646, 15830, 8531, 34492, -27752, 52235, -27305, 7403, 61835, 12614, -21088, 87438, -21511, -10520, -49260, 97216, 19641, 74102, -15677, 29066, 10342, -6104, -8711, 104397, 25392, -24723, -9497, 4396, 106871, 56623, -71248, 33534, 43788, 26423, -25001, 10618, 38524, 43255, 23190, 704, 14301, 20136, 24201, 33925, 29435, 513, 26569, -3629, 24228, 18114, 12419, 100654, -12336, 20339, 69640, 18800, 87010, 46659, 14806, 8798, 34049, -31960, 30674, -32562, 85830, 26095, 29226, 38361, 1980, 20758, 43326, -939, 24319, -21401, 12497, 14483, 31286, 23506, 69388, -15124, -43502, 21143, -14521, 39510, 31321, -8860, 16296, 166218, 82869, 53439, 31240, 95402, 54080, 68989, 27491, 44688, 66518, -10108, 4441, 4398, -5827, 18331, -20321, -42024, -3797, 39853, -21513, 17512, 16471, 37852, 40523, 6076, -56456, 11702, 93304, -20123, 31384, 21038, 51742, 57874, 34387, -13329, 47999, 45618, -4282, 62879, 19240, -6714, -3432, 34741, 75174, 48513, 50805, 9863, -8984, 37404, 58366, 69162, -2432, 31482, 109611, 55498, -7779, -6315, -17849, 7364, 91319, 30333, -2774, 42349, 36920, -15404, -4552, 23480, 11835, 74148, 23114, 7393, 74543, 137078, 36546, 44726, 13389, -12838, 32302, 41880, 8234, 2137, 66049, 55111, -35828, 48218, 24376, -13308, 25414, 363, 71021, -30785, 30240, 38574}
#define CONV9_WT {0}
static const uint8_t CONV9_W_Z[] = 	 {-104, -140, -58, -107, -125, -156, -153, -91, -121, -156, -80, -106, -151, -75, -76, -162, -167, -92, -137, -127, -121, -116, -131, -96, -99, -116, -144, -127, -186, -126, -95, -138, -106, -133, -161, -122, -126, -110, -112, -157, -143, -143, -125, -123, -80, -85, -92, -93, -154, -79, -118, -109, -139, -114, -109, -116, -158, -84, -135, -164, -105, -112, -115, -124, -113, -114, -144, -117, -131, -80, -101, -108, -141, -83, -134, -144, -79, -116, -73, -167, -77, -129, -120, -101, -127, -103, -137, -155, -70, -46, -73, -151, -92, -146, -116, -130, -135, -81, -122, -139, -145, -106, -103, -121, -133, -113, -104, -91, -95, -103, -149, -84, -140, -129, -142, -103, -123, -80, -175, -109, -141, -78, -124, -89, -67, -97, -117, -143, -133, -148, -154, -122, -144, -177, -92, -118, -131, -71, -119, -110, -130, -105, -144, -138, -128, -109, -124, -83, -161, -82, -101, -118, -135, -115, -165, -124, -129, -101, -129, -108, -117, -124, -107, -143, -187, -143, -102, -144, -89, -127, -86, -127, -118, -87, -89, -107, -140, -95, -159, -135, -123, -195, -139, -131, -112, -142, -109, -135, -93, -106, -119, -48, -163, -90, -131, -119, -86, -84, -146, -91, -76, -123, -130, -47, -112, -66, -176, -150, -104, -115, -88, -105, -79, -121, -131, -105, -143, -159, -129, -136, -128, -131, -189, -144, -68, -146, -167, -112, -88, -118, -117, -151, -135, -90, -158, -136, -132, -140, -90, -81, -123, -149, -128, -153, -121, -141, -93, -154, -97, -79, -86, -102, -95, -138, -121, -121};
#define CONV9_IN_Z      	(0)
#define CONV9_OUT_Z     	(0)
static const int32_t CONV9_M_ZERO[] = 	 {1664672128, 2049861632, 2048743040, 2042378624, 1705682944, 1503588224, 2072725120, 1650650240, 2088301056, 2006038272, 1703768064, 1527929344, 1465249536, 2029432320, 1374368384, 2005426432, 1573956352, 1442636416, 1401731200, 1157896448, 1699916416, 1336887168, 2001044096, 1095162624, 1346910976, 1390877312, 1470101888, 1277228288, 1825869568, 1318683264, 1905931008, 1699862144, 1115672576, 2055301504, 1982267776, 1113449600, 1381077248, 1222709888, 2023730304, 1928905728, 1973029376, 1496272512, 1764065024, 1282570240, 1258080384, 1701591168, 1793702784, 1457095424, 1279972992, 1239000448, 1645557888, 1323041280, 1630706560, 2009703040, 1742806144, 1161732224, 1193869696, 1543330560, 1986787328, 1605446784, 1116530048, 1800716288, 1260715776, 1537752832, 1264310912, 1093139328, 2067595264, 1156851584, 1894238336, 1965985408, 1440952832, 1939490432, 1295769856, 1699473536, 1657843584, 1155973888, 1397798400, 1701864832, 1721264896, 1457403776, 1081550080, 2039158400, 1367587072, 1193226368, 1864124800, 1935745536, 1074665472, 1871749504, 1886259328, 2108114432, 1386374528, 2075268480, 1249459584, 1743656448, 1924587904, 1254919424, 2110815488, 2020704384, 1200650624, 1700891392, 1589199616, 1894872448, 1251718656, 1421827200, 1780254720, 1118795392, 1861053184, 1344968448, 1926501376, 1457021184, 1832234496, 1369550592, 1113059328, 1420904576, 1960182272, 2043958656, 1384418304, 1475101696, 1320607232, 1553202432, 1130685440, 1590369920, 1606680192, 1623051520, 1580762240, 1848273024, 1405118336, 1758115712, 1358505728, 1421056128, 1450890880, 1080107776, 1794868864, 1992525184, 1651027840, 1816047360, 1789266816, 1807412864, 1126920320, 1382658048, 2132041984, 1195703680, 1344013952, 1477524352, 1205093760, 1320882688, 1182733184, 1807102208, 1248103552, 1973127424, 2033922432, 1192646272, 1521152128, 1707999360, 1222647936, 1837039872, 1155284352, 1795041792, 1268762112, 1749949184, 2141783808, 2072366080, 1802260352, 1284185984, 1600477440, 1721134976, 1541011968, 1406834304, 1933103744, 1969976832, 1617048192, 2132507264, 1679075072, 2139096704, 1779944704, 1883179648, 1731909504, 1689475968, 2026157184, 1448301440, 1716402432, 2127157504, 1972315008, 1568064128, 1334839168, 1775635712, 2023801600, 1587052416, 1434162816, 1188414976, 1366875136, 1603090048, 1259519104, 1801701120, 1950372224, 1507667584, 2130044160, 1791792384, 1810605824, 1279622656, 1816062080, 1160515328, 1293486464, 2038166272, 1188245504, 1815022592, 1182750848, 1083175040, 1575056896, 1662904320, 1813211392, 1109151616, 1133533952, 1785383168, 1274502272, 1975837568, 1076539136, 1789627264, 1387963648, 1219399168, 1253144832, 1490831104, 1583288704, 1813080960, 1653475712, 1867300992, 1737405440, 1893812096, 1592398720, 1774686208, 1183612416, 1330429184, 1679331328, 1315314176, 1212014720, 1447987712, 1284777472, 1175413376, 1127427968, 2145729792, 1790268800, 1423255168, 1616121088, 1939797120, 1776896640, 1795500800, 2084904448, 1474574336, 1486187776, 1554192384, 1170239488, 1999894400, 1567306880, 1915607552, 1647295360, 1728852352};
static const int8_t CONV9_N_ZERO[] = 	 {0, 0, 0, 0, 0, 0, 0, 0, 0, 0, 0, 0, 0, 0, 0, 0, 0, 0, 0, 0, 0, 0, 0, 0, 0, 0, 0, 0, 0, 0, 0, 0, 0, 0, 0, 0, 0, 0, 0, 0, 0, 0, 0, 0, 0, 0, 0, 0, 0, 0, 0, 0, 0, 0, 0, 0, 0, 0, 0, 0, 0, 0, 0, 0, 0, 0, 0, 0, 0, 0, 0, 0, 0, 0, 0, 0, 0, 0, 0, 0, 0, 0, 0, 0, 0, 0, 0, 0, 0, 0, 0, 0, 0, 0, 0, 0, 0, 0, 0, 0, 0, 0, 0, 0, 0, 0, 0, 0, 0, 0, 0, 0, 0, 0, 0, 0, 0, 0, 0, 0, 0, 0, 0, 0, 0, 0, 0, 0, 0, 0, 0, 0, 0, 0, 0, 0, 0, 0, 0, 0, 0, 0, 0, 0, 0, 0, 0, 0, 0, 0, 0, 0, 0, 0, 0, 0, 0, 0, 0, 0, 0, 0, 0, 0, 0, 0, 0, 0, 0, 0, 0, 0, 0, 0, 0, 0, 0, 0, 0, 0, 0, 0, 0, 0, 0, 0, 0, 0, 0, 0, 0, 0, 0, 0, 0, 0, 0, 0, 0, 0, 0, 0, 0, 0, 0, 0, 0, 0, 0, 0, 0, 0, 0, 0, 0, 0, 0, 0, 0, 0, 0, 0, 0, 0, 0, 0, 0, 0, 0, 0, 0, 0, 0, 0, 0, 0, 0, 0, 0, 0, 0, 0, 0, 0, 0, 0, 0, 0, 0, 0, 0, 0, 0, 0, 0, 0};


/* Layer 10 Learned Parameters */
#define CONV10_BIAS \
 {-179, 1200, 3482, 19302, -2719, 5831, -7146, -6940, 96, -11485, 5859, -413, 629, 1007, 43620, -12096, -5763, 62231, -416, 28103, 61855, 43743, -584, 65, 350, 24500, -4517, -2848, 31195, -7048, -719, -298, 343, 495, 7685, -10243, 39288, 11174, 34841, 1402, 15881, 14014, 128, -7268, -146, 20899, 281, 137492, 1375, 3532, 903, 470, -1787, 1006, -516, -1891, 15687, -33, -185, -2794, 169, 17559, -2087, -289, 32513, 121195, 37570, -710, 8394, 19917, 143, -645, -6785, 24930, -2009, 31485, -3599, -16144, -554, -4383, -3888, -796, 336, 366, -2702, -1165, 138653, 2495, -272, -1121, -324, 613, 299, 23, -5506, 27316, 63433, 51032, 26103, -2200, -649, -31, 48827, -10284, -2122, -257, -1294, -5353, 310, -239, -5537, -4986, 63330, 135, 76084, -2488, -287, -1769, -78854, -7466, 1261, 34226, -7621, 12204, 87, 56, -13270, 5131, 7205, -7, 42185, -3055, 422, 226410, -168, 3045, -1025, 24705, 7774, -20, 1116, 7189, -2172, 14387, -1816, 17722, -16907, -99, 200, -122, -1049, 26779, 1492, -150, -11014, 126, -38, -224, -17793, 3648, 9234, -274, 50376, 802, 34, -4620, 994, 1278, -1905, -1206, 699, -2755, 11124, -17421, 199153, -2493, -4702, 11511, 33624, 420, 26934, 5861, -2712, 24650, -14179, -787, 23353, -5454, -3525, 34215, 16858, 1781, 18631, 1309, -2076, 9606, 788, 144633, 39927, -79, 31281, 38840, -312, 67, -2703, 44889, -8969, 50512, 4135, 457, -2618, 41949, -746, -6142, -409, -339, -10633, 103259, 144, -22161, 704, 401, 16495, -19967, -4359, 9510, -2585, -1580, -4547, 136, 326, -2069, 871, -520, 12086, 14666, -7562, 182116, 32633, -1197, 1610, 39805, 15757, 100128, -9437, -1296, -9791, -416, 1312, 3204, -162, -4147, 22845, 36055, -6976, 4384}
#define CONV10_WT {0}
static const uint8_t CONV10_W_Z[] = 	 {-116, -139, -131, -231, -154, -63, -83, -49, -84, -52, -37, -103, -138, -150, -209, -37, -29, -255, -112, -231, -266, -204, -110, -85, -62, -189, -55, -100, -216, -38, -148, -181, -104, -108, -65, -52, -229, -59, -209, -134, -223, -117, -73, -38, -80, -221, -140, -271, -109, -88, -104, -113, -49, -108, -35, -99, -219, -95, -37, -107, -100, -174, -76, -105, -265, -236, -228, -105, -77, -211, -45, -63, -52, -208, -62, -177, -58, -35, -128, -86, -57, -74, -108, -123, -67, -145, -256, -112, -86, -34, -127, -120, -151, -109, -37, -233, -316, -377, -117, -102, -114, -65, -227, -45, -48, -99, -2, -101, -61, -108, -24, -83, -204, -122, -337, -107, -129, -45, 7, -75, -122, -261, -34, -49, -113, -61, -58, -56, -198, -115, -211, -82, -112, -311, -98, -95, -82, -224, -72, -65, -117, -52, -117, -44, -46, -131, -60, -72, -93, -32, -128, -218, -86, -102, -60, -133, -34, -91, -28, -48, -63, -101, -259, -148, -96, -30, -100, -82, -57, -74, -75, -92, -195, -27, -436, -61, -50, -123, -267, -33, -223, -55, -40, -163, -23, -128, -233, -49, -43, -215, -196, -117, -219, -118, -100, -201, -137, -269, -267, -104, -213, -203, -98, -142, -52, -213, -29, -244, -131, -132, -105, -190, -124, -120, -53, -155, -77, -288, -51, -22, -71, -87, -221, -31, -51, -220, -31, -165, -91, -123, -124, -141, -126, -119, -186, -199, -51, -342, -223, -136, -146, -240, -192, -285, -48, -99, -38, -132, -128, -153, -89, -57, -235, -233, -50, -55};
#define CONV10_IN_Z      	(0)
#define CONV10_OUT_Z     	(0)
static const int32_t CONV10_M_ZERO[] = 	 {1823879552, 1144550016, 1601485824, 1216668544, 1656735872, 1924924032, 1433366656, 1189208064, 1457137920, 1829753856, 2112541184, 1144647808, 1154672128, 1406059392, 1511924992, 1406135552, 1201902592, 1675710848, 1442244992, 2138465792, 1566339456, 1837297536, 1567005312, 1443293568, 1717265408, 1679475584, 1385636736, 1913947648, 1178168192, 1376390784, 1162323072, 1352769152, 1103511296, 1978636800, 1212568064, 1272574976, 1324921472, 1086573312, 1200261760, 1996950912, 1543305856, 1327252608, 1977725952, 1852201088, 1117604480, 1703404928, 1321325824, 1489686016, 1379531520, 1292149248, 2042757888, 1394249600, 1588229120, 1278453888, 2128175104, 1145377920, 1525572864, 1154313472, 1679907328, 1456754048, 1457880064, 1966625792, 1562577408, 2141794304, 1582231552, 1769068160, 1151404800, 1396880000, 1733560576, 1233375872, 1770101120, 1209950592, 1201823744, 1512142976, 1161936256, 1215413888, 1746974976, 2139658112, 1503178496, 1226490880, 1119565824, 1756229248, 1458742784, 2025360256, 1174562944, 1580702080, 1652689792, 2130273920, 1515258880, 1920644480, 1364393344, 1566628480, 1748240256, 1516214272, 1597452672, 1209480192, 1965077504, 2029925888, 1276855552, 1576985216, 1728833920, 1340420480, 1703518720, 2036222336, 1233615616, 1564325120, 1468306048, 1182590976, 1364815744, 1089300736, 1763033600, 1741566208, 1863593088, 1717060352, 1694176896, 1980909696, 1285268352, 1456842624, 1266955392, 1208043648, 1817400832, 1824057088, 1244003712, 1515376256, 1358653824, 1323092608, 1092644992, 1484164864, 1801578368, 1211477120, 1625787136, 2093998208, 1559571584, 1889372416, 1397308032, 1654370432, 1436286592, 1469722112, 1715830912, 1836780928, 1102752128, 1459208960, 1568783744, 1592245376, 1970394240, 1300799232, 1842370432, 1817293824, 1515964160, 1845205888, 1555911680, 1318558208, 1867266432, 2042267264, 1260357376, 1257381888, 1561633152, 1476025216, 1381603072, 1756297472, 1427966336, 1857409280, 1253232896, 1783087616, 1552463616, 1374066688, 1248684160, 2046671232, 1726510720, 1131885440, 1352994304, 1698367872, 1412221952, 1591321472, 1761812096, 1755692288, 1153291648, 1379019392, 1084526976, 1095554816, 1862228736, 1807442176, 1832597888, 1725965184, 2074542080, 1374644864, 1729595392, 1394898688, 1722399232, 1745122176, 1290101888, 2112146176, 1148602496, 1120140928, 1829534464, 1795786880, 1090955776, 1720649728, 1880107648, 1895509888, 1164077824, 1189015936, 2049825280, 1396953600, 1435898368, 1121725440, 1485489280, 1205323904, 1220659456, 2032826624, 1222304640, 1736961280, 1157463552, 1283832320, 1311011968, 1407776512, 1404611712, 1383567360, 1280392960, 1401555712, 1985224576, 1181001728, 2016073472, 1714296320, 1820400512, 1386584192, 1918658560, 1469809536, 1353549568, 1371592192, 2072632576, 2002807552, 1312942976, 1573422208, 1668003584, 1519990016, 1234975104, 1105216256, 1258346112, 2114090368, 1792855040, 2086137216, 2124267776, 1930631808, 1128211840, 1750498816, 1074729984, 1927949056, 1349496448, 1841577472, 1483783808, 1593755136, 1230761472, 1959757184, 1601662080, 2055447168};
static const int8_t CONV10_N_ZERO[] = 	 {0, 0, 0, 0, 0, 0, 0, 0, 0, 0, 0, 0, 0, 0, 0, 0, 0, 0, 0, 0, 0, 0, 0, 0, 0, 0, 0, 0, 0, 0, 0, 0, 0, 0, 0, 0, 0, 0, 0, 0, 0, 0, 0, 0, 0, 0, 0, 0, 0, 0, 0, 0, 0, 0, 0, 0, 0, 0, 0, 0, 0, 0, 0, 0, 0, 0, 0, 0, 0, 0, 0, 0, 0, 0, 0, 0, 0, 0, 0, 0, 0, 0, 0, 0, 0, 0, 0, 0, 0, 0, 0, 0, 0, 0, 0, 0, 0, 0, 0, 0, 0, 0, 0, 0, 0, 0, 0, 0, 0, 0, 0, 0, 0, 0, 0, 0, 0, 0, 0, 0, 0, 0, 0, 0, 0, 0, 0, 0, 0, 0, 0, 0, 0, 0, 0, 0, 0, 0, 0, 0, 0, 0, 0, 0, 0, 0, 0, 0, 0, 0, 0, 0, 0, 0, 0, 0, 0, 0, 0, 0, 0, 0, 0, 0, 0, 0, 0, 0, 0, 0, 0, 0, 0, 0, 0, 0, 0, 0, 0, 0, 0, 0, 0, 0, 0, 0, 0, 0, 0, 0, 0, 0, 0, 0, 0, 0, 0, 0, 0, 0, 0, 0, 0, 0, 0, 0, 0, 0, 0, 0, 0, 0, 0, 0, 0, 0, 0, 0, 0, 0, 0, 0, 0, 0, 0, 0, 0, 0, 0, 0, 0, 0, 0, 0, 0, 0, 0, 0, 0, 0, 0, 0, 0, 0, 0, 0, 0, 0, 0, 0, 0, 0, 0, 0, 0, 0};


/* Layer 11 Learned Parameters */
#define CONV11_BIAS \
 {27382, 11657, 49905, -12530, 16437, -15202, -9931, 8883, 16494, -9959, 21081, -8117, 18434, -435, 36577, -2810, 8680, -14874, -23811, 29281, -34482, -9762, 19331, -6788, 23213, -21210, 18437, 17706, 11749, -31303, 528, -4109, -2628, -26516, 24792, -18883, 1743, -8983, -32311, 37825, -27200, -9918, 8833, 28352, -3300, 3605, 98947, 5204, -29001, -17741, -10915, -38286, 42607, 20264, -30315, 15321, 843, 19410, -35634, 42772, 2497, 11782, -16726, -112089, -43640, 38319, 10293, -10486, -43587, -4379, -15813, -519, -2793, -53097, 740, -34689, 7573, 77505, -26131, -20299, 14124, -12043, -21579, -3408, 9605, -9307, 16915, -26910, -10055, -40469, -815, -34402, 22792, 19291, -11025, -1430, -10737, -25664, -34448, 47081, -6120, -6095, 13013, -16814, -7281, 9819, -8744, -8967, -12926, 10110, -6373, 35585, -18259, 1564, 3576, -33635, 22747, 2211, -1054, -2579, -7888, -2489, -15340, -11982, -17542, 7273, -2457, 12167, 20078, -880, 4649, -46234, 7879, 17624, -5963, 11222, -5264, -22224, -14061, 17922, 21756, 21638, -5120, 54360, 13102, 28971, -25519, -4173, 5844, 10807, 32075, -4830, -7462, -27218, -19489, 20834, 10166, -12656, 9889, 45097, -3589, 9008, -35005, 14817, -6798, 58307, 28669, -14827, -13476, -24690, -34320, -9122, 6517, 9982, 2412, 20763, 11036, -37772, 9522, 69877, 2268, 1962, 13702, -16520, -33209, -20100, -6210, -1897, 33157, -61929, 3594, 66, -67782, 4665, 10483, 24811, 75578, 56504, -14468, 11652, -10463, 10397, 12859, 14747, -2079, 22002, -21225, -15444, -19411, 24651, 12794, 29144, 21002, 52036, -44710, -19263, 39123, 11973, 43021, -19826, 99674, -5137, 12091, 28358, 3829, 29463, -21809, -19833, 9695, 1268, 47926, 12595, 47052, 45130, 92345, -1279, 44595, 60593, 44550, -3382, 9387, -55725, 213, 101325, 6600, 29970, 26784, -13481, -10681, 2361, -45653, 6870, -25613, -4913, 19407, -37760}
#define CONV11_WT {0}
static const uint8_t CONV11_W_Z[] = 	 {-87, -90, -157, -126, -115, -74, -118, -133, -115, -147, -143, -103, -128, -83, -129, -123, -116, -122, -136, -111, -152, -109, -129, -107, -108, -105, -155, -115, -109, -119, -101, -84, -126, -97, -150, -151, -85, -158, -113, -145, -91, -119, -124, -146, -132, -76, -119, -135, -140, -121, -90, -113, -96, -144, -95, -145, -111, -94, -112, -167, -123, -119, -132, -93, -136, -106, -153, -116, -116, -156, -116, -170, -126, -123, -156, -121, -92, -136, -134, -64, -137, -164, -117, -113, -143, -116, -158, -151, -115, -94, -148, -126, -120, -121, -158, -121, -114, -122, -102, -115, -54, -141, -118, -120, -159, -117, -156, -114, -141, -140, -130, -142, -105, -152, -164, -74, -175, -156, -83, -121, -100, -65, -119, -78, -114, -107, -98, -119, -112, -95, -115, -142, -126, -174, -97, -128, -130, -159, -183, -64, -126, -76, -101, -97, -116, -86, -128, -133, -144, -117, -141, -91, -95, -96, -135, -149, -132, -168, -127, -99, -117, -78, -103, -133, -156, -146, -133, -128, -125, -85, -109, -129, -111, -116, -134, -148, -78, -86, -102, -149, -130, -122, -146, -140, -141, -119, -97, -92, -104, -118, -97, -160, -90, -132, -84, -134, -96, -164, -130, -101, -135, -119, -108, -69, -113, -112, -135, -82, -78, -123, -182, -125, -132, -98, -104, -132, -178, -97, -96, -92, -139, -99, -98, -123, -143, -135, -137, -98, -101, -98, -137, -98, -117, -133, -118, -166, -110, -116, -150, -171, -130, -116, -137, -154, -145, -144, -138, -157, -126, -92, -98, -104, -98, -96, -143, -107};
#define CONV11_IN_Z      	(0)
#define CONV11_OUT_Z     	(0)
static const int32_t CONV11_M_ZERO[] = 	 {1733103616, 1379729792, 1115162752, 1264697472, 1839450624, 1932400256, 1743205248, 1572078592, 1257569792, 1890284544, 1152743552, 1211648896, 2089024256, 1142988672, 1092788224, 1301698560, 1858677632, 1545480704, 1162547072, 1888299392, 1669912064, 1704204928, 1273644416, 1118030208, 1222070656, 1834820992, 1793061760, 1504604032, 1575542400, 1087322880, 1616887936, 1539372160, 1783132672, 1952831232, 2078053248, 1595917184, 2142835840, 2115013888, 1326271872, 1201787008, 1617272576, 1836343808, 2005499648, 1676135680, 1184045184, 1161941376, 1388366080, 2035964800, 1167451776, 1488184064, 1887383296, 1439838464, 1444554368, 1435924224, 1423763840, 2040574720, 1555748864, 1405876736, 1733585408, 1941554560, 1408884608, 1130445312, 2103367552, 1851280512, 1835359744, 1881091200, 1812969600, 1108611328, 1506528384, 1199175296, 1143761536, 1143612160, 1475444992, 1753856000, 1835055360, 1592667392, 1679228928, 1728894464, 1874953600, 1414044800, 1484333824, 1483288064, 1608881152, 1867429504, 1202032896, 1407471232, 1089624064, 1265317888, 1823124352, 1785217792, 1160672000, 1948296192, 1674969600, 1473043584, 2063516288, 1281573632, 1193768064, 1314553600, 1401414912, 1956505984, 1749635840, 1215686400, 1512841856, 1505247616, 1832210944, 2103419392, 1578861440, 1466465280, 1242148480, 1604761088, 1641606400, 1079059840, 1179671808, 2104568576, 2043911808, 1202413440, 1369908736, 1391641856, 1382219776, 1575406208, 1190024960, 2103503872, 1775099264, 1828956928, 1473962496, 1282732928, 1743745024, 2143974912, 1971232128, 1795747456, 1607834496, 1751125888, 1747235328, 1494715904, 2024428672, 2121950336, 1236089600, 1781210240, 1881985152, 1607599104, 1837385984, 1716541440, 2048255232, 1423374976, 1311069568, 1533982592, 1594495872, 1609122432, 1998248320, 1575175040, 1887861504, 1505735040, 1094872320, 1756145408, 1257645568, 1759542912, 1098578944, 1855480960, 1423309312, 1140131968, 1584058112, 2040835840, 1908836864, 2077536768, 1671547136, 1303132032, 1121876352, 1805447168, 1197362816, 1892754816, 1360840448, 2058529664, 1156878720, 1753323648, 1648965248, 2103235840, 2143847168, 1875978624, 1288409472, 2124149760, 1575137280, 1629243904, 1163725312, 1364585472, 1161206912, 1959633920, 2055112960, 1439562624, 1087998336, 1843397120, 2048860416, 1479917952, 1564600320, 1177785472, 1133575680, 1287258368, 2020043904, 1608496128, 1589708672, 1503787264, 1546432512, 1571854208, 1347216896, 1184744960, 1709110912, 1574082560, 1816701696, 1440157568, 1695946496, 1461851520, 1881591040, 1887726848, 1544446336, 1317140224, 1965264768, 1684652672, 1147446528, 1341571200, 1528891648, 1632075520, 1500850304, 1861286400, 1827650048, 1138666112, 1092066432, 1512711680, 1210023936, 1993467264, 1133472512, 1211047808, 1512497280, 1281465344, 2008539392, 1647542144, 1299437440, 1233127040, 1161664896, 1542186240, 1920683520, 1764953600, 1739236352, 1429476992, 1510474624, 1820450048, 1447572352, 1593209472, 1457782528, 1651383936, 1196950528, 2119753856, 1431272576, 2128429568, 1977151488, 1593164544, 1647786752, 1471617280};
static const int8_t CONV11_N_ZERO[] = 	 {0, 0, 0, 0, 0, 0, 0, 0, 0, 0, 0, 0, 0, 0, 0, 0, 0, 0, 0, 0, 0, 0, 0, 0, 0, 0, 0, 0, 0, 0, 0, 0, 0, 0, 0, 0, 0, 0, 0, 0, 0, 0, 0, 0, 0, 0, 0, 0, 0, 0, 0, 0, 0, 0, 0, 0, 0, 0, 0, 0, 0, 0, 0, 0, 0, 0, 0, 0, 0, 0, 0, 0, 0, 0, 0, 0, 0, 0, 0, 0, 0, 0, 0, 0, 0, 0, 0, 0, 0, 0, 0, 0, 0, 0, 0, 0, 0, 0, 0, 0, 0, 0, 0, 0, 0, 0, 0, 0, 0, 0, 0, 0, 0, 0, 0, 0, 0, 0, 0, 0, 0, 0, 0, 0, 0, 0, 0, 0, 0, 0, 0, 0, 0, 0, 0, 0, 0, 0, 0, 0, 0, 0, 0, 0, 0, 0, 0, 0, 0, 0, 0, 0, 0, 0, 0, 0, 0, 0, 0, 0, 0, 0, 0, 0, 0, 0, 0, 0, 0, 0, 0, 0, 0, 0, 0, 0, 0, 0, 0, 0, 0, 0, 0, 0, 0, 0, 0, 0, 0, 0, 0, 0, 0, 0, 0, 0, 0, 0, 0, 0, 0, 0, 0, 0, 0, 0, 0, 0, 0, 0, 0, 0, 0, 0, 0, 0, 0, 0, 0, 0, 0, 0, 0, 0, 0, 0, 0, 0, 0, 0, 0, 0, 0, 0, 0, 0, 0, 0, 0, 0, 0, 0, 0, 0, 0, 0, 0, 0, 0, 0, 0, 0, 0, 0, 0, 0};


/* Layer 12 Learned Parameters */
#define CONV12_BIAS \
 {119761, 10021, 6029, 4120, -22793, 48876, 121214, -515, 60907, 148214, -206, 5609, 107094, 884, 63732, 108897, 135205, 6918, 5372, 83140, -470, -80, 59183, 121, 53608, 14107, 95383, 2671, 73598, 598, 5955, 6843, 12645, -687, 69304, 3333, 114944, -54, 2985, 127706, 70371, -49334, -1059, -22938, -719, 89327, 7045, -134, 1287, 67380, 107770, -3637, 40720, 3792, 2502, 4247, 124883, 3208, -11, 88376, 117192, 46804, 2512, -6442, -671, 64661, 84887, 133171, 143, -1851, 3224, -1058, 100983, 6084, 255, 100471, 84896, 9021, 31, -373, 45842, 107113, 110562, 66331, 206486, 74285, -657, -16353, 129129, 57419, -13046, 4962, 45831, 47765, -656, -1873, -4584, 11549, 1228, 7526, 3469, 132300, 129161, 95803, 172, 48681, 83497, -5164, 6391, -730, 8699, 85031, 102196, -2325, 5353, 115452, 139167, 141162, -2112, -188, 90477, 88341, -413, 11325, 108344, 125326, -203, -8049, 121561, -957, 89201, -13092, 159181, 104213, 141932, 11072, 94059, -276, 502, 68300, -103, 95563, 58640, -349, 2441, -8, 104071, 51707, -1956, -2564, 119416, 86309, -1629, 13715, -1457, 1290, 121557, -2686, 3260, 5680, 3687, 60956, 9009, 3028, 2780, 107933, 164675, 4458, 71314, 6637, 94812, 129473, 188254, 61155, 2666, 99946, 57386, -1621, 69646, 8502, 5351, 82273, 119216, -575, 76318, -3745, 6855, -155, 100152, -3171, 133666, 124489, 73, 114933, 85812, 121405, 26874, 140647, -20335, -3627, 6895, 41477, 84780, 69814, 6143, 93312, -1970, -336, 1015, 2222, 102787, 43588, 61081, 14544, 4715, -840, 168000, 124371, 94151, 7960, 16117, -1046, 98791, 122676, -15849, 58642, 1702, 9786, 10864, 80627, 112963, 111549, 136097, 61218, -15405, 4294, -2630, -311, 92567, -2620, 80577, 6554, -870, -2601, 71735, -2412, 139284, -1141, 3516, 92148, 10240, 145946, 75894, 2339, 28, 1322}
#define CONV12_WT {0}
static const uint8_t CONV12_W_Z[] = 	 {-300, 102, -110, 109, 82, -353, -399, 97, -311, -420, 72, 84, -345, 58, -306, -340, -388, 90, 55, -284, 82, 88, -321, -37, -355, 101, -352, -116, -378, 59, 92, 56, 65, 112, -432, 90, -393, 56, 70, -362, -418, 103, 69, 65, -21, -319, -108, 72, 58, -344, -490, 90, -154, -3, 107, 51, -337, -112, 110, -337, -408, -314, 119, -105, 122, -362, -426, -361, 123, 71, 84, 125, -379, 108, 127, -313, -370, -109, 37, 76, -296, -341, -359, -446, -360, -314, 57, -94, -403, -383, 13, 165, -190, -414, 124, 66, 108, 92, 103, -122, 79, -342, -302, -353, 79, -329, -328, 65, 81, 79, 105, -343, -335, 95, 63, -327, -319, -348, 135, 84, -378, -330, 65, 83, -321, -347, -37, 97, -336, 62, -431, -100, -320, -351, -314, 61, -421, 75, 64, -266, -172, -331, -349, -103, 7, -92, -358, -318, 85, -70, -306, -399, 92, 103, 73, 53, -355, 89, 50, -173, 94, -315, 94, 84, 74, -274, -324, 97, -336, 59, -330, -367, -314, -341, -143, -348, -391, 104, -387, -100, 74, -306, -311, 90, -292, 115, 100, -161, -288, 90, -352, -314, -61, -396, -272, -344, -128, -380, 69, -142, 49, -200, -321, -404, 85, -305, 75, -104, 66, 51, -346, -195, -303, -147, 93, 66, -306, -294, -349, 80, -122, 95, -295, -291, 24, -332, 89, 59, 87, -339, -317, -338, -332, -383, 64, 91, -156, -121, -320, 68, -330, 45, 78, -114, -356, 75, -329, 103, 5, -331, 72, -335, -318, 70, 85, 74};
#define CONV12_IN_Z      	(0)
#define CONV12_OUT_Z     	(0)
static const int32_t CONV12_M_ZERO[] = 	 {1126877696, 1696094592, 1669325312, 1354118784, 1184781440, 1790353024, 1477248000, 1906955904, 1888169600, 1525896448, 1977634432, 1394901760, 1525666176, 1797132032, 1589710464, 1274017408, 2126642304, 1555211904, 1707675008, 1402098944, 1962421248, 1971174656, 1958242816, 1889849088, 1650520064, 1162048128, 1592601472, 1726928768, 1228316544, 1696034432, 1144170880, 1969598720, 1526358272, 1384257024, 1179368960, 1419330304, 1928698240, 1148520960, 1758652928, 2117105792, 1204253568, 1724386304, 1543602304, 1470204800, 1216154240, 1603396864, 1568358016, 1321873536, 1372280064, 1632484864, 1764465024, 1355158144, 1621779072, 1575358720, 1750968192, 1801421440, 1168092032, 1463496448, 2058758656, 1864664448, 1891318912, 1133294976, 1561009664, 1736319360, 1502689280, 1924340608, 2126304512, 1592113408, 1407527424, 1708819328, 1409747072, 2114271360, 1148661120, 1422668672, 1786538880, 1173828736, 1148272896, 1506948736, 1107121408, 1994022400, 2030937600, 1889525888, 2134871680, 1367099904, 1191750912, 1462461696, 1409885952, 1104855424, 1917588736, 1408613120, 1921313664, 1267057920, 1299517184, 1869898624, 1712960384, 1186932480, 1785680640, 1737461760, 1317317760, 1169145728, 1130701824, 1879827200, 1783634304, 1074861952, 1721957248, 1837597056, 1457341696, 1254972672, 1296561920, 1270760576, 1756919296, 1905180672, 2139542528, 1204399232, 1223160192, 1677401344, 1301992448, 1692719360, 1204743936, 1727241216, 2078561920, 1118052864, 1425328768, 2029875328, 1202614144, 1376718848, 1636810368, 1508242304, 1950593920, 1512394240, 1291828480, 1631662080, 1205571712, 1810836096, 1676328320, 1322053376, 1751705856, 1103757824, 1092957440, 1093798144, 1568321280, 2105218432, 1409492352, 1080830336, 1240329984, 1388895744, 1281803008, 1802824832, 1301161088, 1784055552, 1238276736, 1656341376, 2097459584, 1366386688, 1089735680, 1800575360, 1153589248, 1736692608, 1359404672, 1717838208, 1671622016, 1951236096, 1979432832, 1678468608, 1656113536, 1124767104, 1415919488, 1666940288, 1512565760, 1389761920, 1525868928, 1631019648, 2081368448, 1576656384, 1249540224, 1084929792, 1434313472, 1200976000, 1889631104, 1590750848, 1326327808, 1124417152, 1665916160, 1661332736, 1771621120, 1416235264, 2074321024, 1351953408, 1510318976, 1139907968, 1208669824, 1154774400, 1307281024, 1691595392, 1830451968, 1372937856, 1220834944, 1412006656, 1500758528, 1837183232, 1855906944, 1371797632, 1328696320, 1397314304, 1659220864, 1774286848, 1609088896, 1784813312, 1139143040, 2145056896, 1214080000, 1977037056, 1563430656, 1077497856, 1229175552, 1135276928, 1685546496, 1877138944, 1754401280, 1548766592, 1307815424, 2063988480, 1895116288, 1884578432, 1491040640, 1422778752, 1816395648, 1316802176, 1544548480, 1084697984, 2093381888, 1559708672, 1492612224, 1505516928, 1549015040, 1250250496, 1827400448, 1115018112, 1521350528, 2134621824, 1193835904, 1577773440, 1610694016, 2050222976, 1147466496, 1635124352, 1425977856, 1729525504, 1550816896, 1165409920, 1219845376, 1471746304, 1289428992, 1643016320, 1386685056, 1158750592};
static const int8_t CONV12_N_ZERO[] = 	 {0, 0, 0, 0, 0, 0, 0, 0, 0, 0, 0, 0, 0, 0, 0, 0, 0, 0, 0, 0, 0, 0, 0, 0, 0, 0, 0, 0, 0, 0, 0, 0, 0, 0, 0, 0, 0, 0, 0, 0, 0, 0, 0, 0, 0, 0, 0, 0, 0, 0, 0, 0, 0, 0, 0, 0, 0, 0, 0, 0, 0, 0, 0, 0, 0, 0, 0, 0, 0, 0, 0, 0, 0, 0, 0, 0, 0, 0, 0, 0, 0, 0, 0, 0, 0, 0, 0, 0, 0, 0, 0, 0, 0, 0, 0, 0, 0, 0, 0, 0, 0, 0, 0, 0, 0, 0, 0, 0, 0, 0, 0, 0, 0, 0, 0, 0, 0, 0, 0, 0, 0, 0, 0, 0, 0, 0, 0, 0, 0, 0, 0, 0, 0, 0, 0, 0, 0, 0, 0, 0, 0, 0, 0, 0, 0, 0, 0, 0, 0, 0, 0, 0, 0, 0, 0, 0, 0, 0, 0, 0, 0, 0, 0, 0, 0, 0, 0, 0, 0, 0, 0, 0, 0, 0, 0, 0, 0, 0, 0, 0, 0, 0, 0, 0, 0, 0, 0, 0, 0, 0, 0, 0, 0, 0, 0, 0, 0, 0, 0, 0, 0, 0, 0, 0, 0, 0, 0, 0, 0, 0, 0, 0, 0, 0, 0, 0, 0, 0, 0, 0, 0, 0, 0, 0, 0, 0, 0, 0, 0, 0, 0, 0, 0, 0, 0, 0, 0, 0, 0, 0, 0, 0, 0, 0, 0, 0, 0, 0, 0, 0, 0, 0, 0, 0, 0, 0};


/* Layer 13 Learned Parameters */
#define CONV13_BIAS \
 {76138, 15294, 74143, -5362, 40714, 13788, 77116, 16438, 7953, 66628, 6798, 33738, 89, 26857, 10153, 29840, 24367, 7308, 18445, 26786, 34053, 8054, 92211, 6902, 2175, 43392, -3055, 9183, 25715, 44899, -43202, 6345, 17972, 19009, 47116, 49059, 73822, -9407, 28114, 61064, 33553, 18730, -33529, 57291, 26559, 19156, 37656, 51512, 26589, 16691, 16513, 69556, 2894, -472, 51493, 76953, 47846, 14336, 47682, 28772, 22693, 16007, 12321, -15517, 2723, -21546, -33976, -5371, 27300, 45326, 56142, -17379, 36595, 46526, 41138, 19106, 31620, 37701, 61057, -9433, 25624, 25975, 15925, 22505, 51014, 51490, 2313, -17058, -17681, -35221, -7658, -11158, 61079, 15816, 38862, 9170, 37582, 17493, 21152, 2249, 52215, 548, 5108, 11772, -2597, 23559, 29434, 12908, 11523, 33648, 366, 2084, 13363, 58167, 60435, 10676, 35386, 4135, 4080, 20198, 21739, 37764, 15635, 37282, -1198, 22861, 39630, -76001, 38930, -841, 32967, 12901, 43401, -38532, 35257, 20517, 22995, -25363, 41138, 16229, 10989, 24066, 56257, 72940, 20596, 35246, 39725, 60214, 31549, -48242, 11159, -22259, 5590, 18877, 46124, 40255, -17824, 9288, 47857, -907, 7328, 7390, 22018, 22244, 39931, 32811, 11116, -8892, 17050, 27377, 185905, -5026, 19004, 354, 54391, -42433, 8572, 3166, 50756, 51489, 43312, 19906, 45841, 28426, -16289, -101534, 20868, -6917, 65225, -6544, 83054, 9776, -1298, 45025, -12011, -1939, 45617, 73331, 38198, 72388, -18581, 43778, 44161, 27315, -53973, -1721, 11744, 41841, 25804, 27182, -15730, 26809, 42635, 30886, 34176, -24240, 16821, 23660, -18026, 3168, -486, 24583, 24544, 17214, 35031, 41208, 12573, 7823, 39557, 41604, 47556, 8390, -14960, -304, 11191, 54785, 8548, 38762, 6848, 18261, 54310, 45150, 40398, 127620, 8847, 46213, -9238, 49933, 68496, 10760, 34495, 16051, 53575, 73079, 81437, 23012, 49057, 7331, 17775, 72539, 33083, 24695, 12222, 6245, 1434, -767, 1708, 36042, 15166, 51032, 50951, 28481, 8619, 8441, 27935, 35022, 28460, 74644, 43055, 16657, 68362, 13063, 61123, 42425, 42193, 53825, 6824, 30853, 36450, -8370, 17459, 33569, 64771, 23648, 43666, -8023, 34075, 12928, 70826, 40851, 52805, -16272, 82523, -5163, 32702, 53215, -22636, 17550, 127687, 15566, 9788, 44824, 20581, 7973, 30362, 98788, 36437, 24027, 44872, 36961, 28175, -8582, 31741, 25462, 81888, 24411, 21738, 35740, -15222, 51900, 25718, 24102, 39676, 29032, -27131, 39925, 51679, -5258, 22058, 47652, 23276, 17539, 122216, 25448, 38125, 69254, 60530, 23100, 61658, 23026, 89495, -6074, 93598, 66130, 58819, 24217, 34948, -25253, 56465, 32073, 45738, 5311, 51079, 1712, 6479, 24624, 80604, 38650, -6005, 63494, 14752, 5292, 3443, 24184, 47944, 30559, 6721, 93100, 14737, 17208, 118401, -4621, 39783, 39396, -21982, 39270, 58676, -30303, 161614, 19087, 60806, 25712, 77091, 36752, 11536, 33475, 30396, -17636, 27345, -2706, 51573, 41642, 30061, 36180, 45395, 21110, 23026, 63015, 10461, 5216, 118018, 14158, -4178, -9019, 24042, -3459, 22612, 65629, 36467, 40775, 24933, 3641, 1294, -9308, -7290, 13391, 17023, 11560, 30427, 8071, 34298, 32039, 18855, 11200, 63395, 9874, 23764, 31236, -30478, 31024, 28784, -17042, 13913, 17228, 78238, -18837, -2987, 42219, 27797, 12571, 58758, 40046, 14976, 50748, 22782, 79250, 15914, 30236, 69962, 25631, 37312, 8012, 91121, -16570, 30333, 47720, 30007, 92702, -1285, 30174, 22253, -2491, 15453, -38372, 26696, 53331, 20373, 49518, 56732, 33949, 30875, 50927, 25257, 47715, 32112, 25621, 14775, 46586, 27548, 62733, 13123, 4729, 8704, 41615, 68343, 28338, 62593, 20808, -25978, 53516, 27622, 34193, 90525, 41893, -16797, 37219, 11775, 580, 14320, 16836, 71756, 21133}
#define CONV13_WT {0}
static const uint8_t CONV13_W_Z[] = 	 {-104, -94, -137, -149, -129, -121, -146, -109, -119, -128, -118, -86, -92, -105, -171, -98, -73, -114, -75, -114, -135, -90, -140, -87, -98, -123, -121, -115, -157, -155, -134, -102, -118, -114, -148, -163, -125, -168, -121, -92, -117, -112, -116, -149, -90, -106, -123, -110, -129, -145, -134, -116, -90, -107, -125, -132, -121, -95, -102, -139, -115, -88, -98, -134, -118, -105, -73, -115, -84, -130, -103, -150, -156, -123, -133, -118, -96, -111, -123, -94, -113, -82, -81, -102, -146, -173, -58, -76, -93, -84, -112, -97, -120, -98, -118, -143, -132, -128, -183, -88, -121, -106, -86, -152, -95, -93, -156, -123, -189, -107, -132, -149, -136, -124, -79, -83, -142, -85, -113, -133, -115, -161, -111, -99, -76, -100, -130, -120, -105, -104, -116, -128, -147, -131, -121, -117, -138, -114, -177, -93, -118, -147, -111, -146, -152, -107, -139, -136, -151, -98, -84, -139, -119, -107, -120, -106, -116, -113, -140, -116, -106, -103, -127, -99, -152, -79, -100, -117, -114, -112, -117, -127, -92, -134, -115, -94, -114, -96, -106, -99, -103, -103, -89, -110, -98, -109, -109, -109, -111, -120, -138, -125, -144, -94, -111, -118, -152, -144, -136, -107, -103, -111, -159, -93, -111, -129, -118, -130, -112, -152, -147, -143, -125, -89, -139, -116, -110, -145, -74, -135, -158, -113, -134, -104, -124, -103, -106, -108, -119, -136, -78, -126, -76, -90, -125, -133, -131, -130, -83, -99, -138, -96, -87, -171, -133, -100, -141, -152, -114, -141, -137, -96, -122, -142, -115, -113, -138, -85, -99, -138, -128, -146, -139, -95, -120, -113, -85, -114, -126, -133, -135, -88, -119, -90, -142, -149, -74, -86, -113, -108, -129, -158, -110, -150, -126, -102, -106, -123, -108, -95, -106, -113, -127, -82, -117, -111, -124, -94, -132, -113, -163, -113, -110, -101, -117, -101, -106, -117, -112, -121, -118, -166, -128, -95, -101, -105, -132, -115, -126, -161, -142, -93, -121, -102, -121, -96, -149, -139, -82, -126, -167, -130, -118, -149, -121, -115, -129, -101, -112, -122, -103, -137, -145, -112, -99, -119, -148, -98, -106, -171, -129, -86, -137, -129, -135, -128, -134, -109, -155, -142, -152, -141, -129, -114, -97, -139, -120, -92, -107, -133, -119, -108, -116, -138, -88, -150, -91, -102, -91, -96, -147, -159, -144, -146, -135, -86, -157, -115, -152, -168, -127, -116, -119, -129, -82, -122, -100, -132, -91, -108, -137, -150, -76, -108, -151, -132, -110, -95, -102, -108, -125, -84, -101, -133, -138, -100, -106, -87, -141, -154, -101, -144, -107, -142, -116, -130, -154, -116, -95, -131, -103, -157, -86, -78, -141, -88, -127, -97, -124, -143, -124, -123, -148, -87, -93, -94, -91, -149, -95, -149, -109, -110, -145, -134, -124, -149, -113, -128, -100, -139, -161, -120, -116, -119, -126, -118, -132, -153, -100, -143, -95, -105, -113, -119, -137, -117, -124, -128, -148, -148, -174, -127, -146, -137, -117, -148, -103, -124, -109, -122, -96, -132, -95, -131, -158, -125, -123, -140, -101, -132, -122, -100, -119, -104, -125, -117, -122, -82, -122, -150, -122, -109};
#define CONV13_IN_Z      	(0)
#define CONV13_OUT_Z     	(0)
static const int32_t CONV13_M_ZERO[] = 	 {1306736640, 1564445568, 1592243584, 1328375680, 1483136512, 1083883008, 1469939840, 1783799680, 1884692864, 1293087488, 1621972352, 2036579328, 1510595200, 1328720512, 1089285760, 1174963840, 1291800064, 1849154048, 1341244032, 1371820800, 2036009344, 1321726720, 1738500864, 1278590208, 1122154496, 1525444480, 1713963392, 1971771520, 1981490816, 1934898816, 1590179072, 1672253312, 1081622656, 1971625728, 1706579072, 1840094464, 1771549568, 1245252096, 1126879104, 1709175552, 2028253824, 1777579776, 1507539200, 1090613248, 1272477312, 2131205888, 2078311040, 1452771840, 1865893120, 1395481856, 1427987584, 1328151552, 1513405312, 1316659200, 1482776704, 1836759936, 1613162368, 1574882176, 1314665728, 1399666560, 1206933888, 1967020416, 1924910848, 1412149376, 1104122496, 1292228352, 1473786112, 1074773504, 2058377344, 1572925056, 1569228928, 1911676672, 1473144576, 1550476800, 1289720064, 1523474688, 1786872960, 1249523584, 1569194496, 1236043520, 1334185856, 1179080192, 1220743168, 1302611584, 1624000896, 2039934976, 1788531328, 1311536384, 1086442368, 1173760384, 1228494208, 1711364352, 1639876480, 1270817408, 1656229248, 1402309504, 1120727680, 1195631104, 1436502400, 1105129984, 1766239744, 1458129280, 1581355904, 1862519296, 1290240896, 1907376896, 1867790592, 2110051712, 1521778816, 1551826432, 2011166720, 1105389312, 1629385728, 2135684352, 1770910336, 1706879360, 1349748608, 1320071936, 1800761344, 2052030464, 1538207488, 1841329024, 1488205056, 1078461696, 1822200064, 1295686016, 1166423808, 1254877440, 1681852928, 1097959680, 1934310912, 2057531904, 1431966720, 1446301184, 1716379008, 1223411584, 1180117632, 1567414656, 1408712832, 2095992320, 1153174784, 1447278720, 1633960576, 1850423040, 1691048192, 1355672960, 1244616192, 1455300224, 2099689216, 1119722240, 1176891776, 1681041536, 1210759552, 1696732928, 1532321920, 2069233792, 1166747136, 2143721856, 1645653504, 1224153472, 2002814080, 1739961856, 1488415872, 1103284096, 1279004160, 1192570624, 1257556480, 1445175680, 1520808448, 1505074944, 1088495488, 1871383168, 1276254464, 1588816256, 1324557696, 1371552384, 1834433408, 1274987392, 2010407552, 1665032832, 1696099328, 1392860160, 2063342080, 1519585920, 1155743360, 1548018176, 1303117696, 1130623232, 1225949056, 1920175744, 1752587008, 1633793024, 1157924224, 1477086848, 1112808832, 1367207040, 1602072064, 1773210624, 1529035520, 1459698176, 1298400896, 1978422912, 1320279552, 1630854400, 1454450688, 1343775872, 1763046784, 1497591296, 1122335616, 1756194048, 1332649088, 1567462784, 1220444800, 1193637376, 1262526976, 1324357632, 1817558016, 1513307008, 1792077312, 1838133120, 1347470208, 1540664064, 2056676736, 1742948608, 1248270720, 1374926592, 2042756736, 1802533504, 2004094208, 1458599936, 1442796416, 1585553024, 1157370752, 1516376448, 1308229888, 1721150080, 1249906944, 1446355840, 1786706944, 1477415168, 1875762048, 1956116224, 1128458368, 1200445952, 1673351296, 2067547904, 1636844288, 1295364992, 1803341952, 1694627584, 1210636800, 2089044864, 1709215232, 1583240832, 1467895552, 1288208896, 1842308352, 1340799744, 1425978112, 1466537216, 2141033856, 1291325952, 1988175744, 1406936960, 1222030720, 1826453888, 1459439872, 2046751616, 2109457408, 1079438464, 1861840512, 1477087616, 1793654400, 2031822976, 1968445824, 1559003776, 1163385856, 1663318400, 1790782592, 1500130176, 2098645376, 1199164032, 2143098496, 1893922048, 1764476416, 1499719552, 1702995712, 1623135488, 2097758592, 1321117568, 1511213184, 1621420928, 1977452160, 1753463424, 1143719936, 1104670336, 1888066048, 1167260544, 1419957632, 2079750912, 1310581504, 1774419200, 1252778752, 1527480320, 2006006016, 1438201472, 1738366976, 1864117120, 1651502848, 1814074624, 1275142400, 2021730048, 1397130880, 1389203328, 1499261824, 1667650688, 1672918912, 1837387392, 1746710656, 1459176064, 2045745024, 1460928896, 1804117760, 1442157440, 2133247744, 2097086080, 1611425024, 1396453760, 1509287552, 1499888512, 1458488064, 1915656704, 1163181440, 1429027584, 1548432384, 1870123392, 1685925120, 1841309824, 1569739648, 1727808384, 1841500160, 1638514304, 1365226880, 1080747392, 1291917568, 1412085248, 1261671168, 1153026176, 2128156416, 1156023808, 1180747648, 1906761472, 1162294784, 1472744960, 1906107648, 1169536128, 1743333504, 1816794880, 1236451072, 1923438848, 2022246272, 2132987136, 1712038528, 1544788992, 1213149568, 1514582272, 1184080768, 1861938560, 1611051392, 1450845952, 1238743424, 1820888192, 1121614720, 1760638848, 1529181696, 1619861760, 1597781248, 1206250624, 1980017664, 1550946560, 1204017536, 1171092224, 1405758720, 2075570560, 1310857088, 1264249216, 1255061760, 1667810048, 1887532800, 1969832832, 1541998080, 1174219392, 2002477440, 1321193856, 1211470592, 1720341120, 2125226624, 1247458944, 1084411648, 1184208000, 1399156480, 2100222848, 1971451136, 1434706688, 1909754112, 1763080576, 2132328448, 1273397760, 1883871104, 1347642112, 1094164096, 1803028992, 1918220928, 2073127424, 1671140608, 1287563008, 1832592128, 1262914432, 1415585792, 1158877312, 1815314944, 2119955712, 1218758400, 1797873920, 1292356992, 1107769472, 1920494080, 1947545984, 1699258880, 1321276160, 1891995520, 1715103104, 1405277952, 1079199744, 2130129408, 2010706176, 1702051200, 1930062336, 1232323456, 1783922048, 1497312512, 1606168192, 1286979840, 1875359104, 1714618112, 1493564160, 1730992256, 1576628480, 1162213760, 1449438976, 1336346624, 1414978176, 1124384896, 1977092352, 1507380224, 1231301376, 1176710784, 1708302848, 2046713472, 1231644288, 1528966784, 1974632576, 1772402816, 1106030464, 2119803776, 2074608896, 2127404032, 1554274688, 1425034624, 1885523072, 1414892032, 1944276992, 1747060864, 1868967680, 1833926272, 1632936192, 1713495168, 1379174912, 1500450048, 1509072768, 1320629376, 1086180608, 1812436352, 1894347776, 1223035136, 1309417600, 1930449024, 1205395200, 1757739648, 1181451136, 1392530688, 1237845632, 1738565632, 1118430720, 1522571008, 1234918528, 1220382208, 1475688960, 1276832384, 1274882816, 1659280384, 1305881472, 1815182976, 1272283136, 1139416704, 1352341504, 1952961792, 1237930880, 1470289280, 1491779200, 1657388928, 1227848448};
static const int8_t CONV13_N_ZERO[] = 	 {0, 0, 0, 0, 0, 0, 0, 0, 0, 0, 0, 0, 0, 0, 0, 0, 0, 0, 0, 0, 0, 0, 0, 0, 0, 0, 0, 0, 0, 0, 0, 0, 0, 0, 0, 0, 0, 0, 0, 0, 0, 0, 0, 0, 0, 0, 0, 0, 0, 0, 0, 0, 0, 0, 0, 0, 0, 0, 0, 0, 0, 0, 0, 0, 0, 0, 0, 0, 0, 0, 0, 0, 0, 0, 0, 0, 0, 0, 0, 0, 0, 0, 0, 0, 0, 0, 0, 0, 0, 0, 0, 0, 0, 0, 0, 0, 0, 0, 0, 0, 0, 0, 0, 0, 0, 0, 0, 0, 0, 0, 0, 0, 0, 0, 0, 0, 0, 0, 0, 0, 0, 0, 0, 0, 0, 0, 0, 0, 0, 0, 0, 0, 0, 0, 0, 0, 0, 0, 0, 0, 0, 0, 0, 0, 0, 0, 0, 0, 0, 0, 0, 0, 0, 0, 0, 0, 0, 0, 0, 0, 0, 0, 0, 0, 0, 0, 0, 0, 0, 0, 0, 0, 0, 0, 0, 0, 0, 0, 0, 0, 0, 0, 0, 0, 0, 0, 0, 0, 0, 0, 0, 0, 0, 0, 0, 0, 0, 0, 0, 0, 0, 0, 0, 0, 0, 0, 0, 0, 0, 0, 0, 0, 0, 0, 0, 0, 0, 0, 0, 0, 0, 0, 0, 0, 0, 0, 0, 0, 0, 0, 0, 0, 0, 0, 0, 0, 0, 0, 0, 0, 0, 0, 0, 0, 0, 0, 0, 0, 0, 0, 0, 0, 0, 0, 0, 0, 0, 0, 0, 0, 0, 0, 0, 0, 0, 0, 0, 0, 0, 0, 0, 0, 0, 0, 0, 0, 0, 0, 0, 0, 0, 0, 0, 0, 0, 0, 0, 0, 0, 0, 0, 0, 0, 0, 0, 0, 0, 0, 0, 0, 0, 0, 0, 0, 0, 0, 0, 0, 0, 0, 0, 0, 0, 0, 0, 0, 0, 0, 0, 0, 0, 0, 0, 0, 0, 0, 0, 0, 0, 0, 0, 0, 0, 0, 0, 0, 0, 0, 0, 0, 0, 0, 0, 0, 0, 0, 0, 0, 0, 0, 0, 0, 0, 0, 0, 0, 0, 0, 0, 0, 0, 0, 0, 0, 0, 0, 0, 0, 0, 0, 0, 0, 0, 0, 0, 0, 0, 0, 0, 0, 0, 0, 0, 0, 0, 0, 0, 0, 0, 0, 0, 0, 0, 0, 0, 0, 0, 0, 0, 0, 0, 0, 0, 0, 0, 0, 0, 0, 0, 0, 0, 0, 0, 0, 0, 0, 0, 0, 0, 0, 0, 0, 0, 0, 0, 0, 0, 0, 0, 0, 0, 0, 0, 0, 0, 0, 0, 0, 0, 0, 0, 0, 0, 0, 0, 0, 0, 0, 0, 0, 0, 0, 0, 0, 0, 0, 0, 0, 0, 0, 0, 0, 0, 0, 0, 0, 0, 0, 0, 0, 0, 0, 0, 0, 0, 0, 0, 0, 0, 0, 0, 0, 0, 0, 0, 0, 0, 0, 0, 0, 0, 0, 0, 0, 0, 0, 0, 0, 0, 0, 0, 0, 0, 0, 0, 0, 0, 0, 0, 0, 0, 0};


/* Layer 14 Learned Parameters */
#define CONV14_BIAS \
 {20921, 220, 458, 22043, 170720, 521, -350, 23664, 30960, 10981, -6030, 16975, 1960, -2453, -10899, -1757, 237, 5763, 342, 1417, -9096, -15171, 320, 10, -1951, -3841, 222, 9377, 25200, 5919, -6780, 5444, 7110, -3863, 1224, -8423, -503, 17642, -25084, 164, -268, -6519, -2903, 390, 8228, 393, 89, 402, 20, -333, -1691, 16815, -23052, 4616, -385, -479, -469, -7512, -495, -3191, -356, 1942, 33107, -3718, -670, 9552, -3446, -99, 2881, 4918, -2974, 29474, -3660, 356, 268, 7347, 177, 3777, 1141, 71338, 8751, -2827, 2000, 1554, 1116, 13119, 1004, -2495, -42772, 2235, 2930, 191, -1811, 1462, 153, -6581, -6901, -349, -4506, -503, -622, -1082, 3517, -1861, -3318, -1917, -18850, 42583, 623, -381, -6215, 1301, -9387, -10295, -7545, 2278, -1332, -4, 15718, 27958, 4871, 118, -780, -2253, 1065, -353, 1393, -3387, 21080, 92, 358, 42652, -7142, 7696, -162, -7806, -328, -243, -208, 472, 13440, -16909, 561, 235, 3494, 4741, 1999, 813, 3972, -2716, 44, 19850, 1713, 10388, -27, 427, 2654, -3856, 796, 22261, 983, 4821, -7703, 6345, 27316, 1098, 5496, 2787, -7971, 327, 1078, 119151, 213, -441, 2071, -614, 58, -3298, 1725, 450, 12981, -1615, -294, 2947, -5385, 5572, 183, -165, -850, 91591, 1361, -899, 947, 1083, -4426, -7090, -28109, 1865, -1711, 10431, 3873, 24954, 49486, 16045, -22027, -647, 248, -309, 1403, -11961, 1702, 749, 637, -8090, -476, 3245, 366, -5526, -6144, -5705, 28804, -8727, -17909, 78928, 17673, 405, 505, 35, -351, 375, 4834, -3957, -4508, 10453, 12730, 399, -7524, 3180, 39700, -598, 752, 575, 1036, 6493, 8188, 3953, -6027, -811, 736, -10, -266, 90, 4632, 5266, 15412, 599, 354, 21301, -663, 26271, 1267, 58836, -14024, -839, 26042, 43716, 105, -6469, 1404, -382, 25240, 31115, 629, 447, 51842, 235, 605, 6000, 1507, 23846, 26532, -1376, 175, -191, 11736, 2247, -6975, 737, 43630, -14732, 69, -899, -708, -13024, -155, -976, -1590, -3556, 30973, -10210, 2390, -6363, -218, 55111, -4185, -1435, -1025, 688, 15731, 4115, -6040, 597, -302, 28757, -152, 17392, 321, -343, -94, -2712, -5265, 218, 445, 94579, 1768, 7307, 9046, 27230, 77261, 1043, 21475, -6644, -3839, -352, 21521, 514, 19731, -6580, 24344, 3081, 118812, 4127, 1028, -245, 2819, 4039, 440, 1301, -1066, -3146, 713, 426, -195, 1135, 859, -11022, -188, -11080, 21201, -5842, 3294, -4971, 2845, 12, 370, 1328, 317, 1386, 28197, 19, 424, -664, 52, 117475, 616, 46493, 32157, 2323, 642, -1105, -7747, 34940, 84155, 988, 67641, 11, 707, -5206, 3555, 67, 19481, -4998, 11971, 75, 45161, -170, 441, 6910, -85, -6238, 272, 29950, 21030, 75578, 512, 1613, 166197, -6773, 75, -8838, 4272, 19151, 255, 2562, -320, 73764, 966, 18936, -122, -5974, 19432, 234, 168, -18796, 21050, 2862, 19895, 4746, -3065, 8435, 35765, 87335, 1795, 16246, -153, -1557, 557, -1052, 111371, -4760, -5522, 6629, -5390, -965, -2259, -4817, 1443, 2379, 37480, 545, -181, 1230, 4168, 13930, -402, 34080, 212, 31440, -315, 1395, -4772, -307, -245, 37511, -4975, 9100, 21856, 248, 37262, -416, 1075, -398, 72682, 6455, 26264, 105610, -28501, -1224, -964, 208, 1171, -55, 2285, 147, 6753, -4312, -41, -3185, 1385, -1071, 298, -10512, 6464, 5887, -443, 17972, 10377, 1077, -3210, -46, 246, 4826, 1067, -6000, -8554, -2117, 4393, -280, 6315, 215421, 182, -2927}
#define CONV14_WT {0}
static const uint8_t CONV14_W_Z[] = 	 {-255, -84, -124, -193, -502, -99, -97, -263, -312, -223, -10, -232, -118, -86, -79, -95, -113, -75, -99, -102, -120, -15, -123, -94, -95, -74, -217, -116, -259, -42, -16, -32, -32, -7, -92, -21, -82, -234, 5, -115, -61, -7, -10, -93, -147, -67, -93, -15, -86, -95, -88, -241, -33, -124, -133, -100, -88, -86, -81, -9, -116, -95, -203, -13, -55, -80, -144, -26, -86, -51, -109, -233, -56, -92, -113, -99, -106, -33, -112, -417, -123, -95, -100, -31, -92, -207, -95, -80, 61, -14, -31, -131, -132, -73, -102, -11, -152, -22, -15, -91, 7, -49, -39, -11, -19, -94, -17, -415, -134, -130, -36, -93, -22, -58, -8, -117, -102, -154, -130, -229, -56, -123, -84, -39, -88, -51, -63, -26, -245, -99, -114, -360, -73, -19, -108, -25, -86, -118, -96, -147, -48, -31, -101, -18, -23, -158, -55, -197, -218, -73, -120, -216, -141, -208, -115, -111, -21, -69, -106, -248, -27, -117, -41, -56, -237, -93, -190, -31, -113, -35, -107, -406, -90, -98, -89, -113, -91, -42, -100, -147, -242, -140, -134, -33, -5, -26, -103, -30, -101, -457, -13, -2, -164, -80, -3, -59, -4, -90, -149, -179, -136, -245, -242, -195, 1, -38, -98, -111, -53, 16, -81, -91, -122, -101, -114, -182, -170, -53, -42, -22, -238, -44, -32, -501, -176, -117, -97, -97, -155, -115, -48, -7, -16, -69, -24, -85, 2, -31, -344, -132, -112, -82, -105, -33, -194, -129, -17, -96, -103, -95, -106, -97, -112, -42, -238, -101, -55, -255, -59, -238, -100, -272, -34, -139, -229, -274, -88, -53, -106, -127, -259, -246, -138, -98, -255, -111, -126, -27, -81, -238, -252, -56, -87, -118, -224, -111, -26, -86, -266, -54, -117, -138, -83, 44, -74, -54, -91, -16, -261, -55, -83, -3, -92, -442, -76, -90, 0, -99, -241, -127, -36, -98, -100, -253, -138, -239, -93, -73, -86, -80, -55, -108, -13, -427, -90, -42, -179, -209, -320, -80, -249, -12, -59, -104, -195, -164, -231, 8, -239, -79, -611, -25, -104, -102, -85, -50, -125, -107, -94, -49, -78, -109, -103, -76, -94, -84, -89, -62, -227, -36, -100, -40, -108, -95, -142, -143, -118, -94, -207, -82, -101, -141, -144, -348, -89, -277, -281, -110, -90, -44, -16, -257, -482, -88, -537, -94, -109, -12, -43, -109, -226, -26, -236, -109, -274, -110, -50, -201, -138, -27, -114, -173, -240, -386, -97, -160, -448, -54, -144, -105, -40, -248, -96, -154, -93, -323, -88, -238, -133, -3, -234, -97, -162, -12, -188, -161, -188, -133, -39, -155, -265, -272, -109, -230, -91, -24, -105, -68, -390, -50, -7, -95, -59, -50, -79, -60, -98, -51, -245, -108, -95, -110, -54, -210, -156, -234, -107, -289, -110, -107, -64, -109, -106, -234, -80, -64, -220, -120, -278, -114, -91, -95, -501, -29, -228, -497, -4, -24, -104, -83, -93, -97, -92, -103, -137, -51, -131, -62, -89, -91, -122, -2, -147, -30, -101, -203, -232, -99, -110, -109, -114, -97, -95, -90, -12, -63, -41, -77, -49, -538, -96, -124};
#define CONV14_IN_Z      	(0)
#define CONV14_OUT_Z     	(0)
static const int32_t CONV14_M_ZERO[] = 	 {1339691904, 1339181312, 1823130496, 1411655168, 1763618816, 1584694272, 1483536768, 1752869632, 1736937600, 1459288576, 1500668288, 1139149184, 1855614720, 1789206528, 1842612992, 1654702464, 1418400768, 1288622080, 1708689408, 1604886144, 1642399488, 1177327744, 1359216512, 1533541376, 1086687232, 1898029696, 1554440704, 1081044224, 1729110528, 1756239744, 1557269120, 1923105024, 1925427968, 1141982848, 1792230144, 1346416384, 1613431040, 1578927616, 1959466368, 1416171008, 1286039168, 2029425408, 2120052608, 1889891584, 1373622016, 1808629248, 1790161152, 1986566272, 1115296512, 1480068352, 1948382720, 1470612480, 1778847872, 1507374080, 1221737728, 2082497536, 1752755328, 1660788992, 1610825856, 1811906944, 2049262336, 1389090688, 1982146688, 1130251264, 2099457280, 1802994304, 2058954624, 1559466752, 1457782912, 1230608128, 1360982400, 2133303168, 2028299904, 1847172352, 1524852480, 1606631424, 1774358144, 1376181888, 1183369856, 1635374720, 1881248256, 1418107776, 1592027136, 1121613952, 1913575424, 2024242432, 1808150784, 1764946816, 2110902784, 1228363136, 1310727680, 1553939072, 1493895680, 1533311232, 1086857984, 1515694720, 1387091840, 1387791616, 1140364416, 1466389760, 1356600576, 2021809792, 1276516480, 1480239616, 1135337600, 1868112640, 1353053568, 1162381824, 1338062976, 1350201728, 1479207296, 1189828864, 1394063104, 1181582592, 1278398080, 1616630656, 1130142976, 2075682048, 1589426304, 1325983744, 2118700032, 1084991232, 1562181248, 1906894848, 1726485632, 1647545600, 1132783872, 1455814784, 1192543872, 1946703360, 1499152640, 1307111168, 1306908800, 1221702912, 1429323392, 1185755776, 1848029824, 1853979392, 1799667456, 1619570048, 1338218368, 1624272768, 1327872128, 1170410496, 2123727616, 1687267584, 1996652672, 1593918336, 1291138944, 1790301696, 1852284800, 1572070144, 1326452480, 1635270144, 1223900288, 1536175360, 1085528576, 1813644032, 1426689024, 1992278144, 1229916544, 1305722496, 1447160320, 1095101952, 1688987904, 1581889664, 1753054080, 1634986880, 1341662592, 1179954304, 1338830464, 1261651712, 1972176256, 1641876096, 1096008192, 1136890624, 2060275072, 1417982848, 1572035584, 1108140800, 1919194368, 1632687872, 1880774784, 1114649856, 1198240256, 1682114560, 1451148032, 1415261440, 1128891264, 1359543424, 1302322048, 2058315648, 1879101696, 1351154688, 1228739840, 1592337664, 1156048000, 1364751488, 1122254848, 1610747008, 1957074432, 1825507072, 1091560320, 1547103616, 1116408320, 1237891712, 1107606784, 1649272704, 1534587136, 1232601216, 1631723520, 1797054464, 1204302848, 1236212736, 1347008640, 1335196800, 1985383808, 1187320576, 1388613632, 2117597440, 1186359040, 1941599360, 1279502080, 1806295936, 1125833728, 1101331840, 1501664640, 1832394368, 1924190592, 1623506944, 1248551424, 1686647040, 1443856640, 1274648448, 2093460480, 1913950464, 2127075712, 1953101312, 1541097728, 1514519168, 1231913472, 1937353472, 2141945984, 1191170560, 1535604352, 1967389312, 1252170880, 1962170368, 1747198080, 1727527296, 1238981120, 1845623040, 1684263552, 1451688192, 1451504512, 1354363008, 1762564480, 1879533184, 1747375232, 1617174400, 1647964928, 1089307904, 1391043328, 2105867776, 1724677120, 1692788352, 1095687680, 1497382400, 1497984768, 1434614272, 1798204928, 1223246592, 1209164800, 1862761344, 1920675712, 1550159872, 2097255808, 2098730112, 1201889920, 1404399104, 1168195328, 1597751808, 1535498368, 1371021184, 1741567360, 1099337600, 1172052736, 2146582144, 1861688576, 1113327104, 1959351168, 2063696512, 1120621696, 1594401920, 1489496448, 1180384768, 1622788992, 1732089088, 1098781184, 1528263040, 1769553920, 2103123968, 1720197376, 1094092672, 1472115840, 2065817088, 1617694976, 1279827840, 1386995328, 1479935744, 1220147712, 2034094208, 1644702976, 1252969088, 1398374784, 1339966464, 1264991232, 1947893120, 1604395264, 1211647232, 1184910848, 1360455936, 1460039680, 1351131904, 1531561088, 2053562496, 1427246976, 1141129984, 2015241088, 1526435328, 1472255872, 1076461824, 1468583552, 1721516928, 1459247488, 1283771008, 2099596672, 1880428288, 1092131072, 1792773888, 1514500992, 2078948096, 1555116544, 1422152832, 1853550720, 1252020608, 1459876352, 1147599104, 1366580608, 1419308544, 1161547904, 1344989952, 1589895552, 1981097344, 1922226432, 1349887360, 1366091648, 2073432320, 1773639552, 1628719488, 1556392064, 1518288768, 2033871360, 1920565120, 1446498944, 1229630976, 1431755136, 1730415360, 1469902080, 1236362880, 1416185600, 1625915776, 1200667648, 1753693824, 1719101696, 1193345792, 1175862528, 1095812224, 2141751040, 1112226048, 1326469888, 2063650944, 1655440768, 1264462976, 1993787136, 1323310336, 1143032832, 1255599872, 1505435136, 1114409216, 1140418816, 2002842112, 1896551808, 1580018176, 1247413504, 1982799360, 1857305344, 1955589632, 1442666752, 1448244224, 1900503040, 1184707584, 1432819328, 1303924736, 1579938944, 1176361856, 1098613120, 1802815488, 1337051392, 1294020864, 1444347008, 1257593344, 1832202752, 1865689600, 1788495872, 1106673024, 1627898624, 1971379328, 1330629376, 1511115008, 1174399744, 1100296960, 1311381632, 2104495104, 1702292352, 1212958080, 1302206464, 1464801152, 1729381248, 1858065408, 1115884032, 1107111680, 1444518272, 1380408064, 1636093312, 1167652608, 1239063936, 2099993600, 1523997568, 1376828416, 1952071424, 1660420480, 1083944832, 1318157696, 1903824640, 1202316544, 1437574656, 1889939840, 1796211840, 1506819200, 1756264064, 1368930688, 1296493952, 1476008448, 1789614720, 1805502976, 1201202560, 1546157696, 1308810240, 1251507968, 1258592384, 1402333824, 1294913408, 1378125184, 1091313920, 1263644160, 2056050944, 1948768000, 1857870976, 1568377728, 2071292160, 1954902400, 1771090176, 1797219328, 1294412800, 2100414080, 1872443776, 1151836544, 1959129216, 1918794368, 1624910080, 1860126336, 1268390272, 1562445184, 1157007488, 1300787584, 1306145536, 1101692288, 1424323456, 1741748224, 1126816256, 1565361536, 1778717952, 1074788864, 1813053696, 1334701952, 1549038592, 1139273088, 1434915200, 1305903872, 1649503872, 1357358208, 2057967872, 1736567168, 1234424320, 1329787264, 1753166848, 1717350400, 1636311168, 1891794176, 1849816832, 1546792320};
static const int8_t CONV14_N_ZERO[] = 	 {0, 0, 0, 0, 0, 0, 0, 0, 0, 0, 0, 0, 0, 0, 0, 0, 0, 0, 0, 0, 0, 0, 0, 0, 0, 0, 0, 0, 0, 0, 0, 0, 0, 0, 0, 0, 0, 0, 0, 0, 0, 0, 0, 0, 0, 0, 0, 0, 0, 0, 0, 0, 0, 0, 0, 0, 0, 0, 0, 0, 0, 0, 0, 0, 0, 0, 0, 0, 0, 0, 0, 0, 0, 0, 0, 0, 0, 0, 0, 0, 0, 0, 0, 0, 0, 0, 0, 0, 0, 0, 0, 0, 0, 0, 0, 0, 0, 0, 0, 0, 0, 0, 0, 0, 0, 0, 0, 0, 0, 0, 0, 0, 0, 0, 0, 0, 0, 0, 0, 0, 0, 0, 0, 0, 0, 0, 0, 0, 0, 0, 0, 0, 0, 0, 0, 0, 0, 0, 0, 0, 0, 0, 0, 0, 0, 0, 0, 0, 0, 0, 0, 0, 0, 0, 0, 0, 0, 0, 0, 0, 0, 0, 0, 0, 0, 0, 0, 0, 0, 0, 0, 0, 0, 0, 0, 0, 0, 0, 0, 0, 0, 0, 0, 0, 0, 0, 0, 0, 0, 0, 0, 0, 0, 0, 0, 0, 0, 0, 0, 0, 0, 0, 0, 0, 0, 0, 0, 0, 0, 0, 0, 0, 0, 0, 0, 0, 0, 0, 0, 0, 0, 0, 0, 0, 0, 0, 0, 0, 0, 0, 0, 0, 0, 0, 0, 0, 0, 0, 0, 0, 0, 0, 0, 0, 0, 0, 0, 0, 0, 0, 0, 0, 0, 0, 0, 0, 0, 0, 0, 0, 0, 0, 0, 0, 0, 0, 0, 0, 0, 0, 0, 0, 0, 0, 0, 0, 0, 0, 0, 0, 0, 0, 0, 0, 0, 0, 0, 0, 0, 0, 0, 0, 0, 0, 0, 0, 0, 0, 0, 0, 0, 0, 0, 0, 0, 0, 0, 0, 0, 0, 0, 0, 0, 0, 0, 0, 0, 0, 0, 0, 0, 0, 0, 0, 0, 0, 0, 0, 0, 0, 0, 0, 0, 0, 0, 0, 0, 0, 0, 0, 0, 0, 0, 0, 0, 0, 0, 0, 0, 0, 0, 0, 0, 0, 0, 0, 0, 0, 0, 0, 0, 0, 0, 0, 0, 0, 0, 0, 0, 0, 0, 0, 0, 0, 0, 0, 0, 0, 0, 0, 0, 0, 0, 0, 0, 0, 0, 0, 0, 0, 0, 0, 0, 0, 0, 0, 0, 0, 0, 0, 0, 0, 0, 0, 0, 0, 0, 0, 0, 0, 0, 0, 0, 0, 0, 0, 0, 0, 0, 0, 0, 0, 0, 0, 0, 0, 0, 0, 0, 0, 0, 0, 0, 0, 0, 0, 0, 0, 0, 0, 0, 0, 0, 0, 0, 0, 0, 0, 0, 0, 0, 0, 0, 0, 0, 0, 0, 0, 0, 0, 0, 0, 0, 0, 0, 0, 0, 0, 0, 0, 0, 0, 0, 0, 0, 0, 0, 0, 0, 0, 0, 0, 0, 0, 0, 0, 0, 0, 0, 0, 0, 0, 0, 0, 0, 0, 0, 0, 0, 0, 0, 0, 0, 0, 0, 0, 0, 0, 0, 0, 0, 0};


/* Layer 15 Learned Parameters */
#define CONV15_BIAS \
 {-1366, 439, -2361, 195, 1330, 1327, 1367, 564, 1336, 3160, 891, 1992, 250, 1783, 523, 663, 1370, 487, -4399, 544, 849, -221, -1225, 2773, 523, 76, -1392, 2604, 1025, -59, 997, -1843, -77, 1484, -271, -894, -1284, 632, -2689, 65, 2466, 4996, 1126, 547, 241, 523, -1228, 454, -53, -1116, 1752, 1406, -824, 3028, 3270, 1045, 506, 2146, -2350, 592, 748, -1211, 4004, 468, -83, -486, 3627, -780, -11, 417, -387, 869, -1533, -227, 1699, 249, 2019, -699, 1504, 424, 426, 216, 365, 28, -232, -321, 449, 1433, -695, -892, 2929, -3338, 104, 1923, 1397, 3617, 3569, 443, -85, -1783, 7660, -951, 73, -288, 940, -507, 29, 354, 1157, -283, 507, -3230, 300, 866, 732, -1452, 1056, -34, 695, 1552, 1891, -394, 1615, 1382, 822, 452, 761, 647, -566, 4684, -1953, -1686, -87, 1179, -3326, 1417, 834, 2557, 1469, 5605, -2443, -695, -320, -385, -1337, 3945, 1029, 203, -1387, -355, 3492, 783, 2475, -1771, 785, 2137, 3613, 834, 870, 945, -1229, 2180, 6899, 862, 98, 388, 769, 711, 1018, 1724, -1663, 637, 213, -476, -2, -214, -481, -490, 125, 2627, 1823, 2554, 2094, -460, 1148, 682, 1165, 251, 2019, 4134, 119, 919, 1067, 1176, 2427, -1210, -294, 3981, 2368, -120, 1492, 4048, 96, 1410, 3085, -323, -2449, -946, 571, -182, 2631, 3535, -347, 1596, 683, 1071, 169, 220, -483, -995, 1423, 1393, 4135, 1344, 534, -594, -179, 2272, -444, 5670, 892, -536, 990, -1075, 918, -464, 68, -164, 3115, -1345, -271, 932, -119, 146, -609, -837, 980, 742, 2715, 1233, 1786, 381, 2491, 2590, -206, -1043, 1731, 2616, 170, 1069, 1917, 3552, 1802, 2048, -712, -225, -256, 175, 74, 688, -574, 4635, 915, 938, 768, 435, 562, 2504, 666, -554, -1651, -1588, 794, 279, 2229, -1093, 1450, 141, -577, 1383, 6434, 1954, 25, 702, -1280, 633, -2813, -70, 478, 1883, 425, 177, -355, 376, 4030, 2308, 711, 949, 1121, -225, 130, 1999, -1112, 2474, -1075, -278, 1194, 726, -888, -1244, 378, 782, -119, 630, -1714, 352, 167, 142, 759, -2537, -1299, 907, 953, 1103, 106, -1904, 1578, 293, 1206, -1694, 1256, 1054, -44, 8238, -338, -368, 860, -1391, -457, 700, 1074, -1119, 3405, -497, 957, 2457, -25, 1959, -4716, 288, 3536, -659, 3549, 1402, 220, 12, -1114, -1365, 2491, 265, 1766, 782, 1299, 1125, 303, 5515, 1587, -1789, 2285, -615, 5000, 273, 260, 316, 337, 957, 982, 2587, 589, 119, -359, 1038, 1686, -555, 1194, 2939, 3085, -310, 455, 155, 3877, 1738, -938, 2836, 210, -1392, -117, 360, -99, -128, -161, 1518, 1515, -409, 535, 474, 1637, 188, 1372, 330, 408, 4198, 1197, 94, -1554, 2281, -342, -3309, -529, -309, 518, 2088, 778, 1101, 1285, 2278, -1076, 3298, 1785, 1124, -187, 564, 720, 372, 388, 602, -141, 1689, 517, 6083, 839, 206, -176, -1043, 5222, 3480, 677, 979, 4488, -476, 660, -1302, 8, 1653, 1600, 419, 1888, -122, 1101, 2970, -2098, -353, -660, -449, 27, 2188, 486, 1869, -8, 2950, 569, 152, 3043, 1301, 3367, -881, 3154, 1682, 919, 9, 174, 19, 3049, -1983, 2887, -101, -1154, 894, 642, 906, 93, 1109, 1851, 7585, 148, 234, -1184, -1589, 3236, 301, 634, 202}
#define CONV15_WT {0}
static const uint8_t CONV15_W_Z[] = 	 {-8, -9, -7, -6, -7, -8, -7, -7, -8, -8, -10, -8, -7, -9, -7, -7, -9, -9, -6, -5, -8, -5, -6, -12, -8, -9, -7, -8, -8, -7, -4, -9, -7, -7, -8, -6, -6, -8, -7, -6, -8, -8, -8, -7, -9, -7, -7, -7, -8, -7, -8, -6, -7, -7, -8, -6, -6, -10, -7, -10, -8, -5, -9, -6, -6, -6, -7, -5, -8, -8, -8, -6, -7, -9, -8, -7, -7, -8, -6, -8, -6, -9, -8, -8, -7, -8, -8, -8, -6, -7, -8, -5, -7, -9, -8, -9, -7, -7, -8, -9, -8, -9, -7, -7, -12, -8, -6, -7, -7, -8, -7, -7, -9, -9, -8, -8, -6, -9, -7, -8, -7, -7, -6, -8, -4, -9, -7, -7, -6, -8, -7, -5, -6, -6, -7, -8, -9, -9, -8, -8, -8, -5, -8, -6, -6, -8, -7, -5, -8, -5, -5, -8, -8, -7, -7, -8, -6, -7, -7, -9, -6, -6, -7, -8, -9, -5, -5, -8, -6, -7, -6, -8, -7, -8, -7, -7, -8, -8, -7, -8, -9, -9, -9, -9, -7, -7, -8, -8, -7, -9, -7, -8, -4, -8, -10, -5, -7, -7, -8, -6, -9, -8, -7, -6, -6, -9, -6, -8, -6, -9, -9, -12, -7, -9, -10, -9, -7, -7, -5, -8, -6, -9, -9, -8, -7, -8, -5, -7, -8, -8, -7, -8, -7, -7, -8, -4, -9, -7, -7, -8, -8, -4, -7, -7, -7, -6, -8, -9, -8, -9, -9, -8, -7, -7, -8, -6, -8, -9, -7, -8, -6, -8, -5, -6, -8, -6, -10, -6, -9, -9, -8, -8, -8, -6, -7, -7, -10, -5, -7, -7, -6, -7, -8, -8, -8, -8, -7, -7, -7, -7, -9, -9, -8, -6, -7, -7, -9, -5, -7, -9, -8, -9, -8, -6, -6, -6, -7, -7, -8, -4, -7, -8, -8, -10, -7, -6, -7, -10, -9, -6, -5, -8, -6, -6, -8, -8, -8, -7, -11, -7, -6, -6, -7, -8, -9, -7, -5, -4, -6, -6, -7, -7, -7, -8, -6, -8, -7, -6, -8, -6, -6, -7, -8, -5, -10, -9, -6, -10, -6, -6, -7, -7, -8, -9, -9, -7, -7, -6, -8, -4, -9, -7, -6, -8, -8, -7, -8, -8, -6, -5, -8, -6, -5, -7, -8, -9, -6, -7, -9, -5, -8, -8, -8, -7, -7, -7, -8, -6, -5, -7, -7, -5, -8, -9, -9, -8, -8, -7, -6, -8, -10, -8, -6, -6, -10, -7, -9, -9, -9, -9, -6, -6, -8, -7, -5, -7, -8, -9, -9, -8, -9, -5, -7, -7, -8, -7, -6, -12, -8, -7, -7, -5, -7, -7, -8, -9, -5, -8, -6, -8, -8, -7, -5, -7, -8, -8, -11, -8, -7, -5, -7, -9, -6, -10, -7, -6, -9, -11, -9, -7, -7, -7, -6, -8, -9, -8, -6, -6, -9, -6, -7, -7, -11, -7, -7, -8, -6, -8, -7, -8, -5, -8, -8, -8, -7, -5, -6, -10, -11, -6, -7, -6, -8, -8, -7, -9, -5, -6, -7, -7, -8, -9};
#define CONV15_IN_Z      	(0)
#define CONV15_OUT_Z     	(0)
static const int32_t CONV15_M_ZERO[] = 	 {1275400832, 1127736576, 2027500416, 1142168960, 1199123968, 2023093632, 1688218496, 1301690880, 1098997120, 1986284288, 1617125504, 1114722432, 2123421952, 1116047872, 1235022336, 1098781312, 1444129152, 1669881600, 1945020160, 1932735616, 2057474944, 1513854080, 1205203968, 1134621312, 1529295616, 1201711616, 1104052992, 1327756544, 1250765952, 2139534336, 1217997184, 2000570624, 2104050560, 1835803264, 1686424960, 1885745408, 1671759360, 1519744128, 1581287424, 1433480576, 1663279616, 2074281856, 1943460224, 1457206912, 1136873344, 1426889216, 1194533504, 1205022336, 1789226112, 1117290240, 2020177024, 1442023040, 1126177024, 1674653312, 1914051072, 1526970880, 1721594240, 1797649664, 1173082496, 1426387712, 1254598272, 1491351552, 1339360384, 1520997504, 1860180352, 1194472192, 1359212160, 1459390464, 1572082816, 1850857600, 1621636864, 1557480576, 1133972224, 1943509248, 1395623936, 1488024320, 1148141568, 2062753664, 1298515584, 1328730240, 1545477248, 1706999040, 1086814848, 2082151168, 1410148864, 1843629056, 1464273536, 1921930368, 1773857536, 1824229632, 1845309184, 1212075264, 2135688576, 1597560704, 2076435584, 1315050112, 1657120640, 1247904384, 1310748800, 1460809344, 1199534080, 1943405824, 1209101184, 1394239488, 1961083392, 1701379328, 2092957056, 1377088000, 1881964416, 1339807488, 2071130368, 2103453312, 1439441280, 1464797184, 1083834368, 1192060032, 1402379904, 1401666048, 1846381568, 1203914240, 1240908544, 1289045376, 1910123264, 1784733696, 1298629760, 1841160064, 1316258304, 2033257344, 1187381376, 1170730496, 1745015168, 1164407168, 1345187328, 1536090880, 1846910336, 1138576768, 2127848832, 1182061056, 1439979008, 2090085504, 1962685696, 1639702656, 1606966784, 1246138496, 1578955520, 2131225344, 1575641600, 1409249280, 1721457024, 1238177792, 1271220224, 1812156928, 1680435200, 2102682752, 1247808896, 1481844864, 2058119552, 1800819968, 1429980544, 1970913536, 1249925248, 1365107712, 1577364736, 1492265216, 1435094144, 1578264064, 1696528128, 1983454720, 1351760128, 1496939648, 1590374272, 1502571648, 1619164288, 1910989184, 1081121792, 2093755392, 1969081728, 1171960448, 1435048192, 1995865472, 1166203648, 1947170816, 1908671232, 1835934592, 1357876864, 1201347968, 1165173120, 1387567360, 1232333568, 1607559424, 1928532736, 1774061952, 2132100480, 1348613760, 1998701952, 1354959872, 1770048640, 1206915456, 1606147200, 1433564544, 1176346624, 1737924736, 1947046656, 1819634432, 1257730176, 1803832832, 1296505984, 1101345920, 1312371328, 1265482496, 1673429888, 1373983232, 1843673600, 1380717056, 1220689152, 1395599616, 1409599744, 1295003648, 1497217024, 1401420928, 1283286912, 1189390336, 1689033088, 1419217536, 1463736960, 1461613312, 1193592960, 1288378240, 1356416512, 1177910784, 1724088448, 1347065216, 1074407552, 1288552192, 2140451328, 1891185024, 1247357184, 1115883648, 1869426560, 1727919104, 1819883904, 1217510528, 1171684992, 1255317760, 1475387648, 1540180736, 1740102144, 1423834752, 1147048192, 1542911488, 1194269056, 1616737408, 2101725824, 1458414336, 1365123584, 2047096704, 1926946304, 1111998848, 1761181440, 2024394752, 1097822720, 1311579392, 1272865152, 1867771520, 1221784704, 1188404352, 1280718208, 1723425792, 1075372928, 1470397056, 1824992256, 1189181568, 1239326464, 1309287936, 1651838080, 1124559488, 1589435392, 1429338112, 1557006592, 1529606656, 1814703872, 2050637056, 1874923136, 1963327872, 2039164672, 1597155712, 1211534208, 1305372544, 1511529216, 1254405888, 1993148160, 1293985792, 1456377216, 1635888512, 2002034176, 1552115328, 1136881664, 1588211712, 1239367936, 1109667968, 1254563456, 1756928640, 1832509056, 1287658880, 1360873728, 1145661696, 1610342144, 1117232640, 1165494272, 1099432064, 1208888192, 1722508288, 1614800896, 1708407808, 2089261568, 1586352640, 1573560832, 1175035392, 1355567616, 1602948736, 1802999040, 1466778368, 1312888448, 1415225472, 1972099584, 1295001216, 1466235392, 1367672832, 1190742400, 1512644480, 1584973184, 2081942912, 1644534912, 1088980736, 1878982912, 1360814208, 1516144128, 2070997632, 1614599808, 1293328000, 2143765120, 1240910464, 1946942720, 1955794688, 1655979264, 1132535424, 1992627712, 1487648000, 1934733184, 1218860544, 1166369536, 1357881344, 1815727616, 1454329600, 1239532800, 1258100736, 1446157696, 1958988800, 1223811072, 1723739136, 1279588736, 1395710720, 1074585216, 1108434048, 1648937344, 1999381376, 1323412352, 1230230528, 1103906304, 1387931520, 1814941056, 2018635008, 1131303424, 1899742336, 1690873216, 1783450240, 1145410304, 2011531520, 1194140032, 1177643904, 1345273472, 1204855040, 1894008704, 1601875200, 1150072832, 1637739392, 2072403456, 1853870208, 1622432256, 1164620416, 1313317376, 1979197440, 1706502272, 1243552384, 1490743680, 1402068224, 1266132096, 1503330176, 1828144128, 1475695360, 1350252160, 1361219840, 1102350208, 1460120960, 1625807488, 2008742400, 2087903360, 2136084096, 1994797056, 1597329152, 1903299840, 1819778944, 1783173120, 1665590272, 1421380480, 1379137152, 1848919936, 1923100928, 1339664384, 1168367872, 1574597248, 1091131776, 1243921664, 2004471168, 1171343232, 1329835136, 1709753088, 1511378048, 1468646784, 1118962560, 1742751744, 1300956032, 1272085376, 1639356416, 1565360768, 1890430464, 1182019328, 1261304448, 1085822080, 1225855232, 1157103232, 1542404224, 1188300672, 1838724864, 1749147136, 1349911168, 1990191744, 1481229312, 1078172544, 1121646720, 2128903296, 1483877248, 1443577088, 1796808704, 2049266688, 1122411904, 1309533952, 1660567424, 1410173440, 1574138368, 1601532544, 1504572544, 1865813760, 1973755520, 1199259008, 1693988992, 1672980736, 1814516480, 2088066048, 1359283200, 1992760832, 2080957824, 1426281344, 1709640064, 1727705472, 1509164288, 1444745600, 1771471104, 1994163840, 1426527872, 2116371328, 1410177280, 2090374400, 1985920000, 1420772352, 1080052608, 1225349504, 1556089344, 1973099520, 1826811904, 1565393920, 1731350016, 1726653312, 1235951104, 1879850368, 1940588672, 1888441088, 1575182720, 1247294464, 2126769536, 1263413760, 1754056960, 1121692032, 1385234304, 1182540544, 1997640832, 1303793024, 1182339200, 1947833088, 1518077696, 1573497216, 1652573824};
static const int8_t CONV15_N_ZERO[] = 	 {0, 0, 0, 0, 0, 0, 0, 0, 0, 0, 0, 0, 0, 0, 0, 0, 0, 0, 0, 0, 0, 0, 0, 0, 0, 0, 0, 0, 0, 0, 0, 0, 0, 0, 0, 0, 0, 0, 0, 0, 0, 0, 0, 0, 0, 0, 0, 0, 0, 0, 0, 0, 0, 0, 0, 0, 0, 0, 0, 0, 0, 0, 0, 0, 0, 0, 0, 0, 0, 0, 0, 0, 0, 0, 0, 0, 0, 0, 0, 0, 0, 0, 0, 0, 0, 0, 0, 0, 0, 0, 0, 0, 0, 0, 0, 0, 0, 0, 0, 0, 0, 0, 0, 0, 0, 0, 0, 0, 0, 0, 0, 0, 0, 0, 0, 0, 0, 0, 0, 0, 0, 0, 0, 0, 0, 0, 0, 0, 0, 0, 0, 0, 0, 0, 0, 0, 0, 0, 0, 0, 0, 0, 0, 0, 0, 0, 0, 0, 0, 0, 0, 0, 0, 0, 0, 0, 0, 0, 0, 0, 0, 0, 0, 0, 0, 0, 0, 0, 0, 0, 0, 0, 0, 0, 0, 0, 0, 0, 0, 0, 0, 0, 0, 0, 0, 0, 0, 0, 0, 0, 0, 0, 0, 0, 0, 0, 0, 0, 0, 0, 0, 0, 0, 0, 0, 0, 0, 0, 0, 0, 0, 0, 0, 0, 0, 0, 0, 0, 0, 0, 0, 0, 0, 0, 0, 0, 0, 0, 0, 0, 0, 0, 0, 0, 0, 0, 0, 0, 0, 0, 0, 0, 0, 0, 0, 0, 0, 0, 0, 0, 0, 0, 0, 0, 0, 0, 0, 0, 0, 0, 0, 0, 0, 0, 0, 0, 0, 0, 0, 0, 0, 0, 0, 0, 0, 0, 0, 0, 0, 0, 0, 0, 0, 0, 0, 0, 0, 0, 0, 0, 0, 0, 0, 0, 0, 0, 0, 0, 0, 0, 0, 0, 0, 0, 0, 0, 0, 0, 0, 0, 0, 0, 0, 0, 0, 0, 0, 0, 0, 0, 0, 0, 0, 0, 0, 0, 0, 0, 0, 0, 0, 0, 0, 0, 0, 0, 0, 0, 0, 0, 0, 0, 0, 0, 0, 0, 0, 0, 0, 0, 0, 0, 0, 0, 0, 0, 0, 0, 0, 0, 0, 0, 0, 0, 0, 0, 0, 0, 0, 0, 0, 0, 0, 0, 0, 0, 0, 0, 0, 0, 0, 0, 0, 0, 0, 0, 0, 0, 0, 0, 0, 0, 0, 0, 0, 0, 0, 0, 0, 0, 0, 0, 0, 0, 0, 0, 0, 0, 0, 0, 0, 0, 0, 0, 0, 0, 0, 0, 0, 0, 0, 0, 0, 0, 0, 0, 0, 0, 0, 0, 0, 0, 0, 0, 0, 0, 0, 0, 0, 0, 0, 0, 0, 0, 0, 0, 0, 0, 0, 0, 0, 0, 0, 0, 0, 0, 0, 0, 0, 0, 0, 0, 0, 0, 0, 0, 0, 0, 0, 0, 0, 0, 0, 0, 0, 0, 0, 0, 0, 0, 0, 0, 0, 0, 0, 0, 0, 0, 0, 0, 0, 0, 0, 0, 0, 0, 0, 0, 0, 0, 0, 0, 0, 0, 0, 0, 0, 0, 0, 0, 0, 0};


/* Layer 16 Learned Parameters */
#define CONV16_BIAS \
 {7258, -2111, -18215, 4567, 29144, 32498, 111030, 58382, -3145, 4551, -14912, -6584, 1729, -3301, 40632, 57786, -7265, 66704, 155129, -3931, -7919, 44071, 112042, 3365, 93551, 53592, -3745, 2769, 6080, 1914, 25261, -1969, 46474, -32642, -5351, -12894, -22085, -9600, -7806, -6641, -1947, 691, 2380, 11539, -2862, 27291, -27987, 60634, 51229, 34583, -8546, 3227, -12497, 15657, 3492, 17624, -11721, -39781, -9589, -2844, 6742, 71821, -12834, 8754, 27188, -3308, 16675, -15306, 53994, 46877, -47867, 9253, 48268, -16888, 25954, 43779, -6469, 65614, 38246, 70, 5938, -9490, -4340, 4039, 66820, 3570, -13058, -3464, -291, 7997, 4442, 3172, -2704, 18619, 29086, 6213, 8491, -26054, 37074, 3031, 14179, -3296, -12418, -4799, 14408, -1394, 62571, -4745, 34372, -7993, 103918, 45685, 16010, -7068, -2904, -11643, 4426, 46278, -7862, 100283, 35528, 1895, 5345, 9989, 5292, 5407, -9449, -8531, 20090, 17217, -12288, -5710, 1984, 21362, -10004, -2365, -18934, -8990, -4329, -5185, -4997, 31504, -18300, -14745, 2832, -4732, 24104, 45699, -3585, -5080, -5216, -7859, 4887, -3755, 39828, 2108, 14543, 14078, 24746, 14507, 1644, 26713, 3427, -12780, -8055, 25030, -9273, -2507, 4066, -7214, -9154, -5351, -8265, -16597, 31872, -7677, -8763, -22044, 157408, -13266, 19720, 5658, -41676, 10294, 3423, -16233, 50389, -5872, 34451, 17742, 44253, -3407, 58639, -10818, -7345, 54025, -7925, 6899, 122406, -2423, 33512, 6342, -7149, -3695, 18830, -14085, 681, -2084, 60632, -15014, 55127, 27, -18475, -10490, -11212, 26011, 50856, 17022, 3211, -7563, 59239, 42371, 29133, 8347, 46737, -15040, -12761, -15060, -16487, 17462, 3098, -4251, -11156, -70, 37781, 130360, -9636, -5693, 20337, 640, 115469, 150891, -4858, 36059, 39211, 2604, -5625, -2335, -3746, -6020, -1355, -2293, -13258, -2370, 9954, 27720, -9008, -5164, -822, -6432, 67495, 2441, 26315, 23757, -11698, -2556, -2919, 70837, -1832, -7662, 55367, 5638, -7987, 2254, -15872, -8147, 41638, 15435, -41548, -16911, -9115, -16386, 29174, 26793, 31538, -4697, -18211, -1147, -12965, 22726, -1406, -5426, -3222, 6982, -5639, -13503, -23343, -1876, -10731, -9587, 175, -8529, 51674, 5686, 21992, 23935, -12664, -145, -21130, 3564, 23823, 3676, -650, 16495, -8746, -12640, 36664, 12958, -4724, 34264, 76, 13647, -21313, -4015, 98, 44926, -7598, 13525, 9981, -1120, 2795, 24280, 661, -4654, -7357, -15449, -5677, 90914, 19144, -20921, 22815, -14638, 13271, 4916, -1467, 2247, 10540, -19755, -3110, 25981, -76, -11946, 12896, 8295, 49345, 20719, -3511, 11372, -15334, -4237, 30696, -2955, 2853, 87967, -921, 58229, -5052, -12987, -3822, -18500, 11499, 5661, 32282, -5110, 18570, -8903, -7246, -1371, -3003, -5959, 16613, 962, -2785, 35175, 22108, 19922, 26266, 514, 4836, -185, -21349, -5717, -7216, -4675, 14802, 10666, 1524, -14103, 35663, 46856, 715, 10649, -6140, -40502, 66740, 53496, -7520, 2508, -6879, 4224, -45493, 8307, 29586, -7023, 19931, -7756, -8696, -13364, -22013, 83020, -6262, -5176, 13804, -4308, -11095, 333, 7476, -8296, -6222, -6605, 115533, 28479, 17160, 334, 36460, 53201, 1706, 98, 20843, 33281, 23128, 58906, 10872, -5076, 6676, -2142, -11055, -25947, -1813, 21954, -6892, 53865, 87276, 14009, 4399, 18021, -4127, -9745, 16455, -2753, 7791, 38404, 72915, -4111, 22531, 53653, -30621, 48230, -12622, 10931, -2386, -2238, 8195, -11156, -13995, -539, 5828, -6874, -5828, 15297, 50041, 49071, 3557, -2953, 50806, -7790, 96884, 21617, -2928, 22264, 5266, -85, 2579, -9313, -6024, 88333, 33970, -14920, 20459, -9359, -11043, 7456, -7381, -6805, 21430, 49936, 39196, -4939, 4768, 17932, -11860, -6122}
#define CONV16_WT {0}
static const uint8_t CONV16_W_Z[] = 	 {-125, -25, 28, -33, -181, -254, -767, -315, -139, -59, -31, -57, -69, -20, -318, -361, -14, -333, -676, -35, -21, -383, -570, -55, -404, -295, -40, -136, -125, -128, -281, 10, -261, -38, -34, 20, 44, 17, -5, -38, -74, -91, -120, -121, -153, -265, 51, -350, -273, -280, -75, -44, 13, -170, -41, -251, 2, 4, -12, -83, -94, -372, -58, -49, -140, -68, -177, 4, -331, -233, 60, -95, -216, -6, -176, -385, -13, -500, -280, -45, -103, -11, -24, -23, -428, -115, 31, -59, -23, -96, -94, -61, -83, -126, -261, -58, -64, 1, -284, -75, -219, -91, -7, -14, -99, -23, -377, -46, -269, -65, -553, -260, -114, -20, -11, -35, -45, -286, -30, -456, -238, -116, -30, -84, -139, -150, -29, 50, -140, -235, 33, -18, -123, -258, 5, -151, 13, -67, -56, -100, -5, -309, -25, 23, -49, -26, -204, -357, -50, -90, -43, -2, -80, -57, -317, -160, -196, -164, -142, -146, -55, -261, -49, 14, -42, -222, -47, -17, -71, -93, 5, -4, -69, 17, -254, -55, 2, 27, -399, -64, -204, -135, -8, -64, -42, 25, -351, -19, -310, -239, -316, -66, -307, -28, -28, -421, -4, -79, -468, -4, -196, -56, -22, 2, -247, -41, -30, -70, -367, 28, -361, -24, 5, -77, -43, -159, -360, -153, -42, 18, -297, -359, -162, -80, -336, 16, -18, -41, -10, -241, -44, -5, -4, -85, -284, -621, 5, -41, -221, -24, -322, -659, -37, -183, -328, -55, -7, -85, -55, -61, -30, -28, -52, -108, -134, -290, -16, -57, -86, 5, -611, -45, -235, -245, -6, -107, -100, -478, -17, -6, -347, -34, -22, -30, 2, 3, -244, -194, -30, 2, -13, 16, -159, -219, -318, -18, 22, -98, 20, -264, -42, -29, -21, -181, -3, 15, 67, -34, -50, -50, -58, -17, -373, -25, -238, -237, 10, -47, -42, -22, -261, -20, -23, -106, 0, -52, -241, -71, -4, -288, -18, -96, 10, 0, -70, -340, -20, -82, -149, -2, -119, -224, -139, -50, -17, -1, -28, -444, -196, 28, -160, -40, -138, -44, 28, -58, -100, 28, -25, -220, -17, -1, -139, -59, -227, -229, 7, -127, 1, -54, -243, -131, -34, -495, -113, -282, 11, 49, -53, 22, -205, -131, -255, -41, -166, -81, -4, -77, -113, -5, -227, -121, -26, -297, -162, -242, -253, -77, -140, -96, 27, -116, -65, -13, -153, -84, -121, 12, -264, -306, -62, -130, -3, -26, -401, -234, -42, -62, 7, -37, 122, -77, -255, 0, -163, 12, -63, -3, -4, -302, 4, -77, -105, -125, 10, -139, -61, -9, 0, -107, -523, -217, -171, -119, -255, -342, -70, -5, -113, -315, -214, -283, -69, 0, -62, -63, 12, 9, -17, -241, -108, -343, -425, -123, -54, -254, -25, -18, -250, -31, -92, -230, -385, -20, -261, -334, -4, -200, 14, -140, -79, -51, -152, -17, -7, -57, -153, -13, -8, -221, -317, -339, -47, -105, -316, 9, -524, -113, -49, -173, -82, -146, -104, 5, -56, -738, -235, -36, -197, -33, -1, -52, -25, -76, -98, -338, -252, -11, -43, -80, 10, -84};
#define CONV16_IN_Z      	(0)
#define CONV16_OUT_Z     	(0)
