#ifndef __160_0_5_WEIGHTS_BIAS_H__
#define __160_0_5_WEIGHTS_BIAS_H__


/* Layer 1 Learned Parameters */
#define CONV1_BIAS \
 {2698900, -6639989, -53924312, -28050732, 109500, 109174, 94013456, -7826629, 19716, 183582, 169746, 81513, 274314, 176608, -33813, 81590}
#define CONV1_WT {0}
static const uint8_t CONV1_W_Z[] = 	 {34, -237, -112, -154, -195, -57, -213, -156, -170, -92, -155, -98, -226, -150, -71, -165};
#define CONV1_IN_Z      	(127)
#define CONV1_OUT_Z     	(0)
static const int32_t CONV1_M_ZERO[] = 	 {2033694080, 1414821248, 1516259840, 1102596224, 1289814400, 1344937728, -1154143488, 1266337664, 1541288832, 1660847232, 1476441984, 1298270336, 2141810816, 1620972672, 1125583360, 1558337152};
static const int8_t CONV1_N_ZERO[] = 	 {0, 0, 0, 0, 0, 0, 0, 0, 0, 0, 0, 0, 0, 0, 0, 0};


/* Layer 2 Learned Parameters */
#define CONV2_BIAS \
 {-4159, -200, -172, 180, 17501, 8077, 267, -1531, -45894, 39647, 84304, 25389, 3023, 601, 400, 927}
#define CONV2_WT {0}
static const uint8_t CONV2_W_Z[] = 	 {-120, -171, -382, -213, -67, -129, -176, 3, -49, -44, -187, -184, -113, -55, 0, -53};
#define CONV2_IN_Z      	(0)
#define CONV2_OUT_Z     	(0)
static const int32_t CONV2_M_ZERO[] = 	 {1907095424, 1196182784, 1846718080, 1363772672, 1383857408, 1611195520, 1672177152, 1980427392, -1297565952, -1177456640, 1536876928, 1123238912, 1899446144, 1466276224, 1522728448, 1324984576};
static const int8_t CONV2_N_ZERO[] = 	 {0, 0, 0, 0, 0, 0, 0, 0, 0, 0, 0, 0, 0, 0, 0, 0};


/* Layer 3 Learned Parameters */
#define CONV3_BIAS \
 {-13246, -13686, 17812, 11945, 104652, -27144, -24247, -32302, -34608, -1705, 10762, 3556, 458, -30828, 23061, 24820, 1295, -61033, -52557, -30454, 13157, -154296, -41116, 19772, 22527, -54860, 19046, -24944, -748269, -1664787, -21181, -9932}
#define CONV3_WT {0}
static const uint8_t CONV3_W_Z[] = 	 {-44, -99, -139, -183, -44, -32, -108, -49, -26, -184, -149, -159, -113, -42, -171, -172, -138, -12, -28, -23, -127, -92, -69, -153, -150, -4, -150, -5, -39, -105, -50, -5};
#define CONV3_IN_Z      	(0)
#define CONV3_OUT_Z     	(0)
static const int32_t CONV3_M_ZERO[] = 	 {1535521536, 1535962880, 1096385024, 1700372608, 1940151424, 1512056704, 1239471360, 1677852672, 1246477184, 1274070272, 1485687936, 1159316480, 1959899904, 1707831808, 1182953728, 1654011264, 1160769536, 1965058304, 1165419776, 1674222592, 1534032000, 1820737152, 1119798912, 2043100928, 1614699136, 1394797952, 1631783424, 1357020928, 1244935424, 1080325120, 1379694848, 1375658496};
static const int8_t CONV3_N_ZERO[] = 	 {0, 0, 0, 0, 0, 0, 0, 0, 0, 0, 0, 0, 0, 0, 0, 0, 0, 0, 0, 0, 0, 0, 0, 0, 0, 0, 0, 0, 0, 0, 0, 0};


/* Layer 4 Learned Parameters */
#define CONV4_BIAS \
 {5599, 72740, 56837, -394, 48657, 75614, 33952, 14423, 162406, 37332, -744, 182856, 6043, 19261, 27743, 55718, 11812, 56609, 67811, 4062, 73459, 1384, 236384, 6631, 69647, 150732, 14338, -88436, -270, -227, 158867, 3011}
#define CONV4_WT {0}
static const uint8_t CONV4_W_Z[] = 	 {37, -163, -147, -103, -150, -282, -6, -144, -228, 7, -248, 9, -117, -133, -158, -252, -45, -230, 67, -112, -108, -45, -284, 56, -182, -273, -105, 22, -262, -243, -225, -129};
#define CONV4_IN_Z      	(0)
#define CONV4_OUT_Z     	(0)
static const int32_t CONV4_M_ZERO[] = 	 {1445646592, 1594876672, 1758726400, 1236473728, 1212915840, 1858970368, 2028200192, 1373830528, 1695984640, 1850228096, 1436185728, 1812278144, 1100578432, 1657719808, 1619464320, 1240765312, 2092203648, 1306648576, 1798511104, 1553349888, 1743388288, -1681082624, 1973318016, 1128829312, 1933577088, 1854504192, 1355289216, 1924946816, 1327720448, 1328287232, 1988510592, 1215418880};
static const int8_t CONV4_N_ZERO[] = 	 {0, 0, 0, 0, 0, 0, 0, 0, 0, 0, 0, 0, 0, 0, 0, 0, 0, 0, 0, 0, 0, 0, 0, 0, 0, 0, 0, 0, 0, 0, 0, 0};


/* Layer 5 Learned Parameters */
#define CONV5_BIAS \
 {18605, -3374, -10649, 166387, 10333, 55719, 62695, -48910, -21358, -40596, -74859, 52138, -5562, 9980, 499, -36121, 39956, 3995, 44595, -8922, 43433, 98244, 17624, 6183, 26991, -19451, -17073, -16593, -16225, -21384, 253686, 26239, -12875, 90762, -37026, 52121, -27233, 8235, 8151, 10184, -37855, 41637, -26917, -5478, 25822, 80596, 50521, -44762, 31766, -36661, -29971, 24302, 99525, 47953, 136596, 24149, 1568, 44869, 43464, -4180, -517, 48571, 180683, -19365}
#define CONV5_WT {0}
static const uint8_t CONV5_W_Z[] = 	 {-160, -114, -62, -118, -131, -184, -228, -95, -58, -37, -35, -128, -168, -113, -109, -131, -130, -164, -219, -162, -199, -180, -166, -163, -135, -60, -86, -78, -101, -21, -148, -164, -94, -60, -103, -223, -42, -66, -121, -173, -50, -189, -22, -210, -132, -216, -104, -48, -189, -22, -121, -176, -97, -104, -170, -140, -175, -155, -102, -33, -99, -218, -164, -87};
#define CONV5_IN_Z      	(0)
#define CONV5_OUT_Z     	(0)
static const int32_t CONV5_M_ZERO[] = 	 {1910260096, 1692182784, 1369039360, 1634837632, 1530010624, 1701762944, 2147206272, 1739140864, 1177934080, 1779311872, 1567179904, 2048067712, 1171595392, 1196644608, 1775294464, 1540844160, 1216181248, 1614712704, 1643702784, 1185404800, 1932101888, 1485628544, 1823946240, 1120571008, 1371992960, 1502158336, 1954034176, 1267455744, 1316872576, 1116515584, 1310203776, 1439697408, 1277040768, 1943098368, 1113941248, 1439780096, 1273445504, 2081708544, 1905021056, 1211539072, 1283589760, 1900711680, 1544997376, 2030641664, 1598695808, 1750096384, 1291957504, 1155562112, 1108315776, 1409206400, 1498025600, 1757570560, 1552117120, 1650595328, 2115959168, 1275562880, 1242229760, 1208705408, 2098190208, 1310308224, 2042331264, 1324660352, 1126427008, 1991383168};
static const int8_t CONV5_N_ZERO[] = 	 {0, 0, 0, 0, 0, 0, 0, 0, 0, 0, 0, 0, 0, 0, 0, 0, 0, 0, 0, 0, 0, 0, 0, 0, 0, 0, 0, 0, 0, 0, 0, 0, 0, 0, 0, 0, 0, 0, 0, 0, 0, 0, 0, 0, 0, 0, 0, 0, 0, 0, 0, 0, 0, 0, 0, 0, 0, 0, 0, 0, 0, 0, 0, 0};


/* Layer 6 Learned Parameters */
#define CONV6_BIAS \
 {-1931, 280, 2125, 31538, 42268, 62348, 36204, 942, 5216, 2051, 21477, 10414, 13051, -2525, 650, 40720, 7200, 45161, 10850, -2205, 26889, 40036, 10874, 626, -1444, 23003, 3681, 19119, 3337, -6852, -45295, 1337, 12356, -42026, -17, 701, 28391, -1214, 13205, 4356, -120, -2393, 1225, 245, -41, 5945, 46851, 61, 1420, 3740, 1598, -72, -3103, 1969, 46319, 707, 4834, 18697, 11601, 52367, 35541, 6078, 19572, 50732}
#define CONV6_WT {0}
static const uint8_t CONV6_W_Z[] = 	 {-108, -109, -82, -232, -87, -231, -238, -176, -16, -91, -140, -148, -147, -96, -85, -172, -145, -155, -220, -52, -241, -215, -134, -33, -117, -247, -71, -165, -112, -108, -12, -115, -59, -31, -30, -74, -234, -101, -145, -77, -164, -90, -124, -90, -102, -36, -216, -120, -119, -117, -125, -99, -37, -138, -214, -134, -42, -82, -178, -165, -209, -124, -140, -223};
#define CONV6_IN_Z      	(0)
#define CONV6_OUT_Z     	(0)
static const int32_t CONV6_M_ZERO[] = 	 {1137095040, 1302582912, 1222909056, 1343711104, 1302373248, 2113278720, 1643659264, 1291779328, 1447554304, 1547870848, 1625586560, 1147674624, 1126396544, 2080140160, 1970282240, 1791986176, 1781631872, 1137056640, 1196624256, 1290836480, 1275488512, 1176450560, 2086259584, 1551608448, 1962426496, 2132101632, 2100739968, 1237092480, 1653737216, 1585396992, 1326957056, 1472382976, 1228200960, 1574114176, 1378191744, 1160738176, 1894017280, 1298348672, 1394519680, 1851099520, 2041606528, 1560944384, 1412363904, 1740178688, 1495145984, 1554232832, 1871336832, 1966258688, 1161601792, 1868284416, 1690483072, 1863227392, 1163162752, 1410718720, 1240153728, 1587020288, 1282628224, 1086681984, 1347783808, 2127505792, 1697548416, 1086681472, 1798195712, 1922115328};
static const int8_t CONV6_N_ZERO[] = 	 {0, 0, 0, 0, 0, 0, 0, 0, 0, 0, 0, 0, 0, 0, 0, 0, 0, 0, 0, 0, 0, 0, 0, 0, 0, 0, 0, 0, 0, 0, 0, 0, 0, 0, 0, 0, 0, 0, 0, 0, 0, 0, 0, 0, 0, 0, 0, 0, 0, 0, 0, 0, 0, 0, 0, 0, 0, 0, 0, 0, 0, 0, 0, 0};


/* Layer 7 Learned Parameters */
#define CONV7_BIAS \
 {-2919, -7084, -31103, -5715, 12139, -4455, -5327, -1539, 11883, -33167, 40981, 34385, 9075, -24931, 34664, -9839, 8312, -30938, 46439, -37368, 8631, 61352, 74310, 59981, 26719, 80329, 38810, 14160, -15694, -23436, 28470, -7791, 72660, 1807, 41591, -44568, 24599, 33267, -1829, 43497, 3447, 18513, -27663, -16514, 16388, 36173, 34679, 8657, 5511, 19871, -23010, -5963, 9124, -5501, 18466, -18117, -11564, 42736, 4128, 3898, -44385, -53547, 18744, -20743}
#define CONV7_WT {0}
static const uint8_t CONV7_W_Z[] = 	 {-171, -106, -141, -101, -118, -186, -62, -66, -50, -118, -62, -107, -92, -95, -86, -152, -149, -45, -219, -146, -132, -87, -144, -196, -95, -139, -155, -189, -113, -54, -198, -117, -162, -97, -184, -67, -151, -105, -170, -84, -112, -115, -63, -180, -172, -182, -125, -145, -73, -85, -150, -116, -101, -147, -157, -56, -104, -199, -147, -160, -112, -138, -96, -58};
#define CONV7_IN_Z      	(0)
#define CONV7_OUT_Z     	(0)
static const int32_t CONV7_M_ZERO[] = 	 {1332735488, 1361323136, 1183258112, 2095074816, 1372153472, 1277549312, 1520426240, 1825251712, 1998088704, 1662835584, 1320945536, 1259578368, 1102329856, 1594618752, 2044275200, 1969456768, 1967999488, 1137068416, 1275269248, 1842703104, 1919079808, 1467544704, 1493439104, 1650855168, 1252182784, 1546784384, 1463400832, 1282208128, 1265548288, 1595256960, 1283921536, 1759552640, 2086190464, 1233886336, 1357147904, 1954344192, 1118710016, 2074593408, 1595622528, 1512719488, 1074446336, 1979505920, 1895832192, 1485411456, 2143802624, 1530719232, 1294777728, 1516662784, 1173945984, 1558397696, 2064062848, 1544103552, 1108617472, 1117403008, 1884805760, 1666998016, 1273954048, 1558185344, 1450674304, 1225031296, 2118295936, 1179446400, 1641342464, 1970558336};
static const int8_t CONV7_N_ZERO[] = 	 {0, 0, 0, 0, 0, 0, 0, 0, 0, 0, 0, 0, 0, 0, 0, 0, 0, 0, 0, 0, 0, 0, 0, 0, 0, 0, 0, 0, 0, 0, 0, 0, 0, 0, 0, 0, 0, 0, 0, 0, 0, 0, 0, 0, 0, 0, 0, 0, 0, 0, 0, 0, 0, 0, 0, 0, 0, 0, 0, 0, 0, 0, 0, 0};


/* Layer 8 Learned Parameters */
#define CONV8_BIAS \
 {88040, 337039, 11632, 215, 61523, 82796, 185274, 2577, 263104, 105260, -84080, 13435, 402, 29626, -62858, 17513, 221417, 7600, 537, 209810, 3961, 1728, -2895, -229, 215456, 127851, 170813, 70484, 5184, 160381, -134, 11495, 255112, 259526, 39290, 1913, -663, -738, 2211, -34220, -1468, -48741, -694, 13058, 65097, 2686, 56832, 75665, 153894, 2665, 11035, 102372, 199484, 127249, 10775, 32567, 10202, 15990, 22048, 67854, 94774, 130239, 92038, 17271}
#define CONV8_WT {0}
static const uint8_t CONV8_W_Z[] = 	 {-364, -370, 91, 88, -325, -312, -337, 48, -296, -281, 55, -86, 0, 68, 77, 60, -292, 74, 61, -332, -162, -100, -152, -106, -346, -246, -307, -353, 48, -299, 50, 42, -320, -297, -141, 43, -109, -145, 45, 25, 47, 44, -159, 51, -361, 66, -268, -398, -309, -154, 86, -323, -329, -292, 48, -285, 58, 43, -302, -361, -339, -292, -169, -126};
#define CONV8_IN_Z      	(0)
#define CONV8_OUT_Z     	(0)
static const int32_t CONV8_M_ZERO[] = 	 {1185288960, 1965836672, 1112700032, 1175406720, 1273970560, 1451877760, 1343360128, 1818320640, 1546007424, 2134744320, 1267593600, 1926677760, 1363673088, 1327519360, 1320027392, 1315542144, 1151267200, 1240803200, 1095090560, 1172503424, 1163042432, 1218361472, 1476109568, 1462926592, 1345372032, 1373664512, 2026308736, 1436791040, 1219413888, 1233699712, 1228922752, 1165094400, 1732501632, 1396456192, 1920004480, 1544468992, 1314231168, 2132683520, 1394098944, 1195012736, 1532107648, 1651713408, 1823186688, 1837271808, 1624837248, 1377148288, 1351053568, 1258240000, 1157159936, 1898260864, 1086437504, 2072620928, 1531925760, 1679757312, 1740701568, 1625744512, 1447039744, 1339147776, 1080674432, 1423566464, 1410646144, 2130225280, 1798990720, 2093451392};
static const int8_t CONV8_N_ZERO[] = 	 {0, 0, 0, 0, 0, 0, 0, 0, 0, 0, 0, 0, 0, 0, 0, 0, 0, 0, 0, 0, 0, 0, 0, 0, 0, 0, 0, 0, 0, 0, 0, 0, 0, 0, 0, 0, 0, 0, 0, 0, 0, 0, 0, 0, 0, 0, 0, 0, 0, 0, 0, 0, 0, 0, 0, 0, 0, 0, 0, 0, 0, 0, 0, 0};


/* Layer 9 Learned Parameters */
#define CONV9_BIAS \
 {65006, -21648, 53945, 55107, 28142, -20483, 154087, 59811, 64492, 14170, -19212, 433, -674, 52301, 32770, 23923, 24292, 7380, 7625, 21790, 57875, 26277, 22547, 72062, 26859, 33554, 40285, 18290, 23222, -1048, 41592, 13485, 17212, 45244, 64877, 57932, 29369, 21870, 43416, -7049, 44734, -1341, -757, 1064, -48203, 30098, 29230, -2118, 12876, 37073, 7908, -15939, 34418, 18412, 81012, 40377, 40352, -23789, -10115, 30461, 48465, 46904, 44671, 23060, 48175, 948, 29497, 63231, -29553, 46289, 58731, 535, 31306, 28090, -2628, 36124, 66597, 17637, 22746, 66402, 14614, 35870, -41011, -22689, 5523, 33711, 9831, 2392, 69701, 29431, 37848, 24331, 33850, 22369, 6222, 150004, 8487, 46431, 19670, 46788, 48512, 1364, 14686, -10432, 63550, 14477, 72854, 32726, 82651, 9354, -12131, 37143, 47967, 53219, 6722, 39895, -44404, -1369, 19921, 59972, -14681, 42729, 56587, -21413, 22548, 86932, 71993, 30013}
#define CONV9_WT {0}
static const uint8_t CONV9_W_Z[] = 	 {-110, -167, -194, -98, -95, -122, -141, -155, -104, -102, -83, -67, -186, -152, -141, -121, -100, -122, -64, -115, -156, -103, -167, -184, -157, -134, -106, -108, -101, -131, -149, -140, -150, -126, -120, -143, -120, -106, -115, -49, -167, -81, -30, -59, -76, -126, -183, -131, -156, -84, -173, -118, -75, -183, -138, -134, -120, -82, -127, -163, -141, -150, -193, -153, -157, -127, -87, -137, -89, -164, -138, -168, -91, -123, -107, -103, -127, -156, -88, -147, -125, -121, -114, -129, -64, -127, -52, -103, -149, -154, -101, -120, -107, -120, -117, -131, -141, -107, -86, -145, -171, -143, -94, -87, -72, -91, -123, -193, -168, -64, -70, -111, -124, -160, -150, -121, -92, -162, -142, -173, -42, -86, -182, -60, -87, -118, -155, -172};
#define CONV9_IN_Z      	(0)
#define CONV9_OUT_Z     	(0)
static const int32_t CONV9_M_ZERO[] = 	 {1612346880, 1752095104, 1880346112, 2079196032, 1855890816, 1879128704, 1621956096, 2060369792, 1092299136, 1928777216, 1468485248, 1650482048, 1340422144, 1731914752, 1302090880, 1249761792, 1789095680, 1418987264, 1096752000, 1462126464, 2027371776, 1552338176, 1333721600, 1692704384, 1415209600, 1736000640, 1204662656, 1901823360, 1757762560, 1141516288, 1894003200, 1596257152, 2042644096, 1838736256, 1139735168, 1454482688, 1522377984, 1729027968, 1928216448, 1440063232, 1974370944, 1860630272, 1471006976, 1578088320, 2088131968, 1182906240, 1361792128, 1091057920, 1270018432, 1887825920, 1152867456, 1269808384, 1761592320, 1663499776, 1745003264, 1288400512, 1415630592, 1988348032, 1292050560, 1448572032, 2134827008, 1805365376, 1236520320, 2032622208, 1844257280, 1130225792, 1232037376, 1299814016, 1543966592, 1695870592, 1331096832, 1986081152, 1924234624, 1255283584, 1103676288, 1696082688, 1417472000, 1122974464, 1200631168, 1190016384, 1649777792, 1260027520, 1865592448, 1809415424, 1735761152, 1768110848, 1886705152, 1174373632, 1446452736, 1889116800, 1264387456, 1284356736, 1224582400, 1511989120, 1477680128, 2092270208, 1817802496, 1750813184, 1650951040, 1567392896, 1810904576, 1764472448, 1953275520, 1918170368, 1125644800, 1909063424, 1248612992, 1994976896, 1619916800, 2050687360, 1644725120, 1980969344, 1554749568, 1377814784, 1654626176, 1110778368, 1964650240, 1991781376, 1118243456, 1406148224, 1269482624, 2140102528, 1212563328, 1730078080, 1699422592, 1658275712, 1642157824, 1985234048};
static const int8_t CONV9_N_ZERO[] = 	 {0, 0, 0, 0, 0, 0, 0, 0, 0, 0, 0, 0, 0, 0, 0, 0, 0, 0, 0, 0, 0, 0, 0, 0, 0, 0, 0, 0, 0, 0, 0, 0, 0, 0, 0, 0, 0, 0, 0, 0, 0, 0, 0, 0, 0, 0, 0, 0, 0, 0, 0, 0, 0, 0, 0, 0, 0, 0, 0, 0, 0, 0, 0, 0, 0, 0, 0, 0, 0, 0, 0, 0, 0, 0, 0, 0, 0, 0, 0, 0, 0, 0, 0, 0, 0, 0, 0, 0, 0, 0, 0, 0, 0, 0, 0, 0, 0, 0, 0, 0, 0, 0, 0, 0, 0, 0, 0, 0, 0, 0, 0, 0, 0, 0, 0, 0, 0, 0, 0, 0, 0, 0, 0, 0, 0, 0, 0, 0};


/* Layer 10 Learned Parameters */
#define CONV10_BIAS \
 {21657, 1421, -531, 14802, 138, -7610, 231024, 22748, 35735, -9600, 45, 3311, 12254, -503, -14273, 821, 34960, 34051, -45, 3011, 67, -271, 10725, 70603, 13147, 181038, 3076, 527, 5921, -383, -880, -544, -4880, -1119, 484, 11188, 33765, -708, -6270, -44783, 881, 29160, 16106, -479, -3142, 52575, 38198, 1015, -6917, 24995, -27, 32522, -349, 1360, -359, -8, -500, -8282, 62041, -4643, 35, 20947, 8831, 243, 32786, 44392, 38245, -2559, -3234, -314, 33003, 2053, 1341, -1649, -902, 1601, 55637, 26183, 266, -6878, 6216, 4786, 13457, -5655, 17075, 19056, -997, 33828, -18490, -1392, 18988, 6749, 11637, 5917, 17918, 34218, 13916, 1572, -4272, 33442, -9687, -5734, 9062, -1154, -10962, 22861, 1171, 13482, 30779, -2092, 25462, 2712, -2246, -1070, 11704, 829, 2430, 29679, 48445, 33574, 1777, 47, -2868, -16435, 16206, 40, 18289, 383}
#define CONV10_WT {0}
static const uint8_t CONV10_W_Z[] = 	 {-244, -114, -42, -141, -107, -86, -224, -230, -139, -24, -25, -150, -47, -110, -41, -116, -235, -235, -122, -145, -121, -108, -172, -238, -225, -238, -152, -100, -26, -128, -154, -107, -24, -113, -89, -86, -235, -84, -21, 85, -73, -223, -219, -128, -41, -210, -202, -139, -22, -239, -130, -208, -83, -22, -126, -35, -99, -28, -336, -77, -113, -232, -88, -142, -210, -241, -259, -62, -23, -105, -103, -141, -89, -131, -92, -136, -245, -263, -157, -55, -65, -49, -70, -27, -202, -224, -30, -230, -24, -153, -204, -51, -69, -45, -172, -233, -106, -119, -93, -221, -43, -42, -217, -59, -20, -230, -128, -235, -238, -38, -220, -140, -48, -88, -33, -114, -102, -218, -214, -236, -15, -129, -77, -27, -229, -109, -55, -21};
#define CONV10_IN_Z      	(0)
#define CONV10_OUT_Z     	(0)
static const int32_t CONV10_M_ZERO[] = 	 {1651416192, 1125148288, 1125120256, 2031286656, 1619035136, 1165768064, 1560719104, 1746761728, 2095544064, 1159268480, 1480719616, 1769997184, 1680414080, 1702117504, 1637322240, 2124879360, 1727912448, 2028153472, 2117629952, 1168444032, 1523117696, 1680178944, 1177213056, 1928836736, 1433395200, 1755045248, 1137815296, 1331618560, 1118093696, 1596791424, 1497516288, 1956175360, 2105575296, 1731316352, 1600611968, 1471327360, 1164431232, 1247190144, 1520436736, 1366432768, 1545506048, 1786629248, 1887927168, 1266425600, 1417443840, 1928242176, 1975890688, 1668106752, 1484871168, 2112511360, 1304266496, 1228739072, 1406057728, 1588935552, 1103786368, 1198584448, 1980186240, 1390684544, 1611726208, 1841027456, 1321906048, 2092172672, 2128791808, 1192729216, 1950594560, 1378352512, 1864285440, 1629754624, 1383356672, 1841300224, 1324079488, 2095383680, 1711071104, 1411176576, 1148392448, 2049969152, 1118282368, 1108887680, 1880175616, 1920810496, 1464552960, 1334517248, 1838085120, 1377419520, 1264411648, 1423354496, 1206883584, 1388712576, 1540686208, 1848187904, 2048133504, 1319644928, 1952282752, 1591701888, 1233204224, 1269558272, 1901242752, 2104102528, 1178350592, 1485552512, 1373546112, 1851239936, 1291812096, 1382952064, 1146106368, 1568423040, 1331172224, 1157296640, 1500884736, 1464323456, 1597644032, 1778362496, 1189780992, 1673171456, 2087420928, 2104570112, 2089250560, 2015202816, 1174740992, 1358386816, 1715660672, 1961343616, 1842411392, 1889356800, 1651433216, 1432258432, 2057861760, 1613810816};
static const int8_t CONV10_N_ZERO[] = 	 {0, 0, 0, 0, 0, 0, 0, 0, 0, 0, 0, 0, 0, 0, 0, 0, 0, 0, 0, 0, 0, 0, 0, 0, 0, 0, 0, 0, 0, 0, 0, 0, 0, 0, 0, 0, 0, 0, 0, 0, 0, 0, 0, 0, 0, 0, 0, 0, 0, 0, 0, 0, 0, 0, 0, 0, 0, 0, 0, 0, 0, 0, 0, 0, 0, 0, 0, 0, 0, 0, 0, 0, 0, 0, 0, 0, 0, 0, 0, 0, 0, 0, 0, 0, 0, 0, 0, 0, 0, 0, 0, 0, 0, 0, 0, 0, 0, 0, 0, 0, 0, 0, 0, 0, 0, 0, 0, 0, 0, 0, 0, 0, 0, 0, 0, 0, 0, 0, 0, 0, 0, 0, 0, 0, 0, 0, 0, 0};


/* Layer 11 Learned Parameters */
#define CONV11_BIAS \
 {40231, 16006, -20255, 8289, 36179, -19871, 31923, -24581, 40564, -9099, 11390, 6744, 62754, -16431, 31105, 42994, -4375, 46923, -14491, -16588, -21801, -7536, 10973, -96204, -20789, 13950, 27907, 4332, 62164, 18961, 30413, -26891, 21280, 32161, 48084, 5843, -13427, -1649, 10665, 4401, -31759, -9295, 22464, -9065, -3678, -15351, 106805, 3553, -3272, -23297, -16614, 21049, 5187, 38859, 1731, -35210, 18311, 9200, 21775, 61388, 9984, -8237, 18531, -1399, 55070, -29495, 32098, 3112, 69350, 18927, 21318, -22365, 23145, -1963, -9775, 49996, -53065, -24360, 22696, 40513, 41158, -24768, -2222, 80009, 720, 9875, 9592, -7246, -20072, -31654, 17111, -22624, -19332, -22494, 22488, 14399, -12410, 19149, -5215, -479, -19413, -783, 32043, -46595, 26519, -41065, 9228, 20220, -57735, -2114, 1035, 36948, -12578, -9563, 12423, -28736, 14381, 9932, 21099, -11657, 15784, -15721, 20184, 22519, -8589, 42416, 64906, 16963}
#define CONV11_WT {0}
static const uint8_t CONV11_W_Z[] = 	 {-70, -110, -100, -139, -150, -122, -75, -123, -131, -120, -130, -69, -136, -122, -188, -111, -161, -124, -132, -88, -135, -166, -175, -93, -120, -149, -158, -145, -78, -160, -106, -114, -154, -114, -146, -176, -129, -107, -117, -146, -122, -165, -127, -104, -83, -145, -116, -108, -95, -103, -103, -146, -121, -111, -138, -84, -133, -136, -121, -83, -105, -133, -141, -96, -124, -76, -169, -125, -169, -159, -121, -138, -127, -122, -54, -126, -125, -103, -140, -136, -131, -118, -99, -154, -153, -133, -109, -58, -180, -129, -69, -92, -131, -129, -155, -117, -136, -135, -169, -43, -93, -37, -169, -152, -125, -120, -149, -99, -152, -55, -87, -167, -102, -133, -168, -121, -140, -76, -135, -98, -99, -127, -115, -202, -163, -175, -138, -159};
#define CONV11_IN_Z      	(0)
#define CONV11_OUT_Z     	(0)
static const int32_t CONV11_M_ZERO[] = 	 {1747901184, 1927672064, 1437532032, 1087411072, 1377133696, 1656322688, 1660591616, 2059774080, 1505573632, 1464326784, 2083244928, 1270972160, 1355937408, 1310699904, 1402416896, 1573379712, 1214686080, 2103242112, 1764056704, 1910898816, 1782429568, 1421804416, 1738903808, 1212551424, 1477647360, 1268037632, 1361320704, 1638669696, 1424712064, 1074493824, 1884200448, 1809870848, 1611730944, 1408888448, 1334301440, 1385550080, 2062272000, 1152786816, 1293201920, 1405635968, 1990297344, 1751748992, 2060262528, 1685950848, 1676360960, 1977857408, 1602546816, 1976509824, 1373451520, 1224101120, 1989666432, 1238138752, 1220444160, 2127056640, 1947394432, 1646895232, 1454469248, 1495793280, 1552825216, 1146113280, 1076369152, 1911872000, 1895806336, 1806737664, 1155672704, 1250882048, 1976604032, 1919513600, 1810462336, 1606726784, 1580873216, 1426596992, 2100779648, 1122555520, 1995632128, 1894325888, 1307990400, 1637592192, 1256958336, 1327403264, 1111482752, 1104816640, 1829988224, 2079859200, 1502718848, 1780486656, 1182640512, 1580277376, 2055405056, 1150618880, 1223769344, 1167670016, 2124285568, 2072402432, 2113711488, 1157139584, 1173963136, 1298511872, 1599233408, 1193264768, 1840759680, 1318348032, 1088923264, 1356734336, 2039131776, 1147178624, 1458086528, 1263977344, 1341296000, 1305008384, 1128674560, 1817670400, 1721659008, 1220289408, 1534496640, 1655856896, 2081295616, 1479157760, 1286734848, 2100477568, 1553076864, 1804333440, 2015274240, 1752646272, 1534015616, 1944442752, 1729719424, 1597579520};
static const int8_t CONV11_N_ZERO[] = 	 {0, 0, 0, 0, 0, 0, 0, 0, 0, 0, 0, 0, 0, 0, 0, 0, 0, 0, 0, 0, 0, 0, 0, 0, 0, 0, 0, 0, 0, 0, 0, 0, 0, 0, 0, 0, 0, 0, 0, 0, 0, 0, 0, 0, 0, 0, 0, 0, 0, 0, 0, 0, 0, 0, 0, 0, 0, 0, 0, 0, 0, 0, 0, 0, 0, 0, 0, 0, 0, 0, 0, 0, 0, 0, 0, 0, 0, 0, 0, 0, 0, 0, 0, 0, 0, 0, 0, 0, 0, 0, 0, 0, 0, 0, 0, 0, 0, 0, 0, 0, 0, 0, 0, 0, 0, 0, 0, 0, 0, 0, 0, 0, 0, 0, 0, 0, 0, 0, 0, 0, 0, 0, 0, 0, 0, 0, 0, 0};


/* Layer 12 Learned Parameters */
#define CONV12_BIAS \
 {-422, 537, 63975, 99180, 235833, 22388, 105916, 203825, 550, 242630, 204808, -7948, 3778, -410, 196356, 115689, 166894, 1546, 75790, -86, 17524, -573, -4258, 36168, 83687, 7187, 188265, 75138, 230759, 61190, -1361, 1642, 571, 221274, 196056, -1845, -250, 4812, 7948, 24750, 1194, 18510, 18018, 1404, 4503, 221051, 3247, 3574, 94481, -7193, 1207, 396, -583, 2260, 78111, -50, 1922, 7762, 136282, 4355, -2632, 80554, -1211, 131812, 199698, 9651, 4437, 153663, 184778, 9793, -306, 3953, 6071, 9749, 170095, 2534, -1038, -6400, 55346, 127234, 3386, -2039, 44030, 98290, 27763, 75698, -11817, 107726, -489, 154679, 77487, 623, 117422, 2478, 314, 9997, 208, 83086, 71086, 71545, 43651, 67721, 10789, 16396, 117133, 186856, -4858, 85752, -1140, 89222, 4412, 158, 2809, 3221, 7389, 72291, 4175, -9014, 192040, 10013, 83659, 3792, 98857, 167841, 216967, 377, 840, -1535}
#define CONV12_WT {0}
static const uint8_t CONV12_W_Z[] = 	 {-152, -89, -358, -329, -345, 71, -301, -325, -104, -324, -339, 83, 85, 57, -323, -337, -322, -162, -323, 56, -144, 56, 69, 43, -288, 105, -303, -320, -327, -300, 75, 85, 66, -324, -302, 76, 92, 79, 51, 97, 28, 69, -107, 74, 77, -326, -168, 64, -386, 67, 54, 57, 84, 73, -312, 54, 52, 64, -363, -97, 65, -334, 80, -317, -319, 91, 74, -291, -313, 55, -90, -134, 82, 66, -327, -101, 79, 55, -321, -327, 79, 87, -346, -298, 68, -369, -59, -324, -7, -331, -287, 43, -313, 80, 62, 59, 102, -300, -371, -310, -370, -315, 46, 28, -313, -323, 38, -277, 48, -321, 88, 80, 72, 101, 66, -155, 96, 74, -333, 83, -239, 46, -363, -315, -382, 26, -96, 76};
#define CONV12_IN_Z      	(0)
#define CONV12_OUT_Z     	(0)
static const int32_t CONV12_M_ZERO[] = 	 {1210946432, 1179338496, 1637617152, 1304604544, 2052174976, 1149307008, 1735315456, 1517146496, 1717113856, 1862090112, 1179553152, 1816140544, 1804844416, 1594560896, 2038665856, 1427520896, 2005679488, 1395759872, 1220889984, 1236831232, 1886107648, 2094767232, 1828210816, 1492439424, 1218630784, 1606132224, 1534536064, 1554610048, 1400595840, 1981433728, 1962183936, 1493903360, 1145400320, 1466414464, 1179425536, 1129186048, 2020603392, 1869011200, 1082543488, 1252050176, 2056423552, 1891654912, 1693740288, 1261187584, 2128057728, 2008590464, 1670131072, 1403680512, 1820217472, 2146710528, 1608587392, 1317640960, 1688520064, 1696237952, 1283262592, 1673873664, 1544302848, 1477821952, 1755900288, 1512035968, 1804422656, 1743474048, 1568862848, 1575935488, 1571640960, 1167022080, 1889678464, 1577247104, 1893858304, 1664547328, 1408639360, 1087648256, 1983222144, 1402009728, 1435287680, 1391718272, 1309409408, 1306032384, 1109561216, 1587374208, 1479405440, 1234801280, 1886828672, 1128625152, 1276017024, 1429852032, 1983994112, 1856962176, 1531726976, 1335848320, 1820078080, 1629678080, 1433039872, 1435813888, 1670872448, 1495018112, 1417681792, 1208964992, 1306433920, 1219469440, 1986763904, 1871904000, 1814394624, 1365799296, 1113433728, 1140032512, 1689053440, 2058366976, 1451175168, 1290328704, 1667810688, 1097371136, 1394285952, 1079650944, 2126052224, 1815601792, 1616225920, 1290686208, 1794457216, 1549346304, 1758458368, 2104836096, 1273651968, 1430546688, 1998385920, 1225803264, 1669114880, 1163297920};
static const int8_t CONV12_N_ZERO[] = 	 {0, 0, 0, 0, 0, 0, 0, 0, 0, 0, 0, 0, 0, 0, 0, 0, 0, 0, 0, 0, 0, 0, 0, 0, 0, 0, 0, 0, 0, 0, 0, 0, 0, 0, 0, 0, 0, 0, 0, 0, 0, 0, 0, 0, 0, 0, 0, 0, 0, 0, 0, 0, 0, 0, 0, 0, 0, 0, 0, 0, 0, 0, 0, 0, 0, 0, 0, 0, 0, 0, 0, 0, 0, 0, 0, 0, 0, 0, 0, 0, 0, 0, 0, 0, 0, 0, 0, 0, 0, 0, 0, 0, 0, 0, 0, 0, 0, 0, 0, 0, 0, 0, 0, 0, 0, 0, 0, 0, 0, 0, 0, 0, 0, 0, 0, 0, 0, 0, 0, 0, 0, 0, 0, 0, 0, 0, 0, 0};


/* Layer 13 Learned Parameters */
#define CONV13_BIAS \
 {28666, 9003, 23784, 70155, 2839, -36010, 27229, -11641, 43735, 10047, 78879, 16775, -8273, 64742, 50799, 113610, -19636, 38149, 30774, 11686, -14153, -26305, 88002, 63200, -1898, -7116, 12681, -1409, 62655, 97114, 377, 84222, 29044, 89137, 43137, -9114, 35876, 18171, 69350, -7955, -17574, 201, 34638, 53022, 66130, 35983, 8212, 82241, 2749, 16442, 64569, 78246, 7397, 33245, 6804, -21295, 22994, -32301, 87865, 38258, 34173, 14690, -1930, -260, 71356, 42361, 30596, 75602, 34215, 20084, 9237, 13455, -1360, 34648, -536, 54401, 49944, 73532, -1194, 32024, 20135, -16534, 46080, 135121, -7161, -7898, -74401, 48411, -6145, 41311, 74690, 10891, 17659, -10877, 61, 95293, 18742, 28501, 20841, -24246, 1698, -16103, 45980, 2166, 125552, -17393, 11850, 7751, -4451, 44366, -3881, 18027, 49761, 94322, -27420, 52333, 16222, 64258, 49130, 61505, 49466, 21387, 42671, -28523, -56577, 33959, 44666, 6347, 119854, -2443, -8348, 61583, -23424, -36848, 48004, 53984, 3054, 27507, 58420, 24634, 912, 61303, 30047, -26225, 6070, -3649, 36772, 75505, 15486, 48465, 47992, 19727, 105098, -16589, -274, -6219, 20813, 60259, 25823, 76303, -12490, 2856, 47370, 20212, 21751, 103168, -34503, 38034, 62634, 8742, 58233, 69489, 54356, 40443, 71199, 80737, 14581, 5385, 87180, -2899, -26388, 19274, 12627, 39474, 11528, 92996, 64935, 30532, 45413, 37793, 36705, -1636, 43790, -45309, -31675, 56477, 50658, 73412, 21866, -890, 63012, -4450, 68146, -9520, -16448, 71479, 38783, 37931, 8063, 9899, 25575, 49967, -1749, 29557, 43794, 27261, 34079, 27068, 49661, 36522, -41155, 65151, -611, 9158, 11957, 16354, 41318, 38732, -28789, 27133, 26391, 118722, 30223, -49332, 24510, -4942, 42615, 21889, 32324, -4244, 12413, -26882, 22074, 1608, -50490, 882, 26164, 8649, 5669, -1414, 15768, 78312, 46035, 56599, 50656, 28548}
#define CONV13_WT {0}
static const uint8_t CONV13_W_Z[] = 	 {-173, -139, -154, -95, -152, -140, -124, -42, -136, -112, -142, -129, -106, -175, -158, -126, -106, -115, -140, -122, -151, -44, -137, -133, -85, -112, -172, -75, -163, -143, -137, -107, -105, -171, -124, -132, -112, -148, -150, -80, -107, -30, -166, -105, -169, -123, -103, -151, -152, -104, -123, -186, -100, -103, -55, -80, -111, -113, -131, -82, -115, -154, -77, -106, -175, -138, -127, -132, -157, -117, -133, -122, -122, -73, -78, -129, -132, -107, -86, -110, -70, -110, -134, -189, -174, -132, -111, -127, -69, -168, -145, -101, -166, -78, -71, -142, -84, -129, -85, -52, -98, -81, -139, -75, -180, -102, -130, -121, -116, -143, -73, -114, -116, -116, -112, -150, -129, -147, -136, -79, -167, -76, -108, -100, -97, -107, -132, -74, -134, -106, -168, -114, -124, -69, -86, -90, -111, -134, -145, -86, -75, -152, -151, -97, -106, -77, -126, -133, -133, -165, -114, -101, -168, -60, -113, -83, -153, -133, -142, -150, -91, -73, -106, -92, -116, -170, -59, -132, -147, -124, -186, -125, -190, -113, -135, -145, -75, -119, -122, -61, -145, -135, -162, -136, -85, -153, -99, -70, -122, -129, -117, -79, -214, -111, -66, -129, -115, -101, -122, -176, -140, -95, -168, -135, -117, -153, -128, -89, -71, -111, -161, -158, -98, -139, -87, -110, -85, -98, -96, -87, -64, -120, -89, -106, -171, -133, -136, -137, -98, -115, -132, -165, -134, -129, -115, -93, -89, -118, -156, -145, -58, -140, -116, -160, -107, -113, -110, -118, -111, -100, -59, -175, -109, -172, -141, -113};
#define CONV13_IN_Z      	(0)
#define CONV13_OUT_Z     	(0)
static const int32_t CONV13_M_ZERO[] = 	 {2012113920, 1460070016, 1271195776, 1670684544, 1240203008, 1371228416, 1936471424, 1522522752, 2077348480, 1098716928, 1520605568, 1365516288, 1097788032, 1119038080, 1187277056, 1886732160, 1363542400, 2111058432, 2075082880, 1420460160, 2139328768, 1989605248, 1816838272, 1762104064, 1894375424, 1252573312, 1287330688, 1721875072, 1140490752, 1587240576, 2071288064, 1518437504, 1238150016, 1330229376, 1470236928, 1919558528, 2139022592, 1525748608, 1619856384, 1180676992, 1105478144, 1449013376, 1861322496, 1763623680, 2103802112, 1364305024, 1417494912, 1583213824, 1876878976, 1959322112, 1901644416, 1271506816, 1689678720, 1729008128, 1466575104, 1859226368, 1078605696, 1479117824, 1206559616, 1625267712, 1234941824, 1174931840, 1243645056, 1713624576, 1693394048, 1786610432, 2055254144, 1398409472, 1275839488, 1133492736, 1441028224, 1533445504, 1564187904, 1635970816, 1781880576, 1568495104, 2090012672, 1710606464, 2036497280, 1423566080, 1527574528, 1523066240, 1325009152, 1622927232, 1277358208, 1280883712, 1569918336, 1708154496, 1904528896, 1286381824, 1662120192, 2092325888, 1081454336, 1815481984, 2054773760, 1308573440, 1539145600, 2071196544, 1406434176, 1183598080, 1084070784, 2079619072, 1376231040, 1138897408, 1822785408, 1643300992, 1986826496, 1266767104, 1180422912, 1826945408, 1848234624, 1183169152, 1670093440, 1271893248, 1373858944, 2146208896, 1298506752, 1905464064, 1139172608, 1821327488, 1242655360, 2027257984, 1526706176, 1807990912, 1203206272, 1279708800, 1117862016, 2119299456, 1082140672, 1099154048, 1960059776, 1679973120, 1236786048, 1382685440, 1132724864, 1496577664, 1183083648, 1392537856, 2083582720, 1938165888, 1284972288, 1179779072, 1606020992, 2057775488, 1640199936, 1704740224, 1273107968, 1623466112, 1371662208, 1868191488, 1138648064, 1771331968, 2008417408, 1497766400, 2116120960, 1326572800, 1836675584, 1505226752, 1539535872, 2014495232, 1862647168, 1932878720, 1909234432, 1438020864, 1768709760, 1455401472, 1171156864, 1120102016, 1608157952, 1763399424, 1110788608, 1339384960, 1505088384, 1335989376, 1560802176, 1568458368, 1561358336, 1756827648, 1338790272, 1157523712, 1725002752, 1713179136, 1146748032, 1283432064, 1332704000, 1833825280, 1664642176, 1705898496, 1492962304, 1134065408, 1654413312, 1322820352, 1990503680, 1135668224, 1872322432, 1177297408, 1714683136, 1310247808, 1314283520, 1503089664, 1204644224, 1821175296, 1655714432, 1260571264, 1891213568, 1103793408, 2135111424, 1586037120, 1705871616, 1163806976, 1959589760, 1469394816, 2125644416, 1930845440, 1345085568, 1911924864, 1722928640, 1964453376, 1103651968, 1490802176, 1497719680, 1424041088, 1115395840, 1983238784, 1131309696, 1627451392, 1191450112, 1079329152, 2087070848, 1560482688, 1948574336, 1390854400, 1233367552, 1624975104, 1255602816, 1116800896, 1614656896, 1667286656, 1534971776, 1717655168, 1803853952, 1839405568, 1105870848, 1463516672, 1813007744, 1648700160, 2135292416, 1521735168, 1309201280, 1677750272, 1279396352, 1744806784, 1283118208, 1810732544, 1107075200, 1931125632};
static const int8_t CONV13_N_ZERO[] = 	 {0, 0, 0, 0, 0, 0, 0, 0, 0, 0, 0, 0, 0, 0, 0, 0, 0, 0, 0, 0, 0, 0, 0, 0, 0, 0, 0, 0, 0, 0, 0, 0, 0, 0, 0, 0, 0, 0, 0, 0, 0, 0, 0, 0, 0, 0, 0, 0, 0, 0, 0, 0, 0, 0, 0, 0, 0, 0, 0, 0, 0, 0, 0, 0, 0, 0, 0, 0, 0, 0, 0, 0, 0, 0, 0, 0, 0, 0, 0, 0, 0, 0, 0, 0, 0, 0, 0, 0, 0, 0, 0, 0, 0, 0, 0, 0, 0, 0, 0, 0, 0, 0, 0, 0, 0, 0, 0, 0, 0, 0, 0, 0, 0, 0, 0, 0, 0, 0, 0, 0, 0, 0, 0, 0, 0, 0, 0, 0, 0, 0, 0, 0, 0, 0, 0, 0, 0, 0, 0, 0, 0, 0, 0, 0, 0, 0, 0, 0, 0, 0, 0, 0, 0, 0, 0, 0, 0, 0, 0, 0, 0, 0, 0, 0, 0, 0, 0, 0, 0, 0, 0, 0, 0, 0, 0, 0, 0, 0, 0, 0, 0, 0, 0, 0, 0, 0, 0, 0, 0, 0, 0, 0, 0, 0, 0, 0, 0, 0, 0, 0, 0, 0, 0, 0, 0, 0, 0, 0, 0, 0, 0, 0, 0, 0, 0, 0, 0, 0, 0, 0, 0, 0, 0, 0, 0, 0, 0, 0, 0, 0, 0, 0, 0, 0, 0, 0, 0, 0, 0, 0, 0, 0, 0, 0, 0, 0, 0, 0, 0, 0, 0, 0, 0, 0, 0, 0};


/* Layer 14 Learned Parameters */
#define CONV14_BIAS \
 {-252, 2226, 8978, 85, -2893, 10144, 96, 12172, -3371, -4616, -42, -4660, 5032, 451, 647, 439, -194, 565, 18208, 992, 1653, -109, -313, 1330, -4291, 4100, 39459, -51, 1528, 4557, 838, -456, 24244, -5465, -18788, 13355, -6744, 1048, 52408, 37594, 166071, 74234, 28245, 2449, 237, -10300, -7006, -145, 24641, -806, 18154, 757, 72, -241, 269, 7408, -5238, 10442, -12406, 420, -651, 13998, 673, 262, -2230, -11200, 18710, 48, -710, 11639, 2064, -166, 80, 423, -2600, 1948, -190, 5937, 12812, -2907, -9192, 34175, -3633, 3893, 5381, 97636, 56106, 111, -10672, 1038, 1882, 4267, -25401, 1146, 408, 18566, 4500, -599, 31676, 167, 1601, 13516, -17258, -653, 2848, 5725, -14787, 13683, 11825, -7666, 1271, 4155, 23850, 2107, -8612, 17818, 4372, 15645, 21019, 27940, 14429, 17789, 10288, 93785, -4734, 1505, 15655, 50027, 252, 30, -366, 4345, -2465, 1528, -2837, 87339, -165, 98, 61635, 237, 4564, 31498, 24297, -9632, 17019, -30, 9092, 24228, -2243, 1977, 12948, -24572, 9234, 14738, -13255, 525, 1012, 8152, 2426, 18204, 37051, -144, 25815, 33453, 325, -204, -302, 3866, 29176, 20394, -312, 85, 838, 734, 1275, 435, 550, 2761, 2348, -194, -10340, -943, -24442, 24192, 191, 305, 24150, 605, 2849, -6106, 23659, -8259, -2538, -21323, 30091, 1160, 585, 33072, 3577, 63794, 44438, -22, 1638, 19376, 2668, 9281, 27030, 116759, 1403, -25195, -5, 109, 28339, 24322, 28784, 9856, -1981, 7846, 1274, 1831, 48271, 615, -9836, 4116, 56521, -15598, 1571, -318, 94577, -4003, 29171, -440, 786, 1152, 38890, 77843, 22461, 17968, 1664, 21301, 31, -3389, -5038, 21646, -343, -9838, 238, 1331, -2292, 544, 139, -1371, -318, 20019, 37043, 45517}
#define CONV14_WT {0}
static const uint8_t CONV14_W_Z[] = 	 {-90, -100, -126, -4, -28, -33, -66, -120, -105, -14, -106, -21, -9, -105, -138, -116, -98, -16, -231, -87, -111, -104, -118, -82, -12, -34, -251, -93, -97, -37, -109, -80, -218, 0, -14, -84, -10, -78, -228, -258, -559, -365, -265, -92, -103, -28, -68, -101, -234, -8, -213, -98, -117, -131, -111, -59, 4, -130, -50, -102, -9, -47, -107, -88, -90, -14, -224, -110, -94, -75, -96, -97, -123, -110, -65, -115, -117, -38, -167, -151, -84, -224, -135, -52, -26, -400, -259, -119, -23, -92, -16, -28, -3, -110, -121, -246, -72, -130, -261, -104, -21, -44, -7, -38, -114, -8, -15, -231, -107, -15, -80, -74, -245, -110, -5, -218, -51, -244, -250, -259, -58, -223, -182, -344, -8, -66, -206, -287, -101, -27, -115, -24, -100, -96, -95, -303, -150, -85, -343, -122, -109, -196, -220, -12, -164, -152, -39, -253, -89, -96, -41, 12, -40, -39, -27, -108, -125, -59, -23, -230, -256, -86, -258, -262, -118, -115, -117, -105, -243, -126, -120, -125, -105, -123, -114, -105, -136, -46, -26, -113, -13, -78, 1, -181, -104, -113, -249, -88, -102, -48, -248, -14, -46, 44, -250, -141, -98, -258, -104, -461, -289, -141, -78, -250, -62, -68, -236, -254, -89, 8, -126, -114, -233, -264, -217, -41, -130, -194, -103, -101, -237, -83, -11, -21, -418, -20, -119, -113, -254, -9, -238, -112, -89, -134, -223, -306, -222, -44, -82, -219, -115, -20, -15, -223, -30, -23, -117, -88, -30, -101, -118, -128, -134, -254, -253, -254};
#define CONV14_IN_Z      	(0)
#define CONV14_OUT_Z     	(0)
static const int32_t CONV14_M_ZERO[] = 	 {1109096064, 1490565888, 2114423168, 1764458624, 1443600768, 1101487488, 1744509824, 1300672512, 1836098944, 1891076864, 1632288640, 1437531904, 1401780992, 1252490240, 1527026048, 1606334336, 2012975232, 1979196800, 1669303808, 1642509184, 1214938752, 1968132096, 1210102400, 1415601280, 1086291712, 1754697472, 1080868480, 1807154688, 1723580160, 1458776064, 1450785536, 2079243776, 2111103488, 1350560512, 1771498880, 2005673856, 1508533248, 1492254976, 1185962624, 2086971520, 1654824960, 1208756224, 1636932736, 1230845056, 1261784064, 1174667392, 1788112896, 1238785920, 1480603904, 2018189312, 1141357568, 1920168192, 1301688448, 1144278912, 1207619712, 1224648448, 1662612224, 1904162816, 1848532096, 1434835456, 1977277056, 1649644416, 1429963904, 1648744832, 1764075648, 1262277760, 1386682368, 1667232768, 1988427136, 1293886208, 1877749248, 1357582080, 1247629696, 1378168960, 1296260608, 1584519296, 1143404672, 1249058048, 1085581824, 1663014144, 1363932544, 1518623744, 1968287616, 1504552960, 1888903040, 1595900928, 1658190592, 1390850304, 1462619392, 1631284992, 1783792768, 1082739968, 1420836480, 1198242560, 1524700928, 1164105856, 1823666816, 1147685888, 1883590656, 1337377792, 1216928512, 1751595520, 1208998272, 1378849280, 1529207424, 1191911936, 1333350784, 1352430336, 1217144576, 1312894976, 1802350336, 1137584384, 1360757376, 1085133696, 1595303040, 1400769024, 1289245056, 1770039552, 1149887104, 1787241216, 1378913920, 1335580032, 1338980480, 1801532416, 1843317376, 1427755008, 1955107200, 1091322880, 2064675584, 1109530752, 1279578368, 1107124992, 1804469376, 1218108672, 1442283264, 1217420544, 1419271168, 1589920128, 1084094592, 1238702080, 2011159680, 1288317184, 1717494272, 2061593600, 1798905472, 1990225536, 1946372096, 1894039808, 1654670848, 1922613504, 1968055936, 1213762432, 1138288896, 1467494912, 1241024128, 1308274816, 1311734400, 1392531584, 1220066688, 1119991296, 1156263552, 1404520832, 1956799360, 1671564928, 1092163200, 1726937728, 1265081344, 1323729024, 1660109440, 1377712512, 1483394432, 1294573568, 2107542144, 1219056256, 1710007936, 1162256128, 1637565696, 2147091584, 1259468544, 1303207296, 1449852032, 1183715456, 1648789120, 1561867648, 1157210240, 1409136896, 2032380672, 1451688064, 1824247040, 1531368576, 1815376512, 1876021120, 1286515072, 1590858240, 1320269824, 2062230272, 1592163584, 1823733760, 1098692480, 1799562752, 2001581440, 1841848704, 1282796416, 1115047040, 1959008512, 1185753088, 1100282496, 1519405696, 1237203968, 1582146176, 1269410176, 1623728128, 1896513024, 1625607040, 1403993088, 1113859072, 1319423744, 1100983296, 1317551872, 1369721856, 1400594304, 1492080384, 1451796096, 1148973696, 1154497792, 1300540672, 2084710784, 1098335360, 1641299840, 1707627392, 1621966336, 1201702784, 1817971712, 1495936768, 1226494720, 1074601216, 1806132096, 1952871168, 1553455488, 1556287360, 1202487680, 1742716288, 1431443968, 1590972544, 1260319104, 2115964160, 1114289280, 1294745344, 1274474752, 1273190272, 1227839488, 1215016832, 1171199488, 1108453888, 1411303168, 1364726528};
static const int8_t CONV14_N_ZERO[] = 	 {0, 0, 0, 0, 0, 0, 0, 0, 0, 0, 0, 0, 0, 0, 0, 0, 0, 0, 0, 0, 0, 0, 0, 0, 0, 0, 0, 0, 0, 0, 0, 0, 0, 0, 0, 0, 0, 0, 0, 0, 0, 0, 0, 0, 0, 0, 0, 0, 0, 0, 0, 0, 0, 0, 0, 0, 0, 0, 0, 0, 0, 0, 0, 0, 0, 0, 0, 0, 0, 0, 0, 0, 0, 0, 0, 0, 0, 0, 0, 0, 0, 0, 0, 0, 0, 0, 0, 0, 0, 0, 0, 0, 0, 0, 0, 0, 0, 0, 0, 0, 0, 0, 0, 0, 0, 0, 0, 0, 0, 0, 0, 0, 0, 0, 0, 0, 0, 0, 0, 0, 0, 0, 0, 0, 0, 0, 0, 0, 0, 0, 0, 0, 0, 0, 0, 0, 0, 0, 0, 0, 0, 0, 0, 0, 0, 0, 0, 0, 0, 0, 0, 0, 0, 0, 0, 0, 0, 0, 0, 0, 0, 0, 0, 0, 0, 0, 0, 0, 0, 0, 0, 0, 0, 0, 0, 0, 0, 0, 0, 0, 0, 0, 0, 0, 0, 0, 0, 0, 0, 0, 0, 0, 0, 0, 0, 0, 0, 0, 0, 0, 0, 0, 0, 0, 0, 0, 0, 0, 0, 0, 0, 0, 0, 0, 0, 0, 0, 0, 0, 0, 0, 0, 0, 0, 0, 0, 0, 0, 0, 0, 0, 0, 0, 0, 0, 0, 0, 0, 0, 0, 0, 0, 0, 0, 0, 0, 0, 0, 0, 0, 0, 0, 0, 0, 0, 0};


/* Layer 15 Learned Parameters */
#define CONV15_BIAS \
 {26968, 11490, 47185, 119792, 10217, -9848, -11088, 16854, 17744, -4363, 27540, -1603, -18199, 125933, 35107, 32203, 32648, 1845, 17169, 38065, 67356, 12428, 65152, -16799, 11310, 28871, 94193, 21538, 21916, 3245, -25434, 60030, 68545, 34425, 24990, 35064, 44433, -17283, 28027, 24734, -3236, 73250, 74395, 47349, 43646, -18912, 5693, 22267, 36925, 31346, 26619, -4582, 91606, -9266, 13, -8742, 5054, 17702, 10020, 10276, -18772, 2296, 23213, -15174, 58791, -4774, -16747, 77032, -25458, 21383, 5153, -19635, -430, 62167, 35410, 887, 35375, -2903, 12829, 93374, -23270, 59540, 7238, 8119, 45985, 23213, 39160, 3772, 26122, 34593, 43035, 27878, 39052, 41398, 18734, 8642, 54541, 10818, 49832, -4741, -2259, 9062, 6923, 23824, -25566, -15989, 42698, 382, 18728, 20132, 26173, -6444, 18345, -6781, -6021, 46218, -12862, 19178, 10252, -22520, 3032, 20447, -21824, 12101, -8959, 19362, 18384, 29170, 11865, 54392, -34597, -4875, 45960, -50399, 17591, 23789, 10518, -951, 6019, 23675, 19128, 31674, -34648, -6892, 31556, 13923, 15365, 52203, 12998, -748, 3337, 5484, 104085, -30513, 87009, 3582, -15549, -18395, 44640, -42126, 28544, -5090, 49186, 55907, -30537, 30917, 18623, 16967, 31444, -15026, -22542, 32615, 21824, 16917, 33358, -1615, 8611, 23640, 40077, 106492, -25426, 30950, -14489, 19630, 14018, 5939, -35047, 61485, -361, 12401, -3714, -6910, -32121, -25995, -28812, -12385, 23073, 42972, 46294, 149288, 25754, 26089, -15100, -18247, 21505, -42310, 17959, 5804, -2140, -1571, 17324, -1987, 78717, -3959, -8870, 53021, 5346, 34731, 40317, 65551, 14360, 31408, -348, -80507, 19862, 65056, 3746, 18555, -29538, 53049, 73683, 10341, 23759, 59276, 62338, 3347, -5810, 12665, -10522, 44020, 29956, 67835, 42545, -12991, 4539, 10813, -15532, 32629, -6401, 3645, 34868, -13652, -1676, 23259, 15141, 71646}
#define CONV15_WT {0}
static const uint8_t CONV15_W_Z[] = 	 {-183, -111, -131, -137, -145, -133, -74, -85, -111, -123, -109, -129, -134, -151, -104, -129, -123, -136, -153, -179, -135, -125, -152, -147, -199, -79, -127, -127, -151, -166, -128, -130, -120, -149, -102, -81, -142, -126, -139, -211, -127, -136, -126, -129, -141, -118, -131, -126, -86, -118, -149, -122, -122, -127, -75, -139, -156, -116, -171, -137, -116, -154, -87, -135, -109, -126, -96, -110, -109, -128, -151, -91, -132, -148, -106, -135, -126, -123, -129, -130, -121, -117, -128, -166, -131, -136, -153, -142, -137, -149, -122, -180, -128, -123, -148, -104, -126, -162, -120, -123, -163, -171, -122, -127, -79, -142, -93, -136, -135, -120, -205, -116, -173, -98, -138, -84, -87, -113, -112, -101, -126, -157, -109, -128, -118, -129, -158, -146, -116, -134, -91, -100, -120, -111, -127, -90, -147, -103, -104, -76, -84, -149, -121, -126, -129, -141, -117, -144, -71, -117, -110, -126, -155, -124, -129, -108, -110, -129, -109, -132, -114, -111, -51, -118, -155, -139, -133, -139, -112, -156, -146, -152, -162, -148, -200, -156, -81, -66, -141, -138, -123, -79, -109, -99, -81, -127, -117, -110, -120, -116, -99, -122, -164, -149, -148, -155, -146, -157, -165, -159, -133, -144, -166, -132, -94, -129, -148, -115, -136, -133, -168, -136, -167, -94, -156, -134, -121, -146, -141, -119, -159, -124, -115, -131, -136, -115, -122, -135, -83, -207, -147, -100, -67, -131, -112, -144, -73, -129, -126, -172, -118, -153, -155, -118, -140, -114, -136, -119, -113, -108, -111, -127, -132, -136, -91, -131};
#define CONV15_IN_Z      	(0)
#define CONV15_OUT_Z     	(0)
static const int32_t CONV15_M_ZERO[] = 	 {1587087744, 1439144192, 1230221824, 1693273216, 1579422592, 1292457600, 1100009728, 1223307136, 1881059584, 1793496192, 1222292096, 1641800960, 2114705920, 1703725312, 2082070528, 1228048000, 1389824000, 1729357824, 1556653056, 1971278720, 1371154048, 1253747072, 1271635584, 1417878912, 1536994304, 2114645120, 1190538112, 1700113536, 1401576576, 1540968448, 1536640896, 1931508864, 2091697536, 1318822656, 1683752064, 1441703680, 1140572544, 1685348480, 1694590208, 1680835072, 1611099904, 1145033472, 1949764992, 1873345024, 1283894272, 1499006208, 1493946112, 1199905792, 1534022272, 2116157568, 2035243136, 1358666112, 2094602624, 1851373312, 1405616256, 1833695488, 1474047360, 1684381568, 1502315648, 1928158464, 2010731008, 2018111744, 1175287552, 1694692352, 2143015808, 1984113536, 1148929792, 2048875776, 1162987008, 1270334208, 1196542208, 1628300800, 1550306816, 2036109440, 1548704640, 1807601280, 1779982336, 1879765632, 1252597504, 1226069248, 1766664576, 2108344064, 1304744448, 1119017472, 1213252992, 1729676032, 1421327616, 1129056640, 1530625920, 1672999936, 1144600832, 1992955264, 1486875776, 1676292736, 1144650368, 1088862976, 1486593408, 1460900736, 1707564544, 2137298432, 1520989312, 1353280384, 1282692608, 1687767040, 1621710208, 1147174528, 1507735040, 1247172480, 1831971328, 1531197440, 1724487936, 1368532608, 1437292800, 1124107776, 1346587136, 1391365376, 1337970304, 1312481280, 1578948096, 1093574528, 1282675072, 1620718720, 1377370880, 1748578304, 1293325312, 1309978496, 2026304896, 1131285760, 1406295168, 1452836736, 1603082880, 1439159424, 1145549440, 1791859968, 1375723520, 1889446144, 1706897664, 1305436416, 1532028288, 1298164224, 1133199616, 1084239872, 1073943040, 1774255744, 1677271168, 2125640832, 1510950528, 1706484224, 1514874112, 1882576000, 1622887808, 1669015296, 1964469248, 1073753728, 1840922496, 1380587264, 1248176128, 1160368000, 1223536896, 1800071680, 1122032384, 1830051712, 1286307072, 1160569728, 1120218112, 1159262976, 1655248512, 1922435072, 1448583424, 1288832896, 1748953216, 1183787904, 1179519872, 1086416768, 1225990144, 1158301696, 1382875136, 1873845120, 1362450048, 1080795264, 1284326016, 2074789632, 1393948672, 1240944512, 1784870912, 1649325312, 1484022784, 1133944320, 2072937216, 1642248192, 1124019712, 1276072832, 2125613824, 1846941184, 1815698688, 1347753088, 1725631488, 1509860736, 1298630016, 1920602368, 1200852480, 1109850496, 1303493760, 1900910080, 1608875008, 1625307008, 1233788928, 1733377536, 1340448256, 1377120000, 1328671232, 1466245888, 1858778240, 1304904192, 1165576192, 1132656000, 1471276800, 1440948736, 2050477056, 1634986368, 1399472896, 1601645184, 1402096000, 1463351424, 1787581824, 1992061056, 1442887936, 1331706752, 1541612288, 1441423488, 1471356160, 1209561216, 1563034112, 1339144576, 1637369984, 1412407424, 1932214400, 1711792512, 1843441664, 1727064832, 1850310272, 1524273664, 1673608064, 1717705600, 1228278016, 1102662656, 1785085312, 2083843456, 1766691968, 1144165248, 1854503040, 1526568704, 1348017536, 1609513344, 1538951552, 1276869888};
static const int8_t CONV15_N_ZERO[] = 	 {0, 0, 0, 0, 0, 0, 0, 0, 0, 0, 0, 0, 0, 0, 0, 0, 0, 0, 0, 0, 0, 0, 0, 0, 0, 0, 0, 0, 0, 0, 0, 0, 0, 0, 0, 0, 0, 0, 0, 0, 0, 0, 0, 0, 0, 0, 0, 0, 0, 0, 0, 0, 0, 0, 0, 0, 0, 0, 0, 0, 0, 0, 0, 0, 0, 0, 0, 0, 0, 0, 0, 0, 0, 0, 0, 0, 0, 0, 0, 0, 0, 0, 0, 0, 0, 0, 0, 0, 0, 0, 0, 0, 0, 0, 0, 0, 0, 0, 0, 0, 0, 0, 0, 0, 0, 0, 0, 0, 0, 0, 0, 0, 0, 0, 0, 0, 0, 0, 0, 0, 0, 0, 0, 0, 0, 0, 0, 0, 0, 0, 0, 0, 0, 0, 0, 0, 0, 0, 0, 0, 0, 0, 0, 0, 0, 0, 0, 0, 0, 0, 0, 0, 0, 0, 0, 0, 0, 0, 0, 0, 0, 0, 0, 0, 0, 0, 0, 0, 0, 0, 0, 0, 0, 0, 0, 0, 0, 0, 0, 0, 0, 0, 0, 0, 0, 0, 0, 0, 0, 0, 0, 0, 0, 0, 0, 0, 0, 0, 0, 0, 0, 0, 0, 0, 0, 0, 0, 0, 0, 0, 0, 0, 0, 0, 0, 0, 0, 0, 0, 0, 0, 0, 0, 0, 0, 0, 0, 0, 0, 0, 0, 0, 0, 0, 0, 0, 0, 0, 0, 0, 0, 0, 0, 0, 0, 0, 0, 0, 0, 0, 0, 0, 0, 0, 0, 0};


/* Layer 16 Learned Parameters */
#define CONV16_BIAS \
 {-62131, 2329, 15564, -8875, 61477, 3428, 22306, 18100, 15116, 5372, -1880, -13970, -22547, -107, -2680, 62461, 67508, -4258, -10792, 29605, 752, 17356, 3957, 65412, 22306, 378, 5825, -4944, -1620, 90382, -13687, 28989, 17881, 38478, 684, 64877, -12000, 137556, 12608, 37684, -26448, 2075, 7984, -7162, 13969, -25846, -21282, -7641, 8798, -15214, 38152, 95813, 10016, -5037, 1424, 1620, 16380, 4466, -15224, 15033, -5859, 1743, 7103, -4199, 22137, 2435, -12193, 1521, -15735, -14362, -16818, 52458, 18226, 23580, -8997, -16291, 163, -21758, -17768, 3541, 18878, -7711, -20969, 15082, 29600, -11037, -13054, -355, -2421, 20858, -7477, -27982, 46583, 1533, 14741, -13762, 39732, -7063, -2264, -24409, 4806, -720, -9491, 29409, 4295, 16024, 46539, 68, 20634, -2452, 6368, -4369, 2226, 45786, 35081, 8420, -1088, -5348, -6985, 5267, -18816, 6649, 23820, -5040, 14864, 12270, 12269, -19011, -11227, -3727, -7208, -45533, 27352, -13367, 1813, 27977, -7047, 49097, -606, 74108, 45719, -2134, 69, 239331, -2697, -4465, -6931, -9152, -11326, 305, -6666, 44032, 13986, -2835, 24898, -953, 1959, -2651, -4368, -5531, -10431, -9926, 19626, 37210, -5946, -15158, -10623, -2052, -5502, 2049, 15753, 14127, -43362, -3033, 22812, 7399, 33169, 29961, -5262, 46178, -15036, 19382, -11672, 30242, 456, 19087, -573, 167819, -1895, -5261, 26499, -302, -9154, -20960, 3410, -16511, -13314, 90855, 1350, 568, -19, 4275, -7701, 8261, 140036, 9379, 8898, 1315, 3090, 64800, 972, -23317, 10240, -17591, 21739, -12431, 7222, 7035, -2294, -10725, -26859, 8854, 89079, -4305, 13106, 21721, 30072, -12543, 85370, 216, -10142, 14849, 6981, 37568, 29707, -13335, 47825, 38663, 40850, -7221, 2212, 2719, -11406, 15346, 20051, 35458, 22982, -18298, -652, -1487, 2948, -13021, 46845, -16028, 38643, 36706}
#define CONV16_WT {0}
static const uint8_t CONV16_W_Z[] = 	 {21, -43, -78, -26, -271, -33, -232, -177, -141, -28, -162, 13, 44, -109, -37, -260, -322, -83, 25, -104, -17, -75, -27, -322, -141, -36, -44, -106, -11, -262, 6, -249, -179, -176, -99, -329, -38, -342, -112, -249, 46, -25, -51, -104, -166, 14, 59, -56, -72, -12, -193, -389, -165, 15, -45, -5, -78, -38, 8, -96, 9, -57, -37, -1, -194, -132, -7, -90, -3, 3, 0, -396, -103, -257, -81, 29, -27, -20, 8, -37, -70, -52, 28, -120, -270, 25, -11, -38, -11, -83, -28, -8, -301, -128, -121, 22, -209, 4, -110, -52, -83, 0, -47, -256, -51, -159, -265, -23, -241, -81, -106, -25, -76, -316, -138, -43, -10, -145, 6, -139, -17, -43, -67, -113, -86, -104, -58, -74, -37, -96, 3, 2, -245, 32, -127, -253, -10, -291, -15, -198, -239, -97, 4, -784, -109, -83, 21, -58, 5, -126, -61, -174, -204, 20, -250, -12, -36, 4, -125, 0, -3, 8, -215, -270, 6, 9, 8, 6, -55, -65, -86, -132, 23, -83, -199, -72, -253, -251, -28, -267, 28, -245, 55, -280, -122, -87, 27, -298, -47, -2, -77, 36, 41, 67, -81, 9, -12, -312, -19, -70, -31, -46, 9, -119, -542, -16, -156, -78, -31, -309, -96, -1, -61, 7, -158, -43, -90, -41, -104, -25, 0, -174, -408, -7, -26, -246, -185, 9, -296, -43, -57, -84, -63, -253, -257, 3, -285, -143, -193, -41, -90, -44, -13, -169, -100, -155, -118, 11, 7, -19, -83, 10, -295, -23, -267, -252};
#define CONV16_IN_Z      	(0)
#define CONV16_OUT_Z     	(0)
static const int32_t CONV16_M_ZERO[] = 	 {1189050368, 1786415488, 1932253056, 1282452224, 1623289856, 1791333248, 1661200256, 1097303680, 1941473792, 2122321408, 1079379968, 1972156032, 1487755648, 1140116608, 1103203968, 1423234560, 2120098432, 1201800064, 1688325248, 1214082816, 1239015424, 2009168896, 1261653632, 1845826944, 1891265152, 2047051392, 1097541760, 1686374528, 2068035456, 1175892352, 1703922176, 1849240064, 1744946176, 1679722752, 2025726976, 1264368384, 1075917440, 1759028608, 2013458560, 1694966912, 1732061568, 1149342848, 1224487424, 1312480000, 2082342784, 1160458752, 1501410944, 1175950976, 2046651776, 1584068096, 1442325888, 1262100992, 1575362944, 1710836864, 1837007360, 1264967296, 1699367936, 2033525888, 1668238848, 1193938560, 1840807424, 2106623872, 1718099584, 1684001664, 2141266816, 1224705664, 2085521792, 1351159296, 2071910912, 1297121664, 1117874688, 1339249024, 1374896256, 1202999296, 1759825664, 1237821952, 1806811904, 1440170496, 1076143360, 1157893376, 1157450624, 1257142784, 1578806656, 1099761408, 1877108992, 1880436864, 1866322304, 1527980032, 1647512704, 2043176704, 2033439872, 1116788096, 1339877504, 1235078656, 1704267648, 1205199744, 1238842496, 1409187968, 1938762240, 1425136512, 1896628352, 1183667328, 1772350080, 1115430912, 1308025344, 1268459008, 1626539136, 1367290368, 1210394240, 1166551424, 1682419456, 1191445632, 1743159296, 1177193344, 1655002112, 1692130688, 2112841216, 1771154176, 1535995520, 1106938368, 1283522816, 1164732800, 1074402432, 1494536320, 1364275456, 1527476480, 1772944384, 1953717248, 1241955840, 2071970688, 1094433920, 1492961024, 1082084992, 1844236544, 1442783744, 1626579072, 1380647040, 1589242880, 2018860544, 1761187584, 1575544832, 1577553024, 1739058944, 1595323008, 1798334976, 1875214336, 1174401280, 1439229952, 1843767424, 1914669312, 1597899008, 2104967936, 1101210368, 1330643712, 1114713984, 2051831808, 1977256320, 1644703616, 1497700608, 1867634560, 2069978112, 1682024320, 2061218176, 1145626880, 1790158336, 1781799424, 1860067328, 1948031360, 1380582016, 1272590336, 1533723776, 1341915776, 1177113984, 2058401024, 1921680896, 1281611648, 1762621184, 1253320448, 2119391872, 1678643072, 1712093568, 1390290944, 1715437696, 1338376704, 1497602688, 1095890688, 1154197120, 1402646656, 1734180864, 1875507584, 1608278528, 1185233152, 1242558080, 1692226816, 1620512640, 1101695488, 1245496704, 1506159488, 2064680192, 2088540160, 1933424512, 2069369088, 1690618496, 1724655104, 1690694400, 1479878912, 1096514048, 1560329984, 1611244672, 2098531712, 1590002176, 1211899008, 1140550400, 1927204736, 1330605568, 2012300800, 1247612288, 1488039424, 1173494912, 1844542592, 1630872960, 2051709824, 1732832128, 2021442560, 1098951296, 1977468672, 1369264768, 1691832320, 1891359104, 1084070528, 1419931776, 1494900224, 1621586432, 1137927040, 2079657216, 2068801920, 1220663040, 1515058560, 1797528832, 1467372544, 1529083904, 1120221312, 1328600448, 1518922880, 1656662400, 1475684352, 1112163200, 1190678144, 1194304128, 1129201664, 1117642368, 1953045376, 1236128640, 1628724608, 1883989632, 1238529792};
static const int8_t CONV16_N_ZERO[] = 	 {0, 0, 0, 0, 0, 0, 0, 0, 0, 0, 0, 0, 0, 0, 0, 0, 0, 0, 0, 0, 0, 0, 0, 0, 0, 0, 0, 0, 0, 0, 0, 0, 0, 0, 0, 0, 0, 0, 0, 0, 0, 0, 0, 0, 0, 0, 0, 0, 0, 0, 0, 0, 0, 0, 0, 0, 0, 0, 0, 0, 0, 0, 0, 0, 0, 0, 0, 0, 0, 0, 0, 0, 0, 0, 0, 0, 0, 0, 0, 0, 0, 0, 0, 0, 0, 0, 0, 0, 0, 0, 0, 0, 0, 0, 0, 0, 0, 0, 0, 0, 0, 0, 0, 0, 0, 0, 0, 0, 0, 0, 0, 0, 0, 0, 0, 0, 0, 0, 0, 0, 0, 0, 0, 0, 0, 0, 0, 0, 0, 0, 0, 0, 0, 0, 0, 0, 0, 0, 0, 0, 0, 0, 0, 0, 0, 0, 0, 0, 0, 0, 0, 0, 0, 0, 0, 0, 0, 0, 0, 0, 0, 0, 0, 0, 0, 0, 0, 0, 0, 0, 0, 0, 0, 0, 0, 0, 0, 0, 0, 0, 0, 0, 0, 0, 0, 0, 0, 0, 0, 0, 0, 0, 0, 0, 0, 0, 0, 0, 0, 0, 0, 0, 0, 0, 0, 0, 0, 0, 0, 0, 0, 0, 0, 0, 0, 0, 0, 0, 0, 0, 0, 0, 0, 0, 0, 0, 0, 0, 0, 0, 0, 0, 0, 0, 0, 0, 0, 0, 0, 0, 0, 0, 0, 0, 0, 0, 0, 0, 0, 0, 0, 0, 0, 0, 0, 0};


/* Layer 17 Learned Parameters */
#define CONV17_BIAS \
 {47835, 10193, -17106, 15669, -8328, 41285, 3212, 26061, 7666, 46878, 5566, 7255, 50941, -14725, -20012, 13287, 13753, -8009, 15220, 18830, 20102, 66059, 3189, 21292, -72082, 10286, 50249, 18136, 20820, -2239, -4668, 60109, -25677, 2426, 11166, 32562, -6071, 51138, -206, -7588, 14421, -10186, 20970, -23563, -3417, -40716, 73426, 28630, -9520, -11218, -524, 7964, 1851, 69851, 8993, -13898, 52720, -24414, 14474, -40346, -28563, 4533, 25491, -11589, 8630, -38660, -13757, -34536, 32970, -24505, -34415, 58745, 30738, -26713, -2779, -4448, -17243, 5544, -18827, 8895, 811, 45732, 17743, 7868, -11537, 7358, -18296, 27391, 29773, 12640, 8877, -53373, 58603, 28262, 5889, 84939, -19390, 51259, 4143, 7514, 17470, -6933, 46395, -1287, 23265, 17259, 15512, -782, 12434, 22351, -15741, 13353, 33307, 45410, -19703, 8839, -9847, 30680, 66603, 12158, 54869, -754, 28364, -10587, -20668, 29649, 75713, 33795, -12754, 27418, 69192, -7237, 4710, -17350, 35010, 76051, 15784, 11728, 8497, 21222, -5036, 75321, -25972, 80304, 53837, 20870, 17942, -26618, -6278, 45277, 13960, 24832, 43981, 4972, 16988, 33183, 21376, -13269, -27642, -16660, 12303, 16444, 4593, 24152, 89795, 39828, 7688, 10711, 50824, 8684, 54375, 4467, 45261, 153738, 9330, 29122, 17932, 39489, 31890, -3131, 19782, 14139, -36003, -17847, 5920, -3429, 57266, 9477, -4041, -13832, 58980, -19248, -17898, -3344, -22499, 6301, 7439, 2010, -7550, 84889, -3682, 15755, 5403, 22026, -5098, 30417, 22790, -34360, -15289, 61026, -12949, 39403, -45667, 21918, -1521, -56327, 35383, -14314, 8875, 76840, 8796, 44699, 23115, -20996, -23003, 25238, 32972, -5892, -5623, 12840, 649, 9957, 247, 31043, -3644, 64875, 86222, 2999, 22954, 7078, -25379, -22393, 6043, 9721, 35600, 93364, 15343, -41400, -13541, 72640, 9768, 14185, -5055, -7141, -26709, -28703}
#define CONV17_WT {0}
static const uint8_t CONV17_W_Z[] = 	 {-103, -109, -85, -152, -150, -157, -120, -114, -155, -106, -125, -152, -129, -118, -125, -106, -128, -127, -141, -170, -107, -142, -111, -123, -152, -147, -130, -112, -105, -119, -123, -133, -134, -133, -92, -161, -127, -146, -126, -129, -92, -77, -124, -107, -154, -109, -132, -126, -98, -135, -126, -128, -103, -108, -102, -124, -125, -108, -109, -89, -110, -126, -113, -127, -89, -103, -97, -115, -104, -102, -128, -152, -93, -125, -109, -134, -107, -106, -125, -134, -108, -134, -150, -114, -108, -116, -129, -122, -126, -107, -78, -111, -100, -115, -158, -145, -125, -117, -134, -156, -149, -67, -159, -183, -120, -125, -137, -90, -104, -94, -100, -150, -145, -101, -120, -87, -113, -151, -164, -118, -111, -115, -121, -120, -123, -126, -120, -134, -144, -123, -162, -114, -149, -114, -148, -142, -129, -128, -143, -107, -86, -136, -148, -139, -120, -100, -130, -102, -115, -86, -152, -114, -96, -128, -108, -91, -90, -130, -135, -125, -150, -140, -104, -148, -155, -114, -114, -111, -156, -132, -145, -136, -118, -142, -131, -107, -122, -120, -129, -157, -152, -141, -146, -106, -106, -112, -119, -124, -161, -116, -160, -73, -134, -136, -116, -111, -154, -98, -106, -113, -113, -101, -122, -139, -134, -115, -118, -98, -117, -88, -130, -140, -91, -182, -118, -103, -90, -130, -111, -111, -123, -109, -125, -70, -125, -123, -97, -125, -189, -130, -127, -130, -151, -125, -119, -133, -109, -111, -174, -100, -122, -117, -110, -162, -179, -114, -161, -134, -93, -100, -145, -149, -151, -112, -124, -149};
#define CONV17_IN_Z      	(0)
#define CONV17_OUT_Z     	(0)
static const int32_t CONV17_M_ZERO[] = 	 {1084114944, 1563702016, 1677851008, 1632152064, 1103719552, 1343601664, 1491826944, 1137926144, 1675939840, 1382803200, 1240216064, 1405620480, 2002136320, 1175068032, 1853259392, 1187471360, 1505878784, 1141244544, 1207389056, 1396127232, 1185354624, 1103557888, 1417422208, 2002744832, 2035495808, 2063661056, 1957478400, 1394979584, 1135389824, 1938129536, 1315393408, 2063426560, 1447799680, 1125589632, 1502774912, 1946637952, 1218774784, 1679508992, 2004704384, 1243529728, 1183420800, 1766082560, 1173796608, 1959878016, 1347123840, 1086486656, 1509174272, 1418111744, 1694172928, 1784430464, 1121407744, 1670040576, 2124334592, 2011525120, 1086153216, 1324008192, 1328821632, 1505758464, 1217216512, 1380293888, 1967960192, 1872148352, 1637174272, 1186125184, 2143367040, 1083680256, 1237055744, 1583063808, 1304079232, 1233039488, 1544431744, 1124865920, 1630492800, 1309571072, 1203574144, 1534184576, 1719841536, 1688339072, 1154958208, 1484194432, 1896030976, 1675066752, 1613426944, 1631814528, 1974740736, 2106555648, 1514713984, 1134570112, 1387231616, 1163781120, 1550596864, 1073913344, 1179473280, 1498961664, 1107995648, 1711782016, 1197532800, 1598395392, 1137452416, 1291752448, 1284572800, 1196699136, 2111505920, 1648781184, 2005014272, 1625985408, 1160782720, 1107723904, 1408261632, 1303810816, 1318065024, 1741894400, 1445840640, 1269581440, 1417546624, 1627151232, 1512340096, 1778870656, 1334284672, 1333935232, 1223053952, 1308394752, 1732306688, 1510173440, 1136871808, 1891394048, 1282154496, 1086876800, 1865874176, 1440812032, 1441106304, 1343436544, 1580404992, 1153326208, 1273833856, 1754696192, 1205449728, 1850835968, 1356116608, 1475723776, 1378926848, 1868201088, 1632226816, 1717719552, 1695879296, 1362331008, 1458099584, 1281160064, 1605752320, 1450036096, 1541855360, 1460288640, 1246641408, 1133234816, 1615543936, 1422751616, 1866376832, 1575618432, 1230049152, 1074693888, 1287579520, 1378211456, 1418443776, 1863469056, 1588596992, 1407146624, 1810585600, 1597583104, 1382262912, 1381882624, 1738899968, 2116211712, 1081757056, 1661748224, 1962577408, 2002708608, 1280454272, 1542162560, 1690469120, 1598693120, 1772622336, 1814146816, 1569340928, 1752450688, 2114699264, 2138503680, 1318386944, 1195852672, 1785657856, 1565105792, 1816665472, 1932014080, 1459081600, 1128827520, 1933562112, 1397885056, 1889022720, 1113373568, 1659824256, 1544547584, 1437293696, 1464536704, 1740856704, 1178085248, 1599711232, 1279467392, 1567747584, 1288456448, 1107515648, 1355037184, 1606080000, 1780921216, 1998294400, 1621637248, 1316417664, 2051257216, 1147619968, 1226020864, 1145551872, 1242402432, 1747132672, 1146708096, 1331408000, 1366606208, 1477527552, 1128931456, 1740392448, 1422196608, 1412455680, 1599780608, 1303243136, 1789283200, 1106683136, 1657568768, 1455536256, 1321938688, 1282331264, 1909200640, 1658085120, 1398715648, 1475629440, 1348729472, 1803521920, 1146399232, 1287819008, 1704906240, 1554362240, 1262948480, 1239557888, 1214729984, 1403082368, 1381473024, 1862670464, 1767592704, 1740558848, 1858207872};
static const int8_t CONV17_N_ZERO[] = 	 {0, 0, 0, 0, 0, 0, 0, 0, 0, 0, 0, 0, 0, 0, 0, 0, 0, 0, 0, 0, 0, 0, 0, 0, 0, 0, 0, 0, 0, 0, 0, 0, 0, 0, 0, 0, 0, 0, 0, 0, 0, 0, 0, 0, 0, 0, 0, 0, 0, 0, 0, 0, 0, 0, 0, 0, 0, 0, 0, 0, 0, 0, 0, 0, 0, 0, 0, 0, 0, 0, 0, 0, 0, 0, 0, 0, 0, 0, 0, 0, 0, 0, 0, 0, 0, 0, 0, 0, 0, 0, 0, 0, 0, 0, 0, 0, 0, 0, 0, 0, 0, 0, 0, 0, 0, 0, 0, 0, 0, 0, 0, 0, 0, 0, 0, 0, 0, 0, 0, 0, 0, 0, 0, 0, 0, 0, 0, 0, 0, 0, 0, 0, 0, 0, 0, 0, 0, 0, 0, 0, 0, 0, 0, 0, 0, 0, 0, 0, 0, 0, 0, 0, 0, 0, 0, 0, 0, 0, 0, 0, 0, 0, 0, 0, 0, 0, 0, 0, 0, 0, 0, 0, 0, 0, 0, 0, 0, 0, 0, 0, 0, 0, 0, 0, 0, 0, 0, 0, 0, 0, 0, 0, 0, 0, 0, 0, 0, 0, 0, 0, 0, 0, 0, 0, 0, 0, 0, 0, 0, 0, 0, 0, 0, 0, 0, 0, 0, 0, 0, 0, 0, 0, 0, 0, 0, 0, 0, 0, 0, 0, 0, 0, 0, 0, 0, 0, 0, 0, 0, 0, 0, 0, 0, 0, 0, 0, 0, 0, 0, 0, 0, 0, 0, 0, 0, 0};


/* Layer 18 Learned Parameters */
#define CONV18_BIAS \
 {-2578, -25344, -2453, 34101, -6922, 84431, -3077, 4, -828, 42791, 23216, 26438, 45985, 165959, -965, -15838, 21783, 104105, -10239, -23058, 47822, 44322, -3849, 15363, -9031, 50284, 13123, -22222, 2895, 33043, -942, 3246, -5500, 97280, -1451, -13213, 148097, 16406, 36426, 23174, -13058, 32996, 24145, -846, -13138, -1897, 1416, 8183, 9704, -1962, 2974, 19835, -14873, 22896, -6952, -2897, -4887, -241, -14427, -15074, -10740, 10711, 33395, -27342, 8295, -1532, 61684, 36023, -19950, -11691, 36547, 19610, 4592, -10081, 63458, -2729, -43748, 57300, 49091, -8105, -7062, -3435, -5183, 8319, -512, 2697, 12698, 106281, 4262, -18279, 57173, 55440, 2132, 23235, -9932, -4415, -16586, 6836, -57835, 81582, 25098, -3681, -1429, -24263, -2770, 30086, 1178, 44526, -7677, 195837, 40, 14, 17805, 25547, 74750, -3245, 32327, -4146, 39890, -1480, 9065, 127, -30404, 69, 145465, 68471, 16834, -4446, -5233, -10383, 31535, 43894, 40567, -11860, 37924, -6894, -11415, -2257, 17881, 55106, -136, 1424, -5630, 16796, 24222, -1578, 25902, -8053, 54983, -24246, -5570, 58557, 34722, -3328, 23422, -8530, 11334, -39530, 31191, 41432, -426, 49312, -3096, 82173, 20639, -9054, -260, 38958, -15025, -501, 52180, 25271, 39520, 24555, 43106, -12491, -323, -12894, 25787, 13631, 7047, -15291, 8574, 122, 77878, -7042, -261, -9256, 155576, -24548, 65582, -12424, -7907, -18006, -2850, -1019, -19810, 11450, 14460, 23305, -13104, 21966, 13604, -3380, 6506, -2537, 41717, 118554, -9124, 56365, -3440, 654, 10780, -5291, -5458, -8439, 2140, 73256, 3545, 29323, -27130, 26272, -2560, 31896, 69900, 28340, 27989, 43971, -8766, -14691, -7338, 39235, 21266, -1043, -3078, 9767, 74855, 67294, -16443, -4812, -33494, -56694, 26242, 101142, -1009, 21994, -21558, 28818, -9315, 2809, -24295, 4589, 50002, 42664, 80843, 19804}
#define CONV18_WT {0}
static const uint8_t CONV18_W_Z[] = 	 {-18, 31, -14, -112, -5, -358, -71, -166, -56, -260, -144, -121, -289, -343, 5, 12, -151, -528, 6, -16, -258, -249, -58, -102, -37, -424, -74, 29, -190, -254, -25, -29, 22, -471, -93, 1, -378, -245, -278, -110, 10, -294, -151, -105, 13, -20, -21, -28, -70, -52, -23, -160, 2, -254, 1, -132, -2, -156, -14, 17, 4, -33, -219, 22, -34, -23, -475, -153, 3, -7, -250, -175, -23, 17, -356, 51, 45, -183, -258, -73, 1, -111, -141, -63, -28, -26, -34, -280, -89, 7, -242, -336, -23, -161, 23, -39, 3, -79, 33, -399, -151, 13, -86, 14, 17, -108, -69, -323, -5, -473, -26, -14, -83, -261, -308, 10, -254, -12, -179, 40, -43, -111, 33, -28, -534, -297, -195, -48, -2, -27, -163, -343, -135, 8, -225, -94, 6, -84, -142, -330, -7, -21, -116, -200, -231, 17, -219, -61, -266, 15, 6, -310, -262, 5, -227, -16, -137, 32, -171, -207, -94, -417, -14, -277, -255, -12, -24, -209, 4, -131, -273, -211, -245, -214, -265, 11, -150, -32, -248, -80, -89, -72, -177, 23, -357, -69, -112, -35, -403, 23, -345, 3, -72, 5, 25, -5, -48, -42, -93, -230, 3, -105, -88, -17, -45, -29, -247, -256, -128, -313, -12, -67, -76, -45, -123, 27, -24, -275, -85, -181, 33, -78, -14, -253, -239, -181, -257, -242, -3, 10, -22, -274, -85, -13, -5, -75, -231, -463, -14, -2, 95, -5, -167, -337, -37, -250, -2, -104, -4, -41, -7, -83, -323, -271, -458, -100};
#define CONV18_IN_Z      	(0)
#define CONV18_OUT_Z     	(0)
static const int32_t CONV18_M_ZERO[] = 	 {1759015808, 1818663424, 1176657792, 1597328768, 1125766656, 1650184832, 1214237696, 1227289728, 1481653888, 1447295232, 1753083648, 2112054912, 1129295360, 1368158208, 1849787776, 1129464960, 1078593664, 2042940928, 2081179776, 1073961344, 1815292928, 1516099072, 1983028480, 1322587776, 1685967872, 1147870464, 1497366272, 1967979520, 1138343424, 1519884672, 1277566592, 1148936832, 1640494976, 1683038080, 1962956800, 2016490368, 1442876416, 1142400000, 1249494144, 1917320448, 1745585280, 1419588608, 1316536448, 1107599104, 1705009152, 1674625280, 1094096896, 1189111424, 2087563136, 1169892224, 1334253824, 1135872256, 2102843520, 1256970624, 1116558336, 1107555712, 1688937344, 1920973696, 1171668224, 1867538688, 1133135744, 1244872448, 1576460800, 2093498496, 1093541120, 1277320064, 1717702656, 1444143104, 1830650752, 1085382912, 1306804480, 1178762624, 1543916160, 1426005632, 1418087424, 1763465728, 1805025792, 1450536448, 1417003008, 1502945024, 1769661312, 2057938816, 2078174208, 1646368000, 1969379072, 1945086208, 1116417536, 1915300864, 1753458048, 1659190272, 1358230144, 1333439104, 2014037120, 1782194816, 1845977600, 1768469632, 1088781952, 1367600128, 1387725824, 2068738432, 1206791936, 1413568896, 1257828864, 1338339840, 1306326784, 1794393472, 1679917824, 1972955008, 1802839168, 1084256384, 1959280768, 1711737856, 1192969728, 1977569664, 1816344704, 1996509440, 2112468352, 2130080640, 1306934272, 1575472000, 1260233600, 2104368896, 2103727360, 1430409344, 1284433280, 1194006912, 1104286080, 2059044224, 2000577664, 1087003136, 1313995520, 1922303488, 1792893696, 1798187136, 1754242944, 1187940864, 2109854848, 1228632064, 1743457152, 1312804992, 2007671936, 1115162496, 1200913408, 2084725632, 1250149760, 1269970944, 1611922432, 1772559872, 1506611712, 1247869056, 1752298496, 1394663040, 1893629824, 1633104896, 2074570880, 1616130304, 1881167616, 2134884096, 1978880384, 1600054784, 1502234496, 1461992576, 1761412096, 1644434048, 1441483520, 2017713152, 1565020672, 1680343552, 1794441728, 1180736640, 2021270272, 1663248384, 1159003264, 1230868480, 1387649920, 1648749056, 1417066496, 1529290752, 1522572672, 1485177472, 1972826624, 1908590464, 1487980800, 1629230720, 1165922048, 1208878336, 1421161088, 1258619008, 1569206144, 1155877504, 2043460608, 1080433280, 1132966912, 1104481920, 2065277568, 1693368320, 1893377792, 1346065024, 2131450112, 1980687872, 1303764608, 1302061056, 1421759104, 1159640320, 2141590912, 1907979520, 1418464640, 2058135552, 1391904256, 1134300928, 1703645568, 1545122816, 1144760832, 1397944576, 1250177792, 1709113216, 1147578368, 1617966080, 1403123840, 2005638656, 1305990784, 1666868224, 1697587584, 2094845952, 1345370624, 1832424832, 2135068672, 1421688832, 1507693184, 1501073024, 1108248192, 1868494464, 1896905344, 1999903104, 1371687040, 1833047680, 1937898624, 1099318656, 1261300864, 1939612928, 1294325504, 1382950016, 1128455552, 1548171008, 2121833344, 1307707776, 1455879296, 1878726784, 1086390272, 1282827648, 1725628800, 1465121920, 1389475712, 1355637376, 1530280192, 2014637696};
static const int8_t CONV18_N_ZERO[] = 	 {0, 0, 0, 0, 0, 0, 0, 0, 0, 0, 0, 0, 0, 0, 0, 0, 0, 0, 0, 0, 0, 0, 0, 0, 0, 0, 0, 0, 0, 0, 0, 0, 0, 0, 0, 0, 0, 0, 0, 0, 0, 0, 0, 0, 0, 0, 0, 0, 0, 0, 0, 0, 0, 0, 0, 0, 0, 0, 0, 0, 0, 0, 0, 0, 0, 0, 0, 0, 0, 0, 0, 0, 0, 0, 0, 0, 0, 0, 0, 0, 0, 0, 0, 0, 0, 0, 0, 0, 0, 0, 0, 0, 0, 0, 0, 0, 0, 0, 0, 0, 0, 0, 0, 0, 0, 0, 0, 0, 0, 0, 0, 0, 0, 0, 0, 0, 0, 0, 0, 0, 0, 0, 0, 0, 0, 0, 0, 0, 0, 0, 0, 0, 0, 0, 0, 0, 0, 0, 0, 0, 0, 0, 0, 0, 0, 0, 0, 0, 0, 0, 0, 0, 0, 0, 0, 0, 0, 0, 0, 0, 0, 0, 0, 0, 0, 0, 0, 0, 0, 0, 0, 0, 0, 0, 0, 0, 0, 0, 0, 0, 0, 0, 0, 0, 0, 0, 0, 0, 0, 0, 0, 0, 0, 0, 0, 0, 0, 0, 0, 0, 0, 0, 0, 0, 0, 0, 0, 0, 0, 0, 0, 0, 0, 0, 0, 0, 0, 0, 0, 0, 0, 0, 0, 0, 0, 0, 0, 0, 0, 0, 0, 0, 0, 0, 0, 0, 0, 0, 0, 0, 0, 0, 0, 0, 0, 0, 0, 0, 0, 0, 0, 0, 0, 0, 0, 0};


/* Layer 19 Learned Parameters */
#define CONV19_BIAS \
 {-33693, -16352, -4911, 11838, 112367, -14332, -4217, 14817, -12938, 23034, 57760, -5228, -21387, 109724, -12298, 60031, -16565, 42116, -1119, 59651, -10002, -43942, -6760, -5168, -4483, -27468, -21207, 74033, 5068, 19245, 7987, 63663, -16970, -11677, 26292, 38090, 11372, -54330, 58612, 58815, -19043, 97170, 18137, 50169, 84994, 7301, 1151, -36218, -28411, -5121, 4874, 58763, 119367, -51162, 66539, -46079, -32633, -11586, -49858, 40402, 77957, -21266, 36425, 28465, 38583, 4597, 217, -24841, -22188, -1821, 32854, -31205, 4907, -49917, -27426, 50231, 18398, -19101, -8418, -2318, -9818, 3009, 58155, 3779, -5975, -34980, 12733, 180282, -32685, 45974, 37644, -43159, 8877, 122263, -24446, 120903, 46110, -17276, 19044, 49830, -35386, 23093, -38143, 32371, 15330, -49930, 35607, -22496, 6537, 45877, 21212, 123621, 36710, 49724, 33997, 65699, 10840, -26471, 7528, -40014, 32405, -1540, -7458, -22047, 2141, 63942, 33643, 28946, -16491, -7783, 37612, 19259, 19493, -57032, 11558, -6971, 79834, 6099, 8986, 89509, 116699, 63624, -20241, 5260, 44617, 2836, -35365, -2379, -14949, 72012, 38811, -12695, 56150, 19482, 19254, -3281, 98577, -12917, 21061, -13312, -2004, 59959, -15569, -17558, 14069, 40661, 37193, -5492, -35639, 6787, 71652, 18888, -16790, 9129, 20689, -8058, -29316, 90459, -20941, -155546, -42161, -903, 27007, 10475, -39924, 87035, 31186, 22579, 7080, 78, 9039, -8374, -871, 29822, -5753, -15854, 37575, 20133, -66373, -18370, -20418, -2018, 28216, 1154, 75222, -19516, -24111, -9901, 720, 15278, -31124, -10193, 30517, -47606, 10897, 21257, 14821, 32965, -29616, 5482, -28745, 1441, 37721, -1133, 136254, 5611, 43718, -30464, -17602, 12146, 2327, -26467, 33266, 60475, 25670, 33671, -4803, 45001, -6498, -29886, 2800, 75841, 103460, 36807, 74800, -4280, -28572, -49181, -14798, -6141, -9351, -23644, 16141, 3784, -11617, 315}
#define CONV19_WT {0}
static const uint8_t CONV19_W_Z[] = 	 {-118, -141, -143, -157, -110, -125, -128, -134, -137, -124, -148, -92, -125, -128, -136, -136, -134, -112, -104, -122, -110, -121, -132, -163, -137, -121, -95, -144, -89, -138, -132, -112, -134, -123, -126, -130, -116, -135, -156, -99, -129, -150, -92, -122, -159, -137, -125, -151, -94, -107, -109, -132, -129, -132, -128, -106, -129, -118, -111, -136, -106, -90, -93, -105, -143, -127, -139, -106, -106, -81, -98, -151, -86, -138, -146, -105, -121, -119, -143, -127, -102, -122, -120, -119, -91, -161, -110, -121, -131, -177, -140, -129, -177, -126, -123, -138, -105, -164, -99, -146, -125, -141, -146, -97, -100, -119, -130, -130, -100, -93, -112, -141, -88, -144, -119, -130, -92, -106, -157, -128, -157, -130, -107, -117, -103, -136, -127, -122, -122, -132, -92, -155, -148, -97, -89, -125, -101, -103, -139, -145, -133, -121, -136, -109, -115, -112, -142, -128, -122, -108, -142, -116, -127, -128, -112, -120, -132, -87, -115, -132, -104, -128, -91, -149, -123, -120, -117, -127, -119, -119, -124, -115, -134, -145, -145, -116, -123, -127, -119, -117, -124, -120, -135, -116, -108, -128, -129, -123, -106, -103, -86, -124, -90, -98, -116, -104, -132, -147, -111, -120, -121, -136, -110, -100, -123, -168, -127, -108, -120, -132, -128, -120, -101, -115, -89, -162, -147, -115, -125, -71, -89, -175, -117, -107, -152, -124, -148, -130, -148, -112, -144, -106, -117, -130, -114, -139, -143, -167, -95, -110, -142, -145, -130, -136, -149, -115, -142, -129, -126, -118, -130, -94, -110, -134, -148, -107};
#define CONV19_IN_Z      	(0)
#define CONV19_OUT_Z     	(0)
static const int32_t CONV19_M_ZERO[] = 	 {1547622144, 1981649280, 1873083648, 1552857344, 1428539904, 1859880960, 1289288320, 2062770048, 1383209088, 1490939776, 1128842496, 1971351296, 1475716992, 1402462720, 1375479168, 1115340672, 1300224000, 1388816256, 1832699904, 1647704960, 2104320512, 1332310016, 1191938816, 2040848384, 1175860096, 1572444544, 1989648768, 1181480064, 1393953280, 1087001600, 1552241280, 1749113088, 1661008512, 1445566976, 1264859776, 1889397248, 1763019264, 1631210112, 1906551936, 1082108672, 1737868416, 1679678720, 1456276480, 1211654656, 1329364224, 2070732288, 1425175040, 1096398720, 2060018048, 1243613440, 1253410176, 1588899584, 1915761920, 1133564416, 1853263744, 1291509888, 1118013824, 1226095360, 1457132672, 1282932224, 1100791296, 1192049920, 1849820800, 1317660032, 1135000064, 1903513216, 1465790336, 1087531008, 1613613312, 1216350336, 1647623040, 2056357888, 1641574528, 1497135872, 1141216640, 1670406272, 1645944576, 1407844992, 1552709120, 1245146240, 1688142720, 2010352256, 1364277120, 1281217280, 1299716992, 1493981440, 1745709312, 1269216384, 1386238720, 1588719488, 1633278592, 1466898688, 1645606912, 1341286144, 1424358272, 1727667840, 1206334720, 1200650496, 1146459648, 1285027072, 1589625472, 2032203008, 1200121088, 1366873344, 1730742272, 1422576768, 1799857152, 1395930240, 1389951872, 1254419584, 1588940672, 2086844544, 1666872704, 1155216128, 1280181376, 1842944640, 1695756288, 1747965568, 1496733824, 1126980992, 1424783744, 1208123008, 1260943232, 1450534144, 1526631936, 1753530624, 1274597888, 1243047296, 1313330688, 1643902976, 1901956224, 1924800256, 1929352320, 1706710912, 1370054400, 1592590848, 1822949376, 2066628224, 1380761344, 1970577536, 1641934720, 1802733696, 1175382528, 1286249216, 1699324288, 1647261056, 1367766656, 1078724352, 1450615936, 1328495232, 2112662272, 1341385600, 1580719104, 1667533312, 1718372736, 1429090816, 1815543936, 1500259328, 1128731008, 1326080128, 1921868544, 1291506560, 1523922944, 1221641344, 1232969600, 1589522432, 1210817280, 1444423552, 1631969664, 1330339968, 1382055808, 1788556800, 1272913024, 1381730688, 1434372736, 1334759936, 1517550976, 1390700928, 1092542848, 1775872256, 1291532416, 1213914496, 1572121472, 1721376128, 2144761216, 1117933952, 1486513024, 2011724928, 1526212736, 1528072832, 1944457088, 1379262464, 2003929728, 1835230080, 2088299136, 1471844480, 1956825600, 1392755968, 2108234112, 1166172288, 1311110656, 1876887936, 1326654208, 1463148416, 1758295296, 1127119232, 1104280320, 1118365568, 2021763328, 1570893824, 1311957376, 1185147520, 1339822592, 1504311552, 1821544064, 1784897792, 1997319296, 2109180032, 1119880704, 1585105408, 1321181696, 1413200896, 1364662144, 1155908224, 1923978880, 1495544064, 1430005888, 1558719616, 1424844032, 1998717056, 1711090432, 1408299520, 1916082432, 1357667584, 1181239808, 1658583680, 1445891712, 1141910144, 1289313664, 1141878016, 1672973824, 1383714688, 1542243712, 1289941504, 2065681024, 1130280832, 1560662144, 1179085312, 1370323712, 1403426560, 1769176320, 1625841152, 1262129536, 1206254336, 1498709632, 1124588288};
static const int8_t CONV19_N_ZERO[] = 	 {0, 0, 0, 0, 0, 0, 0, 0, 0, 0, 0, 0, 0, 0, 0, 0, 0, 0, 0, 0, 0, 0, 0, 0, 0, 0, 0, 0, 0, 0, 0, 0, 0, 0, 0, 0, 0, 0, 0, 0, 0, 0, 0, 0, 0, 0, 0, 0, 0, 0, 0, 0, 0, 0, 0, 0, 0, 0, 0, 0, 0, 0, 0, 0, 0, 0, 0, 0, 0, 0, 0, 0, 0, 0, 0, 0, 0, 0, 0, 0, 0, 0, 0, 0, 0, 0, 0, 0, 0, 0, 0, 0, 0, 0, 0, 0, 0, 0, 0, 0, 0, 0, 0, 0, 0, 0, 0, 0, 0, 0, 0, 0, 0, 0, 0, 0, 0, 0, 0, 0, 0, 0, 0, 0, 0, 0, 0, 0, 0, 0, 0, 0, 0, 0, 0, 0, 0, 0, 0, 0, 0, 0, 0, 0, 0, 0, 0, 0, 0, 0, 0, 0, 0, 0, 0, 0, 0, 0, 0, 0, 0, 0, 0, 0, 0, 0, 0, 0, 0, 0, 0, 0, 0, 0, 0, 0, 0, 0, 0, 0, 0, 0, 0, 0, 0, 0, 0, 0, 0, 0, 0, 0, 0, 0, 0, 0, 0, 0, 0, 0, 0, 0, 0, 0, 0, 0, 0, 0, 0, 0, 0, 0, 0, 0, 0, 0, 0, 0, 0, 0, 0, 0, 0, 0, 0, 0, 0, 0, 0, 0, 0, 0, 0, 0, 0, 0, 0, 0, 0, 0, 0, 0, 0, 0, 0, 0, 0, 0, 0, 0, 0, 0, 0, 0, 0, 0};


/* Layer 20 Learned Parameters */
#define CONV20_BIAS \
 {-14801, 16600, 91318, 9151, 16111, -3623, -1056, 74324, -2719, -3912, 27571, 34387, -1274, 16532, -9621, -1206, 46040, 19263, 12456, 7962, 9357, -12431, -1402, -23606, -6772, 11029, -14286, 102387, 102938, -588, 20580, 19934, -2286, -26085, -14, 7494, 67910, 25268, 49963, 11083, -10586, -1981, 72213, 2066, 25827, 109711, 49449, -2286, -2970, 3294, 55922, -23861, 32181, -10932, 58146, -1976, -9895, 25090, 34257, 70398, 51565, -48067, 57090, 23183, 69000, 33650, 119889, 2316, -5230, 77717, -926, 20218, 35815, 97700, -4719, 12150, 4477, -1321, 132192, 907, 22369, -11471, -139, -4759, 51485, 62825, -15389, 19157, -25956, 26091, 113956, 168379, 171079, 20209, -16348, 11527, 43347, 24524, 3069, -180, -27755, 38811, -10452, 36342, -3891, -1401, 23844, -4215, 76323, 69388, 20792, 10787, -6113, 117442, 3035, 19958, -3977, -4460, -11718, -3815, 34241, 4744, -2559, -5696, 23454, 53138, 5584, -287, 20891, -837, 34167, 153944, -12519, -10258, 10025, -11742, 13189, -6725, 91779, 18399, 23710, 5405, -6029, 28060, 1582, 6622, -9295, -8104, 129539, 30186, 36297, 120342, 64083, 5713, 9658, -584, -10180, -1438, 28920, -5344, -12398, -3962, -762, 4202, 67402, -1210, 13536, 1834, 175862, 89696, 141, 18772, 132378, 88605, -12831, 30339, -1353, 10253, 21145, -9190, -1823, 40456, -16237, 9912, -1783, 26413, 48131, -13400, 33773, 114092, 25422, 100618, 58653, 53140, 39868, -853, 18644, -9375, -6859, -10811, -3719, 103293, 20123, -1566, 29160, 38068, -3309, -2965, 115142, 19309, 209, -1217, 53011, -21092, -53386, 9359, 55715, 37769, 12401, -1409, -21696, 20962, 7406, -8799, 3438, -1082, 42942, -4364, 48839, -15775, 74484, 6549, -23494, 14677, 7680, 34053, -1847, 53395, 46794, -21564, 19111, 120645, 17504, -2063, -9508, 27050, 16204, -7964, 69970, -7031, 147878, 59477, -1461, 17140, 74884, 54703}
#define CONV20_WT {0}
static const uint8_t CONV20_W_Z[] = 	 {28, -152, -366, -95, -220, -66, -30, -394, -72, -118, -51, -272, -104, -246, -120, -137, -228, -153, -123, -33, -39, -71, -17, 22, -46, -44, -15, -435, -454, -18, -126, -239, -31, 26, -17, -25, -442, -119, -256, -210, -4, -110, -269, -70, -251, -519, -230, -181, -44, -33, -257, 4, -259, -17, -280, -26, -26, -60, -163, -255, -329, 48, -231, -133, -311, -136, -355, -99, -10, -303, -116, -104, -273, -351, -26, -34, -42, -56, -354, -166, -100, -47, -20, -36, -144, -371, 2, -245, 21, -129, -378, -497, -495, -248, -32, -211, -262, -117, -103, -132, 24, -240, -1, -265, -43, -180, -162, -68, -277, -366, -217, -31, -32, -501, -23, -258, -84, -19, -11, -104, -173, -120, -12, -20, -122, -277, -215, -43, -117, -48, -243, -546, -22, -3, -30, 1, -219, -26, -527, -239, -241, -132, -21, -182, -104, -31, -4, -16, -335, -246, -113, -503, -275, -47, -135, -82, -43, -17, -241, -63, 4, -15, -11, -23, -261, -14, -102, -51, -430, -315, -39, -107, -517, -281, -15, -204, -14, -52, -125, -30, -22, -225, -3, -109, -70, -251, -165, 1, -259, -492, -37, -417, -250, -430, -285, -29, -83, -17, -46, 11, -10, -535, -200, -151, -230, -135, -8, -9, -224, -65, -98, -76, -203, 35, 56, -33, -276, -205, -103, -97, -12, -156, -30, -6, -34, -166, -127, -48, -277, -38, -366, -31, -9, -170, -33, -129, -20, -164, -211, -68, -201, -291, -248, -95, -18, -238, -83, 33, -436, -44, -650, -330, -41, -70, -265, -290};
#define CONV20_IN_Z      	(0)
#define CONV20_OUT_Z     	(0)
static const int32_t CONV20_M_ZERO[] = 	 {1733736064, 1589356416, 1252610176, 2052286336, 1620782464, 1816406016, 1748814720, 1176879872, 1295352960, 2116977024, 1342516224, 1670513024, 1382570368, 1486816384, 2007949824, 1520845056, 1470275712, 1296420352, 1095382656, 1943548032, 1143771136, 1930689664, 1928414592, 1152579840, 1207264128, 2090846464, 1209536128, 1303965696, 1295745792, 1456352768, 1075627136, 1999698560, 1161020160, 1496581248, 1813826560, 1768287232, 1505535872, 1437612928, 1172660864, 1475193856, 1621774080, 1219790464, 1435080448, 1106175360, 1681281152, 1790384384, 1938924288, 1154014848, 1713362816, 1623445760, 1280883456, 1891407872, 1178402432, 1978587648, 1298720896, 1373642880, 1394137216, 1266249344, 1512346624, 2017165696, 1238237184, 1710385920, 1494717952, 1202065152, 1134576384, 1434714496, 1318259072, 1308188672, 1657555712, 1999613440, 1164682112, 1768428672, 1296090624, 1566767488, 1445688192, 1893430784, 1838471296, 1628610688, 1341764480, 1954981504, 1300486656, 1660767232, 1405968640, 2133228160, 1257343360, 1850846848, 1643037824, 1160294656, 1531152768, 1550583424, 1108872192, 1566662656, 1300144128, 1365053824, 1115581440, 1466252160, 1199828992, 1811409024, 1124859008, 1610835840, 1634263296, 1102659584, 1381425408, 1863468160, 1116261248, 1238960896, 1309701248, 1547725824, 1779468672, 1920001664, 1985984512, 1980395264, 1662683008, 1870078720, 1138660864, 2136705152, 1598457472, 2046929792, 1250550912, 1928590720, 1134552704, 1308807936, 2067320960, 1121586816, 1954711168, 1221577984, 1139862656, 1142209152, 2047559424, 1124144128, 1078043520, 1409073920, 1387206656, 2141640064, 1257086592, 1532670208, 1220799488, 1289771904, 1717247232, 1604114816, 2038422144, 1770436608, 1120038144, 1779928448, 2132303488, 1575627008, 1760374656, 1694014208, 1690003200, 1500061184, 1903740928, 1768765056, 1654116224, 1913580160, 1585650432, 1630401664, 1784975616, 2066172800, 1188414976, 1537337344, 1950972416, 1739440768, 2041009024, 1604369408, 1719576320, 1673912576, 1256400000, 1094475520, 1994534784, 1153131008, 1480353536, 1959731968, 1599613312, 1369663488, 1236987904, 1168169728, 1860085888, 1923303424, 1405151744, 1480478848, 2104865792, 1500521984, 1130796416, 1459018240, 1619889664, 1500344576, 1595891328, 1885140352, 1763061120, 1957233280, 1919424000, 1114976256, 2034416896, 1769341056, 1806931840, 1203851648, 1616020352, 1278778368, 2086830464, 1872950784, 1648071296, 1862895744, 1884282368, 1852523392, 1861684864, 1099396992, 1893685632, 1882303360, 1935678464, 1433063680, 1474901888, 1223399296, 1347464448, 1239827584, 1211865984, 1973970688, 1446268544, 1623112320, 1128715136, 1580057984, 1360307072, 1356900096, 1461928320, 1221107200, 1182676992, 1620430720, 1199543552, 1322225792, 1254239360, 1698959232, 1168573696, 1177769984, 1260984320, 1116353152, 1216387840, 1735117312, 1472502272, 1212329856, 1609337216, 1131938432, 1499803136, 2080727424, 1522212992, 1743424768, 1265585792, 1316591232, 1432456448, 1424487040, 1363267840, 2087436032, 1229840640, 1686832512, 1919454976, 1263988864, 1288414976, 1301669376};
static const int8_t CONV20_N_ZERO[] = 	 {0, 0, 0, 0, 0, 0, 0, 0, 0, 0, 0, 0, 0, 0, 0, 0, 0, 0, 0, 0, 0, 0, 0, 0, 0, 0, 0, 0, 0, 0, 0, 0, 0, 0, 0, 0, 0, 0, 0, 0, 0, 0, 0, 0, 0, 0, 0, 0, 0, 0, 0, 0, 0, 0, 0, 0, 0, 0, 0, 0, 0, 0, 0, 0, 0, 0, 0, 0, 0, 0, 0, 0, 0, 0, 0, 0, 0, 0, 0, 0, 0, 0, 0, 0, 0, 0, 0, 0, 0, 0, 0, 0, 0, 0, 0, 0, 0, 0, 0, 0, 0, 0, 0, 0, 0, 0, 0, 0, 0, 0, 0, 0, 0, 0, 0, 0, 0, 0, 0, 0, 0, 0, 0, 0, 0, 0, 0, 0, 0, 0, 0, 0, 0, 0, 0, 0, 0, 0, 0, 0, 0, 0, 0, 0, 0, 0, 0, 0, 0, 0, 0, 0, 0, 0, 0, 0, 0, 0, 0, 0, 0, 0, 0, 0, 0, 0, 0, 0, 0, 0, 0, 0, 0, 0, 0, 0, 0, 0, 0, 0, 0, 0, 0, 0, 0, 0, 0, 0, 0, 0, 0, 0, 0, 0, 0, 0, 0, 0, 0, 0, 0, 0, 0, 0, 0, 0, 0, 0, 0, 0, 0, 0, 0, 0, 0, 0, 0, 0, 0, 0, 0, 0, 0, 0, 0, 0, 0, 0, 0, 0, 0, 0, 0, 0, 0, 0, 0, 0, 0, 0, 0, 0, 0, 0, 0, 0, 0, 0, 0, 0, 0, 0, 0, 0, 0, 0};


/* Layer 21 Learned Parameters */
#define CONV21_BIAS \
 {-27188, -41396, -31626, -18943, -24708, -53636, -6432, -1373, 26896, 8113, 26668, 49869, -39241, -29, -19516, 5868, 11834, -10439, -3127, -13501, 47635, -26992, -12715, -53540, -1633, 49158, -24189, -104763, 3175, -12308, 13581, 25018, -6718, -7080, -32742, -26188, -24865, -56345, 12557, 2670, 4964, -1236, -79937, 15765, 3802, -30993, 15442, -36873, 19332, -9330, 6189, -11004, -26448, 142072, -10182, 9152, -2663, 18647, -18317, -15900, 37277, -1429, -54543, 4251, -31888, -43940, 12200, -51226, -37110, -62408, -19248, -59138, 15549, 93682, 155649, -5918, -58581, 59937, -25666, 66629, 12090, -19278, -13107, 7179, -18253, -17205, -2836, 28397, -29617, -9578, -4701, 821, -47017, -44210, -74465, -6502, 17464, -13803, 30719, -4804, 30521, 16713, 3000, 93879, -7971, -17302, 21475, 11197, 12607, -26850, 22997, -11179, 1352, 11395, -24771, -23562, 8021, 14167, -47266, 20435, -14962, 87501, -100932, -42856, 8890, -27762, -31265, -52340, 37377, -17228, -8816, 1141, -49364, -26525, -53037, 46625, 7548, -14345, 11308, -35842, -54840, -47562, -25328, -15343, -42735, -43957, -52085, -21245, -29301, -26102, -19190, -22253, -49059, -35104, -27625, -26337, -59546, -14841, 23112, 54124, -39903, 49663, -19383, -54018, -14973, -1652, -45522, -45915, -23911, -42442, -35415, -4499, 10076, -23053, -14811, -16302, -2790, 43313, 5063, 66598, -30763, 62735, 8398, 15975, -47930, -16430, -34673, 62624, 4017, -2644, -49836, -33006, -2928, 31999, 19694, 37683, -6091, -46690, -2911, -40299, -21254, -7276, -39642, 79725, -8538, -10441, 8282, 59341, -18331, 14948, 21582, -13190, -53943, -7790, 29552, 43142, -41545, -14711, 12164, -17198, -54615, -19105, -9132, -17481, -35747, -16598, -60218, -39957, -444, -35523, 18932, -7814, 48659, -8927, -58761, -21509, -14482, -41629, -3674, -16508, -22187, -14208, -20224, -4532, 3891, 82837, -3365, -19393, -55094, -5936, -26551, -13983, -18013, 28806, 6307, -26450}
#define CONV21_WT {0}
static const uint8_t CONV21_W_Z[] = 	 {-123, -160, -115, -112, -151, -132, -137, -120, -117, -133, -145, -137, -94, -178, -129, -166, -104, -133, -151, -135, -136, -86, -114, -140, -119, -153, -157, -91, -116, -136, -118, -161, -129, -116, -112, -133, -97, -131, -132, -114, -118, -95, -104, -153, -132, -116, -100, -110, -141, -130, -88, -129, -140, -144, -112, -137, -122, -89, -101, -114, -133, -130, -113, -117, -138, -132, -108, -109, -153, -114, -97, -112, -122, -150, -127, -130, -130, -133, -153, -137, -155, -133, -137, -162, -91, -112, -124, -118, -101, -118, -109, -99, -127, -136, -109, -108, -138, -128, -120, -153, -122, -134, -147, -127, -141, -97, -198, -115, -108, -138, -148, -121, -124, -83, -168, -140, -139, -91, -140, -132, -146, -123, -115, -120, -108, -112, -101, -122, -146, -171, -122, -160, -92, -132, -94, -118, -96, -84, -121, -101, -116, -138, -121, -149, -116, -116, -136, -122, -98, -111, -101, -131, -102, -117, -117, -105, -104, -136, -149, -149, -105, -136, -78, -123, -107, -131, -118, -92, -150, -144, -128, -181, -147, -109, -101, -116, -105, -96, -148, -134, -88, -83, -127, -151, -98, -111, -131, -98, -159, -99, -128, -133, -124, -157, -186, -114, -124, -104, -129, -102, -108, -114, -148, -111, -121, -106, -128, -113, -106, -178, -126, -128, -120, -128, -118, -138, -124, -120, -89, -153, -125, -132, -165, -126, -102, -165, -114, -122, -100, -131, -166, -123, -125, -128, -144, -126, -110, -112, -154, -111, -101, -136, -138, -119, -122, -143, -85, -126, -128, -106, -121, -99, -96, -117, -113, -127};
#define CONV21_IN_Z      	(0)
#define CONV21_OUT_Z     	(0)
static const int32_t CONV21_M_ZERO[] = 	 {1200189056, 1349356800, 1682609792, 2040035072, 1286548352, 1802828800, 1353960064, 1621661696, 2118165120, 1503419648, 1161277824, 2027098752, 1618846848, 1609270528, 1868543488, 2109064064, 1799001984, 1557531008, 1494171008, 1585494272, 1129389440, 1857714688, 1636165504, 1558265344, 1621174528, 1243722112, 1519561472, 1454474496, 1125143808, 1361629312, 1255017088, 1141881984, 1550588160, 1466116736, 1407494784, 1515261696, 1623326464, 1439820032, 1151008640, 1447964032, 1278190336, 2022795264, 1512618624, 1392241280, 1280883584, 1461668992, 1709353088, 1716512512, 1991311872, 1722704896, 1676845312, 1641450496, 2019899392, 1800104064, 1659865728, 1717284352, 1143323520, 1159737472, 1998646400, 1747321600, 1258582912, 1199086336, 1237083392, 1690303104, 2062889856, 1882451456, 1130453120, 1532458368, 1274661504, 1909010816, 1560707584, 1462070656, 1839387392, 2107755392, 1652474752, 1823475456, 1464552192, 1103653504, 1206670976, 1150000256, 1814292096, 1564459392, 1096731392, 1281233280, 1549372928, 1485461760, 1087632640, 1304381952, 1247392128, 1755259264, 1982503808, 1921668224, 2066898688, 1508545024, 2117956480, 1319687936, 1221279232, 1891561344, 1322566144, 1397691904, 1460175360, 1856054528, 1537995264, 1103676544, 1595659776, 1246733184, 1478809728, 2110573312, 1758189696, 1350124160, 1102575616, 1309392896, 1164357632, 1982581504, 1860652160, 1321912320, 1543147264, 1739515392, 2138876672, 1881249280, 1150341504, 2059093248, 1831317376, 1426732672, 2113512960, 1114006400, 1265508480, 1368345344, 1273612416, 1234198784, 1197288832, 1114314240, 1722378112, 1707934976, 1466224128, 1363101184, 1744284544, 1530444928, 1178010624, 2072089984, 1170060800, 1627359616, 1271861248, 1207684352, 1690501120, 1343179648, 1346110592, 1753595776, 1409402752, 2135260928, 1676406528, 1378724480, 1431159552, 1872822144, 2126226944, 1326027264, 1582663296, 1505543808, 1099733248, 1577000192, 1535241856, 1567764608, 1691252864, 1265750528, 1981588608, 1677076096, 1397160192, 1190852608, 1304416128, 1517469696, 1474834432, 1093846912, 1234234240, 2030114432, 1396336384, 1636857088, 1917895424, 1084274944, 1335783168, 1321908352, 1847817344, 1954510080, 1353039872, 1500478976, 1580067968, 1508206464, 1228508672, 2060729728, 1583209728, 1580843648, 1645820672, 1196402688, 2072325888, 1384579200, 1098457344, 1915927680, 2099907968, 1088708352, 1311818880, 1785275520, 1171316608, 1302611712, 1093721088, 1591104256, 1422057472, 1241489152, 1258521856, 1400505984, 1335045248, 1377256064, 1495070208, 1742709760, 1229942016, 1524478080, 1943068544, 1507300992, 1245866880, 1112903424, 2104359168, 1148902272, 1576325248, 1322653568, 1215726592, 2056628096, 1811104768, 2072501632, 1184755840, 1199790208, 1780968448, 1522610048, 2067628672, 1528513664, 1705938560, 1410844160, 1639870208, 1319182336, 1145008768, 1383310080, 1708984576, 1483593856, 1543919104, 1733259392, 1487374208, 1337239424, 1746851072, 1333653632, 1162933632, 2072313344, 1578304384, 1590657152, 1571138432, 1488679680, 1901198976, 1317305856, 2110429184, 1909404160};
static const int8_t CONV21_N_ZERO[] = 	 {0, 0, 0, 0, 0, 0, 0, 0, 0, 0, 0, 0, 0, 0, 0, 0, 0, 0, 0, 0, 0, 0, 0, 0, 0, 0, 0, 0, 0, 0, 0, 0, 0, 0, 0, 0, 0, 0, 0, 0, 0, 0, 0, 0, 0, 0, 0, 0, 0, 0, 0, 0, 0, 0, 0, 0, 0, 0, 0, 0, 0, 0, 0, 0, 0, 0, 0, 0, 0, 0, 0, 0, 0, 0, 0, 0, 0, 0, 0, 0, 0, 0, 0, 0, 0, 0, 0, 0, 0, 0, 0, 0, 0, 0, 0, 0, 0, 0, 0, 0, 0, 0, 0, 0, 0, 0, 0, 0, 0, 0, 0, 0, 0, 0, 0, 0, 0, 0, 0, 0, 0, 0, 0, 0, 0, 0, 0, 0, 0, 0, 0, 0, 0, 0, 0, 0, 0, 0, 0, 0, 0, 0, 0, 0, 0, 0, 0, 0, 0, 0, 0, 0, 0, 0, 0, 0, 0, 0, 0, 0, 0, 0, 0, 0, 0, 0, 0, 0, 0, 0, 0, 0, 0, 0, 0, 0, 0, 0, 0, 0, 0, 0, 0, 0, 0, 0, 0, 0, 0, 0, 0, 0, 0, 0, 0, 0, 0, 0, 0, 0, 0, 0, 0, 0, 0, 0, 0, 0, 0, 0, 0, 0, 0, 0, 0, 0, 0, 0, 0, 0, 0, 0, 0, 0, 0, 0, 0, 0, 0, 0, 0, 0, 0, 0, 0, 0, 0, 0, 0, 0, 0, 0, 0, 0, 0, 0, 0, 0, 0, 0, 0, 0, 0, 0, 0, 0};


/* Layer 22 Learned Parameters */
#define CONV22_BIAS \
 {-7029, -21, -12005, 92720, -10769, -5279, 116969, 21780, 353, 7967, -7973, 23707, -4088, -9030, -2846, 3659, 34476, -23428, 91819, 84012, -14497, 1268, 91595, -5491, -5779, 36685, -7440, -3952, 138498, -12358, -1246, -1990, 129687, -3114, -8794, -18207, 919, 100858, 80363, 70688, -2479, 90990, -4105, 17959, -379, -7028, -15541, 13287, -15417, -16624, -2227, -9977, 7268, 127566, 131211, 28207, -2457, 167055, 818, -3481, -5880, 108630, -5515, 158600, -15197, -8489, 123940, -4789, -2928, -16095, -3632, 514, -8297, 79432, 20726, -3135, 241333, 60532, -16424, 16896, 92778, -13712, 85748, -491, -1682, -5207, 29895, -11564, -3021, -6045, 96968, 73830, 11399, -3110, 43160, 62130, -13488, 4887, -18229, 64769, -4320, -19055, -5652, 37909, 97730, 72057, -9566, -9402, 27411, 133149, -62581, 4219, 51104, 102503, -11480, -5194, -1523, -880, 98811, -30390, 18956, 17880, 117712, 100718, 59353, -9127, -6678, -1898, 32891, -14034, 179942, 61244, -1095, 34222, 12686, 38317, -18456, -9638, 87773, 1714, -3371, -4629, -5082, -1516, -4783, -9922, 90634, -10834, 55960, 124113, 124854, -8774, -848, 75341, -2743, 49984, -14419, -3311, -13167, 40815, -16769, -202, -4229, 181342, 65130, -1007, 133902, -10709, -1142, -752, -11060, 79924, 12566, -17968, 11750, -17527, -3337, -8381, 13312, -4982, -12351, 32482, -10798, 1239, -5564, -3783, -9271, 36925, 26989, -8807, -481, 1544, -19476, 68182, 16785, -6008, -2684, -11006, 1545, 3639, 80121, -2249, 9323, 31157, -3604, -1911, -6443, 44765, -103, 19797, 15873, -25180, -11568, -8955, 21424, 34312, -3320, 114441, -4793, 1609, 80793, 258462, -8999, -8980, 104470, -12387, -8695, -7420, -2456, -5640, 23880, -6817, -13429, -131, -2311, -2372, 127862, 37946, 88576, 23408, 112252, 137516, 69064, -4212, 54733, 33525, 113593, -7640, -13367, -4080, 104924, 90135, -5752, -14971, 157282, -10292}
#define CONV22_WT {0}
static const uint8_t CONV22_W_Z[] = 	 {-77, -22, -37, -289, -21, -4, -452, -138, -147, -58, -2, -231, -6, -110, -53, -21, -125, 9, -296, -277, -1, -136, -274, -106, 7, -266, -25, -31, -397, -54, -42, -56, -475, -13, 1, -56, -40, -326, -407, -285, -51, -296, -48, -121, 28, -65, 11, -97, -13, -40, -29, -30, -67, -255, -496, -248, -22, -600, -130, -21, -24, -567, -42, -536, -25, -29, -359, -36, -43, -67, -16, 79, -4, -321, -217, -9, -614, -301, 15, -184, -387, -41, -280, -53, -90, -18, -164, -19, -10, -41, -470, -296, -113, -24, -198, -263, 10, -89, 12, -282, -103, -60, 87, -253, -273, -285, -57, 9, -79, -324, 21, -84, -235, -419, -18, -31, -27, -33, -279, -12, -112, -76, -463, -301, -279, -5, -3, -22, -216, -24, -645, -247, -8, -191, -175, -139, 4, -89, -364, -132, -28, -21, -15, -16, -25, -40, -285, -15, -278, -314, -340, -14, 25, -338, -67, -331, 29, -10, -44, -285, 11, -40, -12, -501, -282, -20, -341, 48, -37, -31, -12, -220, -78, -10, -155, 61, -43, -31, -78, -8, 14, -188, -26, -23, -58, -39, -17, -253, -221, -5, 15, -109, 0, -335, -104, -103, -13, 8, -19, -77, -347, -28, -149, -162, -45, -10, -12, -280, -125, -106, -237, 12, -12, -35, -148, -257, -31, -416, -34, -71, -451, -633, -77, -19, -405, 4, 6, 3, -18, -56, -137, -7, -41, -4, -16, -23, -426, -225, -373, -194, -518, -489, -415, -18, -282, -263, -386, -8, 59, -15, -266, -424, -28, -16, -616, 7};
#define CONV22_IN_Z      	(0)
#define CONV22_OUT_Z     	(0)
static const int32_t CONV22_M_ZERO[] = 	 {1810962816, 1156387712, 1811832832, 1304647680, 1202204288, 1093196288, 1167595904, 1269054720, 1449573248, 1135083392, 1102020736, 1252506496, 1871101952, 1517294336, 1170022528, 2104278400, 1779215872, 1563851520, 1909609344, 2076073728, 1267827200, 1840954496, 2066050304, 1848904192, 1564415488, 1261586688, 1220731392, 1205277312, 1803119488, 1082178688, 1371862272, 1296312576, 2064105472, 1253163392, 1327995136, 1307066240, 1402964224, 1399125632, 1723737344, 1191537920, 1124311040, 1958443904, 1520794240, 1995397504, 1531981312, 1409661312, 2058376192, 1094089728, 1283112960, 1123201280, 1953862144, 2091643008, 1259114368, 1487072128, 1079026816, 1626475264, 1165959040, 1560141440, 1323613824, 1244967808, 1934230656, 1931562240, 1378274304, 1750467456, 1162897408, 1363962240, 1516215424, 2145031552, 1805216896, 1223729024, 1487329920, 1553473920, 1316068352, 1909524224, 1563069312, 1778337792, 1111036032, 1906385024, 2088099328, 1679139840, 1743909888, 2042853120, 1974146944, 1792349696, 2106888704, 1207019648, 1214770048, 1593383296, 1770744960, 2045725824, 1487820288, 1365453824, 1311231232, 1628540928, 1998569856, 1811182208, 1753385600, 2044146176, 1989802240, 2055191168, 1391197312, 1144273408, 1275822208, 1207159808, 1396328320, 1146430080, 2013901056, 1930420480, 1616906496, 1875643648, 1744845184, 1145596032, 1347140992, 1183312384, 1317337856, 1834932352, 2110229120, 1215656704, 1515534592, 1103730176, 1467274624, 1617090048, 1388178304, 1268045696, 1792614016, 1150203008, 1651300864, 1136512512, 1309572352, 1250924032, 1683193344, 1327764352, 1627461504, 1794668288, 1932276480, 1564530688, 1295783296, 2137150464, 1536131072, 1192467456, 1996358016, 1805670912, 1290823808, 1116472960, 2044738304, 1549984256, 1308655488, 1598134912, 1392940928, 1317234304, 1861010944, 1651132416, 1979630336, 1666817792, 1445702400, 1904423168, 1656532480, 1111670400, 1759718144, 1988521088, 1566973568, 2070285056, 1090504576, 2003837184, 2111642496, 1152973184, 1455705984, 1366334336, 2091710336, 1866034688, 1877734144, 1395726720, 1200695296, 1329882240, 1185768576, 1185322112, 1658404224, 1412918528, 1168546560, 1990414848, 2040721536, 1823481728, 1156892544, 1127431680, 1316838528, 1077369472, 1953817088, 1152629248, 1151898240, 1673354112, 1149592832, 2125835904, 1338093312, 1765258496, 1146034432, 1489716352, 2106439040, 1203896064, 2002969216, 2007800320, 1993201792, 1194764416, 1536884992, 1915769088, 1180955520, 1811401088, 2062593280, 1637397888, 2045999360, 2062011008, 1653235456, 2107707648, 1297389568, 1349774592, 1587869824, 1663592960, 1806759040, 1333861632, 2111434880, 2049161344, 1439053312, 1440368384, 1263842816, 2142169344, 1859896448, 1251054976, 1839706752, 2002936960, 1139630336, 1239437184, 1771456768, 2013575552, 1766192896, 1808241152, 1331289088, 1283979008, 1282307968, 1131166336, 1376994688, 1523329280, 1976398464, 1739554688, 1629190784, 1181197696, 1365871744, 1663219840, 1378872320, 1999165952, 1556669568, 1089041408, 1605246720, 1378891136, 1379031936, 1365718016, 1614461568, 1428819456};
