#ifndef __192_0_25_WEIGHTS_BIAS_H__
#define __192_0_25_WEIGHTS_BIAS_H__


/* Layer 1 Learned Parameters */
#define CONV1_BIAS \
 {-6068730, -5528332, 194244, 78301, 580909, 194111, 678461, 228207}
#define CONV1_WT {0}
static const uint8_t CONV1_W_Z[] = 	 {-267, -51, -154, -122, -312, -227, 56, 164};
#define CONV1_IN_Z      	(127)
#define CONV1_OUT_Z     	(0)
static const int32_t CONV1_M_ZERO[] = 	 {1365106432, 1943098496, 1491990528, 1170242176, 1183174784, 1448502656, 1842795008, 1163524096};
static const int8_t CONV1_N_ZERO[] = 	 {0, 0, 0, 0, 0, 0, 0, 0};


/* Layer 2 Learned Parameters */
#define CONV2_BIAS \
 {-327, -1109, -9870, 146234, -9424, 36594, -4477, -4781}
#define CONV2_WT {0}
static const uint8_t CONV2_W_Z[] = 	 {-218, -104, -82, -204, -254, -207, -26, -231};
#define CONV2_IN_Z      	(0)
#define CONV2_OUT_Z     	(0)
static const int32_t CONV2_M_ZERO[] = 	 {1113843072, 2127991808, 1816252544, 1972459520, 1771584256, 1789269632, 1428398464, 1128329216};
static const int8_t CONV2_N_ZERO[] = 	 {0, 0, 0, 0, 0, 0, 0, 0};


/* Layer 3 Learned Parameters */
#define CONV3_BIAS \
 {-28126, -1649339, 58918, 62625, -44514, 13539, 17912, -14892, 68082, -36893, -15712, 6517, -49754, 12648, -16494, 71591}
#define CONV3_WT {0}
static const uint8_t CONV3_W_Z[] = 	 {0, -160, -242, -246, 0, -11, -211, 0, -253, -40, -105, 0, -9, -239, -1, -253};
#define CONV3_IN_Z      	(0)
#define CONV3_OUT_Z     	(0)
static const int32_t CONV3_M_ZERO[] = 	 {1731321728, 2090310144, 1240436480, 1205630976, 1198784896, 1936467584, 1627877376, 1151061376, 1951735040, 1745673088, 1360254336, 2019067904, 1498053760, 1908551168, 1155330816, 2064256768};
static const int8_t CONV3_N_ZERO[] = 	 {0, 0, 0, 0, 0, 0, 0, 0, 0, 0, 0, 0, 0, 0, 0, 0};


/* Layer 4 Learned Parameters */
#define CONV4_BIAS \
 {2515, -314, 3127, 29114, 22931, 2623, 94997, 131652, 4936, 398, -1591, 2821, -1184, 12133, 15679, 17874}
#define CONV4_WT {0}
static const uint8_t CONV4_W_Z[] = 	 {-101, -207, -139, -136, -178, -114, -189, -227, -132, -101, -114, -137, -91, -48, -164, -98};
#define CONV4_IN_Z      	(0)
#define CONV4_OUT_Z     	(0)
static const int32_t CONV4_M_ZERO[] = 	 {1948831104, 1912518912, 1711259776, 2122420480, 1602863232, 1595269632, 1329650304, 1242632576, 1236484736, 1424566272, 1331818624, 1120053632, 1174355712, 1910586624, 1480203520, 1910926720};
static const int8_t CONV4_N_ZERO[] = 	 {0, 0, 0, 0, 0, 0, 0, 0, 0, 0, 0, 0, 0, 0, 0, 0};


/* Layer 5 Learned Parameters */
#define CONV5_BIAS \
 {33494, -62710, 7805, -20201, 5439, 25471, 16142, -11333, 7260, -10304, 56121, -93535, 46916, 40187, 32815, 35990, -4298, 89657, 32606, -6762, -54375, 34505, 24881, -79875, 55584, 5837, 77368, 7172, -11897, 32833, 173633, 5030}
#define CONV5_WT {0}
static const uint8_t CONV5_W_Z[] = 	 {-181, -8, -121, -46, -86, -166, -120, -38, -41, -52, -196, -47, -193, -174, -212, -201, -39, -205, -192, -20, -26, -178, -198, -20, -243, -107, -248, -107, -114, -211, -129, -106};
#define CONV5_IN_Z      	(0)
#define CONV5_OUT_Z     	(0)
static const int32_t CONV5_M_ZERO[] = 	 {2059534592, 1096539392, 1797767040, 1179152896, 1355756416, 1117328384, 1449689728, 1524047232, 1228661120, 1480179968, 1105832320, 1700209280, 1439565312, 1133954560, 1556770432, 1480579840, 1126270208, 1697967104, 1528889856, 1691176704, 1860321024, 1750918784, 1234210688, 1677805696, 1370043648, 1902111232, 1458454656, 1862749056, 1802794752, 1987307008, 1212479616, 1085723264};
static const int8_t CONV5_N_ZERO[] = 	 {0, 0, 0, 0, 0, 0, 0, 0, 0, 0, 0, 0, 0, 0, 0, 0, 0, 0, 0, 0, 0, 0, 0, 0, 0, 0, 0, 0, 0, 0, 0, 0};


/* Layer 6 Learned Parameters */
#define CONV6_BIAS \
 {3097, 19433, 56118, -64, 71, 18218, 164, 11399, 24254, 109, 226, 452, -2473, 17495, -247, 19883, 1470, 24838, 92, 643, -60, -754, 8008, 13333, 36470, -399, 39193, 340, 22411, 8682, -92759, 247}
#define CONV6_WT {0}
static const uint8_t CONV6_W_Z[] = 	 {-11, -138, -211, -120, -161, -92, -155, -146, -120, -107, -53, -138, -11, -116, -133, -73, -101, -124, -110, -96, -117, -144, -50, -55, -182, -132, -36, -114, -119, -103, -9, -128};
#define CONV6_IN_Z      	(0)
#define CONV6_OUT_Z     	(0)
static const int32_t CONV6_M_ZERO[] = 	 {1526099328, 1157741184, 1088239232, 1378050560, 1482374144, 1897340928, 1406499200, 1352828672, 1471415808, 1247444352, 1181091328, 1835682944, 2044339584, 1729028480, 2002855808, 2033810816, 1431180032, 1379049856, 1194222848, 1889655296, 1319073408, 1508756736, 1361774464, 1870751488, 2128107904, 2070335872, 1319819648, 1093426816, 1344650880, 1265636736, 1866612736, 1897831424};
static const int8_t CONV6_N_ZERO[] = 	 {0, 0, 0, 0, 0, 0, 0, 0, 0, 0, 0, 0, 0, 0, 0, 0, 0, 0, 0, 0, 0, 0, 0, 0, 0, 0, 0, 0, 0, 0, 0, 0};


/* Layer 7 Learned Parameters */
#define CONV7_BIAS \
 {231, 4039, -58116, -12551, 33013, 41734, 53543, 7132, 21568, 12278, 1479, 15793, 41819, 18211, -14372, 9987, 8385, -47110, 26773, 11630, -3052, 14364, 59343, 17051, -8911, 20040, -67156, -2353, -17778, 4972, 81611, -19944}
#define CONV7_WT {0}
static const uint8_t CONV7_W_Z[] = 	 {-130, -98, -22, -181, -120, -145, -140, -96, -123, -63, -133, -128, -151, -167, -132, -114, -94, -65, -166, -37, -58, -102, -146, -57, -128, -95, -99, -119, -163, -136, -154, -190};
#define CONV7_IN_Z      	(0)
#define CONV7_OUT_Z     	(0)
static const int32_t CONV7_M_ZERO[] = 	 {1995399040, 2019986432, 1629101952, 1799517696, 1587847040, 2066048640, 1242408704, 2090336128, 1088781440, 1234179072, 1957706496, 1158438656, 1591912576, 1638464256, 1904655104, 1472401280, 1915980544, 1091442176, 2100823424, 1368476800, 1811450624, 1394957696, 1076394240, 1773247360, 1744407680, 1517583744, 2147423232, 1163991040, 1675259520, 1559665536, 1689596544, 1791298688};
static const int8_t CONV7_N_ZERO[] = 	 {0, 0, 0, 0, 0, 0, 0, 0, 0, 0, 0, 0, 0, 0, 0, 0, 0, 0, 0, 0, 0, 0, 0, 0, 0, 0, 0, 0, 0, 0, 0, 0};


/* Layer 8 Learned Parameters */
#define CONV8_BIAS \
 {656, 114721, 3008, 4678, 169169, 250999, 18598, -26153, 338782, 1249, 201236, 33519, 14696, 249231, 24353, -701, 174756, 3289, 273261, -104124, 2981, 177166, 188411, 110215, 54657, 135710, 33851, 128234, 8881, 12672, 178600, 17259}
#define CONV8_WT {0}
static const uint8_t CONV8_W_Z[] = 	 {16, -328, 64, 111, -290, -313, 11, 47, -276, -128, -312, -314, 63, -280, 46, -149, -320, 81, -327, 25, 68, -306, -277, -301, 72, -307, 98, 57, 71, 67, -210, 83};
#define CONV8_IN_Z      	(0)
#define CONV8_OUT_Z     	(0)
static const int32_t CONV8_M_ZERO[] = 	 {1623359488, 1288993792, 1878280960, 2115740416, 1736785536, 1482931584, 1154527872, 1742435712, 2065172480, 1633352320, 1410232576, 1088501248, 1837510144, 1261100800, 1856594944, 1744692224, 1715761920, 1476590336, 1602899456, 1390126208, 1967645568, 1587783680, 2108709888, 1455314304, 1897689472, 1643946880, 1799534592, 1840400896, 1342634112, 2020605824, 1481952512, 1444071808};
static const int8_t CONV8_N_ZERO[] = 	 {0, 0, 0, 0, 0, 0, 0, 0, 0, 0, 0, 0, 0, 0, 0, 0, 0, 0, 0, 0, 0, 0, 0, 0, 0, 0, 0, 0, 0, 0, 0, 0};


/* Layer 9 Learned Parameters */
#define CONV9_BIAS \
 {-26298, 30106, 1474, -4327, -29049, 7056, 22612, 21360, -41566, 9886, 53592, 38253, -15035, 32584, -18974, -49698, -18983, -1749, 53706, 24051, 26952, -3018, 126141, 36266, 32364, -23560, 29585, 20609, 26124, -31591, 35177, 48186, 31397, 70045, 108500, 65344, 26124, -12411, 53678, 2633, 88466, 1151, -11495, 32980, 31003, -16532, 11969, 79378, -21031, 53525, 40389, 60585, 53564, 56963, -29733, 97571, 58127, 36363, 12942, 9688, 15844, 14603, -24049, 62597}
#define CONV9_WT {0}
static const uint8_t CONV9_W_Z[] = 	 {-28, -172, -65, -133, -115, -72, -163, -127, -139, -153, -141, -103, -91, -113, -91, -105, -85, -77, -216, -141, -116, -166, -170, -145, -154, -103, -201, -83, -114, -78, -112, -151, -206, -164, -214, -155, -146, -74, -171, -27, -127, -138, -85, -86, -43, -135, -157, -223, -119, -134, -130, -164, -109, -187, -41, -181, -186, -139, -66, -122, -93, -243, -45, -172};
#define CONV9_IN_Z      	(0)
#define CONV9_OUT_Z     	(0)
static const int32_t CONV9_M_ZERO[] = 	 {1682950784, 1524816256, 1375193856, 1404816384, 1873644416, 1659894400, 1128706560, 1264730880, 1079631616, 2047575936, 2109341440, 1962576640, 1827636352, 1808715904, 1470388096, 1497084160, 1771078656, 1350150912, 1929102464, 1894720000, 1556981504, 1536873984, 1717775104, 1706410112, 1854888448, 1290612736, 1551473536, 1960575488, 1448896384, 1611175808, 1082122368, 1943622016, 1793476736, 1780089984, 1687467264, 1807620480, 1130838912, 1656704512, 1788763392, 1252749056, 1307147264, 1821120512, 1219085056, 1759470208, 1329877504, 1164993536, 1543739392, 1535200768, 1371132288, 1523281664, 1776886528, 1233640832, 1191107712, 1783064064, 1112485888, 1782080000, 2123150336, 1775709440, 2050292480, 1737386240, 1386542208, 1545238528, 1742470400, 1274108032};
static const int8_t CONV9_N_ZERO[] = 	 {0, 0, 0, 0, 0, 0, 0, 0, 0, 0, 0, 0, 0, 0, 0, 0, 0, 0, 0, 0, 0, 0, 0, 0, 0, 0, 0, 0, 0, 0, 0, 0, 0, 0, 0, 0, 0, 0, 0, 0, 0, 0, 0, 0, 0, 0, 0, 0, 0, 0, 0, 0, 0, 0, 0, 0, 0, 0, 0, 0, 0, 0, 0, 0};


/* Layer 10 Learned Parameters */
#define CONV10_BIAS \
 {-1396, 124, 9350, 2686, 47096, 93201, -2808, 22496, 59679, -2783, 18502, -8941, 28783, -7063, 93834, 58830, 19553, 4775, 22932, 4601, 30353, -6003, -17306, 69665, 24092, -19273, 2373, 19956, -9717, 68866, 46327, 1977, 10475, 260, -5062, 82956, -8223, 67534, 398, 40055, 2927, 20589, 47110, -97, 3847, -5156, 1801, 591, -4975, 893, 2006, 73964, 33198, -27522, -6610, -12117, 6220, 33454, 31088, 66, 29216, 68888, 255, 21472}
#define CONV10_WT {0}
static const uint8_t CONV10_W_Z[] = 	 {-76, -115, -65, -75, -214, -255, -113, -89, -218, 100, -147, -70, -246, -59, -247, -247, -58, -48, -207, -173, -199, -43, -39, -229, -237, -35, -50, -237, -52, -230, -243, -145, -90, -172, -119, -247, -44, -247, -139, -222, -69, -226, -192, -114, -168, -39, -153, -153, -43, -153, -16, -204, -241, -12, -27, -23, -91, -110, -229, -126, -243, -217, -133, -72};
#define CONV10_IN_Z      	(0)
#define CONV10_OUT_Z     	(0)
static const int32_t CONV10_M_ZERO[] = 	 {1726330496, 1878801536, 1649024384, 1277501056, 1327768448, 1593649408, 1272161280, 1576368896, 1223558656, 1398067072, 1800651008, 1123727232, 1500286848, 2130484608, 1235474432, 1588338560, 1727477504, 1732999040, 1170790144, 1694225280, 1522720896, 1899713792, 1921425280, 1577005824, 2039768832, 1460185984, 1416265216, 1127694720, 1477981056, 1400799232, 1744756096, 1640346240, 1397621632, 1457528192, 1288777472, 1717828608, 1530107008, 1322436608, 1355217024, 1511879552, 1909891200, 1155997952, 1396515584, 1713180288, 1503772544, 2012685824, 1362075264, 1692359168, 1113719936, 1268457984, 2063947648, 1194190464, 2102553600, 1867643520, 1542159872, 2024253440, 1092275456, 1409755392, 1294519680, 1450549760, 1195410944, 1416785152, 1125288448, 1518420096};
static const int8_t CONV10_N_ZERO[] = 	 {0, 0, 0, 0, 0, 0, 0, 0, 0, 0, 0, 0, 0, 0, 0, 0, 0, 0, 0, 0, 0, 0, 0, 0, 0, 0, 0, 0, 0, 0, 0, 0, 0, 0, 0, 0, 0, 0, 0, 0, 0, 0, 0, 0, 0, 0, 0, 0, 0, 0, 0, 0, 0, 0, 0, 0, 0, 0, 0, 0, 0, 0, 0, 0};


/* Layer 11 Learned Parameters */
#define CONV11_BIAS \
 {13618, 4070, 10939, -12180, 6311, 2210, 112108, 37221, -12061, 50981, -3221, -6116, 5609, 11575, 38546, 19433, 2701, -4548, -27654, 29088, -27413, -33592, 15439, -12817, 847, 17888, -36912, -30195, 23741, -16294, 47258, -681, -58975, 25111, 35618, -32243, -5086, 16062, -42091, 20391, 21425, 39767, 91897, 11416, 19527, -49721, -32797, 29211, -16246, 19735, 7076, 7319, 10145, -13727, 39854, 2612, 31175, 26999, 22660, 3303, 16175, 32449, -11830, -44853}
#define CONV11_WT {0}
static const uint8_t CONV11_W_Z[] = 	 {-90, -144, -119, -119, -116, -77, -154, -152, -49, -147, -128, -99, -100, -115, -90, -138, -123, -110, -81, -77, -145, -90, -157, -156, -148, -77, -97, -138, -107, -136, -189, -95, -146, -146, -132, -68, -140, -96, -109, -97, -148, -111, -120, -131, -74, -69, -94, -73, -148, -137, -212, -134, -59, -99, -117, -116, -192, -138, -101, -81, -111, -135, -124, -80};
#define CONV11_IN_Z      	(0)
#define CONV11_OUT_Z     	(0)
static const int32_t CONV11_M_ZERO[] = 	 {1341800320, 1140837120, 1232820992, 1609944192, 1733761536, 1709017728, 1938374656, 1224583296, 1975542528, 1164144256, 1765618560, 1550195712, 1328650112, 1239290752, 1650595712, 1817641088, 1177327872, 1229383936, 1271245312, 1487665024, 1201078912, 1489521792, 1367292416, 1972978944, 2099727232, 1320387968, 1331097344, 1112246784, 1395442432, 1207440384, 1660702848, 1987184256, 1420764800, 1268381824, 1810323584, 1303676672, 1511066880, 1337074048, 1442174080, 1788436480, 1497963392, 1797708288, 1873190144, 1821646848, 1164740352, 1766202624, 1345474048, 1100670080, 1206182784, 1493919488, 1548477696, 1963312896, 1179789312, 1624867584, 1450004480, 1903981952, 1742902400, 1341389184, 1495022592, 1756626816, 1354454656, 1648597504, 1370485632, 1358188672};
static const int8_t CONV11_N_ZERO[] = 	 {0, 0, 0, 0, 0, 0, 0, 0, 0, 0, 0, 0, 0, 0, 0, 0, 0, 0, 0, 0, 0, 0, 0, 0, 0, 0, 0, 0, 0, 0, 0, 0, 0, 0, 0, 0, 0, 0, 0, 0, 0, 0, 0, 0, 0, 0, 0, 0, 0, 0, 0, 0, 0, 0, 0, 0, 0, 0, 0, 0, 0, 0, 0, 0};


/* Layer 12 Learned Parameters */
#define CONV12_BIAS \
 {138775, 13623, 151839, 10753, 8265, 268204, -182, 122, 275831, 121265, -356, 129066, 131881, 9597, 63643, 311009, 226458, 119606, 174188, 339863, -1669, 7684, 9483, 84360, 190322, 96982, 2697, -1821, -21919, 67352, 175233, 236833, 3173, 2055, 6991, 21680, 1774, 566, -629, 158296, 117721, 150845, 201680, -575, 300387, 42042, 661, -49060, 63914, 110268, 13250, 1802, 114100, 569, 644, 4738, -775, 276629, 119029, 12, 121359, 129871, 1583, 798}
#define CONV12_WT {0}
static const uint8_t CONV12_W_Z[] = 	 {-322, 77, -317, 68, 84, -315, -134, 72, -303, -282, 67, -329, -292, 77, -352, -307, -335, -198, -304, -316, 95, 90, 60, -307, -347, -285, 75, 66, 79, -352, -317, -307, 104, 50, -124, 82, 65, 59, -89, -307, -320, -281, -304, -100, -326, 77, 60, 80, -344, -353, 89, 51, -309, 49, 65, 93, 59, -319, -335, -100, -258, -312, 53, 69};
#define CONV12_IN_Z      	(0)
#define CONV12_OUT_Z     	(0)
static const int32_t CONV12_M_ZERO[] = 	 {1248003840, 1545962496, 1663630208, 1351174272, 1651408896, 1679936640, 2048710272, 2010411136, 1941705984, 1663740416, 1564393344, 2079721344, 1214535808, 1108011904, 1448361344, 2012371840, 2015309184, 1748085888, 1123535872, 1876488192, 2025699968, 1381290624, 1437356672, 1102510336, 1230431872, 1316488960, 1698829056, 1445434880, 1636385536, 1311491968, 1167483648, 1650117760, 1142760320, 1242536064, 1513048192, 1167029504, 1511447808, 1351252864, 1260368512, 1454196992, 1486261120, 1231504128, 1085640704, 1631577728, 1896850816, 1168662144, 1319225472, 1195657344, 1428642176, 1295144064, 1597363328, 1240138624, 1990487808, 2126781952, 2094420352, 1309016192, 1843206912, 2085312256, 1627170816, 1223624320, 1308055040, 1205346304, 1569499136, 1645902976};
static const int8_t CONV12_N_ZERO[] = 	 {0, 0, 0, 0, 0, 0, 0, 0, 0, 0, 0, 0, 0, 0, 0, 0, 0, 0, 0, 0, 0, 0, 0, 0, 0, 0, 0, 0, 0, 0, 0, 0, 0, 0, 0, 0, 0, 0, 0, 0, 0, 0, 0, 0, 0, 0, 0, 0, 0, 0, 0, 0, 0, 0, 0, 0, 0, 0, 0, 0, 0, 0, 0, 0};


/* Layer 13 Learned Parameters */
#define CONV13_BIAS \
 {64263, 74888, 18094, 26109, 20438, 38985, 110348, 1164, 14567, 13811, 10528, 55938, -9098, 997, -658, 29662, 12706, 790, -35852, 23001, 25164, 96480, -39880, 26776, -8807, 99683, 16401, 102226, 97662, 52974, 32017, -1279, 13586, -38182, 55417, -47036, 79538, 54736, 95330, 25190, -10157, 371, 25866, -353, 74119, 7125, -25702, 57979, 22334, 38864, 12488, -16123, 69863, 100804, -3825, 99882, 10273, -4253, -25005, 5900, -11631, -6653, 54725, 37200, 64515, 133094, -11174, 27159, 23938, 16455, 6119, 15306, 15567, 1760, -45463, 4101, 2068, 23273, 28198, 94553, 53705, 57015, 28387, 8966, 33917, 46111, 29449, 3218, -4158, 26799, 18959, 47839, 6760, 23077, 11597, 33167, 45821, 31784, 40279, -9877, 1423, -107, -26535, 85765, 23115, 67369, 3843, -5240, 13669, 64082, 4705, 138208, 25400, 46745, 69404, -4988, 32258, -5194, -7768, -2382, -7638, 27124, -3010, 52487, 39028, 123781, 33326, 24006}
#define CONV13_WT {0}
static const uint8_t CONV13_W_Z[] = 	 {-225, -176, -103, -117, -92, -125, -167, -52, -184, -158, -122, -97, -59, -154, -97, -115, -199, -69, -125, -102, -157, -109, -151, -102, -56, -120, -71, -176, -150, -155, -152, -90, -149, -107, -157, -34, -135, -93, -134, -112, -33, -55, -89, -35, -162, -131, -96, -125, -91, -111, -123, -23, -132, -152, -64, -151, -78, -153, -57, -88, -36, -64, -117, -202, -151, -139, -25, -118, -144, -149, -61, -128, -142, -116, -106, -100, -57, -161, -144, -162, -229, -169, -113, -95, -94, -149, -163, -131, -114, -107, -158, -117, -99, -85, -180, -134, -115, -134, -144, -75, -74, -93, -108, -121, -139, -146, -82, -127, -60, -131, -112, -168, -79, -124, -138, -142, -162, -148, -75, -54, -134, -167, -142, -144, -166, -194, -110, -87};
#define CONV13_IN_Z      	(0)
#define CONV13_OUT_Z     	(0)
static const int32_t CONV13_M_ZERO[] = 	 {1893398656, 1696563584, 1132936960, 1843904896, 1407544320, 1557529600, 1563837824, 1211172736, 1905638016, 1392746496, 1367112960, 1192990592, 2023648640, 2101802880, 1811713664, 1395483136, 1348675968, 1723395200, 1908663552, 1477728256, 1634453504, 1773164416, 1832476032, 1223123712, 1928076672, 2047014144, 1251871616, 1356961664, 1507132672, 1119468032, 1116878592, 1166996992, 1844916096, 2066926720, 1768411520, 2023955328, 1428246784, 1745917056, 1261621632, 1546640768, 1832862848, 1605082752, 1132095104, 1139903616, 1746259072, 1366882432, 1923478144, 1336049536, 2118946560, 1143935360, 2114873088, 1303083264, 1892316160, 1428005760, 1881081984, 1958295040, 1975091328, 1521884416, 1271334656, 1325464960, 1683203200, 1729007744, 1595884160, 1663792640, 1898324608, 1854458368, 1314568832, 1185077888, 1181168256, 2110781184, 1746878464, 1742525440, 1665667072, 1076122880, 1492941696, 2051048704, 1865357056, 1928208128, 1462992640, 1208481536, 1628375936, 1831847168, 1137279616, 1612850048, 1633865984, 1819926016, 1181843328, 1754151552, 1562585600, 1516755712, 2112776832, 1092820992, 1815451648, 1335430784, 1210977664, 1648137344, 1794037248, 1799220736, 1494516864, 1464043392, 1742356864, 1795524224, 1511489024, 1226561408, 2030592256, 1387489792, 1884781440, 1488053888, 1830952064, 1682125952, 1921190144, 1269437824, 1436847872, 1996681216, 1618068992, 1309968000, 1792312320, 1845187328, 1964525696, 2083427328, 1275376256, 1478420608, 2090583040, 1728647552, 1505771648, 1344180864, 2131141632, 1639461376};
static const int8_t CONV13_N_ZERO[] = 	 {0, 0, 0, 0, 0, 0, 0, 0, 0, 0, 0, 0, 0, 0, 0, 0, 0, 0, 0, 0, 0, 0, 0, 0, 0, 0, 0, 0, 0, 0, 0, 0, 0, 0, 0, 0, 0, 0, 0, 0, 0, 0, 0, 0, 0, 0, 0, 0, 0, 0, 0, 0, 0, 0, 0, 0, 0, 0, 0, 0, 0, 0, 0, 0, 0, 0, 0, 0, 0, 0, 0, 0, 0, 0, 0, 0, 0, 0, 0, 0, 0, 0, 0, 0, 0, 0, 0, 0, 0, 0, 0, 0, 0, 0, 0, 0, 0, 0, 0, 0, 0, 0, 0, 0, 0, 0, 0, 0, 0, 0, 0, 0, 0, 0, 0, 0, 0, 0, 0, 0, 0, 0, 0, 0, 0, 0, 0, 0};


/* Layer 14 Learned Parameters */
#define CONV14_BIAS \
 {33855, 24115, -15069, -596, 8888, 29394, -592, 3706, 2187, 93734, -8384, 308, 54, 227, -6175, 25967, 29086, 9330, 1872, 184577, -15581, -2042, 19510, 39487, -5793, 10220, 17153, 1285, 173, -6200, 45088, 159, 32099, -4515, -376, 9118, -423, 472, -446, 62103, 395, 404, 10905, 45096, 153588, 1436, 57633, 10687, -25511, 1377, 48051, 283, 12695, -576, 180, 5587, 1333, 268115, 1163, 37343, 514, 52660, -4550, -2301, -113, -8163, 121, -532, 98893, 537, 511, 60230, 29309, 62, -12014, 763, 99, 1700, -298, -903, -1201, 33021, 682, 89975, 25401, 143, 22821, 96, 30843, 39981, -124, -72, 308, 11664, 39914, 7133, -13731, 26528, 368371, -2140, 243, 42311, 193982, -5262, 30408, -10282, 61719, 899, -7410, 794, -400, -358, 4057, -11878, 56367, 113041, 2824, -742, 10778, -1850, 15230, 3024, 71773, 8968, 34945, 3872, -2238, -9828}
#define CONV14_WT {0}
static const uint8_t CONV14_W_Z[] = 	 {-263, -236, -16, -125, -46, -230, -80, -66, -109, -433, -23, -90, -130, -113, -100, -253, -203, -64, -3, -412, -24, -151, -189, -265, -60, -62, -237, -90, -98, -1, -257, -50, -257, -18, -117, -62, -103, -99, -123, -318, -123, -119, -67, -251, -420, -24, -231, -36, -9, -92, -238, -118, -127, -55, -134, -44, -75, -455, -162, -258, -109, -265, -59, -110, -115, -43, -125, -111, -330, -113, -120, -252, -231, -128, -1, -107, -126, -102, -125, -120, -126, -239, -84, -270, -245, -99, -252, -117, -245, -129, -113, -90, -110, -180, -206, -64, -9, -233, -423, -37, -115, -252, -356, -23, -240, -29, -235, -135, -12, -102, -25, -117, -31, -16, -258, -260, -82, -94, -39, -102, -60, -110, -284, -54, -67, -40, -108, -1};
#define CONV14_IN_Z      	(0)
#define CONV14_OUT_Z     	(0)
static const int32_t CONV14_M_ZERO[] = 	 {1595877504, 1172591872, 1583707136, 2090852224, 1526011008, 1711742720, 2109519488, 1085340288, 1830045312, 1296307712, 1393040128, 1186764032, 1542001664, 1872161920, 1427711872, 1881439360, 1131866112, 2107673216, 2131952640, 1810713216, 1114478464, 1763021952, 1953462656, 1676078592, 1482756480, 1353261568, 1316601728, 1307492736, 1558311296, 1106975872, 1625627904, 2026702336, 1740755456, 1096441344, 1371810048, 1643383936, 1702569600, 1740504448, 1528483712, 1229173632, 1320032512, 1339546624, 2084623232, 1818494080, 1209831040, 1107590272, 1611784960, 1086014336, 1739849728, 1853823616, 1397445504, 1084352640, 1865030272, 1145525120, 1525930752, 1543729792, 2028750208, 1463737472, 1139820032, 1381876992, 1226747136, 1209076736, 1997037440, 1150550144, 1578160896, 1149253504, 1180672384, 2029106304, 1754650880, 1209546624, 1363274368, 1596520832, 2107886464, 1524592000, 1291879424, 1233474944, 1668046080, 1389493632, 1388640768, 1377363584, 1501868160, 1154036352, 1849778816, 1455748480, 2023195008, 1273789952, 2002467200, 1885907072, 1201492608, 2054584832, 1430225664, 1858015872, 1952920448, 1085695232, 1613011328, 1341931264, 1080573952, 1261876608, 1842888192, 2134646144, 1532341248, 1157051136, 1720786432, 1588263808, 1786949632, 1711744256, 1740694400, 1084281216, 1430935040, 1971178752, 2118513792, 1166665088, 1806747648, 1734788736, 1195796352, 1146201856, 1337754752, 1930378624, 1987332096, 1176591872, 2082941312, 1202143872, 1640148992, 1175871104, 1966017152, 1123939072, 1109765888, 1707959168};
static const int8_t CONV14_N_ZERO[] = 	 {0, 0, 0, 0, 0, 0, 0, 0, 0, 0, 0, 0, 0, 0, 0, 0, 0, 0, 0, 0, 0, 0, 0, 0, 0, 0, 0, 0, 0, 0, 0, 0, 0, 0, 0, 0, 0, 0, 0, 0, 0, 0, 0, 0, 0, 0, 0, 0, 0, 0, 0, 0, 0, 0, 0, 0, 0, 0, 0, 0, 0, 0, 0, 0, 0, 0, 0, 0, 0, 0, 0, 0, 0, 0, 0, 0, 0, 0, 0, 0, 0, 0, 0, 0, 0, 0, 0, 0, 0, 0, 0, 0, 0, 0, 0, 0, 0, 0, 0, 0, 0, 0, 0, 0, 0, 0, 0, 0, 0, 0, 0, 0, 0, 0, 0, 0, 0, 0, 0, 0, 0, 0, 0, 0, 0, 0, 0, 0};


/* Layer 15 Learned Parameters */
#define CONV15_BIAS \
 {29321, -15947, -31140, 14563, 3459, 1712, 19209, 42232, -12605, -18024, -20282, -9732, -8169, 15640, -1188, -1235, 42012, 24378, 47220, 40961, 17982, -8338, 109466, 3030, 13784, 9173, -7662, -12643, 9320, 24260, 2948, 17054, -43959, 1165, 43116, -12011, 4011, 90, -16623, 50666, 29471, 5599, 668, 48052, 42435, 89082, 21712, 14351, -47210, 9039, -1581, 77228, 137803, 54184, 46949, 58838, 14502, -61349, 34895, 12350, 41492, -5167, -14881, -22384, 21189, 31658, 19983, -4536, 55964, 22657, -15487, 93688, 17194, -26537, 16501, 9682, -8995, 6166, 9576, 8336, 12957, -23334, 28061, 41538, -30397, -6773, 7568, 32811, 18416, 10598, -956, 19852, -12306, 103077, 16163, -37561, 48580, 1189, -10394, -34550, 5700, 30392, -26457, 43854, 24287, 11080, -1594, -32256, 35651, 7321, -40608, 35123, -2270, 3185, 12434, 10275, -1313, 7000, -9592, -37354, 6187, 31575, -25362, 12357, 54616, 102757, -50462, -3378}
#define CONV15_WT {0}
static const uint8_t CONV15_W_Z[] = 	 {-98, -91, -96, -132, -68, -79, -175, -115, -152, -124, -113, -116, -104, -186, -133, -90, -112, -67, -90, -142, -77, -94, -75, -119, -119, -156, -136, -192, -64, -126, -68, -162, -98, -141, -134, -171, -129, -120, -104, -88, -131, -177, -111, -154, -115, -82, -107, -75, -114, -60, -177, -103, -152, -134, -61, -139, -131, -71, -168, -64, -160, -81, -119, -121, -181, -152, -193, -163, -127, -96, -138, -151, -105, -147, -131, -98, -161, -141, -49, -151, -103, -104, -182, -116, -102, -121, -139, -113, -161, -97, -128, -124, -122, -113, -148, -123, -156, -125, -87, -118, -114, -122, -103, -212, -106, -107, -146, -143, -120, -115, -140, -107, -101, -149, -53, -182, -184, -143, -146, -93, -106, -105, -142, -209, -119, -107, -116, -120};
#define CONV15_IN_Z      	(0)
#define CONV15_OUT_Z     	(0)
static const int32_t CONV15_M_ZERO[] = 	 {1713098368, 1837586944, 1762705280, 1808095360, 1274520832, 1204641664, 1444688000, 1867909888, 1191926400, 1333990144, 1320470912, 1487097728, 1575522432, 1326239616, 1279545344, 1290299904, 1521389696, 1600155392, 1634715136, 1198981760, 1080273536, 1918844672, 1592199424, 2131854208, 1760725504, 1294198400, 2047116160, 1982084352, 1634229376, 1497247232, 1367416064, 1160025728, 2122336768, 2047540992, 1298588416, 1828301056, 1890523008, 1824633216, 1092824832, 1860132864, 1909449984, 1494865536, 1380483712, 1565250560, 2062375040, 1683659776, 1987152768, 2053119104, 1696625920, 1335873920, 1841852672, 1562457088, 1075568256, 1350596224, 1342101632, 2042029440, 1775566464, 1221434880, 1953118464, 1270109056, 1299893504, 1749314816, 1497726464, 1729727360, 1955916416, 1114469376, 1268815488, 1141605120, 1742624384, 1181565824, 1395265664, 1627105408, 1594841472, 1541397120, 1884976768, 1302640896, 1757967104, 1110918144, 1681932288, 2085932416, 1679886976, 1143461120, 1577602176, 1098060160, 1691758336, 2001449216, 1584921600, 1443486976, 1688531968, 1408397312, 1289066752, 1662011520, 1529860864, 1147270784, 1200399744, 1570912512, 1944109568, 1905810688, 1090297472, 1963491584, 1232392192, 1364878464, 1638702464, 1253644672, 1111938176, 1193642368, 1438090112, 1906947328, 1655009920, 2026640768, 1680723968, 1610585728, 2027891712, 1363634432, 1292938240, 1274904704, 2000887424, 1452419712, 1369733760, 1555224960, 1087480832, 1854053376, 1074756992, 1549726976, 2037189376, 1262138752, 1661105920, 1487098880};
static const int8_t CONV15_N_ZERO[] = 	 {0, 0, 0, 0, 0, 0, 0, 0, 0, 0, 0, 0, 0, 0, 0, 0, 0, 0, 0, 0, 0, 0, 0, 0, 0, 0, 0, 0, 0, 0, 0, 0, 0, 0, 0, 0, 0, 0, 0, 0, 0, 0, 0, 0, 0, 0, 0, 0, 0, 0, 0, 0, 0, 0, 0, 0, 0, 0, 0, 0, 0, 0, 0, 0, 0, 0, 0, 0, 0, 0, 0, 0, 0, 0, 0, 0, 0, 0, 0, 0, 0, 0, 0, 0, 0, 0, 0, 0, 0, 0, 0, 0, 0, 0, 0, 0, 0, 0, 0, 0, 0, 0, 0, 0, 0, 0, 0, 0, 0, 0, 0, 0, 0, 0, 0, 0, 0, 0, 0, 0, 0, 0, 0, 0, 0, 0, 0, 0};


/* Layer 16 Learned Parameters */
#define CONV16_BIAS \
 {31515, 53428, 11377, 16020, 37, 89183, 5269, 2874, 47827, -10880, 148357, 4019, 9500, 225, -4401, -108, -17411, 1519, 1695, 3210, 4527, 9999, 16065, 6203, -746, 3904, 17397, 26154, 1429, -15597, 40587, -1418, 10551, 255, 1091, 146905, -26027, -35041, -39691, 40521, -1477, 60730, 13071, -4203, -5082, -26, 4656, 17812, -5010, 8194, -1694, 105685, 18606, -13990, 7506, -2326, -10087, -2710, -9516, -945, -4612, 23007, 75731, 8656, -326, 4240, 18576, 85504, -3145, 46374, -33941, 38612, 2870, -25205, 2451, -25701, 862, -6655, 32601, 13004, 142087, 10683, -26516, -13006, 47304, -8209, 6949, -569, 28269, 74392, 26739, 24773, -3041, 15664, 35209, 1191, -20277, -10302, 104479, -14502, -5927, 14924, -1563, -8118, 5667, 65259, 43077, -12030, 40207, 10, -16302, 15990, 158908, 28695, 59029, -5144, 40422, -15903, -761, 68503, -64, -12460, -15197, 6571, -6171, -197, 128, 51713}
#define CONV16_WT {0}
static const uint8_t CONV16_W_Z[] = 	 {-244, -185, -67, -74, -86, -321, -41, -87, -283, -6, -435, -169, -30, -58, -74, -25, -8, -121, -97, -95, -119, -70, -187, -56, -92, -25, -42, -155, -12, 11, -245, -3, -127, -90, 13, -229, 7, 20, 83, -238, -35, -162, -75, -89, -109, -107, -84, -80, -7, -204, -116, -189, -215, -25, -33, -95, -47, 1, -18, -42, -26, -256, -311, -67, -60, -36, -70, -240, -100, -258, 57, -249, -98, 22, -23, 4, -14, -2, -238, -118, -355, -32, -17, -23, -236, 1, -72, -15, -89, -245, -130, -150, -12, -176, -256, -83, -8, -103, -290, 9, -51, -141, -6, -38, -42, -247, -103, 7, -240, -83, 42, -43, -318, -133, -200, 1, -305, -7, -29, -99, -31, -15, 30, -39, -67, -49, -162, -312};
#define CONV16_IN_Z      	(0)
#define CONV16_OUT_Z     	(0)
static const int32_t CONV16_M_ZERO[] = 	 {1075317120, 1825637376, 1762262656, 2033879296, 1878531712, 1591650304, 1099360384, 1413386752, 1957682688, 1085301632, 1847304832, 2032816768, 1117844096, 2014753536, 1311242496, 1911769856, 1325066880, 1477988992, 1742395776, 1435358592, 2061461248, 1309517440, 1278910720, 1452945408, 1723839872, 1679880704, 1219850112, 1092340992, 1085626496, 1988809344, 1808293760, 1928659840, 1638841728, 1229175552, 1297803520, 1595753088, 1243282688, 1528774400, 1264147200, 1138253440, 1124791424, 2056560896, 1277366912, 1235489664, 1184213504, 1162458880, 1104890112, 1154276608, 2055515904, 2140327552, 1177745536, 1834340992, 1527762560, 1707309312, 1669970048, 1226388352, 1466229632, 1132376064, 1150509696, 1585808000, 1649552640, 2059173632, 1118405248, 1424056448, 1734845696, 1921125632, 1095716352, 1303814400, 1222068096, 1662302720, 1960729472, 1332221824, 1368963712, 1363931392, 1896569984, 1251717632, 1195305728, 1950206592, 1631209856, 1623612672, 1993540352, 1550776192, 2143775232, 2024171904, 1094781824, 1790489216, 1731391616, 1826686208, 2117106816, 2114415488, 1249836288, 1253011200, 1826104576, 1981048576, 1836938112, 2121542656, 1371618048, 1659114112, 1487209216, 1747162112, 1346483968, 2090624384, 1880242048, 1646162688, 1090846592, 1134245888, 1738223616, 1576493056, 1541528064, 1120669312, 1432934784, 1943754112, 1981224064, 1289286272, 1219813760, 2109994112, 1885195264, 1706973312, 1229065984, 1257611520, 1810707200, 1158422656, 1600442752, 1558204672, 1560003072, 1416334592, 1865760128, 1796443776};
static const int8_t CONV16_N_ZERO[] = 	 {0, 0, 0, 0, 0, 0, 0, 0, 0, 0, 0, 0, 0, 0, 0, 0, 0, 0, 0, 0, 0, 0, 0, 0, 0, 0, 0, 0, 0, 0, 0, 0, 0, 0, 0, 0, 0, 0, 0, 0, 0, 0, 0, 0, 0, 0, 0, 0, 0, 0, 0, 0, 0, 0, 0, 0, 0, 0, 0, 0, 0, 0, 0, 0, 0, 0, 0, 0, 0, 0, 0, 0, 0, 0, 0, 0, 0, 0, 0, 0, 0, 0, 0, 0, 0, 0, 0, 0, 0, 0, 0, 0, 0, 0, 0, 0, 0, 0, 0, 0, 0, 0, 0, 0, 0, 0, 0, 0, 0, 0, 0, 0, 0, 0, 0, 0, 0, 0, 0, 0, 0, 0, 0, 0, 0, 0, 0, 0};


/* Layer 17 Learned Parameters */
#define CONV17_BIAS \
 {-4592, 35293, 36632, -3370, 18732, 92080, 33813, -5463, -4325, 15222, 56596, -16458, 43744, -20171, 3229, -35982, 15041, -6385, -4564, 74, 23258, 77030, 32407, 5693, -1292, -41880, -6944, -14949, -45907, 3060, 25032, 14894, -15152, 14179, 15618, -19490, 62561, -2477, 23622, 23889, -1619, 31940, 80861, 26373, 18132, 71077, 141, 9874, 1164, 64587, 22339, 120093, 17318, 37191, -1770, -25946, 14239, 25724, 80114, 15384, -1878, 26496, -70815, -79350, -27887, 9138, -43062, -23411, 54286, 16388, 21171, 23187, 4125, 94642, 32282, 31931, 44929, 36440, 15235, -27482, -2546, -27616, 52547, 49733, 60961, -5612, 24652, 61810, 12629, 82311, 29710, 98738, -18396, -22039, 43698, 44278, 32759, -32414, 86446, 9406, 44, 7541, 42736, 2364, 21351, 11925, 30051, 49148, -13305, -10902, -13379, 78194, 43075, 14229, 39259, 5635, 10764, -8070, 64278, 28309, 70897, 23846, 15083, 51069, -3312, 14344, -3788, -16603}
#define CONV17_WT {0}
static const uint8_t CONV17_W_Z[] = 	 {-115, -126, -126, -160, -135, -143, -116, -89, -160, -130, -136, -80, -94, -94, -95, -115, -196, -147, -135, -154, -112, -119, -132, -132, -124, -95, -151, -115, -124, -110, -160, -140, -133, -92, -141, -121, -101, -120, -103, -95, -128, -130, -156, -80, -110, -147, -122, -119, -120, -122, -131, -153, -130, -120, -119, -66, -110, -63, -112, -85, -132, -170, -151, -78, -149, -134, -86, -136, -120, -99, -155, -118, -130, -161, -142, -207, -79, -125, -99, -102, -170, -112, -103, -160, -172, -84, -74, -116, -112, -124, -112, -142, -135, -124, -153, -133, -123, -107, -98, -137, -106, -134, -127, -119, -130, -149, -85, -119, -122, -118, -148, -141, -102, -104, -146, -131, -143, -141, -110, -101, -127, -88, -170, -162, -156, -126, -93, -118};
#define CONV17_IN_Z      	(0)
#define CONV17_OUT_Z     	(0)
static const int32_t CONV17_M_ZERO[] = 	 {1176411648, 2124364928, 1396093696, 1142825216, 2088982784, 2119199104, 1699422720, 2110785280, 1870071936, 1541489536, 1870291712, 1420545920, 1079698688, 1473084416, 1097385344, 1704938624, 1687304960, 1403298432, 2003679616, 1276791296, 1870447360, 1128108416, 1298603648, 1289527680, 1297181184, 1728738560, 1494478848, 1255629952, 1582071040, 1202234496, 1257941760, 1799922816, 1387009152, 1236766848, 1282320128, 1329955456, 1976374016, 1875634688, 1573233152, 1314204800, 1526899584, 1942681472, 1369705344, 1631726208, 1980606848, 1198580096, 1205696768, 1618474112, 1429875456, 1833762816, 1352817536, 1717686656, 1489159424, 1259340544, 1622066816, 1416464512, 1654424960, 2111542144, 1078528384, 1939171712, 2068578048, 1200429056, 1136857600, 1825140224, 1366592896, 1252814080, 1206192000, 1102014976, 1482542080, 1249822208, 1889355776, 1507817344, 1595963520, 1102539136, 1824608640, 1636637440, 1249908736, 1797050624, 1351911808, 1193706240, 2099570176, 2072278272, 1967600000, 1169682688, 1494313856, 1502919296, 1105796352, 1689553408, 1134573568, 1494950144, 1310468736, 1636519680, 1920948864, 1285224960, 1526433664, 2025124736, 1928259328, 1482554368, 1200546560, 1342734976, 1777541504, 2077340928, 1446517248, 2033518208, 1749477888, 1367720576, 1416720000, 1239655168, 1119529472, 1315161728, 1093783680, 1102605312, 1584119552, 1400194688, 2017152256, 1391838720, 1302842880, 1359042944, 1333687296, 1629187584, 1101554944, 1479077888, 1177691008, 1798117760, 1500258048, 1159486976, 1353016960, 1096680448};
static const int8_t CONV17_N_ZERO[] = 	 {0, 0, 0, 0, 0, 0, 0, 0, 0, 0, 0, 0, 0, 0, 0, 0, 0, 0, 0, 0, 0, 0, 0, 0, 0, 0, 0, 0, 0, 0, 0, 0, 0, 0, 0, 0, 0, 0, 0, 0, 0, 0, 0, 0, 0, 0, 0, 0, 0, 0, 0, 0, 0, 0, 0, 0, 0, 0, 0, 0, 0, 0, 0, 0, 0, 0, 0, 0, 0, 0, 0, 0, 0, 0, 0, 0, 0, 0, 0, 0, 0, 0, 0, 0, 0, 0, 0, 0, 0, 0, 0, 0, 0, 0, 0, 0, 0, 0, 0, 0, 0, 0, 0, 0, 0, 0, 0, 0, 0, 0, 0, 0, 0, 0, 0, 0, 0, 0, 0, 0, 0, 0, 0, 0, 0, 0, 0, 0};


/* Layer 18 Learned Parameters */
#define CONV18_BIAS \
 {-2668, -12885, 3685, -19114, -23777, -16136, -3542, 82006, 8991, 32979, -5357, -24983, -14179, 4282, -23577, -23518, 31124, 26744, -2869, 17213, 69735, 17848, 269391, -28107, -4158, -398, -10894, 85804, -2757, 19363, -6029, 8835, 384, 7583, 78805, -8093, -5583, -4613, 49559, -10646, -4477, 65400, 32960, -2549, -585, 28559, 31322, -16591, 18158, -21076, -13846, -3138, 64379, -270, 50699, 10248, 41435, 271677, 2075, -3884, 16335, 45936, 46353, 128327, 43609, -7842, 24934, -3968, 80153, -5498, 24246, -3900, 13306, 1003, -10199, -2924, -15562, 46971, 28304, 30948, 1962, -16406, -8612, -3594, 18502, 21, 51817, -14043, -14418, 10205, 1347, -16494, -14129, -21179, -7787, 46803, -3802, 52726, 3452, 28660, -1536, -2037, 35329, -9366, 11921, 18502, 58475, 28395, -11228, 38710, 5124, 40255, -22460, -13517, 98376, -1824, 38494, 87647, 40449, 17015, 5832, 39033, -16743, 5170, 93839, -6618, -9829, -6169}
#define CONV18_WT {0}
static const uint8_t CONV18_W_Z[] = 	 {-101, -4, -103, 20, -29, 36, -20, -179, -34, -253, -16, 289, -30, -30, 0, 10, -43, -122, -116, -112, -289, -188, -473, -60, -34, -27, 14, -281, -20, -153, -116, -29, -118, -62, -284, -22, -47, 46, -257, -33, 34, -236, -79, -45, -87, -253, -110, 11, -156, 11, -15, -71, -299, -34, -205, -60, -288, -523, -50, -128, -155, -250, -294, -324, -279, -32, -112, -140, -265, -10, -246, -52, -96, 53, -26, -51, 4, -297, -237, -138, -73, 0, 19, -39, -240, -87, -259, -9, 18, -45, -90, 3, -25, -5, -11, -245, -27, -305, -34, -177, -90, -86, -167, -3, -107, -107, -250, -234, -20, -261, -23, -252, -2, -10, -285, -13, -252, -393, -255, -107, -178, -254, -42, -31, -359, -106, -15, -15};
#define CONV18_IN_Z      	(0)
#define CONV18_OUT_Z     	(0)
static const int32_t CONV18_M_ZERO[] = 	 {1300989056, 2040562688, 1728680192, 1554479744, 1457073280, 1959273088, 2144150784, 1677015808, 1300984064, 2102849664, 1624787072, 1074509568, 1547324416, 1765831424, 1158435584, 2017196672, 1462279552, 1246724096, 1707497984, 2008007168, 1537827456, 2139966848, 1633002240, 2040249984, 1777926144, 1815491456, 1365628928, 1830475392, 1850249600, 2125041280, 1921273856, 1655749248, 1319397632, 1730384640, 1260578560, 2113058304, 1137904000, 1666612096, 1475432704, 1698206080, 1086691200, 1661163776, 1431270912, 1892222976, 1647299712, 1337804672, 1541648256, 1652411904, 1873900288, 1240622208, 1669353344, 1527284864, 1436111104, 1472359296, 1234026368, 1766256640, 1904164864, 1719859712, 1665815296, 1263549568, 1465764480, 1907806336, 1783987584, 1177783808, 1281194624, 1427618688, 1305105408, 1119309056, 2103526656, 1304193024, 1248641792, 1221561216, 1891553024, 2087885312, 1917355776, 1661852288, 1225483136, 1123150336, 2117616768, 1202216448, 1199860480, 1960194688, 1707122176, 1770228352, 1952798592, 1574190976, 1510838656, 1669630336, 1735032064, 1492770176, 1415553536, 2010023296, 1413821824, 1190369024, 1149204992, 1285703040, 1317192192, 1546650368, 2038342528, 1457570944, 1854070528, 2071077632, 1174242432, 1111384576, 1893923200, 1682123776, 1433355008, 1099115136, 1504173184, 1800842496, 1131534592, 1438528128, 1661145088, 1600853504, 1387524864, 2046406528, 1874362112, 1774006656, 1584158208, 1811664512, 1800271488, 1429276800, 1423911168, 1077659264, 1702701824, 1084732544, 1428684928, 1165810304};
static const int8_t CONV18_N_ZERO[] = 	 {0, 0, 0, 0, 0, 0, 0, 0, 0, 0, 0, 0, 0, 0, 0, 0, 0, 0, 0, 0, 0, 0, 0, 0, 0, 0, 0, 0, 0, 0, 0, 0, 0, 0, 0, 0, 0, 0, 0, 0, 0, 0, 0, 0, 0, 0, 0, 0, 0, 0, 0, 0, 0, 0, 0, 0, 0, 0, 0, 0, 0, 0, 0, 0, 0, 0, 0, 0, 0, 0, 0, 0, 0, 0, 0, 0, 0, 0, 0, 0, 0, 0, 0, 0, 0, 0, 0, 0, 0, 0, 0, 0, 0, 0, 0, 0, 0, 0, 0, 0, 0, 0, 0, 0, 0, 0, 0, 0, 0, 0, 0, 0, 0, 0, 0, 0, 0, 0, 0, 0, 0, 0, 0, 0, 0, 0, 0, 0};


/* Layer 19 Learned Parameters */
#define CONV19_BIAS \
 {7239, -939, -6068, -40957, -19956, -5571, 62652, 27865, -26979, 12142, 16412, 50110, 32029, -21936, 1566, -27761, -66444, 1244, 21334, -20129, -24259, -58245, -91102, -35770, -399, -19118, -25218, -14673, -31515, 23081, 21751, 46890, 63092, 70835, 55787, 6778, 15610, 34846, 67550, 44587, 17206, 34971, -6128, -4107, 24224, 10009, 7214, 31558, 28668, 74214, 12247, 45308, -59240, 9100, 27219, 18309, -56386, 14970, 35908, 826, 66633, -28173, -23309, 31117, 64008, -5496, 15328, 24233, 25628, 23401, 16294, 89805, 31345, 51346, 10488, 40568, -4600, 8462, -7232, 19738, 23114, 36569, 43078, 59451, 36041, -30235, 21408, 51144, -39266, 28486, 24512, 44795, 85875, -7555, -11200, 41767, 8737, -7057, -17473, -3828, 32042, 34712, -2269, -6681, -7269, -2048, 17401, 40473, -17912, -13992, 32944, 20651, 54399, 26342, 14530, 2046, -4765, -3864, 7915, 29728, -25549, 4595, 31659, -13541, -28533, 13100, 43638, 24740}
#define CONV19_WT {0}
static const uint8_t CONV19_W_Z[] = 	 {-104, -131, -120, -139, -132, -85, -113, -120, -129, -162, -120, -107, -139, -93, -64, -136, -112, -137, -155, -123, -67, -97, -108, -141, -123, -89, -92, -123, -143, -120, -101, -162, -170, -148, -150, -129, -131, -180, -133, -146, -109, -112, -133, -139, -100, -86, -126, -122, -107, -113, -97, -133, -94, -125, -135, -110, -119, -125, -71, -99, -109, -121, -133, -130, -176, -134, -117, -148, -138, -131, -148, -128, -126, -108, -124, -134, -116, -137, -101, -151, -134, -134, -135, -117, -116, -99, -124, -157, -119, -116, -183, -128, -133, -94, -113, -117, -143, -120, -116, -97, -146, -124, -107, -121, -133, -103, -119, -139, -134, -149, -141, -128, -202, -105, -103, -165, -90, -165, -149, -145, -101, -129, -128, -79, -137, -96, -122, -116};
#define CONV19_IN_Z      	(0)
#define CONV19_OUT_Z     	(0)
static const int32_t CONV19_M_ZERO[] = 	 {1302509952, 1668492672, 1378442240, 1721845504, 1910096128, 1342064256, 1320328960, 1138082688, 2101825536, 1230970624, 1133088896, 1757453568, 1740481152, 1712877184, 2045287680, 1675506944, 1953853056, 1799085824, 1269523840, 1844223616, 1782284672, 2101839232, 1548918272, 1427426304, 1234004736, 1815946752, 1860811264, 1885045376, 1816226048, 1675104896, 1947250816, 1818483584, 1310477440, 1197284096, 1258603136, 1199428352, 2037748224, 1770530944, 1873449216, 1176071808, 1543053056, 2087837184, 1243817344, 1687594112, 2057159936, 2088127616, 2076000768, 2073582080, 1348721920, 1325227392, 1289919872, 1164499328, 1379285888, 1592060544, 1355332736, 1226350976, 1206225280, 2116752768, 1543858688, 1259791616, 1387991808, 1521837952, 1405636224, 1767648256, 1386103296, 1264915968, 1280716416, 1792456704, 1757722368, 2141479168, 1799331712, 1403742976, 1385416448, 1780636032, 1612927232, 1311130240, 1788994176, 1331940864, 1684036480, 1505117440, 1897017856, 1621150848, 1626784896, 1388689536, 1945317120, 1728208512, 1347876096, 1280336640, 1458250368, 1735437696, 1272059904, 1834195968, 1085204608, 2018338048, 1136667392, 1447011072, 1495298432, 1548082048, 1945010944, 1318953600, 1135848832, 1443873024, 1982616192, 1444180864, 1897459456, 1404709120, 1967562496, 1926737152, 1817618944, 2011641856, 1473839360, 1877098240, 1933547392, 1861451392, 1522524416, 1131085312, 1214794368, 1675313536, 1258476928, 1196762624, 1700829696, 1129662720, 1328339840, 1949203584, 1542607616, 1361297536, 1264036992, 1794088448};
static const int8_t CONV19_N_ZERO[] = 	 {0, 0, 0, 0, 0, 0, 0, 0, 0, 0, 0, 0, 0, 0, 0, 0, 0, 0, 0, 0, 0, 0, 0, 0, 0, 0, 0, 0, 0, 0, 0, 0, 0, 0, 0, 0, 0, 0, 0, 0, 0, 0, 0, 0, 0, 0, 0, 0, 0, 0, 0, 0, 0, 0, 0, 0, 0, 0, 0, 0, 0, 0, 0, 0, 0, 0, 0, 0, 0, 0, 0, 0, 0, 0, 0, 0, 0, 0, 0, 0, 0, 0, 0, 0, 0, 0, 0, 0, 0, 0, 0, 0, 0, 0, 0, 0, 0, 0, 0, 0, 0, 0, 0, 0, 0, 0, 0, 0, 0, 0, 0, 0, 0, 0, 0, 0, 0, 0, 0, 0, 0, 0, 0, 0, 0, 0, 0, 0};


/* Layer 20 Learned Parameters */
#define CONV20_BIAS \
 {-19050, -12987, -34670, -26363, -5762, -12953, 957, -1916, -4174, -26959, -2596, -20, -2964, -3601, 7161, -235, 226924, -29232, 5920, -5243, -4529, -2102, -17761, -34892, -5251, 174439, -6321, -40, 3916, -10531, 103109, 1283, 27483, 17261, 57569, -47422, 33711, 907, 4297, 24697, 2003, 34935, -24660, 52762, -8035, 83153, -49168, -25977, -7349, 27865, -19405, 755, -1794, 11719, -23220, 3270, -337, 79352, 17373, -12026, 33005, -18127, -1481, 44785, 60710, -509, 17466, -10457, 3800, 127422, -13935, -11768, 45617, -173, -8115, 7618, -32940, 37525, 48965, -6176, -5633, 68978, 25023, 73858, 34995, -4185, -11829, 20409, 139988, -1013, 10617, 41064, 33763, -572, 31747, 51907, -13963, -6096, 84551, 42655, 18451, 56981, 23502, 10089, -14336, -15947, -1766, -14235, 16483, 37848, 28286, -10096, 31243, 33100, 42995, 83818, 39489, 7841, 91749, -15079, 257567, 28287, 71388, -3419, -19447, 7152, 329, 3285}
#define CONV20_WT {0}
static const uint8_t CONV20_W_Z[] = 	 {7, -145, 16, 11, -21, -26, -16, -29, -30, 12, -39, -16, 10, 3, -23, 47, -746, -52, -26, -17, -6, -13, 8, 12, -20, -322, -9, -9, -25, 14, -290, -78, -247, -238, -151, 1, -134, -46, -24, -222, -17, -227, 11, -184, -24, -313, -36, -62, -29, -256, -9, -140, -13, -35, 20, -17, -69, -318, -40, -32, -252, 51, -81, -163, -248, -42, -149, -63, -84, -292, -146, -14, -260, -46, -112, -27, 15, -118, -133, 21, -24, -264, -250, -368, -229, -12, -41, -168, -295, -141, -80, -265, -257, 2, -153, -263, 3, 12, -272, -180, -86, -122, -140, -22, -35, -19, -11, -16, -82, -118, -223, -62, -116, -241, -263, -278, -118, -40, -380, -9, -364, -116, -260, -21, -45, -34, -129, -24};
#define CONV20_IN_Z      	(0)
#define CONV20_OUT_Z     	(0)
static const int32_t CONV20_M_ZERO[] = 	 {1442513408, 1372397056, 2118016768, 1405256448, 1964474880, 1707135488, 2104679424, 1086893952, 1510259456, 1075065088, 1904184704, 1719918976, 2128387968, 1177518592, 1148434432, 1823474688, 1091551488, 1163880320, 1871573888, 1748717824, 1999053824, 1891095808, 1552323328, 1919273600, 1471771264, 1610545152, 1625478144, 2108221312, 1236212352, 1790559488, 1297212416, 1263887872, 1094993408, 1810221312, 1146549632, 1667998592, 1842290944, 1373431808, 1796823936, 1338240896, 1774086400, 1635781760, 1137382016, 1201056896, 1254088576, 1794151552, 1446302080, 1732463360, 1740425856, 1837308160, 1822729088, 1230264704, 1633816832, 1610403968, 1295094784, 1239178624, 1598193024, 1232405888, 1440457600, 1514991488, 1289538688, 1434384768, 1077664896, 1780311424, 1551787520, 1079856128, 1290718976, 1443270912, 1221561344, 1939454336, 1193424768, 1967377024, 1862386432, 1263193344, 1503662080, 1598038784, 2082052096, 1679655552, 1529091584, 2014943104, 1571640704, 1943932416, 2030491008, 2100639360, 1617833600, 1483367168, 1730668416, 1518895872, 1727998208, 1526258432, 1947070848, 1851822336, 1282509824, 1729952768, 2112027136, 1866109568, 1878443520, 1797976576, 1794079232, 1893031680, 1555361664, 1832777216, 1806082944, 1108616576, 1521485824, 1241230208, 1660720768, 1840776832, 1469598720, 1928653184, 1935082624, 1512973824, 1475155712, 1075736448, 1327241344, 1203751424, 1602762624, 1237738624, 1509840640, 1316998656, 1213669120, 1305002496, 1898515712, 1131649920, 1235661056, 1630415744, 1172920064, 1889052288};
static const int8_t CONV20_N_ZERO[] = 	 {0, 0, 0, 0, 0, 0, 0, 0, 0, 0, 0, 0, 0, 0, 0, 0, 0, 0, 0, 0, 0, 0, 0, 0, 0, 0, 0, 0, 0, 0, 0, 0, 0, 0, 0, 0, 0, 0, 0, 0, 0, 0, 0, 0, 0, 0, 0, 0, 0, 0, 0, 0, 0, 0, 0, 0, 0, 0, 0, 0, 0, 0, 0, 0, 0, 0, 0, 0, 0, 0, 0, 0, 0, 0, 0, 0, 0, 0, 0, 0, 0, 0, 0, 0, 0, 0, 0, 0, 0, 0, 0, 0, 0, 0, 0, 0, 0, 0, 0, 0, 0, 0, 0, 0, 0, 0, 0, 0, 0, 0, 0, 0, 0, 0, 0, 0, 0, 0, 0, 0, 0, 0, 0, 0, 0, 0, 0, 0};


/* Layer 21 Learned Parameters */
#define CONV21_BIAS \
 {13748, -5458, 43873, -20441, 60472, 20468, -7352, -1095, 85051, 31126, -19450, 2655, 21969, 48171, 20989, -16996, 15431, 80752, -18424, 30638, 8727, 19582, 19458, -48775, -25280, 37204, -13440, 4685, -38418, -6414, 7164, -4911, -27955, 26656, -6613, -27962, -34914, 7968, 30577, -31775, 1322, 53889, 24424, -20156, 84280, -19034, -13770, 36534, -42043, -4306, 18832, -41140, 26021, -66895, -58016, -41202, 16986, 73106, 8918, 19565, -26076, -24086, -11187, 37784, -16848, -13177, -68557, -29527, 28668, -24719, 43208, -4301, 10317, 30006, -57410, 7769, -12986, -4844, -11629, 15878, 39485, 44846, 43890, 11779, -56452, 4567, -18862, -17333, -12557, 44039, -18770, -20306, -32550, 8128, -3266, 35123, 35458, -20930, 98200, -51599, 5818, 39816, 2358, 8492, -9581, 83347, 1374, -6829, 28111, 66308, 8468, 2812, -49285, -10324, 24053, -12592, -15383, -23193, 22021, 51823, 8018, -20766, 23668, -6312, -41215, -4430, 5105, 6645}
#define CONV21_WT {0}
static const uint8_t CONV21_W_Z[] = 	 {-163, -134, -105, -92, -118, -155, -102, -88, -86, -128, -122, -139, -117, -123, -103, -141, -113, -126, -133, -112, -144, -153, -150, -90, -138, -127, -121, -118, -86, -104, -140, -108, -100, -136, -100, -122, -129, -129, -124, -89, -112, -148, -127, -115, -130, -94, -145, -113, -183, -107, -162, -150, -137, -85, -149, -111, -105, -144, -95, -132, -115, -101, -142, -126, -100, -142, -120, -99, -103, -133, -129, -100, -106, -144, -120, -113, -126, -98, -98, -113, -108, -163, -139, -107, -118, -112, -132, -136, -147, -96, -115, -122, -114, -84, -124, -120, -137, -130, -106, -132, -116, -116, -113, -118, -144, -138, -149, -137, -112, -147, -112, -140, -100, -137, -124, -144, -127, -129, -113, -132, -108, -91, -74, -112, -96, -111, -121, -124};
#define CONV21_IN_Z      	(0)
#define CONV21_OUT_Z     	(0)
static const int32_t CONV21_M_ZERO[] = 	 {1470662144, 1736662272, 2104689920, 1881232128, 2049915776, 1136020608, 1108368384, 1303515520, 1710439296, 1727235328, 1975475968, 1330189312, 1521882112, 1192951552, 1172162176, 1905627904, 1083563008, 1573675520, 1182249088, 1762360576, 1729923712, 1553207552, 2004107392, 1875360768, 1100410112, 2052517376, 1719196032, 1681080576, 1614508800, 1195559168, 1724282752, 1124026752, 1241225984, 1483484288, 1088659456, 1709288320, 1330097536, 1745595776, 1755020800, 1931934464, 1316696704, 1528273792, 1650249728, 1872190592, 1845741440, 1795986176, 1146301824, 1863000192, 2068590464, 1563144320, 1870531840, 1168094720, 1284094336, 1288242816, 1118315264, 1872994816, 2090081536, 1356195456, 1942674176, 1138698496, 1482340608, 1847880064, 1688472064, 2054590464, 1304532096, 1759243520, 1543959680, 1581074432, 1147295488, 1731409664, 2118713344, 1744712192, 1654035712, 1161081088, 2030638720, 1263950336, 1885917824, 1829960704, 1723481216, 2082095232, 1653440128, 1202656128, 1658792320, 1847502592, 1811076864, 1466582016, 1577838720, 1156708096, 1170392576, 1148922368, 1169210112, 1544729088, 1512344832, 1768969216, 1250461056, 1520505984, 1811632640, 1465164800, 1680203008, 1677066112, 1098167296, 1155686912, 1959847552, 1489371904, 1991403264, 1618334848, 2070706944, 1635131136, 1218909824, 1667001600, 1626186624, 1114190208, 1146463232, 1759484672, 1657178496, 1964162176, 1148867840, 1726073856, 2000356224, 1731108736, 2048937728, 1925718912, 1344206336, 1732274944, 2145635584, 1725664896, 1786154752, 1446527232};
static const int8_t CONV21_N_ZERO[] = 	 {0, 0, 0, 0, 0, 0, 0, 0, 0, 0, 0, 0, 0, 0, 0, 0, 0, 0, 0, 0, 0, 0, 0, 0, 0, 0, 0, 0, 0, 0, 0, 0, 0, 0, 0, 0, 0, 0, 0, 0, 0, 0, 0, 0, 0, 0, 0, 0, 0, 0, 0, 0, 0, 0, 0, 0, 0, 0, 0, 0, 0, 0, 0, 0, 0, 0, 0, 0, 0, 0, 0, 0, 0, 0, 0, 0, 0, 0, 0, 0, 0, 0, 0, 0, 0, 0, 0, 0, 0, 0, 0, 0, 0, 0, 0, 0, 0, 0, 0, 0, 0, 0, 0, 0, 0, 0, 0, 0, 0, 0, 0, 0, 0, 0, 0, 0, 0, 0, 0, 0, 0, 0, 0, 0, 0, 0, 0, 0};


/* Layer 22 Learned Parameters */
#define CONV22_BIAS \
 {65385, -11248, 41718, 2546, 81541, 231842, -2811, -4189, 23316, -11236, 42416, -3144, 73799, -3469, -6695, -13186, -2213, 44223, 94252, 323, -4890, -804, -10748, 3689, 218564, -11722, 81870, 5078, 888, 254443, 1938, 14224, -8461, -7490, 109115, -42, 102770, -16410, 64157, -2163, -15362, 245510, 1354, 7114, 54852, -1734, -18884, 35262, -14524, -1949, 35647, 368, 243955, 140616, -8882, -24, 81670, 49838, -35, -4288, -17468, -3046, 96722, 67168, 95382, 379, -2815, -2207, 34179, -4637, 55336, -12253, -4987, -19772, -5715, -5290, -2525, 43, 117300, -6365, 3240, 48214, 86259, 130693, 178408, 134883, 21378, -5059, -7032, 142836, 110909, -531, 25949, -17596, 9279, -12238, -227, 34, 37011, -3863, 85291, 19237, 82367, 35024, -22419, 325245, 102359, -5724, -5574, 144747, -1122, 125327, -20005, -1371, 7062, -218, 201503, -4771, 46088, 103436, -1256, -25612, 12392, 120528, 94232, 2762, 92801, -5116}
#define CONV22_WT {0}
static const uint8_t CONV22_W_Z[] = 	 {-133, -24, -252, 27, -208, -422, 23, -22, -229, -64, -158, -24, -161, -17, -27, 10, -2, -238, -329, -28, 0, -100, -87, 72, -421, 6, -235, -125, -28, -535, -84, -86, -6, 15, -266, -85, -535, -1, -246, -25, -14, -477, -30, -16, -261, -40, 29, -203, -101, -37, -163, -21, -421, -322, -95, -39, -256, -257, -128, -46, -15, -17, -256, -263, -232, -18, -24, -14, -126, -98, -225, -8, -27, -64, 10, -15, 35, -76, -355, -106, -100, -176, -234, -326, -285, -307, -110, -27, -17, -508, -303, -47, -180, 1, -92, 141, -8, -106, -233, 28, -261, -96, -248, -213, 14, -355, -353, -62, -19, -285, -145, -331, -1, -65, -157, -48, -469, -22, -238, -302, -42, -1, -167, -253, -308, -35, -335, -17};
#define CONV22_IN_Z      	(0)
#define CONV22_OUT_Z     	(0)
static const int32_t CONV22_M_ZERO[] = 	 {1466852864, 1862969600, 1869621376, 2044921984, 1120370304, 1618224000, 1663989888, 1303246208, 1545282560, 1833121920, 1431150336, 1204817792, 2043185152, 1128819968, 1797297152, 1219376000, 1551632640, 1149768704, 1960876288, 1095136768, 1609429376, 2038630912, 1112148608, 1606300288, 1752606592, 1330329472, 1834604800, 1240249216, 1093511552, 1426819200, 1530051840, 1675244160, 1275493504, 1107939584, 1862668544, 1646019328, 1095456896, 1176838400, 2097169280, 1898235776, 1120773504, 1107863936, 2082181376, 1249186048, 1426918528, 1155287936, 1322360832, 1238830464, 1757492096, 1109960320, 2057134976, 1146422016, 1169462528, 1307963776, 1205057920, 1964429440, 1367036800, 1167412864, 1768283392, 1200867584, 1823071616, 1144818048, 1706141824, 1517806464, 1799365248, 2134969344, 1859027840, 1168934528, 1182182528, 1970680192, 1668889472, 1078775168, 1613397376, 1080673408, 1890241664, 1214242688, 1594504448, 1742165120, 1785413888, 2055473152, 2121734272, 1327942144, 1084439168, 1250924032, 1661225344, 1504159360, 1425884160, 2082514432, 2138322688, 1782346624, 1186010112, 1344915584, 1114517888, 2105234560, 1400974464, 1270687232, 1150911872, 1212453248, 1985124480, 1935239808, 1883782144, 1313542528, 1279699072, 1536527360, 1481177984, 1877416704, 1433425280, 2093242624, 1366585216, 2022304512, 1232654720, 1538920064, 1814248448, 1836507392, 1420643712, 1558076160, 1771671296, 1713255808, 1509342208, 1580308096, 1393246464, 1144208384, 1391836928, 1503703680, 2029525632, 1149541248, 1567279488, 1966435712};
static const int8_t CONV22_N_ZERO[] = 	 {0, 0, 0, 0, 0, 0, 0, 0, 0, 0, 0, 0, 0, 0, 0, 0, 0, 0, 0, 0, 0, 0, 0, 0, 0, 0, 0, 0, 0, 0, 0, 0, 0, 0, 0, 0, 0, 0, 0, 0, 0, 0, 0, 0, 0, 0, 0, 0, 0, 0, 0, 0, 0, 0, 0, 0, 0, 0, 0, 0, 0, 0, 0, 0, 0, 0, 0, 0, 0, 0, 0, 0, 0, 0, 0, 0, 0, 0, 0, 0, 0, 0, 0, 0, 0, 0, 0, 0, 0, 0, 0, 0, 0, 0, 0, 0, 0, 0, 0, 0, 0, 0, 0, 0, 0, 0, 0, 0, 0, 0, 0, 0, 0, 0, 0, 0, 0, 0, 0, 0, 0, 0, 0, 0, 0, 0, 0, 0};


/* Layer 23 Learned Parameters */
#define CONV23_BIAS \
 {-6094, 11101, -36156, -22848, 15994, 211, -63632, -28718, 94168, 1503, -38750, -68723, -29300, 56824, -19591, -52766, 49291, -3025, 86102, -49847, -17101, -8305, 11399, 51256, -15658, 50384, -27311, -52791, -20784, -34750, -7252, -15454, 7041, -28918, 12999, -76092, 37533, -33231, -6265, -20270, 67270, -6674, -39955, 91037, -49699, 12252, -54265, 63928, -15520, -11327, 427, -50930, 16808, 38388, 1377, -13927, -9947, 7358, 83827, 24652, 46373, -3368, -68717, -18916, -51674, 554, -48762, -33647, -6890, 29125, -2899, -16891, -17906, 66902, -39420, 65194, 29945, -17085, 17987, -20181, -16873, -20258, 18810, 1212, -9674, 22383, -51638, 108124, -58152, 12723, -42826, 499, -7414, -15323, 13118, 66681, -584, -13903, -12816, 42367, 2881, -13723, -50542, -39026, 55140, -1838, -27446, 75624, 1148, 980, -43525, -40477, -4915, -60093, -34923, 29026, 21845, 22246, 7150, -20827, 47895, -28345, -4852, 30957, -6622, -20681, 45792, 31040}
#define CONV23_WT {0}
static const uint8_t CONV23_W_Z[] = 	 {-134, -137, -155, -131, -111, -122, -164, -139, -111, -110, -140, -127, -137, -111, -108, -126, -125, -125, -135, -124, -143, -108, -155, -139, -130, -114, -110, -119, -90, -127, -126, -102, -75, -134, -119, -147, -144, -107, -149, -134, -137, -115, -115, -133, -109, -120, -111, -137, -128, -127, -150, -114, -143, -144, -125, -159, -123, -105, -159, -125, -104, -140, -122, -116, -128, -137, -116, -118, -86, -122, -139, -135, -93, -143, -95, -104, -91, -122, -118, -99, -163, -115, -140, -94, -96, -135, -126, -155, -123, -90, -156, -77, -141, -124, -122, -139, -85, -120, -160, -139, -119, -115, -106, -86, -87, -138, -160, -139, -121, -122, -94, -124, -130, -135, -128, -46, -132, -108, -107, -143, -110, -121, -129, -114, -118, -155, -117, -128};
#define CONV23_IN_Z      	(0)
#define CONV23_OUT_Z     	(0)
static const int32_t CONV23_M_ZERO[] = 	 {1630635392, 1471019008, 2138710784, 1646518912, 1260269696, 1144817280, 2091626112, 1479785344, 1165945856, 1806283648, 2137171584, 1402255872, 1605230720, 1708209024, 1190428800, 1751742720, 1306629888, 1910781696, 2077561088, 1387142144, 1737023616, 1622185600, 1813916416, 1266017792, 1876137088, 1434993408, 1586242560, 1582643840, 1222345728, 1877554688, 1537822720, 1112977792, 1865467008, 2144972032, 1531828608, 1171221120, 1815693440, 1534514560, 1250631552, 1904054656, 1380911360, 1929326336, 1609279104, 1491966464, 1289083776, 1326003968, 1579255168, 1461456512, 1081993088, 1704150144, 1198655488, 1889479168, 2141838080, 2026604288, 1716784640, 1267920640, 1607462528, 1158428800, 1541877504, 1759128704, 1194627712, 1982505472, 1364982272, 1795985536, 1753243392, 1739151232, 1452944512, 1588239360, 1205523072, 1800416256, 1745361152, 1837627136, 1435556096, 1134492544, 2130072448, 1443934848, 1166923392, 2141759872, 1265751808, 1742601728, 1821356160, 2099852160, 1574119680, 1671804800, 1204551552, 1097787520, 1887423616, 1731997184, 1728925568, 1764968960, 1438761216, 1318392704, 1660249856, 2130046720, 1411157248, 1260537600, 2002907904, 1345691008, 1134067072, 1099438080, 1574202752, 1273083520, 1390384128, 1101157120, 1521720576, 1566076160, 1806665856, 1086072832, 1205282432, 1610633472, 1081983360, 1194916224, 1709228032, 1174767104, 1674006400, 1576241536, 1374415744, 1113879936, 1690256128, 1485550976, 1774189440, 1137962496, 1889347968, 1662029824, 1882174720, 1563031296, 1250726016, 1435900288};
static const int8_t CONV23_N_ZERO[] = 	 {0, 0, 0, 0, 0, 0, 0, 0, 0, 0, 0, 0, 0, 0, 0, 0, 0, 0, 0, 0, 0, 0, 0, 0, 0, 0, 0, 0, 0, 0, 0, 0, 0, 0, 0, 0, 0, 0, 0, 0, 0, 0, 0, 0, 0, 0, 0, 0, 0, 0, 0, 0, 0, 0, 0, 0, 0, 0, 0, 0, 0, 0, 0, 0, 0, 0, 0, 0, 0, 0, 0, 0, 0, 0, 0, 0, 0, 0, 0, 0, 0, 0, 0, 0, 0, 0, 0, 0, 0, 0, 0, 0, 0, 0, 0, 0, 0, 0, 0, 0, 0, 0, 0, 0, 0, 0, 0, 0, 0, 0, 0, 0, 0, 0, 0, 0, 0, 0, 0, 0, 0, 0, 0, 0, 0, 0, 0, 0};


/* Layer 24 Learned Parameters */
#define CONV24_BIAS \
 {190939, 91159, -685, 185544, 73323, 218071, -358, -982, 100114, 206979, -3147, -94, 532, 86169, 189244, 83, 83388, -19, 95579, -656, -1760, 18296, 148091, 154633, 138572, 88535, -22582, 207346, -631, -588, 81, -1098, 266747, -1737, 196739, -1620, 92027, -632, -88340, 115626, 101883, -662, -24, 98443, -4315, 40988, -196, 158812, -254, 177622, -12797, -393, 81972, 103112, -847, 145326, 548, 35008, 96922, 93681, 93073, 222368, 250, 192957, 3860, 182608, -285, -483, -166, 256374, 202454, 141504, 107744, 97025, 191999, 115670, 569, -145, 430, 167697, 36, -598, 250, 45481, 35891, 7578, 148713, 109128, 1540, -355, -4145, 12270, 168607, -536, -208, 90094, 215381, 153447, -11782, 93390, -3402, 127211, 165351, 215602, 96828, 146365, -755, 117038, 25370, 194191, -1143, -2206, 33444, 1898, -287, 101663, -70521, 145957, 12218, 144207, 226627, -129, 169434, 144792, -62765, -166, 123108, 95956}
#define CONV24_WT {0}
static const uint8_t CONV24_W_Z[] = 	 {-265, -264, 28, -277, -170, -286, 16, 28, -261, -337, 63, 35, 40, -246, -295, 53, -181, 46, -275, 21, 31, -94, -263, -269, -287, -276, -3, -290, 24, 39, 18, 50, -298, 67, -291, 42, -246, 41, 266, -288, -269, 29, 70, -272, 89, -134, 38, -252, 15, -271, 102, 18, -233, -266, 4, -270, -4, -119, -260, -301, -248, -297, 68, -307, 47, -278, 13, 34, 43, -327, -280, -290, -390, -248, -294, -277, -124, 54, 30, -278, 42, 48, 44, -147, -91, -102, -272, -268, -17, 69, 46, 52, -320, 53, 46, -244, -276, -294, 103, -243, 77, -287, -411, -310, -283, -299, 31, -320, -136, -289, 70, 38, -143, 51, 32, -261, 3, -280, -12, -308, -301, 50, -287, -260, 18, 39, -252, -260};
#define CONV24_IN_Z      	(0)
#define CONV24_OUT_Z     	(0)
static const int32_t CONV24_M_ZERO[] = 	 {1949962752, 1278386432, 1345799424, 1079895424, 1497734528, 1893275648, 1974192000, 1601957120, 1823510144, 1235895424, 1731326336, 1868115456, 1372928384, 1642526592, 1286413952, 1414221952, 1830438400, 1883478656, 1435681024, 1740441472, 1490204288, 1409022208, 1407425792, 1847664640, 1586915072, 1102245248, 1198901760, 2124368256, 1705500544, 1661641600, 1393256832, 1385309312, 2132196096, 1980236288, 2082848000, 1241395968, 1975153792, 1916549504, 1928078592, 1447682176, 1117362048, 1708156800, 1496079488, 2069285632, 1439553920, 1476562432, 1770421120, 1996935296, 1140519808, 1660331648, 2060305152, 1822951040, 2092393344, 2023756928, 1111335936, 1554042496, 1123090432, 1409517312, 1871024768, 1247108992, 1166435072, 2129690496, 1524439168, 1626269696, 1240912384, 1137778560, 1900449920, 1955863680, 1389941632, 1403264768, 2087662720, 1423969920, 1409048576, 1380576896, 1093338496, 1972449664, 1318787712, 1326269568, 1155896448, 1495472256, 1624655360, 1938501120, 1779218176, 1185568512, 1141112320, 1222005376, 1489175936, 2069724928, 2053116544, 2123142528, 1231296768, 1165941120, 1335328256, 1812069504, 1661127808, 1389427584, 1740999040, 1825745920, 1095755904, 1199383936, 2146198400, 1613542528, 1687557504, 1159794816, 1815238528, 1371955328, 1219005568, 2004772608, 1157494784, 1831594112, 1088319360, 1508574464, 1677168512, 1252171648, 1774375168, 2045302528, 2059464576, 1238825728, 1504280448, 2017376384, 1588038528, 1682226560, 1425719168, 1912988160, 1191812096, 1733497600, 1175705728, 1170884352};
static const int8_t CONV24_N_ZERO[] = 	 {0, 0, 0, 0, 0, 0, 0, 0, 0, 0, 0, 0, 0, 0, 0, 0, 0, 0, 0, 0, 0, 0, 0, 0, 0, 0, 0, 0, 0, 0, 0, 0, 0, 0, 0, 0, 0, 0, 0, 0, 0, 0, 0, 0, 0, 0, 0, 0, 0, 0, 0, 0, 0, 0, 0, 0, 0, 0, 0, 0, 0, 0, 0, 0, 0, 0, 0, 0, 0, 0, 0, 0, 0, 0, 0, 0, 0, 0, 0, 0, 0, 0, 0, 0, 0, 0, 0, 0, 0, 0, 0, 0, 0, 0, 0, 0, 0, 0, 0, 0, 0, 0, 0, 0, 0, 0, 0, 0, 0, 0, 0, 0, 0, 0, 0, 0, 0, 0, 0, 0, 0, 0, 0, 0, 0, 0, 0, 0};


/* Layer 25 Learned Parameters */
#define CONV25_BIAS \
 {-29274, 10279, 12009, -33019, 27711, 20200, 19095, 74540, 40362, -15524, -49101, -28959, 1470, 23998, 31266, 21515, 17117, 8372, -10275, 58254, -39041, 21878, 18286, -53362, -12240, -24832, 28444, -25536, -63553, -37555, 79220, 49510, 30387, -9851, -13095, -5019, 50598, 4817, 15179, -24755, -9325, 74353, -33447, 16461, 54635, 26158, -95780, -4609, -26275, -22978, -18776, 36112, 25382, -33160, -8597, -52946, -28069, 46773, 6785, 29549, -8870, 4808, 53590, 5813, 6974, -42747, 29271, 56645, -3086, 75243, -14623, -8282, -26223, 2982, -14735, -32244, 7344, 28697, -20345, 53909, -32774, 5130, 10065, 92008, 25109, -41093, -101041, 16733, -44719, -42480, -88382, 48217, -64186, -4723, 6664, -18552, 36201, -69424, -13942, -8677, -22954, -19646, 25386, -9815, -40892, 38186, 2708, -110700, 44900, -16021, -4020, 15325, 5990, -71728, -7521, -11060, 12910, -27452, 27406, 172702, -6816, -15687, 18335, 54833, 44960, 8220, 51612, 13789, 57928, -9990, -30283, -52293, 13131, 5759, -63006, 41692, -11100, -23982, -21101, -55864, 20029, -5779, 122913, 28316, -4417, -8696, 58168, 23763, -25133, 47064, 48341, -34306, 50670, 23, 803, -32296, 884, -70376, -12190, 5136, -36718, -23229, -5956, -9501, 47444, 32497, 24699, 30015, -36570, 35774, 51492, 5191, 31873, 7956, -7779, -27434, -70413, -82654, -10707, 71085, 50093, -12994, 45058, -9123, -35506, 13954, 67424, 12657, -35955, 137, -41748, 10298, 46666, 215, -39984, 13352, 25383, 69642, -90145, -1062, 5855, -22220, -31876, 11642, -6030, 38592, 1604, -23005, 28679, 28258, 44396, 13268, 23277, 52088, 13554, 1965, 39394, 14362, -25325, 16723, -13778, 6799, 23982, 13575, 19899, 12004, -52323, -18711, -2525, 19966, -64697, -35481, 62716, 37833, 43234, 4331, 9818, 82047, 53450, 493, -199, 4530, 38938, -50410, -770, 43012, -7065, 22804, 15751, 64496, 64277, 26897, 4439, 13777, 49015, 20893}
#define CONV25_WT {0}
static const uint8_t CONV25_W_Z[] = 	 {-119, -160, -89, -147, -143, -111, -132, -159, -111, -124, -143, -114, -132, -150, -108, -90, -123, -122, -128, -144, -160, -137, -130, -102, -106, -111, -152, -88, -116, -136, -153, -137, -115, -112, -115, -79, -80, -53, -135, -143, -166, -149, -145, -138, -125, -100, -112, -132, -127, -126, -125, -149, -114, -103, -111, -133, -127, -134, -140, -147, -97, -108, -89, -136, -182, -93, -100, -115, -70, -150, -136, -132, -99, -95, -184, -147, -73, -171, -108, -100, -108, -120, -125, -143, -168, -78, -118, -99, -138, -105, -100, -142, -119, -156, -116, -141, -99, -118, -155, -146, -113, -108, -162, -101, -102, -149, -129, -117, -122, -113, -140, -124, -155, -117, -137, -149, -150, -120, -136, -140, -141, -142, -129, -141, -110, -128, -92, -132, -163, -139, -118, -123, -179, -120, -137, -149, -104, -117, -135, -141, -223, -112, -158, -141, -95, -150, -156, -115, -137, -123, -125, -115, -113, -142, -137, -70, -103, -99, -115, -116, -108, -113, -137, -106, -128, -115, -119, -157, -116, -134, -127, -138, -157, -181, -107, -124, -99, -159, -142, -124, -136, -148, -76, -142, -137, -105, -165, -176, -123, -92, -88, -126, -157, -133, -152, -156, -145, -162, -113, -158, -160, -165, -137, -100, -45, -120, -124, -103, -96, -161, -137, -145, -108, -146, -144, -129, -135, -138, -133, -111, -150, -108, -121, -168, -154, -127, -125, -130, -151, -166, -96, -133, -172, -81, -115, -124, -101, -132, -117, -132, -105, -147, -217, -117, -161, -144, -107, -161, -143, -117, -114, -134, -98, -123, -110, -175};
#define CONV25_IN_Z      	(0)
#define CONV25_OUT_Z     	(0)
static const int32_t CONV25_M_ZERO[] = 	 {1568713600, 1315849728, 2119829120, 1310680576, 2038282368, 1989878272, 1078358144, 1565016320, 1599182208, 1764987008, 1852156544, 1309693568, 1872732160, 1913248640, 2086103040, 1097089024, 1552629376, 1661830784, 1084606336, 1887185408, 1220471936, 1515953152, 1123036160, 2037720960, 1342076800, 1713285632, 1714952320, 1652178944, 1513246592, 1816711040, 1837808384, 1316154624, 1207122688, 1930506112, 2050918400, 1356054912, 2138337536, 1265238528, 1852802432, 1338062080, 1782728448, 1886674688, 1102660608, 1119081344, 1311870848, 1099369088, 1648101632, 1326829184, 1966058496, 1363287808, 1363913984, 1373159936, 1794874496, 2056096128, 1450402560, 1900867200, 1554108032, 1623090048, 1544101376, 1155457408, 1440423936, 1075274624, 1314322944, 1643835392, 1510819584, 1152764928, 1177184128, 1447594240, 1544370560, 1212543872, 1619470208, 1880495232, 2050904704, 1101970816, 1329850624, 1901439872, 1942344576, 1863964928, 2055781760, 1933224064, 1319044352, 1150905088, 1805203200, 2076074240, 1105059456, 1166584448, 1855283968, 1736104448, 1421136128, 2038671872, 1487654016, 1917434624, 1382765312, 1824247936, 1516247040, 1735165440, 1122967552, 1286516096, 1481622656, 1577518208, 1122381440, 1612760448, 1358305536, 1906888448, 1914184832, 1587618560, 1865785472, 1757217536, 1801775872, 1794903168, 1896729728, 1777471232, 1235078656, 1158756096, 2050186624, 1240124672, 1113455744, 1906769792, 1716568192, 1864679936, 1211442432, 1782252544, 1965623168, 1459360256, 1219100928, 1124760064, 1102497152, 1720903168, 1207363840, 1228061568, 1406402048, 1168796416, 1146866176, 1801697920, 2018665344, 1148066432, 1113158272, 1858226176, 1605882240, 1865879424, 1836533888, 1190172672, 1079622912, 1911650048, 1798438784, 1381501312, 1404105088, 1767379712, 1628535552, 1659152768, 1216537728, 1795865472, 1289761792, 1754945280, 1816573440, 1492861568, 1291998848, 1645623296, 1089300352, 1225003392, 1742377728, 1921081728, 1154375424, 1220128384, 1386609664, 1436560896, 1558607744, 2038668288, 1873326592, 1358087296, 1756061952, 1792855424, 1317547008, 1139067008, 1166347648, 2111250432, 1865888256, 1096903680, 1925457664, 1847068416, 1696104320, 1117752960, 1604233728, 1315405568, 1717804032, 1607793664, 1713828864, 1228346880, 1497521920, 1181822720, 1333601280, 1250968704, 1469830400, 1825256320, 1808103936, 1553505664, 1133373440, 1761098624, 1592627584, 1273945088, 1408238592, 1148815104, 2072873472, 1961541120, 1125291520, 1671870336, 1769298816, 1143572608, 2110540032, 1802304768, 1508146432, 1541941760, 2023536640, 1194443392, 1581071488, 1875011712, 1881493760, 1767264768, 1680025728, 1772459008, 1123598848, 2026390528, 1301834752, 2068894976, 1159626752, 1914429440, 1380038016, 1420768256, 1332597888, 1248155392, 1820722304, 2100370688, 1874824576, 1895596160, 1972887808, 1370482304, 1282160000, 1874154368, 2059264640, 2023396096, 1902459904, 1990167168, 1209571456, 1788641024, 1319426560, 1695664896, 1890819328, 1698529792, 1967741440, 1309394816, 1207443968, 1871210112, 1302781056, 1820175488, 1702068480, 1578997248};
static const int8_t CONV25_N_ZERO[] = 	 {0, 0, 0, 0, 0, 0, 0, 0, 0, 0, 0, 0, 0, 0, 0, 0, 0, 0, 0, 0, 0, 0, 0, 0, 0, 0, 0, 0, 0, 0, 0, 0, 0, 0, 0, 0, 0, 0, 0, 0, 0, 0, 0, 0, 0, 0, 0, 0, 0, 0, 0, 0, 0, 0, 0, 0, 0, 0, 0, 0, 0, 0, 0, 0, 0, 0, 0, 0, 0, 0, 0, 0, 0, 0, 0, 0, 0, 0, 0, 0, 0, 0, 0, 0, 0, 0, 0, 0, 0, 0, 0, 0, 0, 0, 0, 0, 0, 0, 0, 0, 0, 0, 0, 0, 0, 0, 0, 0, 0, 0, 0, 0, 0, 0, 0, 0, 0, 0, 0, 0, 0, 0, 0, 0, 0, 0, 0, 0, 0, 0, 0, 0, 0, 0, 0, 0, 0, 0, 0, 0, 0, 0, 0, 0, 0, 0, 0, 0, 0, 0, 0, 0, 0, 0, 0, 0, 0, 0, 0, 0, 0, 0, 0, 0, 0, 0, 0, 0, 0, 0, 0, 0, 0, 0, 0, 0, 0, 0, 0, 0, 0, 0, 0, 0, 0, 0, 0, 0, 0, 0, 0, 0, 0, 0, 0, 0, 0, 0, 0, 0, 0, 0, 0, 0, 0, 0, 0, 0, 0, 0, 0, 0, 0, 0, 0, 0, 0, 0, 0, 0, 0, 0, 0, 0, 0, 0, 0, 0, 0, 0, 0, 0, 0, 0, 0, 0, 0, 0, 0, 0, 0, 0, 0, 0, 0, 0, 0, 0, 0, 0, 0, 0, 0, 0, 0, 0};


/* Layer 26 Learned Parameters */
#define CONV26_BIAS \
 {-2061, -79, 61576, -849, -11467, -4304, 186380, -1808, -2700, -43833, -852, -2211, -890, -1967, 221937, 12878, -44211, 306946, 79751, 221144, -193, -3774, -2685, -1735, 82327, -72, -633, 191144, -1766, -1163, 247522, -1086, 206484, -1419, -5223, 34875, -2745, 116925, 70766, 300184, -49, -2990, -1622, -1325, -2849, -2466, 26334, 122582, 5829, 162779, 112139, -7684, 257299, -799, -22348, -2581, -1402, 97606, 9233, 123494, 62694, 54413, 135774, -2257, -173, 313897, 105164, -599, 245867, 102607, -1054, -2007, -2656, -5352, -14, 1974, 165777, -2292, 99923, -717, -12937, 302534, -1607, 180174, 88150, -3273, -1879, 99969, -1044, -2084, -1647, 89281, -1012, -42898, -1903, -2129, 378714, -12610, -104, 6424, 212656, 222965, 150295, 86735, -19503, -3765, 332815, -990, 74268, -229, -1102, -15690, -2398, 260788, -1081, -1673, -7480, -2130, -939, 7571, -971, -770, -2894, -276, 4773, 133961, 3500, 201627, -268, -2303, -2539, 208026, -2362, -1214, -12391, 120330, 83846, -1714, -977, 995, 32309, -2922, -35695, -1103, -26506, -77, 139015, -2715, 52322, 109795, 95090, 188742, 168693, 142226, -4573, 48363, 123405, 178895, -25649, 245480, -1403, -537, -2161, -870, -935, 214925, -791, 88382, -70, -1556, -3263, 86124, -17877, -87, -10693, -3638, 277198, -554, -2407, 82189, 79028, 292708, 10830, 264326, -4197, -6256, -871, 147379, 114940, 169194, 125075, 22, 37136, -1486, 351448, 106791, -2113, 321598, -559, -1659, 32, 91568, -147, 211078, 75077, -2072, -1581, -21753, 190953, -1338, -1852, 157838, 376468, -7494, -2186, 282564, -1207, 124466, -737, -1733, 235065, -1414, 222874, -174, 252566, -1243, -2602, 225470, 70387, -613, -189, -22050, 10207, 661, 117901, -3, -1440, 117314, 6744, 54248, -1063, -687, 24562, -8587, 118697, -3901, -1901, -3384, -2929, 332872, -1262, -5973, 189704, 1275, -2217, -3427}
#define CONV26_WT {0}
static const uint8_t CONV26_W_Z[] = 	 {240, -161, -315, 207, 126, 245, -490, 168, -112, 529, 329, 112, 222, 187, -501, 358, 41, -809, -418, -491, -131, 394, 216, 224, -425, -181, 224, -544, 193, 250, -440, 290, -743, 298, 322, -340, -105, -483, 236, -609, -191, 228, 253, 132, 251, 172, 355, -484, -118, -395, -408, 103, -670, 118, -117, 170, 383, -430, -127, -377, -314, -479, -454, -108, -91, -508, -462, 256, -903, -437, 192, 260, 337, -109, -169, -119, -684, 140, -330, 216, 199, -470, 157, -427, -444, 298, 190, -448, 190, 217, 161, -386, 262, 55, 166, 279, -876, 69, -168, -115, -612, -726, -373, -464, -60, 498, -562, 317, -406, -120, 364, 354, 494, -755, 133, 177, 240, 335, 183, -169, 211, 273, 290, 173, -114, -452, -104, -389, -123, 232, -116, -366, -101, 259, 368, -445, -381, 150, 165, 266, -137, 446, 208, 284, 21, -175, -333, 333, -389, -371, -357, -538, -448, -489, -143, -436, -447, -458, 174, -758, 182, -80, 282, 340, 159, -745, 172, -451, -189, 271, 291, -499, 26, -202, 220, 119, -682, -201, 170, -305, -373, -530, -114, -592, -117, 92, -126, -358, -388, -583, -383, -111, -340, 187, -863, -429, 188, -564, 221, 114, -97, -509, -189, -594, -489, 192, 276, 126, -417, 174, 206, -388, -587, -28, 294, -663, 192, -484, 314, 179, -508, 158, -584, -170, -678, 109, 255, -446, -374, 234, -95, -9, -82, -72, -366, -153, -92, -460, -126, -418, 204, -156, -341, 364, -446, 284, 319, 345, 246, -785, -117, 353, -628, -95, 231, -115};
#define CONV26_IN_Z      	(0)
#define CONV26_OUT_Z     	(0)
static const int32_t CONV26_M_ZERO[] = 	 {1159335680, 1294340608, 1683366016, 1870338432, 2104869504, 1129830528, 1240054016, 1230764032, 1106892672, 1502625536, 2034978304, 1362946304, 1714073856, 1384020864, 2089992064, 1274541184, 1634101888, 1516770176, 1181884928, 1435459840, 1285521536, 1813284992, 1997185664, 1971152128, 2081099264, 2043234304, 1542655744, 1484006784, 1487718784, 1957108608, 1462661504, 1953108096, 2127422848, 1199550592, 1174483328, 2018234880, 1539008384, 1840374400, 1623308544, 1665486336, 2111919616, 1684967808, 1277461888, 1432628352, 1886321664, 1603055744, 2093823104, 1883091072, 1946299904, 1705776768, 1752536960, 1363465856, 1731493120, 1884082944, 1662231808, 1119220096, 1411252224, 1927074176, 1397188352, 1630244608, 1575058944, 1401009280, 1432386176, 1881540608, 1632260864, 1136744704, 1720899328, 1574583936, 1448402560, 1749658496, 1893743744, 1954835200, 1489376512, 1671151744, 1800239616, 1248764032, 1223680256, 1706980352, 2136016000, 1304682624, 1160461056, 1093300736, 1305561472, 1158125440, 1859962112, 1290238080, 1127182464, 1947187328, 1549626496, 1512834816, 1812385792, 2000136448, 1227919744, 2023497216, 1456097536, 1702547200, 1182408320, 1427569280, 1702741760, 1284593408, 1566495360, 1256095744, 2146603392, 2043382144, 1240864512, 1097644416, 1191433472, 2145018112, 1250573440, 1435674880, 1286491264, 1083037568, 1242623744, 1204177280, 1245921664, 1549772672, 1775062144, 1575410048, 1394826112, 2101589888, 1693887360, 1267419776, 1695221504, 2083325696, 1074485248, 1460747264, 1935070976, 2013313920, 1319607808, 1443174784, 1250715264, 1480590848, 1710281984, 2074009088, 1609987328, 1392325120, 2082502912, 1474582656, 1578761856, 1300731392, 1768645376, 1264524160, 1693930240, 1691234176, 1216864128, 1987836032, 1290186752, 1433957376, 1559169664, 1963977856, 1124294912, 2104658688, 1127665664, 1387902208, 1818938880, 1581404416, 1713013888, 1509449600, 1406485120, 1537662080, 1293510912, 1700631680, 1344058880, 2019363712, 1491768064, 1178165504, 2040823168, 2115272832, 1997464192, 2045994240, 1469184512, 1091086592, 1851561216, 2111271552, 1389128832, 1230352384, 1602619392, 1586966528, 1159914496, 1114328320, 1706910080, 1253311360, 1711506688, 1727142144, 1411296896, 1953999744, 1426996480, 1823393792, 2101186176, 1246836608, 1480750336, 1329792896, 1114726784, 1292071680, 1367370624, 1728014848, 2072300800, 1302273024, 1641326848, 1350639616, 1758966144, 1608697472, 1419998848, 2131875200, 1085418240, 1369919232, 1524411008, 1332367872, 1887932160, 1636390784, 1620725632, 1156201344, 1899934080, 1289832192, 2017338368, 1133317632, 2102875520, 2123218816, 1122936576, 1249619712, 1119951488, 1324901120, 1818498176, 1466450944, 1300107776, 1839106304, 1096364288, 1282432384, 1211349376, 1455693440, 1573850112, 1539041280, 2091657216, 1501506688, 1999601920, 1870895104, 1222613632, 1492194944, 1949525120, 1403382912, 1174294272, 1401831936, 1400774528, 1383697152, 1640005760, 1384558336, 2048932352, 1523247104, 1389451648, 1640185984, 1414701056, 1443904384, 2094112384, 1541644288, 2134326912, 1199010176};
static const int8_t CONV26_N_ZERO[] = 	 {0, 0, 0, 0, 0, 0, 0, 0, 0, 0, 0, 0, 0, 0, 0, 0, 0, 0, 0, 0, 0, 0, 0, 0, 0, 0, 0, 0, 0, 0, 0, 0, 0, 0, 0, 0, 0, 0, 0, 0, 0, 0, 0, 0, 0, 0, 0, 0, 0, 0, 0, 0, 0, 0, 0, 0, 0, 0, 0, 0, 0, 0, 0, 0, 0, 0, 0, 0, 0, 0, 0, 0, 0, 0, 0, 0, 0, 0, 0, 0, 0, 0, 0, 0, 0, 0, 0, 0, 0, 0, 0, 0, 0, 0, 0, 0, 0, 0, 0, 0, 0, 0, 0, 0, 0, 0, 0, 0, 0, 0, 0, 0, 0, 0, 0, 0, 0, 0, 0, 0, 0, 0, 0, 0, 0, 0, 0, 0, 0, 0, 0, 0, 0, 0, 0, 0, 0, 0, 0, 0, 0, 0, 0, 0, 0, 0, 0, 0, 0, 0, 0, 0, 0, 0, 0, 0, 0, 0, 0, 0, 0, 0, 0, 0, 0, 0, 0, 0, 0, 0, 0, 0, 0, 0, 0, 0, 0, 0, 0, 0, 0, 0, 0, 0, 0, 0, 0, 0, 0, 0, 0, 0, 0, 0, 0, 0, 0, 0, 0, 0, 0, 0, 0, 0, 0, 0, 0, 0, 0, 0, 0, 0, 0, 0, 0, 0, 0, 0, 0, 0, 0, 0, 0, 0, 0, 0, 0, 0, 0, 0, 0, 0, 0, 0, 0, 0, 0, 0, 0, 0, 0, 0, 0, 0, 0, 0, 0, 0, 0, 0, 0, 0, 0, 0, 0, 0};


/* Layer 27 Learned Parameters */
#define CONV27_BIAS \
 {13321, 32622, 17555, 35183, 31861, 34072, 45576, -16742, 9832, 26792, 45755, 34819, 6901, 17116, 5602, 5616, -53662, -4261, -13237, 27432, 25268, -7812, 31494, -20697, 31507, -1796, 16565, 2862, 29951, 13993, -15395, 39878, 2333, 5508, 67970, 6014, 7438, 30239, -23613, -37746, 1811, -9302, -824, 24219, 17393, 31499, 31370, -4662, -19052, 9833, -16661, 10677, -12041, 43521, 29347, 46328, 17701, 4611, -22770, 33008, 5598, -3985, 12852, 33420, 21024, 43902, 10960, -27237, 30686, -36283, -1520, 24392, 3893, 9682, -37246, 2840, -890, 34821, 46470, -10424, 70386, -560, 3208, -7933, 14272, 11067, 55553, -5371, 37490, -44478, -17350, 10338, -32858, -39052, -23410, 14319, 18353, 35282, 19103, 3679, 1435, -35763, -6359, 24630, 38914, 36982, 8073, 20315, 17760, 41988, 26271, 23318, 8660, -19360, -3638, 6307, -21550, -7435, 23968, -818, -6825, 25588, 6943, 14959, -8863, 3145, 17575, 27413, 5697, -27384, 19769, -2742, 33388, 36160, 14647, 31107, -17593, 7375, -41482, 17732, 17330, 13030, 5774, 51776, -14276, 4924, 46074, 45307, 6740, -18306, 47723, -15426, 18558, -567, 70440, 15741, 31462, -34217, 5630, 28570, 16924, 30444, 3215, 9686, 21564, 4816, -3738, -11270, 12067, 33672, -81, 4742, 7004, -17586, 13308, 8555, 7232, 14548, -17792, -21617, -40069, -12499, 3616, 28006, -28126, -13419, 13097, 163, 22469, 50741, 28220, 8210, 10789, 24760, 58452, 33163, 781, -898, -21602, -10507, 14018, 13058, 41408, -23870, -3849, 11605, -9312, 26155, -14307, 54283, -7521, -52312, 8361, -10432, -11162, -22570, 7832, -15988, -21911, -30041, 65746, -46479, 23591, -370, 6657, 2643, 4953, 12267, -15009, 22893, -11834, 16630, 13984, 1137, 9219, -5929, 20397, -10203, -1812, -20255, 32170, 40425, 13593, -31405, -11585, -4907, 17698, -4690, 23205, -31578, 20041, 46836, 15739, 33900, -2795, 31259}
#define CONV27_WT {0}
static const uint8_t CONV27_W_Z[] = 	 {-132, -148, -110, -119, -112, -161, -148, -149, -151, -149, -120, -128, -145, -117, -135, -150, -106, -116, -138, -160, -131, -133, -134, -115, -127, -167, -136, -144, -176, -145, -167, -118, -133, -129, -131, -117, -138, -120, -123, -157, -148, -122, -146, -142, -152, -143, -151, -119, -148, -122, -137, -173, -165, -144, -137, -176, -116, -124, -146, -145, -150, -148, -155, -175, -168, -130, -169, -163, -122, -138, -137, -147, -170, -143, -154, -136, -151, -138, -120, -107, -138, -136, -135, -182, -128, -130, -139, -130, -154, -130, -139, -130, -129, -135, -137, -126, -142, -143, -132, -147, -177, -141, -181, -147, -151, -138, -112, -160, -146, -102, -156, -156, -133, -149, -114, -148, -168, -143, -127, -147, -141, -161, -149, -137, -139, -147, -170, -137, -135, -165, -121, -129, -158, -137, -164, -108, -168, -134, -118, -164, -138, -164, -142, -124, -152, -153, -128, -136, -135, -119, -114, -129, -151, -134, -151, -149, -120, -144, -102, -123, -144, -120, -109, -126, -145, -118, -125, -170, -149, -152, -202, -122, -110, -129, -135, -122, -113, -145, -129, -165, -117, -157, -133, -164, -133, -144, -124, -122, -152, -133, -125, -126, -150, -187, -146, -122, -145, -146, -120, -125, -143, -154, -133, -126, -117, -175, -177, -138, -115, -173, -145, -103, -148, -100, -109, -150, -130, -136, -112, -156, -161, -116, -167, -107, -121, -129, -168, -140, -132, -119, -138, -109, -155, -137, -130, -99, -115, -169, -130, -144, -150, -138, -120, -157, -140, -121, -144, -143, -143, -118, -139, -162, -138, -153, -142, -127};
#define CONV27_IN_Z      	(0)
#define CONV27_OUT_Z     	(0)
static const int32_t CONV27_M_ZERO[] = 	 {1447147520, 1281072640, 1568552576, 1447997440, 1617235840, 1614570368, 1425299584, 1501930624, 1327373824, 1918276864, 1438776704, 1588326656, 1608753664, 1571830400, 1253433088, 1545427328, 1431329536, 1259312384, 1892495872, 1526913920, 1745944320, 1341565184, 1412342272, 1863455104, 1549472768, 1501135872, 1648211968, 1740138752, 1820727680, 1775210624, 2027135360, 1445036416, 1627339520, 1405299072, 1261508352, 1400934016, 1198767872, 1662530944, 1238156160, 1451961728, 1490027008, 1696510720, 1465681792, 1397520256, 1515552128, 1350261632, 1433064320, 1549336448, 1502287232, 1518278144, 1460069760, 1596174848, 1633995520, 1511621120, 1240227968, 1549218944, 1518066560, 1316545280, 1282747648, 1353787648, 1613734656, 1576740224, 1328263808, 1166555136, 1953293056, 1444573312, 1515977984, 1865882496, 1461467008, 1252020480, 1268671616, 1933778176, 1803280512, 1402583168, 1427723520, 1274710784, 1674251648, 1321931520, 1286365056, 1136378368, 1336377344, 1228664320, 1604559488, 1915068416, 1438494592, 1633467008, 1219056768, 1858002816, 1409338112, 1477284096, 1153981696, 1263819776, 1497562112, 1763003904, 1323380480, 1766698112, 1315191424, 1639268096, 1300038528, 1330821376, 1111056768, 1199048960, 1174860032, 1247431296, 1546905472, 1174130048, 1611164416, 1760094336, 1652749696, 1408759424, 1469537536, 1703570944, 1788417664, 1320365568, 1107348992, 1762824704, 1487751040, 1528409600, 1690971008, 1387904896, 1292783744, 1212464896, 1396597248, 1195590016, 1460565504, 1428093056, 2054888960, 1258916352, 1130262912, 1183267072, 1339629440, 1484182144, 1801177472, 1367995264, 1697468544, 1652238080, 2093385472, 1970273792, 1630247680, 1311701120, 1643967872, 1558687488, 1455469056, 1431160064, 1691682176, 1732672000, 1493363200, 1436016256, 1978814208, 1123632384, 1753996928, 1433229568, 1592343424, 1825206400, 1250548992, 1442971392, 1288495104, 1358523520, 1684698880, 1084358144, 1468699392, 1503198464, 1948894976, 1282324096, 1372989312, 1106011136, 1517374976, 1621163648, 1458620288, 1520537728, 1559166976, 1414956288, 1878102528, 1406840832, 1228815872, 1963080576, 1537862912, 1428261888, 1240733440, 1634647552, 1520663040, 1698121728, 1859254784, 1493139840, 1658664832, 1755422336, 1450458368, 1440626304, 1922358912, 1518303488, 1474377344, 1970159104, 1756881536, 1077934848, 1245755264, 1436864896, 1658658048, 1207714816, 1289819008, 1250963200, 1563142528, 1984834304, 1532025600, 1677497472, 2019511552, 1075911936, 1079088128, 1689793024, 1338484224, 1823926272, 1556843648, 1440490880, 1674626560, 1349293056, 1243950080, 1791144576, 1658115072, 1347677184, 1918566656, 1661974016, 1536867456, 1469817088, 1987908992, 1435033728, 1286109696, 1749883904, 1545352320, 1146287744, 1437544576, 1162554880, 1715542784, 1488878336, 1741857536, 2145969280, 1539492096, 1434661760, 1317938944, 1408176768, 1311366912, 1216836352, 1799367552, 1586405120, 1160154112, 1663825152, 1710069504, 1482174720, 1411415808, 1617203968, 1625697920, 1237235200, 1601912704, 1200130944, 1641305728, 1570667520, 1545055616, 1510724480};
static const int8_t CONV27_N_ZERO[] = 	 {0, 0, 0, 0, 0, 0, 0, 0, 0, 0, 0, 0, 0, 0, 0, 0, 0, 0, 0, 0, 0, 0, 0, 0, 0, 0, 0, 0, 0, 0, 0, 0, 0, 0, 0, 0, 0, 0, 0, 0, 0, 0, 0, 0, 0, 0, 0, 0, 0, 0, 0, 0, 0, 0, 0, 0, 0, 0, 0, 0, 0, 0, 0, 0, 0, 0, 0, 0, 0, 0, 0, 0, 0, 0, 0, 0, 0, 0, 0, 0, 0, 0, 0, 0, 0, 0, 0, 0, 0, 0, 0, 0, 0, 0, 0, 0, 0, 0, 0, 0, 0, 0, 0, 0, 0, 0, 0, 0, 0, 0, 0, 0, 0, 0, 0, 0, 0, 0, 0, 0, 0, 0, 0, 0, 0, 0, 0, 0, 0, 0, 0, 0, 0, 0, 0, 0, 0, 0, 0, 0, 0, 0, 0, 0, 0, 0, 0, 0, 0, 0, 0, 0, 0, 0, 0, 0, 0, 0, 0, 0, 0, 0, 0, 0, 0, 0, 0, 0, 0, 0, 0, 0, 0, 0, 0, 0, 0, 0, 0, 0, 0, 0, 0, 0, 0, 0, 0, 0, 0, 0, 0, 0, 0, 0, 0, 0, 0, 0, 0, 0, 0, 0, 0, 0, 0, 0, 0, 0, 0, 0, 0, 0, 0, 0, 0, 0, 0, 0, 0, 0, 0, 0, 0, 0, 0, 0, 0, 0, 0, 0, 0, 0, 0, 0, 0, 0, 0, 0, 0, 0, 0, 0, 0, 0, 0, 0, 0, 0, 0, 0, 0, 0, 0, 0, 0, 0};


/* Layer 28 Learned Parameters */
#define FC28_WT \
{0}
#define FC28_BIAS \
 {-5319, 4703, -4816, -2970, 9400, 3881, 2701, 1770, 260, -2204, -5155, -6419, -1442, -986, 5, -2155, 790, -3095, 3410, -1670, 583, 6277, 5996, 727, 2022, 1989, 3860, 156, 2530, -1293, 5219, 191, -1342, -2277, 17, -7686, -536, -837, 923, -1546, 2001, 4733, 4830, -4573, 1191, 5404, 6315, 1186, -4796, -3406, 336, -4246, 3373, 3027, -1469, 1183, 2028, -1181, 4414, 4831, -360, 4467, 1422, 5781, 5245, 6392, -5471, -3964, 1125, 4829, -4693, 4667, 817, -572, -855, 8345, 5187, 4133, 2617, 5629, -7806, -3983, -2442, -14449, -5454, 157, -7958, 3803, 1353, 5043, -2535, -1529, 1208, -32, -4074, -4211, 3829, -3711, -9054, -2511, -2092, -10376, 6248, 4144, 1515, 1325, 8940, -7729, -6645, -6877, -9199, 14259, 5201, -1112, 578, -15260, -5239, 1257, -299, -4252, -1715, -3665, -3646, -3415, -4743, -6563, -7921, -6410, -1751, -2762, -2650, -4762, 530, 2600, -9584, -4058, -7998, -6305, -5470, -3995, -3346, -1166, -3855, -2128, -4526, -4958, 1690, -5083, -1914, -3244, 1222, 4006, -12327, 4164, -1649, 4759, 2362, -9659, -7519, 231, -1194, 11572, 8354, 3197, 692, -3165, -677, -8271, 2075, -1534, 1725, 3093, -1899, -2665, 6196, -6932, -2517, -555, 7371, 244, -2753, 1019, 5049, 2542, 776, 3942, 222, 2018, -4321, -4421, -942, 6029, -554, -7216, -3031, 11071, 948, 4451, -7340, 2029, -8073, 4210, 3190, 3103, 4620, -3837, -7197, -5867, -2734, 3796, -6106, -1244, 2357, -1280, 1038, -2693, -213, 5869, 1418, -2553, -2151, -4630, -1037, 7293, -5257, 1906, -113, -5349, -3453, 6785, -1325, -8882, -4215, 4429, 3950, 2846, 2323, 8617, 2759, 6889, -1847, -1138, 566, -2443, -2237, 4865, -5973, 2704, 1198, 2470, 4551, 2484, -1838, -947, 9796, -5917, 391, 4657, 2034, -5460, -72, 1954, -3772, 1369, 3274, -1462, -3810, -7370, -8470, -1045, 913, -4713, 3808, 2032, -1844, -3723, 2194, -2085, -9277, -1464, 4121, 11028, -2889, 143, 8954, 7547, -442, 1376, -1697, 1214, 609, -6920, 2884, -2187, 796, 1111, 1940, -2014, -1154, 5303, -8009, -3757, -5222, -4047, -8398, 5043, 2736, -10430, -5716, -8527, -8148, -6692, -5318, 7220, 10046, 3562, -569, -7196, -294, -7217, -4192, -12068, -10114, -5725, -4856, -8339, -9852, -594, -4573, -1619, 6044, 687, 3519, -2701, 2400, -2198, 3410, -1928, -6240, -3405, -232, -4958, -5877, -1991, -2853, -982, 2458, -3017, -4084, -3763, -2838, -2492, -5094, -5121, -1140, -7488, 632, -2933, 1814, 3244, -5699, 5653, 5476, 708, 4176, 1968, 2090, 7214, 25, 3772, -6012, -4896, -1226, 975, 3284, 2614, 1825, -2197, 3230, 6291, -3366, 5436, 3036, 2195, -2487, 1924, -1470, -4037, -1337, 914, -4368, 4304, -4524, -5491, -687, 3839, -3600, -2839, -3849, 14295, 515, 5871, 2526, -4396, -5782, 6689, -6773, -3595, -13867, -5938, 105, -5318, 4367, 5380, 3559, 2234, 7311, -1464, -846, 6172, -1362, 5587, 4237, 7347, 5746, 2030, -4063, -5305, 2163, 4502, 1748, 2627, 3026, 238, 8570, -357, -3224, -7342, -3727, -3153, 5101, 3374, 1314, -1924, 4229, 6466, -1407, -3171, 5441, -1114, 2270, -2038, -3075, -12, -2189, 2001, -847, 3316, -10113, 6131, -11385, 1635, 914, 3302, 6566, 8779, -2591, -3078, 710, -2321, -1887, 924, 965, 8206, -3468, 2229, -3330, 960, -226, -6895, 5954, 2585, -2443, -5146, -13452, 4257, 4090, 2342, 2494, 88, -4420, 1617, 2884, -8348, -6009, -3820, -20, -5334, 179, 7260, 3805, 1774, -3112, -2688, 2063, 1053, -1495, -2937, 1361, -4749, -4360, -2309, -2314, -1733, 702, 2803, 1671, -1178, -997, 2860, 48, -1804, -2686, 12004, -2318, 3828, 468, -5319, -959, 9808, 726, -4560, 1649, 125, 2683, -1899, -13057, 5665, -523, 2229, -11104, -60, 8410, 4161, -1206, 10594, 292, -8333, -5369, 11428, -3629, 3145, 4547, 1124, -3537, 1448, -4270, 2075, 1596, 4289, -2020, 1054, -2578, 4838, -6850, 1136, 1287, 980, 8427, 2336, -2141, -5697, -4959, 9473, 2861, 4312, 62, 8590, 563, 7052, -209, -3243, -5342, 233, 3593, 1449, -5425, 10242, 4656, 5736, -3468, 1553, -30, 4939, 8578, -7828, 6834, 8594, -2586, -4533, 8068, -3927, 4044, 3876, 3810, 3498, 7605, -1832, 8868, -2472, 4826, -2662, 608, -12, 3077, 877, -1276, 562, 8446, -6543, 3742, 5270, 2469, 8617, -4538, -942, 7445, -1701, -6591, 3223, 5391, -232, 8710, 258, -787, -746, 1118, 136, -2191, -11680, -11190, 3970, 3355, 2175, 66, -1612, 6873, -7922, -46, 2203, 10733, -4651, -2833, -2788, 1310, 6432, -2642, -1996, -3096, 4939, 566, -2123, 94, 784, 4593, 1852, 1867, 1679, -1958, 4814, -230, 5342, -4003, 2594, 2675, -1206, -9927, 3519, 8439, -1969, 2319, 5059, 3526, 4099, 502, -1618, 2215, -1351, -5753, -8308, 571, -374, 5678, -2665, 2171, 1640, 5718, -3837, -902, -221, 4652, -5727, 1315, 9949, 2962, -6064, -907, 4282, -13238, -1234, -2454, 3106, 1783, 3300, 3896, 2585, 10446, -7654, 1465, 4657, 1522, -1211, 4207, -4357, -10332, -6997, 7095, -3203, -1244, -1998, -1678, 1403, 5340, -1971, -4746, -5280, 1921, 1369, -664, 6599, -5, 3520, -2076, 2102, -5859, -989, 4973, 7108, -1122, 8094, 3263, 3254, 6021, -2326, -1675, -2529, -2146, -3407, -1523, -2676, 5796, 2752, -412, 3472, 11563, 1275, -10595, 2042, -5989, 5598, 3646, -10402, -3764, 188, 4937, 3030, 6962, 10716, -8576, -1622, -3498, -3493, 1105, 5696, 1372, 6037, -2311, -9666, 6232, -4586, -5433, 8505, 4716, 1848, 5741, -481, 4048, 8373, 1255, 3326, -3317, -2894, -230, -6920, -2849, 1701, -3324, -7839, 991, -1818, -5748, -3420, -881, 1437, -2630, 1327, 2472, -3155, -4591, 3808, -2407, -2280, 4699, 6291, 4974, 890, -3241, -6006, 8545, -4356, 7699, -705, -2053, -4151, 7827, -13127, 7011, 9913, 2322, -2399, -13, 1488, 5035, 7851, 5347, 9855, -7090, -3141, 3806, -3228, 2877, 2535, 2967, 5890, 1475, 8053, -6917, -1340, 6868, 5378, -769, 4735, 3870, -1902, -4824, -2705, 3242, -839, 2139, -4228, 6507, -9548, 1545, -3912, -5737, 2916, -140, -1464, -8037, 12696, 11903, 2589, 3526, -5675, 4813, 23719, -4322, -3481, 1491, -258, 2929, -2715, 5983, 7185, -2156, 3166, -667, 3591, 6886, -4273, -10019, -3607, -1971, 6216, 9075, 8177, 4225, 1843, -404, 2941, 737, 15459, -1891, -50, -1805, 364, 4051, 3542, -1916, 6391, 292, 1031, 7002, -1498, -10140, -4274, -4590, -3110, -3420, 3950, -1265, -5032, -260, -5082, -1329, -1774, 2462, -1618, 767, -2561, -2484, 502, 708, -5202, -4615, 3682, -5170, -11220, -1437, 1473, -501, -2371, -1976, -276, 4661, -588, 1343, -4362, 7155, -10395, 3235, 3176, 1945, -3364, -2029, -1409, 5039, 2941, 3692, -2521, -857, 7581, 4706, -189, -1000, 5255, 4, 6402, 940, -622, 3939, 5545, 8597, -6033, -3801, 1469, -5375, -1268, -5816, -6059, -3131, -8324, -5361, -13600, -5907, -7772, -5545, -4614, -685, 3936}
#define FC28_W_Z       	(175)
#define FC28_IN_Z      	(0)


#endif /*__192_0_25_WEIGHTS_BIAS_H__*/
