#ifndef __192_1_0_WEIGHTS_BIAS_H__
#define __192_1_0_WEIGHTS_BIAS_H__


/* Layer 1 Learned Parameters */
#define CONV1_BIAS \
 {-3983350, 47489, -22826, 7414652, 10049, 200322, 92429, 96012, 388793, -5004289, 12993, 22689, -11987749, 64134, 12061, 7752, -1022254, 5620, 197812, -2522981, 757, 48574, 65599, 27649, 40401264, -15124153, -241, 39857, 71748, 125, 175619, 51526}
#define CONV1_WT {0}
static const uint8_t CONV1_W_Z[] = 	 {-94, -136, -135, -194, -130, -21, -142, -215, -222, -192, -148, -85, -216, -63, -118, -127, -245, -101, -18, -131, -101, -183, -202, -121, -126, -77, -126, -103, -93, -146, -60, -119};
#define CONV1_IN_Z      	(127)
#define CONV1_OUT_Z     	(0)
static const int32_t CONV1_M_ZERO[] = 	 {1234865024, 1466959104, -1965781248, 1792065152, 1160554112, 1428260352, 1450336768, 1239305088, 1786975360, 1207503488, 1696681728, 2062418432, 1277885440, 1082226304, 1568408192, 1590072192, 1798755712, 1866109952, 1389202304, 1161584128, 1968394880, 1321043712, 1196854528, 1228187648, -1641774464, 1185101568, 1091943424, 2135532928, 1578862976, 1293790080, 1529304064, 1135158528};
static const int8_t CONV1_N_ZERO[] = 	 {0, 0, 0, 0, 0, 0, 0, 0, 0, 0, 0, 0, 0, 0, 0, 0, 0, 0, 0, 0, 0, 0, 0, 0, 0, 0, 0, 0, 0, 0, 0, 0};


/* Layer 2 Learned Parameters */
#define CONV2_BIAS \
 {-545, -724, 4252, 79657, 2117, 1547, -11746, 1055, 586, 2010, 21049, 4437, -489, 12499, 18916, 3645, 273, 3358, 7038, 230, 71, 48501, 7306, -32325, 330, -169, -754, -6229, 2909, 354, 7160, 42505}
#define CONV2_WT {0}
static const uint8_t CONV2_W_Z[] = 	 {-213, -96, -132, -224, -52, -147, 94, -116, -135, -45, -127, 70, -183, -201, -176, -41, -75, -47, -101, -104, -53, -205, -201, 0, -87, -210, 53, -53, -113, -63, 375, -202};
#define CONV2_IN_Z      	(0)
#define CONV2_OUT_Z     	(0)
static const int32_t CONV2_M_ZERO[] = 	 {2146630528, 1270657792, 1284439424, -1516910592, 1777037440, 1527725952, -1467516288, 1235513600, 1122442752, -2038112256, 1545324800, 1798065920, 1105761280, 1465913472, 2078753280, 1190242432, -1809301376, 1543892480, 1120934272, -1978674944, 1303466624, 1522528256, 1211047424, 2034089472, 1963234048, 1183011456, 1511315584, 1746127360, 1075552000, 1424480384, -2013565440, 1732709504};
static const int8_t CONV2_N_ZERO[] = 	 {0, 0, 0, 0, 0, 0, 0, 0, 0, 0, 0, 0, 0, 0, 0, 0, 0, 0, 0, 0, 0, 0, 0, 0, 0, 0, 0, 0, 0, 0, 0, 0};


/* Layer 3 Learned Parameters */
#define CONV3_BIAS \
 {957, 1423, -6308, 1143, -1315, -343, -2493, 490, 866, 245, -1720, -1832, -514, 334, 819, -819, -846, 1587, -3614, -1063, -3211, -1414, -1074, 940, 1119, -524, 161, -1188, 220, 821, -949, -136, -758, 2265, -3721, 2672, 935, 354, 59426, 1800, -36, 472, -321, 1968, -364, 148, -1020, 1191, 508, -466, -355, -1692, -613, 91, 1136, -838, -514, -409, -293, -1239, 650, 917, -35357, -421}
#define CONV3_WT {0}
static const uint8_t CONV3_W_Z[] = 	 {-48, -47, -68, -96, -29, -78, -114, -113, -129, -87, -42, -60, -71, -80, -100, -87, -36, -102, -46, -104, -44, -64, -62, -133, -136, -62, -127, -30, -44, -128, -60, -100, -64, -73, -22, -97, -74, -72, -151, -92, -133, -76, -49, -80, -74, -71, -81, -94, -109, -104, -99, -47, -35, -115, -132, -56, -57, -129, -106, -54, -155, -123, -109, -116};
#define CONV3_IN_Z      	(0)
#define CONV3_OUT_Z     	(0)
static const int32_t CONV3_M_ZERO[] = 	 {1514869376, 1453964544, 1296314496, 1154984576, 1799170432, 1314203136, 1926350464, 1834291968, 2105482496, 1715525248, 1919094272, 1313330944, 1862663296, 1288843904, 1641309184, 2131969152, 1886306432, 1904909952, 1938077056, 1756505856, 1760440960, 1568526848, 1626326784, 1999213312, 2034614784, 1091905664, 1715448704, 1976777856, 1180765824, 1858926592, 1141778688, 1289225088, 1161151104, 1437004928, 1392403968, 1338127488, 1216510848, 1695565056, 1356448000, 1580291200, 1127049216, 2069746816, 1823005312, 1790202624, 1462829952, 1761436544, 1475944192, 1232472576, 1092192384, 1437574528, 1085913856, 1241224960, 1295644032, 1832956160, 1352938496, 1340892160, 1221259520, 1380828032, 1369072896, 1154540544, 1549090816, 1809051008, 1630729216, 1145256576};
static const int8_t CONV3_N_ZERO[] = 	 {0, 0, 0, 0, 0, 0, 0, 0, 0, 0, 0, 0, 0, 0, 0, 0, 0, 0, 0, 0, 0, 0, 0, 0, 0, 0, 0, 0, 0, 0, 0, 0, 0, 0, 0, 0, 0, 0, 0, 0, 0, 0, 0, 0, 0, 0, 0, 0, 0, 0, 0, 0, 0, 0, 0, 0, 0, 0, 0, 0, 0, 0, 0, 0};


/* Layer 4 Learned Parameters */
#define CONV4_BIAS \
 {26, 567, -13, 97, 6327, -8122, 6098, 154, 3655, -3108, 11940, 76, 2735, 320, 430, 40, 1952, 3082, 356, 95, -6, -94, 581, 55, 33, 14, 99, 229, 194, 271, 304, 2118, 2803, 3405, 3384, -590, 1400, 166, 4174, 88, 5285, 76, 180, 3622, 140, -11, 6228, 8, 10664, 5, 19, -450, 1071, 50, 2051, 110, 192, 1084, 365, 2730, 493, 2853, -114, 2030}
#define CONV4_WT {0}
static const uint8_t CONV4_W_Z[] = 	 {-131, -96, -238, -118, -118, 64, -347, 42, -162, 84, -287, 25, -226, -49, -134, -86, -255, -184, 0, 50, -43, -29, -119, -125, -130, -132, 68, 132, -73, -120, -129, -343, -156, -177, -361, -48, -114, -124, -276, -103, -322, -135, -2, -211, -163, -109, -302, -98, -314, -148, -47, -12, -114, -80, -159, -42, -165, 53, -85, -160, 36, -362, -50, -154};
#define CONV4_IN_Z      	(0)
#define CONV4_OUT_Z     	(0)
static const int32_t CONV4_M_ZERO[] = 	 {2142967936, 1890023040, 1839995648, 1189922944, 1688205568, 1923823744, 1725927296, 1789066112, 1194105472, 1585337600, 1473302272, 1193291648, 2147080704, 2004838016, 1106844288, 1422616192, 1223089664, 2020421248, 1126694016, 1086199040, 2146838912, 1142117248, 1125023104, 1507376128, 2029350784, 1613920256, 1589920384, 2006346496, 1825239808, 2045514624, 1379763328, 1120000640, 1713393536, 1923019392, 1509319040, 1265582976, 1630170240, 1362864128, -1260831232, 1570797824, 1973152512, 1364407808, 1227612416, 1769871360, 1550477568, 2050913152, 1116022528, 2117771136, 1373506688, 1762933248, 1772926592, 1614324608, 1769560192, 1193502336, 1610425856, 2059699840, 1109255808, 1655060480, 1130439680, 1825259264, 1245293184, 2049100288, 1462047360, 1171641472};
static const int8_t CONV4_N_ZERO[] = 	 {0, 0, 2, 1, 0, 0, 0, 0, 0, 0, 0, 0, 0, 0, 0, 0, 0, 0, 0, 0, 0, 0, 0, 0, 0, 0, 0, 0, 0, 0, 0, 0, 0, 0, 0, 0, 0, 0, 0, 0, 0, 0, 0, 0, 0, 0, 0, 0, 0, 0, 0, 0, 0, 0, 0, 0, 0, 0, 0, 0, 0, 0, 0, 0};


/* Layer 5 Learned Parameters */
#define CONV5_BIAS \
 {9990, 10436, -38434, -3321, -11685, 6898, -5763, 72858, -23187872, 21290, 3314, -30419, 36643, 64596, 52796, 5907, 62941, 59284, -6305, 10632, 20120, -10405, -25618, 32562, -2176, -24535, 11034, 26797, 83091, -318, -10522, -20697, 9870, 20917, 6999, -24503, 1905, 5735, 36482, 20927, 29262, -25364, -10564, 20605, 2018, 17395, 13476, 30666, 13267, 69960, -5112, -32932, 50360, 32848, -31744, 496, -26074, -15296, 64238, 2759, -1777, 15904, 23620, 77036, 45204, 8761, -17217, -11846, 8055, -22045, -18501, -8333, 636, -19509, 5152, -14152, 22553, 1862, 4629, -1386, 54414, 17411, 10544, -11371, 8598, 36239, -9377, -30746, 17632, 26740, -11533, 18552, -2430, 61005, -660, 26707, 32498, 9959, -2570, -15398, 7592, -15686, -107, 55244, 9929, 21566, 7828, 4816, 12926, 1686, 36292, 8435, 54145, -4101, 10315, 39909, -28, 35916, -10020, 52341, -12542, 4408, 52026, 31583, 21506, -3654, 29046, -6143}
#define CONV5_WT {0}
static const uint8_t CONV5_W_Z[] = 	 {-99, -143, -140, -141, -64, -102, -160, -132, -123, -184, -126, -76, -107, -142, -132, -106, -128, -100, -44, -144, -139, -91, -69, -144, -118, -101, -122, -96, -169, -127, -156, -134, -208, -162, -150, -122, -88, -150, -121, -106, -122, -164, -147, -161, -102, -163, -102, -96, -170, -153, -121, -133, -112, -116, -148, -175, -118, -137, -121, -184, -117, -87, -132, -148, -105, -97, -145, -77, -106, -85, -113, -118, -175, -34, -169, -86, -132, -118, -107, -144, -123, -205, -156, -216, -156, -105, -100, -110, -96, -127, -158, -138, -86, -127, -110, -122, -69, -85, -114, -108, -125, -128, -121, -178, -133, -109, -122, -180, -224, -97, -112, -106, -166, -110, -192, -174, -148, -220, -124, -132, -85, -145, -136, -96, -195, -100, -115, -109};
#define CONV5_IN_Z      	(0)
#define CONV5_OUT_Z     	(0)
static const int32_t CONV5_M_ZERO[] = 	 {1968569472, 2020649856, 1482802560, 1241787264, 1421730560, 1314166272, 1860540160, 1675540480, 1287481472, 1492437504, 2017501696, 1082915072, 1346449024, 1551236352, 1352731776, 1809531264, 1945820032, 1622165632, 1686730112, 1944285440, 2121275520, 1220430080, 1757649152, 1643377152, 1884574464, 1747630720, 1154368384, 1268204928, 1179227392, 1142129920, 2111044608, 2025948800, 1453453312, 1767670656, 1124430976, 1665500416, 1291465600, 1439313024, 1429296000, 1538132736, 1133103232, 1960703744, 1807972864, 1771018240, 1750582912, 1322013696, 1422830464, 1077082368, 1116882048, 1512103936, 1220801792, 1265343232, 1703733888, 1475992192, 1267565568, 1149252352, 2113220480, 1329311872, 1301343232, 1550268928, 1419619968, 2085112192, 1215643008, 1139395328, 1480605440, 1543657472, 1211750400, 1478091776, 1978302080, 1587172608, 1130387200, 1203439616, 1419132032, 1253007360, 1855405952, 2038893952, 1554393472, 1441322240, 1302208384, 1116097408, 2026964992, 1396167168, 1613311488, 1532413696, 1853799424, 1432366848, 1692679296, 1810817792, 2068127744, 1794468480, 2021256704, 1301300992, 1078820736, 1513519488, 1722606592, 1498612096, 1345496704, 1629688704, 1338361856, 1657408512, 1288619776, 1607538816, 1074516224, 1400759424, 1586835328, 1578547712, 2059491968, 1918093696, 1981023488, 1611506560, 1820246400, 1203790336, 1323593216, 1149345792, 1117384960, 1313355776, 2076871040, 1111293056, 1173005184, 1495417600, 1617251584, 1189571072, 1570728448, 1688192512, 1107394816, 1378520064, 1095220480, 1477301760};
static const int8_t CONV5_N_ZERO[] = 	 {0, 0, 0, 0, 0, 0, 0, 0, 0, 0, 0, 0, 0, 0, 0, 0, 0, 0, 0, 0, 0, 0, 0, 0, 0, 0, 0, 0, 0, 0, 0, 0, 0, 0, 0, 0, 0, 0, 0, 0, 0, 0, 0, 0, 0, 0, 0, 0, 0, 0, 0, 0, 0, 0, 0, 0, 0, 0, 0, 0, 0, 0, 0, 0, 0, 0, 0, 0, 0, 0, 0, 0, 0, 0, 0, 0, 0, 0, 0, 0, 0, 0, 0, 0, 0, 0, 0, 0, 0, 0, 0, 0, 0, 0, 0, 0, 0, 0, 0, 0, 0, 0, 0, 0, 0, 0, 0, 0, 0, 0, 0, 0, 0, 0, 0, 0, 0, 0, 0, 0, 0, 0, 0, 0, 0, 0, 0, 0};


/* Layer 6 Learned Parameters */
#define CONV6_BIAS \
 {27436, 28942, 36881, 3370, 13077, 806, -4356, 10738, -63, -25197, 424, 127, 6000, 4915, 2805, 39141, 8854, 1528, 1936, 4524, -18759, 6033, 35238, 1430, -483, 18446, 8144, 2049, 9339, 11406, 62797, 84419, 181, 1119, -2255, 903, -5166, -5439, 4161, -864, 5272, 7644, 1059, 33768, 335, -3350, 4369, 1457, -4461, -1253, 16981, 2976, 4011, 22804, -1234, 18672, -825, 28966, 30804, -2806, 21952, 9412, 927, 9731, 2630, 19751, 14122, -5977, 20827, -4244, -29190, -1433, -2610, -1200, 47294, -4861, 16763, -6370, 105, 50874, 3072, 51989, 47063, 559, -8153, 24577, -42, 11299, -126, 1273, 11833, -5363, 7517, 18733, 15468, 20, 47069, 16645, 6145, 1424, 21275, -2542, 36356, -17352, 15014, 734, 4278, 12884, 18634, -338, 15671, 32675, -16954, 33, 6392, -2824, 2136, 9898, 93918, 1394, 41767, 129, 6158, -2630, 9534, 327, -162, 897}
#define CONV6_WT {0}
static const uint8_t CONV6_W_Z[] = 	 {-159, -202, -156, -43, -33, -92, -30, -141, -61, -22, -44, -110, -53, -116, -78, -164, -43, -96, -141, -64, -16, -48, -210, -82, -24, -148, -137, -124, -189, -99, -234, -270, -93, -45, -80, -110, -30, -91, -34, -119, -117, -163, -94, -208, -110, -75, -83, -110, -84, -55, -145, -104, -82, -229, -95, -64, 10, -225, -211, -67, -171, -71, -105, -150, -172, -73, -174, -25, -163, -33, -55, -51, -46, -149, -211, -46, -107, -32, -101, -242, -160, -233, -257, -129, -43, -222, -103, -159, -114, -95, -136, -97, -24, -188, -98, -40, -251, -97, -97, -59, -123, -53, -190, -54, -163, -118, -145, -92, -169, -101, -99, -157, -40, -99, -178, -56, -197, -88, -367, -81, -228, -103, -119, -116, -198, -31, -84, -117};
#define CONV6_IN_Z      	(0)
#define CONV6_OUT_Z     	(0)
static const int32_t CONV6_M_ZERO[] = 	 {1146896640, 1135084288, 1212317952, 1207118720, 1329718656, 1742283520, 1711253120, 1927487104, 1747262208, 1536554240, 1859885440, 1229997696, 1486075008, 1849243264, 2004067584, 1673198976, 1816715648, 1998998528, 1845780608, 1086054400, 1082259840, 1958022272, 1366997504, 1789978752, 1453729024, 1351753216, 2108063616, 1339777664, 1410742400, 1320111616, 1254014720, 1528128512, 1366393600, 1316541824, 1483369728, 1782728832, 1663794944, 1404547456, 1703643264, 1815226368, 1912262272, 1939366400, 1516425728, 1592157312, 1310402816, 1630954112, 1960224000, 1912656768, 2085917056, 1949298944, 1493193088, 1209014144, 1512807296, 1144721792, 1172323328, 1917890816, 1346370688, 1471606272, 1374741376, 1609786880, 1118802048, 1667992704, 1721858176, 1429461248, 1141409024, 1544107008, 1469558400, 1773423872, 1545001984, 1547378560, 1447267840, 1406873344, 1921207936, 1769995520, 1424107904, 2037678720, 1999533184, 1514815872, 1309550080, 2031477248, 1344975488, 1141066496, 1502678400, 1265821696, 2068677120, 1501555840, 1893378560, 2039680640, 1822246656, 2076798720, 1872470528, 1661051904, 1195018624, 2119192320, 1214193664, 1763006464, 1432380672, 1123651968, 1885353216, 2122393856, 1627126400, 1517033472, 1981371520, 1840948224, 1735422720, 1964469248, 1938126592, 1901657856, 1475996416, 1864495488, 1538772864, 1734219520, 1751999232, 1492301568, 1572536192, 1369343360, 1329468800, 1516084224, 1336264320, 1482099456, 1563068160, 2081778304, 1438449280, 1499913728, 1137557760, 1584893056, 1208893568, 1143227904};
static const int8_t CONV6_N_ZERO[] = 	 {0, 0, 0, 0, 0, 0, 0, 0, 0, 0, 0, 0, 0, 0, 0, 0, 0, 0, 0, 0, 0, 0, 0, 0, 0, 0, 0, 0, 0, 0, 0, 0, 0, 0, 0, 0, 0, 0, 0, 0, 0, 0, 0, 0, 0, 0, 0, 0, 0, 0, 0, 0, 0, 0, 0, 0, 0, 0, 0, 0, 0, 0, 0, 0, 0, 0, 0, 0, 0, 0, 0, 0, 0, 0, 0, 0, 0, 0, 0, 0, 0, 0, 0, 0, 0, 0, 0, 0, 0, 0, 0, 0, 0, 0, 0, 0, 0, 0, 0, 0, 0, 0, 0, 0, 0, 0, 0, 0, 0, 0, 0, 0, 0, 0, 0, 0, 0, 0, 0, 0, 0, 0, 0, 0, 0, 0, 0, 0};


/* Layer 7 Learned Parameters */
#define CONV7_BIAS \
 {2819, 15, -618, 4411, 1326, 3076, 892, -720, 1002, -1709, 3707, 1270, 580, 112, -1990, 1640, -269, 3960, -2047, -26, -1169, 931, 2418, 2549, -1279, 852, 38, -1506, 4257, -5, -1042, 607, -170, -633, 596, -75, 1550, -2889, -1138, -354, 1493, 4350, 744, 1829, 1543, 2354, -606, -762, 558, 789, -1125, -724, 198, -2210, 1357, 51, 486, 1573, 4792, 6895, -376, 2436, 2993, 288, 768, 3538, 1311, -2144, 454, 56, -394, -1916, -392, 3426, 876, 7531, 2558, -320, -686, 1287, 888, 1887, 1196, 3542, 1664, -1287, 1309, 437, 2145, -490, 760, 315, -750, -540, 581, 1628, -706, -382, 422, -380, 2923, 1947, 1212, -1779, 2174, -504, 2526, 436, 1082, -1645, -883, 1319, -121, -55, 2482, 185, 640, -1965, -897, 1529, -941, 718, 92, 2814, 2952, -1018, 745, 1347}
#define CONV7_WT {0}
static const uint8_t CONV7_W_Z[] = 	 {-164, -133, -43, -138, -155, -190, -136, -163, -114, -78, -159, -99, -111, -129, -111, -130, -133, -126, -139, -61, -87, -132, -134, -109, -147, -199, -120, -68, -202, -98, -135, -86, -83, -55, -129, -91, -172, -97, -92, -60, -111, -156, -114, -89, -92, -148, -95, -126, -38, -135, -139, -110, -126, -106, -175, -58, -96, -146, -154, -163, -159, -185, -177, -118, -132, -177, -130, -99, -81, -149, -127, -77, -121, -102, -104, -157, -166, -119, -89, -105, -101, -91, -155, -91, -148, -128, -146, -135, -174, -130, -82, -113, -101, -100, -166, -163, -119, -85, -93, -136, -151, -129, -114, -60, -138, -130, -142, -124, -153, -109, -87, -106, -123, -138, -107, -61, -70, -77, -146, -171, -146, -43, -103, -143, -123, -153, -148, -139};
#define CONV7_IN_Z      	(0)
#define CONV7_OUT_Z     	(0)
static const int32_t CONV7_M_ZERO[] = 	 {1721797248, 1824980096, 1132143872, 1497599104, 2093827584, 1083571584, 1428826752, 1864659200, 1957280256, 1498835584, 1116873216, 1111664512, 1186204032, 2084013184, 1172974720, 1753612800, 1269118080, 1472189312, 1488207872, 1309223552, 1651309696, 2019141120, 1079660416, 1860967808, 1195924352, 1821903232, 1188232576, 1242999296, 1540628352, 1920957312, 1293137024, 1337820160, 1234414336, 1596449152, 1148212992, 2004360448, 1150455680, 2139409152, 1260997120, 1657203968, 1151842816, 1462224384, 1264329216, 1080189184, 1334350976, 1138756736, 1912334208, 1513807104, 1578111744, 1396564096, 1334276608, 1970882304, 1080782976, 1527899520, 1314167168, 1716832256, 1552730752, 1137023872, 1908130048, 1074993920, 1466512512, 1231829120, 1475541120, 1465275264, 1532171776, 1094907136, 1440862336, 1103576320, 1530581248, 1216796544, 2128229248, 1256008320, 1163143552, 1282131968, 1732369664, 1386788736, 1224484224, 1208105728, 1629373568, 1299128704, 1284582400, 1084972928, 1795473024, 1607199872, 2086920064, 1955090688, 1386238336, 1372477184, 1132682368, 1247994240, 2020083200, 1175302144, 1197635712, 1235391104, 1536551808, 1888335360, 1850154624, 1838947328, 1219469440, 1463466880, 1854217088, 1101098240, 1401900032, 1272723200, 1297711744, 2051091584, 1307905536, 1685882112, 1305410688, 1134808576, 1108115328, 1346521600, 1470145152, 1409003136, 2129428736, 1605071488, 1870819200, 1355583488, 1380826880, 1456861568, 1439286272, 1390112384, 1720237952, 2025250048, 1322719744, 1241681152, 2121732864, 1356216320};
static const int8_t CONV7_N_ZERO[] = 	 {0, 0, 0, 0, 0, 0, 0, 0, 0, 0, 0, 0, 0, 0, 0, 0, 0, 0, 0, 0, 0, 0, 0, 0, 0, 0, 0, 0, 0, 0, 0, 0, 0, 0, 0, 0, 0, 0, 0, 0, 0, 0, 0, 0, 0, 0, 0, 0, 0, 0, 0, 0, 0, 0, 0, 0, 0, 0, 0, 0, 0, 0, 0, 0, 0, 0, 0, 0, 0, 0, 0, 0, 0, 0, 0, 0, 0, 0, 0, 0, 0, 0, 0, 0, 0, 0, 0, 0, 0, 0, 0, 0, 0, 0, 0, 0, 0, 0, 0, 0, 0, 0, 0, 0, 0, 0, 0, 0, 0, 0, 0, 0, 0, 0, 0, 0, 0, 0, 0, 0, 0, 0, 0, 0, 0, 0, 0, 0};


/* Layer 8 Learned Parameters */
#define CONV8_BIAS \
 {111073, 10087, 23404, 23275, 14675, 129242, 82163, 137988, 37124, 307, -8737, 201, 31842, 22819, 2219, -2008, 6113, 38860, -2809, -37874, 41179, 38220, 1873, -627, 2403, 36979, 3, 30965, -264, 131599, 47797, -54347, 108555, 42671, 194528, 3258, 31905, 1847, 966, -19691, 201, -7722, 1159, 1966, -34840, 30108, 462, 459, 69402, 527, 115710, 3998, 55211, 1370, -632, 95467, 58021, 13, 11877, 472, 113766, -40220, 185428, 6218, 2981, -1662, 104196, -2098, 31950, -11808, 870, 11523, 5708, 46, 39257, 11695, 405, 14708, 448, -3582, 6102, -42627, 6292, 215976, -330, 10385, -4612, 7817, 70673, -1457, 7780, 62896, 2923, 11101, -603, 8404, 57346, 3161, 2814, 9829, 7157, 23751, 62737, 25409, -981, 1231, 166359, 5127, 15868, 429, 2810, 51263, 6890, -5540, -62531, 117893, 83087, -4374, -7815, 5510, 4515, 77310, 46765, 88739, -6410, 52343, 12529, -65084}
#define CONV8_WT {0}
static const uint8_t CONV8_W_Z[] = 	 {-308, 75, -291, -170, -136, -328, -415, -350, -200, 199, -54, 62, -199, -88, 68, 68, 70, -177, 74, 69, -347, -135, 67, -144, 74, -352, 52, -320, 79, -292, -355, 67, -319, -312, -326, -113, -119, 62, 90, 90, 68, -116, -116, -137, 48, 58, 90, 72, -364, 151, -320, 52, -332, 101, 52, -335, -359, 84, -161, -124, -263, 102, -322, 62, 72, 61, -329, 72, -314, -90, 71, 75, 102, -162, 49, -89, 118, -120, 50, -167, 67, 68, 63, -340, 22, 68, 74, 67, -388, 26, -154, 77, 91, 64, 73, 68, -365, 59, 75, 74, 67, 74, -317, -317, -4, 53, -366, 49, 48, 58, 56, 101, 109, -67, 69, -320, -338, 66, 132, 35, -4, -264, -341, -353, -103, -359, 103, 73};
#define CONV8_IN_Z      	(0)
#define CONV8_OUT_Z     	(0)
static const int32_t CONV8_M_ZERO[] = 	 {1726683264, 2051984000, 1308915840, 1334307840, 1521059072, 1477433088, 1323974656, 1974775296, 1731970048, 1612853248, 1975518208, 1189264768, 1248924416, 1404900992, 1932040448, 1629023488, 1246708352, 1275736960, 1648502272, 1351385856, 1125168128, 1868030464, 1767723136, 1743689728, 1563775232, 1364074368, 1345641984, 1594360832, 1950672640, 1862907136, 1855311872, 1874463744, 1214026368, 1366490112, 1253890176, 2099210240, 1337376768, 1229972480, 2016434432, 1638738176, 1164183296, 1793638656, 1887043712, 1332384128, 1806984704, 1727008896, 1712191744, 2127119488, 1842193664, 1271278464, 1796610560, 1102082688, 1835805568, 1494064896, 1542295552, 1241752832, 1904256384, 1857295744, 1727768192, 1705234816, 1723685248, 1669213952, 1134897280, 1636565888, 1311235072, 1247753216, 1192436096, 1950532352, 1590563584, 1465123712, 1729320704, 1845535488, 1861393664, 1319885312, 1577846656, 1514171520, 1258827904, 1074708736, 1106859136, 1839122432, 1232594176, 1811485440, 1089753984, 1531860608, 2050583552, 1448640768, 1339169280, 1550158848, 1542003968, 1950075136, 1350387072, 1249132032, 1465901056, 1760655488, 1833909248, 1281964288, 1695671552, 1438929664, 1928354432, 1869511424, 1720823040, 1364721664, 1677717632, 1080888704, 1236549888, 1751518464, 1274369152, 2123229440, 1762915328, 1216118528, 1514085376, 1363824640, 1353418624, 1729359488, 1619180288, 1075934208, 1294527872, 1569529600, 1217039872, 1905017984, 1320697728, 1724620160, 2060682368, 1580570496, 1358406016, 1961843072, 1228382592, 1291056768};
static const int8_t CONV8_N_ZERO[] = 	 {0, 0, 0, 0, 0, 0, 0, 0, 0, 0, 0, 0, 0, 0, 0, 0, 0, 0, 0, 0, 0, 0, 0, 0, 0, 0, 0, 0, 0, 0, 0, 0, 0, 0, 0, 0, 0, 0, 0, 0, 0, 0, 0, 0, 0, 0, 0, 0, 0, 0, 0, 0, 0, 0, 0, 0, 0, 0, 0, 0, 0, 0, 0, 0, 0, 0, 0, 0, 0, 0, 0, 0, 0, 0, 0, 0, 0, 0, 0, 0, 0, 0, 0, 0, 0, 0, 0, 0, 0, 0, 0, 0, 0, 0, 0, 0, 0, 0, 0, 0, 0, 0, 0, 0, 0, 0, 0, 0, 0, 0, 0, 0, 0, 0, 0, 0, 0, 0, 0, 0, 0, 0, 0, 0, 0, 0, 0, 0};


/* Layer 9 Learned Parameters */
#define CONV9_BIAS \
 {21794, 4326, 46094, 25476, -12247, -11907, 6453, 18279, 23745, 79240, -7536, 271, 23034, 85006, -5531, -5364, -31729, 23980, 7123, -49137, 18294, -322, -11910, 13578, 11353, 11539, 14749, 1713, 28301, 9093, -8084, 1357, 6830, 37986, 7554, 21685, 47879, 52167, 35756, 42841, -7440, 9086, 612, 14736, 69298, 42559, 35371, -3597, 9769, 10412, 22107, 85951, 81740, -6563, 65074, 22007, 8723, 70342, 23002, 10991, 28557, 11230, -5051, 45245, 17181, 30795, 65470, -27092, 41940, 33577, 35364, -21275, 34785, 46942, 15297, 16302, 51824, 299, 29940, 3898, -7978, 29146, 32417, 48203, -37353, 16638, -3788, 56526, 9344, 16955, 17815, 10729, -1435, 23089, -37592, 9739, 43988, 73632, -3765, 60646, 20019, 11633, 54666, 20765, 14743, 15122, 2842, -20188, 112843, -51307, 13317, 43119, 25359, 32299, 116484, 14907, 14145, -10348, -24416, -597, -23445, 23229, 28208, 31007, 17897, 30726, -1107, -9421, 12627, -15571, 40114, 326, 25693, -36482, -34886, 59147, 16923, 28654, 30135, 88592, 172924, 31688, 3712, -17943, 691, 16173, -15377, 1030, 11238, 8884, 18348, 30323, -19437, 9791, -12044, 60204, 17381, -2732, 4088, -1918, 48408, 776, 79145, -17653, 66889, 34896, 11188, 18287, 52244, -18256, 41458, 105686, 19882, 16343, 79132, 63323, 44614, 8163, -26109, 26192, 4591, 38114, 66290, 25010, 9283, 60110, 36548, 14288, 24231, 20436, 82398, -40256, 34068, 29088, 8720, 21134, -9315, 23754, 31750, 7386, 43005, 6740, -21815, 46739, 4019, 22540, 17105, 95575, 41211, 5021, 10407, 83108, 76494, 96010, 24460, 121128, 89, 51456, -4320, 79748, 38824, 63320, 8439, 44184, 5026, -3061, 34363, 7436, -57388, 6763, 48870, 57233, 17962, 6497, 27277, -5972, 1306, 66020, 26056, 70468, 3275, 11721, -267, 53056, 40884, 47484, 23492, 71013, 22798, 67040, -2150, 32149, 55424, 39992, 46703, 28918}
#define CONV9_WT {0}
static const uint8_t CONV9_W_Z[] = 	 {-104, -80, -124, -134, -72, -137, -116, -128, -120, -160, -103, -121, -90, -117, -152, -77, -59, -78, -112, -69, -105, -175, -92, -132, -131, -120, -109, -93, -123, -65, -76, -150, -126, -117, -126, -168, -125, -116, -100, -119, -109, -87, -156, -135, -136, -93, -111, -83, -136, -125, -79, -148, -170, -148, -101, -138, -87, -173, -96, -91, -132, -75, -54, -146, -96, -123, -96, -31, -114, -106, -79, -57, -146, -128, -134, -53, -148, -128, -216, -169, -62, -162, -150, -101, -77, -107, -62, -115, -75, -97, -101, -145, -80, -92, -105, -167, -132, -106, -121, -188, -106, -136, -164, -114, -165, -79, -117, -135, -138, -137, -86, -130, -108, -140, -112, -82, -102, -102, -112, -116, -149, -117, -144, -117, -112, -110, -146, -116, -123, -111, -124, -67, -137, -121, -98, -102, -110, -114, -75, -190, -104, -154, -147, -133, -91, -104, -114, -100, -162, -128, -166, -83, -84, -96, -126, -167, -163, -127, -102, -107, -92, -84, -136, -117, -176, -146, -138, -84, -117, -70, -134, -171, -176, -121, -88, -112, -119, -96, -127, -105, -95, -122, -170, -128, -126, -150, -88, -78, -115, -99, -177, -125, -130, -119, -147, -117, -106, -116, -166, -105, -108, -103, -118, -130, -92, -108, -111, -146, -119, -143, -107, -148, -134, -156, -118, -131, -104, -129, -89, -176, -117, -145, -151, -174, -69, -123, -101, -101, -89, -116, -97, -142, -131, -96, -168, -100, -99, -163, -135, -136, -87, -105, -74, -78, -109, -146, -101, -148, -139, -167, -153, -113, -137, -131, -97, -120};
#define CONV9_IN_Z      	(0)
#define CONV9_OUT_Z     	(0)
static const int32_t CONV9_M_ZERO[] = 	 {1879737728, 1114147712, 2035468416, 1343730560, 1881114112, 1326528128, 1883724288, 1532134912, 1682188288, 2095455872, 1443726336, 1369245568, 1206142848, 1269115520, 1084032000, 1999850368, 2123471104, 1970744192, 1358192896, 1168857600, 1477106560, 1607325056, 1262055808, 1987003904, 1358459904, 1121151616, 1639350784, 1126626432, 1790966144, 1409082752, 1534317824, 1929389312, 1076990080, 1921154432, 2088456448, 2029814912, 1987893888, 1844063616, 1683428480, 1874940928, 1947531392, 1776635392, 1406552320, 1999426816, 2011967104, 1239986560, 1237336448, 1126993152, 1470258944, 1827610880, 1622725376, 1711276672, 1927457280, 1564065792, 1790705664, 1406385664, 1848456704, 1675877888, 1128416896, 1795929216, 1182122752, 1276103296, 1435818624, 1523688576, 1623502208, 1301356288, 1096720896, 1905587072, 1582188544, 1747314048, 1784642176, 2119607808, 1759375104, 1149116032, 1119342592, 2139167744, 1412770944, 1478148864, 1541878016, 1225211648, 1094758784, 1325338112, 2008649728, 1455965056, 1537920256, 1625225856, 1666726912, 1861163136, 1480824576, 1345404160, 1506928512, 2009474432, 1290811136, 1133093504, 1385484032, 1634399232, 1493901440, 1263150464, 1477607552, 1420464640, 1108461056, 1651342208, 1101710464, 1645787264, 1225959296, 1569722880, 1193118208, 1812183168, 1605058560, 1857339136, 1205322240, 1833393664, 1178653440, 1650023296, 1087632000, 1154806400, 1113206912, 1425221504, 1375362944, 1805983488, 1901032448, 1667965568, 2138416512, 1971490688, 1124487552, 1663625216, 1269430784, 1750085504, 1511597824, 1095871360, 1084831872, 2118257792, 1701289728, 1475836416, 1348231040, 1477918464, 1365971072, 2042814336, 2025231104, 1268597888, 1589559296, 2070744064, 1891808384, 1953898880, 2024394240, 2100435328, 1414717184, 1603425664, 1765219456, 1838843008, 1955144832, 1150607232, 1211593600, 1540097280, 1927181824, 1822693888, 1301705216, 1372855296, 2107547776, 1477464448, 2095262080, 1642723328, 1328143744, 1215032704, 1283404032, 1375602176, 1967104512, 1843826688, 1209806848, 1464638336, 1605639808, 1903332480, 1106109312, 1597572352, 2089833984, 1922893824, 2072853504, 1176782848, 1733037440, 1622900736, 1313879680, 1828326272, 1371600640, 1736939264, 1196971648, 1194407936, 1641938688, 1077290880, 1389877888, 1760776960, 2102948224, 1484030464, 1298933376, 1302307968, 1133166464, 1405151616, 1725997312, 1954592000, 1688727424, 1336882432, 1119530240, 1221597440, 1692150912, 1143424384, 2127839232, 1420900480, 1651208704, 1191071744, 1163169536, 1796239104, 1899341696, 1095954560, 1091241088, 1353041536, 1110903424, 1747020416, 1400546944, 1597343616, 2035651072, 1373085952, 1165305216, 1750112896, 1391602688, 2016914432, 1367524864, 1636575872, 1722968192, 1683321472, 1979579136, 1574144256, 1820337792, 1650877568, 1487166336, 1714538112, 1162312704, 1123304192, 2138907264, 1075397248, 2008689536, 1820019328, 1297701888, 1083749888, 1221107072, 1488736768, 1832919680, 1789468160, 1297422336, 1798088448, 1210577792, 2004152320, 1341800192, 1565452672, 1296664704, 1916948480, 1223273856, 1564056064};
static const int8_t CONV9_N_ZERO[] = 	 {0, 0, 0, 0, 0, 0, 0, 0, 0, 0, 0, 0, 0, 0, 0, 0, 0, 0, 0, 0, 0, 0, 0, 0, 0, 0, 0, 0, 0, 0, 0, 0, 0, 0, 0, 0, 0, 0, 0, 0, 0, 0, 0, 0, 0, 0, 0, 0, 0, 0, 0, 0, 0, 0, 0, 0, 0, 0, 0, 0, 0, 0, 0, 0, 0, 0, 0, 0, 0, 0, 0, 0, 0, 0, 0, 0, 0, 0, 0, 0, 0, 0, 0, 0, 0, 0, 0, 0, 0, 0, 0, 0, 0, 0, 0, 0, 0, 0, 0, 0, 0, 0, 0, 0, 0, 0, 0, 0, 0, 0, 0, 0, 0, 0, 0, 0, 0, 0, 0, 0, 0, 0, 0, 0, 0, 0, 0, 0, 0, 0, 0, 0, 0, 0, 0, 0, 0, 0, 0, 0, 0, 0, 0, 0, 0, 0, 0, 0, 0, 0, 0, 0, 0, 0, 0, 0, 0, 0, 0, 0, 0, 0, 0, 0, 0, 0, 0, 0, 0, 0, 0, 0, 0, 0, 0, 0, 0, 0, 0, 0, 0, 0, 0, 0, 0, 0, 0, 0, 0, 0, 0, 0, 0, 0, 0, 0, 0, 0, 0, 0, 0, 0, 0, 0, 0, 0, 0, 0, 0, 0, 0, 0, 0, 0, 0, 0, 0, 0, 0, 0, 0, 0, 0, 0, 0, 0, 0, 0, 0, 0, 0, 0, 0, 0, 0, 0, 0, 0, 0, 0, 0, 0, 0, 0, 0, 0, 0, 0, 0, 0, 0, 0, 0, 0, 0, 0};


/* Layer 10 Learned Parameters */
#define CONV10_BIAS \
 {-7995, -138, -237, -2939, 4957, 24312, -445, 9121, -417, -2832, 6724, 30372, -23, 9216, -1095, 120, -3617, 18645, 17944, 445, -252, -91, 16924, -140, 2289, -1709, 247, 358, 927, -262, 33058, -8169, -1703, 1164, 6866, -63496, 26, 10422, 24607, 25972, -3843, 12427, -825, 1291, -715, -497, 323, 5540, -10900, -1320, 35370, 30615, 6399, 5735, 26062, -2543, 21714, -4134, 43036, 52450, -1131, 282, 30183, -4205, -3807, 17340, 297, 94, -434, 2460, 768, -2005, 85041, 12618, -11098, 19881, 565, 28690, 12161, 13159, 320, 85080, 8074, -347, 531, -355, 196, 20047, 90561, 20587, 816, 83259, 208, -3865, 7835, 22236, 3796, 21716, 728, 70161, 10876, -4541, 4193, 3625, -7057, 41145, -2860, -4381, 10069, -14381, -177, -4621, 2088, 27435, -4186, 73527, -10808, 36009, -2070, -1, 161, -4222, -10240, -222, 33851, 8025, -11353, 1048, -3467, 3167, -46, -786, 38861, 3292, -7572, 37982, -571, 19283, -99, -1059, 107, 27575, 390, 9438, 3934, 24113, -666, 38899, 95400, 972, 3315, 114, 41633, -990, 5103, -716, -694, 583, 17867, 2587, 31351, 28388, 20715, 55, -3005, 232, -7027, -4167, 10634, 481, -6248, -4791, 6911, 1046, 243, 10014, -144, 7947, -4929, 1223, 58836, -4295, -749, -11148, -6260, -7734, -1071, 15396, -3488, 28019, 7979, 1755, -7319, 81570, -3829, 39020, 3362, -328, 39848, 30715, 29090, 8617, -2866, 31682, -3240, 9895, -1114, 184, 21007, 65320, 40867, -6736, 21491, 64903, 46950, 13608, 13934, 88, -9564, -340, 36707, 1020, -6528, -8631, 98, -2588, 69781, 31945, 14289, -1085, -1769, 66914, 755, 513, 2440, -1913, 168, -4424, -1947, 760, 277, 11606, 377, 24385, -167, 861, 18904, 31606, 41964, -1075, 15276, 65872, 105, 897, 1291, -9}
#define CONV10_WT {0}
static const uint8_t CONV10_W_Z[] = 	 {-66, -46, -153, -122, -86, -157, -127, -147, -110, -65, -38, -220, -104, -64, -116, -63, -42, -225, -132, -77, -136, -45, -151, -103, -46, -108, -95, -110, -133, -150, -227, -54, -121, -100, -42, 40, -107, -60, -234, -239, -124, -48, -56, -129, -131, -131, -115, -58, -86, -105, -270, -218, -137, -39, -215, -38, -197, -31, -209, -447, -101, -113, -274, -42, -45, -224, -128, -165, -127, -38, -113, -50, -244, -129, -34, -217, -108, -204, -216, -37, -58, -285, -150, -101, -48, -125, -140, -228, -268, -183, -118, -230, -101, -31, -194, -136, -141, -225, -141, -226, -52, -30, -156, -121, -42, -249, -148, -25, -55, 73, -47, -54, -176, -222, -118, -321, -84, -343, -40, -29, -18, -20, -40, -153, -237, -172, -36, -98, -102, -128, -157, -104, -207, -143, -32, -230, -102, -235, -115, -115, -130, -217, -80, -49, -21, -177, -33, -235, -238, -97, -132, -91, -252, -82, -111, -104, -33, -146, -169, -137, -219, -228, -211, -128, -45, -93, -43, -86, -130, -43, -86, -111, -98, -43, -111, -61, -146, -69, -63, -100, -258, -36, -133, -85, -35, -56, -117, -195, -54, -249, -51, -54, -30, -368, -45, -221, -158, -138, -343, -226, -217, -165, -20, -240, -119, -188, -127, -146, -251, -272, -238, -31, -210, -208, -237, -220, -176, -94, -27, -102, -237, -149, -16, -5, -47, -134, -148, -275, -81, -43, -75, -342, -34, -105, -124, -42, -135, -69, -32, -92, -129, -99, -105, -202, -110, -113, -224, -240, -333, -119, -92, -224, -78, -175, -84, -112};
#define CONV10_IN_Z      	(0)
#define CONV10_OUT_Z     	(0)
static const int32_t CONV10_M_ZERO[] = 	 {1421444224, 1175090816, 1293723648, 1524646400, 1881632256, 1211627776, 1452020352, 1959871232, 1363269248, 1248756480, 1627436288, 1588814336, 1089614080, 1128206720, 1198918656, 1712851328, 1452891648, 1320485120, 1415543936, 1429980928, 1947982720, 1353470720, 1239163136, 1094535680, 1549690112, 2002790656, 1207883904, 1166966656, 1135508480, 1470272000, 1098419968, 1225711872, 1851994752, 1200794112, 1414652544, 1366397312, 1210615168, 1603958144, 2097835136, 1989424128, 1496328704, 1759000192, 1949984768, 1091063040, 1328147584, 1399243264, 1943291008, 1181111168, 1283170816, 1586512384, 1881656576, 1885633664, 1895215488, 1171590784, 1435450112, 1386539392, 1235936896, 1197316992, 1902620672, 2098780928, 1423371904, 2012641024, 1109585792, 1479397888, 1880083200, 1954393472, 1562430976, 1584374656, 1760231424, 1230671104, 2086246016, 2048010496, 1703302400, 1756625792, 1344054912, 1412383872, 1823387904, 1677146752, 2081566464, 1234092160, 1286692992, 1092315264, 1554291328, 1849527808, 2008120704, 1349577472, 1504443264, 1125366912, 1371919360, 1170339840, 1179957504, 1726831104, 2002382208, 1234487168, 1881457024, 1838465408, 2056860928, 1805892096, 1921232384, 1530670720, 2099634304, 1074535808, 1514888960, 1344253184, 1108299136, 1741622016, 1390726144, 1732998784, 1366813824, 1866107904, 1268278016, 1496474496, 1254609024, 2087679488, 1511213056, 1802273024, 2041612160, 1564999040, 1227466112, 1230344832, 1271373696, 2061381760, 1354927616, 1113804800, 1718063104, 2138195328, 1092834048, 1684576384, 1499816576, 1299566080, 1215340672, 1686716672, 1599513216, 1948882176, 1115666816, 1893601024, 1817255552, 1545320192, 1536816512, 1748924544, 1863323264, 1549389696, 1802361600, 1442057856, 1172947456, 1822382336, 1352979328, 2059742208, 1726570752, 1291372928, 2117577344, 1219925248, 1938403456, 1117953024, 1465125632, 1357524992, 1706924544, 1163319168, 1120817664, 1806507904, 1145398272, 1523033472, 1582897920, 1774459136, 1133695232, 1338140288, 1705487488, 1963184640, 1312980992, 1779803264, 1717692672, 1370830720, 1183062016, 1423523072, 1124234496, 1623554688, 2104644224, 1205839744, 1646217088, 1265198592, 1592913152, 2015626112, 1955731968, 1314778112, 1504862080, 1649373440, 1660560000, 1311570688, 1173569792, 1813444992, 1328572672, 1077601792, 1385995648, 1728919680, 2138584192, 1989997184, 1587583104, 1236693376, 1275696000, 1185947264, 1226674048, 2038823040, 1919769984, 2090164736, 1256044672, 1902840448, 1971101568, 1445183104, 1150520192, 1230184448, 2120098688, 1231051008, 2061221888, 1812567296, 1645053440, 1332889472, 1075018880, 1685198592, 1995083904, 1842396800, 2017588992, 1090594560, 1982767616, 1825887360, 1198300032, 1397642752, 1803419648, 1222969088, 1448295680, 1521724288, 2045190784, 1877794176, 1772043904, 1732548992, 1724847360, 1395897984, 1635915904, 1647340544, 1962476672, 1989253888, 1604143744, 1667519872, 1860500608, 1415517056, 1209026944, 1201041664, 1104489600, 1311296896, 1389415552, 1906663296, 1589726336, 1371201792, 1441538304, 1566798080, 1117960576, 1108915072};
static const int8_t CONV10_N_ZERO[] = 	 {0, 0, 0, 0, 0, 0, 0, 0, 0, 0, 0, 0, 0, 0, 0, 0, 0, 0, 0, 0, 0, 0, 0, 0, 0, 0, 0, 0, 0, 0, 0, 0, 0, 0, 0, 0, 0, 0, 0, 0, 0, 0, 0, 0, 0, 0, 0, 0, 0, 0, 0, 0, 0, 0, 0, 0, 0, 0, 0, 0, 0, 0, 0, 0, 0, 0, 0, 0, 0, 0, 0, 0, 0, 0, 0, 0, 0, 0, 0, 0, 0, 0, 0, 0, 0, 0, 0, 0, 0, 0, 0, 0, 0, 0, 0, 0, 0, 0, 0, 0, 0, 0, 0, 0, 0, 0, 0, 0, 0, 0, 0, 0, 0, 0, 0, 0, 0, 0, 0, 0, 0, 0, 0, 0, 0, 0, 0, 0, 0, 0, 0, 0, 0, 0, 0, 0, 0, 0, 0, 0, 0, 0, 0, 0, 0, 0, 0, 0, 0, 0, 0, 0, 0, 0, 0, 0, 0, 0, 0, 0, 0, 0, 0, 0, 0, 0, 0, 0, 0, 0, 0, 0, 0, 0, 0, 0, 0, 0, 0, 0, 0, 0, 0, 0, 0, 0, 0, 0, 0, 0, 0, 0, 0, 0, 0, 0, 0, 0, 0, 0, 0, 0, 0, 0, 0, 0, 0, 0, 0, 0, 0, 0, 0, 0, 0, 0, 0, 0, 0, 0, 0, 0, 0, 0, 0, 0, 0, 0, 0, 0, 0, 0, 0, 0, 0, 0, 0, 0, 0, 0, 0, 0, 0, 0, 0, 0, 0, 0, 0, 0, 0, 0, 0, 0, 0, 0};


/* Layer 11 Learned Parameters */
#define CONV11_BIAS \
 {8574, 37267, 32113, 7483, 33263, 83779, 21821, -5838, 9470, 70199, 32701, -26772, -6446, 23385, -7163, 17320, -183, 13209, 1336, -44123, -25474, 16353, -12621, -12372, 13266, 74842, -36727, -20327, 15781, -31997, 26553, -22493, 1886, -34724, -30299, -23505, 31113, 58724, 26778, -48788, -13216, -7233, 123740, -19186, -16560, -6959, -30012, 26044, 10249, -9020, -32674, 11111, 59531, 4311, -13195, 49035, 26450, -85710, 7597, -15322, -6852, 38106, 4790, -101145, -20383, -6626, 11322, -2808, -6189, 6662, 59753, -37329, -26745, -20881, -59095, 44378, -5854, 673, -11360, 17667, 32393, -40518, 44234, 6209, -1437, -39019, 26240, 1639, 91892, 36351, 26801, 25469, 5507, -4062, 19047, -5630, -11699, 1092, 45252, 19478, -14458, -1112, -33008, -1616, 17977, 9078, -21028, -3056, -6452, 5551, -17300, 12252, -3142, 4697, 21505, -1388, 20483, 55295, 9101, 5096, -73926, -7549, -28079, -22947, 12679, 4722, -37028, -12076, -8907, 8363, -12544, 1702, -30184, -33275, -16233, 10018, 159854, 445, -5238, -19280, 99125, -4760, -19263, -30785, 17447, 22259, -29315, -8926, 13870, 9334, -36948, 27086, 28128, -10400, 1790, 4921, -6337, -2286, 17312, -16063, 10201, -2876, -5881, -17515, 16924, 51364, 7594, 10143, 41271, -11978, -17574, -57985, 12636, 27853, -44174, -6153, -1226, -4190, -4265, 10782, -531, -33345, -4452, -5747, 14664, 2699, -12767, 25278, 3867, 4556, 48134, -7132, -33915, 1328, -17902, 4444, -5042, 37961, 45356, -4018, 30621, -6382, -56157, -3628, 3921, 13684, -19080, -6328, -54792, -6088, 14926, 60623, -1288, 49262, -18668, 40772, 23957, -21347, 4156, 17130, -3505, -6262, -11086, -1072, 18295, -27429, -27884, 2590, -55493, 2002, -9399, -781, -11530, -13889, 66427, 3072, 18915, -56159, 25455, 17829, 14286, 4690, -20682, -26056, -1831, -29616, -13235, -8510, -47578, -81, -17772, -1238, -37356, 11463, -22337, -7016}
#define CONV11_WT {0}
static const uint8_t CONV11_W_Z[] = 	 {-120, -92, -131, -165, -137, -178, -120, -162, -141, -139, -156, -140, -132, -116, -58, -122, -150, -128, -144, -107, -115, -94, -136, -128, -78, -111, -112, -121, -182, -108, -135, -111, -103, -112, -146, -149, -119, -191, -95, -104, -152, -51, -126, -124, -62, -116, -151, -113, -98, -120, -112, -95, -143, -105, -111, -133, -109, -96, -64, -89, -156, -146, -152, -88, -174, -127, -126, -160, -126, -138, -115, -118, -105, -101, -143, -135, -128, -139, -95, -151, -148, -116, -125, -114, -119, -119, -105, -129, -116, -104, -113, -150, -128, -139, -150, -104, -98, -82, -101, -138, -138, -146, -139, -131, -132, -126, -106, -171, -123, -144, -127, -122, -85, -88, -118, -129, -137, -124, -136, -85, -117, -122, -153, -122, -139, -111, -152, -154, -140, -135, -102, -105, -82, -121, -112, -82, -179, -142, -106, -128, -110, -126, -158, -148, -133, -142, -70, -122, -133, -103, -153, -108, -186, -96, -135, -127, -128, -144, -107, -111, -149, -88, -142, -64, -153, -110, -104, -142, -104, -130, -151, -115, -121, -119, -164, -106, -112, -103, -145, -158, -185, -122, -123, -53, -155, -144, -106, -102, -137, -180, -123, -152, -149, -142, -126, -101, -98, -138, -107, -114, -159, -142, -127, -122, -146, -153, -144, -131, -126, -128, -122, -123, -105, -101, -86, -186, -128, -147, -142, -111, -152, -124, -87, -114, -128, -116, -106, -145, -80, -135, -145, -134, -97, -113, -114, -100, -109, -127, -121, -143, -91, -125, -122, -115, -77, -97, -142, -101, -171, -110, -128, -82, -114, -149, -108, -81};
#define CONV11_IN_Z      	(0)
#define CONV11_OUT_Z     	(0)
static const int32_t CONV11_M_ZERO[] = 	 {1748040320, 1723369600, 2132087040, 1409516800, 1085713024, 1075604096, 1840369792, 1171362944, 1511427072, 1565528064, 1325454336, 1935046912, 1351063936, 1616804608, 2006881280, 1206175104, 1330798592, 1127839360, 1371011584, 1337877888, 1222054400, 1852947328, 1648116992, 1621133568, 1594682496, 1415265664, 1459732480, 2021273216, 1854119040, 1835115520, 1373450112, 1432046208, 1121598208, 1780694400, 1174536832, 1595693440, 1443483008, 1945075968, 1933374464, 1712581120, 2005898368, 1350828032, 1436566784, 1981989888, 1884943104, 1330980992, 1189196032, 2068906880, 1761259264, 2045249536, 1457239936, 1259992832, 1796115072, 1551097600, 1479556736, 1388760320, 1971905920, 1548025344, 1101872000, 1862412672, 1238985600, 1587423872, 1160664704, 1324744832, 1939886720, 1850705664, 1083041920, 1672528000, 1194693888, 1299314560, 1504769792, 1718792832, 1483966336, 1638168704, 2067265280, 1504339200, 1149542656, 1974845696, 2026520960, 1944597376, 1461051392, 1506743040, 1889162368, 1175278720, 1575667328, 1453685248, 1507197440, 2063385856, 1346688128, 1442468480, 1404614912, 1098349696, 1308722048, 1932413440, 2002127360, 1924786048, 1432166400, 1817623936, 1084110080, 1250722560, 1820604032, 1371131648, 1181865856, 1429035648, 1112265088, 1585360512, 1972757632, 1504389504, 2030013312, 1634307968, 1902427264, 1291959680, 1655094784, 1240754816, 1221035648, 1995527680, 1815620736, 1131591808, 1949962880, 1388799488, 1777314816, 1315511552, 1455266176, 1438456448, 1210719104, 1862515200, 2082784896, 2107224704, 1377454592, 1324773248, 1111733632, 1155701376, 2081202944, 1454649600, 1636806528, 1815984128, 1174693504, 1282800896, 1127826304, 1859992832, 1541094656, 1094204928, 1783398528, 1589503616, 1755876864, 1616865280, 1225721472, 1626414464, 1556592512, 1105363456, 1550803584, 1188491008, 1654763648, 1108495488, 1781268864, 2145607424, 1191682560, 1585801600, 2050509952, 1640937600, 2039363328, 1309662592, 1315816832, 1732970240, 2142140160, 1395080192, 1954643584, 2007710464, 1647808128, 1459832960, 1476873088, 1813744896, 1213354752, 1708206976, 1639452544, 1240936576, 1486408320, 1474767488, 1132745088, 2112476928, 1079547904, 1126748288, 1559694336, 1172626816, 1478950016, 1087431040, 1665251456, 1132544000, 1613545600, 1687590144, 1602487808, 1317880960, 1540396416, 1191944448, 1649726592, 1828498944, 1238939264, 1609585280, 2016976256, 1971771136, 1131460608, 1888162944, 1765608448, 2056062848, 2031838208, 1692810240, 1541973760, 2139747584, 1897762816, 2050838144, 2052960768, 1591882240, 1691249408, 1279389184, 2012062592, 2051910656, 1738045696, 1864796288, 1407818368, 1640756224, 1722785920, 1258933504, 2081969408, 1368599296, 1446268288, 1824926720, 1603932928, 2070711296, 1569038464, 1534654464, 2140693120, 1549166720, 2090951808, 1299970944, 1219716480, 1921434752, 1184285056, 1414683008, 1113618304, 1652122880, 1495356672, 1477164928, 1743027072, 1195592704, 1304226688, 1713590784, 1504485632, 1686072064, 1734634496, 1536081536, 1638180608, 1804142208, 1679546752, 1864485632, 1115032064, 1618408448};
static const int8_t CONV11_N_ZERO[] = 	 {0, 0, 0, 0, 0, 0, 0, 0, 0, 0, 0, 0, 0, 0, 0, 0, 0, 0, 0, 0, 0, 0, 0, 0, 0, 0, 0, 0, 0, 0, 0, 0, 0, 0, 0, 0, 0, 0, 0, 0, 0, 0, 0, 0, 0, 0, 0, 0, 0, 0, 0, 0, 0, 0, 0, 0, 0, 0, 0, 0, 0, 0, 0, 0, 0, 0, 0, 0, 0, 0, 0, 0, 0, 0, 0, 0, 0, 0, 0, 0, 0, 0, 0, 0, 0, 0, 0, 0, 0, 0, 0, 0, 0, 0, 0, 0, 0, 0, 0, 0, 0, 0, 0, 0, 0, 0, 0, 0, 0, 0, 0, 0, 0, 0, 0, 0, 0, 0, 0, 0, 0, 0, 0, 0, 0, 0, 0, 0, 0, 0, 0, 0, 0, 0, 0, 0, 0, 0, 0, 0, 0, 0, 0, 0, 0, 0, 0, 0, 0, 0, 0, 0, 0, 0, 0, 0, 0, 0, 0, 0, 0, 0, 0, 0, 0, 0, 0, 0, 0, 0, 0, 0, 0, 0, 0, 0, 0, 0, 0, 0, 0, 0, 0, 0, 0, 0, 0, 0, 0, 0, 0, 0, 0, 0, 0, 0, 0, 0, 0, 0, 0, 0, 0, 0, 0, 0, 0, 0, 0, 0, 0, 0, 0, 0, 0, 0, 0, 0, 0, 0, 0, 0, 0, 0, 0, 0, 0, 0, 0, 0, 0, 0, 0, 0, 0, 0, 0, 0, 0, 0, 0, 0, 0, 0, 0, 0, 0, 0, 0, 0, 0, 0, 0, 0, 0, 0};


/* Layer 12 Learned Parameters */
#define CONV12_BIAS \
 {113078, 10395, 97434, 6460, 3363, 86747, 79474, 19862, 99840, 17727, 46764, 2647, 76708, 2531, 77186, 84109, -7825, 2414, 57462, 4722, -834, 75949, -533, 3934, 69359, 81634, -183, -2960, 103911, -755, 145237, -26400, 76006, 216, 66829, 5456, -533, 138572, 98274, 1109, 612, 6193, 794, -340, 79718, 54684, -3299, 108908, 50178, 98608, -297, 1702, 78613, -2293, -5101, 85102, 60017, -673, 64527, 9853, -2653, 74791, 69417, -10, 1521, 15462, 73461, 7834, -386, 40890, 99032, 5765, -200, -319, 67629, 192937, -2616, -5086, -37543, 17756, 2890, 905, 131655, -6464, 6, 5943, 14013, -164, 2324, 75814, 122913, -7392, 72731, 59, 1679, -1412, 55007, 1526, 89335, 1613, -2636, 9314, -76, -2018, -739, 19790, 775, -1858, 63289, -188, -1813, -139, 90398, -1350, 81424, 1225, 83193, 98158, 9993, 14, -13194, 618, 117668, 822, 157934, 13502, 819, -206, 113353, -75058, 1577, 3514, 4065, 1353, 956, 129826, 27009, 121034, 1830, -2044, 54702, 319, 5229, -549, 11503, 197375, 908, 3158, 8517, -227, 11689, 100772, -3610, 54373, 85832, 201, 10044, 143376, -9497, 384, -3476, -182, 1661, -1633, -199, 717, -4860, -583, 84394, 68953, 96222, -14320, -852, -952, -252, 58638, 55728, 72585, 100, 48504, 3760, 3080, 90666, -13038, 111357, 77428, 22428, 461, 5084, 14385, 138997, -643, 83151, -566, 5119, 82210, -716, 89534, 110636, -1419, 87188, -232, -345, 31948, -2383, 92799, -405, 66366, -925, 14255, 3655, 6732, 243, 156505, 113693, 125593, 69691, 8173, 62980, 394, -1855, 4497, -478, 39, -1643, 47785, 71490, -1515, -1526, -607, 26180, -3395, -400, 104361, 1494, 92507, -264, 6570, 45523, 72888, 101416, 440, 68383, 7558, 2028, -1874, -1340, 145212, -442, 104403, 59670, 66457, 6479, -19973, -688, 104544}
#define CONV12_WT {0}
static const uint8_t CONV12_W_Z[] = 	 {-326, -127, -309, 62, -120, -294, -372, 105, -319, -153, -195, 64, -395, 68, -393, -408, 94, 67, -310, 132, 67, -295, 79, 93, -300, -334, 44, 93, -292, 114, -327, 118, -336, 99, -363, 85, 116, -291, -279, 96, 67, 67, -161, 130, -356, -357, 90, -268, -327, -372, 83, 70, -291, 120, -43, -293, -375, 69, -344, 81, 110, -350, -310, -93, 70, 85, -446, 110, 92, -363, -346, 98, 69, 63, -408, -318, 93, -18, 77, 61, 118, 42, -313, 106, 107, 104, 90, -175, -158, -298, -361, -132, -508, 105, -155, 89, -269, 81, -391, 7, -149, 102, -113, -15, 106, -116, 72, -96, -310, 103, 126, -75, -473, -170, -302, 103, -291, -343, -156, -83, -89, 58, -353, -60, -344, 104, 89, 88, -346, 61, -90, 74, 98, -28, 23, -312, -156, -408, 95, 103, -203, -110, 104, 55, -147, -345, 106, 36, 50, 84, 99, -377, 105, -325, -291, 146, 107, -364, 165, 70, 77, -51, 93, 61, 61, 65, 11, 29, -330, -431, -463, -75, 96, 50, 83, -342, -298, -446, 90, -375, 52, 112, -285, 55, -314, -349, 97, -121, 81, 96, -332, 66, -377, 103, 98, -415, -111, -293, -375, 62, -351, 63, 90, -141, 99, -350, -10, -361, 68, 83, -161, -149, 71, -323, -352, -341, -342, 48, -408, 44, 77, 69, 54, 106, -134, -344, -328, 71, 122, -17, 50, 97, -130, -330, -125, -410, -116, 53, -214, -413, -339, -116, -376, 77, 93, 98, 72, -381, 131, -383, -321, -391, 87, 47, -123, -305};
#define CONV12_IN_Z      	(0)
#define CONV12_OUT_Z     	(0)
static const int32_t CONV12_M_ZERO[] = 	 {1086170496, 1675682048, 2036929536, 1714484224, 1339092608, 1388428800, 1102422784, 1908590208, 1551616512, 1505850368, 1225373824, 1545362176, 1321313024, 1378693632, 1251894912, 1174131712, 1199595520, 2025407744, 1670959872, 1332565888, 1607641984, 1201104384, 1699182208, 1074271232, 1107908864, 1348981504, 1749837184, 1474913024, 1074827264, 1722364672, 1649517184, 2086506624, 1354555520, 2141263744, 1486732032, 1297751040, 2050423040, 1956033408, 1969134976, 1690418688, 1876970624, 1830870272, 1583764608, 1350765568, 1341074944, 2107151616, 1309193856, 1381257856, 1910913408, 1156221824, 1385038208, 1135494784, 2066500480, 1204010624, 1878036224, 1447053568, 1591698432, 1431733632, 1442347392, 1609324160, 1370866176, 1693548928, 1725502208, 1162981504, 2019974144, 1742379264, 1350173952, 1273427072, 1822192384, 1153758720, 1994121216, 1306193280, 1432755328, 1323788160, 1320338944, 1544621568, 1942171520, 2127957504, 1750507008, 1677222656, 1504090752, 1278946176, 1906589824, 2023588864, 1147006080, 1666054528, 1202759168, 1327320960, 1163708416, 1883792256, 1106482304, 2038156672, 1151186688, 1362594304, 1249372416, 1676243456, 1776302336, 1343745280, 1787935616, 1399962752, 1483041664, 1507927552, 1203099776, 1484647552, 1711535616, 1610358656, 1303062272, 1699754752, 1514829696, 1406108672, 1831411072, 1114681856, 1118236032, 1628417280, 1515689216, 1667258368, 1090312832, 1118587776, 1857585024, 1349061632, 1144949504, 1556691072, 1994933248, 1392441856, 1944711040, 1573977344, 1589105664, 1825711744, 1987498880, 1225835136, 1271174784, 1820544128, 1089399296, 1120509568, 1670115840, 1486530944, 2076607744, 1650993408, 1686314880, 1694076032, 2039838848, 1367611008, 1539810048, 2030559488, 1887475328, 1324058240, 1467862784, 1600400128, 1504521344, 1287946752, 1415355776, 1331347584, 1530050816, 1697147904, 1906410496, 1409896192, 1899011456, 1754327552, 1626903040, 1161742208, 1451309696, 2054881024, 1967444480, 1371778048, 1111172224, 1621161216, 1673000576, 1224573952, 1736515840, 1266909440, 2046792320, 2019908992, 1077158016, 1304546560, 1969831040, 1558007168, 1885252096, 1286372224, 1965650944, 1846008832, 1110569728, 1358369408, 1606702080, 1470401152, 1226353280, 2140612096, 1563779968, 2054611200, 1341845888, 1902322816, 1628566912, 1801322624, 1242577792, 1608219648, 1628970752, 1211176064, 1899319040, 2057536640, 1214215808, 1189277440, 1116168704, 1149498624, 1159068800, 1686229888, 1454855296, 1519996288, 1717884160, 1774477184, 1565294976, 1330796544, 1302356992, 1419645568, 2014426752, 1829713664, 1938004480, 1786560768, 1337052032, 1211434368, 1533561472, 1199741568, 1769668096, 1841246720, 1314394368, 1289122304, 1131543808, 2087867136, 1773185536, 1388824576, 1396905856, 1676472960, 1363078656, 1785613440, 2038312320, 1826074496, 1602973952, 1095770624, 1613183232, 1330017024, 2134972416, 1498406912, 1175471488, 1645162624, 1299003520, 1543616128, 2095657856, 1514584192, 1906008448, 1658719616, 1840358656, 1086129152, 1657220352, 1615465344, 1567549056, 1726793600, 1640574464, 2136786944};
static const int8_t CONV12_N_ZERO[] = 	 {0, 0, 0, 0, 0, 0, 0, 0, 0, 0, 0, 0, 0, 0, 0, 0, 0, 0, 0, 0, 0, 0, 0, 0, 0, 0, 0, 0, 0, 0, 0, 0, 0, 0, 0, 0, 0, 0, 0, 0, 0, 0, 0, 0, 0, 0, 0, 0, 0, 0, 0, 0, 0, 0, 0, 0, 0, 0, 0, 0, 0, 0, 0, 0, 0, 0, 0, 0, 0, 0, 0, 0, 0, 0, 0, 0, 0, 0, 0, 0, 0, 0, 0, 0, 0, 0, 0, 0, 0, 0, 0, 0, 0, 0, 0, 0, 0, 0, 0, 0, 0, 0, 0, 0, 0, 0, 0, 0, 0, 0, 0, 0, 0, 0, 0, 0, 0, 0, 0, 0, 0, 0, 0, 0, 0, 0, 0, 0, 0, 0, 0, 0, 0, 0, 0, 0, 0, 0, 0, 0, 0, 0, 0, 0, 0, 0, 0, 0, 0, 0, 0, 0, 0, 0, 0, 0, 0, 0, 0, 0, 0, 0, 0, 0, 0, 0, 0, 0, 0, 0, 0, 0, 0, 0, 0, 0, 0, 0, 0, 0, 0, 0, 0, 0, 0, 0, 0, 0, 0, 0, 0, 0, 0, 0, 0, 0, 0, 0, 0, 0, 0, 0, 0, 0, 0, 0, 0, 0, 0, 0, 0, 0, 0, 0, 0, 0, 0, 0, 0, 0, 0, 0, 0, 0, 0, 0, 0, 0, 0, 0, 0, 0, 0, 0, 0, 0, 0, 0, 0, 0, 0, 0, 0, 0, 0, 0, 0, 0, 0, 0, 0, 0, 0, 0, 0, 0};


/* Layer 13 Learned Parameters */
#define CONV13_BIAS \
 {11141, -2404, 47571, 25280, 71513, 33459, 40573, -6910, 48105, 7991, 21120, 25993, 92980, 6742, 2832, 6424, 55208, 6092, 51734, 56125, 21299, 59584, 63046, 7707, 23577, 26203, 51236, -16470, -8551, -7448, 1382, 41465, -4504, 46060, 10789, 21843, -464, 47853, 29408, 24161, 15962, 22066, -22259, 135885, -13772, 49242, 1230, 24459, 70530, 27613, 33939, 25748, -9138, 4259, 11996, -7003, 20375, 25042, 21890, -15306, 24113, 57312, 10559, -20651, 30677, -812, 10783, -2313, -6334, 43342, 5409, -15518, 22596, 5780, 25340, 918, -480, 32056, 74317, 1998, 20477, 66159, 134, 9811, 26818, 45028, 14109, 49532, 18178, 1730, 17453, 27960, 39156, 32898, 39702, 28045, 38320, 54512, 53258, 10960, -34419, 18388, 69337, 40218, 28449, 80782, 4451, 24155, -3191, 15211, 56584, 25148, 70078, 16602, 828, -3666, 1954, 25104, 15977, 41688, -2287, 15827, 27691, 85045, 8516, 52095, 37934, 90780, 23860, 59513, 26008, 34549, 21785, 3621, 12202, 69955, 6819, 24369, -8445, 39895, 39767, -15865, -5508, 44840, 43397, 11382, 68496, 34414, 24426, 27407, 6918, 62941, 26696, -10141, 9967, 17156, -15658, 27307, 35859, 24789, 58575, 36918, 2226, 88398, 26932, 17343, 27198, 12724, -5177, 10385, -9383, 65983, 25526, -28425, 58083, 53324, 80222, 19670, 67591, 58866, 40901, 11582, 3010, 1142, 91541, 18944, 41394, -1017, -58602, 51910, 7569, -4888, 19404, 50118, 32102, 16661, 18158, 30076, 41074, -13406, 39556, -78692, 27031, -12403, -5488, 50835, -6815, 28660, -12927, 10066, 2009, 77503, 18726, 63415, 65676, 27479, 22866, 4752, 8353, 94748, 23944, 758, 29484, -13150, 18669, -15874, 7024, 40223, 3972, -6093, 21514, -3903, 78549, -5868, 69554, 12420, 23857, 2277, 28503, 533, 66456, 2042, 62587, 12532, 13822, 32862, 46019, -60255, 24849, 49487, 21575, 25417, 29289, 34758, 15638, 48216, 32928, -9021, 47352, 108748, 7257, 22839, 28226, 29031, 1242, 53346, 4610, 9634, 17928, 24666, -2734, 75138, 19063, 54442, 3058, 36739, 2960, -64251, -3150, 58579, -2997, 14091, 63954, -40693, 23310, 45473, 44200, 14482, 83770, 54018, 53044, 71919, 94780, -6226, 47509, 67433, 34338, 46091, -20767, 31069, 18762, 50513, 22504, 6594, 69565, 28992, 26180, -14784, 13373, 11696, -21190, -2556, -580, -6272, 117243, 43928, -745, 16626, 24405, 14864, 4017, -196, 23385, 39177, 57705, 71997, 49176, 43131, 9232, 31480, 21057, -8431, 6719, 15674, 13475, 65483, 27137, 36187, 63231, 5054, 95736, 105180, 27185, 22137, -1773, 26393, 41430, 13937, 47823, 47078, 35541, 22042, -247, 31865, 86624, 53749, -7989, 68207, 13011, -3471, 8140, -17, 4778, 3576, -6148, 9204, 17451, 23095, 91168, 225, 5237, 36408, 42672, 26901, 121399, 41900, 2277, 61661, 104857, 17832, 34145, 7178, 35645, 13963, 45360, 14957, 35816, -6220, -11504, 38679, 13620, 37303, 80849, 44871, 22992, 3388, -7611, 40208, 25258, 36725, 46531, 14408, 53594, 5106, 23859, 29038, 24461, 28924, 39255, 5189, 62141, 22900, 26356, -1864, 12353, 39782, 28965, -9553, 36775, 9373, 53255, 89585, 63632, 19655, -5597, 32325, 7529, -6882, 33004, 65750, -1269, -11803, 31503, 32818, 45566, 20914, 20901, 79451, 29472, 10543, 4582, -18227, 13519, 41986, 44010, 14275, 41913, 11575, 5798, 42146, -7752, 19315, 23984, 55768, 31673, 2501, 52387, 32784, 5003, 20243, 26247, 59689, 6739, 18787, 63807, 1509, 13692, 64508, 2512, 70083, 41795, 34581, 41585, 47710, 46450, 48701, 45678, 672, 3802, 32083, -7642, 5149, 76625, -12545, 9695, -40, 52013, 27484, 16237, 5232, 1869, -25059, 36677, 10439, 35405, 74726, 7627, 27533, 29125, 73666, 3390, 36098, -20388, 64258, 21262, -9631, 9702, 17, 3920, -4628, -6241, 12744}
#define CONV13_WT {0}
static const uint8_t CONV13_W_Z[] = 	 {-148, -136, -111, -163, -146, -114, -128, -91, -131, -98, -110, -117, -148, -120, -137, -118, -137, -114, -146, -112, -111, -149, -102, -114, -107, -160, -103, -107, -125, -159, -96, -138, -105, -128, -102, -112, -87, -102, -138, -99, -64, -136, -112, -163, -84, -114, -84, -135, -123, -113, -166, -107, -78, -128, -103, -113, -158, -115, -110, -73, -138, -82, -124, -59, -110, -118, -138, -97, -77, -114, -94, -100, -135, -120, -70, -50, -127, -135, -134, -95, -118, -137, -98, -153, -104, -106, -86, -142, -103, -139, -130, -146, -118, -120, -76, -135, -122, -127, -132, -127, -104, -104, -126, -102, -146, -139, -111, -122, -98, -109, -106, -138, -150, -44, -148, -101, -97, -116, -119, -126, -113, -197, -116, -115, -116, -110, -118, -140, -161, -157, -127, -133, -91, -104, -94, -105, -124, -121, -103, -123, -162, -80, -80, -102, -71, -132, -138, -109, -134, -126, -126, -126, -142, -90, -143, -134, -143, -109, -113, -119, -134, -128, -124, -143, -107, -102, -132, -131, -125, -111, -131, -107, -117, -160, -113, -117, -150, -133, -122, -117, -151, -89, -102, -132, -100, -101, -163, -95, -81, -143, -115, -81, -106, -118, -146, -111, -97, -106, -120, -79, -152, -96, -134, -112, -51, -140, -96, -162, -126, -139, -124, -135, -89, -100, -121, -143, -112, -84, -112, -109, -133, -96, -126, -62, -140, -85, -109, -112, -99, -66, -132, -67, -115, -84, -104, -124, -109, -120, -119, -100, -144, -133, -139, -85, -105, -94, -114, -113, -120, -149, -127, -122, -102, -112, -121, -113, -98, -85, -92, -119, -80, -118, -185, -106, -128, -131, -145, -107, -122, -87, -68, -121, -131, -118, -74, -87, -62, -126, -133, -89, -88, -125, -173, -107, -113, -118, -91, -89, -90, -88, -110, -108, -133, -108, -126, -128, -141, -120, -99, -128, -92, -99, -132, -87, -85, -73, -101, -127, -132, -115, -120, -130, -120, -123, -123, -141, -116, -115, -107, -85, -88, -129, -111, -107, -121, -117, -134, -142, -75, -134, -136, -106, -96, -106, -68, -131, -109, -97, -121, -111, -108, -135, -144, -103, -120, -109, -102, -121, -111, -99, -108, -85, -90, -89, -112, -132, -95, -144, -117, -109, -82, -93, -115, -122, -122, -109, -127, -131, -135, -83, -150, -171, -76, -149, -150, -131, -117, -82, -165, -137, -105, -167, -97, -62, -136, -77, -120, -97, -94, -125, -164, -120, -144, -123, -96, -95, -64, -133, -116, -102, -140, -144, -149, -103, -156, -136, -118, -111, -114, -137, -117, -152, -105, -105, -127, -91, -96, -93, -105, -145, -127, -154, -118, -159, -108, -103, -101, -102, -128, -83, -118, -75, -144, -116, -141, -137, -85, -121, -152, -100, -124, -162, -86, -127, -121, -135, -136, -135, -130, -152, -84, -114, -87, -90, -115, -78, -96, -148, -70, -117, -99, -147, -131, -120, -99, -84, -68, -118, -168, -138, -121, -103, -155, -121, -154, -97, -92, -77, -84, -154, -121, -131, -129, -110, -109, -153, -127, -128, -108, -81, -115, -153, -119, -142, -140, -140, -135, -104, -137, -89, -96, -90, -98, -110, -114, -81, -115, -85, -100, -148, -111, -115};
#define CONV13_IN_Z      	(0)
#define CONV13_OUT_Z     	(0)
static const int32_t CONV13_M_ZERO[] = 	 {2107933696, 1341353344, 1402680704, 1958554368, 1113279616, 1535408896, 1880303488, 1507828480, 1492992768, 1108803328, 1336042752, 1083486848, 2068711424, 1346931968, 1768375424, 1380798336, 2118159744, 1353535744, 1847697408, 1227030400, 1075849472, 1412944768, 1182463872, 1452153728, 1336603392, 1222424704, 1369234560, 1287193472, 1718156288, 1100085760, 1293292160, 1567153536, 2072867712, 1096673280, 1410653696, 1664531200, 1251980160, 1667367680, 1295453696, 2103308928, 2057235840, 1873440896, 1996810496, 1344236544, 1142606592, 1443252096, 1715238144, 1282365696, 1878408064, 1151253248, 1423787648, 1450619136, 2116128000, 1095824512, 1491402880, 2004607872, 1093635456, 1125168512, 1718878208, 1890688896, 1568044800, 1771822592, 1395196160, 1885606784, 1429730944, 1947861248, 1899888128, 2010028416, 1869181440, 1861241728, 1580195712, 1930862336, 1593926272, 2136339584, 1777418752, 1089719808, 1587388544, 2077301504, 1191490432, 1211371264, 1435040256, 1660542464, 1187243904, 1520735488, 1817445632, 1331325696, 1579624960, 1542354176, 1491324544, 1533598720, 1502501632, 1173944064, 1783091968, 1755277056, 1508441728, 2120797440, 2112780800, 1183699200, 1503264640, 1546203264, 1114566144, 1248347776, 1772759552, 1912928128, 1604024704, 1083305856, 1531037440, 1250135424, 1886800384, 1340623232, 1859928960, 2107922304, 2042043776, 1818047104, 1373741184, 1754157056, 1446090240, 1156141696, 1859218816, 1220828032, 1264243072, 1376559872, 1934421760, 1398884480, 1541547008, 1374036608, 1811701248, 1382093824, 1148498816, 1861054848, 1128673024, 1885272064, 1648259328, 1235213824, 1918597504, 1614023296, 1363118592, 1978551680, 1541015936, 1919606656, 1942994304, 1356728704, 2066405760, 1721684352, 1132667392, 2010269312, 1500547584, 1424351872, 1240839168, 1088743808, 1998875520, 2140897536, 1639960704, 1276374656, 1306526336, 1634129792, 1659629696, 1553682688, 1922672640, 1232421504, 1647411200, 2045926400, 1372436608, 1336673920, 1140086016, 1707232768, 1222094464, 1536846464, 1383502720, 1786534016, 1846870400, 2081707648, 1341125504, 1574085504, 1434726912, 1171503744, 1878342912, 1885664128, 1185686144, 1491105152, 1781749632, 1791297792, 2096995840, 1793685120, 1577458688, 1107465344, 1315856256, 1595130240, 2005919232, 1383820416, 1602952960, 1759945472, 1250968576, 1899805696, 1149021824, 1576156416, 1786752640, 1081820288, 1893080192, 1200573184, 1084751104, 1548973952, 1816810112, 1893255680, 1634011264, 1366277504, 1965292544, 1666272512, 1312498944, 1126533120, 1413579392, 1249614464, 1353982080, 1967026944, 1818315136, 1481890304, 1091347840, 1506661376, 1215151616, 1358533760, 1905679488, 1430271360, 1370255872, 1977710208, 1739355392, 1226888832, 1423002624, 1806593280, 1929716864, 1915084288, 1217055232, 1411796736, 1544963072, 2102312832, 1667641856, 1839122176, 1567415168, 1261512320, 1357485440, 1148137344, 1833256960, 1291452288, 1255815040, 1491361152, 1903382272, 1616672640, 1244213760, 1991294592, 1278389120, 1459981440, 2075762688, 1985669888, 1272759040, 1947687424, 1894665856, 1638642176, 2126588032, 2064235136, 2129087232, 1822178176, 1124633472, 1110582016, 1910618368, 1379822208, 1954406912, 1438653440, 1757429248, 1107395712, 1334235008, 1278257152, 1108199680, 1220833920, 1903353472, 1984789504, 1792089472, 1083372416, 1583916160, 1437149184, 1469830656, 1930028416, 1573586048, 1290941056, 1615663488, 1259078528, 1667508736, 1128413696, 1247238528, 1110324736, 2017664000, 1994968064, 2029615744, 1117269888, 1396611200, 1289146368, 2013452800, 1151457280, 1681726080, 1524706560, 1442700800, 1319977984, 1295427840, 1339573760, 1853560576, 1172589184, 2106261120, 1642140416, 1350100224, 1327203328, 1346542720, 1106228992, 1084526976, 1345627776, 1347891328, 1080262016, 1917914112, 1105023744, 1112913408, 2077260288, 1433533568, 1440228992, 1260012416, 1404430208, 1312640640, 1514297216, 1441412608, 1189051776, 1874084864, 2032277632, 2003257984, 1148626432, 1380700032, 1390939776, 1330331264, 1443462656, 1087125248, 1385463552, 1518481152, 1291134592, 1550253440, 1704818688, 1745579136, 2004534912, 2105912960, 1693028352, 2125482368, 1442639104, 1929942656, 1265174784, 1535289728, 1844888192, 1546517760, 1520109568, 1978247552, 1968034816, 1552271488, 1779216768, 1497399808, 1882549504, 2014786816, 1646094592, 1888514432, 1520246528, 2102778496, 1891290880, 1918321792, 1308512896, 1490142080, 2055412480, 1747057536, 1627324288, 2041744000, 2044651008, 1361198080, 1757101824, 1382862976, 1182832000, 1161304192, 1869648512, 1261674112, 1286685568, 1671819520, 1460308096, 1526540416, 1202933376, 1094932992, 1702857728, 1109672448, 1976788864, 1506321792, 1610716032, 1441206528, 1213208576, 1135422080, 1080790144, 1095764096, 2134857728, 2048322816, 1253453312, 1286430976, 2022855680, 1536422784, 1083448832, 1830035840, 1730507264, 1591958784, 1914651008, 1346229120, 1472519552, 1106483456, 1953534208, 1724272384, 1298996992, 1079218816, 1243120640, 1544015616, 1498327808, 1178589440, 1770462976, 1386717696, 1484895744, 1849692672, 1463418752, 1498364928, 1241047168, 1427288704, 1907019520, 1789595648, 1517528704, 1349345280, 1146535808, 1380581248, 2039946496, 1661176832, 1891047680, 1643993728, 1825861632, 1905883392, 1111979008, 1462660736, 2139492864, 1216982272, 1282092160, 1830290304, 1867549312, 1683851776, 2061012864, 1985134848, 1422279168, 1274415104, 1300553088, 1666719872, 1388889728, 1187040512, 1533524096, 1103849088, 1169212160, 1993044736, 1970796288, 1321142912, 2095370624, 1253392256, 1805146496, 1791070464, 1182408320, 1797921792, 2070749568, 1764830592, 1455018880, 1107978624, 1211082752, 1364116992, 1548150912, 1915164544, 1114117120, 1230427008, 1612768768, 2088866432, 1241154944, 1438450176, 1690651520, 1818845056, 1667102720, 1679082112, 1771177472, 1437813120, 1333527552, 1374007296, 1226874240, 1495212544, 1186808320, 1440080000, 1922210048, 1530799104, 2073133440, 1903142144, 1154988544, 1596191104, 1745584256, 1211228672, 2070029056, 1294963968, 2147361280, 2123414656, 1532717696, 1301640064, 1654828288, 1216124416, 1165614208, 1869501696, 1422920320, 1470500096, 1350352256};
static const int8_t CONV13_N_ZERO[] = 	 {0, 0, 0, 0, 0, 0, 0, 0, 0, 0, 0, 0, 0, 0, 0, 0, 0, 0, 0, 0, 0, 0, 0, 0, 0, 0, 0, 0, 0, 0, 0, 0, 0, 0, 0, 0, 0, 0, 0, 0, 0, 0, 0, 0, 0, 0, 0, 0, 0, 0, 0, 0, 0, 0, 0, 0, 0, 0, 0, 0, 0, 0, 0, 0, 0, 0, 0, 0, 0, 0, 0, 0, 0, 0, 0, 0, 0, 0, 0, 0, 0, 0, 0, 0, 0, 0, 0, 0, 0, 0, 0, 0, 0, 0, 0, 0, 0, 0, 0, 0, 0, 0, 0, 0, 0, 0, 0, 0, 0, 0, 0, 0, 0, 0, 0, 0, 0, 0, 0, 0, 0, 0, 0, 0, 0, 0, 0, 0, 0, 0, 0, 0, 0, 0, 0, 0, 0, 0, 0, 0, 0, 0, 0, 0, 0, 0, 0, 0, 0, 0, 0, 0, 0, 0, 0, 0, 0, 0, 0, 0, 0, 0, 0, 0, 0, 0, 0, 0, 0, 0, 0, 0, 0, 0, 0, 0, 0, 0, 0, 0, 0, 0, 0, 0, 0, 0, 0, 0, 0, 0, 0, 0, 0, 0, 0, 0, 0, 0, 0, 0, 0, 0, 0, 0, 0, 0, 0, 0, 0, 0, 0, 0, 0, 0, 0, 0, 0, 0, 0, 0, 0, 0, 0, 0, 0, 0, 0, 0, 0, 0, 0, 0, 0, 0, 0, 0, 0, 0, 0, 0, 0, 0, 0, 0, 0, 0, 0, 0, 0, 0, 0, 0, 0, 0, 0, 0, 0, 0, 0, 0, 0, 0, 0, 0, 0, 0, 0, 0, 0, 0, 0, 0, 0, 0, 0, 0, 0, 0, 0, 0, 0, 0, 0, 0, 0, 0, 0, 0, 0, 0, 0, 0, 0, 0, 0, 0, 0, 0, 0, 0, 0, 0, 0, 0, 0, 0, 0, 0, 0, 0, 0, 0, 0, 0, 0, 0, 0, 0, 0, 0, 0, 0, 0, 0, 0, 0, 0, 0, 0, 0, 0, 0, 0, 0, 0, 0, 0, 0, 0, 0, 0, 0, 0, 0, 0, 0, 0, 0, 0, 0, 0, 0, 0, 0, 0, 0, 0, 0, 0, 0, 0, 0, 0, 0, 0, 0, 0, 0, 0, 0, 0, 0, 0, 0, 0, 0, 0, 0, 0, 0, 0, 0, 0, 0, 0, 0, 0, 0, 0, 0, 0, 0, 0, 0, 0, 0, 0, 0, 0, 0, 0, 0, 0, 0, 0, 0, 0, 0, 0, 0, 0, 0, 0, 0, 0, 0, 0, 0, 0, 0, 0, 0, 0, 0, 0, 0, 0, 0, 0, 0, 0, 0, 0, 0, 0, 0, 0, 0, 0, 0, 0, 0, 0, 0, 0, 0, 0, 0, 0, 0, 0, 0, 0, 0, 0, 0, 0, 0, 0, 0, 0, 0, 0, 0, 0, 0, 0, 0, 0, 0, 0, 0, 0, 0, 0, 0, 0, 0, 0, 0, 0, 0, 0, 0, 0, 0, 0, 0, 0, 0, 0, 0, 0, 0, 0, 0, 0, 0, 0, 0, 0, 0, 0, 0, 0, 0, 0, 0, 0, 0, 0, 0};


/* Layer 14 Learned Parameters */
#define CONV14_BIAS \
 {-16435, -7594, -360, 33520, 648, -577, 17139, -105, 43, 27904, 35247, -856, 14439, 82812, 755, -296, -417, 78325, 1003, 236, 7, -5388, -416, -125, 72, 34045, 3148, -2813, -7121, 9952, -5190, -11103, 7951, 586, 1152, 2387, 70803, 55, 1955, 990, 1217, -5263, -54855, 3151, 87437, -2601, -170, 514, -901, 2186, 1984, 19970, 652, 24457, -1596, 13178, 185, 230, 551, 81199, 544, 1044, -11012, -44, 5318, 1298, 24568, -19236, -4301, -3824, -26, -8033, -2071, -3549, 969, 48415, 35521, -19406, -174, -146, -1804, 310, -6395, -7751, -13, 2649, 1228, -145, 55864, -5978, -23533, 19329, 6649, 19600, 746, 8754, 5195, -2129, 1231, -7463, -562, -711, 600, 21470, 135, 1899, 58468, -7518, 8565, 646, 504, 29534, -1026, 32728, 39326, -705, -3118, -6487, 426, -544, -2147, 18014, 2244, -926, -2555, 1559, 46800, 16451, 10481, 231, -965, -5248, 32756, -2201, 450, -1669, -1307, -2347, -170, -8213, -242, 2223, 5797, 3168, 1588, 8426, -1252, -21389, -3390, 528, -74, 23402, -14899, -1924, 41402, 2899, -6363, 42938, -4116, 29034, 1643, 724, -32, 2822, 1546, -3539, -5307, -6641, 46984, 30552, 3697, 1058, 638, -1410, -138, 33879, 280, 80469, -44, -1996, 90934, 658, 1012, 4435, -749, 4286, -166, 46, 2914, -3305, 57139, 33767, -59, 22057, 1687, -8452, 4611, -1269, -7, 40108, 202, -8506, -9625, 10016, 20371, 318, -834, -217, 48512, 21754, -4810, 120, 24919, -878, 760, 47461, 882, 1029, -6905, -1293, 81805, 864, -4701, 163, 129, -3269, -2303, 4076, 158, -143, -9772, -11825, 16662, -923, -1170, -10649, 20864, 115, 30480, 484, 314, 6871, 6603, 31349, -69, 7125, 246, -3510, -390, -510, 35527, 457, 23, 1822, 1110, 12330, 21339, -8810, 1543, 20, 636, 842, 29686, 747, -4526, 1126, -3199, 748, -59, 133, 2915, -3909, 410, 21545, 69120, 19643, -891, -3119, -2868, 1545, 60479, -898, 921, -518, 295, 11989, 339, 48295, 763, 265, 117, -135, 521, 283, 28, -9268, 5782, 22998, 39453, -2119, 1520, 1425, -16959, 924, 349, -4153, -7869, 35636, -14936, -883, -1988, -7400, 994, -2406, 1926, 422, 5896, 3580, -6430, 271, 5207, 76534, 89, 7677, -151, -7535, -1487, -3684, 47676, -16050, -15483, -6202, 2041, 4816, -188, 736, -1219, 16301, -456, 33771, 12751, 3082, -323, 33795, 299, 1431, -4416, -12988, 21779, 18965, -9685, 583, 151, 4063, 14496, 11737, -7309, 17050, 34293, 34797, 8938, -383, -5790, 32664, 1204, 212, 138, 1099, -5429, 1247, -12747, 2242, 659, -420, -421, 229, -4829, 1647, -349, -20289, 1499, 51890, 353, 7, -320, 33423, -3645, -1175, 4013, -306, -1767, -4390, 17290, 176, 37194, 335, -54, 219, -459, 259, 835, -29917, 3258, -442, 15850, 7711, -3425, -5980, -263, 32526, 18733, 74, -2563, 11138, -5259, -3487, 40406, 286, 1679, 1323, -4540, -415, -2073, 2665, 23006, 821, -847, 1107, 524, 842, 61002, 15987, -2571, 321, 1124, -1398, 323, -526, 300, 5877, -1334, 25986, 130, -7700, 3542, 18571, -18495, 8, -18182, -982, 139, -931, -3975, -108, -763, -130, 2022, 11133, -1446, -11103, 660, -1339, -34720, -367, 2891, 11666, 70816, -3933, -2323, 320, -5080, 943, -1145, -793, 27854, 1666, 916, 51855, -150, 1149, -11324, -327, 589, -10933, -11945, -1553, -154, -8774, 236, 3843, 35028, 451, -273, -2152, -28787, 69, -98, -145, -634, -225, 42917, 918, 1715, -2242, -519, 50121, 172, 21512, -4931, -1490, 1221, -5675}
#define CONV14_WT {0}
static const uint8_t CONV14_W_Z[] = 	 {-47, 3, -102, -285, -138, -155, -234, -80, -126, -258, -314, -24, -237, -357, -35, -110, -116, -533, -117, -94, -120, -23, -109, -114, -26, -149, -47, -19, -20, -150, -38, -36, -31, -104, -133, -116, -511, -89, -26, -92, -105, -95, 44, -41, -444, -119, -124, -103, -125, -80, -112, -223, -129, -234, -15, -43, -94, -136, -138, -469, -138, -100, -6, -101, -44, -106, -319, -11, -89, -24, -172, -25, -117, -108, -38, -338, -257, -39, -146, -120, -82, -109, -16, -10, -135, -100, -98, -119, -292, 0, 18, -233, -129, -238, -121, -202, -16, -89, -101, -29, -91, -119, -113, -248, -67, -169, -266, -53, -69, -51, -86, -226, -128, -307, -282, -160, -26, -101, -86, -41, -5, -244, -124, -114, -142, -114, -271, -245, -21, -87, -91, -60, -244, -140, -160, -76, -98, -141, -11, -7, -14, -133, -90, -63, -117, -60, -85, 9, -91, -70, -92, -244, -55, -15, -308, -83, -24, -351, -19, -265, -139, -89, -44, -33, -106, -11, -7, -39, -249, -282, -99, -95, -60, -28, -100, -233, -116, -559, -92, -105, -574, -94, -156, -119, -92, -30, -68, -22, -181, -40, -440, -266, -129, -260, -81, -113, -41, -172, -120, -433, -137, -23, -28, -19, -179, -101, -132, -99, -344, -176, -14, -88, -239, -102, -96, -210, -100, -128, -72, -46, -483, -90, -53, -118, -81, -103, -78, -32, -92, -105, -55, -53, -240, -122, -91, -11, -158, -104, -238, -112, -101, -145, -52, -257, -16, -44, -121, 3, -103, -117, -309, -123, -130, -101, -101, -166, -246, 5, -132, -92, -96, -107, -415, -114, -9, -46, -32, -83, -124, -90, -87, -73, -40, -222, -318, -260, 19, -24, -92, -120, -399, -117, -92, -27, -127, -37, -90, -307, -105, -98, -106, -45, -103, -65, -24, -58, -112, -185, -347, -35, -89, -92, -23, -120, -113, -33, -114, -322, -3, -3, -13, -3, -57, -21, -87, -122, -68, -20, -71, -104, -83, -225, -117, -70, -120, -79, -97, -119, -268, -40, 43, -104, -90, -93, -136, -69, -95, -169, -87, -308, -226, -37, -95, -264, -97, -77, -24, -79, -230, -224, -90, -119, -85, -51, -247, -244, -2, -230, -170, -292, -49, -87, -33, -234, -157, -95, -104, -120, -85, -105, -45, -92, -79, -53, -114, -94, -13, -104, -94, -33, -120, -464, -96, -111, 2, -263, -67, -64, -77, -103, -26, -70, -200, -36, -257, -107, -90, -121, -126, -114, -126, 6, -94, -23, -248, -31, -126, -67, -104, -261, -231, -169, -47, -135, -10, -40, -458, -100, -89, -104, -71, -62, -67, -122, -230, -106, -151, -70, -100, -130, -388, -151, -107, -56, -132, -16, -112, -96, -64, -124, -35, -246, -118, -95, -34, -167, 49, -90, -49, -95, -123, -95, -23, -129, -117, -119, -103, -26, -96, -70, -89, -157, 43, -99, -103, -135, -418, -67, -13, -145, -70, -101, -104, -79, -231, -98, -99, -389, -127, -139, -4, -173, -85, -12, -8, -126, -143, -10, -115, -99, -260, -25, -76, -5, -2, -88, -141, -116, -103, -98, -325, -92, -90, -94, -107, -388, -89, -190, -26, -19, -164, -58};
#define CONV14_IN_Z      	(0)
#define CONV14_OUT_Z     	(0)
static const int32_t CONV14_M_ZERO[] = 	 {1440972928, 2034620544, 1307566720, 1552671488, 1972515456, 1703923584, 1732383104, 1105412736, 1437917440, 1402930816, 1720989696, 1959335040, 1752185088, 2069724672, 2036410624, 1094040960, 1904230272, 1265667712, 1460752768, 1528514560, 1421076864, 1809226240, 1404966784, 1926514176, 2113643264, 1740647680, 1412964736, 1947470464, 1227192704, 1932939136, 2011291520, 1287153152, 1884131584, 1380258304, 1881612032, 1874765440, 1796489344, 1612838400, 1164113024, 1875642240, 1503192960, 1420769024, 1334173184, 1420113792, 2068133376, 1964134016, 1595592448, 1505441280, 1407899904, 1663171200, 1115856384, 1189239424, 1897968128, 1421793024, 1879972480, 1742851968, 1864748288, 2090838016, 2147362304, 1627481088, 1222859264, 1310829952, 1116264704, 1154143744, 1145612032, 1090498176, 2040737920, 1298869632, 1479275776, 1164860928, 1687758464, 1737583744, 1357697280, 1582250112, 1324089088, 1337508992, 1570458240, 1418342272, 1800642304, 1407136256, 1299373568, 1718484736, 1202843136, 1080805632, 1089107200, 1861849984, 1624437376, 1116376192, 1150745984, 1633244160, 1807602176, 1434770560, 1200659328, 1767268736, 1286282624, 1447865984, 1440862208, 1277538432, 1079376000, 1366494592, 1261374592, 1998535808, 1187756544, 2032961920, 1942087296, 1852809856, 1616343808, 1684432512, 1402513664, 2097797376, 1267074944, 1211798784, 1360263680, 1305487488, 1847869184, 1304300544, 1266479104, 2105287296, 1795123584, 1302288384, 1673718912, 1654215808, 1363440640, 1628500864, 1208058752, 1899544576, 1788017280, 1432037248, 1108270080, 1708425600, 1255824384, 1422283264, 1138872192, 1525864704, 1693677696, 1107573248, 1453272448, 2000215296, 1892354432, 1269499264, 2034804224, 1851472768, 1755987584, 1085985792, 2095897088, 2028013952, 1378408448, 1688141056, 1681396480, 1645800192, 1438025984, 1928332416, 1652147840, 1177842176, 1158862464, 1272391040, 1245425280, 1444331904, 1515955200, 1183794944, 2122291584, 1761356672, 1450513024, 1306096768, 1100078848, 1817688192, 1136890880, 2016170368, 1479426432, 1247473280, 1589095552, 1796023424, 1268541440, 1349643008, 1473321856, 1109894784, 1142201856, 1423783552, 1106286592, 1324218240, 1371452928, 2037118208, 1564036224, 1306312576, 1710358656, 1470844800, 1652152320, 1195854080, 1595646720, 1406244864, 2084362752, 1216564224, 1428370304, 1899294336, 1340887552, 1078761472, 1866624512, 1840772096, 1277783680, 1106600064, 1488825344, 1201957504, 2107570432, 1392770432, 1376647424, 1459452928, 1889005056, 1334049152, 2097371776, 1241940224, 1357436928, 1570478208, 2017901824, 1133944704, 1383411584, 1412623872, 1152166016, 1779464064, 1294233600, 1728196480, 1580119168, 1945225088, 1162203392, 1550051200, 1112859648, 1729094656, 1996887424, 1931579520, 2106019840, 1723637504, 1097275776, 1264096640, 1822040064, 1862232704, 1732022528, 1120719616, 1658608384, 1602914432, 1158574592, 2090122752, 1388241280, 1369396480, 1563605632, 1779707904, 1395110016, 2038410112, 1714855040, 1154788864, 1878645120, 1198679424, 1949613696, 1277036160, 1855122816, 1221159936, 1299694208, 1119622656, 2067700864, 1811746304, 1393584896, 1150032000, 1376029312, 1442231040, 2128809344, 1724700288, 1594672256, 1354384000, 1785692800, 1734104832, 2100125824, 1807723136, 1348110464, 1923693824, 2036493184, 1942162304, 1221526528, 1592323968, 1342528256, 1100002048, 1139973632, 1530170880, 1836310272, 1110052096, 1564097280, 1380938496, 1109522688, 1602319872, 1317761024, 1673396992, 1111306368, 1103617920, 1515737600, 1586525056, 1709347968, 1481566336, 1639182848, 1557888384, 1278261504, 1430202112, 1320203776, 1302370304, 1199542912, 1932202496, 1621805568, 1641113472, 1926757120, 1681474304, 1700146560, 1657331968, 1711610752, 1595000192, 1253242112, 1337359744, 1147530240, 1741041920, 1876012032, 2069195648, 1909003136, 1564137344, 1405057280, 1490543488, 1665217792, 1887806592, 1421339520, 1726711808, 1565525888, 1382232576, 1199810432, 1980921728, 1739530624, 1553893248, 1619214976, 1361091712, 1819456768, 1127137024, 1314731776, 1627806208, 1245296384, 1226091776, 1811001728, 1692033920, 1493663872, 1534570112, 1541961088, 1729129088, 1672311808, 1531620736, 1761943808, 1655988736, 1079529088, 2107719040, 2066057216, 1516030592, 1459396992, 1245841664, 1455747968, 1235657344, 1974219776, 1301971200, 2096944384, 1721019520, 1102733440, 1171883136, 1760246272, 1220027008, 1486074624, 1598243328, 1952815872, 1870622976, 1102596608, 2141722752, 1274236416, 1479159424, 1153335552, 1538759424, 1935820160, 1208995840, 1298710144, 1682444160, 1602217984, 1375925888, 1422526336, 1081328000, 1207924224, 1739921536, 1719005952, 1702034688, 1360428928, 1640715264, 1527825664, 1844918656, 1291363584, 1638442240, 1694743424, 1383512448, 1432530048, 1161828224, 2022971264, 1830483584, 1317395712, 1867332992, 1465685504, 1818338560, 1208991104, 1200548096, 1698643968, 1220371712, 1892068352, 1313704320, 1782544512, 1424843264, 1239362432, 1610687104, 1178119680, 1713660160, 1935363328, 1141420288, 1247523328, 1237656192, 1593446528, 1862439424, 1443231488, 1078704768, 1702236928, 1744030720, 2144439808, 2038479360, 1665553408, 1731588736, 1505781888, 1144142976, 2033889536, 2055801728, 1285753728, 1170434176, 2123286784, 1591720448, 1240892544, 1080054912, 1632055168, 1923619840, 1484406912, 1832014592, 1411379712, 1241952000, 1399184896, 1648077184, 1306873344, 1560013312, 1900494208, 2142493184, 1453386624, 1445058432, 1331056640, 1155747328, 1090010240, 1419480064, 1338851840, 1270271616, 1276932480, 1486018176, 1976849024, 2019823360, 1650176768, 1533774336, 1808268672, 1431621376, 1396174464, 1844500480, 1406526592, 1187084672, 1180776576, 2130388864, 1873146880, 1743832192, 1112882944, 1094958464, 1206521472, 1425634304, 1407592064, 1847881856, 1899914624, 1324664960, 1503784704, 1605661568, 1174009472, 1309611136, 1181163392, 1377935872, 1390878464, 1199977856, 1306559744, 1247950464, 1883501568, 1145482624, 1742690048, 2131255040, 1086387584, 1492464000, 1981374976, 1519559040, 1665272320, 2097523072, 1112342656, 1354822912, 1533170432, 1396925056, 1088305152, 2142864640, 1300738304, 1300921088, 1238316800, 1651893632};
static const int8_t CONV14_N_ZERO[] = 	 {0, 0, 0, 0, 0, 0, 0, 0, 0, 0, 0, 0, 0, 0, 0, 0, 0, 0, 0, 0, 0, 0, 0, 0, 0, 0, 0, 0, 0, 0, 0, 0, 0, 0, 0, 0, 0, 0, 0, 0, 0, 0, 0, 0, 0, 0, 0, 0, 0, 0, 0, 0, 0, 0, 0, 0, 0, 0, 0, 0, 0, 0, 0, 0, 0, 0, 0, 0, 0, 0, 0, 0, 0, 0, 0, 0, 0, 0, 0, 0, 0, 0, 0, 0, 0, 0, 0, 0, 0, 0, 0, 0, 0, 0, 0, 0, 0, 0, 0, 0, 0, 0, 0, 0, 0, 0, 0, 0, 0, 0, 0, 0, 0, 0, 0, 0, 0, 0, 0, 0, 0, 0, 0, 0, 0, 0, 0, 0, 0, 0, 0, 0, 0, 0, 0, 0, 0, 0, 0, 0, 0, 0, 0, 0, 0, 0, 0, 0, 0, 0, 0, 0, 0, 0, 0, 0, 0, 0, 0, 0, 0, 0, 0, 0, 0, 0, 0, 0, 0, 0, 0, 0, 0, 0, 0, 0, 0, 0, 0, 0, 0, 0, 0, 0, 0, 0, 0, 0, 0, 0, 0, 0, 0, 0, 0, 0, 0, 0, 0, 0, 0, 0, 0, 0, 0, 0, 0, 0, 0, 0, 0, 0, 0, 0, 0, 0, 0, 0, 0, 0, 0, 0, 0, 0, 0, 0, 0, 0, 0, 0, 0, 0, 0, 0, 0, 0, 0, 0, 0, 0, 0, 0, 0, 0, 0, 0, 0, 0, 0, 0, 0, 0, 0, 0, 0, 0, 0, 0, 0, 0, 0, 0, 0, 0, 0, 0, 0, 0, 0, 0, 0, 0, 0, 0, 0, 0, 0, 0, 0, 0, 0, 0, 0, 0, 0, 0, 0, 0, 0, 0, 0, 0, 0, 0, 0, 0, 0, 0, 0, 0, 0, 0, 0, 0, 0, 0, 0, 0, 0, 0, 0, 0, 0, 0, 0, 0, 0, 0, 0, 0, 0, 0, 0, 0, 0, 0, 0, 0, 0, 0, 0, 0, 0, 0, 0, 0, 0, 0, 0, 0, 0, 0, 0, 0, 0, 0, 0, 0, 0, 0, 0, 0, 0, 0, 0, 0, 0, 0, 0, 0, 0, 0, 0, 0, 0, 0, 0, 0, 0, 0, 0, 0, 0, 0, 0, 0, 0, 0, 0, 0, 0, 0, 0, 0, 0, 0, 0, 0, 0, 0, 0, 0, 0, 0, 0, 0, 0, 0, 0, 0, 0, 0, 0, 0, 0, 0, 0, 0, 0, 0, 0, 0, 0, 0, 0, 0, 0, 0, 0, 0, 0, 0, 0, 0, 0, 0, 0, 0, 0, 0, 0, 0, 0, 0, 0, 0, 0, 0, 0, 0, 0, 0, 0, 0, 0, 0, 0, 0, 0, 0, 0, 0, 0, 0, 0, 0, 0, 0, 0, 0, 0, 0, 0, 0, 0, 0, 0, 0, 0, 0, 0, 0, 0, 0, 0, 0, 0, 0, 0, 0, 0, 0, 0, 0, 0, 0, 0, 0, 0, 0, 0, 0, 0, 0, 0, 0, 0, 0, 0, 0, 0, 0, 0, 0, 0, 0, 0, 0, 0, 0, 0, 0};


/* Layer 15 Learned Parameters */
#define CONV15_BIAS \
 {550, 2594, -25, 1066, 2414, 3178, 2368, 987, -241, 897, 785, 1820, -2254, 3267, 2991, 331, -458, 949, -699, 1173, 35, 2493, 1053, 707, 506, 2892, -324, 1310, 1119, 2207, 487, -618, 727, -1193, 905, 596, 2258, 477, -1307, -556, 1341, -770, -2125, 289, 456, 3596, 1127, 82, -604, 759, -79, -795, 137, 363, 1223, 252, 26, -381, 1205, -1492, 2888, -864, 2005, 325, 1230, 1028, -477, 6854, 5139, 1350, 604, -868, -555, -319, 1150, 678, -567, -552, 2033, -2026, -1867, -291, 221, 3102, 271, -197, 2242, -2043, 1031, 1775, 1099, -2393, 736, 179, 410, 2273, 197, 720, 1986, 600, 622, -582, 937, 862, 858, 40, 717, 1196, 681, 3394, 494, 1581, 1366, 1970, 1052, 660, 1616, -1645, 3010, 553, -1660, 2781, 5705, -422, 4036, 2355, 798, -153, -331, -449, 1357, 1562, 1385, 29, -1076, -1499, 827, 501, 1747, 1272, -885, 883, 830, -718, 317, -1389, -410, -850, 117, -960, 1249, -364, 2049, 346, 391, -581, -396, 2403, -284, 882, 2354, -387, 1007, 1016, 1034, 1901, 1404, 454, 232, 896, 943, 1393, 594, 5340, 7006, -419, 1013, 373, 373, 2882, -1669, 1997, 4921, 1442, 387, 1393, -266, 1249, 3312, 608, 641, -727, 745, 1568, 197, 603, 691, 216, -645, 2068, -390, -694, 378, 284, 3145, 396, 3740, 865, 2321, 1964, -37, -219, 2284, 553, 854, 6115, 2974, 2999, -1372, -351, 1093, 896, -180, -1389, 943, 369, 180, 197, -442, 1434, 4358, 3969, 604, -158, 1931, -431, 1223, 222, 2665, 1020, -461, 232, 2470, 6835, 400, 186, 714, 1794, -681, 556, 217, 85, 681, 2035, 5051, 791, 1333, 776, 199, 3451, 537, 2956, 3896, 533, -633, 588, 2326, 3182, -561, -775, 2321, 2663, 4, 2259, 32, 508, 1208, 4794, 1900, 2721, -1593, 1095, 1054, 463, 2123, 1396, 1103, 961, 1421, 1074, -53, 1713, 804, 147, 950, 439, 1061, -219, -771, 1853, -53, 279, 1468, 445, 554, 2438, 7751, -950, 1827, 705, 103, 2806, 2862, -627, 213, -672, 438, 1096, 1294, 1007, -705, -674, -149, 491, 3575, 1240, 1559, 4844, 1600, 133, -4243, -85, 873, 2091, -93, 2218, 881, 831, -852, 1124, 3433, 874, -327, 189, 4287, -833, 450, 4774, 334, 1694, 1468, 1692, 1646, 1933, -1134, 620, -432, -613, 3208, 1329, 141, -368, -482, 1726, 604, 149, 475, 5114, 59, 988, 395, 525, 1142, -274, -728, -87, 3752, 309, -1375, 1178, 1112, -1874, -350, -173, -83, -530, -1382, 652, 964, 472, 1834, 819, 895, -158, 2044, 1461, 545, -1409, 1026, 864, -468, 1151, 1403, 778, 4124, 22, 2773, 1474, 2538, 1638, 150, -961, 477, 22, 2125, 3815, 335, -623, 1270, -919, 4879, -712, 1016, 8, 946, 3548, 972, 2037, 106, 4037, -329, 630, 517, 3115, 186, -1339, 884, 1131, 1828, -1512, 2856, 655, 1161, 2886, 1200, 915, -1191, -1543, 100, 1454, 402, 630, 2132, 5658, 2278, 487, -733, -854, 1200, -1265, -600, 124, -435, 2444, 1458, -287, -2005, 1917, 257, 619, 5003, -394, 1051, -702, 468, 2149, 1779, -11, 1500, 2310, 3253, 5174, -338, 808, -859, 3036, -347, 5628, 61, -780, 3239, 2907, -963, 195, 1295, -708, -298, 1462, 2116, 2070, -2008, 718, -1672, 1283, 1563, -1435, 784, 886, -27, 1408, 502, -1405}
#define CONV15_WT {0}
static const uint8_t CONV15_W_Z[] = 	 {-7, -6, -6, -7, -7, -7, -9, -8, -8, -6, -4, -6, -6, -5, -7, -7, -8, -9, -8, -5, -7, -6, -7, -8, -7, -8, -8, -7, -8, -9, -8, -8, -6, -8, -7, -9, -7, -9, -7, -5, -6, -8, -7, -5, -8, -7, -5, -9, -7, -9, -9, -7, -10, -7, -7, -6, -7, -8, -8, -9, -7, -6, -6, -6, -7, -7, -6, -7, -6, -7, -7, -6, -7, -6, -6, -8, -6, -7, -7, -6, -7, -8, -7, -5, -6, -8, -8, -9, -5, -6, -5, -6, -7, -6, -5, -8, -5, -9, -7, -7, -5, -8, -7, -10, -7, -8, -4, -7, -7, -5, -8, -6, -7, -8, -5, -7, -6, -6, -7, -8, -9, -8, -8, -8, -10, -10, -10, -6, -6, -8, -10, -11, -7, -8, -6, -7, -7, -7, -11, -5, -6, -7, -8, -7, -8, -7, -7, -11, -6, -6, -6, -6, -5, -9, -7, -5, -7, -9, -7, -7, -8, -9, -7, -6, -10, -7, -7, -9, -8, -6, -5, -8, -8, -7, -8, -9, -8, -8, -9, -8, -6, -7, -6, -8, -7, -10, -8, -5, -6, -7, -5, -7, -7, -6, -6, -6, -8, -6, -10, -7, -5, -6, -9, -7, -9, -9, -7, -4, -6, -8, -7, -8, -9, -9, -7, -6, -10, -10, -7, -11, -6, -8, -5, -9, -6, -9, -9, -10, -8, -9, -8, -6, -9, -8, -7, -7, -4, -5, -8, -7, -8, -6, -8, -6, -8, -10, -7, -5, -8, -8, -7, -8, -7, -7, -7, -7, -7, -7, -5, -9, -6, -7, -8, -8, -7, -4, -6, -10, -8, -8, -7, -8, -5, -8, -7, -5, -8, -8, -8, -10, -8, -5, -8, -9, -8, -7, -8, -7, -7, -7, -7, -9, -9, -7, -6, -9, -8, -7, -7, -7, -8, -6, -10, -5, -9, -12, -7, -8, -8, -7, -8, -7, -5, -7, -8, -8, -7, -6, -6, -8, -5, -9, -9, -9, -8, -7, -8, -8, -8, -8, -9, -10, -7, -6, -7, -9, -7, -5, -7, -6, -7, -5, -8, -7, -8, -6, -8, -8, -7, -6, -8, -7, -6, -8, -7, -7, -8, -9, -6, -7, -7, -7, -4, -8, -6, -7, -7, -7, -8, -9, -5, -7, -4, -9, -7, -7, -7, -7, -6, -9, -7, -7, -8, -8, -8, -7, -8, -7, -7, -11, -9, -8, -7, -7, -8, -7, -7, -6, -7, -9, -7, -7, -7, -10, -7, -7, -6, -7, -11, -6, -7, -6, -6, -9, -9, -12, -6, -9, -6, -6, -8, -6, -9, -6, -6, -6, -9, -7, -10, -7, -9, -8, -10, -8, -8, -8, -11, -7, -8, -7, -5, -8, -9, -8, -7, -8, -8, -7, -7, -7, -6, -7, -9, -7, -8, -6, -9, -7, -6, -8, -7, -7, -7, -7, -8, -7, -6, -7, -9, -8, -7, -7, -7, -7, -8, -8, -7, -10, -4, -9, -8, -8, -8, -7, -7, -8, -6, -9, -9, -6, -8, -7, -7, -6, -9, -9, -7, -7, -7, -8, -6, -4, -7, -8, -8, -7, -7, -7, -5, -6, -4, -10};
#define CONV15_IN_Z      	(0)
#define CONV15_OUT_Z     	(0)
static const int32_t CONV15_M_ZERO[] = 	 {1531756672, 1359169152, 2044166016, 1464982784, 1367381888, 1163213696, 1139974144, 1535111296, 2145788928, 2053505536, 1551325696, 1701854336, 1738852352, 1859951104, 2043796224, 1778401792, 1111124096, 1290653568, 1789403904, 1118086016, 1297878912, 1859322112, 1310747008, 1792859008, 1990273536, 1766312192, 2030571392, 2036125696, 1196846464, 2033253760, 1730836736, 2122032512, 2120293760, 1108509952, 1858158080, 2027888000, 1274426496, 1736057344, 1577464064, 1566861952, 1642825088, 1093145728, 1118831872, 1457964032, 1439257088, 1200871168, 1363837568, 1309289728, 1373139712, 1535112704, 1582371712, 1847719808, 1145050752, 1192581120, 1154231296, 2102276224, 1965201920, 1243391104, 2011788416, 1081614208, 1890171904, 1175854976, 1074856704, 1307191168, 1666942464, 1381545856, 1963020544, 1749077120, 1527931776, 1570713856, 1679428992, 1398202752, 1902505344, 1985388288, 1226414336, 1216611968, 1369320064, 1721420544, 1119109504, 1103280512, 1987963392, 1163686400, 1213160960, 1873430784, 1614846720, 2011639296, 1932117376, 1606274560, 2134369792, 1214645760, 1773942784, 1902722048, 1079116544, 1226221824, 1355517440, 1771349120, 1740532096, 1473206784, 1794040704, 2112240640, 2112936832, 2022652544, 1146840832, 1182989568, 1910454784, 1498580608, 1475655680, 1338890368, 1531571968, 2003711872, 1350840960, 1726971776, 1380688000, 1962327040, 1301673984, 1507927680, 1748619264, 1120786048, 1793287552, 1187350784, 1452754304, 1357064192, 1913365632, 1474894080, 1599356800, 1388254720, 1161470336, 1867534976, 1830902656, 1282576384, 1129571712, 1162434688, 1107343360, 2141319040, 1680330368, 1758939392, 1426092672, 1201703936, 1500368896, 1770913664, 1234194560, 1221915648, 1302699520, 1339130112, 2085746688, 1949477888, 1460154752, 1998126336, 2072140800, 1380158720, 1343032576, 1529152768, 1466135424, 1699934592, 1898792704, 1482862976, 1463047680, 1884994688, 1634433408, 1151617024, 1322942336, 1312363008, 1258822144, 1469899392, 1352455168, 1332379776, 1306007680, 2002726144, 1190569344, 1143993728, 1176893824, 1647122304, 1613204352, 1655442432, 1360786944, 1268602240, 1310125824, 2073463424, 1601895936, 1343328256, 1416473344, 1965877120, 1331458944, 1974222336, 1742373760, 1139575936, 1199238784, 1565584000, 1966082560, 1857003776, 1933786624, 1416993792, 1874934784, 1890361088, 1635213184, 2052461440, 1985118720, 1218939648, 1703940608, 1748582656, 1337935744, 1597249536, 2138412160, 1245947392, 1937450624, 1236773248, 1625491072, 1517879808, 1755575552, 2014185472, 1531288832, 1877317760, 1894281216, 1135978496, 1790192384, 1350927872, 1821890688, 1660988544, 1201429888, 1770999680, 1664663040, 1826495104, 2050509056, 1227678720, 1885975552, 1153493760, 1342973440, 2030985472, 1353552000, 1179001216, 2032394880, 1763291008, 1541900928, 1977691520, 1184260608, 1658528896, 2134431104, 1182445696, 1166928768, 1349921536, 1138838272, 1817304192, 1165564928, 1643310336, 1129693184, 1582550272, 1893616000, 1990108288, 1294341888, 1964953728, 1814027136, 1454030208, 1112730240, 1569000448, 1796222592, 1301076480, 1929654528, 1585002752, 1821750528, 1769814016, 1901799296, 1550496000, 1557670784, 1995903744, 1763623680, 1237077760, 1162524416, 2124255616, 2132336640, 1736339456, 1734044160, 1204508032, 1397432576, 1436030976, 1709552000, 1812183552, 1404473728, 1670876672, 1147888512, 2090436224, 2101655040, 1684445568, 1165232640, 1123447808, 1141874048, 1374944384, 1487513984, 1517911552, 1356360576, 1373635712, 1077412480, 1745434368, 1188262784, 1358362752, 1350069376, 1686054912, 1613658752, 1235146368, 2102239872, 1393087360, 1964652032, 1503960832, 1786166784, 1097171200, 1802898304, 1516536320, 1154588288, 2138942464, 1583324160, 1775179264, 2112464256, 1156661760, 1736868224, 2039138048, 1664350464, 1765321984, 1169634560, 1154107648, 1251281280, 1956978048, 2135012608, 1946668544, 2006980864, 1985278592, 1813536256, 1380988160, 1865260416, 1241823744, 1973921792, 1607137280, 1310041472, 1792173696, 1258325120, 1818287872, 1382794880, 1517443456, 1788698368, 1195616256, 1662333568, 1851924736, 1854320000, 1553866624, 1605048960, 1269294336, 1756850048, 1103096960, 1448568064, 1727186944, 2077839360, 1631558144, 1112450944, 1182240768, 1454610176, 1305324032, 1090289536, 1411706624, 1683947520, 1155474944, 1805963264, 1721752960, 1163638912, 1465905408, 1137348224, 1173777152, 1691996672, 2071263488, 1243675776, 2139838080, 1511776640, 1148091904, 1101228544, 2092254592, 1959913216, 1561217408, 2082901632, 1572950016, 1766164864, 1692502784, 2023548416, 1214945536, 1325679616, 1963931136, 1634832000, 1348196992, 1867372288, 1108471680, 1805067904, 1365797376, 1759408384, 1712774656, 1674872448, 1287470080, 1267362560, 2003209984, 1867095040, 1224141568, 1390553216, 1144590336, 1833963520, 1984260224, 1907823488, 1846434048, 1589739648, 1237614848, 2120049536, 1956370816, 1339219584, 2050772992, 1248954752, 1274549632, 2130802176, 1300619520, 1172664960, 1877600512, 1689162496, 1954300672, 1104163840, 1674586880, 1177790720, 1219247360, 1160802304, 1239837824, 1769868416, 1198879872, 1129210880, 1945130752, 1297306880, 1093863168, 1838155904, 1314346496, 1741706752, 1181095936, 1124589312, 1185451392, 1709490944, 1321112320, 1135412864, 1335100416, 2111904512, 1868715264, 1283616896, 1437764736, 1473759488, 1999516416, 1738975488, 1603962368, 1793282944, 1819260928, 1099572224, 1245539328, 1474573312, 1565081472, 1588741120, 1384945536, 1627392768, 1496291968, 2119634176, 1369689472, 1732220416, 1689336192, 1283179008, 1294144896, 1287285120, 1393859840, 1232413952, 1148114560, 1177116544, 1406545664, 1431136768, 1933626112, 1397441536, 1148918144, 1638985344, 1991715712, 1292182016, 1206196992, 1472316288, 1202953472, 1158861056, 1175775616, 1801820288, 1377316992, 1270836224, 1448913408, 1173461120, 1354756992, 1807173888, 1565297024, 1078584960, 1756552704, 1119508096, 1312836352, 1507946368, 1374674560, 1697329280, 1910299392, 1498000512, 1516727808, 2118778624, 2068845056, 1468388480, 1380365440, 1423862528, 1557467136, 1223778176, 1411139328, 1324755584, 1280101760, 1848536448, 1081875328, 1755272448, 1345786880};
static const int8_t CONV15_N_ZERO[] = 	 {0, 0, 0, 0, 0, 0, 0, 0, 0, 0, 0, 0, 0, 0, 0, 0, 0, 0, 0, 0, 0, 0, 0, 0, 0, 0, 0, 0, 0, 0, 0, 0, 0, 0, 0, 0, 0, 0, 0, 0, 0, 0, 0, 0, 0, 0, 0, 0, 0, 0, 0, 0, 0, 0, 0, 0, 0, 0, 0, 0, 0, 0, 0, 0, 0, 0, 0, 0, 0, 0, 0, 0, 0, 0, 0, 0, 0, 0, 0, 0, 0, 0, 0, 0, 0, 0, 0, 0, 0, 0, 0, 0, 0, 0, 0, 0, 0, 0, 0, 0, 0, 0, 0, 0, 0, 0, 0, 0, 0, 0, 0, 0, 0, 0, 0, 0, 0, 0, 0, 0, 0, 0, 0, 0, 0, 0, 0, 0, 0, 0, 0, 0, 0, 0, 0, 0, 0, 0, 0, 0, 0, 0, 0, 0, 0, 0, 0, 0, 0, 0, 0, 0, 0, 0, 0, 0, 0, 0, 0, 0, 0, 0, 0, 0, 0, 0, 0, 0, 0, 0, 0, 0, 0, 0, 0, 0, 0, 0, 0, 0, 0, 0, 0, 0, 0, 0, 0, 0, 0, 0, 0, 0, 0, 0, 0, 0, 0, 0, 0, 0, 0, 0, 0, 0, 0, 0, 0, 0, 0, 0, 0, 0, 0, 0, 0, 0, 0, 0, 0, 0, 0, 0, 0, 0, 0, 0, 0, 0, 0, 0, 0, 0, 0, 0, 0, 0, 0, 0, 0, 0, 0, 0, 0, 0, 0, 0, 0, 0, 0, 0, 0, 0, 0, 0, 0, 0, 0, 0, 0, 0, 0, 0, 0, 0, 0, 0, 0, 0, 0, 0, 0, 0, 0, 0, 0, 0, 0, 0, 0, 0, 0, 0, 0, 0, 0, 0, 0, 0, 0, 0, 0, 0, 0, 0, 0, 0, 0, 0, 0, 0, 0, 0, 0, 0, 0, 0, 0, 0, 0, 0, 0, 0, 0, 0, 0, 0, 0, 0, 0, 0, 0, 0, 0, 0, 0, 0, 0, 0, 0, 0, 0, 0, 0, 0, 0, 0, 0, 0, 0, 0, 0, 0, 0, 0, 0, 0, 0, 0, 0, 0, 0, 0, 0, 0, 0, 0, 0, 0, 0, 0, 0, 0, 0, 0, 0, 0, 0, 0, 0, 0, 0, 0, 0, 0, 0, 0, 0, 0, 0, 0, 0, 0, 0, 0, 0, 0, 0, 0, 0, 0, 0, 0, 0, 0, 0, 0, 0, 0, 0, 0, 0, 0, 0, 0, 0, 0, 0, 0, 0, 0, 0, 0, 0, 0, 0, 0, 0, 0, 0, 0, 0, 0, 0, 0, 0, 0, 0, 0, 0, 0, 0, 0, 0, 0, 0, 0, 0, 0, 0, 0, 0, 0, 0, 0, 0, 0, 0, 0, 0, 0, 0, 0, 0, 0, 0, 0, 0, 0, 0, 0, 0, 0, 0, 0, 0, 0, 0, 0, 0, 0, 0, 0, 0, 0, 0, 0, 0, 0, 0, 0, 0, 0, 0, 0, 0, 0, 0, 0, 0, 0, 0, 0, 0, 0, 0, 0, 0, 0, 0, 0, 0, 0, 0, 0, 0, 0, 0, 0, 0, 0, 0, 0};


/* Layer 16 Learned Parameters */
#define CONV16_BIAS \
 {-23054, 26320, -3332, 85097, 961, 900, 22230, 23577, -19589, -6629, 52758, 26772, 1583, 21358, 21308, 12767, 1068, 1454, 1927, 19872, -20248, 9089, 60667, -8078, 85765, 29747, -8927, -6098, -4464, 112, -9630, 75895, 23720, -6195, -3953, -7925, 30349, -9238, -20707, 37864, 748, -9759, -10682, 20319, -4659, -1824, 59971, -12415, -12046, 1880, -11136, -2963, -10511, 3426, 1009, 57982, 3293, -5371, -6303, 4668, 376, -6790, 7349, 25783, -10577, 33822, -8902, 27858, 113, -7792, -4143, 3933, 55396, -4954, -8825, 44887, -10286, -1264, 27011, -11601, 6105, -8938, 67115, 17570, -1054, 7835, -6767, -11549, 24875, 14366, 6973, -1288, 51868, 37652, 31198, 11326, 38133, -5356, -4240, -15529, 15817, 6653, -10408, -4306, 623, -11828, 11315, -3747, -5431, 19179, 27832, 37155, 43060, 85155, -14170, -2471, 26104, -5669, 8880, -31639, -15902, 7314, 631, 34832, -6544, -47866, -28271, 48936, -212, -9330, 17345, 11155, 39383, -4906, 39929, -29674, 704, 50001, 2410, 6694, -8626, 75214, 28980, 37455, 119210, 163, -1707, -2569, -6080, -2827, -20850, -4364, 5906, -3211, -4721, -13598, -11224, 1353, 11315, -2829, 23157, -10629, 59041, 37192, -30122, 40420, -2786, -3904, -777, 61791, 11760, -27437, -2622, 2015, 18043, -18801, 46436, 68754, -11925, 25755, -12840, 1837, 8711, 3486, 62329, -18233, 7687, 40461, 29161, -16707, 35485, -1180, 66520, -7739, 46627, 112758, 3530, 20439, -12821, -10150, 58468, 45993, -11041, 44037, -40282, 9915, 24009, 32219, 77553, 20941, -6226, -8795, 16975, -3060, -5435, 20943, -2302, 73958, -5808, -18449, -8598, -9208, -550, 54986, -4388, 195075, -8083, -7848, 86015, -15574, -6168, -4806, 16796, -5782, 13472, 4907, 12205, -14105, 2509, 19485, -7462, 35, -24834, 8894, 10726, -8943, -4342, 2044, 13950, 15648, 7403, -3552, -6388, -5333, -7651, -7992, 31123, -5324, 35161, -1926, 22371, 4376, 14371, 9755, -13005, 71989, 22653, -43042, -6727, 50913, -3359, 4969, 44316, 1303, 5641, 2466, 49775, 25562, -16541, -1915, 79829, 7461, 61162, -15224, 1890, 4051, -13469, 40621, -3048, -7124, -10586, 72010, 9888, -15878, 59506, 10897, -27308, -11157, 17094, -4115, -10122, 81003, 26286, -2497, -754, -2532, 6388, 4432, 7023, -7863, -428, -10600, 36628, -4323, 72202, 9625, 66507, 48140, 1428, 8743, -8849, -9720, 13745, 7864, 27476, -5628, 26948, -2944, 1674, -14825, -25128, -6783, -4804, 8224, -16682, -2277, 51044, 45499, 750, -8367, 287, -4417, 7219, 51388, -3609, 49263, -1085, 4632, -14637, 72218, 12510, -12207, 107780, -6472, -8210, -28274, -16059, 1577, 22722, 37759, -3029, -258, 49601, -22892, 47493, 6750, 6270, 29210, 10033, 54630, -6912, 13223, 56122, -17359, -649, -13778, 40095, 104364, 20, 7413, -7569, -17886, -8574, -11888, 100056, -5244, -5999, -2593, -3038, 9894, 9556, -28265, -4665, -12344, 107738, -8597, -12145, -18332, 27584, 25397, -7551, -1492, 44500, 7162, -764, 52216, 15514, 32918, -3614, -10336, 48335, -6532, -14598, -4241, 40727, -6915, -7434, 2864, 60469, 52999, 4308, -6506, 50655, -3793, -4187, 2014, 14996, 16652, -16250, 4604, -7049, -6009, 34860, -3431, -6789, -12188, -17425, -7697, 52545, 9, -10154, -3333, -13, -2105, 11042, 2817, -301, 8122, -11310, -6097, 53099, 13888, 1211, -1, 24525, 33851, -23219, 4270, 27358, -18313, 31169, -20939, 49265, 13091, -618, -4396, 48, 7677, 29878, 61201, 45293, 41661, 23316, 7121, -7281, 12627, -3920, -12280, 16102, 15820, 56134, 11075, -32601, 59510, -7327, 33320, 45512, 18708, -17378, 67355, 756, 24088, -13997, 58500, 157242, -11910, 14123, 16801, 30437, -250, -140, 43142, -17149, -10137, 12152, -24889, 38080, 54294, -5617, 5932, 41322, 2687}
#define CONV16_WT {0}
static const uint8_t CONV16_W_Z[] = 	 {1, -209, -31, -475, -26, -83, -195, -173, 16, -5, -349, -269, -73, -244, -247, -47, -47, -116, -57, -231, 2, -138, -370, 10, -275, -255, 7, 4, -74, -133, -4, -360, -153, -135, -109, 5, -270, -37, 9, -386, -99, 4, -12, -118, -99, -129, -302, -50, -2, -100, 6, -54, 13, -87, -148, -335, -145, -18, 3, -51, -13, -90, -80, -236, -9, -277, 9, -171, -214, 10, -1, -28, -207, -48, 5, -328, 10, -59, -293, -4, -122, 3, -303, -233, -48, -95, -92, 21, -222, -114, -80, -26, -277, -293, -132, -194, -261, 16, -56, -20, -207, -153, -134, 18, -65, -88, -116, -62, 11, -258, -222, -271, -285, -349, 4, -28, -222, -8, -82, 33, -3, -87, -133, -191, -55, -6, -20, -296, -43, 18, -104, -131, -178, -75, -293, 50, -126, -289, -41, -135, 12, -446, -158, -269, -840, 178, -32, -12, -43, -48, 42, -75, -77, -7, -10, 0, -1, -71, -160, -96, -180, 15, -339, -293, 2, -279, -77, -82, -146, -385, -124, 32, -20, -39, -240, 8, -235, -415, 7, -241, 38, -98, -55, -62, -357, -13, -41, -257, -276, 22, -271, -106, -343, -64, -277, -525, -132, -241, 9, 18, -329, -288, -27, -299, -8, -123, -249, -292, -349, -205, -33, -2, -183, -33, -24, -238, 3, -283, 4, 8, -5, -11, -96, -302, -60, -592, 14, -41, -450, -4, -34, -87, -167, -46, -139, -69, -194, -21, -44, -196, -3, -113, 121, -204, -116, 1, -34, -153, -100, -111, -101, 16, -45, -29, -48, -6, -250, 23, -272, -36, -260, -85, -68, -122, -3, -345, -166, -14, -16, -245, -25, -84, -271, -12, -70, -97, -318, -219, -26, -23, -283, -126, -349, 30, -65, -94, -63, -235, -122, -97, 12, -370, -66, 12, -268, -117, 11, 6, -122, -116, -35, -405, -137, -18, -110, 1, -48, -50, -116, -25, -50, -2, -295, -51, -363, -147, -354, -348, -34, -80, 9, 18, -91, -140, -251, -11, -135, -118, -69, 17, 11, -54, -59, -50, -16, -70, -333, -290, -92, -82, -98, 4, -100, -354, -83, -375, 2, -41, 0, -575, -111, -76, -355, 0, 36, 39, -8, -58, -252, -234, -27, -100, -289, 43, -340, -53, -82, -197, -105, -217, -13, -140, -317, 4, -53, -22, -274, -811, -133, -28, 8, 62, -6, -7, -668, -54, -4, -59, -96, -75, -100, -7, -68, 9, -334, 18, -33, 24, -182, -131, -6, -19, -307, -62, -140, -237, -173, -175, -19, -76, -290, -8, 5, -125, -277, -18, -2, -85, -255, -377, -92, 13, -303, -52, -77, -179, -174, -176, 7, -60, 18, -46, -223, -100, 20, -39, 10, -24, -365, -54, -38, -51, -102, -13, -86, -118, -91, -33, -22, -99, -307, -55, -125, -128, -234, -210, 22, -175, -248, 19, -298, 45, -263, -198, -108, -156, -33, -49, -219, -332, -195, -260, -258, -116, 23, -162, -65, 11, -192, -146, -248, -175, 49, -453, -28, -295, -313, -252, 8, -467, -53, -256, -8, -319, -598, -10, -145, -147, -252, -113, 2, -261, 40, -101, -107, 23, -304, -481, -33, -131, -279, -118};
#define CONV16_IN_Z      	(0)
#define CONV16_OUT_Z     	(0)
