#ifndef __224_0_25_WEIGHTS_BIAS_H__
#define __224_0_25_WEIGHTS_BIAS_H__


/* Layer 1 Learned Parameters */
#define CONV1_BIAS \
 {299655, -5046576, -23347234, 193014, -35144, 127878, 44315, 176109}
#define CONV1_WT {0}
static const uint8_t CONV1_W_Z[] = 	 {-231, -18, 164, -43, -161, -142, -123, -95};
#define CONV1_IN_Z      	(127)
#define CONV1_OUT_Z     	(0)
static const int32_t CONV1_M_ZERO[] = 	 {1143949184, 1752123776, 1119525888, 1391820416, 2046593920, 1418715008, 1185122816, 1392325888};
static const int8_t CONV1_N_ZERO[] = 	 {0, 0, 0, 0, 0, 0, 0, 0};


/* Layer 2 Learned Parameters */
#define CONV2_BIAS \
 {8042, -1661, -142, 29265, -436, -7098, 55017, 77465}
#define CONV2_WT {0}
static const uint8_t CONV2_W_Z[] = 	 {-125, -205, -362, -50, -77, -124, -131, -225};
#define CONV2_IN_Z      	(0)
#define CONV2_OUT_Z     	(0)
static const int32_t CONV2_M_ZERO[] = 	 {1757661696, 1842590848, 1424388224, 1233926272, 1567418368, 1193874560, 1292598272, 1877394816};
static const int8_t CONV2_N_ZERO[] = 	 {0, 0, 0, 0, 0, 0, 0, 0};


/* Layer 3 Learned Parameters */
#define CONV3_BIAS \
 {-10412, -27406, -6717, -7144, -33332, 69684, 5723, -18602, -27830, -3446, -548936, 7517, 49093, 35113, -272156, 33732}
#define CONV3_WT {0}
static const uint8_t CONV3_W_Z[] = 	 {-13, -13, -53, -36, -100, -224, -14, -10, -1, -35, -123, -63, -215, -250, -98, -224};
#define CONV3_IN_Z      	(0)
#define CONV3_OUT_Z     	(0)
static const int32_t CONV3_M_ZERO[] = 	 {2033571072, 1758109824, 1149803136, 1086137856, 2005878016, 1256135808, 1102779776, 1363781760, 1703237248, 1419277952, 2093468544, 1531573376, 1462561152, 1279766784, 1998994432, 1724518656};
static const int8_t CONV3_N_ZERO[] = 	 {0, 0, 0, 0, 0, 0, 0, 0, 0, 0, 0, 0, 0, 0, 0, 0};


/* Layer 4 Learned Parameters */
#define CONV4_BIAS \
 {248, 1741, 6744, 5828, 85699, 43917, 4053, 24722, 45254, -20, -168, 8548, 3823, 32240, 1266, 7509}
#define CONV4_WT {0}
static const uint8_t CONV4_W_Z[] = 	 {-117, -11, -85, -129, -161, -138, -123, -129, -238, -102, -223, -146, -128, -107, -55, -157};
#define CONV4_IN_Z      	(0)
#define CONV4_OUT_Z     	(0)
static const int32_t CONV4_M_ZERO[] = 	 {2010935936, 1192092416, 1367571200, 1387078528, 1263241856, 1288326784, 1581805568, 1303257216, 1399240960, 1241703680, 1244526464, 1156349952, 1701807872, 1129125632, -1697136640, 1913332864};
static const int8_t CONV4_N_ZERO[] = 	 {0, 0, 0, 0, 0, 0, 0, 0, 0, 0, 0, 0, 0, 0, 0, 0};


/* Layer 5 Learned Parameters */
#define CONV5_BIAS \
 {15016, 11662, 3847, 43373, 44045, 29955, 26047, 14307, 40102, -32459, 3371, 55422, 2441, 2257, -4118, -3784, 5906, 84661, -35572, 7945, 1852, 18868, -3312, 45750, -24986, 2625, 8983, 29364, -13007, 22793, 13205, -35511}
#define CONV5_WT {0}
static const uint8_t CONV5_W_Z[] = 	 {-147, -84, -129, -203, -243, -155, -207, -111, -220, -51, -111, -116, -211, -180, -82, -47, -96, -23, -22, -58, -209, -141, -157, -197, -15, -28, -198, -9, -28, -61, -99, -121};
#define CONV5_IN_Z      	(0)
#define CONV5_OUT_Z     	(0)
static const int32_t CONV5_M_ZERO[] = 	 {1777140864, 2015979520, 1173851904, 1156940160, 1440414720, 2005080064, 1807794432, 2125486720, 2073312512, 1708916864, 1502489600, 1540015488, 1948969856, 1144259968, 2012631552, 1840355712, 1404233472, 1286141824, 1297714304, 2102315136, 1299025664, 1931656704, 1513754496, 1102522496, 1188381440, 1336590592, 1147872000, 1228535296, 1482100864, 1432069888, 2046227456, 1119202176};
static const int8_t CONV5_N_ZERO[] = 	 {0, 0, 0, 0, 0, 0, 0, 0, 0, 0, 0, 0, 0, 0, 0, 0, 0, 0, 0, 0, 0, 0, 0, 0, 0, 0, 0, 0, 0, 0, 0, 0};


/* Layer 6 Learned Parameters */
#define CONV6_BIAS \
 {26581, 15416, 16156, 9088, 28772, 64, 22, 152, -733, 44881, 19099, -125, 38735, 20164, 14328, 9724, -153, -35569, 41795, 28465, -195, 34510, -524, 167, 1771, 7407, -15812, 31131, 12969, 189, -7069, 448}
#define CONV6_WT {0}
static const uint8_t CONV6_W_Z[] = 	 {-116, -64, -231, -80, -234, -126, -78, -110, -129, -45, -204, -138, -162, -67, -125, -54, -101, -37, -164, -224, -142, -111, -80, -144, -34, -72, -63, -241, -268, -130, -16, -30};
#define CONV6_IN_Z      	(0)
#define CONV6_OUT_Z     	(0)
static const int32_t CONV6_M_ZERO[] = 	 {1099164544, 2032498816, 1621917184, 1311629696, 1404506112, 1466304512, 1122661888, 1123646080, 1971076992, 1092037632, 2020129664, 1491115008, 1615192320, 1258489728, 1150786304, 1451336704, 1804812672, 2093329408, 1923985408, 1096719488, 1191738880, 1246702976, 1400618112, 1910939520, 1285707008, 1798067200, 2119996416, 1584850688, 1408416640, 1524929920, 1356739328, 1675113728};
static const int8_t CONV6_N_ZERO[] = 	 {0, 0, 0, 0, 0, 0, 0, 0, 0, 0, 0, 0, 0, 0, 0, 0, 0, 0, 0, 0, 0, 0, 0, 0, 0, 0, 0, 0, 0, 0, 0, 0};


/* Layer 7 Learned Parameters */
#define CONV7_BIAS \
 {7572, 13543, 4678, -14947, 10958, -1211, -660, -43915, -16873, 14026, -15233, 6023, 27960, 2022, 15809, 17835, 25571, -4118, 9839, 15382, 14638, -22476, 52303, 10725, 4276, 7575, -37623, -3489, 21440, 42535, 39735, 28819}
#define CONV7_WT {0}
static const uint8_t CONV7_W_Z[] = 	 {-33, -117, -117, -146, -90, -39, -55, -55, -87, -30, -122, -99, -130, -141, -127, -145, -119, -33, -116, -47, -126, -71, -195, -171, -158, -136, -56, -163, -125, -204, -176, -101};
#define CONV7_IN_Z      	(0)
#define CONV7_OUT_Z     	(0)
static const int32_t CONV7_M_ZERO[] = 	 {1979885568, 2055407616, 1849216768, 1627733760, 2077414144, 1257098112, 1445287552, 1548247040, 1546541568, 1794214912, 1104377216, 1964204288, 1221396352, 2075283328, 1169269760, 1654027904, 2054408960, 1482901120, 1695833088, 1159099648, 1139537536, 1596393984, 1078391808, 1135630336, 1200874880, 1222111104, 1618624128, 1382008320, 1386884864, 1176859392, 1773431808, 2086520832};
static const int8_t CONV7_N_ZERO[] = 	 {0, 0, 0, 0, 0, 0, 0, 0, 0, 0, 0, 0, 0, 0, 0, 0, 0, 0, 0, 0, 0, 0, 0, 0, 0, 0, 0, 0, 0, 0, 0, 0};


/* Layer 8 Learned Parameters */
#define CONV8_BIAS \
 {384695, 75210, 10144, 118566, 158963, 56, 55326, 127017, 1268, -55761, 2437, 166281, 177122, 30289, 157695, 154755, 278984, -2367, 15398, -14124, 2917, 5641, -134, 142, 50597, 234764, 5450, 140178, -35032, 267274, 238200, 143305}
#define CONV8_WT {0}
static const uint8_t CONV8_W_Z[] = 	 {-332, -339, 77, -320, -307, -154, -284, -307, 73, -9, 73, -314, -317, 48, -283, -315, -310, -17, 97, -90, 27, 46, -135, 41, 48, -304, 8, -331, 58, -314, -289, -292};
#define CONV8_IN_Z      	(0)
#define CONV8_OUT_Z     	(0)
static const int32_t CONV8_M_ZERO[] = 	 {1109000960, 2017166336, 1306472192, 2100458496, 1114107904, 1339863040, 1189939456, 1088211328, 1079506048, 1521351936, 2031051008, 1837726976, 1732140288, 1598124416, 1315898368, 1788601728, 2145451008, 1178695040, 1313164800, 2024264448, 2005768192, 1703990272, 1899459968, 1604087552, 1226355968, 1198601216, 1888695168, 1680956800, 1766814592, 1708978048, 1472821760, 1935824256};
static const int8_t CONV8_N_ZERO[] = 	 {0, 0, 0, 0, 0, 0, 0, 0, 0, 0, 0, 0, 0, 0, 0, 0, 0, 0, 0, 0, 0, 0, 0, 0, 0, 0, 0, 0, 0, 0, 0, 0};


/* Layer 9 Learned Parameters */
#define CONV9_BIAS \
 {-39819, 56707, 31980, -6505, -3060, -19969, 46380, 12503, 75402, 11627, -1899, 37011, -21094, 50929, 16470, 18677, 42899, -27026, 17178, -30713, 77224, 17271, 83869, 23368, 30770, 1318, 1734, 16471, -50627, 31000, 77046, 13024, 11673, 124100, 28884, 14999, 45540, -309, 48010, -8789, 34746, 57408, 75778, 46862, 82233, 22696, 51764, 61638, 45432, 46687, -2513, -9546, 9145, 26876, 37381, 39792, 39344, 49881, -14020, 47245, -10631, 29344, 26465, 17125}
#define CONV9_WT {0}
static const uint8_t CONV9_W_Z[] = 	 {-146, -206, -78, -93, -130, -120, -200, -113, -192, -69, -72, -73, -138, -173, -148, -148, -118, -113, -56, -76, -106, -122, -148, -56, -128, -29, -129, -152, -60, -138, -171, -111, -111, -173, -74, -126, -105, -71, -185, -121, -144, -74, -101, -130, -121, -84, -146, -177, -178, -137, -122, -134, -118, -80, -132, -186, -141, -100, -81, -135, -58, -105, -142, -52};
#define CONV9_IN_Z      	(0)
#define CONV9_OUT_Z     	(0)
static const int32_t CONV9_M_ZERO[] = 	 {1968092416, 1827918848, 1726051712, 1183436672, 2031833984, 1721594752, 1091707776, 1406445824, 1674264960, 1804956800, 1470533120, 1625999616, 1099606912, 1082103936, 2068843776, 1706181504, 1247110144, 2134454400, 1524500992, 1359979776, 1113763200, 1461556480, 1896421504, 1649108736, 1553979648, 1293013504, 1590550016, 1813110144, 1661856256, 1442832256, 1143599232, 1627857536, 1994958592, 1897395840, 2000154752, 1404100224, 1357666816, 1814715776, 1436416512, 1121433856, 1550000896, 1226569600, 1887391104, 1223636096, 1219644160, 1088242816, 1764525440, 1741544832, 1296014592, 1798859520, 1658010752, 1580069376, 1521868672, 1909020672, 2023084288, 1190395776, 1147806592, 2078201216, 1338792576, 2040060672, 1931821184, 1865963904, 1403726720, 1298052608};
static const int8_t CONV9_N_ZERO[] = 	 {0, 0, 0, 0, 0, 0, 0, 0, 0, 0, 0, 0, 0, 0, 0, 0, 0, 0, 0, 0, 0, 0, 0, 0, 0, 0, 0, 0, 0, 0, 0, 0, 0, 0, 0, 0, 0, 0, 0, 0, 0, 0, 0, 0, 0, 0, 0, 0, 0, 0, 0, 0, 0, 0, 0, 0, 0, 0, 0, 0, 0, 0, 0, 0};


/* Layer 10 Learned Parameters */
#define CONV10_BIAS \
 {18930, 394, -27, -22334, -7163, 57384, 2525, 30750, 3582, 22616, 6531, 109, -54, 8240, 15460, 43620, 588, 9670, 1661, -137, -7713, -3602, 25584, -7380, 18142, 1281, -112, -199, 75145, -4366, -8380, 32309, 20305, 1580, 57789, 86024, 1131, 210, 7121, -405, 159068, 2255, 3750, 138, 77104, -22083, -2549, 204, 21553, 61786, -1558, 37592, 62761, 45652, 822, 19919, 447, 6314, 53452, 19631, -8315, -10940, 514, 16765}
#define CONV10_WT {0}
static const uint8_t CONV10_W_Z[] = 	 {-65, -123, -123, -25, -52, -220, -145, -232, -55, -197, -47, -116, -55, -24, -62, -224, -151, -44, -134, -46, -19, -112, -206, -44, -113, -118, -114, -118, -257, -44, -47, -114, -224, -40, -210, -225, -149, -150, -57, -102, -260, -78, -193, -133, -232, -41, -114, -129, -65, -235, -53, -207, -222, -216, -129, -225, -120, -54, -229, -99, -26, -32, -139, -90};
#define CONV10_IN_Z      	(0)
#define CONV10_OUT_Z     	(0)
static const int32_t CONV10_M_ZERO[] = 	 {1895761536, 1136486272, 1151573504, 1135302016, 1151441536, 1587841024, 1606904960, 1120976384, 1910974336, 1864881536, 1250762112, 2135903360, 1578153856, 1849197056, 2010052992, 1251968256, 1761556736, 1871713920, 1934802944, 2012998144, 1861398656, 1585651456, 1227487872, 1190405248, 1494950912, 1934911104, 1699198976, 1358934656, 1136359168, 1878608896, 1271940736, 1129922688, 1338358912, 1148945920, 1645546880, 1399692416, 1591428736, 1623821312, 1252625664, 2052328320, 1414799232, 1645771648, 1625376640, 1447519488, 1770771456, 1404935296, 2120951424, 1102126976, 1759639040, 1095898368, 1459848192, 1378945152, 1141234560, 1305756672, 1709084288, 1928218368, 1155943296, 1959713536, 1085206272, 1345687040, 1192873984, 1460832512, 1335288704, 1383442048};
static const int8_t CONV10_N_ZERO[] = 	 {0, 0, 0, 0, 0, 0, 0, 0, 0, 0, 0, 0, 0, 0, 0, 0, 0, 0, 0, 0, 0, 0, 0, 0, 0, 0, 0, 0, 0, 0, 0, 0, 0, 0, 0, 0, 0, 0, 0, 0, 0, 0, 0, 0, 0, 0, 0, 0, 0, 0, 0, 0, 0, 0, 0, 0, 0, 0, 0, 0, 0, 0, 0, 0};


/* Layer 11 Learned Parameters */
#define CONV11_BIAS \
 {2254, -38431, 30791, -12275, 48259, 43780, -10577, 10147, -31007, -25007, 47138, -86766, 16191, -61917, 57121, 35327, 9072, -10640, 16805, 52181, 118527, -52184, -23472, 21594, -47365, -45496, -19328, 54627, -52234, 40578, 14061, -53032, 22316, -11162, 21711, -43639, -5230, -4192, -41812, -12858, 45543, -1418, -55539, 26826, 23141, 18716, 22953, 44381, 20256, -42657, 29992, -41110, -26667, 7173, 45011, -27937, 7761, 3710, -10273, 44997, 19707, 9617, -43967, -34943}
#define CONV11_WT {0}
static const uint8_t CONV11_W_Z[] = 	 {-128, -159, -128, -102, -185, -174, -111, -64, -61, -139, -163, -90, -161, -131, -66, -121, -112, -98, -119, -134, -153, -99, -64, -176, -71, -171, -80, -162, -126, -183, -120, -44, -127, -134, -125, -108, -190, -93, -146, -122, -212, -62, -157, -148, -164, -153, -164, -145, -173, -83, -69, -89, -103, -58, -124, -143, -79, -139, -186, -127, -181, -198, -86, -120};
#define CONV11_IN_Z      	(0)
#define CONV11_OUT_Z     	(0)
static const int32_t CONV11_M_ZERO[] = 	 {1882459264, 1090390784, 1733983232, 1750452736, 1149384704, 1876804480, 1437323264, 1222872448, 1837734912, 1647509632, 1211757056, 1277288064, 1119101824, 2059966592, 1945745536, 1936325248, 1245742848, 1643347968, 1092704512, 1259001344, 1661524608, 1483813760, 1249750016, 1732153216, 1355899008, 2098018944, 1197599360, 1191783424, 1442326784, 1318175872, 2026752384, 1147923968, 1255800704, 1624592384, 1624340480, 1624114560, 1644727424, 1372482816, 1534727680, 2054301312, 1307953024, 2110480896, 1522415616, 1154420096, 1419322624, 1324652160, 1404826112, 1803454080, 1824080640, 1106845824, 1196766976, 1277092608, 1514736896, 1453308416, 1719601792, 1504398720, 1185833728, 1224608384, 1558958336, 1477406464, 1446032256, 1767986432, 1733014144, 1084282240};
static const int8_t CONV11_N_ZERO[] = 	 {0, 0, 0, 0, 0, 0, 0, 0, 0, 0, 0, 0, 0, 0, 0, 0, 0, 0, 0, 0, 0, 0, 0, 0, 0, 0, 0, 0, 0, 0, 0, 0, 0, 0, 0, 0, 0, 0, 0, 0, 0, 0, 0, 0, 0, 0, 0, 0, 0, 0, 0, 0, 0, 0, 0, 0, 0, 0, 0, 0, 0, 0, 0, 0};


/* Layer 12 Learned Parameters */
#define CONV12_BIAS \
 {66383, 97051, 137896, 8699, 17305, 146822, 98665, 231845, -3972, 7070, 408, -425, 632, 32890, 123044, 16369, 12157, -1115, 27550, 311229, -1453, 20271, -2478, -23832, 116, -2130, 7729, 405, 32645, -33213, 20029, 142649, 11554, -429, -26787, -1028, 38251, 134384, 20076, 158859, 3924, -5326, 18483, 4620, 149069, 10248, 1733, 350249, 129743, 10202, 161226, 520, 295479, 254428, 7022, 17117, 3344, -18951, 35950, -34229, 19930, -8506, 34589, 742}
#define CONV12_WT {0}
static const uint8_t CONV12_W_Z[] = 	 {-294, -304, -316, 98, 76, -304, -304, -344, 40, 85, 71, 49, 52, -274, -311, 73, 44, -143, 109, -320, -152, 109, 69, 50, 65, -88, 51, -161, 102, 47, -94, -305, -138, 31, 40, 56, -305, -349, 38, -301, 35, -20, 78, 54, -301, 85, 75, -314, -319, 36, -318, -147, -305, -305, 44, 72, 65, 71, -315, 58, 63, 69, 65, 45};
#define CONV12_IN_Z      	(0)
#define CONV12_OUT_Z     	(0)
static const int32_t CONV12_M_ZERO[] = 	 {1540209024, 2036894720, 1577517952, 1150145408, 1566872960, 1660813824, 1281342592, 1408371968, 1169266176, 1418800768, 1333969024, 1441400192, 1567811840, 1116232320, 1713338624, 1557727104, 1719139072, 2078826880, 1869998848, 1151782784, 1251726336, 1607321728, 1391897984, 1585516800, 1701373568, 1176735744, 2109431808, 1470368896, 1554954752, 1499174528, 1856343424, 1468778112, 1347724672, 1530389888, 1301011840, 1351125760, 1812460288, 1561025024, 1607961216, 2004593152, 1845475968, 1816844672, 1252970880, 1602498176, 1273213184, 1427278976, 1171267328, 1080690304, 1443685632, 1781952256, 1210460416, 1735512832, 1149308416, 1780810368, 1258974848, 1236308352, 2102865536, 2013691392, 1925095296, 1590352000, 1546526336, 1093405952, 1313819776, 1857286272};
static const int8_t CONV12_N_ZERO[] = 	 {0, 0, 0, 0, 0, 0, 0, 0, 0, 0, 0, 0, 0, 0, 0, 0, 0, 0, 0, 0, 0, 0, 0, 0, 0, 0, 0, 0, 0, 0, 0, 0, 0, 0, 0, 0, 0, 0, 0, 0, 0, 0, 0, 0, 0, 0, 0, 0, 0, 0, 0, 0, 0, 0, 0, 0, 0, 0, 0, 0, 0, 0, 0, 0};


/* Layer 13 Learned Parameters */
#define CONV13_BIAS \
 {33474, 13580, 18103, 37918, -19822, 11510, 16479, -25874, 18742, 23749, 20857, 36794, -27808, 9720, 25902, -64712, 12360, 94368, 40597, 7886, -2010, 61995, 116544, 7093, 35741, -4215, 18754, 39745, 8906, -18129, -5881, 48912, 59824, 8145, 313, 53496, -12339, 27389, 11235, 3457, -14328, 109340, 23022, 33004, 28923, 24544, 26672, 607, 38655, 59227, -18278, 14025, 42740, -34528, 29255, 10916, 26372, 63375, 13525, 108070, 37987, 7243, 55214, 62347, 36836, 27320, 15289, 7995, 50523, 44921, 28609, 8549, 98622, -29607, 13252, -2703, 55834, 53190, 82989, 38065, 21600, -3986, 3641, 2735, 12536, 3102, 28847, -4088, 24205, 3670, 25923, 60461, 13586, -18680, 69699, 3951, 8548, 4942, 17202, 2634, 18503, 67851, 92839, 29894, 36876, 5681, 29362, -58498, 15194, 4749, -4859, -5883, 4065, 3147, 15006, 13158, -1323, 69064, 16493, 29649, 38528, 11110, -21066, 27036, -11418, -13034, -40394, 878}
#define CONV13_WT {0}
static const uint8_t CONV13_W_Z[] = 	 {-62, -151, -139, -121, -120, -121, -98, -105, -139, -136, -178, -189, -129, -72, -179, -59, -79, -195, -189, -133, -41, -173, -92, -32, -109, -101, -166, -109, -86, -113, -116, -70, -123, -94, -76, -143, -109, -113, -58, -92, -78, -155, -96, -111, -75, -122, -114, -110, -150, -87, -117, -123, -112, -64, -99, -127, -120, -136, -107, -185, -127, -94, -148, -126, -94, -127, -91, -96, -112, -124, -86, -123, -155, -56, -53, -136, -104, -95, -139, -166, -120, -64, -86, -151, -109, -131, -136, -133, -124, -113, -134, -124, -140, -78, -172, -99, -120, -101, -103, -80, -59, -123, -173, -94, -127, -126, -112, -79, -141, -60, -87, -83, -85, -131, -138, -133, -120, -205, -67, -90, -120, -138, -128, -125, -54, -134, -68, -120};
#define CONV13_IN_Z      	(0)
#define CONV13_OUT_Z     	(0)
static const int32_t CONV13_M_ZERO[] = 	 {1164838912, 1486868224, 1293347840, 2069452672, 1265167104, 1435560064, 1761706752, 1961759360, 1092899456, 1319824000, 1568420608, 1496838272, 1566298112, 1783305856, 1939613440, 1491115136, 1247526400, 1442181376, 2004451712, 1858287104, 1597247744, 2021301632, 1586665856, 1391811840, 1972929408, 1941316224, 1511333504, 1592345600, 1666562816, 2081540608, 1670792960, 1581117568, 1582158720, 1319553280, 2016832128, 1898415744, 2005570816, 1961296768, 1901393664, 1150092928, 1247538944, 1611879296, 1630908800, 1098957312, 1206627712, 1779633152, 1625220224, 1613366400, 1512388608, 1577616384, 1092122240, 1695847424, 1544328576, 1900401280, 1470586752, 1421300608, 1733874304, 1466478464, 1538978688, 1525748736, 2023815808, 1464038784, 1303541376, 1354658560, 2098475392, 1472754432, 1238603776, 1249240576, 1473620224, 1331113088, 1360776576, 1229296384, 1947087744, 2091175552, 1269299200, 1969437056, 2019283840, 1212389376, 2105225984, 1121383808, 1641577984, 1889944192, 1882068864, 1640975104, 1908473472, 1351972480, 2097110144, 1928425600, 1724302848, 1577403264, 1956497536, 1711433344, 2066398848, 1513079424, 1287353856, 1296544128, 1665596928, 1343525120, 1338098304, 1300625280, 1205907456, 1205457536, 1273266944, 1543303424, 1663601792, 1107678464, 1080907264, 1301998464, 1939498368, 1919384960, 2098320512, 1835566336, 1115122432, 1219303040, 1182710272, 1862803840, 1512425600, 1152610304, 1715910656, 1412784256, 1461359488, 1827439872, 1954665600, 2037408256, 1215200128, 1197343744, 1494141696, 1302950528};
static const int8_t CONV13_N_ZERO[] = 	 {0, 0, 0, 0, 0, 0, 0, 0, 0, 0, 0, 0, 0, 0, 0, 0, 0, 0, 0, 0, 0, 0, 0, 0, 0, 0, 0, 0, 0, 0, 0, 0, 0, 0, 0, 0, 0, 0, 0, 0, 0, 0, 0, 0, 0, 0, 0, 0, 0, 0, 0, 0, 0, 0, 0, 0, 0, 0, 0, 0, 0, 0, 0, 0, 0, 0, 0, 0, 0, 0, 0, 0, 0, 0, 0, 0, 0, 0, 0, 0, 0, 0, 0, 0, 0, 0, 0, 0, 0, 0, 0, 0, 0, 0, 0, 0, 0, 0, 0, 0, 0, 0, 0, 0, 0, 0, 0, 0, 0, 0, 0, 0, 0, 0, 0, 0, 0, 0, 0, 0, 0, 0, 0, 0, 0, 0, 0, 0};


/* Layer 14 Learned Parameters */
#define CONV14_BIAS \
 {323, 27656, 615, 21552, -2661, -95, -4863, 91, 327, 216, -8755, 11447, 91735, 7131, 2621, 2862, 11790, 17532, 83578, 3620, 79466, -96, -12668, -2077, 7560, -4893, 4742, 6583, 129, 4507, 44, 28147, 161, 3577, -451, 2216, 33407, -14465, 13739, 1032, 653, 23586, 25512, -279, 3378, 107, 85, -1987, -11023, 33970, -8792, 114, 43527, 277, 8272, 8830, -6759, 2027, 1484, -64, 32438, 63633, 49895, 14787, 324, 10620, -2074, 33563, 1409, 27525, 20736, -14537, 252, 370, 789, 29179, 12092, 3971, 94, 824, -4998, 1279, 1396, -20481, 9371, 1091, 22627, -4619, 3647, 588, 49364, 518, 1137, -8087, 1972, 347, 11469, -7018, 44088, 424, 125, 479, 19348, 31081, 12905, -2578, 3478, -343, 8047, 219, 33233, -7468, 5244, 1150, -14076, -346, 1267, -302, -227, 2904, 5703, 59258, -1693, -1435, -39, -4418, 264, 1395}
#define CONV14_WT {0}
static const uint8_t CONV14_W_Z[] = 	 {-123, -245, -115, -68, -22, -146, -10, -131, -128, -119, -8, -56, -214, -68, -35, -111, -51, -200, -350, -109, -265, -130, -11, -85, -30, -77, -59, -36, -125, -21, -125, -241, -130, -101, -121, -130, -235, -21, -72, -107, -128, -60, -233, -71, -24, -119, -113, -12, -30, -244, -39, -124, -192, -116, -51, -72, -15, -17, -94, -124, -189, -278, -231, -238, -115, -31, -98, -231, -16, -259, -248, -17, -103, -104, -32, -242, -239, -41, -86, -136, 8, -89, -106, -3, -95, -112, -246, -27, -18, -96, -257, -126, -77, -13, -128, -131, -126, -22, -252, -93, -127, -116, -236, -252, -234, -92, -57, -95, -53, -136, -255, -28, -129, -146, -15, -103, -109, -60, -145, -115, -60, -256, -30, -122, -95, -2, -126, -180};
#define CONV14_IN_Z      	(0)
#define CONV14_OUT_Z     	(0)
static const int32_t CONV14_M_ZERO[] = 	 {1654573952, 1682646912, 2127355264, 1727329408, 1079333120, 1133772672, 1129976832, 1741522560, 1366579072, 1081699456, 1844556672, 1966000512, 1995945216, 1693743744, 1301094400, 1695629696, 2137223296, 1868992000, 1836690304, 1826319744, 1361055104, 1913435520, 1184733056, 1194523904, 2040079232, 1308438144, 1193770240, 2066159360, 1669967744, 1142801024, 1396244736, 1597334272, 1626476416, 1575972992, 1451041152, 1889172608, 2070221056, 1975846656, 1692184064, 1190573696, 1510130176, 1776974976, 1454758272, 1514605056, 1597666944, 1247169152, 1533166848, 1989718144, 1700347392, 1563143424, 1252184320, 1704802944, 1139269376, 1251193344, 1345926656, 1517611008, 1453394048, 1937186816, 1605723008, 1270096256, 1990241792, 1674637312, 1594228224, 1202498048, 1097069312, 1966857344, 1927932032, 1990517376, 1467925632, 1169037312, 1282325120, 1316960640, 1443988992, 1245815680, 1113582720, 1668386048, 1153828864, 1563261056, 1885357312, 1448956416, 1148308992, 1490585600, 1560992512, 1453916032, 1728322560, 1266145920, 1203919360, 1248493440, 1543195776, 2041797248, 1769831296, 1696037504, 1204280704, 1968639232, 2037217536, 1703471872, 1790268800, 1858853632, 1601481856, 1438273024, 1146934400, 1806705792, 1350793216, 1966009600, 2140583168, 1832650752, 1363669376, 1804681728, 1856057728, 1691471104, 1906482816, 1168976640, 1825131648, 1423563392, 1230115968, 1260118016, 1142110208, 1102653952, 1927793792, 1251890432, 1388708864, 1425986560, 1870064000, 1645993856, 1093468928, 1617467264, 1864469248, 1214480384};
static const int8_t CONV14_N_ZERO[] = 	 {0, 0, 0, 0, 0, 0, 0, 0, 0, 0, 0, 0, 0, 0, 0, 0, 0, 0, 0, 0, 0, 0, 0, 0, 0, 0, 0, 0, 0, 0, 0, 0, 0, 0, 0, 0, 0, 0, 0, 0, 0, 0, 0, 0, 0, 0, 0, 0, 0, 0, 0, 0, 0, 0, 0, 0, 0, 0, 0, 0, 0, 0, 0, 0, 0, 0, 0, 0, 0, 0, 0, 0, 0, 0, 0, 0, 0, 0, 0, 0, 0, 0, 0, 0, 0, 0, 0, 0, 0, 0, 0, 0, 0, 0, 0, 0, 0, 0, 0, 0, 0, 0, 0, 0, 0, 0, 0, 0, 0, 0, 0, 0, 0, 0, 0, 0, 0, 0, 0, 0, 0, 0, 0, 0, 0, 0, 0, 0};


/* Layer 15 Learned Parameters */
#define CONV15_BIAS \
 {5288, -19013, -3502, -50164, -22707, 39144, -34391, -1153, 47412, 22485, -2841, 45122, -25813, -7921, 50836, -7132, 31955, 24276, 38849, 8114, 15797, -40367, 12322, -10171, 19940, -807, 44556, 40825, 50717, 6038, -33262, 3846, 2777, 43116, 23976, 12066, -12234, -1687, 6587, 3515, -39675, 71549, 42485, -13891, 32137, -29, 63570, 14141, 9175, 17712, 49932, 19592, 1603, 16558, -11711, 9969, 1110, 34507, 49891, 381, -10402, 62532, 4509, -32686, 10858, 12505, 37221, -8079, -8469, 17068, 8143, 78787, -16493, 10293, 54473, 36864, 19279, 52312, -5384, 50001, 15683, -13030, 87591, 26917, 7674, 95414, 90578, 45759, 68751, 4800, 19602, -19353, 8462, 44989, 68353, 6946, 40196, 40546, 33752, -20406, 26798, 3531, -26328, 58920, 50749, 65271, 93798, 24302, -2015, 26115, 51962, 6511, 2186, 2784, -1262, 14277, 1112, -13679, 52480, 58805, 51296, -2621, 29765, -6351, -2417, -11722, -65976, 8974}
#define CONV15_WT {0}
static const uint8_t CONV15_W_Z[] = 	 {-91, -135, -81, -100, -111, -122, -133, -98, -94, -102, -153, -124, -101, -153, -150, -95, -210, -161, -156, -137, -185, -135, -167, -133, -197, -127, -132, -130, -124, -123, -104, -146, -98, -134, -141, -125, -115, -107, -136, -98, -118, -101, -101, -24, -110, -141, -89, -77, -191, -141, -100, -134, -125, -75, -151, -110, -183, -95, -130, -146, -115, -167, -147, -121, -141, -119, -138, -138, -86, -149, -104, -145, -167, -95, -100, -40, -146, -116, -132, -131, -106, -116, -129, -123, -149, -110, -172, -123, -141, -159, -129, -79, -123, -146, -166, -122, -134, -107, -94, -138, -161, -79, -91, -150, -135, -141, -154, -119, -136, -158, -123, -214, -117, -149, -148, -123, -190, -136, -169, -125, -103, -157, -132, -105, -131, -155, -82, -70};
#define CONV15_IN_Z      	(0)
#define CONV15_OUT_Z     	(0)
static const int32_t CONV15_M_ZERO[] = 	 {1686017408, 1299455232, 1141628800, 1923176192, 1993448064, 1108183552, 1397981824, 1278213120, 1895975680, 1174677888, 1874652288, 1175192192, 1712321792, 1988557184, 1171194880, 1146410880, 1695888384, 1271703424, 1505835392, 1449441408, 1330050944, 1944002688, 1971042944, 1187059072, 1362017664, 1547283200, 1695753984, 1411690496, 1306452224, 1258447104, 1097209088, 1163649024, 1102092928, 1547281920, 1380718080, 1472947456, 1920333952, 1208204032, 2144943488, 1576469632, 2108931328, 1274705408, 2010075136, 1324677632, 1418088064, 2028795904, 1353248384, 1263503872, 1711475968, 1876025600, 2041188736, 1724374784, 1197521536, 1583647104, 1083293312, 1844781440, 1384117888, 1086695552, 1392836736, 2064931712, 1988734848, 2026771840, 1294679424, 2122073856, 2054465536, 2122355968, 1521548928, 1334665984, 1447599104, 1878670208, 1153944832, 1710842624, 1523631360, 1854667008, 1793296128, 1530438656, 1325875968, 1703953280, 1699914240, 1457634944, 1110884480, 1914602752, 1786207488, 1658902272, 1096646784, 1756068224, 1274411264, 1706462336, 1703314432, 1811685632, 1706606848, 1122315776, 1640523136, 1584021632, 1287806464, 1314480256, 1925881600, 1962641280, 1718296832, 1455048320, 1733912064, 1989037824, 1144034816, 1943657600, 1757522816, 1221935616, 1713121280, 1537237760, 2122316288, 1519709824, 1212155264, 1369754368, 1404574720, 1171975040, 1090297472, 1323615616, 1631431040, 1419151616, 1179773440, 1463693440, 1659243776, 1205558912, 1604435200, 1273746560, 2102552576, 1622533120, 1859922944, 1771904128};
static const int8_t CONV15_N_ZERO[] = 	 {0, 0, 0, 0, 0, 0, 0, 0, 0, 0, 0, 0, 0, 0, 0, 0, 0, 0, 0, 0, 0, 0, 0, 0, 0, 0, 0, 0, 0, 0, 0, 0, 0, 0, 0, 0, 0, 0, 0, 0, 0, 0, 0, 0, 0, 0, 0, 0, 0, 0, 0, 0, 0, 0, 0, 0, 0, 0, 0, 0, 0, 0, 0, 0, 0, 0, 0, 0, 0, 0, 0, 0, 0, 0, 0, 0, 0, 0, 0, 0, 0, 0, 0, 0, 0, 0, 0, 0, 0, 0, 0, 0, 0, 0, 0, 0, 0, 0, 0, 0, 0, 0, 0, 0, 0, 0, 0, 0, 0, 0, 0, 0, 0, 0, 0, 0, 0, 0, 0, 0, 0, 0, 0, 0, 0, 0, 0, 0};


/* Layer 16 Learned Parameters */
#define CONV16_BIAS \
 {5496, -8110, 35046, 1624, -21036, 19635, -10866, 243, 23387, -21765, 16281, 48364, -36009, 15915, 32017, -45631, 43693, -7807, -5174, 76644, 4727, -3564, 8161, 164510, 775, -1308, -18855, -9648, 28725, -11723, 9242, -4985, 377883, 1258, -50403, 39313, -15513, 3631, -8665, -9261, -21927, 1325, 24661, 19075, 79465, -4942, 38898, 356, -35368, -2797, 3195, -4484, -1984, -2773, -3, -11411, 64356, 9888, 33450, 145, 6299, 36453, -38796, -10264, -4354, -11652, 1471, -1829, 8746, -510, -5620, -6569, 51737, -5935, -10196, 15415, 19045, -14115, -34, -9181, -8258, 63850, 6087, 82464, -2864, 50042, -8866, 273041, 2236, -17963, 86310, -26388, -29599, 2212, 131, 87, 29162, 38319, 7470, -6657, 25669, 156289, 91646, -8547, 15619, 85, 842, -2959, -5498, 19817, 69703, 48745, -2486, -11168, -2025, 55027, 1581, -2071, -5300, 82341, 9602, -41776, -34, -65, 222, 4299, 37388, 74500}
#define CONV16_WT {0}
static const uint8_t CONV16_W_Z[] = 	 {-129, 0, -229, 10, -10, -123, -59, -116, -228, 13, -42, -246, 39, -146, -246, 11, -263, -82, -121, -349, -69, -114, -104, -253, -81, -89, 0, -55, -259, 10, -117, -16, -569, -94, 45, -255, 50, -21, -7, -7, 15, -63, -204, -96, -325, -114, -234, -33, 2, 19, -106, 7, -15, -73, -17, 2, -114, -32, -251, -34, 42, -241, 22, -18, 3, 3, -90, -15, -91, 4, -26, -77, -251, -3, -69, -226, -63, 4, -66, -40, -4, -231, -38, -311, -33, -247, -62, -431, -29, -32, -256, 4, 21, 61, -99, -90, -269, -165, -50, 2, -95, -287, -352, -65, -45, -109, -95, -52, -16, -142, -222, -106, -133, 22, -11, -310, -58, -16, -39, -288, -112, 19, -23, 7, 0, -56, -143, -321};
#define CONV16_IN_Z      	(0)
#define CONV16_OUT_Z     	(0)
static const int32_t CONV16_M_ZERO[] = 	 {1485302400, 1784462336, 1130224640, 1601208960, 1719641088, 1559457280, 1326732928, 1119402368, 1247980800, 1375739520, 1337440640, 1786929408, 1680869120, 2133125376, 2073916672, 1229660160, 1435276800, 1083305728, 1408830592, 1129881728, 1487144064, 1182792320, 1243392896, 1739047808, 1457044608, 1634467200, 1631187072, 2019057920, 1223534464, 1678880256, 1240491008, 1899285120, 1658120576, 1154008448, 1961933824, 1756016384, 1158647424, 1512076928, 1974460160, 1162360320, 2006436864, 1851389440, 1160184320, 1457269632, 1281126912, 1484474496, 1829470976, 1385998848, 1479177472, 1286546432, 1196219008, 1466256384, 2092203392, 1846868864, 2084774528, 1092868608, 1837384320, 1417483136, 1501407872, 1818050688, 1933688960, 1252130944, 1423672832, 1359051136, 1748907136, 1664341248, 1109069824, 1875785600, 1435426176, 1261593984, 1134560512, 1571151232, 1781909120, 1279983744, 1822176128, 1374548608, 1778230144, 1767686272, 1448348800, 1473868800, 1175867520, 2010585856, 1366649856, 2027405952, 1341614592, 1735621504, 1540939776, 1589018368, 1285485184, 1188666624, 1233397376, 1438580224, 1234501760, 1166400256, 1863304192, 1382300672, 1760687872, 1990167168, 1394142848, 1342239360, 1116283008, 1811960320, 1721052160, 1269504768, 1558368128, 1659928448, 1155267072, 1272112000, 1444624256, 1530526464, 1740966144, 1511218432, 1388873856, 1410831744, 1969719552, 1288523136, 1505462912, 1911341440, 1589009664, 1099366912, 1254430208, 1337247488, 1569259264, 2032861824, 1189002112, 1160631424, 1233459840, 2000958464};
static const int8_t CONV16_N_ZERO[] = 	 {0, 0, 0, 0, 0, 0, 0, 0, 0, 0, 0, 0, 0, 0, 0, 0, 0, 0, 0, 0, 0, 0, 0, 0, 0, 0, 0, 0, 0, 0, 0, 0, 0, 0, 0, 0, 0, 0, 0, 0, 0, 0, 0, 0, 0, 0, 0, 0, 0, 0, 0, 0, 0, 0, 0, 0, 0, 0, 0, 0, 0, 0, 0, 0, 0, 0, 0, 0, 0, 0, 0, 0, 0, 0, 0, 0, 0, 0, 0, 0, 0, 0, 0, 0, 0, 0, 0, 0, 0, 0, 0, 0, 0, 0, 0, 0, 0, 0, 0, 0, 0, 0, 0, 0, 0, 0, 0, 0, 0, 0, 0, 0, 0, 0, 0, 0, 0, 0, 0, 0, 0, 0, 0, 0, 0, 0, 0, 0};


/* Layer 17 Learned Parameters */
#define CONV17_BIAS \
 {-11506, -1919, 79426, 43747, 25710, 22153, 50782, 73429, 51626, 57803, -12066, 6392, -25281, 50995, -10768, 50477, 41844, 11430, 9479, 54412, -26589, 26187, 17121, -23431, 15353, -47700, -2237, 49089, -7097, 43737, 17043, -35224, 32601, 37948, -13341, 33966, -6421, 30942, 61718, 11098, -5848, -32008, 32835, 51334, -14253, -23746, 5503, 55779, 22947, 18310, 10373, 72488, -8729, 67939, -52446, 5012, 7962, -9142, 16096, 35471, -13380, 510, 40361, 22674, -2483, -43205, -7267, 23587, 34109, 123407, -44207, -57916, 9501, 6828, 24120, 1713, 26835, 15076, -14010, 148999, 18566, -12363, -17514, 44448, 8548, -39022, -65822, 5236, -24050, 43010, 74047, 24124, 17420, -2851, 2369, 33990, 59419, 3670, -30947, 25087, -7822, -63751, 19340, 6188, -34950, 66125, 22588, 40446, 100401, 52769, 2723, -9129, 44793, 50251, -25466, 12938, -42607, 56263, -11933, 13476, 13576, 24842, 53189, 18019, 29933, -16356, 3966, 48231}
#define CONV17_WT {0}
static const uint8_t CONV17_W_Z[] = 	 {-85, -146, -161, -125, -79, -116, -123, -178, -190, -103, -39, -107, -151, -149, -116, -183, -130, -146, -59, -177, -113, -117, -100, -110, -82, -81, -140, -88, -164, -124, -99, -77, -117, -122, -98, -87, -133, -142, -164, -108, -139, -120, -111, -122, -143, -126, -146, -113, -118, -123, -155, -145, -93, -157, -87, -130, -128, -109, -112, -101, -119, -144, -108, -103, -140, -111, -131, -110, -122, -154, -106, -103, -121, -96, -185, -151, -129, -108, -145, -153, -122, -98, -139, -136, -106, -138, -112, -139, -132, -109, -116, -134, -129, -114, -105, -92, -124, -135, -114, -138, -118, -107, -144, -134, -110, -117, -141, -128, -133, -107, -116, -82, -116, -107, -115, -109, -156, -112, -111, -117, -97, -152, -166, -116, -187, -144, -120, -116};
#define CONV17_IN_Z      	(0)
#define CONV17_OUT_Z     	(0)
static const int32_t CONV17_M_ZERO[] = 	 {1203970816, 1323948416, 1171921920, 1950350208, 1220131968, 1859885952, 1742132608, 1203842304, 1134782464, 1559613440, 1795252736, 1111948544, 1632254720, 1125642752, 2091796096, 1395361536, 1565842560, 1081994624, 1768106752, 1719950592, 1615374976, 1279526016, 1911661312, 1849646976, 1530445184, 1517919232, 1134327680, 1189994240, 1639926144, 1199625984, 1177953792, 2140345984, 1667709056, 1100319104, 2138258432, 2055996032, 2030364032, 1244240000, 1097019008, 1248159232, 1300249728, 1922640128, 1724549760, 1178195712, 2115195904, 1548007168, 1427991040, 1236063360, 1460972672, 1498342272, 1732336128, 2071824128, 1407850240, 1957926272, 1161010816, 1238152704, 1892201600, 1107607296, 1957174912, 1549433856, 1102132864, 1790184448, 1442515968, 1611353984, 1519910656, 1877704064, 1231472768, 1215421824, 1232344704, 1117091456, 1888662784, 1220875648, 1844789888, 1333437440, 1612753024, 1178168064, 1550237568, 1971015296, 1193676800, 1826507264, 1444291072, 1147104768, 1406065792, 1859893120, 1322412288, 1726990080, 2028064768, 1548464128, 1892597888, 1099761152, 1660736000, 2045561472, 1359945088, 1137281152, 2105764352, 1772449792, 1184111872, 2089370752, 1143238656, 1182264320, 1987988992, 1730675200, 1565179136, 1896852608, 1491488384, 1376914944, 1354722048, 1263400960, 1415467520, 1209291264, 1813639168, 1871116032, 1488906112, 1507527040, 1649870720, 2034297472, 2124836992, 1610728320, 1286801792, 1180111104, 1140354048, 1624961920, 1260076928, 1132948992, 1397493888, 1804382720, 1866659328, 1866041600};
static const int8_t CONV17_N_ZERO[] = 	 {0, 0, 0, 0, 0, 0, 0, 0, 0, 0, 0, 0, 0, 0, 0, 0, 0, 0, 0, 0, 0, 0, 0, 0, 0, 0, 0, 0, 0, 0, 0, 0, 0, 0, 0, 0, 0, 0, 0, 0, 0, 0, 0, 0, 0, 0, 0, 0, 0, 0, 0, 0, 0, 0, 0, 0, 0, 0, 0, 0, 0, 0, 0, 0, 0, 0, 0, 0, 0, 0, 0, 0, 0, 0, 0, 0, 0, 0, 0, 0, 0, 0, 0, 0, 0, 0, 0, 0, 0, 0, 0, 0, 0, 0, 0, 0, 0, 0, 0, 0, 0, 0, 0, 0, 0, 0, 0, 0, 0, 0, 0, 0, 0, 0, 0, 0, 0, 0, 0, 0, 0, 0, 0, 0, 0, 0, 0, 0};


/* Layer 18 Learned Parameters */
#define CONV18_BIAS \
 {-4883, -5610, 53059, 43842, 9323, 21544, 38705, -32564, 7473, 57492, 838, -2995, -11685, 29123, 1405, 1558, 30896, 38734, 48636, -707, 77710, 41766, -8905, -4336, 34725, 253, 668, 3369, -24233, 95760, 179371, 10317, 105, -3332, 69575, 56450, 14514, 11314, -6008, 40438, -7800, -38330, -71214, -6016, -1181, 97622, 66973, 41095, 48243, -18901, -10693, 22725, 3136, -23884, 149, -1429, -10138, -1220, -4421, 3972, -18324, -2954, 55559, -3501, -17935, 1173, -1887, -13203, -451, 6463, -5940, -7243, -6584, 148108, 26157, 105149, 55762, 22828, -2591, 18255, 17396, 762, -11937, -11470, -81, 173359, -146, 49959, -6416, 68973, -885, 42985, 29481, -42311, -3206, 28207, -10026, -384, -1192, 17593, -6088, -13211, 4048, 4772, 55933, 6960, 959, 31085, 4163, 2687, 275, -1649, 29923, -3277, -14580, 3448, -26815, 32557, 34762, 93038, 12495, 71683, -16727, 179, 32372, 86861, -13452, 123896}
#define CONV18_WT {0}
static const uint8_t CONV18_W_Z[] = 	 {-44, -73, -193, -304, -37, -135, -257, 17, -205, -304, -105, -94, -136, -242, -99, -108, -149, -27, -256, -98, -579, -50, 17, -14, -124, -25, -18, -30, -39, -256, -438, -87, -93, -117, -217, -221, -36, -38, -129, -117, -149, 18, -9, -27, -110, -338, -312, -257, -163, 3, -21, -219, 243, 11, -47, -94, 36, -2, -13, -167, -9, -88, -274, -45, -43, -82, -71, -11, -140, -33, -61, 5, -161, -322, -72, -265, -249, -139, 1, -223, -162, -55, 2, -3, -13, -323, -9, -170, -10, -298, -101, -267, -111, -15, -32, -248, -17, -1, -31, -180, -6, 74, -37, -37, -283, -138, -87, -144, -18, -27, -94, -29, -149, -25, 15, -84, 2, -240, -128, -272, -44, -293, -13, -9, -105, -483, -30, -379};
#define CONV18_IN_Z      	(0)
#define CONV18_OUT_Z     	(0)
static const int32_t CONV18_M_ZERO[] = 	 {1638167680, 1346020864, 2048285696, 1483552256, 1167385216, 1546650112, 1712422400, 1924080640, 1866218368, 1547774976, 1105216768, 1628714880, 1207019392, 1139584256, 1992002944, 1310415104, 1106927872, 1664179328, 1809543680, 1152500096, 1424569472, 1360336640, 1643159552, 1126191232, 1455446272, 1273258880, 1125475072, 1820863232, 1089356800, 1748804352, 1625170176, 1432753664, 1191259904, 1172250752, 1440855936, 1887870976, 2112389120, 1782641152, 2089648000, 1654579968, 1120728704, 1117304064, 1714889600, 1236947328, 1386253696, 2026409728, 1381781248, 1186923136, 1608416384, 1476027008, 1590417664, 2067411584, 1146200192, 1791823360, 1653156480, 1688524160, 1107020800, 1463070336, 1833209472, 2028886400, 2118512000, 1837792256, 1306572288, 1864984320, 1846163328, 2146279936, 1335008512, 1685548800, 1569076864, 1248705536, 1987801472, 1694229248, 1648186496, 1804410880, 1637584640, 1823925120, 1486406912, 1757874304, 1538754944, 1835280640, 1933014016, 1466343936, 1506833408, 1162251136, 1106868224, 1934628736, 1383023616, 1391534848, 1509038720, 1108430976, 1845948800, 1912332800, 1967922432, 1229603712, 1305090688, 1701601664, 1963245952, 1687529216, 1316356480, 1907526656, 1960103424, 2089295104, 2047167744, 1574138112, 2036098432, 1257613824, 1825865984, 2054400384, 1175308288, 1507394432, 1818483584, 1920646784, 1687133696, 1314919168, 1553114368, 1299933568, 1283956992, 1284215424, 1777322240, 1558861440, 2072246528, 1711629568, 1497740416, 1432577408, 1983571840, 1785891200, 1214090112, 1422243328};
static const int8_t CONV18_N_ZERO[] = 	 {0, 0, 0, 0, 0, 0, 0, 0, 0, 0, 0, 0, 0, 0, 0, 0, 0, 0, 0, 0, 0, 0, 0, 0, 0, 0, 0, 0, 0, 0, 0, 0, 0, 0, 0, 0, 0, 0, 0, 0, 0, 0, 0, 0, 0, 0, 0, 0, 0, 0, 0, 0, 0, 0, 0, 0, 0, 0, 0, 0, 0, 0, 0, 0, 0, 0, 0, 0, 0, 0, 0, 0, 0, 0, 0, 0, 0, 0, 0, 0, 0, 0, 0, 0, 0, 0, 0, 0, 0, 0, 0, 0, 0, 0, 0, 0, 0, 0, 0, 0, 0, 0, 0, 0, 0, 0, 0, 0, 0, 0, 0, 0, 0, 0, 0, 0, 0, 0, 0, 0, 0, 0, 0, 0, 0, 0, 0, 0};


/* Layer 19 Learned Parameters */
#define CONV19_BIAS \
 {19179, 27190, 13757, 36845, 49733, -27033, 2429, -28516, -9930, 27182, 12980, 15144, -23728, 23955, 21957, -25015, 675, 5250, 1338, -5645, 50409, 24046, -28893, 11802, 2338, -61842, 16693, 30031, 19578, 22146, 33621, 32842, -3625, 23941, -1359, 78989, 33763, 9766, -66161, 47894, -4729, 35319, -23667, 35590, -69036, -4200, 6503, 36817, 38098, 49775, 17083, -1266, -33604, 103, 17507, -26791, 52460, 39617, 16887, 72336, -22181, -10376, -3703, -7934, 33876, 63715, -9183, 36715, -10130, 11073, 50354, 33707, -28363, 1504, -18453, 13774, 22865, -1287, 73119, 34874, -4706, 8174, 17983, 42390, -18876, 51544, 30589, -18031, 97655, 2678, 59505, 4060, -43467, -19871, 35770, 25364, 1615, 30320, 2180, 27944, -63338, 60726, 19432, 527, 28941, -17463, 24946, 42911, -9281, 3882, -13564, 6950, 10166, -10857, 50426, -2817, -34383, 12823, 28974, -22384, -36097, 12846, 13017, 17578, 22269, 15693, 11683, 59694}
#define CONV19_WT {0}
static const uint8_t CONV19_W_Z[] = 	 {-105, -119, -119, -124, -129, -133, -91, -112, -138, -130, -127, -109, -141, -100, -126, -121, -123, -78, -125, -116, -122, -75, -104, -142, -128, -92, -145, -121, -107, -130, -91, -120, -116, -101, -154, -148, -157, -81, -114, -148, -145, -138, -120, -136, -141, -163, -119, -120, -117, -131, -106, -125, -122, -134, -98, -103, -146, -132, -105, -120, -124, -110, -94, -125, -105, -186, -157, -121, -143, -105, -143, -198, -104, -130, -135, -96, -122, -134, -147, -125, -108, -184, -96, -100, -95, -131, -111, -132, -145, -120, -142, -76, -132, -97, -108, -143, -145, -143, -110, -142, -112, -125, -108, -127, -137, -99, -74, -126, -127, -133, -138, -156, -136, -111, -156, -158, -106, -132, -125, -108, -114, -111, -115, -141, -138, -128, -90, -143};
#define CONV19_IN_Z      	(0)
#define CONV19_OUT_Z     	(0)
static const int32_t CONV19_M_ZERO[] = 	 {1631343104, 1347398144, 1626478464, 2099848320, 1750990080, 1642375808, 1550756096, 1154538624, 1479393152, 1078500352, 1183799552, 1267336832, 1232538752, 2020644096, 1276711040, 1981088512, 1198319616, 1118241024, 1277356416, 1175047680, 1282797440, 1856762496, 1432284416, 1613486848, 1337850752, 1527953408, 1191614592, 2125047168, 2111501696, 1539164672, 1164584448, 1657495808, 1273577216, 2080619648, 1883440896, 1387756544, 1513264256, 1547509248, 1435526528, 1756346112, 1287379200, 1078574592, 1751723136, 1349932288, 1104710912, 1693518720, 1328206848, 1291538432, 1341414912, 1663276160, 1420201728, 1601717632, 1665664000, 1195058176, 1999179392, 1950523520, 1687943936, 1717537664, 1241507456, 1852321920, 1551729664, 1999589120, 2054808064, 1633069568, 1149139200, 1174458496, 1642762240, 1506408320, 1119085312, 1095516672, 1821817600, 1259057920, 1810950912, 1680565248, 1173664512, 2033512704, 1283026816, 1150747648, 1355979776, 2104551808, 2021493248, 1625952640, 1404675712, 1612853760, 1206422144, 1923667072, 1968793856, 1657075072, 1741166976, 2031580672, 1484583936, 1191543808, 1184094720, 1820324096, 1238537472, 1784002432, 1369768192, 2125315840, 2132704896, 1917977216, 1209395712, 1372861568, 1920526336, 1769471104, 2085498496, 1121022208, 1201236608, 1451114240, 2011277696, 1185682560, 1251761792, 1083589632, 1734382336, 1685643904, 1607300736, 1714241920, 1967906944, 1272683776, 1692728064, 1156990464, 2104907648, 1791971840, 1727232128, 1186242688, 1255115264, 1428318208, 1121010560, 1251585280};
static const int8_t CONV19_N_ZERO[] = 	 {0, 0, 0, 0, 0, 0, 0, 0, 0, 0, 0, 0, 0, 0, 0, 0, 0, 0, 0, 0, 0, 0, 0, 0, 0, 0, 0, 0, 0, 0, 0, 0, 0, 0, 0, 0, 0, 0, 0, 0, 0, 0, 0, 0, 0, 0, 0, 0, 0, 0, 0, 0, 0, 0, 0, 0, 0, 0, 0, 0, 0, 0, 0, 0, 0, 0, 0, 0, 0, 0, 0, 0, 0, 0, 0, 0, 0, 0, 0, 0, 0, 0, 0, 0, 0, 0, 0, 0, 0, 0, 0, 0, 0, 0, 0, 0, 0, 0, 0, 0, 0, 0, 0, 0, 0, 0, 0, 0, 0, 0, 0, 0, 0, 0, 0, 0, 0, 0, 0, 0, 0, 0, 0, 0, 0, 0, 0, 0};


/* Layer 20 Learned Parameters */
#define CONV20_BIAS \
 {7005, -8471, -4703, 7576, -7039, -3, -2867, -4066, 244891, -14696, 65225, 214263, -10177, 4898, 54797, 38157, -87057, -1164, -54869, 67859, 34599, 1220, -1211, 153, 69959, 1215, -5292, 143053, 1311, 1944, 22625, 43305, 51591, -2485, 28393, 41765, 49332, 6965, 95, 87977, 221786, -6989, -9032, 40130, -8212, -16565, -5680, 16282, 85548, 74343, 7459, 8643, -8752, 109818, -18583, 211605, -23619, 54995, 86722, 9169, 6330, -3220, 54358, 1443, 45798, 3180, 50868, 5, -8682, -7386, -4498, 20159, 112998, -2715, -411, 27881, 4922, -16414, 27393, -2628, -4241, -17668, -18319, 87429, 155063, 114299, 68728, -22522, 2331, -4008, 28695, -14171, 720, -4608, 92275, 86461, 16291, 18067, -12260, 52179, -5262, 22894, 88402, 54237, 548, -4683, -8981, 43956, 75022, -3007, -29935, -52742, 433, 47481, 35073, 59538, 115834, 67774, 33749, 142381, -2750, 64333, -1006, 152086, 29802, -1231, -4377, -2211}
#define CONV20_WT {0}
static const uint8_t CONV20_W_Z[] = 	 {-20, -41, -8, -30, -64, -48, -90, -7, -451, -61, -242, -669, -2, -50, -359, -205, 131, -97, 143, -268, -247, -35, -103, -17, -250, 17, -116, -304, -128, -36, -246, -265, -233, -20, -96, -271, -369, -16, -56, -346, -496, -137, -56, -210, -45, -11, 6, -116, -297, -350, -184, -27, -6, -276, 2, -382, 12, -253, -332, -32, 10, -171, -304, -68, -122, -20, -197, -74, -50, -40, -17, -103, -264, -31, -11, -162, -189, 10, -221, -114, -12, -67, 7, -293, -815, -269, -290, -6, -12, -5, -55, 0, -9, -16, -270, -289, -44, -29, 3, -141, -8, -245, -245, -119, 4, -126, -9, -268, -267, -191, -41, 38, 32, -271, -186, -260, -271, -241, -205, -359, -44, -247, 0, -329, -97, -121, -9, 3};
#define CONV20_IN_Z      	(0)
#define CONV20_OUT_Z     	(0)
static const int32_t CONV20_M_ZERO[] = 	 {1144365184, 1263301120, 1886831488, 1085893120, 1154379520, 1482718976, 1381975296, 2069226112, 1789855488, 1312305792, 1241581184, 1236329984, 1241604864, 1455703552, 1171085312, 1420957440, 2005181440, 1215963008, 1252222336, 1507269504, 1116731264, 1709872768, 1196877824, 1436031232, 1710618496, 1638735616, 1563739136, 2070548352, 1616785664, 1102324096, 1447558016, 1255681664, 1623766400, 1204542720, 1108218880, 1449342208, 2031505920, 2136481792, 1208989312, 2088534784, 1405226880, 1676383616, 1263774848, 1861346048, 1099149696, 1760493440, 1135563520, 1239433088, 1581214208, 1677639040, 1574616960, 1350214016, 1090169728, 1499579776, 1658315520, 1326996992, 1153134848, 1383653376, 1825634688, 2111683584, 1393244416, 1147416448, 1243058944, 1174665600, 1558811648, 1272359040, 1290468480, 2004400000, 1206500864, 2111197696, 1756220160, 1963988992, 1528414976, 1101038080, 1508363904, 1444728832, 1204366080, 2086705024, 1169051264, 1402150528, 1399202688, 2083393152, 1837027840, 1434077312, 1391917952, 1841717760, 2084448384, 1094531328, 1750246912, 2098558464, 1553164800, 1804512896, 1293371776, 1819410944, 1422225664, 1349005312, 1969778816, 1175504256, 1096293120, 1642470912, 1588416256, 2040196480, 1109463424, 1311017088, 1717870720, 1783742592, 1300653952, 1417325568, 1335530880, 1561130240, 1763353856, 1249330304, 1306490880, 1912242944, 1892745472, 1655746816, 1926499328, 1651123840, 1719076480, 1148128512, 1528133248, 1253895296, 1151477760, 1080043392, 1272775552, 1095018752, 1457076224, 1941399936};
static const int8_t CONV20_N_ZERO[] = 	 {0, 0, 0, 0, 0, 0, 0, 0, 0, 0, 0, 0, 0, 0, 0, 0, 0, 0, 0, 0, 0, 0, 0, 0, 0, 0, 0, 0, 0, 0, 0, 0, 0, 0, 0, 0, 0, 0, 0, 0, 0, 0, 0, 0, 0, 0, 0, 0, 0, 0, 0, 0, 0, 0, 0, 0, 0, 0, 0, 0, 0, 0, 0, 0, 0, 0, 0, 0, 0, 0, 0, 0, 0, 0, 0, 0, 0, 0, 0, 0, 0, 0, 0, 0, 0, 0, 0, 0, 0, 0, 0, 0, 0, 0, 0, 0, 0, 0, 0, 0, 0, 0, 0, 0, 0, 0, 0, 0, 0, 0, 0, 0, 0, 0, 0, 0, 0, 0, 0, 0, 0, 0, 0, 0, 0, 0, 0, 0};


/* Layer 21 Learned Parameters */
#define CONV21_BIAS \
 {30907, 3309, 35619, 32963, 14129, 14262, 5421, 11655, -8845, 162, 5870, 58480, -233, 4037, -3461, -18453, -16163, -2412, 21269, 19497, -119490, 23154, 18468, 63226, 53089, -16156, -9983, -62270, 18235, -2471, 9602, -44232, -73088, -29175, -36497, -42767, 23188, -23377, -61227, 64008, -32132, -8854, 18060, 1038, -7250, 70220, 21518, 8011, 1332, 49935, 15890, 44954, -31923, -19877, -80433, 36915, 18077, -21712, 79401, 9026, -26633, 12448, 3434, 199577, 4228, 88522, 7525, 6857, 8120, 78136, 40709, 19220, -19484, 107504, -7115, -8390, 21299, -4832, -11835, 16774, -33148, -35078, 19647, 28349, 20292, -930, -19943, -29171, -34614, 5536, -5107, -44771, -55044, -31896, -47738, 13327, -2455, -58019, -50961, 40668, 5145, -74456, -5514, 47457, -52576, 45492, 19053, -21153, -9967, 13442, -52541, -20700, -3912, -489, -25160, 29993, 39343, 39099, 43303, -20728, 44966, 8297, 38290, 21349, -74719, -84725, 88871, 52589}
#define CONV21_WT {0}
static const uint8_t CONV21_W_Z[] = 	 {-132, -128, -134, -133, -100, -85, -111, -78, -148, -142, -116, -166, -96, -140, -133, -131, -174, -105, -138, -120, -102, -123, -145, -148, -117, -104, -88, -81, -136, -111, -106, -120, -79, -97, -125, -113, -119, -110, -132, -105, -120, -137, -135, -75, -101, -151, -104, -127, -118, -128, -157, -163, -119, -97, -124, -159, -118, -111, -133, -116, -144, -102, -116, -107, -114, -140, -137, -112, -125, -128, -121, -119, -115, -129, -114, -161, -96, -157, -101, -142, -142, -88, -123, -107, -120, -140, -140, -124, -118, -118, -181, -122, -161, -118, -133, -132, -140, -112, -91, -107, -111, -137, -134, -126, -115, -99, -148, -84, -132, -128, -107, -99, -149, -88, -121, -133, -147, -128, -138, -146, -109, -135, -121, -115, -97, -109, -90, -112};
#define CONV21_IN_Z      	(0)
#define CONV21_OUT_Z     	(0)
static const int32_t CONV21_M_ZERO[] = 	 {1643412608, 1688897792, 1907670912, 1114861568, 1585823488, 2052774912, 1205068160, 1579553536, 1751333376, 2010218368, 1933066880, 1802946048, 1387319296, 2056597888, 1378239232, 2115874176, 1983937664, 2084669312, 2084421504, 1986325120, 1877766016, 2033368192, 1886131200, 1443918336, 1713822592, 2083271296, 1522385920, 1171510656, 2040951552, 1222294016, 1293641984, 1215675264, 2072520064, 1170239744, 1486083584, 2003915392, 1663416192, 2000311168, 1839312896, 1278464128, 1150856192, 1840582016, 1347092224, 1530961024, 1708254720, 1658378496, 1106401408, 1599088128, 1994228352, 1395173760, 2116688384, 1774353536, 1604500480, 1337878528, 1820512000, 1299893632, 2045814912, 1821521536, 1379741184, 1695001472, 2036392192, 1100548992, 1791162880, 1732171904, 1451365376, 2035441152, 1564823808, 1435938688, 1480402560, 1623822208, 2017838592, 1452179840, 1416069632, 1946914048, 1974043776, 1641998208, 1483370624, 1966352128, 1371068672, 1410245888, 1085735424, 1583297536, 1495322368, 1212036736, 2042945408, 1526108288, 1293293056, 1467586432, 1878333696, 1557382656, 2095162880, 1697148800, 1914312320, 1784831616, 1432645376, 1934782976, 1139720448, 1658160896, 1895829248, 1159975040, 1728152448, 1123090944, 2064884864, 1579792000, 1794928128, 1630416512, 2053528320, 1771751296, 2049346816, 1678441856, 1458983552, 1245138048, 1526130176, 1647064704, 1094542720, 1282429312, 1696210560, 1532231296, 1281356672, 2026042240, 1592404480, 1911119744, 1341134976, 1943913728, 1084145408, 2054853248, 1271500928, 1216641152};
static const int8_t CONV21_N_ZERO[] = 	 {0, 0, 0, 0, 0, 0, 0, 0, 0, 0, 0, 0, 0, 0, 0, 0, 0, 0, 0, 0, 0, 0, 0, 0, 0, 0, 0, 0, 0, 0, 0, 0, 0, 0, 0, 0, 0, 0, 0, 0, 0, 0, 0, 0, 0, 0, 0, 0, 0, 0, 0, 0, 0, 0, 0, 0, 0, 0, 0, 0, 0, 0, 0, 0, 0, 0, 0, 0, 0, 0, 0, 0, 0, 0, 0, 0, 0, 0, 0, 0, 0, 0, 0, 0, 0, 0, 0, 0, 0, 0, 0, 0, 0, 0, 0, 0, 0, 0, 0, 0, 0, 0, 0, 0, 0, 0, 0, 0, 0, 0, 0, 0, 0, 0, 0, 0, 0, 0, 0, 0, 0, 0, 0, 0, 0, 0, 0, 0};


/* Layer 22 Learned Parameters */
#define CONV22_BIAS \
 {-24054, 147521, -274, 3350, 60960, 6186, -997, -1101, 104899, 118, -55252, -4248, 57956, 5557, -235, 56479, -5255, -2005, -14406, 148496, -7522, 33701, -15621, 36387, 463, -8749, 143941, 193701, 2840, 621, -1271, -7135, 135863, -1025, 30, 92602, -424, -20975, -224, 24226, 111164, -1447, 116727, -4500, 100508, 22744, 6947, -4776, -4404, 53706, 166421, 26080, -15902, 45936, 39049, 80319, 34333, 121997, 92147, -673, -602, 150641, 70238, -36513, -1414, 60485, 11637, 69454, 97535, 287797, 3616, 115486, 248, 142521, -7737, -14528, -9309, -1899, -26904, -25558, 181229, 139540, -38685, 75189, -12693, -2205, 121412, -541, 143670, 198, -17907, 105217, 756, -1438, 58, -5167, -4664, -21472, 110045, -2832, 94780, 131649, 3598, 52602, -4001, 32809, 124695, 18, -9385, -9675, 94194, 115321, -288, -870, 145143, 259154, 47606, -82, -9981, 144732, -8451, -206, 35042, -3978, -17391, -7625, 23128, 27041}
#define CONV22_WT {0}
static const uint8_t CONV22_W_Z[] = 	 {-67, -405, -20, -24, -230, -146, -19, -169, -274, -107, 70, -15, -424, -154, 8, -118, -122, 25, -23, -338, 21, -156, -15, -233, -47, 8, -437, -571, -29, -82, -25, -57, -303, 39, -34, -295, -19, -22, 73, -224, -372, -25, -240, -7, -265, -233, -173, 35, -8, -280, -336, -59, 18, -113, -140, -84, -127, -293, -260, -128, 26, -356, -246, -53, -135, -290, -56, -257, -228, -397, -44, -386, 143, -315, -24, -76, -54, -29, -52, 13, -322, -308, 4, -237, -11, -8, -355, -66, -282, -51, -113, -252, 172, -15, -99, 89, 20, -32, -275, 75, -276, -296, -27, -294, -52, -243, -395, -133, -7, 22, -309, -276, -7, 57, -291, -562, -207, -28, 13, -281, -8, -21, -224, -34, 23, -23, -238, -231};
#define CONV22_IN_Z      	(0)
#define CONV22_OUT_Z     	(0)
static const int32_t CONV22_M_ZERO[] = 	 {1570216320, 2086156672, 1239101056, 1114895488, 1447031808, 2135576192, 1781478784, 1419977984, 1660846592, 1248721024, 2089045248, 1210025600, 2045043712, 1167393536, 1410362112, 1684871296, 1969550976, 1100233344, 1403686272, 1118200704, 2026048384, 1199896320, 1236412672, 1420681216, 2011393024, 1429704064, 1275751808, 1421122048, 1075252864, 1083102080, 1712176256, 1612743424, 1322571648, 1716789120, 1177086720, 1373078656, 1566763776, 2039019008, 1559833216, 1460200320, 1795152896, 1134291968, 1443616640, 1110941184, 2013849728, 1389586688, 1228819712, 1366332160, 1819957120, 1936949376, 1701888896, 1131713792, 1691885440, 1655129088, 1852843904, 1557000576, 2027113344, 1180711296, 1148188544, 1978550656, 1899572864, 1687495936, 1597011328, 1332766592, 1735334528, 1402082048, 1450862080, 1753938176, 1738777472, 1230655872, 1914801152, 1177388288, 1458515712, 1826457472, 1413893376, 1091670400, 1959131904, 1255694080, 1543003264, 1596982784, 1486528512, 1729513088, 1855696512, 1091573120, 1509710720, 1783797120, 1935679232, 1399777664, 1492402688, 1709517440, 1858201472, 1710739712, 1866793856, 2107293952, 1317493760, 1156773632, 1084241024, 1949447552, 1871255808, 1865260288, 1568147968, 1740065792, 1146198784, 1385814016, 1570876416, 1738472320, 1183956736, 1349271040, 1098576896, 1735962368, 1245825792, 1356725760, 1432183680, 1484833536, 1175746688, 1828915840, 1424355328, 2015509120, 1705693952, 1158440960, 2021599232, 1803292416, 1081846272, 1089071360, 1769139456, 1378182400, 1522208640, 1242003840};
static const int8_t CONV22_N_ZERO[] = 	 {0, 0, 0, 0, 0, 0, 0, 0, 0, 0, 0, 0, 0, 0, 0, 0, 0, 0, 0, 0, 0, 0, 0, 0, 0, 0, 0, 0, 0, 0, 0, 0, 0, 0, 0, 0, 0, 0, 0, 0, 0, 0, 0, 0, 0, 0, 0, 0, 0, 0, 0, 0, 0, 0, 0, 0, 0, 0, 0, 0, 0, 0, 0, 0, 0, 0, 0, 0, 0, 0, 0, 0, 0, 0, 0, 0, 0, 0, 0, 0, 0, 0, 0, 0, 0, 0, 0, 0, 0, 0, 0, 0, 0, 0, 0, 0, 0, 0, 0, 0, 0, 0, 0, 0, 0, 0, 0, 0, 0, 0, 0, 0, 0, 0, 0, 0, 0, 0, 0, 0, 0, 0, 0, 0, 0, 0, 0, 0};


/* Layer 23 Learned Parameters */
#define CONV23_BIAS \
 {-76309, 40362, 22569, -36059, -11498, -42741, 43858, 6230, 11882, 5164, 47397, 294, -5364, 2147, 87386, -6292, 56457, -55616, -44569, 17329, 17474, 66082, 15150, 690, 65760, 34688, -3033, 68212, -8406, -15043, -33399, 8696, 24750, -7877, -54752, 6097, 39626, 21001, 17458, -22433, 35551, 7305, 25234, 13991, -38235, 8679, 43987, 11487, -42562, 22992, -48120, 66916, -5049, -17607, 14143, 14987, 8448, -4534, 22522, -22252, 53085, -12427, 8170, 14769, 41257, -15117, -17095, 224581, -19290, -15101, -15256, -40284, -14454, 27300, 33412, -42750, 24233, -41616, 29050, -63906, 44619, 32795, 22205, -32208, -60445, 36713, 58793, 13564, 66248, 17472, 41399, -23472, -9675, 28181, 2838, -33931, -7740, 96628, 44928, -43469, 46721, -46484, 58297, -26237, -199, 22691, 1314, -21771, -37324, -15998, -87368, 36314, 841, -24140, -29350, -40, -12769, 19598, 58988, 11555, 83797, 59817, -18572, 21825, -6837, 10341, 48959, 9760}
#define CONV23_WT {0}
static const uint8_t CONV23_W_Z[] = 	 {-129, -140, -108, -145, -137, -107, -131, -127, -136, -125, -105, -138, -165, -126, -114, -129, -164, -50, -103, -161, -147, -121, -145, -109, -127, -120, -156, -140, -125, -115, -87, -123, -154, -87, -167, -141, -122, -87, -114, -159, -136, -113, -88, -74, -140, -155, -131, -67, -87, -145, -145, -143, -94, -166, -120, -135, -128, -132, -149, -104, -124, -123, -97, -135, -106, -136, -138, -166, -111, -120, -155, -102, -105, -119, -83, -108, -164, -116, -148, -126, -134, -120, -128, -140, -149, -126, -150, -132, -131, -127, -139, -105, -153, -128, -157, -137, -112, -145, -130, -135, -108, -132, -139, -111, -126, -128, -130, -97, -155, -106, -129, -153, -147, -123, -127, -120, -109, -166, -134, -135, -117, -148, -109, -129, -113, -142, -127, -153};
#define CONV23_IN_Z      	(0)
#define CONV23_OUT_Z     	(0)
static const int32_t CONV23_M_ZERO[] = 	 {1708978048, 1685737728, 1781676032, 2067966208, 1322514432, 1140328576, 1187328512, 1857840768, 1193042176, 1982620544, 1354576128, 2040925568, 1998587264, 1387837568, 2147395840, 1922062336, 1633580800, 1563815680, 1214097792, 1986114432, 1134084352, 2119323392, 1193089152, 1187875328, 1324406016, 1546135296, 1100801024, 1331443968, 1548935168, 2089754752, 1433510528, 1322279680, 1751250688, 1732102784, 1420888576, 1424384640, 1855892608, 1795425024, 1214477184, 1780285056, 1873641216, 1743974912, 1328085760, 1355625088, 2023517568, 1206498816, 2060160000, 1344824576, 1982832768, 1621328896, 1975353344, 1300580736, 1198180096, 1075466112, 1281796736, 1557433088, 1296759040, 2013436288, 1996341120, 1529474560, 1546881408, 1076163968, 1876075776, 1310082560, 1328135424, 1125893504, 1847213696, 1742557184, 1598092800, 1612529152, 1775757312, 1551067264, 1153120384, 1359386624, 1187560576, 1748092800, 2004826368, 1205076480, 1508541696, 1748876672, 1263645312, 1447689728, 1738262656, 1671844992, 1877943552, 1781530752, 1257544448, 2083168128, 1772913024, 1612808576, 1382335104, 1621443712, 1593366784, 1751529088, 1727793280, 1743953920, 1186743552, 1831738112, 1558707328, 2033837824, 1636078848, 1769448704, 1487880448, 1872841600, 1082234368, 1633930496, 1235098752, 2068620032, 1605688576, 1242561408, 1666283904, 1780285184, 1651113472, 1112022400, 1504085760, 2073088512, 1751872512, 1828756480, 1091752704, 1847163904, 1230961536, 1536174464, 1885588736, 1297719552, 1745452032, 1715593856, 1214587392, 1121859200};
static const int8_t CONV23_N_ZERO[] = 	 {0, 0, 0, 0, 0, 0, 0, 0, 0, 0, 0, 0, 0, 0, 0, 0, 0, 0, 0, 0, 0, 0, 0, 0, 0, 0, 0, 0, 0, 0, 0, 0, 0, 0, 0, 0, 0, 0, 0, 0, 0, 0, 0, 0, 0, 0, 0, 0, 0, 0, 0, 0, 0, 0, 0, 0, 0, 0, 0, 0, 0, 0, 0, 0, 0, 0, 0, 0, 0, 0, 0, 0, 0, 0, 0, 0, 0, 0, 0, 0, 0, 0, 0, 0, 0, 0, 0, 0, 0, 0, 0, 0, 0, 0, 0, 0, 0, 0, 0, 0, 0, 0, 0, 0, 0, 0, 0, 0, 0, 0, 0, 0, 0, 0, 0, 0, 0, 0, 0, 0, 0, 0, 0, 0, 0, 0, 0, 0};


/* Layer 24 Learned Parameters */
#define CONV24_BIAS \
 {-114, 253962, 145425, -2132, 266892, 143045, 10794, 146439, 191887, -223, 91450, -522, 206947, -737, 154701, -1116, 1671, -1255, -152, -277, 169119, -7280, 615, 180873, 121124, 61, 169624, 76376, 1533, 139280, -80, -5092, -101, -1212, -505, 810, 126647, 221180, 140536, -219, 214752, 84258, 107168, 148507, 286034, 246891, 156456, 14379, 120937, 263714, 623, 88797, -375, 8747, -6866, -3318, -3376, 131152, 212315, 24130, 103820, -381, 108803, 116235, -142, 179889, 66, -18179, -7910, -1032, 215046, -524, 197143, 105616, 114803, -1325, 1586, -6786, 84, -585, 663, -644, 411, 4019, 209638, 249635, -13030, 268430, 109025, 1401, 165511, -797, 904, 131392, 204597, -4, -753, 34381, 307029, -552, 115259, 178008, -39637, 316, -12238, 217751, -268, 38965, -1131, 151182, -899, 98887, 180228, 115, -5978, 185451, 363, 179306, 157846, -453, 138671, 100449, 169, -92928, -604, -1188, 69054, 202904}
#define CONV24_WT {0}
static const uint8_t CONV24_W_Z[] = 	 {19, -286, -328, 49, -306, -337, -96, -343, -286, 57, -283, 58, -297, 31, -311, 37, -102, -43, 67, 43, -306, -103, 47, -298, -316, 59, -284, -244, 63, -271, 36, 122, 66, 25, 20, 31, -302, -313, -277, 41, -267, -240, -309, -323, -336, -296, -278, -53, -279, -309, 35, -279, 33, -68, -112, -121, -98, -327, -279, -143, -280, 56, -284, -274, 62, -311, 55, -93, -28, 83, -290, 25, -287, -272, -298, 62, -104, 57, 18, 22, 68, 55, 73, 43, -298, -301, 64, -334, -275, 44, -417, 55, 58, -337, -298, 52, 76, -71, -306, 37, -291, -308, -82, 59, 82, -279, 52, -74, 27, -391, 35, -276, -302, 49, 68, -303, 58, -320, -329, 41, -262, -246, 47, 103, 38, 24, -185, -315};
#define CONV24_IN_Z      	(0)
#define CONV24_OUT_Z     	(0)
static const int32_t CONV24_M_ZERO[] = 	 {2133445888, 1754503040, 1925620096, 1679643136, 1443866752, 1719390080, 2057044096, 1113758976, 1285183744, 1266333056, 1934096128, 1538084480, 1963535360, 1563875840, 1103312000, 1292679680, 1794262528, 1788695808, 2060000256, 1725571712, 1154925440, 2047849600, 1592148736, 1759148032, 1714227840, 1721142784, 1513021184, 1193239040, 1435645312, 1701660800, 1527582976, 2027076992, 1666198528, 1390429568, 1727543424, 1335786240, 1320649088, 1757046016, 1917763456, 1348464384, 1897051264, 1901890688, 1646749824, 2050259712, 1368343168, 1291361664, 1945497984, 1726460032, 1388891264, 1434845696, 1722090752, 2099395840, 1090521088, 1269551360, 2001373952, 1195362432, 1453362688, 1385134848, 1286493696, 1122676352, 1074506368, 1508430336, 1553667200, 1371677568, 1172029568, 1290429568, 1941233408, 1468660864, 1139170048, 1213959808, 1669050112, 1318628736, 1120178048, 1203754368, 1118395520, 1987580800, 1640172288, 1790105088, 1991870848, 1505988224, 1322281728, 1443097728, 1527892864, 1368475904, 1455655424, 1568751104, 1516540800, 1591796864, 1080710016, 1441199488, 1073899648, 1274196992, 1941955456, 1456254720, 1107741440, 1566995712, 1800749952, 1096432128, 1428924160, 1457364992, 1577601536, 1379771648, 1345103104, 2081423744, 1484969088, 1786770048, 1935377408, 2105985536, 1327841664, 1276562688, 1119446912, 1876320512, 1333938944, 1249706880, 1123313408, 2084289920, 1945771264, 2032003200, 1874110592, 1150625152, 1105928320, 1909719424, 1622246144, 1823877632, 1453144064, 1386719232, 1456427648, 1999416192};
static const int8_t CONV24_N_ZERO[] = 	 {0, 0, 0, 0, 0, 0, 0, 0, 0, 0, 0, 0, 0, 0, 0, 0, 0, 0, 0, 0, 0, 0, 0, 0, 0, 0, 0, 0, 0, 0, 0, 0, 0, 0, 0, 0, 0, 0, 0, 0, 0, 0, 0, 0, 0, 0, 0, 0, 0, 0, 0, 0, 0, 0, 0, 0, 0, 0, 0, 0, 0, 0, 0, 0, 0, 0, 0, 0, 0, 0, 0, 0, 0, 0, 0, 0, 0, 0, 0, 0, 0, 0, 0, 0, 0, 0, 0, 0, 0, 0, 0, 0, 0, 0, 0, 0, 0, 0, 0, 0, 0, 0, 0, 0, 0, 0, 0, 0, 0, 0, 0, 0, 0, 0, 0, 0, 0, 0, 0, 0, 0, 0, 0, 0, 0, 0, 0, 0};


/* Layer 25 Learned Parameters */
#define CONV25_BIAS \
 {-46395, -7749, -10910, 13006, 67448, 27521, 134905, 57731, -66572, -11437, 9890, 38500, 1959, 21325, 38407, 17011, -26175, 25098, 32822, -24380, 17854, -5587, 21757, -27365, 53765, 34657, -18158, 24615, 7895, 42215, -25059, 4752, 40329, 16220, -51052, -8411, -17908, 15959, 12555, -17004, 16480, 2231, -5708, 24553, 46850, -108133, -45579, -3471, 7604, -17974, -38081, 2791, -3667, 22418, 32872, 28706, -14570, 13076, -15067, 12552, -58678, 28603, -14483, 40034, 24403, 27824, 84380, 40031, -26643, -32866, 54429, 25751, 53484, -22775, -67144, 5998, -8751, 769, 15849, -1143, -106692, 8448, 77552, -56131, 62471, 19373, 29313, -83560, -24951, 37004, 84686, -65779, 29662, -5997, 5343, 58319, -22249, 36179, 6430, -43208, -33083, 9711, -8073, -9453, -15334, 18840, -18953, 28052, 41529, 5530, 41552, 24416, 32124, 37029, -4618, 59014, 7129, -9666, -39472, -17870, -14873, -24697, -14354, -2536, 46515, -9711, 28099, 1888, 44718, 29606, 31982, 48370, -13884, 60575, -19141, 5669, -6496, -8898, -26337, 34093, -8153, 10064, -7974, 50938, -12856, -16162, 29050, -937, 12757, 17109, -161, 9598, -8480, -7682, -23102, 31193, 41088, 216, 45770, -9373, -65286, -18100, -38884, 7752, 17701, -11966, -21273, 15259, -30193, -13979, 13306, 27618, 36197, -28969, 18096, 20319, -10899, 42593, -19155, 40728, 47027, -23479, 36717, -7351, 3858, 17226, 3259, 20507, 3759, 43377, -45809, 13140, 73701, -24175, -50989, -41565, 50099, 37615, -18045, -47450, -483, 25259, 15099, -76752, -28864, -87665, -39787, -10777, -4422, 69420, -50093, 19173, 78299, -49200, 23614, -23084, -2178, -28870, -134014, -22817, -11593, 33339, -2004, 3511, 1171, 38727, 25347, 17421, -3102, -56706, 43256, 9087, 47578, 47521, 26172, 26108, 29284, 20464, -84551, 47208, -53721, -77688, -15615, -55239, 65355, -26924, -1712, -9003, 50828, 18677, -66, -9129, 1236, 14969, -269, 52956}
#define CONV25_WT {0}
static const uint8_t CONV25_W_Z[] = 	 {-125, -108, -124, -118, -121, -122, -112, -137, -135, -96, -140, -162, -125, -147, -106, -134, -145, -122, -123, -134, -104, -150, -121, -113, -122, -131, -103, -98, -131, -88, -124, -114, -118, -94, -116, -122, -137, -117, -165, -135, -152, -144, -171, -125, -121, -123, -81, -106, -149, -131, -113, -138, -93, -95, -161, -145, -164, -127, -131, -92, -78, -122, -124, -122, -129, -127, -136, -172, -115, -135, -149, -131, -125, -137, -115, -126, -153, -128, -129, -187, -79, -124, -128, -93, -120, -124, -180, -124, -153, -108, -127, -124, -131, -131, -127, -148, -70, -135, -137, -124, -93, -106, -99, -144, -156, -133, -95, -105, -137, -135, -123, -145, -137, -106, -121, -138, -98, -109, -152, -136, -119, -133, -96, -152, -163, -120, -136, -120, -119, -161, -128, -124, -100, -114, -118, -136, -107, -29, -118, -136, -154, -130, -205, -134, -147, -101, -143, -148, -119, -163, -85, -89, -125, -93, -113, -131, -103, -108, -136, -118, -124, -154, -112, -141, -131, -128, -155, -165, -131, -92, -152, -136, -131, -114, -99, -135, -83, -92, -145, -164, -82, -108, -149, -68, -139, -124, -160, -109, -125, -134, -113, -149, -124, -122, -113, -83, -124, -212, -128, -111, -120, -132, -111, -110, -140, -133, -124, -125, -79, -145, -129, -121, -109, -126, -148, -107, -138, -134, -128, -67, -125, -130, -132, -113, -130, -166, -129, -124, -141, -126, -141, -159, -130, -122, -122, -135, -114, -130, -129, -113, -107, -83, -131, -144, -139, -135, -108, -118, -122, -160, -107, -52, -143, -146, -19, -121};
#define CONV25_IN_Z      	(0)
#define CONV25_OUT_Z     	(0)
static const int32_t CONV25_M_ZERO[] = 	 {1911714560, 1605501440, 1888095488, 1559469440, 2059078272, 1501283968, 1440587648, 1324602880, 2124718720, 2087822976, 1095858048, 1919746176, 1686897920, 1622152576, 1107100288, 1628132352, 1348584320, 1101802752, 1708464512, 1697279104, 2056772992, 1098965504, 1674072448, 1722549504, 1900070400, 2044596480, 1471939200, 1608079232, 1294920192, 1476734208, 1728822272, 2010527232, 1656146304, 1122097280, 1521818240, 1689749376, 2085026816, 2090416640, 2073157888, 1192303104, 1654500480, 2023153792, 1803969536, 2076474752, 1893679872, 1346844672, 2002791424, 1845677056, 1150421504, 1273279872, 1993560448, 1695907072, 2145204352, 2147171968, 1140669312, 2105617536, 1273280000, 1725498880, 1366214784, 1169237376, 1782814464, 1865694080, 1198135808, 1253859072, 1285251456, 1424898688, 1665341184, 2135638528, 1477478656, 1827575680, 1542091904, 1867478272, 1089711360, 1889784576, 1693565184, 2063178624, 2038043008, 1197839104, 1943598336, 1561954816, 1907475328, 1148433920, 1827773696, 1962470528, 1093943552, 1678250240, 1260560384, 1633464704, 1525391744, 1315709696, 1888337152, 1414164480, 1635871616, 1282025600, 2075220352, 1168669056, 1194426240, 1576513664, 1740806912, 1167162368, 1571623040, 1107182208, 1322522752, 1288384384, 2030464768, 2102051584, 1201280256, 2084522240, 1536803712, 1557217408, 2007586304, 1264501120, 1852544128, 1252317440, 1111130240, 1392460032, 2129516032, 1165037440, 1110109824, 1241510016, 1732932096, 1580183424, 1850928640, 1336724096, 1175587584, 1703373952, 1283647872, 2056715648, 1513402880, 1521029248, 1288336000, 2128665984, 1530315776, 1241644160, 1875066496, 1170799744, 1088039936, 1169895296, 1469747456, 1845969152, 1244112000, 1185657216, 1204194560, 1450803200, 1556367104, 1107066368, 1702465536, 1433701376, 1195051136, 1259385216, 1296737152, 1168774656, 2024545280, 1816523392, 1634780032, 1253740672, 1166665216, 2060337920, 1610496000, 1583180800, 1793340288, 2132538368, 1901459200, 1239367808, 1457606144, 1194981760, 1194987264, 1532734336, 1675571840, 1650082176, 1314794240, 1599439872, 1491459840, 1085863808, 1203537024, 1093567744, 1107982592, 2058221696, 1745086592, 2099004032, 1369621888, 1895908992, 1905392256, 1167884672, 1544033792, 1485337216, 1513848320, 1314626432, 1730672896, 1143700352, 1579410176, 2130740096, 1459544960, 1590036352, 1667939200, 1597322880, 1195547776, 1157927808, 1544655616, 2112240512, 1847524992, 1886048768, 1595799296, 1999612928, 2003893248, 1844024960, 1428896512, 1694928384, 1566452096, 1784572160, 1971312896, 1770653824, 1309577728, 1135038208, 1579909248, 1288327168, 1185309696, 2041778304, 1746049024, 1210369152, 1144789632, 1711974656, 1254160640, 1157521792, 1080362880, 1289217920, 1424187264, 1114366208, 2058006144, 1271739136, 2098560640, 1213672320, 1276463744, 1162005376, 1278561664, 1129958272, 1191574784, 1159730560, 1605378432, 2141313024, 1320908416, 2024005760, 1794882304, 1903430272, 1510078464, 1618033280, 1110791552, 1082705920, 1443405952, 2056040064, 2116355200, 1156554752, 1274453376, 1513707264, 1339289344, 1110890752};
static const int8_t CONV25_N_ZERO[] = 	 {0, 0, 0, 0, 0, 0, 0, 0, 0, 0, 0, 0, 0, 0, 0, 0, 0, 0, 0, 0, 0, 0, 0, 0, 0, 0, 0, 0, 0, 0, 0, 0, 0, 0, 0, 0, 0, 0, 0, 0, 0, 0, 0, 0, 0, 0, 0, 0, 0, 0, 0, 0, 0, 0, 0, 0, 0, 0, 0, 0, 0, 0, 0, 0, 0, 0, 0, 0, 0, 0, 0, 0, 0, 0, 0, 0, 0, 0, 0, 0, 0, 0, 0, 0, 0, 0, 0, 0, 0, 0, 0, 0, 0, 0, 0, 0, 0, 0, 0, 0, 0, 0, 0, 0, 0, 0, 0, 0, 0, 0, 0, 0, 0, 0, 0, 0, 0, 0, 0, 0, 0, 0, 0, 0, 0, 0, 0, 0, 0, 0, 0, 0, 0, 0, 0, 0, 0, 0, 0, 0, 0, 0, 0, 0, 0, 0, 0, 0, 0, 0, 0, 0, 0, 0, 0, 0, 0, 0, 0, 0, 0, 0, 0, 0, 0, 0, 0, 0, 0, 0, 0, 0, 0, 0, 0, 0, 0, 0, 0, 0, 0, 0, 0, 0, 0, 0, 0, 0, 0, 0, 0, 0, 0, 0, 0, 0, 0, 0, 0, 0, 0, 0, 0, 0, 0, 0, 0, 0, 0, 0, 0, 0, 0, 0, 0, 0, 0, 0, 0, 0, 0, 0, 0, 0, 0, 0, 0, 0, 0, 0, 0, 0, 0, 0, 0, 0, 0, 0, 0, 0, 0, 0, 0, 0, 0, 0, 0, 0, 0, 0, 0, 0, 0, 0, 0, 0};


/* Layer 26 Learned Parameters */
#define CONV26_BIAS \
 {253818, -5059, -515, 164201, -479, 72211, 9625, -1252, -1171, 127960, 107470, -1318, -347, -107, -1285, 1774, 226726, 148529, 125002, -570, 155391, 167894, 56, -392, -1887, -961, -23996, -69881, -978, 82944, -1094, 255342, 4023, 14696, 163960, 119195, -1950, 222257, 222645, 81081, 109841, -230, 30, -978, 72100, 472, 78755, 151996, 80430, 126659, -243, -2610, -538, 130454, 315621, 158210, 460537, 206864, -1537, -321, -746, -10993, -2139, 172100, 158677, 13, -28172, 278377, -1145, 102818, 87743, -2314, -3391, -2360, -60, 222714, -1546, 176236, -1542, 89541, 36, -1347, 307219, -3025, -246, -85, 476105, -779, -382, 221794, 120060, -4961, -1104, 158318, 56922, -1293, 60526, -1212, -194, -2158, -1190, -4790, 72888, -756, -1937, 180893, -63353, 209503, -1379, -7, 296226, 167960, -583, -12640, 111349, 2305, -580, -13487, -2135, 237101, -2640, 194732, -304, 228551, 187516, -1201, 96277, -1985, 500, -181, 287074, 144461, -2328, 1144, -2737, -954, -539, 67920, -1388, -76, 179304, -13703, 27267, -1406, -129, 71, -82361, -1008, -769, 159216, 3235, -17365, -1915, 63598, 130078, 231984, 161997, -62, 104167, -1388, 194152, -7586, -10917, 8887, 1935, -1541, 136140, 94064, -10288, 102982, -1018, 250025, 156006, -192, -21691, 4061, 175424, 215664, 141515, -42576, 245982, 204800, -824, 68237, -2867, 371538, 170261, 89557, -1279, 6723, 268151, -1977, -1846, -1087, -1246, -467, 119251, 65690, -558, 1744, 451165, -1548, 255795, -123, -243, -1929, -260, -3351, 56862, -14694, -4028, -65, 242045, -2162, -14959, -1285, -1088, -1437, -1471, 121142, 52398, -2912, -4632, 224711, 146924, -1274, 178572, 5353, -1817, -6105, -28301, -7113, -1332, 152838, 45181, 310875, -2922, 171486, -73, -78, 792, -13592, -2615, -173, 6483, -1423, 78803, -1353, 1073, -10307, 70593, 57411, -456, -624, 23592, 240593}
#define CONV26_WT {0}
static const uint8_t CONV26_W_Z[] = 	 {-685, -97, 196, -606, -113, -426, -174, -108, 204, -360, -457, 333, -111, -182, 260, -97, -510, -502, -471, 153, -443, -426, -96, 268, 172, 160, -30, 142, 145, -396, 167, -408, -134, -64, -444, -586, 75, -666, -428, -451, -314, 337, -195, 184, -445, 99, -325, -381, -465, -466, 133, -108, 275, -358, -510, -385, -785, -453, 233, 25, 261, -66, 200, -508, -442, -128, 309, -651, 154, -445, -340, 160, -104, 259, -67, -439, 141, -411, -119, -487, -84, 302, -565, 383, -115, -116, -586, 130, -122, -470, -439, 209, 146, -464, -313, -100, -309, 199, 170, 231, 153, -106, -438, 142, 176, -516, 385, -699, 130, -194, -731, -568, 269, 205, -422, -138, -102, 142, 363, -577, -120, -421, -190, -659, -500, 190, -379, 187, -140, -205, -502, -381, -108, -119, 297, 320, 177, -460, 218, 192, -380, 272, -173, 246, 104, 294, 138, 193, 125, -607, -129, 126, 329, -446, -328, -500, -692, -116, -401, -115, -419, 101, 206, -118, -149, 248, -386, 239, 350, -464, 145, -574, -484, 307, 251, -110, -467, -682, -421, 123, -433, -488, -129, -434, 456, -1008, -530, -391, 363, -122, -559, 272, 177, 318, 364, -116, -412, -414, 93, 353, -659, 199, -665, 265, -196, 257, 33, 197, -328, 115, 173, -147, -550, 277, 221, 123, 141, 265, 153, -525, -341, 270, -105, -614, -529, 185, -451, -115, 157, 156, -15, 345, -96, -576, -337, -690, 217, -516, 141, -133, 436, 93, 133, 226, -117, 195, -434, 239, -97, 168, -401, -428, 193, 106, -337, -656};
#define CONV26_IN_Z      	(0)
#define CONV26_OUT_Z     	(0)
static const int32_t CONV26_M_ZERO[] = 	 {1612308096, 1214901632, 2029526784, 1176395520, 1256091904, 1423280768, 1586874112, 1823007104, 1135992576, 1136277504, 1393652096, 1184265216, 1264901120, 1692803456, 1679503232, 1679388672, 1366255488, 1293633152, 1797028224, 1538229632, 1081184000, 1319819008, 1814530560, 1606498816, 2087554816, 1312440832, 2060611584, 1682031744, 1687403904, 1115497216, 1116936192, 1440045312, 1829644544, 2102484864, 1873603072, 1317486336, 1448714624, 1913283712, 1317709312, 1795431296, 1474273152, 1388654336, 1539341824, 1705097472, 1891485440, 2122821120, 1136507904, 1636746368, 1707048832, 1658668288, 2039453312, 1377376128, 1181587712, 1605509504, 1157691904, 1567321856, 2145575040, 1165770496, 2036157824, 1319087744, 2008640128, 1448650112, 1481003648, 1413661824, 1671953280, 1850069888, 1238702080, 1742682496, 1404100992, 1662537856, 1783044096, 1114253056, 1539113088, 1425412736, 1680514688, 1638513408, 1398041984, 1440372992, 1479944960, 1794385920, 1575485952, 1615606016, 1595250944, 1307035008, 1522138240, 1120871168, 1802875264, 1631594880, 2124568192, 1567160448, 1474037760, 1179132544, 1262606208, 1732134400, 1437824640, 2023657344, 1551135104, 1365003392, 1446178176, 1401789056, 1453573248, 1807416576, 1146543872, 1699628032, 1113980416, 1144476160, 1849113856, 1597019392, 1529237248, 1376330368, 1489333760, 1154320512, 1787151360, 1168863360, 1525920256, 1704613632, 1212201088, 1862440064, 1317519488, 1515805696, 1491233664, 1839968896, 1173480192, 1194976000, 2003103360, 1448322432, 1654705920, 1865163264, 1140770944, 1987291392, 1437757056, 1630680320, 1322728960, 1091521408, 1196033152, 1784743808, 2092953344, 2014876672, 1276127488, 1851432832, 1352535808, 1324783232, 1430105472, 1662053248, 1093860480, 1189944320, 1091797120, 1357053568, 1990655872, 1873222784, 1322490624, 1375312384, 1234472832, 1266157312, 1402072704, 1915917696, 2065371648, 1886838016, 1605293824, 2026882176, 1387177856, 1617709312, 1119957632, 1780972416, 1664410496, 1610536960, 1958272512, 1355166976, 1200970496, 1092593024, 1535869696, 2114626432, 1117919744, 2021553408, 1565755264, 1923814528, 1282013824, 1642510592, 1485109504, 1532742656, 1864434176, 1281523712, 1524111360, 2061363456, 1560144512, 2052908416, 1169866752, 1722469248, 1355216896, 1984477056, 1844018176, 1345038080, 1192524032, 1832044544, 1529509120, 1221937664, 1405377920, 1959723520, 1431544192, 1781565440, 1740916352, 2009329024, 1991926016, 1778190336, 1601558272, 1295576192, 1802725632, 1701214976, 1277888128, 1125292800, 1792294144, 1232497152, 1395106176, 1560499968, 1515658368, 1385456768, 1872198272, 1797213056, 1677431424, 1376223744, 1362309248, 1197009664, 1822966912, 1148631296, 1397377408, 2046711808, 1470986496, 1150334208, 1354445568, 1693634816, 1922778112, 1301624192, 2038540288, 2008502656, 1794421888, 1083811456, 1404174592, 1115999104, 1748264064, 1665814144, 1533924608, 1383079296, 1235972736, 1114838272, 1244521344, 1376056576, 1189336960, 1160525184, 1930700032, 1659255936, 1189039360, 1211421696, 1993150720, 1764285824, 1415875712, 1481683072};
static const int8_t CONV26_N_ZERO[] = 	 {0, 0, 0, 0, 0, 0, 0, 0, 0, 0, 0, 0, 0, 0, 0, 0, 0, 0, 0, 0, 0, 0, 0, 0, 0, 0, 0, 0, 0, 0, 0, 0, 0, 0, 0, 0, 0, 0, 0, 0, 0, 0, 0, 0, 0, 0, 0, 0, 0, 0, 0, 0, 0, 0, 0, 0, 0, 0, 0, 0, 0, 0, 0, 0, 0, 0, 0, 0, 0, 0, 0, 0, 0, 0, 0, 0, 0, 0, 0, 0, 0, 0, 0, 0, 0, 0, 0, 0, 0, 0, 0, 0, 0, 0, 0, 0, 0, 0, 0, 0, 0, 0, 0, 0, 0, 0, 0, 0, 0, 0, 0, 0, 0, 0, 0, 0, 0, 0, 0, 0, 0, 0, 0, 0, 0, 0, 0, 0, 0, 0, 0, 0, 0, 0, 0, 0, 0, 0, 0, 0, 0, 0, 0, 0, 0, 0, 0, 0, 0, 0, 0, 0, 0, 0, 0, 0, 0, 0, 0, 0, 0, 0, 0, 0, 0, 0, 0, 0, 0, 0, 0, 0, 0, 0, 0, 0, 0, 0, 0, 0, 0, 0, 0, 0, 0, 0, 0, 0, 0, 0, 0, 0, 0, 0, 0, 0, 0, 0, 0, 0, 0, 0, 0, 0, 0, 0, 0, 0, 0, 0, 0, 0, 0, 0, 0, 0, 0, 0, 0, 0, 0, 0, 0, 0, 0, 0, 0, 0, 0, 0, 0, 0, 0, 0, 0, 0, 0, 0, 0, 0, 0, 0, 0, 0, 0, 0, 0, 0, 0, 0, 0, 0, 0, 0, 0, 0};


/* Layer 27 Learned Parameters */
#define CONV27_BIAS \
 {-14713, 19043, -18796, -31730, -16207, -1278, -12547, -40146, 13974, 26597, -17098, 21177, 1501, 24461, -38705, -5584, -19876, -1862, -12880, -35898, 14349, 41877, -280, 4709, -15532, 11365, -5135, -2610, -21309, 11746, 22204, 12810, -22375, 21265, -28600, 6222, 36, -18430, 2769, -29412, 22399, 26901, 4333, -34365, -13457, 24967, -32626, 2646, 5568, 16335, 37504, 4069, 10717, 14675, -40463, -2831, -18178, -7516, 28783, -5863, -17044, 7199, -19247, 9747, 5633, 19336, 16540, -4582, 6414, -11740, -12778, -12919, 34727, -15930, -8549, -12151, 33910, 26702, -6614, 8811, -19655, -1497, -25620, -30803, 15207, -18506, 26934, 6495, -2955, -23360, 15732, 16957, 25874, 379, 7127, -17856, -24769, 18015, 28674, 18309, 21923, -45334, 793, -2515, -23005, 35064, -22997, 12198, 17266, 22335, 35352, 4944, 28630, 31255, 32014, -29253, -49247, 12712, 16725, -26118, -9273, 18244, 3790, -22483, -6985, 19641, -37203, -9690, 3214, -20587, -10637, 21059, -11395, -31644, -17691, -10707, -6975, 27173, -28855, 1636, -7310, 21877, 4325, -20836, 12586, -17341, -24888, 16784, -16176, -16025, 28249, 21253, -19596, 13663, -50541, 64062, 26261, -18787, 23651, -39399, -4083, -4203, 24456, 9450, 2691, 9799, 19755, -10065, -13137, 4106, -15247, 7798, 9417, -12295, -29266, -4972, -12198, -28944, -25925, -34329, 2291, 52058, 17821, -31050, 40553, 11090, 2706, -37932, 23836, -3834, -660, 25026, -12431, -37631, -42584, -12798, 43234, -50726, -14265, -18494, -29530, -19195, -10433, -9752, 15812, 23521, -16112, 10422, -20349, -29627, -10583, 9081, -30872, -4200, -8928, -29105, 23075, -9870, 7273, 35220, -28464, 2896, -5727, 14783, -3423, -18290, -38020, -15300, 10858, 10366, -28832, -5029, -42840, 14240, -18712, 33205, 21258, -17083, 10370, -25564, -8996, -10089, -12148, -3829, -1740, -19784, -24349, -4434, 1240, 3103, -3971, -16557, 33064, -7155, -45993, -4096}
#define CONV27_WT {0}
static const uint8_t CONV27_W_Z[] = 	 {-144, -140, -68, -155, -149, -131, -128, -114, -145, -104, -134, -146, -164, -168, -128, -140, -126, -147, -143, -98, -119, -131, -125, -159, -136, -129, -148, -147, -134, -157, -170, -121, -160, -168, -135, -133, -143, -131, -40, -132, -142, -134, -140, -146, -135, -173, -133, -132, -215, -155, -149, -116, -107, -137, -170, -141, -107, -110, -173, -151, -141, -133, -147, -132, -127, -167, -170, -116, -126, -143, -181, -147, -135, -116, -157, -112, -106, -140, -155, -131, -133, -104, -106, -135, -121, -133, -183, -186, -133, -111, -126, -162, -140, -149, -131, -133, -127, -124, -167, -125, -151, -142, -126, -122, -144, -149, -128, -167, -131, -143, -154, -151, -120, -160, -130, -150, -122, -171, -161, -149, -120, -116, -162, -138, -167, -178, -106, -126, -135, -124, -141, -149, -122, -156, -97, -142, -138, -134, -109, -133, -143, -204, -149, -142, -163, -162, -156, -146, -137, -157, -138, -126, -84, -153, -131, -125, -110, -92, -125, -117, -139, -155, -123, -128, -118, -111, -136, -105, -147, -137, -134, -127, -154, -130, -120, -157, -150, -142, -102, -144, -126, -122, -119, -139, -135, -152, -131, -123, -111, -126, -121, -152, -145, -129, -148, -157, -137, -145, -167, -134, -155, -134, -155, -114, -174, -158, -152, -152, -110, -131, -124, -157, -129, -143, -136, -131, -143, -144, -149, -151, -117, -120, -171, -162, -110, -110, -121, -109, -152, -164, -138, -161, -110, -127, -147, -141, -130, -136, -151, -123, -132, -129, -126, -147, -135, -151, -141, -126, -125, -165, -159, -135, -177, -118, -144, -142};
#define CONV27_IN_Z      	(0)
#define CONV27_OUT_Z     	(0)
static const int32_t CONV27_M_ZERO[] = 	 {1893690880, 1620074752, 1412913920, 2114335616, 2005385984, 1578166912, 1456103680, 1925592704, 1912602880, 1783172864, 1766420864, 1174386560, 1398876800, 1916148608, 1420010368, 1988756864, 1377314304, 1077749248, 1803408256, 1854922624, 1503178880, 1603876096, 1613480064, 1113191936, 1657086208, 2069805312, 1774354560, 1587661824, 1596515456, 1851433088, 1102987648, 1697498752, 2028075776, 2121432192, 1125325568, 1232336256, 1648446336, 1696498304, 1714386432, 1854123008, 1952683264, 1517538304, 1618481664, 1512236032, 1768750080, 1902272000, 1677685632, 1635764992, 1141230976, 1113404288, 1593192576, 1113629440, 1837187328, 1550137472, 1495768320, 1725177216, 1561679872, 2071655040, 2013769216, 2094844672, 1676168192, 1844270976, 1293456896, 1627506688, 1638776448, 1118245120, 1104787968, 1610891136, 1133217792, 1537491200, 1159586304, 1888929536, 1667678464, 1074267904, 1641169536, 1935161216, 1923494400, 1587225472, 2130113280, 1472752256, 1774299648, 2021226496, 1930344960, 1688733184, 1771126912, 1441942656, 1325928832, 1208636800, 1731282048, 1753605504, 1986293120, 1987784064, 1565816960, 1120053632, 1863488512, 1826041856, 1529608320, 1498271616, 1204797696, 1529074048, 1201235072, 1089673216, 1993699840, 1943783808, 1079506048, 1703213056, 1425103488, 1918497792, 1146139008, 2036105216, 1773985280, 1566518912, 1933880192, 1868591616, 1860162816, 1728693376, 1945492480, 1385257344, 1110203648, 1575267712, 2119009408, 1704662272, 1248272384, 1517387264, 1265136640, 1117866624, 1989500288, 1994860416, 1917305728, 1876608384, 1532675968, 1634522112, 1764290560, 2111967872, 1757803904, 1788711680, 1858635136, 1683148800, 1877273472, 1364766080, 1712444544, 1273658368, 1437410688, 1361297024, 1737381888, 1845328640, 1985540992, 1327724928, 1825930240, 2072364544, 1489701376, 1909964416, 1976358400, 1717146368, 1645460736, 1310006400, 1208054656, 1923963904, 2015928576, 1333598080, 1833067008, 1550214400, 1596680192, 2129276928, 1108339968, 1714503168, 1444685184, 1747322496, 1644289920, 1559036928, 1536452864, 1532514560, 1994194560, 1429736832, 1699251456, 1265583744, 1873929600, 1704885120, 1536311552, 1868614400, 1864895488, 1767135104, 2109855872, 1783368576, 1616584448, 1196247936, 1490154880, 1893235968, 1832518272, 1878125312, 1644756352, 1705093120, 1615216384, 1723781760, 1117637888, 1496894848, 1832763904, 1567289088, 1207970688, 1609939200, 1972670464, 1798045056, 1513523200, 1565566848, 1870011008, 1277710976, 1879816704, 1631041408, 1774040192, 1795809664, 1898724992, 1569193472, 1579080192, 1562509696, 2031398912, 2013885952, 1460458368, 2116702592, 1806272128, 1512928512, 1900561280, 1577067136, 1834564480, 1701564672, 1271355520, 1911692416, 1133742336, 2049103488, 1924542976, 1892325504, 1860192128, 2089602688, 2036272384, 1738515712, 1662696704, 1925997824, 2105451776, 1733408128, 1787473792, 1662981888, 1383091456, 1673630080, 1277244928, 1340438528, 1080511616, 1894487040, 1933717888, 1751508224, 2131560064, 1521993984, 2024899968, 1103744000, 1721690496, 1946157824, 1775341184, 1594617600};
static const int8_t CONV27_N_ZERO[] = 	 {0, 0, 0, 0, 0, 0, 0, 0, 0, 0, 0, 0, 0, 0, 0, 0, 0, 0, 0, 0, 0, 0, 0, 0, 0, 0, 0, 0, 0, 0, 0, 0, 0, 0, 0, 0, 0, 0, 0, 0, 0, 0, 0, 0, 0, 0, 0, 0, 0, 0, 0, 0, 0, 0, 0, 0, 0, 0, 0, 0, 0, 0, 0, 0, 0, 0, 0, 0, 0, 0, 0, 0, 0, 0, 0, 0, 0, 0, 0, 0, 0, 0, 0, 0, 0, 0, 0, 0, 0, 0, 0, 0, 0, 0, 0, 0, 0, 0, 0, 0, 0, 0, 0, 0, 0, 0, 0, 0, 0, 0, 0, 0, 0, 0, 0, 0, 0, 0, 0, 0, 0, 0, 0, 0, 0, 0, 0, 0, 0, 0, 0, 0, 0, 0, 0, 0, 0, 0, 0, 0, 0, 0, 0, 0, 0, 0, 0, 0, 0, 0, 0, 0, 0, 0, 0, 0, 0, 0, 0, 0, 0, 0, 0, 0, 0, 0, 0, 0, 0, 0, 0, 0, 0, 0, 0, 0, 0, 0, 0, 0, 0, 0, 0, 0, 0, 0, 0, 0, 0, 0, 0, 0, 0, 0, 0, 0, 0, 0, 0, 0, 0, 0, 0, 0, 0, 0, 0, 0, 0, 0, 0, 0, 0, 0, 0, 0, 0, 0, 0, 0, 0, 0, 0, 0, 0, 0, 0, 0, 0, 0, 0, 0, 0, 0, 0, 0, 0, 0, 0, 0, 0, 0, 0, 0, 0, 0, 0, 0, 0, 0, 0, 0, 0, 0, 0, 0};


/* Layer 28 Learned Parameters */
#define FC28_WT \
{0}
#define FC28_BIAS \
 {-314, 2153, -6941, -2287, 8135, -528, 4000, 1544, -446, -3713, -2997, -4400, 562, 2662, -517, -1236, -2176, -2052, 2291, -2070, -1366, 6006, 6297, 4374, 1005, -204, 5748, 2604, 1412, -1503, 3807, 246, 638, -2464, -237, -9450, -2007, -3792, 2853, 930, 316, 1140, 3389, -2100, -1444, 2652, 4361, -1132, -5084, 1492, 1239, -3581, 2139, 4065, 987, -1714, 4092, -1179, 5195, 3467, 1890, 2134, 1555, 3903, 1721, 5052, -4919, -1416, 1159, 3226, -5638, 4634, 2951, 2227, 1957, 8255, 5351, 6491, 4611, 3887, -3471, -828, 3641, -11026, -781, 232, -3600, 3325, 2977, 5352, -1942, -4235, -464, -1742, -1222, -5932, 3419, -3777, -6146, -4787, -1508, -4626, 1680, 5175, 2775, 1958, 5184, -673, -4651, -9705, -8676, 15205, 7139, -463, 4265, -11812, -7878, 811, -1671, -3449, -1655, -5522, -6912, -4377, -2185, -7511, -2379, -3700, -732, 2509, -910, -2632, 2981, 726, -7940, -3930, -5895, -3876, -4769, -6107, -4176, -2341, -2498, -4666, -2473, -1443, -4355, -9302, -2882, -3772, 2285, 11, -8534, 6940, -3209, 2933, -72, -9708, -6900, -2516, -3597, 6276, 6807, 3026, -2385, -2928, -2112, -8228, -2311, -7746, -1928, 7410, 930, -1900, -624, -9859, -6489, -5513, 8750, -565, -3228, -2602, 1224, 333, 3394, 3981, 1446, 3432, -5268, -1080, -2630, 6087, -1593, -5530, -5166, 12932, 1879, 242, -5061, 2791, -7146, 2295, 6194, 5516, 4386, -3315, -4298, -8125, -5565, 6381, -5428, -272, -2431, -543, 1673, -4562, -809, 6939, -1807, -3302, -1649, -2184, -4884, 8886, -3279, -1887, -2650, -7082, -7953, 5260, -4021, -10294, -7815, 1662, 1728, -2334, 2747, 6192, 2788, 5488, -2325, -2919, 319, -5863, -6741, 2595, -5721, 1956, -2711, -3665, 1441, 4904, -3064, -2281, 9297, -9441, -1746, -637, 660, -3157, 1080, -2505, -5552, -2744, -3419, 1416, 1656, -4557, -7222, 3245, 5503, 1343, 5537, 3303, -4262, -4515, -100, 2105, -3799, 898, 4236, 8713, -5016, -249, 6665, 5772, 4368, 1182, -942, 1278, 276, -5534, -2084, -992, -1138, 2401, 3007, -3844, 1956, 867, -7220, -1527, -7167, 93, -12264, 3889, 1478, -4000, -426, -8437, -2670, -4542, -3427, 6384, 6098, 3525, 557, -4919, 2522, -3136, -4761, -8380, -12199, -8321, -4421, -8296, -11999, -1263, -3643, -2194, 3035, -459, 1390, 832, 3170, -1485, 140, -2333, -7675, -3239, -233, -3229, -2549, -1467, -3434, -3065, -241, -1265, -4640, -736, -1232, -827, -4092, -2488, 4850, -4799, 876, -298, -133, 4244, -1403, 4805, 3965, 287, -412, 2656, 530, 4060, -1982, 2170, -3075, -4258, 290, 3208, 2947, -434, 2962, -296, 3374, 4105, -1396, 5901, 4446, 1655, -4875, 3384, 1835, -3344, -2331, 543, -1599, 6989, -7744, -4409, -2679, 2020, -4291, -3399, -9585, 7850, -1878, 3456, -500, -1576, -10718, -836, -3155, -4328, -8466, -1565, 1651, -5373, -1852, 6091, 3240, 417, 7498, -4034, 1796, 3567, -1668, 1274, 2295, 8970, 13067, 5198, -5041, 466, 833, 4731, 912, -1708, 3461, 770, -93, -208, -3705, -5734, 2608, -5763, 4234, -272, -1309, 1896, 329, 3987, 2169, -821, 5381, 36, 357, 1376, 545, 2605, 2311, 371, 2827, 2905, -1818, 3567, -4263, 2274, 3, -987, 9098, 12150, -1495, -2043, 1981, -5336, -3054, -2299, -3400, 2837, -4544, 1313, -4386, 748, -885, -4911, 4190, 3775, 357, -1731, -7353, 1308, 3092, 550, 55, 8444, 1814, 5653, 3898, -2777, -6108, -2235, 3337, -7878, 403, 13445, 6568, 293, -3375, -2697, 5178, 47, -1004, 618, 2333, -3680, -3650, -6397, 103, 915, 2329, 5739, -3199, -4365, 898, 8311, -6230, -2117, -4274, 9378, 560, 270, 4222, -3677, -147, 7295, 4548, -2594, -22, 3467, 5912, -2317, -5060, 4029, -1501, 2557, -4462, -787, 2071, 1146, -4740, 10867, -1307, -8998, -2277, 11597, -3540, 3254, 2841, 18, -2124, -365, -4619, -1157, 2758, 1516, -4037, -1000, -1750, 4130, -7293, 2610, 3388, 1995, 6800, 1559, 3351, -4283, -1307, 2700, 3346, 4559, 2839, 5853, -1088, 4720, -1191, -6967, -2943, -3601, 3881, 3712, -200, 10694, 593, -64, -5512, 4085, -1252, 5540, 2310, -7045, 7199, 4902, -5983, 3292, 9328, -250, 2929, -602, -781, 2634, 9248, -666, 3823, 1205, 2065, -171, -945, -2634, -2500, 2555, 27, 4348, 7316, -2757, 3900, 4379, 3523, 14072, 1377, -878, 3517, 3486, -2767, 278, 3635, 42, 6816, 6215, 3653, -1521, 2400, -2321, -605, -3599, -8381, 7, 1399, 776, 1953, 1024, 2506, 1212, -592, 1682, 5417, 4069, 179, 957, 935, 8435, -5183, -3887, -2986, 4994, 2472, -4424, 3326, -5960, 3968, 216, -1766, 1296, -7149, 4801, -796, 7071, 975, 2574, 2921, -2807, -11614, 12132, 8091, -2865, 1894, 6340, -1128, 4094, -526, 2689, -712, -270, -8447, -4728, -3716, 2886, 3322, -3618, 1908, 5694, 4776, -5229, -3660, -5679, 7406, -4998, 3251, 7937, -3286, -7093, -4001, 1778, -11347, -4008, -3582, 8083, 4236, 7426, 5912, 1537, 4720, -8525, 1057, 2843, 7901, -3178, 5149, -3926, -6267, -4147, 7710, -4202, 878, -1322, -4395, 1221, 1895, -3315, -3566, -283, -315, 1379, -3892, 3319, 2141, 7662, 1064, 2554, -5883, 2612, 5450, -165, -3081, 9184, 4196, 1946, 6233, -1078, -1101, 220, -1096, -3296, -767, -2169, 5752, 180, -1816, 6754, 11847, 2781, -7142, 1163, 721, 5214, 6447, -8973, -4441, -1879, 8423, 3743, 6228, 11596, -8277, -1076, -3095, -1762, 1076, 6841, 5090, 3887, -3406, -824, 9134, -6077, -12644, 5043, 5303, 2769, 9059, -2572, 2857, 6998, -447, 4985, -2179, -5407, 1076, -2085, -4935, 2472, -2188, -8390, 2755, -3421, -5379, -5502, -2778, 2689, -4616, 380, 960, -7491, -438, 3337, -3593, -2254, 3620, 6088, 7035, 4951, -607, -7376, 6378, -3212, 6087, 2669, -4638, -4583, 9704, -12167, 8339, 9317, 1187, 1084, -1131, 277, 7237, 2691, 6636, 11509, -5919, -2477, 3799, -3519, 3504, 2167, 370, 3580, 3008, 8666, -7770, 641, 4732, 6032, 295, 2450, -2103, -2199, -4577, -2742, 91, 547, 3205, -1365, 446, -9477, 656, -4706, -9667, 1868, 1451, 983, -6353, 8624, 11354, 1752, -1108, -4666, 1805, 25940, -6396, -4367, 2609, 251, -253, -390, 9909, 4052, 1124, -1742, -4756, 2797, 4011, -2252, -7383, -1877, -3297, 8969, 9356, 10413, 4898, 3324, -5006, 1090, 2400, 16761, -5563, 463, -4047, -1933, 2330, 4300, 1469, 2522, -2603, 2130, 6240, 465, -8154, -2579, -7080, -230, -247, 5275, -595, -3462, 1620, -4910, -4629, -236, 7131, -2238, 1359, -6048, -1349, -1192, -2338, -810, -3079, -1535, -5880, -5045, 1396, 329, 40, -230, -3604, 2427, 3881, 1669, -4394, -302, 3204, -9832, 1076, 4680, -89, 2486, -5724, -1517, 1381, 1703, 2246, -3098, -501, 6712, 3313, -4587, 852, 870, -1140, 8571, -183, -659, 2537, 1083, 5216, -5441, -3029, 3308, -4064, -4099, -817, -7498, -2384, -5053, -4778, -13943, -3170, -6811, -1345, -6165, -3091, 5160}
#define FC28_W_Z       	(164)
#define FC28_IN_Z      	(0)


#endif /*__224_0_25_WEIGHTS_BIAS_H__*/
