#ifndef __224_0_5_WEIGHTS_BIAS_H__
#define __224_0_5_WEIGHTS_BIAS_H__


/* Layer 1 Learned Parameters */
#define CONV1_BIAS \
 {71920, 28864, 108531, 848172, 156014, -2281707, 42737, 89325, 16912, 17301, 17507, -81936640, -13100016, 405716, -60267, 101681}
#define CONV1_WT {0}
static const uint8_t CONV1_W_Z[] = 	 {-134, -154, -177, -198, -159, 162, -148, -71, -103, -75, -124, -448, -4, 635, -205, -175};
#define CONV1_IN_Z      	(127)
#define CONV1_OUT_Z     	(0)
static const int32_t CONV1_M_ZERO[] = 	 {1605465088, 1587449088, 1272619648, 1504286208, 1543174400, 1930177920, 1299367808, 1313174144, 1926301824, 1827882752, 2143166080, 2099469312, 1164349056, 1178036352, 1345707264, 1744077440};
static const int8_t CONV1_N_ZERO[] = 	 {0, 0, 0, 0, 0, 0, 0, 0, 0, 0, 0, 0, 0, 0, 0, 0};


/* Layer 2 Learned Parameters */
#define CONV2_BIAS \
 {2796, 11402, 51392, -22759, 17792, -1679, -2174, 15408, 2149, -32509, 17377, -659, -312, -6512, -968, 63155}
#define CONV2_WT {0}
static const uint8_t CONV2_W_Z[] = 	 {-60, -153, -239, -98, -172, -47, -66, -205, -127, -70, -113, -27, -227, -186, -33, -191};
#define CONV2_IN_Z      	(0)
#define CONV2_OUT_Z     	(0)
static const int32_t CONV2_M_ZERO[] = 	 {1093731456, 1541005568, 1192309888, 1258081664, 1657252480, 2140079104, 2069483648, 1296642048, 1108245120, 1112817024, 1652352000, 2006396416, 1131426304, 1081399936, 1405536640, 1880903552};
static const int8_t CONV2_N_ZERO[] = 	 {0, 0, 0, 0, 0, 0, 0, 0, 0, 0, 0, 0, 0, 0, 0, 0};


/* Layer 3 Learned Parameters */
#define CONV3_BIAS \
 {31877, 5085, -32655, -25983, -646120, -18297, -51959, -10065, 12419, -16906, 31685, -2150, 54684, 33492, -8069, 9505, 50412, 17891, 4081, 28834, 46024, -3736, 31353, 16159, -23118, -7466, 40296, 12233, 22492, -3133, 20229, 40336}
#define CONV3_WT {0}
static const uint8_t CONV3_W_Z[] = 	 {-136, -80, -110, -75, -118, -98, -1, -73, -122, -29, -128, -31, -245, -136, -163, -90, -169, -171, -119, -249, -209, -27, -175, -137, -55, -34, -201, -165, -183, -98, -234, -193};
#define CONV3_IN_Z      	(0)
#define CONV3_OUT_Z     	(0)
static const int32_t CONV3_M_ZERO[] = 	 {1392493952, 1710505728, 1376327552, 1244110080, 1335145856, 1585107200, 1204965632, 1823525120, 1631080064, 1628714112, 1463822720, 1085111808, 1207324032, 1241074944, 2140729472, 1251307904, 1808182784, 1491061632, 2112869504, 1344014848, 1563511936, 1608138240, 1171575040, 1871457664, 1375402752, 1833777664, 1565733760, 1318586752, 1439889408, 1733868416, 1626714752, 1443216256};
static const int8_t CONV3_N_ZERO[] = 	 {0, 0, 0, 0, 0, 0, 0, 0, 0, 0, 0, 0, 0, 0, 0, 0, 0, 0, 0, 0, 0, 0, 0, 0, 0, 0, 0, 0, 0, 0, 0, 0};


/* Layer 4 Learned Parameters */
#define CONV4_BIAS \
 {106, 15116, 2374, 528, -30, 293, 8198, 932, 4949, 157, 250, 447, 203, 5848, 2486, 1837, 309, 1867, 450, 3540, 1253, 446, -36, 23, 1222, 235, 886, 4173, 2515, 1551, 1224, 7042}
#define CONV4_WT {0}
static const uint8_t CONV4_W_Z[] = 	 {-131, -251, -125, -135, -246, 55, -281, -208, -229, -141, -134, -125, 35, -220, -164, -162, -100, 17, -105, -334, -38, -36, -144, -116, -113, -55, -136, -181, -143, -209, -232, -234};
#define CONV4_IN_Z      	(0)
#define CONV4_OUT_Z     	(0)
static const int32_t CONV4_M_ZERO[] = 	 {1254663296, 1312367872, 1580456192, 1325291392, 1283121920, 1220045184, 2095224448, 1312495360, 1528671104, 1241263744, 1382667648, 1829735936, 1798612864, 1269139840, 1475137152, 1450661888, 1328480512, 1911696896, 1352565632, 1493501440, 1736263296, 1458532864, 1681830912, 1155419136, 1516463104, 1252131328, 2143085184, 1554540544, 1669967616, 1961120512, 1869170304, 2053614336};
static const int8_t CONV4_N_ZERO[] = 	 {0, 0, 0, 0, 1, 0, 0, 0, 0, 0, 0, 0, 0, 0, 0, 0, 0, 0, 0, 0, 0, 0, 0, 0, 0, 0, 0, 0, 0, 0, 0, 0};


/* Layer 5 Learned Parameters */
#define CONV5_BIAS \
 {-2611, 31658, 23283, 13146, -30507, -26862, 32401, -21566, -461, 19604, -3974, 43442, 50855, 11334, -17713, -902, 3401, 34858, 45515, -12404, -5757, -2142, 23890, 25045, 6817, -36278380, 2316, -2349, 38345, -104, 21556, -75308, 2751, -14050, 3274, 15275, 36569, -13277, -16172, 37304, 21371, -9887, 16275, 38097, -13104, -31677, 10617, 5695, 20737, 127944, 50330, 63689, 1376, 4602, -2520, 38810, -10394, -2294, -510, 3045, -22733, 24221, 50126, -27170}
#define CONV5_WT {0}
static const uint8_t CONV5_W_Z[] = 	 {-85, -157, -80, -67, -60, -87, -171, -88, -99, -125, -158, -111, -67, -110, -66, -167, -120, -114, -154, -67, -112, -114, -113, -220, -125, -101, -144, -129, -136, -114, -184, -32, -60, -85, -131, -58, -118, -126, -40, -164, -108, -160, -124, -85, -128, -45, -101, -153, -129, -82, -136, -166, -96, -155, -143, -191, -41, -219, -130, -140, -24, -204, -169, -79};
#define CONV5_IN_Z      	(0)
#define CONV5_OUT_Z     	(0)
static const int32_t CONV5_M_ZERO[] = 	 {1725963264, 1083520640, 1315480192, 1526363904, 1815685760, 1660581632, 1319956480, 1706384896, 1573492224, 1725800960, 1525818880, 1719804416, 1323001088, 1184641920, 1174044672, 1932849024, 1818185344, 1438209152, 1975174912, 1774624384, 1908860160, 1242834560, 1668196992, 1824807040, 1323681792, 1377357440, 1499718528, 1412704256, 1644596352, 1674470528, 1243882112, 1128879872, 1813321472, 1663765504, 1935805696, 1569843200, 1364119680, 1559118976, 1719115520, 1218075776, 1115056128, 1689516544, 1811710976, 2081497472, 1237249024, 1092204032, 1606352000, 1675419264, 1802882432, 1358559488, 1481309952, 1182355456, 1521099648, 1295396864, 1834478464, 1504785920, 1427723904, 1681237120, 1599827456, 1900556160, 1989361536, 1443716352, 1149610880, 1549349632};
static const int8_t CONV5_N_ZERO[] = 	 {0, 0, 0, 0, 0, 0, 0, 0, 0, 0, 0, 0, 0, 0, 0, 0, 0, 0, 0, 0, 0, 0, 0, 0, 0, 0, 0, 0, 0, 0, 0, 0, 0, 0, 0, 0, 0, 0, 0, 0, 0, 0, 0, 0, 0, 0, 0, 0, 0, 0, 0, 0, 0, 0, 0, 0, 0, 0, 0, 0, 0, 0, 0, 0};


/* Layer 6 Learned Parameters */
#define CONV6_BIAS \
 {-377, 15384, 496, 23747, -5812, 8242, 30187, -5558, 9320, 1041, 1782, 1373, -246, 5741, 21765, -18279, 51, 5117, -960, 18453, 11654, 1704, 253, 1471, 20570, -601, 1458, 28696, 1274, 39541, 1310, 18589, -254, -879, 51385, 324, 399, -138, 1878, 4879, 16840, -10791, -928, 2310, -80, -3271, -11498, 6144, 11321, 86010, 320, -6, 2725, 24525, -4961, -120, -9991, 4278, -8773, 3069, 21195, 3407, 4767, -3018}
#define CONV6_WT {0}
static const uint8_t CONV6_W_Z[] = 	 {-79, -110, -89, -215, -20, -154, -145, -44, -128, -148, -91, -94, -140, -115, -149, -21, -106, -63, -114, -118, -71, -135, -114, -38, -240, 14, -134, -209, -105, -221, -22, -168, -93, -93, -236, -125, -143, -92, -38, -128, -161, -79, -44, -107, -70, -39, -19, -87, -43, -156, -102, -120, -125, -155, -27, -95, -20, -178, -14, -108, -191, -112, -90, -60};
#define CONV6_IN_Z      	(0)
#define CONV6_OUT_Z     	(0)
static const int32_t CONV6_M_ZERO[] = 	 {1169913088, 2054665728, 2075050752, 1075953664, 1288141696, 2054427392, 1777249152, 1703121792, 1320954240, 1116440832, 1353466880, 1199127040, 1576902016, 2133992960, 1211460992, 1137925504, 1159221632, 1553209472, 1780280576, 1251738496, 1470870016, 1554865792, 1241495296, 1103131008, 1600627968, 1122539904, 1501997056, 1606907392, 1154316416, 1563594368, 1750485120, 1288572160, 1389597568, 1710684800, 1328522112, 1394927872, 1199126144, 1896202112, 1189435648, 1135080960, 1390364032, 1709090560, 1357248768, 2104984704, 2034453120, 2004350464, 2025744256, 1433237632, 2044009856, 1261042944, 1110316672, 1909269760, 1183451520, 1091391872, 1503791232, 1940696576, 1606373248, 1152055680, 1182105984, 1530416384, 1995963392, 1158761088, 1237621888, 1776624128};
static const int8_t CONV6_N_ZERO[] = 	 {0, 0, 0, 0, 0, 0, 0, 0, 0, 0, 0, 0, 0, 0, 0, 0, 0, 0, 0, 0, 0, 0, 0, 0, 0, 0, 0, 0, 0, 0, 0, 0, 0, 0, 0, 0, 0, 0, 0, 0, 0, 0, 0, 0, 0, 0, 0, 0, 0, 0, 0, 0, 0, 0, 0, 0, 0, 0, 0, 0, 0, 0, 0, 0};


/* Layer 7 Learned Parameters */
#define CONV7_BIAS \
 {17984, 13641, 27993, -5632, -35617, -16625, 10249, -26364, 58454, -3294, -7447, 25317, 661, 4884, 1013, -12444, -6941, 9115, 36292, 3579, -9064, 1848, -16636, -24286, 11845, -15462, 3061, 39912, 388, -3396, 160, 8039, 7620, 37468, 25180, 3675, -10197, 17751, -13648, -1548, -18795, -13937, 35998, 3774, -12524, 2138, 7375, 25700, 7056, -16701, 37461, -4212, 16901, 18369, 492, 33100, 35362, 9047, -3066, 13538, 31510, 33796, 14146, 10477}
#define CONV7_WT {0}
static const uint8_t CONV7_W_Z[] = 	 {-82, -92, -153, -125, -77, -91, -127, -97, -124, -167, -137, -60, -81, -133, -146, -89, -81, -55, -112, -119, -150, -70, -69, -116, -51, -100, -162, -128, -186, -28, -153, -113, -151, -74, -159, -64, -81, -115, -163, -63, -110, -130, -154, -231, -97, -32, -139, -166, -101, -83, -149, -188, -141, -127, -85, -175, -175, -57, -52, -179, -148, -157, -153, -140};
#define CONV7_IN_Z      	(0)
#define CONV7_OUT_Z     	(0)
static const int32_t CONV7_M_ZERO[] = 	 {1569987328, 2130669184, 1128498176, 1741495936, 1622119936, 2091998592, 1637474560, 1954817664, 1200524544, 1093283328, 1090223232, 1312543104, 1288346624, 1512659072, 1775673344, 1436393344, 1358703360, 1189969536, 1095384064, 1837889536, 2025105664, 2026283392, 1274579712, 1145411328, 1199717888, 1940947200, 1271265792, 1515637376, 1652691328, 1200431104, 1831893632, 1314529792, 1811051520, 1302068096, 1105629440, 1457949440, 1867989888, 2023301376, 1448895616, 1951261184, 1471821056, 1416588544, 1519951232, 1135070208, 2106323456, 1984968576, 1401697920, 1722835840, 1314437120, 1778809216, 2014083200, 1636074240, 1433879424, 1135922816, 1571417472, 1704657792, 1075593216, 1141565824, 1211788928, 1234503552, 1564901120, 1387345408, 1264391552, 1633633152};
static const int8_t CONV7_N_ZERO[] = 	 {0, 0, 0, 0, 0, 0, 0, 0, 0, 0, 0, 0, 0, 0, 0, 0, 0, 0, 0, 0, 0, 0, 0, 0, 0, 0, 0, 0, 0, 0, 0, 0, 0, 0, 0, 0, 0, 0, 0, 0, 0, 0, 0, 0, 0, 0, 0, 0, 0, 0, 0, 0, 0, 0, 0, 0, 0, 0, 0, 0, 0, 0, 0, 0};


/* Layer 8 Learned Parameters */
#define CONV8_BIAS \
 {2052, -29013, 99591, 107784, 33516, -5085, -36531, 9349, -2020, 12526, 90679, -34803, 66511, 47312, 256656, 9509, -894, 52392, 80429, 345992, 199182, 2979, 17796, 143854, 17184, 6106, 703, 17422, 180216, 28954, 119953, -1258, 154851, -52462, 2101, -216, 51, 105731, 105422, 123856, 11651, 36985, -2769, 103760, 28597, 8558, 155182, -2791, 1192, 14160, -42023, 10182, 2706, 37945, 200139, 112519, 99947, 12321, -2710, 21074, -83584, 3894, 7179, 149419}
#define CONV8_WT {0}
static const uint8_t CONV8_W_Z[] = 	 {-142, 37, -311, -317, -302, 14, 49, 57, -111, 66, 72, 9, -319, 93, -333, 54, 64, -296, -282, -319, -341, 49, -289, -307, -192, 82, 59, -142, -319, -228, -302, 65, -336, 34, 58, -63, -108, -293, -291, -280, 77, -294, -145, -296, 59, -156, -333, -125, 55, 96, 47, 61, 64, -184, -325, -321, -319, -78, 144, 74, 86, -111, 71, -313};
#define CONV8_IN_Z      	(0)
#define CONV8_OUT_Z     	(0)
static const int32_t CONV8_M_ZERO[] = 	 {1936443648, 1756141184, 1182611584, 2138948480, 1352247680, 1509667456, 1491144192, 1338449024, 1136431488, 2045920384, 1586750848, 1627945856, 1618607104, 1525769088, 1863101440, 1159057152, 1694066432, 1734215680, 1629370624, 1696211456, 1135007104, 1491123968, 1249817984, 1778469376, 1561771264, 2048583296, 1182902016, 1126659840, 1160892672, 1837269888, 1750809472, 1849130880, 1396580864, 1197371520, 1239049728, 1489120640, 1954013440, 1104141952, 2064845696, 1621206400, 1588335872, 1245773824, 1934667904, 1084375296, 1767487360, 1126464512, 1994239360, 1673001984, 1475944960, 1409329152, 1524587520, 1869229056, 1786258944, 1391444608, 1531490432, 2030932224, 2057924352, 1953156736, 1127852544, 1330335616, 1304633216, 1905694848, 1282215424, 1920464768};
static const int8_t CONV8_N_ZERO[] = 	 {0, 0, 0, 0, 0, 0, 0, 0, 0, 0, 0, 0, 0, 0, 0, 0, 0, 0, 0, 0, 0, 0, 0, 0, 0, 0, 0, 0, 0, 0, 0, 0, 0, 0, 0, 0, 0, 0, 0, 0, 0, 0, 0, 0, 0, 0, 0, 0, 0, 0, 0, 0, 0, 0, 0, 0, 0, 0, 0, 0, 0, 0, 0, 0};


/* Layer 9 Learned Parameters */
#define CONV9_BIAS \
 {-15791, 48503, 62480, 138608, -12022, 52907, -13094, 44066, 45940, 32543, 8379, 64035, -62189, -32354, -17636, 49698, -10579, 98434, 4202, -58387, -38941, 10830, 6341, 28489, 28136, -46973, -25369, 1087, 41114, 95667, 57705, -20192, 204717, 37092, 25137, -18320, 41755, 46871, 80408, 94880, 35884, 100566, -22224, 2550, 22490, 33295, -9123, 19002, 3455, 86011, -16089, -34790, -15020, -8879, -51048, 40687, 83157, 18305, -64487, 52403, 10515, 38907, 54000, 29420, 11010, 26789, 80666, 14756, 15156, 32206, 11347, 133924, 3147, 31420, -116287, 16647, 18345, -12571, 36873, 55167, 38961, -26968, 36943, 39448, 4270, 80289, 3632, 8741, 41453, -82170, 17017, -63387, 11454, 9537, 3393, 105516, 20395, -27722, 7677, 46865, 85655, 45495, 11267, -45836, 34157, 63174, -8006, 31186, 35799, 89262, 131984, 10301, 42654, 1357, 88762, 22045, 33255, -9780, 15, 8165, 73246, 48606, 22775, 152066, 20697, -21169, 10641, 38745}
#define CONV9_WT {0}
static const uint8_t CONV9_W_Z[] = 	 {-95, -123, -206, -100, -68, -114, -142, -144, -135, -47, -115, -81, -37, -87, -84, -138, -103, -151, -121, -110, -64, -135, -101, -148, -114, -132, -89, -117, -187, -104, -187, -121, -173, -101, -134, -119, -131, -110, -163, -133, -95, -153, -106, -68, -150, -69, -59, -164, -179, -163, -110, -83, -125, -75, -116, -95, -100, -157, -136, -180, -136, -165, -73, -145, -99, -104, -178, -109, -90, -81, -105, -145, -197, -84, -139, -126, -142, -121, -139, -125, -185, -81, -109, -109, -146, -161, -140, -106, -152, -68, -99, -78, -125, -141, -101, -165, -137, -139, -116, -74, -154, -100, -92, -98, -133, -135, -107, -182, -192, -158, -153, -87, -160, -105, -211, -78, -165, -118, -121, -157, -213, -171, -108, -165, -44, -114, -94, -99};
#define CONV9_IN_Z      	(0)
#define CONV9_OUT_Z     	(0)
static const int32_t CONV9_M_ZERO[] = 	 {1141344128, 1089676800, 1388963328, 1543539584, 1075087744, 1737983616, 1584734720, 2117298944, 1901415808, 1492832384, 1280862080, 2062325376, 1996976128, 1086317440, 1877472768, 1207385728, 1256621824, 1469517056, 1183709056, 1361758080, 1412522240, 1372507904, 1335875584, 1089307264, 1711932032, 1581972992, 1208038656, 1538105472, 1258989184, 1402572544, 1216090752, 1335531264, 1217492736, 1699973888, 1217939072, 1438812928, 2013163904, 1180600576, 1682404224, 1230445568, 1274625536, 1335903872, 1102435584, 1454967296, 1480007296, 1772080640, 1921817984, 1632429056, 1466444160, 1670146048, 1514475776, 1793974144, 1329929984, 1253979136, 1509949184, 1583965824, 1524437120, 1929718656, 1146914944, 1187108480, 1350754304, 2067856512, 1402011520, 1964769280, 1429616000, 1385122560, 1285193472, 1533789824, 1248283392, 1486212992, 1539312512, 1873911296, 1605392512, 1782174464, 1221116160, 1722445312, 1089538048, 1314453120, 1384473088, 1310446080, 1835432704, 1411936128, 2042017152, 1988975360, 1689901440, 1480682752, 1224933632, 1186125568, 1716874240, 1184819072, 1833268864, 2061986432, 1435815040, 1295026688, 1876010112, 1577620096, 1077006592, 1800196480, 1437797248, 1565075200, 1259449984, 1394045056, 1833475584, 1470037376, 1145479808, 1300609920, 1749882112, 1281947520, 1703601152, 1177275264, 1084826624, 1662752896, 1897773184, 1814498432, 1815791488, 2053971200, 1423787008, 1785303424, 1848286592, 1782485632, 1201502080, 1868884096, 1219016448, 1349462656, 1775594880, 1096089216, 1389645696, 1496545024};
static const int8_t CONV9_N_ZERO[] = 	 {0, 0, 0, 0, 0, 0, 0, 0, 0, 0, 0, 0, 0, 0, 0, 0, 0, 0, 0, 0, 0, 0, 0, 0, 0, 0, 0, 0, 0, 0, 0, 0, 0, 0, 0, 0, 0, 0, 0, 0, 0, 0, 0, 0, 0, 0, 0, 0, 0, 0, 0, 0, 0, 0, 0, 0, 0, 0, 0, 0, 0, 0, 0, 0, 0, 0, 0, 0, 0, 0, 0, 0, 0, 0, 0, 0, 0, 0, 0, 0, 0, 0, 0, 0, 0, 0, 0, 0, 0, 0, 0, 0, 0, 0, 0, 0, 0, 0, 0, 0, 0, 0, 0, 0, 0, 0, 0, 0, 0, 0, 0, 0, 0, 0, 0, 0, 0, 0, 0, 0, 0, 0, 0, 0, 0, 0, 0, 0};


/* Layer 10 Learned Parameters */
#define CONV10_BIAS \
 {195686, 25016, 11694, 3486, 6421, -14846, -192, -120, -9712, 4438, -11701, -348, -4557, 378, 26084, -229, 114194, 29042, -721, 1182, -3136, 61705, 575, 10417, 7161, -18085, -721, -8253, 10971, -807, 247, -91, -1069, 309, -1688, 46111, 35320, 68295, 85297, 11752, 5021, -6199, 7116, -876, 3773, -389, 34771, 22050, -206, -13787, -11381, -851, 79927, 7924, -9885, 37289, 4216, -5821, 5764, 4125, 2050, 149701, -40, -13767, -455, 57, 94699, 25609, -742, 44939, -8313, 128, 1204, 300277, 10513, -10916, 2652, -4731, -24048, 23158, -425, -254, -634, 14832, 50649, 99386, -10592, -1124, 22159, -8485, 555, 13256, -14874, -13167, 1851, 13582, -1428, 14829, -1304, -2573, 26181, 462, 31206, 23555, 17658, 56155, 27960, 133620, 13516, 1147, 44985, 8355, -552, 26073, -17843, 6610, -11566, -504, 22713, 2354, 11468, 14596, -7675, 2722, 6994, 16122, -9594, -15969}
#define CONV10_WT {0}
static const uint8_t CONV10_W_Z[] = 	 {-318, -247, -202, -159, -63, -34, -14, -45, -31, -54, -65, -150, -89, -20, -151, -140, -177, -233, -155, -162, -125, -232, -78, -44, -96, -66, -115, -57, -60, -96, -120, -30, -119, -169, -153, -211, -229, -238, -242, -53, -205, -88, -90, -101, -87, -149, -199, -220, -63, -43, -36, -136, -142, -56, -34, -211, -78, -38, -186, -159, -141, -239, -118, -27, -131, -125, -291, -119, -100, -236, -16, -129, -60, -310, -46, -21, -108, -42, -18, -94, -151, -141, -125, -225, -196, -257, -3, -138, -233, -44, -108, -69, -21, -64, -138, -57, -90, -37, -111, -37, -227, -113, -242, -96, -207, -207, -232, -259, -245, -41, -205, -43, -143, -189, -18, -200, -15, -141, -227, -44, -35, -229, -35, -150, -208, -179, -52, -59};
#define CONV10_IN_Z      	(0)
#define CONV10_OUT_Z     	(0)
static const int32_t CONV10_M_ZERO[] = 	 {1358591360, 1195268352, 1358986624, 1172776448, 1950051712, 1127675264, 1871159936, 2085769344, 1234237824, 1310422784, 2021353728, 1157463040, 1597643008, 2001904896, 1694090112, 1383555072, 1163833728, 2089481344, 1139781504, 1155927040, 1666761472, 1241364992, 2021036672, 1236325504, 1527000320, 1449489152, 1991904256, 1706606080, 1870901376, 1147983104, 2016678144, 2017695360, 1781214336, 2095115392, 1596845568, 1093801344, 1097940480, 2014762112, 1877937536, 1302622464, 1816201472, 1251324800, 1829382144, 1128611968, 1443929472, 1233774336, 1570557952, 1598758016, 1168662144, 1995072768, 2011613312, 1861082752, 1125579264, 1770022144, 1435458816, 1887141248, 1507725952, 1732379136, 1323724160, 1784360192, 1897479168, 1288170880, 1114627712, 1693889920, 1917941760, 1884891392, 1778531840, 1459464704, 1459911296, 1957544704, 2073952768, 1556938880, 1154449408, 1279444096, 1381243392, 1664813312, 1764917120, 1341111040, 1313734656, 1892388480, 1236754688, 1440831744, 2053815040, 1731665152, 1365142912, 1515533056, 1378611584, 1214716928, 1387988224, 1632401536, 1970770432, 1156296064, 1240213120, 1768397952, 1119458176, 1409885696, 1670811264, 2143793280, 1770128768, 1825089536, 2044321024, 1990831360, 1535724928, 1274870272, 1480030336, 1809072768, 1136681728, 1437350656, 1258790656, 1374296576, 2001947904, 1132170496, 1853357184, 1224013056, 1100364032, 1152182912, 1800863488, 1077094656, 1934253184, 1104464896, 1166612608, 1204944000, 1680504064, 1894390016, 1631290240, 1956955648, 1197563136, 1673511040};
static const int8_t CONV10_N_ZERO[] = 	 {0, 0, 0, 0, 0, 0, 0, 0, 0, 0, 0, 0, 0, 0, 0, 0, 0, 0, 0, 0, 0, 0, 0, 0, 0, 0, 0, 0, 0, 0, 0, 0, 0, 0, 0, 0, 0, 0, 0, 0, 0, 0, 0, 0, 0, 0, 0, 0, 0, 0, 0, 0, 0, 0, 0, 0, 0, 0, 0, 0, 0, 0, 0, 0, 0, 0, 0, 0, 0, 0, 0, 0, 0, 0, 0, 0, 0, 0, 0, 0, 0, 0, 0, 0, 0, 0, 0, 0, 0, 0, 0, 0, 0, 0, 0, 0, 0, 0, 0, 0, 0, 0, 0, 0, 0, 0, 0, 0, 0, 0, 0, 0, 0, 0, 0, 0, 0, 0, 0, 0, 0, 0, 0, 0, 0, 0, 0, 0};


/* Layer 11 Learned Parameters */
#define CONV11_BIAS \
 {25511, 771, -8825, 22734, -2138, -19784, -38416, -11052, -1287, -36161, -2471, 26298, -23346, -7831, -10919, -3891, -18734, 32842, -1457, 49051, 18544, -13824, 11679, 4641, -2348, -432, -16480, 31444, 14620, 9086, 30373, 8711, 33164, -19229, -7749, -38302, 10240, -18399, 17523, -7839, -27282, 2300, 45706, 30705, -60969, -17540, 13290, 3596, -20067, -16847, 17689, 6339, 31205, 23374, 14140, -6568, 2544, -13933, -4552, 9343, -3622, -10213, -45000, -36340, -27177, 5559, 11648, 18241, -21788, -12858, -13954, 18873, 30127, -14980, -61414, -23075, -3579, -22277, -24711, -23116, 9870, 30473, -31259, -12021, -4274, 27925, 2838, 4472, 71035, -11141, -10261, -3259, -13927, 61984, 3371, -40686, -7610, -11047, -66, 19453, -46945, -33051, 2363, -6160, -33449, -24632, -2180, -15122, 887, -14532, -10426, -21190, -25317, -15579, 12207, -14287, 852, -37634, 17322, 7187, -46449, 59978, 24102, -8511, -2228, -21067, -21541, 29253}
#define CONV11_WT {0}
static const uint8_t CONV11_W_Z[] = 	 {-118, -154, -158, -121, -116, -130, -106, -105, -132, -75, -96, -107, -116, -152, -111, -110, -111, -98, -158, -113, -166, -124, -88, -95, -148, -149, -156, -120, -115, -123, -138, -165, -114, -127, -75, -136, -165, -142, -92, -94, -139, -142, -199, -125, -120, -140, -90, -116, -139, -70, -120, -137, -180, -110, -145, -89, -145, -110, -124, -128, -134, -57, -76, -133, -171, -155, -54, -142, -117, -124, -127, -109, -148, -111, -101, -124, -138, -94, -159, -111, -58, -109, -104, -102, -97, -124, -124, -142, -181, -141, -125, -83, -157, -137, -161, -134, -138, -93, -138, -105, -134, -74, -134, -90, -145, -105, -186, -123, -121, -64, -133, -124, -131, -109, -89, -113, -147, -95, -73, -140, -81, -149, -77, -123, -72, -103, -171, -153};
#define CONV11_IN_Z      	(0)
#define CONV11_OUT_Z     	(0)
static const int32_t CONV11_M_ZERO[] = 	 {1269849344, 1278394880, 1461249920, 1811695104, 1162603008, 1516453376, 1581413632, 1794347008, 1444087296, 2039948672, 1848334848, 1228883840, 1858651136, 1607975808, 1165692672, 1223924736, 1318468480, 1672096384, 1288284928, 2097385472, 1731261824, 1471153664, 1367705088, 1238746496, 1725776512, 1390195072, 1688438144, 1562479616, 1282654208, 1095725312, 1658480128, 1673082496, 1306746880, 1637870592, 1147286656, 1724926976, 1305605760, 1253865600, 2115241600, 1088763904, 1474919168, 1356824192, 1919494784, 1948875008, 2143770624, 2046643072, 1302253184, 2017971584, 1635871872, 1276067840, 1172584320, 1211231232, 1507739776, 1086971648, 1950019840, 1692737664, 1316535680, 2080207616, 1646771072, 1815820160, 1942393984, 1839748224, 1814459008, 1966341632, 1309482752, 1896616704, 1583448832, 1123335168, 1247939200, 1693144320, 1717211136, 1189945984, 1592364288, 1331575040, 1101222400, 1658871680, 2037359616, 2005745664, 1897857792, 1125913600, 1232522496, 1775362432, 1148241792, 1180470400, 1711203200, 1708622208, 1688379648, 1974672128, 1203436416, 1708243584, 1885065856, 1186086272, 1587311104, 1949717760, 1162024704, 1098157696, 1105648384, 1816750080, 2039511936, 1467446784, 2072044416, 1225572608, 1939786624, 1229469952, 1991244928, 1834299008, 1135330048, 1349889280, 1219928320, 1501174912, 1568095232, 1827158400, 1165537536, 1212023424, 2058507008, 1809855616, 1130107008, 2091169280, 1937717120, 1966847488, 1637905280, 1570751104, 2059956096, 1101939456, 1100339072, 1140414848, 1309980032, 1124127872};
static const int8_t CONV11_N_ZERO[] = 	 {0, 0, 0, 0, 0, 0, 0, 0, 0, 0, 0, 0, 0, 0, 0, 0, 0, 0, 0, 0, 0, 0, 0, 0, 0, 0, 0, 0, 0, 0, 0, 0, 0, 0, 0, 0, 0, 0, 0, 0, 0, 0, 0, 0, 0, 0, 0, 0, 0, 0, 0, 0, 0, 0, 0, 0, 0, 0, 0, 0, 0, 0, 0, 0, 0, 0, 0, 0, 0, 0, 0, 0, 0, 0, 0, 0, 0, 0, 0, 0, 0, 0, 0, 0, 0, 0, 0, 0, 0, 0, 0, 0, 0, 0, 0, 0, 0, 0, 0, 0, 0, 0, 0, 0, 0, 0, 0, 0, 0, 0, 0, 0, 0, 0, 0, 0, 0, 0, 0, 0, 0, 0, 0, 0, 0, 0, 0, 0};


/* Layer 12 Learned Parameters */
#define CONV12_BIAS \
 {198168, 45905, 44996, 57421, -92, 88575, -58, -1903, 418, 74890, 3488, 231, 16898, 1890, 17452, 30519, 111695, 108184, -1642, 4071, 86129, 120846, 141975, 195864, -4554, -20153, 19167, 23837, 96412, 170494, -44223, 2487, 149349, 6419, 85156, 15089, 73849, 9393, -1017, 56258, 571, -41923, 195651, 201616, -1107, -14895, 90270, -2356, -1110, -667, -975, 48138, 244759, 94817, 2233, 65596, 86573, 198, 48838, 192803, 512, 85558, 123925, 1418, 163292, 7098, 104896, 77447, 9987, 26073, 104674, 116882, 513, 7495, -18957, 100379, 3860, 87709, -1751, 1728, 87376, 1521, 102198, -35608, 84159, 81096, 102397, -1547, 223776, 15455, 82661, -2182, 303875, -257, 1047, -566, -11288, 94750, -2926, 90792, -439, 3900, 80519, 2558, 115997, 11495, 40924, 115134, 139984, 108907, -1562, 7364, 3458, 2365, 256168, 192966, 69730, -515, 110018, -176, 3367, -2612, 95565, 16360, 67980, 247491, 2114, 467}
#define CONV12_WT {0}
static const uint8_t CONV12_W_Z[] = 	 {-319, -150, -347, -354, 82, -348, 83, 53, 150, -311, -93, -166, 86, 68, 78, -382, -339, -278, 72, -133, -345, -387, -348, -323, 80, 94, -121, -126, -230, -318, 78, 89, -328, 21, -329, 97, -392, 97, 91, -331, 67, 42, -296, -322, 75, 96, -347, 92, 83, 59, 45, -313, -316, -346, 85, -307, -337, 110, 124, -310, 51, -308, -347, 98, -321, 100, -325, -342, 116, 58, -334, -282, -94, 70, -91, -327, 43, -356, 105, 62, -267, -120, -349, 72, -348, -315, -380, 84, -323, 89, -298, 109, -321, -118, 67, 99, 18, -336, 60, -341, 65, 87, -378, 84, -332, 55, -376, -384, -359, -318, 110, 83, 80, 66, -316, -325, -354, 94, -266, 59, 107, -103, -289, 79, -348, -364, 92, 66};
#define CONV12_IN_Z      	(0)
#define CONV12_OUT_Z     	(0)
static const int32_t CONV12_M_ZERO[] = 	 {1699661824, 1594994688, 1202303232, 1637498752, 1629455232, 1267617664, 1341853056, 1267306368, 1170554880, 1364776704, 1305842688, 1394326144, 1328549632, 1196085632, 1368968320, 1302109056, 2006871424, 2115865728, 1468157568, 2117185280, 1349314432, 2012324096, 1700472064, 2071663872, 1404536704, 1288000640, 1396882560, 1289216384, 1630083328, 1370255488, 1394076928, 1191122688, 1096532736, 1217979392, 1075368448, 1475052928, 1506852096, 2005905792, 1902232960, 1809005440, 1181267072, 1689204096, 1291794304, 2083786752, 1819534464, 2083037440, 1529413376, 1989807488, 1702736128, 1339238016, 1476526720, 1839963008, 1458360192, 1159137536, 1288549760, 1591407616, 1187988480, 1909006720, 1689362560, 1793723904, 1643258624, 1658016512, 1096445184, 1662031872, 1412850304, 1542031744, 1701139712, 1440473216, 2042673920, 2080713728, 1194851456, 1189447680, 1578085120, 1688314112, 1381192320, 1263323008, 1730540160, 2146921728, 1161959552, 1321909248, 2135498240, 1133726464, 1390336000, 1298004736, 1293060992, 1192685568, 1190410112, 2106216576, 1509149312, 1131262976, 1492733440, 1810102912, 1739963648, 1867907456, 1333164544, 1275284480, 1418395136, 1160741504, 1758936448, 1630975744, 1291633024, 1138634880, 1927068032, 1768035456, 1198659328, 1384713856, 2135040512, 1721476864, 1435532672, 1700040576, 1683161856, 1219432064, 1443569280, 1580261248, 1230491392, 1258763392, 1188781952, 1460034048, 1230081408, 1573429504, 1355864832, 1255063040, 1892291456, 1774200320, 1882873088, 1486575360, 1612320896, 1937931136};
static const int8_t CONV12_N_ZERO[] = 	 {0, 0, 0, 0, 0, 0, 0, 0, 0, 0, 0, 0, 0, 0, 0, 0, 0, 0, 0, 0, 0, 0, 0, 0, 0, 0, 0, 0, 0, 0, 0, 0, 0, 0, 0, 0, 0, 0, 0, 0, 0, 0, 0, 0, 0, 0, 0, 0, 0, 0, 0, 0, 0, 0, 0, 0, 0, 0, 0, 0, 0, 0, 0, 0, 0, 0, 0, 0, 0, 0, 0, 0, 0, 0, 0, 0, 0, 0, 0, 0, 0, 0, 0, 0, 0, 0, 0, 0, 0, 0, 0, 0, 0, 0, 0, 0, 0, 0, 0, 0, 0, 0, 0, 0, 0, 0, 0, 0, 0, 0, 0, 0, 0, 0, 0, 0, 0, 0, 0, 0, 0, 0, 0, 0, 0, 0, 0, 0};


/* Layer 13 Learned Parameters */
#define CONV13_BIAS \
 {65912, 24967, 27393, 48927, 32065, 37074, 26577, 39495, 31446, 12521, -19313, 43002, 62500, -7528, 5955, 23184, 74711, 65803, -7504, 36998, -8488, 2170, 50400, 3752, 28873, 68471, -945, 138179, 68119, -30402, 5391, 21730, 47778, 29982, 54638, 12857, 38961, -7079, 5520, 53190, 32035, 64811, 123521, 63433, 24418, 121635, 28078, 18718, 67952, 26307, 13879, 60382, 53703, 56243, 36810, 84238, 28108, 48763, 28471, 17875, 23332, 36654, -32760, 86310, 18380, 56086, 20023, -36312, 50024, 57831, -13591, -10340, 2932, 33175, 6469, 4685, 15572, 3166, -44693, -22268, 37147, 37614, -2764, -46411, -25108, 9694, 93081, 34835, 13021, -21170, 37506, 18626, 13453, 2644, 6346, 19684, 36648, -8449, 32829, 114464, 143006, 1193, 13894, 40760, 23579, 1769, 62431, 114467, 39339, 47947, 48334, -38708, -9556, 52982, 17889, 65717, 3613, 54197, 45904, 5890, 34986, 50978, 50423, 17362, 22947, 69777, 70939, 6287, 7288, -14979, 85085, 48919, 79038, -34363, 12159, 54906, 3164, -19212, 3146, 32221, 20119, 30348, 27489, -3731, 105651, 78424, 13870, 54400, 25280, 10029, -30414, 15335, 22809, 18621, -16101, 91309, 31581, -16345, 34884, 33807, 1322, 29388, 75108, 43587, 29108, -14832, 43911, 61628, 31765, 32564, 74945, 35718, 33589, 52760, -27180, 65488, -40393, 40809, 139252, 33122, 78862, -86728, -9745, -33075, 1429, 12210, 41673, 21115, 8518, 5242, 49572, 31653, 101794, 760, 24565, 53734, 17953, -9352, -6095, 32323, -20028, 41871, 23064, 71705, 38563, 18706, 103342, 48912, 30719, 38184, -18880, 29978, 78692, 40420, 7479, 66326, 56062, 47987, 30596, 75210, 43865, 46508, 55549, 36533, 62640, 5073, 23852, 60209, 56029, 40039, 31545, 1339, -22615, 67570, -22875, 15450, 105411, -14088, 2954, 2343, 119398, 4970, 43992, -29541, 112219, -821, 1039, 22936, 13593, 53253, -19385, 66031, 70062, -24335, 56690, 6923}
#define CONV13_WT {0}
static const uint8_t CONV13_W_Z[] = 	 {-133, -95, -102, -141, -152, -136, -138, -176, -104, -108, -86, -167, -128, -116, -119, -123, -134, -157, -92, -127, -116, -94, -125, -123, -82, -152, -87, -134, -125, -130, -107, -86, -147, -111, -100, -163, -140, -90, -71, -137, -118, -130, -162, -120, -94, -205, -97, -119, -133, -88, -136, -149, -143, -86, -130, -117, -110, -121, -157, -87, -171, -172, -77, -129, -124, -121, -139, -93, -145, -162, -91, -124, -104, -109, -99, -92, -94, -157, -119, -121, -119, -109, -121, -106, -108, -121, -166, -146, -121, -122, -196, -124, -124, -119, -119, -162, -152, -55, -112, -188, -98, -85, -133, -80, -86, -133, -122, -163, -161, -136, -136, -129, -111, -163, -155, -140, -151, -126, -145, -109, -161, -150, -133, -105, -120, -129, -121, -87, -118, -68, -209, -166, -224, -132, -141, -148, -132, -103, -112, -114, -89, -162, -155, -132, -127, -106, -164, -119, -153, -90, -144, -160, -104, -65, -138, -158, -128, -83, -111, -140, -107, -83, -146, -135, -137, -131, -84, -156, -93, -121, -173, -161, -106, -169, -117, -125, -146, -96, -150, -116, -156, -121, -69, -140, -138, -105, -149, -147, -127, -74, -90, -72, -122, -144, -72, -127, -125, -76, -92, -63, -96, -95, -91, -102, -110, -144, -125, -134, -131, -125, -95, -204, -201, -145, -83, -119, -110, -146, -106, -169, -112, -117, -111, -86, -100, -120, -107, -131, -112, -136, -75, -113, -110, -151, -69, -85, -78, -64, -97, -119, -127, -72, -137, -102, -168, -154, -95, -94, -79, -135, -119, -123, -178, -62, -113, -112};
#define CONV13_IN_Z      	(0)
#define CONV13_OUT_Z     	(0)
static const int32_t CONV13_M_ZERO[] = 	 {1194846976, 1965048832, 1186720896, 2028851584, 1102702464, 1765692544, 1391984640, 1139946496, 1778097152, 2052188160, 1441454336, 1392845568, 1473096448, 1610678912, 1375748352, 1423842944, 1812240640, 1561847040, 1376808064, 1235597312, 1453552000, 1819654016, 1123331712, 1978578432, 1151446400, 1130888960, 1499525376, 1502272768, 1695842176, 2101781248, 1885451904, 1517391104, 1600805376, 1094567552, 1093635456, 1772742144, 1342579072, 1409248640, 1392952064, 2083466240, 1083850112, 1134762240, 1438713600, 1805764096, 1226023040, 1203891200, 1422172416, 1428834688, 1989469824, 1413548160, 1167361920, 1964263936, 1091659648, 1563259520, 1413038080, 1933509760, 1494377856, 1566690304, 1211193472, 1325075072, 2021478272, 1417864832, 1943608320, 1436312448, 1919748864, 1391745152, 1365283200, 1841019776, 1715831040, 1101597056, 1242116864, 1311073792, 1400420864, 1422748672, 1075968640, 1509465856, 1790411264, 1116824064, 1632696704, 1090457472, 1240666880, 1500889728, 1892382080, 1209833216, 2136363648, 1562575104, 2103813120, 1442440192, 1776172160, 1837089536, 1233965952, 1210963968, 1180008320, 1080611072, 1570864000, 1086718976, 1573407360, 1781437696, 1719714176, 1722638592, 1744283648, 1364888576, 2116232448, 1562575488, 2029759104, 1151678720, 2122534656, 1798598144, 1327916288, 1398466048, 1258607872, 1474257408, 2135004032, 1814756608, 1366204544, 1748114304, 1603525120, 1477100416, 1940347392, 1139711232, 1629412352, 1194803328, 2074125056, 1174081280, 1859661696, 1228247040, 1833054592, 1837525632, 1174240000, 1406983424, 1097547648, 1343116032, 1262556800, 1195748992, 1269730432, 1357953408, 2080046080, 1240287104, 1263643648, 2018751872, 1785516544, 1883963776, 1740503936, 1672391168, 1980470016, 1429480576, 1806603904, 1269227264, 1220161024, 1628456064, 1827239168, 1992243968, 1170585728, 1474440576, 1533770112, 1304626176, 1344054784, 1541883008, 1851980416, 1873835264, 1998705280, 1258369792, 1549414272, 2020239488, 1087198336, 1260422016, 1807808896, 1138951168, 2103132288, 1369654016, 1095894784, 1673358976, 1164618880, 1298166272, 1189005696, 1698504576, 2129617664, 1981163264, 1516581760, 1823324416, 1292063616, 1566536704, 2099872640, 1427910272, 2135572480, 2084797056, 1605582208, 1410390400, 1455355264, 1096597632, 1403116928, 1788901632, 1943063168, 1345266560, 1665426944, 1303529600, 1389032448, 1918606976, 1165415424, 1098168192, 1289357696, 1342727680, 1870280064, 2039047680, 1490598144, 1202816896, 1171980544, 1089478144, 1579856384, 1736715776, 2114058496, 1402353664, 2085764864, 1265471104, 1163811584, 1766657024, 2061940608, 1637183488, 1112318592, 1568226432, 1189205888, 1766806656, 1420551936, 1174697088, 1137414272, 1338725120, 1875195648, 1151443200, 1340456448, 1676745216, 1137419392, 1956530816, 1778332800, 1345086848, 1564673152, 1245497600, 1211651456, 1143188864, 1268703360, 1532825728, 1355517568, 1079936512, 1523943936, 1693180416, 1277384064, 1641398912, 1339846528, 1138870528, 2040279424, 1978279168, 1869665920, 2091048192, 1585684608, 1658155008, 1800093056, 1875900032};
static const int8_t CONV13_N_ZERO[] = 	 {0, 0, 0, 0, 0, 0, 0, 0, 0, 0, 0, 0, 0, 0, 0, 0, 0, 0, 0, 0, 0, 0, 0, 0, 0, 0, 0, 0, 0, 0, 0, 0, 0, 0, 0, 0, 0, 0, 0, 0, 0, 0, 0, 0, 0, 0, 0, 0, 0, 0, 0, 0, 0, 0, 0, 0, 0, 0, 0, 0, 0, 0, 0, 0, 0, 0, 0, 0, 0, 0, 0, 0, 0, 0, 0, 0, 0, 0, 0, 0, 0, 0, 0, 0, 0, 0, 0, 0, 0, 0, 0, 0, 0, 0, 0, 0, 0, 0, 0, 0, 0, 0, 0, 0, 0, 0, 0, 0, 0, 0, 0, 0, 0, 0, 0, 0, 0, 0, 0, 0, 0, 0, 0, 0, 0, 0, 0, 0, 0, 0, 0, 0, 0, 0, 0, 0, 0, 0, 0, 0, 0, 0, 0, 0, 0, 0, 0, 0, 0, 0, 0, 0, 0, 0, 0, 0, 0, 0, 0, 0, 0, 0, 0, 0, 0, 0, 0, 0, 0, 0, 0, 0, 0, 0, 0, 0, 0, 0, 0, 0, 0, 0, 0, 0, 0, 0, 0, 0, 0, 0, 0, 0, 0, 0, 0, 0, 0, 0, 0, 0, 0, 0, 0, 0, 0, 0, 0, 0, 0, 0, 0, 0, 0, 0, 0, 0, 0, 0, 0, 0, 0, 0, 0, 0, 0, 0, 0, 0, 0, 0, 0, 0, 0, 0, 0, 0, 0, 0, 0, 0, 0, 0, 0, 0, 0, 0, 0, 0, 0, 0, 0, 0, 0, 0, 0, 0};


/* Layer 14 Learned Parameters */
#define CONV14_BIAS \
 {2276, 478, 1142, -25089, -725, 32355, -13184, -9503, -2483, 28121, 6546, -944, 1259, 9257, 809, 6469, 14372, 93717, -1483, 598, 33207, 1949, -262, -280, 16970, 20014, 720, 18325, 6513, -2482, 1406, 2051, -6616, 298, -349, -257, 1370, 45890, 9193, 29831, 424, 29736, -543, 2998, -10933, 1398, -6759, 653, 26876, -749, 4474, -2927, 16948, 8250, 17256, 929, -4533, 266, -3311, 1854, 47299, 928, 842, 40229, 1477, 808, 134729, -1625, 11951, 99712, 13855, 1759, 220834, -2656, 2289, -214, 40376, 1400, 563, -18495, 624, 23659, 53519, -174, 11309, -68, -8539, 7222, 95, 48111, 50053, 1403, -11684, 16280, 1377, 108, 3413, 4246, 44978, 1094, 14389, 8567, 149, 1699, 33, 1226, 1354, 2307, 31337, 2600, 24843, -2516, -9985, -3523, 326, 2322, 120, 725, -826, 36436, -461, 685, 9341, 1101, 123, 175, -80, 2510, 1544, 197, 144, 319, 1459, -3672, 1242, -424, -765, 95905, 6373, -2373, 559, 397, 17732, 13765, 9257, 141, -31426, 2882, 13773, 303, -18591, 53601, 1477, 7310, -24206, 1541, 57970, 169, 28869, 1351, 7272, 21, -1371, 674, 1487, 397, 19954, 442, 67275, 19788, 3125, 2670, 6231, -3715, -9373, 18424, 23293, 3349, 529, 20117, 405, 3941, 4708, -4952, -6249, 150076, 846, 844, 177, -787, -796, 40728, 16937, -7899, -298, 8704, 106090, 58459, -13052, 2508, 54017, 623, 28, 251, 2677, -8211, -4709, 285, 3373, -70, 2517, 35318, 1138, -2657, 1860, -1985, -17, 1136, -3992, 51535, -253, 9504, -5604, 20415, 12722, 11398, 1336, 640, 527, 2737, -5344, 1442, -13071, 27783, 4, 78894, -273, 53524, -26846, 17170, -8507, -265, -1653, 5470, -132, 72021, -1455, 146, 23164, 97125, -1770, -792, -2404, -94, 41855, 610}
#define CONV14_WT {0}
static const uint8_t CONV14_W_Z[] = 	 {-29, -119, -82, 86, -110, -258, -20, -11, -85, -253, -30, -124, -106, -116, -105, -190, -239, -680, -126, -103, -147, -120, -85, -90, -240, -242, -120, -240, -43, -29, -122, -107, -10, -118, -121, 5, -159, -245, -39, -134, -118, -232, -126, -31, -23, -117, -29, -122, -268, -19, -39, -99, -238, -81, -215, -110, -92, -99, -89, -84, -271, -84, -125, -247, -57, -77, -397, -15, -46, -470, -105, -160, -680, -70, -84, -99, -282, -96, -125, -10, -88, -255, -257, -93, -42, -65, -78, -34, -119, -270, -268, -84, -16, -217, -126, -53, -38, -107, -287, -96, -241, -55, -106, -98, -107, -89, -95, -101, -227, -118, -253, -2, -4, -7, -98, -76, -131, -116, -96, -248, -6, -94, -188, -23, -113, -136, -101, -110, -84, -94, -96, -56, -95, -2, -90, -138, -93, -458, -158, -72, -101, -106, -70, -23, -59, -120, -27, -96, -226, -132, -4, -255, -88, -97, 24, -119, -261, -126, -213, -186, -50, -118, -152, -104, -98, -109, -242, -92, -317, -241, -122, -113, -52, -130, -16, -247, -226, -131, -117, -224, -115, -7, -21, -33, -10, -597, -94, -19, -91, -90, -34, -248, -240, -56, -124, -39, -292, -243, -10, -67, -250, -81, -87, -137, -149, -68, -47, -93, -106, -129, -68, -247, -99, -31, -75, -83, -57, -108, -55, -113, -123, -42, -19, -255, -242, -26, -108, -44, -100, -40, -21, -91, -9, -246, -110, -329, -106, -266, 6, -237, -44, -133, -111, -20, -119, -263, -111, -134, -231, -272, -143, -103, -92, -125, -265, -100};
#define CONV14_IN_Z      	(0)
#define CONV14_OUT_Z     	(0)
static const int32_t CONV14_M_ZERO[] = 	 {1893367424, 1319001600, 1441762048, 1381545984, 1206319872, 1184376320, 1704800640, 1123099008, 1414639616, 1351863936, 1911641728, 1555167616, 2104688128, 1967093504, 1655399680, 1615652480, 1867197312, 1599816320, 1645684608, 1621713920, 1113565056, 1893539072, 1714932224, 1511405824, 1463621504, 1239288192, 1401523968, 1414011136, 1288300672, 2101158400, 1075387904, 1350589568, 1391178240, 2031855488, 1589014272, 1387010560, 1342695168, 1486699648, 1203932544, 1583901568, 1437057024, 1784895232, 1729571584, 1186430848, 1876626048, 1582397440, 1922036864, 1224321920, 1202308480, 1116216576, 1331285760, 1782940672, 1395340416, 1612980864, 1268755712, 1334389760, 1902621440, 1685666048, 1352612352, 1252122496, 1295755392, 1560063232, 1266150528, 1770648704, 1675287040, 2094768640, 1473527040, 1092111744, 1202449408, 1561191168, 1600659840, 1688013440, 1258169088, 1460075392, 1412617344, 1403201408, 1219407744, 1643504384, 1306170368, 1497968768, 2057732608, 1977627392, 1174365184, 1797576832, 1942027776, 1488203776, 2049242496, 1630809088, 1740773632, 1924212736, 1599954688, 1294949760, 2147303040, 1608467840, 1247229952, 1200565248, 1929843200, 1647621760, 2041903232, 1969597824, 1191493888, 1553122176, 1296188160, 1388927360, 1329788032, 1548695168, 1173971328, 1949471360, 2035722752, 1488660608, 1534484608, 1811280896, 2065350272, 1985731200, 1433614848, 1437537152, 1140822400, 1503039744, 1754795264, 1521380224, 1742778368, 1119059200, 2082485248, 1133004160, 1150932480, 1108067712, 1221894272, 2034366208, 1189096576, 1907646336, 1348481792, 1942915584, 1985396736, 2080087936, 1167272832, 1454611584, 1567285888, 1631167104, 1551446144, 1075530368, 1477870848, 1590899712, 1223202944, 2074563072, 1441865856, 1754777472, 1150299136, 1296394880, 1166839552, 1384317184, 1156144384, 1835811456, 2007604480, 1230555392, 1118352000, 1659998208, 1410043136, 1391668608, 1444715136, 1449969152, 1903418496, 1363519232, 1792640512, 1333569792, 1796814976, 1719179136, 1888771584, 1581966464, 2019867264, 1170073728, 1417171328, 1561690752, 1416098560, 1555732096, 1545229184, 1858480896, 1459495168, 1550699776, 2067894784, 1914860672, 1195546624, 1174069120, 2037400320, 1197197824, 1476989568, 1254589568, 1326636800, 1833202048, 1931423104, 1415957120, 1381801216, 1087624192, 1315901696, 1249547136, 1606436224, 1106379648, 1944211072, 1434545024, 1353989632, 1868149760, 1963365376, 2068706816, 1649527936, 2058546048, 1968863872, 1257302400, 2139132800, 2039167744, 1431462656, 1208029440, 1899020160, 1185005056, 1483084800, 1387356160, 1433293952, 1834141824, 1948828416, 1256362368, 1192644480, 1251545088, 1413289856, 1278814336, 2002981248, 1393925632, 1359119232, 1360042624, 1423536128, 1215820032, 2116869632, 1288300288, 1410981120, 1100023424, 1256491136, 2039431808, 1547847296, 1142560896, 1356227968, 2079737344, 2020781568, 1212119936, 1392042624, 1672179328, 1301925120, 1198986880, 2060040576, 1257163776, 2048308864, 1690579200, 2025516160, 1355282304, 1627470336, 1338302720, 1994302976, 1195169792, 2053170432, 1962267264};
static const int8_t CONV14_N_ZERO[] = 	 {0, 0, 0, 0, 0, 0, 0, 0, 0, 0, 0, 0, 0, 0, 0, 0, 0, 0, 0, 0, 0, 0, 0, 0, 0, 0, 0, 0, 0, 0, 0, 0, 0, 0, 0, 0, 0, 0, 0, 0, 0, 0, 0, 0, 0, 0, 0, 0, 0, 0, 0, 0, 0, 0, 0, 0, 0, 0, 0, 0, 0, 0, 0, 0, 0, 0, 0, 0, 0, 0, 0, 0, 0, 0, 0, 0, 0, 0, 0, 0, 0, 0, 0, 0, 0, 0, 0, 0, 0, 0, 0, 0, 0, 0, 0, 0, 0, 0, 0, 0, 0, 0, 0, 0, 0, 0, 0, 0, 0, 0, 0, 0, 0, 0, 0, 0, 0, 0, 0, 0, 0, 0, 0, 0, 0, 0, 0, 0, 0, 0, 0, 0, 0, 0, 0, 0, 0, 0, 0, 0, 0, 0, 0, 0, 0, 0, 0, 0, 0, 0, 0, 0, 0, 0, 0, 0, 0, 0, 0, 0, 0, 0, 0, 0, 0, 0, 0, 0, 0, 0, 0, 0, 0, 0, 0, 0, 0, 0, 0, 0, 0, 0, 0, 0, 0, 0, 0, 0, 0, 0, 0, 0, 0, 0, 0, 0, 0, 0, 0, 0, 0, 0, 0, 0, 0, 0, 0, 0, 0, 0, 0, 0, 0, 0, 0, 0, 0, 0, 0, 0, 0, 0, 0, 0, 0, 0, 0, 0, 0, 0, 0, 0, 0, 0, 0, 0, 0, 0, 0, 0, 0, 0, 0, 0, 0, 0, 0, 0, 0, 0, 0, 0, 0, 0, 0, 0};


/* Layer 15 Learned Parameters */
#define CONV15_BIAS \
 {15531, -3812, 5408, 31410, 13807, 33977, 31241, 69068, 38744, 80504, 32819, -5573, 30865, 6345, 26893, -15715, 89433, 28859, 5346, 55421, -5385, 4067, 67478, 13062, 10519, 28510, 42994, 31437, -2559, 12597, 12717, -3204, 6151, 32740, 6634, 26556, 46800, 60322, -15894, 51251, 63283, 11943, 22770, 2627, 4786, 3140, 49090, 46081, 18449, -29373, 43527, 49478, 619, 102506, 35584, 38114, 10136, -9983, 10442, -1035, 15835, 44729, -33554, 12315, 24399, 115543, -23648, 30082, -13809, -715, -17308, 34321, 19445, 10149, 4422, 22586, 58178, 40658, 33764, 11188, 2549, 7543, -7337, 16174, -42509, 44021, -17509, -11236, 23260, 118629, -31326, 58424, 24186, 24234, -855, 47853, 40614, 35086, 19350, -4555, 37277, 48630, 43251, 34153, 71323, 8867, 110085, 2732, -12641, 10439, -6926, 56107, 158587, 36738, 2421, -5061, -27709, -18040, 11437, -13103, -4311, 17944, 27527, 27075, 9707, -15143, 50835, -22143, 24814, -23223, 25257, -2009, -27807, 66568, 32862, 74377, -17606, -16012, -2060, 72598, -2749, 25371, 45502, 19615, -25673, 30911, 23552, 14662, -2932, -54103, -12609, 16215, 11931, 8512, 10576, 53777, 51907, 32704, 7905, 45888, -9847, 28915, 31891, -46140, 42083, 104536, 41356, 6974, 5998, 5597, 28862, 19027, -15037, 52886, 35948, 4322, -3808, 24650, 102674, -6984, 20913, 13459, -11190, -1723, 19000, 28272, 7421, 41271, 47186, -1478, 26743, -441, 24467, 63395, 41643, 2527, 73380, 64005, 2925, 30381, -54013, 25676, 24186, 59494, -7866, -19470, 68070, 24676, 62673, 85353, 12255, 28771, 13687, 23843, 38993, 30507, 32549, 27700, 32563, -5694, 11138, 27349, -2217, 50174, -5930, 32785, 9568, -8587, -6612, 14556, -15012, 4347, 33671, 2039, 32816, 1173, 7071, 91168, 14629, -1878, 31090, 29326, 43592, 12391, 52345, 21562, -25225, 51332, 15576, 42933, 22445, 36482, -48097, -13272, 48533, 24371}
#define CONV15_WT {0}
static const uint8_t CONV15_W_Z[] = 	 {-81, -156, -164, -103, -132, -156, -113, -145, -151, -165, -81, -103, -108, -108, -131, -126, -126, -173, -107, -112, -132, -146, -104, -142, -155, -117, -119, -131, -130, -128, -108, -116, -105, -154, -126, -167, -152, -136, -131, -83, -139, -158, -129, -138, -179, -123, -82, -136, -137, -142, -113, -121, -122, -153, -176, -146, -121, -102, -173, -125, -110, -126, -126, -74, -139, -156, -102, -109, -69, -156, -106, -79, -96, -111, -98, -92, -112, -157, -208, -116, -135, -188, -118, -119, -149, -115, -129, -104, -97, -113, -142, -125, -144, -143, -116, -119, -80, -131, -162, -65, -164, -132, -140, -123, -129, -90, -137, -137, -122, -150, -105, -183, -119, -209, -130, -132, -119, -103, -119, -83, -100, -85, -79, -141, -120, -164, -138, -118, -166, -55, -139, -119, -157, -101, -151, -106, -104, -85, -124, -113, -144, -162, -104, -173, -130, -91, -137, -110, -140, -86, -110, -147, -111, -106, -101, -88, -115, -163, -135, -83, -115, -137, -123, -121, -121, -133, -117, -65, -177, -96, -139, -163, -127, -133, -104, -168, -103, -89, -121, -116, -191, -120, -124, -143, -132, -132, -189, -108, -101, -71, -156, -139, -92, -126, -184, -181, -115, -104, -154, -116, -103, -129, -155, -102, -93, -134, -129, -90, -126, -143, -117, -116, -132, -115, -133, -120, -123, -179, -132, -126, -124, -135, -146, -190, -135, -193, -121, -141, -157, -122, -142, -95, -164, -104, -168, -116, -88, -130, -82, -128, -132, -92, -131, -107, -153, -123, -167, -131, -108, -102, -141, -111, -137, -166, -148, -138};
#define CONV15_IN_Z      	(0)
#define CONV15_OUT_Z     	(0)
static const int32_t CONV15_M_ZERO[] = 	 {1139284864, 1297986944, 1141606656, 1462825728, 1574106496, 1374047488, 1206928640, 1859857664, 1781694080, 1189955456, 2106428544, 1940965120, 1133201280, 1078607488, 1429831168, 1967392128, 1841614976, 1097828736, 2028140288, 1579938816, 1391060608, 1313844992, 1505039232, 1170118016, 1176766208, 1386790784, 1629166592, 1383806080, 1414623232, 1582961152, 1174107008, 1159644160, 1394741120, 1169601536, 1658256768, 1391811328, 1451681664, 2135452032, 1911961600, 1445716864, 2074583168, 1895443200, 1444370688, 1329544832, 1182160896, 2020719744, 1450106752, 1551641984, 1787765888, 1184009216, 1522043776, 1226933888, 1822044544, 1640601984, 1668450176, 1201541632, 1484657408, 1751069952, 1566587264, 1477028608, 1696401920, 1564995200, 1136551552, 1916451840, 1545659136, 1491668224, 2034605696, 1466358784, 2073405184, 1135695616, 1514171520, 1752553088, 1635909120, 2134055936, 1670218752, 1266442496, 1082982400, 1302209152, 1363088512, 1235180544, 1127975168, 1793009792, 1265292928, 1336918528, 1328109184, 1472573184, 1906811392, 1594682624, 1198148352, 1503358336, 1734730112, 1393716992, 1952844800, 2130904064, 1963378816, 1698718848, 1385789824, 1356831104, 2025609728, 1328414976, 1339052544, 1274947456, 1287542272, 1886235008, 1170896128, 1138715392, 1129288064, 1605517440, 1989870080, 1108932992, 1217102336, 1171041536, 1557003008, 1150361728, 1195328000, 1304485504, 1309869696, 1197036288, 1236585216, 1649344512, 1347111808, 2085828480, 1333581440, 1973908736, 1583285760, 1770001664, 1897555200, 1412255104, 1317188736, 2086948992, 1934727168, 1791279360, 1698574464, 1982302592, 1182949120, 1264586368, 1169833856, 1262465536, 1485607808, 2036409344, 1441422720, 1883242624, 1159127808, 1887865728, 1754571136, 1375007232, 1916786688, 1399270144, 1769381248, 1468867072, 1311658112, 1374955264, 1849573888, 1587281024, 1854006016, 1832106880, 2104366592, 1716845568, 1189215232, 1341950848, 1616784384, 1521091456, 1793144448, 2086004992, 1292810752, 1400711296, 1923996288, 1250208128, 1842502912, 1137455360, 1896484352, 1892054528, 1388930432, 1979128960, 1798570240, 1792780032, 1548110976, 1387742080, 1685505536, 1234487936, 1188287488, 2080868352, 1720586624, 1766726784, 1691128704, 1184540672, 1269942912, 1168585728, 1396352896, 1099181952, 1737159936, 1946681728, 1581974272, 1395602304, 1113275520, 1807100544, 1815936512, 1293223552, 1331022720, 1439007360, 1113461120, 1461132928, 1510398336, 1222751616, 1519557248, 1432075136, 1232835328, 1349176960, 1207971584, 1162427264, 2103531776, 2005311104, 1136844416, 1099690880, 1459850112, 1360278272, 1654514944, 1868248704, 1995047296, 1627870080, 1845166464, 1464630016, 1876880256, 1439998848, 1808722560, 1312226560, 1661956096, 1327380224, 2056403584, 1558511104, 1164037248, 1785496704, 1115104640, 1252529920, 1738114944, 1552450816, 1777553152, 1293998592, 1111038976, 1588026496, 1679157504, 2134127488, 1785160832, 1212897536, 1918149760, 1431759104, 1950872192, 1847824896, 1202371712, 1292956288, 1610323200, 1096383616, 1547617792, 1876771328, 1827854720, 1267394688};
static const int8_t CONV15_N_ZERO[] = 	 {0, 0, 0, 0, 0, 0, 0, 0, 0, 0, 0, 0, 0, 0, 0, 0, 0, 0, 0, 0, 0, 0, 0, 0, 0, 0, 0, 0, 0, 0, 0, 0, 0, 0, 0, 0, 0, 0, 0, 0, 0, 0, 0, 0, 0, 0, 0, 0, 0, 0, 0, 0, 0, 0, 0, 0, 0, 0, 0, 0, 0, 0, 0, 0, 0, 0, 0, 0, 0, 0, 0, 0, 0, 0, 0, 0, 0, 0, 0, 0, 0, 0, 0, 0, 0, 0, 0, 0, 0, 0, 0, 0, 0, 0, 0, 0, 0, 0, 0, 0, 0, 0, 0, 0, 0, 0, 0, 0, 0, 0, 0, 0, 0, 0, 0, 0, 0, 0, 0, 0, 0, 0, 0, 0, 0, 0, 0, 0, 0, 0, 0, 0, 0, 0, 0, 0, 0, 0, 0, 0, 0, 0, 0, 0, 0, 0, 0, 0, 0, 0, 0, 0, 0, 0, 0, 0, 0, 0, 0, 0, 0, 0, 0, 0, 0, 0, 0, 0, 0, 0, 0, 0, 0, 0, 0, 0, 0, 0, 0, 0, 0, 0, 0, 0, 0, 0, 0, 0, 0, 0, 0, 0, 0, 0, 0, 0, 0, 0, 0, 0, 0, 0, 0, 0, 0, 0, 0, 0, 0, 0, 0, 0, 0, 0, 0, 0, 0, 0, 0, 0, 0, 0, 0, 0, 0, 0, 0, 0, 0, 0, 0, 0, 0, 0, 0, 0, 0, 0, 0, 0, 0, 0, 0, 0, 0, 0, 0, 0, 0, 0, 0, 0, 0, 0, 0, 0};


/* Layer 16 Learned Parameters */
#define CONV16_BIAS \
 {36140, -3772, 29406, 2701, -6989, -5006, -686, 4649, -4971, 23740, 56915, -6447, -3238, 61037, 68652, 288773, 23843, -22788, -10868, 8736, 11875, 2828, 615, -7869, 104445, -12921, 4845, 487, -4421, -37241, -7674, 71227, 155230, -4522, -5238, 3908, -14706, -45655, -1673, 23729, -10512, 5541, 14274, -4810, -22541, -2943, 49463, -736, -8343, -9123, 23041, 50360, -1722, 9091, -18155, -4846, -5250, 59442, -4147, 7587, 73532, -8991, -16830, 79696, -2598, -9137, -4717, -1931, -1077, 69549, 103700, 26776, 3348, -11188, 58084, 39173, -6514, -69490, 34866, 55215, 11365, -3038, 23781, -9340, 140107, 2130, -22385, -6752, 15043, 5695, -7898, -9043, -4811, -174, -6858, 6326, 30594, 47699, 9197, 8548, -10176, 2207, -2049, 40219, -5737, 66405, 10770, -2567, -330, -11367, 31265, 17373, 21544, 28864, 16511, -16343, -10567, 142, 64035, -12165, -3261, -11395, 2190, -940, -71982, -10073, 7036, -18151, 13698, 34361, -66406, 95064, 52487, 7686, -21694, -16318, -25782, 99194, -11450, 6294, -5458, -63338, -18422, 27343, 2687, 62019, -3603, 59136, 7116, -22906, 4855, -1014, -45474, -1363, 68307, 26002, 18158, 10944, 10383, 2747, -17488, 56490, 53728, -7310, 50759, 4925, 6985, 58, 25129, -31051, -4201, 22343, -1838, 13682, 4296, 10101, -12404, -10378, 24560, 32744, 19787, -5317, -14616, -14429, -3461, 50469, 16522, 93, 27353, -8509, -3133, 58781, -19472, 15733, -60393, 12614, 1752, -1311, 51049, 94089, -2944, 19136, -12957, -389, 4661, 26188, -396, 35257, 1525, 169975, 4111, 2927, -5339, 187, -8758, 22145, 4327, 15447, 52598, -1271, -5189, -26129, -12076, 38, 12621, 6726, 7815, -13625, -14571, -7822, -7586, -14303, -13499, 78737, -50746, -11411, 13, 109578, 141534, -12453, -232, 51510, 8522, 37268, 8126, -2556, 3806, 50517, 48900, -42406, 6276, -1549, -12073, -7531, 7979, -38997}
#define CONV16_WT {0}
static const uint8_t CONV16_W_Z[] = 	 {-253, -28, -125, -119, -3, -77, -2, -156, -66, -251, -276, -4, -69, -305, -285, -855, -248, 0, -35, -54, -100, -77, -152, -66, -400, -20, -90, -55, -54, 103, -19, -280, -456, 3, 16, -88, -17, -23, -13, -228, -24, -25, -138, -11, -39, -12, -223, -106, -19, -15, -171, -193, -137, -44, -2, -83, -44, -273, -56, -104, -338, -37, 44, -322, -14, -60, -19, -46, -28, -357, -363, -77, -26, 16, -305, -292, -103, 55, -259, -177, -51, -112, -161, 20, -331, -53, -6, -64, -101, -46, -3, -24, -94, -50, -33, -54, -159, -286, -94, -95, -63, -111, -15, -219, -71, -307, -61, -101, 32, -7, -154, -153, -233, -211, -154, 33, -26, -177, -361, -9, -19, 15, -25, -124, 23, 15, -72, 17, -89, -269, 82, -307, -221, -45, 27, -26, 32, -386, -2, -126, -17, 23, -2, -125, -69, -258, -125, -275, -58, 26, -94, -121, 59, -17, -350, -216, -248, -90, -172, -141, -8, -296, -324, 11, -249, -35, -32, -82, -96, 33, -115, -96, -21, -179, -23, -103, 13, 9, -241, -157, -147, -23, 12, -10, -89, -266, -192, -115, -261, -22, -29, -192, 24, -139, 16, -129, -16, -20, -303, -345, -77, -91, -46, -16, -71, -272, -93, -217, -24, -707, -73, -63, -12, -207, -11, -262, -105, -93, -251, -41, -25, -13, 10, -30, -92, -73, -145, -9, -7, 12, 22, -11, -23, -356, 13, -8, -138, -321, -419, -5, -127, -243, -37, -273, -86, -41, -69, -295, -284, -10, -114, -127, 23, -44, -84, 37};
#define CONV16_IN_Z      	(0)
#define CONV16_OUT_Z     	(0)
static const int32_t CONV16_M_ZERO[] = 	 {1270500224, 1380818688, 1725330816, 1261403776, 1910081536, 1119188096, 1679543680, 1773076352, 1623369088, 1684282880, 1288990848, 1927602944, 2139459840, 1414612992, 1146093696, 1865634304, 1166906240, 1231995392, 1669672704, 1919188736, 1444315264, 1550633472, 1578065536, 1745052416, 1490716288, 1347840000, 1718247680, 1092513920, 2101743360, 2125859968, 1692784384, 1480487552, 2042191360, 1856460928, 1120700544, 1085418112, 2031088640, 2123147776, 1691419008, 1323880576, 2136067072, 1112712960, 1455419264, 2074921856, 1819566464, 2044866816, 1759095680, 1494707968, 1825844608, 2131419392, 1234891392, 1377943936, 1347010176, 2100602112, 1161954432, 1637319680, 1415800448, 1842143616, 1806689920, 1216204288, 2080472192, 1711366784, 1477194112, 1725812608, 2033225088, 1409876352, 1096138112, 1946749696, 1244781568, 1559981568, 2050993024, 1144913920, 1798231040, 1418881408, 1452919552, 1176987904, 1821658880, 1144587136, 1442558976, 1211427072, 1096348288, 1535834880, 1190016512, 1511444992, 1651119616, 2089169024, 1194752512, 1176900992, 1934680320, 1421927168, 1964302592, 1124214784, 1273548288, 1995606656, 1867352576, 1842214016, 1230509056, 1081738880, 1990072960, 1441336064, 1281785984, 1389963520, 1258094080, 2037245568, 1731887488, 1411519488, 1224288000, 1845109120, 1791080960, 1984632960, 1569152640, 1256655232, 1472917760, 1719862528, 1216361088, 2117008512, 1209064192, 1342811520, 1829143552, 1160751104, 2038575232, 2008352128, 1151191680, 1538094208, 1435677312, 1181426048, 1517656704, 1132148480, 1082049792, 1874730112, 1363740416, 1726838144, 1737521408, 1337845504, 1460656384, 2110036864, 2026459648, 1324244352, 1708905984, 1679203328, 1741262336, 1684741888, 1568628352, 1769212416, 1865030400, 1289402368, 1416024192, 1488375680, 1149283584, 1372568960, 1409940864, 1268152064, 1923316480, 2032519424, 1243931904, 1976352256, 1699156480, 1353772160, 1555722624, 1224922752, 1866037632, 1632491008, 1416454272, 1117926912, 1773706368, 1878598528, 1925124864, 2112683648, 1141978624, 1785789056, 1506743808, 1092667136, 1362786944, 1636333184, 1167328896, 1080718080, 1663806848, 1505126656, 1380296704, 2048140160, 1395942144, 1671902080, 2027355008, 1621698432, 1533612928, 1877405696, 1224919424, 2047380608, 2101699072, 1293504896, 1878891904, 1663409664, 2146144640, 1502499968, 1581688320, 1359863936, 1493998976, 2121248512, 1396294784, 1683821056, 1206691456, 1334494720, 1854915840, 2072056704, 1425404416, 1596053248, 1750272000, 1327254912, 1388494336, 1691887744, 1484105216, 1215519744, 1099632128, 1580264576, 1172298368, 1297223936, 1666000768, 1559408000, 1389377792, 2061058304, 1964445184, 1704777344, 1100025344, 2004300800, 1690788480, 1998584320, 1352821248, 1342887680, 1135337472, 1445873664, 1384621824, 1374043136, 1722076160, 1137349120, 1241056128, 1209117696, 1572126464, 1412160896, 1133215104, 1395448448, 1370413312, 1247136768, 1504342144, 2062903680, 1970084352, 2023304320, 1122894208, 1145976448, 1677960960, 1333886976, 1188923136, 1597656192, 1553700480, 1943699712, 1935406720, 1432499712};
static const int8_t CONV16_N_ZERO[] = 	 {0, 0, 0, 0, 0, 0, 0, 0, 0, 0, 0, 0, 0, 0, 0, 0, 0, 0, 0, 0, 0, 0, 0, 0, 0, 0, 0, 0, 0, 0, 0, 0, 0, 0, 0, 0, 0, 0, 0, 0, 0, 0, 0, 0, 0, 0, 0, 0, 0, 0, 0, 0, 0, 0, 0, 0, 0, 0, 0, 0, 0, 0, 0, 0, 0, 0, 0, 0, 0, 0, 0, 0, 0, 0, 0, 0, 0, 0, 0, 0, 0, 0, 0, 0, 0, 0, 0, 0, 0, 0, 0, 0, 0, 0, 0, 0, 0, 0, 0, 0, 0, 0, 0, 0, 0, 0, 0, 0, 0, 0, 0, 0, 0, 0, 0, 0, 0, 0, 0, 0, 0, 0, 0, 0, 0, 0, 0, 0, 0, 0, 0, 0, 0, 0, 0, 0, 0, 0, 0, 0, 0, 0, 0, 0, 0, 0, 0, 0, 0, 0, 0, 0, 0, 0, 0, 0, 0, 0, 0, 0, 0, 0, 0, 0, 0, 0, 0, 0, 0, 0, 0, 0, 0, 0, 0, 0, 0, 0, 0, 0, 0, 0, 0, 0, 0, 0, 0, 0, 0, 0, 0, 0, 0, 0, 0, 0, 0, 0, 0, 0, 0, 0, 0, 0, 0, 0, 0, 0, 0, 0, 0, 0, 0, 0, 0, 0, 0, 0, 0, 0, 0, 0, 0, 0, 0, 0, 0, 0, 0, 0, 0, 0, 0, 0, 0, 0, 0, 0, 0, 0, 0, 0, 0, 0, 0, 0, 0, 0, 0, 0, 0, 0, 0, 0, 0, 0};


/* Layer 17 Learned Parameters */
#define CONV17_BIAS \
 {39230, 71274, 47467, 9410, 100053, 18863, -15675, 19509, 39233, 7677, 9280, -9889, -1572, 35636, 30138, -1345, 19035, 22449, 11465, 36672, -27815, 42345, 4213, -6226, -38490, 23987, -15443, 4269, 26568, -13980, 13299, -15283, 6517, 11035, -11718, 2315, -41798, 37575, -29722, -9970, 3713, 14044, 49152, -11088, -21089, -4223, -26290, 4603, -23101, 101770, 1214, 1949, -32151, 13550, -46640, -22097, 15453, -20825, 20572, -15686, 8099, 26683, -40695, 412, 68366, 2356, -61403, 391, 19573, 45232, -6124, 7351, -14131, 39197, -81691, 74449, -6043, 10879, 15221, 18352, 48527, -11246, 4536, -20467, -7116, 4566, 36651, 17500, 23031, 54002, 75150, 11919, -33437, -2054, 22815, 604, -4707, 78, -23659, 12748, -2685, 21477, -17130, 2604, 34077, 18772, 8924, 12364, -5257, 4706, 95284, -3666, 23339, 75834, -11433, 17913, -6013, -18896, -6610, -33115, -38579, -40793, -32326, -36271, -39417, -22996, 75439, -6753, 19781, 5087, 47964, -6932, -14058, 43275, 54015, 11266, 15380, -30888, 17470, -14810, -9458, 84656, 85087, -15043, 26272, 93577, -8705, -34487, 44441, 76545, -25394, -35837, -17297, 39250, 20019, -3772, 1650, -2395, 4929, 1405, -11823, -6438, -15694, -43018, 1978, 22318, -21621, 13590, 60671, -51908, -5777, 10473, 43810, 25513, 8807, 59151, -32318, -44396, -21506, 19094, -2694, -16791, -1382, 29839, -37813, -1455, 154029, 12626, 17725, -3545, 3092, 6012, 24569, 25341, 4696, 17082, 65568, 1086, -1585, 24954, 6683, 2540, -19043, 32197, -21770, 6570, -2594, -17115, 11096, 35671, -19809, -9454, 6249, -14981, -7278, -42021, 795, -15594, -65, 3724, 9662, 13973, 44187, 13649, 59585, -711, 52428, -30569, -55879, -7144, -9666, -17266, 21099, -30386, -5678, 17887, -39325, -27853, 68658, 923, -753, 80666, 7865, -4443, -23826, -28153, 18283, 7205, -8978, 14572, 6329, 3767, -20289, 23083, -11204, -3488}
#define CONV17_WT {0}
static const uint8_t CONV17_W_Z[] = 	 {-98, -106, -113, -133, -150, -132, -112, -131, -130, -126, -139, -131, -120, -136, -120, -152, -82, -115, -87, -157, -78, -170, -128, -147, -120, -105, -140, -99, -126, -137, -120, -121, -148, -123, -71, -96, -159, -125, -106, -111, -106, -122, -113, -126, -129, -159, -81, -117, -62, -153, -117, -160, -133, -99, -81, -112, -117, -86, -129, -112, -92, -126, -109, -118, -117, -149, -94, -92, -129, -91, -154, -104, -154, -104, -104, -150, -114, -120, -127, -170, -135, -97, -162, -136, -158, -117, -111, -90, -144, -130, -140, -167, -138, -80, -106, -114, -99, -99, -136, -156, -58, -155, -132, -134, -109, -127, -94, -130, -115, -190, -160, -117, -142, -95, -93, -123, -105, -67, -106, -121, -100, -103, -99, -145, -146, -137, -123, -129, -138, -123, -112, -71, -123, -156, -159, -155, -129, -147, -106, -149, -106, -136, -125, -143, -138, -154, -118, -108, -105, -133, -116, -146, -125, -127, -148, -145, -161, -92, -165, -101, -130, -154, -122, -138, -96, -120, -101, -101, -89, -73, -137, -139, -66, -108, -101, -144, -172, -140, -149, -137, -132, -127, -121, -129, -133, -147, -138, -144, -133, -131, -112, -171, -121, -153, -155, -122, -122, -82, -111, -134, -112, -100, -127, -97, -135, -187, -115, -96, -175, -139, -141, -127, -145, -152, -120, -82, -152, -142, -153, -127, -91, -155, -136, -109, -113, -140, -109, -162, -118, -106, -107, -169, -121, -103, -58, -94, -91, -146, -123, -131, -123, -127, -141, -83, -136, -88, -102, -174, -135, -147, -111, -88, -82, -153, -155, -97};
#define CONV17_IN_Z      	(0)
#define CONV17_OUT_Z     	(0)
static const int32_t CONV17_M_ZERO[] = 	 {1084422656, 1949974272, 1397232000, 1342887808, 1905505536, 1877600256, 1109056128, 1750190848, 1967828352, 1315443456, 1559151360, 1738281216, 2119946624, 1879173120, 1119187840, 1345363584, 2124008704, 1275899648, 1600645376, 1629327616, 1468868992, 1785675904, 1248565248, 1077772160, 1394887680, 1854844288, 1661706368, 1177299328, 1422837888, 1325741184, 1976084096, 1124015360, 1353000576, 1929043456, 1498674176, 1320667648, 1905188480, 2136094976, 2128690176, 1312063232, 1919542272, 1450322944, 1317767040, 1240846976, 1532206336, 1424513024, 1808011648, 1143783808, 1561341568, 1858853760, 2075211776, 1816769920, 1677028480, 1599873152, 1077445888, 1574469120, 1692002688, 2043903232, 1656254720, 1975745280, 1661548800, 1474689152, 1364230528, 1923984640, 2131744256, 1659826304, 1304849024, 1213425664, 1326709888, 1333338624, 1308929792, 1593833472, 1137154816, 1238859776, 1095742592, 1095366784, 1289395584, 1293316736, 1257906176, 1435172992, 1091894528, 1869409408, 1339749376, 2123957120, 1231316736, 2035355776, 1912853504, 1483039616, 1461745024, 1112290944, 1466920704, 1844726400, 1336307072, 1145284864, 1793043456, 1540608000, 1711595520, 1890685312, 1309206016, 1363215488, 1988504576, 1811673600, 2119942144, 1461179008, 2084072832, 1845628928, 1706578816, 1303137152, 1321359872, 1138194048, 2106814976, 1500151040, 2110713856, 1780794240, 1505938816, 1709800832, 1074405760, 1169677568, 1569072768, 1490425856, 1783558016, 1584945664, 2040243456, 1558511744, 1324594304, 1179644544, 2037136896, 1194645120, 1134226816, 1217487744, 1368531072, 1215019392, 1908751744, 2055646336, 1704408832, 1523759616, 1487235200, 1103655936, 1171619200, 1435887744, 1947879552, 1371342080, 1306833152, 1570592768, 1916557312, 1097905920, 1484443264, 1381428992, 1836508672, 1844831104, 1360531712, 1281091328, 1687008128, 1336457472, 1736686208, 1074049280, 1398143488, 1664456832, 1671756800, 1754759296, 1309659136, 1196612224, 1852377216, 1572387456, 1144902528, 1248275456, 1520476928, 1770054016, 1619025664, 1814764544, 1612801280, 1636542080, 1887280768, 1088135552, 2136887296, 1407548800, 1993658496, 2058704128, 1457120384, 1352300800, 1302110464, 1266026624, 1524304128, 1766476672, 1269242624, 1726837888, 1806618112, 1407944576, 2058028800, 1382325888, 1490944256, 1379030016, 1479462272, 1334937472, 1099321984, 1590821632, 1927032576, 2141493632, 1530273792, 1891840256, 1122363136, 1971346816, 1692255104, 1142852992, 1439580032, 1467455744, 1772233984, 1386305536, 1203343744, 1656361984, 1396365312, 1921267072, 1397858944, 1547753856, 1624397312, 1937988096, 1982941952, 1794832000, 1670842368, 1479247744, 1819088384, 1642885504, 1702793728, 1613980544, 1940508032, 1204687488, 1557249408, 1650869120, 1288002176, 1458987264, 1899473280, 1270758016, 2107445504, 1841519360, 1448774784, 1718844032, 1876898560, 2032843776, 1400638592, 1395727104, 2066123904, 1815516416, 1633118464, 1262620544, 1233511424, 1257189376, 1181958912, 1095341312, 1824542336, 1188707200, 1625591936, 1292736128, 2071528704, 2101215104, 1767230592, 1380844288};
static const int8_t CONV17_N_ZERO[] = 	 {0, 0, 0, 0, 0, 0, 0, 0, 0, 0, 0, 0, 0, 0, 0, 0, 0, 0, 0, 0, 0, 0, 0, 0, 0, 0, 0, 0, 0, 0, 0, 0, 0, 0, 0, 0, 0, 0, 0, 0, 0, 0, 0, 0, 0, 0, 0, 0, 0, 0, 0, 0, 0, 0, 0, 0, 0, 0, 0, 0, 0, 0, 0, 0, 0, 0, 0, 0, 0, 0, 0, 0, 0, 0, 0, 0, 0, 0, 0, 0, 0, 0, 0, 0, 0, 0, 0, 0, 0, 0, 0, 0, 0, 0, 0, 0, 0, 0, 0, 0, 0, 0, 0, 0, 0, 0, 0, 0, 0, 0, 0, 0, 0, 0, 0, 0, 0, 0, 0, 0, 0, 0, 0, 0, 0, 0, 0, 0, 0, 0, 0, 0, 0, 0, 0, 0, 0, 0, 0, 0, 0, 0, 0, 0, 0, 0, 0, 0, 0, 0, 0, 0, 0, 0, 0, 0, 0, 0, 0, 0, 0, 0, 0, 0, 0, 0, 0, 0, 0, 0, 0, 0, 0, 0, 0, 0, 0, 0, 0, 0, 0, 0, 0, 0, 0, 0, 0, 0, 0, 0, 0, 0, 0, 0, 0, 0, 0, 0, 0, 0, 0, 0, 0, 0, 0, 0, 0, 0, 0, 0, 0, 0, 0, 0, 0, 0, 0, 0, 0, 0, 0, 0, 0, 0, 0, 0, 0, 0, 0, 0, 0, 0, 0, 0, 0, 0, 0, 0, 0, 0, 0, 0, 0, 0, 0, 0, 0, 0, 0, 0, 0, 0, 0, 0, 0, 0};


/* Layer 18 Learned Parameters */
#define CONV18_BIAS \
 {4750, 365, 7788, -14856, 24225, -5471, -6231, -10944, 3264, 40960, 25332, 783, 38099, -14415, 66982, -11174, 40698, 37859, -12265, 30486, -6952, 75005, 518, 1274, 65286, 17427, 22276, -4395, 58374, 131814, -6512, 36906, 67240, 60647, 53874, -23927, -28335, -2668, 61707, -6837, -1191, 32960, 95809, 23017, 25117, -3066, -401, 46045, -20678, 25430, -24926, 40780, 85880, 77718, -11998, 54163, 146249, 37814, 18996, 2746, -817, 18056, -5427, -9799, 33960, -4124, -4008, -2700, 130403, -13883, 113286, -5830, -13462, -3062, -11172, 22597, 15188, -5242, 71241, 50015, 2406, -824, -8932, -9684, -67276, 44844, 4725, -1242, -2070, 12758, 7395, -35746, -6250, 37425, -16279, 53, -6475, 35859, -3082, 23063, 41359, -20964, -3513, 23957, 16979, -246, 1480, 21758, -2451, 94744, 25067, 45820, 17893, 23107, -6836, -18932, 47786, 38176, 32952, 2418, 19769, -21334, 182225, -28958, 12738, -21512, 49888, -9609, -21138, -23842, 16899, 105350, -301, -10330, 31701, 16478, -6759, 126619, -4023, 8153, 68441, 8144, 42623, -10041, -19936, 14093, 13922, -1616, 24390, 8100, -18537, 157012, -12097, 31526, 25443, -16893, 43365, -19825, 28951, -6005, -9281, -9826, 21495, -14413, 72233, -14511, 189963, -14010, 8849, -202, 73001, 31491, 28973, 117313, 77171, 73318, -8680, -16138, 9540, -4295, 11965, -13467, -7827, -2862, 17815, 41460, 4748, -31796, 51676, 16583, 23624, 71013, 21112, 8060, -21025, 75208, 18483, 153780, -472, -45, -2914, -18786, -13301, 34112, -20015, 28184, -42870, 20506, 44073, -19912, 129157, 26142, 10924, -11125, 174867, 110076, -4717, -7211, -19230, -7780, 40780, 103701, 175919, 117483, 36777, 105117, 18603, 141215, -11070, -7291, 72, 56725, -4334, -3730, 125890, 23155, -5700, -735, 18337, 15404, -39116, 29564, -19558, 58446, 94228, -19973, 22928, 20532, -5318, 18004, -5336, -7259, -13551, 27951, -11543, -2504}
#define CONV18_WT {0}
static const uint8_t CONV18_W_Z[] = 	 {-29, -16, -52, -23, -255, -7, -19, -15, -55, -207, -107, -107, -249, 29, -183, 6, -224, -180, -35, -231, -2, -207, -114, -109, -245, -114, -192, -16, -171, -351, -102, -224, -325, -132, -272, -8, 34, -79, -288, -9, 1, -96, -279, -148, -130, -88, -5, -205, -32, -240, -18, -263, -286, -377, 8, -148, -463, -380, -101, 19, -33, -154, 16, -74, -259, 0, 4, -64, -319, -5, -330, -16, 4, -20, 47, -264, -176, -11, -467, -255, -59, 5, -10, -109, 15, -209, -36, -22, -59, -60, -50, 33, -104, -144, 34, 38, -122, -156, -93, -157, -273, -67, 57, -180, -94, -6, -108, -104, -152, -436, -240, -248, -105, -222, 3, 5, -93, -366, -156, -15, -106, 15, -407, 61, -173, 81, -254, 39, 11, -14, -163, -465, -42, 29, -264, -123, 22, -322, -16, -56, -283, -37, -150, -80, -29, -181, -107, -53, -200, -31, -2, -369, 22, -186, -206, -67, -270, 0, -155, -8, -4, -12, -138, 35, -378, -3, -567, -31, -36, 20, -325, -188, -252, -451, -311, -274, -31, -32, -72, -53, -134, -2, -27, -91, -114, -233, -32, -18, -355, -106, -113, -302, -87, -103, 133, -259, -210, -529, -7, -105, -58, 19, 9, -273, -9, -132, -7, -79, -268, 58, -592, -94, -59, 13, -353, -628, 1, -104, -52, 1, -168, -317, -570, -377, -283, -332, -249, -369, -8, -40, -93, -362, -84, 36, -634, -159, -34, -82, -149, -118, -26, -193, 25, -267, -392, 10, -248, -98, -2, -98, 6, 7, 6, -120, -22, -19};
#define CONV18_IN_Z      	(0)
#define CONV18_OUT_Z     	(0)
static const int32_t CONV18_M_ZERO[] = 	 {1107590400, 1217163520, 2017275392, 1227542016, 1578936704, 1722765056, 1165230720, 1085714432, 1277252608, 1438308992, 1593650304, 2043218048, 1644268544, 1135360768, 1964200320, 1682364800, 1091309824, 1838967680, 1657731200, 1960919296, 1746075136, 1352587648, 1860766336, 1700493056, 1627853440, 1340884736, 1428568704, 1492397440, 2074654976, 1644981248, 1353350400, 1699957888, 2040970752, 2087606784, 1113285888, 1445420672, 1154979328, 1683080448, 1250890240, 1712761600, 1532696576, 1891249280, 1477099520, 1728466816, 1783881984, 1949900416, 1387649664, 1353759488, 1105690880, 1690997888, 1111768320, 1154792960, 1477040128, 1572951040, 1162646784, 1075981312, 1671915648, 1733047680, 1354285568, 1821675776, 1929359488, 1900551040, 1940983936, 1648710656, 1942692352, 1667758336, 1909599360, 1539594624, 1424360192, 1687705984, 1484535168, 1716247808, 2093154048, 1293488896, 1788776576, 1252496896, 1605930880, 1284520960, 1734545792, 1115998592, 1395944192, 2015640704, 1157528576, 1144890112, 1421418880, 1388353280, 1153765888, 1280755200, 1647667584, 1163282944, 2078149632, 1519768704, 1634106240, 1784163840, 1525421568, 1441823232, 1131647232, 1816279040, 1227262464, 1933112192, 1496473984, 1912281984, 1589167744, 1696980096, 1170725120, 1283990016, 1614569344, 2074777472, 1597456512, 1553326848, 1952702336, 1800439680, 1489214464, 1353691136, 1735420288, 1877552128, 1280596992, 1244427648, 1092083712, 1786859264, 1326726784, 1484998272, 1131100928, 1190298752, 1783136256, 1719472000, 1758533888, 1161275648, 2015885824, 1099768960, 2141185792, 1373224192, 1237112576, 1416378240, 1653467776, 1130081280, 1573250304, 1935850112, 2043575296, 1216465408, 1464283392, 1825996160, 1342228352, 1284336128, 1105789952, 1258447616, 1212643328, 1950609408, 2061694592, 1869396224, 1997696128, 1283917312, 1446602112, 1543342720, 1595835264, 1823512320, 1469032192, 1505459456, 1754109184, 1470363648, 1208648064, 1364012800, 2026761856, 1197123072, 1092673152, 1807298176, 1457487616, 1136760064, 1608941696, 1365165952, 1738403072, 1118639616, 1114164096, 1894292224, 1596534656, 1995339264, 1080805888, 1898696064, 1835393536, 1175266944, 1939640960, 1920440192, 1104758912, 1282092416, 1834531328, 1330600064, 1241201664, 1892650880, 1809991552, 1969388672, 2067932928, 1649951104, 1396989056, 1811302528, 1818077440, 1879363840, 1859971328, 1440454272, 1737052928, 2034360448, 1118501888, 2085497984, 1564491264, 1235598592, 1189168640, 2001520384, 1993169920, 1186395264, 2051423744, 1107362432, 1779820160, 1712069504, 1204213504, 1469547776, 1898480384, 2009004800, 1634168832, 2044564480, 1896393472, 1954474368, 1610590720, 1685142400, 1511983104, 1555103872, 1264720000, 2016134400, 1319963520, 1620830976, 1535186560, 2030049536, 1418803968, 1390992512, 1334858368, 1151568896, 1519023232, 2068106240, 1136092928, 1103898624, 1120294144, 2061218560, 1448144000, 1854760192, 1530056448, 1426025344, 1437044992, 1536304896, 1236128896, 2140178432, 1392878592, 1108651648, 1930643712, 1153112960, 1171869824, 1147555456, 1527824128, 1155354112};
static const int8_t CONV18_N_ZERO[] = 	 {0, 0, 0, 0, 0, 0, 0, 0, 0, 0, 0, 0, 0, 0, 0, 0, 0, 0, 0, 0, 0, 0, 0, 0, 0, 0, 0, 0, 0, 0, 0, 0, 0, 0, 0, 0, 0, 0, 0, 0, 0, 0, 0, 0, 0, 0, 0, 0, 0, 0, 0, 0, 0, 0, 0, 0, 0, 0, 0, 0, 0, 0, 0, 0, 0, 0, 0, 0, 0, 0, 0, 0, 0, 0, 0, 0, 0, 0, 0, 0, 0, 0, 0, 0, 0, 0, 0, 0, 0, 0, 0, 0, 0, 0, 0, 0, 0, 0, 0, 0, 0, 0, 0, 0, 0, 0, 0, 0, 0, 0, 0, 0, 0, 0, 0, 0, 0, 0, 0, 0, 0, 0, 0, 0, 0, 0, 0, 0, 0, 0, 0, 0, 0, 0, 0, 0, 0, 0, 0, 0, 0, 0, 0, 0, 0, 0, 0, 0, 0, 0, 0, 0, 0, 0, 0, 0, 0, 0, 0, 0, 0, 0, 0, 0, 0, 0, 0, 0, 0, 0, 0, 0, 0, 0, 0, 0, 0, 0, 0, 0, 0, 0, 0, 0, 0, 0, 0, 0, 0, 0, 0, 0, 0, 0, 0, 0, 0, 0, 0, 0, 0, 0, 0, 0, 0, 0, 0, 0, 0, 0, 0, 0, 0, 0, 0, 0, 0, 0, 0, 0, 0, 0, 0, 0, 0, 0, 0, 0, 0, 0, 0, 0, 0, 0, 0, 0, 0, 0, 0, 0, 0, 0, 0, 0, 0, 0, 0, 0, 0, 0, 0, 0, 0, 0, 0, 0};


/* Layer 19 Learned Parameters */
#define CONV19_BIAS \
 {28023, 40676, 14051, -36074, 35856, -44715, -11318, -10645, 18720, 40111, 23444, 1767, 38231, 54373, 41161, 12829, 19852, 6616, -22449, 83420, -40479, -14514, -16804, 90155, -36574, -36423, -21592, 43516, 17110, -6356, 742, -20603, -13378, -44503, 38261, 13919, 55745, 31853, 8648, 17347, 5246, 1881, 4099, 82716, -58815, -34532, -3730, -22809, -6242, -10088, 3972, 21215, -7817, -29064, 57622, 29016, 28220, 281, -484, -11267, 26790, -8624, 5471, 36856, -22508, 8611, 19018, -37125, -3226, -48372, 16693, -18897, 784, 31698, 7108, -53252, 29454, 492, -120378, 21172, 7904, 127798, 35745, -17928, -57189, -35021, -4623, 46893, -13428, -9978, -12530, -39880, -62349, 8812, -24081, 29868, -32562, 12633, -11427, -36720, 13272, -56332, -3337, 37795, 28309, -22064, 23899, 8716, 9905, -61532, 54680, -87892, 54057, 10423, -19611, 76002, -6226, -887, -16947, -4346, -72841, 20268, 26714, -1686, 49519, 32379, -33518, -53097, 54742, 1947, -7923, 5550, -19468, 6020, 2830, 7641, -19630, 85470, -36483, 31079, -8618, -25827, 54399, 88637, -2593, 29995, 37421, 34313, 2098, 5433, 39460, -50804, 38822, -38658, 40757, -4217, 47003, -34311, 6911, -12306, -28270, 7534, 22631, 9392, -2329, -29293, 60399, 15718, -32257, -12939, -23071, 2369, -69046, -96879, -9708, 85222, -56951, 27896, -20048, 13989, 1254, 17503, 19983, 17597, -20874, 5432, 1209, 4903, -11663, -36760, -26668, 8116, 43921, -25894, -66589, -9061, -4868, 28425, 44900, 27962, 28629, 19562, -40215, -6087, -5361, -36266, 16700, -38283, -21435, 18233, 22421, 39963, -35669, 38064, 35761, -12835, 116215, -61371, -12549, 15339, 17532, 37912, 28689, 13416, -49498, -43669, -45403, 40660, 78438, -55986, -38027, -20428, -55364, -26495, 37774, -60941, -30685, -48121, -60744, 15827, 3626, 4734, 58039, -12337, -4933, -24845, -34064, 39080, -5447, -24532, 2740, 2886, -21807, 15007, -27290, 49453}
#define CONV19_WT {0}
static const uint8_t CONV19_W_Z[] = 	 {-131, -117, -105, -115, -114, -107, -107, -88, -109, -121, -167, -145, -99, -88, -143, -118, -115, -141, -94, -157, -81, -85, -89, -119, -144, -145, -95, -132, -143, -120, -91, -106, -115, -115, -124, -119, -126, -147, -133, -110, -151, -135, -119, -116, -110, -120, -126, -113, -101, -125, -139, -85, -108, -84, -131, -145, -136, -101, -100, -133, -129, -135, -130, -104, -124, -129, -140, -110, -117, -116, -113, -126, -133, -117, -124, -132, -114, -137, -137, -109, -124, -133, -120, -150, -134, -107, -112, -112, -130, -133, -131, -97, -143, -108, -123, -117, -127, -81, -197, -120, -133, -103, -122, -116, -119, -109, -112, -126, -147, -122, -161, -113, -132, -130, -115, -138, -152, -107, -101, -123, -124, -118, -89, -169, -172, -172, -91, -123, -90, -119, -119, -124, -144, -91, -116, -108, -96, -132, -126, -131, -123, -149, -169, -131, -106, -105, -136, -135, -154, -101, -133, -116, -153, -123, -146, -119, -111, -133, -133, -154, -133, -127, -132, -131, -74, -136, -101, -122, -154, -121, -137, -114, -125, -106, -132, -130, -84, -87, -155, -131, -101, -106, -107, -180, -124, -147, -133, -127, -127, -96, -105, -142, -102, -118, -143, -101, -138, -115, -129, -137, -141, -141, -126, -59, -148, -125, -113, -74, -133, -109, -132, -191, -116, -164, -148, -109, -137, -125, -99, -107, -143, -119, -133, -117, -109, -120, -120, -87, -130, -118, -130, -78, -121, -112, -124, -89, -121, -123, -131, -117, -138, -147, -101, -153, -156, -94, -117, -138, -125, -112, -137, -140, -120, -152, -84, -156};
#define CONV19_IN_Z      	(0)
#define CONV19_OUT_Z     	(0)
static const int32_t CONV19_M_ZERO[] = 	 {1562705536, 1644594944, 1479392896, 1463908096, 1492721920, 2020577280, 1294401408, 1299946752, 1897677824, 2009817088, 1921237120, 1420397696, 1748407168, 1569895296, 2117980288, 1616489088, 1283094912, 1242426240, 2000085120, 1651105792, 1594820992, 1499170176, 1708937472, 1139516288, 1269677184, 1678773888, 1324907520, 1771276544, 1777940608, 2129754496, 2025179264, 1391546368, 2130424960, 1449755392, 1851043072, 1127514112, 1762102272, 1605526656, 1438411776, 1631453312, 1881654528, 1178184192, 1970923648, 1181536384, 1212194304, 1771665792, 1766887936, 1231042432, 1583751168, 1718809600, 1969248384, 2067429760, 1501991296, 1318612992, 1346715776, 1691195392, 2145421056, 1426300928, 1204696192, 1530432000, 1467817472, 1825948544, 1514000640, 1779441408, 1182000896, 1559801856, 1651242752, 1636067840, 1850224128, 1117667584, 1186694016, 1278526976, 1197554048, 1751776768, 1505715328, 1720358656, 1372863872, 1437894528, 1418585472, 1094584192, 1249933056, 1652129280, 1628810112, 1862870528, 1119799424, 2124165376, 1568990336, 1486903552, 1723781120, 1206689280, 1526492288, 1661159680, 1631474176, 2044741888, 1642255872, 1478846592, 1444245888, 1772769536, 1685713280, 1074297216, 1943225600, 2092371968, 1172425472, 1133152256, 1413033856, 1655572480, 1232654592, 1456034048, 1139365760, 1739400576, 2011432960, 1296476416, 2041043712, 1339705216, 1189478528, 1583846144, 1809253632, 1156887040, 1160652672, 1515225984, 1462521344, 1461615744, 1082809216, 1999570176, 1494926720, 1910236672, 1256894976, 1252796544, 1279318400, 1164366848, 1167404416, 2018367872, 2081421056, 2045461760, 1913799168, 1595857152, 2005432704, 1338262656, 1675798912, 1194946560, 1327840512, 1948749824, 1549954688, 2106518784, 2015180544, 1117072256, 1213010688, 1437802880, 1489506176, 1534468608, 2125357568, 1498377856, 1677453952, 1224965504, 1494373120, 1743968512, 2083456512, 1474466304, 1406108928, 1249136768, 1421526016, 1224101376, 1571715456, 1288914944, 1688957568, 1526460800, 1556183296, 1934806016, 1795750784, 1385807232, 1143855104, 1358918400, 1214314368, 1394852352, 1477453184, 1812187776, 1218182144, 1674525440, 1337157888, 1990126720, 1708585472, 2004406016, 1663317376, 1927301888, 1424272896, 1748699648, 1970005888, 2059817472, 1759770496, 1765036928, 1906045952, 1457540224, 1868031872, 1515157888, 1126719744, 1099705728, 1519112832, 1706670592, 1087096448, 1194226176, 1934416000, 1497184384, 1627601792, 1480324352, 1837291008, 1152363776, 2142681600, 1159797888, 1305142528, 1152704512, 1423918592, 1600386304, 1507929856, 1282394880, 1695216000, 2037299968, 1160028160, 1617016704, 1124752256, 1717773952, 1421693056, 1075153792, 1659206912, 1707143168, 1460020096, 1902280832, 1596385792, 2114707712, 1162211840, 1133236992, 1419326720, 1671202688, 1741411328, 1987635840, 1074871808, 1921173504, 1506501120, 1519474048, 1284554624, 1372741760, 1447560576, 1589695616, 1225193088, 1266638976, 1438969728, 1557800832, 1620029824, 1531193984, 1597249792, 1452827648, 1437746560, 1505201408, 1501100928, 2084270208, 1467332736, 1757681280};
static const int8_t CONV19_N_ZERO[] = 	 {0, 0, 0, 0, 0, 0, 0, 0, 0, 0, 0, 0, 0, 0, 0, 0, 0, 0, 0, 0, 0, 0, 0, 0, 0, 0, 0, 0, 0, 0, 0, 0, 0, 0, 0, 0, 0, 0, 0, 0, 0, 0, 0, 0, 0, 0, 0, 0, 0, 0, 0, 0, 0, 0, 0, 0, 0, 0, 0, 0, 0, 0, 0, 0, 0, 0, 0, 0, 0, 0, 0, 0, 0, 0, 0, 0, 0, 0, 0, 0, 0, 0, 0, 0, 0, 0, 0, 0, 0, 0, 0, 0, 0, 0, 0, 0, 0, 0, 0, 0, 0, 0, 0, 0, 0, 0, 0, 0, 0, 0, 0, 0, 0, 0, 0, 0, 0, 0, 0, 0, 0, 0, 0, 0, 0, 0, 0, 0, 0, 0, 0, 0, 0, 0, 0, 0, 0, 0, 0, 0, 0, 0, 0, 0, 0, 0, 0, 0, 0, 0, 0, 0, 0, 0, 0, 0, 0, 0, 0, 0, 0, 0, 0, 0, 0, 0, 0, 0, 0, 0, 0, 0, 0, 0, 0, 0, 0, 0, 0, 0, 0, 0, 0, 0, 0, 0, 0, 0, 0, 0, 0, 0, 0, 0, 0, 0, 0, 0, 0, 0, 0, 0, 0, 0, 0, 0, 0, 0, 0, 0, 0, 0, 0, 0, 0, 0, 0, 0, 0, 0, 0, 0, 0, 0, 0, 0, 0, 0, 0, 0, 0, 0, 0, 0, 0, 0, 0, 0, 0, 0, 0, 0, 0, 0, 0, 0, 0, 0, 0, 0, 0, 0, 0, 0, 0, 0};


/* Layer 20 Learned Parameters */
#define CONV20_BIAS \
 {68304, 142064, 83468, -322, 78795, -1378, 739, 11086, 26484, 42603, 5572, 2741, -6835, 33146, 52695, -6996, 17174, 21981, -3723, 10341, 108847, -2558, -1632, 20047, 2688, -6435, -6160, 21795, 102552, 20330, 26909, 368, -18784, -2291, 937, -3648, 68353, 21947, -7712, -20038, -7832, 633, -3235, 26702, -2977, -314, 107907, -17122, 2050, -7639, 24694, 46912, -2617, 80721, 22636, -4342, 126650, -12285, 27401, -1588, -3890, -10876, -4952, 64964, 131, -9688, 13661, -7411, -12629, -1432, -291, -3731, 65761, -27484, -2103, -29630, 11874, -1240, -1893, 57701, 50748, 17436, 8862, -4576, -1370, 102837, -11536, 39859, 160223, -7872, 113760, 30100, 125612, -12817, 12469, 41213, 154605, 21965, 34644, -5237, 83310, 50774, 54299, -1765, 14416, 8525, 31672, -436, 2172, -18825, -2288, -2441, 17826, -4348, 37453, 109147, -7877, 17585, 64366, -2390, -7807, -20538, 17156, -17549, 18674, 82986, -4558, 98183, 2194, -4960, -8060, -113, -4854, 23493, 20694, 87343, -21903, 16298, 93787, 10591, 163050, 224384, -5478, 35797, -7237, 28324, 78555, -2529, -3790, 20900, 12278, 274407, 123872, -1240, -24683, 72282, 87590, 76577, -14166, -31478, -5530, 2239, 30328, 144968, -10121, 92577, 3970, 128983, -12633, -7537, -11256, 43073, -5789, 128035, 143395, 24751, -18350, 48852, 27648, 159553, -13077, -1352, -1801, 22284, -1921, 36005, -18657, 4496, -9318, 1533, -9919, 113926, 7553, -7075, -4126, -2960, 19872, 153238, 16399, 43697, 22279, 11218, 53494, 198961, -5626, -13522, -5524, 30814, 2839, 36751, 17401, 22190, 67444, 32960, 87625, -2096, 17655, 3904, 3066, -12019, -1291, 44627, 90679, 77912, 64982, -5812, 30645, 78681, 16347, 58249, -2637, -7440, -3575, -1808, 11800, -5594, 11298, 76162, 4462, 3036, -14797, 53767, 20233, 89063, 53353, -21083, -16047, 20906, 963, -4733, -6126, -8537, 66215, 104351, -4839, 4600}
#define CONV20_WT {0}
static const uint8_t CONV20_W_Z[] = 	 {-312, -494, -354, -12, -272, -9, -67, -60, -186, -150, -17, -112, -94, -234, -245, -154, -152, -167, -40, -40, -415, -92, -100, -235, -98, -46, -10, -236, -251, -103, -102, -87, 13, -28, -39, -16, -208, -224, -4, 39, -68, -12, -136, -210, -50, -3, -368, -98, -40, -72, -133, -292, -67, -207, -192, -70, -499, -7, -224, -31, -31, 1, -46, -274, -153, 0, -43, -117, 81, -64, -14, 30, -278, -11, 35, 51, -46, -40, -134, -302, -258, -241, -47, -144, -31, -397, -13, -247, -339, -35, -388, -170, -330, -11, -135, -209, -634, -40, -103, -27, -408, -257, -288, -113, -112, -97, -176, -124, -32, -49, -10, 3, -244, -48, -185, -244, -18, -99, -399, -19, -4, 13, -206, 7, -231, -317, -12, -463, -24, -121, 5, -50, -35, -175, -118, -322, 23, -79, -210, -74, -431, -577, 0, -245, -3, -135, -440, -79, -36, -211, -151, -634, -360, -134, -76, -473, -328, -282, -1, -10, -51, -68, -161, -426, -4, -294, -26, -441, -2, -7, -61, -289, -31, -527, -379, -262, 58, -276, -214, -375, -30, -94, -96, -152, -7, -152, -12, -63, -38, -18, -11, -453, -60, 4, -9, -11, -171, -370, -252, -297, -164, -40, -147, -978, -1, -87, -28, -223, -70, -247, -218, -85, -239, -169, -308, 33, -251, -71, -18, 4, -17, -226, -365, -274, -309, 15, -191, -299, -217, -353, -24, -29, 10, -13, -157, 1, -146, -387, -61, -134, -50, -217, -126, -442, -309, -14, 38, -101, -31, -92, -6, -5, -273, -383, 24, -38};
#define CONV20_IN_Z      	(0)
#define CONV20_OUT_Z     	(0)
static const int32_t CONV20_M_ZERO[] = 	 {1412135552, 1657065856, 1680957952, 1756536448, 1147449984, 1092797824, 1772044544, 1329926784, 1573447808, 1420748032, 1108940928, 1176534272, 1684719360, 1170701184, 1939043584, 1558564992, 1226236800, 1134320640, 1839774848, 1148735104, 1420107520, 1147061632, 2131767680, 1486044032, 2083030400, 1228277632, 1829933312, 1233903872, 2025327744, 1145579648, 2100657152, 1094738944, 1390054272, 1082915200, 1961889920, 2075505152, 1278821504, 2139967744, 1811671424, 1493643264, 1289123968, 1123544704, 2041766400, 1237160960, 2047039360, 1369225472, 1315224192, 1239022208, 1216507392, 1218509824, 1102491264, 1871944192, 1209636608, 1970821120, 1964302464, 1871427584, 1671547392, 1568943744, 1715321088, 1367923456, 1701026688, 1189991936, 1155937024, 2084517248, 1588295424, 1702797568, 1452634368, 1423355008, 1190951296, 1146327552, 1191628672, 1759861376, 1760539648, 1356662528, 2144076032, 1758838528, 1432108160, 1077125376, 1298655872, 1717504256, 1901684480, 1467990144, 1776388864, 1109406080, 1228158080, 1298227200, 1315023744, 1324613504, 1822921856, 1382625408, 1239047552, 1675783808, 1942871680, 1191299456, 1960651520, 1605179392, 1426828160, 1959339008, 1811901184, 1333684992, 1350502400, 1093673472, 1598919808, 2122593664, 2103112448, 1412364288, 1637533184, 1128621568, 1797412864, 1981242624, 1162374784, 1622750976, 1260012672, 2126781824, 1547610624, 1195708288, 1850773760, 1465314176, 1277080064, 1648612992, 1163448448, 1733486848, 1098124160, 1100974848, 1188249600, 1637926144, 1221182720, 1239622912, 1342111744, 1646150528, 1888601984, 1091880576, 1715515648, 1673130240, 1946637440, 1316054528, 1083700224, 2027753600, 1415681152, 1212681088, 2138218880, 1264051456, 2122608000, 1119887360, 1090662528, 1762109056, 2119347712, 1210379904, 1208994688, 1910344832, 1712710784, 1869448576, 1865402240, 1760173568, 1557102336, 1498596096, 1922983424, 1585880320, 1958809984, 1895878912, 1322510592, 1718605568, 1824963200, 1747883904, 2013061632, 1857500672, 1233627264, 2009302016, 1716147712, 1117066368, 1652369280, 1556159872, 1830245504, 1893226496, 1336582912, 1796195968, 1077372160, 1851753984, 1405615232, 2040940672, 1286058368, 1698756224, 1853812608, 1750109568, 1229511936, 1819729536, 1080558720, 1864858496, 1265193728, 1200445312, 1313219840, 1305753600, 2035504896, 1108250240, 2114034304, 2081533952, 1934560896, 1268147456, 1505636480, 1327265408, 1217547648, 1278943104, 1246342144, 2040242048, 1713328512, 1503696896, 1370787584, 1407489536, 2092227712, 2004701056, 1200011776, 1084161920, 2080379264, 1327461376, 1198924672, 1100207744, 2057551616, 1616034944, 1123966848, 1808973568, 1748786816, 1155748224, 1662841600, 1490271744, 1646064256, 2087543808, 1338776576, 1608118912, 1908167808, 1435265536, 1085235584, 1351351680, 1846696960, 1211019648, 1810215808, 1278995456, 1089918336, 1692264704, 1417786496, 2075784064, 1589404544, 1462103808, 1477324160, 1101475968, 1308095872, 1625508608, 1273139712, 1530124416, 1951028608, 1378734208, 2011645568, 1147708544, 1620638080, 1352952576, 1564003328, 1128116096};
static const int8_t CONV20_N_ZERO[] = 	 {0, 0, 0, 0, 0, 0, 0, 0, 0, 0, 0, 0, 0, 0, 0, 0, 0, 0, 0, 0, 0, 0, 0, 0, 0, 0, 0, 0, 0, 0, 0, 0, 0, 0, 0, 0, 0, 0, 0, 0, 0, 0, 0, 0, 0, 0, 0, 0, 0, 0, 0, 0, 0, 0, 0, 0, 0, 0, 0, 0, 0, 0, 0, 0, 0, 0, 0, 0, 0, 0, 0, 0, 0, 0, 0, 0, 0, 0, 0, 0, 0, 0, 0, 0, 0, 0, 0, 0, 0, 0, 0, 0, 0, 0, 0, 0, 0, 0, 0, 0, 0, 0, 0, 0, 0, 0, 0, 0, 0, 0, 0, 0, 0, 0, 0, 0, 0, 0, 0, 0, 0, 0, 0, 0, 0, 0, 0, 0, 0, 0, 0, 0, 0, 0, 0, 0, 0, 0, 0, 0, 0, 0, 0, 0, 0, 0, 0, 0, 0, 0, 0, 0, 0, 0, 0, 0, 0, 0, 0, 0, 0, 0, 0, 0, 0, 0, 0, 0, 0, 0, 0, 0, 0, 0, 0, 0, 0, 0, 0, 0, 0, 0, 0, 0, 0, 0, 0, 0, 0, 0, 0, 0, 0, 0, 0, 0, 0, 0, 0, 0, 0, 0, 0, 0, 0, 0, 0, 0, 0, 0, 0, 0, 0, 0, 0, 0, 0, 0, 0, 0, 0, 0, 0, 0, 0, 0, 0, 0, 0, 0, 0, 0, 0, 0, 0, 0, 0, 0, 0, 0, 0, 0, 0, 0, 0, 0, 0, 0, 0, 0, 0, 0, 0, 0, 0, 0};


/* Layer 21 Learned Parameters */
#define CONV21_BIAS \
 {80874, 26213, -39116, -62065, -73532, 29779, -43161, -5557, -39176, -34412, 69829, 31665, -55388, -59928, -16737, 4112, 3107, 40223, 5996, -18597, 29347, -24721, 21881, -24194, 4603, -15667, -16670, -15596, -30282, -15521, 9523, -7625, -14398, 11581, -8029, -14658, 12176, 30235, -3547, 74633, -3208, 32195, -10743, 13702, 35563, 9373, -27203, -4086, -281, -22232, -1051, 16452, 7369, 57939, 62154, 12759, 14700, 66476, -4349, 17292, 65570, -33681, 29722, -36175, -2437, -2498, 40838, -15808, 39088, 44979, 33828, -7799, 20925, 24740, -25628, 27208, -8231, 11739, 18173, -55778, 59277, 6917, 17326, -28502, -9619, -16247, 12178, 77942, -39861, 49190, 24457, -37583, -5741, 43364, -42769, 5754, 26887, -24094, 11438, -1053, 49801, 27042, 73501, 26759, -32351, 53721, -48306, 66063, -1751, 10190, -8008, -25099, -715, -1676, -47156, -32981, 4579, -48625, -30575, 3573, 22441, 19878, 5159, 9184, 17056, 4570, -6136, -18820, 41650, -43363, -1687, 25878, 13722, -103038, 47536, 9612, 5744, 15349, -10412, -34467, 11139, -25868, 1326, -10562, 45476, 4519, -35504, -22113, -10120, -6862, 50490, 6480, 7212, -34762, 16380, 23746, 68591, 62981, 8069, 13723, -13509, -21020, -1404, 9732, 36419, 2657, -4878, -10685, 15525, 55554, -14548, -6098, -11752, 38635, -23889, 16241, -2949, -10570, 9579, -22316, 34347, 10549, 2057, 23005, -15838, -23321, -16470, 12357, -12721, 2919, -13569, -18079, 29820, 30388, 9336, -41166, 48540, 22903, 6334, -41100, -22229, -42529, -26611, 8665, -1208, 30640, -40850, -23529, -20064, -49549, -45111, -5239, 36615, -1103, 42142, -5183, -42585, 113102, -5025, -2293, -30, -33829, -38308, -15982, 6580, 71411, -44062, 979, -45166, -17689, -7755, 6396, 990, -9657, -15516, 8497, -33787, -18301, 30323, 3098, -37949, -35031, -4705, -3748, 2645, -34367, 9475, 45090, -9153, -58251, 7702, 43971, 29515, -27405, -20221, 24238}
#define CONV21_WT {0}
static const uint8_t CONV21_W_Z[] = 	 {-138, -143, -100, -100, -143, -142, -140, -106, -139, -123, -132, -83, -122, -129, -135, -104, -156, -145, -98, -115, -108, -111, -138, -101, -147, -125, -131, -159, -100, -125, -106, -124, -144, -140, -129, -126, -148, -111, -115, -71, -122, -112, -125, -156, -159, -131, -94, -93, -97, -124, -121, -145, -140, -132, -134, -105, -91, -137, -111, -147, -130, -135, -133, -125, -139, -126, -134, -149, -148, -132, -124, -123, -103, -120, -115, -122, -119, -135, -126, -128, -196, -112, -126, -108, -116, -120, -99, -130, -146, -119, -159, -73, -118, -136, -114, -118, -122, -94, -97, -117, -87, -144, -161, -112, -134, -125, -113, -124, -121, -133, -152, -101, -105, -149, -146, -123, -138, -118, -131, -146, -152, -121, -128, -124, -157, -160, -105, -133, -127, -130, -147, -139, -122, -104, -133, -165, -130, -142, -111, -125, -135, -129, -113, -164, -123, -113, -101, -140, -97, -138, -124, -154, -120, -104, -151, -99, -155, -126, -92, -167, -126, -123, -122, -140, -113, -156, -94, -130, -140, -114, -143, -125, -62, -121, -143, -131, -142, -118, -111, -134, -133, -134, -141, -127, -134, -114, -135, -151, -99, -145, -84, -126, -137, -112, -139, -89, -162, -129, -105, -134, -134, -115, -117, -99, -122, -130, -132, -113, -105, -120, -152, -109, -126, -138, -166, -55, -97, -146, -119, -124, -134, -101, -130, -171, -150, -136, -116, -117, -129, -125, -75, -113, -147, -117, -107, -101, -112, -86, -183, -135, -129, -110, -109, -98, -135, -136, -132, -107, -150, -105, -92, -117, -113, -143, -140, -104};
#define CONV21_IN_Z      	(0)
#define CONV21_OUT_Z     	(0)
static const int32_t CONV21_M_ZERO[] = 	 {1079715712, 1078926464, 1237776256, 1731326464, 1365916288, 1495327744, 1558276224, 1789047168, 1800901888, 1893005312, 1329260160, 1789880064, 1577087488, 1480400000, 1140644736, 1254458240, 1569979520, 1642189440, 1132271360, 1307721088, 2068792064, 1580718592, 1472635136, 1380955008, 1393178624, 1502612864, 1544126464, 1322131200, 1397849088, 1252173952, 1576214912, 1135380096, 1627395712, 1519679744, 1603585024, 1367273472, 1344354560, 1646453504, 1083561216, 1166973184, 1663648512, 1904711168, 1978573824, 1093685120, 1465811968, 1179765888, 1930164864, 2085805440, 1972979328, 1143462144, 1748492800, 1393763712, 1393268608, 1270894976, 1942800000, 1353386496, 1099793280, 1169014016, 1342585344, 1089991936, 1520249728, 1318394752, 1606126976, 1462630272, 1365763712, 1361522688, 1432519296, 1789880576, 1216919936, 1360525824, 1543640960, 1454668032, 1732292736, 1449700352, 2040027392, 1368861184, 2069110400, 1245354880, 2129844352, 1510575616, 1890738304, 1234037248, 1781975168, 1528247424, 1903714176, 1629933824, 1527276928, 1308396928, 2099164032, 1853303552, 2122151168, 1325879296, 1432229504, 1396394752, 1292872576, 1821663232, 1988355200, 1765027968, 1233025920, 1077346432, 1888384768, 1613093248, 1204912384, 1643330944, 1213854336, 1310596480, 1421332352, 1151488000, 2007395840, 1545959296, 1652342144, 1666629248, 1153055232, 2100610176, 1375273344, 1556409984, 1783154560, 1480973568, 1771725696, 1878426496, 1646345728, 1896593920, 1353456128, 1621247232, 1869546112, 1740279552, 1414365312, 1439483008, 1446170880, 1108250880, 1190609920, 1703319296, 1076040576, 1185009408, 1397279744, 1892494336, 1325198848, 1514870016, 1207165696, 1542811264, 1237448704, 1338130688, 1592925056, 1587354880, 2142707072, 1435486976, 1596990592, 1423148800, 1266318976, 1274260352, 1641707136, 1177414528, 1603738240, 1587736576, 1386451584, 1773182208, 1166364544, 1141548672, 2012934912, 1286466048, 1098112512, 1338026240, 1329107712, 1243420416, 1932728832, 1950316032, 1150054528, 1125567360, 1958917376, 1372414592, 1337433216, 1256884608, 1459166592, 1246983936, 1458413696, 1787013248, 1937121408, 1314096768, 1781833600, 1692112768, 1154896384, 1737312000, 1394302720, 1723001344, 1765592448, 1651078272, 1850192384, 1425265280, 1777245440, 1518258944, 1364661120, 1465462656, 1127242240, 1448855296, 1488342400, 1146973952, 2137469824, 1389288320, 1684531200, 1352899328, 1122218624, 1387581312, 1779159808, 1488282368, 1538026496, 1453260544, 1364325632, 1599626112, 1389492480, 1385982208, 1324529408, 1632505856, 1184473856, 1226811648, 1101388032, 1700886784, 1271754752, 1827969792, 1280612096, 1391833728, 2120307072, 1115631872, 1137414912, 1994141824, 1270255488, 2060884480, 2041408384, 1375259392, 1311699200, 2039736960, 1566161792, 1661825920, 1365070080, 1668957824, 1881730048, 1075787520, 1416253568, 1272296832, 1650773504, 2011190400, 1183436032, 1214724224, 1670084992, 1570811520, 1494440832, 1486601344, 1457807744, 1512298240, 1208664704, 1601330304, 1569075072, 1274514560, 1218175232, 1404651008, 1489234176, 1218196096};
static const int8_t CONV21_N_ZERO[] = 	 {0, 0, 0, 0, 0, 0, 0, 0, 0, 0, 0, 0, 0, 0, 0, 0, 0, 0, 0, 0, 0, 0, 0, 0, 0, 0, 0, 0, 0, 0, 0, 0, 0, 0, 0, 0, 0, 0, 0, 0, 0, 0, 0, 0, 0, 0, 0, 0, 0, 0, 0, 0, 0, 0, 0, 0, 0, 0, 0, 0, 0, 0, 0, 0, 0, 0, 0, 0, 0, 0, 0, 0, 0, 0, 0, 0, 0, 0, 0, 0, 0, 0, 0, 0, 0, 0, 0, 0, 0, 0, 0, 0, 0, 0, 0, 0, 0, 0, 0, 0, 0, 0, 0, 0, 0, 0, 0, 0, 0, 0, 0, 0, 0, 0, 0, 0, 0, 0, 0, 0, 0, 0, 0, 0, 0, 0, 0, 0, 0, 0, 0, 0, 0, 0, 0, 0, 0, 0, 0, 0, 0, 0, 0, 0, 0, 0, 0, 0, 0, 0, 0, 0, 0, 0, 0, 0, 0, 0, 0, 0, 0, 0, 0, 0, 0, 0, 0, 0, 0, 0, 0, 0, 0, 0, 0, 0, 0, 0, 0, 0, 0, 0, 0, 0, 0, 0, 0, 0, 0, 0, 0, 0, 0, 0, 0, 0, 0, 0, 0, 0, 0, 0, 0, 0, 0, 0, 0, 0, 0, 0, 0, 0, 0, 0, 0, 0, 0, 0, 0, 0, 0, 0, 0, 0, 0, 0, 0, 0, 0, 0, 0, 0, 0, 0, 0, 0, 0, 0, 0, 0, 0, 0, 0, 0, 0, 0, 0, 0, 0, 0, 0, 0, 0, 0, 0, 0};


/* Layer 22 Learned Parameters */
#define CONV22_BIAS \
 {35853, 19859, -954, -3670, -8575, 5190, -2, 10676, 87582, -7830, 186734, -5276, 24990, -8833, -2236, -9415, 55867, 29172, 67491, 40, 52398, 168339, 179867, -10672, 141572, 154409, 134969, 21964, -2337, -17, 39760, -578, -1842, -21905, 37794, -411, 103672, 57686, -5268, 22265, -15906, 177, 101637, 100568, -24555, -6695, -11714, 145891, -27346, -70603, 103956, 171117, 86126, 135683, 23091, 8581, -17338, 24177, -2924, 145525, 104196, 3, 115518, -4171, -285, -2748, 81434, -4861, 77381, 31933, 120120, 268662, 5245, 117408, -29291, -1753, -30622, -64392, -15061, -10495, 28259, -14918, -23482, -22116, 45, 137687, 60, 295808, 101267, 20852, 70257, -9537, 60652, 29115, 135867, 69312, 49255, -12959, 194351, -8820, 36367, -16718, 45412, -112, -14552, 22428, -2334, -1794, 82849, -7709, 605, -36, 21601, 21464, 98218, -17596, 118426, 17, -27615, 11560, -27235, -31752, -2887, -5524, -470, 75536, -3407, -152, 57769, 1998, -10292, 28995, 102691, 76640, -3953, 1624, 18706, 175381, 175380, -4451, -12764, 115578, 3829, -6552, 1143, -65019, -5639, -21312, 76605, 22, 22438, 128102, 2264, -7024, 36420, 51414, 48840, -1674, 44067, -3942, -1947, -6, 45043, -5291, 55681, 37165, 2197, -1279, 41275, 22621, 91282, -518, 52999, 48070, -2280, 26874, -14420, 12487, 152204, -669, 102073, 112313, -13781, 120007, -410, 692, 94891, -2702, 59890, 7183, 50968, 218409, -2559, 98238, -26613, -7389, -4467, -5908, -180, -15753, -14424, 162224, 113710, 20674, -3836, 99615, 157381, 8579, -2227, -11879, -8502, -10675, 8509, -1533, 24216, -4482, -805, 31468, -14173, -973, 12732, -5057, -9228, -8508, 136642, 5700, -6081, -7477, -6138, -20509, 51551, 136290, -6666, 201215, -7826, 29402, 47, 97118, 2321, -2407, -8340, -3622, 191201, -284, 131586, -18, -14246, 47050, -6769, -7243, 124536, -2593, -28291, -1, 118236, 5274}
#define CONV22_WT {0}
static const uint8_t CONV22_W_Z[] = 	 {-235, -116, -16, 13, 12, -44, 11, -205, -382, -6, -383, -34, -98, -36, 6, -10, -183, -188, -336, -136, -238, -638, -468, -44, -381, -398, -374, -110, 59, -102, -259, -76, -116, 22, -244, -25, -273, -253, -112, -238, 35, -94, -358, -396, -54, -49, -15, -371, 55, 47, -397, -405, -331, -319, -243, -103, -36, -109, -42, -425, -295, -21, -312, -19, 56, 74, -264, -107, -327, -133, -360, -546, -104, -393, -1, 66, 112, 30, -138, 99, -218, -49, 45, 83, -7, -453, -4, -807, -617, -219, -254, -34, -206, -236, -348, -264, -254, -111, -432, -17, -192, 38, -245, 139, -20, -218, -20, -108, -289, 28, -28, -84, -107, -146, -450, 64, -417, -117, -2, -93, -38, -40, 20, -51, -37, -269, -143, -20, -271, 115, -12, -99, -368, -308, -5, -37, -190, -440, -648, -13, -76, -324, -16, -45, -127, 26, -46, 34, -448, -124, -251, -526, -172, -26, -233, -169, -217, -12, -278, 14, -142, -50, -228, 11, -273, -212, -24, -134, -197, -236, -266, -70, -278, -223, -8, -201, -19, -94, -403, 58, -464, -312, -88, -291, 155, -122, -322, -91, -304, -108, -243, -491, -2, -288, -33, -7, -37, 8, -20, -27, -12, -410, -424, -155, 66, -278, -371, -146, -29, 75, 6, 8, -54, -16, -241, -24, 41, -243, -102, -122, -169, -36, -11, 20, -331, -57, -14, 4, -117, 3, -262, -442, 217, -462, -9, -136, -31, -298, -154, -100, 75, -27, -538, 61, -337, -45, 14, -243, -46, -3, -347, -89, -26, -40, -285, -66};
#define CONV22_IN_Z      	(0)
#define CONV22_OUT_Z     	(0)
static const int32_t CONV22_M_ZERO[] = 	 {1582767232, 1621924480, 1363277056, 1346847360, 1238847232, 2071751680, 1893227264, 1409731584, 1491619840, 1289493120, 1536655232, 1264993664, 1787274240, 1093496320, 1431899264, 1966626944, 1139742720, 1434334336, 1277595392, 1698136064, 1597921024, 1412106752, 1811378432, 1197592448, 1498975488, 1253729920, 2062074368, 1510152576, 1303772800, 1281092480, 1565531008, 1278220800, 1943452800, 1773128704, 1228738944, 1116570624, 1439403136, 2145771776, 1567528704, 1594373632, 2026989440, 1353219584, 1102742656, 1131020928, 1725867520, 1779615488, 1548242560, 1536402304, 1749649024, 2106841472, 1730008832, 1357763200, 1078653568, 1786784768, 1268990464, 1367983872, 1687570560, 1261562240, 2072749440, 1184925952, 1277899392, 1273403520, 1109085952, 1564758912, 1449660928, 2099591040, 1172062464, 1333435264, 2130348928, 1105226368, 1186193280, 1380738176, 1974428800, 1145112064, 2012715776, 1831802880, 1370369024, 1205159040, 1377623168, 2127620736, 1434304256, 2026126976, 1604525952, 1919404160, 1431896960, 1808907264, 1403606400, 1761067520, 1510695808, 1469141632, 1411150848, 1820688512, 1240512384, 2074007296, 1916344320, 1766316288, 1235392768, 1485404416, 1874337280, 1648746112, 1444322944, 1257043200, 1969876608, 1427275776, 1316979200, 1101805952, 1728642048, 1350361600, 1254305024, 2071028608, 1765365504, 1704687744, 1192906880, 1326444416, 1163757056, 1172473984, 2049139712, 1108401920, 1723731456, 1900903808, 1324390656, 2024561536, 1490343424, 1100038400, 1345560832, 1564713856, 2075703552, 1135070976, 1634028928, 1268195712, 1103799680, 1077784320, 1256770688, 1171422080, 1111050368, 1648459136, 1566767744, 1532315136, 1886440448, 1637204096, 1522930048, 1336405888, 1880205056, 1626278784, 1142902400, 1916631040, 1777147648, 1803613184, 1631572992, 1173171968, 1230026496, 1845123712, 1724059392, 1151660928, 1483850880, 1839674240, 1543351168, 1857022336, 1685734144, 1359257472, 1433500800, 1452801152, 1936145792, 1203450624, 1425020416, 1997687936, 1078010368, 1631519104, 1381370624, 1219299968, 1079142784, 1986655488, 2037922304, 1160982400, 1638115840, 2010591616, 1347399296, 1681676672, 1919793664, 1644864128, 1398635008, 1347549056, 2012936832, 1972414976, 1163138304, 1944605952, 1595381248, 1990019328, 1135587200, 1151817984, 1466443776, 1925980288, 1713167744, 1956410112, 1145042048, 1922641792, 1119211008, 1821337728, 1946899328, 1946103552, 1153694336, 2053424256, 1565323008, 1246679040, 1954416128, 1770469888, 1420863104, 1346853120, 1164999296, 1706390912, 1303122560, 1126936832, 1542912128, 1904357120, 1991844352, 1268141184, 1312551168, 1713241728, 1752586752, 1927750016, 1123338112, 2025183872, 1419432320, 1364081664, 1878090880, 1957268096, 1282514176, 1197659264, 1341103872, 2030480384, 1949664384, 1211192064, 1395666304, 1906132736, 1524068992, 1884132096, 1159867776, 1689089280, 2047775360, 1187050752, 1401801600, 1416178688, 2055195392, 1852998784, 1843587712, 1237626368, 1579858688, 1392789376, 1237235968, 1497048064, 1153122816, 1174495104, 2123524864, 2052697600, 1496255360, 1816478720};
