#ifndef __128_0_25_WEIGHTS_BIAS_H__
#define __128_0_25_WEIGHTS_BIAS_H__


/* Layer 1 Learned Parameters */
#define CONV1_BIAS \
 {-10690233, 87272, 165629, 281718, -39586, 1125267, 93965, 325228}
#define CONV1_WT {0}
#define CONV1_W_Z 	 (137)
#define CONV1_IN_Z      	(127)
#define CONV1_OUT_Z     	(0)
#define CONV1_M_ZERO 	(1431657856)
#define CONV1_N_ZERO 	 (1)


/* Layer 2 Learned Parameters */
#define CONV2_BIAS \
 {-220, 1839, -4837, -8562, 10432, -75554, 62451, 23916}
#define CONV2_WT {0}
#define CONV2_W_Z 	 (137)
#define CONV2_IN_Z      	(0)
#define CONV2_OUT_Z     	(0)
#define CONV2_M_ZERO 	(1431657856)
#define CONV2_N_ZERO 	 (1)


/* Layer 3 Learned Parameters */
#define CONV3_BIAS \
 {-9129, -26719, 28250, -16987, 53023, -21144, -18879, 57693, 177, 12668, -27650, -11480, -2557, 58472, -8922, -1681129}
#define CONV3_WT {0}
#define CONV3_W_Z 	 (137)
#define CONV3_IN_Z      	(0)
#define CONV3_OUT_Z     	(0)
#define CONV3_M_ZERO 	(1431657856)
#define CONV3_N_ZERO 	 (1)


/* Layer 4 Learned Parameters */
#define CONV4_BIAS \
 {27, -2171, 77612, 5493, -18065, 43671, 4610, 91, 44367, 343588, 94144, 16209, 2953, -907, 202537, -458}
#define CONV4_WT {0}
#define CONV4_W_Z 	 (137)
#define CONV4_IN_Z      	(0)
#define CONV4_OUT_Z     	(0)
#define CONV4_M_ZERO 	(1431657856)
#define CONV4_N_ZERO 	 (1)


/* Layer 5 Learned Parameters */
#define CONV5_BIAS \
 {-37383, -16398, -23510, -19341, -111, -9237, 10952, -24839, 62298, -11883, 6938, -3878, -18981, 615, 8856, 4483, 23717, -6784, -73407, 61593, 2549, -3309, 8540, 45039, 61646, 4171, 6042, 20040, -43915, -2832, -5387, 49315}
#define CONV5_WT {0}
#define CONV5_W_Z 	 (137)
#define CONV5_IN_Z      	(0)
#define CONV5_OUT_Z     	(0)
#define CONV5_M_ZERO 	(1431657856)
#define CONV5_N_ZERO 	 (1)


/* Layer 6 Learned Parameters */
#define CONV6_BIAS \
 {-2032, -384, 14658, -4989, 20514, 124685, 38857, 167, 74048, -46, 62239, 593, 26346, 36584, 2509, 2389, 1167, 10380, 27044, 11391, -9034, -285, 40210, 1053, 58407, 91061, 222, 39184, 9624, 295, 7120, 48075}
#define CONV6_WT {0}
#define CONV6_W_Z 	 (137)
#define CONV6_IN_Z      	(0)
#define CONV6_OUT_Z     	(0)
#define CONV6_M_ZERO 	(1431657856)
#define CONV6_N_ZERO 	 (1)


/* Layer 7 Learned Parameters */
#define CONV7_BIAS \
 {69324, 106108, 12458, -15146, 32817, -34002, -13719, 19749, -16915, 8394, 23816, -11633, 7496, -19320, -37187, 91701, 336, 29143, 28615, 51869, 12910, 59191, 16058, -18795, 65176, 36131, -67652, 42732, -28975, 109316, 48687, -30732}
#define CONV7_WT {0}
#define CONV7_W_Z 	 (137)
#define CONV7_IN_Z      	(0)
#define CONV7_OUT_Z     	(0)
#define CONV7_M_ZERO 	(1431657856)
#define CONV7_N_ZERO 	 (1)


/* Layer 8 Learned Parameters */
#define CONV8_BIAS \
 {-326, -24223, 243415, 41330, 77, -3530, 151072, 2394, 49230, -1713, 37728, 93432, 63631, 167222, 390, 17372, 4074, -651, -6201, 7121, 259154, 198607, -54779, -601, 265912, 3965, 27489, -843, 1155, 48054, -102499, 4837}
#define CONV8_WT {0}
#define CONV8_W_Z 	 (137)
#define CONV8_IN_Z      	(0)
#define CONV8_OUT_Z     	(0)
#define CONV8_M_ZERO 	(1431657856)
#define CONV8_N_ZERO 	 (1)


/* Layer 9 Learned Parameters */
#define CONV9_BIAS \
 {49720, -6308, 14654, 39107, 31873, -36513, 16321, 27379, 32111, 100794, 23918, 16566, 13388, 22323, -1701, 16808, 5325, -27023, 8529, 48223, 20722, -8131, 27218, -16887, 14590, -1114, 8588, -21633, 29564, -18286, -14076, 62415, 22234, 24745, 32701, 44996, -11267, 19484, -12261, -5665, 80369, 87199, -18468, 50487, 20463, -1267, 30231, 17488, 20948, 17428, -31608, 29988, 19043, 22469, 4368, 85467, 34733, 36432, 40168, 10024, -4731, 122664, -5332, 20105}
#define CONV9_WT {0}
#define CONV9_W_Z 	 (137)
#define CONV9_IN_Z      	(0)
#define CONV9_OUT_Z     	(0)
#define CONV9_M_ZERO 	(1431657856)
#define CONV9_N_ZERO 	 (1)


/* Layer 10 Learned Parameters */
#define CONV10_BIAS \
 {188, -8023, -646, 12120, 372, 447, 41680, 112888, -668, 1556, 42854, 366, 29862, 3514, 7750, -24746, 500, -87, 42700, 3018, 66749, -11272, 329, -1749, 3712, -967, -124, 41634, -2832, 12602, 19591, 52, 41119, -233, -2208, -20, 19335, 42006, 146307, -1722, -5053, 78484, 31365, -7426, 12184, 3587, 13181, 21227, -1383, 756, 5478, 143473, 40669, -16116, 11013, 39098, -8118, 42733, 10, -11689, 45020, 76, -13913, -145}
#define CONV10_WT {0}
#define CONV10_W_Z 	 (137)
#define CONV10_IN_Z      	(0)
#define CONV10_OUT_Z     	(0)
#define CONV10_M_ZERO 	(1431657856)
#define CONV10_N_ZERO 	 (1)


/* Layer 11 Learned Parameters */
#define CONV11_BIAS \
 {-705, 59359, -5479, -441, 17598, -8153, -31617, -38653, 20285, 16425, 20309, 41107, -43163, 3563, -2828, -35590, -185, -10888, -37314, -13939, 42357, -26062, 59402, -25024, 16633, -13043, -22287, 13062, 59276, 627, 2628, 9127, 17161, 11340, 41093, 15118, -7485, 11719, -6246, -6762, -10590, 50009, 54276, 4704, 11514, -52811, 14376, 11594, 6895, 3047, -17979, -15591, -30821, 16658, -4394, -24969, -8544, 16280, 2545, -1608, -23260, 19850, 38578, -53408}
#define CONV11_WT {0}
#define CONV11_W_Z 	 (137)
#define CONV11_IN_Z      	(0)
#define CONV11_OUT_Z     	(0)
#define CONV11_M_ZERO 	(1431657856)
#define CONV11_N_ZERO 	 (1)


/* Layer 12 Learned Parameters */
#define CONV12_BIAS \
 {3803, 266817, 35662, 971, 11318, 12288, -745, 3070, -3836, 308405, 130329, 208806, 14149, 957, -1611, 205, 135349, 89121, 9786, 7902, 225056, 6752, 143549, 830, 11324, 151502, 266762, -503, -30243, 200587, 116139, -315, 8121, 13779, 2723, 210309, -186, 85247, 186154, 5843, 174356, 249, 270523, 98572, 167543, -169, 1566, -2765, 23639, 3039, 269299, 71192, 1006, -44697, -534, 95882, 76265, 267675, 1518, 318445, 12517, -421, 5023, 11864}
#define CONV12_WT {0}
#define CONV12_W_Z 	 (137)
#define CONV12_IN_Z      	(0)
#define CONV12_OUT_Z     	(0)
#define CONV12_M_ZERO 	(1431657856)
#define CONV12_N_ZERO 	 (1)


/* Layer 13 Learned Parameters */
#define CONV13_BIAS \
 {61221, 45399, 108978, -8567, 49602, 86997, 4583, 44872, 95921, 86014, 75949, -7435, 4663, 28154, 1027, 15986, 65292, 37245, -4196, 181058, 10672, 69789, 39678, 34344, 65001, 87079, 24779, 43049, 9721, -27437, 30426, 29484, 119496, 69641, 18900, 20216, 20809, 31267, 51879, 48563, -33315, 6265, 957, -3489, 23549, -15466, 20196, 43593, 7494, 43186, 64029, 44091, 15312, -17526, 112920, 26808, 53438, 17045, 57224, 43103, 47823, 60922, -4565, -11878, -12271, 60191, 22263, 20597, 13221, 24478, -21425, 60877, 26149, 78308, 3769, -23052, 47428, 40560, 20332, 11625, -40540, 12809, 27958, 30056, 12965, 78273, 99809, 97045, 49869, 8321, 34783, 56104, 48588, 56558, -36528, 60599, 25077, -8845, 19924, 44059, 18271, 46936, 57001, 63877, -18427, -28605, 25628, 21200, -18877, 58101, 9173, 26175, 40549, 9111, -9298, 32174, 41510, -4246, 112818, 20275, 38035, 22584, 19799, 44153, 27582, -14784, -13293, 33717}
#define CONV13_WT {0}
#define CONV13_W_Z 	 (137)
#define CONV13_IN_Z      	(0)
#define CONV13_OUT_Z     	(0)
#define CONV13_M_ZERO 	(1431657856)
#define CONV13_N_ZERO 	 (1)


/* Layer 14 Learned Parameters */
#define CONV14_BIAS \
 {74609, 480, 1339, -2529, -2498, 400, 24, 47531, 76156, -1046, -1002, 376, 602, -141, -5743, 160, -2874, 949, 13978, 28123, 776, 23057, 220, 47184, -953, 32038, 13385, 3499, 135851, 2988, 38770, -3923, 9584, -106, 1572, 1982, -2555, 17158, 3609, 2800, 1944, -67, -1922, 4857, 27438, 19194, -12838, 1951, 40697, -7648, 52223, 14523, 20591, 569, -1148, 3972, 14566, 953, 536, -3846, 47762, 587, 52810, -778, -7, 66930, 1864, 135434, 23047, -374, -24337, 8224, -7606, 3381, -8490, -258, 306, 5831, 504, 161, -15766, 1090, 33068, 31631, 445, 46277, 6589, 472, 341, 5669, 12186, 8253, 2961, -387, 736, 406, 57257, -56, 14438, -7936, 8307, -7530, 854, -1779, -6, 493, 468, -10196, 105585, -927, 180, 6737, 12635, -12343, 14794, 20248, 143, -10922, 1602, 638, 15066, 33, -54, -12858, 469, 5026, 8546, -2008}
#define CONV14_WT {0}
#define CONV14_W_Z 	 (137)
#define CONV14_IN_Z      	(0)
#define CONV14_OUT_Z     	(0)
#define CONV14_M_ZERO 	(1431657856)
#define CONV14_N_ZERO 	 (1)


/* Layer 15 Learned Parameters */
#define CONV15_BIAS \
 {55092, 36080, 33199, -28262, 74727, -5732, 39682, -3132, 30537, 43444, 44755, 30722, -23548, -26826, 93545, 8189, 37719, -55747, -50182, 48114, 19584, 88170, 8353, 40308, 15163, 90065, -11523, 22972, -516, 34684, -14376, 28916, 16469, 589, -750, 1994, 64292, 64340, 19244, 6576, -6122, -5588, -1273, 12786, 30033, 19168, 38290, -19600, 83925, 11634, 13404, 7180, -20072, 4464, 6005, -21375, 57508, -20768, -1998, 39117, 56149, 80125, 29955, -10236, 60173, -3338, 33246, 40537, 27027, 10744, 44195, 34267, -20281, 23073, 51691, 82618, 27723, 13347, 82378, 4527, 19776, 35397, 52836, 53118, 89422, 82533, 2117, -3621, -30209, 4293, 50495, -21510, -9830, 28537, 13994, 23377, -28464, 23128, -13267, 6623, -34468, 50011, 21374, 36491, 13994, 2444, 4255, -9684, 4636, -22041, 35371, -5844, 8100, 34289, 5790, 15759, 4056, 18306, 118811, 67371, 88604, 40213, 44899, -26715, 53778, 25354, -13256, 45674}
#define CONV15_WT {0}
#define CONV15_W_Z 	 (137)
#define CONV15_IN_Z      	(0)
#define CONV15_OUT_Z     	(0)
#define CONV15_M_ZERO 	(1431657856)
#define CONV15_N_ZERO 	 (1)


/* Layer 16 Learned Parameters */
#define CONV16_BIAS \
 {-24792, -604, -15880, 14639, -4727, -14231, 35201, -19940, 13489, 2691, -18698, 34528, 148194, 43235, 40703, -11171, -5529, -15100, -5351, 16230, -24112, 44743, 40007, 5873, 1427, -16516, -23260, 92838, 81245, 10900, -2701, 87053, -20960, -25064, 42789, 26572, 2767, -29669, -30461, 13364, 11760, -374, 4058, 27805, 33457, 23326, 302, -3874, 2882, -1535, -21170, 39397, 89835, -15141, -7065, 97130, -3459, 1440, 74965, -533, -798, -34215, 2091, 9191, 10327, 97319, 36283, 2052, -14781, 10851, -12641, -8115, -3041, 547, 28609, -115, -8689, 15219, 34381, -18443, 180198, -17874, -652, 6904, 9466, 51873, 21905, 22796, 650, 19497, 20134, 7901, 6086, 57575, 13880, 3095, 25273, 48727, -1589, 76059, 863, -958, 42860, 4071, 17984, 5721, 30, 161525, -3540, 28103, 36357, 6828, 125594, -4498, 6540, 27617, -9835, -21772, -12391, 30833, 34422, 2467, -7382, -2650, 3682, -18926, 5880, 6906}
#define CONV16_WT {0}
#define CONV16_W_Z 	 (137)
#define CONV16_IN_Z      	(0)
#define CONV16_OUT_Z     	(0)
#define CONV16_M_ZERO 	(1431657856)
#define CONV16_N_ZERO 	 (1)


/* Layer 17 Learned Parameters */
#define CONV17_BIAS \
 {5668, 7718, -21969, 23590, 44256, -5932, 36981, -37380, 52178, 27873, 45948, 84951, 8555, 35892, 91114, 19692, 41704, 77094, 37015, -9009, 74492, -21096, 3727, 45898, 55701, -23033, 76202, 81331, 18343, 84756, 3422, 10127, 5633, 9598, 8556, 32056, -33807, 9848, -4334, 18865, -22723, 1192, 71761, 12354, 47803, 27380, 6414, 6709, 85574, 33951, -2446, 73781, -5334, 50925, 10187, -35922, 25413, 83171, 59393, -8422, -2730, 56514, -17108, 135116, 22625, 20033, 22444, -16468, 32658, -24171, -14643, -25534, -4326, 61046, 26585, 20740, -59395, 14766, 44192, -12397, 64405, -39005, 13702, -44180, 56902, 74144, -6391, 9354, 60308, 31226, 10824, -2364, 46215, -19650, 23739, 14820, -22632, 23281, -3596, 25639, 47944, 61141, 47539, -22380, 78542, 24574, 45886, 66815, 12862, 5017, 19495, 43409, 50125, 25847, 29477, 26163, 10544, 8836, -5197, 10834, 84985, 59860, 49955, 33877, 71006, 5558, 27154, 92047}
#define CONV17_WT {0}
#define CONV17_W_Z 	 (137)
#define CONV17_IN_Z      	(0)
#define CONV17_OUT_Z     	(0)
#define CONV17_M_ZERO 	(1431657856)
#define CONV17_N_ZERO 	 (1)


/* Layer 18 Learned Parameters */
#define CONV18_BIAS \
 {-14601, -18698, 32089, -1716, 5961, -10302, 159, 11300, -6542, 30290, 24949, -9495, -2507, 5352, 36238, 30170, 69732, 11466, 12198, -34141, 30341, -23288, -3798, 13896, -14185, -3492, -4326, 2740, 3148, 51681, -6031, 18325, -1102, 158, 55734, -1838, 4194, -83, -9402, -1484, -13457, -839, -5330, 26685, 14881, 50417, 92221, 5752, -35061, -12554, 84440, 19109, -7067, -5736, 49328, 30451, -5710, 77, 11895, 19867, 69643, 626, -8920, 29474, 29416, 59089, -1834, -13763, 8290, -11066, -5614, 2223, 37368, 33250, 6892, 38154, -2410, 13317, 40344, -4879, 30075, -4438, 17790, -1980, 17644, 28639, 27, 25084, 24364, -6943, 39758, -2181, -3417, -35029, 12359, 56998, 35909, 3291, 87148, 77902, 34735, -5502, 31935, -11468, 983, 30399, -13968, 112171, 23280, 69326, 147106, 34989, 89763, 3638, -3464, 46568, -1499, -2145, 120, 16510, 40217, 11086, 16070, -14264, 26292, -20290, -56, 78697}
#define CONV18_WT {0}
#define CONV18_W_Z 	 (137)
#define CONV18_IN_Z      	(0)
#define CONV18_OUT_Z     	(0)
#define CONV18_M_ZERO 	(1431657856)
#define CONV18_N_ZERO 	 (1)


/* Layer 19 Learned Parameters */
#define CONV19_BIAS \
 {1803, -17796, -16035, 2932, 7120, 71398, -7701, -13600, 276, 40708, 12057, -9421, 14163, 7621, 41643, -18400, -40065, 46284, 48175, 7178, -18852, 35857, 48046, 37299, 44245, -15840, 38899, 16147, -4040, 64289, 16400, 6556, 32584, -66977, 29704, -16539, 6922, 900, 45612, 6182, 32995, -5513, 50233, 3856, -28384, 16293, 350, 31320, 1955, -13030, -27369, 17587, 60952, 6604, 17533, -35414, 8510, 11296, -18154, 9808, 37802, -35251, 21964, -227, 37295, 97963, 74075, -17105, 5585, 7787, -18194, -36338, -66243, -2029, -13131, 7497, 26038, -25561, -2690, 27219, 13740, 153866, 81166, -45476, 2169, 16, 37266, 9392, 8124, -3263, 105896, 50063, 4407, 20749, -12315, -2362, 29202, 33417, 28252, 54052, -39523, 40234, 18828, -28233, 67572, 7935, 28213, 18435, 26613, 16870, -6670, 41895, 5797, -13485, -40630, -15244, 58404, 33888, 53028, 8226, -20914, 14897, -28108, 5757, -35084, 47737, 3519, 31748}
#define CONV19_WT {0}
#define CONV19_W_Z 	 (137)
#define CONV19_IN_Z      	(0)
#define CONV19_OUT_Z     	(0)
#define CONV19_M_ZERO 	(1431657856)
#define CONV19_N_ZERO 	 (1)


/* Layer 20 Learned Parameters */
#define CONV20_BIAS \
 {32157, -6877, -16617, 57878, 68995, 9060, 6434, 79967, -9858, -15548, -921, -23891, 41802, 6992, 8471, -3800, -15923, 24745, 21115, 11398, 10776, 36391, 8696, 3966, -9576, -6753, 334, 29287, 27022, 19162, 72107, 81427, 8600, -24757, 71890, -8958, -2869, 145768, 18360, 78482, 20224, 13636, 27555, 129977, 71114, 75, -19117, -687, 83882, 52825, 97345, 25824, 36188, 53641, 2847, 3476, 21934, -15743, 8493, 51554, 62468, 3835, 22131, 66391, -5442, 24044, 36242, 49, 21606, -19919, 1098, 19000, -2702, 11044, 15681, -24766, 54894, -12576, -11874, 23241, 32099, 22659, -13078, 54, 149027, -15692, 108121, 1917, -13508, 31296, 20235, 24036, 44063, 28568, -13833, 4954, 10164, -3381, 86807, 52453, 140960, 102084, 82476, -18018, 30844, 75999, -5627, 52172, 5202, -3835, 22922, 15555, 50155, 81027, 175179, -5612, 38996, 406, 19851, 4841, -4821, 8482, 68320, 2513, -45368, 24918, 79756, 58148}
#define CONV20_WT {0}
#define CONV20_W_Z 	 (137)
#define CONV20_IN_Z      	(0)
#define CONV20_OUT_Z     	(0)
#define CONV20_M_ZERO 	(1431657856)
#define CONV20_N_ZERO 	 (1)


/* Layer 21 Learned Parameters */
#define CONV21_BIAS \
 {16999, -2954, 6654, 9364, -13167, 11894, -389, -19831, -8941, -19238, -80782, 31263, -9968, 8203, 1216, -27999, -1786, 27728, 7206, 61974, 33808, -59328, -24652, 87799, -14781, 25431, 40063, -3184, 6842, -944, 10164, 11154, -31832, 69100, -11472, -16513, 2931, 2963, 22983, 60494, -54909, 70678, -40284, 19002, 42989, 79687, 74333, -16007, 23997, -58338, -10907, 15635, 51459, 26230, -49678, 29643, 18003, 44115, -30899, 69565, 92966, -8793, -31548, -15810, -47532, -959, -21201, 36032, 60083, 55417, 9726, 27271, 11059, 24736, 10963, -17607, 50025, -24132, -18773, -4925, 12008, 45797, -2919, -27589, 90019, 5197, 46557, -6763, -48185, 60915, -9280, 38445, -22235, 21696, -5794, -5376, 45350, 53682, -52335, 51872, 10014, 1875, -25338, -36934, -9228, 3131, -649, -8727, -61211, 17778, -13278, -12447, -7664, -31677, 108978, 72502, -17161, -22757, -34243, 6317, -36323, 7490, 34468, -1564, 61986, 69884, 18881, -4022}
#define CONV21_WT {0}
#define CONV21_W_Z 	 (137)
#define CONV21_IN_Z      	(0)
#define CONV21_OUT_Z     	(0)
#define CONV21_M_ZERO 	(1431657856)
#define CONV21_N_ZERO 	 (1)


/* Layer 22 Learned Parameters */
#define CONV22_BIAS \
 {153631, 69440, -15447, -1853, -1704, 112810, -6451, 70379, -3630, -34277, -5386, -7735, -10720, 190771, 102371, 2302, 67143, -982, 46409, 71023, -2441, -7692, -3111, 44557, -3371, 81825, -1235, -96, -17603, 3970, -9158, -2264, -28866, 155309, 41756, -28241, -5868, -22194, 86164, -21767, 77509, 164303, -1174, -10310, -2, 172992, -9983, 89101, 48148, -7010, -18497, -3987, 35988, 108887, -6484, -12139, 68136, 106167, 148804, 121998, 183313, 265214, -1453, 80037, -3350, -5643, -529, 242953, 24117, 14491, -8697, 185663, -20767, -5149, 85807, -11861, 35727, 130324, -9570, -16, 141245, 59830, 133893, -52, -2905, -4741, -2321, -3294, -29082, -6573, -9295, -1088, -3014, -16724, -6796, -2651, 37634, -13583, -13310, 26771, 87959, -5221, 124483, 144173, 9953, 62910, -7873, -11239, -12969, 25719, -3849, -6251, -4988, 89073, 56152, 34612, 1774, -6113, -6746, -4335, -21866, 950, 70040, -14627, 119550, 81128, -9302, 106114}
#define CONV22_WT {0}
#define CONV22_W_Z 	 (137)
#define CONV22_IN_Z      	(0)
#define CONV22_OUT_Z     	(0)
#define CONV22_M_ZERO 	(1431657856)
#define CONV22_N_ZERO 	 (1)


/* Layer 23 Learned Parameters */
#define CONV23_BIAS \
 {-33805, -93461, 4705, -67542, -18223, -7064, -47721, 35239, 26182, -12281, -22162, 26312, -41465, -60571, -29482, 9584, 7982, 16499, 70166, -57730, 25809, -34929, 25216, -34895, 18007, 14390, -25136, 21172, -25162, 28276, 57991, 20107, 4698, -30652, -64877, -26373, 77927, -12543, -18158, 79999, 30659, 4634, 13997, -39120, 72647, -24706, -65328, -2458, -12548, 145917, 13332, 18103, -7193, 45649, 12611, -30830, -18528, -65396, -1421, -46211, 11046, -23425, -24215, -46788, -4684, -17924, -31196, -66238, 3308, 23170, -12641, 33728, 15536, -869, 40612, -50147, -3249, 44797, -24357, 20571, -6109, 5977, -20832, 48284, -26207, 25493, 6784, 38937, 62545, -31041, -13524, 73440, -27788, -44954, 10286, 48475, 39411, -12862, 7302, 12534, -34980, -35256, 5536, 93154, -11107, 60379, -37281, 26895, 24976, 61759, -10468, 7012, -62198, 56816, -47537, -9377, -6722, -14060, 43787, 34028, 17445, -30007, -1022, -5323, -70233, 80280, 11207, 26326}
#define CONV23_WT {0}
#define CONV23_W_Z 	 (137)
#define CONV23_IN_Z      	(0)
#define CONV23_OUT_Z     	(0)
#define CONV23_M_ZERO 	(1431657856)
#define CONV23_N_ZERO 	 (1)


/* Layer 24 Learned Parameters */
#define CONV24_BIAS \
 {199131, 2442, 177052, -36, -4407, -1588, 198350, 21492, 178364, 544, 178169, 198569, 179003, 135844, -274, -594, 157300, -1571, 80377, -82, 70788, -46, -1444, -32, 170558, -944, -5408, 122261, -568, -3183, 11880, 2985, 209207, 1365, 1566, 204949, -7126, -1358, -403, 154305, -580, 3986, 148910, -449, 110896, -19970, -7128, -9322, -662, 100168, 207208, 63787, 173214, 96339, 139531, -916, -1433, 175216, 156709, -213, 76646, -1367, -1864, -49, -23965, 5482, -2272, -812, 387, 107034, -145, 129326, 176788, -27, 124811, -450, 175645, 91282, -508, 23009, -1773, 160464, 109136, 208884, -1583, -8750, 186734, 150669, 95902, -313, 77987, 79377, -56493, 177770, -1493, 162810, -983, -852, 210873, 154296, -948, -145, 89257, 106761, 164, 17647, -474, 103819, 204769, 79271, 153033, -63, 2357, 124180, 446, -244, -1200, 513, 66679, -21823, 151571, -666, 123798, -239, 8, 100106, -604, 27935}
#define CONV24_WT {0}
#define CONV24_W_Z 	 (137)
#define CONV24_IN_Z      	(0)
#define CONV24_OUT_Z     	(0)
#define CONV24_M_ZERO 	(1431657856)
#define CONV24_N_ZERO 	 (1)


/* Layer 25 Learned Parameters */
#define CONV25_BIAS \
 {25551, 24405, -7472, 9266, 61268, -77263, -12573, -39643, -2173, 17438, 27699, 20188, -68111, 69613, 14336, -46199, 25240, 32236, 23332, 43746, -47644, 18003, -1004, 15311, 9328, 46435, -20804, 18875, 140251, 10927, -4387, -713, 53329, 10285, 8493, -7106, -2302, -32778, 343, -13609, 43434, -12207, 13436, -53056, 83892, -58752, 45179, -5961, 14914, 48093, -14927, 52964, -69330, -71398, -13065, -50465, -2121, 9433, -14569, 1522, -67889, -15810, 119426, 7111, -59194, -5569, -2119, -67050, -27207, -20690, 10591, -21946, 50336, -17219, 27739, 19576, 32713, 65375, -20343, 4206, 5699, -27518, 31183, 35400, -14076, 75766, 4743, -10890, 17670, -23126, 36393, -66664, 50514, -48178, -42373, 41987, 81389, 3667, 1262, -8489, -1656, -12123, -1767, 37682, 584, -7062, 118845, -71986, 56803, 16724, -35435, 70125, -18527, 17987, -30702, 53618, 12907, 23170, 55218, 17390, 29849, 12374, 12301, -23663, 28542, 80285, 84823, 46006, -2677, 26025, -26126, -10763, -42733, 37129, 4508, 60499, -3671, 56218, -1138, 61989, 30248, 91357, -20111, 12073, -25529, -3835, -29375, 84391, -29176, 44678, 20879, 15054, -10349, -15201, 37986, 31684, 57096, -18694, 9081, -52954, 71071, 60018, 40475, -62518, -34787, -12718, 8652, -82553, 49803, 14865, -33848, 48368, 9723, -41317, 79925, 40496, 24683, -1416, -6978, -6525, -48381, 44058, -10271, -42316, 9391, 50250, -3981, 17999, -20337, -11496, 56033, 15392, 8045, -33337, -472, 2741, 10968, 21539, 29140, 26080, -17823, -32657, 5753, 16629, 48853, 62430, -16896, 5168, 40012, -20043, -78029, 8013, -72469, 10252, -42512, 26240, 20694, 86206, -36175, 21131, -983, -1644, 25914, -46171, -42061, -22194, -32904, -32084, 61024, -9694, -3876, 27629, 15030, -35961, 15532, 4305, 4928, 59956, 66398, -37612, 34605, 1694, -9524, 39675, -97014, -41348, -38441, 3908, -5222, -33771, -33382, 13763, -8495, 68388, -7517, -16072}
#define CONV25_WT {0}
#define CONV25_W_Z 	 (137)
#define CONV25_IN_Z      	(0)
#define CONV25_OUT_Z     	(0)
#define CONV25_M_ZERO 	(1431657856)
#define CONV25_N_ZERO 	 (1)


/* Layer 26 Learned Parameters */
#define CONV26_BIAS \
 {68247, 11554, 59848, -17444, 73373, -563, 69601, -359, -1929, -976, -1017, -1123, 92021, -695, 64965, 88522, 94851, -450, -1104, 105468, 75395, -470, 147962, 100580, 133352, 56084, 47791, -1484, 45212, -254, 88979, 103824, 66299, 158241, 65752, -588, 118698, -5816, 224003, -889, 79427, -946, 217255, -7292, 10596, -971, -399, 104096, -29020, -775, -905, 103793, 3296, 9806, -1138, -753, -117, 79837, -1258, 45001, -7207, -351, -15413, -19025, -8300, 349225, -1086, -3566, -1250, -19644, 39592, -1323, -15213, 201727, 70031, -1396, -13034, 118230, -754, 58759, 76732, -572, 115050, -3447, -776, -2590, -926, 50024, -1579, -460, 5724, -243, 156190, -284, 526, 51618, 4034, 85186, -604, -137, -101, 100829, -2257, -4640, -102, -1141, 106229, -693, 22415, -547, 121731, 1296, -727, 66513, -52, -446, 22785, -422, -1057, 1713, 10384, 89411, -1302, -7758, 426, 52133, 36630, 88679, 98647, 62841, 76792, 121012, -1460, 889, -5570, 70825, -159, 57561, -2870, 62345, 80431, 163667, -17659, -2892, -2084, 130120, 2479, 150902, 68592, -2727, -15415, -3760, 38, -1252, -397, 98899, -5660, 111722, -18143, 105825, 58875, -11176, 3007, -829, -313, -4510, -6680, -1243, 86178, 197099, -6552, 95752, 54666, -1409, 134376, -580, -3646, 57847, 88576, -3836, 47417, 80447, -1383, 103056, -64, -535, 55338, -417, -7273, 96891, -1896, -319, 3237, 77000, -300, 59281, 76, -1310, -3486, -2371, -1418, -680, 3331, -406, -399, 58353, 2492, -136, -2511, -32703, -560, -7629, 7047, -1497, -19168, 78285, -46, 88352, -1058, -4823, 81508, 8727, -19413, -1251, 181186, 189109, 62697, -32326, 38830, 122167, -84, 92301, -1244, 11914, -480, 83226, -3466, 160037, 67504, -155, 92527, -332, -29396, -4034, -4476, -1344, 95015, -1180, -2624, 106306, -25657, -441, 91446, 2186, 153837, -3166}
#define CONV26_WT {0}
#define CONV26_W_Z 	 (137)
#define CONV26_IN_Z      	(0)
#define CONV26_OUT_Z     	(0)
#define CONV26_M_ZERO 	(1431657856)
#define CONV26_N_ZERO 	 (1)


/* Layer 27 Learned Parameters */
#define CONV27_BIAS \
 {-1024, 26631, 50947, 3641, -2897, -19094, -4457, -7495, 1136, -16964, -16514, 30866, -22139, -25608, 26306, -28398, 15009, 15726, 3406, -32752, -37756, 11641, 6384, -25551, -50604, 8720, 4392, 34823, -18650, -6218, -994, -432, -25690, -7090, 14043, 9387, 18039, -41050, -303, -10167, -3546, 26493, -23201, -14671, -19746, 3455, 22100, -52653, 9350, -1736, -9378, -29218, -25707, -1354, 54092, 13763, -39872, 15719, -282, 5520, 8404, 11178, 41947, -14343, -12972, -7340, -2244, -1776, 1463, -23240, -32876, -45552, 40365, -14897, 12037, 24378, 32997, 12643, 3884, -36622, -52124, -665, -25680, 23289, -13341, -16753, -419, -30293, 1777, 11436, 3355, -18051, -7263, 17676, -11231, -18506, -28437, -9481, -12078, -52659, -2714, -7646, 2397, -55218, -26450, -18558, -46129, 4620, 5847, 846, -2579, -29390, 2314, -5253, 41668, 52857, -7541, 12441, 36094, 5617, -53522, -11781, 18306, -8004, 22514, -21256, 17894, 16332, 55626, -36221, -17823, -42052, -6732, 219, -26650, -68200, -3135, 5424, -18426, 22894, 30304, 9958, -15755, 36200, -6720, 3944, -15991, -64477, 1188, -4726, 63541, -7690, -62128, -39862, 8510, -25229, -9651, -19776, -19344, -407, -4174, 18761, 16184, 13710, 2970, 7880, -13298, 13444, -30765, -24627, 32916, 31764, 3626, 35763, -16944, -19385, -17131, -21605, 10157, 2313, 27981, 2503, -49676, -22357, -21003, 24686, 8362, 24996, -17167, -25622, 74920, 13854, -1205, -13583, 18748, 30247, -12717, -23694, -10653, 9980, 781, -20765, 9660, -16907, -16645, -18841, 672, 7315, -7100, -25283, 54779, 918, 20354, -30223, -3221, -30462, 9667, 40981, 4690, -17677, 18919, 58097, 37743, -25242, 31215, -24650, 29296, -36125, -13881, 41926, 4408, -9473, 15669, -4482, 467, -11667, 6469, 86677, 13667, -20658, 327, 26930, -14346, 36091, -43335, -6017, -10417, -43718, -23750, -22962, -7647, -40648, -11281, 18200, 26330, -22797}
#define CONV27_WT {0}
#define CONV27_W_Z 	 (137)
#define CONV27_IN_Z      	(0)
#define CONV27_OUT_Z     	(0)
#define CONV27_M_ZERO 	(1431657856)
#define CONV27_N_ZERO 	 (1)


/* Layer 28 Learned Parameters */
#define FC28_WT \
{0}
#define FC28_BIAS \
 {2656, 6736, -6264, -4796, 5968, 3266, 6161, 214, -2271, -3061, -5971, -6079, 106, -3954, -175, -2575, -1518, -423, 2935, 1591, 2030, 4738, 5755, 1971, 1596, -4911, 4590, -3775, 5103, 26, 2914, 1166, -3887, -4266, -4930, -11063, 1518, -473, 2337, -2580, -1240, 5005, -66, -2680, 3111, 2868, 1073, -655, -1388, -1196, -209, 2254, 6882, 5101, -3575, -4248, -2991, -1063, 5928, 2825, -5085, 1991, 2255, 8299, 450, 3057, -2790, -3209, -1731, 3365, -4085, 5265, 5097, -880, 919, 4982, 3215, -2698, 747, 2038, -8740, -5187, -1914, -19133, -7826, -1665, -6370, 4194, 4393, 7149, -3592, -4333, 1178, 497, 548, -4921, 2572, -11994, -12844, -8027, -2609, -9307, 219, 3389, 936, 3737, 4507, 1632, -3691, -9420, -7730, 19102, 1653, 1015, -1521, -8962, -9010, 4551, 2140, -7190, 685, -1069, -3562, -4141, -373, -6527, 1988, -4559, -3854, -2454, -140, -5372, -805, -2286, -11459, -5878, -9597, -7255, -3845, -4584, -6388, -342, -4994, -5374, -9853, -2711, -50, -8141, -8069, -3580, -1412, 3534, -9109, 5310, -900, 8272, 3951, -5734, -3778, -1838, -4514, 10213, 8894, 1178, 1301, -1834, 31, -6711, 1588, -2357, -1499, 12618, -1824, -3289, 8783, -9975, -5653, -2810, 5161, -3000, -1823, 2325, 7353, 3195, 2122, 1646, -1329, 1793, -2086, 2655, 2145, 5971, -2903, -2480, -3051, 11685, 4569, -1031, -8273, 6336, -5916, -951, 4148, 6416, 5047, -5081, -4618, -7291, -6513, 3813, -3521, -1336, 617, 506, 1427, -1977, -919, 8530, 245, -887, -1218, -2442, -1306, 7668, -6990, -1023, -6277, -7050, -5385, 5952, 2541, -6393, -4670, 4592, 2481, -331, 3829, 9476, 274, 4738, -2060, -3320, 2117, -1105, -419, 5461, -1888, 6147, -5515, -5252, -552, 8946, 1140, 323, 12639, -6858, 3485, 1577, -278, -25, 6880, 7828, -6047, 755, 2764, 10266, 3854, -3892, -2298, -741, 1243, -497, 3820, -3814, -5895, -6885, -4470, 1294, -5009, 2975, 3699, 9434, -2871, 2646, 7022, 4270, 3333, 1710, 634, 1027, 1384, -6710, 194, -3281, -3992, 1479, 1336, 285, -2568, 6216, -5417, -5778, -1922, -2264, -11055, 3046, 1693, -6429, -3925, -6326, -7665, -4683, -6622, 1110, 7074, 2901, 520, -4091, -887, -5654, -9322, -11625, -10978, -8802, -7038, -9785, -8266, -714, -8310, -5973, -779, -1845, 6742, 2835, -2969, -968, 4255, -4633, -9612, -751, -2261, -1686, -5756, -7682, -1565, -3491, 2125, -1927, 581, 5118, 2528, -5278, -6382, -1922, 3508, 992, 817, -992, 1042, 7100, -7483, -1862, -516, 1396, -1760, 4396, 3538, 9944, 2663, 6616, -525, -980, -2547, 5322, 2737, 1808, 2784, 3964, 1880, 1165, 322, 1579, 2568, 2248, -5821, 2387, -2536, -5323, -2591, 5991, 751, 8307, -7002, -2633, 2251, 5710, -8491, -2344, -2521, 11110, 2548, 5358, 3513, -3925, -9327, 6126, -3024, -2000, -5928, -5418, 3499, -1560, 5685, 7090, 946, -1413, 10567, -3988, -2526, 3933, 1422, 11127, 5287, 6878, 9499, 1597, -11004, -2241, -477, 1850, 6752, -3177, 88, -2465, 3894, 2253, -3652, -3822, -1212, -5337, 2312, -1178, 1549, 1349, -1668, 6407, 668, -5181, 4813, 2557, 3226, 1166, 845, 2677, 1686, 1949, 4293, 121, 521, -718, -11439, 8787, 1586, 729, 6391, 14287, 1307, -841, -2904, 1445, -3105, 3576, -7612, 7751, -4872, 6657, 543, 816, -3133, -8925, 1621, 3259, -1731, -3261, -6128, 3671, 3443, 2142, 812, -2767, 537, -1119, 6259, -10994, 456, -1337, 810, -6836, -91, 6683, 3312, 2829, -4851, -5366, 4921, 229, 1895, -351, 274, -5779, -2946, -3946, -294, -203, 6136, 9997, -1056, -5100, -4980, 5426, -3297, -5564, -8254, 9647, 4831, 5094, 3517, -6721, 2022, 3912, 47, -1373, 2009, -2204, 2919, -3986, -9774, -1298, -3885, 809, -9532, -39, 9355, 6716, -630, 9352, -297, -10833, -8569, 12631, -2553, 4150, 12157, -3018, -4197, -2718, -3222, 4025, 237, -947, -2654, -1055, -4480, 4673, -5642, -469, -956, 735, 7358, -589, 1393, -3125, -4106, 6773, 5647, 5988, 2307, 5075, 3403, 1636, -6163, -4380, -1938, 1806, 5348, 1298, -3885, 7912, -2129, 1991, -6700, 3823, 404, 2124, 5862, -4567, 3555, 7826, -9569, -1442, 11294, 246, 9788, -2050, -309, -5929, 7797, -4734, 9577, 692, 5848, -4178, 19, -2355, -2864, -4534, -2050, 2387, 11639, -7535, 6800, 154, 1920, 11451, -4918, -3704, 2209, 5964, -5002, -1839, 5649, -1202, 3075, 2897, 2117, -2019, 3425, -1244, -1089, -1921, -9316, -1660, 3750, 1918, -2295, -6769, -266, -3167, 3842, -137, 11706, -1748, 1509, -337, 5166, 6087, -2501, -1021, -1899, 303, 4743, -163, 2009, -122, 6257, 4540, -3252, 4145, -6782, 6706, 3020, -537, 1165, 1151, 2364, 1562, -7038, 1938, 4414, -2924, 2184, 8275, -553, 4467, -1689, -2681, 2849, 572, -8287, -2751, -3650, 3363, 5559, -9183, 2050, 6470, 6801, 388, -3979, 1351, 9035, 46, 4583, 6277, -323, -9318, 3789, 7100, -3737, -4315, -363, 3213, 1936, 3380, 7958, 1442, 5001, -5188, -5922, 6564, 937, -4260, 4816, 468, -10004, -1791, 11786, -3889, -235, -448, -2039, 3083, 1033, 539, -7134, -2634, -6150, 1473, 4411, 9422, -2837, -4020, -3152, 4689, -406, 3400, 617, 8631, -3275, 13949, 5394, 3756, 5844, 1484, -235, -4358, 3658, 205, 2977, -3065, 9734, 1813, -3375, 5857, 11800, 1580, -4948, -6057, -5750, -3292, 4620, -5381, -1523, -1043, 6492, 6039, 7562, 16929, -11978, -1645, -6027, 424, -1055, 1513, 2541, 8017, -929, -3078, 7591, -2819, -6737, 8775, 6717, 1372, 4834, -885, 4090, 11441, -631, 8622, -9852, -874, -7614, -1655, 964, 680, -4104, 1501, 7369, -2347, -4945, -1319, 1350, 3281, -3628, -3984, 3250, -6752, -5048, 7540, 843, -3717, 8168, 3777, 6087, -987, -2829, -7588, 3043, -3606, 2491, 1304, 320, -1399, 7076, -5782, 11386, 13022, 2426, -3140, -440, -451, 6900, 6033, 512, 10519, -5970, 1675, 3034, -4270, 8688, 1362, 993, 6757, -5006, 9685, -4095, -1269, 7111, 6354, -2004, 3971, 2134, -1975, -5206, -1636, 859, -681, -839, -5537, 5526, -5650, -933, -3696, -8316, 2716, 3871, 1035, -6906, 7523, 8994, -1130, -979, 2942, -2369, 22412, -7949, -4523, 1239, -262, 5858, 174, 6643, 6182, -3226, 1047, -361, 3529, 7386, -1702, -5872, -1614, -4434, 7479, 7228, 9748, 8148, 1852, -6034, 4345, 1336, 9102, -3245, 299, 543, -2547, 2340, 5358, -1099, 5818, -5641, 2133, 3637, -396, -5049, -248, -1768, -2532, 458, 3263, -2932, -7077, 1803, -13776, -3902, -1028, 6572, -1351, 1597, -2720, 804, 2433, -436, -5248, -7827, -3206, -7431, -11256, -2965, -2717, -2331, -6183, -4181, -45, -1787, -2120, -107, -2636, 3811, -10827, 4105, 2737, -448, -2274, -3357, 568, 2113, 3614, -744, 537, 2198, 5516, 3923, -5911, 2118, 3960, 904, 8453, -1900, -1319, 2275, 9743, 10190, -9385, -9872, 2585, -2876, -5275, -7944, -13851, -8172, -7327, -8890, -10838, 1028, -9717, -1566, -5705, -2821, 10138}
#define FC28_W_Z       	(178)
#define FC28_IN_Z      	(0)


#endif /*__128_0_25_WEIGHTS_BIAS_H__*/
