#ifndef __128_0_5_WEIGHTS_BIAS_H__
#define __128_0_5_WEIGHTS_BIAS_H__


/* Layer 1 Learned Parameters */
#define CONV1_BIAS \
 {11090, 18737, -141852640, -65995, 245808, -13840503, -1937192, 120584, 24185, 3685, 31320, 330827, 40908, -36379, 26989, -469365472}
#define CONV1_WT {0}
#define CONV1_W_Z 	 (137)
#define CONV1_IN_Z      	(127)
#define CONV1_OUT_Z     	(0)
#define CONV1_M_ZERO 	(1431657856)
#define CONV1_N_ZERO 	 (1)


/* Layer 2 Learned Parameters */
#define CONV2_BIAS \
 {3054, 3728, 203, -2583, -10280, -182, -187, 37598, 2824, -123, 11636, 5978, -2401, -109190, 17997, -126}
#define CONV2_WT {0}
#define CONV2_W_Z 	 (137)
#define CONV2_IN_Z      	(0)
#define CONV2_OUT_Z     	(0)
#define CONV2_M_ZERO 	(1431657856)
#define CONV2_N_ZERO 	 (1)


/* Layer 3 Learned Parameters */
#define CONV3_BIAS \
 {2193, 2669, 92541, -253602, 74754, -22366, 43069, 34118, 73497, 48939, 47749, 87705, 6988, 65332, 52539, 38038, -1218, -10678, -7525, -3305, 23596, 48556, 23442, -4484, 26619, 29752, -19641, 103546, 84573, 44073, -627858, 15177}
#define CONV3_WT {0}
#define CONV3_W_Z 	 (137)
#define CONV3_IN_Z      	(0)
#define CONV3_OUT_Z     	(0)
#define CONV3_M_ZERO 	(1431657856)
#define CONV3_N_ZERO 	 (1)


/* Layer 4 Learned Parameters */
#define CONV4_BIAS \
 {3736, 918, 17696, -429, 12558, 1424, 390, 971, 2819, 10018, 9676, 1640, 5595, 4900, 3356, 9265, 13936, -456, 1525, 1406, 9739, 164420, 2456, 11648, 3981, 90098, 106230, 900, 49724, 9106, -836, 1873}
#define CONV4_WT {0}
#define CONV4_W_Z 	 (137)
#define CONV4_IN_Z      	(0)
#define CONV4_OUT_Z     	(0)
#define CONV4_M_ZERO 	(1431657856)
#define CONV4_N_ZERO 	 (1)


/* Layer 5 Learned Parameters */
#define CONV5_BIAS \
 {104878, 33899, -20067, -7464, 3411, 38771, -26183, 14889, 6044, 21173, 30255, 15210, -3937, -6401, 13550, -62200, 9468, 24152, -16625, -5590, -18993, 46284, 8247, 59032, 59791, 946, -34225, 19663, 19923, -32143, 32539, -13529, 41658, 21314, -7330, 16084, 8850, 13240, 8871, -20154, 6004, -42748, 5072, -55291, 45281, 19520, 11527, 70143, 59541, 7849, -350553, 2040, -14051, 4657, 9650, -461, -4118, 3778, 38338, 15375, -18751, 15764, -16550, -53027}
#define CONV5_WT {0}
#define CONV5_W_Z 	 (137)
#define CONV5_IN_Z      	(0)
#define CONV5_OUT_Z     	(0)
#define CONV5_M_ZERO 	(1431657856)
#define CONV5_N_ZERO 	 (1)


/* Layer 6 Learned Parameters */
#define CONV6_BIAS \
 {323420, 24098, 70911, 82, 48469, -16, 12531, 35600, 38745, 11491, 66268, -173, -2049, 13264, 7312, 79213, 19618, 201, -4973, 1388, -3124, -1457, 23341, 2520, 10715, 5306, 1592, 10354, 33122, -5605, 2062, 6, 3957, 44665, 1468, -1232, -15406, 66356, 36652, -3404, 112956, 32998, 14486, 72377, 30018, 1436, 2204, -5148, 74899, -181, -4277, 751, -378, 1044, 43809, 2730, -415, 87029, 34654, -23292, 44648, 3884, 1344, 42293}
#define CONV6_WT {0}
#define CONV6_W_Z 	 (137)
#define CONV6_IN_Z      	(0)
#define CONV6_OUT_Z     	(0)
#define CONV6_M_ZERO 	(1431657856)
#define CONV6_N_ZERO 	 (1)


/* Layer 7 Learned Parameters */
#define CONV7_BIAS \
 {49741, -44338, 54713, 403, 1773, 25549, -2169, 97175, -7819, 90409, -12833, -24345, 40714, -7182, 11000, 27433, -13762, -78146, 179, 42860, -5103, -30067, -24, 7822, 35904, 24677, -9114, -10932, -65351, 67618, -13626, 51322, 52047, -67741, -32397, -2283, 19159, 24993, 42629, 10350, 939, -28136, -5973, 119855, -32294, 36037, -13119, -4383, -24097, -56593, 25115, 78060, 65981, 24069, 21328, -70746, 93563, 49628, 12654, 8207, 73351, -17608, -30231, 31398}
#define CONV7_WT {0}
#define CONV7_W_Z 	 (137)
#define CONV7_IN_Z      	(0)
#define CONV7_OUT_Z     	(0)
#define CONV7_M_ZERO 	(1431657856)
#define CONV7_N_ZERO 	 (1)


/* Layer 8 Learned Parameters */
#define CONV8_BIAS \
 {586, -400, -49472, -15061, 13870, 222902, 89747, 5393, -24429, 1224, 74638, -636, 1445, 292339, -41861, 26805, -46798, 4519, 85556, 1699, 85102, 32692, 61810, 9110, 7114, 7985, 182119, 41000, -821, 119, 2731, 239734, -685, 135072, 133235, 1213, 231501, 26517, 106076, 57786, 254899, 690, 184287, 3442, 4945, 67138, 1151, 91297, 187164, 131657, -9206, 46372, -47822, 145394, 30826, 276033, 53975, 100276, 172790, 4557, -109433, 925, 169324, 81634}
#define CONV8_WT {0}
#define CONV8_W_Z 	 (137)
#define CONV8_IN_Z      	(0)
#define CONV8_OUT_Z     	(0)
#define CONV8_M_ZERO 	(1431657856)
#define CONV8_N_ZERO 	 (1)


/* Layer 9 Learned Parameters */
#define CONV9_BIAS \
 {-27642, -16735, 99928, 61134, 46242, 19945, -4619, 12425, 7069, 36715, 85626, 13341, -39958, -14386, 42854, 41659, 39640, 35042, 47246, 11001, 52562, 51964, 108011, 66443, 28048, 19037, 19040, -9181, -7192, -2865, -6217, 28422, 2746, -35696, 20233, -27236, -1523, 13647, -16370, 68288, -20353, -18168, -2911, 35475, 39460, -9468, -13849, 53010, 45312, 8088, 5281, 17592, -27387, 17527, -2887, 48296, -2248, 10363, 40779, 42951, -28064, 4496, 23139, 57596, 12597, 32128, 15192, 35572, -68946, 7387, 49488, -40400, 1444, 42470, 51084, -74231, -1568, -60150, -10162, 72610, 61723, -18640, 63383, 60930, 11744, 5138, 49470, -18107, -44911, -10409, 15001, -21220, -25803, 49214, -10174, -51317, 42765, 60442, 175817, 143213, 7625, 1536, -5927, 25409, 28838, 47941, 32489, 46004, 36894, 34177, -30959, -30837, 5726, -1808, -10648, 19565, -52084, -10856, 59547, 39854, 75454, 25044, -19909, 66248, 27621, 64318, 75363, 76573}
#define CONV9_WT {0}
#define CONV9_W_Z 	 (137)
#define CONV9_IN_Z      	(0)
#define CONV9_OUT_Z     	(0)
#define CONV9_M_ZERO 	(1431657856)
#define CONV9_N_ZERO 	 (1)


/* Layer 10 Learned Parameters */
#define CONV10_BIAS \
 {2989, 30854, -419, -373, 22097, -292, 43702, -13711, 5702, 24298, 273, 107, 6196, 25124, 697, 48, 429, 63, -145, 11638, 9175, 6514, 8489, 78, 916, 338, 12345, -5862, 916, 1365, -215, 385, -555, 8481, 242, 186, -2770, 21310, 191, 38761, 119, -6897, 30124, 1, -175, -12745, 21617, -4914, 627, 6064, 4790, 1129, 359, -450, 9692, -7286, 31074, 39136, 24, 23827, -3984, -2954, 19811, 3280, -37, 601, 22566, -424, -6286, -33, -46, -4736, 170, 36803, 181, -326, 50311, 4308, 6134, 78565, 368, 161, 6530, 21647, -35, 14264, 37856, 1780, 86016, 61658, -222, 42363, -611, 12522, 6583, 772, -7223, 5389, 20940, 21705, 17314, -55, 84, -59, 40976, 29273, -151, 27549, 15233, 220, 48825, 137, 4783, -417, -2990, 245, -13597, 4343, -531, 935, 16661, 18170, -3319, 7322, -6963, 1164, 31768, 107}
#define CONV10_WT {0}
#define CONV10_W_Z 	 (137)
#define CONV10_IN_Z      	(0)
#define CONV10_OUT_Z     	(0)
#define CONV10_M_ZERO 	(1431657856)
#define CONV10_N_ZERO 	 (1)


/* Layer 11 Learned Parameters */
#define CONV11_BIAS \
 {-2831, 43666, 34970, 5835, 13317, 16539, 48610, 38775, 9125, -7372, 36060, 14869, 27269, 25903, 39107, -5550, -35628, 85988, -1676, 2898, -17519, -20856, -11404, 32459, -20117, 3149, 39607, -3820, 26739, 20284, -17641, 18987, 37477, 18300, 119405, 16450, 4095, -17028, 3252, -5232, 43135, 41156, 78027, 82973, 15152, -15657, -6140, -16376, 22637, 53624, -2573, 69449, 3125, 36832, 6229, 4484, -263, 38090, 1030, -590, 4062, 16441, -48700, 6689, -10487, 38311, 14522, 20561, -1172, -12152, 63659, 34199, 32115, 6234, 12921, 17498, -2134, 31472, -7646, 46582, 2286, 58180, -1289, 60773, 28624, -41739, 2432, 15128, 104667, 24286, 16349, 971, 105688, 51710, 393, 7245, -33681, 439, 26121, 4834, 17336, 75096, -15194, -17585, 57904, 34376, 14357, -3562, 18420, 15543, 7120, 19672, 77193, 20762, 18895, 5272, -4708, 1643, 1239, 58637, 905, -45000, 29362, -20296, 33437, -31649, 40169, -16280}
#define CONV11_WT {0}
#define CONV11_W_Z 	 (137)
#define CONV11_IN_Z      	(0)
#define CONV11_OUT_Z     	(0)
#define CONV11_M_ZERO 	(1431657856)
#define CONV11_N_ZERO 	 (1)


/* Layer 12 Learned Parameters */
#define CONV12_BIAS \
 {-1194, 11202, 22809, -1839, 155695, -2635, 147284, -1136, 138095, 72930, 146417, -790, 135112, 176618, -1187, -16373, -194, -383, -2550, 55693, 17855, 955, 970, 152020, 10727, 312, 3850, 109783, 6987, 12, 126835, 14805, 90908, 57, -1487, 79246, -884, -1200, 62943, 1441, 1717, 250510, 176736, 1500, 88085, 48968, 162903, 2771, 94968, 23666, 6998, 61765, 66549, 138581, 103782, 83859, -27725, 23966, -335, -964, 571, -815, 9658, 54178, 4547, 165294, 87766, 27680, 246867, -514, 699, 123715, 674, 114651, 553, 251517, 398, 30544, 17781, 125471, 14900, -3150, 147817, 47111, 123969, 769, 107406, -50407, -3521, 270, 37755, -1713, 6455, 217339, 19793, 156306, 1387, 66592, 62823, 3166, 1394, 225657, 90167, 189348, 28935, -894, -34396, 87509, 240298, 122542, 248966, 110144, 282845, 960, 13471, 34026, 72769, -1612, -278, 209788, 2275, -758, 180903, 814, -372, 4428, 213930, 70986}
#define CONV12_WT {0}
#define CONV12_W_Z 	 (137)
#define CONV12_IN_Z      	(0)
#define CONV12_OUT_Z     	(0)
#define CONV12_M_ZERO 	(1431657856)
#define CONV12_N_ZERO 	 (1)


/* Layer 13 Learned Parameters */
#define CONV13_BIAS \
 {-160, 2662, -1829, 48607, -16289, -9630, 6540, 42628, 73395, 35560, -12268, 631, -84578, 4398, 23741, 38780, 30807, 25204, 12845, 5267, 49767, 2951, 21272, -69674, 32142, 21554, 53976, 12775, 57313, 111630, 31837, 93795, 39175, 32333, 40989, 21261, 122131, 90202, 18966, 7842, -40223, -18278, 20843, 124498, 19909, 47962, 14962, 94412, 32707, -12708, -15957, -1736, 25692, 6387, 39968, 82987, 85, 63276, 47395, -18138, -86838, 42275, 21802, 87003, 62063, 19075, -57150, 15279, 43560, 74749, 28059, 40790, -10735, 41153, 41985, 14158, 55610, 58490, 28856, 13210, 3731, 34658, 58343, 6616, 74612, 43102, 97313, 55482, 45689, 61990, 69770, 92293, 59137, 2175, 16482, 51108, 30355, 7247, 48550, 29745, -13549, 22750, 36320, 55100, 34373, -19142, 34104, 26909, 40828, 14123, -5143, 29414, 14049, 517, 6480, 5187, -20946, 42077, 21927, 119230, 43136, 49044, 81751, 100803, 71613, 36824, 40202, 26084, 22853, 78157, 60209, 38738, 82719, -18903, 6177, 10417, 17166, -35039, 16081, -36396, 7370, 4089, -18222, 15653, 26884, 32462, 14075, 32455, 21856, 7851, 21248, -43263, 51327, -11332, 57935, 10462, -13932, 1699, 45629, 45945, 103880, 57854, 87648, 28878, 24385, 30131, -7346, 26810, 93944, 36452, 26182, 71033, 15514, 66731, 78366, 32880, 54997, 49288, 36374, 31156, 127490, -81826, 53697, -31636, -27145, 65758, -24639, -21247, -8161, 41856, -33094, 24502, 11901, 57728, 1991, 19337, 18720, -25192, 39511, -10816, 36703, -3754, 14965, 62667, 89546, 1004, 4391, 4053, 4618, 86934, 103709, 26551, 39250, -1803, 83601, -11175, 24264, 66707, 33167, -603, -13603, -42701, 59281, -35923, 42723, 46478, 16315, -10789, 9833, 44516, 30742, -54304, -29414, 13459, 30343, 62546, 11298, 12838, 24641, 31787, 21994, 35051, 22083, 88709, 59768, 28079, -33208, 40874, 30522, 17890, 21130, 24536, 23153, 50519, 91960, 33241}
#define CONV13_WT {0}
#define CONV13_W_Z 	 (137)
#define CONV13_IN_Z      	(0)
#define CONV13_OUT_Z     	(0)
#define CONV13_M_ZERO 	(1431657856)
#define CONV13_N_ZERO 	 (1)


/* Layer 14 Learned Parameters */
#define CONV14_BIAS \
 {112, 287, 101, 1089, 480, 23642, -3469, 6224, 1555, 121, 729, 287, -2987, -7737, 38905, 657, 600, -8629, -1032, -7800, -6347, 6200, -78, 1914, 18852, -183, 1049, 24970, -8408, 4990, 23583, -357, -7232, 1031, -3914, -21115, 1724, 331, -310, -10755, 154, 908, -21043, 16770, -2007, 49839, -22, 7858, 1032, -538, 157, 23788, -418, 33023, 7476, 10426, -1615, 7868, -75, 50, -9231, -1255, 327, 352, -3090, -2406, -3305, 40578, 5210, -7316, -13082, 5439, 27748, 97629, 2118, 22050, 438, 858, 39074, 26275, 56, 8699, -318, -323, 831, 2537, -814, 117, 1110, 1408, 7573, -1173, 3757, -110, 534, 20134, 10606, -1006, 14846, -401, -1030, -7477, -76, -8060, 25102, -79, -7311, 2241, 63933, -112, 358, -8300, 6857, 463, 17026, 137381, -12146, -7134, 73607, 5613, 649, 6808, -9149, -1623, -4156, 21525, 6234, -394, 144, 6998, 991, 12488, -2461, 20, 529, -701, 2625, 74, -6288, 13201, -661, 27495, -17684, 31152, 377, 46604, -14314, 25925, 29740, -11304, -2362, 4813, 36360, -1886, 426, -8229, 678, 52452, 462, 1173, 787, 1517, 1477, 4940, -263, -9450, 64473, -6279, 14807, 310, -1671, -3409, 16041, 361, 14943, 1749, -8866, 1082, 22286, -13906, 1493, -1958, 622, -7713, 176, 383, 689, 4139, -66, -913, -4079, 196, 41764, -3306, 8562, 31, 110, -16755, 6682, -14492, 6065, -3811, 83, -17693, 8152, 1312, -1462, 160637, 25378, -457, 14354, -15922, 1503, -6791, 215, 65, -343, 930, 10875, -10201, -995, -16006, 19089, -9385, 28223, -10141, -1737, 232, -10465, 8006, 619, -6033, -167, 38546, 25459, -2012, -191, -5867, 10533, 23740, -6, 1021, 12, 20625, -8619, -331, 1535, 269, 417, 4371, -3171, 38331, -1851, 9913, 38701, 158597}
#define CONV14_WT {0}
#define CONV14_W_Z 	 (137)
#define CONV14_IN_Z      	(0)
#define CONV14_OUT_Z     	(0)
#define CONV14_M_ZERO 	(1431657856)
#define CONV14_N_ZERO 	 (1)


/* Layer 15 Learned Parameters */
#define CONV15_BIAS \
 {26203, 7534, 18665, 11787, -11730, -16605, 66552, -12820, -22220, 23828, 28796, -4554, 4559, -30763, 28741, 43207, -12133, -14952, 25270, 80690, 48316, 8331, -17812, -6645, 19281, -4086, 20055, 4820, 28296, 35492, 9203, -24223, -28662, 48629, 18381, 7954, 73942, -3907, -3255, -1134, -12206, 34881, -388, 20337, -13012, -267, 1172, 726, 43018, 8824, 3778, 3860, 38930, 25447, 13018, -16347, -20604, 53028, -13759, 902, -40541, -14686, 34797, 13115, -39056, 5198, 22414, -15831, 21832, 17928, -298, 52694, 41074, -1928, 13445, -34081, 3098, -54354, 24946, 9955, 3254, 2940, -8497, 16186, 9392, 12143, -5044, -23488, 31357, -2314, 70645, -2247, 43384, -10072, 22298, 120151, 63783, 3325, 3352, -62923, 25099, 18192, -8204, -397, -5944, 27491, 32841, 16665, 35668, 43479, 5334, -11116, -7426, 35794, 17714, 4825, -5176, 4995, 107221, 956, -4815, -41745, 49892, -4988, -529, 31645, 31908, 216, -17474, 23556, 3198, 2120, 41449, 101942, 60283, 86437, 1156, 65402, -19214, -11930, 41192, 38079, 34417, 10710, -43385, 30599, 35820, 27390, 12610, -58076, 21862, -26183, 1093, 14485, 33093, 26423, -2303, -6328, 101977, -4549, 43387, 17283, 3382, -21265, 10740, 19171, -10110, -58542, 56334, 1006, 38058, 43534, 109556, 43, 8736, -8110, 13525, 7871, 57950, -11874, -14647, -788, -7746, -27064, 27222, -42050, 1148, 18328, 56778, 30224, 36906, 29742, -7332, -55204, 41183, 21028, 28800, -14777, 9324, 42087, 4432, 34749, 31088, -35543, 27543, 31110, -43611, 55281, 30061, -22477, 90104, -4778, 15229, 25344, 30849, 86383, -15422, -14838, 568, 43608, 50350, 11990, 40109, -6579, 13442, 38494, -21468, 49097, 2921, 32871, -10807, 102575, 5546, -19079, -2216, -8583, 14057, -32767, -12477, 8842, 68213, -46498, 18097, -14005, -8016, 15023, -131, 118206, -32258, 8098, 20971, 67681, 104, -3387, 53725, 11722}
#define CONV15_WT {0}
#define CONV15_W_Z 	 (137)
#define CONV15_IN_Z      	(0)
#define CONV15_OUT_Z     	(0)
#define CONV15_M_ZERO 	(1431657856)
#define CONV15_N_ZERO 	 (1)


/* Layer 16 Learned Parameters */
#define CONV16_BIAS \
 {23080, -15957, -420, -5684, -17077, -7636, 41637, 104277, -6823, 6630, 81, -3291, 36371, -22457, 42598, 25937, -16673, 4568, 4176, 9198, -16650, 11282, 146014, 17766, 6586, 98629, -4127, 11727, 14675, 2783, 22405, 57904, -11641, 280, -12523, 53842, 32634, 6017, -25716, -1860, -6395, -530, 23759, 13264, -35437, -9969, 47885, 34601, 7008, 25217, 49887, -2574, 9682, -3720, 18110, -8280, 13992, 7565, 2868, 12697, -8463, -4146, -4410, -454, 655, -4907, 7219, -10773, -16939, 11755, 16687, -2183, -4103, -3817, 36765, -22843, -3011, -4117, 10542, -58, 1292, 308, -19607, 3013, -57475, -5658, 52155, 4097, 25323, -5963, 1080, 774, -4148, -2624, -5277, 974, 27199, -3063, 8131, -11881, -6480, -12428, 44235, 97029, -21634, -41337, -20275, 21279, -10038, 12588, 34789, 7836, 68860, 53824, 41302, 35828, 51239, 28966, 615, 27525, -25210, -30407, 7978, -20556, 39629, 25949, -6495, -14743, -698, -12026, 36516, 7571, -13744, -7380, 13458, 27193, 17663, 29184, -23440, -37331, -4260, -20495, 11021, -37050, 12685, 26263, 1319, 19792, 76155, 2635, 91105, 40153, 10689, -48856, 23174, -34859, 94491, 11519, 5513, -13412, -5590, -3018, -2736, 194088, 33836, -8466, -6244, -4786, -9147, 11410, -22995, 14630, 20792, 1013, -22166, -7182, -1265, -29899, 59802, 18317, 144205, 63481, 67945, -2580, 885, -4181, 27269, 19641, 26593, -1202, -13632, -9880, -24066, -508, -9228, 72366, -843, -16989, -19007, 23470, -1365, 21437, 54, -8757, 10676, 19458, 147909, 48967, 4372, 9804, 15571, -13966, 56, -18998, -21212, 8837, 67512, 52034, -2296, -19281, 21494, 3377, 771, 72679, -8583, 50260, 58918, -16615, -139, -18485, 78972, 8352, 10223, -9652, 31119, 11656, 147, 87028, -5993, -53756, -8307, 15645, 20817, -1530, -30725, 41589, 40810, 2231, 1254, 82668, -6291, 1085, 70776, 12448, 30972, 3153}
#define CONV16_WT {0}
#define CONV16_W_Z 	 (137)
#define CONV16_IN_Z      	(0)
#define CONV16_OUT_Z     	(0)
#define CONV16_M_ZERO 	(1431657856)
#define CONV16_N_ZERO 	 (1)


/* Layer 17 Learned Parameters */
#define CONV17_BIAS \
 {-45004, -10774, 38713, 25317, 53603, 55723, 9773, 8596, 25380, 19907, -47849, -68879, -61341, 81995, -10479, -35419, -10056, 5670, -10554, -5668, -18267, -10376, -9946, -3265, 3626, -29949, 47796, 23215, 8693, 1700, -1542, -8979, -25268, -8422, -18801, 34654, -32623, 1427, -5008, -3229, -8478, 58408, 29141, 16946, 29823, 38958, 50509, 67079, 30551, 50901, 16716, -9918, 2817, -40072, -15604, -17849, -4347, -9586, -2819, -16947, 38176, 21478, -29813, -8446, 19679, 9815, 59784, 8557, -30208, 16501, 147948, -15353, 32554, -26358, -20394, 75323, 37369, 52916, 62554, 8893, -17791, 19237, 15921, 15357, 91349, -18824, 29313, 57835, 82859, 43008, -27643, 15523, -37952, 11969, 21972, 7733, -7350, 16108, 16525, 58620, -22487, 37774, -28710, -4918, -47424, -29986, -6954, 17086, 15573, 34802, 6354, 30786, -29861, -55621, -27344, -8933, 36752, 41784, -6791, -103185, -11567, -29503, 11242, 14984, 12866, 26715, 55081, -49601, -20452, 22405, 10211, 19632, -18286, 13574, -32158, 10193, -12136, 18474, 5177, -1123, -6398, -39807, -26717, 7688, 10803, 11236, 72887, 4682, 26459, 21471, -46857, -28831, 10552, -45667, -16575, -10393, -50825, 29085, -46287, -55047, -23751, -18024, -28717, -9477, 17660, 1334, 38586, -47458, 29840, -31430, 129115, 11131, 260, 7472, 100513, -32233, -11645, -11293, 67862, -12547, 35686, 77709, 81413, 27968, -7824, 10226, 35393, -1693, 6778, 44873, 13550, -28779, -33877, -8045, -30900, 6341, 10729, 15733, -43909, 97, 35388, 17321, 73906, -2653, -45276, -7851, 40746, 27816, -29299, 62691, -12287, 28598, 8190, -38194, 30893, -6705, 3278, 70955, -23127, 7945, 48066, 15204, 2165, 27540, 54173, -42438, -28573, -25939, 22283, 65139, -18472, 10890, 17338, 8198, 9997, -5102, -3015, 45321, 12549, -72766, 15208, 8756, -52024, 54661, -8578, -52462, -5251, -26016, 24464, 84178, 7594, 88671, 119221, 109687, -10993, 59986}
#define CONV17_WT {0}
#define CONV17_W_Z 	 (137)
#define CONV17_IN_Z      	(0)
#define CONV17_OUT_Z     	(0)
#define CONV17_M_ZERO 	(1431657856)
#define CONV17_N_ZERO 	 (1)


/* Layer 18 Learned Parameters */
#define CONV18_BIAS \
 {-5182, 13465, 29151, -4172, 2343, -3768, -7254, 55814, -10352, 22130, -627, -7144, -1405, -14722, 59302, 120288, 24784, 31060, 67299, 30888, -14636, -7139, -13536, 27628, 18570, 3817, 7768, 22750, 34683, -23050, -1676, -24839, 6747, -33947, -3642, -5734, 2947, 29533, 37750, 47546, 26747, 6263, -2813, -1733, 9720, 24346, 35794, 21899, -10317, -2665, -13196, 111668, -24988, -10816, 55439, 45560, 8569, -6588, 101235, 8207, 170626, 14701, -6687, -21625, 32642, 22717, 23093, 49313, -24920, 12855, 20278, -7957, -16491, -25929, 1551, 32324, 27609, -14095, 193935, -4888, 33957, 41775, 3702, -2603, -14625, -29680, -163, -274, 2002, 260, -2649, 52462, -1850, -21299, 27733, -3236, -38271, 14148, -14468, 49978, -4941, -7871, -6874, -19546, 7505, 80555, -190, -9375, 8281, 54639, -6059, -13536, -16106, 14536, 106966, 30383, 7860, 64520, -3603, -12889, 32163, 37699, 20912, -37, 18617, 315, 28942, 26544, -4254, 26373, -7968, 1533, -2596, 16177, 17197, -1790, -3981, 14903, 2000, -5378, 106248, 52996, 14249, -894, 80524, -18551, 2767, -966, 11611, 40561, 10087, -39613, 84944, -26224, 5879, -4042, -5757, 17266, -1241, 42026, 43908, -27094, 81692, -3606, -5518, -13661, 39683, -4436, -3810, -4998, 24276, -1709, -19323, 31233, 15442, 67466, 42402, 2563, 32273, 120240, -19149, 22132, -1138, -8606, 23684, -764, 38560, -17785, -10512, -15018, -7697, 31177, 7192, 54309, -5082, -13011, -20979, -2888, 86927, 29385, 23514, 395, 4977, -3901, 57390, 15005, 27758, 22545, 8263, -8119, 1993, 27985, 24027, 12264, 56354, -21185, 8167, -342, -6820, 29680, 17701, -12261, 635, 16128, 10694, -4992, 56244, -1803, 8692, 59390, 43255, -7490, 4704, -13319, 24891, 28154, -1960, 2331, 1012, 12428, -12311, 35947, -6659, 4799, -9054, -21548, -13566, 14513, 11478, -16660, 908, 20882, 21579, 32880, -1472, 17556}
#define CONV18_WT {0}
#define CONV18_W_Z 	 (137)
#define CONV18_IN_Z      	(0)
#define CONV18_OUT_Z     	(0)
#define CONV18_M_ZERO 	(1431657856)
#define CONV18_N_ZERO 	 (1)


/* Layer 19 Learned Parameters */
#define CONV19_BIAS \
 {-36656, 8893, 37246, 49285, 16429, 5887, 88, -116, 55139, 57463, -36062, 81503, -72539, -16743, -24279, -7070, 22623, -15187, -5285, 5019, 40403, -4197, 7074, 863, -7771, 16968, -1614, -21393, -26784, -28959, 8259, 48216, 5617, 23154, 7588, 21448, -25750, -42730, -37796, 62676, 8804, 5106, -9790, 5264, 2112, -55119, -3809, 234, -17687, -18414, 8543, -3593, 41614, -24375, -20098, 13342, 52490, -21700, 23681, -74623, 556, 18646, 16676, 41414, 10039, -22938, -20318, 35616, 81657, -7703, -30757, -1232, 61002, -34402, 9800, 38131, 14702, 78, 25432, 17652, 18414, 16408, -58656, -1860, 39114, 1890, -37343, 57651, 54314, 12307, 26356, -7733, 16392, 114427, -16644, 79043, -24722, -22268, -34013, -27681, -1161, -12980, -3771, 55638, -40157, -38119, -28763, 14906, -2682, 24514, -21713, 12591, -28110, -19757, -14140, 11675, -71464, 115319, 59407, -57215, -4948, -30828, 22187, -753, 49092, -15036, -22401, 19374, 38176, -14470, 11603, 47294, -4347, -21285, 16928, -29089, -41538, 30355, -22877, 37208, -9456, 14169, 7908, -27246, -5839, -8191, -3488, -7872, -40825, -5936, 56046, 25586, -17973, 33966, 26336, 24834, -14427, -7577, 49346, -53001, -23964, 58479, 7554, 16699, -10191, -17073, -3728, 2818, -12196, 36596, 54016, 2583, -265, -59274, -27193, 15546, 109329, -17808, -9587, 26368, 23334, -15429, -41604, 71786, -18278, -11446, -6240, 43968, 13404, 16213, 54184, 39631, 57794, 4954, 29819, -21229, -18272, 15536, 51089, 35108, 42569, -9029, -29622, 11332, -35036, -27430, -25601, -12181, 34698, 18513, -16998, 4544, 23778, -1824, -20733, -5830, -50254, 26880, -24492, 19818, 6078, 9829, 5328, 54596, -3802, 23842, -9945, -14346, -36769, 18018, 28148, -40686, -19991, 12158, 25691, -13418, 24482, 34898, 11266, 55773, 11002, 38536, 5024, -781, -12323, -18672, 89297, -32740, 44942, -43272, 27855, 4916, -5454, 14701, 9020, -9158}
#define CONV19_WT {0}
#define CONV19_W_Z 	 (137)
#define CONV19_IN_Z      	(0)
#define CONV19_OUT_Z     	(0)
#define CONV19_M_ZERO 	(1431657856)
#define CONV19_N_ZERO 	 (1)


/* Layer 20 Learned Parameters */
#define CONV20_BIAS \
 {-14283, 1267, -4795, 16305, -4789, 48423, -1535, -9309, 7062, -4503, -8339, 27504, 3202, -3458, -7569, -2372, 67055, 6158, -184, 112059, 99960, 64999, 3129, -4562, 17550, 33713, 50236, -1370, 20688, -914, 1133, 50707, 27674, 11870, 112567, 7838, -6041, -522, -14525, 17169, -12443, -1755, 16726, 60016, 13104, -1347, 9784, 95054, 4401, -3309, -2515, -4975, 2521, -1150, -3683, 226734, 34904, -61, 34794, 35662, 10450, 12790, 76273, 5992, 111941, -2718, 70057, 41589, -6310, -16441, -3812, 65238, 140737, -9029, 26273, 11022, 196607, 47304, -9108, 18826, 34135, 261, 4361, -6953, -3068, 1072, -2869, 15283, -23166, 4581, -23879, -5601, 59032, 17394, -18320, 24768, -2578, 35690, -2196, 6976, -7013, 11027, -12457, 69517, 33133, 20062, 42710, -9591, -4287, 23927, -10237, 5572, 13421, -3858, -21937, 21795, 10007, 17582, 21875, 11300, -8964, -6076, -6281, -5775, 31001, 14487, -2622, -11742, -4222, 10944, 17330, 25011, -2198, -9045, 17852, 25, -14058, 10440, -11601, 20808, 1249, -27351, -6487, 53258, 10418, -29582, -12744, -8433, -27588, 315, 40266, 15015, 64330, 932, -6107, -11392, 777, 91873, 16368, 26168, -7410, 59829, 3141, 56070, 54622, 20238, -5666, -10193, 12664, -7274, -3740, 57343, 29189, -6533, 20327, 49800, -4686, -20097, -8087, 39272, 22895, -14189, -15704, 35152, 17321, -18857, 15999, -26004, -3891, -10089, 33728, 2023, 14342, 40320, -27809, -3283, -8390, 43911, 76331, -10022, -16775, 130656, 53, 20115, 80164, 45334, -21031, -13044, -7701, 4108, 77151, 67986, -3072, 7278, 64045, -1290, 16762, 35654, 10480, -2957, -2236, 36875, 11227, 6816, 84468, 67616, 2627, -3147, 81794, 17919, 61496, 3108, -18388, 100275, -16243, -2738, 63146, 1933, -1447, 29562, -4772, 15252, 25290, 5156, 17582, 56808, 4168, 59101, 19595, -1256, 44908, 75996, 18099, 29846, 21610, 2811}
#define CONV20_WT {0}
#define CONV20_W_Z 	 (137)
#define CONV20_IN_Z      	(0)
#define CONV20_OUT_Z     	(0)
#define CONV20_M_ZERO 	(1431657856)
#define CONV20_N_ZERO 	 (1)


/* Layer 21 Learned Parameters */
#define CONV21_BIAS \
 {-40394, 56061, -11768, 98583, 66648, 60770, -57920, -730, -13831, -9984, -6711, 3366, -50538, -22789, -9772, -23342, -16484, 11986, -7394, 8436, 24233, 29751, 1841, -40856, -41702, 12644, -25934, 28256, 18095, 3131, -19222, 54739, -51739, 25087, 10555, -8095, -17762, -47220, -16657, 41933, -45801, 11022, -14857, -8804, -8556, 39010, -6429, 9896, 32532, -37918, -18331, 21869, -54644, -28229, -64213, 10629, 28664, 42854, 18435, -37138, -5260, 6435, -14227, -24526, -56718, -75983, 5278, -46087, -33602, -5155, 46143, -17856, -37451, -8430, -18244, 40855, 4467, 10131, -25756, 22939, 22436, -20329, 9526, 9114, 27391, -1387, 71276, 31887, 12062, 20750, -26119, -23811, -49444, -55466, 23925, -80482, -23677, 7280, 16080, 19382, 6695, -21861, 109451, -21229, -22039, 7, 22693, 22980, -12494, 3248, 43464, 16024, 3068, 4002, 36175, 42190, -35101, -18668, -13719, -22308, -9863, -7896, -55657, 101435, -28327, -3187, -7355, -46470, 30833, -21278, -22411, -13287, -22312, -47, 23590, 6128, 18856, 82760, 37275, -30321, 13691, -8685, -28608, 19437, -3398, 17438, -10015, 16293, 11706, 25353, -28462, -4182, -9751, -3433, 5191, 9701, -22253, -32395, -7185, 26821, -11520, 5925, -260, 12728, 50135, -15135, -23041, 32305, 1998, -5609, -26156, 10384, -13467, 8980, 19726, -9399, -13288, 12626, -10342, -15551, -3272, -4357, -16464, 6847, -13991, -13033, -2804, 44884, 13729, -38215, 16064, -32606, 16378, -22209, 9011, 6355, 18861, -9933, 1134, -23578, 331, 31877, 17367, 11050, -3662, 33636, -66877, 21701, -7562, 4127, -16459, 11296, 35234, -45442, -5982, 5935, -5246, 22695, 953, -21831, -318, 11993, -34780, -8369, -13852, -41750, -17585, 29360, -27470, -47835, -23391, -43583, -16247, -49891, -46789, -28947, -31291, 41285, -29069, 5672, 4042, -38151, 4904, 625, 8679, 11599, -31873, 7522, 22583, -1507, -67707, 5193, -38656, 16199, -13308, -4311}
#define CONV21_WT {0}
#define CONV21_W_Z 	 (137)
#define CONV21_IN_Z      	(0)
#define CONV21_OUT_Z     	(0)
#define CONV21_M_ZERO 	(1431657856)
#define CONV21_N_ZERO 	 (1)


/* Layer 22 Learned Parameters */
#define CONV22_BIAS \
 {56740, -15807, 8413, 22812, 34534, 33192, 93294, 16633, 87713, 74454, -7755, 4552, -1519, -4205, 2220, -5734, -3471, -12770, 51630, 93187, 14379, 82557, -5369, 4285, -9143, 49108, 56104, -2432, 62562, -4036, -2340, 25632, -3495, 70064, -4244, -2591, -4046, -5543, -2028, 69857, 47337, -11742, 75376, -7372, -1627, 99294, -5383, -4444, 20634, -7731, 100668, -3119, -4719, -5621, -8116, -2443, 38106, 112082, 78994, 83433, -1455, 169640, -3291, -19079, -3193, -1692, -3099, -3890, 10507, -4076, -5312, -8, -2845, -16191, -12075, 20261, 97314, 86719, -3857, 55742, -2886, -8250, -8411, -2995, -8544, -2208, 26624, 58078, 54535, 88681, -2778, -6244, 29951, -8937, -6877, -635, -9390, -16141, -6280, 197634, -16504, -3981, 157506, 152695, -2836, 34890, 57993, -5503, -19753, 35457, -16466, 27328, -7303, 130159, 18611, 32920, -3049, -10251, 12083, -4639, 3749, -1995, 23494, 28219, -1170, -8634, 61160, 53236, -3216, 3905, 25218, 164659, -19135, -2288, -3248, 71239, -17344, 22076, 18123, -29333, 54622, 99403, -5531, 23839, -7851, 19563, -3113, -6330, 108457, 38140, 103286, -1372, 18020, 11477, -88, 141960, -4434, 116076, 124217, -2593, -4995, -14691, -2428, -8367, 50632, -3509, 63991, -8350, 2691, -429, -18987, -3797, -4650, 94180, 69366, -5751, 6621, 50459, 132684, -4862, 24520, 92982, 14, 24055, -383, 81723, 32840, -9110, -4701, -6517, 79036, 5992, 94296, -8787, -1398, 1397, 24640, -7105, 35197, 346, 5299, -3551, -3094, 112962, -1309, 42916, -1462, -8984, -1816, 127903, 10770, -15194, 5858, 4499, 59241, -22470, 75903, 93974, 12661, -4151, -4159, 69847, 1500, -2202, 67064, -3463, 114710, 11878, 74971, -7730, -5732, -7639, 98618, 200901, -3098, -16422, 64218, -19350, -14019, 48905, 114993, -3551, 104042, 93006, 122426, 950, -608, 46165, 53783, 46121, -2026, 54920, 73971, -4073, -3569, -4065}
#define CONV22_WT {0}
#define CONV22_W_Z 	 (137)
#define CONV22_IN_Z      	(0)
#define CONV22_OUT_Z     	(0)
#define CONV22_M_ZERO 	(1431657856)
#define CONV22_N_ZERO 	 (1)


/* Layer 23 Learned Parameters */
#define CONV23_BIAS \
 {22203, 28200, -33553, -47356, 11754, -16529, -17250, 25072, -65280, -19208, -13046, -60517, -41009, -45128, -59376, -23342, -12030, -35826, -37144, -24453, -23343, -17448, -32620, -95183, 76592, 23664, -55139, -18223, -8184, -51693, -11799, -47489, -13539, -67698, 42295, -20060, 35709, -23419, -85571, -20525, -11633, -41869, 59154, 12569, 51875, -9902, 51428, 59095, 15575, -19155, -33363, -45781, 68084, 21384, -28297, -43439, -61871, -12703, 84416, -6683, -52270, -37785, -79779, -28604, -49368, 6628, 48365, 1027, 36532, -48532, 76909, -32218, -71095, 63205, 103402, 56128, -7513, -28488, 26485, -14219, -8609, -31934, -46893, 26733, 41128, -19380, -39287, -17176, 17872, -12430, -23274, -24990, -2285, -18348, -15036, 70357, 51660, -14638, -31307, 19457, 52274, 10807, -71473, -16176, -12688, 54794, 22827, -44936, 40042, 14723, -46387, 21301, 48669, -85556, -40132, -19910, -25924, -79704, -647, -71000, -68356, 23672, -8529, 22496, -22112, 7264, 25118, -46661, 40993, -4425, -21491, 5873, -60883, -54189, -19083, -49232, 71047, -33710, -45779, 1873, -27193, -101864, 5553, -11491, -13696, 53965, -55653, -2143, 9803, -41708, -6717, 87294, 40127, -36941, -66779, -51911, -29790, -30628, -27717, -40756, -406, -44849, 14906, -70582, -4764, 4608, -11465, -55548, -722, 32841, 127188, -14092, -5305, -9902, -8615, 62055, 37703, 2550, -17405, -8362, -24072, -10919, 23534, -36996, -20273, 20410, -78328, -28686, -64297, -49525, 49091, 35799, 43803, 7083, -3069, -134, -41199, -34553, 4676, -30189, 24136, -43764, 33454, 66182, -19251, -17551, 19643, 13340, -49102, -87429, -99219, -85253, -8187, 26442, 7720, -33737, 54907, 34634, 46759, -73726, 62691, -70797, -65532, -11822, -52358, 40558, 13638, -37305, 85183, -70997, -19874, -17025, -46874, -15978, -50404, 82678, -10811, -26961, -30257, -37448, -70427, 53602, 100876, 14918, 71272, 16986, -35695, -57728, 28843, -17888, 23180, 47097, -75830, 7587, 15749, -9389}
#define CONV23_WT {0}
#define CONV23_W_Z 	 (137)
#define CONV23_IN_Z      	(0)
#define CONV23_OUT_Z     	(0)
#define CONV23_M_ZERO 	(1431657856)
#define CONV23_N_ZERO 	 (1)


/* Layer 24 Learned Parameters */
#define CONV24_BIAS \
 {135332, 157804, 138025, -577, -203, -726, -3600, -29468, -833, 122976, -213, -636, -515, -691, 156210, -1121, 132337, 154521, 117344, 148150, 152449, -169, -906, -477, 86290, 98081, -282, -163, -495, -580, 41495, -940, -483, -545, 159225, 137227, 75896, -327, -605, 138830, -956, -515, 65853, -71644, 101247, -22156, 115189, 33549, 150473, 165270, -1043, 874, 60105, 72098, 132395, 5111, -1182, 1812, 80837, 133427, -982, 149287, -961, -1327, -726, -20330, 68204, 40254, 24162, -806, 90480, -781, -578, -40072, 95410, 61188, -433, -518, -328, 430, 167229, 106044, 145467, 18550, 118362, 153702, 203584, 147306, 102014, -709, 41115, -426, -14608, -548, 79170, 66349, 79496, -9381, -629, -334, 131894, 13574, -998, -329, 134094, 64646, 76282, -409, 66701, 73401, -191, -574, -308, -1185, -1051, -3163, 175688, 7354, 50489, -731, -696, 11902, -7930, 155439, 1370, 79007, 84066, -511, 103946, 98799, 122965, -499, -1277, 129208, 148028, 130473, 63379, -382, -292, 149589, 150913, -380, 74, -347, -659, 69309, 158649, 154643, 77607, 58362, 167584, 84578, 126162, 158000, -586, -1099, 3291, -432, 11803, 2849, 91336, 157820, 74898, -365, 126772, 92425, 105854, -169, -1088, -6675, 127334, -681, -553, 105505, 138491, 86346, 72659, 157028, -845, -16, 147037, -4920, 5512, -3025, -426, 79966, -1651, 144217, -1034, 36977, -21573, 65013, 186280, 88710, 157143, -1974, 107288, -266, 158233, -808, 61579, -759, -991, 132869, -83, -381, 103034, -772, -840, -1782, -610, -510, -20841, 4445, 115932, -382, 57661, 101685, 127719, -379, 75008, 57488, -517, 91568, 133298, 116934, -541, -672, 96574, -707, -796, 126858, 171566, 170970, 108758, 82783, 278, -644, -624, -650, -506, 50835, 74809, 135551, 41536, 85924, 135413, -570, 86376, -1317, 185571, 107255, -947, -2324, 1823, 163353}
#define CONV24_WT {0}
#define CONV24_W_Z 	 (137)
#define CONV24_IN_Z      	(0)
#define CONV24_OUT_Z     	(0)
#define CONV24_M_ZERO 	(1431657856)
#define CONV24_N_ZERO 	 (1)


/* Layer 25 Learned Parameters */
#define CONV25_BIAS \
 {56425, -11192, -6813, -11829, 27511, -16649, -53164, 13303, -11829, -36780, 1888, 94593, 11135, -21188, 56702, -11883, 31420, -74310, -5517, 26909, 34618, -42389, -15723, 28310, 31655, 1516, 6084, 56557, 19385, 77150, 56476, 90626, -15200, -4819, 23196, -6425, -9485, -4781, 11073, 48486, -57586, -6039, 52560, -45684, -21308, 12316, 5320, -31799, 7513, -12122, -6726, 7930, -14592, 50268, 2353, 45168, 16277, -21759, -55337, 5417, -11268, -4717, 34421, -20414, 32743, 12297, 24268, 25380, -43580, -2158, -57791, 15579, 36108, 12012, -3992, 45764, 70842, 27171, -11540, -29483, 3558, 33203, 40959, -43029, -336, 29817, 4017, -69316, 25138, -90832, 34095, -42138, -10657, -31845, -10895, 65692, -220, -2122, 7174, -92, 17510, -54861, 59845, -44856, -9209, 19471, 10315, 117486, -22335, -16151, 29414, -83413, -21348, 21777, 61193, 22759, -14614, -25428, 63628, -15376, 40213, 33444, 23624, -33348, -3475, -20664, -718, -21538, -50232, 6253, 41718, 30573, -44203, 15802, 4911, -6720, 8524, 5247, 50269, 35554, -68164, 17037, 79775, 26767, -28575, -26417, 39340, 31318, -17660, -32335, 38352, -2472, 54910, -26806, -66906, 17298, 19312, 4571, 13194, 32050, -9314, 1017, 11871, 30208, 37660, 13860, 2797, 25590, -36825, 30357, 10047, -74098, 77795, -8616, 6121, 33062, 85183, 57601, -50014, -57044, -40249, 54075, 14921, 33205, -21992, -42386, -9420, 26336, 10500, 47325, 2863, 68202, -56941, 23380, 44243, 3641, -32452, 34811, 8427, -30423, -5327, -22729, 14584, 32779, -24263, -63314, -8899, 9583, 60502, 24157, -7931, 7204, 6424, -24489, -27670, 19232, -24801, -30767, -14714, 12656, 21725, 70805, 21550, 38300, -30555, 26501, 1193, 51325, 6014, -39885, -26487, 5041, 26748, 47702, -19918, -54465, 72980, 16237, -34541, -19048, -9900, 72352, -42874, -25690, 39978, -71680, -21463, 24370, 26338, 34473, -50906, 2503, 14181, 36509, -9251, -39307, 55083, -27892, -2682, -9250, 25053, -5552, 28931, 56335, -31091, -58161, -28947, -4860, -9431, -18377, 50586, 35942, 2850, 38879, 40546, -31041, 2412, 28167, -61383, -12475, 42100, -12368, 92154, -2186, -38506, 53431, -40671, -6872, -6949, 64441, -35911, -2799, 78909, 98180, -31237, -7591, 11580, 19650, 19442, -92293, -43038, -26708, -10481, 14949, 121109, 61086, 2327, 44318, -95487, 23803, 56593, 9174, -4390, 4027, 3821, -6709, 17351, 6953, -8979, 16843, 46390, 9721, 137, 7981, 5394, 85597, 2177, -11306, -72597, -28803, 41592, 74055, -48414, -22204, -45231, -51701, -58427, -3814, -39642, -12473, -36576, 33724, -75001, -46585, 28793, 23129, 18943, -47963, 57557, 13154, 19607, 7248, -7585, 52670, 8268, 9062, 32574, 39933, -44391, 13997, 45460, -23296, -7867, -52437, 39766, 10954, -28720, -25979, 15981, -59477, 11255, -50400, -22865, -33925, -36306, 14949, 34574, -25359, 72934, 37288, -26532, -5135, 24825, 743, -11305, -22684, -37704, 15696, 61906, 11769, 81943, -5470, 15075, 60649, 16339, -62217, -33303, -8498, 67543, -11476, 33115, 30889, 96113, -29645, 23921, 70743, 81817, 27951, -59823, 30127, 43392, 22993, -31834, -36093, 46125, 10429, 17662, 63931, 12169, 29706, 23202, -35776, 7487, 83701, 32289, 64560, -16265, 109663, -67521, 11138, -2339, -49193, 27851, 20164, 39554, -36534, 62102, 66989, -20448, -56827, -15111, 35850, 41404, -40359, 50093, 2390, -29358, 14915, 61292, -11636, -16358, -6301, -22620, 19383, -34138, 19016, -15871, -38502, 52273, -14730, -35509, 34396, 22072, -23425, 30666, 19847, -7775, 23824, -151597, 42494, 26738, -32861, -57975, -3588, 29257, 12556, -4179, -29545, 7199, 21916, 39139, 57671, 2517, -2447, -5571, -23655, 35454, -2957, 16944, 35954, -28903, -83737, -64980, -57742, 10495, -11062, 11914, 23828, 201, -68567, -7335, 20117, 36447, 6650, 3643, -73324, 30179, 52842, -38108, 92960, -7640, -48211}
#define CONV25_WT {0}
#define CONV25_W_Z 	 (137)
#define CONV25_IN_Z      	(0)
#define CONV25_OUT_Z     	(0)
#define CONV25_M_ZERO 	(1431657856)
#define CONV25_N_ZERO 	 (1)


/* Layer 26 Learned Parameters */
#define CONV26_BIAS \
 {-606, 121285, -9862, -243, 5128, -454, -2632, 72941, -662, 107807, -7260, 92052, -964, 37680, 7712, -112, 121316, -1376, -1265, 97095, -462, -1930, -592, 123281, -1166, -556, 49405, 171958, 104185, 3184, 2136, -1841, -641, 101993, 88633, -19698, -903, -10924, 89492, 105011, -992, 90825, -559, -172, -215, -196, -1902, 106713, -899, -165, -6685, -4812, 82814, -9755, 102957, 126380, 84832, 87429, -1076, 8411, -3603, -5776, -2672, -2123, -14523, -11573, 109520, -496, -885, 37912, -427, -1930, -1618, -1929, 137255, 169115, 36367, 52959, 138358, 135095, -767, -2754, 161479, -3104, 3325, 77862, 106235, -11327, 1152, -260, -990, -141, -575, 153360, 103331, 127856, -381, -3138, -286, 15002, -6626, -777, 122270, -1143, -18281, 70552, 39443, -6024, -11870, -887, 138360, -1167, 65052, 37550, 146349, 89782, 106275, -1909, -478, -1548, -3161, 106927, 5717, -2770, 55019, -83, 46828, -627, -755, -14117, -4524, -823, -1137, -14757, -1423, -652, 110794, -388, 163258, -4619, 548, 80817, 63334, -20989, -7414, -469, 714, 74094, -151, 134632, 27462, 13851, 174218, -8995, -596, -4277, 130913, 52673, -313, 134006, 143193, -3279, -4881, 107096, 98704, 108132, -1861, 70328, 75, -3315, -1260, 1191, -1595, -327, 984, 116218, 126505, 6826, -12083, -1429, -639, 78938, -7024, -2063, -600, 185374, 90670, -3436, 109224, 88528, 69841, -17157, -12153, 68991, -2691, -32253, -356, 82901, 72425, 99639, -1444, -846, 2747, 138717, -9295, -293, 140758, 67302, -2191, -1560, -165, -427, 66839, -11327, 62284, 80138, 192, -274, -581, -949, 47204, 18222, 7449, 127324, -6570, 112772, 99568, -1225, -4083, -1925, -781, -87, -934, -2570, -778, -660, -2013, 100616, -734, -8483, 180840, -5096, -755, -288, 65966, -1685, -5988, -1478, -3062, 1395, 7605, -108, -4741, 50859, -1788, -579, 97941, -1157, -1193, 141457, 1703, -12568, 86981, 68738, -788, -1584, -1940, 6359, -235, 74851, -661, -3453, 203380, 61036, 62085, -414, 60347, -1692, -2751, -1512, 9231, 106293, 12410, -36933, -466, 72995, -870, -1244, -5960, 80373, -9939, -1556, 135029, 4979, -8489, 79177, 2520, -2152, 2155, 681, -16738, -263, -228, 56506, 18778, -2474, 1192, -21424, -171, -1822, 110501, 81048, -9516, -1176, 59640, -231, -5418, -498, 48499, 1314, -2412, -460, 76955, 84430, 79696, 1770, 110564, -1486, 68068, -2456, -1082, 3271, -350, 76894, -88, 33, -186, 63862, -513, -13557, -440, -4521, 2498, -1074, -2667, -57, -192, -971, 65605, 39395, -460, 232154, 59751, 83692, 75284, -1853, 111853, -20301, -510, 1521, 63973, -2913, -562, -62, 87515, 83418, 147332, 147163, 76855, -1053, -2853, -2198, 43524, -7, -377, -3298, 78437, -233, 144332, 4807, -2387, -336, -2675, -6556, -817, -2020, -1976, 102357, -10435, -1673, 54850, -610, -1084, 59941, 66170, -4594, 64516, 130503, 77059, -714, 156045, -32149, -16015, -65, -1354, 57198, -22254, 2103, -848, -964, 167, 78771, -839, -4192, -1877, -1972, 94924, 18380, 95602, -475, -1087, -7028, -1146, 103828, 119814, 4094, -1002, -448, -1649, 55574, -603, -2674, -6543, 80277, -10006, -537, -2705, 3119, 632, -1826, -1184, -41955, -1920, 3504, 217333, -8897, -2241, -1260, 5175, 213277, -1380, -905, -3219, -2681, -17708, -97, -6416, -25149, 549, -143, 40, 654, 131511, -9884, -2669, -3105, -1914, 55926, -1021, 826, 55954, 97940, -4482, -1002, 99489, -569, 10353, 78291, 216675, 117242, 88155, 95095, -347, 5324, -6423, -351, 5930, 217460, -4213, 66376, -1844, -1128, -1154, -631, 55670, -2230, -1300, 105478, 39842, -1025, -1195, 100660, -18757, 136381, -1077, -1343, 76701, 90680, -877, 1920, -1262, 83927}
#define CONV26_WT {0}
#define CONV26_W_Z 	 (137)
#define CONV26_IN_Z      	(0)
#define CONV26_OUT_Z     	(0)
#define CONV26_M_ZERO 	(1431657856)
#define CONV26_N_ZERO 	 (1)


/* Layer 27 Learned Parameters */
#define CONV27_BIAS \
 {42897, 14516, 28095, 25920, 30277, 10080, -17179, 285, 25401, 18651, 1445, 53824, -6478, 15124, -10084, -3801, 38241, -2069, -3293, -6262, 27327, 8672, 12677, -60668, -20554, 12871, 6076, 55444, 26837, 12700, 45746, 56001, 12039, 46937, 14381, -10017, 38664, -3497, 32216, 16227, 43958, 31884, 13297, 9034, -2630, 16299, 700, 18943, 24582, 2573, 21720, 23240, 23659, 14276, 29574, 23337, 22508, 25976, -30803, 15592, -27670, 3338, 22536, 26537, 24730, 26665, 1070, -14718, 5648, -2509, 49906, 37893, 1216, 37413, 26708, 19217, -24837, 11574, -22578, -27222, 4756, 24175, 19485, 57026, 22097, -34480, 16635, -503, -26586, 35183, -20720, -14760, 7088, -5440, 27038, 55937, 4545, 22267, 10967, 2386, 25168, 28378, -1238, -3820, -1077, -1743, 24583, -3811, 12388, 13479, -4598, 11071, 17672, 54489, 8289, 14017, 14578, 1193, 16454, 16149, 38726, -9370, -24338, -2591, -19220, 46623, 14550, -27724, 36279, 36597, 36411, 49467, 16025, 3393, 867, 28435, 10195, 10563, 22882, 17269, 12403, -3384, -16159, 23460, 30723, 29926, 19241, 14813, -1775, -2159, 3982, 29536, -26342, 4343, 6233, 19954, -1613, 13673, -36608, 1359, -361, -17798, 9576, 22305, 24218, 9620, 13780, -16830, 1647, 7121, 24677, -4314, 28381, -4935, -41654, 40512, 35092, 10738, 10405, 16528, 14930, 23818, 41379, -13905, -9427, 17355, -15025, -3895, -959, 21790, 11005, 47649, 5521, 6293, 60680, -19608, 35219, 11475, 15547, -9019, 32294, -29652, 6379, 9686, 8524, -12739, -41388, -15259, 6353, 14209, 27051, 2550, 16413, -192, -15297, -9799, -12331, 33085, 15235, 36207, 23329, 36861, 26770, -17555, 18229, 28734, -3910, 27765, -7162, 7174, 1539, -3529, -8944, 13480, -4405, 10907, 35238, 51478, -2659, 20581, -13774, -6492, 36486, 30769, 9239, -12551, -10224, 22619, 11042, 56188, 28960, -561, 4858, 18797, 9073, 352, -8115, -1705, 13796, 30306, 39381, 57483, -536, -8401, -13327, -5510, 5834, 14003, -10892, -3150, -39401, 15416, 20896, -14832, -38337, 15996, 1228, 6138, -4819, 5041, -2697, 26406, 14167, 32997, 10673, 12196, 22790, 51752, 24545, -5441, 32559, -2230, 30399, -19909, 10892, 19086, 17397, 38639, 31817, -6788, 32656, 20780, -24286, 47322, 27148, 10418, 45872, 38665, 13711, 25741, 500, -6591, 20944, -7206, 35282, -101, 26576, 10809, 33153, 26147, 16064, -3269, 14650, -11134, -1917, 6727, 3383, 19230, -1769, 13938, -7872, 60494, 37555, -2951, 5225, -19176, 46613, 19984, -3057, -7325, 341, 73846, -9324, 17959, 60695, 22535, 3463, 17985, -11293, 3176, 4526, -5579, -4880, 38000, 7873, 19698, 21606, 20933, 13540, -8661, 2517, 65114, 31382, 28575, 43547, 10444, 53726, -17892, -9728, 4953, 9871, 17034, 26347, 13110, 22521, 32395, 21107, 32798, -9155, 17341, 36773, -24686, 10147, -14982, 4753, -39484, -3707, -16646, -3769, -4522, 11226, -3680, 33204, 845, 57366, 36452, 19136, 7720, -4926, 39780, 43024, 22320, -11499, 47859, 24404, -2127, 13929, 549, 6348, -5601, -10488, 15238, -6434, 21336, -19909, 22345, -6508, -15369, 4785, 22681, 50239, -12631, 28495, 24139, -36902, -2111, 45890, -15214, -7326, 44266, 29285, -9874, 12965, 21832, 8298, 16818, 23927, 12023, -17636, -9352, -11193, 36488, 266, 23547, -14161, -41953, -40679, 52506, 9929, 493, 38733, 5093, 28768, -21740, 59628, 11239, 32050, 1196, 41000, 8364, 31839, 36023, 35642, 6759, 12683, 6643, 14987, -2313, 3030, 37179, 10271, -10379, 27150, -17117, 5020, 33879, 9231, 48833, 74, 62456, 45734, -27847, 17600, 38943, -659, 35216, 25462, 40185, 20983, 17785, 24051, -19448, 65971, 49097, 23102, 15038, 15648, 20010, 2646, -11368, -4112, 22136, 47584, 33297, 11677, 1958, 41127, 27115, 30534, 5009, 5172, 13191}
#define CONV27_WT {0}
#define CONV27_W_Z 	 (137)
#define CONV27_IN_Z      	(0)
#define CONV27_OUT_Z     	(0)
#define CONV27_M_ZERO 	(1431657856)
#define CONV27_N_ZERO 	 (1)


/* Layer 28 Learned Parameters */
#define FC28_WT \
{0}
#define FC28_BIAS \
 {1492, 2767, -9106, -13761, 4530, -1390, 452, 2489, -644, -2727, -7131, -7023, -1290, -3767, -4544, 534, -1384, -2472, 5318, 437, 2688, 8833, 6526, 1832, 590, -3252, 1351, -7766, 2424, 3427, 6114, 888, 3202, -3392, -2631, -5708, -742, -3008, 1139, 2420, -1619, -3873, -2043, -657, 4598, 5479, -809, -757, -1321, 110, 3347, -208, -23, 1636, -3045, -3407, -849, -2680, 2858, 1597, -6160, 6510, -2072, 6884, 2733, 387, -4083, -5758, -2551, 1878, -4869, 3751, 760, 1115, -3009, 5577, 1431, 2259, 4712, 5936, -9747, -2813, 1738, -15636, -3801, 5148, -5706, 6544, -486, 11264, -3411, -4674, -1201, -162, -361, -6187, 3773, -7202, -9594, -8686, -4696, -10139, 24, 3897, -625, -22, 3836, 433, -2666, -8297, -6741, 11160, -311, -4746, 205, -11008, -2586, -890, 3762, -1625, -4327, -1744, -3009, -8951, -6452, -1681, -2480, -3803, -1461, -2649, -3149, -5071, -3780, -88, -10507, -11001, -9684, -12292, -5900, -5483, -7324, -6625, -7199, -4969, -2780, -7518, -1455, -6787, -5993, -2768, 799, 9101, -9793, 4166, -655, 7593, 1829, -2821, -2499, 947, 1909, 9350, 11479, 2241, 5788, -1017, -1414, -9033, 2400, -1168, 2916, 9401, -652, -1482, 5966, -9397, -2639, -1777, 7647, 1156, 2804, -163, 9431, 695, 4348, 4457, -2973, 3251, -1183, 1865, -2030, 7228, -2535, -7471, -2249, 10964, 5397, 2902, -1567, 5143, -7942, 2336, 6151, 3018, 4817, 306, -3780, 966, -1513, 5453, -4143, 1809, 1369, 487, 2127, -2639, -777, 6424, -1140, 3911, -6678, -3166, 588, 11069, -5101, 3677, -1625, -774, -8471, 3487, 91, -3588, -897, 2637, 5103, 3618, 5822, 11951, 5032, 10009, 1863, -2834, 2538, -789, 1152, 4508, 3788, 8098, -644, -4439, -994, 4440, -1733, 1071, 11281, -6112, -262, 3179, -5674, -927, 2901, -1048, -4014, 1947, 4649, 6242, 2325, -1056, -3584, 1438, 2316, 613, 4233, 3343, -4229, -7007, -6288, 1016, -4268, -17, 3516, 11701, -2745, -3482, 7018, 5278, 6721, 104, -4929, 494, -2037, -4447, 909, -6683, 2610, 4849, 1330, -2138, -3138, 5016, -7208, -5574, -4095, -4406, -9417, -856, 4772, -4766, -961, -4947, -4647, -2313, -743, 10212, 5597, 6839, 773, -4944, -1393, -3599, -7908, -10710, -10501, -9309, -6427, -10348, -9266, -3558, -5401, -4977, 261, -1631, 3132, 5286, -2345, -575, 4455, -3916, -8232, 838, -1652, -1906, -6027, -2462, -2004, -1328, -2183, -3013, -195, 1352, 3476, -5889, -3410, -2848, 1520, -1692, 178, 1599, 981, 5113, 1417, 2472, 1322, 3281, -4064, 1573, 2491, 6307, -564, 4778, -5141, -7183, -1391, 3200, 199, -2928, -751, -1101, -285, 2073, -5281, 3567, 7390, 942, -5584, 321, -3308, -773, -719, 1863, -7323, 6263, -11059, -4716, 3264, -1694, -10356, -3480, -4744, 9756, -2436, 3980, 903, -4477, -12402, 1196, -1632, -3047, -4845, -6523, 122, -2945, 6454, 8992, 4683, -4478, 6798, -9035, -1003, 1724, -678, 2605, 2363, 9396, 4474, -4275, -9550, -1269, 4228, 2503, -503, -1483, -2961, -2255, -1897, -1590, -177, -5063, -668, -7623, 6389, 4027, 4524, 1808, 1250, 8270, -809, -1233, 13474, -1019, 4652, 2422, 1278, -696, 819, 1187, 3770, 4223, -3286, 2877, -3889, 3743, 2960, 837, 13693, 8346, -1761, -3210, 5229, 144, 4713, 2771, -5662, 2411, -5519, 9676, -8587, 7775, -1080, -834, 5712, 4102, 229, -7866, -9701, 795, 2807, 6914, -1289, -165, -5543, 2286, 5429, -7355, -4, -4482, 1604, -12991, 1173, 3429, 1638, 4081, -2866, -1623, 4918, -116, -4392, 454, -436, -4091, -8457, -2293, -3249, -608, 2620, 2820, -1446, -5296, -2164, 4412, -4280, 476, -678, 10028, -1220, 177, 3246, -3132, -3024, 8991, 4283, -5053, -16, 3848, 1385, -911, -7605, -507, -1994, 3331, -9645, -3574, 4549, 5289, 2473, 7037, 179, -10130, -6655, 13971, -2464, 1029, 1674, -317, -6986, -2234, 352, 159, -1758, -4130, -3133, 565, 753, 11062, -2640, -1371, -7402, 603, 6321, 2342, -1961, 3164, -298, 2491, 10078, -2389, 3293, 8139, -868, 1595, -4605, -2368, -2256, 1050, 2293, 2363, -3765, 7497, 4641, 3015, -115, 2429, 1884, 6397, 2935, -8720, 3073, 11966, -3724, 4323, 8559, 549, 189, 3691, -2193, -232, 4396, -456, 8941, -905, 6721, -28, 3446, 2058, 1231, -2855, 383, 2067, 3923, -5995, 8864, 2654, 4040, 9772, 790, -3311, 4643, 4777, -7678, 5416, 10468, 1471, 6038, 7866, 7662, -634, 2069, -922, -2135, -7543, -11839, -3167, -870, 2328, 4891, -8566, -711, -3677, -1739, 914, 7716, -1020, -1061, 816, 2749, 6005, -31, 2635, 1032, -48, -274, -7838, 8122, -2089, 5474, 5204, 1861, -348, -8162, 1692, 5946, 2398, -3853, 3795, 6509, -3628, -6816, 3135, 9682, -418, 3297, 3478, -4516, 5102, 4437, -500, 7129, -4343, -5908, -6579, -3966, 347, 6807, -5472, -752, 6609, 5243, 1118, -3959, -1032, 5882, -4457, -95, 8898, 8962, -6850, 3680, 4802, -6995, -1189, 951, 2940, -2207, 6039, 3860, 1588, 6815, -3939, -2418, 7257, 5074, -496, 1633, -1801, -10834, -3451, 11135, -6103, 2293, 1384, -1937, 6110, 1083, -4225, -2579, -1139, -1376, 2497, 6761, 4412, 383, -924, -2660, 3474, -2436, 4527, 1513, 5409, -59, 6979, 8566, 2317, 4867, -4236, -3290, -9018, 6744, -2124, 2657, -2351, 5374, 9510, 1007, 3876, 9020, 106, -2878, 241, -1828, 953, 5418, -5190, -4809, -3555, 3014, -1866, 4956, 20912, -5904, -2890, -8988, -5068, -292, 1720, 3487, 8625, 892, -2210, 7013, -4727, -7046, 6957, 3506, 3213, 2281, -2236, 1573, 5986, 658, 8783, -4908, -602, -4290, -2459, -2701, 1567, -2550, -1203, 3590, -2211, -5538, -2728, 1970, -508, -936, -2788, 4574, -3963, -7386, 6849, 858, -4005, 5753, 8020, 3390, -2184, -1277, -3226, 3298, -4913, 3479, 4855, -2889, 3491, 9755, -5617, 5376, 7957, 2310, -5600, 528, -730, 1991, 6760, 4001, 7882, -3683, 3072, 3182, 314, 6910, -2013, 1672, 2153, -4523, 2903, -4970, -90, 4399, 7209, -3570, 5098, -440, 2474, -2902, 834, 161, -2566, 3778, -4648, 3040, -8224, 2571, -6568, -11060, -880, 506, 748, -7267, 6750, 11328, -531, 3767, 2722, -1172, 17507, -8487, -10336, -3283, 2004, -988, -4810, 3542, 9303, -4552, -1267, 3141, 1727, 1374, -2651, -8648, -3600, 345, 5582, 13086, 6567, 7527, 8778, -8563, 3377, -423, 9254, -6869, -1002, -6982, -189, -2215, 3581, 3552, 13430, 1869, 869, -570, 1468, -5223, -3248, -4405, -2632, 1893, 7470, -1003, -2596, 223, -6619, -217, -3780, 1469, -2129, -103, -6460, -1638, 1573, -588, -6110, -8565, 601, -10505, -7097, -3817, 1528, -1954, -4142, 2382, -3584, -280, 2359, 170, -2395, -3214, -11188, 5851, -606, -2717, -5736, -2488, 279, 7910, 2096, -2837, 3065, -2944, 6095, -2160, -8003, 985, 6835, -1994, 3645, -957, -5644, 2696, 1004, 6263, -8308, -4365, 132, -5748, 193, -3091, -2614, 490, -6924, -6368, -11672, -3785, -2944, -2591, -5894, -1578, 6334}
#define FC28_W_Z       	(174)
#define FC28_IN_Z      	(0)


#endif /*__128_0_5_WEIGHTS_BIAS_H__*/
