#ifndef __160_0_5_WEIGHTS_BIAS_H__
#define __160_0_5_WEIGHTS_BIAS_H__


/* Layer 1 Learned Parameters */
#define CONV1_BIAS \
 {2698900, -6639989, -53924312, -28050732, 109500, 109174, 94013456, -7826629, 19716, 183582, 169746, 81513, 274314, 176608, -33813, 81590}
#define CONV1_WT {0}
#define CONV1_W_Z 	 (137)
#define CONV1_IN_Z      	(127)
#define CONV1_OUT_Z     	(0)
#define CONV1_M_ZERO 	(1431657856)
#define CONV1_N_ZERO 	 (1)


/* Layer 2 Learned Parameters */
#define CONV2_BIAS \
 {-4159, -200, -172, 180, 17501, 8077, 267, -1531, -45894, 39647, 84304, 25389, 3023, 601, 400, 927}
#define CONV2_WT {0}
#define CONV2_W_Z 	 (137)
#define CONV2_IN_Z      	(0)
#define CONV2_OUT_Z     	(0)
#define CONV2_M_ZERO 	(1431657856)
#define CONV2_N_ZERO 	 (1)


/* Layer 3 Learned Parameters */
#define CONV3_BIAS \
 {-13246, -13686, 17812, 11945, 104652, -27144, -24247, -32302, -34608, -1705, 10762, 3556, 458, -30828, 23061, 24820, 1295, -61033, -52557, -30454, 13157, -154296, -41116, 19772, 22527, -54860, 19046, -24944, -748269, -1664787, -21181, -9932}
#define CONV3_WT {0}
#define CONV3_W_Z 	 (137)
#define CONV3_IN_Z      	(0)
#define CONV3_OUT_Z     	(0)
#define CONV3_M_ZERO 	(1431657856)
#define CONV3_N_ZERO 	 (1)


/* Layer 4 Learned Parameters */
#define CONV4_BIAS \
 {5599, 72740, 56837, -394, 48657, 75614, 33952, 14423, 162406, 37332, -744, 182856, 6043, 19261, 27743, 55718, 11812, 56609, 67811, 4062, 73459, 1384, 236384, 6631, 69647, 150732, 14338, -88436, -270, -227, 158867, 3011}
#define CONV4_WT {0}
#define CONV4_W_Z 	 (137)
#define CONV4_IN_Z      	(0)
#define CONV4_OUT_Z     	(0)
#define CONV4_M_ZERO 	(1431657856)
#define CONV4_N_ZERO 	 (1)


/* Layer 5 Learned Parameters */
#define CONV5_BIAS \
 {18605, -3374, -10649, 166387, 10333, 55719, 62695, -48910, -21358, -40596, -74859, 52138, -5562, 9980, 499, -36121, 39956, 3995, 44595, -8922, 43433, 98244, 17624, 6183, 26991, -19451, -17073, -16593, -16225, -21384, 253686, 26239, -12875, 90762, -37026, 52121, -27233, 8235, 8151, 10184, -37855, 41637, -26917, -5478, 25822, 80596, 50521, -44762, 31766, -36661, -29971, 24302, 99525, 47953, 136596, 24149, 1568, 44869, 43464, -4180, -517, 48571, 180683, -19365}
#define CONV5_WT {0}
#define CONV5_W_Z 	 (137)
#define CONV5_IN_Z      	(0)
#define CONV5_OUT_Z     	(0)
#define CONV5_M_ZERO 	(1431657856)
#define CONV5_N_ZERO 	 (1)


/* Layer 6 Learned Parameters */
#define CONV6_BIAS \
 {-1931, 280, 2125, 31538, 42268, 62348, 36204, 942, 5216, 2051, 21477, 10414, 13051, -2525, 650, 40720, 7200, 45161, 10850, -2205, 26889, 40036, 10874, 626, -1444, 23003, 3681, 19119, 3337, -6852, -45295, 1337, 12356, -42026, -17, 701, 28391, -1214, 13205, 4356, -120, -2393, 1225, 245, -41, 5945, 46851, 61, 1420, 3740, 1598, -72, -3103, 1969, 46319, 707, 4834, 18697, 11601, 52367, 35541, 6078, 19572, 50732}
#define CONV6_WT {0}
#define CONV6_W_Z 	 (137)
#define CONV6_IN_Z      	(0)
#define CONV6_OUT_Z     	(0)
#define CONV6_M_ZERO 	(1431657856)
#define CONV6_N_ZERO 	 (1)


/* Layer 7 Learned Parameters */
#define CONV7_BIAS \
 {-2919, -7084, -31103, -5715, 12139, -4455, -5327, -1539, 11883, -33167, 40981, 34385, 9075, -24931, 34664, -9839, 8312, -30938, 46439, -37368, 8631, 61352, 74310, 59981, 26719, 80329, 38810, 14160, -15694, -23436, 28470, -7791, 72660, 1807, 41591, -44568, 24599, 33267, -1829, 43497, 3447, 18513, -27663, -16514, 16388, 36173, 34679, 8657, 5511, 19871, -23010, -5963, 9124, -5501, 18466, -18117, -11564, 42736, 4128, 3898, -44385, -53547, 18744, -20743}
#define CONV7_WT {0}
#define CONV7_W_Z 	 (137)
#define CONV7_IN_Z      	(0)
#define CONV7_OUT_Z     	(0)
#define CONV7_M_ZERO 	(1431657856)
#define CONV7_N_ZERO 	 (1)


/* Layer 8 Learned Parameters */
#define CONV8_BIAS \
 {88040, 337039, 11632, 215, 61523, 82796, 185274, 2577, 263104, 105260, -84080, 13435, 402, 29626, -62858, 17513, 221417, 7600, 537, 209810, 3961, 1728, -2895, -229, 215456, 127851, 170813, 70484, 5184, 160381, -134, 11495, 255112, 259526, 39290, 1913, -663, -738, 2211, -34220, -1468, -48741, -694, 13058, 65097, 2686, 56832, 75665, 153894, 2665, 11035, 102372, 199484, 127249, 10775, 32567, 10202, 15990, 22048, 67854, 94774, 130239, 92038, 17271}
#define CONV8_WT {0}
#define CONV8_W_Z 	 (137)
#define CONV8_IN_Z      	(0)
#define CONV8_OUT_Z     	(0)
#define CONV8_M_ZERO 	(1431657856)
#define CONV8_N_ZERO 	 (1)


/* Layer 9 Learned Parameters */
#define CONV9_BIAS \
 {65006, -21648, 53945, 55107, 28142, -20483, 154087, 59811, 64492, 14170, -19212, 433, -674, 52301, 32770, 23923, 24292, 7380, 7625, 21790, 57875, 26277, 22547, 72062, 26859, 33554, 40285, 18290, 23222, -1048, 41592, 13485, 17212, 45244, 64877, 57932, 29369, 21870, 43416, -7049, 44734, -1341, -757, 1064, -48203, 30098, 29230, -2118, 12876, 37073, 7908, -15939, 34418, 18412, 81012, 40377, 40352, -23789, -10115, 30461, 48465, 46904, 44671, 23060, 48175, 948, 29497, 63231, -29553, 46289, 58731, 535, 31306, 28090, -2628, 36124, 66597, 17637, 22746, 66402, 14614, 35870, -41011, -22689, 5523, 33711, 9831, 2392, 69701, 29431, 37848, 24331, 33850, 22369, 6222, 150004, 8487, 46431, 19670, 46788, 48512, 1364, 14686, -10432, 63550, 14477, 72854, 32726, 82651, 9354, -12131, 37143, 47967, 53219, 6722, 39895, -44404, -1369, 19921, 59972, -14681, 42729, 56587, -21413, 22548, 86932, 71993, 30013}
#define CONV9_WT {0}
#define CONV9_W_Z 	 (137)
#define CONV9_IN_Z      	(0)
#define CONV9_OUT_Z     	(0)
#define CONV9_M_ZERO 	(1431657856)
#define CONV9_N_ZERO 	 (1)


/* Layer 10 Learned Parameters */
#define CONV10_BIAS \
 {21657, 1421, -531, 14802, 138, -7610, 231024, 22748, 35735, -9600, 45, 3311, 12254, -503, -14273, 821, 34960, 34051, -45, 3011, 67, -271, 10725, 70603, 13147, 181038, 3076, 527, 5921, -383, -880, -544, -4880, -1119, 484, 11188, 33765, -708, -6270, -44783, 881, 29160, 16106, -479, -3142, 52575, 38198, 1015, -6917, 24995, -27, 32522, -349, 1360, -359, -8, -500, -8282, 62041, -4643, 35, 20947, 8831, 243, 32786, 44392, 38245, -2559, -3234, -314, 33003, 2053, 1341, -1649, -902, 1601, 55637, 26183, 266, -6878, 6216, 4786, 13457, -5655, 17075, 19056, -997, 33828, -18490, -1392, 18988, 6749, 11637, 5917, 17918, 34218, 13916, 1572, -4272, 33442, -9687, -5734, 9062, -1154, -10962, 22861, 1171, 13482, 30779, -2092, 25462, 2712, -2246, -1070, 11704, 829, 2430, 29679, 48445, 33574, 1777, 47, -2868, -16435, 16206, 40, 18289, 383}
#define CONV10_WT {0}
#define CONV10_W_Z 	 (137)
#define CONV10_IN_Z      	(0)
#define CONV10_OUT_Z     	(0)
#define CONV10_M_ZERO 	(1431657856)
#define CONV10_N_ZERO 	 (1)


/* Layer 11 Learned Parameters */
#define CONV11_BIAS \
 {40231, 16006, -20255, 8289, 36179, -19871, 31923, -24581, 40564, -9099, 11390, 6744, 62754, -16431, 31105, 42994, -4375, 46923, -14491, -16588, -21801, -7536, 10973, -96204, -20789, 13950, 27907, 4332, 62164, 18961, 30413, -26891, 21280, 32161, 48084, 5843, -13427, -1649, 10665, 4401, -31759, -9295, 22464, -9065, -3678, -15351, 106805, 3553, -3272, -23297, -16614, 21049, 5187, 38859, 1731, -35210, 18311, 9200, 21775, 61388, 9984, -8237, 18531, -1399, 55070, -29495, 32098, 3112, 69350, 18927, 21318, -22365, 23145, -1963, -9775, 49996, -53065, -24360, 22696, 40513, 41158, -24768, -2222, 80009, 720, 9875, 9592, -7246, -20072, -31654, 17111, -22624, -19332, -22494, 22488, 14399, -12410, 19149, -5215, -479, -19413, -783, 32043, -46595, 26519, -41065, 9228, 20220, -57735, -2114, 1035, 36948, -12578, -9563, 12423, -28736, 14381, 9932, 21099, -11657, 15784, -15721, 20184, 22519, -8589, 42416, 64906, 16963}
#define CONV11_WT {0}
#define CONV11_W_Z 	 (137)
#define CONV11_IN_Z      	(0)
#define CONV11_OUT_Z     	(0)
#define CONV11_M_ZERO 	(1431657856)
#define CONV11_N_ZERO 	 (1)


/* Layer 12 Learned Parameters */
#define CONV12_BIAS \
 {-422, 537, 63975, 99180, 235833, 22388, 105916, 203825, 550, 242630, 204808, -7948, 3778, -410, 196356, 115689, 166894, 1546, 75790, -86, 17524, -573, -4258, 36168, 83687, 7187, 188265, 75138, 230759, 61190, -1361, 1642, 571, 221274, 196056, -1845, -250, 4812, 7948, 24750, 1194, 18510, 18018, 1404, 4503, 221051, 3247, 3574, 94481, -7193, 1207, 396, -583, 2260, 78111, -50, 1922, 7762, 136282, 4355, -2632, 80554, -1211, 131812, 199698, 9651, 4437, 153663, 184778, 9793, -306, 3953, 6071, 9749, 170095, 2534, -1038, -6400, 55346, 127234, 3386, -2039, 44030, 98290, 27763, 75698, -11817, 107726, -489, 154679, 77487, 623, 117422, 2478, 314, 9997, 208, 83086, 71086, 71545, 43651, 67721, 10789, 16396, 117133, 186856, -4858, 85752, -1140, 89222, 4412, 158, 2809, 3221, 7389, 72291, 4175, -9014, 192040, 10013, 83659, 3792, 98857, 167841, 216967, 377, 840, -1535}
#define CONV12_WT {0}
#define CONV12_W_Z 	 (137)
#define CONV12_IN_Z      	(0)
#define CONV12_OUT_Z     	(0)
#define CONV12_M_ZERO 	(1431657856)
#define CONV12_N_ZERO 	 (1)


/* Layer 13 Learned Parameters */
#define CONV13_BIAS \
 {28666, 9003, 23784, 70155, 2839, -36010, 27229, -11641, 43735, 10047, 78879, 16775, -8273, 64742, 50799, 113610, -19636, 38149, 30774, 11686, -14153, -26305, 88002, 63200, -1898, -7116, 12681, -1409, 62655, 97114, 377, 84222, 29044, 89137, 43137, -9114, 35876, 18171, 69350, -7955, -17574, 201, 34638, 53022, 66130, 35983, 8212, 82241, 2749, 16442, 64569, 78246, 7397, 33245, 6804, -21295, 22994, -32301, 87865, 38258, 34173, 14690, -1930, -260, 71356, 42361, 30596, 75602, 34215, 20084, 9237, 13455, -1360, 34648, -536, 54401, 49944, 73532, -1194, 32024, 20135, -16534, 46080, 135121, -7161, -7898, -74401, 48411, -6145, 41311, 74690, 10891, 17659, -10877, 61, 95293, 18742, 28501, 20841, -24246, 1698, -16103, 45980, 2166, 125552, -17393, 11850, 7751, -4451, 44366, -3881, 18027, 49761, 94322, -27420, 52333, 16222, 64258, 49130, 61505, 49466, 21387, 42671, -28523, -56577, 33959, 44666, 6347, 119854, -2443, -8348, 61583, -23424, -36848, 48004, 53984, 3054, 27507, 58420, 24634, 912, 61303, 30047, -26225, 6070, -3649, 36772, 75505, 15486, 48465, 47992, 19727, 105098, -16589, -274, -6219, 20813, 60259, 25823, 76303, -12490, 2856, 47370, 20212, 21751, 103168, -34503, 38034, 62634, 8742, 58233, 69489, 54356, 40443, 71199, 80737, 14581, 5385, 87180, -2899, -26388, 19274, 12627, 39474, 11528, 92996, 64935, 30532, 45413, 37793, 36705, -1636, 43790, -45309, -31675, 56477, 50658, 73412, 21866, -890, 63012, -4450, 68146, -9520, -16448, 71479, 38783, 37931, 8063, 9899, 25575, 49967, -1749, 29557, 43794, 27261, 34079, 27068, 49661, 36522, -41155, 65151, -611, 9158, 11957, 16354, 41318, 38732, -28789, 27133, 26391, 118722, 30223, -49332, 24510, -4942, 42615, 21889, 32324, -4244, 12413, -26882, 22074, 1608, -50490, 882, 26164, 8649, 5669, -1414, 15768, 78312, 46035, 56599, 50656, 28548}
#define CONV13_WT {0}
#define CONV13_W_Z 	 (137)
#define CONV13_IN_Z      	(0)
#define CONV13_OUT_Z     	(0)
#define CONV13_M_ZERO 	(1431657856)
#define CONV13_N_ZERO 	 (1)


/* Layer 14 Learned Parameters */
#define CONV14_BIAS \
 {-252, 2226, 8978, 85, -2893, 10144, 96, 12172, -3371, -4616, -42, -4660, 5032, 451, 647, 439, -194, 565, 18208, 992, 1653, -109, -313, 1330, -4291, 4100, 39459, -51, 1528, 4557, 838, -456, 24244, -5465, -18788, 13355, -6744, 1048, 52408, 37594, 166071, 74234, 28245, 2449, 237, -10300, -7006, -145, 24641, -806, 18154, 757, 72, -241, 269, 7408, -5238, 10442, -12406, 420, -651, 13998, 673, 262, -2230, -11200, 18710, 48, -710, 11639, 2064, -166, 80, 423, -2600, 1948, -190, 5937, 12812, -2907, -9192, 34175, -3633, 3893, 5381, 97636, 56106, 111, -10672, 1038, 1882, 4267, -25401, 1146, 408, 18566, 4500, -599, 31676, 167, 1601, 13516, -17258, -653, 2848, 5725, -14787, 13683, 11825, -7666, 1271, 4155, 23850, 2107, -8612, 17818, 4372, 15645, 21019, 27940, 14429, 17789, 10288, 93785, -4734, 1505, 15655, 50027, 252, 30, -366, 4345, -2465, 1528, -2837, 87339, -165, 98, 61635, 237, 4564, 31498, 24297, -9632, 17019, -30, 9092, 24228, -2243, 1977, 12948, -24572, 9234, 14738, -13255, 525, 1012, 8152, 2426, 18204, 37051, -144, 25815, 33453, 325, -204, -302, 3866, 29176, 20394, -312, 85, 838, 734, 1275, 435, 550, 2761, 2348, -194, -10340, -943, -24442, 24192, 191, 305, 24150, 605, 2849, -6106, 23659, -8259, -2538, -21323, 30091, 1160, 585, 33072, 3577, 63794, 44438, -22, 1638, 19376, 2668, 9281, 27030, 116759, 1403, -25195, -5, 109, 28339, 24322, 28784, 9856, -1981, 7846, 1274, 1831, 48271, 615, -9836, 4116, 56521, -15598, 1571, -318, 94577, -4003, 29171, -440, 786, 1152, 38890, 77843, 22461, 17968, 1664, 21301, 31, -3389, -5038, 21646, -343, -9838, 238, 1331, -2292, 544, 139, -1371, -318, 20019, 37043, 45517}
#define CONV14_WT {0}
#define CONV14_W_Z 	 (137)
#define CONV14_IN_Z      	(0)
#define CONV14_OUT_Z     	(0)
#define CONV14_M_ZERO 	(1431657856)
#define CONV14_N_ZERO 	 (1)


/* Layer 15 Learned Parameters */
#define CONV15_BIAS \
 {26968, 11490, 47185, 119792, 10217, -9848, -11088, 16854, 17744, -4363, 27540, -1603, -18199, 125933, 35107, 32203, 32648, 1845, 17169, 38065, 67356, 12428, 65152, -16799, 11310, 28871, 94193, 21538, 21916, 3245, -25434, 60030, 68545, 34425, 24990, 35064, 44433, -17283, 28027, 24734, -3236, 73250, 74395, 47349, 43646, -18912, 5693, 22267, 36925, 31346, 26619, -4582, 91606, -9266, 13, -8742, 5054, 17702, 10020, 10276, -18772, 2296, 23213, -15174, 58791, -4774, -16747, 77032, -25458, 21383, 5153, -19635, -430, 62167, 35410, 887, 35375, -2903, 12829, 93374, -23270, 59540, 7238, 8119, 45985, 23213, 39160, 3772, 26122, 34593, 43035, 27878, 39052, 41398, 18734, 8642, 54541, 10818, 49832, -4741, -2259, 9062, 6923, 23824, -25566, -15989, 42698, 382, 18728, 20132, 26173, -6444, 18345, -6781, -6021, 46218, -12862, 19178, 10252, -22520, 3032, 20447, -21824, 12101, -8959, 19362, 18384, 29170, 11865, 54392, -34597, -4875, 45960, -50399, 17591, 23789, 10518, -951, 6019, 23675, 19128, 31674, -34648, -6892, 31556, 13923, 15365, 52203, 12998, -748, 3337, 5484, 104085, -30513, 87009, 3582, -15549, -18395, 44640, -42126, 28544, -5090, 49186, 55907, -30537, 30917, 18623, 16967, 31444, -15026, -22542, 32615, 21824, 16917, 33358, -1615, 8611, 23640, 40077, 106492, -25426, 30950, -14489, 19630, 14018, 5939, -35047, 61485, -361, 12401, -3714, -6910, -32121, -25995, -28812, -12385, 23073, 42972, 46294, 149288, 25754, 26089, -15100, -18247, 21505, -42310, 17959, 5804, -2140, -1571, 17324, -1987, 78717, -3959, -8870, 53021, 5346, 34731, 40317, 65551, 14360, 31408, -348, -80507, 19862, 65056, 3746, 18555, -29538, 53049, 73683, 10341, 23759, 59276, 62338, 3347, -5810, 12665, -10522, 44020, 29956, 67835, 42545, -12991, 4539, 10813, -15532, 32629, -6401, 3645, 34868, -13652, -1676, 23259, 15141, 71646}
#define CONV15_WT {0}
#define CONV15_W_Z 	 (137)
#define CONV15_IN_Z      	(0)
#define CONV15_OUT_Z     	(0)
#define CONV15_M_ZERO 	(1431657856)
#define CONV15_N_ZERO 	 (1)


/* Layer 16 Learned Parameters */
#define CONV16_BIAS \
 {-62131, 2329, 15564, -8875, 61477, 3428, 22306, 18100, 15116, 5372, -1880, -13970, -22547, -107, -2680, 62461, 67508, -4258, -10792, 29605, 752, 17356, 3957, 65412, 22306, 378, 5825, -4944, -1620, 90382, -13687, 28989, 17881, 38478, 684, 64877, -12000, 137556, 12608, 37684, -26448, 2075, 7984, -7162, 13969, -25846, -21282, -7641, 8798, -15214, 38152, 95813, 10016, -5037, 1424, 1620, 16380, 4466, -15224, 15033, -5859, 1743, 7103, -4199, 22137, 2435, -12193, 1521, -15735, -14362, -16818, 52458, 18226, 23580, -8997, -16291, 163, -21758, -17768, 3541, 18878, -7711, -20969, 15082, 29600, -11037, -13054, -355, -2421, 20858, -7477, -27982, 46583, 1533, 14741, -13762, 39732, -7063, -2264, -24409, 4806, -720, -9491, 29409, 4295, 16024, 46539, 68, 20634, -2452, 6368, -4369, 2226, 45786, 35081, 8420, -1088, -5348, -6985, 5267, -18816, 6649, 23820, -5040, 14864, 12270, 12269, -19011, -11227, -3727, -7208, -45533, 27352, -13367, 1813, 27977, -7047, 49097, -606, 74108, 45719, -2134, 69, 239331, -2697, -4465, -6931, -9152, -11326, 305, -6666, 44032, 13986, -2835, 24898, -953, 1959, -2651, -4368, -5531, -10431, -9926, 19626, 37210, -5946, -15158, -10623, -2052, -5502, 2049, 15753, 14127, -43362, -3033, 22812, 7399, 33169, 29961, -5262, 46178, -15036, 19382, -11672, 30242, 456, 19087, -573, 167819, -1895, -5261, 26499, -302, -9154, -20960, 3410, -16511, -13314, 90855, 1350, 568, -19, 4275, -7701, 8261, 140036, 9379, 8898, 1315, 3090, 64800, 972, -23317, 10240, -17591, 21739, -12431, 7222, 7035, -2294, -10725, -26859, 8854, 89079, -4305, 13106, 21721, 30072, -12543, 85370, 216, -10142, 14849, 6981, 37568, 29707, -13335, 47825, 38663, 40850, -7221, 2212, 2719, -11406, 15346, 20051, 35458, 22982, -18298, -652, -1487, 2948, -13021, 46845, -16028, 38643, 36706}
#define CONV16_WT {0}
#define CONV16_W_Z 	 (137)
#define CONV16_IN_Z      	(0)
#define CONV16_OUT_Z     	(0)
#define CONV16_M_ZERO 	(1431657856)
#define CONV16_N_ZERO 	 (1)


/* Layer 17 Learned Parameters */
#define CONV17_BIAS \
 {47835, 10193, -17106, 15669, -8328, 41285, 3212, 26061, 7666, 46878, 5566, 7255, 50941, -14725, -20012, 13287, 13753, -8009, 15220, 18830, 20102, 66059, 3189, 21292, -72082, 10286, 50249, 18136, 20820, -2239, -4668, 60109, -25677, 2426, 11166, 32562, -6071, 51138, -206, -7588, 14421, -10186, 20970, -23563, -3417, -40716, 73426, 28630, -9520, -11218, -524, 7964, 1851, 69851, 8993, -13898, 52720, -24414, 14474, -40346, -28563, 4533, 25491, -11589, 8630, -38660, -13757, -34536, 32970, -24505, -34415, 58745, 30738, -26713, -2779, -4448, -17243, 5544, -18827, 8895, 811, 45732, 17743, 7868, -11537, 7358, -18296, 27391, 29773, 12640, 8877, -53373, 58603, 28262, 5889, 84939, -19390, 51259, 4143, 7514, 17470, -6933, 46395, -1287, 23265, 17259, 15512, -782, 12434, 22351, -15741, 13353, 33307, 45410, -19703, 8839, -9847, 30680, 66603, 12158, 54869, -754, 28364, -10587, -20668, 29649, 75713, 33795, -12754, 27418, 69192, -7237, 4710, -17350, 35010, 76051, 15784, 11728, 8497, 21222, -5036, 75321, -25972, 80304, 53837, 20870, 17942, -26618, -6278, 45277, 13960, 24832, 43981, 4972, 16988, 33183, 21376, -13269, -27642, -16660, 12303, 16444, 4593, 24152, 89795, 39828, 7688, 10711, 50824, 8684, 54375, 4467, 45261, 153738, 9330, 29122, 17932, 39489, 31890, -3131, 19782, 14139, -36003, -17847, 5920, -3429, 57266, 9477, -4041, -13832, 58980, -19248, -17898, -3344, -22499, 6301, 7439, 2010, -7550, 84889, -3682, 15755, 5403, 22026, -5098, 30417, 22790, -34360, -15289, 61026, -12949, 39403, -45667, 21918, -1521, -56327, 35383, -14314, 8875, 76840, 8796, 44699, 23115, -20996, -23003, 25238, 32972, -5892, -5623, 12840, 649, 9957, 247, 31043, -3644, 64875, 86222, 2999, 22954, 7078, -25379, -22393, 6043, 9721, 35600, 93364, 15343, -41400, -13541, 72640, 9768, 14185, -5055, -7141, -26709, -28703}
#define CONV17_WT {0}
#define CONV17_W_Z 	 (137)
#define CONV17_IN_Z      	(0)
#define CONV17_OUT_Z     	(0)
#define CONV17_M_ZERO 	(1431657856)
#define CONV17_N_ZERO 	 (1)


/* Layer 18 Learned Parameters */
#define CONV18_BIAS \
 {-2578, -25344, -2453, 34101, -6922, 84431, -3077, 4, -828, 42791, 23216, 26438, 45985, 165959, -965, -15838, 21783, 104105, -10239, -23058, 47822, 44322, -3849, 15363, -9031, 50284, 13123, -22222, 2895, 33043, -942, 3246, -5500, 97280, -1451, -13213, 148097, 16406, 36426, 23174, -13058, 32996, 24145, -846, -13138, -1897, 1416, 8183, 9704, -1962, 2974, 19835, -14873, 22896, -6952, -2897, -4887, -241, -14427, -15074, -10740, 10711, 33395, -27342, 8295, -1532, 61684, 36023, -19950, -11691, 36547, 19610, 4592, -10081, 63458, -2729, -43748, 57300, 49091, -8105, -7062, -3435, -5183, 8319, -512, 2697, 12698, 106281, 4262, -18279, 57173, 55440, 2132, 23235, -9932, -4415, -16586, 6836, -57835, 81582, 25098, -3681, -1429, -24263, -2770, 30086, 1178, 44526, -7677, 195837, 40, 14, 17805, 25547, 74750, -3245, 32327, -4146, 39890, -1480, 9065, 127, -30404, 69, 145465, 68471, 16834, -4446, -5233, -10383, 31535, 43894, 40567, -11860, 37924, -6894, -11415, -2257, 17881, 55106, -136, 1424, -5630, 16796, 24222, -1578, 25902, -8053, 54983, -24246, -5570, 58557, 34722, -3328, 23422, -8530, 11334, -39530, 31191, 41432, -426, 49312, -3096, 82173, 20639, -9054, -260, 38958, -15025, -501, 52180, 25271, 39520, 24555, 43106, -12491, -323, -12894, 25787, 13631, 7047, -15291, 8574, 122, 77878, -7042, -261, -9256, 155576, -24548, 65582, -12424, -7907, -18006, -2850, -1019, -19810, 11450, 14460, 23305, -13104, 21966, 13604, -3380, 6506, -2537, 41717, 118554, -9124, 56365, -3440, 654, 10780, -5291, -5458, -8439, 2140, 73256, 3545, 29323, -27130, 26272, -2560, 31896, 69900, 28340, 27989, 43971, -8766, -14691, -7338, 39235, 21266, -1043, -3078, 9767, 74855, 67294, -16443, -4812, -33494, -56694, 26242, 101142, -1009, 21994, -21558, 28818, -9315, 2809, -24295, 4589, 50002, 42664, 80843, 19804}
#define CONV18_WT {0}
#define CONV18_W_Z 	 (137)
#define CONV18_IN_Z      	(0)
#define CONV18_OUT_Z     	(0)
#define CONV18_M_ZERO 	(1431657856)
#define CONV18_N_ZERO 	 (1)


/* Layer 19 Learned Parameters */
#define CONV19_BIAS \
 {-33693, -16352, -4911, 11838, 112367, -14332, -4217, 14817, -12938, 23034, 57760, -5228, -21387, 109724, -12298, 60031, -16565, 42116, -1119, 59651, -10002, -43942, -6760, -5168, -4483, -27468, -21207, 74033, 5068, 19245, 7987, 63663, -16970, -11677, 26292, 38090, 11372, -54330, 58612, 58815, -19043, 97170, 18137, 50169, 84994, 7301, 1151, -36218, -28411, -5121, 4874, 58763, 119367, -51162, 66539, -46079, -32633, -11586, -49858, 40402, 77957, -21266, 36425, 28465, 38583, 4597, 217, -24841, -22188, -1821, 32854, -31205, 4907, -49917, -27426, 50231, 18398, -19101, -8418, -2318, -9818, 3009, 58155, 3779, -5975, -34980, 12733, 180282, -32685, 45974, 37644, -43159, 8877, 122263, -24446, 120903, 46110, -17276, 19044, 49830, -35386, 23093, -38143, 32371, 15330, -49930, 35607, -22496, 6537, 45877, 21212, 123621, 36710, 49724, 33997, 65699, 10840, -26471, 7528, -40014, 32405, -1540, -7458, -22047, 2141, 63942, 33643, 28946, -16491, -7783, 37612, 19259, 19493, -57032, 11558, -6971, 79834, 6099, 8986, 89509, 116699, 63624, -20241, 5260, 44617, 2836, -35365, -2379, -14949, 72012, 38811, -12695, 56150, 19482, 19254, -3281, 98577, -12917, 21061, -13312, -2004, 59959, -15569, -17558, 14069, 40661, 37193, -5492, -35639, 6787, 71652, 18888, -16790, 9129, 20689, -8058, -29316, 90459, -20941, -155546, -42161, -903, 27007, 10475, -39924, 87035, 31186, 22579, 7080, 78, 9039, -8374, -871, 29822, -5753, -15854, 37575, 20133, -66373, -18370, -20418, -2018, 28216, 1154, 75222, -19516, -24111, -9901, 720, 15278, -31124, -10193, 30517, -47606, 10897, 21257, 14821, 32965, -29616, 5482, -28745, 1441, 37721, -1133, 136254, 5611, 43718, -30464, -17602, 12146, 2327, -26467, 33266, 60475, 25670, 33671, -4803, 45001, -6498, -29886, 2800, 75841, 103460, 36807, 74800, -4280, -28572, -49181, -14798, -6141, -9351, -23644, 16141, 3784, -11617, 315}
#define CONV19_WT {0}
#define CONV19_W_Z 	 (137)
#define CONV19_IN_Z      	(0)
#define CONV19_OUT_Z     	(0)
#define CONV19_M_ZERO 	(1431657856)
#define CONV19_N_ZERO 	 (1)


/* Layer 20 Learned Parameters */
#define CONV20_BIAS \
 {-14801, 16600, 91318, 9151, 16111, -3623, -1056, 74324, -2719, -3912, 27571, 34387, -1274, 16532, -9621, -1206, 46040, 19263, 12456, 7962, 9357, -12431, -1402, -23606, -6772, 11029, -14286, 102387, 102938, -588, 20580, 19934, -2286, -26085, -14, 7494, 67910, 25268, 49963, 11083, -10586, -1981, 72213, 2066, 25827, 109711, 49449, -2286, -2970, 3294, 55922, -23861, 32181, -10932, 58146, -1976, -9895, 25090, 34257, 70398, 51565, -48067, 57090, 23183, 69000, 33650, 119889, 2316, -5230, 77717, -926, 20218, 35815, 97700, -4719, 12150, 4477, -1321, 132192, 907, 22369, -11471, -139, -4759, 51485, 62825, -15389, 19157, -25956, 26091, 113956, 168379, 171079, 20209, -16348, 11527, 43347, 24524, 3069, -180, -27755, 38811, -10452, 36342, -3891, -1401, 23844, -4215, 76323, 69388, 20792, 10787, -6113, 117442, 3035, 19958, -3977, -4460, -11718, -3815, 34241, 4744, -2559, -5696, 23454, 53138, 5584, -287, 20891, -837, 34167, 153944, -12519, -10258, 10025, -11742, 13189, -6725, 91779, 18399, 23710, 5405, -6029, 28060, 1582, 6622, -9295, -8104, 129539, 30186, 36297, 120342, 64083, 5713, 9658, -584, -10180, -1438, 28920, -5344, -12398, -3962, -762, 4202, 67402, -1210, 13536, 1834, 175862, 89696, 141, 18772, 132378, 88605, -12831, 30339, -1353, 10253, 21145, -9190, -1823, 40456, -16237, 9912, -1783, 26413, 48131, -13400, 33773, 114092, 25422, 100618, 58653, 53140, 39868, -853, 18644, -9375, -6859, -10811, -3719, 103293, 20123, -1566, 29160, 38068, -3309, -2965, 115142, 19309, 209, -1217, 53011, -21092, -53386, 9359, 55715, 37769, 12401, -1409, -21696, 20962, 7406, -8799, 3438, -1082, 42942, -4364, 48839, -15775, 74484, 6549, -23494, 14677, 7680, 34053, -1847, 53395, 46794, -21564, 19111, 120645, 17504, -2063, -9508, 27050, 16204, -7964, 69970, -7031, 147878, 59477, -1461, 17140, 74884, 54703}
#define CONV20_WT {0}
#define CONV20_W_Z 	 (137)
#define CONV20_IN_Z      	(0)
#define CONV20_OUT_Z     	(0)
#define CONV20_M_ZERO 	(1431657856)
#define CONV20_N_ZERO 	 (1)


/* Layer 21 Learned Parameters */
#define CONV21_BIAS \
 {-27188, -41396, -31626, -18943, -24708, -53636, -6432, -1373, 26896, 8113, 26668, 49869, -39241, -29, -19516, 5868, 11834, -10439, -3127, -13501, 47635, -26992, -12715, -53540, -1633, 49158, -24189, -104763, 3175, -12308, 13581, 25018, -6718, -7080, -32742, -26188, -24865, -56345, 12557, 2670, 4964, -1236, -79937, 15765, 3802, -30993, 15442, -36873, 19332, -9330, 6189, -11004, -26448, 142072, -10182, 9152, -2663, 18647, -18317, -15900, 37277, -1429, -54543, 4251, -31888, -43940, 12200, -51226, -37110, -62408, -19248, -59138, 15549, 93682, 155649, -5918, -58581, 59937, -25666, 66629, 12090, -19278, -13107, 7179, -18253, -17205, -2836, 28397, -29617, -9578, -4701, 821, -47017, -44210, -74465, -6502, 17464, -13803, 30719, -4804, 30521, 16713, 3000, 93879, -7971, -17302, 21475, 11197, 12607, -26850, 22997, -11179, 1352, 11395, -24771, -23562, 8021, 14167, -47266, 20435, -14962, 87501, -100932, -42856, 8890, -27762, -31265, -52340, 37377, -17228, -8816, 1141, -49364, -26525, -53037, 46625, 7548, -14345, 11308, -35842, -54840, -47562, -25328, -15343, -42735, -43957, -52085, -21245, -29301, -26102, -19190, -22253, -49059, -35104, -27625, -26337, -59546, -14841, 23112, 54124, -39903, 49663, -19383, -54018, -14973, -1652, -45522, -45915, -23911, -42442, -35415, -4499, 10076, -23053, -14811, -16302, -2790, 43313, 5063, 66598, -30763, 62735, 8398, 15975, -47930, -16430, -34673, 62624, 4017, -2644, -49836, -33006, -2928, 31999, 19694, 37683, -6091, -46690, -2911, -40299, -21254, -7276, -39642, 79725, -8538, -10441, 8282, 59341, -18331, 14948, 21582, -13190, -53943, -7790, 29552, 43142, -41545, -14711, 12164, -17198, -54615, -19105, -9132, -17481, -35747, -16598, -60218, -39957, -444, -35523, 18932, -7814, 48659, -8927, -58761, -21509, -14482, -41629, -3674, -16508, -22187, -14208, -20224, -4532, 3891, 82837, -3365, -19393, -55094, -5936, -26551, -13983, -18013, 28806, 6307, -26450}
#define CONV21_WT {0}
#define CONV21_W_Z 	 (137)
#define CONV21_IN_Z      	(0)
#define CONV21_OUT_Z     	(0)
#define CONV21_M_ZERO 	(1431657856)
#define CONV21_N_ZERO 	 (1)


/* Layer 22 Learned Parameters */
#define CONV22_BIAS \
 {-7029, -21, -12005, 92720, -10769, -5279, 116969, 21780, 353, 7967, -7973, 23707, -4088, -9030, -2846, 3659, 34476, -23428, 91819, 84012, -14497, 1268, 91595, -5491, -5779, 36685, -7440, -3952, 138498, -12358, -1246, -1990, 129687, -3114, -8794, -18207, 919, 100858, 80363, 70688, -2479, 90990, -4105, 17959, -379, -7028, -15541, 13287, -15417, -16624, -2227, -9977, 7268, 127566, 131211, 28207, -2457, 167055, 818, -3481, -5880, 108630, -5515, 158600, -15197, -8489, 123940, -4789, -2928, -16095, -3632, 514, -8297, 79432, 20726, -3135, 241333, 60532, -16424, 16896, 92778, -13712, 85748, -491, -1682, -5207, 29895, -11564, -3021, -6045, 96968, 73830, 11399, -3110, 43160, 62130, -13488, 4887, -18229, 64769, -4320, -19055, -5652, 37909, 97730, 72057, -9566, -9402, 27411, 133149, -62581, 4219, 51104, 102503, -11480, -5194, -1523, -880, 98811, -30390, 18956, 17880, 117712, 100718, 59353, -9127, -6678, -1898, 32891, -14034, 179942, 61244, -1095, 34222, 12686, 38317, -18456, -9638, 87773, 1714, -3371, -4629, -5082, -1516, -4783, -9922, 90634, -10834, 55960, 124113, 124854, -8774, -848, 75341, -2743, 49984, -14419, -3311, -13167, 40815, -16769, -202, -4229, 181342, 65130, -1007, 133902, -10709, -1142, -752, -11060, 79924, 12566, -17968, 11750, -17527, -3337, -8381, 13312, -4982, -12351, 32482, -10798, 1239, -5564, -3783, -9271, 36925, 26989, -8807, -481, 1544, -19476, 68182, 16785, -6008, -2684, -11006, 1545, 3639, 80121, -2249, 9323, 31157, -3604, -1911, -6443, 44765, -103, 19797, 15873, -25180, -11568, -8955, 21424, 34312, -3320, 114441, -4793, 1609, 80793, 258462, -8999, -8980, 104470, -12387, -8695, -7420, -2456, -5640, 23880, -6817, -13429, -131, -2311, -2372, 127862, 37946, 88576, 23408, 112252, 137516, 69064, -4212, 54733, 33525, 113593, -7640, -13367, -4080, 104924, 90135, -5752, -14971, 157282, -10292}
#define CONV22_WT {0}
#define CONV22_W_Z 	 (137)
#define CONV22_IN_Z      	(0)
#define CONV22_OUT_Z     	(0)
#define CONV22_M_ZERO 	(1431657856)
#define CONV22_N_ZERO 	 (1)


/* Layer 23 Learned Parameters */
#define CONV23_BIAS \
 {-18335, 2134, 52060, 1732, -17568, -44258, 65445, 85786, -19071, -5282, 22488, -31095, -44609, -324, -38103, -76271, -2420, 42562, -11120, 38321, 25910, -32008, 27836, -70053, 20536, -48024, -29817, 42571, 158014, 81765, 25274, -41685, -54166, -14905, -1928, -18100, 6063, -1424, 26038, -45475, -800, -32163, -8046, 39812, 12148, 58079, 16193, 20285, 92920, 22744, -11034, 20590, 56854, -29712, -63852, -58115, -10584, 90306, 8892, -25536, -13987, -6185, -4583, -25246, 4981, -22955, 7777, 63786, -635, -45457, -3505, 62590, -21071, 5666, 30554, 68100, 75950, 9323, 55907, 13984, -34980, 13477, 50866, 2869, -39276, 22187, 13742, 8005, -57056, 107410, -78846, 63461, 38094, -16488, 40580, 22043, 74124, -16711, 21765, 54001, 12135, -2204, -8567, 848, 1560, -4887, 1877, 27705, -47742, 20906, -10044, -41554, -34277, -28072, 39063, 56338, 69590, 17664, 43988, -26883, 45230, -4944, -16922, 93010, -3960, 30916, -10760, 7286, 18085, 57470, 28550, 1249, 2293, 56582, 5412, -14103, 55349, -19255, 16608, 27478, -20889, -12966, 25858, -6338, 4967, 81852, -16978, -19146, 14407, 32386, 9261, -5754, 6919, 42025, -51021, -34741, -54798, 35544, 16504, 55669, 18359, -15561, -14507, 1710, -23960, -4997, -10213, 39022, 17485, 859, -28147, -28697, -11821, 42565, -32632, 2340, 24394, 68931, 20760, -15236, 15232, -2636, 71581, -44935, 23713, -45223, -21269, -9026, -21986, -699, -28705, -1353, -1835, -27957, 16793, 57939, 44316, 40086, -18824, 13604, -36535, 2781, -5864, 78275, 7722, 67889, -57486, 108821, -16839, -30850, 16865, -55107, -17845, -42527, 62059, -36878, -5807, -22648, 5971, -37, -33875, -1831, -27706, -19331, 2299, 5783, 27184, 36635, 20533, 229, 23073, -5567, -24055, 38661, -9454, 79471, -9325, 15570, -16014, 4952, 32518, -68785, -57446, -38954, 18096, 99189, 75330, 25442, -31008, -5768, 41687, -9243, -16925, -3237, -7770, 16621}
#define CONV23_WT {0}
#define CONV23_W_Z 	 (137)
#define CONV23_IN_Z      	(0)
#define CONV23_OUT_Z     	(0)
#define CONV23_M_ZERO 	(1431657856)
#define CONV23_N_ZERO 	 (1)


/* Layer 24 Learned Parameters */
#define CONV24_BIAS \
 {4726, 73524, 134412, -6656, -710, -72, 85932, 85309, -2589, 43036, 114748, -349, -807, 121441, 129366, 135037, -36297, 78716, -1107, -259, 201738, -415, -35116, -1129, 145048, -417, 145192, 192744, 2675, 146831, 118441, -1277, -668, 166513, 179907, 1421, -2268, -17455, 125114, -726, -594, 4155, 43800, 165084, 104942, 107003, -201, 37550, 98263, 1123, -634, 87409, 13, 135007, 889, 168851, -532, 81049, -111, -3920, -598, -846, -10836, -290, 51623, 141532, 97810, 104553, 13948, -547, -683, 61388, -198, 435, 95760, 87424, 78835, 193617, 59755, -6544, -153, -774, 119990, -779, 27, 110224, 122362, 139249, -519, 77896, -83, 72939, 150754, -993, 102821, 94528, 86064, -1053, -762, 74880, 120372, 1709, -963, 5486, 4816, 6440, 47422, 187144, 24898, 180685, -571, -6296, -954, -1150, 84955, 81647, 78111, 84866, 15749, 176895, 73599, -633, -488, 68825, -3947, 86099, -559, -542, -769, 96527, 82887, 145582, -98, 87255, -260, -770, 63348, -1857, -938, -921, 78583, -867, 155557, 22469, -494, 64939, 131566, 82, 104708, 149542, 7, -753, 122577, -764, -593, -10578, -511, 197266, 2742, 77837, 148985, -302, -1068, -16456, -2633, -972, -908, 92679, 175583, 2817, -8247, 145366, -720, 27695, -20, -470, 32385, 95763, 28723, -214, -524, -925, 68304, -309, 4087, -397, 176547, -778, -353, 132520, -574, -500, 102023, 159549, -1450, 104721, 192894, 173543, -1082, -1637, -1859, 121001, 1748, 79251, 168218, 121743, -668, 64918, -282, 173144, 71973, -293, 3918, 3159, 67149, 141765, 109167, -32, -585, -97, -1047, 536, -566, -829, 130330, 155577, -2174, 98422, 125656, -104, 107870, -527, -547, 72825, -339, 76996, -610, -337, 2307, -626, 45224, -1550, -627, -584, -758, 74582, 28721, 136414, -542, 4983, -53452, 212133, -2201, -254, -397, -505}
#define CONV24_WT {0}
#define CONV24_W_Z 	 (137)
#define CONV24_IN_Z      	(0)
#define CONV24_OUT_Z     	(0)
#define CONV24_M_ZERO 	(1431657856)
#define CONV24_N_ZERO 	 (1)


/* Layer 25 Learned Parameters */
#define CONV25_BIAS \
 {18026, 2042, -53177, 33522, 46611, 78811, -26302, -29507, 53979, -14046, -27308, 12367, -181, -14490, -21095, -65033, 15890, -35298, 16622, -7217, 1627, 37646, -14291, -22649, 6055, 8828, -42110, -16138, -33684, 6122, 70, -542, 5092, 23679, 61842, 2592, 12640, -66052, -41134, -31055, -34655, 38093, -48461, -12324, 48116, 9081, 21952, -63049, 61708, 1634, -15856, -8647, 51549, -989, -47473, 35658, -3515, -6037, 12292, 11280, 23217, 37224, 57137, -6442, -23629, -29593, -43765, -99, -17124, -20675, -43504, -7359, 27002, -13822, -41114, -62787, -24750, -4698, -26441, 32552, -60648, -80588, 15988, 17673, 715, 12756, 29650, 13387, -3154, 66930, 31385, 56514, -7413, -30845, 41490, 12867, -50346, -47320, -22753, -12728, -27172, 32596, 11913, -58601, -40980, -13494, -1307, -25481, 36901, 21263, -11823, -30370, -29783, 77704, 14950, 36641, -19238, 57429, -33052, -5474, -3264, -1496, 13517, -14245, 16133, 32437, -740, 3813, 2094, -84852, -21967, -1361, -20223, 2932, -25916, -20604, -41852, 7412, 279, -31248, 5757, -69877, 21974, 24313, 6893, -10927, -45028, -23454, 6879, -44037, -3726, 18040, -66867, 2064, 14958, 10763, -29587, -10170, -30939, -26416, 25889, 21561, 40399, -3261, -30521, -38201, -26152, 13898, -56680, 14488, 69479, 19397, 28776, 48042, -30572, -19817, -8214, 36447, 17997, -35528, 35902, -13846, 8037, 20713, -58769, -8148, 30823, -27879, 15592, -55199, -38829, 24242, -5600, 7637, -1430, -38884, -48930, 44789, 65929, 2969, 46251, 7777, 25204, -23947, 39367, -10339, -71963, -56960, 29290, -36761, 38561, -18120, 21181, -18954, -30822, -3770, 26570, 10833, 18990, 18184, 94919, 34385, -72525, -2908, -48806, -24782, -6964, -9115, -78426, 55184, 38338, -19835, 20480, 13973, -14692, -19970, -32030, 26779, -20422, 10, 14884, -4202, 46296, -14602, -46401, 38119, 6979, 11826, -27635, 23225, 15566, -8810, -1138, -51337, -16373, 14678, 30882, -58375, 110155, 34023, -43728, -8627, -58950, 15815, -44787, -19221, -47273, 68488, -13301, 25695, -12254, -14150, -23868, -46553, 50729, -21014, 68041, 7790, -5988, -5670, 1679, -46201, 2215, 26300, -13643, 5107, 8352, -14183, 23877, -2036, -12746, 10462, -99416, 2254, -7254, 81709, -92566, -14483, 29539, -39998, 5862, -27020, -30748, -35111, 3220, -37846, -7249, 10510, 3809, -82752, -8530, -2681, -32631, -878, -41908, -3422, -35474, -24995, -3764, -287, 6415, -40757, 25737, -18001, 30061, -74933, 32053, -77482, 4827, -28789, 14680, -48668, -15452, -2198, -19876, -50341, 20827, 14884, -1885, -51157, 81199, 48563, -32342, -5755, -51399, -29351, -19431, -49217, 15496, -35371, 337, 15322, -15456, -19838, 16546, 13626, 592, 19683, -14089, 34395, 9379, -56053, 22508, -19561, -4407, 5709, -14806, -10958, -6614, -22687, 33076, -8361, -5544, -28395, 48840, 11627, 5608, 9497, -72790, -35702, 27681, -861, 40921, 8902, 55406, -35821, -46824, 52291, -9416, -70232, -11580, -42384, 38678, -20933, 16189, -45427, 11981, -892, -5432, -26361, -8856, 28668, 37068, -18386, -34941, -18258, 68558, -12964, -8473, 8751, 984, -14557, -17974, -37389, 576, -13800, 17636, -37470, -14646, 10501, -906, 1816, -8465, -48118, 36026, -31718, -14885, -9496, 7854, 1322, -6231, 11331, -16565, -55564, 32278, -7590, -1259, 11702, 10123, 74985, 17282, -62067, 24754, -10825, 41315, -9353, 52839, -10461, -228, 22392, 989, 79477, 2626, 32126, -5138, -2427, 15151, -74213, -4074, -30494, -1936, -2396, -24994, -22410, -40349, 17449, 11649, 25147, -63240, 26515, -37764, 19094, 10514, -43733, -14553, 26037, -2978, -9045, -22920, -2834, 19508, 20733, -27420, -21918, 13745, -87438, -31521, -1810, -68721, 26674, -23473, -19938, 29559, -41714, 13408, 36700, -21124, -10376, -2892, -17981, 33305, 99454, -33635, 1385, -53763, -25561, -6696, 19794, 26303, 20598, -56215, -35397}
#define CONV25_WT {0}
#define CONV25_W_Z 	 (137)
#define CONV25_IN_Z      	(0)
#define CONV25_OUT_Z     	(0)
#define CONV25_M_ZERO 	(1431657856)
#define CONV25_N_ZERO 	 (1)


/* Layer 26 Learned Parameters */
#define CONV26_BIAS \
 {83544, 150536, -19, 2072, 11144, 84065, 57538, -1042, 601, -1413, -17125, -55, -780, 88542, 2373, -1379, 102278, 394, -3481, 173800, -99, 90863, -828, -3411, 195968, -19128, -1383, 122532, -35, 82173, 8008, -1334, 129657, -12811, 135920, 139121, -54, 404, -322, -1451, -249, -9456, -1324, 94466, 5915, 134807, 149233, -1508, -3280, 76661, -3113, -1383, 73293, 177477, -747, 256273, 119860, 89598, 90931, 164546, 154781, 153430, 22006, 66428, -2264, 715, 1795, -5119, -5058, -316, -1389, 112479, -2398, -7765, 96273, 178224, -19241, -3178, -3943, -1068, -93, -1731, 93602, -2359, 1333, 175188, -3455, 232426, -2443, -12749, -990, 201877, -4879, 92959, 173629, 67329, -3197, 12886, -2836, 58400, -1947, -558, 89224, -2458, 165653, 99463, -12840, 118253, -977, -1841, -2279, -26454, -3189, -28636, -9996, 1601, -113, -15875, -2387, -3697, 67238, 95066, 68088, -7854, -573, 189963, -18344, 177330, -348, -2140, 109865, 80742, -23903, 5098, -13851, -462, -701, -2033, -549, -5097, -3404, -1216, 94334, -27230, 627, 98125, -2627, -13705, 84552, -3647, -5772, 485, -2413, 133068, -288, 192334, -1014, 74024, 90624, -43, -963, 1215, 173236, -6297, -5779, -172, -2640, 101480, -2400, 141455, 202232, 84200, 64186, 2334, 192383, -2, 128740, 147419, -3794, -668, 256147, 83975, -9127, -15615, 846, 119530, 5342, -56, -4038, -91, -5555, 81091, 87276, 105106, -4726, -2348, -1769, -3693, 10736, 59814, 165496, 106583, -3973, -13240, -10996, -9593, -4463, -45, 155747, -95, -3456, -1324, 88339, -937, 1043, 156632, 124355, 239914, 95108, 112971, 16205, 39225, -3800, -1693, -5338, 131789, 63643, -820, -63, 159129, -3703, -1187, -1821, -2287, -4270, -4918, -3325, -874, 56783, 78760, 676, 2658, -20854, 145244, 95014, 131741, -9518, -4448, -2679, -38, 251865, -686, -17909, -3670, -2046, 170645, 79286, -1577, 10240, 193197, -8211, 44963, -4871, 56336, -145, 59776, -590, 137927, -130, 313547, -1445, 88782, -11673, 145286, 12193, -5392, 136819, -2027, 100405, 123496, -2739, 78453, -1125, 145311, 265760, 48080, 106979, -1350, 210006, 37251, 109064, -2109, -661, -38793, -34040, 322540, -502, -5674, -3717, 107525, -2624, 225160, -3832, -1465, -3567, -3166, 6413, 61198, 168743, -687, -5064, 126676, -314, 2620, 1956, -1588, -13109, -4585, -3246, 119783, -23511, -714, 148553, 82736, -3568, -9293, -1725, -1459, 60880, -10882, -5207, 79770, 63945, 66468, 68961, -5494, 166492, -3314, 554, -1048, 183236, 202050, -61, 71802, -1705, -2246, 1989, -3214, -1481, -2437, 57065, -900, -1772, -596, -2492, -2544, -3602, 117549, 171023, 157950, -3130, -1342, -8520, 126799, 208919, -1284, -12328, -3827, 86023, -2301, -604, -20, -6850, -155, 5712, 68086, 201678, -8185, -86, 171536, -5198, 706, 132269, 181303, 153694, -5507, -1612, 1174, 88640, 262612, -3133, -30, 209014, -186, 125571, -620, -12837, -354, 2909, 10107, 29614, 319, 64683, -1056, -1972, -82, -2437, 56907, 3847, -666, -711, -1340, -398, -3994, -14377, 69980, -2963, -3546, -1943, -27235, 71615, -6703, -761, -1767, 123692, -2666, -2947, 309794, -6944, -3531, 102554, -16748, -8653, -2963, 37575, -1318, -537, 187634, 58401, 102035, 5145, -935, 201770, 58722, -402, 162244, 583, 445, 103567, -3311, -15698, -6863, 193440, -2569, -3542, -1387, 58294, 298, 93333, 60621, -18866, 166952, 192860, -116, -3427, 113233, 62518, 91313, -1503, -6495, -825, 65454, 210957, -11681, -33, 1630, -600, -2433, 17520, -769, 120979, 78784, -77, 88240, 11905, 334, -2359, 101799, -1991, 185074, -4594, 145634, 91075, -126, 63822, 195331, -2077, 98713, 147357, -4217, -1631, 108812, -95, 174826, -1835, 3358, -3986, 158099, -1192, 159184, -2472, -144}
#define CONV26_WT {0}
#define CONV26_W_Z 	 (137)
#define CONV26_IN_Z      	(0)
#define CONV26_OUT_Z     	(0)
#define CONV26_M_ZERO 	(1431657856)
#define CONV26_N_ZERO 	 (1)


/* Layer 27 Learned Parameters */
#define CONV27_BIAS \
 {41380, 11140, 6358, 8637, 29897, 58139, 2082, 35922, -40946, -18152, -4897, 9581, 18258, -13904, 8614, 3189, 1226, -1306, 1947, 11919, 26711, 24223, -35575, 12948, 16165, -11864, -20796, 22682, -8791, 12306, -20864, -13412, -14585, 23194, 43237, 14529, 30670, -19615, 25369, 1098, 18193, 26090, 12345, -5200, 5334, 11261, 21402, 29711, 4991, 27772, -14753, -18648, 64977, 6673, 42995, 40405, -4471, 4433, -22594, 25821, -9634, 4327, -12239, -2705, 32293, 14209, 5873, -6745, 21566, 17554, -4182, 10677, 4753, 24330, -13135, 48178, -18161, -8069, 31992, -17873, -13215, 14752, 17240, -32075, -4924, 1674, -67557, 37781, 14942, 23636, 31053, 12802, 30753, 29159, -15936, 22977, 22652, 4066, -35957, -19028, 5113, 55084, -26661, -4562, -2516, 15403, 35735, 30195, 20851, 15606, -27044, 5631, 69093, 15187, 74573, 6564, 13991, 68416, 5109, -6130, 4352, -10429, 8918, -16644, -5880, -2954, -20725, 5861, -8434, 10593, -33441, -5740, -59924, -13917, 45699, 22897, 15807, 11323, 7336, -3681, -6439, 33008, -16938, 4817, 20685, -38896, 27317, 35643, 17923, -5640, 9163, -40779, 350, -11941, 11673, 1910, 9429, 7997, 11007, -9985, 7185, 15512, -18069, -12617, -10629, -3748, 2986, 2579, -727, 6553, -20933, 26311, -11371, 10531, -22161, -2299, 36646, 53666, -2116, -13636, -40105, -15681, 30890, 13106, -5987, 37102, 7159, -70616, 7388, -27825, -8530, 39049, 984, 8335, 19672, -22056, 29904, 12649, -16569, -35127, 8486, -14675, 5413, 31952, 55398, -29024, 10866, -7363, 38511, -635, 12709, 17134, 8991, -19186, 16196, 23824, 6339, 30293, 25353, 14777, 9017, -33974, -19829, -15393, 22436, 4408, 22317, -3862, 3204, 22544, -1405, -635, 6980, 355, 823, -30274, -4546, 5227, 35072, 9029, 13209, 29093, -4005, -11114, -27132, -22531, 32943, 32493, 25167, -16159, -3477, -10535, -4016, -31205, 37887, 8332, -9149, -14709, 13303, -59162, 26468, 20959, 4902, -15918, 1557, -2438, 18087, 36292, 6930, 17094, -6065, 44602, 44337, 11974, -8984, 23542, 27186, -5719, -39575, -3434, 15315, 20423, -2175, 35697, -35, -7857, 41386, 39053, 7075, 25765, 893, 13596, 60502, -6748, 3211, 22755, -17754, -1658, 5648, 38007, -5246, -7275, -16215, 16030, -3053, 4101, 28968, 18522, 52635, 43768, -19458, 6960, 4529, 16723, 13686, -31153, -61627, 46587, 20819, -26755, 6773, 17637, 26242, 11884, -23614, 883, -2931, -11236, -6897, -14263, 13845, -521, -1813, -16308, 16563, -455, 12838, 12546, 32491, 15722, 6921, 47886, -26503, 25597, 4653, 16094, 28348, -13606, -2066, 11851, 34361, 33475, 23101, 11192, 30198, -13685, 9422, 2944, -9941, 9204, 50273, 10140, -12184, -8450, -45989, 16614, -23333, 15322, -30865, -49711, 19560, 7504, 18083, -3325, 24892, 31022, 9783, 10435, 7592, 1332, 7525, -9536, 4885, -10599, -24099, 6698, 32292, 40048, -22465, 27988, 10547, 619, -15199, 7046, 11779, 1203, -5995, 25437, 17252, -24723, 1632, -19616, 30553, 10485, -11054, 61309, 5557, -17413, -26095, -24296, -21581, -31495, 13794, 21404, 14460, 25130, -24611, -19263, 29145, -26535, -31555, 3464, 26537, 18576, 13349, -21621, 26935, 4405, -427, 74708, 7684, -15125, 30476, -14886, 10370, 4408, 23521, 22043, -5417, 36122, -11911, 27030, 4593, -10562, -24016, 22524, 7607, -6720, -51, 32364, 17037, -37540, -3607, 4822, -12082, 45447, 10248, 36418, -29611, 11816, 5303, 9938, 6786, 8059, 25879, 2486, 12580, 6176, -47321, -13181, 4147, -15768, 19353, 23967, -11095, 7527, 38605, 7663, -14628, 31401, 44693, -7925, 7631, -13209, -23993, 25343, 937, -3534, 9834, 5945, 16825, 30909, 124, -33014, 44389, 8346, 43687, 36484, 2194, 28923, -5514, 37352, -4370, 10060, -14090, 2098, -38597, 8428, 13538, 41959, -4872, -1652}
#define CONV27_WT {0}
#define CONV27_W_Z 	 (137)
#define CONV27_IN_Z      	(0)
#define CONV27_OUT_Z     	(0)
#define CONV27_M_ZERO 	(1431657856)
#define CONV27_N_ZERO 	 (1)


/* Layer 28 Learned Parameters */
#define FC28_WT \
{0}
#define FC28_BIAS \
 {-3027, 1549, -10725, -8218, 1443, 1517, -315, 5692, 1631, -2793, -5492, -6148, -4192, -2585, -4735, -2968, -2848, -3225, 856, -3698, -765, 3022, 1515, -281, 915, 348, 5052, -2511, 4452, 1329, 4627, 3717, 2634, -4801, -868, -9001, -403, -1862, 1189, 275, 399, 3159, -3456, -5451, 5610, 2517, 2271, -1625, -5929, -5148, 600, -2679, 1806, 5624, 479, -2554, 1854, -2308, 652, 701, -2616, 5173, 210, 5548, 2434, 688, -8161, -6313, -34, 3783, -4413, 3650, 1879, -409, -5123, 8182, 2067, 3045, 6317, 4927, -7756, -815, -379, -14213, -2767, 613, -8413, 2628, 2097, 5865, -5268, -5776, -1519, -2005, -1706, -5750, 411, -4342, -11948, -6064, -2804, -8688, 1558, 1664, 3086, 41, 4340, -4178, -4687, -8288, -4921, 8509, 850, -1764, 892, -17417, -1169, 1616, 811, -1230, -663, -2288, 126, -2134, -2357, -4830, -4042, -7137, -7170, -4203, -3758, -5023, -1513, -1741, -8500, -6717, -6975, -9320, -8867, -5424, -8176, -3423, -7487, -5579, -5897, -7247, -1633, -9099, -4734, -1879, -1445, 7809, -15434, 2368, 1848, 6101, 3535, -4325, -4910, -1811, 1427, 9663, 10810, 2738, 761, -2088, -931, -8401, 3682, -2609, 1615, 9229, 287, -2085, 7411, -7637, 1920, -354, 5098, 3290, 4412, -1383, 9326, 1823, 4592, 4906, 2207, 2560, -2465, 2388, -2169, 5865, 3905, -4367, -1639, 8561, 4868, 3050, -2152, 6974, -7302, 1429, 5950, 5747, 5862, -3349, -5179, -1257, -1192, 5197, -5113, -1096, 2936, -519, 2950, -550, -1152, 8723, 1753, 3757, -2110, -3061, 427, 10521, -7307, 5803, 194, -3541, -6631, 6951, -324, -6516, -142, 5700, 3429, 2815, 1001, 8027, 3360, 8351, -190, -2999, 4595, -656, 617, 6781, -1764, 7522, 789, -727, 2730, 5644, 1457, -3242, 11935, -1090, 1547, 2433, 1014, -1337, 4503, -1151, -2953, 3920, 2597, 5201, 3349, -4227, -8417, 2826, 2457, -1579, 1385, -243, -6892, -6667, -3837, -1127, -5443, 2904, 506, 9646, -3415, -1862, 2832, 1573, 5823, -393, -2687, -1349, -596, -9019, -1642, -5299, -3752, -1500, 1491, -2020, -357, 2844, -4932, -5497, -3203, -2114, -8762, 3457, 4330, -7138, -2264, -4944, -1963, -2561, 2149, 8793, 6022, 3890, -1152, -2486, 1956, -4072, -4065, -9982, -11037, -8097, -5510, -9777, -9476, -4912, -2749, -2265, -1134, -1968, 4560, 894, -710, -1000, 1764, -1922, -5568, 267, -1557, -1094, -2820, -4300, -6220, -4483, 1481, -2303, -2533, -2254, 605, -9007, -8287, -3764, 2463, -3111, -793, -5058, 2882, 4016, -3083, 3861, -390, 545, -1162, 1041, 1831, 3895, -3473, 2845, -4402, -6577, -2290, 3392, -809, -5022, 1161, -1582, -2088, 2264, -1767, 1917, 4713, 2949, -1877, -754, -3680, -3583, -2228, 1536, -4318, 1010, -9437, -5069, -1210, -2921, -5700, -3917, -4821, 6282, -3234, 5906, -170, 1778, -10053, 1983, -3350, -4433, -10279, -5416, -134, -2972, 7109, 5761, 6810, -1042, 4707, -2054, 1298, 2759, -345, 3312, -770, 9514, 7018, 577, -11051, -3391, 4598, 385, 437, -280, 549, -1698, 123, 2367, 3390, -2602, 610, -4080, 3987, 107, 3255, -1340, 1708, 8319, 2555, -1503, 5404, 362, 3712, 2143, 2877, 1806, 4282, 74, 4345, 1574, -4349, 6316, -4619, 4868, 1365, 2539, 10920, 4530, 229, -3046, 6098, -2346, 4482, -1930, -4151, 5558, -2728, 5432, -4257, 5071, -2096, -2457, 1749, 1519, 2713, -5241, -9156, 1592, 1769, 4631, 1987, -137, -5156, -389, 2606, -5293, -2653, -6350, -23, -9734, 1707, 2279, -2156, 2315, -835, 1111, 1865, 1975, -1349, -1592, 1697, -3129, -7088, 343, 378, 2190, 1692, 3523, 1704, -2903, -629, 7128, -2549, 1162, 1099, 11064, 1800, -2073, 3456, -1328, -556, 6367, 2507, -6338, 844, 260, 1503, -685, -5129, 2783, -1360, 6623, -8093, -2378, 5379, 2560, -314, 8260, -411, -11122, -7820, 7169, -2050, 315, 2535, -1469, -3183, -2507, -3015, 2486, 676, 413, -1966, -3556, -324, 6688, -6663, -685, -2782, 1735, 5964, -418, -12, -2216, 33, 1331, 3241, 238, 2505, 6324, -2162, 4109, -1633, 513, -415, -733, 4716, 3416, -5563, 8076, 6333, 5864, -323, -280, 192, 3512, 3522, -12701, 2122, 6592, -5853, 3352, 4637, 128, 3272, 3977, -3247, 796, 4066, -2813, 6930, -1596, 5433, -3030, -621, -2880, 605, 0, 3975, 1573, 4092, -4095, 5959, 5269, -9, 7401, -524, -2193, 4597, 5762, -5598, 1113, 6244, -1615, 7592, 2318, 2817, 1789, 4717, 374, 343, -7596, -9216, 414, 4314, -400, 3030, -1954, 4102, 567, -1374, 829, 10348, -1265, 2083, -457, 6541, 6573, 4499, 303, 1572, 3924, 5428, -4284, 4631, 1110, 1711, 8177, 4639, -2426, -4526, -214, 4655, 7970, 254, 2790, 1323, -2523, -7247, 4843, 6696, 3039, 1839, 3243, 1044, 6567, 1956, 1174, 4240, -2359, -6670, -6698, -5598, 123, 9278, -11021, -2669, 5589, 1587, 1588, 1973, -821, 1114, -3449, 3, 1666, 7692, -5839, 6520, 2061, -5766, -1163, -1520, 697, 2005, 4033, 2397, 810, 9107, -6471, 1020, 9281, 1886, 142, 1852, -1330, -5163, -1989, 6837, 507, -83, -2246, -5721, 3547, 3123, -500, -3248, -1912, 2806, -644, 3602, 4783, -318, 534, -1256, 2254, -2581, 1827, 1135, 4322, 1943, 6937, 2525, 4410, 5872, 307, -1066, -4215, 5242, -2392, -1977, -2217, 4870, 5071, -1819, 4750, 7501, 3110, -2606, 3879, -5943, 7104, 4491, -7011, 987, -442, 5081, 1104, 5795, 12066, -5296, -3685, -5934, -2223, -2508, 4418, 675, 3303, 780, -980, 4536, -3198, -8727, 9501, -2386, 1874, 2230, -2667, 1847, 5167, 719, 7806, -1202, -2599, -1555, -4875, -1219, 2583, -2882, 916, 2195, -686, -5393, -6659, -1760, -2175, -4775, -5259, 2596, -1574, 136, 3327, -5422, -1624, 5526, 9706, 4446, 1495, -1226, -5582, 4615, -3253, 7787, 2730, -1901, -1945, 10903, -3779, 4821, 6675, 5292, -972, -1231, 4386, 5789, 4237, 2458, 8486, -3304, -1030, 5169, 1202, 6808, -3868, 1563, 3370, -6274, 4673, -10589, -1277, 6584, 3258, -2804, 3215, -1467, 3355, -3441, -1187, -2879, -2561, 3414, -2455, 3718, -7690, 4375, -2371, -5762, 746, 3474, 212, -7291, 7023, 9898, 626, 2380, -1469, 820, 19682, -9637, -4901, 261, 1435, 854, 3379, 1490, 5961, 112, -2544, 2149, 1403, 4809, -3200, -3658, -2186, 614, 8216, 7539, 5805, 5641, 3934, -4188, 2872, -3738, 7234, -4831, -974, -3124, -2632, -268, 1898, 948, 7672, 420, -3685, 3488, 1962, -6103, -2379, -6008, 1088, 901, 6105, 459, -2955, 135, -3954, -103, -8114, 5435, -5051, -3878, -3787, -4048, -2277, -1305, -8430, -5269, -135, -6834, -5938, -2850, -1621, -4868, -5045, -442, 3330, 3841, 215, -1243, -5186, -225, -9183, 3138, 300, -2978, -2640, -7885, 2168, 5585, 2675, -1497, -2405, -75, 9004, 1459, -7863, -348, 3905, 2061, 6240, -693, -6232, 258, 4366, 6885, -7522, -5738, 796, -7429, -3544, -3288, -4965, -644, -5894, -3690, -11492, -3420, -7613, -2434, -4025, -5582, 393}
#define FC28_W_Z       	(170)
#define FC28_IN_Z      	(0)


#endif /*__160_0_5_WEIGHTS_BIAS_H__*/
