#ifndef __192_0_25_WEIGHTS_BIAS_H__
#define __192_0_25_WEIGHTS_BIAS_H__


/* Layer 1 Learned Parameters */
#define CONV1_BIAS \
 {-6068730, -5528332, 194244, 78301, 580909, 194111, 678461, 228207}
#define CONV1_WT {0}
#define CONV1_W_Z 	 (137)
#define CONV1_IN_Z      	(127)
#define CONV1_OUT_Z     	(0)
#define CONV1_M_ZERO 	(1431657856)
#define CONV1_N_ZERO 	 (1)


/* Layer 2 Learned Parameters */
#define CONV2_BIAS \
 {-327, -1109, -9870, 146234, -9424, 36594, -4477, -4781}
#define CONV2_WT {0}
#define CONV2_W_Z 	 (137)
#define CONV2_IN_Z      	(0)
#define CONV2_OUT_Z     	(0)
#define CONV2_M_ZERO 	(1431657856)
#define CONV2_N_ZERO 	 (1)


/* Layer 3 Learned Parameters */
#define CONV3_BIAS \
 {-28126, -1649339, 58918, 62625, -44514, 13539, 17912, -14892, 68082, -36893, -15712, 6517, -49754, 12648, -16494, 71591}
#define CONV3_WT {0}
#define CONV3_W_Z 	 (137)
#define CONV3_IN_Z      	(0)
#define CONV3_OUT_Z     	(0)
#define CONV3_M_ZERO 	(1431657856)
#define CONV3_N_ZERO 	 (1)


/* Layer 4 Learned Parameters */
#define CONV4_BIAS \
 {2515, -314, 3127, 29114, 22931, 2623, 94997, 131652, 4936, 398, -1591, 2821, -1184, 12133, 15679, 17874}
#define CONV4_WT {0}
#define CONV4_W_Z 	 (137)
#define CONV4_IN_Z      	(0)
#define CONV4_OUT_Z     	(0)
#define CONV4_M_ZERO 	(1431657856)
#define CONV4_N_ZERO 	 (1)


/* Layer 5 Learned Parameters */
#define CONV5_BIAS \
 {33494, -62710, 7805, -20201, 5439, 25471, 16142, -11333, 7260, -10304, 56121, -93535, 46916, 40187, 32815, 35990, -4298, 89657, 32606, -6762, -54375, 34505, 24881, -79875, 55584, 5837, 77368, 7172, -11897, 32833, 173633, 5030}
#define CONV5_WT {0}
#define CONV5_W_Z 	 (137)
#define CONV5_IN_Z      	(0)
#define CONV5_OUT_Z     	(0)
#define CONV5_M_ZERO 	(1431657856)
#define CONV5_N_ZERO 	 (1)


/* Layer 6 Learned Parameters */
#define CONV6_BIAS \
 {3097, 19433, 56118, -64, 71, 18218, 164, 11399, 24254, 109, 226, 452, -2473, 17495, -247, 19883, 1470, 24838, 92, 643, -60, -754, 8008, 13333, 36470, -399, 39193, 340, 22411, 8682, -92759, 247}
#define CONV6_WT {0}
#define CONV6_W_Z 	 (137)
#define CONV6_IN_Z      	(0)
#define CONV6_OUT_Z     	(0)
#define CONV6_M_ZERO 	(1431657856)
#define CONV6_N_ZERO 	 (1)


/* Layer 7 Learned Parameters */
#define CONV7_BIAS \
 {231, 4039, -58116, -12551, 33013, 41734, 53543, 7132, 21568, 12278, 1479, 15793, 41819, 18211, -14372, 9987, 8385, -47110, 26773, 11630, -3052, 14364, 59343, 17051, -8911, 20040, -67156, -2353, -17778, 4972, 81611, -19944}
#define CONV7_WT {0}
#define CONV7_W_Z 	 (137)
#define CONV7_IN_Z      	(0)
#define CONV7_OUT_Z     	(0)
#define CONV7_M_ZERO 	(1431657856)
#define CONV7_N_ZERO 	 (1)


/* Layer 8 Learned Parameters */
#define CONV8_BIAS \
 {656, 114721, 3008, 4678, 169169, 250999, 18598, -26153, 338782, 1249, 201236, 33519, 14696, 249231, 24353, -701, 174756, 3289, 273261, -104124, 2981, 177166, 188411, 110215, 54657, 135710, 33851, 128234, 8881, 12672, 178600, 17259}
#define CONV8_WT {0}
#define CONV8_W_Z 	 (137)
#define CONV8_IN_Z      	(0)
#define CONV8_OUT_Z     	(0)
#define CONV8_M_ZERO 	(1431657856)
#define CONV8_N_ZERO 	 (1)


/* Layer 9 Learned Parameters */
#define CONV9_BIAS \
 {-26298, 30106, 1474, -4327, -29049, 7056, 22612, 21360, -41566, 9886, 53592, 38253, -15035, 32584, -18974, -49698, -18983, -1749, 53706, 24051, 26952, -3018, 126141, 36266, 32364, -23560, 29585, 20609, 26124, -31591, 35177, 48186, 31397, 70045, 108500, 65344, 26124, -12411, 53678, 2633, 88466, 1151, -11495, 32980, 31003, -16532, 11969, 79378, -21031, 53525, 40389, 60585, 53564, 56963, -29733, 97571, 58127, 36363, 12942, 9688, 15844, 14603, -24049, 62597}
#define CONV9_WT {0}
#define CONV9_W_Z 	 (137)
#define CONV9_IN_Z      	(0)
#define CONV9_OUT_Z     	(0)
#define CONV9_M_ZERO 	(1431657856)
#define CONV9_N_ZERO 	 (1)


/* Layer 10 Learned Parameters */
#define CONV10_BIAS \
 {-1396, 124, 9350, 2686, 47096, 93201, -2808, 22496, 59679, -2783, 18502, -8941, 28783, -7063, 93834, 58830, 19553, 4775, 22932, 4601, 30353, -6003, -17306, 69665, 24092, -19273, 2373, 19956, -9717, 68866, 46327, 1977, 10475, 260, -5062, 82956, -8223, 67534, 398, 40055, 2927, 20589, 47110, -97, 3847, -5156, 1801, 591, -4975, 893, 2006, 73964, 33198, -27522, -6610, -12117, 6220, 33454, 31088, 66, 29216, 68888, 255, 21472}
#define CONV10_WT {0}
#define CONV10_W_Z 	 (137)
#define CONV10_IN_Z      	(0)
#define CONV10_OUT_Z     	(0)
#define CONV10_M_ZERO 	(1431657856)
#define CONV10_N_ZERO 	 (1)


/* Layer 11 Learned Parameters */
#define CONV11_BIAS \
 {13618, 4070, 10939, -12180, 6311, 2210, 112108, 37221, -12061, 50981, -3221, -6116, 5609, 11575, 38546, 19433, 2701, -4548, -27654, 29088, -27413, -33592, 15439, -12817, 847, 17888, -36912, -30195, 23741, -16294, 47258, -681, -58975, 25111, 35618, -32243, -5086, 16062, -42091, 20391, 21425, 39767, 91897, 11416, 19527, -49721, -32797, 29211, -16246, 19735, 7076, 7319, 10145, -13727, 39854, 2612, 31175, 26999, 22660, 3303, 16175, 32449, -11830, -44853}
#define CONV11_WT {0}
#define CONV11_W_Z 	 (137)
#define CONV11_IN_Z      	(0)
#define CONV11_OUT_Z     	(0)
#define CONV11_M_ZERO 	(1431657856)
#define CONV11_N_ZERO 	 (1)


/* Layer 12 Learned Parameters */
#define CONV12_BIAS \
 {138775, 13623, 151839, 10753, 8265, 268204, -182, 122, 275831, 121265, -356, 129066, 131881, 9597, 63643, 311009, 226458, 119606, 174188, 339863, -1669, 7684, 9483, 84360, 190322, 96982, 2697, -1821, -21919, 67352, 175233, 236833, 3173, 2055, 6991, 21680, 1774, 566, -629, 158296, 117721, 150845, 201680, -575, 300387, 42042, 661, -49060, 63914, 110268, 13250, 1802, 114100, 569, 644, 4738, -775, 276629, 119029, 12, 121359, 129871, 1583, 798}
#define CONV12_WT {0}
#define CONV12_W_Z 	 (137)
#define CONV12_IN_Z      	(0)
#define CONV12_OUT_Z     	(0)
#define CONV12_M_ZERO 	(1431657856)
#define CONV12_N_ZERO 	 (1)


/* Layer 13 Learned Parameters */
#define CONV13_BIAS \
 {64263, 74888, 18094, 26109, 20438, 38985, 110348, 1164, 14567, 13811, 10528, 55938, -9098, 997, -658, 29662, 12706, 790, -35852, 23001, 25164, 96480, -39880, 26776, -8807, 99683, 16401, 102226, 97662, 52974, 32017, -1279, 13586, -38182, 55417, -47036, 79538, 54736, 95330, 25190, -10157, 371, 25866, -353, 74119, 7125, -25702, 57979, 22334, 38864, 12488, -16123, 69863, 100804, -3825, 99882, 10273, -4253, -25005, 5900, -11631, -6653, 54725, 37200, 64515, 133094, -11174, 27159, 23938, 16455, 6119, 15306, 15567, 1760, -45463, 4101, 2068, 23273, 28198, 94553, 53705, 57015, 28387, 8966, 33917, 46111, 29449, 3218, -4158, 26799, 18959, 47839, 6760, 23077, 11597, 33167, 45821, 31784, 40279, -9877, 1423, -107, -26535, 85765, 23115, 67369, 3843, -5240, 13669, 64082, 4705, 138208, 25400, 46745, 69404, -4988, 32258, -5194, -7768, -2382, -7638, 27124, -3010, 52487, 39028, 123781, 33326, 24006}
#define CONV13_WT {0}
#define CONV13_W_Z 	 (137)
#define CONV13_IN_Z      	(0)
#define CONV13_OUT_Z     	(0)
#define CONV13_M_ZERO 	(1431657856)
#define CONV13_N_ZERO 	 (1)


/* Layer 14 Learned Parameters */
#define CONV14_BIAS \
 {33855, 24115, -15069, -596, 8888, 29394, -592, 3706, 2187, 93734, -8384, 308, 54, 227, -6175, 25967, 29086, 9330, 1872, 184577, -15581, -2042, 19510, 39487, -5793, 10220, 17153, 1285, 173, -6200, 45088, 159, 32099, -4515, -376, 9118, -423, 472, -446, 62103, 395, 404, 10905, 45096, 153588, 1436, 57633, 10687, -25511, 1377, 48051, 283, 12695, -576, 180, 5587, 1333, 268115, 1163, 37343, 514, 52660, -4550, -2301, -113, -8163, 121, -532, 98893, 537, 511, 60230, 29309, 62, -12014, 763, 99, 1700, -298, -903, -1201, 33021, 682, 89975, 25401, 143, 22821, 96, 30843, 39981, -124, -72, 308, 11664, 39914, 7133, -13731, 26528, 368371, -2140, 243, 42311, 193982, -5262, 30408, -10282, 61719, 899, -7410, 794, -400, -358, 4057, -11878, 56367, 113041, 2824, -742, 10778, -1850, 15230, 3024, 71773, 8968, 34945, 3872, -2238, -9828}
#define CONV14_WT {0}
#define CONV14_W_Z 	 (137)
#define CONV14_IN_Z      	(0)
#define CONV14_OUT_Z     	(0)
#define CONV14_M_ZERO 	(1431657856)
#define CONV14_N_ZERO 	 (1)


/* Layer 15 Learned Parameters */
#define CONV15_BIAS \
 {29321, -15947, -31140, 14563, 3459, 1712, 19209, 42232, -12605, -18024, -20282, -9732, -8169, 15640, -1188, -1235, 42012, 24378, 47220, 40961, 17982, -8338, 109466, 3030, 13784, 9173, -7662, -12643, 9320, 24260, 2948, 17054, -43959, 1165, 43116, -12011, 4011, 90, -16623, 50666, 29471, 5599, 668, 48052, 42435, 89082, 21712, 14351, -47210, 9039, -1581, 77228, 137803, 54184, 46949, 58838, 14502, -61349, 34895, 12350, 41492, -5167, -14881, -22384, 21189, 31658, 19983, -4536, 55964, 22657, -15487, 93688, 17194, -26537, 16501, 9682, -8995, 6166, 9576, 8336, 12957, -23334, 28061, 41538, -30397, -6773, 7568, 32811, 18416, 10598, -956, 19852, -12306, 103077, 16163, -37561, 48580, 1189, -10394, -34550, 5700, 30392, -26457, 43854, 24287, 11080, -1594, -32256, 35651, 7321, -40608, 35123, -2270, 3185, 12434, 10275, -1313, 7000, -9592, -37354, 6187, 31575, -25362, 12357, 54616, 102757, -50462, -3378}
#define CONV15_WT {0}
#define CONV15_W_Z 	 (137)
#define CONV15_IN_Z      	(0)
#define CONV15_OUT_Z     	(0)
#define CONV15_M_ZERO 	(1431657856)
#define CONV15_N_ZERO 	 (1)


/* Layer 16 Learned Parameters */
#define CONV16_BIAS \
 {31515, 53428, 11377, 16020, 37, 89183, 5269, 2874, 47827, -10880, 148357, 4019, 9500, 225, -4401, -108, -17411, 1519, 1695, 3210, 4527, 9999, 16065, 6203, -746, 3904, 17397, 26154, 1429, -15597, 40587, -1418, 10551, 255, 1091, 146905, -26027, -35041, -39691, 40521, -1477, 60730, 13071, -4203, -5082, -26, 4656, 17812, -5010, 8194, -1694, 105685, 18606, -13990, 7506, -2326, -10087, -2710, -9516, -945, -4612, 23007, 75731, 8656, -326, 4240, 18576, 85504, -3145, 46374, -33941, 38612, 2870, -25205, 2451, -25701, 862, -6655, 32601, 13004, 142087, 10683, -26516, -13006, 47304, -8209, 6949, -569, 28269, 74392, 26739, 24773, -3041, 15664, 35209, 1191, -20277, -10302, 104479, -14502, -5927, 14924, -1563, -8118, 5667, 65259, 43077, -12030, 40207, 10, -16302, 15990, 158908, 28695, 59029, -5144, 40422, -15903, -761, 68503, -64, -12460, -15197, 6571, -6171, -197, 128, 51713}
#define CONV16_WT {0}
#define CONV16_W_Z 	 (137)
#define CONV16_IN_Z      	(0)
#define CONV16_OUT_Z     	(0)
#define CONV16_M_ZERO 	(1431657856)
#define CONV16_N_ZERO 	 (1)


/* Layer 17 Learned Parameters */
#define CONV17_BIAS \
 {-4592, 35293, 36632, -3370, 18732, 92080, 33813, -5463, -4325, 15222, 56596, -16458, 43744, -20171, 3229, -35982, 15041, -6385, -4564, 74, 23258, 77030, 32407, 5693, -1292, -41880, -6944, -14949, -45907, 3060, 25032, 14894, -15152, 14179, 15618, -19490, 62561, -2477, 23622, 23889, -1619, 31940, 80861, 26373, 18132, 71077, 141, 9874, 1164, 64587, 22339, 120093, 17318, 37191, -1770, -25946, 14239, 25724, 80114, 15384, -1878, 26496, -70815, -79350, -27887, 9138, -43062, -23411, 54286, 16388, 21171, 23187, 4125, 94642, 32282, 31931, 44929, 36440, 15235, -27482, -2546, -27616, 52547, 49733, 60961, -5612, 24652, 61810, 12629, 82311, 29710, 98738, -18396, -22039, 43698, 44278, 32759, -32414, 86446, 9406, 44, 7541, 42736, 2364, 21351, 11925, 30051, 49148, -13305, -10902, -13379, 78194, 43075, 14229, 39259, 5635, 10764, -8070, 64278, 28309, 70897, 23846, 15083, 51069, -3312, 14344, -3788, -16603}
#define CONV17_WT {0}
#define CONV17_W_Z 	 (137)
#define CONV17_IN_Z      	(0)
#define CONV17_OUT_Z     	(0)
#define CONV17_M_ZERO 	(1431657856)
#define CONV17_N_ZERO 	 (1)


/* Layer 18 Learned Parameters */
#define CONV18_BIAS \
 {-2668, -12885, 3685, -19114, -23777, -16136, -3542, 82006, 8991, 32979, -5357, -24983, -14179, 4282, -23577, -23518, 31124, 26744, -2869, 17213, 69735, 17848, 269391, -28107, -4158, -398, -10894, 85804, -2757, 19363, -6029, 8835, 384, 7583, 78805, -8093, -5583, -4613, 49559, -10646, -4477, 65400, 32960, -2549, -585, 28559, 31322, -16591, 18158, -21076, -13846, -3138, 64379, -270, 50699, 10248, 41435, 271677, 2075, -3884, 16335, 45936, 46353, 128327, 43609, -7842, 24934, -3968, 80153, -5498, 24246, -3900, 13306, 1003, -10199, -2924, -15562, 46971, 28304, 30948, 1962, -16406, -8612, -3594, 18502, 21, 51817, -14043, -14418, 10205, 1347, -16494, -14129, -21179, -7787, 46803, -3802, 52726, 3452, 28660, -1536, -2037, 35329, -9366, 11921, 18502, 58475, 28395, -11228, 38710, 5124, 40255, -22460, -13517, 98376, -1824, 38494, 87647, 40449, 17015, 5832, 39033, -16743, 5170, 93839, -6618, -9829, -6169}
#define CONV18_WT {0}
#define CONV18_W_Z 	 (137)
#define CONV18_IN_Z      	(0)
#define CONV18_OUT_Z     	(0)
#define CONV18_M_ZERO 	(1431657856)
#define CONV18_N_ZERO 	 (1)


/* Layer 19 Learned Parameters */
#define CONV19_BIAS \
 {7239, -939, -6068, -40957, -19956, -5571, 62652, 27865, -26979, 12142, 16412, 50110, 32029, -21936, 1566, -27761, -66444, 1244, 21334, -20129, -24259, -58245, -91102, -35770, -399, -19118, -25218, -14673, -31515, 23081, 21751, 46890, 63092, 70835, 55787, 6778, 15610, 34846, 67550, 44587, 17206, 34971, -6128, -4107, 24224, 10009, 7214, 31558, 28668, 74214, 12247, 45308, -59240, 9100, 27219, 18309, -56386, 14970, 35908, 826, 66633, -28173, -23309, 31117, 64008, -5496, 15328, 24233, 25628, 23401, 16294, 89805, 31345, 51346, 10488, 40568, -4600, 8462, -7232, 19738, 23114, 36569, 43078, 59451, 36041, -30235, 21408, 51144, -39266, 28486, 24512, 44795, 85875, -7555, -11200, 41767, 8737, -7057, -17473, -3828, 32042, 34712, -2269, -6681, -7269, -2048, 17401, 40473, -17912, -13992, 32944, 20651, 54399, 26342, 14530, 2046, -4765, -3864, 7915, 29728, -25549, 4595, 31659, -13541, -28533, 13100, 43638, 24740}
#define CONV19_WT {0}
#define CONV19_W_Z 	 (137)
#define CONV19_IN_Z      	(0)
#define CONV19_OUT_Z     	(0)
#define CONV19_M_ZERO 	(1431657856)
#define CONV19_N_ZERO 	 (1)


/* Layer 20 Learned Parameters */
#define CONV20_BIAS \
 {-19050, -12987, -34670, -26363, -5762, -12953, 957, -1916, -4174, -26959, -2596, -20, -2964, -3601, 7161, -235, 226924, -29232, 5920, -5243, -4529, -2102, -17761, -34892, -5251, 174439, -6321, -40, 3916, -10531, 103109, 1283, 27483, 17261, 57569, -47422, 33711, 907, 4297, 24697, 2003, 34935, -24660, 52762, -8035, 83153, -49168, -25977, -7349, 27865, -19405, 755, -1794, 11719, -23220, 3270, -337, 79352, 17373, -12026, 33005, -18127, -1481, 44785, 60710, -509, 17466, -10457, 3800, 127422, -13935, -11768, 45617, -173, -8115, 7618, -32940, 37525, 48965, -6176, -5633, 68978, 25023, 73858, 34995, -4185, -11829, 20409, 139988, -1013, 10617, 41064, 33763, -572, 31747, 51907, -13963, -6096, 84551, 42655, 18451, 56981, 23502, 10089, -14336, -15947, -1766, -14235, 16483, 37848, 28286, -10096, 31243, 33100, 42995, 83818, 39489, 7841, 91749, -15079, 257567, 28287, 71388, -3419, -19447, 7152, 329, 3285}
#define CONV20_WT {0}
#define CONV20_W_Z 	 (137)
#define CONV20_IN_Z      	(0)
#define CONV20_OUT_Z     	(0)
#define CONV20_M_ZERO 	(1431657856)
#define CONV20_N_ZERO 	 (1)


/* Layer 21 Learned Parameters */
#define CONV21_BIAS \
 {13748, -5458, 43873, -20441, 60472, 20468, -7352, -1095, 85051, 31126, -19450, 2655, 21969, 48171, 20989, -16996, 15431, 80752, -18424, 30638, 8727, 19582, 19458, -48775, -25280, 37204, -13440, 4685, -38418, -6414, 7164, -4911, -27955, 26656, -6613, -27962, -34914, 7968, 30577, -31775, 1322, 53889, 24424, -20156, 84280, -19034, -13770, 36534, -42043, -4306, 18832, -41140, 26021, -66895, -58016, -41202, 16986, 73106, 8918, 19565, -26076, -24086, -11187, 37784, -16848, -13177, -68557, -29527, 28668, -24719, 43208, -4301, 10317, 30006, -57410, 7769, -12986, -4844, -11629, 15878, 39485, 44846, 43890, 11779, -56452, 4567, -18862, -17333, -12557, 44039, -18770, -20306, -32550, 8128, -3266, 35123, 35458, -20930, 98200, -51599, 5818, 39816, 2358, 8492, -9581, 83347, 1374, -6829, 28111, 66308, 8468, 2812, -49285, -10324, 24053, -12592, -15383, -23193, 22021, 51823, 8018, -20766, 23668, -6312, -41215, -4430, 5105, 6645}
#define CONV21_WT {0}
#define CONV21_W_Z 	 (137)
#define CONV21_IN_Z      	(0)
#define CONV21_OUT_Z     	(0)
#define CONV21_M_ZERO 	(1431657856)
#define CONV21_N_ZERO 	 (1)


/* Layer 22 Learned Parameters */
#define CONV22_BIAS \
 {65385, -11248, 41718, 2546, 81541, 231842, -2811, -4189, 23316, -11236, 42416, -3144, 73799, -3469, -6695, -13186, -2213, 44223, 94252, 323, -4890, -804, -10748, 3689, 218564, -11722, 81870, 5078, 888, 254443, 1938, 14224, -8461, -7490, 109115, -42, 102770, -16410, 64157, -2163, -15362, 245510, 1354, 7114, 54852, -1734, -18884, 35262, -14524, -1949, 35647, 368, 243955, 140616, -8882, -24, 81670, 49838, -35, -4288, -17468, -3046, 96722, 67168, 95382, 379, -2815, -2207, 34179, -4637, 55336, -12253, -4987, -19772, -5715, -5290, -2525, 43, 117300, -6365, 3240, 48214, 86259, 130693, 178408, 134883, 21378, -5059, -7032, 142836, 110909, -531, 25949, -17596, 9279, -12238, -227, 34, 37011, -3863, 85291, 19237, 82367, 35024, -22419, 325245, 102359, -5724, -5574, 144747, -1122, 125327, -20005, -1371, 7062, -218, 201503, -4771, 46088, 103436, -1256, -25612, 12392, 120528, 94232, 2762, 92801, -5116}
#define CONV22_WT {0}
#define CONV22_W_Z 	 (137)
#define CONV22_IN_Z      	(0)
#define CONV22_OUT_Z     	(0)
#define CONV22_M_ZERO 	(1431657856)
#define CONV22_N_ZERO 	 (1)


/* Layer 23 Learned Parameters */
#define CONV23_BIAS \
 {-6094, 11101, -36156, -22848, 15994, 211, -63632, -28718, 94168, 1503, -38750, -68723, -29300, 56824, -19591, -52766, 49291, -3025, 86102, -49847, -17101, -8305, 11399, 51256, -15658, 50384, -27311, -52791, -20784, -34750, -7252, -15454, 7041, -28918, 12999, -76092, 37533, -33231, -6265, -20270, 67270, -6674, -39955, 91037, -49699, 12252, -54265, 63928, -15520, -11327, 427, -50930, 16808, 38388, 1377, -13927, -9947, 7358, 83827, 24652, 46373, -3368, -68717, -18916, -51674, 554, -48762, -33647, -6890, 29125, -2899, -16891, -17906, 66902, -39420, 65194, 29945, -17085, 17987, -20181, -16873, -20258, 18810, 1212, -9674, 22383, -51638, 108124, -58152, 12723, -42826, 499, -7414, -15323, 13118, 66681, -584, -13903, -12816, 42367, 2881, -13723, -50542, -39026, 55140, -1838, -27446, 75624, 1148, 980, -43525, -40477, -4915, -60093, -34923, 29026, 21845, 22246, 7150, -20827, 47895, -28345, -4852, 30957, -6622, -20681, 45792, 31040}
#define CONV23_WT {0}
#define CONV23_W_Z 	 (137)
#define CONV23_IN_Z      	(0)
#define CONV23_OUT_Z     	(0)
#define CONV23_M_ZERO 	(1431657856)
#define CONV23_N_ZERO 	 (1)


/* Layer 24 Learned Parameters */
#define CONV24_BIAS \
 {190939, 91159, -685, 185544, 73323, 218071, -358, -982, 100114, 206979, -3147, -94, 532, 86169, 189244, 83, 83388, -19, 95579, -656, -1760, 18296, 148091, 154633, 138572, 88535, -22582, 207346, -631, -588, 81, -1098, 266747, -1737, 196739, -1620, 92027, -632, -88340, 115626, 101883, -662, -24, 98443, -4315, 40988, -196, 158812, -254, 177622, -12797, -393, 81972, 103112, -847, 145326, 548, 35008, 96922, 93681, 93073, 222368, 250, 192957, 3860, 182608, -285, -483, -166, 256374, 202454, 141504, 107744, 97025, 191999, 115670, 569, -145, 430, 167697, 36, -598, 250, 45481, 35891, 7578, 148713, 109128, 1540, -355, -4145, 12270, 168607, -536, -208, 90094, 215381, 153447, -11782, 93390, -3402, 127211, 165351, 215602, 96828, 146365, -755, 117038, 25370, 194191, -1143, -2206, 33444, 1898, -287, 101663, -70521, 145957, 12218, 144207, 226627, -129, 169434, 144792, -62765, -166, 123108, 95956}
#define CONV24_WT {0}
#define CONV24_W_Z 	 (137)
#define CONV24_IN_Z      	(0)
#define CONV24_OUT_Z     	(0)
#define CONV24_M_ZERO 	(1431657856)
#define CONV24_N_ZERO 	 (1)


/* Layer 25 Learned Parameters */
#define CONV25_BIAS \
 {-29274, 10279, 12009, -33019, 27711, 20200, 19095, 74540, 40362, -15524, -49101, -28959, 1470, 23998, 31266, 21515, 17117, 8372, -10275, 58254, -39041, 21878, 18286, -53362, -12240, -24832, 28444, -25536, -63553, -37555, 79220, 49510, 30387, -9851, -13095, -5019, 50598, 4817, 15179, -24755, -9325, 74353, -33447, 16461, 54635, 26158, -95780, -4609, -26275, -22978, -18776, 36112, 25382, -33160, -8597, -52946, -28069, 46773, 6785, 29549, -8870, 4808, 53590, 5813, 6974, -42747, 29271, 56645, -3086, 75243, -14623, -8282, -26223, 2982, -14735, -32244, 7344, 28697, -20345, 53909, -32774, 5130, 10065, 92008, 25109, -41093, -101041, 16733, -44719, -42480, -88382, 48217, -64186, -4723, 6664, -18552, 36201, -69424, -13942, -8677, -22954, -19646, 25386, -9815, -40892, 38186, 2708, -110700, 44900, -16021, -4020, 15325, 5990, -71728, -7521, -11060, 12910, -27452, 27406, 172702, -6816, -15687, 18335, 54833, 44960, 8220, 51612, 13789, 57928, -9990, -30283, -52293, 13131, 5759, -63006, 41692, -11100, -23982, -21101, -55864, 20029, -5779, 122913, 28316, -4417, -8696, 58168, 23763, -25133, 47064, 48341, -34306, 50670, 23, 803, -32296, 884, -70376, -12190, 5136, -36718, -23229, -5956, -9501, 47444, 32497, 24699, 30015, -36570, 35774, 51492, 5191, 31873, 7956, -7779, -27434, -70413, -82654, -10707, 71085, 50093, -12994, 45058, -9123, -35506, 13954, 67424, 12657, -35955, 137, -41748, 10298, 46666, 215, -39984, 13352, 25383, 69642, -90145, -1062, 5855, -22220, -31876, 11642, -6030, 38592, 1604, -23005, 28679, 28258, 44396, 13268, 23277, 52088, 13554, 1965, 39394, 14362, -25325, 16723, -13778, 6799, 23982, 13575, 19899, 12004, -52323, -18711, -2525, 19966, -64697, -35481, 62716, 37833, 43234, 4331, 9818, 82047, 53450, 493, -199, 4530, 38938, -50410, -770, 43012, -7065, 22804, 15751, 64496, 64277, 26897, 4439, 13777, 49015, 20893}
#define CONV25_WT {0}
#define CONV25_W_Z 	 (137)
#define CONV25_IN_Z      	(0)
#define CONV25_OUT_Z     	(0)
#define CONV25_M_ZERO 	(1431657856)
#define CONV25_N_ZERO 	 (1)


/* Layer 26 Learned Parameters */
#define CONV26_BIAS \
 {-2061, -79, 61576, -849, -11467, -4304, 186380, -1808, -2700, -43833, -852, -2211, -890, -1967, 221937, 12878, -44211, 306946, 79751, 221144, -193, -3774, -2685, -1735, 82327, -72, -633, 191144, -1766, -1163, 247522, -1086, 206484, -1419, -5223, 34875, -2745, 116925, 70766, 300184, -49, -2990, -1622, -1325, -2849, -2466, 26334, 122582, 5829, 162779, 112139, -7684, 257299, -799, -22348, -2581, -1402, 97606, 9233, 123494, 62694, 54413, 135774, -2257, -173, 313897, 105164, -599, 245867, 102607, -1054, -2007, -2656, -5352, -14, 1974, 165777, -2292, 99923, -717, -12937, 302534, -1607, 180174, 88150, -3273, -1879, 99969, -1044, -2084, -1647, 89281, -1012, -42898, -1903, -2129, 378714, -12610, -104, 6424, 212656, 222965, 150295, 86735, -19503, -3765, 332815, -990, 74268, -229, -1102, -15690, -2398, 260788, -1081, -1673, -7480, -2130, -939, 7571, -971, -770, -2894, -276, 4773, 133961, 3500, 201627, -268, -2303, -2539, 208026, -2362, -1214, -12391, 120330, 83846, -1714, -977, 995, 32309, -2922, -35695, -1103, -26506, -77, 139015, -2715, 52322, 109795, 95090, 188742, 168693, 142226, -4573, 48363, 123405, 178895, -25649, 245480, -1403, -537, -2161, -870, -935, 214925, -791, 88382, -70, -1556, -3263, 86124, -17877, -87, -10693, -3638, 277198, -554, -2407, 82189, 79028, 292708, 10830, 264326, -4197, -6256, -871, 147379, 114940, 169194, 125075, 22, 37136, -1486, 351448, 106791, -2113, 321598, -559, -1659, 32, 91568, -147, 211078, 75077, -2072, -1581, -21753, 190953, -1338, -1852, 157838, 376468, -7494, -2186, 282564, -1207, 124466, -737, -1733, 235065, -1414, 222874, -174, 252566, -1243, -2602, 225470, 70387, -613, -189, -22050, 10207, 661, 117901, -3, -1440, 117314, 6744, 54248, -1063, -687, 24562, -8587, 118697, -3901, -1901, -3384, -2929, 332872, -1262, -5973, 189704, 1275, -2217, -3427}
#define CONV26_WT {0}
#define CONV26_W_Z 	 (137)
#define CONV26_IN_Z      	(0)
#define CONV26_OUT_Z     	(0)
#define CONV26_M_ZERO 	(1431657856)
#define CONV26_N_ZERO 	 (1)


/* Layer 27 Learned Parameters */
#define CONV27_BIAS \
 {13321, 32622, 17555, 35183, 31861, 34072, 45576, -16742, 9832, 26792, 45755, 34819, 6901, 17116, 5602, 5616, -53662, -4261, -13237, 27432, 25268, -7812, 31494, -20697, 31507, -1796, 16565, 2862, 29951, 13993, -15395, 39878, 2333, 5508, 67970, 6014, 7438, 30239, -23613, -37746, 1811, -9302, -824, 24219, 17393, 31499, 31370, -4662, -19052, 9833, -16661, 10677, -12041, 43521, 29347, 46328, 17701, 4611, -22770, 33008, 5598, -3985, 12852, 33420, 21024, 43902, 10960, -27237, 30686, -36283, -1520, 24392, 3893, 9682, -37246, 2840, -890, 34821, 46470, -10424, 70386, -560, 3208, -7933, 14272, 11067, 55553, -5371, 37490, -44478, -17350, 10338, -32858, -39052, -23410, 14319, 18353, 35282, 19103, 3679, 1435, -35763, -6359, 24630, 38914, 36982, 8073, 20315, 17760, 41988, 26271, 23318, 8660, -19360, -3638, 6307, -21550, -7435, 23968, -818, -6825, 25588, 6943, 14959, -8863, 3145, 17575, 27413, 5697, -27384, 19769, -2742, 33388, 36160, 14647, 31107, -17593, 7375, -41482, 17732, 17330, 13030, 5774, 51776, -14276, 4924, 46074, 45307, 6740, -18306, 47723, -15426, 18558, -567, 70440, 15741, 31462, -34217, 5630, 28570, 16924, 30444, 3215, 9686, 21564, 4816, -3738, -11270, 12067, 33672, -81, 4742, 7004, -17586, 13308, 8555, 7232, 14548, -17792, -21617, -40069, -12499, 3616, 28006, -28126, -13419, 13097, 163, 22469, 50741, 28220, 8210, 10789, 24760, 58452, 33163, 781, -898, -21602, -10507, 14018, 13058, 41408, -23870, -3849, 11605, -9312, 26155, -14307, 54283, -7521, -52312, 8361, -10432, -11162, -22570, 7832, -15988, -21911, -30041, 65746, -46479, 23591, -370, 6657, 2643, 4953, 12267, -15009, 22893, -11834, 16630, 13984, 1137, 9219, -5929, 20397, -10203, -1812, -20255, 32170, 40425, 13593, -31405, -11585, -4907, 17698, -4690, 23205, -31578, 20041, 46836, 15739, 33900, -2795, 31259}
#define CONV27_WT {0}
#define CONV27_W_Z 	 (137)
#define CONV27_IN_Z      	(0)
#define CONV27_OUT_Z     	(0)
#define CONV27_M_ZERO 	(1431657856)
#define CONV27_N_ZERO 	 (1)


/* Layer 28 Learned Parameters */
#define FC28_WT \
{0}
#define FC28_BIAS \
 {-5319, 4703, -4816, -2970, 9400, 3881, 2701, 1770, 260, -2204, -5155, -6419, -1442, -986, 5, -2155, 790, -3095, 3410, -1670, 583, 6277, 5996, 727, 2022, 1989, 3860, 156, 2530, -1293, 5219, 191, -1342, -2277, 17, -7686, -536, -837, 923, -1546, 2001, 4733, 4830, -4573, 1191, 5404, 6315, 1186, -4796, -3406, 336, -4246, 3373, 3027, -1469, 1183, 2028, -1181, 4414, 4831, -360, 4467, 1422, 5781, 5245, 6392, -5471, -3964, 1125, 4829, -4693, 4667, 817, -572, -855, 8345, 5187, 4133, 2617, 5629, -7806, -3983, -2442, -14449, -5454, 157, -7958, 3803, 1353, 5043, -2535, -1529, 1208, -32, -4074, -4211, 3829, -3711, -9054, -2511, -2092, -10376, 6248, 4144, 1515, 1325, 8940, -7729, -6645, -6877, -9199, 14259, 5201, -1112, 578, -15260, -5239, 1257, -299, -4252, -1715, -3665, -3646, -3415, -4743, -6563, -7921, -6410, -1751, -2762, -2650, -4762, 530, 2600, -9584, -4058, -7998, -6305, -5470, -3995, -3346, -1166, -3855, -2128, -4526, -4958, 1690, -5083, -1914, -3244, 1222, 4006, -12327, 4164, -1649, 4759, 2362, -9659, -7519, 231, -1194, 11572, 8354, 3197, 692, -3165, -677, -8271, 2075, -1534, 1725, 3093, -1899, -2665, 6196, -6932, -2517, -555, 7371, 244, -2753, 1019, 5049, 2542, 776, 3942, 222, 2018, -4321, -4421, -942, 6029, -554, -7216, -3031, 11071, 948, 4451, -7340, 2029, -8073, 4210, 3190, 3103, 4620, -3837, -7197, -5867, -2734, 3796, -6106, -1244, 2357, -1280, 1038, -2693, -213, 5869, 1418, -2553, -2151, -4630, -1037, 7293, -5257, 1906, -113, -5349, -3453, 6785, -1325, -8882, -4215, 4429, 3950, 2846, 2323, 8617, 2759, 6889, -1847, -1138, 566, -2443, -2237, 4865, -5973, 2704, 1198, 2470, 4551, 2484, -1838, -947, 9796, -5917, 391, 4657, 2034, -5460, -72, 1954, -3772, 1369, 3274, -1462, -3810, -7370, -8470, -1045, 913, -4713, 3808, 2032, -1844, -3723, 2194, -2085, -9277, -1464, 4121, 11028, -2889, 143, 8954, 7547, -442, 1376, -1697, 1214, 609, -6920, 2884, -2187, 796, 1111, 1940, -2014, -1154, 5303, -8009, -3757, -5222, -4047, -8398, 5043, 2736, -10430, -5716, -8527, -8148, -6692, -5318, 7220, 10046, 3562, -569, -7196, -294, -7217, -4192, -12068, -10114, -5725, -4856, -8339, -9852, -594, -4573, -1619, 6044, 687, 3519, -2701, 2400, -2198, 3410, -1928, -6240, -3405, -232, -4958, -5877, -1991, -2853, -982, 2458, -3017, -4084, -3763, -2838, -2492, -5094, -5121, -1140, -7488, 632, -2933, 1814, 3244, -5699, 5653, 5476, 708, 4176, 1968, 2090, 7214, 25, 3772, -6012, -4896, -1226, 975, 3284, 2614, 1825, -2197, 3230, 6291, -3366, 5436, 3036, 2195, -2487, 1924, -1470, -4037, -1337, 914, -4368, 4304, -4524, -5491, -687, 3839, -3600, -2839, -3849, 14295, 515, 5871, 2526, -4396, -5782, 6689, -6773, -3595, -13867, -5938, 105, -5318, 4367, 5380, 3559, 2234, 7311, -1464, -846, 6172, -1362, 5587, 4237, 7347, 5746, 2030, -4063, -5305, 2163, 4502, 1748, 2627, 3026, 238, 8570, -357, -3224, -7342, -3727, -3153, 5101, 3374, 1314, -1924, 4229, 6466, -1407, -3171, 5441, -1114, 2270, -2038, -3075, -12, -2189, 2001, -847, 3316, -10113, 6131, -11385, 1635, 914, 3302, 6566, 8779, -2591, -3078, 710, -2321, -1887, 924, 965, 8206, -3468, 2229, -3330, 960, -226, -6895, 5954, 2585, -2443, -5146, -13452, 4257, 4090, 2342, 2494, 88, -4420, 1617, 2884, -8348, -6009, -3820, -20, -5334, 179, 7260, 3805, 1774, -3112, -2688, 2063, 1053, -1495, -2937, 1361, -4749, -4360, -2309, -2314, -1733, 702, 2803, 1671, -1178, -997, 2860, 48, -1804, -2686, 12004, -2318, 3828, 468, -5319, -959, 9808, 726, -4560, 1649, 125, 2683, -1899, -13057, 5665, -523, 2229, -11104, -60, 8410, 4161, -1206, 10594, 292, -8333, -5369, 11428, -3629, 3145, 4547, 1124, -3537, 1448, -4270, 2075, 1596, 4289, -2020, 1054, -2578, 4838, -6850, 1136, 1287, 980, 8427, 2336, -2141, -5697, -4959, 9473, 2861, 4312, 62, 8590, 563, 7052, -209, -3243, -5342, 233, 3593, 1449, -5425, 10242, 4656, 5736, -3468, 1553, -30, 4939, 8578, -7828, 6834, 8594, -2586, -4533, 8068, -3927, 4044, 3876, 3810, 3498, 7605, -1832, 8868, -2472, 4826, -2662, 608, -12, 3077, 877, -1276, 562, 8446, -6543, 3742, 5270, 2469, 8617, -4538, -942, 7445, -1701, -6591, 3223, 5391, -232, 8710, 258, -787, -746, 1118, 136, -2191, -11680, -11190, 3970, 3355, 2175, 66, -1612, 6873, -7922, -46, 2203, 10733, -4651, -2833, -2788, 1310, 6432, -2642, -1996, -3096, 4939, 566, -2123, 94, 784, 4593, 1852, 1867, 1679, -1958, 4814, -230, 5342, -4003, 2594, 2675, -1206, -9927, 3519, 8439, -1969, 2319, 5059, 3526, 4099, 502, -1618, 2215, -1351, -5753, -8308, 571, -374, 5678, -2665, 2171, 1640, 5718, -3837, -902, -221, 4652, -5727, 1315, 9949, 2962, -6064, -907, 4282, -13238, -1234, -2454, 3106, 1783, 3300, 3896, 2585, 10446, -7654, 1465, 4657, 1522, -1211, 4207, -4357, -10332, -6997, 7095, -3203, -1244, -1998, -1678, 1403, 5340, -1971, -4746, -5280, 1921, 1369, -664, 6599, -5, 3520, -2076, 2102, -5859, -989, 4973, 7108, -1122, 8094, 3263, 3254, 6021, -2326, -1675, -2529, -2146, -3407, -1523, -2676, 5796, 2752, -412, 3472, 11563, 1275, -10595, 2042, -5989, 5598, 3646, -10402, -3764, 188, 4937, 3030, 6962, 10716, -8576, -1622, -3498, -3493, 1105, 5696, 1372, 6037, -2311, -9666, 6232, -4586, -5433, 8505, 4716, 1848, 5741, -481, 4048, 8373, 1255, 3326, -3317, -2894, -230, -6920, -2849, 1701, -3324, -7839, 991, -1818, -5748, -3420, -881, 1437, -2630, 1327, 2472, -3155, -4591, 3808, -2407, -2280, 4699, 6291, 4974, 890, -3241, -6006, 8545, -4356, 7699, -705, -2053, -4151, 7827, -13127, 7011, 9913, 2322, -2399, -13, 1488, 5035, 7851, 5347, 9855, -7090, -3141, 3806, -3228, 2877, 2535, 2967, 5890, 1475, 8053, -6917, -1340, 6868, 5378, -769, 4735, 3870, -1902, -4824, -2705, 3242, -839, 2139, -4228, 6507, -9548, 1545, -3912, -5737, 2916, -140, -1464, -8037, 12696, 11903, 2589, 3526, -5675, 4813, 23719, -4322, -3481, 1491, -258, 2929, -2715, 5983, 7185, -2156, 3166, -667, 3591, 6886, -4273, -10019, -3607, -1971, 6216, 9075, 8177, 4225, 1843, -404, 2941, 737, 15459, -1891, -50, -1805, 364, 4051, 3542, -1916, 6391, 292, 1031, 7002, -1498, -10140, -4274, -4590, -3110, -3420, 3950, -1265, -5032, -260, -5082, -1329, -1774, 2462, -1618, 767, -2561, -2484, 502, 708, -5202, -4615, 3682, -5170, -11220, -1437, 1473, -501, -2371, -1976, -276, 4661, -588, 1343, -4362, 7155, -10395, 3235, 3176, 1945, -3364, -2029, -1409, 5039, 2941, 3692, -2521, -857, 7581, 4706, -189, -1000, 5255, 4, 6402, 940, -622, 3939, 5545, 8597, -6033, -3801, 1469, -5375, -1268, -5816, -6059, -3131, -8324, -5361, -13600, -5907, -7772, -5545, -4614, -685, 3936}
#define FC28_W_Z       	(175)
#define FC28_IN_Z      	(0)


#endif /*__192_0_25_WEIGHTS_BIAS_H__*/
