#ifndef __192_0_5_WEIGHTS_BIAS_H__
#define __192_0_5_WEIGHTS_BIAS_H__


/* Layer 1 Learned Parameters */
#define CONV1_BIAS \
 {49334, 274210, 160945, -3261969, 4565, 22145, -4569783, 246832, 52848, -545842, -3198668, -62018952, 125756, 124452, -11865536, -7393793}
#define CONV1_WT {0}
#define CONV1_W_Z 	 (137)
#define CONV1_IN_Z      	(127)
#define CONV1_OUT_Z     	(0)
#define CONV1_M_ZERO 	(1431657856)
#define CONV1_N_ZERO 	 (1)


/* Layer 2 Learned Parameters */
#define CONV2_BIAS \
 {7134, 11870, 74769, -816, -698, 20589, -111, 34317, -3040, 892, -198, -36, 39311, 6896, 36516, -237}
#define CONV2_WT {0}
#define CONV2_W_Z 	 (137)
#define CONV2_IN_Z      	(0)
#define CONV2_OUT_Z     	(0)
#define CONV2_M_ZERO 	(1431657856)
#define CONV2_N_ZERO 	 (1)


/* Layer 3 Learned Parameters */
#define CONV3_BIAS \
 {54662, 55709, 86863, 57532, 7766, 13608, -5443, 17596, -8821, 25784, -5863, 15858, 35141, 978, 33627, 50593, 12850, 89119, 74432, 53290, 98674, -4215, 66993, 19647, 44393, 6797, 4087, -32615908, 40833, 17263, 63603, -74}
#define CONV3_WT {0}
#define CONV3_W_Z 	 (137)
#define CONV3_IN_Z      	(0)
#define CONV3_OUT_Z     	(0)
#define CONV3_M_ZERO 	(1431657856)
#define CONV3_N_ZERO 	 (1)


/* Layer 4 Learned Parameters */
#define CONV4_BIAS \
 {42509, 10283, 1719, 3547, 91170, 698, -45, 33441, 80286, 35636, 79517, 39312, 10101, 6010, 8357, 17022, 3242, 69204, 616, 54799, 37912, -23261, 2385, -48483, 55201, 117, 87235, -35, 26581, 59025, 2014, 4262}
#define CONV4_WT {0}
#define CONV4_W_Z 	 (137)
#define CONV4_IN_Z      	(0)
#define CONV4_OUT_Z     	(0)
#define CONV4_M_ZERO 	(1431657856)
#define CONV4_N_ZERO 	 (1)


/* Layer 5 Learned Parameters */
#define CONV5_BIAS \
 {-6771, 7440, -16521, 2677, 44561, 5737, 19751, -2318, 72986, 93377, -23677, 25172, 22370, 70320, 33108, 26328, -36474, 28323, -30889, 55460, 27741, 77220, -10363, 55706, -9846, 41485, 37313, -8069, 40956, -1187, 39440, -17015, 34433, 6191, 27695, 33361, -7495, 10413, 7601, -185, 43894, -35919, -4811, 6714, -4742, 66744, 30292, -8413, 19109, 24452, -3132, -36444, 28982, -19608, 6787, -6574, 15472, 60985, -78746, 27566, -600, -6439, 10501, -15070}
#define CONV5_WT {0}
#define CONV5_W_Z 	 (137)
#define CONV5_IN_Z      	(0)
#define CONV5_OUT_Z     	(0)
#define CONV5_M_ZERO 	(1431657856)
#define CONV5_N_ZERO 	 (1)


/* Layer 6 Learned Parameters */
#define CONV6_BIAS \
 {1392, 29120, 66034, -116, 11757, -766, 20373, 50175, 44051, 70620, 4190, 52, 22380, 9859, 22388, 25658, 1640, 7030, 7243, 10991, -7606, 166157, 15181, 24594, -654, 51070, 45821, -2853, 28446, 15502, 15071, 56978, -142, -4810, 3823, 216, 50124, 100, -662, 393, 1010, 1429, 32596, 56, 149, 2554, 4682, -35850, 33876, 60852, 63624, 2384, 35827, -15640, 55977, 39463, 22495, 33731, -7843, 5370, -3630, -362, 11570, 30871}
#define CONV6_WT {0}
#define CONV6_W_Z 	 (137)
#define CONV6_IN_Z      	(0)
#define CONV6_OUT_Z     	(0)
#define CONV6_M_ZERO 	(1431657856)
#define CONV6_N_ZERO 	 (1)


/* Layer 7 Learned Parameters */
#define CONV7_BIAS \
 {-6555, -17920, 58840, -14800, -48427, 33912, 19219, 62091, -6193, 3675, 30723, -39310, -1640, 14724, 16920, 117907, 2714, -32107, -51004, 13189, -43504, -6565, -14298, -1702, 24321, 73457, 49773, 11163, 53242, -24638, 12952, 78, -68899, 27991, 17699, 27917, -26840, -6016, 2246, -24423, 61750, -8123, 45320, 1934, 21965, 22184, -22812, -46049, -17366, 48219, -35769, 59956, -6147, 10743, -67132, 22516, 21037, 33033, -4837, 43517, -14518, 1506, -36769, -48108}
#define CONV7_WT {0}
#define CONV7_W_Z 	 (137)
#define CONV7_IN_Z      	(0)
#define CONV7_OUT_Z     	(0)
#define CONV7_M_ZERO 	(1431657856)
#define CONV7_N_ZERO 	 (1)


/* Layer 8 Learned Parameters */
#define CONV8_BIAS \
 {991, 8507, 7705, 64868, 1920, 66391, 99028, 1346, 250384, 21722, 288858, 2133, 58101, 63357, 15106, 1879, -56884, 2083, 163835, 2116, 117587, 3939, 28220, 288700, 1253, 1648, 1963, 187130, 190288, -2600, 98785, 25597, 11915, 51540, 6238, 2550, 5298, 1617, 252, 13561, 5398, 103453, 188662, -4145, -108641, 2089, 3669, 52, 11663, -21760, 2356, -5928, 83679, 86939, 3844, 106533, 66132, 1749, 18792, 5995, -2723, 781, -223, 2690}
#define CONV8_WT {0}
#define CONV8_W_Z 	 (137)
#define CONV8_IN_Z      	(0)
#define CONV8_OUT_Z     	(0)
#define CONV8_M_ZERO 	(1431657856)
#define CONV8_N_ZERO 	 (1)


/* Layer 9 Learned Parameters */
#define CONV9_BIAS \
 {-12299, -26873, 28611, -2946, -5462, 43098, -334, -31097, 63847, 30356, 51056, 2301, -35812, 13649, 35099, 31481, -30276, 43054, 35478, -24932, 46602, -933, 25222, 38335, 43839, 2999, 35256, 51325, 19107, 34673, 95756, 61015, 34304, 134787, 53053, 46792, 56079, 1625, -81713, 74606, 26007, 18415, 14417, 55960, 13586, 20908, 44295, 62738, -34221, 16906, 43927, 57227, -18739, 17118, 49867, 9218, 4353, 6194, 43622, 27000, -1242, 40015, 5264, 8801, 9230, 63748, 37169, 54587, 30241, 68839, 14339, 32602, 62347, -16520, 33411, 30966, 27417, 48216, 39196, 42890, -16011, 47635, 38517, 30078, 41025, 4125, 8300, -39550, 7401, 30442, -17951, 59975, -10936, 40895, 27074, 2074, 95465, 83492, -38083, 4202, 25363, 20142, 15689, 46583, -42355, 5853, -38895, 25971, 30697, 40381, 49163, -18569, 106592, 19153, 33222, 35561, -16362, 61436, 46894, 18656, 17663, 136704, 8571, 25437, 84407, 16376, 32666, 32807}
#define CONV9_WT {0}
#define CONV9_W_Z 	 (137)
#define CONV9_IN_Z      	(0)
#define CONV9_OUT_Z     	(0)
#define CONV9_M_ZERO 	(1431657856)
#define CONV9_N_ZERO 	 (1)


/* Layer 10 Learned Parameters */
#define CONV10_BIAS \
 {-4664, 255, 15384, 370, 24698, 21045, 45, -72, -4231, 16790, 25769, -235, 24558, 40277, -8857, 43927, -872, 44121, 32053, -259, -388, -680, 30833, -94, 13937, 25641, 35525, -15037, -12, 985, 11425, -518, 465, -132, 24136, -240, 1460, -8443, -225, -797, 97251, -25, 16457, 6116, 25760, 8195, 686, 1044, 70961, 94615, 6174, -256, 107467, -2393, -8074, 20908, 33315, 34509, 366, 1112, 709, -147, 24, -34, -4250, 13349, 1790, 98, 2094, 1573, -9941, -292, 16712, -829, 15719, 74, 158, 9013, 17527, -198, -9695, 205643, 34188, 30676, 19921, 70562, 187, 216, -4901, 62, 29961, -8563, 51, 1538, 14246, -4396, 110, 26432, -420, 2844, 384, 52469, 2740, 289, -8296, 1121, -10108, 273030, -123, -1292, -388, 173, 26377, -2207, 24574, -2594, 33651, 52, -15779, 57805, 18873, 15290, 72281, 30135, 41027, -12191, 23, 5052}
#define CONV10_WT {0}
#define CONV10_W_Z 	 (137)
#define CONV10_IN_Z      	(0)
#define CONV10_OUT_Z     	(0)
#define CONV10_M_ZERO 	(1431657856)
#define CONV10_N_ZERO 	 (1)


/* Layer 11 Learned Parameters */
#define CONV11_BIAS \
 {-18089, -22210, 56651, 6992, -3033, 14559, 33040, 6241, -37035, -16740, 15099, 12529, -18831, 6674, -7266, -60677, 20652, -16476, 22845, 22255, -6495, 86526, 11362, 17940, -7111, 44770, -10522, -3448, -41263, -11677, -13634, 2888, 9750, 9868, 4049, -16714, -10166, -2911, -655, 7656, 7680, 16161, -23120, 52162, -13968, -20508, 17831, -39535, -18639, -16144, 8744, -7592, -6560, 65126, -5266, -7909, -10146, -20479, -32125, -7137, 29191, -14151, -1576, 12809, -19641, 22527, 1426, -43650, -16120, -25758, 6216, 10322, 6827, 66255, 16324, -13923, 39588, -10916, 21098, 56911, -34016, -2000, -62598, 1978, -10947, 26451, -20488, 6266, 12100, 13611, -3611, 16106, 14285, -16955, 10791, 8277, 27291, 19790, -17429, 29576, -3591, 17299, 51987, 56171, 3271, -3261, 39742, 44462, -14655, -4207, 3810, 25804, 3521, -39444, -42487, 12155, 165, -218, 5210, -16619, -24224, -54067, -37094, 32279, -2721, -27687, 15716, -8727}
#define CONV11_WT {0}
#define CONV11_W_Z 	 (137)
#define CONV11_IN_Z      	(0)
#define CONV11_OUT_Z     	(0)
#define CONV11_M_ZERO 	(1431657856)
#define CONV11_N_ZERO 	 (1)


/* Layer 12 Learned Parameters */
#define CONV12_BIAS \
 {-1051, 257019, 9434, 227896, 83955, 148280, -3679, 124034, -1811, 2742, 103807, -183, 1324, -113, 225, 4446, 10042, 20674, 2969, 123258, 76113, 14904, 115605, 156181, 102585, -3582, 5031, 239950, 129547, 36, 124971, 20412, -4770, 3166, -1742, 43545, 30908, 13035, -545, 1476, -480, 375, 1010, 66608, 22220, 382, -8851, 225114, -1400, 81619, 118735, 1304, 119558, -10159, 84191, 113914, 74955, -352, 1174, -931, 82770, 1623, 62092, 77637, 152011, 121201, 165929, 99412, 28198, 148724, -1005, 28183, 73871, 70415, 107227, -1548, 2122, 63665, 415, 181837, 2298, -81, 140270, 35427, 123708, -1017, -405, 15078, -6537, -2458, 140944, -1955, 11798, 220876, 441, 86808, 224211, 1084, 66208, 208596, 124309, 96426, 80793, 82900, -1574, 100406, 157758, -909, 1643, 164371, 13794, 103053, 63562, -9337, 118509, -172, 214797, 12751, 19367, 5730, 12255, -11916, 113070, 2028, 365, 3155, 1195, 283179}
#define CONV12_WT {0}
#define CONV12_W_Z 	 (137)
#define CONV12_IN_Z      	(0)
#define CONV12_OUT_Z     	(0)
#define CONV12_M_ZERO 	(1431657856)
#define CONV12_N_ZERO 	 (1)


/* Layer 13 Learned Parameters */
#define CONV13_BIAS \
 {81831, 39693, 14341, 51731, 51442, 72563, 37768, -17197, 72690, -23158, -70454, 80410, 58986, 67737, 29559, 34673, 49317, 135808, 462, -63977, -1537, 6685, 61185, -26772, -50539, 49112, 5934, 28090, 48770, 39815, 53657, 59919, 21313, 22301, -24059, 30254, 24838, -16437, -37452, 15827, 71322, 2920, 9533, -10109, 50677, 20912, 65874, 41174, 36336, 63795, 32947, -23467, 53997, 2924, 35512, 50238, -16756, 68838, -25483, 27871, 33691, 27631, 15120, 42151, 22245, -24414, -9945, 16613, 24719, 121056, 43664, 40676, -46663, 69340, 7500, -9348, -38581, -5467, 33677, 34078, 40682, 76260, 11987, 70625, 27638, 9753, 107730, -26627, 6810, 1863, 68089, 20833, 30745, 26839, 11697, 39296, 44471, 13745, 51062, 83654, 34141, 7882, 60519, 33556, 47376, -19245, -5830, 65385, 130060, 22369, -1773, 16876, 16002, 6016, 1109, 31921, -10910, 30875, 8381, 6629, 8123, 66459, 82984, 26225, -11473, -6982, -13034, 51810, 40535, 104839, -33990, 35384, 24198, -3104, 66294, 625, 51477, -2504, -28, -9452, -38548, 23256, 40964, 30129, 33544, 19209, 114834, 583, 11483, 37016, 24969, 97373, -28868, 2977, 81887, -72759, -20854, -9795, 70241, -50768, 9387, 79631, -8766, 73427, 20808, 2565, 815, 8275, 1243, -14495, 119327, 38315, 80465, 117225, 46654, 3495, 115451, -4440, 66428, 9770, 15173, -18549, 61784, 49022, 9340, 76300, 39522, 16708, 847, 31260, 60124, -3138, -4307, 42641, 3731, 17057, -10101, 56170, 20300, 6488, 26356, 32039, 29177, 58800, 25322, 55352, -5632, 86139, 36742, 7761, 61815, 7906, 37714, 42532, 6518, 15852, -13340, 40900, 74144, 53232, 25990, -392, 82238, 75410, 49887, 35554, 53403, 59718, 74089, 81721, 71453, -49063, 23169, -6452, 23003, 39273, 60286, 35188, -9008, -12759, 41876, 66958, 36143, 29759, 10656, 16275, 2092, 56877, 17965, 41047, 47769, 37402, 4167, 128304, 26461, 83528}
#define CONV13_WT {0}
#define CONV13_W_Z 	 (137)
#define CONV13_IN_Z      	(0)
#define CONV13_OUT_Z     	(0)
#define CONV13_M_ZERO 	(1431657856)
#define CONV13_N_ZERO 	 (1)


/* Layer 14 Learned Parameters */
#define CONV14_BIAS \
 {-8173, -558, 10065, -179, 287, 141, -1756, -24636, -448, -3556, 79025, 479, -1639, -7373, -8913, 75, -10203, 5224, 2651, 779, 46090, 20175, 1801, 11009, -6337, -7639, 11204, 60670, -688, -2766, 696, 196, -13991, 3926, 43497, 28641, -1735, 25458, -12561, -28948, -9895, -1008, -6354, 234, 2112, 25523, 502, 7771, 446, 907, 36857, 460, 1493, -10255, 584, -441, -17780, 745, -6676, 51162, 576, 371, 161, -6688, 1169, 52031, 19232, 77159, 1110, 4901, 3700, 27119, 92362, -132, -12526, 328, 94136, 650, -3916, -11204, 3213, -2288, 1236, 954, 10072, -4984, 422, 336, 58674, 420, 205, 663, 24787, -1544, -8114, 2, -6180, 204, 9909, 1691, 98, -5237, 1264, 533, -10983, -6049, -26653, 29249, -124, 1965, 22050, 2753, 8488, -207, -4124, -5396, 21269, -6151, -6798, 6328, 876, 133894, 22139, -7104, 21013, 50, 517, 75600, 509, 183, -1673, 1384, 6243, 179, 50206, 401, -1401, -29, 100479, -633, -14946, -88, 2209, 96, 85669, 11811, -6079, -319, 490, 6176, 807, 2139, -744, 51246, 2950, 1548, -2158, 898, 25109, 6803, 45, -231, 572, -554, 123818, -9533, 3998, 15161, 30797, -10579, -6941, -10570, 868, 27241, -14745, 6537, 431, -10116, 26983, 4623, 13777, 634, 12178, -3509, 4839, -240, 1624, 367, 430, -10949, 110, -6507, -495, -3948, -134, 1901, 165, 12493, 66723, 10947, -681, 44720, 8536, 32776, -540, -1714, 94811, 992, -19856, 4854, 5738, 390, 39, -888, -392, -425, 6247, -3494, 59, -1850, 21018, 8073, -612, 24, -10423, 46184, 39255, 25285, 1164, -511, 106, 197, -5054, -302, -3214, 9088, -499, 19346, 8554, 61744, -4571, 736, 22, -11525, 430, 832, 23, 212, 132, 88, 45431, 1398, -520, -732, -6292, 30916}
#define CONV14_WT {0}
#define CONV14_W_Z 	 (137)
#define CONV14_IN_Z      	(0)
#define CONV14_OUT_Z     	(0)
#define CONV14_M_ZERO 	(1431657856)
#define CONV14_N_ZERO 	 (1)


/* Layer 15 Learned Parameters */
#define CONV15_BIAS \
 {13530, 4595, 36333, 11001, 29459, 97163, 24028, -1075, -7543, 22700, 44379, 31530, 21312, 41934, 18879, -2573, -8726, 5064, 18955, -9407, 21386, 8750, -10462, 63886, -6344, 7528, 24147, 1425, -19871, 20390, 39518, 13173, 26325, 19394, 30864, -6890, 15947, 55873, -14085, 69664, 20108, 7531, 15662, -1188, -19505, 42146, -28869, 8388, -16625, 18435, -5765, 54618, 37733, 3822, 20258, -19786, 42549, 74013, 32184, -1330, -31337, -22238, -1145, 22293, -4249, 30801, 28662, 8089, -3093, 4955, -22033, -18725, -10841, 13806, 17917, 3816, -14217, 10965, 5310, -3408, 54503, 29923, 48788, 12420, 7873, 73247, 8446, 6940, -7140, -8040, 29540, 7143, 59913, 44097, 40948, 4907, 26026, 77630, 35619, 18095, 88556, 6128, 28922, -19035, 720, 40379, 16612, 55950, 9662, 54888, 17801, 65055, 66009, -23020, 52651, -4989, 100894, 23685, -162, 43229, 1827, -18764, 17668, 12570, 33225, 17920, 68561, 63816, 2471, 26990, 10922, 5301, 12539, 15956, 58003, 16048, 1161, 80756, 14796, 27401, 27294, -4399, 31849, -12032, 14543, 11291, 55751, 64166, 26564, 27359, 13749, 8941, 59667, -16476, 4729, 51203, 39874, 23919, -8163, 22439, 4075, 11643, 29465, 46523, 102344, 80896, 20909, 78078, 1478, 26369, -12939, 29726, -13601, 77354, -17958, 7351, 33919, 4949, 16882, 14930, 57038, -11536, -7800, 15941, 20189, 63208, -8148, 24393, 17394, -6386, 25520, -9959, 3374, 54040, 48657, -44064, 12933, 17361, 67242, 37980, 35769, -1504, -4994, 54942, -8596, 8610, 903, -23818, 21936, 51052, 166378, -990, -25196, 6574, 12286, 57023, 16452, 83507, 1020, -14136, 95109, 79448, 84888, -11475, 37340, 24160, 26686, -8125, 96498, 825, 197, -15140, 37130, 42344, -15186, 63851, 25151, 82072, 6636, 1272, -19984, -9269, 50842, 32841, 917, 28174, 27928, 11487, -16086, 16486, 8953, -1936, -3147, 25295, -3136, 5530}
#define CONV15_WT {0}
#define CONV15_W_Z 	 (137)
#define CONV15_IN_Z      	(0)
#define CONV15_OUT_Z     	(0)
#define CONV15_M_ZERO 	(1431657856)
#define CONV15_N_ZERO 	 (1)


/* Layer 16 Learned Parameters */
#define CONV16_BIAS \
 {-805, -55268, 37676, 4673, 12496, 3343, 40998, -4550, 3957, 23993, 15591, -7774, 88289, 24588, -400, 150, -20507, 24791, -8762, 8775, 24493, -9348, -76, 1993, 37741, 2200, 20382, 126942, 5865, 30834, 30964, 22127, 6177, 11557, 76636, -7736, 24769, -10418, 1711, 2168, -1423, 32082, 97338, 30500, 48555, 2497, -12523, 15581, 5099, 6813, -18205, 6021, -6963, 31417, -40, -789, 14698, -841, 83664, 156, -470, 13227, -10768, 30680, -9247, -1041, 20725, 77605, 84, -45, 1245, -198, 48303, -10584, -10560, 7795, 3549, -1371, 14065, 15533, 2087, 46410, 8637, -16499, 88993, 35189, 782, -2081, 1026, -19527, -1040, 1817, 21191, 39301, 23191, 96095, -5224, 19619, 25297, -4648, -8291, -11691, 136290, -20910, 90209, 3354, -35993, 2286, -8089, 27111, 60742, 21745, -388, -23432, 27484, 61792, 29990, 1418, 18156, 2670, -4870, 19038, 2974, 35970, 38902, 10980, 1095, 21760, -12398, 2665, 75028, 11476, 15174, 3572, 3282, 2699, 8917, 3087, -16345, 56854, 3958, 43493, -3975, 8572, 151599, 8251, 28039, -12642, 13662, 70167, 37640, 18565, 33731, -6031, 8858, 21474, 22130, 112944, 52503, 14984, -19512, 1329, 65210, -6453, 14961, 16558, -519, -14661, -8285, 79, -1034, -68161, 70385, 23148, 3217, 17000, -13782, 27002, 10539, 2462, 8401, 71459, 29741, 10398, 52199, 6477, 31164, 37659, 11655, -33966, 60027, 42874, -13668, 4210, 42797, -12656, -3146, 23049, 9701, -5473, 33021, 2215, -11809, -7487, -11696, 39015, 28358, -5783, -1108, -206, 37020, 58501, 68213, -18592, -2292, -878, 10543, 4517, 32390, -9171, 9667, 6835, 20529, 32435, -14001, -56005, 155266, 8284, 22005, 105800, -8470, 14268, 52865, 69773, -2659, 1707, 34925, 21776, -13334, 5621, -17798, -5378, 14836, -4737, 8792, -7468, -9724, -28578, -2582, 21097, 127862, 25593, -11997, -4347, -24434, -26866}
#define CONV16_WT {0}
#define CONV16_W_Z 	 (137)
#define CONV16_IN_Z      	(0)
#define CONV16_OUT_Z     	(0)
#define CONV16_M_ZERO 	(1431657856)
#define CONV16_N_ZERO 	 (1)


/* Layer 17 Learned Parameters */
#define CONV17_BIAS \
 {-3044, 839, -14216, 51755, -22846, 21331, 1039, 46673, -22957, -7743, 45640, -17500, -2385, -4411, -7, 8212, 37362, 37117, 2908, -14511, -11556, -18364, 26441, 37462, -52582, 9511, 14635, 7984, 16196, -31674, -14940, -2911, -63477, 10061, 69240, -9378, -23622, -5057, 55381, 31177, -33000, 5605, 37547, -15305, -23360, -15794, 19609, -20807, -5251, -32996, 19313, 43375, 14092, -16364, -1415, -5338, -21108, 9391, -55703, 16396, 51736, -15069, 20647, 82342, -43178, 4481, 1003, 15967, -15223, -6188, 39773, -2321, 45173, 45256, -28198, -30106, 18001, 25211, 61151, -4548, -5191, 59151, -42827, -5514, -69894, -32486, 39169, -47472, -3265, 26497, 31251, 6300, -21993, 11800, -19284, -10046, -14773, 25539, -2082, 35902, 98180, -6870, 31278, 48032, -7136, 24137, 51126, -60326, -17458, -8605, -36260, 47628, -15636, -60709, 10477, 12525, -9379, 33569, -27163, -25188, -28051, -14761, 24772, 157434, 25935, 17334, -17525, 16805, -52883, -42443, -41905, 37275, 11184, 25214, -1474, -13018, 65102, 406, 1278, -572, 17034, 2244, 32539, -18528, 729, 36305, -32808, 662, 19684, -17018, -661, 7539, 112644, -15030, -15962, 45744, 51228, -552, 90377, 8428, 53790, 28786, 32801, -19067, 42963, -5597, -12460, 35813, -17189, 11966, 22328, 54862, -63340, -14302, -18019, 10864, 34460, -21477, 27178, 9769, -31226, -2905, 16953, 70120, 35708, -11733, 127703, 40393, 27552, -1342, 18853, 23922, 37570, 466, 49980, 7269, 73736, -16081, 36190, -23286, 21203, 36681, 99073, -45329, 6975, 73852, 34449, -26017, -11660, -8097, -10536, -20151, 19898, 33058, 106240, 10447, 31747, -1704, 80979, 33878, 27192, -2769, 11302, 9703, 1818, 43872, -23935, 6853, 25322, -17469, 20761, 74760, -9113, -25288, 23397, 78070, -25264, 26192, -20024, 26040, -655, -4559, -16883, 43646, 28372, -1408, -44016, -21717, 75722, 2974, 45016, 6914, 132619, 20651, 128987, 25708}
#define CONV17_WT {0}
#define CONV17_W_Z 	 (137)
#define CONV17_IN_Z      	(0)
#define CONV17_OUT_Z     	(0)
#define CONV17_M_ZERO 	(1431657856)
#define CONV17_N_ZERO 	 (1)


/* Layer 18 Learned Parameters */
#define CONV18_BIAS \
 {-11967, -33148, -1860, -10143, 20942, -7606, -1098, 28625, 1236, 105645, -14036, 18186, 23452, 35687, -4787, -20547, -10277, 59742, -8518, -7309, 35835, 1861, 15705, 5902, -5865, 14309, 35323, -3262, -3823, -3824, -6002, -1157, 5440, 60190, 132683, 25553, 22866, -15525, 22204, -13675, -1877, -19704, 11649, -8161, -4622, -4267, 14590, 138890, -8219, -9109, 105222, -6348, 40566, 782, 854, -14498, -17974, 131247, -6479, 14965, 7010, 22811, -17661, 4564, -11762, -6740, -8632, -4114, -19169, -3, 70876, 2701, 49366, -1142, 130216, -12127, 52957, -2332, 4983, 10311, 63870, 24068, -8974, -559, -15020, -16024, -2850, -5857, 34821, -352, 8, -11851, -29943, 20598, -4741, -18390, 9735, 16174, 13207, 79732, 23344, -7939, 110260, -9136, 9854, 22038, 26894, -2175, 78052, 134118, -25600, 3329, -15331, -36003, 55489, -6689, -7602, 8775, -9452, -1258, -24310, -5951, -13958, 48123, 96963, -18706, 13662, -5399, -21607, -7141, -27057, 48189, 66197, -8301, -12337, 22277, -3947, 85844, -23871, 1766, -18687, -15606, 83021, -6047, 53721, -4240, 56874, 20860, -403, 1887, -2501, 15627, 46114, 37721, 5184, 2967, -977, -9059, 35531, -6233, -15925, -7376, -4464, -11997, 38509, -4563, -35780, -3368, 17695, 73975, -14562, -82, 72164, -7911, -1994, -23306, 20473, 16198, 1293, 25845, -28648, -23313, 3356, 15131, 36066, -9469, 26961, 357213, 60684, 28689, 8162, -15234, -29291, -4077, -11915, 12573, 16535, -16179, 24000, 27147, -20796, 52504, 34925, -3319, -20913, -1667, -50290, -4754, 1971, 23063, 98246, -12406, -429, -5106, 21830, -10160, 62596, -2761, -21848, 2041, -13308, 91629, 49733, -2045, 30561, -6036, -15665, -9254, 7157, 77070, -10328, 7326, 17895, -517, 23333, 1194, 64150, 111181, -62283, 7876, 26861, 181575, 13718, 76259, -12807, 153225, 62410, 3874, 19617, -12225, -5062, -3528, 6140, 27247, 21136, 95876}
#define CONV18_WT {0}
#define CONV18_W_Z 	 (137)
#define CONV18_IN_Z      	(0)
#define CONV18_OUT_Z     	(0)
#define CONV18_M_ZERO 	(1431657856)
#define CONV18_N_ZERO 	 (1)


/* Layer 19 Learned Parameters */
#define CONV19_BIAS \
 {-45340, -11775, -3164, 43272, 11990, -33174, 13895, 29574, -36689, 5715, -22455, -8127, 24055, -19229, -28163, -16407, -31005, -2714, -81773, 9940, 103694, 9603, -37444, -37933, 716, 3193, -3068, -21702, 32258, -18443, 33259, 51959, -33092, 1770, 22051, 9082, 60362, -15723, 73046, -31533, 90468, -7234, 50898, 32861, 29450, 3736, 45832, 21266, 22456, -18130, -23882, 10168, -28577, 6921, 22103, 8802, -1541, 11029, 41127, 63455, -4398, 70546, 41791, 1763, -26349, 27614, 26761, 34162, 12946, 20813, 114936, 65501, 2665, 46888, -50678, -20375, 61654, 1927, -10064, -26270, -12869, 4396, -69161, 6232, 3087, 11762, 38514, -10776, 27211, -30909, -8110, 111350, 15652, 33474, -8686, 14032, 47624, -38960, -1549, -30761, -14379, -44674, 36821, -20084, 21169, -5456, -12287, 99080, -30642, 4573, 25798, -8462, 5869, 52555, -21119, -30484, -18571, -4602, -22475, 5779, 30601, -47724, 8242, 95294, 29065, 13013, -589, 20410, -18255, -5932, 27987, -35250, -9359, -15444, 25757, 938, -56874, -42386, -78584, 1199, 18699, 33586, 12580, 1954, 19037, -5123, -9411, -4688, 47275, 106877, 69336, -14202, 49298, -12998, -22963, 7765, -13267, 3413, 126110, -47224, -11584, 18787, 81284, -48562, 9785, -7572, 10321, -8075, 84851, -4984, 103831, 12199, 23194, 17178, 15891, 6733, 18521, -24835, 3411, -19054, -1192, 6195, -43409, 44332, 29304, 28009, 8598, 50893, 18191, 24082, -23430, 12457, -40837, 563, -21483, 10638, -2039, 15942, -37409, -27422, 889, -36569, 4978, 47873, -33646, 3389, -35792, 65171, 20060, 959, -101880, 31391, -42971, 48801, -26518, 14342, 956, -1090, -50671, 4126, -9384, -19473, 5519, 14905, 17536, -2133, -19582, 89771, -25447, 13602, -12605, -27823, 40896, 44871, -3736, 12396, 1387, 42043, 20920, -13858, 67788, 34281, 49087, 3128, -16440, 40252, -28220, 5246, -40704, -11817, -5434, -39678, -51660, 60766, 13188, 1106}
#define CONV19_WT {0}
#define CONV19_W_Z 	 (137)
#define CONV19_IN_Z      	(0)
#define CONV19_OUT_Z     	(0)
#define CONV19_M_ZERO 	(1431657856)
#define CONV19_N_ZERO 	 (1)


/* Layer 20 Learned Parameters */
#define CONV20_BIAS \
 {-18699, 43908, 57524, 4543, 91324, -2128, 661, 4969, -3960, 177424, -11406, -5936, 43375, -2052, 32, 4385, -8806, 51534, 387, -5840, 21289, 14413, -6367, 94, 98621, 44081, 12915, 57198, 86860, 10729, 5291, 43892, 82275, 5942, 111463, 50140, 55713, -892, 21899, -12219, 57612, -19610, -8755, 26, -14817, 4587, -749, -9536, 10674, 166008, -8262, 8918, -16328, -7397, 33530, -14091, 34005, 17299, 27671, 38227, -6234, 23632, -962, 110903, -21887, 102904, 127746, 38535, 7473, -6031, 14473, 18999, -12410, -22596, -1875, 167761, 20718, -4376, -11245, -6633, -12137, 135055, -1248, -2851, 10029, 21384, 28558, -9775, -36602, 48386, 8, 21906, 34047, 43067, -19165, 164, -10518, -2083, -1385, 5586, -5775, -5801, 9656, -5585, 13902, 2571, 123207, 36550, 71827, 9622, 22818, -12803, 8103, 127660, 144075, -4092, -6026, 431, -20482, -3556, 30085, -7585, -16318, 1733, -17623, 7398, 3560, 62674, -1520, 54750, 3590, -13808, 19868, -18845, 59635, 1584, -7838, -939, -21804, -52486, 7810, 20136, 6208, 87732, -3682, 63199, 57232, 124612, 17344, 3137, -4548, -6802, -7840, 14440, -858, -9756, -9463, 19978, 23598, -21823, -23616, 84343, 20919, -7134, -2720, 50273, 13915, -4664, 22372, -26960, 16383, 60443, -2591, 32591, 61910, -22149, 18812, -1781, -11726, 18532, 93125, -25122, 5122, -1840, -5506, 66794, 27213, 49678, -5145, 8719, -24306, 140501, 49136, -5099, -73, 61960, -1928, -17680, -7457, -20669, -9700, -91, -4336, 35395, -994, 63342, 6123, 8512, -15951, 159097, -5730, 31894, -15627, 161358, -4557, -33725, 74666, -14648, -4239, -17805, -13719, -3708, 107787, -20592, 3829, 70137, -25708, 6807, 106433, 14116, 29210, 73492, 37052, 29148, -37770, -5066, 15924, 23495, 9926, 11021, 5612, 10632, 19963, -1863, 119821, 23701, -11506, 10961, 31441, -5322, -48, 27007, 69628, -3923, -12667, -9330}
#define CONV20_WT {0}
#define CONV20_W_Z 	 (137)
#define CONV20_IN_Z      	(0)
#define CONV20_OUT_Z     	(0)
#define CONV20_M_ZERO 	(1431657856)
#define CONV20_N_ZERO 	 (1)


/* Layer 21 Learned Parameters */
#define CONV21_BIAS \
 {10164, -25994, 18137, -39722, -13741, 17821, -10921, 9407, -42868, 29223, -8561, 4201, -10404, -46228, -33687, -1146, 9696, 45337, 21159, -27512, 19854, -1209, 31362, 37165, -23841, 26951, 19276, -34082, 3582, -8028, -11255, 166, -55053, -4994, -43420, -6348, 68636, 62851, -29886, -43547, 24392, 53506, 17347, 6023, -26438, 16882, 26418, 7165, 8669, -44709, -748, 17083, 735, 84607, -28969, 27174, -40939, -25552, -40348, 39498, -41369, -19021, 27279, -8477, 29742, -44401, 20621, -26909, -13130, -16024, -25431, 38623, 28980, 16239, -6648, -2785, 17760, -8102, 92475, -53611, 8801, 22068, 94895, 6657, -28699, -39446, 55442, -24872, -43102, -21700, -8942, -1962, -5790, -53, 11235, 20533, -13643, -16140, 5092, 31528, -53820, -21841, 32996, -40117, 36382, -13199, -14492, -3427, -22469, -17776, -31209, 21565, -2571, 28979, -12248, 28312, -2355, 3037, -4788, 3100, 2537, -30691, 16662, 33554, -24823, -10218, 19653, 25999, 24882, 15200, -23478, 4647, -39945, 61264, 15045, -40710, -19854, 21193, -16755, 9918, 6060, 1739, -34569, -8880, 2492, -46592, 9829, -293, -50655, 2613, 10131, 4530, 39699, 3878, -5312, 16017, 11073, 40430, 26539, -28095, 11450, 7590, -19409, 15978, 21029, -27071, -14584, -51052, 21592, 35656, -19045, -4674, 2879, 13864, 25323, -47031, -8928, -20103, 195, 6760, -33229, 32162, 15905, -40061, -21435, -5657, 7585, 15124, -9059, 3802, 29782, 11067, 29744, -7832, 31775, 12499, 16227, -46891, 65647, 24906, 60965, 24793, -13965, 23533, -1809, 15695, -16104, -66481, -33778, -35429, 719, 18299, -48725, 18036, -17184, 43400, -3054, 7047, -1701, 7489, -31209, 11227, 13566, -7501, -2438, 42220, -11907, -40673, 64351, 24390, 14177, -10516, -32994, 88304, 97, 31890, -25764, 988, -4687, 9704, 22493, 8729, -6337, 11988, 15802, 12081, 2552, -8504, 76735, -22564, -11798, 13978, 561, -3110, 49944, 10169}
#define CONV21_WT {0}
#define CONV21_W_Z 	 (137)
#define CONV21_IN_Z      	(0)
#define CONV21_OUT_Z     	(0)
#define CONV21_M_ZERO 	(1431657856)
#define CONV21_N_ZERO 	 (1)


/* Layer 22 Learned Parameters */
#define CONV22_BIAS \
 {61376, -354, 51492, -10434, -2952, 89975, 63122, -12885, 82476, 50894, -4714, 50167, 186429, -19707, -20085, 28098, 7335, 41887, 42909, -3956, 107597, -8845, 118828, 18580, 52418, 71962, -40, -5124, 50709, -7106, -8564, 85723, 143926, 57804, -4914, -610, 39104, 39302, 26467, -21106, 30232, 22792, -44878, -291, -9828, 121943, 268755, -1542, -9860, -15958, -6543, 99667, -1277, 26776, 124024, 28909, -4443, 76642, -5243, -8049, -4840, -1617, 145288, -3385, 68874, -7662, -7695, 108387, 80826, 211910, -5494, 9960, 44085, -9302, -175, -6539, 95169, -3459, 40502, -2685, -5976, -714, 26306, 46118, -8754, -6837, -3110, -5212, -10003, -2966, -3526, -2253, -9472, 86022, -32448, 74509, 44746, -10737, -3453, 4080, -12488, 64211, -6648, -4347, 79752, -2427, 70315, 25981, -3179, 42682, -7564, 94989, -10122, 115066, 2459, 19703, -676, -62524, 27110, -4594, -4288, 88600, 17667, -403, -7835, 12092, 19340, -20397, 143384, -4523, 110392, -12576, 113571, 37093, 3456, -827, -3738, 16661, -14036, -3179, -20522, -18549, 176755, -80623, 220055, -6587, 4284, -40487, -29627, -233, 9488, 243436, 112199, 132553, 1727, -5622, 3596, 4794, 45863, 71330, -11523, 141791, 14381, 41962, -5784, 130451, -17919, -15255, 91629, 36360, 55634, -10748, -11321, -5882, -14076, -3395, -8289, -3820, -160, 41573, -31943, -5376, 101077, -14349, -4965, -4322, 93748, -5897, -238, 83051, 59623, 76468, 134553, -4381, 15016, -5978, 65473, -13252, 17811, 57352, 38584, 77849, -11459, 22389, 36989, 44829, -1274, -3972, 61747, 49165, 20111, -7719, 95320, 55825, -4260, -6242, -16954, 26326, 21925, 62892, 60989, 97623, -4708, 748, -6247, 26092, -80, -501, 19585, 83127, -164, -914, -3042, 132039, 3504, -44, 28379, -2019, 48774, -9311, 826, -42475, -4842, 128138, 35405, -3257, 79933, -4241, 17798, 6972, 115697, -3729, -6091, -3989, 22270, -9997}
#define CONV22_WT {0}
#define CONV22_W_Z 	 (137)
#define CONV22_IN_Z      	(0)
#define CONV22_OUT_Z     	(0)
#define CONV22_M_ZERO 	(1431657856)
#define CONV22_N_ZERO 	 (1)


/* Layer 23 Learned Parameters */
#define CONV23_BIAS \
 {-16941, 5303, 151, 64200, 62577, -68407, -15841, 32144, 50840, -21614, -25122, -2464, 25674, -2967, -15312, -22534, -40200, 1227, -1209, -25250, 17701, -5139, -1734, -31197, -1473, -15837, 8344, -41073, 7908, 16689, -14568, 18077, 21573, 47003, -22880, 62820, -24324, -10468, 48008, 2150, 59678, 67817, -1212, -36770, 2432, -1577, 37476, 51526, 36148, -46161, 33719, -23284, 16300, 45137, 38345, 29448, -24559, -4913, -22779, 18898, -15114, -89258, -110888, -15212, -8624, -59004, 31412, 21868, -12711, 10478, 49153, 55661, 8604, -46524, -41696, -28472, 45473, 48262, -7370, -57997, -26567, 6276, -17652, 22532, -39387, 14610, -26889, -32159, -28121, -19369, -41714, -3894, 24353, -26676, -3347, -19371, 2624, -24530, 23313, -34680, -13159, -12532, 1587, 22230, 43511, -16635, 12480, -26010, -60699, 30034, -10814, 5948, 85705, -35400, 21499, -11346, -122178, 11817, -22082, 8829, 43157, -63269, -15918, -66687, 40161, -37667, 27758, 20208, 9614, -32567, 6505, 8662, 4355, -51486, -36803, 36776, 21153, -32263, 14864, -70177, 4570, -46350, -18712, -8241, -10982, -19541, -11306, 3261, -3305, 29862, 283, 76477, 4610, 23300, 32233, -35514, -21669, 9734, 9460, 625, -18345, -36381, -39064, -9645, 69398, 17995, -33001, 27862, -9103, -36507, -46669, 14363, -48792, -1954, 31987, -17986, 12037, 1513, -8470, -16836, -4792, -50999, 68004, 36882, -14532, 8048, 3567, 39690, 78718, -22193, -30703, -45552, -5963, 22659, 27742, 7170, -42496, -28496, -22091, -37932, -19342, -46372, 8606, -7512, -5476, 36569, -35825, -11385, -52937, -37045, -19907, -64924, -43889, -7835, 18056, -28267, -8751, 46718, -509, -9988, 4481, 6814, -10077, -12028, -2780, 16859, -5555, -16163, -21377, -8081, 10808, -33472, 39590, -14129, 35692, 20103, -12324, -57534, 2532, 2695, -14251, -47644, 69109, -20617, -24719, -29089, -52189, 11208, 5051, -7950, -29763, -37930, 1458, -15879, -225, 9610}
#define CONV23_WT {0}
#define CONV23_W_Z 	 (137)
#define CONV23_IN_Z      	(0)
#define CONV23_OUT_Z     	(0)
#define CONV23_M_ZERO 	(1431657856)
#define CONV23_N_ZERO 	 (1)


/* Layer 24 Learned Parameters */
#define CONV24_BIAS \
 {-802, 174355, 177199, 73684, 95953, -37520, -432, 208351, 67159, 141534, 137478, -297, 118178, 183225, 81401, 139314, -272, 163200, 73474, 118991, 176307, 38187, -22850, 196089, 12009, 74974, -935, 199781, 74782, 127534, -489, -491, 189562, 178152, -837, 79486, 151300, 147223, 135360, -278, 104486, -4064, 156683, 1378, -294, -345, 74120, 65826, 38441, 1, 94060, -279, 91283, 82997, 119855, 188838, -1527, 419, 87, -731, -217, -1803, 150720, -906, 185480, 894, 63653, 57221, -707, 157940, 84297, 79867, 103202, -542, -770, 155547, 22288, 139047, -9162, -2629, 170713, 16920, 158072, -605, -1744, 65966, 97650, 13463, -516, -1109, -92, -1652, 5751, 145220, -1027, 118354, 182919, -748, -635, 142228, 791, 11953, 33, 116316, -39907, -429, 123347, -616, 140504, 116245, 57690, 95809, 51880, -524, -456, 175502, -289, 23609, 8473, 79739, -61383, -657, 145149, -2, 105210, -652, 168043, 147705, 32623, 157921, -385, -1164, 162023, 1048, 132841, 73050, 22184, -540, -527, 7020, -163, -5634, -1013, 559, 394, -403, 100773, -304, 7702, 153925, 546, 68151, -154, -65219, 177387, -572, 147080, 159525, 96799, 138422, -697, -2270, 89342, -1244, 83064, 106197, 164471, 80750, -865, -652, -814, 204100, -772, -11245, 140886, 96121, 580, 91815, 32414, -197, -8, 62, 81724, 135707, -6299, -500, 182106, 102144, 77463, 89682, 4316, 181791, -337, -374, -11347, 155732, -400, -113, 74, -620, 118, -4605, -9459, -36, 94717, 186608, -563, -901, 1362, -396, 14950, -320, -1979, 111491, 30729, -540, 143125, 59013, -314, 110, -120, -10423, -655, 121549, -20933, 273, 1471, -442, -109, -128, 103611, 163228, 169670, 16515, 99066, 130203, -14943, -312, 68386, -570, -31, 196519, 86436, 172539, -85, 297, -150, 166546, 2836, -1226, -1297, 4261, 22839, 1772, -727, 160558}
#define CONV24_WT {0}
#define CONV24_W_Z 	 (137)
#define CONV24_IN_Z      	(0)
#define CONV24_OUT_Z     	(0)
#define CONV24_M_ZERO 	(1431657856)
#define CONV24_N_ZERO 	 (1)


/* Layer 25 Learned Parameters */
#define CONV25_BIAS \
 {-8000, 12084, -4249, -20426, -22269, 17717, -59265, -8109, -17306, 32897, 12358, -12969, 44481, -15048, -5173, 12291, 52409, 34614, 18109, 111, 30501, -14017, -33876, -622, 10866, -36346, 1711, -11800, -9727, 13272, 19306, -6684, 17432, 26285, -63587, -4026, 24030, -44835, -28658, -74132, -7010, 5498, -1113, 26165, 2723, 14517, -27401, -17603, -33565, -11220, 17412, 7455, 81041, 33791, 21392, 6114, 3745, -24394, -23520, -6374, 8287, -7793, -35023, 17087, -33709, -8953, 1962, -55799, -1426, -20372, -16131, -14448, -9576, 14853, 6500, 20404, -10267, -16827, 4861, -9215, -28782, -32055, -64315, -33865, 12523, 21435, -26482, 7638, -22185, -12196, 7976, -33799, -23750, 44098, 2394, 18689, -8547, -1847, -42768, -14142, 12887, -38881, 42332, -21912, -31055, 8878, 15041, 11141, 46058, 9303, 9826, -233, -22616, 19418, -42824, -28428, -8411, -26305, -4525, -45481, 18676, 26416, -51438, -7900, 12492, -62825, -28088, 45656, 173, -5734, 42144, 26997, -673, 6565, -17126, -47080, -8878, -17296, 27263, -27352, -11504, -49594, -13239, -52573, 44926, -76956, 2701, 51881, -11093, 14243, 82328, 3566, 7140, 43840, 4484, -52434, -48413, 32050, -25092, -42418, -6139, 17233, -1712, 43289, 29627, -56293, 27031, -30303, 21803, -38, 49596, -25899, 16409, 40040, 9765, -32642, -28911, 9433, -3472, -10497, -40928, 68430, -16715, -10944, 39185, -21478, -33583, 44446, -24712, -26805, -6484, -28809, 35170, 65969, -29124, -18235, 34294, 7175, 25731, -14542, -1540, -16970, -2645, -44570, 51446, 20390, -8279, 12940, -37446, 14502, 35503, 59070, -25394, -36537, -40481, -17564, -54290, 25810, 8239, 7349, 22296, 21225, -1796, 12331, -49147, 74704, -25010, -6977, -232, -11857, 26682, -21019, -55310, -9488, -11422, 67957, -76911, -40294, -51117, -25870, -9018, 4024, -13981, -18542, 3998, 61914, -28924, 36058, -15486, 3295, 1440, 32074, 3941, -3328, -19696, 32867, 45906, -20900, 11712, -52358, -27998, -42365, -33627, 7412, -27055, 2242, -15871, -1457, -6465, 23095, -26541, -79126, -25869, -42428, -60320, -50856, 37967, 33108, -2636, 28467, -34918, 47358, -36540, -67367, 13693, 50814, -14118, -34873, 15896, 33227, 12738, -14121, 23456, 12815, -63683, -43104, -53185, 4471, 8327, -5896, 50788, -49350, -4400, -35048, 10828, 33788, -5635, -9827, -17228, 17318, -7241, -24114, -39328, 9925, 20690, 31628, 1728, -33658, -40055, 60739, -25636, 34726, 38946, -32567, -40977, -32612, 4451, -83184, 7419, 12163, 8114, -20629, -264, 5648, -12282, -8110, -3346, -38224, -21115, 3654, 41908, -29276, 10759, -6333, 62903, 16902, 3612, 7702, -64261, 58613, -28818, 16250, 16154, 28875, -25974, 76103, -39441, 665, -7477, -71210, -2798, 73767, 35332, 6255, -68986, -11653, 19092, -23651, 67294, -12536, 50010, 18311, 26177, -19732, 10058, -1518, 1030, 46537, -56198, -54383, 4025, 48826, -12824, 15095, -33637, 43525, -47055, -59608, 24921, -16414, 18375, 26017, 5313, -21831, -29213, 891, 5443, 53538, 32203, -50427, 38496, -26895, 24883, -47052, -13916, -26006, -11915, -2741, -7116, -62419, 36609, 21021, -20772, -58206, -28185, -4337, -21270, -1707, -52814, -26063, 28708, 8193, 2683, -20416, -11358, -13337, 3809, -31680, 16565, 7079, -24469, 50940, -1067, 41351, -58609, 24402, 22877, 23309, -37185, 18898, 7377, -25429, -9847, 3244, 25056, 47450, -45938, 29195, -19391, 54767, 10641, -32400, 37501, 24411, -27570, 30580, 7660, 47646, 63675, 9229, -1595, 4249, 15602, -11910, -17217, -81108, 11787, -37640, 37697, 41983, 19406, 5662, 36599, 11909, 39261, -19104, 17462, 17259, -26359, -6044, 61849, -13460, 7794, -14319, -31893, 13052, -6458, 5775, 23623, -4997, 56076, 35001, -14901, 20538, 40640, 15803, 20539, 37774, -6717, 40625, 66556, -9048, -23403, -8270, -27966, 3445, -13342, -15469, -18392, -62350, -31917, -76994}
#define CONV25_WT {0}
#define CONV25_W_Z 	 (137)
#define CONV25_IN_Z      	(0)
#define CONV25_OUT_Z     	(0)
#define CONV25_M_ZERO 	(1431657856)
#define CONV25_N_ZERO 	 (1)


/* Layer 26 Learned Parameters */
#define CONV26_BIAS \
 {-19, -49296, 70026, -131, -7973, 28248, -1514, -5956, 81054, -4673, 47881, -4058, 140894, 1510, 71408, -1399, 206038, 5594, -1819, -752, -10685, 98199, -2334, -1675, 119863, -1697, 133377, -1486, -548, 71423, -63, -1881, -339, -3213, -6815, -15208, 106932, -855, -1150, -2375, -58137, 123396, 65535, -1529, -295, 86734, -29, 106978, 255, -2427, -1814, 150145, -2753, -8886, 175890, 29810, -1525, -1102, -8779, -17, 149243, -1282, -937, 140816, -1363, 692, -1776, -15747, 92943, -17, 4051, 67453, 47074, 113969, -9109, -1320, -1467, 2096, 94825, 463, -1057, -1539, -29, 284806, 77322, 156488, 75943, 1259, 118838, -1353, -4445, -885, -1189, -864, -5251, -709, 90251, -336, 714, 61461, 134994, -1141, 66392, -790, -1778, -2054, 73228, 119482, -753, 196154, -1915, 94579, -911, 212408, 112755, -10204, -1690, -3526, 80861, -2083, -17518, 83487, -1185, -49423, -6377, -1696, -200, 41402, 154314, -3791, 75746, 76082, -689, -1012, 141894, -145, 134069, 120268, 67777, -9417, -1818, -891, 115483, 921, -42296, -1125, -5870, 86296, 82810, 72700, 254582, -915, -530, 302278, -1991, -329, 138107, -1522, 100909, 460, -11, -24, -1206, 415, 114006, -78, 21700, 285, 98282, 239, -1291, -41309, 157929, 163481, -19805, 358990, -368, -456, 622, 68713, 230325, 139567, 117037, -1174, 1582, -5909, -726, 40037, -1723, -145, 89689, 66659, -2153, 16128, -1976, 85459, 149914, 113538, -3820, 49873, -899, -568, -253, 147389, 335508, -6082, 123105, 114222, 221, 88954, -1533, 99883, -88, 112457, -1182, 133560, -2011, 72674, 121812, 142347, -1878, -3034, 57996, 96530, -72723, 123634, -1823, 479, 156407, -1368, 443, -3309, -556, -248, 130724, 88757, 678, -2235, -846, -1434, 149528, 86295, -391, -1855, -70, 246161, 114015, 407168, 46823, 623, 111186, -325, 78723, 8, 279263, -16996, -2000, 1615, 44536, -2499, 5285, -7745, -996, -20339, -128, 40714, 194596, -33, -22115, -1870, -544, 212159, 513, -1551, -1433, -2410, -336, 67375, -429, 62482, -161, 50993, -2337, -1454, 253956, 124400, 122800, 78664, 90956, -3929, -3369, -35117, 58607, -3301, -3454, -2257, -1138, 63529, 217535, 76, 41023, 915, -1775, -456, 88469, 52958, -4071, -1810, 56286, -1090, 39933, -3194, -3874, -2450, 149668, -1788, -10296, -1077, -1971, -64, -1738, 153183, 64888, 44910, 385, 51513, 49300, -1516, -1282, -62, 70673, -711, 28232, 297612, 2091, 181025, -1354, -1262, -1012, -353, 45650, -2984, 236398, -82, -1923, 101714, 73252, 2626, -1079, -3479, 443942, 138848, -2623, -2967, 94362, 256652, 294473, 607, -1037, -1485, -129, 132299, 249105, 54782, -6265, -8, 130724, -1605, 147578, -2696, 220156, 179975, 119915, 188873, -1101, 25462, -1198, -11036, -35, -1345, -1975, 129422, 76149, -3831, -1924, -2763, -14991, -2579, 282818, -3318, 258876, 87541, 304093, -2656, 119324, -11091, 32056, 63756, 155864, -1550, -27058, 233816, 127411, -1290, 2747, -2541, 53341, 134510, 150152, -1665, -10852, -792, 57565, -1146, 121717, -7721, -1357, -11322, -8854, -7503, -1349, -32159, -353, -1169, 116, 35971, -16588, -17054, -4706, 194931, -1474, -2509, -1485, -32, -474, 41092, 291370, -25980, -1755, 99221, 168376, -11429, -4, -1237, 103541, 167622, 135754, 78253, -1125, 123214, -45, 45701, 75938, 165342, 163, 50124, 128492, 62069, 49838, -517, 274414, 215663, 95234, -9492, -6615, -26141, -2468, -1849, -3336, 95995, 87452, -594, 1419, 94103, -1005, 116119, 97767, 110730, -6636, 207838, -1643, 125914, -397, 96677, 143533, 110490, -2952, 209414, 3305, 79887, 6, 77449, -1889, -47, -8223, 150290, -2211, 498467, -7317, 16, 146710, -93, -2746, -14163, 51763, 76866, -5702, 85494, 49010, -13078, -3261, -10100}
#define CONV26_WT {0}
#define CONV26_W_Z 	 (137)
#define CONV26_IN_Z      	(0)
#define CONV26_OUT_Z     	(0)
#define CONV26_M_ZERO 	(1431657856)
#define CONV26_N_ZERO 	 (1)


/* Layer 27 Learned Parameters */
#define CONV27_BIAS \
 {-9610, -31628, -9216, 30172, -5230, -5590, 3571, -44277, 43722, -1262, 4709, -16215, -24228, -39739, -31949, -7380, -21435, 20425, 8308, 5191, -36801, 10214, -25914, -905, -25847, -48831, -16902, -20332, -48901, -17399, -65148, -17561, 13233, -3467, -28930, -17530, -27311, -26266, -44133, -15605, -38311, -42587, -32614, -18055, -13364, -5068, -9722, -38215, -3876, -14156, -47908, -55490, -17086, 14250, 17518, 13163, 4630, 20219, -492, 12124, 5220, -11121, 7458, -4937, -11921, -1984, 146, -33442, -35346, -51672, -7149, -16101, -47195, -45351, -22698, -66061, -3682, -54617, -35259, -39340, -38809, -18420, -39296, -25532, -23502, 478, -24290, -7006, 25277, 11581, -51335, -31167, 2229, -24126, -9900, 34467, -21154, -18872, -9976, 4793, -12596, -4782, 580, -5290, 1000, 9765, -7172, -5432, 757, -30026, 16608, -13131, -19740, -15032, 4618, -13043, -26295, -487, 48804, -2944, -2354, -10537, -14045, -95482, 8125, 37972, -36522, 1914, 2419, 2672, -16948, 11015, -3032, -58884, -51160, -25111, 6233, -4542, -4519, -45410, 34275, -12400, 8492, 17522, -4615, -19002, -12260, -25279, 3595, 39992, -5877, -6234, 3303, 22217, -24707, -19616, -30124, 19676, -10487, -23239, -36837, -35282, 3030, -9789, -12243, -39262, 6937, -11203, -48607, -3297, -6577, 24308, -25339, 33094, -38485, -17806, -31711, -12222, -5068, -36872, -7165, 19982, -5550, -18834, -25234, 22364, -18138, -28373, -38073, -26600, -45325, 16421, -85611, -41519, -19879, -30089, -28805, -8142, 15299, -4310, 4565, 29099, 10442, -2169, -37759, -13297, -1703, -31588, 4106, -41757, -9554, -3584, -89782, 16989, -7903, -19167, 3424, 691, -26038, -18718, 263, -31825, 46142, 7237, 6308, -21397, -10306, 7826, -30524, -20212, -19521, 43101, -25589, -45035, -15285, -16745, -24762, -27076, -4293, 30036, -3399, 6273, -2280, -11795, -10556, 2958, -12678, -13033, 18366, -19456, 8696, -28957, -21298, -49834, -8883, -13518, -29152, -23890, 2813, -6412, 8830, -32816, 5298, 35112, -5232, -44606, -5177, 6872, -20117, -54148, 917, -25807, -8716, -19362, 19346, -7569, -19371, -8462, -15178, -21419, 1518, 4827, -4840, -4249, 22295, -34124, -67899, -9690, -35852, -35507, -57294, 24686, 3909, -8300, 93, -8305, 354, -5931, -45278, -7527, 16062, 8431, -11264, -44115, -14100, -19952, -8334, -18306, 44080, -20404, -20982, -29279, -11988, -58019, 14016, -6440, 35195, -167, 359, 49825, 4656, -4253, -11425, 21483, 24595, -34345, 3885, 5777, 1502, -29323, -10677, -13168, -24350, 22878, -12595, -19790, -29831, -26089, -7524, 2077, -16435, -8901, 1451, -21656, 9142, 15914, -13256, -45819, -36891, 22316, -12766, 4970, 25110, -18230, 24333, -4101, -2150, -27569, -28956, -3311, 11282, -14585, -9043, 43810, 45240, 28720, -26931, -45041, -6975, -23043, -2984, -21883, -2630, 14381, 14651, -4727, 4788, 22272, 21429, -32000, -22437, 11856, -69555, 3192, -9977, -35528, 3891, 25041, -13261, -19424, -29358, -24728, -10634, 3004, 13416, -59088, 13295, -15886, 1879, 44537, -19870, -2577, -17135, -14911, 9091, -11242, -14329, -6472, -47270, 33477, 2489, 43200, -8927, -6497, -49826, -21667, -49096, -35871, 16430, -3091, -48063, 7886, -8204, -17659, -970, -25595, -24419, -2008, 19994, -5693, -16103, 2657, -25814, -30300, -63179, -15878, -18640, 529, -17861, 7516, -13394, -44897, 2355, -29151, 15647, -31911, 58897, 6155, -33083, -31648, -39906, -5756, -48750, -19048, -1729, -50547, -16899, 130, -13564, -15769, -3163, -26769, 6523, -14617, -23504, -26299, -57958, -1743, -12221, -24450, 25939, -19308, -19093, 4978, -26149, -34156, 6483, -19692, 1420, -12415, 8639, 31839, 13294, 1218, -18515, -22634, -20748, 10765, -16996, 6669, -9009, 7474, -15384, -1268, -37426, -47095, 40461, -47201, 30073, -20849, -50385, -5587, -15325, 34029, -48966, -6252, -22860, -45078, -16805, 21014, -14913, -31580}
#define CONV27_WT {0}
#define CONV27_W_Z 	 (137)
#define CONV27_IN_Z      	(0)
#define CONV27_OUT_Z     	(0)
#define CONV27_M_ZERO 	(1431657856)
#define CONV27_N_ZERO 	 (1)


/* Layer 28 Learned Parameters */
#define FC28_WT \
{0}
#define FC28_BIAS \
 {-4137, 3524, -7378, -7691, 5188, -1573, 2565, 993, 1392, -3286, -7906, -5041, -2222, -1482, -1596, -4142, -3418, -1253, -2157, -3429, -269, 6383, 1257, 1253, 1915, -2015, -826, -3075, -655, -517, 1395, -40, 1781, -3675, -1280, -6532, 839, -1433, 126, 2159, -2434, 643, 1166, -3854, 5581, 2759, -876, -186, -6836, -96, 1435, -2657, 1684, 5301, 2993, -533, 812, -958, 2932, 1409, -2188, 5228, -527, 6467, 6075, 1140, -4756, -1180, 1931, 2096, -3402, 1122, 1828, 3267, -3213, 8138, 1190, 3732, 4965, 6471, -9629, -2745, 1135, -16808, -5426, 232, -4699, 2602, 3611, 3017, -3284, -3409, 1175, -3027, -1940, -5670, 301, -6538, -10677, -7997, -3509, -3762, -218, 7074, -1393, 346, 4041, -270, -7083, -11812, -6859, 12592, 7511, -803, 968, -11951, -6588, -2555, -156, -1670, -2619, -2753, -3176, -6945, -3001, -5629, -4079, -10207, -3514, -1053, -4485, -5871, -2492, -741, -11301, -6839, -6994, -6907, -7825, -8495, -9962, -4104, -5850, -6656, -7008, -3798, -1473, -6694, -3156, -2503, -201, 5886, -9288, 4862, -2075, 2134, 164, -6884, -5770, -592, -1830, 8938, 7952, 2054, 1700, -3799, -2149, -7708, 1376, 518, 2220, 8477, 370, 165, 7085, -5152, -3026, -1410, 6367, 568, -291, 127, 1818, -1240, 3403, 5199, 60, -874, -629, -144, -1747, 4501, 755, -3060, -2357, 12303, 1403, 87, -3115, 5361, -6961, -3454, 5101, 6006, 5254, -854, -2441, -2534, -3625, 5216, -901, 2922, 1009, 1033, -478, -1336, 1150, 6980, 1957, 1676, -2360, -7411, -1761, 10548, -3066, 3995, 8, -1014, -5236, 7377, -346, -5012, -4171, 1031, 635, -411, 1946, 6265, 2121, 6073, -2428, -5126, 2775, -2941, -1034, 5316, 379, 5648, 909, -1196, 870, 3075, -311, -2873, 9272, -4837, 1131, 1497, -1403, -1466, 1547, -1524, -2300, 3599, 866, 4910, 4688, -1457, -4108, -221, 7471, -1776, -541, -1641, -5890, -6368, -1413, -522, -4773, 2548, -969, 8613, -4599, -1460, 8629, 3763, 1289, 1250, -1765, 74, -2326, -7513, -3474, -6893, -394, 1518, -3134, 1151, 1260, 761, -3883, -4421, -4808, -524, -7091, 1765, 2537, -5322, -3635, -6959, 1115, -1427, 71, 8270, 7401, 4446, -320, -5288, 723, -6775, -9169, -8534, -9889, -8851, -6277, -10885, -8205, -1744, -4923, -6345, -2436, -4529, 5755, 2512, 256, 238, 2023, -4922, -5750, 737, -912, -3068, -3741, -5161, -3277, -11, 1519, -3580, -966, -2141, -822, -6586, -3963, -2630, 5150, -2732, 4201, 1192, 1016, 7805, -2365, 4033, 2349, -486, -99, 2225, 3171, 7235, -1964, 4129, -813, -4924, -198, 1962, -665, -22, 1983, -601, 3131, 4791, -1015, 4596, 2525, 2849, -9161, 1067, -1356, -3606, -4715, -1936, -3318, 3003, -9116, -8478, -5779, -205, -10738, -2648, -2405, 6813, -244, 4351, -1462, -2419, -12467, 1486, -2500, -4364, -5147, -3478, -2339, -91, 4133, 6816, 1698, 653, 8313, -3760, 6012, 3391, -2975, 3671, 3098, 8067, 7819, -2431, -5410, -5834, 2043, 2300, 137, -3579, -666, 1138, 1638, -1494, 1088, 76, -1836, 1134, 2073, -1107, 3986, -807, 3600, 6430, 1714, -1156, 4801, 1590, 5340, 2413, 1157, -1343, -102, -1245, 4409, 4192, -936, 3434, -3305, 5603, 3090, 2253, 7324, 2477, -3185, -1722, 7077, 3089, 2598, 1737, -2472, 2020, -1930, 4927, -4480, 476, 2595, -2198, 4428, 1346, -1469, -6934, -5250, 1100, -587, 3673, 1623, 1841, -6984, 3764, 5611, -2584, 556, -4083, 989, -9653, 3905, 7011, -751, 3904, 1321, -522, 184, 3622, -1071, -784, -692, -4951, -4413, 410, -2923, 1398, 720, 4999, 546, -4710, -711, 3829, -5669, 1124, -240, 7914, -1265, 473, 1793, -1303, -6930, 7241, 6229, -4055, 1870, 5302, 565, 462, -4550, 4532, -1747, 7454, -8812, -4886, 3286, 4722, -722, 6418, -811, -12245, -6649, 9061, -1927, 4477, 2137, -3462, -3658, -4409, -70, 2121, 1467, 574, -3767, -540, -904, 8538, -8478, -1169, -2695, 3789, 5497, 797, 54, -1889, 386, 2269, 4944, 1681, 2136, 4034, 1404, 3636, -3174, -4336, -202, 2707, 7254, 670, -3931, 5015, -596, 5876, -4754, 85, 2257, 8759, 3462, -9573, 3423, 6136, -4627, 2511, 8956, 5090, 5281, 3861, -2701, -529, 4144, 863, 7310, -334, 1667, -4060, -1246, -3760, -291, -474, 2016, 720, 2724, -2215, 3216, 2284, 4413, 11514, -3075, -554, 4802, 2753, -3396, 4341, 7562, 447, 6187, 3875, 5601, -4537, 3066, 1731, 1240, -4884, -7241, -2978, 2930, 650, 7639, -4628, 3655, -5500, -441, 902, 10308, 1248, 986, 516, 2235, 6993, 1734, 1700, 3133, 1394, 897, -2717, 2280, -1964, 3105, 3719, 4101, -1152, -7290, -1921, 1951, 7260, 1296, 3511, 5499, -49, -2958, 2928, 5659, 1403, 2049, 993, 1166, 5757, 4742, -1193, 5497, -5339, -8720, -2152, -3902, 183, 6845, -9059, 1409, 7587, 3810, -2596, 1360, -1918, 7799, -5125, 429, 5550, 5091, -8143, 1419, 3048, -4941, -6008, -2448, 5017, 1069, 2448, 3443, 404, 7949, -3744, 5598, 5655, 3198, -2563, 5592, -2653, -4765, -1935, 7146, -1535, -49, -262, -6012, 4800, 4626, 628, -5755, 470, 499, 2425, -1535, 2702, -1041, 3270, -1811, 6037, -2305, 3472, 3291, 4387, -313, 6995, 5729, -743, 4102, 1461, -2920, -5815, 1551, -3797, -1082, -2530, 7733, 3319, -67, 2196, 7424, 3116, -3471, 2975, -1632, 5388, 3773, -3320, -37, -483, 5211, -136, 5712, 11332, -3752, -3958, -4726, -6626, 411, 22, 1917, 4206, 2640, -2532, 2524, -1652, -4682, 4751, 7825, -1853, 1421, 1402, 2817, 4646, -3264, 5410, -1905, -3617, -2971, -2502, 1978, 3502, -5689, -753, 2165, -5064, -7578, -1551, -280, 1855, -2123, -3593, 1435, -2078, -385, 2804, -1595, 1013, -147, 5873, 5694, 303, -3746, -4321, 4052, -3194, 1056, 3148, -655, -1229, 8495, -8328, 8900, 9309, 6280, 2226, 838, 3768, 4119, 6059, 4892, 9726, -1647, 659, 4128, 1078, 3653, 468, -261, 1370, -2839, 4303, -8303, -4536, 6451, 6034, -4243, 4219, -1559, 193, -4347, 518, -3855, -3755, 4493, -4633, 2031, -6092, 4595, -3069, -10640, 1493, 1949, -209, -7885, 6799, 9970, 160, 2790, 282, -590, 17257, -757, -6397, 1566, -1174, 1610, -2, 2643, 4992, -2801, -1985, 1358, 1735, 3483, -4071, -3181, -1342, 312, 3830, 6116, 7827, 3891, 1430, -4636, 2455, 28, 8068, -4011, -1237, -1777, -4532, -1267, 151, -1050, 8855, 1325, -1695, 2617, -458, -6577, -4523, -9275, 263, 1413, 7535, -1868, -1663, -204, -4910, -1050, -2096, 2122, -2141, -600, -5067, -3606, -394, 1393, -2612, -4967, 609, -6139, -5352, -3990, -1233, -708, -2753, -1450, -2445, 4037, -910, -1276, -1606, -1231, -8305, 1563, 1386, -2235, -3365, -3741, 1939, 4929, 3339, -754, -1406, -2826, 8848, 3075, -8054, 2436, 6944, 2905, 8543, 6641, -2910, 4073, 1271, 4461, -7076, -121, 710, -7418, 324, -3475, -3382, -1179, -5693, -4690, -14285, -2962, -6347, -3945, -6668, 1343, 4492}
#define FC28_W_Z       	(169)
#define FC28_IN_Z      	(0)


#endif /*__192_0_5_WEIGHTS_BIAS_H__*/
