#ifndef __224_0_5_WEIGHTS_BIAS_H__
#define __224_0_5_WEIGHTS_BIAS_H__


/* Layer 1 Learned Parameters */
#define CONV1_BIAS \
 {37160, 29611, 44339, 51150, 77205, -1454, 17853, 19007, 21128, 20154, 23604, -26881, -9594, -945, -52048, 57003}
#define CONV1_WT {0}
#define CONV1_W_Z       	(137)
#define CONV1_IN_Z      	(127)
#define CONV1_OUT_Z     	(0)
#define CONV1_M_ZERO    	(1629926016)
#define CONV1_N_ZERO    	(7)


/* Layer 2 Learned Parameters */
#define CONV2_BIAS \
 {65, 775, 1313, -1247, 1265, -154, -200, 225, 197, -385, 1236, -453, -241, -20, -58, 1263}
#define CONV2_WT {0}
#define CONV2_W_Z       	(137)
#define CONV2_IN_Z      	(0)
#define CONV2_OUT_Z     	(0)
#define CONV2_M_ZERO    	(1431657856)
#define CONV2_N_ZERO    	(1)


/* Layer 3 Learned Parameters */
#define CONV3_BIAS \
 {19965, 4734, -20744, -7321, -369, -13426, -14011, -1829, 18185, -6339, 21052, -1040, 15271, 9330, -3355, 5217, 20553, 11807, 4987, 34785, 16368, -934, 17179, 6886, -7134, -3410, 14404, 6910, 13872, -2279, 6140, 13101}
#define CONV3_WT {0}
#define CONV3_W_Z       	(156)
#define CONV3_IN_Z      	(0)
#define CONV3_OUT_Z     	(0)
#define CONV3_M_ZERO    	(1091960704)
#define CONV3_N_ZERO    	(8)


/* Layer 4 Learned Parameters */
#define CONV4_BIAS \
 {20, 202, 154, 60, -26, 15, 353, 102, 78, 31, 113, 137, 7, 300, 150, 219, 36, 42, 49, 108, 45, 27, 0, 6, 154, 14, 156, 133, 170, 60, 100, 292}
#define CONV4_WT {0}
#define CONV4_W_Z       	(200)
#define CONV4_IN_Z      	(0)
#define CONV4_OUT_Z     	(0)
#define CONV4_M_ZERO    	(1509106816)
#define CONV4_N_ZERO    	(-1)


/* Layer 5 Learned Parameters */
#define CONV5_BIAS \
 {-2802, 9847, 4418, 2911, -15775, -11837, 24549, -10858, 65, 4530, -1061, 10752, 4791, 8748, -10814, -498, 859, 14430, 12805, -6017, -1712, -678, 5964, 13828, 1610, -3479, 765, 148, 9209, 300, 7658, -196517, 1190, -3300, 3845, 3597, 7378, -5730, -7904, 13179, 6564, -5784, 4219, 5716, -4708, -19786, 2518, 3094, 20527, 12383, 10662, 10814, 2032, 4913, -1585, 16385, -3862, -2167, -198, 2149, -12741, 20698, 16632, -12398}
#define CONV5_WT {0}
#define CONV5_W_Z       	(110)
#define CONV5_IN_Z      	(0)
#define CONV5_OUT_Z     	(0)
#define CONV5_M_ZERO    	(1728124672)
#define CONV5_N_ZERO    	(5)


/* Layer 6 Learned Parameters */
#define CONV6_BIAS \
 {-22, 734, 231, 2382, -350, 1544, 611, -885, 1137, 811, 239, 665, -36, 576, 2430, -1958, 52, 382, -159, 522, 1598, 472, 69, 306, 3252, -501, 111, 2143, 549, 2873, 86, 2266, -34, -52, 3154, 77, 110, 0, 229, 2088, 2195, -852, -115, 1000, -6, -299, -1098, 821, 267, 5038, 167, 37, 313, 303, -327, -9, -744, 940, -475, 213, 992, 346, 1162, -992}
#define CONV6_WT {0}
#define CONV6_W_Z       	(101)
#define CONV6_IN_Z      	(0)
#define CONV6_OUT_Z     	(0)
#define CONV6_M_ZERO    	(1324106240)
#define CONV6_N_ZERO    	(2)


/* Layer 7 Learned Parameters */
#define CONV7_BIAS \
 {4391, 2202, 9746, -1682, -17944, -2888, 2676, -7827, 5297, -2183, -5197, 5045, 806, 1943, 688, -5096, -2835, 9129, 11716, 876, -3467, 670, -13043, -17246, 1677, -4257, 1867, 4599, -28, -694, 345, 3230, 2097, 7169, 8435, 1854, -1629, 5230, -5786, -1393, -8850, -11717, 7484, 2930, -8355, 381, 1806, 6170, 2467, -9025, 11503, -2403, 3617, 6332, 266, 17086, 12473, 1885, -717, 10087, 7393, 7618, 5992, 2631}
#define CONV7_WT {0}
#define CONV7_W_Z       	(120)
#define CONV7_IN_Z      	(0)
#define CONV7_OUT_Z     	(0)
#define CONV7_M_ZERO    	(1619784448)
#define CONV7_N_ZERO    	(5)


/* Layer 8 Learned Parameters */
#define CONV8_BIAS \
 {947, -3396, 14395, 14188, 5509, -546, -3325, 1586, -2801, 1577, 4383, -3653, 6660, 2271, 14749, 1227, -37, 5750, 8011, 18027, 13900, 198, 5538, 15527, 6357, 896, 17, 9625, 12743, 13142, 12885, -107, 13211, -7909, 178, 40, 116, 14285, 13258, 6255, 529, 5583, -1240, 13860, 2987, 4624, 9493, -1083, 72, 2449, -4013, 1128, 234, 6495, 18769, 13968, 12690, 6001, -105, 1757, -7162, 1000, 550, 17651}
#define CONV8_WT {0}
#define CONV8_W_Z       	(114)
#define CONV8_IN_Z      	(0)
#define CONV8_OUT_Z     	(0)
#define CONV8_M_ZERO    	(2014125568)
#define CONV8_N_ZERO    	(5)


/* Layer 9 Learned Parameters */
#define CONV9_BIAS \
 {-13201, 9767, 16324, 10116, -4891, 16822, -7993, 16975, 16830, 9601, 2179, 13585, -46631, -12896, -5824, 10248, -12291, 13498, 1223, -15348, -8474, 2422, 2198, 12226, 21686, -28166, -5630, 250, 18688, 25027, 13387, -10152, 47080, 6533, 6819, -10750, 8093, 21326, 49656, 22145, 9760, 23519, -10559, 1160, 12213, 6225, -6506, 2929, 2301, 52093, -5642, -12776, -3519, -3827, -14545, 6265, 11925, 12206, -27381, 25782, 4108, 14611, 7043, 20644, 3224, 6360, 19666, 4109, 7324, 8904, 6652, 23324, 718, 9578, -53709, 10191, 5208, -6867, 9151, 27638, 11766, -8088, 6354, 6876, 2646, 10965, 973, 3096, 13251, -36711, 3042, -12308, 3053, 4300, -15, 15472, 8367, -18533, 2691, 6658, 20137, 5353, 4281, -7358, 14534, 30789, -3913, 7319, 11074, 19316, 26588, 6918, 12922, 529, 14761, 3828, 18018, -453, -491, 1841, 32609, 8724, 4777, 39744, 2702, -8023, 3670, 20293}
#define CONV9_WT {0}
#define CONV9_W_Z       	(111)
#define CONV9_IN_Z      	(0)
#define CONV9_OUT_Z     	(0)
#define CONV9_M_ZERO    	(1309971584)
#define CONV9_N_ZERO    	(5)


/* Layer 10 Learned Parameters */
#define CONV10_BIAS \
 {2740, 5016, 2735, 2776, 1035, -1411, -7, -14, -1982, 922, -1954, -30, -1196, 10, 3609, 46, 2729, 4861, -140, 223, -211, 3069, 60, 1041, 892, -1070, -196, -1128, 1696, -153, 89, -13, -206, 104, -383, 2061, 3174, 2831, 1661, 2492, 1497, -650, 1063, -168, 932, -67, 1132, 2851, -19, -1156, -949, -125, 3729, 1146, -2313, 5753, 2127, -409, 1253, 292, 320, 1970, 40, -1901, -81, -29, 3498, 3064, -100, 3578, -702, 61, 257, 3938, 1203, -744, 786, -547, -1283, 3624, -120, -54, -179, 4205, 2830, 3071, -1190, -228, 2559, -573, 148, 2550, -2934, -932, 165, 3116, -228, 1296, -207, -369, 4291, 200, 3862, 4954, 2165, 2063, 2602, 3947, 5428, 108, 3764, 772, 18, 1346, -13414, 2445, -860, -188, 3505, 431, 1114, 2848, -2138, 495, 1919, 2620, -1918, -1094}
#define CONV10_WT {0}
#define CONV10_W_Z       	(104)
#define CONV10_IN_Z      	(0)
#define CONV10_OUT_Z     	(0)
#define CONV10_M_ZERO    	(1517883648)
#define CONV10_N_ZERO    	(3)


/* Layer 11 Learned Parameters */
#define CONV11_BIAS \
 {7100, -231, -6286, 21394, -589, -6136, -26203, -5161, -1350, -30854, -1552, 6341, -17841, -4551, -5713, -2022, -9965, 10852, -787, 12027, 13813, -7138, 6851, 3032, -2054, 1595, -5792, 4619, 3784, 4047, 10696, 6610, 4124, -5799, -7482, -26800, 4162, -8755, 8072, -8745, -15486, 1083, 18320, 12494, -26581, -13683, 5698, 3753, -14242, -8346, 9057, 2502, 9945, 11301, 6191, -2195, 6007, -6217, -2707, 2133, -1656, -3879, -17493, -14471, -15553, 2796, 3870, 8447, -10826, -8867, -7529, 9804, 4778, -9136, -14292, -8425, -1455, -17025, -19168, -13098, 4354, 5918, -15195, -2828, -3499, 9360, 2854, 1578, 17868, -7100, -3297, -2435, -9746, 6072, 939, -17318, -7087, -8708, 144, 6468, -21047, -16582, 3896, -3584, -12948, -10499, -2248, -9564, 1034, -3869, -7307, -8421, -11160, -8882, 5370, -6315, 582, -16591, 7099, 3597, -15631, 9232, 4660, -4858, -161, -9764, -11592, 13146}
#define CONV11_WT {0}
#define CONV11_W_Z       	(114)
#define CONV11_IN_Z      	(0)
#define CONV11_OUT_Z     	(0)
#define CONV11_M_ZERO    	(1169602432)
#define CONV11_N_ZERO    	(5)


/* Layer 12 Learned Parameters */
#define CONV12_BIAS \
 {31438, 13846, 9852, 9047, 67, 22050, -14, -6, 108, 9493, 1619, 110, 2215, 126, 2185, 7690, 10675, 22062, -255, 1856, 10637, 11494, 22789, 19188, -721, -2638, 5183, 11470, 29466, 21627, -5773, 105, 31064, 642, 8652, 2142, 10693, 1821, -269, 9687, 59, -6895, 23846, 19923, -193, -1455, 25498, -239, -150, -153, -108, 8222, 33470, 10517, 256, 9498, 9682, 94, 7802, 32636, 93, 27174, 12824, 299, 21780, 1048, 33268, 10323, 818, 2679, 12186, 25982, 28, 1070, -9802, 23815, 701, 8956, -116, 93, 18270, 521, 13565, -4104, 10222, 18212, 11652, -217, 31506, 1602, 11667, -286, 24890, -761, 371, -154, -1478, 10372, -480, 13972, -160, 462, 7522, 454, 13164, 1571, 8244, 9151, 18797, 17160, -146, 1679, 443, 291, 29833, 23003, 7865, -98, 25809, -42, 436, -2237, 16879, 1362, 12479, 17328, 327, 132}
#define CONV12_WT {0}
#define CONV12_W_Z       	(121)
#define CONV12_IN_Z      	(0)
#define CONV12_OUT_Z     	(0)
#define CONV12_M_ZERO    	(1315208448)
#define CONV12_N_ZERO    	(5)


/* Layer 13 Learned Parameters */
#define CONV13_BIAS \
 {22847, 8492, 9416, 31044, 9845, 9450, 21582, 26774, 14775, 4325, -8609, 8581, 26903, -2246, 2715, 8329, 9951, 55002, -2236, 13488, -8435, 415, 16546, 571, 10284, 11491, -1588, 15278, 16925, -8430, 5370, 9405, 22738, 4458, 17057, 13906, 14241, -4707, 5246, 16324, 10398, 21287, 25698, 16853, 8780, 21424, 6053, 3655, 10033, 5274, 4521, 16145, 8394, 12426, 7785, 23735, 6843, 10662, 12346, 6803, 24005, 15232, -8195, 17964, 8212, 23607, 15563, -18925, 25286, 34449, -4733, -2669, 763, 14137, 965, 1618, 7792, 1324, -10563, -13312, 13558, 7888, -1781, -15238, -15930, 7362, 26989, 15122, 3507, -11838, 26072, 5725, 9480, 415, -344, 10901, 32872, -4914, 7990, 28157, 17459, 529, 4455, 18096, 13461, -949, 17750, 14989, 7507, 19395, 8360, -17790, -5242, 28336, 6622, 16294, 4601, 11856, 12469, 1847, 15533, 17135, 14643, 5942, 5305, 11775, 9471, 1589, 1492, -6323, 26945, 19701, 28833, -24484, 4632, 10945, 2208, -13483, 1151, 9573, 9680, 17283, 6171, -2630, 31028, 16055, 15859, 20168, 8754, 5260, -14495, 8628, 7627, 8162, -5705, 17032, 25145, -6617, 17784, 6131, 397, 9628, 16925, 12419, 18760, -6010, 11482, 21918, 19472, 6128, 22657, 18124, 10560, 18748, -16898, 7918, -12049, 6267, 14892, 8650, 14991, -38517, -3063, -13560, 1522, 7182, 20775, 8073, 3924, 1906, 20068, 16852, 14334, 438, 11061, 19407, 16703, -4259, -4099, 18475, -15609, 8006, 6492, 21359, 15816, 6088, 17225, 15085, 14717, 8495, -10138, 24442, 23809, 14696, 2197, 17755, 16269, 23113, 8947, 65310, 14309, 23835, 22021, 6055, 10511, 1326, 6260, 20111, 10407, 9380, 20504, -201, -11254, 13076, -8495, 12154, 19092, -9740, -42, -53, 23305, 3880, 9223, -13105, 20350, -1778, 188, 7962, 8900, 29017, -6376, 10712, 16830, -11947, 14680, 3290}
#define CONV13_WT {0}
#define CONV13_W_Z       	(129)
#define CONV13_IN_Z      	(0)
#define CONV13_OUT_Z     	(0)
#define CONV13_M_ZERO    	(1705613440)
#define CONV13_N_ZERO    	(6)


/* Layer 14 Learned Parameters */
#define CONV14_BIAS \
 {619, 199, 481, -1169, -260, 4866, -1498, -1441, -477, 10132, 1645, -358, 831, 2391, 276, 2784, 6972, 2516, -327, 218, 2467, 1052, -229, -148, 6696, 6718, 204, 6939, 2234, -1376, 221, 654, -1243, 318, -147, -1, 466, 2282, 1446, 3169, 186, 7100, -219, 986, -2759, 1151, -1738, 205, 8459, -203, 1634, -1387, 6262, 3479, 5761, 376, -2377, 24, -1166, 605, 2047, 397, 277, 4857, 622, 241, 3256, -272, 3804, 2609, 2983, 735, 2339, -1084, 813, -54, 3318, 608, 252, -3738, 324, 6122, 4209, -116, 2910, -100, -4729, 1571, 71, 3088, 2695, 494, -1674, 6974, 469, 46, 435, 1886, 6091, 690, 9238, 1759, 56, 672, 55, 468, 365, 1284, 8525, 1021, 5193, -311, -1385, -473, 174, 835, -56, 230, -451, 3740, -34, 409, 2597, 244, 59, -76, -298, 1309, 517, 59, 255, 74, 863, -500, 413, -28, -452, 2621, 2523, -1461, 87, 106, 5738, 1914, 3601, 142, -4779, 1025, 4309, 206, -2869, 3240, 811, 2415, -3601, 1331, 2654, 39, 2797, 459, 1861, 44, -424, 444, 702, 115, 4939, 238, 2270, 6246, 1191, 585, 2363, -1431, -1912, 9105, 4493, 1376, 644, 10137, 29, 616, 1278, -1577, -1238, 3166, 346, 175, 8, -266, -246, 2963, 11895, -1335, -109, 2577, 3470, 2808, -2293, 720, 3570, 305, 35, 92, 1406, -2795, -2707, 113, 1288, 4, 656, 2753, 462, -479, 762, -911, 27, 406, -1168, 4293, -158, 3256, -750, 7682, 4555, 2094, 489, 206, 154, 1009, -999, 452, -2184, 7178, 18, 2929, -79, 3662, -1787, 2813, -3148, -8, -926, 911, -81, 2995, -357, 99, 3169, 4379, -677, -533, -1347, -3, 5548, 149}
#define CONV14_WT {0}
#define CONV14_W_Z       	(109)
#define CONV14_IN_Z      	(0)
#define CONV14_OUT_Z     	(0)
#define CONV14_M_ZERO    	(1860888192)
#define CONV14_N_ZERO    	(4)


/* Layer 15 Learned Parameters */
#define CONV15_BIAS \
 {2663, -1839, 4364, 10107, 6308, 13314, 10967, 8777, 9459, 13289, 9323, -867, 10690, 1718, 6230, -4062, 11214, 16059, 126, 11808, -2374, 2604, 5566, 9139, 7282, 10383, 9536, 6520, -1026, 3990, 4927, -995, 2362, 9875, 4429, 11143, 18589, 8752, -9214, 10133, 17398, 4020, 9397, 1166, 2520, 2057, 9403, 10722, 8249, -10633, 9208, 16264, 1856, 23429, 16297, 12732, 5492, -2549, 6396, -821, 7087, 18747, -10099, 6216, 12023, 11377, -13115, 12236, -6639, -457, -7159, 18354, 3885, 7453, 2261, 15851, 8441, 13985, 12417, 3274, 1598, 4818, -3918, 12224, -14621, 10194, -9994, -5287, 6901, 24837, -14935, 11498, 13917, 13999, -1387, 10863, 8078, 11318, 11871, -3587, 13944, 8686, 15971, 9553, 10801, 6043, 16858, 1041, -4623, 4813, -865, 17195, 17037, 11049, 2425, -4863, -9376, -6358, 3245, -5563, -2965, 11155, 10304, 7793, 4951, -6998, 26487, -7407, 17667, -6843, 6781, -2610, -12725, 18260, 9107, 12867, -10862, -12922, -925, 8852, -1600, 12275, 14473, 11850, -7531, 5311, 11765, 5350, -1376, -20921, -7055, 6171, 6130, 3135, 5794, 6572, 7302, 14308, 3003, 7677, -4967, 12763, 7325, -14143, 7411, 19331, 10940, 3878, 2190, 3177, 12760, 9464, -5321, 13929, 8864, 598, -1831, 10472, 11735, -1105, 12479, 3199, -6366, 30, 3275, 9206, 2184, 16699, 9497, -424, 6498, 6, 11192, 10626, 12637, 2139, 18542, 11411, 4215, 5116, -17207, 8441, 10030, 20075, -3771, -3936, 22624, 4733, 10610, 28013, 2189, 7350, 4882, 7285, 15807, 5973, 7307, 14366, 8467, -1550, 5406, 10793, -173, 20389, -1319, 11579, 1216, -2034, -3315, 6236, -3817, 2045, 10546, 32, 7831, 942, 2087, 16125, 8562, 37, 6315, 7657, 9884, 4415, 13198, 8386, -12457, 12793, 4135, 7379, 4599, 6294, -21661, -6592, 10911, 8421}
#define CONV15_WT {0}
#define CONV15_W_Z       	(123)
#define CONV15_IN_Z      	(0)
#define CONV15_OUT_Z     	(0)
#define CONV15_M_ZERO    	(1807368704)
#define CONV15_N_ZERO    	(6)


/* Layer 16 Learned Parameters */
#define CONV16_BIAS \
 {6128, -711, 3369, 422, -894, -368, -97, 2107, -1123, 10921, 4985, -840, -203, 5886, 5329, 4520, 7385, -3804, -599, 2261, 2302, 346, 354, -903, 2649, -2327, 1074, -6, -621, -2625, -1753, 3470, 5147, -267, -390, 605, -1993, -12896, -187, 8279, -1505, 1626, 2706, -663, -2729, -415, 5792, -308, -991, -1272, 3847, 4603, -286, 2578, -2821, -1066, -981, 3624, -489, 1220, 5207, -2069, -1663, 4520, -357, -6754, -689, -254, -199, 3619, 3457, 4098, 830, -580, 5651, 3050, -3202, -5297, 6715, 4409, 1660, -607, 3729, -940, 3877, 589, -1804, -1058, 1937, 2234, -1045, -2669, -851, -19, -863, 1465, 5062, 3426, 1271, 1657, -3368, 896, -311, 5347, -1315, 6205, 3498, -640, -19, -372, 6504, 5822, 8303, 6566, 2658, -2318, -387, 63, 1990, -1897, -455, -1539, 389, -180, -6878, -403, 1466, -2739, 1968, 4211, -3073, 2792, 3057, 2764, -2121, -9137, -3547, 2211, -1311, 2749, -625, -7002, -3891, 3211, 337, 5378, -671, 5878, 2259, -2096, 896, -153, -5858, -171, 2798, 6872, 8466, 1954, 2131, 1772, -2151, 3061, 4995, -1095, 5990, 1204, 1724, 7, 3832, -3639, -808, 3276, -337, 3050, 1341, 1475, -1393, -1022, 8885, 4421, 3731, -1172, -1972, -1589, -1517, 6294, 2708, -6, 7737, -1461, -791, 3252, -2815, 3150, -12763, 2294, 437, -404, 4687, 5331, -276, 1709, -3262, -49, 849, 5360, -33, 6118, 557, 2420, 775, 994, -805, 78, -1400, 7465, 964, 3249, 4771, -156, -664, -5960, -1775, -6, 2857, 1795, 1433, -2492, -2213, -739, -707, -2586, -3018, 2946, -8363, -1836, -31, 5171, 5395, -1144, -178, 4328, 838, 5066, 1094, -353, 540, 7400, 5486, -7488, 1920, -397, -1251, -983, 2063, -7478}
#define CONV16_WT {0}
#define CONV16_W_Z       	(117)
#define CONV16_IN_Z      	(0)
#define CONV16_OUT_Z     	(0)
#define CONV16_M_ZERO    	(1858566656)
#define CONV16_N_ZERO    	(4)


/* Layer 17 Learned Parameters */
#define CONV17_BIAS \
 {7176, 11964, 11864, 4772, 15794, 13528, -5392, 10468, 6458, 3806, 8209, -4644, -148, 21419, 11084, -1556, 8081, 8444, 3703, 10531, -14953, 27703, -239, -4054, -19036, 9767, -6744, 2591, 13217, -7862, 5318, -3605, 2158, 4533, -16494, 1589, -27049, 15756, -9859, -4915, 4063, 14446, 20217, -5097, -5404, -4795, -13556, 2737, -14768, 15510, 666, 1837, -16757, 6823, -17143, -7281, 7585, -14905, 12512, -12143, 4256, 13464, -19123, -451, 13277, 2348, -28689, -2260, 8180, 18887, -5974, 4911, -10924, 7794, -32008, 13547, -296, 5201, 6586, 11039, 9375, -3877, 3741, -7930, -6309, 4054, 5409, 4602, 6710, 10952, 18460, 6252, -16034, -308, 12477, 869, -4432, 988, -9870, 6842, -608, 14940, -13565, 1562, 10489, 11946, 4678, 6481, -2813, 4222, 16615, 1836, 9967, 11537, -5047, 5036, -9900, -13883, -2051, -16537, -21041, -21448, -21663, -18597, -16890, -9682, 13584, -2956, 6703, 4200, 10374, -4281, -7260, 16250, 15513, 3160, 6692, -8601, 6021, -9944, -4663, 20153, 34440, -6162, 17010, 18201, -4366, -13976, 13201, 23363, -10786, -15884, -8920, 16742, 7524, -2521, 3331, 512, 3783, 500, -5994, -10139, -8125, -25419, 689, 9275, -12984, 7960, 17057, -33223, -4001, 5340, 13474, 17366, 5661, 14790, -20039, -15189, -9754, 5417, -3230, -7306, -1192, 11065, -15304, 539, 23828, 8684, 5387, -154, 1711, 5275, 5476, 10819, 380, 7460, 21459, 1284, 201, 7962, 6912, 1746, -9077, 12821, -11537, 6853, -2653, -18333, 4128, 19842, -11424, -5601, 2380, -8665, -2880, -30926, 3207, -11345, -541, 667, 2400, 6469, 11701, 4106, 9355, 876, 6952, -14541, -24030, -3911, -4253, -7732, 6670, -19209, -7052, 5717, -23688, -8353, 16469, -3032, -975, 24943, 3582, -1952, -20866, -12706, 3250, 6403, -5563, 5595, 5054, 4375, -14350, 16989, -4403, -1369}
#define CONV17_WT {0}
#define CONV17_W_Z       	(127)
#define CONV17_IN_Z      	(0)
#define CONV17_OUT_Z     	(0)
#define CONV17_M_ZERO    	(1462088448)
#define CONV17_N_ZERO    	(6)


/* Layer 18 Learned Parameters */
#define CONV18_BIAS \
 {1995, 125, 2919, -3429, 13990, -869, -1342, -2202, 1626, 5488, 3752, 119, 5884, -772, 6123, -1745, 4127, 6436, -3824, 5537, -1082, 4772, 219, 119, 4974, 2209, 5920, -645, 5680, 5101, -1641, 5865, 3186, 5938, 2842, -6460, -6096, -364, 3615, -1071, -182, 5787, 6584, 3730, 4202, -566, -91, 5805, -2128, 8033, -2601, 4581, 5865, 2831, -2578, 5453, 2853, 3049, 4787, 416, -131, 3273, -981, -6280, 6095, -615, -696, -340, 4315, -2169, 3951, -942, -2590, -1399, -3778, 10492, 4521, -635, 2899, 5211, 1250, -133, -1957, -2103, -9063, 2882, 1889, -266, -625, 5565, 3016, -5100, -1816, 6258, -2337, 18, -1371, 6072, -1398, 4176, 5744, -3732, -515, 3792, 3697, -33, 200, 4181, -742, 3483, 9076, 3871, 5058, 11653, -1107, -6584, 5668, 2139, 6727, 393, 2432, -2972, 4828, -6441, 4212, -1691, 8185, -1028, -4014, -2412, 3469, 3380, -81, -1363, 9383, 3550, -1013, 5732, -754, 3719, 4705, 2808, 5309, -1195, -4106, 6646, 3139, -317, 4603, 2930, -3461, 4724, -1646, 4547, 7553, -2867, 3020, -2788, 4718, -837, -1043, -1246, 4020, -1640, 3692, -2432, 3243, -2987, 2698, -61, 2965, 6529, 5924, 2624, 2891, 6775, -871, -2876, 1658, -948, 4386, -2426, -1595, -1358, 6080, 5206, 2213, -5629, 4293, 3029, 4693, 5451, 5518, 1379, -3580, 6570, 6346, 2564, -81, -37, -611, -3724, -1952, 3925, -4458, 5234, -8034, 4461, 4336, -2050, 2635, 4187, 2471, -1542, 7729, 2557, -732, -1378, -3375, -1398, 6091, 4028, 6199, 4233, 8836, 5002, 9126, 5379, -3182, -725, 57, 3610, -1032, -388, 2237, 8909, -1207, -290, 7584, 2957, -5256, 5142, -2774, 7655, 3147, -5582, 10658, 4125, -673, 3705, -504, -764, -2952, 2947, -1654, -555}
#define CONV18_WT {0}
#define CONV18_W_Z       	(140)
#define CONV18_IN_Z      	(0)
#define CONV18_OUT_Z     	(0)
#define CONV18_M_ZERO    	(1328486272)
#define CONV18_N_ZERO    	(4)


/* Layer 19 Learned Parameters */
#define CONV19_BIAS \
 {7065, 20974, 6633, -15207, 17750, -15657, -3780, -3661, 6926, 24575, 13181, 714, 21341, 13713, 14300, 15846, 7605, 3469, -12385, 21579, -20770, -7915, -7074, 15810, -14600, -17445, -8548, 6631, 6490, -5484, -364, -11081, -8146, -18900, 13367, 3700, 14597, 7948, 3723, 9224, 1632, 1105, 1113, 15789, -20679, -20424, -1524, -7647, -4023, -8068, 1280, 7530, -4966, -23249, 12963, 14471, 18480, -2933, -352, -8966, 10636, -5992, 3033, 10407, -6613, 5319, 12623, -19022, -2261, -18133, 6435, -9542, -546, 16419, 2697, -31246, 13670, -1694, -53188, 7344, 3814, 17286, 19139, -8304, -20621, -24593, -2994, 11174, -7969, -3000, -7550, -20512, -33390, 2993, -11725, 11440, -16231, 7814, -13782, -11089, 5358, -37083, 37, 6597, 12706, -13116, 11191, 4024, 3231, -30064, 33482, -38315, 8553, 2964, -14467, 39531, -3064, -7294, -9284, -2963, -34277, 20912, 8395, -2590, 12150, 22688, -28348, -23003, 11579, 2742, -1717, 3701, -7082, 4922, 2769, 2108, -10039, 35462, -18553, 12755, -4692, -14653, 28614, 14994, -6862, 24509, 16085, 14292, 2537, 1665, 12541, -22138, 20347, -10158, 18666, -3175, 17203, -17768, 3957, -9045, -11337, 4497, 11845, 5061, -1952, -13976, 14586, 5413, -18784, -7392, -15483, 794, -26176, -44410, -3362, 12493, -45283, 14827, -7753, 7602, -1767, 5581, 4405, 8830, -12294, 3720, 3722, 1886, -6487, -19255, -15778, 5163, 14116, -11541, -25041, -2460, -2483, 16912, 7685, 10306, 18743, 9081, -23083, -6866, -804, -22552, 11338, -15538, -8035, 3142, 6189, 19652, -16838, 29258, 20126, -7563, 11202, -29241, -8450, 5734, 7331, 13209, 7191, 7925, -21242, -25333, -21294, 28136, 29759, -19951, -16766, -13457, -15222, -16601, 12344, -35819, -16907, -21029, -23838, 12006, 2875, 3359, 22366, -9044, -1888, -9987, -16121, 15508, -2932, -14259, -2192, 587, -10698, 9934, -14511, 15119}
#define CONV19_WT {0}
#define CONV19_W_Z       	(128)
#define CONV19_IN_Z      	(0)
#define CONV19_OUT_Z     	(0)
#define CONV19_M_ZERO    	(1553868800)
#define CONV19_N_ZERO    	(6)


/* Layer 20 Learned Parameters */
#define CONV20_BIAS \
 {4417, 2690, 3143, -41, 4088, -274, 105, 2619, 3719, 5367, 1149, 557, -2060, 6961, 4634, -1940, 3808, 4474, -632, 4336, 3461, -1083, -656, 10613, 986, -1425, -987, 9570, 4612, 4158, 5049, 149, -4691, -455, 290, -661, 3941, 8475, -1282, -2693, -1781, 120, -578, 5810, -574, -20, 3151, -3814, 379, -1666, 4865, 3802, -294, 3581, 8073, -1477, 4695, -3404, 8454, -388, -596, -2303, -2068, 5854, 86, -1513, 3610, -1901, -1340, -275, -58, -305, 10515, -3392, -197, -4683, 3091, -74, -893, 4370, 4352, 9147, 2805, -1829, -315, 2992, -2741, 9676, 6603, -1945, 3158, 4578, 5511, -2739, 4422, 2971, 2485, 3857, 5688, -1284, 2574, 2489, 4033, -740, 2724, 2192, 4713, -68, 688, -3363, -446, -335, 8166, -842, 2563, 5819, -2689, 2252, 3610, -351, -1651, -1555, 6728, -3459, 8105, 3088, -958, 2797, 1088, -1395, -1359, -18, -1464, 3500, 3627, 5209, -2128, 5805, 5979, 2330, 3904, 3186, -1025, 7053, -1409, 4460, 3797, -1033, -827, 7130, 3814, 5722, 5202, -368, -3470, 2395, 3736, 5491, -2510, -2675, -1321, 320, 4987, 2871, -1863, 3853, 1697, 5789, -1968, -1506, -1693, 3029, -961, 2684, 4269, 7928, -3519, 4012, 6978, 3640, -3020, -736, -1168, 3567, -410, 5894, -1802, 1515, -1066, 324, -2327, 6501, 2847, -1412, -762, -560, 3415, 4353, 8637, 10198, 4843, 2591, 6020, 2276, -1718, -3621, -666, 3720, 545, 6651, 7535, 4387, 6331, 3955, 4687, -231, 13055, 510, 599, -1972, -200, 4611, 3432, 5227, 2393, -1091, 3671, 2890, 5653, 3917, -500, -1784, -1185, -404, 3875, -1291, 4439, 2920, 1106, 550, -2104, 7058, 2692, 2196, 3161, -6142, -1836, 2949, 150, -1189, -1107, -1734, 4842, 3131, -723, 1665}
#define CONV20_WT {0}
#define CONV20_W_Z       	(145)
#define CONV20_IN_Z      	(0)
#define CONV20_OUT_Z     	(0)
#define CONV20_M_ZERO    	(1380735360)
#define CONV20_N_ZERO    	(4)


/* Layer 21 Learned Parameters */
#define CONV21_BIAS \
 {13014, 16693, -14232, -31028, -29896, 12342, -21848, -301, -20472, -20675, 26352, 8305, -24380, -28687, -4502, 1819, -69, 9148, 1972, -9090, 9382, -10333, 11517, -8146, 1181, -6663, -8028, -11127, -10317, -8538, 2049, -1380, -8378, 7540, -4437, -4332, 1637, 7951, -232, 13119, -2635, 16949, -3977, 11868, 29238, 7648, -15444, -1219, 983, -16298, 602, 5864, 2637, 22645, 9253, 7263, 2447, 22361, -2138, 5358, 15077, -13220, 14321, -16429, -1567, -166, 18360, -9180, 15294, 38608, 17848, -4045, 9488, 5123, -14392, 10169, -6475, 9083, 13119, -25096, 16889, 4872, 8631, -12231, -6395, -8233, 4605, 31014, -23415, 6531, 16731, -28118, -3906, 9401, -15997, 2302, 8448, -15273, 2590, -580, 13509, 13010, 13465, 13629, -11031, 10248, -22348, 21615, -538, 5021, -2574, -11171, -348, -1414, -18429, -15995, 4520, -23015, -15874, 1548, 6791, 12674, 1701, 1208, 10489, 508, -5555, -9370, 10456, -14770, -13, 13136, 5149, -35005, 18109, 5009, 2519, 7709, -2675, -15444, 4880, -8369, 692, -5917, 13989, 4434, -16528, -9979, -4867, -2894, 6268, 3483, 3179, -15078, 13600, 23085, 12332, 22058, 7209, 10029, -10382, -9102, 287, 4386, 4954, 766, -2063, -2588, 9650, 6213, -6621, -2561, -11604, 7443, -9973, 10615, -2335, -7200, 5105, -11895, 10044, 6991, 699, 12477, -6063, -9275, -10491, 3687, -7584, 859, -5956, -7902, 9366, 12965, 2810, -14782, 14532, 10344, 1511, -17567, -7720, -16757, -14254, 5304, -1415, 12936, -18757, -13135, -7419, -21696, -16877, -1048, 11905, -189, 6612, -2616, -19029, 15317, -4155, 2411, -675, -12174, -13374, -8531, 2654, 21704, -28307, 116, -18233, -4197, -4705, 2534, -36, -4851, -8346, 3652, -13711, -14611, 24575, 2246, -13027, -14446, -1426, -2618, 380, -14659, 2093, 10378, -3064, -14902, 2813, 13871, 20164, -12159, -7263, 7723}
#define CONV21_WT {0}
#define CONV21_W_Z       	(130)
#define CONV21_IN_Z      	(0)
#define CONV21_OUT_Z     	(0)
#define CONV21_M_ZERO    	(1657440768)
#define CONV21_N_ZERO    	(6)


/* Layer 22 Learned Parameters */
#define CONV22_BIAS \
 {10567, 6126, -93, -464, -982, 1018, -16, 5625, 3108, -1909, 6755, -2588, 4219, -1843, -316, -1768, 6032, 7921, 4070, 16, 7946, 2815, 3829, -2426, 5024, 4593, 3330, 6290, -149, -11, 6018, -115, -688, -3685, 4379, -26, 7104, 5810, -1583, 13156, -1522, -2, 2661, 2697, -2023, -1114, -1714, 5312, -4520, -3391, 8342, 5524, 4296, 5735, 11479, 2231, -10901, 5773, -557, 4041, 6400, -13, 6052, -627, 4, -140, 4567, -1236, 3845, 6707, 3429, 4375, 928, 6306, -5571, -93, -3960, -3699, -3933, -1063, 7666, -2867, -3591, -2056, -36, 2937, -14, 3096, 3620, 11569, 4688, -1614, 7133, 11413, 6158, 5791, 5745, -3665, 4303, -2767, 5037, -989, 8383, -39, -3617, 9387, -181, -562, 4910, -715, 87, 8, 4916, 5379, 2746, -968, 2841, 4, -4543, 4165, -3416, -6157, -405, -2358, -74, 5621, -691, -29, 8637, 124, -2191, 5949, 6026, 4294, -842, 234, 5565, 6360, 3953, -694, -3783, 3688, 717, -995, 388, -3057, -958, -7297, 2969, -1, 10409, 2781, 791, -1523, 2566, 4453, 7104, -291, 3539, -253, -519, -5, 4062, -607, 7474, 7061, 462, -322, 5370, 10616, 4641, -83, 2562, 10487, -356, 2608, -3654, 2006, 3464, -32, 3446, 7161, -5172, 5612, -75, 124, 3627, -504, 3231, 1615, 3507, 4983, -404, 4525, -5676, -1347, -916, -1013, -25, -1452, -3186, 3993, 4219, 4899, -365, 4148, 5317, 2185, -446, -950, -536, -2296, 2482, -282, 9093, -1079, -61, 10198, -4676, -365, 5403, -1001, -2468, -1105, 6107, 2178, -1492, -864, -777, -3912, 4728, 3952, -211, 4532, -1126, 5293, 18, 7788, 431, -553, -556, -481, 4627, -9, 5757, -21, -2144, 6100, -1579, -950, 3397, -592, -5684, -14, 8380, 1825}
#define CONV22_WT {0}
#define CONV22_W_Z       	(130)
#define CONV22_IN_Z      	(0)
#define CONV22_OUT_Z     	(0)
#define CONV22_M_ZERO    	(1311281536)
#define CONV22_N_ZERO    	(4)


/* Layer 23 Learned Parameters */
#define CONV23_BIAS \
 {23601, 14921, -851, 13467, -27225, -11514, 4671, 13862, 14371, 13685, 695, -20972, -12842, 18900, 23984, 7945, -16467, 11284, 26367, -1348, 7912, 5736, -4197, 11664, -30598, -4895, 6727, -19869, 12984, 28432, -5309, -8523, -21969, 10358, -20019, 936, -17838, 7230, 12410, -6660, -21415, -5030, 18242, 12194, 4416, 3277, 11631, 8863, 7419, 16085, 6765, -15024, 30130, 8618, 4270, -17005, -1507, -7718, -8924, 9905, -10837, 14743, -7023, -13807, 437, -2114, 11346, 34564, -7414, 7338, -4441, -4763, 9007, 12041, -6377, -8078, 15956, 6027, -9825, 16032, -5077, 16704, 22472, -14581, 2824, -14594, -6331, -7063, 2819, 3610, 3285, 457, -45013, -1100, 7077, 4288, -1973, 2947, 9513, 8014, 25815, -14332, 11850, -5744, -15530, -3790, 16569, -20424, 1279, -4955, -3313, -12744, 7183, 14433, -7791, -15279, -25200, 11279, -733, -4524, -22491, 11759, -22829, 20186, -7203, 2480, 9703, -1874, 9395, 5338, -223, -8342, -414, -24039, 8122, -2238, -1737, 61, 18902, 4411, 10754, 6748, 12916, -705, -24983, 20534, 15551, -7421, -35685, -29218, 4234, 4392, -34971, 3562, 11253, 4146, 11618, 4459, 827, 8137, -3704, -9427, -18215, 817, -26999, 5205, 8799, 8962, -41425, -6983, 6981, 20615, -22561, 15149, -13589, 6180, -4678, -3674, 1026, -11283, -2231, 4749, -39369, 9540, -23968, 3914, -24386, -16106, 10258, 11779, -24743, -973, -11397, 4366, 24322, 11979, -13200, -6399, 9452, -7330, -13473, -13636, -3463, -15030, -8144, 6905, 6594, 7418, -16987, -6064, -15541, -11970, 4727, -3125, 15338, -252, -29360, 1961, 1017, 6759, 1892, -32795, 8, 13415, 5067, -10097, -21272, 7161, -19506, -17857, 8127, -7970, 9088, 5738, 6517, -19731, 6606, 10455, 9574, -3562, 13480, 17207, -15510, -7709, 52, 2687, -13728, -406, -5095, 12535, 907, 1493, -18334, -2514, -6469, -4000}
#define CONV23_WT {0}
#define CONV23_W_Z       	(121)
#define CONV23_IN_Z      	(0)
#define CONV23_OUT_Z     	(0)
#define CONV23_M_ZERO    	(1752740608)
#define CONV23_N_ZERO    	(6)


/* Layer 24 Learned Parameters */
#define CONV24_BIAS \
 {7790, 20347, -361, 7972, -18, -8, 265, 23552, 13989, 14883, -52, 20016, -160, -4003, 8358, 19585, -302, -1291, 4847, -143, 27553, 21073, 19174, 14522, 12696, 1052, 17971, -32, -7273, 16957, -13, 8362, -84, 18458, -132, -63, 23583, 22779, 8964, 16916, -14, 3618, 13656, 24465, 22486, -210, 11694, 8988, 20819, 10279, 11869, 34, 14815, 18045, -41, -11, -172, -68, -12, 5291, 191, 19924, -46, 114, 9815, 6700, 20037, 13125, 5, -217, 10782, -8742, 10123, 22591, -9087, 20, 118, 18046, 15310, 15254, 14991, 348, 17662, -75, 5603, 2855, 10167, 16137, 17892, 8654, 22332, 15998, -8, 21996, 22522, 26086, -11, 19003, 7333, 15, 16912, -103, -1489, 17967, 87, 20450, 31, -48, 22, -64, -101, -126, 8503, -14482, -121, 503, -154, 22330, 18422, -63, -105, 17868, -67, -13151, 301, -27, 23, -39319, -6068, -64, -44, 525, 20422, -75, -125, 7189, -75, 18373, 22483, 22550, 11467, 8944, 16071, 6982, -554, 19207, 26433, 10010, 23078, -28, 6515, 17607, -148, 22318, 19154, 21857, 16763, -1557, 19363, -1964, 51, 8814, -8332, 14716, 22665, 30389, 10826, -174, -681, -156, 23253, 22889, -365, 21423, -465, 20524, -101, -264, 16547, 17930, -55, -2703, 12, 58, -72, -10102, 23914, -88, 23610, 15844, -1010, -437, -3866, -65, -10820, 20727, -14, -547, 21955, 15025, -62, -100, 22462, 18, 16569, -2672, 21633, 856, -403, 9201, -125, -55, -81, -49, 1188, 14270, -41, 6881, 9916, -48, 19357, 34, 18172, 18356, 29378, 14676, -146, 14368, 10, -18, 21240, -107, 8937, 18, 18438, 5, 19647, -4563, 14003, 12831, -105, 11463, -66, -32, 24514, 9257, -49, -184, -77, 19185, 23598, 22330, 3, -90, -63, -92}
#define CONV24_WT {0}
#define CONV24_W_Z       	(115)
#define CONV24_IN_Z      	(0)
#define CONV24_OUT_Z     	(0)
#define CONV24_M_ZERO    	(1881608064)
#define CONV24_N_ZERO    	(6)


/* Layer 25 Learned Parameters */
#define CONV25_BIAS \
 {-14682, -10278, 1429, 862, 5972, -19038, 10617, 7310, -15448, -8725, -3166, -6789, -24112, -13947, 7965, -16226, -8337, 946, -21755, -4123, -6440, 16285, -18596, -8226, -11331, 2227, -10514, 19098, 7699, -4382, -24817, 12311, -24069, -2505, 7640, 21772, 12607, -8607, 73, -11702, 8212, -13465, -12377, 1950, 5679, 19619, 4244, -20537, -7220, -1525, 17981, -786, -7697, 13378, 10731, 5892, 15727, 8996, -21816, 3684, -3385, 21252, -21458, 307, 5667, -18740, -13503, -11179, -13425, 21521, 4630, 3318, 2435, -2751, -11279, -10226, -199, -13560, 1356, -10909, -6809, 317, 4184, -4284, -10115, -10070, -6744, 14858, -9171, 1950, -8929, 26498, -11163, -11782, -2358, 8308, 5783, -16130, 5568, -4665, -16909, -8207, -12642, 20591, -20816, 12097, -5018, 43617, -19218, 8225, 2945, 11626, 1932, 4083, 7185, -6648, -16721, -13466, -22463, -14406, -7266, -29073, 5454, -9661, 5408, -6726, 6568, 2616, -10795, -5970, 11975, -25602, 7277, -9329, -3740, -5511, 2450, -1244, 10716, -8974, 17203, -3082, -12119, -7199, -9890, -3722, -26630, 12171, 5628, -3210, -15360, 8514, 14416, -3262, 7205, -10893, 1534, -12721, -5960, -2092, -6861, -14466, -13390, 10011, -4989, -6060, -15307, 7996, -56, -9278, -14246, -5999, -3827, -7534, -17287, 2774, -14966, -24953, -25360, -1513, -4215, -38318, 9404, -6471, 4717, -11211, 15132, 9837, -989, -450, -12480, 13968, -2319, -33196, 6228, 685, -1615, 8749, -6602, -1985, -12425, 13368, -17000, -11460, -9366, 6989, -9438, 12039, -13158, 13628, -17181, 540, -2914, 14251, -16015, -5148, 2590, 1574, 8288, -314, -14273, 6364, 8722, -17686, -8006, 234, -8142, -1248, 14614, -10540, -4568, -7754, -9225, -32047, -6678, -17212, -15914, -6776, 20658, 3247, -2722, -1750, -14646, -1337, -21082, -32024, -2231, 9293, -2735, -17885, -1090, 15736, 1764, -10879, 11903, -13115, 5645, -9717, -10257, 5999, -8629, -12395, 4575, 400, -32569, 6740, -11981, -32990, -18484, -740, -6401, -2250, -3176, -10473, 4349, 1694, 9860, 13150, 1019, -8433, -12629, 459, 22548, -6247, 3003, -9404, -4759, 34990, 5959, 6295, -13929, 27281, 8755, 5080, -4714, -445, -8750, -13728, -3452, -7831, -12550, 15374, 27694, -16074, -2150, 1007, 20357, -4139, -3034, 609, 7989, -4269, 14024, -15371, 10709, -13528, 7071, -17911, 5327, -3392, -17643, 7238, -16319, -6050, -13068, 1934, -2156, 17121, -9262, -2523, 22044, 13249, 4043, 10887, 7162, -9867, 3024, -7579, -8716, 666, -4327, 19757, 9658, 3264, 13100, -11955, 1071, -3256, 5338, -19447, -11949, -8641, -1888, -16618, 13599, 2688, 13541, -7730, 2814, 18295, -7709, 12307, -3313, -13063, -16648, 12451, -14957, -5104, 2716, 1965, -6428, 1286, -32443, -5337, 11209, -20046, -16191, -7249, -14842, 13074, 4464, -3357, -11257, -16915, -2920, 2331, 917, -10893, 7294, 11893, -9278, 7740, -10670, -3370, 6932, -25794, -5443, -24497, 6402, 2755, -13526, 12089, 6409, -1484, -12235, -13760, 8584, -2981, -14921, -9769, 4005, -3671, -12783, -19707, -3337, -9238, 10705, 13387, 16800, -45, 6254, -10627, -6108, -4111, -4964, 3645, 6385, 13212, 1031, -6876, -4280, -7912, -2168, -6109, -1886, 20469, -1277, 2747, 7188, -12906, -17056, 6983, -9299, 6421, 6419, -26633, 4007, -6303, -10566, -9726, 8852, 1823, -2160, 4652, 7557, 10711, -2396, -18185, -4753, -15004, -3225, -11216, -17889, -1072, -17044, 8385, -16100, 12821, 8518, 21479, 12063, 18967, 5868, -8685, 15, -1884, -10951, 4220, -3768, -14043, -8323, -6730, 14875, -8735, 5170, -19014, -5262, 438, -6551, -10070, -5894, 15573, -7222, -22134, 7396, 2047, -1415, 6959, -11233, 9180, -6354, 2762, 17396, 4055, -8781, -17252, 12196, -10728, -2413, -9695, -21220, -15969}
#define CONV25_WT {0}
#define CONV25_W_Z       	(90)
#define CONV25_IN_Z      	(0)
#define CONV25_OUT_Z     	(0)
#define CONV25_M_ZERO    	(2088924928)
#define CONV25_N_ZERO    	(6)


/* Layer 26 Learned Parameters */
#define CONV26_BIAS \
 {-8, 1545, 1945, 2356, 1266, -29, 1410, -38, 1385, 1306, -12, 1418, 88, -15, 1168, -23, -111, 1974, 1299, 88, 2025, 1648, 2333, -233, -9, 1124, -5, 2453, -14, -19, 59, -563, -173, -13, 1994, -210, 2199, 2270, 296, -19, 1458, -28, -37, -24, -526, 2505, -363, -24, -80, -19, 1722, 1078, 63, 72, 2148, -16, 1820, -2575, 1894, -226, 1603, 1471, -18, 1977, -52, -6, -29, -41, -14, 1448, 25, 1741, -69, -27, -187, 2765, 1688, -29, -38, -26, 2580, -26, 1683, -101, -20, -1293, -31, -21, 1485, -720, -734, -26, -25, -1, -26, 1953, 1297, -20, 1225, 1266, -215, -11, 1390, -3, -18, 805, 1967, 1223, -29, 2839, 17, 2246, -2899, 1488, 2506, -552, 2164, 45, 11, 1323, -20, -18, 1172, 1533, 2210, -12, -52, 1690, 4, -90, 1304, -5, -496, -19, 3295, 1190, 3182, 1272, 1232, -20, -604, -10, -104, -12, -70, -9, -26, 1726, 1174, 1376, -450, 1996, 415, -18, 2400, -80, -312, -25, -31, -145, -32, -24, -17, -34, 2285, -26, -10, 1142, 1410, -29, -134, 92, 127, -18, -6, -325, -465, -9, -334, 2379, -1924, -9, 1617, 1997, 2160, -26, -15, 1263, 1237, 3289, 1504, 59, 1531, -17, -272, -79, 1271, 1291, -226, -9, -40, 1539, 23, 1688, -24, 1190, -200, -347, 1216, 2702, 202, -11, 1380, 1359, -14, -11, 2491, 1191, 1754, -20, 54, 1324, 1227, -26, 1336, 2517, -94, -422, 1063, 1991, 1265, 1288, 2495, -22, -27, 1779, -5, 17, 2229, -23, 1369, 1097, -23, -24, -33, 1429, 1211, 1312, -16, -322, -481, -23, 10, 5, -241, 1718, 2440, 3603, -152, -29, 1774, -34, 1245, -21, 1394, -1114, 317, -8, -36, 1616, -19, 2001, 1228, 1475, 1230, 1476, 2099, 1111, -26, 1722, 2153, 1409, 2149, 14, 1523, 2003, -8, 2149, 3114, 2288, -16, 2848, 2565, 1592, 2361, -13, -33, 1190, 2017, 1592, -19, 1344, 3662, -20, 30, 1304, 1795, 1457, 1525, 3640, -241, -17, 2359, 1228, 1254, -33, 1283, -22, 1428, 1443, 1385, 1439, 87, 23, -13, -386, 1411, -27, -230, 1575, 2042, 1572, 2028, -351, -1496, 1494, -697, -28, -26, 1409, 9, -25, 1449, 2569, 1408, 366, -20, -18, -17, -6, 1298, 97, 1301, -91, 1320, 1313, 1569, 1205, 92, 1884, -19, -36, 1441, -51, 1986, 1925, -41, 55, -54, 1353, -23, 2343, -23, 2174, 1292, 30, 79, 8, 19, 1952, -96, 1158, 45, -36, -149, -4, 56, 500, 1410, 2671, -32, -228, -19, 1254, 2337, -782, 1764, 41, 1304, 2290, 2028, 217, 1363, -13, 2158, 1600, -22, -729, -20, -23, 1574, 3049, 2455, -20, -17, -26, -919, 1314, 1617, 2591, 161, -4, 92, 1410, -504, 1858, 1518, 1471, 1924, -173, -12, -23, -18, -3, 376, 1521, -28, 1212, -30, 1728, 1821, 1205, -62, -391, 1271, -22, 1981, 1928, -13, -24, -145, -374, 1480, 160, -526, -67, 2278, -12, -536, -20, -64, -19, 1560, 1938, -8, 1249, 5, 2447, 1971, -315, 2037, 1398, 2851, 12, 1153, 1212, -5, 2658, -23, -27, -119, -313, 34, -36, 2059, 1593, 2016, -20, -82, -7, 1220, 1216, 1777, -577, 1390, -19, -9, -26, -134, 2703, -29, 92, 13, 1385, -23, -101, 1336, 4, -21, -64, -23, -19}
#define CONV26_WT {0}
#define CONV26_W_Z       	(226)
#define CONV26_IN_Z      	(0)
#define CONV26_OUT_Z     	(0)
#define CONV26_M_ZERO    	(1665680384)
#define CONV26_N_ZERO    	(3)


/* Layer 27 Learned Parameters */
#define CONV27_BIAS \
 {50787, 12269, 15043, -55128, -46016, -56872, -101115, -40865, -75405, 10201, 62530, 22013, -21156, -41482, -9534, -5926, -42104, 3924, -65823, -51692, -1151, 4218, -38093, -3109, -7378, -50739, -3765, -73544, -1091, -5048, -2153, 13816, 5757, -26032, 45701, -37055, -17728, 13713, 10819, 21334, -8601, -3253, -43407, -34828, -6599, 851, -15886, 41291, -18991, 24517, 53220, 9717, 19092, 10739, 30852, 51258, -22762, -70178, -80064, -20889, 13189, 30722, -848, 8032, 29420, -4700, -2099, -39555, -70808, -13282, 45285, 18937, -8497, 51872, 33773, -19663, -2702, 9175, -8765, -30221, -32995, 22692, 6286, -65584, -72963, -70021, -72123, 54906, -36026, -6185, -77606, -13675, -45648, -60258, 27984, 30211, 22849, -29684, -80925, -88035, -15540, -67023, -37788, -76145, -10498, -5154, 48743, -32779, 15974, -19896, 21388, 62641, 23770, -4363, -21498, 22705, -44590, -6684, -24286, -30438, 1592, 48230, -21151, 13665, -16375, 14360, -16157, -61805, -42375, -57141, -6108, -59831, -41631, -49402, 51925, -49609, -54907, -14019, -43602, 58856, -56055, -13203, -7226, -9082, 3891, -42320, -66336, -34383, -37632, -22601, -82622, 54505, -6599, -94616, -9776, -37658, -59057, -37541, 10953, 17219, -63403, -77675, -26968, 21107, -69191, -10661, 548, -21334, -42385, -63688, -49167, -78105, -54658, -25932, 18212, -6417, -2820, -17831, -36813, -49586, -70350, 33338, 4184, -13082, 22564, -64418, 68718, -62895, -48983, -46511, -54003, -38225, 18672, 3803, 11271, 25718, 35974, 13563, -95084, 35805, 14309, -8020, 60511, -5127, -73767, -42085, 3442, 6839, 18829, -89242, -43688, -13262, -25247, -61416, -1266, -3020, -15959, -28379, -6578, 28280, 20288, 14123, -67944, -94380, -19000, -43147, 18889, -20677, -89946, -51668, 5287, -57517, 6238, -62741, -50998, -24612, -32170, -19430, -18711, -112434, -11723, 14507, -31375, -9651, 34941, -58756, 10853, -34429, -70678, 32406, 21536, 878, 1558, -51945, 30419, -68117, -89836, -81345, -29464, -17503, 17177, -30666, -47870, -23125, -83629, -8159, -7689, -42815, 17203, -47966, -48446, 6919, 9762, -15455, -41624, 46407, -19751, -37708, -26612, 7206, 18041, 8958, -27771, -22907, -18353, -28926, 68931, 53548, -28610, 11857, -38219, 27778, 10748, -23283, -51922, -66073, -82798, -9251, -68001, -72880, 47880, -8316, -63995, -18958, -30588, -3431, -34958, -62151, -82, -16842, 9017, -9802, -46598, -88754, -21887, -18412, 67155, 981, -9890, -28829, -60001, -13663, -29329, -34912, -7375, -83122, -30066, -47616, -37413, -19395, -25918, -32896, -46570, -85915, -43022, 23923, 28993, -28891, -24720, -74327, -36188, -8562, -56754, -54943, -19853, -2088, -8167, -64677, 7056, -59528, 31434, -75823, -33524, -8989, -33153, -69916, -3655, -46794, -1646, -80683, -53023, -45729, -55621, -14891, -34160, -67544, -36507, -22004, -27988, -647, -51753, -93609, 53938, -12373, -30203, -9234, -35656, -24131, -26160, -1975, -17662, -28651, -36589, -3596, -55420, -19897, -55458, -94117, -62453, 28346, -23041, -14562, -21067, -56954, -52108, 32183, 43613, -34065, -54423, -14644, 9474, 9047, -9774, -54069, 4943, -71170, -26674, -56680, -75378, 53517, -36366, 59228, -1738, -69324, 13315, 4579, 43920, -18340, 61590, -56706, -41992, -46022, 85375, -71212, -28847, -4889, -54344, -31883, -28116, -56657, 38591, -12642, -22716, -14109, -10806, 50424, -37317, -14150, 39237, -2622, -19179, -8010, -37744, -5913, -33799, -32863, -37010, -69526, -41419, 450, -31212, -52851, -70661, -58772, 14247, -26994, -10128, -70700, -28893, 44395, 4165, -18561, -57068, -14384, -17319, 2473, -6894, 11038, -51752, 10737, -26613, 51470, -37331, -47232, -3527, -56828, -72736, -34919, -40282, -53465, -22396, -11128, -13430, -44074, -77323, 52091, 15725, -65079, -34416, 3790, -40005, -47755, -9974, -30355, -7914, -34793, 9167, -29374, -24276, -65889, -20166, -65285, -46268, 9072, -60080, 21970, -41118, -22363, 12094, -39570, -56752, -4753}
#define CONV27_WT {0}
#define CONV27_W_Z       	(94)
#define CONV27_IN_Z      	(0)
#define CONV27_OUT_Z     	(0)
#define CONV27_M_ZERO    	(1687558528)
#define CONV27_N_ZERO    	(6)


/* Layer 28 Learned Parameters */
#define FC28_WT \
{0}
#define FC28_BIAS \
 {-3330, 2060, -1986, -5718, 5767, 1311, 1610, 2822, 1361, -5269, -3740, -3686, -1372, 165, -1655, -3005, -1289, -1973, 1273, 501, 1625, 3116, 1371, -114, 1588, -412, 985, -2545, 2980, -1667, 1077, -137, 320, -3753, -96, -5961, -794, -2785, -503, 618, 209, -826, 359, -2874, 1713, 1991, 1063, -800, -4203, 2462, 2325, 515, 3116, 3476, -64, 687, 419, -2199, 1538, 3405, -529, 4915, 1550, 1077, 2953, 2341, -1567, -1636, 1519, 3389, -3397, 3037, -721, 1415, -1937, 4781, 2321, 2128, 3939, 2625, -4077, -1820, 831, -8410, -6167, -410, -3875, 2749, 966, 5393, -575, -2082, 1992, -2312, -727, -2812, 203, -3080, -6269, -6008, -1844, -4459, 3393, 3143, -415, 219, 4233, 2109, -4624, -6957, -6443, 14301, 2199, -1806, 1781, -10013, -2398, -1621, -372, 259, 376, -3230, -1470, -1927, -1103, -4088, 1089, -4884, -4713, -1904, -6323, -4098, -2357, 1729, -9907, -7457, -6148, -6507, -5236, -5827, -6273, -3746, -6028, -4413, -3883, -2555, 321, -5289, -1693, -2116, -904, 2622, -8098, 3326, -2121, 432, 584, -3989, -5170, -1137, -3027, 5027, 5360, 2910, 343, -3254, -3020, -6273, -684, -1494, 1729, 4430, -15, -923, 5757, -4311, -1585, -1999, 2184, 175, 1331, -1270, 530, -504, 1972, 2003, 737, -185, -3423, -1560, -1274, 3493, 1547, -2819, -712, 8627, 1155, 1332, -2386, 3057, -7490, -1457, 4277, 4493, 1848, 28, -3465, 132, 604, 4867, -2970, -490, 321, -1169, 1626, -1074, -73, 6025, 2899, 118, -2466, -2439, -1283, 8733, -3649, 2977, 1868, -873, -5946, 4701, -1460, -3892, -1155, 733, 2396, -968, 1873, 2852, 4098, 5583, -1705, -2171, 2618, -1198, -1280, 5057, -2981, 4518, -1856, -1682, -1033, 2339, -1830, -3001, 7173, -2411, 1775, 4694, 568, -460, 2365, -898, -3502, 3214, 1873, 1608, 755, -1849, -5482, -751, 4846, -3626, 1813, -31, -4451, -2965, 1406, -1489, -4094, 1956, 1132, 4204, -3385, -1340, 4428, 752, 1182, 62, 141, 1420, -607, -4280, -16, -3141, 973, 2406, 2627, -1987, 1071, 2113, -5145, -4277, -3223, 167, -6814, 5597, 6156, -4678, -3301, -5489, -2839, -1605, -2141, 5366, 3892, 377, 5, -3974, -2302, 73, -2448, -10126, -10946, -6099, -4482, -6872, -5920, -2030, -4679, -600, 1810, -129, 480, -1939, -245, -2525, 1199, -1872, -4697, -500, -2298, -2226, -1878, -131, -2389, 273, 578, -1932, -1981, -839, 133, -4187, -4107, -1403, 1147, -2008, -586, -2436, -820, 2044, -2211, 2840, 853, 2476, 2100, 1141, -860, 4728, -2030, 3606, -760, -2402, -166, 150, 1475, 2643, 1889, -906, 1292, 2614, -2854, 63, 2700, 867, -5754, 989, 799, -5097, -2422, -1566, -1908, 4995, -4884, -4019, -1242, -102, -6733, -4930, -2632, 7467, 1239, 2220, 565, -1958, -7819, 4104, -720, -2483, -5650, -5297, -2245, -376, 3375, 3602, 3030, -1271, 4754, -2714, 1600, 1560, -2250, 3580, 2132, 7614, 5448, 1918, -6558, -1698, 3829, 2305, 1363, -1700, 961, -529, -4155, -989, 1169, -2579, -918, -3310, 2497, 347, 1430, -173, 2794, 4512, 1448, -3026, 6782, -2044, 1311, 670, -1366, 2235, 1325, 1242, 3208, 2170, -2384, 2938, -4164, 3558, 417, 1353, 7990, 2797, -2038, -2440, 1854, 160, 59, -950, -1453, 4191, -4281, 1884, -9135, 3033, -472, 724, 3901, 1851, -190, -2211, -6408, -251, -952, 4226, -2150, 3948, -4064, 1724, 2179, -2856, -2145, -1321, 2094, -6705, -863, 38, 294, 3281, 2448, -1089, 3234, -765, -491, -805, -1842, -3188, -5190, -647, -1973, 1334, 2290, 4448, -852, -2214, -263, 2335, -4970, -1168, 860, 8000, -863, 609, 352, -3892, -4087, 6217, 2537, -2874, -981, 3272, 3135, -2671, -4477, 1401, -1191, 4251, -849, -1522, -1112, 2337, 2601, 2953, -1390, -6713, -3638, 2732, -1062, 2196, 1166, 2836, -5737, 116, -3494, 904, -2370, 2121, 1340, -2614, -2586, 7497, -1685, -486, -328, 3589, 3846, 507, -1258, 1161, -726, -1179, 3728, 514, -350, 2183, 1454, 2958, -2470, -1225, 201, 2501, 5418, 1791, -2131, 4218, 2025, 1547, -2207, -1359, -747, 5844, 115, -7621, 3208, 3631, -4790, 2113, 3498, 555, 3052, 867, -183, 1053, 3726, -957, 4057, -717, 4102, -2326, -600, -1479, -887, -1928, 1182, 1190, 1450, -4048, 2692, 2896, 2897, 7774, -1460, -2462, 2694, 4976, -3803, 4289, 5680, -1027, 2963, 126, 271, -1261, 2963, -412, 516, -4974, -4625, -3285, 628, 1650, 4706, -1383, 5170, -3834, 2178, 3205, 2696, 1071, -2526, 1622, 1164, 6724, 1501, 1037, -273, 1527, 1181, -5192, 939, -1257, 2232, 3947, 2418, 1528, -6218, -600, 1598, 7167, 1049, 2112, 2991, -2320, -6261, 6035, 5165, 1067, 2301, 1197, 739, 3460, 2951, -1970, 3162, -3411, -4904, -4635, -2433, 904, 5949, -5209, -2818, 5175, 2884, -999, 1223, 44, 4030, -2283, 425, 4116, 4046, -5713, -637, -957, -5158, -1463, -2215, 2473, 1543, 3299, 2300, 46, 5740, -5421, 237, 6051, 2702, -2699, 4065, -2762, -3687, -1315, 4410, -3970, 987, 2701, -4230, 4708, 213, 1853, -4819, -1226, -1935, -893, 139, 302, -455, 1344, -198, 2587, -854, -120, 2495, 2285, -36, 6104, 3205, 289, 5451, -795, -1901, 394, 1415, -3936, 1961, -1997, 2845, 1458, -903, 3715, 5822, 3468, -2819, 1187, -1487, 3326, 6386, -4541, -1278, -1245, 6843, 43, 5768, 8882, -5090, -784, -1440, -3218, 936, 2855, 755, 1180, -371, -2041, 4363, -963, -4062, 6427, 13, 12, 2505, -510, 4254, 2661, -288, 2572, -941, -2176, -2824, -3583, -190, 4238, -2207, -2553, 2351, -15, -4662, -2616, 2244, -825, -655, -1808, 3035, 523, -3474, 1486, -4191, -3033, 3302, 5631, 5266, 1581, -1765, -3049, 3646, -3157, 4359, 2069, -3872, -4373, 4518, -7790, 5328, 7506, 1837, -1048, 696, 887, 4852, 4332, 4230, 7497, -3910, 1445, 4236, 1671, 2896, 647, 3022, 1558, -3009, 4192, -10708, -284, 4064, 3164, -2291, 3425, -651, 1277, -3031, -1322, -2321, -2799, 1312, -1231, 1065, -4875, 1243, -4572, -7193, 2884, 1290, 1028, -6149, 5911, 6163, 301, 623, 34, 874, 11667, -2400, -5383, 1670, 1206, -2318, 951, 2425, 4595, -394, 2543, 1506, 3622, 1566, 137, -3964, 1587, -650, 3106, 1038, 6796, 4973, 2379, -1931, 3347, 507, 5166, -3554, 1526, -2455, -667, -1115, -1495, -556, 6932, 1432, -989, 2996, -1630, -5681, -5107, -4624, -1374, 724, 6462, 486, -2224, -309, -7138, 435, -2244, 462, -3255, -2086, -3367, -1210, -1854, 106, -5553, -4562, -2216, -6759, -2419, 126, 864, 155, -4156, -2486, -66, 880, 1403, -302, -3074, 672, -7289, 77, 2596, -1718, -1119, -5184, 33, 3833, 3889, 567, -905, -1194, 3756, 641, -3856, -754, 2084, -21, 1746, 449, -2211, 3075, 895, 3740, -3086, 1077, 2880, -3899, 970, -1929, -3241, 301, -4168, -4118, -11044, -2214, -4232, -1010, -2561, -59, 4070}
#define FC28_W_Z       	(121)
#define FC28_IN_Z      	(0)


#endif /*__224_0_5_WEIGHTS_BIAS_H__*/
