#ifndef __224_0_75_WEIGHTS_BIAS_H__
#define __224_0_75_WEIGHTS_BIAS_H__


/* Layer 1 Learned Parameters */
#define CONV1_BIAS \
 {36235, 26218, 33582, -2297, 57918, 46349, 41387, 16705, 1885, 1719, 36734, -8435, 44208, -23234, 2598, 3527, 41933, -21578, -21731, -21224, -23607, 3432, -45452, -12785}
#define CONV1_WT {0}
#define CONV1_W_Z       	(147)
#define CONV1_IN_Z      	(127)
#define CONV1_OUT_Z     	(0)
#define CONV1_M_ZERO    	(1630401792)
#define CONV1_N_ZERO    	(7)


/* Layer 2 Learned Parameters */
#define CONV2_BIAS \
 {3332, 6236, -122, 64, 13174, -2473, 16013, 2214, 818, -291, 2630, -12, -3029, -2, 3068, -119, -2640, -72, -41, 291, 0, 819, -437, -41}
#define CONV2_WT {0}
#define CONV2_W_Z       	(136)
#define CONV2_IN_Z      	(0)
#define CONV2_OUT_Z     	(0)
static const int32_t CONV2_M_ZERO[] = 	 {1085933056, 1584535168, 2001751936, -1138398336, 1271149312, 1354006784, 1354153984, 1397628288, 1773198336, 2036976640, 1501077376, 2015077376, 1761435136, 1974601472, -1484174464, 1299366528, 2063864960, -1148700544, 2090375936, 1764905984, 1161870336, -1542152832, 2018602752, 2087160320};
static const int8_t CONV2_N_ZERO[] = 	 {0, 0, 0, 0, 0, 0, 0, 0, 0, 0, 0, 0, 0, 0, 0, 0, 0, 0, 0, 0, 0, 0, 0, 0};


/* Layer 3 Learned Parameters */
#define CONV3_BIAS \
 {-18, -392, 684, -1, 33, -535, 418, 215, 1624, 0, -678, 1349, 458, -990, -25, -510, -970, 50, -49, 236, -37, 230, -401, -1013, -334, 1627, -64, -346, -164, -137, 586, -148, 769, 553, 204, 805, 240, -340, -609, -1019, -504, 821, -321, 782, -241, 720, 656, 130}
#define CONV3_WT {0}
#define CONV3_W_Z       	(127)
#define CONV3_IN_Z      	(0)
#define CONV3_OUT_Z     	(0)
static const int32_t CONV3_M_ZERO[] = 	 {1210036480, 1141112064, 1565624576, 1585009408, 1323517440, 1111386368, 1789228032, 1205673344, 1865745408, 1663909504, 1598593024, 1132779520, 1143189248, 1526802816, 1622523776, 1330794624, 1432476160, 1093432320, 1170333952, 2134766208, 1607353344, 2093164800, 1253891968, 1993499648, 1515704960, 2115000064, 1970022400, 1110973440, 1274947072, 2120163584, 1118558592, 1732753152, 1812874624, 2116212608, 1820422272, 1719522432, 2129702272, 1267138816, 1182437632, 1547347584, 1919911808, 1950477312, 1269370240, 2018914304, 1147304192, 1900228608, 1218691840, 1721506560};
static const int8_t CONV3_N_ZERO[] = 	 {0, 0, 0, 0, 0, 0, 0, 0, 0, 0, 0, 0, 0, 0, 0, 0, 0, 0, 0, 0, 0, 0, 0, 0, 0, 0, 0, 0, 0, 0, 0, 0, 0, 0, 0, 0, 0, 0, 0, 0, 0, 0, 0, 0, 0, 0, 0, 0};


/* Layer 4 Learned Parameters */
#define CONV4_BIAS \
 {-9, 60, 0, -3, 23, 47, 37, 10, 12, -5, 20, 29, 45, -16, -9, 4, 58, 4, 8, 12, 16, 6, 8, 26, 5, 38, 28, 22, 51, 7, 37, 28, 29, 39, -1, 5, 2, 40, 1, 23, 0, 29, 26, 11, 5, 16, 41, 31}
#define CONV4_WT {0}
#define CONV4_W_Z       	(48)
#define CONV4_IN_Z      	(0)
#define CONV4_OUT_Z     	(0)
#define CONV4_M_ZERO    	(1078598144)
#define CONV4_N_ZERO    	(-4)


/* Layer 5 Learned Parameters */
#define CONV5_BIAS \
 {12955, 4442, 9609, -5239, -25823, 6459, 7418, -3550, 8276, -16410, 10616, 14162, -3545, 5849, 12064, 3691, 9954, 17493, -11713, 24842, 8812, -6692, -7895, -4349, -3841, -18334, -17054, -39205, 9296, 8779, 3866, 29238, -17117, 10040, -11736, 12531, 482, 6364, 8352, 2143, 1909, 3412, 17280, -6752, 10637, -2242, 372, 10104, -241, -7891, -20895, 3355, -408, 3158, -14623, 8067, 4178, 5680, -2273, 18614, 15224, 12177, -694, 17661, 8849, 24490, 4423, -1229, 7992, 15565, 15796, 4217, 2425, 4437, 9735, -2381, 6118, -945, 320, 8057, 1252, -274, 16660, 8102, 18991, 9342, 653, 10962, 16170, 8897, 10503, -5295, 22312, 15427, 9988, 10042}
#define CONV5_WT {0}
#define CONV5_W_Z       	(140)
#define CONV5_IN_Z      	(0)
#define CONV5_OUT_Z     	(0)
#define CONV5_M_ZERO    	(1264664704)
#define CONV5_N_ZERO    	(5)


/* Layer 6 Learned Parameters */
#define CONV6_BIAS \
 {245, 52, 3071, -543, 2328, 1701, 111, 17820, 18282, 989, 802, 790, -152, -6165, -105, 646, -84, 9183, 6584, -1366, 2508, -65, -122, 4231, 407, 1749, -2584, 22873, -1352, -122, 3108, 7274, -244, -4946, -1048, 1039, 15874, 9042, 1890, 4816, 4642, 5269, -301, 782, 300, -1036, 2141, -115, 814, -509, 6348, 231, -34, -1572, 14110, 1514, 50, -1847, 750, 6850, -2724, 3594, -916, 17028, 9258, -2637, 10343, 4852, 16372, 464, 130, -99, -6573, 4296, -4010, -4, 5035, 759, 6524, 7017, 2561, -4976, 2718, 201, 620, 44, 833, -1295, 76, 5022, 2000, 78, -644, 1960, 10603, 1850}
#define CONV6_WT {0}
#define CONV6_W_Z       	(114)
#define CONV6_IN_Z      	(0)
#define CONV6_OUT_Z     	(0)
static const int32_t CONV6_M_ZERO[] = 	 {1717941888, 1103199616, 1564013952, 1776883200, 1102401664, 1707471616, 1180261888, 1919900032, 1584752896, 1571373696, 1356429312, 1171207680, 1319723648, 1710445952, 1540236416, 1544999168, 1301386368, 1083808640, 1454979072, 2123876352, 1778693504, 2046657920, 1917551360, 1952197120, 1915417216, 1840210688, 1781880832, 1970068736, 1189243008, 2037268096, 1389003520, 1296437248, 1259745408, 1408718976, 1294994176, 1333974144, 1183546240, 1359733632, 1770003712, 1740075904, 1893115136, 1906792704, 1177927040, 1560115584, 1423425408, 1146032768, 1723476992, 1695356288, 1102660608, 2102400000, 1282154496, 1146760704, 1483803776, 1103691136, 1707080448, 1513396480, 1533681536, 1084071040, 1266883968, 1927087616, 2129234048, 1099096576, 1105513728, 1243862272, 1272040320, 1459161344, 2063035392, 2119210496, 1700898688, 1451536768, 1194235008, 1136396544, 1768436864, 1210016640, 1215751552, 1417425152, 1700040576, 1573050240, 1479266048, 1911517952, 1880092032, 2089035264, 1244552576, 1126147072, 2000099328, 1767605504, 1174754432, 1829199360, 2013252352, 1372488320, 1212694656, 1162312192, 1648171008, 1273402624, 1934971264, 1752930560};
static const int8_t CONV6_N_ZERO[] = 	 {0, 0, 0, 0, 0, 0, 0, 0, 0, 0, 0, 0, 0, 0, 0, 0, 0, 0, 0, 0, 0, 0, 0, 0, 0, 0, 0, 0, 0, 0, 0, 0, 0, 0, 0, 0, 0, 0, 0, 0, 0, 0, 0, 0, 0, 0, 0, 0, 0, 0, 0, 0, 0, 0, 0, 0, 0, 0, 0, 0, 0, 0, 0, 0, 0, 0, 0, 0, 0, 0, 0, 0, 0, 0, 0, 0, 0, 0, 0, 0, 0, 0, 0, 0, 0, 0, 0, 0, 0, 0, 0, 0, 0, 0, 0, 0};


/* Layer 7 Learned Parameters */
#define CONV7_BIAS \
 {98, 373, -192, -683, 982, 61, 321, 312, -294, 425, -470, 499, 356, -980, 446, 156, 691, 515, 259, 277, -1066, 681, -1034, 743, 207, 966, -830, 412, 408, 781, -198, -373, 802, -37, -687, -264, 57, 37, -362, -446, 520, -430, -237, -330, -300, 237, 898, 713, 962, -380, 558, 330, 49, 199, 90, 496, 982, 995, -1772, 412, 83, 929, 712, 600, 249, 854, -764, 307, 516, 778, -106, -1373, -267, 405, 270, -369, -409, 1391, -816, 270, -142, 238, 452, 512, 678, 872, -574, -957, -298, -496, -189, -768, 503, -150, 827, 943}
#define CONV7_WT {0}
#define CONV7_W_Z       	(136)
#define CONV7_IN_Z      	(0)
#define CONV7_OUT_Z     	(0)
#define CONV7_M_ZERO    	(1439073152)
#define CONV7_N_ZERO    	(1)


/* Layer 8 Learned Parameters */
#define CONV8_BIAS \
 {974, 5292, 22693, 7712, 12922, 19022, -58, -127, 64, 27965, 7661, 2621, 1348, 12198, -7643, 6136, 11074, -5331, 28945, 4003, 14113, 7916, 10977, -4077, -202, -6659, 9217, 14844, -4354, 109, 303, 6690, -603, 5861, -237, 8447, 571, 89, 16546, -436, 9429, 7390, -360, 14521, 18342, 7904, 7815, 11787, 7564, 8161, 7859, 92, 99, 13457, 8168, 854, 12869, -545, -166, 553, 2102, 8124, 4795, 17388, 2395, 11968, 751, 3726, -6404, -6274, -7266, 2145, 1988, -593, 10352, 735, -79, -11888, 8100, 5664, 14314, 340, 1273, -392, -164, 4969, -66, -1078, -123, 9021, 13517, 9049, 25352, 11137, -342, 1093}
#define CONV8_WT {0}
#define CONV8_W_Z       	(135)
#define CONV8_IN_Z      	(0)
#define CONV8_OUT_Z     	(0)
#define CONV8_M_ZERO    	(1628044800)
#define CONV8_N_ZERO    	(5)


/* Layer 9 Learned Parameters */
#define CONV9_BIAS \
 {2291, -14103, 2774, 13206, 8712, 17164, -9398, 15307, 13167, 11957, -8534, -3702, 40142, 3266, 3207, 7420, 10992, 4492, 7827, -2234, 9012, -1589, 8929, 6434, -4979, 16240, -13468, 10079, -8924, 20896, 6634, 5424, 369, -4189, 11416, 14305, 5492, 4605, 11279, -3867, 9369, 12607, 15658, 6204, 15510, -50, 14216, 8214, 2162, 6804, -3048, 9398, 10970, 3106, 15434, 20864, 1231, 13556, 6014, -18894, -90, 12960, 13150, 7585, 5095, -10642, -6527, -21942, 6307, 13539, -28228, -5763, 12641, 9727, -1023, 14230, 29650, 15683, 16208, 9716, 5150, 29492, 11877, 9118, -487, 258, 10640, 14422, 17629, 21386, 6223, 1124, 14322, -35203, 5012, -644, 15053, 10259, 5654, 33772, -8302, 7601, 13763, 3593, 21574, -6550, -4696, -16987, 5076, 4080, 97, 21191, -11341, 4061, 8127, -23814, -3317, 8034, 11045, 1302, -2701, 18799, -30362, 19893, 3519, 17938, -13924, 69, 14848, -16879, 8635, -12311, 15915, 12550, 10160, 6587, 2133, -3222, 7455, -31134, 37142, 15560, 9378, 17223, 12157, -2918, 4898, -11529, 2898, 3786, 13557, 7776, 6650, -560, 294, 15525, -4819, 11089, 7486, 8780, -3582, -33927, 13915, 5803, 2892, 22368, 19463, 10556, 4858, 4255, 10324, -5615, 5551, 22252, 7736, 5844, 3634, -1464, 12368, 4874, -7987, 10808, 5592, 1837, 1448, 18313, -3313, 15647, 11045, 10315, 7059, 5311}
#define CONV9_WT {0}
#define CONV9_W_Z       	(114)
#define CONV9_IN_Z      	(0)
#define CONV9_OUT_Z     	(0)
#define CONV9_M_ZERO    	(1080518528)
#define CONV9_N_ZERO    	(5)


/* Layer 10 Learned Parameters */
#define CONV10_BIAS \
 {116, -48, 3373, 8114, -1176, -542, 1532, 887, 2283, -56, -1, 3181, 3929, -614, 303, 250, 6556, -1764, -1125, -1683, -21, 4027, -579, 2851, 3128, 5329, 811, 1768, -1712, 30, -856, 625, 4382, -940, -223, -697, -2132, 152, -93, 18, -342, 208, 1452, 7660, 37, 4004, -411, -26, 5880, 4346, 1932, 257, -157, 2978, -1925, 2997, 32, 1219, -339, -3841, 40, 57, 110, 1067, 249, -780, -72, 3094, 8482, 2587, 2093, 1474, 3275, 1133, -1359, 6657, 3396, 2066, -817, 8100, -893, -1913, 4766, 6495, 871, -428, -15, 3730, 4904, -110, -42, -4, -112, -945, 2993, 1713, 7560, -139, 7040, 2544, -210, -826, -356, -1334, 450, 2669, 4618, -278, -715, -837, -517, 1895, 2026, 656, -3, 2, 164, 6161, 236, 1675, -425, 3424, 3784, 0, 6129, 2965, 598, 451, -15, -1888, 139, -525, 8300, 23, 469, 313, 713, 398, -300, 1034, -783, 5123, 5252, 5931, -74, -240, -67, 17, 2959, 7909, -291, 800, 4972, -713, -384, 1606, 3397, -1499, 277, 5106, 1594, 2864, 3241, 276, 665, -618, 29, -2014, 6201, -777, 4385, 2548, -190, -1864, -137, 2482, -356, -148, -765, -46, -16, 3499, 8063, 3303, -1342, -732, -3203, -336, 7341, -1000, -2106, -1260}
#define CONV10_WT {0}
#define CONV10_W_Z       	(92)
#define CONV10_IN_Z      	(0)
#define CONV10_OUT_Z     	(0)
#define CONV10_M_ZERO    	(2021766528)
#define CONV10_N_ZERO    	(4)


/* Layer 11 Learned Parameters */
#define CONV11_BIAS \
 {5073, 8812, -14274, -9175, 6795, -14447, 14039, 14, 1976, 3780, 8940, -5643, -5583, -7277, -6048, -62, 5304, -4794, -15612, -2866, -8091, 3617, 3633, 1957, 3355, 3458, 8095, -12732, 7105, -7148, -12059, 7276, -4453, -839, -8118, -4862, -3148, -9639, -6885, -4749, 6868, -1411, -10683, -2979, -9417, 5787, 1367, -12215, -1705, 10443, -2939, -8540, 2713, 3958, 16373, -5084, 2223, -10218, 9720, 506, -12169, -25199, 14409, -10612, -9779, 10297, -2967, -849, -13849, -17323, -3240, 11152, -22086, 3062, 3062, -9677, -20103, 5423, 18232, 8491, -12971, 6763, 5722, 4839, 2610, -5007, -13852, 2964, 2898, 9124, -4795, 4850, 12841, -14023, 10681, -15319, -7872, 5406, -2712, 7120, 13342, -13267, -12957, -10399, 12811, -5890, -1934, -2625, -4449, -618, -13470, 2209, 3425, -15525, 1972, -23913, -4078, -8561, 16457, -1904, 11667, -3720, -15824, 6334, 5487, 3001, -8643, -7658, -13484, -8892, 3358, -11094, -7863, 10047, -1111, -8993, -8425, -5315, 9088, -926, -16406, -10334, -3585, -12420, 19060, 3333, -168, 7668, -2949, -4969, -2587, -6935, 4573, 10481, -4560, 1998, 7280, 5057, -2542, 3264, -5882, 2490, -11930, -2464, 3347, 5751, 4123, -6780, -34853, -372, 1816, -3259, -11700, -7102, -1164, -25550, 3830, 10594, 3948, -7205, -6353, -5740, -15656, 7176, -6332, 2378, -9543, -1111, 8239, -17643, -3821, -263}
#define CONV11_WT {0}
#define CONV11_W_Z       	(120)
#define CONV11_IN_Z      	(0)
#define CONV11_OUT_Z     	(0)
#define CONV11_M_ZERO    	(1782764416)
#define CONV11_N_ZERO    	(6)


/* Layer 12 Learned Parameters */
#define CONV12_BIAS \
 {85, -581, -325, 8788, 40336, 84, 10843, -1351, 19238, 1422, 20343, -97, 1266, -611, 829, 996, -565, 11011, 59, -165, 48, 14236, 21172, 11231, -326, 14573, 10754, 177, -489, -381, 1385, -176, -2641, 49, -243, 535, 22218, -324, 968, 13197, 5960, 9627, -287, 52, -1038, 2870, 29280, 149, -180, 12294, 7, 14, 12490, -165, 37464, 494, 2255, 734, -687, 39055, 1203, -12058, 549, 1389, 713, 12653, -258, 14855, -226, 17912, -160, -3737, 694, 29697, 1935, -349, 532, 9241, -218, -547, 444, 25741, 14803, -238, -1324, 3440, 418, -243, 12771, 38513, 21859, 18424, 14630, -6, -540, 15232, 20060, 24538, 943, 22014, 36016, -315, 96, 1162, 26372, -1759, 1564, 12306, -253, 11652, -207, 11437, 2358, 13188, 12004, -10, 35, -1096, 32766, -4, 10582, -222, 477, -3710, 20149, 538, -90, -270, 4963, -8, -232, 784, 11860, -1229, -1380, 1711, 999, 1270, 9235, 2212, 1153, 19972, -111, 512, 111, 19780, 18550, 14586, 13, 9126, 650, 859, 647, 10440, -270, 73, 10199, 24427, -1983, 2231, 9731, 11574, -197, 11212, 117, 24951, 20699, 14718, 44, -389, 13806, -315, -264, 15153, 12574, 16, 42359, 28830, 28574, 30815, -2635, 16130, -211, 8776, 759, 12295, -1002, -282, 13146, -346, 1276, -1466}
#define CONV12_WT {0}
#define CONV12_W_Z       	(120)
#define CONV12_IN_Z      	(0)
#define CONV12_OUT_Z     	(0)
#define CONV12_M_ZERO    	(1095746304)
#define CONV12_N_ZERO    	(5)


/* Layer 13 Learned Parameters */
#define CONV13_BIAS \
 {11722, 14981, 9036, 16664, 21971, 8952, 1001, 2334, 10552, -1205, 16246, 1711, 27951, 14838, 11794, 173, 1831, 18050, 1643, 10017, -1498, -6888, 17025, 4923, -3014, 11658, 5353, 6952, 14171, 4625, 14493, -391, 3102, 16641, 6705, 2394, 5384, 9108, 15831, 13689, 11594, 14734, 5945, 7841, 8207, -2050, 11346, -2928, 4108, 10924, 17429, 6890, 4139, 2136, 884, 3120, 16877, 12851, 15795, -13275, 13580, 2408, 7388, 10416, 7337, 15013, -13921, 3519, -485, 950, 5643, 16058, 14829, -13442, 8505, 4618, -1184, 9552, 11096, 7835, 13846, 12557, 21790, 11803, 25790, 5383, 8440, 3186, 12923, 10228, 8564, -2389, 18373, 12566, 9090, 9429, 10102, 7360, 19981, 12159, 16504, 1476, 1184, 11450, 3784, 13883, 9217, 13187, -3512, 12594, 4882, 65, -6560, 9804, 9873, 5840, 17440, 542, 14764, 14352, 22061, 9807, 3054, -7834, 12470, 9226, 9091, 10613, 3012, 17697, 7033, 8977, -30806, 12022, 4684, 5669, 8391, 28486, 186, 19286, 8775, 4344, -19190, 20857, 9736, -6520, 13740, 14312, 5789, 36273, 18312, 10558, -510, 3204, 14070, 8860, 17584, 10427, 4213, -1599, 16126, 25245, 5921, 3679, 7982, 7617, 10502, -2363, 2646, 16310, 6728, 20138, 4545, 5961, 15432, 8939, 8925, 15702, -2899, 8686, 5351, 13545, -3206, 4033, 21990, 23881, 5049, 9443, 4627, 5109, -32212, 11269, 4719, 11025, 7560, 3035, 13758, 8309, 34098, 6114, 15037, 1691, 5024, -1022, 9336, 8920, 2707, -2819, 14661, 2844, 2361, 15749, -4085, 3256, 28793, 11762, -10915, 14659, 4663, 18436, 12894, 7815, 8107, 381, 13494, 12070, 9561, -1253, -9835, 11497, -5759, 12849, 13129, 6714, 3898, 3816, 8263, 11073, 4681, 8822, 8575, -2778, 9561, -1860, -1241, 5278, -5395, 1968, 4533, 20278, 3428, 6624, 3481, 5451, 7583, 5662, 15305, -1522, 577, 9330, 6571, -2384, 7455, 14425, 9593, 4608, 10119, 11234, 12987, 12314, 38327, 15023, 13342, 7913, 4950, -2058, 3172, 15289, 8945, -9273, 16060, -10016, 7771, 172, -25619, 18451, 14254, 14809, 7038, 14423, -5791, 16163, -1104, 504, 14878, 8733, 15083, 9166, 13569, 24977, 7898, 4780, -19140, 9243, 12655, 16881, -13409, -30363, 17635, -3786, 2226, 12820, 14555, 12086, 3230, 3187, -3314, 10715, 7296, -2803, 5089, 1956, -7716, 1196, 4823, 2857, 14663, 1550, 14288, 6477, 7529, -7674, 8580, 32911, 17985, 5146, 6276, 14197, 19582, 7320, 19825, -630, -2668, 3416, 11770, 4535, 4045, 6054, 8675, 15649, 13765, 12914, 20364, 7310, 21625, -10187, 11332, 9125, 12963, 9828, 12063, 8003, 6836, -7704, 3330, 10881, 11393, -6660, 9158, 17554, -5572, 8557, 11967, 8447, 7109, 6271, -14171, 5024, 13747, 7677, 7268, 19474, 8235, 947}
#define CONV13_WT {0}
#define CONV13_W_Z       	(126)
#define CONV13_IN_Z      	(0)
#define CONV13_OUT_Z     	(0)
#define CONV13_M_ZERO    	(1674428288)
#define CONV13_N_ZERO    	(6)


/* Layer 14 Learned Parameters */
#define CONV14_BIAS \
 {462, 209, -1226, -5129, 692, -115, 6718, -72, 2788, -22, 152, 3759, 297, -4545, 2398, 268, -503, 268, -188, -188, 2670, -1709, 743, -125, -596, 2528, -296, -1495, -237, -586, -2161, 2417, 2705, -143, -68, 623, -708, 5058, 616, 781, -71, 47, -976, 148, -108, 2888, 487, 2928, -17, 930, -2610, -654, -163, 5647, 55, 193, -3620, -646, -1713, 3186, -493, -1, 7089, -62, 3902, 2863, 4148, 529, -443, -3212, 5777, -3162, 1609, -242, 6735, -1971, 51, 310, 2835, -3662, 5965, 2539, 66, 4594, -2374, 1243, 904, 3370, 292, 1554, -986, 2438, 8719, 75, 0, 1177, 2812, -131, 1518, -199, -3401, -220, 5685, 1116, 4073, 977, 6780, 1524, 170, -172, 8386, 2545, -1213, 617, 1001, -272, -41, -2359, -4258, -1877, -1933, 5078, -197, 21, -705, -263, 753, 1510, 2738, 1254, 4026, 2700, -387, -64, 148, -1563, 1115, -1049, -55, 205, 231, -103, -964, -716, -1154, 3241, 1238, 2256, -3881, 3232, -154, 4105, 80, 1350, 2164, 515, 1028, 267, 1179, -1160, -111, 2250, -1801, -144, 316, -15, 119, 2714, -72, -227, 653, -909, 3189, 411, 1354, 420, -528, 1023, 25, -209, 3837, 270, -104, 1869, -2189, 6060, 531, -371, -2107, -2415, -88, 5381, 5955, 11227, 3044, 2582, -1783, 1372, -3363, 1301, 241, -38, -2683, 1993, 919, -545, -1724, -1023, 9576, 386, 32, 2200, 2957, -1421, 1782, 472, 2770, 1373, -442, 5757, 3872, 3419, 1449, 3447, -183, 850, 278, 2371, -1034, -212, -581, 2847, 1152, -362, 2671, 41, 1637, 3593, 3272, 1207, -2849, -15, 7419, 2581, 1542, 22, 3177, 3181, 2535, -1429, 860, 1911, 33, 641, 1029, 278, 601, 2430, -24, 164, 276, 117, 216, -77, -1596, -194, -2405, -207, 120, 540, -99, 279, -535, -4116, 3289, 5305, 2629, -89, 858, 6114, 36, -2106, 291, 409, -1259, -330, 48, 1097, -7, -917, -3065, 2628, 362, -3710, 324, -812, -3108, 1212, -65, -159, -341, 45, 40, 325, -421, -2875, -2634, -1071, 176, 72, 1657, 2170, 369, -2193, 113, 103, -218, 791, 8764, 3019, -414, -238, 3463, -2809, 2804, 5238, 1578, 6226, 76, -320, -2688, 2007, -40, -41, 159, -337, 3938, 1004, 4089, -142, 1360, -1118, -506, 57, 4769, 4015, -1783, 3099, 1618, 13, -1858, -3056, -35, 5002, -2139, -1368, -1607, 339, 7427, -98, -280, 932, 2337, 2949, 6283, 363, 727, -1769, 276, -320, -266, 74, 403, -183, 3661, -3863, -595, -569, 257, 1196, 3630, -341, -1421, -560}
#define CONV14_WT {0}
#define CONV14_W_Z       	(102)
#define CONV14_IN_Z      	(0)
#define CONV14_OUT_Z     	(0)
#define CONV14_M_ZERO    	(1552411392)
#define CONV14_N_ZERO    	(4)


/* Layer 15 Learned Parameters */
#define CONV15_BIAS \
 {-1973, -7479, 10376, 13929, -2900, 13560, 5093, -5369, 3344, 8242, 9822, -357, 1039, 9255, -4333, 9654, -7691, 6046, -9744, 8692, -5562, 3689, -25730, 10523, -7025, 6482, 6909, 14136, 5136, -1923, 5181, 3214, -1222, 2941, -3172, -2113, 9937, 16448, 5116, 4480, 8947, 16913, 6739, 771, 9805, 9068, -2965, 4945, 7832, 2304, -561, 22050, 3402, 8340, -3021, -18921, 1159, -9064, 3215, 5741, -783, -26165, -1916, 13872, 9067, 6727, 6850, 5597, 11425, -2370, 9246, -1521, 8100, 9937, 7024, -9568, -1218, 14251, 11187, -10667, 5053, 12337, -2190, 11488, -5396, 21296, -1610, 6345, 1325, 2089, 17537, 12336, -1218, 5810, -5832, 6714, 7189, 2568, 4412, 9967, 3095, -4121, 8800, 1253, 12292, 14934, -24280, 18649, 5373, 10297, -7252, 6152, 17774, 11812, 5262, 7773, 9176, 12788, 5943, 4805, 9897, -672, 5925, 9285, 6417, 8721, 11564, -9271, 3343, 5681, 5754, 2885, 8664, 3437, 1811, 6995, 4025, 13625, 434, 20172, 1049, 2424, 15300, 4317, 1508, 6940, 12636, 3197, -471, 7454, 33126, 14551, 9068, 2291, 9997, 275, 5187, 17278, 4213, 15732, -2817, -18407, -9009, 3510, 2291, 6160, -841, 13552, 11515, -4754, 7850, 4434, -548, -11327, -305, 4138, -6124, -7748, 18373, 18076, 8340, 9450, 6400, -4411, 11875, 7070, 1379, -5585, -2504, 9286, 4496, 10698, -3791, -10182, -5291, 6381, -10230, -6555, 316, -10571, -3158, -167, 5332, 3730, 11206, 15994, 4499, 2347, -114, 14955, 122, -12648, 3802, 887, -1155, 8086, -7333, 6503, 7161, 11182, -1325, 8368, 9811, 8585, -5726, 953, 7727, -17928, 6799, 11724, -5259, 1792, 2243, 4238, 4221, 8371, -16112, -9851, 9095, 9230, 9635, 4561, -371, -18993, 464, 11322, 3978, 10562, 7491, -7647, 1347, 12676, 2958, 312, 13044, 40, 5166, 6991, 1625, 5889, 5221, 1816, -14339, 10240, 576, -13840, -12620, 8564, 6053, 1301, 762, -1939, 11380, 10835, -8573, 12735, 19815, 4478, -10862, 5545, 8335, 231, -784, 124, 7021, 1911, 5242, 3007, 12986, 7708, 13545, 25426, -3432, 6762, 15089, 8982, -9159, 1816, 532, 10558, -5442, 4947, -968, -22630, -2131, -1061, -7731, 9586, 5281, -760, 6668, 5933, -8828, 1057, 3802, 12134, 4245, -9666, -2797, 19162, 6353, 5913, 12149, -8061, 542, 4136, 10905, -5792, -9178, -2270, 21839, 6147, -3856, 5155, 5598, 8139, 6658, -9998, 4877, 9743, 4842, -2501, 26294, 1447, 4419, 16748, 10492, 10316, -72, 10518, 21902, 6602, 5746, 11886, 16530, 4877, -8535, 13220, 11054, -881, 504, 2930, 6381, 3618, 7543, -4170, 6707, -5526, 19552, -2175, 10580, -17494, 16877, -548, 4931, -6868, 13187, 6692, 17168, 1338, 517, 576, 8745, 3588}
#define CONV15_WT {0}
#define CONV15_W_Z       	(131)
#define CONV15_IN_Z      	(0)
#define CONV15_OUT_Z     	(0)
#define CONV15_M_ZERO    	(1452981760)
#define CONV15_N_ZERO    	(6)


/* Layer 16 Learned Parameters */
#define CONV16_BIAS \
 {2376, -3931, 1808, 3232, -2958, 681, -617, -3704, 5112, -10933, -1242, 3533, -742, -1585, -363, 856, 5129, -2342, -1703, -2932, -47, 7060, -923, -3578, -4150, -5255, 1422, -439, 5462, 4562, 439, -2886, -1816, 5079, 1956, 6967, 4123, -7482, 5212, 3732, -3664, 4010, 3097, 3153, -6125, 1657, -1378, 4051, 9339, 1038, -876, -1337, -1261, -874, 5796, 634, -4994, -3643, 4850, -3628, 73, 6448, 20, -4349, 7844, 6998, 1786, 7896, 2645, -1093, -1129, -3420, 3570, -355, 6637, 3912, -2663, -1000, 5560, 2037, 4552, 3602, 2061, 3693, -1496, -937, -4036, -1799, -9767, 1965, -203, 5501, 4359, 6952, -4942, 5728, 7868, -605, 7286, 3369, 8514, 3645, -10965, -2078, 1734, 39, -1550, 2385, -6635, 137, 1794, -714, -540, -2461, 12379, 5246, 6664, -1352, 2999, 3115, 8080, 3809, 7484, -3034, -3238, 5016, 5491, -1015, -2680, 3985, 4784, -2928, 9964, -1044, -1135, -1566, 4380, -3998, 432, 5424, 4519, -1223, 3752, -1444, -1988, 10707, -6344, -1900, -33, -1987, 1916, 2391, -3110, 4185, 4314, 4819, -2219, 6037, -3527, -610, 4233, -1746, -698, 6692, -1548, -812, -1224, 4763, 10949, -1113, -1906, 1691, -1624, -2982, 5359, 4633, -1479, -834, 1608, -1692, 6939, 3616, -11408, -1321, -1723, 6154, -1661, -1332, 3805, -10372, -1343, 10142, 5370, -2099, 102, -1686, -2299, 3383, -4588, 2009, 72, 4488, 1037, 7319, -2177, -1142, 5258, 4162, 841, 8947, -1088, -3484, -1415, -1426, 6534, -1344, -674, -3197, 3791, 3147, -2123, 9699, 5083, -17481, 3205, 162, -1863, -303, 1328, 965, -802, 4101, 2578, 4780, -6595, -48, -1223, -2707, -3808, -2764, 104, -546, 6264, -1195, 5596, 7246, 4495, 2678, -3105, -84, -1860, 7881, -1231, -806, 1213, -1595, 4254, 5533, 143, -3406, -2433, 4135, -1646, 5849, -8114, -4652, -6797, 4835, 9142, 8168, 5908, 6120, 242, 204, -5556, 3151, 3301, 937, 4857, 2781, -7863, -1594, 3764, 61, 7357, 8933, -2116, -901, -21553, 1669, 3694, -393, 434, 3699, 1080, 5548, 6361, 7712, 735, 3922, -806, 828, -1779, -5475, 6576, 5587, -2404, 8622, -3187, -1222, 12, 167, -375, -952, -1876, -2959, 4267, -395, 2838, 3623, -2122, 4904, -9334, -275, -1063, 1196, -7313, 3189, 3967, -889, 3574, -1448, 4783, 5232, 4232, 8089, -6278, -1721, 1192, -251, -1052, 5017, 5675, 3175, 7341, 4365, 3490, 1083, -4741, 1235, 3781, 6205, -8622, 1890, 2623, 4329, -2617, -1945, -1430, 2209, -1757, 6201, -2013, -3951, 3602, -2271, -1302, 3626, -1416, 6768, -1784, -1134, 500, -1371, 9981, 3854, 5916, 682, -1559, 4654, 1065, 5131, 1793, -6772}
#define CONV16_WT {0}
#define CONV16_W_Z       	(110)
#define CONV16_IN_Z      	(0)
#define CONV16_OUT_Z     	(0)
#define CONV16_M_ZERO    	(1283632256)
#define CONV16_N_ZERO    	(4)


/* Layer 17 Learned Parameters */
#define CONV17_BIAS \
 {-8826, 4012, 4782, 2631, 3557, -2953, 300, -12910, 4242, 8133, 5334, 1385, 14754, 1785, 492, 4804, 24017, 3953, 7103, 694, 5685, -136, -14960, -2932, -279, 18805, -8920, 13228, 14642, -11825, -6599, 14106, 4269, 9901, 15499, 664, -14552, 14344, 12680, -6931, 1772, -1777, -11469, -1120, -4522, 24199, -8086, 18559, -8711, 19515, -1496, 6546, 8325, 22623, 8662, -7673, -18807, 11560, -8511, 2715, -3481, -8137, -11012, 4739, -5601, -3723, 1683, -2241, -2887, -6383, -18098, 4451, -9201, -9990, 10171, 19701, -25226, 2059, 5347, -1741, -7156, 11002, 3303, 4044, -9994, -5076, -4671, 3727, 11758, 14875, 611, 9793, -10067, 14013, 2418, -1440, 14179, -11586, -6112, 12690, 10948, 79, 5734, 7461, -6951, -3347, -11184, 3734, -8936, 11435, -9613, 2296, -5546, -11279, 604, 16482, 6713, -9827, -17862, 23359, -2037, 10129, -3344, 6543, 4362, 6067, 1444, -6074, -20293, 1718, 13451, 2814, 12934, -611, 1622, -2262, 15913, 2652, 7274, -14596, -3356, 4110, -1071, 7673, -4659, 19709, 13584, 6530, 10620, -33610, 5481, -464, -12606, -8356, 9951, 9226, 2416, 10382, 8724, -1914, 4724, 3673, 6835, -10497, -1875, -80, 10775, 6733, -2996, 15070, 1361, 4191, 12728, -19826, 6072, 16004, 8035, 6809, 2980, 11288, 2975, -13066, 6664, -2723, 8820, -16183, -21662, 4451, 28267, -13988, 8170, -16955, 1762, -12750, 4518, 2033, -13349, 7906, -16312, 10509, 1466, 2804, 5671, -8694, 1096, 2609, -5986, -10207, -44415, -13977, -6669, 19445, 12581, 8182, 9689, -11801, 16003, 4464, -13198, -11303, 29613, -557, -10216, 12360, 17751, 19912, -8633, -24203, 23622, 2718, -12251, -17100, -10019, -402, 3690, -25260, -13472, 9602, -13783, 10179, -4602, 23661, 26344, -15078, 11, -18382, 6364, 11173, 14049, -5943, -21643, -11613, 6011, 7816, -26509, -8048, 3490, 23258, -7803, -2581, -2306, -11232, -8487, -1452, 8755, -12478, -5339, -14858, -2462, 14766, 1993, -19046, 3053, -18120, 5526, -3092, 10187, 14726, -5090, 14382, 11003, 3464, -7670, 2760, 18355, -3695, 1069, -4093, 9141, 12380, -6397, 7675, 4753, 4088, 201, 5631, 12329, 11697, -3082, 7197, 5938, 20061, 15762, -24312, 1795, 6315, 7607, -9177, -1828, 15708, -18139, -16577, -20303, -8942, 2767, 8720, 12953, 5915, 6186, -371, 6290, 4363, -9533, 14404, 9122, 12407, -3553, -20606, 10793, -16223, -28002, -9284, 3715, 6775, 1441, -3610, 3859, 9693, 835, -19971, 13258, 2397, 20150, 7841, -16783, -3365, 11397, -4897, -12562, 7946, 15365, -10629, 6411, 1140, 18356, 3623, -7614, -8547, -12090, 18463, 11236, -590, -14818, -7110, -18798, -2134, 18992, 13933, 11784, -15168, -12775, -16199, 15417, 3898, -5306, 2442, -12684, 159, -22077, 3708, 629, 18235, -1177, 8187}
#define CONV17_WT {0}
#define CONV17_W_Z       	(132)
#define CONV17_IN_Z      	(0)
#define CONV17_OUT_Z     	(0)
#define CONV17_M_ZERO    	(1261050240)
#define CONV17_N_ZERO    	(6)


/* Layer 18 Learned Parameters */
#define CONV18_BIAS \
 {-668, -1942, -773, -1204, 5399, 3213, 1506, 2005, 15, 2893, 2156, 3314, -1198, 3377, -4586, 2756, 3114, -1435, -2017, 3169, 1790, -481, -334, -2142, 2700, 10838, 5152, -747, 2002, -297, -2255, -647, 2713, 2644, 4525, -1485, -217, 7499, 4785, -613, 2705, -1120, 3586, 1641, 3377, -2517, 2681, 8124, -2333, 6337, -1718, -517, 8410, -1758, 2560, 100, 5309, 6117, -4907, 3286, -402, 2466, -1945, -160, 2911, 5108, -2814, -1851, -707, -1653, -14, -312, -850, -1910, 7151, 4559, 3840, 4399, 3055, -1966, -1405, 2126, 2318, -7589, -349, 5770, -3803, -5784, 4551, 4176, -1870, 3934, -2775, 2234, 3056, -1934, 3390, -771, -11873, 2281, 2873, 608, -1108, 6101, -49, 4603, 1051, 3160, 4830, -4024, -4798, -2526, 3121, -1679, 561, 3580, 6668, 3309, 5165, -681, -215, 2772, 5523, 6292, -500, 853, 3994, 1561, -396, 1852, 6086, 5452, -1817, 4214, 2446, 221, 1534, 9948, -2851, -6, 2931, 4883, 4655, 8812, -584, 4946, 9443, -2358, 3594, -2255, 3345, 2771, 259, -98, 2300, 3140, -933, 4259, 4929, 2270, 2993, 1340, 2853, 2953, 4203, 1771, 4540, 4322, 3352, 3071, -2134, 3590, -4321, 945, -4438, 6523, 2172, 2574, -444, 2847, 4299, -301, 2267, 2816, 7604, -7453, -208, 1890, 3857, -581, 3239, -106, 2523, -3236, 713, 3342, -237, 2197, -1426, -3508, 1257, -870, -2901, -51, -501, 3749, -1702, -244, -4478, -995, 2679, -3146, 4031, -376, 3162, -1301, 6570, 8372, 2768, -3435, 4926, 4085, -16, 6178, -2615, -1253, -1615, -2780, 5440, -2860, -918, -224, -121, -1583, -1284, -1382, -912, 3788, 4149, -5160, 1052, 3427, 2593, -1255, 417, -2480, 3434, 2260, 1100, -6108, 3122, -1288, -276, -2378, -331, -2776, 5412, -2104, 2946, 4472, -2075, -2600, -890, 3640, -2170, -3092, -3070, 2958, 4308, 3646, -3296, -760, 4801, 2861, 586, -2004, -1326, 6753, -1768, 9506, 3613, -1026, -1573, -851, 787, 3876, -1007, -1734, 2483, 2931, 2892, 3849, 3298, 2907, -709, 3091, 5351, -346, -2734, -5551, -2921, -30, 3787, -1119, 3630, 2509, -909, -1053, 4491, -2552, -1178, -1076, -2861, 518, 4738, -6828, -170, 2808, -2421, 6306, 4089, -3098, -4376, 3141, -1429, 1015, 1633, -6232, 1993, -1557, -12, 4126, -249, -1167, -2834, 3034, 2559, -585, 2345, 4637, -3722, 3146, 1909, 4152, 1246, -959, -687, -1749, 4407, -3730, 596, -4006, 667, 3547, 2169, -3494, -3856, 5397, -327, 4529, -749, -1937, -1188, -110, -525, 2512, -4160, 4742, -3032, -222, 4378, 3517, 5214, 3296, -2260, 3639, -1092, -711, -1909, -119, -2, 13219, 1320, 4666}
#define CONV18_WT {0}
#define CONV18_W_Z       	(98)
#define CONV18_IN_Z      	(0)
#define CONV18_OUT_Z     	(0)
#define CONV18_M_ZERO    	(1281818112)
#define CONV18_N_ZERO    	(4)


/* Layer 19 Learned Parameters */
#define CONV19_BIAS \
 {18489, -8737, -10338, 6520, 6322, 754, 8537, 30483, -6642, -3966, -16198, -7845, 10206, -2561, -19296, -15315, 6864, -2093, 1761, 10376, 10284, -10923, 8367, -7368, 5621, -1389, 683, -2865, 1220, 13504, 15399, 12132, 1956, 7583, -360, 10733, 3806, -10008, 6406, 3498, 3347, -10984, -12379, -5114, -7117, -10896, -3717, 26142, -9049, -15977, 1950, 6340, 22235, -21861, -4313, 5439, 8382, -5817, 6239, 847, 17270, -11413, 6971, -2803, -1988, -19986, -1356, 6294, 11901, 5841, 1310, 8215, -1958, 756, 11645, 14793, 9977, 11861, 4191, 10335, -9739, 4016, -26632, -1635, -3957, -3475, -3836, -6483, -5428, 2216, -12620, 7601, -3866, 7781, -5317, -18966, -28195, -4443, 3305, 1328, 8278, -6132, 12044, 1294, 5264, -7091, -1506, -815, -19498, 14502, 2451, -12923, -3708, 11274, -3015, -10796, 8557, -3428, 14500, 888, 4517, -27203, -5119, 13611, 1997, -22588, -4375, -3305, -12757, 12314, 1201, -4711, -1337, -8822, 3388, 7274, 6645, 6952, -17356, 4424, -12476, -2329, 13323, 10017, -4371, -6432, 7183, -10850, -16852, -10020, -19142, 22358, 1524, -8483, 8471, 13263, -3458, -15540, -5389, 6660, 6026, 17515, -6090, 26595, 5125, -333, 1551, 16579, -26900, -11986, 6965, 4205, -5331, -9360, -4977, 5937, -18259, 8418, -3698, 8758, 21240, 2604, 17055, -14889, 3815, 17678, 13194, 2020, -3322, -17022, -6554, -5395, -9355, 15239, 3444, 8416, 9551, 373, 529, 3864, 11803, -6459, 718, -10332, -12529, -668, -6379, -10311, 5970, -18961, 5335, -3209, -11778, -20335, -1395, 12658, -5967, 15116, 11798, -8223, 5714, 7779, -17811, -6280, 1898, -679, -16779, -6846, 383, 8028, -7098, 13371, 20235, 7153, 13013, 5871, -7832, -396, 3136, 3599, -773, -3680, 13037, 2295, 10502, 9019, 7062, -11692, 523, -5886, 1101, 3668, -9487, -11474, -5768, -12703, 8209, 1447, 3175, 14417, -4116, 4373, -11088, -2756, 10704, -24299, 3853, 4528, 7249, 2544, -18180, -17561, 11866, -15726, 7804, -7643, 14403, -3342, -14983, -15521, -6522, -10810, 8369, 4746, 651, 3195, 4473, -22410, 426, -7932, 10363, -5696, -585, -10279, 1046, 5121, 2984, -6323, 15407, -34784, -8205, 21499, 3667, -5591, -12301, 14937, 12517, -17326, -8697, -2824, -24142, -5209, -8114, -27684, 5365, 13407, -12748, -3204, -673, -20288, -2893, -602, 10750, -11334, -8699, 4810, -9686, -6837, 10391, 5952, -1621, 16325, -13188, 846, 5655, -3829, -524, -566, -9225, 5735, 26372, 5820, -4137, 5934, -9484, 18042, 9733, 2095, -7204, 6580, -24819, -9725, -2084, 820, -7636, 12915, -5860, -3174, -4765, 7476, -4628, -7275, 12896, -7371, -33210, -7835, -25237, 1454, -24317, 3259, 10573, -8882, -4650, 9257, 12093, 10198, -1680, 2358, 6568, -26816, -5193, -21184, 1756, -3609}
#define CONV19_WT {0}
#define CONV19_W_Z       	(136)
#define CONV19_IN_Z      	(0)
#define CONV19_OUT_Z     	(0)
#define CONV19_M_ZERO    	(1481458048)
#define CONV19_N_ZERO    	(6)


/* Layer 20 Learned Parameters */
#define CONV20_BIAS \
 {-5285, 4007, -2752, 3136, -1083, -1858, 3340, -5088, 3128, 3179, -2670, 2935, 6542, -59, -2455, -46, 8690, 2829, 6002, 4070, 5144, 3219, -2739, 990, 2628, 2045, 3491, -2549, -2498, -2788, 5154, -2068, -1785, -3627, -650, -1771, 5461, -1232, 5443, 5016, 3470, 2534, -1691, -3417, 7254, 3874, -2815, 6946, 12, -1943, 28, -1362, 3681, -1680, -435, -1587, -1436, -3518, 5497, -524, 5930, 2153, 2798, 3072, 3332, -211, 5399, 118, 2684, -2448, 224, 3920, 4359, 1140, 4778, 3142, 2845, 4200, -3417, 2613, 6724, -1492, -771, -889, -1109, 3463, 3838, 3204, -1038, -1171, -657, 1583, -885, 1913, 1129, -881, -4334, -1729, 3219, 3906, 3783, -2592, 3455, -1787, 3270, -337, 3956, -709, -817, 7648, -1531, -662, -1078, 3702, 4067, 3067, 2870, -7827, 4515, 2829, 2478, -1833, 6467, 5436, 4900, -780, 7135, -1397, 6632, 12788, 3645, 3440, -1309, 3992, 6974, 3965, 6657, 4652, -221, 6718, -26, 84, 9786, 11953, 4453, 2558, 5950, 3163, -565, -1214, -870, -571, -1362, -2284, 2750, -684, 3927, -478, -2255, 3066, -7, 3002, 2843, 5756, 3830, 6210, -1654, 6129, -16, -2805, 4409, 3064, 2658, -1112, 3103, 5028, -3163, 6347, 3480, 1701, 5036, -3797, 2774, -616, 7546, 3031, 2885, -2275, -1698, 3840, 3412, -411, -1747, 5207, 3316, 6836, -1072, -1213, 4781, 3299, 3256, -266, -519, 3095, 4224, 1440, -3570, 3218, 4066, -3346, 2102, 5333, 1468, 3165, -67, 1486, 6198, -1642, 2250, 2685, 4722, 4814, -3, -5806, 4687, -271, -4514, -1024, 2796, 3427, -1931, 2590, 5722, 793, 2907, 5335, 5203, 5094, 3377, 405, 5693, 4286, 12578, 1836, -990, 4106, 3970, -18, 3297, 2738, 5535, 278, -539, -837, 4285, -337, 8979, -2580, 1233, -1171, 2954, 5382, -1730, 5294, 4847, -1353, 9530, -7094, 3000, 2876, 3672, -532, 9250, 4157, 3240, -2540, 4042, -2813, -2704, -2413, 4420, 2649, -421, -3493, -936, 5472, 3769, -4, 5961, -4141, 5157, 4890, 4481, -2609, 4095, -1405, 5647, -1955, 4179, 3696, -991, -6493, 3600, 3247, -199, 2200, 571, 2161, -3200, 1207, -1666, -903, -4198, -727, 2626, 3614, -3949, 5732, -952, -917, 2351, 2687, 4001, 272, -978, 8017, -3346, -3383, 2815, 9212, -2303, 4438, 4056, -375, 2106, -2157, 2595, 3994, -1967, 3892, 4739, -1469, -1976, 3857, 2645, -326, 3443, -4022, -1791, 380, -7583, -2025, -3405, 3354, -1969, 1627, 3464, 5286, -730, -828, -1466, 834, 3344, -719, -1980, 5154, -3140, -2167, 3024, 6531, -4848, -364, -4103, 8059, -2877, 5574, 4709, 5897, -4934, -59, -1540, -54, -512, 5466}
#define CONV20_WT {0}
#define CONV20_W_Z       	(145)
#define CONV20_IN_Z      	(0)
#define CONV20_OUT_Z     	(0)
#define CONV20_M_ZERO    	(1140197504)
#define CONV20_N_ZERO    	(4)


/* Layer 21 Learned Parameters */
#define CONV21_BIAS \
 {3974, -2158, -3415, -838, 16303, -3619, -20775, -884, 7041, 11210, -5040, 4797, 8110, -3410, 6322, 19923, -1036, -15716, -7846, 4471, 2163, -6982, 2945, -16509, 3448, -8029, -15754, -12086, 2790, 11983, 7831, 13201, -17663, -2073, -3464, 5199, -18075, -7032, -4708, -1235, 11996, -1258, -7860, -4995, 2707, -1632, -8347, -12743, 3972, 3907, 6271, -1860, 2587, -5163, -8219, -4724, -8113, -2401, -5877, -7853, -21039, 9017, -10408, -3059, 7566, -17531, -12225, -4427, -10267, 6057, 3475, -6283, -8325, -11891, -6509, -26226, -8752, -13404, -10144, 11188, -9047, 3096, -7127, -2237, -2751, -8637, -12146, -5779, 1930, -3942, 3578, 6779, 3607, -15066, 11931, -17807, 6003, 6898, 279, 10407, -19848, 3920, 19275, -15057, -6532, -4457, -7828, 59, -10014, 12691, 1123, -10291, -15604, -23622, -5592, 5500, 1931, -5466, -19045, -11225, 11646, -569, -1298, 2097, -4776, -1730, -7972, -10373, -15076, 2992, 6516, -18888, -2261, 13147, -17302, -9892, 4917, 2714, 9048, -18270, -7981, -13016, 5135, -23959, -14317, 14557, -15291, -13231, 1578, -16770, -12742, 601, 4628, 12476, -5892, 2656, 2536, -7853, 4976, -8790, -3260, -10518, -7589, 6132, -7320, -9530, 2095, 6813, -20550, 15509, -10503, -12391, 4823, -10318, -13028, 10005, 8591, -7406, 3941, -21082, 1724, -31607, -28482, -5669, 13330, 1444, 569, 481, -5185, -3673, -9602, 1762, -14238, 3325, -6373, 1353, -18978, -915, 7310, -14271, -5924, -10309, -13860, -4000, -8543, -30299, -652, -14029, -992, 12278, -21862, 14283, -106, -31766, -12656, -6663, 8095, -8311, -17801, 3896, 78, 6210, -4511, -17540, -6416, -8127, -9511, -490, -11682, 15251, -8252, 10093, 6515, 21167, -10926, 14059, -17364, -6910, 13404, 10204, 8339, -7065, -2053, 9547, -26080, -19195, 2583, -6128, 9720, 4190, 21250, -252, -5077, 3407, -6652, -14891, -4010, 6332, 3712, 27862, -1651, -9715, -21881, -20657, -9550, 20712, -12667, 659, -17267, -9069, -5406, -10624, -17660, -2086, -3930, 4229, -2319, -6300, -19204, 2979, 18300, -2040, -9170, -4620, -3641, -3716, -1034, 27802, -7465, -21635, -9506, 5131, -3851, -13925, -4569, 12974, -9748, -26522, 4506, -4097, -8029, 3107, -6485, -22837, 4405, -16055, 16942, -16609, -11222, 2911, 11694, -16825, -8869, -2841, -16241, -455, 28540, 7683, 2578, -18161, 15403, -2720, 1645, -7133, -5417, 22227, -4306, -19099, -10246, -8019, -4017, -1122, 341, 3296, 17185, -28896, -18571, -11931, -13130, -3804, 14516, -35481, -26609, -3785, -12936, 2020, -15398, -2225, -12009, 21886, 401, -2271, -28105, 8044, 27051, -3546, 4781, 900, -2919, 2297, 8212, -15046, -12671, -27829, 7359, 6907, 15680, -21019, -13529, -7887, -5318, -24465, -21855, -11258, -13128, 3834, -529, -21674, 6982, 4693, 12311, -20997, 2478, 218}
#define CONV21_WT {0}
#define CONV21_W_Z       	(98)
#define CONV21_IN_Z      	(0)
#define CONV21_OUT_Z     	(0)
#define CONV21_M_ZERO    	(1436691584)
#define CONV21_N_ZERO    	(6)


/* Layer 22 Learned Parameters */
#define CONV22_BIAS \
 {-2162, 54, -1054, 4989, 4415, 4144, -3965, 5629, 4337, 3426, 3261, 6122, 4251, 5379, 371, 6810, 4775, -1450, 6013, 2331, 5547, -232, -236, -1573, 4794, -2202, -10, 3058, -8754, 6366, -5312, -3610, -265, 3432, 4031, 6766, -197, 4541, -58, 3562, 11363, 1149, 141, -1054, -2110, 6131, -594, -756, 6061, -13, -3744, -1352, 5474, -1027, -1124, 4565, -2615, -1561, -1049, -698, -846, 8125, -552, -559, 10859, -569, -58, 3422, -903, -1671, 5341, -713, -41, 1609, -7159, 3492, 5009, -170, -896, 4668, -117, -1150, -2952, -26, -5108, 9032, -359, -2123, 1034, 3428, 3772, 3653, 4321, -851, -827, -53, -1131, 7504, -2032, 4480, -273, 5194, 8345, 6131, 7817, -1390, 4755, 5454, -453, -2127, 5486, -1501, 5964, -7334, -1545, 8586, -151, -1013, -867, -737, 3494, -954, -106, -1361, 3609, -437, -568, -727, -2736, 5102, -1497, -2336, -1916, 4091, 31, 4364, 5688, 6331, 2463, -3286, -95, 2048, 3759, 8349, 6156, 4121, -42, -686, 7922, -455, 3553, 9980, -4381, -2138, -4798, -2053, 4115, -1290, -1704, -2373, -1706, 4597, 5321, 6643, 4379, -5246, -1801, 4331, -42, 6144, 3465, 4654, 5236, -1247, -1066, 6, 1579, 3780, 3379, -1280, -8913, -2335, 2856, -732, 6647, 3627, 3739, -3538, -5555, 1158, 5336, -2198, -2094, 3291, 3760, 5217, -2206, 2775, -1334, -53, -2489, -64, -9256, -307, -2022, -2212, 7289, -1242, 6759, 3445, -772, 804, -7881, -3232, -1111, 30, 7691, 4511, 3628, 5668, 5038, 7626, 2920, -767, 2970, -710, -554, 1785, 3670, 7552, 245, 4325, 2640, 841, -5246, 5042, -58, 8530, -3592, 4447, 11561, 19, -33, 7911, 3223, -2708, 4976, -496, -3488, 7499, 3982, -5393, 6413, -1975, -499, 4098, 3149, 4547, 1149, 4457, 4615, -3672, -2913, -654, 1203, 10093, 273, -651, 3667, -15, 7614, -3147, -344, 7253, -4437, -4994, -683, 6860, -481, 4909, 6575, 4086, 3515, 3842, 4587, 3716, -704, 9211, -2601, -605, -41, -1006, 4401, -2876, 3812, -1342, -96, 2321, 8408, 535, -446, -298, -352, -1026, 6738, -48, 7129, -1024, -1317, -5496, 223, 89, 7846, 3738, -1730, 4818, 2181, -1326, 3, -732, 4181, -7806, 5790, -1722, 3477, -3466, 3360, -269, 3549, 3298, 3458, -2017, -6194, 422, 6060, -1449, -3628, 3298, 4835, -1401, 3596, -3269, -276, -1004, -2827, -1126, 4253, 7406, 6656, -1421, -1759, -649, 1064, 6695, 4544, 4091, -2718, -94, -2144, 5549, 5156, -1331, -208, 3573, 11048, 4628, -7211, -747, -3590, 4345, -465, -506, 3420, -1432, -1635, 4226, 3414, -735, -513, 6611, 11273, -1103, -1451, 2930}
#define CONV22_WT {0}
#define CONV22_W_Z       	(122)
#define CONV22_IN_Z      	(0)
#define CONV22_OUT_Z     	(0)
#define CONV22_M_ZERO    	(2038632320)
#define CONV22_N_ZERO    	(5)


/* Layer 23 Learned Parameters */
#define CONV23_BIAS \
 {-17501, -18697, 1760, -41402, -5737, -11427, -5888, 13081, -8577, -24375, 18171, 13837, -11506, 991, -10247, -14369, -16294, 15854, 648, 1729, -18140, 10758, -13618, -15691, 2518, -11212, 6623, -11274, -10330, -17322, -17157, -14306, -777, -6832, -21592, 13425, 19146, 14721, -8799, 484, -12476, -305, -4903, 9767, -5970, 708, 8288, -31713, -10904, 1977, 9711, 7293, -13773, 860, 10700, 7003, -10731, 16340, 9855, -630, 8450, -22298, -6428, -9018, 4904, -13386, -9257, -1604, -9498, 2649, 14848, -543, -16809, 14614, -10160, -8257, -22143, -21547, 12627, 8056, -19422, -14288, -474, 6230, -5519, 24966, -3890, 8956, -2127, -12053, 3189, -2736, 3288, -1590, -2648, -1285, -8117, -134, -22763, 2585, 12210, -16871, -7216, 1627, 5113, -28162, -4558, -14628, -30971, -11117, -6247, 565, -36988, 6576, -1367, 8717, -14381, 1374, -10178, 1227, 2381, 6320, 3187, -26765, -29761, -6515, 6380, 3725, -36659, 8242, -13600, -2957, 6166, 6954, -7002, 14804, -27511, 12630, -8300, -12607, 2221, 5755, -16065, -4003, -31136, -15790, 18380, 10425, -31877, 15059, 7942, 12870, 20625, 1439, -9266, -205, -9726, 20157, -27642, -5160, -4834, 6764, -246, -13451, -19931, 6203, -3253, 7289, -19472, -6392, 9416, -2522, -4230, 9379, 4952, 17050, -7105, -23471, 5498, -28463, -17708, -4798, -5893, -13790, -14732, 5626, -10881, -9587, 29952, -7242, -4572, -15486, -24792, -11505, -13783, -5229, 9187, -13753, -13888, -20148, -23929, -8351, -13368, -14229, 1571, -10304, -1991, 20192, -15982, 394, -396, -18567, 6967, 6999, -10812, -3079, 11044, -14942, 7795, -13637, -1304, -13485, 3050, 3880, -13102, -7385, -31979, -14256, 2422, -33563, 14537, -14300, -20598, -18291, -4825, -15593, -32183, 6965, -24702, 4886, -7739, 11389, -18287, -9212, 12009, 12561, 7294, 10947, -7781, -15719, -2042, -18998, 14971, -25185, 41, 12919, 13111, -27004, -3227, 11095, -14931, -10816, 10815, -5434, -18965, -9775, -14160, 424, -12211, 4524, -15619, -6132, -25753, -15214, 37775, -11325, -5355, 7644, -5305, -2533, -7116, -12785, -22756, -23595, 239, -11645, -7530, -2783, 21806, -14146, -17155, 10360, -22383, 4464, -15633, 862, -13376, -26263, 4422, 11156, -13571, 9970, -16956, -23805, 5666, 6659, -14874, 7008, 6629, -18609, -26212, 13633, -18600, -22814, 8298, 9166, -3545, -20756, -18457, -15111, -11598, -26851, -2658, 12453, 6776, -1258, 5206, -15077, 8143, -9874, -3825, -15570, -14915, -4843, -15224, -19516, -4951, 9133, -13504, -26134, -21410, -11910, -22262, -9301, -13799, -19854, -8175, -26752, 4840, -30931, -3330, 15177, 1929, -1677, -4050, -11055, -18902, 8063, -11944, 25381, -27198, 9053, -21613, -15932, -18545, 2471, 14235, 6386, -8900, -14779, 8115, -12372, -8883, -13526, -35273, 8701, 5976, -20593, 4378, 4852, 9647, -22230, -11556, -22804}
#define CONV23_WT {0}
#define CONV23_W_Z       	(109)
#define CONV23_IN_Z      	(0)
#define CONV23_OUT_Z     	(0)
#define CONV23_M_ZERO    	(1329619072)
#define CONV23_N_ZERO    	(6)


/* Layer 24 Learned Parameters */
#define CONV24_BIAS \
 {-30, 12467, 8265, -165, 9980, -2, -72, -2273, -576, -76, 16010, 11146, 6535, 13826, -40, -114, -5714, -805, -47, 5702, -35, 14098, -112, -78, -3, 5203, 6707, -11, -31, -36, -244, -25, 7561, 4200, -27, 10129, 8550, 789, 9629, 8746, -158, 17239, -9, -7747, -104, 6859, 15086, -13, -121, 5957, 1029, 15889, 7012, 14082, 11992, 298, -5252, 8758, 16767, 13, 18111, 113, -114, -74, -1648, -132, -2163, -27, -859, 14379, 8724, -2444, 12053, 16798, -138, 6401, -29, 11854, 10327, 15301, -55, 13535, -54, 11620, 8952, 1606, 11507, 14414, 6674, -663, -2460, 11117, -133, -97, 7983, -95, -8, -1841, -4290, 22371, 17455, 7282, 74, -73, 16321, -46, -48, 10963, -95, -128, 345, 13362, -3257, 11106, 6250, 10239, 14782, -5336, -53, -4988, 7056, 15122, -126, -47, -193, -128, -59, 6404, 24, 16330, -5177, 15495, 7278, 15375, 31, 17729, -111, 9440, 12569, 275, 14692, 12804, -3675, 6728, -51, -68, -2714, 8232, -1032, 14805, 6732, -3482, 5902, -392, 7400, -45, 10934, 16069, 2, -994, 14, -1596, -2972, -38, -108, 6754, -23, -3995, 2, -6, 20877, 6663, 13282, 17896, 15720, 11256, 6391, -347, 7749, -57, 2117, -1419, -2335, -8, -75, 16068, -831, -32, 7140, 14890, 9513, 66, -65, -351, -32, 2153, 14851, -180, 8, -57, -415, -52, -109, -96, 16466, 10, 6, 6841, -46, 10717, 6432, -16, 11594, 7463, -142, -83, 12373, 180, 7557, 272, 16848, 14318, 3665, 11287, -156, -78, -11, 11559, -1309, -50, 40, 6900, 5908, -36, 6870, 6340, -43, 7198, -114, 47, -8, 16662, -70, 14401, -6648, 17472, 1124, -4573, 1, -121, -99, -36, 17687, -194, -83, -54092, 16734, -112, 14175, 11807, -766, 6221, 15005, 15950, 1302, 484, -1170, 12295, -2, 12096, -197, 6768, -114, 15544, 8209, 601, 11492, 11175, 8446, 0, 11436, 6358, -5, 96, -7092, -61, 8475, 13872, 9440, 8269, -25, 6093, -27, 5881, -38, 13959, 106, -52, 13614, 12089, -32, 10892, -141, -149, 15, 14860, -25, 10788, -21581, 70, -196, 16063, -92, -105, 16103, 10002, -452, 12562, -3250, -1488, -62, -107, 5, 19999, 14203, 6793, 6510, 288, 15121, 29, -106, 71, -7565, -24, -82, -75, 6353, 15896, -203, -40, 34, 10808, -60, 7498, 6317, -90, 10214, -12, 5558, 283, 11134, 8957, -13785, 8413, 13140, -357, 10158, 29805, 25, -5972, -113, 11058, -3371, 110, -67, -12, 19091, 7881, -99, -29, 11008, 8709, 249, -28, -27, 11060, 17397, -63, 12601, 6446, 14332, -55, 38, 16891}
#define CONV24_WT {0}
#define CONV24_W_Z       	(113)
#define CONV24_IN_Z      	(0)
#define CONV24_OUT_Z     	(0)
#define CONV24_M_ZERO    	(2112577152)
#define CONV24_N_ZERO    	(6)


/* Layer 25 Learned Parameters */
#define CONV25_BIAS \
 {-1762, 11336, 1897, -571, 147, -2160, -921, -1458, -3193, -8660, -7241, 5210, 10541, -12123, -20671, -207, 1435, 4460, -8461, -1797, -2383, 7713, 1742, 1643, 13980, -5875, 8670, -8390, -1888, 7620, -6378, -10629, 7536, -3667, 6791, -9525, -21739, 2144, 536, -703, 245, 3610, 15586, 4647, -7002, -1785, -5901, -1534, -10059, 5892, -1079, 1516, 333, 3021, -2440, 17276, 428, -402, 8704, 23450, -10775, -7323, -384, -3408, 3132, 4340, -2081, -5089, 7949, -3046, 1905, -5122, -3353, 5599, -10860, -11100, 10432, 1184, -10753, 1440, 13768, 17475, 3608, -3693, -3635, -7706, 2960, 3576, -8991, 10126, -2792, -13960, -278, -9, 685, -3993, 6862, -9783, -13919, 306, -1518, -6450, -9342, 6532, -9410, 421, 2004, 5056, -4191, 5610, -1755, -4934, -2816, -1870, 8583, 5093, -2463, 1998, -6542, 6721, -993, 4548, 9856, -11110, 216, -7003, -2516, 6960, -5481, -1406, 2222, -698, 6439, -3694, 5903, 2103, -9301, 244, 2822, 8691, -6371, 904, -2466, -10339, -13861, 2683, 8947, -7856, -12268, -6076, -12574, -6837, -2637, 2561, -2110, -4864, -2573, 4096, 4949, 3509, -6698, 1733, 1140, 3578, 1940, -2745, 5293, 11932, -4271, -167, 909, -5283, -3875, 5950, 5829, 9269, 6068, -7446, 359, -2944, 1985, -6286, -14701, 3340, 5806, -9083, 1811, -5478, -2649, 13686, -4987, 8336, 2665, -2385, 3562, -10050, 3223, -684, -9704, -8500, -6550, -20480, -4605, -1987, 4111, -784, 527, 9027, 1903, -5717, -5360, 10586, 2152, -3904, 433, -10010, -3979, -2011, 1254, 2462, -6775, 7939, -12375, -10066, -10271, -9670, 3491, 9269, -3208, -15113, -2144, 6528, -10666, -3731, -955, 616, -6461, -3003, 3296, 3638, -926, -7844, -1421, -3684, 2975, -146, 2610, 2348, -3188, 1681, -18560, -4720, -11340, 739, -4455, -9358, -392, -7603, 2878, 4109, -5008, 6499, 2908, 1108, 8195, 5288, 2418, -6686, 1794, 12039, 3772, -951, -210, 970, 2031, -6849, 5077, 5086, -2433, 7429, -390, -5561, -2770, 3456, -4244, 5122, 1453, 9914, -5515, 1468, -1949, 7823, -79, 1538, 3816, 3697, 3815, 379, 3056, 6511, -1179, 10730, 2617, -5369, -4860, -282, 5678, -1063, 3948, -2500, -2521, -1662, -6211, -6223, -2778, -2837, 8016, 2104, -1573, -18099, 4087, -2663, 2917, 884, -2560, 9709, -5979, 7043, 3442, -1235, 4364, -2077, -10463, 7319, 2903, 3388, -7171, 4611, 9297, -4931, -3570, 7400, 1732, 4057, -681, -1193, 4933, 197, -2866, 6622, -7568, -3146, -896, -6671, 4954, 5621, -10809, 1475, 826, 2991, 1677, 8955, 1674, 8422, 11193, -8445, -1155, -3435, -1458, -8044, -8856, 4218, -6144, -11739, 1897, -9872, 590, 2042, -11324, 777, -5967, -2271, 4927, 2106, 7294, 5117, -8297, -4065, 9113, -4074, -2551, -3063, 8624, -403, 9001, 5512, 2152, -7271, 12296, 2677, 3198, -16948, 1482, 547, -4508, -5144, -15627, 8060, -12509, 5748, -1201, -5240, 2792, -4477, -1645, -6219, -4871, -812, -1010, -2981, 416, -5822, 4147, -908, -6687, -1128, -15584, 9956, 3377, 2010, -133, -9008, 4827, -61, 9942, -3146, -1830, -1469, 4522, -14300, 7536, -1393, -2606, 6222, 11687, 4391, -2610, -917, -702, 9980, 5543, 2187, -7322, 7526, -5621, -612, -16534, 2325, 4290, -10339, -822, 2774, -1313, -4743, 3098, -247, -7333, -3187, 622, -2642, -8780, -1542, -537, 1067, -3097, 14906, 2828, -533, -12755, 4750, 3921, 6578, -4499, -14905, -987, 1905, -6025, -6864, -7222, -3392, 5065, 9135, -5876, -9529, -2817, -2968, 6825, 1224, -540, -1274, -8778, -3738, -2567, 536, -2123, 2142, 12064, -3131, 11046, -11200, -1357, 3286, 28, 3645, 6262, -6235, -13455, 7561, 299, 13790, -4079, 8269, 3026, -8445, 4571, -2274, -844, -6032, 814, 6123, -9715, -1964, 5241, -6414, 1233, 9931, -2804, -23, -6155, 1771, -1350, -5351, -4182, -2041, -5952, -2813, 1831, -11654, 3253, 6098, 2995, -7275, -10460, -1018, 3963, -5331, 12021, 7786, 94, 6845, -2793, 5531, -232, -2180, 7206, 1551, -12285, -5701, -2501, 5231, 22479, 9034, -2328, -9227, -4880, -13035, 2427, -10665, -6422, -695, -4819, 14835, 8805, 1980, -13846, -9183, -3378, 18413, -15448, 7332, 20515, -4699, -5182, 4910, -3034, 5313, -6291, -1761, -8046, 2167, -379, -7414, 4310, -15333, -5738, 53, 13906, -1718, -4962, -5069, 668, -3004, 5815, -374, 4285, -6761, -9798, -2594, 4442, -9961, 4529, -2824, -2211, 8965, 3669, 7720, -12533, 12384, -5751, -140, 11816, -6218, -5876, 1058, -16415, 5838, -4647, -298, -13481, 801, 2891, -4565, 9076, 2817, -13727, -1130, -11162, -2219, 6279, -8589, -1426, -3729, -6233, 1079, 3864, -8510, 4014, -2322, 4368, -10306, -15389, -1283, -4074, -524, 213, -4646, -6370, 6938, -8557, 5708, 8058, 3407, -1548, -6815, 2586, -3503, 5993, -2699, -2326, 9984, -252, -802, 9922, -958, -6211, -9834, 194, 3663, 495, -6933, -3819, 1288, 2340, -2700, 4796, -3750, -10360, 6684, -6867, -1660, 1593, -5597, 1190, 9340, -6723, 101, 10244, 13691, 853, -5994, 1661, -4060, -5713, -445, -7162, -7952, -5313, -2400, -4825, 10978, 12452, 5367, -313, 23385, 1108, 2649, -10889, 6973, 4451, -6151, 1676, 11140, -11156, -9479, 4849, -9801, 1788, 3325, 562, -2024, -3180, 7249, 3095, 11781, 1172, -10758, 1717, 8631, -10156, 1284, -6500, 3766, -11914, -6354, -1436, -6913, -5003, 7746, 8035, -6214, -2920, -125, 5160, 5908, 3972, 194, -7560, -4626}
#define CONV25_WT {0}
#define CONV25_W_Z       	(141)
#define CONV25_IN_Z      	(0)
#define CONV25_OUT_Z     	(0)
#define CONV25_M_ZERO    	(1153782656)
#define CONV25_N_ZERO    	(5)


/* Layer 26 Learned Parameters */
#define CONV26_BIAS \
 {1179, -635, -226, 651, 1, 643, 874, 625, -20, -112, -6, 1095, 728, -6, -338, 714, -43, 44, 8, 612, -14, 626, -183, -20, 699, 22, -771, 15, 692, -11, -7, -244, 18, -9, 1370, -17, -15, -155, -6, -277, 612, -22, 823, 787, -3, 22, -15, 42, -13, 932, -27, 1199, -4, 641, -8, 1217, -61, 887, 1058, 694, 17, -54, -34, -2, 652, 750, 1119, 882, 973, 872, 1774, 717, 704, 706, -193, -9, 617, 53, -170, 13, 768, 850, -11, -2, 1081, -2, -1, 661, 5, 857, 1, -350, 921, -55, -23, 638, 671, -67, -22, 4, -6, -63, -726, -22, -12, 712, -6, -70, 640, -745, -24, -56, -8, 1314, 854, -6, 31, 586, 35, -14, -557, 680, 659, -142, 579, 771, -611, 1360, 4, 741, 672, 707, 1285, -24, 703, -5, -5, -10, 1248, 1202, 832, -82, -23, 20, 737, 1041, -1, 1100, -13, 910, -12, -2, 21, -13, -60, 857, 14, -13, 1133, 818, 24, 880, 1241, -12, 843, -9, -125, 1302, -22, 8, -17, -6, -92, -19, 991, 1081, 899, -18, 640, -8, 15, 3, 792, -8, 676, 1, 625, 657, 9, 987, 35, -12, 1186, -47, -198, 19, -8, 610, -41, 16, 0, 94, -1, 714, -12, -169, -308, 726, -5, 638, -7, 639, 14, -13, 604, -11, 41, -17, -2, -4, 4, 4, 938, -12, -139, -16, 608, 39, 5, -4, -1, 607, -14, -11, 645, 701, 841, -2, 994, 626, -13, -17, -1, 6, 730, 10, -13, 707, 3, 709, -10, 11, 668, 2, 1011, -3, 898, -11, 1214, 2, -1, 1111, 636, -22, 676, 800, -21, -8, 661, -236, 1446, -10, 717, -28, -4, 19, 691, 692, -11, 715, 14, -6, 646, 1084, 635, -42, -37, 642, -24, 13, 839, 761, -1, -1, 681, -31, 1039, -25, 667, 920, -332, 623, -59, 9, -12, 17, 39, 589, 694, -7, -74, 10, -3, 28, 9, -90, 710, 0, -13, -148, 633, -194, -318, 909, 795, 781, -411, 574, 1325, 1139, 668, 16, 7, -9, 970, 59, -5, -172, 1124, -7, 895, 825, 680, -18, 1270, -67, 598, 1210, 651, 7, -8, -20, -61, 2, -93, -9, 29, 0, 54, 691, 58, -133, 1165, -151, 891, 107, 14, -53, 586, -9, -8, 716, 0, 625, 1, 41, -10, 3, -7, -6, 659, -246, -473, 5, 695, 851, -115, 721, 659, -12, -8, -57, 720, 36, 674, 636, -1, 36, -108, 1211, -1, 265, -8, 964, -21, -643, -96, 1112, 38, 768, 651, -144, -1134, 664, -6, 630, 1197, 671, 12, 704, -13, 597, -4, 25, 658, -87, -11, 3165, 3, 36, 618, 846, -173, 1, 652, 653, -23, 22, 1436, -7, -86, 652, 609, -7, 1382, 20, 732, -9, -143, 625, 763, 891, -16, 722, -5, 3, -10, 601, -174, 635, -6, 23, 44, -20, 637, -11, -137, 659, 801, 723, -58, -7, -14, 17, 15, 1064, 600, 623, 630, 713, 751, 1010, 840, -5, -43, -8, -206, -158, 8, 679, 776, 712, 25, -5, -8, -11, -14, -703, -1, 863, 2, 621, 17, 656, 728, -19, 766, 684, -22, -123, 943, 648, -13, -236, 1, 0, 90, -6, 819, 790, -47, -255, 882, 52, -17, 624, 59, 24, 795, 733, -6, 0, 680, -11, 27, -710, -52, 707, 1, -10, -57, -56, 759, 5, 25, 47, -10, 861, 4, 740, -11, -154, -18, -59, 1, -11, 650, -10, -10, -187, -8, -9, 579, -11, 706, -94, -2, 25, 910, 1, 1287, -194, 726, -45, -2, 25, 28, -10, 36, 601, 646, -856, 920, 10, 2, -7, 53, 801, -15, 842, 565, -63, 39, 645, -119, -137, 40, 0, 12, -145, 739, 956, -6, -504, -16, -495, 1003, 15, 657, 1286, 683, -218, -20, -366, -13, 0, 37, 695, 777, 575, 999, 37, 756, 880, -5, -187, -15, 718, -17, 866, 853, 11, 667, 716, -448, 879, -8, 665, -17, 944, -15, 982, 653, 16, -101, -12, -24, 714, -42, 7, 662, -533, 849, 710, 1024, -9, 1113, 7, -3, -19, -25, 630, 856, 602, -233, -107, -1, 37, -4, 1460, 711, 14, 809, -6, -16, 1562, 642, 10, 9, 666, -41, -10, 664, 40, -202, -46, -138, -97, 3, -36, 745, -20, 638, 654, 725, -4, -116, 814, -48, 36, -23, -8, 964, 733, -91, 761, 893, -6, -11, -44, -21, 702, 874, -6, 5, -67, -1, 552, 25, 703, 1084, 808, 15, 652, 620, -17, -11, -9, -629, 8, 62, -221, -7, 672, 657, 9, 641, 673, -9, 25, 27, 772, -10, 757, -13, -50, 648, 990, -59, -32, 693, 793, 2, -33, 15, -22, -8, -233, 1200, 20, 18, -268, 1219, 938, -340, 31, -3, 20}
#define CONV26_WT {0}
#define CONV26_W_Z       	(245)
#define CONV26_IN_Z      	(0)
#define CONV26_OUT_Z     	(0)
#define CONV26_M_ZERO    	(1408798080)
#define CONV26_N_ZERO    	(2)


/* Layer 27 Learned Parameters */
#define CONV27_BIAS \
 {405, -595, -620, -1226, 517, -882, 169, 441, -211, -426, 514, -303, -609, -2377, 24, -361, 231, 79, 342, 102, -1147, 6, 21, -443, -168, -817, -436, -1369, -541, -1179, -92, -184, 47, -1348, -24, 63, -217, -787, -267, -861, -97, -44, 1061, 173, -118, -649, -712, -850, -248, -34, -846, 326, -863, -434, 734, 10, -426, -111, 15, -1001, -539, -479, 3, -401, -175, -494, -144, -1371, -115, 161, -152, -474, -942, -429, 263, 198, -987, 133, 25, -1044, -273, -402, -493, -1014, -839, -237, -547, -189, 576, -858, -1134, 519, 46, -245, 46, -589, -366, 545, -497, -661, -345, -755, 95, -942, 23, -1047, 163, -263, -85, -930, -668, 231, -246, -401, -586, -247, -1190, -135, -568, -661, -911, -753, -556, -857, 633, -1009, -305, -479, -746, -832, -672, 9, 10, -11, -1086, -455, -1046, -98, -1266, -324, -467, -1069, 197, -773, 559, -778, -265, -173, -824, 70, 195, 841, -557, -967, -729, -650, -153, -110, -4, -792, -223, 335, -343, -653, -950, -619, 162, -695, -357, -1037, 98, -352, -126, -635, 291, -448, -1305, -422, 766, 202, 53, -955, 78, -29, -474, 3, -697, -619, -969, -650, -528, -449, 122, -820, -735, -798, -449, 229, 18, -807, -771, -281, -392, -793, 116, 441, -675, -1286, -1082, -761, -680, -329, -801, -579, -890, -337, 22, -608, -329, -384, -458, -561, 36, -404, -414, -788, -225, -869, -1455, -112, 40, 400, -604, -376, -411, -958, -269, -762, 58, -266, -591, -523, -743, -450, -230, 77, 271, 356, -636, -1213, -1169, -677, 73, -883, -215, -93, -1093, -753, -185, -1197, 316, 100, 230, -98, -350, 368, -440, -1210, -436, -262, 139, -646, -353, 49, -610, -1444, -1054, -874, 531, -645, -733, -919, -1129, -53, -659, -485, 47, -944, -917, -679, 39, -143, 25, -315, -431, -873, -658, -558, -245, -959, -502, -332, 125, -463, -192, 237, -560, 55, -112, 146, -198, -271, -963, 35, -101, 377, -558, -425, -880, -757, -48, 119, -960, -790, -609, -1115, -1081, 698, -386, -393, -431, 724, -543, -1192, -193, -82, 402, -871, -596, 349, -450, -733, -663, 199, 445, -979, -550, -992, -19, -312, -1294, -407, -790, -606, -598, -367, -348, -684, -267, -464, -202, -273, -894, -1028, 369, -1082, -79, -361, 18, -81, -259, -173, -476, 198, 516, -249, -186, -871, 728, 450, -515, -1036, 48, -964, -546, -480, -298, -757, -1174, -216, -946, -810, -213, -890, -412, -353, -251, -335, -316, 98, 181, -898, -833, -719, -582, -26, -847, -705, -134, -1210, -64, -668, -316, 741, -602, 169, -71, -672, 75, 474, -489, 438, -618, -695, -798, -1428, -139, -704, -456, -1143, -53, -1014, -192, -357, -684, -689, -254, -309, -640, -567, -594, -266, -814, -159, -124, -235, -193, -580, -1408, -15, -678, -650, -10, -1208, -773, -469, -455, -60, 46, -1094, -593, -514, -465, -181, -867, -513, -113, -815, -963, -830, -1128, -260, -172, -141, -483, -773, 109, -876, -277, -205, -942, -526, -630, -819, -1051, -1040, 137, -836, -1554, -526, -1062, 127, -253, -511, -842, -1055, -337, -631, -145, -780, -518, -943, -235, -1682, -382, -25, -891, 464, -240, -587, -404, -305, -149, 261, 112, -1071, -600, -344, -1521, -440, -98, 144, -696, -552, -343, 639, -503, -950, -237, -1012, -1105, -49, 210, 16, -430, -507, -293, 641, 154, -225, -237, -129, -1196, -98, -581, -1128, -803, -1056, -1201, -5, 349, -239, -941, -516, -1695, -260, -47, -387, 500, -591, 13, 200, -143, 92, -573, 431, -807, -460, -1326, -530, 140, -248, -139, -328, -102, -344, 18, -355, -429, -677, 251, 413, -258, -130, -413, -631, -1430, -1168, 119, -434, -62, 501, -66, -130, 288, -544, -200, -500, -821, -399, 77, -523, -341, -226, 307, 305, -665, -818, -177, -392, -1274, -1144, -364, -936, -703, -483, -1505, 599, 45, -499, -597, 471, -835, -480, -213, -141, -202, -756, -399, 253, -249, -681, -719, -116, -1174, 225, -994, -399, -399, -52, -198, -686, -696, -446, -853, -417, -255, -99, -139, -716, -95, -604, -842, -426, -465, 310, -288, -93, -1034, -182, 17, -1351, -921, -837, -477, -126, -889, -469, -562, -562, 283, -39, -529, -716, -584, -599, -233, -783, -1354, 214, -1082, -1094, -1155, 271, -528, -522, -487, -350, -595, -884, -427, -139, -417, -488, -295, -119, -134, 42, -22, -277, -522, 41, -837, -951, -370, -526, -181, -672, -749, -913, -478, -194, -1384, -1475, -229, 443, -90, -634, -884, -858, -1027, -897, -604, -104, -1822, -378, -563, 131, -1221, -650, -90, 379, -760, -342, -47, 158, -343, -898, -1372, -90, -1121, -1074, -102, -497, -717, -828, -400, -583, -551, -595, -969, -898, -239, -606, -1332, -95, -1190, -652, -352, 349, -385, 261, 622, -94, 181, -553, -470, -5}
#define CONV27_WT {0}
#define CONV27_W_Z       	(9)
#define CONV27_IN_Z      	(0)
#define CONV27_OUT_Z     	(0)
static const int32_t CONV27_M_ZERO[] = 	 {1428546560, 1393463552, 1341850496, 1396495232, 1329503872, 1265143680, 1422482816, 1446320384, 1390722304, 1413352832, 1480849152, 1606196608, 1380942336, 1400003456, 1527206016, 1475536000, 1440359040, 1435321088, 1383891968, 1476828800, 1348446464, 1486993664, 1477014784, 1518099584, 1383421312, 1441031552, 1380697472, 1454317696, 1401954688, 1459708928, 1405649280, 1435196928, 1353588224, 1363706880, 1476748928, 1475508864, 1436200448, 1364936704, 1445280512, 1478117632, 1489165824, 1352744064, 1413141120, 1479934848, 1308103936, 1418633728, 1440388352, 1434206848, 1428700032, 1420278400, 1399057536, 1425569408, 1477375488, 1435112576, 1432050048, 1477597440, 1526932864, 1403145344, 1366407040, 1416430592, 1427045760, 1584151808, 1595071872, 1384365440, 1342846336, 1449566592, 1396644480, 1578532480, 1422522368, 1332974208, 1429137536, 1500117248, 1360744448, 1362711808, 1401573888, 1420866944, 1428950272, 1466082944, 1482136704, 1418425728, 1481133312, 1433191424, 1492228352, 1451459584, 1337471232, 1490376704, 1375945344, 1399943040, 1385735936, 1385243008, 1333842816, 1458839552, 1307684352, 1477096320, 1462478592, 1461383680, 1413858304, 1364773632, 1488151168, 1377142400, 1373127424, 1482953216, 1342082560, 1292415744, 1406021248, 1397157888, 1495808896, 1426230528, 1376392960, 1407132288, 1451784448, 1446707968, 1418834560, 1438580352, 1433035008, 1426010624, 1430912384, 1409391744, 1479843840, 1467044608, 1348864000, 1404310912, 1388506752, 1369128448, 1511282816, 1472100480, 1532977536, 1391967616, 1444192384, 1411788288, 1421355776, 1389849344, 1498403456, 1485612544, 1294569856, 1397904512, 1483741568, 1504796800, 1483091328, 1364433280, 1457408896, 1389765376, 1437689216, 1434181632, 1433139712, 1478455552, 1414247552, 1407347840, 1458693120, 1399752192, 1430828288, 1457365248, 1392697216, 1308013440, 1488489088, 1468355968, 1336866432, 1487639552, 1492921728, 1407820416, 1436771968, 1455271296, 1449259136, 1449936256, 1352182656, 1411316736, 1503060224, 1475749888, 1481078912, 1375102976, 1389298176, 1537180544, 1462946688, 1461069952, 1395958528, 1469984128, 1342277760, 1419581824, 1229476864, 1445026688, 1458448256, 1530952960, 1344891904, 1430011648, 1334226176, 1513691776, 1409282560, 1433839488, 1437217664, 1267429632, 1381554432, 1391578496, 1454369280, 1393641728, 1345082368, 1304698368, 1415218048, 1406554112, 1438858112, 1421148928, 1432635904, 1470063104, 1462716288, 1404599424, 1329524992, 1427548288, 1330723072, 1382558080, 1327716992, 1335659904, 1397718784, 1560960384, 1436811392, 1519608832, 1516017152, 1489331456, 1390562816, 1466771200, 1410886016, 1368699904, 1383346176, 1471313024, 1393191424, 1435495040, 1307377792, 1396751232, 1391101184, 1530290816, 1390542976, 1442630400, 1310478208, 1457726592, 1395145856, 1397764736, 1448249088, 1419701888, 1383394304, 1471664896, 1370659840, 1363884032, 1378934400, 1460107648, 1363512704, 1555290496, 1543621632, 1472256256, 1486695424, 1357882752, 1425710336, 1347373440, 1393116288, 1498056576, 1319177600, 1494601728, 1522634752, 1375209088, 1413823488, 1398210048, 1311049600, 1435891840, 1356341888, 1385325824, 1434622336, 1482533376, 1477752448, 1463362944, 1425579904, 1466947712, 1407529088, 1552695296, 1482777984, 1508929536, 1436739072, 1457369344, 1514421376, 1486995584, 1344105856, 1430821120, 1475819392, 1386839936, 1425932672, 1465801088, 1432139520, 1349284864, 1343320576, 1383413248, 1532958464, 1434555136, 1382190720, 1407856896, 1495846016, 1398846720, 1458897664, 1512914048, 1476060544, 1457683840, 1498838784, 1321857664, 1421654656, 1452484352, 1438569472, 1216379136, 1352630528, 1477799040, 1530300544, 1515640320, 1491000960, 1510413440, 1478297984, 1549032320, 1462587264, 1441931264, 1427148544, 1417573760, 1424009984, 1456596352, 1423902336, 1414157952, 1442041728, 1342426880, 1497124480, 1458860672, 1348581632, 1436132096, 1377290368, 1379878656, 1441545856, 1419434368, 1429876608, 1415276928, 1434079488, 1508282752, 1355370880, 1392362624, 1429191680, 1470894080, 1385826816, 1399426432, 1484891648, 1486928768, 1420397568, 1491545984, 1397235072, 1388500480, 1459632256, 1448953344, 1477917952, 1424352000, 1514211584, 1511659392, 1434260864, 1454891136, 1379161088, 1431868160, 1559039744, 1497408512, 1475786496, 1415780352, 1387381760, 1472686848, 1429372672, 1507052544, 1405258368, 1490258304, 1436924928, 1407019136, 1367257856, 1507125888, 1540811392, 1515505536, 1386801024, 1389895040, 1436443136, 1440334976, 1409029248, 1322776960, 1363474304, 1401624192, 1401660928, 1455086976, 1383563648, 1222838016, 1463705600, 1409810816, 1460593408, 1446944896, 1460176512, 1253751680, 1506027904, 1266616064, 1338343168, 1408806528, 1442146688, 1450604544, 1454706048, 1423942272, 1424187648, 1469579008, 1535933568, 1379561856, 1455885568, 1536544640, 1486834816, 1458867072, 1440456832, 1406315648, 1369841664, 1428416256, 1455800832, 1351114624, 1483908352, 1376669568, 1451312768, 1384042496, 1322079104, 1558729856, 1431871104, 1412419584, 1471351808, 1402634240, 1356944128, 1481385344, 1426172544, 1375203584, 1360145024, 1345771648, 1420777472, 1388191872, 1422907520, 1394570496, 1457593344, 1407984000, 1384436224, 1388915456, 1474906112, 1420293760, 1453475968, 1428052992, 1359763840, 1391803648, 1434222976, 1518230656, 1517236608, 1464385536, 1554495872, 1370419968, 1373474816, 1551833216, 1330625280, 1363755008, 1473419904, 1364278400, 1417035648, 1325368832, 1478124544, 1377699584, 1492798080, 1426806144, 1416653568, 1302318080, 1334275200, 1487026944, 1384830720, 1429702912, 1396817408, 1362685312, 1432075648, 1539402368, 1318007168, 1371193984, 1308153856, 1408456192, 1464521856, 1419327616, 1380451968, 1369499648, 1385185664, 1380419456, 1348805504, 1433294848, 1451008896, 1353119104, 1513924096, 1525351808, 1465793152, 1415559680, 1411851392, 1408098432, 1360306816, 1361374976, 1421794560, 1413882368, 1423270400, 1378057728, 1294151808, 1451177728, 1423744384, 1343447936, 1508390784, 1438683136, 1377246976, 1432517120, 1336398976, 1334927488, 1421131264, 1492429440, 1397031680, 1320933376, 1506200832, 1378469888, 1384201728, 1341938304, 1394172288, 1491819776, 1397302656, 1470794368, 1391391232, 1556118784, 1437147264, 1475316480, 1470476288, 1377765376, 1447511040, 1462267648, 1343393280, 1442866944, 1495913216, 1418567168, 1439181824, 1328061696, 1390452224, 1406721024, 1341168384, 1455385856, 1460711168, 1444838016, 1319901824, 1404012672, 1412342528, 1397910784, 1417782400, 1367081856, 1352984832, 1476853888, 1391454720, 1420058624, 1386941568, 1345826304, 1459525376, 1398096896, 1466967680, 1387772928, 1395272960, 1401618944, 1415808384, 1457583232, 1480560256, 1366529152, 1373122432, 1360232064, 1445476224, 1386392832, 1469964800, 1454018304, 1412194688, 1264540416, 1294197248, 1454948352, 1437337088, 1348937856, 1448352128, 1314708352, 1334497536, 1565715968, 1359036672, 1396554880, 1438851840, 1501066624, 1442232064, 1435620864, 1409237632, 1424222592, 1469049088, 1427442560, 1325301120, 1410775936, 1381569536, 1381349248, 1277544576, 1451048320, 1393446272, 1410406400, 1407807872, 1379191040, 1449037696, 1423027456, 1377950592, 1395713024, 1452183424, 1410741120, 1399629056, 1467622528, 1467521664, 1493634560, 1436931456, 1366073728, 1373410176, 1344261760, 1654596096, 1412938240, 1321931136, 1419935360, 1413906816, 1430243328, 1344794624, 1355188224, 1478235264, 1377417088, 1339305600, 1535314688, 1425464448, 1365502080, 1401277824, 1404341120, 1396047872, 1410713728, 1355782528, 1471546624, 1464391936, 1422865024, 1482029184, 1379157376, 1273685760, 1452656128, 1376670848, 1498248320, 1418235776, 1477859840, 1449320064, 1521725184, 1419303424, 1439822592, 1434256896, 1477292032, 1501526656, 1278090240, 1398871424, 1687483008, 1435272192, 1474776576, 1435893504, 1294510080, 1391932160, 1396187008, 1385208064, 1472326144, 1399386880, 1364487296, 1464971904, 1439308928, 1471459456, 1471121152, 1340213248, 1431751168, 1497387520, 1524434304, 1470569984, 1500328320, 1441851776, 1409690368, 1605128448, 1416500608, 1409802880, 1324551808, 1515785216, 1505419136, 1420086528, 1405404672, 1356829568, 1389331584, 1422247296, 1333572864, 1298784512, 1489157888, 1362945024, 1405674112, 1393062272, 1525056384, 1406063616, 1504868992, 1442727808, 1460016000, 1426623104, 1438710144, 1406806144, 1379444992, 1410089088, 1462612352, 1485433600, 1460545408, 1482753536, 1344920192, 1335169664, 1393419904, 1403010560, 1368472320, 1427133056, 1377446656, 1526668544, 1480000128, 1441533312, 1452443008, 1389430144, 1497576832, 1401341440, 1387575936, 1487085312, 1314753792, 1429812480, 1476047744, 1444111744, 1304919296, 1362245888, 1427748096, 1351211008, 1411401856, 1418235392, 1454113920, 1402617088, 1491243264, 1425165824, 1351269888, 1392282880, 1430102272, 1475203456, 1320135296, 1356839680, 1445037184, 1385826048, 1492066176, 1358545664, 1370945920, 1480289536, 1358614784, 1389374976, 1400311296, 1385430528, 1361049344, 1451999232, 1418277760, 1363064704, 1363936384, 1459626624, 1391678592, 1405072512, 1508572928, 1464041984, 1377327744, 1436026752, 1410940032, 1322173056, 1454734848, 1422607360, 1376689280, 1406123136, 1376883456, 1438726912, 1417875840};
static const int8_t CONV27_N_ZERO[] = 	 {0, 0, 0, 0, 0, 0, 0, 0, 0, 0, 0, 0, 0, 0, 0, 0, 0, 0, 0, 0, 0, 0, 0, 0, 0, 0, 0, 0, 0, 0, 0, 0, 0, 0, 0, 0, 0, 0, 0, 0, 0, 0, 0, 0, 0, 0, 0, 0, 0, 0, 0, 0, 0, 0, 0, 0, 0, 0, 0, 0, 0, 0, 0, 0, 0, 0, 0, 0, 0, 0, 0, 0, 0, 0, 0, 0, 0, 0, 0, 0, 0, 0, 0, 0, 0, 0, 0, 0, 0, 0, 0, 0, 0, 0, 0, 0, 0, 0, 0, 0, 0, 0, 0, 0, 0, 0, 0, 0, 0, 0, 0, 0, 0, 0, 0, 0, 0, 0, 0, 0, 0, 0, 0, 0, 0, 0, 0, 0, 0, 0, 0, 0, 0, 0, 0, 0, 0, 0, 0, 0, 0, 0, 0, 0, 0, 0, 0, 0, 0, 0, 0, 0, 0, 0, 0, 0, 0, 0, 0, 0, 0, 0, 0, 0, 0, 0, 0, 0, 0, 0, 0, 0, 0, 0, 0, 0, 0, 0, 0, 0, 0, 0, 0, 0, 0, 0, 0, 0, 0, 0, 0, 0, 0, 0, 0, 0, 0, 0, 0, 0, 0, 0, 0, 0, 0, 0, 0, 0, 0, 0, 0, 0, 0, 0, 0, 0, 0, 0, 0, 0, 0, 0, 0, 0, 0, 0, 0, 0, 0, 0, 0, 0, 0, 0, 0, 0, 0, 0, 0, 0, 0, 0, 0, 0, 0, 0, 0, 0, 0, 0, 0, 0, 0, 0, 0, 0, 0, 0, 0, 0, 0, 0, 0, 0, 0, 0, 0, 0, 0, 0, 0, 0, 0, 0, 0, 0, 0, 0, 0, 0, 0, 0, 0, 0, 0, 0, 0, 0, 0, 0, 0, 0, 0, 0, 0, 0, 0, 0, 0, 0, 0, 0, 0, 0, 0, 0, 0, 0, 0, 0, 0, 0, 0, 0, 0, 0, 0, 0, 0, 0, 0, 0, 0, 0, 0, 0, 0, 0, 0, 0, 0, 0, 0, 0, 0, 0, 0, 0, 0, 0, 0, 0, 0, 0, 0, 0, 0, 0, 0, 0, 0, 0, 0, 0, 0, 0, 0, 0, 0, 0, 0, 0, 0, 0, 0, 0, 0, 0, 0, 0, 0, 0, 0, 0, 0, 0, 0, 0, 0, 0, 0, 0, 0, 0, 0, 0, 0, 0, 0, 0, 0, 0, 0, 0, 0, 0, 0, 0, 0, 0, 0, 0, 0, 0, 0, 0, 0, 0, 0, 0, 0, 0, 0, 0, 0, 0, 0, 0, 0, 0, 0, 0, 0, 0, 0, 0, 0, 0, 0, 0, 0, 0, 0, 0, 0, 0, 0, 0, 0, 0, 0, 0, 0, 0, 0, 0, 0, 0, 0, 0, 0, 0, 0, 0, 0, 0, 0, 0, 0, 0, 0, 0, 0, 0, 0, 0, 0, 0, 0, 0, 0, 0, 0, 0, 0, 0, 0, 0, 0, 0, 0, 0, 0, 0, 0, 0, 0, 0, 0, 0, 0, 0, 0, 0, 0, 0, 0, 0, 0, 0, 0, 0, 0, 0, 0, 0, 0, 0, 0, 0, 0, 0, 0, 0, 0, 0, 0, 0, 0, 0, 0, 0, 0, 0, 0, 0, 0, 0, 0, 0, 0, 0, 0, 0, 0, 0, 0, 0, 0, 0, 0, 0, 0, 0, 0, 0, 0, 0, 0, 0, 0, 0, 0, 0, 0, 0, 0, 0, 0, 0, 0, 0, 0, 0, 0, 0, 0, 0, 0, 0, 0, 0, 0, 0, 0, 0, 0, 0, 0, 0, 0, 0, 0, 0, 0, 0, 0, 0, 0, 0, 0, 0, 0, 0, 0, 0, 0, 0, 0, 0, 0, 0, 0, 0, 0, 0, 0, 0, 0, 0, 0, 0, 0, 0, 0, 0, 0, 0, 0, 0, 0, 0, 0, 0, 0, 0, 0, 0, 0, 0, 0, 0, 0, 0, 0, 0, 0, 0, 0, 0, 0, 0, 0, 0, 0, 0, 0, 0, 0, 0, 0, 0, 0, 0, 0, 0, 0, 0, 0, 0, 0, 0, 0, 0, 0, 0, 0, 0, 0, 0, 0, 0, 0, 0, 0, 0, 0, 0, 0, 0, 0, 0, 0, 0, 0, 0, 0, 0, 0, 0, 0, 0, 0, 0, 0, 0, 0, 0, 0, 0, 0, 0, 0, 0, 0, 0, 0, 0, 0, 0, 0, 0, 0, 0, 0, 0, 0, 0, 0, 0, 0, 0, 0, 0, 0, 0, 0, 0, 0, 0, 0, 0, 0, 0, 0, 0, 0, 0, 0, 0, 0, 0, 0, 0, 0, 0, 0, 0, 0, 0, 0, 0, 0, 0, 0, 0, 0, 0, 0, 0, 0, 0, 0, 0, 0, 0, 0, 0};


/* Layer 28 Learned Parameters */
#define FC28_WT \
{0}
#define FC28_BIAS \
 {-127, 120, -304, -404, 95, 109, -152, 99, -84, -128, -243, -220, -160, -126, -90, -182, -91, -175, 44, -207, -111, 183, -28, 65, 52, -54, 36, -104, 65, 30, 161, 1, 113, -326, -52, -460, -76, -265, 132, -79, -58, 112, 94, -287, 41, 34, 116, -54, -289, -166, 56, -161, 265, 185, -43, -46, 8, -125, 201, 224, 69, 305, -8, 224, 251, 166, -116, -73, 6, 46, -247, 56, -62, 172, -125, 282, 68, 291, 287, 230, -360, 19, 5, -563, -214, 104, -221, -11, -56, 237, -145, -134, 84, -97, 6, -354, -28, -228, -595, -247, -130, -392, 67, 266, 144, -144, 63, -35, -354, -462, -381, 607, 74, -43, 9, -683, -242, -50, -22, 35, -64, -251, -129, -293, -20, -247, -198, -239, -221, -124, -341, -322, -122, 80, -359, -551, -239, -346, -281, -272, -390, -92, -412, -214, -300, -222, -41, -190, -348, -244, -57, 218, -440, 203, 87, 81, 101, -110, -244, -89, -119, 348, 344, 36, 16, -138, -164, -376, 20, -44, 98, 378, 27, -18, 225, -332, -117, -143, 324, 46, -1, -65, 193, -115, 148, 200, -47, 16, -59, 141, -84, 277, 36, -139, -100, 367, 40, -10, -245, 217, -399, -30, 232, 256, 203, -67, -222, 38, -17, 337, -106, 9, 15, -78, 70, -97, -71, 375, 221, 78, -97, -244, -57, 573, -249, 317, 43, -11, -296, 263, 46, -72, -9, 66, 117, -14, 178, 261, 208, 450, -68, -160, 131, -63, -90, 176, -169, 173, -76, -138, 37, 179, -122, -196, 353, -89, 39, 185, 97, 11, 210, 4, -84, 111, 67, 157, 29, -67, -361, -99, 146, -238, -15, -56, -194, -233, -99, -177, -282, -24, -222, 421, -243, -105, 299, 120, -58, 38, -91, 7, -75, -242, -109, -162, 2, -22, -14, -59, -74, 134, -244, -131, -190, -134, -243, 347, 199, -120, -167, -90, -120, -45, 142, 359, 271, 164, -12, -221, -87, -7, -173, -543, -558, -403, -279, -407, -401, -99, -159, -140, -64, 37, 148, 31, 1, -247, 176, -143, -50, -60, -47, -178, -189, -182, -121, -65, 79, -68, -48, -141, 1, -303, -294, -123, 130, -127, -47, -100, 29, 235, 6, 110, 36, 31, 72, -135, -58, 355, -112, -85, -127, -278, -79, 83, -172, -116, -82, -8, 174, 92, -167, -14, 2, 14, -405, -135, -78, -270, -161, -87, -140, 31, -366, -441, -99, -80, -465, -192, -54, 343, -125, 277, 122, -163, -537, 176, -70, -221, -440, -267, -30, -10, 156, 211, 51, -142, 292, -163, 207, 187, -92, 168, 45, 436, 248, 61, -433, -125, 51, -61, -92, -55, 43, 100, -104, 32, 101, -141, -40, -183, 225, 4, 10, -17, 63, 337, 213, 121, 395, 23, 71, 0, 50, 93, 82, 181, 155, 248, -92, 264, 27, 115, 242, 26, 514, 121, -147, -131, 352, -98, 148, 3, -161, 171, -237, 16, -346, 107, -14, -83, 88, 97, -64, -19, -285, -70, -32, 256, 27, 312, -436, 16, 224, -26, 11, -282, 48, -269, 68, 132, -168, 171, 61, -39, 163, 197, 146, -124, -85, -160, -204, 126, -82, -29, 45, 184, -79, -152, -104, 228, -191, -84, 114, 431, -66, -162, 26, -143, -126, 315, 246, -140, 84, -53, -99, -99, -106, -26, -67, 371, -269, -68, 98, 31, -176, 302, 5, -563, -217, 258, -131, 113, 19, 98, -175, -178, -213, 79, 76, 132, -68, -2, -6, 388, -247, -188, -183, 126, 57, -36, -53, -102, 133, 17, 240, 39, -112, 122, -20, 326, -89, -90, 31, -36, 417, 129, -267, 398, 163, 197, -51, 75, -46, 209, 108, -321, 260, 231, -248, 108, 238, -11, 53, 113, 45, 69, 214, -80, 311, -96, 190, -122, -80, 70, -47, 67, 232, 138, 180, -335, 239, 113, 96, 653, 189, -118, 250, 324, -84, 323, 340, 10, 181, 228, 114, -160, 157, -16, 88, -206, -378, -75, 68, 41, 400, -139, 417, -274, 78, 47, 227, 62, 3, 96, 140, 563, 10, 38, 79, 92, 119, -301, 163, -53, 148, 239, 132, 56, -375, -213, 104, 315, 70, 199, 259, -86, -72, 405, 344, -18, -45, 117, 26, 319, 1, -269, 190, -255, -313, -272, -232, 35, 276, -327, -161, 205, 318, 36, -1, 6, 243, -203, -19, 360, 357, -314, 115, 52, -201, 9, -161, 332, 107, 175, 299, -140, 468, -214, 237, 242, 77, -105, 110, -6, -205, -100, 250, -198, 63, 87, -49, 214, 195, 128, -313, -92, -22, 182, 117, 87, -74, -56, -42, 263, -175, 40, 46, 53, 114, 332, 177, 109, 323, 189, -99, -233, 100, -173, 126, -53, 241, 141, -143, 85, 273, 265, -152, -2, -152, 204, 61, -140, 77, 111, 260, 7, 131, 555, -201, -241, -181, -165, 2, 214, 215, 301, 79, -100, 114, 8, -276, 191, 67, -4, 83, -205, 36, 19, -179, 204, -324, 79, -281, -90, 0, 77, -63, -58, 50, -83, -295, -93, 86, 81, -174, -24, 136, 35, 39, 65, -302, -76, 113, 325, 300, 26, -133, -185, 238, -304, 100, 194, -125, -108, 428, -285, 286, 313, 225, 99, 73, 13, 92, 71, 294, 482, -132, -107, 68, -32, 205, 8, 159, -83, -171, 300, -437, -172, 293, 343, -99, 263, -179, -11, -191, -80, -194, -113, 331, -41, 93, -348, 124, -189, -622, 52, 157, -107, -215, 367, 398, 156, 225, 179, 16, 755, -325, -341, -7, 60, -39, -132, 328, 178, 9, 58, 152, 189, 287, 113, -171, -98, 73, 320, 150, 379, 363, 353, -161, 37, 230, 366, 28, 100, -216, -93, -228, -170, -84, 412, 230, 55, -121, 47, -314, -237, -358, -149, -52, 297, 147, -128, 3, -362, -32, -175, 133, -65, -165, -118, -85, -68, -50, -169, -291, -112, -290, -239, 24, -83, -79, -48, 142, -85, 56, 3, -72, -121, 50, -395, -36, 139, -221, -205, -341, 32, 236, 94, 46, -153, -56, 274, 135, -152, 192, 244, 172, 354, 107, 29, 354, -13, 291, -351, 71, 124, -358, 119, -111, -198, 15, -186, -292, -735, -104, -384, -68, -208, 25, 142}
#define FC28_W_Z       	(6)
#define FC28_IN_Z      	(0)


#endif /*__224_0_75_WEIGHTS_BIAS_H__*/
