#ifndef __224_1_0_WEIGHTS_BIAS_H__
#define __224_1_0_WEIGHTS_BIAS_H__


/* Layer 1 Learned Parameters */
#define CONV1_BIAS \
 {-1184, 37926, -2187, -255, 6301, 9263, 448, 111131, -204, -2236, -514, 14123, 16585, 45686, 386, 14021, -7732, 52100, 10137, 20210, -320, -289, -987, 54249, -1145, 29218, 85270, -249, 8635, 8601, -213, 34929}
#define CONV1_WT {0}
#define CONV1_W_Z       	(136)
#define CONV1_IN_Z      	(127)
#define CONV1_OUT_Z     	(0)
static const int32_t CONV1_M_ZERO[] = 	 {1362347904, 1249787904, 1246434176, 1087344640, 1380389120, 1309298048, 1929699072, 1212727936, 1176849664, 1475720064, 1138506240, 1881448704, 1925620736, 1725419904, 1912742016, 1155661824, 1932207104, 1895287040, 1278542848, 1156866688, 1162923776, 1631301120, 1467689088, 1232602624, 1213067520, 1844125568, 1217895552, 1159044608, 1559450240, 1121125376, 1124509184, 2073477120};
static const int8_t CONV1_N_ZERO[] = 	 {0, 0, 0, 0, 0, 0, 0, 0, 0, 0, 0, 0, 0, 0, 0, 0, 0, 0, 0, 0, 0, 0, 0, 0, 0, 0, 0, 0, 0, 0, 0, 0};


/* Layer 2 Learned Parameters */
#define CONV2_BIAS \
 {42, 52, 30, -4, 84, 199, 39, 58, -11, -1, -4, 679, 255, 25, 43, 358, 34, 1855, 232, 46, -1, 373, -1, 180, 0, 68, 749, -1, 464, 142, -3, 584}
#define CONV2_WT {0}
#define CONV2_W_Z       	(128)
#define CONV2_IN_Z      	(0)
#define CONV2_OUT_Z     	(0)
static const int32_t CONV2_M_ZERO[] = 	 {-1110803840, 1451959936, 1682024704, 1097808512, 1524621952, 1615360128, 1970581632, 1187041792, 1532959872, 1566966528, 1336570880, 2015266176, 1620083072, 1463740160, -1244759168, 1914026624, 1561028864, 1658252288, 1683698048, 1798832000, 1745099392, 2026010624, 1205196416, 1315971456, 1465439232, 1579828096, 1294515072, 1611228288, 1831686656, 1883736064, 1375875200, 1176384128};
static const int8_t CONV2_N_ZERO[] = 	 {0, 0, 0, 0, 0, 0, 0, 0, 0, 2, 1, 0, 0, 0, 0, 0, 0, 0, 0, 0, 2, 0, 4, 0, 2, 0, 0, 2, 0, 0, 1, 0};


/* Layer 3 Learned Parameters */
#define CONV3_BIAS \
 {409, -203, 1092, 235, 19, -126, 56, -913, 801, 242, -366, 15, -450, -218, -450, -95, 388, 249, 9, -41, -658, -138, 226, 1321, 788, -612, 821, 1258, 1460, 160, 293, -373, 1067, -516, -1, -54, -844, -35, 657, -290, 730, 0, 333, 111, -78, 625, -344, 161, 8, -270, 233, 127, -45, -1, 247, -758, 116, 1318, 482, -39, -80, -442, -846, 844}
#define CONV3_WT {0}
#define CONV3_W_Z       	(127)
#define CONV3_IN_Z      	(0)
#define CONV3_OUT_Z     	(0)
static const int32_t CONV3_M_ZERO[] = 	 {1631400448, 1603639680, 1326431616, 1476798336, 1163601280, 1268766848, 1455976704, 1550106880, 1890438528, 1998059904, 1956692096, 1331947904, 2142378112, 1128721792, 1580546560, 1721848448, 1317113344, 2103928704, 1453649664, 1240539520, 1447776256, 1290888064, 1756483712, 1268774656, 1976968832, 1268005888, 1482283136, 1112096512, 2091364608, 1832580224, 1361480960, 1109507200, 1887771392, 1519959168, 1396600320, 1680600448, 1552041472, 1583885824, 1275714944, 1263178752, 1515803776, 1404723712, 1953836288, 2120322048, 1361698048, 1139372928, 1862532608, 2001431808, 1926645376, 1399393792, 1078259712, 2142835200, 1203050624, 1323609600, 1379479808, 1478853888, 1482976512, 1172461568, 1096058240, 1252237824, 1259625728, 1256639488, 2005131776, 1729905664};
static const int8_t CONV3_N_ZERO[] = 	 {0, 0, 0, 0, 0, 0, 0, 0, 0, 0, 0, 0, 0, 0, 0, 0, 0, 0, 0, 0, 0, 0, 0, 0, 0, 0, 0, 0, 0, 0, 0, 0, 0, 0, 0, 0, 0, 0, 0, 0, 0, 0, 0, 0, 0, 0, 0, 0, 0, 0, 0, 0, 0, 0, 0, 0, 0, 0, 0, 0, 0, 0, 0, 0};


/* Layer 4 Learned Parameters */
#define CONV4_BIAS \
 {2, 0, 2, 2, 2, 3, 1, 0, 1, 7, -1, -2, 1, 3, 0, 0, 2, 2, 0, -1, 2, 2, 1, 3, 1, 1, 0, 9, 2, 5, 1, 1, 1, -1, -1, 1, 1, -1, 1, 0, 8, -1, 2, 1, -1, 1, 1, 1, 2, 1, 2, 1, 3, -1, 1, 2, 4, 8, 2, 5, -1, 1, 3, 1}
#define CONV4_WT {0}
#define CONV4_W_Z       	(130)
#define CONV4_IN_Z      	(0)
#define CONV4_OUT_Z     	(0)
#define CONV4_M_ZERO    	(1769959808)
#define CONV4_N_ZERO    	(-6)


/* Layer 5 Learned Parameters */
#define CONV5_BIAS \
 {27180, -6011, -8336, 2070, -11771, 5266, -4398, 10726, -25627, 14907, 20233, -3996, -16262, -1383, 4791, 8002, 15111, 11515, 15526, -5231, -5178, -15477, -2288, -2761, 4110, 39667, 5140, -912, -2417, 6247, 4518, 17538, 19407, -5004, 2606, -860, 16877, 4960, -25949, 10373, 11027, 1302, 14360, 13525, 19513, 46508, 6637, -10400, -6615, 916, -6140, -4593, 25731, -6297, -2821, 8094, 1645, 22180, 7324, 10850, 4918, 24413, 5916, 5322, -6190, 11475, -12953, -1121, -7750, 18904, 18702, 2341, 5482, 563, -1300, 20727, -2735, 3509, -5248, -124, -13081, 32859, -460, -2256, 5732, -3031, -21104, -3353, 10789, 2704, -763, 6416, 3175, -8269, -2464, 2178, 55164, 972, -5930, -11997, 22630, 9461, 12071, 2302, 8593, 8100, -28599, -13508, 3292, -542, -7507, -2014, 4047, 4338, 5188, 10691, 245, 14983, 1567, 3784, -11664, 8944, -12935, 2718, 4555, 18769, 14124, 20015}
#define CONV5_WT {0}
#define CONV5_W_Z       	(123)
#define CONV5_IN_Z      	(0)
#define CONV5_OUT_Z     	(0)
static const int32_t CONV5_M_ZERO[] = 	 {1152036480, 1111238400, 1733881216, 1881880704, 1592544768, 1086886016, 2088470016, 1385031680, 1153896704, 1915589120, 1828081152, 1074615424, 1129389568, 1257788544, 1093343872, 1749969280, 1946501760, 1950946688, 1866538496, 1851909504, 1143948416, 1561963264, 1081001088, 1783708416, 1759513088, 1699284608, 1586907136, 1706357248, 1368004096, 1214944256, 1198703488, 1599108352, 1844227456, 1758828416, 1162889472, 1501387136, 1184586240, 1823737856, 1681500544, 1437398656, 2093694976, 1245073280, 1535370880, 1241732480, 1493307648, 2042808960, 1236668928, 2105105664, 1753727232, 1924561024, 1318948608, 1087124992, 1404257024, 1282270080, 1433454208, 1556508672, 2140179712, 1746985600, 1959055616, 1349353088, 1827844992, 1298900608, 1182446336, 1827471488, 1371026816, 1268336640, 1811876352, 1135028480, 1957197312, 1449866240, 1689609600, 2135411840, 1884896640, 1529634048, 2059822080, 1711058688, 1527041280, 1460349056, 1969421312, 1537035136, 1412892928, 1143829120, 1630393472, 1715864320, 1194570880, 1438002048, 1151266688, 1876381440, 1285587200, 1923322624, 1758658176, 1713621632, 1138923904, 1250585600, 1140368768, 1528886400, 2083747200, 1521045376, 1618306432, 1662567680, 1637463680, 1146566144, 1898216704, 1572467456, 1389940992, 1284500480, 1714569728, 2035435520, 1769719936, 1608554624, 1110617216, 1197830144, 1455006720, 1332055296, 2014112896, 1831239680, 1481259136, 2138861440, 1265988992, 1216908800, 1425084288, 1526574464, 1827084544, 1866265344, 2036081024, 1138316800, 1957918976, 1771723136};
static const int8_t CONV5_N_ZERO[] = 	 {0, 0, 0, 0, 0, 0, 0, 0, 0, 0, 0, 0, 0, 0, 0, 0, 0, 0, 0, 0, 0, 0, 0, 0, 0, 0, 0, 0, 0, 0, 0, 0, 0, 0, 0, 0, 0, 0, 0, 0, 0, 0, 0, 0, 0, 0, 0, 0, 0, 0, 0, 0, 0, 0, 0, 0, 0, 0, 0, 0, 0, 0, 0, 0, 0, 0, 0, 0, 0, 0, 0, 0, 0, 0, 0, 0, 0, 0, 0, 0, 0, 0, 0, 0, 0, 0, 0, 0, 0, 0, 0, 0, 0, 0, 0, 0, 0, 0, 0, 0, 0, 0, 0, 0, 0, 0, 0, 0, 0, 0, 0, 0, 0, 0, 0, 0, 0, 0, 0, 0, 0, 0, 0, 0, 0, 0, 0, 0};


/* Layer 6 Learned Parameters */
#define CONV6_BIAS \
 {266, 341, -22, -33, 97, 219, 100, 229, 382, -27, 108, 98, 161, -45, 68, 35, -85, 6, 91, 30, 73, -170, 405, -11, 372, -502, 47, -39, 3, -11, 681, 60, 45, 251, 257, 181, -75, 121, -10, 9, 193, -7, 65, 469, 498, -276, 8, 265, 470, 123, 364, -113, 212, 213, -18, -54, -72, 279, 56, 134, -103, 831, -66, 117, 9, -33, -9, -38, 143, -1, -128, 279, 138, 17, 67, -104, 269, 356, -57, 57, 7, 185, 23, 56, 606, -184, 228, 56, 169, 4, 21, 44, -65, 11, -11, 327, 18, 498, 40, -117, 9, -3, 518, 54, -24, 25, -34, -6, 30, 90, 199, 148, -43, 341, 220, -16, -12, 600, 202, 176, 241, 51, 145, 160, -107, 404, 235, 118}
#define CONV6_WT {0}
#define CONV6_W_Z       	(99)
#define CONV6_IN_Z      	(0)
#define CONV6_OUT_Z     	(0)
static const int32_t CONV6_M_ZERO[] = 	 {1725851264, 1256411904, 1828314368, 1327158400, 1618543232, 1779799680, 1794090880, 1832115328, 1243013888, 1839950080, 1971701888, 1903632768, 1429007360, 1523474304, 1607159040, 1455059456, 1152105984, 1174512000, 2107812480, 1746869504, 1776908544, 1881070720, 1752015872, 1975472768, 1307205632, 1205268480, 1393815296, 1247403520, 1185569536, 1856348800, 1204460800, 1848551680, 1268532224, 1958279296, 1109274240, 1500952704, 2066885888, 1896207104, 1312650368, 1777936640, 2034510336, 1423926528, 1131793024, 1779198464, 1459939456, 2045190144, 1487012864, 1701927552, 1586307840, 1828593664, 1628585344, 1763600000, 1179455232, 2048205696, 1478351872, 1230918528, 1610638592, 1824090240, 2014660992, 1764505344, 1585474432, 1425193344, 1235060736, 1223911424, 1934071680, 1124059392, 1114703488, 1142015744, 1626025088, 1638049536, 1360583680, 1457816960, 1157676288, 1538485248, 1078961792, 1245790336, 1629898240, 1597776768, 1170833536, 1833744384, 1241188096, 1932894336, 1988630784, 1125425152, 1198480000, 1360575872, 1101676160, 1113924864, 1998884736, 1139395072, 1149889920, 1793319552, 2057485952, 1818533632, 1237412096, 1672178560, 1723170432, 1148413568, 1251699328, 1323563776, 1657352320, 1927129984, 1936096768, 1292265088, 1799769600, 1752695168, 2096711680, 1858329216, 1626417280, 1861657088, 2119307520, 1608109568, 1086337408, 1942498944, 1230367104, 1203558016, 1170782976, 1985941376, 1535413760, 1553916544, 1458022784, 1788807040, 1407668352, 1088581248, 1324321152, 2145180800, 1806433664, 1199941888};
static const int8_t CONV6_N_ZERO[] = 	 {0, 0, 0, 0, 0, 0, 0, 0, 0, 0, 0, 0, 0, 0, 0, 0, 0, 0, 0, 0, 0, 0, 0, 0, 0, 0, 0, 0, 0, 0, 0, 0, 0, 0, 0, 0, 0, 0, 0, 0, 0, 0, 0, 0, 0, 0, 0, 0, 0, 0, 0, 0, 0, 0, 0, 0, 0, 0, 0, 0, 0, 0, 0, 0, 0, 0, 1, 0, 0, 0, 0, 0, 0, 0, 0, 0, 0, 0, 0, 0, 0, 0, 0, 0, 0, 0, 0, 0, 0, 0, 0, 0, 0, 0, 0, 0, 0, 0, 0, 0, 0, 0, 0, 0, 0, 0, 0, 0, 0, 0, 0, 0, 0, 0, 0, 0, 0, 0, 0, 0, 0, 0, 0, 0, 0, 0, 0, 0};


/* Layer 7 Learned Parameters */
#define CONV7_BIAS \
 {-437, -578, -604, -493, -93, 335, 266, -297, 316, 720, 876, 858, -326, 326, 1025, -752, -546, 909, 548, -359, 148, -94, 571, -571, 316, 636, -712, -226, 678, -76, -234, 63, 58, 914, 834, -912, -207, 1629, -719, -1839, -901, 2195, 371, 22, -218, 927, 1336, 56, -970, 1472, 941, -1128, 563, 402, 450, 1033, 1709, -60, -114, 1206, 422, 242, -442, 1615, 289, 76, -386, -124, 308, -1407, 120, -1253, 1652, 785, 229, -792, -431, 1161, -932, 79, 502, -1390, 1195, 988, 256, -412, 26, 356, 593, -42, 724, -1985, 54, -666, 469, -2, -225, 99, 996, 106, -1317, -455, -70, 408, -464, -1876, 746, 47, 611, 227, 540, 422, 781, 685, 313, 144, 286, 920, 885, 796, -691, 698, 612, 944, -299, 66, -79, -366}
#define CONV7_WT {0}
#define CONV7_W_Z       	(122)
#define CONV7_IN_Z      	(0)
#define CONV7_OUT_Z     	(0)
static const int32_t CONV7_M_ZERO[] = 	 {2029269120, 1975442816, 1737494144, 1486573952, 1348071680, 1368527360, 1127603328, 1102265216, 1819212288, 1096226688, 1227992704, 1744791040, 1323187456, 1225768704, 1663620480, 1189926528, 1385660928, 1179296000, 1128566016, 1222114688, 1230214016, 1154697472, 1117484800, 1301285248, 1113675008, 1919003392, 2106400000, 2029802240, 1117612160, 1390453248, 1301557632, 1829073792, 1663368192, 2069765376, 1659761152, 2084381824, 2145718656, 1774242816, 1598237184, 2008677760, 1543232896, 1799988352, 1387655424, 1744788096, 1101468032, 1381741312, 1202232576, 1864516096, 1160031616, 1402099840, 1440070912, 1955234688, 1405564288, 1818627200, 1291046656, 1366038784, 1904001408, 1308030848, 1098064768, 1297827584, 2065808896, 1134219776, 1264786048, 2099795200, 1233316864, 1788283264, 2123984256, 1341289984, 1546351488, 1086004480, 1830270976, 1310630272, 1860759040, 1147111424, 1096258944, 2026599936, 2096660736, 1447537792, 1917139840, 2119984512, 1849118720, 1845817088, 1967088256, 1101969920, 1926346880, 1509624832, 2018496768, 1824381440, 1741352064, 1201463936, 2113076224, 1310547712, 1817574656, 1360415232, 2103148544, 1481910016, 1521023488, 1948480384, 1377419392, 1410578944, 1999326848, 1989466240, 2072228864, 2090233856, 1976984320, 1957739136, 1638310912, 1770235904, 1970476672, 1174507648, 1157279488, 1187576832, 1885089280, 1909093632, 1183677312, 2057563648, 1310352512, 2097195136, 1098566656, 1221922176, 2085258752, 1530542848, 1825534848, 1078453632, 1306891136, 1770749184, 1893375360, 2146851328};
static const int8_t CONV7_N_ZERO[] = 	 {0, 0, 0, 0, 0, 0, 0, 0, 0, 0, 0, 0, 0, 0, 0, 0, 0, 0, 0, 0, 0, 0, 0, 0, 0, 0, 0, 0, 0, 0, 0, 0, 0, 0, 0, 0, 0, 0, 0, 0, 0, 0, 0, 0, 0, 0, 0, 0, 0, 0, 0, 0, 0, 0, 0, 0, 0, 0, 0, 0, 0, 0, 0, 0, 0, 0, 0, 0, 0, 0, 0, 0, 0, 0, 0, 0, 0, 0, 0, 0, 0, 0, 0, 0, 0, 0, 0, 0, 0, 0, 0, 0, 0, 0, 0, 0, 0, 0, 0, 0, 0, 0, 0, 0, 0, 0, 0, 0, 0, 0, 0, 0, 0, 0, 0, 0, 0, 0, 0, 0, 0, 0, 0, 0, 0, 0, 0, 0};


/* Layer 8 Learned Parameters */
#define CONV8_BIAS \
 {19, 72, 438, 523, 508, 60, 543, 21, 729, -89, 18, 876, 387, -5, 1009, 41, 362, 787, 12, 517, 2, 365, 1015, 120, 1129, 5, -11, 753, 438, 13, 506, 59, -16, 33, 17, 42, 158, 1306, 21, 2, -10, -164, 436, -15, 920, -39, 523, 535, 31, -407, 795, 14, 989, 154, 601, 599, -58, 472, 29, 677, 631, 12, 471, 96, 434, 40, 381, 69, 626, 1029, 49, 427, 6, -197, -16, 22, 83, -29, 39, -148, 751, 110, 36, -291, -32, 408, 758, 72, 4, -250, 76, 86, -91, 56, 513, 571, 60, 6, 1107, 522, 23, 18, 50, 15, 1272, 75, 591, 134, 458, 280, 1096, 413, 1000, -346, 4, 361, 930, 155, -179, 1106, 1073, 2036, 19, -15, 8, 712, 2, 1282}
#define CONV8_WT {0}
#define CONV8_W_Z       	(118)
#define CONV8_IN_Z      	(0)
#define CONV8_OUT_Z     	(0)
#define CONV8_M_ZERO    	(1576460416)
#define CONV8_N_ZERO    	(1)


/* Layer 9 Learned Parameters */
#define CONV9_BIAS \
 {-4389, 12754, 26029, -17330, 12948, -4921, 18328, 5048, 5574, -4584, -7078, -5521, 1175, 12476, 12566, 6877, -787, 489, 37, -2021, 7857, 8277, 5054, 6732, -10484, 5515, -9821, 10427, -6012, 15086, 13407, 8748, 12777, 14006, 14082, -5512, 5015, 358, 1787, 11284, -467, 10659, -8094, 7768, 7708, 4381, 6219, -10066, 14742, 10865, 15704, 22182, -3759, -9679, 12175, 3765, -14374, 23966, 3126, 11038, 9535, 8871, 9137, 17562, 7116, -4570, 15618, 4625, 7120, -30158, 5688, 6869, -9712, 1728, 3794, 12733, 19183, 19981, 8582, 3613, 6386, 8745, -12948, 8771, 8284, 20950, 9216, 14153, 2511, 21368, 14607, 1394, -3523, 3661, -1379, 17225, 10327, -23317, -9752, 4070, -7658, 18501, -3065, 9100, 9055, 10978, 7394, 19858, 4398, 3066, -15433, 599, -5279, 6195, 7461, -24680, 12466, 10493, 15578, 46784, 13315, 3750, -5430, 12014, 15990, -10289, -11585, 10643, 13735, 11505, 18590, 14356, -1510, 15562, 5808, 13396, -2702, 11266, 11717, 9379, 7342, 9124, -4426, 5242, -1146, 23904, 5583, -2875, 7892, 10760, 4531, 11129, 27597, 5108, -3893, 14860, 12781, 21852, 10009, -1894, -2602, 23080, 5617, 12386, -5420, 20921, 8798, -1267, -10312, 5675, 10021, -4735, 19969, -21914, -2956, 13804, 751, 316, 16266, -2771, 3829, -9572, -626, 16811, -17758, 2245, -1930, 21247, -20408, 15203, 7562, 2724, 16013, -2540, 14817, 9159, 31403, 3209, -10779, -16854, -1616, 8303, 9803, 7464, 9193, 26116, 12635, -10376, 3420, 7546, -2278, 6228, -15625, 5579, 4445, 8403, -1997, 7035, 4149, 9025, 8919, 13156, 12362, -16366, 30208, -3252, -26212, 6154, 4773, 3239, -15869, -19513, 25725, -1224, -2796, -5974, -3984, 9097, 2978, 7819, 11042, 13661, -4755, 8338, 6219, -15191, 12553, -8583, 27283, 11135, 5831, 14190, -2504, -4668, -1521, 11709}
#define CONV9_WT {0}
#define CONV9_W_Z       	(119)
#define CONV9_IN_Z      	(0)
#define CONV9_OUT_Z     	(0)
#define CONV9_M_ZERO    	(1717652224)
#define CONV9_N_ZERO    	(6)


/* Layer 10 Learned Parameters */
#define CONV10_BIAS \
 {-34, -2103, 2650, 3177, -769, -836, -558, -898, 35, -390, -2195, 1488, 4509, 2025, 2002, 6044, -92, -115, 506, 2304, -538, 6078, 5444, -4274, -373, 273, -225, -489, 2187, 1385, 3043, -200, -1388, -246, 7385, 2262, 5868, -163, 2084, 2027, -321, -189, -203, 2789, 365, 1258, 2219, 73, -420, -4568, -49, 164, -147, 2958, 1242, 6036, 2260, 2809, 277, 1616, 2102, 5782, -164, -245, 91, 2879, -409, -219, 464, -995, -425, 1554, -2812, 179, 4873, -120, 2269, 1461, -894, 2403, 649, -3283, -94, -455, 5163, -631, -56, 319, 3803, 7882, 2374, -1329, -160, -842, 27, -1080, 9051, -2235, 1981, 3704, 2036, -617, -251, -593, 423, 1929, 2881, -416, -246, 1827, 101, 36, -1772, 3133, 4149, 2472, -1392, -423, 6252, 2048, -128, 4427, -1880, -191, -336, 1906, -1230, 3833, 3, 2018, 3291, -826, -70, -485, 5744, 3127, 309, 1289, -523, 7901, 155, 7927, -152, 125, 710, 5374, -1570, -386, 382, 2618, -2349, 905, 1084, -594, -1641, 3496, -347, -103, 345, 3814, 2314, 293, -60, -80, -960, 1515, -1763, -810, -1550, 93, 5391, -2219, 2267, -1402, 1733, 2391, -40, -69, 646, 208, -1214, 2356, 1003, 5410, -578, -1054, -67, -4124, -120, -644, -1580, 390, -908, 5420, 37, 940, 3443, -289, 9, -65, 1946, -44, -51, 2614, 4975, 2143, 31, 775, 664, 8024, -1438, 3616, -964, 1676, 265, 394, -17, 608, 2441, -233, 10086, -2376, -236, 2460, 1993, -169, 2011, 2764, -865, 9737, 2171, -1373, -306, -3229, -1342, -369, -43, 707, 532, 2572, -95, 66, 1716, 50, -1134, -2644, 4024, -1475, -1150, 6608, -2718, 2713, -519, 397, 73, 6658}
#define CONV10_WT {0}
#define CONV10_W_Z       	(117)
#define CONV10_IN_Z      	(0)
#define CONV10_OUT_Z     	(0)
#define CONV10_M_ZERO    	(1845189248)
#define CONV10_N_ZERO    	(4)


/* Layer 11 Learned Parameters */
#define CONV11_BIAS \
 {9037, -1555, 503, 9400, 8425, 9147, 8685, 10026, 8298, -4891, 4168, -16896, 10604, 10871, 11927, 6366, -11323, 1258, 8048, 969, 16734, 5384, -37, 2737, -1276, -1345, -2112, 4195, 6847, -295, -1493, -353, 4038, -658, 6945, -18328, 1489, -5838, 17894, -7483, -10914, -5588, -15960, -12091, -2088, 5829, 5866, -11659, -3376, 4458, -9051, -119, -803, 1255, -927, 3019, -11087, 516, -7005, -5628, 9592, -8545, -4258, -410, -4626, 6483, -21591, 12285, 2028, 7664, -8610, -11893, 7064, -4343, -1527, -8280, -5946, 3239, -7322, 3485, -6739, 12289, 6328, 12473, -6399, 12314, 15495, -10312, 3329, -203, -3803, -1145, 1721, -17247, 658, 10865, -2950, -8386, 5561, 153, 312, 3364, 9860, -5349, 4005, -24213, -8385, 1264, 6002, 7074, -2944, -10465, 10958, 652, 9332, -739, -13099, -10620, -2904, 434, -4288, 12501, 5916, -2305, -163, -22991, 18972, -14914, 3492, 11251, 11417, -22564, -2642, -8086, 10819, -6644, -7211, -20052, -10185, 1784, 307, 4734, 7666, -143, -8832, 1846, 4201, -18894, -4566, -2832, -11699, -14516, 8300, 2804, -3602, -1783, 13555, -27674, 4708, 15182, 2749, -3531, -13496, 27238, -15833, 5632, 5547, -7759, 7276, -4247, -51, -3198, -8556, -24982, -9517, -1723, -3685, 1326, -27502, 4171, 15106, 3740, 36, -7318, -2240, -18578, 1325, 4293, 4971, -706, -6077, -597, -6549, -1894, -14239, 1461, 8932, -1310, -9131, 7546, 7243, 6868, -3422, -2329, 16533, 10434, -6137, 4233, -2552, 17239, -8199, -10489, -1404, 2120, -8943, 4339, -29155, 5763, -1404, -9973, 5091, 7860, 4765, -14515, -2264, -6214, 9216, -8693, -10187, -15784, 6321, 5157, -7863, 6006, -645, -6692, 9250, -2019, 7902, -11341, -15333, -7362, -952, -6711, 19773, 15636, -1401, 12372, 6652, 13076, -1109, 8525, -11511, -5210, 3966, 5313}
#define CONV11_WT {0}
#define CONV11_W_Z       	(112)
#define CONV11_IN_Z      	(0)
#define CONV11_OUT_Z     	(0)
#define CONV11_M_ZERO    	(1737261952)
#define CONV11_N_ZERO    	(6)


/* Layer 12 Learned Parameters */
#define CONV12_BIAS \
 {3266, 14039, -1040, 11884, 13158, 26121, 17946, 14835, 27611, 13260, 246, -7681, 25702, 29619, 16259, 11792, 10843, 30140, 13297, 5967, -1028, 36727, 651, 264, 30041, 35, 11822, 14731, -467, -395, -213, 37968, -906, 14134, -199, -258, 881, 9835, 328, 10944, 150, -455, 64, -388, 19670, -602, 18840, -256, -422, 26280, 2130, 7171, 14599, 14695, 2972, 21510, -624, -712, 689, -1223, 15276, 342, 13048, 529, 17909, -6627, 7, -163, 834, 44133, 2086, 983, 11400, 10, 1401, 840, -437, 44235, 9424, 1301, 2298, 13641, 8944, 10712, -24, 9569, 19283, 1248, 2357, 8940, 11399, -62, 33506, -3646, 46388, -541, 13211, 131, -8005, 915, 12787, 1540, -209, -136, 15596, -3577, -470, -3429, 13556, -615, 9400, -831, 32600, -14, 363, 16139, -1068, 757, 14386, 50637, 370, 13289, 12254, 21220, -572, -1202, -40, 960, -5331, 24532, 13863, -899, 14327, 1378, 15657, 2552, -1154, 1310, 11225, 23202, 10329, 17741, 991, 311, 15385, 5135, -77, 1110, 17544, -399, -3176, 133, 15042, 11407, 10417, 11664, 24557, 244, 14904, -4364, 10230, 4065, -499, -189, -592, 36396, 25731, 10251, 11938, -37, 1547, -229, -382, -100, -138, -843, 12811, 1054, -355, 14825, 16902, 14377, 12255, -214, -249, -6531, 10797, 782, 12632, 1610, -293, -284, 2764, -364, 597, 17178, 3820, 17570, 159, 10888, 25752, 8442, 17448, 10400, 31108, 16155, -1535, 25459, -95, -378, 13243, 351, -972, 19372, 9202, 661, -822, -564, 26185, -399, -320, -862, 18532, -562, 10815, 15344, -153, -748, 8872, 666, 898, 178, 10339, 190, 16793, 14259, 22395, 14066, 22498, -152, 798, -208, -1381, -11, 14762, 18291, 13112, -105, 55, -4766, -175, 15536, 6754, 1184, 13825, 5850}
#define CONV12_WT {0}
#define CONV12_W_Z       	(119)
#define CONV12_IN_Z      	(0)
#define CONV12_OUT_Z     	(0)
#define CONV12_M_ZERO    	(2008170752)
#define CONV12_N_ZERO    	(6)


/* Layer 13 Learned Parameters */
#define CONV13_BIAS \
 {49334, -6857, 24131, 5630, 4289, 4600, 17054, 9942, 14327, -14113, -4782, 10038, 10592, 18849, 11013, 8574, 2622, 19258, 16948, 8615, 222, -8455, 13819, 18311, -27612, 19467, 7038, 19169, 25102, -4071, 9828, 11637, -5062, 10723, 21243, 14784, 8174, 3252, -15154, -4737, -6185, 12476, 6894, 18271, -6674, 11837, -629, 4382, 6146, 17689, 12898, 12847, 9382, -4731, 9628, 17526, 10431, 9470, 14130, 4815, -7950, -14186, 11289, 12865, -11667, 16981, 3082, 11032, -7269, 5357, 4176, 13615, 3473, 8391, 11116, 5674, 13884, 7989, 10245, -30327, 6592, 6794, 24377, -25213, -1727, 5473, 10637, 16612, 10631, 8658, -24495, 15511, 17475, 14574, -2978, -1795, 3286, 4875, -1494, 8662, 20455, 9693, 8691, 5170, 13124, 8069, 21453, 4642, 6617, 17509, 17254, 8279, -6136, 18991, 6231, -4064, 15638, 11901, 8911, 5014, -4293, 12051, -11636, 13499, 12218, 2112, -8963, 5167, 33955, -9577, 16763, 16380, 7180, 13007, 6745, -1040, 10197, 10906, 11788, 4073, 11956, 12136, 572, 13666, -1525, 11343, 13684, 11676, 21124, 24614, 20270, 16579, -15476, 23527, 4430, 10339, 5010, 12632, -1841, 211, 13620, 27323, 14546, 33042, 16471, 16700, 13778, 15995, -7937, 8874, -4631, 12182, 13667, -8041, -17099, 9807, -3918, -20045, 14210, 15450, 2305, 23620, 12349, 9905, 4966, 3808, 11578, 13503, 10945, 1224, 7160, -12579, 16130, 15932, 21323, 10806, 3533, 13307, 21085, 6715, 22446, 12435, 4389, 7656, 22236, 16704, -9741, 15824, 7797, 10708, 16888, 22356, 2147, 13859, 3629, 10500, 17629, 7265, 18917, -2699, 14286, 42689, 7168, 15578, 24296, 5345, 4582, 17683, -1921, 8640, 17131, 9868, 17579, 11101, -4260, 11411, 9188, 19096, 12438, 14252, 15946, -15429, -3638, 6093, 17474, 7795, 5926, 2247, 4593, 31862, -12658, 13149, 13057, 12847, -4652, 9847, 3934, 13047, 4473, 18613, 5300, 15251, 22127, 930, 12416, 15220, -204, 13265, 13468, 34057, -1644, 12199, 3870, 19141, 3527, 6761, 16361, 2450, 10016, 1822, 21093, 6821, -9044, 16388, 7984, 10586, 13309, 13848, -7609, 28397, -2482, 4098, 148, 8541, 9236, 5255, 4369, 4295, 14645, -1926, 10560, 6380, 18571, 11034, -3662, 12892, 6019, 5190, 7060, -305, 8959, 1595, 19223, 14956, 12033, 9324, 8004, 2832, 10453, 12154, 13003, -3473, -156, 26812, 2339, 11807, 12275, 7516, -3439, 3919, 13847, 13437, -978, 22252, -4856, -10786, 23529, -2821, 13428, -19885, 929, 9328, 4642, 2875, -12762, 5576, -2850, 3987, 24206, 16052, 23443, -15684, 17359, -5969, 1424, 7958, 13496, 7159, 19810, 22286, 13037, 624, -10336, 6031, 4649, 22998, 20582, 15903, 1772, 4127, 15365, 16568, 23864, 15928, 9241, 13953, -3439, 22581, 23635, 16134, 11282, 13340, 4102, 14105, 14923, 3439, 20665, -12699, 17570, -4386, 31209, 9189, 186, 21351, 21719, 19925, 33766, 27882, 9015, -2859, 20871, -18875, 7747, 1171, -4211, 9939, -25948, 10862, -26707, 13804, 23335, -14472, 16595, -10139, 8991, 15379, 10905, 4139, 16607, 20016, 31934, 6672, -851, 24523, 8466, 4552, 13867, 13621, 19986, 8575, 18775, -6039, 18160, 225, 12893, 9028, 3762, 11899, 10380, 2960, 3695, 5269, -6833, 416, 14649, 20608, 33525, -16952, 11383, 10347, -2958, -774, 14231, 2525, 1271, 3095, 12511, 15679, 17589, 4726, -8424, 12186, 11936, 10804, -2925, 16093, 4983, -286, -6471, 11826, 4465, 8837, 27247, 21554, 30154, -13558, 9942, 23077, 11188, 8860, 14265, 11379, 12025, -5072, 14336, 10186, -2391, 8231, -23355, 12313, -5036, 36393, 29533, 7334, 17757, -5369, 683, 20361, 4734, -7481, 14477, 14000, 13679, 18274, 9124, 19694, -1835, 13409, 27694, 12309, 8956, 15146}
#define CONV13_WT {0}
#define CONV13_W_Z       	(126)
#define CONV13_IN_Z      	(0)
#define CONV13_OUT_Z     	(0)
#define CONV13_M_ZERO    	(1373809152)
#define CONV13_N_ZERO    	(6)


/* Layer 14 Learned Parameters */
#define CONV14_BIAS \
 {2490, 1565, -1564, 3622, 382, -185, -969, -2635, 6773, 132, 71, 2172, 903, 8963, -5836, 3732, -4570, 385, -197, 10783, 4400, 3259, 2386, 2896, 2974, 1400, 16, 3143, -2349, 3026, 120, 3504, 2393, -3296, -1123, -1199, 8419, 2792, -1764, 2903, 2891, 30, 9290, 579, 3642, -3426, 1539, 84, 916, -745, 532, 3385, 179, -2276, -628, 2466, -2586, -1155, -165, 1172, -2732, -1563, 4068, 723, 162, -540, 42, -1063, 142, -448, 1100, 1186, 175, -15, -230, -1611, 3236, 15, 487, -1335, 575, -1187, -4325, -3145, 773, -103, -2114, -737, 441, 6288, 4748, -407, 24, 2372, 127, 3579, -8, -141, -638, -1134, 943, 608, -100, 3224, 411, -400, 2406, -29, 36, -1578, 2, 2482, 2067, -3845, 1170, 4510, -5, 2457, 2557, 127, -1247, -264, 2900, -609, 3058, 2306, -1112, -1167, -207, 2826, -74, -36, 10515, -5536, -2047, -88, 2206, -1265, 2276, 1381, -90, -626, -47, 47, -108, 1335, -309, 1714, 42, 3353, 1570, 1936, -2317, -1689, -53, -3586, 120, 12546, 3423, -158, 2424, 56, 860, -1523, 182, 460, -38, 482, 47, 603, 462, 699, 5298, -778, -3575, 414, -560, -2779, -98, 528, -4444, -5452, -1573, 635, 9046, 19, 1153, 12, -5499, -258, -632, -297, 3404, 6477, 901, 212, -4803, 566, 247, 8734, 405, 6131, 1247, -191, 4257, -3206, 299, 238, -177, 429, -4687, -885, -1884, -1269, 621, 3038, -1513, 3785, -906, 0, 48, -2852, 646, 414, 2825, 2360, 4557, 1670, -1863, -409, 1681, -153, -4536, 1733, -954, -722, 7671, 301, 1073, 587, -1186, 2925, 1800, 5441, -4716, 1169, 547, 2811, 3157, -2666, 299, -1843, -988, -383, -381, -400, 2525, 132, 387, 60, 174, -4944, -83, -1957, 407, -1589, -2394, 622, -1865, 2680, -1124, 1857, 2589, 11, 1427, 415, 1129, -7585, 1120, 2464, 1467, 121, 15, -1493, -3794, 4963, 1388, 1587, -2282, -226, -35, 1725, 3792, -1464, 8958, -721, -80, 62, 42, -2463, 242, -982, 115, -607, -313, 4106, 2441, 6197, 2848, 2519, 417, -1378, 3011, 2262, 2406, 1220, 97, -95, -486, 400, -1030, 3644, 3611, -2181, -121, -4226, 7419, -866, 3580, 300, -54, -3675, 758, -118, -264, -566, 2581, 4347, -2157, -2144, 2565, -6564, 447, 4444, 2384, 53, -297, -1563, 278, -1201, 7178, -354, -106, 4138, -2619, 585, 1718, 2230, 353, 599, 1614, 3180, -1035, 159, -1067, -2036, -6737, 1177, 47, 97, -213, -508, -3038, -209, 19914, 5880, 2694, -6022, -218, -428, -2212, -792, 2782, 7538, -875, -171, 280, -709, 47, 4259, 2477, -524, 3081, 2573, -8044, 5101, 3385, 131, 4255, 2197, -135, -1562, -2200, -1528, -381, 3790, -1446, 2549, 2368, 3688, -673, 10, 945, 804, 72, -2594, 1115, 31, -50, 14582, -164, 407, 3242, 862, -1887, 3249, 1007, 1452, -1950, 4211, -2942, 1908, -403, -330, -1115, -439, -3086, -50, 1577, 552, 5138, 1269, -877, -134, -467, 233, -890, 4993, -2338, 1017, -192, -431, -79, 1394, -252, 2707, 9025, -756, -2437, -81, -671, 1364, 1492, -208, -1163, 2775, 366, 2805, 340, -3094, -106, 2871, -532, 1389, -41, -108, 1096, -1089, 6402, 1595, 444, 161, -2637, 1822, 6383, 4273, 377, 1572, -822, 103, -44, -1576, -4194, -238, -219, 94, 3268, -1587, 2241, -199, -671, 280, 5123, 7683, 384, 717, -623, 5591, 5390, -2143, 8482, 38}
#define CONV14_WT {0}
#define CONV14_W_Z       	(101)
#define CONV14_IN_Z      	(0)
#define CONV14_OUT_Z     	(0)
#define CONV14_M_ZERO    	(1314699776)
#define CONV14_N_ZERO    	(4)


/* Layer 15 Learned Parameters */
#define CONV15_BIAS \
 {-123, 589, 1048, 305, 322, 749, 812, 567, -93, -337, 146, 121, 261, -688, 180, -157, 601, 1049, 871, 1136, 603, 343, 294, -398, 206, -37, 2163, 1170, 242, -644, 13, -641, 858, 233, 1821, 450, 289, 727, 399, -112, 671, 526, -585, 136, 475, 140, -342, -903, 417, 487, -394, 1251, -880, -1288, 826, 583, 645, -736, 2268, 262, 206, -502, 379, 772, 1823, 100, -89, -305, 191, 11, 224, 507, 305, 28, 1115, 855, 23, 1, 308, 659, 171, 1695, -84, 139, 489, -527, 233, -133, -1024, -42, 742, 1108, 872, -492, 436, 258, 222, 788, 14, 368, 620, 123, -3, 799, 551, 818, -64, 900, -128, 256, -187, -359, -97, 342, -661, 179, 812, 2019, -578, 112, 837, 959, 1934, 689, 267, -178, 32, 158, 1479, -285, 1298, 894, -204, 2916, 867, 222, 93, 528, 52, 1172, 361, 647, 492, 367, 154, 369, 166, 218, 76, -1135, -102, 121, -701, -82, -196, -634, 81, -358, -44, -330, 1115, 1710, -868, 481, -371, 258, 489, 249, 75, 2355, -3, -50, -881, 1531, 540, -90, 1815, -836, 942, -33, 695, -169, -161, 243, 427, 1011, -148, 157, 272, 682, 245, -309, 414, 210, -150, -253, -115, 1135, 749, 786, -494, 144, -725, 158, -348, -92, -174, 630, -180, 77, 428, 1400, 116, 504, -8, -427, -304, -74, 96, 146, 11, 1176, 943, 2147, 1830, -700, 1120, 2917, -404, -208, -53, -575, 257, 945, 363, -65, -4, 843, -254, 579, 679, 155, 593, 3510, 526, 877, 481, 1830, 1023, 1408, 472, -139, 1918, -217, 522, 461, 947, 1024, -240, 1156, -46, 402, -213, 216, 561, 769, 77, -613, -600, 771, 370, 893, 27, 515, 286, 2003, 1319, 77, 235, 305, 596, -257, 134, -21, -258, 450, 384, 762, 842, 273, 1431, 81, 452, -178, 1364, -164, 1810, 962, 299, 461, -724, 306, 1108, -191, 912, -1118, 403, 881, -375, 4, 483, 73, 658, 748, 239, 1224, 736, 524, 635, 14, 284, 353, 1363, 522, 558, 277, 1092, 451, 1288, 715, 157, 731, 1000, -2049, 543, 188, 338, -324, 240, 66, 999, 1854, 32, 779, 845, -264, -76, 224, -124, -1, 451, -12, -17, 1752, -349, 586, 11, 454, 1087, 355, 1006, 1458, 1062, 230, -36, 261, 2154, 46, 429, 985, 719, 815, -636, -311, 1090, -420, -165, -53, 515, 1861, 302, 251, 250, 253, 281, 263, -760, 1060, -24, 1010, 133, -12, 212, -652, 312, -288, 1143, 255, 333, -36, 632, 349, 1284, 1282, -376, 289, 2738, 552, 1, 1130, 737, 19, 2188, 1330, 1090, -416, 626, 38, 497, 1306, 463, 2164, 469, 250, 924, -217, 331, -65, 185, -407, 423, 1010, -890, 226, -176, -413, 1144, 923, 12, 1938, 141, 1735, 376, 912, 984, -407, -88, 2, -118, -371, 423, 89, -297, 445, -933, -711, 101, 464, 887, -91, 704, 376, 1285, -264, -440, 874, -508, 675, -550, -1184, 585, 640, 1380, 690, 819, 402, 1839, 2721, 54, -181, 1007, -210, -108, 518, -142, 1126, 726, 821, 384, 950, 35, 256, 1134, 369, 669, -81, 720, 1077, 1094, -929, 774, 1040, 881, 237, -274, 352, 2025, 656, -221, 197, 365, -427}
#define CONV15_WT {0}
#define CONV15_W_Z       	(8)
#define CONV15_IN_Z      	(0)
#define CONV15_OUT_Z     	(0)
static const int32_t CONV15_M_ZERO[] = 	 {1218011392, 1288386304, 2015576192, 1389384960, 2036507776, 1327893504, 1539213440, 1571806592, 1461072384, 1450044160, 1238475136, 2079252352, 1432002048, 2049486976, 1422990208, 1540869248, 1496533248, 1366244480, 1693692160, 1106630912, 1969953280, 1206346240, 1164683264, 1223995136, 1625972992, 1575882112, 1580721536, 2031730432, 1251284864, 1296014080, 1207950592, 1108684416, 1080862976, 1226582400, 1556167040, 1532442752, 1475900416, 1511928192, 1135392384, 1310112640, 1543239808, 1477543424, 1556405248, 1242824192, 1077343872, 1608930304, 1365918592, 1396229888, 1287902848, 1393405312, 1473883136, 1484332928, 1207678720, 1432140032, 1253720320, 1692316160, 1609908992, 1362939520, 1407413760, 1240397696, 1142960640, 1138017536, 1282436224, 1868804992, 2024321280, 1075269632, 1449672064, 1385350272, 1195017984, 1225403904, 1629409024, 1246006656, 2036768640, 1291220864, 1412239232, 1307906176, 1661756288, 1560894592, 1399434368, 1791768320, 1414470528, 1194434432, 1610627840, 1323123968, 1296260736, 1505990784, 2060595968, 1367756288, 1482106752, 1710304256, 1091155200, 1966019584, 1590712704, 1258694656, 1548112768, 1417003008, 2115820160, 1808220032, 1393793280, 1705049216, 1752235264, 1430906752, 1325337088, 1325196928, 2004971264, 1646592512, 1887322496, 1342497920, 1282900224, 1162407296, 1377344128, 1238061824, 1929423616, 1413550976, 1423445760, 1464587136, 1424274304, 2055052544, 1351635328, 1561742336, 1142967040, 1401459200, 1923017728, 1631058304, 1254304000, 1200966784, 1535024256, 1555931008, 1311708544, 1180395264, 1585029248, 1166071936, 1435444480, 1440415488, 1175603712, 2118258816, 1503926016, 2027357952, 1266068608, 1251975040, 1472655744, 1388519424, 1363992832, 1164004608, 1433774592, 1354759808, 1343381504, 1380653824, 1209388032, 1113512704, 1506755200, 2024267136, 1610266624, 1305783424, 1385992704, 1374332416, 1302866816, 1668070400, 1160425088, 1095567104, 1174510464, 1295085184, 1273383168, 1202507008, 1426122112, 1420815232, 1218407680, 1268740864, 1904086272, 1163745792, 1190103680, 1640453504, 1521236096, 1695219200, 1894422016, 1272030848, 1372826496, 1436967424, 1841411328, 1242950272, 1519368448, 1476943488, 1472370432, 1110602240, 1572418688, 1284031744, 1225356672, 1250843904, 1406104320, 1494520320, 1581349504, 1182812800, 1563054720, 1461976704, 1439355264, 1508516224, 1614581376, 1266358912, 1496698496, 1650474880, 1163610752, 1265721856, 1192608128, 1258351232, 1388120064, 1432170752, 1363351808, 1086095360, 1316405632, 1992307840, 1514761856, 1099078272, 1918279680, 1591254144, 1271258240, 1314262528, 1125874560, 1866758144, 1331699328, 1266695296, 1533245568, 1213677184, 1450521728, 1767718912, 1873890304, 1338222208, 1800703232, 1879805952, 2063616512, 1591788800, 1415868800, 2136110080, 1121786368, 1261993216, 1546970368, 1397255808, 1129889920, 1470017280, 1577879168, 1119170560, 1312052224, 1629951360, 1240044672, 1729840512, 1153305600, 1767816192, 1494423424, 1664916864, 1228621952, 1324737280, 1307821056, 1144062976, 1956164864, 1232259968, 1353706240, 1225075072, 1139861376, 1704635264, 1508801920, 1311003008, 1532826752, 1110707584, 1286765696, 1714988160, 1565440512, 2064535680, 1726923904, 1178531200, 1222729984, 1561354496, 1372220928, 1792650368, 1266465536, 1793316736, 1426097408, 1737974528, 1614357376, 1532473344, 1483794816, 1163883904, 1356858112, 1312804864, 1250809472, 2091264768, 1372071936, 1377009152, 1369223168, 1377614464, 1395333760, 1530267776, 1947218944, 1593088384, 1313721984, 1471184128, 2105440512, 1478612352, 1430896896, 1701493632, 1199035264, 1615394560, 1325390720, 1946449280, 1567977472, 1257704832, 1912463360, 1704867584, 1364756992, 1395130752, 1175372800, 1343280000, 1396957184, 1351287552, 1441751680, 1363924608, 1233074048, 1350184320, 1183393408, 1361962368, 1160499840, 1394754304, 1627033088, 1550929152, 1239279744, 1831810176, 1343510400, 1324133120, 1582785024, 1186120704, 1304801536, 1490343808, 2126278656, 1500879360, 1677329536, 1284239104, 1646945792, 1278361856, 1374808704, 1508627328, 1183493632, 1511113728, 1586513920, 1947472128, 1194123776, 1758158592, 1291094272, 1341604352, 1432880640, 1253885568, 1300871936, 1366708608, 1363778176, 1565874304, 1232643712, 1699660416, 1285315840, 1585798016, 1229609600, 1096462336, 1084968960, 1160229504, 1225533824, 1264609408, 1270626304, 1534194048, 1713596416, 1468156928, 1088084480, 1503598208, 1912000512, 1502622336, 1384605184, 1503579392, 1303929088, 1222164096, 1688986752, 1515442176, 1523149184, 1774363776, 1510480896, 1652214016, 1336316416, 1368662144, 1216521088, 1489248256, 1419458432, 1343526528, 1473076608, 1118646016, 1459664640, 1400403328, 1280305408, 1310676992, 1210291840, 1464633472, 1942285824, 1444767872, 1081510272, 1401449600, 1759630080, 1383764352, 1658620928, 1310781184, 2031727616, 1126046080, 1775680768, 1137604608, 1915345280, 1883824000, 1360571136, 1512235392, 2011500288, 1508964736, 1297344384, 1698366592, 1166490112, 1163205376, 1601110656, 1859328768, 1853379584, 1393645568, 2141456512, 1305967872, 1233367936, 1153350528, 1385925376, 1376537984, 1986793216, 1433972224, 1150962688, 1280415744, 1356716672, 1475412352, 1563595136, 1624359168, 1171353472, 1540182144, 1518201344, 1944369152, 1434900992, 1241705984, 1272347136, 1959640576, 1352004096, 1088056960, 1409363712, 1179580544, 1740687488, 1327237120, 1437757312, 1429974016, 1985235840, 1419427584, 1217223040, 1641888384, 1776468992, 1296868864, 1221644672, 1303027712, 1598585088, 1149580032, 1657641600, 1711898112, 1855147008, 1165157248, 1577884288, 1503499520, 1226877056, 1551288576, 1167232128, 1119233664, 1112092928, 1329389952, 1365421952, 1613941760, 1423052800, 1396417408, 1244560768, 1680517888, 1534282112, 1239506048, 1225649280, 1217295616, 1316654336, 1104910848, 1561587328, 1488994432, 1896587904, 1087778304, 1886816128, 1565398656, 1529132416, 2131573888, 1157322880, 1479137024, 2054297472, 1746433664, 2120411136, 1559313024, 1265499392, 1332811520, 1243092480, 2117645952, 1383006720, 1246592896, 1594896384, 1124740608, 1484319744, 1341622912, 1450651904, 1312392320, 1598844544, 1302585088};
static const int8_t CONV15_N_ZERO[] = 	 {0, 0, 0, 0, 0, 0, 0, 0, 0, 0, 0, 0, 0, 0, 0, 0, 0, 0, 0, 0, 0, 0, 0, 0, 0, 0, 0, 0, 0, 0, 0, 0, 0, 0, 0, 0, 0, 0, 0, 0, 0, 0, 0, 0, 0, 0, 0, 0, 0, 0, 0, 0, 0, 0, 0, 0, 0, 0, 0, 0, 0, 0, 0, 0, 0, 0, 0, 0, 0, 0, 0, 0, 0, 0, 0, 0, 0, 0, 0, 0, 0, 0, 0, 0, 0, 0, 0, 0, 0, 0, 0, 0, 0, 0, 0, 0, 0, 0, 0, 0, 0, 0, 0, 0, 0, 0, 0, 0, 0, 0, 0, 0, 0, 0, 0, 0, 0, 0, 0, 0, 0, 0, 0, 0, 0, 0, 0, 0, 0, 0, 0, 0, 0, 0, 0, 0, 0, 0, 0, 0, 0, 0, 0, 0, 0, 0, 0, 0, 0, 0, 0, 0, 0, 0, 0, 0, 0, 0, 0, 0, 0, 0, 0, 0, 0, 0, 0, 0, 0, 0, 0, 0, 0, 0, 0, 0, 0, 0, 0, 0, 0, 0, 0, 0, 0, 0, 0, 0, 0, 0, 0, 0, 0, 0, 0, 0, 0, 0, 0, 0, 0, 0, 0, 0, 0, 0, 0, 0, 0, 0, 0, 0, 0, 0, 0, 0, 0, 0, 0, 0, 0, 0, 0, 0, 0, 0, 0, 0, 0, 0, 0, 0, 0, 0, 0, 0, 0, 0, 0, 0, 0, 0, 0, 0, 0, 0, 0, 0, 0, 0, 0, 0, 0, 0, 0, 0, 0, 0, 0, 0, 0, 0, 0, 0, 0, 0, 0, 0, 0, 0, 0, 0, 0, 0, 0, 0, 0, 0, 0, 0, 0, 0, 0, 0, 0, 0, 0, 0, 0, 0, 0, 0, 0, 0, 0, 0, 0, 0, 0, 0, 0, 0, 0, 0, 0, 0, 0, 0, 0, 0, 0, 0, 0, 0, 0, 0, 0, 0, 0, 0, 0, 0, 0, 0, 0, 0, 0, 0, 0, 0, 0, 0, 0, 0, 0, 0, 0, 0, 0, 0, 0, 0, 0, 0, 0, 0, 0, 0, 0, 0, 0, 0, 0, 0, 0, 0, 0, 0, 0, 0, 0, 0, 0, 0, 0, 0, 0, 0, 0, 0, 0, 0, 0, 0, 0, 0, 0, 0, 0, 0, 0, 0, 0, 0, 0, 0, 0, 0, 0, 0, 0, 0, 0, 0, 0, 0, 0, 0, 0, 0, 0, 0, 0, 0, 0, 0, 0, 0, 0, 0, 0, 0, 0, 0, 0, 0, 0, 0, 0, 0, 0, 0, 0, 0, 0, 0, 0, 0, 0, 0, 0, 0, 0, 0, 0, 0, 0, 0, 0, 0, 0, 0, 0, 0, 0, 0, 0, 0, 0, 0, 0, 0, 0, 0, 0, 0, 0, 0, 0, 0, 0, 0, 0, 0, 0, 0, 0, 0, 0, 0, 0, 0, 0, 0, 0, 0, 0, 0, 0, 0, 0, 0, 0, 0, 0, 0, 0, 0, 0, 0, 0, 0, 0, 0, 0, 0, 0, 0, 0, 0, 0, 0, 0, 0, 0, 0, 0, 0, 0, 0, 0, 0};


/* Layer 16 Learned Parameters */
#define CONV16_BIAS \
 {1229, -1134, 851, -4342, 4043, 3597, -3519, -2977, 2751, -1116, -622, 4339, 3691, 4192, 78, -1746, -62, 341, 2694, 5628, -7630, -3872, -2321, -2126, 6685, 2916, 9363, 5288, 10, -1269, 971, -2509, -2157, 215, -1505, -2963, -2013, 5068, 677, -1349, -1052, -1644, -719, 3824, -137, 1408, -3272, 899, 3432, -1014, -150, 5383, -2736, 498, -1424, 2805, -62, 4099, 6531, 1820, 3581, -1282, 7088, -447, 6216, 3867, -3031, 4114, -3444, -2977, -119, -2494, 4497, 3110, -2554, 3130, 3255, 1374, 224, 5485, 1645, -2546, 2704, 4416, 2540, -633, -3201, -903, -2338, -727, -359, -3006, 3061, -1586, -1233, -3420, 6997, -2939, -2861, -2357, 2923, -463, 3580, 3890, 8847, 5029, 866, 3628, -3311, -4865, 4211, -748, -1145, -1296, -3588, -1254, 2876, 2310, 3191, 3333, 4237, -2491, -1304, 2131, -1063, -1163, -1513, 3432, 6633, -1253, 2336, 3709, 3937, -4533, -39, 3919, 3716, -7941, -1008, 1012, 4066, 3638, 2949, -3509, -1860, 1632, 1950, 2753, 7420, -1174, -3004, 551, -1236, -209, -1243, -2369, -2264, -1476, -1189, 538, -176, 6659, 1493, -512, -3032, 6188, 3454, -3378, -1479, 1281, -811, -145, -1474, 1295, -326, 1875, 1789, -3173, 6373, -1179, 3971, -248, 562, -1502, 3470, -619, -583, -1867, 49, 2198, 3194, 2052, -1053, 3707, -953, 1520, 2935, 6011, -2508, 5607, -4090, -2574, -1716, 4833, -3161, -640, -1289, -1862, -2850, -3742, 3027, 6992, 4955, 3137, 982, -3398, -4090, 68, -1055, -2407, -2258, 2972, -8198, 4059, 10296, 3483, 4225, 1722, 5901, 1574, -1264, -1695, -1093, -759, -5786, -2645, -98, -1867, -15, -2080, -1465, 758, -3310, -7019, -3767, 1527, -1721, 8734, 252, 5470, -511, 2656, 5937, -578, 3627, 4049, 1858, 560, -1015, 4755, -2209, 1478, 44, -465, -3959, -1243, -3063, -990, -246, -8509, 3338, 2944, 3855, 5140, -2274, -16510, -14887, -1630, -2470, 5163, -865, 3036, -488, 4107, -2474, 2225, 3673, 3705, 4611, 5322, 103, 2864, 3060, -3540, 2082, 179, 2920, 171, 1362, 2673, 1541, 1306, 4846, -2242, 2544, -220, 3444, 4060, -896, 4959, 3167, 3257, 2748, 1755, 4103, 609, 510, -3021, -3980, 7951, -1009, -1581, -1724, 89, 4432, -2093, -2390, -2067, 189, -1970, -1815, -2225, 4920, 1812, -3877, -218, 3413, -484, 1833, -495, 3931, -17786, -2089, 435, 4443, 53, -2908, -2773, 2450, -2652, 3735, -435, -1791, 5918, 3125, 2693, 226, 3831, -7469, -2562, 5949, 7012, -661, 2938, 2555, 2841, 1446, 2816, -2090, 5789, -2284, 3142, -1828, 383, -6125, -808, -1662, -36, 7074, 4973, -3263, 2410, -2097, 2294, -937, 245, -654, 2502, 3246, 2255, -1633, -1546, -2365, -284, 5774, -2719, -578, -2684, 4594, -1813, 4480, 3846, 1930, 6728, -454, -2754, 356, 3010, -1785, 3990, -1187, 3179, 3456, -277, -3068, -81, -1197, 4342, 4333, -3067, 58, 3136, -3374, 2230, 5383, 3603, 2576, 6801, -592, -935, -4857, -2381, -520, -2044, -2931, -2668, -1848, 7845, 4136, 6251, -2317, 1627, -3292, -4585, 939, -1513, 59, -755, 3093, 363, -339, 3501, -837, 5098, -5481, -352, -6298, -1888, 8584, -1233, 1498, -1711, 69, -2212, 2507, -1345, 3128, 6994, -1027, 555, 607, -237, -4128, 4908, -7523, -41, -1237, 209, 4909, -2581, 524, 3481, 884, 1524, -988, 6244, -3390, -243, 2701, 3486, -1561, 3769, -1854, 2879, -3302, 2870, -944, 5009, -3056, -2336, 3180, 2265, -3382, 2187, 2219, 4086, 1449, 5403, -1866, -444, 4300, -2600}
#define CONV16_WT {0}
#define CONV16_W_Z       	(99)
#define CONV16_IN_Z      	(0)
#define CONV16_OUT_Z     	(0)
#define CONV16_M_ZERO    	(1228116096)
#define CONV16_N_ZERO    	(4)


/* Layer 17 Learned Parameters */
#define CONV17_BIAS \
 {470, -475, 296, 315, 854, 94, -522, 280, -38, -14, -584, -740, -364, -269, 659, 1513, 289, -81, -964, -492, -196, -465, -597, 416, 266, 548, -877, 848, -688, -460, -213, -926, -642, 113, 158, 361, -1041, -305, -10, 301, -835, 603, -1240, -369, 2219, -142, -565, -90, -416, 417, -192, -222, -165, 1636, -330, 2002, -461, -150, 350, 106, -558, -1238, -1236, -179, -505, -393, -211, 297, -1318, -394, -538, 351, -338, -576, -373, -967, 607, 214, 99, -155, 167, -746, 103, -315, -486, 243, 142, 868, 969, 687, 260, 88, 171, -326, 423, -1026, -1039, 395, -797, -535, 1455, 225, -189, 563, 129, -116, -248, -166, 349, -690, 470, -22, 225, 826, -101, -129, 874, 518, 48, -534, -50, -1018, -793, -271, -588, 766, 539, 25, 83, 2014, 372, -300, 2, -200, -7, 13, -549, -347, 176, 290, -246, -186, 246, 5, 622, -306, -1585, 1141, 459, 96, 1783, 367, 1426, -225, 254, 24, -98, -765, -1304, -525, 340, 153, -418, -979, -270, 518, 1585, -485, -1029, -550, 1732, 773, -656, -1105, -292, -248, 70, 136, 337, 132, 3668, -198, 318, -95, -42, 530, -87, -723, -250, -187, 425, -1436, -584, 742, 265, 673, 746, 172, -303, -498, 1979, -206, -334, -85, 513, 455, 323, 5, 2434, -923, 1209, 1070, -649, 46, -339, 207, -1195, 610, 94, -1401, 251, 1688, -16, -267, 651, -656, 312, 1515, 508, -582, -262, 115, -75, 214, 308, 1183, 823, 788, 1086, -856, 365, 2150, 88, -722, 627, 1425, -195, 58, 672, 1158, -439, 698, 524, -429, 363, 711, 348, -81, -87, -447, -1239, 544, 554, -183, 189, 395, 276, -1931, -544, -472, -1135, -1146, -168, -429, 857, 31, 715, 33, 65, 516, -771, 650, 66, 54, -105, -681, -870, -931, -475, -41, 378, 645, -471, 1, 323, 461, -456, 1486, 463, 373, -890, -346, 12, 1111, 187, 461, -5, -1858, 486, 622, -431, 647, -266, -389, 382, 86, -142, -110, 733, 234, -290, 454, 157, -103, -20, -294, 585, 290, -1165, 560, 196, 610, -140, 725, 47, 316, 124, -777, -251, -331, -556, 234, 1316, 36, 91, 90, -1075, -85, -202, -1188, 1236, 696, 21, 437, -126, -412, 678, 139, 159, 480, 701, -120, -567, 184, 629, -61, -41, -94, 913, 401, -378, -497, -568, 724, -1298, -878, -57, 80, -90, -282, -483, -144, -110, -58, 578, 9, -989, 338, 691, -222, -760, 1054, -193, -1018, -198, -228, -127, 1967, -956, -1414, 33, 257, -427, 129, -366, -525, -907, 321, 61, 173, -609, -683, 117, 670, -633, -29, -602, 818, -243, -78, 185, 299, 249, 978, -896, -1310, -517, 2258, -82, 209, 292, -206, 667, 404, 191, -39, -54, 205, 819, 470, -405, 109, 107, -104, -6, -549, 319, -70, 728, 594, -9, -221, -140, 774, 1172, -9, 189, -789, -841, -970, 744, 523, -47, 1027, 267, 547, 3, -33, -382, -495, 95, 632, 323, 277, 47, -582, -166, 578, 366, -719, 696, 167, 241, -108, 480, 319, 187, -522, -262, -1045, 525, -400, 201, 252, -264, 273, -526, 938, 250, 187, -555, 544, -112, -539, 1301, 507, 775, 195, -100, 1198, -93, 623}
#define CONV17_WT {0}
#define CONV17_W_Z       	(8)
#define CONV17_IN_Z      	(0)
#define CONV17_OUT_Z     	(0)
static const int32_t CONV17_M_ZERO[] = 	 {1470274944, 1494724480, 1518827776, 1506072704, 1334830464, 1291541120, 1250345344, 1481620864, 2069076352, 1340105984, 1970446720, 1573326592, 1337026688, 1391178112, 1740928640, 1089836672, 1190223872, 1361577856, 1312398720, 1733137280, 1480675840, 1393502720, 1412127616, 1354564096, 1352370688, 1368134656, 1495983360, 1671321344, 1426246784, 1244370560, 1484786944, 1744002048, 1783505152, 1330804480, 1555478656, 1890160128, 1466101760, 1418904448, 1317423744, 1552680704, 1437476864, 1521755776, 1320329856, 1077392128, 2146826240, 1574999808, 1491004544, 1499358848, 1398904192, 1799650432, 1359410176, 1373536640, 1132329472, 1122750464, 1974517120, 1962040704, 1436094976, 1291885312, 1508443136, 1284733568, 1342068608, 1422374400, 1243669376, 1113505408, 1418812544, 1425170432, 1654964352, 1561510784, 1398345216, 1367631616, 1488260480, 2123731200, 1350299392, 1443801600, 1309053056, 1374967168, 1468807808, 1390006272, 1311047680, 1198243712, 1682368384, 1136671616, 1524103808, 1209135872, 1558107904, 2133189760, 1238333312, 2131911040, 1365930240, 1288692096, 1364183040, 1327814656, 1520093952, 1361399168, 1477744512, 1485741184, 1512252032, 1620928128, 1676771328, 1353260288, 1951453824, 1582189824, 1246572928, 2045444224, 1655189248, 1421331072, 1477294336, 1259272960, 1360686976, 1387650432, 1259209472, 1765345920, 1992275456, 1419247488, 1450072832, 2146943488, 1911769728, 1137016832, 1140486784, 1227862016, 1370490368, 1305126784, 1307660928, 1500788096, 1247077760, 1589304960, 1550805888, 1141340416, 1221994624, 1081910400, 1745874176, 2133797888, 1358579456, 1306263936, 1234007168, 1455710464, 1423207936, 1521845760, 1316027392, 1681198848, 1377338240, 1498166912, 1225594240, 1520675840, 1477938176, 1484572032, 1214544896, 1145348608, 1634938368, 1223724288, 2098531072, 1171944192, 2101772416, 1634911872, 1643183232, 1507455488, 1241426304, 1214654208, 1319012608, 1359565056, 1488611840, 1273901312, 1329831040, 1297791488, 1211518336, 1798058624, 1528130048, 1315757824, 2117313792, 1738328704, 1314209536, 1201349760, 1420335616, 1771922432, 1501395328, 1432105856, 1213602176, 1671350400, 1120341376, 1278299520, 1387854080, 1496825088, 1316700672, 1261306752, 2063775104, 1261667456, 1476100608, 1579681920, 1767300096, 1385334912, 1183735808, 1508242816, 1469736960, 1676622720, 1459991936, 1713347456, 1350274432, 1617106304, 1418635648, 1414204288, 1097477376, 1316866048, 1235057408, 1516321920, 1083633024, 1402321152, 1568968192, 1461812224, 1741029376, 1393843712, 1982700544, 1997831168, 1464694656, 1325215488, 1565694208, 1425346560, 1454861056, 1521218560, 1524538624, 1202062464, 1514538624, 2026537344, 1520071424, 1117205504, 1608186496, 1180565120, 1660383744, 2042087040, 1433865088, 1441908864, 1452372224, 1178659712, 1255913216, 1439470336, 1300884096, 1540606336, 1361368064, 1834554752, 1641624448, 1415755520, 1482397568, 1933976704, 1563309312, 1336545792, 1361033344, 2034556928, 1342746496, 1574663040, 2086452352, 1810040704, 1494676480, 1577233792, 1316218496, 1251398016, 1227758336, 1281965568, 1869206656, 1683846144, 1205795712, 1429793536, 1301847424, 1331137664, 1201891456, 1518915072, 1532153728, 1221470592, 1335522304, 1108816128, 1565036416, 2050413568, 1935264256, 1355252224, 1323489024, 1806054784, 1548922880, 1555457792, 1260352000, 1317954944, 1288422528, 1307541120, 1402967680, 1125992192, 1593353984, 1403810304, 1164961920, 1518667648, 1427687040, 1316381824, 1422158976, 1692433024, 1250343936, 1413093632, 1552687488, 2120044544, 1679919232, 1286698368, 1499695104, 1549684480, 1705561088, 1339171200, 1145436288, 1419712000, 1364982144, 2122939520, 1357285888, 1625991424, 1470390400, 1298367616, 1602335104, 1082862976, 1225887488, 1308674816, 1637859072, 1334677760, 1811841408, 1648318080, 1467619584, 1582053760, 2132350336, 1567181184, 1416425344, 1392592512, 1468912768, 1574792832, 1225552128, 1662447104, 1832406656, 1348947584, 1212639360, 1447168768, 1992137088, 1479889536, 1596688640, 1321822336, 1835381632, 2133635200, 2135713792, 1531102080, 1439496064, 1441026432, 1398273024, 1527744512, 1673410176, 1280107264, 1457855616, 1424376064, 1456011008, 1426479104, 2067348736, 1418498560, 1601987840, 1114284800, 1291350656, 1428710912, 1401440256, 1310979712, 1640638592, 1763408000, 1739504256, 1085644672, 1469268992, 1703186176, 1093301248, 1321920512, 1347299072, 1319970048, 1683461504, 1087252224, 1464605824, 1175809280, 1559339648, 1446211328, 1770769152, 2126663808, 1511841536, 1601153152, 1487605120, 1407220992, 1354126464, 1409652736, 1452750720, 1100412416, 1658063872, 1539593344, 1518107008, 1297999872, 1225380480, 1475452672, 1540938752, 1669707520, 1324765312, 1391402368, 1934174848, 1595405312, 1544595840, 1407109376, 1196272512, 1157211520, 1398889984, 1322320256, 1492896512, 1874938624, 1576102784, 1528826752, 1396460928, 1455247488, 1350190848, 2055846912, 1948737920, 1159694464, 1323963008, 1590014336, 1563555456, 1370091008, 1549295616, 1166951936, 1507936640, 1328239744, 1355948928, 1453699968, 1639687424, 1422600448, 1319721728, 1289173760, 1399918336, 1184862720, 1264447232, 1543366656, 1865454848, 1315874816, 1318390016, 1468831744, 1293844352, 1758395008, 1446516736, 2077202560, 1345746816, 1318243072, 2109586944, 1332047488, 1199850624, 1358538112, 1152965760, 1419053184, 1301630208, 1164525568, 1757926016, 1445423744, 1269578752, 1281506560, 2117277312, 1686895360, 1471024256, 1390355456, 1373997184, 1089773440, 1268408576, 1321258880, 1521122944, 1165320960, 1510559744, 1723632768, 1746990080, 1395413376, 1274998272, 1617899136, 1315049728, 1436339200, 1589899520, 1436927488, 1483078656, 1578204288, 1362712576, 1331681664, 1742288000, 1372337920, 1886669312, 1566011392, 1814368256, 1379049600, 1987612288, 2089235712, 1789911552, 1629924992, 2015904768, 1744525440, 1304045312, 1448046592, 1566284800, 1409854208, 1501122304, 1567503360, 1282107008, 1320897664, 1342007040, 1216923392, 1338177664, 1377112704, 1108330112, 1446355968, 1350628864, 1397936384, 1520453248, 1880271616, 1166695424, 1159041280, 1270758272, 1914271360, 1513911296, 1833720320, 1632510464, 1225536128};
static const int8_t CONV17_N_ZERO[] = 	 {0, 0, 0, 0, 0, 0, 0, 0, 0, 0, 0, 0, 0, 0, 0, 0, 0, 0, 0, 0, 0, 0, 0, 0, 0, 0, 0, 0, 0, 0, 0, 0, 0, 0, 0, 0, 0, 0, 0, 0, 0, 0, 0, 0, 0, 0, 0, 0, 0, 0, 0, 0, 0, 0, 0, 0, 0, 0, 0, 0, 0, 0, 0, 0, 0, 0, 0, 0, 0, 0, 0, 0, 0, 0, 0, 0, 0, 0, 0, 0, 0, 0, 0, 0, 0, 0, 0, 0, 0, 0, 0, 0, 0, 0, 0, 0, 0, 0, 0, 0, 0, 0, 0, 0, 0, 0, 0, 0, 0, 0, 0, 0, 0, 0, 0, 0, 0, 0, 0, 0, 0, 0, 0, 0, 0, 0, 0, 0, 0, 0, 0, 0, 0, 0, 0, 0, 0, 0, 0, 0, 0, 0, 0, 0, 0, 0, 0, 0, 0, 0, 0, 0, 0, 0, 0, 0, 0, 0, 0, 0, 0, 0, 0, 0, 0, 0, 0, 0, 0, 0, 0, 0, 0, 0, 0, 0, 0, 0, 0, 0, 0, 0, 0, 0, 0, 0, 0, 0, 0, 0, 0, 0, 0, 0, 0, 0, 0, 0, 0, 0, 0, 0, 0, 0, 0, 0, 0, 0, 0, 0, 0, 0, 0, 0, 0, 0, 0, 0, 0, 0, 0, 0, 0, 0, 0, 0, 0, 0, 0, 0, 0, 0, 0, 0, 0, 0, 0, 0, 0, 0, 0, 0, 0, 0, 0, 0, 0, 0, 0, 0, 0, 0, 0, 0, 0, 0, 0, 0, 0, 0, 0, 0, 0, 0, 0, 0, 0, 0, 0, 0, 0, 0, 0, 0, 0, 0, 0, 0, 0, 0, 0, 0, 0, 0, 0, 0, 0, 0, 0, 0, 0, 0, 0, 0, 0, 0, 0, 0, 0, 0, 0, 0, 0, 0, 0, 0, 0, 0, 0, 0, 0, 0, 0, 0, 0, 0, 0, 0, 0, 0, 0, 0, 0, 0, 0, 0, 0, 0, 0, 0, 0, 0, 0, 0, 0, 0, 0, 0, 0, 0, 0, 0, 0, 0, 0, 0, 0, 0, 0, 0, 0, 0, 0, 0, 0, 0, 0, 0, 0, 0, 0, 0, 0, 0, 0, 0, 0, 0, 0, 0, 0, 0, 0, 0, 0, 0, 0, 0, 0, 0, 0, 0, 0, 0, 0, 0, 0, 0, 0, 0, 0, 0, 0, 0, 0, 0, 0, 0, 0, 0, 0, 0, 0, 0, 0, 0, 0, 0, 0, 0, 0, 0, 0, 0, 0, 0, 0, 0, 0, 0, 0, 0, 0, 0, 0, 0, 0, 0, 0, 0, 0, 0, 0, 0, 0, 0, 0, 0, 0, 0, 0, 0, 0, 0, 0, 0, 0, 0, 0, 0, 0, 0, 0, 0, 0, 0, 0, 0, 0, 0, 0, 0, 0, 0, 0, 0, 0, 0, 0, 0, 0, 0, 0, 0, 0, 0, 0, 0, 0, 0, 0, 0, 0, 0, 0, 0, 0, 0, 0, 0, 0, 0, 0, 0, 0, 0, 0, 0, 0, 0, 0, 0, 0, 0, 0, 0, 0, 0, 0, 0, 0, 0};


/* Layer 18 Learned Parameters */
#define CONV18_BIAS \
 {2336, -784, 2094, -2413, 2933, 2936, -2222, 2979, 4758, -1002, 5387, -2282, -28, -390, -3475, -4406, -1879, -7566, -2358, 3239, 3183, -2634, -57, -1783, 3571, 1421, -940, 5733, -959, -74, -3389, 2126, 790, 2314, 2962, -5466, 4030, 4088, -505, 3069, 1118, -2325, -478, 3236, 10500, 1163, -1369, 4835, -935, 606, 3262, 4307, -736, 4804, 9334, 7365, -3580, -378, 3225, -2444, 2860, 3636, -846, 4349, 2680, 5862, 2702, -2422, 3670, 3146, 2986, -394, -980, -2316, 3388, -1806, 2643, 222, -292, 4182, 4801, -552, -1548, 226, -7, -5612, -17, -4048, 2790, 3654, -3117, -1405, 3556, -3264, 2658, 2621, -967, 1265, 2136, -1328, -3623, -2466, -7857, -499, -649, -2461, -897, 128, -1537, -2450, 3370, -731, -1058, -597, -2755, 3917, 1715, -3917, -2791, 3024, -1269, -1769, -2353, 1473, 3384, 5607, -1383, -296, 3678, 1933, 2861, 5804, -1103, 3186, -722, -1634, -5955, -1451, -2923, 2812, -961, 2909, -3279, 3092, 2798, 3225, -4020, -402, 3632, -3716, -10925, -2453, 559, 1453, -2362, -2154, -1676, -3220, -2130, -1591, -1440, 7735, -2486, 4599, -986, 1895, -613, -1688, 3788, 5444, 6036, -1345, -1977, 1111, 200, -2156, -1895, -2013, 4225, -912, 7981, -4066, 2182, -55, 3857, 3589, -2718, 2795, -3195, 3291, -3597, 4324, -2026, 5350, 3058, 2448, -2362, 3258, 3750, -1690, 3622, -1249, -1637, -5048, 2613, -3258, 2788, -400, 589, -1947, 5153, 4105, -1802, -3189, 786, -1162, -1405, 737, 3618, -1871, -626, 7038, 1384, -1376, 7092, 4891, 5541, 710, -1691, -1187, -574, 3986, -4511, 3038, 2631, -4543, 3396, 4574, 4217, -2526, 6754, -2727, 4973, -881, -2206, 1649, -2835, 3021, 3293, 2328, -833, 2950, 1341, -2610, 3336, 871, 4027, 3588, -2570, -641, -111, -1702, -1909, 2757, 1144, 2440, -1163, -6070, -4067, 4259, -1546, 3235, -2004, 1975, 3624, -2917, -9017, 1056, -157, 2023, -1212, 451, -2532, -7, 4207, -5617, -832, -1303, -1813, 953, 2951, -1771, -2064, -3109, 2484, -2461, -2204, -926, 3408, 3241, -3118, -1708, -3446, 3438, -1823, -6707, 2799, -1930, 3531, 4605, 3394, 188, 4038, 2353, 3135, 2703, 2688, 3249, 6381, 2787, 4026, -3869, 2875, 2373, 2953, 3156, 3335, 3704, -1137, 3311, -1518, 2686, 6516, -806, 1080, 4041, -459, -1142, -425, 1944, -1547, 2926, 4409, -3417, 2602, 2500, -447, -2261, -11376, -2717, 5091, 3219, 1868, -2935, -2036, -1100, -1379, -2414, 2247, -3460, -2065, -1813, -4846, -1607, -1971, -3074, 3236, 7107, 2097, -2908, 2769, -2445, -1106, 3795, -3291, -949, 1244, 1275, 3682, 4053, -1940, -3987, 2776, 40, 3005, -948, -2757, -1371, 1593, -2132, -2716, 4126, -490, -996, 2857, -1771, 3488, 1358, -1394, -695, 2272, 4341, 4382, 3457, 1907, -808, -880, 5213, 4059, -1621, 863, -945, 2660, -990, 1784, -1895, -3574, 665, 2979, -1640, 2268, -2368, -838, -692, -4, -5691, 5171, 465, -2740, -1139, 2981, 3173, 3117, -2223, 3035, 4263, 3319, -613, 1905, 3550, 3341, 847, -113, -1222, 197, 3547, 2151, -2844, -1441, -1248, 3502, -5760, 3129, -2380, 3613, 4651, -888, -2446, -2577, -1362, 1930, 7405, -1819, 4942, -1597, -6677, -1398, -3337, -3059, 3675, 2173, 867, 4683, 777, -1403, -982, -1708, 210, 5780, -544, 688, -1235, 4884, -2960, -5268, 3568, 2289, -2143, 3512, -3721, -2676, -1958, -401, 648, -2772, -1134, 3250, 4715, -7334, 2730, 2896, -1408, -4841, 3466, -2254, 66, 3280, 2674, -1711, 4025, -152, -2079}
#define CONV18_WT {0}
#define CONV18_W_Z       	(107)
#define CONV18_IN_Z      	(0)
#define CONV18_OUT_Z     	(0)
#define CONV18_M_ZERO    	(1164433536)
#define CONV18_N_ZERO    	(4)


/* Layer 19 Learned Parameters */
#define CONV19_BIAS \
 {150, 269, -450, -248, 516, -9, 381, 527, -584, -611, -436, -322, -1324, 152, -818, 199, 263, -207, 12, -626, 64, -21, -125, 440, 421, 828, -476, 376, -364, -658, -545, -44, 721, -213, -312, 465, 125, 563, 675, -87, 318, -103, -154, -230, -485, -307, -186, 170, 78, -944, 668, -779, -29, 839, 1433, 512, 1363, 73, 1175, 225, -160, -235, 256, 92, -785, 419, 836, -74, 771, 215, 687, 266, 248, -658, -745, -85, 1795, -707, 316, 24, 58, 596, 1063, -307, 310, 592, -635, -474, 785, -152, -429, -455, -148, -1635, 246, 286, -524, -221, -188, -306, -55, -492, 431, 1515, -485, -439, 702, 663, 254, 45, 343, 473, -1355, -208, -82, 189, 154, 687, -474, 444, -647, -205, 341, 88, 636, -173, 302, -597, 235, 229, 1293, -167, -246, -636, 204, 253, 424, 341, 65, 389, -208, -466, -204, 524, 1240, 765, 1758, -234, 526, -390, -453, 1301, 550, 58, 206, -312, -15, 74, 289, -173, 861, -966, -397, -451, 525, -450, 281, 357, 1356, 1467, 163, -280, 268, -843, 488, -191, 213, 461, 470, 441, 554, -853, 1656, -911, 515, -54, -546, -790, -420, 852, -1135, 165, 59, 546, 195, 111, -559, -92, 683, 651, 949, -483, -354, -345, 174, -631, -186, -662, -5, 841, 1520, 891, 38, -348, 209, -314, -391, -600, 478, -281, -58, -374, 131, -327, 185, -1158, 246, 133, -414, 49, 226, 42, -708, -294, -43, 267, -170, -289, -24, -377, 287, -439, -756, 1521, 329, 607, -614, 154, 205, -654, 285, -32, -380, -69, 49, 537, 1003, -189, 259, -14, -173, -66, -179, -326, -369, -176, 132, 494, -781, 8, -637, 2222, -237, 979, 23, -733, 57, 737, -342, -395, -44, 61, 554, 324, 100, -370, -772, -335, 117, 723, -323, -500, -193, -514, 519, -259, 9, 112, 158, -28, 321, 258, -316, -425, -9, 34, -365, 862, 496, -643, -104, -608, -1178, 160, -116, 444, 436, -158, -531, -305, -475, 128, 1173, -552, 46, 1386, 321, 280, -181, -112, -215, -35, 860, -18, 1296, 812, 708, -466, -458, 435, 299, 359, 894, 192, 133, 571, 292, 8, 9, 518, -85, -60, 341, 1317, 603, 374, -131, 203, 583, 391, -479, -826, 414, -153, -461, 220, -310, -30, -484, -396, 127, -391, 725, 560, -420, -67, 470, -331, 584, -278, 1110, -255, -203, 994, -423, -214, 604, -213, 1071, -474, 637, -116, -351, 303, 693, 573, 952, 874, 1523, -551, -188, -290, -220, 1151, -52, -501, 540, -10, -213, -304, -63, 451, 309, 707, -508, 86, -181, 324, 137, 143, -102, 49, 681, 1462, -140, 616, 1707, -27, 24, -48, -377, -164, -333, 759, 610, -902, -317, -856, 255, 598, 1209, -137, -393, -70, 450, 441, -761, 244, -677, 71, -328, -197, -197, -284, 266, 379, 248, 202, 542, -270, 595, 18, 1384, 1516, 102, 236, 105, -785, -195, -581, 318, -253, -166, 149, 70, -274, 458, 364, -975, 86, -37, -473, -55, -494, -549, 851, -153, -154, 669, 18, 65, 268, -376, 985, 80, 365, -178, 382, -181, 159, -475, 104, 1085, 727, -93, -129, -362, 393, -51, 837, 436, -667}
#define CONV19_WT {0}
#define CONV19_W_Z       	(8)
#define CONV19_IN_Z      	(0)
#define CONV19_OUT_Z     	(0)
static const int32_t CONV19_M_ZERO[] = 	 {1147376256, 1282293376, 1354140672, 1643374848, 1579935360, 1637923328, 1436554240, 1649558656, 1290528896, 1388165504, 1655747456, 1608251520, 1432066048, 1740877312, 1312102144, 1638720768, 1605013632, 1353569152, 1385146112, 1676444544, 1294935808, 1851981312, 1794509952, 1466350080, 1395943936, 1636977408, 1296846080, 1551087872, 1588407808, 1413549056, 1187419136, 2003419520, 1540598144, 1246088448, 1498382720, 1565930624, 1304550912, 1563678080, 1714294400, 1353288192, 1499786368, 1410003840, 1609625344, 1707696512, 1529508480, 1654387584, 1151583616, 1867011328, 1716409344, 1497076608, 1557489536, 1414142336, 1353954944, 1478539648, 2016510976, 1082819328, 1702638848, 1488826112, 1341510912, 1703758976, 1358692480, 1618122752, 1500047616, 1903672960, 1600686976, 1581266432, 1795070720, 1505639808, 1536523904, 1950178304, 1615244800, 1843278208, 1757509504, 1502129024, 1568294656, 1407800064, 2107724672, 1183445120, 1437117952, 1449614208, 1319128320, 1576822016, 1502283136, 1696185472, 1213813120, 1795505280, 1449920384, 1415043968, 1680981120, 1455309824, 1454064896, 1595951616, 1502365184, 1219568768, 1267888384, 1698486656, 1551743104, 1834380672, 1294061440, 1511124224, 1602116864, 1678352512, 1527298176, 1294129792, 1731837440, 1603529344, 1761576192, 1873922688, 1488938112, 1830492672, 1770064000, 1883853184, 1583994880, 1331180288, 1581127936, 1975435776, 1678728192, 1539255808, 1344988928, 1471978368, 1435593728, 1259892736, 1776732800, 1574329984, 1761996032, 1511902592, 1600156288, 1520591872, 1281463040, 1306855552, 2104389376, 1843484032, 1343360128, 1411868032, 1481791360, 1141233920, 1834652800, 1191685248, 1660455936, 1389057152, 1648202624, 1536171776, 1607933184, 1276344192, 1613988480, 2081843584, 1844594304, 1496200704, 1222917376, 1587308288, 1458980480, 1165411072, 1356226048, 1317184128, 1220564992, 1334425856, 1084819072, 1385080960, 1540562304, 1675190016, 1449853184, 1549181696, 1495674112, 1417627776, 1850289792, 1501087104, 1630238848, 1285704704, 1181880192, 1370546048, 1564966272, 1896507136, 1384416128, 1655092224, 1270997760, 1986760064, 1555030272, 1433896704, 1623329536, 1079801216, 1247922688, 1709368448, 1196638976, 1553194240, 2001199616, 1498825344, 1552992896, 1489370368, 1510265088, 1634414976, 1871232768, 1269380736, 1680235904, 1704446720, 1662617088, 1292965632, 1413896448, 1737014528, 1290703360, 1923002624, 1458532096, 1926892672, 1423307648, 1538950016, 1571074944, 1538747776, 1610322560, 1880962944, 1231948672, 2128954240, 1990269696, 1432693504, 1505947648, 1581333376, 1281142144, 1152391936, 1306390400, 1583655680, 1078874112, 1389169792, 1814792576, 1913245440, 1293101312, 1515854592, 1872597632, 1564999936, 1607025280, 1543323264, 1842090112, 1426384128, 1556946048, 1414654976, 1732289408, 1517623936, 1125324288, 1175106432, 1575613952, 1947379456, 1578542720, 1633162368, 1648165760, 1456325504, 1532941440, 1581246336, 1577745024, 1245294208, 1436030720, 1878386560, 1407417856, 1543035264, 1440596608, 1494479872, 1478836480, 1407660800, 1181603456, 1159087232, 1678919552, 1405758336, 1829978752, 1473938688, 1548318720, 1738280576, 1878574848, 1798791808, 1313532672, 1239817088, 1328000384, 1478410880, 1287617792, 1847367552, 1369512832, 2071539456, 2034256768, 1618049920, 1592257536, 1339884416, 2002200704, 1592866688, 1507904256, 1552756480, 1822052992, 1375415168, 1641112192, 1473486080, 1356354560, 1584751616, 1176001152, 1761850112, 1677317760, 1837285888, 1229559680, 1403716096, 1643312128, 1932920320, 2038669184, 1671546496, 1172840576, 1699486464, 1598855168, 1624551936, 1589044224, 1626780032, 1082709248, 1230314880, 1395588992, 1168925696, 1775849216, 1393500800, 2135916160, 1693340800, 2017386496, 1391589248, 1441183872, 1439320064, 1588471296, 1371969920, 1782265984, 1948212736, 1580533504, 1385061376, 1436168192, 1542390400, 1907241856, 1191849728, 1337564800, 1995117696, 1678235392, 1693778816, 1280755584, 1629860864, 1875511936, 1762165248, 1296130944, 1546464000, 1682872064, 1423336192, 1304462080, 1615048192, 1294416512, 1471633280, 1634381952, 1698586624, 1205967360, 1238773888, 1614602880, 1415541760, 2054166656, 1565269248, 1378308736, 1576188032, 1381445248, 1712585344, 1518386816, 2065803008, 1129151104, 1267057664, 2077205504, 1351883392, 1765235840, 1475602816, 1767034240, 1541076224, 1172961664, 1698985600, 1546627968, 2016711936, 1150771840, 1338593536, 1493044096, 1129234560, 1323175936, 1511655552, 1204764160, 1330304384, 1333168384, 1589855872, 2003318528, 1512631808, 1102524544, 1849319552, 1363058816, 1969961472, 1832896512, 1924793472, 1454765056, 1510731264, 1582865536, 1788746752, 1988676224, 1423649664, 1738127616, 1521980032, 1805548160, 1404918912, 1319313920, 1401734528, 1265045504, 1473998208, 1490429440, 1482751872, 1477348736, 1471607808, 1503822976, 1547026688, 1622461312, 1562725376, 1601027072, 1913632256, 1740759808, 1477683584, 1690970880, 1448948352, 1320422912, 1097751936, 1367223424, 2117394176, 1452900480, 1752566912, 1554345216, 1204619904, 1127784832, 1701283072, 1963673600, 1723498880, 1709098496, 1495960960, 1831861760, 1758543360, 1647761664, 1533596160, 1586989056, 1448652672, 1685985536, 1102993408, 1649604608, 1468146432, 1451464960, 1710425344, 1185029504, 2049540992, 1974211840, 1516552064, 1351953280, 1640723328, 1287152128, 1441747072, 1296123264, 1385844352, 1408087680, 1810314496, 1545093120, 1370405760, 1648294784, 1981496704, 1502403200, 1458220672, 1381833856, 1709994880, 2065206528, 1501873152, 1449605760, 1493884544, 1729459456, 1293814656, 1089674880, 1486611072, 1546196096, 1702632064, 1755568768, 1480450048, 1118578304, 1620210048, 1818084608, 1584234496, 1495220736, 1377628032, 1665056256, 2062996224, 1464120576, 1326069888, 1724510720, 1236930304, 1238619520, 1544770816, 1470056832, 2128668288, 1539379840, 1774555520, 1883415424, 1621733248, 1717506816, 1747556352, 1473352576, 1324657920, 1556988032, 1578420096, 1698515456, 1756631424, 1621393024, 1136365696, 1513471360, 1380561152, 1542963712, 1789391232, 1747290880, 1187935872, 1444871168, 1308376192, 1659698688, 1725079296, 1461729920, 1481250816};
static const int8_t CONV19_N_ZERO[] = 	 {0, 0, 0, 0, 0, 0, 0, 0, 0, 0, 0, 0, 0, 0, 0, 0, 0, 0, 0, 0, 0, 0, 0, 0, 0, 0, 0, 0, 0, 0, 0, 0, 0, 0, 0, 0, 0, 0, 0, 0, 0, 0, 0, 0, 0, 0, 0, 0, 0, 0, 0, 0, 0, 0, 0, 0, 0, 0, 0, 0, 0, 0, 0, 0, 0, 0, 0, 0, 0, 0, 0, 0, 0, 0, 0, 0, 0, 0, 0, 0, 0, 0, 0, 0, 0, 0, 0, 0, 0, 0, 0, 0, 0, 0, 0, 0, 0, 0, 0, 0, 0, 0, 0, 0, 0, 0, 0, 0, 0, 0, 0, 0, 0, 0, 0, 0, 0, 0, 0, 0, 0, 0, 0, 0, 0, 0, 0, 0, 0, 0, 0, 0, 0, 0, 0, 0, 0, 0, 0, 0, 0, 0, 0, 0, 0, 0, 0, 0, 0, 0, 0, 0, 0, 0, 0, 0, 0, 0, 0, 0, 0, 0, 0, 0, 0, 0, 0, 0, 0, 0, 0, 0, 0, 0, 0, 0, 0, 0, 0, 0, 0, 0, 0, 0, 0, 0, 0, 0, 0, 0, 0, 0, 0, 0, 0, 0, 0, 0, 0, 0, 0, 0, 0, 0, 0, 0, 0, 0, 0, 0, 0, 0, 0, 0, 0, 0, 0, 0, 0, 0, 0, 0, 0, 0, 0, 0, 0, 0, 0, 0, 0, 0, 0, 0, 0, 0, 0, 0, 0, 0, 0, 0, 0, 0, 0, 0, 0, 0, 0, 0, 0, 0, 0, 0, 0, 0, 0, 0, 0, 0, 0, 0, 0, 0, 0, 0, 0, 0, 0, 0, 0, 0, 0, 0, 0, 0, 0, 0, 0, 0, 0, 0, 0, 0, 0, 0, 0, 0, 0, 0, 0, 0, 0, 0, 0, 0, 0, 0, 0, 0, 0, 0, 0, 0, 0, 0, 0, 0, 0, 0, 0, 0, 0, 0, 0, 0, 0, 0, 0, 0, 0, 0, 0, 0, 0, 0, 0, 0, 0, 0, 0, 0, 0, 0, 0, 0, 0, 0, 0, 0, 0, 0, 0, 0, 0, 0, 0, 0, 0, 0, 0, 0, 0, 0, 0, 0, 0, 0, 0, 0, 0, 0, 0, 0, 0, 0, 0, 0, 0, 0, 0, 0, 0, 0, 0, 0, 0, 0, 0, 0, 0, 0, 0, 0, 0, 0, 0, 0, 0, 0, 0, 0, 0, 0, 0, 0, 0, 0, 0, 0, 0, 0, 0, 0, 0, 0, 0, 0, 0, 0, 0, 0, 0, 0, 0, 0, 0, 0, 0, 0, 0, 0, 0, 0, 0, 0, 0, 0, 0, 0, 0, 0, 0, 0, 0, 0, 0, 0, 0, 0, 0, 0, 0, 0, 0, 0, 0, 0, 0, 0, 0, 0, 0, 0, 0, 0, 0, 0, 0, 0, 0, 0, 0, 0, 0, 0, 0, 0, 0, 0, 0, 0, 0, 0, 0, 0, 0, 0, 0, 0, 0, 0, 0, 0, 0, 0, 0, 0, 0, 0, 0, 0, 0, 0, 0, 0, 0, 0, 0, 0, 0, 0, 0, 0, 0, 0, 0, 0, 0, 0, 0, 0};


/* Layer 20 Learned Parameters */
#define CONV20_BIAS \
 {1952, 3581, -3264, 3348, 2586, 4654, -1379, -408, -1325, -659, 2931, 4121, -1215, 3211, -38, 2314, -704, -116, -1376, -901, -37, -702, 2433, 2347, -270, 4287, -1500, 2617, 4697, -1789, -1446, 3785, 6051, 2063, -2600, -1020, -743, 2963, 2041, 3147, -1856, -886, -2002, -4138, 3290, 688, 3801, -309, 2694, -2200, 4513, -1094, -883, 988, 2494, 4432, 6588, 3283, -482, 2492, 4020, -1930, 4829, 2421, -2236, 3064, -2985, -1939, 5139, -1868, -4300, 2287, 2348, 271, 2096, -4192, 4483, -911, -2269, 808, -1514, -268, 3338, 667, 682, 2519, -2074, 2980, -816, -1165, 1649, -3120, -2036, -108, 2001, 389, 2845, 3981, -3324, 5427, -3928, -3829, 1369, 9108, -1728, -2710, 2706, 289, 3151, -3263, 2670, -3038, -561, -1281, -164, 3985, 2510, 346, -287, 3920, -1182, 2288, -6126, -2874, -5584, -778, -3533, -484, -376, -2093, 4659, -2128, -630, -1478, 4701, 3208, 3855, 1083, -1287, 2828, -943, -1700, 3030, 6118, 2803, 4696, 7168, -22, -2828, -1098, -1908, 7816, -1885, -1759, -1612, -544, 4474, -3127, -2235, -1223, 4686, 2959, -324, -1799, 2356, -1259, 3009, 3295, 7028, 5972, -278, -1138, -1245, -1626, 3161, 3158, 2455, 3338, 2640, -4215, 4126, -1231, -44, -731, 3177, 3035, 2832, -2506, -1850, -705, -1811, -1589, 2416, -10531, -1965, 5887, 1131, 3139, 3443, 1876, 4749, 3040, 3729, 2840, -2017, -1134, 597, 5037, 5357, 4244, -3537, 3556, 17, -298, -167, -462, 2245, 2698, 3961, 2936, -807, -2317, -839, -2807, -5312, 3165, -920, -517, 3273, -188, 2938, -302, 2422, 3061, 1143, -2063, -2250, -1111, -2758, 1375, -3282, -1364, -2658, 5119, -1319, -190, -529, 3847, 4137, 3365, 4658, 394, -1211, -1375, 3603, -264, 4830, -564, 4761, -1853, -2191, -1348, 4957, -2123, 3383, 1956, -4770, 2556, -1062, 2998, -816, 6127, 4626, 4890, 5849, 3897, 771, 4518, -896, 26, 2614, 4416, 4277, 5341, -966, -1273, -669, 3231, -2644, 4332, 4290, 2756, 1913, 1725, -516, 2801, -3107, 2706, -1820, 174, 3148, -1072, 934, 4048, -1835, -2156, 2851, 3824, 3469, 2627, 2760, -202, -643, 2851, 3047, -1610, 4522, -3317, 2927, 3598, -1290, 4327, -1812, -1781, 3778, 5854, 2511, 1676, -839, -1376, 2351, 5015, 4323, -3198, -3739, 3317, -511, 2658, -1469, 3337, -3162, 3061, 3424, -2043, -1425, -1480, -53, 2832, -496, 4474, 3023, -3255, -2398, 3727, -644, -1564, -4311, 3250, 2032, 2951, 2611, -1022, 3361, 1267, -1483, 4624, -2335, -963, -3372, 3308, -596, -1169, -1135, 1657, -2821, -2252, 4990, 1600, 3372, 2774, 3095, 2470, 4455, -2694, -1225, -2139, -1350, -2350, 5364, -1205, 2782, -482, -2317, -770, -819, 3428, 5282, -6912, 5522, -3751, 3347, -1226, -1182, -2803, 5376, 3028, -1676, -5424, -2038, -662, 5479, -1777, -1577, 3852, 4463, 2742, -1637, 2229, 2523, 1594, 4225, 2572, 4554, 2813, -3841, 3014, 4513, 4050, -1496, 2915, 2946, 3086, 4078, 5504, 2679, -1342, -713, 2447, 3805, 3618, 4242, 3202, -1062, -1487, 3070, 1210, -162, -3569, -1627, 1679, -1211, 4647, -1258, -1773, -1281, -3198, -1008, -1505, 153, 2815, 5141, -918, -73, 3745, 5428, -2036, -2013, 2875, 2398, -3334, -1211, 2823, -4983, 2506, -691, -2056, -3217, 3858, -1547, 2140, -2182, -3631, 3753, 3316, -930, 7171, 2722, -3653, -4570, 2729, -2061, 2816, 2180, 3323, -2691, -2848, 3012, 2460, 2940, 4703, -1213, 659, 2623, 3901, 2595, -1508, -1026, 3508, 2582, 2784, 2928, -990}
#define CONV20_WT {0}
#define CONV20_W_Z       	(119)
#define CONV20_IN_Z      	(0)
#define CONV20_OUT_Z     	(0)
#define CONV20_M_ZERO    	(1181800832)
#define CONV20_N_ZERO    	(4)


/* Layer 21 Learned Parameters */
#define CONV21_BIAS \
 {-714, -95, -1046, -13, 131, -472, 267, -207, -60, 269, 382, -18, -352, 673, 114, 1131, -1174, -97, -560, -6, -149, -474, 536, 1442, -167, 666, -252, -109, -923, -74, 418, -1459, 300, 707, 520, -506, 642, -424, -61, 67, -823, 1973, -1378, 1073, 205, 64, 111, 195, -274, 785, -245, -391, -464, -189, 5, -1056, -179, -868, 407, -165, 504, -560, 208, -969, -182, -432, -331, 494, -223, 813, -173, -306, 933, 1549, 585, -257, 19, -1576, -478, 304, 322, -529, -981, 5, -402, -77, -287, -735, 763, -251, -351, -1400, 1062, -1122, 66, -283, -560, -317, 916, 198, 736, -667, 667, 319, 74, 239, -293, 623, -11, -814, -310, -753, -100, -575, -236, -322, 76, 171, -3, 1318, -434, -539, 294, -5, -893, 202, -514, 128, 341, -304, 91, -428, -948, -242, 778, 150, 1192, 49, -562, -887, -1257, 245, -203, -638, -501, 346, -1047, -1247, 47, -473, -1168, -46, -604, 220, -457, 465, 587, 692, 425, -377, -667, 163, 694, 183, -782, 26, -14, 69, -205, -1021, 475, -512, 784, -626, 396, 1007, 556, -314, -723, -455, -1315, 335, -159, -257, 394, 443, 176, -505, 388, -345, -429, -573, -422, -90, -71, 1083, -463, -1037, -788, -342, 403, 452, 480, -417, 152, 758, -585, -986, 579, -368, -164, -814, -1195, 539, 9, 298, 768, -347, -152, 737, -480, 926, -817, -1125, -640, 1275, -428, -136, -731, 109, -838, -472, 182, 3, -889, 182, 300, -101, 78, 298, -1204, -151, -585, 583, 32, -20, -586, -1128, 587, 160, -1235, 961, -852, 907, -122, -391, -615, -309, 532, -27, -268, 397, -1223, -521, -725, -519, -1265, -102, -1048, 782, -101, -493, -306, 472, -244, 219, -189, 158, 206, -881, -489, 234, -1478, 290, 419, -125, -457, 402, 283, 307, -401, 1121, -32, 537, 229, 197, -685, 395, -451, -908, 115, 1012, -1215, -80, 888, 160, -646, -713, -451, -233, -424, -73, 225, 1061, -596, -307, 145, -116, -26, -67, 1046, 309, -688, 81, -230, -828, -662, -197, -853, -461, -100, 690, 1025, 214, -543, 1064, -410, 541, -48, -680, -26, -1416, -446, -294, 98, -324, -1130, -238, 125, -301, 131, 41, -238, -177, 79, -595, 82, -691, 974, -473, -944, 237, -428, 590, 331, 274, -3, 224, 46, -461, -33, 129, -1065, -193, 16, 465, -543, -922, 304, 183, -870, -1147, -937, -1002, -337, -219, -430, 56, -934, 541, -390, -605, -1255, -935, -147, 845, -666, -565, 187, -1097, -709, -1022, -232, -975, 483, -66, -749, 343, -573, -735, 471, -287, 93, 745, -259, 513, -425, 1352, 116, -291, -182, 691, -387, -497, 116, -451, -409, -301, -234, 566, -444, 152, 287, 553, -874, -150, -504, -1204, 16, -74, -463, 329, 796, 475, 354, -1074, 555, 7, 155, -730, 490, -249, -1456, -384, -490, 1544, 460, -1469, 290, 956, 1041, -1070, -245, -829, -408, -76, -39, -263, -438, -724, -461, -219, -636, 1433, -436, -499, 170, -186, -487, 126, 431, -540, 496, -314, 718, -272, 204, -351, 100, 1080, -304, 27, 114, -1084, -714, -496, -1517, 637, -140, -382, 852, -425, -1189, -1012, -20, -459, 452, -722, 133, -341, -781, -786}
#define CONV21_WT {0}
#define CONV21_W_Z       	(7)
#define CONV21_IN_Z      	(0)
#define CONV21_OUT_Z     	(0)
static const int32_t CONV21_M_ZERO[] = 	 {1441667328, 1170342784, 1504599680, 1327508864, 1229413760, 1412335488, 1360641024, 1591646208, 1827607424, 1496544384, 1815082240, 1461736448, 1479251328, 1567696128, 1854080384, 1651287168, 1407070848, 1330691584, 1496260224, 1863763072, 1430441728, 1451460992, 1882771072, 1306921088, 1363777664, 1479275136, 1685498752, 1326028800, 1381739136, 1415025792, 1195240832, 1358548992, 1298000896, 1786616576, 1893748352, 1239679616, 1243944448, 1571564032, 1561213952, 1774399232, 1385359104, 1290560512, 1078976768, 1096347648, 1287660928, 1776125312, 1731682944, 1871976064, 1261453568, 1422999808, 1607607296, 1829203328, 1435397504, 1641171840, 1792571648, 1276753664, 1868614912, 1334252544, 1641775616, 1527932800, 1442759680, 1308898176, 1670518912, 1401558528, 1752296320, 1307017984, 1349584128, 1713351808, 1659169280, 2032423424, 1475111680, 1205955200, 1177330176, 1514344960, 1594593920, 1602797952, 1789326976, 1303695744, 1709664128, 1174731136, 1954578304, 1679638656, 1268311552, 1533660928, 1536916352, 1430002048, 1548139264, 1426257152, 1659316992, 1552695424, 1227511936, 1235958400, 1409279232, 1381195520, 1083941504, 1145502208, 1630212736, 1259721728, 1697017216, 1307563392, 1590803328, 1542260608, 1804963968, 1534358912, 1891794816, 1441425280, 1336967040, 1369948160, 1481474432, 1593654016, 1424363904, 1391443968, 1592753536, 1109729280, 1411469184, 1398702592, 1247504000, 1890061184, 1470416640, 1121926016, 1242463104, 1403841024, 1199202432, 1361000704, 1408790272, 1538350464, 1329137024, 1326568960, 1518057728, 1143763328, 1619786112, 1211044992, 1392599680, 1468822144, 1868754560, 1484841216, 1113005568, 1576364672, 1506517376, 1409117696, 1395560704, 1954314112, 1296042112, 1285714176, 1467155840, 1503406720, 1573403264, 1398420480, 1219959424, 1600274816, 1374675840, 1373217792, 1366266112, 1615049600, 1553102464, 1591267584, 2134265088, 1296844416, 1463966848, 2070826496, 1456787968, 1742774400, 1576227328, 1445831680, 1301437184, 1268924928, 1699452672, 1256628608, 1895245568, 1457848192, 1801744128, 1701507840, 2001010816, 1612972160, 1421640576, 1668806656, 1996599552, 1484946944, 1365007744, 1487369344, 1341776512, 1600054784, 1387210240, 1302886016, 1195422592, 1678214272, 1636809344, 1507940736, 1819439488, 1788796544, 1620444544, 1933140864, 1614714752, 1915938688, 1734044544, 1912763776, 1683467904, 1367501440, 1283211904, 1684826496, 1436620160, 1571740288, 1439250176, 1668865664, 2113084544, 1649568384, 1311183744, 1648977920, 1693241600, 1535231104, 1311185280, 1267637120, 1110607232, 1539488128, 1466494464, 1771722240, 1887214720, 1268127872, 1132593792, 1125354368, 1709746560, 1938148736, 1670783744, 1275218816, 1159180288, 1356918016, 1426112640, 1886551168, 1517676288, 1332807680, 1684450176, 1787789696, 1528511488, 1331592448, 1548025216, 1344375808, 1219779584, 1656948864, 1480174080, 1715458816, 1515769472, 1577480064, 1433998848, 1535006592, 1753111168, 1507113088, 1491691136, 1434457088, 2116420096, 1573208192, 1367475840, 1595364992, 1535649152, 1706991488, 1274018048, 1335120128, 1315457664, 1364215424, 1654712192, 1147421696, 1848940672, 1438452608, 1405067520, 1713957632, 1180700160, 1366324096, 1204852992, 1406477056, 1266861440, 1583218944, 1427598976, 1643842432, 1317883776, 1752175232, 1186278400, 1450036224, 1402937472, 1788270336, 1432856448, 1272757632, 1468687872, 2098379264, 1415364480, 1844516096, 1703533952, 1645241984, 1528941696, 1713410176, 1631519104, 1420797184, 1793965952, 1573938688, 1659383168, 1510300672, 1394080000, 1583023488, 1477288704, 1788436224, 1610138112, 1092609408, 1630351360, 1468477440, 1307656960, 1597660032, 1728197120, 1559890048, 1583286784, 1620203776, 1151491328, 1444621824, 1557143040, 1671929344, 1519599744, 1703662976, 1707462016, 1736197120, 1871366016, 1117135872, 1894569600, 1976789632, 1729809024, 1616007168, 1456802944, 1150387328, 1350915712, 1117987456, 1197509504, 1540225152, 1489684480, 1178194176, 1092717312, 1604390144, 1574116224, 1887426560, 2096275200, 2084560128, 1419676416, 1853516288, 1670127232, 1812915968, 1678681856, 1367178368, 1721068672, 1838724864, 1308042880, 1417660800, 1516344576, 1798725120, 1690194560, 1461513856, 1522167168, 1590221696, 1567281152, 1407539200, 1076742656, 1429923840, 1161981568, 1526972288, 2022141440, 1395587840, 1386587904, 1710042112, 1426540800, 1664578816, 1667370496, 1576821376, 1241869568, 1982725888, 1607953792, 1398710528, 1699615744, 1608134656, 1433117312, 1409582592, 2131156992, 2102398080, 1248473728, 1407008640, 1127242368, 2147024768, 1563223680, 1676523008, 1761721856, 1709957120, 1377010816, 1450937472, 1659009408, 1653095552, 1593539200, 1148386688, 1538600064, 1546051328, 1465558656, 1417436928, 1535233152, 1808233600, 1195350912, 1666450688, 1697377792, 1498062848, 1699603200, 1484736384, 1833698048, 1203634816, 1472390528, 1664704512, 1598213632, 1486019840, 1438896896, 1703737728, 1523579904, 1308228992, 1485783680, 1229733760, 1784630784, 1767936640, 1609765248, 1508865920, 1458243328, 1670745088, 1604009856, 2024782080, 1153605120, 1199120384, 1683720448, 1637664896, 1550043648, 1419458432, 1565611520, 1751449472, 1848864256, 1207839872, 1981062016, 1352373760, 1600883328, 1649053696, 1749317888, 1580274048, 1699428992, 1489877888, 1617428608, 1766805248, 1358469248, 1882855424, 1678943744, 1201647872, 1141081984, 1389973120, 1874586112, 1523544448, 1461805312, 1310917120, 1192431232, 1725719936, 1732653312, 1954760960, 1098633344, 2010789760, 1510537856, 1506186496, 1275857024, 1569271552, 1474464384, 1397582976, 1561353984, 1329460352, 1993918720, 1178117248, 1309924224, 1432580096, 1668113792, 1840024064, 1342188160, 1737700736, 1284718336, 1476609792, 1461383296, 1659340544, 1672993664, 1547721728, 2042982400, 1319552640, 1455798656, 1719845248, 1336070016, 1407992064, 2094395648, 2065664640, 1674323840, 1588326272, 1515362176, 1485256704, 1641209216, 1207552256, 1247058048, 1239251968, 1256283392, 1717013888, 1600306048, 1656558592, 1718859264, 1583956736, 1378922880, 1569601408, 1646502016, 1311304576, 1274782080, 1502117504, 1753293056, 1446893696, 1421194240, 1507981440};
static const int8_t CONV21_N_ZERO[] = 	 {0, 0, 0, 0, 0, 0, 0, 0, 0, 0, 0, 0, 0, 0, 0, 0, 0, 0, 0, 0, 0, 0, 0, 0, 0, 0, 0, 0, 0, 0, 0, 0, 0, 0, 0, 0, 0, 0, 0, 0, 0, 0, 0, 0, 0, 0, 0, 0, 0, 0, 0, 0, 0, 0, 0, 0, 0, 0, 0, 0, 0, 0, 0, 0, 0, 0, 0, 0, 0, 0, 0, 0, 0, 0, 0, 0, 0, 0, 0, 0, 0, 0, 0, 0, 0, 0, 0, 0, 0, 0, 0, 0, 0, 0, 0, 0, 0, 0, 0, 0, 0, 0, 0, 0, 0, 0, 0, 0, 0, 0, 0, 0, 0, 0, 0, 0, 0, 0, 0, 0, 0, 0, 0, 0, 0, 0, 0, 0, 0, 0, 0, 0, 0, 0, 0, 0, 0, 0, 0, 0, 0, 0, 0, 0, 0, 0, 0, 0, 0, 0, 0, 0, 0, 0, 0, 0, 0, 0, 0, 0, 0, 0, 0, 0, 0, 0, 0, 0, 0, 0, 0, 0, 0, 0, 0, 0, 0, 0, 0, 0, 0, 0, 0, 0, 0, 0, 0, 0, 0, 0, 0, 0, 0, 0, 0, 0, 0, 0, 0, 0, 0, 0, 0, 0, 0, 0, 0, 0, 0, 0, 0, 0, 0, 0, 0, 0, 0, 0, 0, 0, 0, 0, 0, 0, 0, 0, 0, 0, 0, 0, 0, 0, 0, 0, 0, 0, 0, 0, 0, 0, 0, 0, 0, 0, 0, 0, 0, 0, 0, 0, 0, 0, 0, 0, 0, 0, 0, 0, 0, 0, 0, 0, 0, 0, 0, 0, 0, 0, 0, 0, 0, 0, 0, 0, 0, 0, 0, 0, 0, 0, 0, 0, 0, 0, 0, 0, 0, 0, 0, 0, 0, 0, 0, 0, 0, 0, 0, 0, 0, 0, 0, 0, 0, 0, 0, 0, 0, 0, 0, 0, 0, 0, 0, 0, 0, 0, 0, 0, 0, 0, 0, 0, 0, 0, 0, 0, 0, 0, 0, 0, 0, 0, 0, 0, 0, 0, 0, 0, 0, 0, 0, 0, 0, 0, 0, 0, 0, 0, 0, 0, 0, 0, 0, 0, 0, 0, 0, 0, 0, 0, 0, 0, 0, 0, 0, 0, 0, 0, 0, 0, 0, 0, 0, 0, 0, 0, 0, 0, 0, 0, 0, 0, 0, 0, 0, 0, 0, 0, 0, 0, 0, 0, 0, 0, 0, 0, 0, 0, 0, 0, 0, 0, 0, 0, 0, 0, 0, 0, 0, 0, 0, 0, 0, 0, 0, 0, 0, 0, 0, 0, 0, 0, 0, 0, 0, 0, 0, 0, 0, 0, 0, 0, 0, 0, 0, 0, 0, 0, 0, 0, 0, 0, 0, 0, 0, 0, 0, 0, 0, 0, 0, 0, 0, 0, 0, 0, 0, 0, 0, 0, 0, 0, 0, 0, 0, 0, 0, 0, 0, 0, 0, 0, 0, 0, 0, 0, 0, 0, 0, 0, 0, 0, 0, 0, 0, 0, 0, 0, 0, 0, 0, 0, 0, 0, 0, 0, 0, 0, 0, 0, 0, 0, 0, 0, 0, 0, 0, 0, 0, 0, 0, 0};


/* Layer 22 Learned Parameters */
#define CONV22_BIAS \
 {-163, 5219, -1444, -1429, -1370, -60, 6204, -2425, 4121, 4137, 3454, -1076, 3849, -2093, 1688, 3292, -601, 4195, -82, 3325, 5067, -1410, 4697, 8289, 4364, 7643, -336, -90, -746, -3629, 4738, -298, -702, -3663, 1216, -1787, 4361, -775, 3459, -1055, 4233, 5070, -1086, 2447, -925, 3390, 3242, -710, -256, 3547, 3562, 3359, 4454, 3068, -3502, -3350, -262, -1523, 10, -1770, -1724, 5613, -1861, -801, 3300, -132, -5638, 3642, 4186, -6005, -1969, -414, 5316, 3721, 3298, 3551, 3700, -746, 3311, -549, -932, 3822, -25, -2486, 6395, 4067, -1093, -1724, 6650, -2743, -2299, -1311, -4485, -385, 4132, -1602, 4841, -127, 6424, -66, 6137, -921, 6504, 4141, -1780, 3901, -32, -4622, -3929, 1172, -1087, -381, 3348, 4327, 1325, -797, 3486, 5788, -493, 5027, -405, -786, 4629, -1089, -2423, 4535, -409, -816, 4105, 4078, -3408, -41, 2, 5173, 4850, 4430, 14338, 6873, -900, -3331, -1011, 5784, -199, -942, -572, -2168, -1633, -1044, 4108, -2379, -569, 4488, -505, 4298, 3542, 4303, 5304, 2223, 4509, -1910, -1968, 915, -7059, 4743, -1494, -1489, 3667, 3625, 5778, 7046, 3344, 7806, 1116, 3449, -2018, -642, 4178, 4065, -1710, 3733, -65, 3385, 5908, 80, 7798, 3444, 7399, -883, 6109, 3275, 3774, 5330, -631, 3497, 5270, 5688, 3578, -2805, -50, 3643, -567, 4157, 3482, 3213, 5786, 60, -2539, 5249, -4746, 4150, 4465, -376, -2010, -3383, 3818, 1839, 5510, -2083, 5150, 2938, -288, -3749, 1787, -116, -776, 5964, -932, 3350, -1008, -104, 5143, 2143, 3176, -1359, -1513, -5547, -170, 3329, -4582, 5779, 6876, 5248, -1489, 6369, 3425, 3600, 3545, -565, 6541, 4060, -406, 4012, -5140, 5638, 4374, -475, -217, -1191, 6300, -4293, 3432, 6590, -476, 2518, -1442, -720, 4717, -1874, 3119, 4546, 3632, 3441, 6048, 3676, 295, 5070, 4601, 3664, 8227, -1335, 3759, -3514, -386, 3522, 5140, -4746, 3771, 1894, 3599, -2960, -1332, 4867, -3836, 3801, -1545, 2347, -173, 4222, 3578, -244, 6742, 7024, -502, 5654, 6206, -1925, 3669, -2861, -30, -2160, -1475, 3377, 3113, 3551, 3282, 3333, -2296, 50, -1930, 2309, 3965, 3434, -564, 6929, -73, 4910, -1389, 3492, -1518, -1337, -4489, -2248, 7558, 7013, -712, 5215, 3646, 4929, -3831, 6158, 5499, -33, 3575, 6254, -42, 3864, 4074, 3409, 3415, -1946, 2780, -2911, 769, -1192, 3325, 6326, 5053, -1052, 5535, -559, -40, 3540, 4784, 3275, 4166, 4846, -496, -1296, -4399, -171, -819, 4465, -1112, 170, 3443, 1245, -1589, -613, -309, -2082, 663, -5801, 3559, -1334, -193, 3831, -5849, -7, 3484, 5369, 3798, -1195, -824, -1209, -4135, 5856, 583, 3383, 3630, -2617, -1731, -123, 15488, -457, -2663, 4398, -1291, -1027, 4054, -2335, 3793, 4325, -2534, 4729, 3211, -2199, -295, -3500, -5031, 1613, 3712, -1199, -3700, 346, 3714, 6363, 4146, -1209, 3390, -3787, 5966, 5223, -6594, -1664, -2986, 3430, 3604, -3171, -3138, 107, -1335, 4333, 4231, -1341, 4214, -525, -937, -3127, 2947, -729, 4493, -608, -146, 3384, 4526, 9880, 4292, -3064, 3882, 3714, 4669, -2282, -632, -66, 5448, 4551, 4903, -2615, -681, -1056, -2072, 6221, -554, -4402, -678, -3815, -2451, 3230, 3574, 4158, -5934, -439, 4873, -939, -3660, 5941, 5463, -1538, -1965, -4724, -731, 3624, 5172, -854, -1071, 3, -568, 5620, -1844, -707, 5248, 4289, -100, 5772, -3342, -1257, 2214, -946, 3826, 4598, -148, -579}
#define CONV22_WT {0}
#define CONV22_W_Z       	(115)
#define CONV22_IN_Z      	(0)
#define CONV22_OUT_Z     	(0)
#define CONV22_M_ZERO    	(1981842688)
#define CONV22_N_ZERO    	(5)


/* Layer 23 Learned Parameters */
#define CONV23_BIAS \
 {-8304, -33424, -576, -11816, -9216, 13110, -12886, -18212, -9093, 10840, 10640, -5762, -23387, 1570, -12870, -24581, -12394, -5634, -9212, 9176, -10867, -20242, 11825, -21360, -13126, 4099, -4018, -3226, 11858, -9944, 9439, -6184, 11792, -2466, -29122, -903, -1970, 9239, -10684, -28727, -26493, -5705, -18900, 9751, -10764, 1911, -388, 9669, 679, 15609, 1644, -19520, 26574, -10264, -21859, -9079, 16170, -15206, -5496, -10319, -12180, 21224, -12606, -2625, 14680, -25309, 1706, 8431, -25063, 1308, 20490, -14353, -12634, -4423, -9388, -5496, -4467, -27882, -5579, -7712, 15311, -11340, 11079, -3922, -30118, 420, -3917, -2084, -10752, -21577, 8834, 17772, 4357, 4175, -6554, -4583, -30567, -10850, -14792, -11918, -18204, -22315, 15582, -6295, -25108, -8432, -15451, 6405, 7959, -18346, -5294, -25879, -9557, -31065, 2451, -3115, -8752, -179, -14953, -6923, 17672, -9790, 563, 7709, -3143, -17613, -18, -6489, 18006, -28491, -4918, -12066, 2708, -12490, 7784, 3373, 14062, -11778, 17443, 11510, 8423, -4712, -2720, -11725, -6344, 24824, 1513, -14276, 10041, -14606, -5643, 25746, 584, -25715, 3303, -2509, -17401, -356, -13599, -37480, 1289, 4567, -4666, -13153, 8990, 11114, 16316, 11684, -13960, -12187, -5447, 3112, 5628, 3257, -12765, -8860, -5372, 18626, 4695, -22748, 15112, -4503, -6183, 4249, -6803, 6245, -14559, -4789, -6229, -12412, -2513, 15174, -29998, -2128, -5825, -16750, -5163, -8739, -9926, -28016, 10561, -15007, -1666, -8709, -9593, -23429, 9041, -22737, -3312, 6341, -13534, 6209, 2250, -19910, -6787, -28347, -2548, -15748, -14088, -5261, 622, -13139, -24249, -3525, -22368, -25453, -11913, -3614, 16487, -14091, 4138, -24905, -12738, -4228, 22608, 11142, 4333, 2269, -11234, -12768, 2454, 4054, -18846, -42432, -8999, -8514, 2404, 8212, -15965, -16150, -5246, 282, -15795, -21515, -17793, -10963, -5287, -20088, -1761, -7694, -6694, 5222, -11882, 3998, -5530, -9135, -20425, -8251, -912, 14370, 7563, -7789, -8852, -7262, -20659, -4924, -26884, 3806, -14979, -1705, -15320, -12234, -7661, -19010, 10393, 10144, 14026, 15710, -11067, -2127, -2974, -17217, 8047, -7340, -2767, 3642, -14723, 22217, 5829, -19894, 7273, -5095, -14690, -16286, 6154, -17623, -2356, -14487, 23916, -11006, -16091, -7047, -1941, -7547, -2802, 12361, -20428, -13329, -19750, -3334, -24839, -10477, -14461, 10086, 13216, -22207, -13870, -10181, -27345, -17746, 3975, -25329, -11712, -9353, -4143, -37482, -11692, -8644, 16335, 5601, -20635, -3142, -1818, -26585, -24429, 8069, -16002, -26142, -10451, -18296, -6676, 9310, -24408, -25452, -2088, -9761, 20177, -130, 1029, 10115, 261, -9017, -15423, 3317, -13809, -1212, 17684, -8694, -7582, 5981, 233, 10168, -9505, -1380, 9712, -30481, -12661, 14905, -3975, -19164, 2124, 1282, -8602, -10795, -772, -17427, -1420, -18012, -3862, -23371, 4291, -13952, 13615, 4084, -864, -12861, -12913, -11014, -5361, 14325, -11674, 1923, -5715, -30429, -2705, 3857, -28197, -3761, -2911, -10061, -1305, -22317, 15345, -26322, -27824, -16763, -8948, 17387, -5528, -20548, 25505, -24063, -11467, 8181, -2864, 22670, -15934, -10620, 4537, -12089, 1729, -20836, -10283, 8, -17367, 16365, 18968, -22740, -33584, -16812, 12117, -3404, 113, -8090, -458, 6837, 2272, 13730, 3808, 13389, 2316, 2528, -19664, -29825, -12810, -7513, -15515, -6978, -41035, -26583, 8743, -13141, 5614, 1866, -16447, -17993, 323, 865, -27965, -16532, -7588, 2666, -10045, -8747, -6224, -11147, 9, -29655, -4390, -30033, -23144, 2565, -9259, -9203, -16070, -747, 4223, -6662, 5416, -9504, 12881, 12391, -9289, 8716, -9836, -29901, -154, 9889, -15662, -11446, 7959, -14579, 5845, -4648, -20755, -5872, -7521, -6028, -575, 82, -20911, -12326}
#define CONV23_WT {0}
#define CONV23_W_Z       	(149)
#define CONV23_IN_Z      	(0)
#define CONV23_OUT_Z     	(0)
#define CONV23_M_ZERO    	(1291102720)
#define CONV23_N_ZERO    	(6)


/* Layer 24 Learned Parameters */
#define CONV24_BIAS \
 {10089, -28, -37, -24, -41, 2888, -45, -1171, 1864, 23031, 7124, 9259, 69, -35, 15725, 2042, -60, 12029, 12099, 15904, 2356, 15888, 19984, -3459, -30, 16584, -39, 13938, 14016, -104, 19118, -2866, 16179, 16303, -30, 13408, 6582, 11748, -67, -593, -43, 12, -16, 13730, 10793, 6909, 10407, 8481, 13815, 10795, -59, -9, 12694, -246, -33, -55, 15649, 17314, 7563, 66, -167, -2421, -63, -5617, 6572, -178, -98, -2233, -84, 7510, 11720, -14, -151, -63, -120, 471, -52, -96, 10526, -133, 9651, 1334, 11646, 8251, -2909, 7099, 7566, -1714, -101, -34, 19450, 10207, 14692, 12521, 9199, 6809, 23, -174, -4, 708, -43, -5815, 19851, 11776, 10848, 44, 15848, 5783, -147, -236, -67, -655, 10, -81, 7298, 11068, 14465, 8708, -123, -46, 11786, -109, 12269, 5864, 33, -106, 15791, -3400, 4755, -131, -365, -120, -151, -2378, 566, 4173, 14141, -65, -6134, 17214, 15378, -246, 8335, 16109, 14818, 14585, 12662, -170, 16722, -740, -47, -6781, 28, -68, 14566, -1383, -7, -2, -625, 44, 6069, 22296, -203, 14565, 6701, 19506, 4297, 15674, 13834, 14771, -431, -6756, -1076, 11962, 145, 13964, 101, 9275, 15254, -548, 17891, 7733, 12717, 43, -912, 6143, -514, -23, 6616, 13574, 13249, -144, -608, 14396, -116, -546, -23, -23, 13368, -70, 16447, -124, -135, -18, -163, 7528, 9421, -232, 14842, 11816, -32, 6328, 14633, 2360, 11177, -65, 6523, -15, 11787, -131, 7912, 9526, 51, -5690, 3, -47, 225, 14805, 13691, -2902, 6750, -11, 51, 8588, 10071, 8430, -4032, 15446, 446, -191, 16476, 13991, -2835, -1126, 7197, -2233, 10804, 9363, 35, -26, -23, 17376, -93, 14150, 7917, 9291, 6625, 301, 10265, -80, -70, 8359, -44, 7979, 12669, 9431, -64, 120, -5, 3459, 9483, -563, 5120, -82, 51, 15184, 22, 7440, 11191, 4637, -1945, 9014, -120, -40, 23019, 11770, 580, 14965, 7533, -234, 6960, -28, 21900, -96, 8569, 15167, -71, 15173, 7778, 17931, 9760, -81, -78, 13344, 7388, 35, -259, 15550, 10110, -2227, 51, 7537, -100, -2626, 15756, 12445, -90, -730, 7, 14707, -111, 3884, 8042, 19267, 16366, 22, 7917, -8315, 640, -11714, 10856, -50, -62, 1269, 16075, -4068, -207, 70, -38, 10964, -1238, -109, -169, 13911, 14522, 425, -91, -128, -7, 14941, 7248, 16950, -126, -12, 16971, -98, 13318, -6795, 918, 17998, 858, -539, 24, 15253, -57, 7316, 13534, -22, -254, 16599, 22699, 15166, 8441, -14590, 14775, -135, -137, 11636, -97, -8213, -9924, 14980, 15302, -17, 12532, -18, 56, -47, 13375, -2125, -46, -2, 11961, 7212, 7621, -95, -77, -40, 17684, 8716, -3836, 6493, 6723, -77, 2405, -427, -16, 11620, 10046, 6935, -29, -15, -4757, -183, 416, -607, -61, 1127, 13549, -135, 14129, -63, -143, 13403, 7929, 13304, 15762, 7558, 15259, 5747, -64, 11967, 6966, 8549, -102, 6772, 10994, -48, -38, -155, 11225, -956, -55, 14026, 522, -366, 15887, 8419, 8420, 13090, 3479, -6325, -64, -143, 21, -211, -216, -76, -170, -173, -729, -148, 6743, -5, 276, 13295, -390, 17403, -81, -77, -16, -12222, 14760, -351, -4305, -75, 15806, -150, -159, -118, -103, 14069, 16014, -4, 130, -319, 6221, 7299, 15138, 2, 1557, 9890, -5808, 13205, -173, -18, 8245, 5723, 40, -64, 9701, 1700, -32, 14326, 199, 11367, 9413, 11140, 9136, 12728, -1079, -213}
#define CONV24_WT {0}
#define CONV24_W_Z       	(130)
#define CONV24_IN_Z      	(0)
#define CONV24_OUT_Z     	(0)
#define CONV24_M_ZERO    	(1718726528)
#define CONV24_N_ZERO    	(6)


/* Layer 25 Learned Parameters */
#define CONV25_BIAS \
 {-135, -2002, -32, -30, 325, -1045, -1385, -1604, -421, 203, 388, -673, -296, -246, -366, -569, -827, -1074, 987, -517, -1404, -1047, -167, 336, -851, -598, -284, -35, -512, -202, -1067, 1336, -513, -998, -354, -740, -1841, -602, -635, -400, -190, -994, 28, 318, -675, 249, -780, -116, 615, -100, -202, 718, 257, -71, -1099, 47, -416, -336, -173, 1124, -795, 267, -544, -1091, -460, -42, 181, -521, -429, -243, -1855, 217, 10, 157, -24, -449, -817, 233, -246, -285, 183, 157, -279, -931, 682, -620, -340, 133, -559, -761, -483, -699, -235, 297, 183, 594, -1262, -1405, -795, -1024, -176, -207, -546, 328, 263, -384, 525, -239, -554, 269, -21, -433, 0, -328, -382, -304, -505, -1492, -1618, 482, 110, -312, 29, 547, -677, -53, 301, 389, -878, -1005, 639, 144, 250, -38, -790, -185, 9, -645, 818, 813, -380, 401, 157, -384, -1165, 445, -20, 406, -1126, -617, 335, -115, -1058, 452, 191, -1984, 121, -1527, 443, 236, 24, -1271, -1219, 77, -157, -3, 983, 1139, 952, -182, -1450, 977, 551, 731, -888, 31, -711, 174, -275, -1073, 434, -162, 832, 526, 110, -477, -224, -340, 825, 785, -237, -1669, 86, -416, -883, 1014, 1246, -187, -1188, -1360, -1021, -252, 964, 433, -569, 448, -881, 213, -459, -1315, -411, -525, -261, 496, -2351, 167, 540, -811, -356, -1509, 444, -2956, -88, 133, 810, 676, -1813, -760, -518, -219, -304, -297, -1399, 452, -469, 1192, 104, -1018, -507, 425, -500, -1161, -29, 236, -1402, 532, -282, -437, -198, -1091, -797, -561, 480, 28, 150, -331, 554, -274, -718, 685, -447, -845, -1319, -1287, -1190, -560, 981, 179, 819, 437, -973, -538, -927, -75, -897, -1586, 97, 163, 5, -760, 91, -239, -978, -1133, 204, 529, -437, -523, -1381, 183, -112, -728, -126, 70, 260, 40, 152, 239, 625, 230, 143, -49, -1386, -301, 207, -765, -803, 273, 564, -487, 181, -1046, -1463, 421, -595, -280, 184, -306, 1299, 610, -813, 253, -356, 960, -1098, -543, -1313, -474, -83, -434, 473, -52, -1227, 222, 202, -969, 598, 550, -497, -168, -1716, 993, -428, -835, -1282, -765, 350, -140, -1105, -405, -947, -813, -1200, 1121, 689, -868, -1762, -335, -1254, 454, -1407, -1228, -510, -1327, -745, -587, -129, -127, -115, -65, -765, -1093, -309, -691, -317, 406, 1017, -627, -626, 280, -1068, -1486, -657, 13, -121, 455, 544, -162, 827, 178, 533, 727, -1039, 725, 261, 343, -1118, -1511, -130, 129, -91, 48, -663, 709, 804, -30, 466, -480, 236, -1039, 67, -300, -47, 1138, 144, -470, 280, 63, 692, 738, -990, 472, 704, -1092, -614, -630, 20, -282, 173, -48, 245, -661, -249, 530, -682, 111, -1643, 418, 170, 48, -914, -571, -190, -2077, 706, -658, -970, -767, -386, -1536, 1185, 2, -433, 415, -1182, -44, -542, -1395, -646, -1159, 442, -680, 284, -1373, -85, -1430, 151, -612, 210, -958, -739, -392, -551, -44, -354, 317, 805, 193, 85, -849, -665, -44, -760, -1027, -457, -485, -835, 506, 467, 292, -260, -280, -926, 183, -327, -729, 524, 1003, 95, -1192, -646, -642, -1728, -783, 86, -97, -95, -84, 58, -1306, -727, -2003, -753, -48, 974, 240, -566, -417, -806, 165, -890, -582, -509, -370, -1197, 698, -455, -873, -96, -287, 592, -374, -243, -1014, -96, -1849, -528, -941, -1451, 861, 86, -1013, -1805, -520, -1030, -231, -1179, -197, -543, -1581, -1314, 205, -701, 365, -749, -171, 310, -929, 88, -1049, 998, 415, -196, 1014, 189, -679, -421, -550, -124, -821, -301, -849, -182, -777, -37, 576, -702, -214, 676, -915, -261, -148, 250, -724, -461, -1426, -624, 54, -673, -217, -907, -131, -973, 3825, 443, -1340, 277, -1723, -783, -9, -753, -353, -175, 134, -88, -1329, 67, -909, -373, 1051, 282, -1427, 381, -805, -472, 140, -666, 253, -1157, -13, -427, 358, 562, 303, 1375, -933, -109, -584, -1160, -4, -607, -85, 138, -575, -513, -700, 1307, -559, -371, -292, -1020, 742, -16, -460, -1036, -496, -463, 352, -1117, -954, -986, 1150, -981, -287, -520, 93, -633, 568, -146, -299, -1082, -921, 66, -140, -826, 520, -909, -1434, -813, 158, 100, -559, -458, -1281, 89, 636, 393, 421, 247, -1191, -689, -102, -139, -551, -50, -1147, 622, 17, 392, -278, -1622, -52, 899, 168, 446, -1459, 472, -117, 248, 610, 116, -303, 803, 23, -1061, 485, -148, -209, -270, -465, -166, 88, 706, -133, 613, 937, -537, -847, 304, 529, 55, -510, -88, -203, 327, -791, 422, 483, -148, 335, -411, -1003, -610, -695, 149, -427, -118, 583, -615, 36, -1258, 962, -938, -872, -913, -1145, -103, 832, 470, 572, -466, 752, 29, -185, -620, -1012, -1441, -462, -279, -1540, 497, 89, 570, -1288, -895, -766, -578, 220, -391, 119, -880, -637, 2409, 624, 321, -659, -842, -658, -133, 373, -1015, 371, -818, -677, -702, -869, -1623, -718, 226, -1301, -234, 8, -562, -1019, 329, -706, -815, -291, -105, -1039, 26, -202, -154, -153, 34, 344, 8, -863, -399, -1186, 1192, -726, 500, -480, 34, -61, 204, 626, 70, 748, -614, 485, 21, -168, -139, -697, -289, -612, -532, -1300, 294, -340, -55, 300, 190, -500, 116, -748, 122, -1620, -2081, 662, -724, 1009, 239, 598, 955, 495, 478, 476, 212, -1570, -546, 871, 356, -342, 64, -1132, -1543, -995, 177, -318, -305, -624, 321, 239, -509, -986, -147, -450, -253, 691, -1577, -675, -309, -1678, 983, 1843, 446, -99, -2253, -79, 139, 687, 1163, -906, 406, 22, -47, -767, -870, -1270, -201, 87, 20, -311, -2187, -1242, -117, -550, 938, 86, -619, -1279, -631, 388, -357, 243, 167, 104, -9, -726, -551, -488, -458, -264, -439, -536, -554, -796, -485, -138, -1166, 161, -1287, -1319, -1163, 548, 473, 977, -313, 458, -146, 146, -1812, -1459, -1338, 414, -549, 599, -38, -323, 646, 426, 250, 580, -2010, -605, -531, 620, -1164, -341, 357, 672, -855, -585, 150, -273, 370, 527, -1031, -1921, 624, -67, -624, 749, -801, -1413, 1150, -95, 964, 260, -1722, -1037, -169, 263, 299, -1250, 1, -54, -165, -588, -115, -1465, 429, -1169, -676, -640, -1341, -156, 689, 50, -616, -535, -872, -1457, 212, -1146, 23, -1398, 1046, 18, 346, -634, -104, 197, -1200, 586, -650, 338, -893, 45, -470, -669, -1345, -1116, -429, -165, 378, 610, 341, 539, -143, 1426}
#define CONV25_WT {0}
#define CONV25_W_Z       	(7)
#define CONV25_IN_Z      	(0)
#define CONV25_OUT_Z     	(0)
